{"learner":{"attributes":{"best_iteration":"134","best_score":"0.1387885615863681"},"feature_names":["hour_sin","hour_cos","doy_sin","doy_cos","ac_power_on_forecast_issue","cos_zenith","dswrf","t2m","tcc","system_10","system_4","system_50","system_51"],"feature_types":["float","float","float","float","float","float","float","float","float","i","i","i","i"],"gradient_booster":{"model":{"cats":{"enc":[],"feature_segments":[],"sorted_idx":[]},"gbtree_model_param":{"num_parallel_tree":"1","num_trees":"185"},"iteration_indptr":[0,1,2,3,4,5,6,7,8,9,10,11,12,13,14,15,16,17,18,19,20,21,22,23,24,25,26,27,28,29,30,31,32,33,34,35,36,37,38,39,40,41,42,43,44,45,46,47,48,49,50,51,52,53,54,55,56,57,58,59,60,61,62,63,64,65,66,67,68,69,70,71,72,73,74,75,76,77,78,79,80,81,82,83,84,85,86,87,88,89,90,91,92,93,94,95,96,97,98,99,100,101,102,103,104,105,106,107,108,109,110,111,112,113,114,115,116,117,118,119,120,121,122,123,124,125,126,127,128,129,130,131,132,133,134,135,136,137,138,139,140,141,142,143,144,145,146,147,148,149,150,151,152,153,154,155,156,157,158,159,160,161,162,163,164,165,166,167,168,169,170,171,172,173,174,175,176,177,178,179,180,181,182,183,184,185],"tree_info":[0,0,0,0,0,0,0,0,0,0,0,0,0,0,0,0,0,0,0,0,0,0,0,0,0,0,0,0,0,0,0,0,0,0,0,0,0,0,0,0,0,0,0,0,0,0,0,0,0,0,0,0,0,0,0,0,0,0,0,0,0,0,0,0,0,0,0,0,0,0,0,0,0,0,0,0,0,0,0,0,0,0,0,0,0,0,0,0,0,0,0,0,0,0,0,0,0,0,0,0,0,0,0,0,0,0,0,0,0,0,0,0,0,0,0,0,0,0,0,0,0,0,0,0,0,0,0,0,0,0,0,0,0,0,0,0,0,0,0,0,0,0,0,0,0,0,0,0,0,0,0,0,0,0,0,0,0,0,0,0,0,0,0,0,0,0,0,0,0,0,0,0,0,0,0,0,0,0,0,0,0,0,0,0,0],"trees":[{"base_weights":[-1.6312081E-3,1.2938665E-1,-2.0986658E-1,2.303813E-1,-1.7240884E-2,-1.2544383E-1,-2.8183144E-1,2.7506372E-1,1.140479E-1,-1.6704346E-1,6.180248E-2,-6.2264316E-2,-2.1920995E-1,-2.4892403E-1,-3.3237773E-1,1.6177608E-1,3.0393416E-1,1.4184286E-1,1.581641E-2,-2.2739749E-1,-7.43922E-2,-2.1546721E-2,1.165054E-1,-1.3424316E-1,-3.3098585E-3,-2.89987E-1,-1.8611635E-1,-2.8336373E-1,-2.1426338E-1,-3.2616547E-1,-3.4544858E-1,-1.5211062E-1,1.8148911E-1,3.3826363E-1,2.3700382E-1,8.866215E-2,1.7563309E-1,-3.0311368E-2,9.269414E-2,-2.626633E-1,-1.7367822E-1,-1.59385E-1,-3.9907124E-2,-9.972454E-2,3.446401E-2,1.511551E-1,2.4058605E-2,-2.2765787E-1,-1.01927824E-1,-3.312855E-2,1.19361684E-1,-2.99389E-1,-1.5467595E-1,-2.6977086E-1,-1.6857837E-1,-3.1169185E-1,-2.7159625E-1,-1.8532617E-1,-2.9383108E-1,-3.0178645E-1,-1.6821623E-2,-1.7342318E-2,-1.215901E-2,-1.0335701E-2,-1.6946465E-3,1.1606127E-2,5.25384E-3,1.3111259E-2,1.7723894E-2,9.575001E-3,1.5906835E-2,8.845034E-4,6.813401E-3,-1.1170609E-2,9.18742E-3,9.032882E-4,-3.537474E-3,-9.340027E-3,5.506906E-3,-1.6574565E-2,-1.2060599E-2,-1.3826544E-2,-6.6994126E-3,-1.2755506E-2,-5.5060363E-3,8.7057595E-4,-4.054042E-3,-5.3983973E-3,7.7412017E-3,-1.3024781E-3,4.616079E-3,2.291803E-3,9.336258E-3,-2.617749E-3,3.2397285E-3,-1.2146751E-2,-6.9187037E-3,-2.9553876E-3,-7.005705E-3,-6.387607E-3,-4.2636573E-4,4.2393296E-3,7.4954736E-3,-1.6927077E-2,-1.4473272E-2,-8.9140395E-3,-2.284657E-3,-1.3613576E-2,-5.0643287E-3,-9.750264E-3,-6.0564536E-3,-1.6107585E-2,-1.4216393E-2,-1.3872263E-2,-1.1225008E-2,-7.598569E-3,-1.2699082E-2,-1.694764E-2,-1.2596505E-2,-1.6786521E-2,-1.4587963E-2],"categories":[],"categories_nodes":[],"categories_segments":[],"categories_sizes":[],"default_left":[0,0,0,0,0,0,0,0,0,0,0,0,0,0,0,0,0,0,0,0,0,1,0,0,1,0,0,0,0,0,1,0,0,0,0,0,0,0,0,0,0,0,0,0,0,0,1,0,0,0,0,0,1,0,0,0,1,0,0,0,0,0,0,0,0,0,0,0,0,0,0,0,0,0,0,0,0,0,0,0,0,0,0,0,0,0,0,0,0,0,0,0,0,0,0,0,0,0,0,0,0,0,0,0,0,0,0,0,0,0,0,0,0,0,0,0,0,0,0,0,0],"id":0,"left_children":[1,3,5,7,9,11,13,15,17,19,21,23,25,27,29,31,33,35,37,39,41,43,45,47,49,51,53,55,57,59,61,63,65,67,69,71,73,75,77,79,81,83,85,87,89,91,93,95,97,99,101,103,105,107,109,111,113,115,117,119,-1,-1,-1,-1,-1,-1,-1,-1,-1,-1,-1,-1,-1,-1,-1,-1,-1,-1,-1,-1,-1,-1,-1,-1,-1,-1,-1,-1,-1,-1,-1,-1,-1,-1,-1,-1,-1,-1,-1,-1,-1,-1,-1,-1,-1,-1,-1,-1,-1,-1,-1,-1,-1,-1,-1,-1,-1,-1,-1,-1,-1],"loss_changes":[7.561085E2,2.5191306E2,6.499039E1,5.2328674E1,8.217433E1,2.9174377E1,9.526428E0,2.3751404E1,7.6345177E0,1.338681E1,2.0716068E1,1.2496589E1,4.590744E0,4.120819E0,7.203674E-2,9.185341E0,1.3241882E1,3.901863E0,2.1943607E0,2.7032318E0,2.76928E0,7.88965E0,8.78289E0,3.9796276E0,5.92976E0,7.5517654E-1,1.941021E0,5.000458E-1,3.9748611E0,2.8894043E-1,1.7997742E-2,5.610411E-1,5.3651505E0,4.629059E0,7.208336E0,2.8660955E0,4.3545685E0,7.583584E-1,1.1516894E0,1.2104568E0,2.3224716E0,1.2593288E0,1.594426E0,1.5946722E0,3.678631E0,7.465122E0,2.3348653E0,4.3014717E-1,1.6056004E0,3.0344362E0,3.2210255E-1,1.3046646E-1,1.02472186E-1,7.059097E-2,1.3832989E0,5.3806305E-2,2.8121185E-1,2.9063263E0,7.937584E-1,6.2698364E-2,0E0,0E0,0E0,0E0,0E0,0E0,0E0,0E0,0E0,0E0,0E0,0E0,0E0,0E0,0E0,0E0,0E0,0E0,0E0,0E0,0E0,0E0,0E0,0E0,0E0,0E0,0E0,0E0,0E0,0E0,0E0,0E0,0E0,0E0,0E0,0E0,0E0,0E0,0E0,0E0,0E0,0E0,0E0,0E0,0E0,0E0,0E0,0E0,0E0,0E0,0E0,0E0,0E0,0E0,0E0,0E0,0E0,0E0,0E0,0E0,0E0],"parents":[2147483647,0,0,1,1,2,2,3,3,4,4,5,5,6,6,7,7,8,8,9,9,10,10,11,11,12,12,13,13,14,14,15,15,16,16,17,17,18,18,19,19,20,20,21,21,22,22,23,23,24,24,25,25,26,26,27,27,28,28,29,29,30,30,31,31,32,32,33,33,34,34,35,35,36,36,37,37,38,38,39,39,40,40,41,41,42,42,43,43,44,44,45,45,46,46,47,47,48,48,49,49,50,50,51,51,52,52,53,53,54,54,55,55,56,56,57,57,58,58,59,59],"right_children":[2,4,6,8,10,12,14,16,18,20,22,24,26,28,30,32,34,36,38,40,42,44,46,48,50,52,54,56,58,60,62,64,66,68,70,72,74,76,78,80,82,84,86,88,90,92,94,96,98,100,102,104,106,108,110,112,114,116,118,120,-1,-1,-1,-1,-1,-1,-1,-1,-1,-1,-1,-1,-1,-1,-1,-1,-1,-1,-1,-1,-1,-1,-1,-1,-1,-1,-1,-1,-1,-1,-1,-1,-1,-1,-1,-1,-1,-1,-1,-1,-1,-1,-1,-1,-1,-1,-1,-1,-1,-1,-1,-1,-1,-1,-1,-1,-1,-1,-1,-1,-1],"split_conditions":[-5E-1,2.9E1,-2.5881904E-1,-7.0710677E-1,1.3036607E-1,3.3E1,-1.8369701E-16,3.692309E-1,9.25E0,2.7845108E2,-2.5881904E-1,-7.0710677E-1,2.768283E2,-8.660254E-1,1E0,1.0321429E-2,3.625E0,-5E-1,5.8778524E-1,2.217E-2,1.2246469E-16,4.3685E-1,8.853112E-1,2.1868297E-1,3.9543334E-2,5.9825E-1,2.2644089E-1,2.6173666E-1,5.0125E1,2.672757E-3,5.2926666E-1,1E0,6.125E0,-2.5881904E-1,5.7377225E-1,7.014E-1,2.672434E2,1.525E1,4.637633E-3,-5.5958927E-1,-2.5881904E-1,2.8338666E2,8.9375E1,9.9887973E-1,-5E-1,2.5163335E-1,3.4938392E-1,6.875536E-1,4E0,2.7491315E2,3.4561232E-1,2.672434E2,8.189464E-1,5.3073007E-1,-7.0710677E-1,5.383833E-1,5.624833E-1,1E0,2.7845108E2,2.79078E2,-1.6821623E-2,-1.7342318E-2,-1.215901E-2,-1.0335701E-2,-1.6946465E-3,1.1606127E-2,5.25384E-3,1.3111259E-2,1.7723894E-2,9.575001E-3,1.5906835E-2,8.845034E-4,6.813401E-3,-1.1170609E-2,9.18742E-3,9.032882E-4,-3.537474E-3,-9.340027E-3,5.506906E-3,-1.6574565E-2,-1.2060599E-2,-1.3826544E-2,-6.6994126E-3,-1.2755506E-2,-5.5060363E-3,8.7057595E-4,-4.054042E-3,-5.3983973E-3,7.7412017E-3,-1.3024781E-3,4.616079E-3,2.291803E-3,9.336258E-3,-2.617749E-3,3.2397285E-3,-1.2146751E-2,-6.9187037E-3,-2.9553876E-3,-7.005705E-3,-6.387607E-3,-4.2636573E-4,4.2393296E-3,7.4954736E-3,-1.6927077E-2,-1.4473272E-2,-8.9140395E-3,-2.284657E-3,-1.3613576E-2,-5.0643287E-3,-9.750264E-3,-6.0564536E-3,-1.6107585E-2,-1.4216393E-2,-1.3872263E-2,-1.1225008E-2,-7.598569E-3,-1.2699082E-2,-1.694764E-2,-1.2596505E-2,-1.6786521E-2,-1.4587963E-2],"split_indices":[1,8,1,1,4,8,1,4,8,7,0,0,7,0,9,4,8,0,2,4,0,4,5,5,4,4,5,5,8,4,4,9,8,0,2,4,7,8,4,2,0,7,8,2,0,4,4,4,8,7,2,7,4,2,0,4,4,9,7,7,0,0,0,0,0,0,0,0,0,0,0,0,0,0,0,0,0,0,0,0,0,0,0,0,0,0,0,0,0,0,0,0,0,0,0,0,0,0,0,0,0,0,0,0,0,0,0,0,0,0,0,0,0,0,0,0,0,0,0,0,0],"split_type":[0,0,0,0,0,0,0,0,0,0,0,0,0,0,0,0,0,0,0,0,0,0,0,0,0,0,0,0,0,0,0,0,0,0,0,0,0,0,0,0,0,0,0,0,0,0,0,0,0,0,0,0,0,0,0,0,0,0,0,0,0,0,0,0,0,0,0,0,0,0,0,0,0,0,0,0,0,0,0,0,0,0,0,0,0,0,0,0,0,0,0,0,0,0,0,0,0,0,0,0,0,0,0,0,0,0,0,0,0,0,0,0,0,0,0,0,0,0,0,0,0],"sum_hessian":[2.7712E4,1.701E4,1.0702E4,1.0072E4,6.938E3,4.926E3,5.776E3,7.276E3,2.796E3,2.396E3,4.542E3,2.944E3,1.982E3,3.502E3,2.274E3,1.479E3,5.797E3,2.179E3,6.17E2,1.45E3,9.46E2,1.8E3,2.742E3,1.325E3,1.619E3,6.29E2,1.353E3,1.753E3,1.749E3,1.559E3,7.15E2,8.7E1,1.392E3,3.829E3,1.968E3,8.48E2,1.331E3,3.86E2,2.31E2,8.73E2,5.77E2,2.72E2,6.74E2,7.51E2,1.049E3,1.994E3,7.48E2,3.39E2,9.86E2,1.303E3,3.16E2,5.87E2,4.2E1,2.32E2,1.121E3,5.07E2,1.246E3,1.285E3,4.64E2,4.71E2,1.088E3,7.03E2,1.2E1,5.9E1,2.8E1,8.36E2,5.56E2,6.76E2,3.153E3,1.263E3,7.05E2,3.41E2,5.07E2,2.6E1,1.305E3,1.76E2,2.1E2,1.3E1,2.18E2,2.04E2,6.69E2,1.59E2,4.18E2,9.1E1,1.81E2,2.82E2,3.92E2,7.28E2,2.3E1,5.13E2,5.36E2,5.04E2,1.49E3,2.6E2,4.88E2,2.88E2,5.1E1,4.66E2,5.2E2,2.68E2,1.035E3,1.5E2,1.66E2,1.12E2,4.75E2,3.4E1,8E0,2.28E2,4E0,7.18E2,4.03E2,3.59E2,1.48E2,1.104E3,1.42E2,8.67E2,4.18E2,2.2E2,2.44E2,1E2,3.71E2],"tree_param":{"num_deleted":"0","num_feature":"13","num_nodes":"121","size_leaf_vector":"1"}},{"base_weights":[3.513285E-4,-1.9636695E-1,1.2871526E-1,-1.247703E-1,-2.7624786E-1,1.9766845E-1,2.3652954E-4,-1.9778818E-1,-5.3472757E-2,-2.9620215E-1,-2.1386358E-1,1.7626977E-2,2.4883917E-1,7.0655346E-2,-8.178958E-2,-2.7112946E-1,-1.7458314E-1,3.6308526E-3,-1.4190237E-1,-2.7029267E-1,-3.1581748E-1,-1.7601736E-1,-2.527046E-1,-1.8752271E-1,6.1908357E-2,1.9273676E-1,2.8691527E-1,-2.3298098E-1,8.287318E-2,-5.4952443E-2,-1.837874E-1,-3.0583748E-1,-2.260191E-1,-1.8273434E-1,-6.523888E-2,-1.8802626E-1,2.5069417E-2,-2.6541156E-1,-1.1462486E-1,-3.0105385E-1,-2.476643E-1,-3.267021E-1,-3.0664065E-1,-1.440019E-1,-2.414969E-1,-2.552201E-1,4.7590607E-3,-2.4772191E-1,1.2216433E-2,3.3535506E-3,9.88424E-2,9.5653415E-2,2.1951397E-1,2.1685699E-1,3.0759236E-1,-2.9177552E-1,9.164622E-3,1.0754592E-1,1.5050109E-2,-1.4156633E-2,-1.0691027E-1,-1.4659853E-1,-2.453697E-1,-1.574157E-2,-1.153437E-2,-1.2397837E-2,-7.0939437E-3,-7.6467157E-3,-1.0538044E-2,-6.6469755E-4,-9.480564E-3,3.8867097E-3,-1.1086608E-2,-2.763935E-3,2.7117382E-3,-1.507777E-2,-6.932482E-3,-6.690132E-3,3.145976E-3,-1.6195234E-2,-1.4601826E-2,-1.0949918E-2,-1.3657333E-2,-1.6342007E-2,-4.692713E-3,-1.49618555E-2,-1.61488E-2,-4.723391E-3,-1.0996156E-2,-3.3265331E-3,-1.2100787E-2,-1.3978164E-2,-1.2419494E-2,1.9076035E-3,-4.889975E-3,-1.2860096E-2,2.3437997E-4,-3.3587187E-3,5.6253327E-3,-7.690663E-3,1.0833004E-3,2.3223676E-3,7.545316E-3,1.0079057E-2,2.9421952E-3,1.00507885E-2,1.3487245E-2,8.799116E-3,1.232606E-2,1.6626243E-2,1.2388435E-2,4.7559463E-4,-1.4904285E-2,5.669644E-3,-3.3940207E-3,8.061813E-3,4.177236E-3,-4.3445616E-3,1.5876128E-3,-1.5478794E-2,-9.7587465E-5,-6.4885053E-3,-3.980028E-3,-5.6884727E-3,-1.1096596E-2,-1.2333855E-2,7.622853E-4],"categories":[],"categories_nodes":[],"categories_segments":[],"categories_sizes":[],"default_left":[0,0,0,0,0,0,0,0,0,0,1,0,0,0,0,0,0,0,0,0,0,0,0,0,0,0,1,0,0,0,0,0,0,0,0,0,0,0,0,0,0,1,0,0,0,0,0,0,0,0,0,0,0,0,0,0,0,0,0,0,1,0,0,0,0,0,0,0,0,0,0,0,0,0,0,0,0,0,0,0,0,0,0,0,0,0,0,0,0,0,0,0,0,0,0,0,0,0,0,0,0,0,0,0,0,0,0,0,0,0,0,0,0,0,0,0,0,0,0,0,0,0,0,0,0,0,0],"id":1,"left_children":[1,3,5,7,9,11,13,15,17,19,21,23,25,27,29,31,33,35,37,39,41,43,45,47,49,51,53,55,57,59,61,63,65,67,69,71,73,75,77,79,81,83,85,87,89,91,93,95,97,99,101,103,105,107,109,111,113,115,117,119,121,123,125,-1,-1,-1,-1,-1,-1,-1,-1,-1,-1,-1,-1,-1,-1,-1,-1,-1,-1,-1,-1,-1,-1,-1,-1,-1,-1,-1,-1,-1,-1,-1,-1,-1,-1,-1,-1,-1,-1,-1,-1,-1,-1,-1,-1,-1,-1,-1,-1,-1,-1,-1,-1,-1,-1,-1,-1,-1,-1,-1,-1,-1,-1,-1,-1],"loss_changes":[7.0434106E2,6.295688E1,1.4953134E2,3.0236267E1,6.415985E0,1.0118964E2,3.406215E1,4.8370667E0,1.4851537E1,1.9175415E0,1.8150558E0,2.2104654E1,1.8215271E1,1.1790434E1,7.4463863E0,1.0080757E0,1.9337616E0,7.3513436E0,3.8574314E0,1.1122513E0,1.2324524E-1,1.315279E0,4.0405655E-1,5.1974516E0,4.3271613E0,8.976288E0,7.3110046E0,1.7538061E0,5.1038685E0,4.572717E0,1.2625599E0,1.8826675E-1,5.2410984E-1,1.6640396E0,9.8593813E-1,1.6296206E0,3.7734973E0,9.111757E-1,3.2328653E0,5.3359985E-2,6.6189194E-1,1.7242432E-3,5.2108765E-2,1.6151237E0,2.9611588E-3,3.2981873E-2,2.7704425E-2,7.956314E-1,8.117318E-1,2.2338681E0,3.3401136E0,2.9124985E0,2.4657288E0,1.3679848E0,5.779419E0,1.9105148E-1,2.0845391E-1,2.8692017E0,1.39041E0,4.3621206E0,5.821266E-1,8.551836E-1,7.599449E-2,0E0,0E0,0E0,0E0,0E0,0E0,0E0,0E0,0E0,0E0,0E0,0E0,0E0,0E0,0E0,0E0,0E0,0E0,0E0,0E0,0E0,0E0,0E0,0E0,0E0,0E0,0E0,0E0,0E0,0E0,0E0,0E0,0E0,0E0,0E0,0E0,0E0,0E0,0E0,0E0,0E0,0E0,0E0,0E0,0E0,0E0,0E0,0E0,0E0,0E0,0E0,0E0,0E0,0E0,0E0,0E0,0E0,0E0,0E0,0E0,0E0,0E0,0E0,0E0],"parents":[2147483647,0,0,1,1,2,2,3,3,4,4,5,5,6,6,7,7,8,8,9,9,10,10,11,11,12,12,13,13,14,14,15,15,16,16,17,17,18,18,19,19,20,20,21,21,22,22,23,23,24,24,25,25,26,26,27,27,28,28,29,29,30,30,31,31,32,32,33,33,34,34,35,35,36,36,37,37,38,38,39,39,40,40,41,41,42,42,43,43,44,44,45,45,46,46,47,47,48,48,49,49,50,50,51,51,52,52,53,53,54,54,55,55,56,56,57,57,58,58,59,59,60,60,61,61,62,62],"right_children":[2,4,6,8,10,12,14,16,18,20,22,24,26,28,30,32,34,36,38,40,42,44,46,48,50,52,54,56,58,60,62,64,66,68,70,72,74,76,78,80,82,84,86,88,90,92,94,96,98,100,102,104,106,108,110,112,114,116,118,120,122,124,126,-1,-1,-1,-1,-1,-1,-1,-1,-1,-1,-1,-1,-1,-1,-1,-1,-1,-1,-1,-1,-1,-1,-1,-1,-1,-1,-1,-1,-1,-1,-1,-1,-1,-1,-1,-1,-1,-1,-1,-1,-1,-1,-1,-1,-1,-1,-1,-1,-1,-1,-1,-1,-1,-1,-1,-1,-1,-1,-1,-1,-1,-1,-1,-1],"split_conditions":[3.823E2,-2.5881904E-1,-7.0710677E-1,2.262E2,2.367E2,2.9525894E-1,-5E-1,7.82E1,4.0216795E-1,-1.8369701E-16,1.1523214E-2,2.217E-2,-4.7495106E-1,4.637633E-3,-2.5881904E-1,9.2008926E-2,7.123364E-1,2.702707E2,1.49598215E-2,1.11E2,1.21E2,1E0,6.687E-1,2.7521558E2,1.3585E-1,8.73E2,4.855028E-1,2.7545886E2,3.0022073E2,1.0686E-1,3.139E-2,9.946708E-1,2.921867E2,2.537215E-1,2.9350598E2,2.4990255E-1,4.2110088E-1,2.826277E2,9.0150166E-1,4.81E1,3.506779E-3,8.294881E-1,1E0,1E0,-9.9966663E-1,2.646E2,9.14128E-1,9.8292655E-1,5.98E2,2.6887405E2,-2.843592E-1,8.1269443E-1,1.002E3,5.95E2,-8.660254E-1,3.717338E-1,6.2876284E-1,5.6300884E-1,5.778E2,2.7430344E2,6.1024106E-1,1E0,6.361333E-1,-1.574157E-2,-1.153437E-2,-1.2397837E-2,-7.0939437E-3,-7.6467157E-3,-1.0538044E-2,-6.6469755E-4,-9.480564E-3,3.8867097E-3,-1.1086608E-2,-2.763935E-3,2.7117382E-3,-1.507777E-2,-6.932482E-3,-6.690132E-3,3.145976E-3,-1.6195234E-2,-1.4601826E-2,-1.0949918E-2,-1.3657333E-2,-1.6342007E-2,-4.692713E-3,-1.49618555E-2,-1.61488E-2,-4.723391E-3,-1.0996156E-2,-3.3265331E-3,-1.2100787E-2,-1.3978164E-2,-1.2419494E-2,1.9076035E-3,-4.889975E-3,-1.2860096E-2,2.3437997E-4,-3.3587187E-3,5.6253327E-3,-7.690663E-3,1.0833004E-3,2.3223676E-3,7.545316E-3,1.0079057E-2,2.9421952E-3,1.00507885E-2,1.3487245E-2,8.799116E-3,1.232606E-2,1.6626243E-2,1.2388435E-2,4.7559463E-4,-1.4904285E-2,5.669644E-3,-3.3940207E-3,8.061813E-3,4.177236E-3,-4.3445616E-3,1.5876128E-3,-1.5478794E-2,-9.7587465E-5,-6.4885053E-3,-3.980028E-3,-5.6884727E-3,-1.1096596E-2,-1.2333855E-2,7.622853E-4],"split_indices":[6,1,1,6,6,4,1,6,5,1,4,4,3,4,1,4,4,7,4,6,6,9,4,7,4,6,4,7,7,4,4,3,7,5,7,5,3,7,3,6,4,4,9,10,3,6,2,2,6,7,3,5,6,6,1,5,2,5,6,7,4,9,4,0,0,0,0,0,0,0,0,0,0,0,0,0,0,0,0,0,0,0,0,0,0,0,0,0,0,0,0,0,0,0,0,0,0,0,0,0,0,0,0,0,0,0,0,0,0,0,0,0,0,0,0,0,0,0,0,0,0,0,0,0,0,0,0],"split_type":[0,0,0,0,0,0,0,0,0,0,0,0,0,0,0,0,0,0,0,0,0,0,0,0,0,0,0,0,0,0,0,0,0,0,0,0,0,0,0,0,0,0,0,0,0,0,0,0,0,0,0,0,0,0,0,0,0,0,0,0,0,0,0,0,0,0,0,0,0,0,0,0,0,0,0,0,0,0,0,0,0,0,0,0,0,0,0,0,0,0,0,0,0,0,0,0,0,0,0,0,0,0,0,0,0,0,0,0,0,0,0,0,0,0,0,0,0,0,0,0,0,0,0,0,0,0,0],"sum_hessian":[2.7891E4,1.1013E4,1.6878E4,5.809E3,5.204E3,1.0983E4,5.895E3,2.869E3,2.94E3,3.94E3,1.264E3,2.431E3,8.552E3,3.172E3,2.723E3,6.87E2,2.182E3,1.787E3,1.153E3,1.704E3,2.236E3,6.43E2,6.21E2,4.31E2,2E3,3.46E3,5.092E3,1.22E2,3.05E3,2.157E3,5.66E2,3.85E2,3.02E2,2.03E3,1.52E2,1.79E2,1.608E3,2.07E2,9.46E2,7.17E2,9.87E2,1.007E3,1.229E3,4.34E2,2.09E2,6.15E2,6E0,3.31E2,1E2,7.74E2,1.226E3,7.49E2,2.711E3,1.163E3,3.929E3,9.8E1,2.4E1,2.236E3,8.14E2,1.209E3,9.48E2,3.55E2,2.11E2,3.41E2,4.4E1,2.38E2,6.4E1,9.87E2,1.043E3,1.08E2,4.4E1,2E1,1.59E2,4.28E2,1.18E3,1.6E2,4.7E1,8.54E2,9.2E1,1.93E2,5.24E2,4.69E2,5.18E2,1.006E3,1E0,8.59E2,3.7E2,2.64E2,1.7E2,1E0,2.08E2,1.26E2,4.89E2,5E0,1E0,3.19E2,1.2E1,5.6E1,4.4E1,8E1,6.94E2,6.12E2,6.14E2,1.92E2,5.57E2,1.985E3,7.26E2,4.92E2,6.71E2,2.77E3,1.159E3,2E0,9.6E1,1E1,1.4E1,6.89E2,1.547E3,1.14E2,7E2,4.7E1,1.162E3,5.14E2,4.34E2,2.49E2,1.06E2,2.1E2,1E0],"tree_param":{"num_deleted":"0","num_feature":"13","num_nodes":"127","size_leaf_vector":"1"}},{"base_weights":[-9.866309E-4,-1.8713912E-1,1.2136505E-1,-1.19214974E-1,-2.6387367E-1,1.8838611E-1,-5.548533E-4,-2.973818E-2,-1.7849316E-1,-2.8248876E-1,-2.061128E-1,2.7730376E-1,9.090871E-2,6.838661E-2,-8.053175E-2,-1.5566085E-1,2.3271753E-2,-2.4686843E-1,-1.4526883E-1,-2.592066E-1,-2.9988644E-1,-2.4112657E-1,-1.7010018E-1,3.0531752E-1,2.322226E-1,-1.8299486E-1,1.07959695E-1,1.402465E-1,-1.0247579E-2,-1.3736269E-1,-3.4401722E-2,-2.1880645E-1,-9.899113E-2,-8.0759935E-2,5.6952227E-2,-2.7443123E-1,-1.7491692E-1,-1.884556E-1,-1.1129901E-1,-2.2375822E-1,-2.806963E-1,-1.5446928E-2,-2.9018784E-1,-1.3322266E-2,-2.338161E-1,-1.4140409E-1,-2.2890924E-1,2.653288E-1,3.3659115E-1,2.5471407E-1,1.8038929E-1,-1.52889285E-2,-1.3528201E-1,5.576699E-2,1.4262258E-1,9.1084614E-2,1.682335E-1,-1.7902361E-1,8.2298927E-4,-2.3318672E-1,-1.1634251E-1,-1.1672993E-3,-1.3899188E-1,-1.1079036E-2,-1.6957471E-3,-6.3086203E-3,-2.00327E-3,-6.2463563E-3,-1.5161616E-3,4.945774E-3,-3.8912505E-4,-1.4344704E-2,-1.2378297E-2,-9.901361E-3,2.7926841E-3,-1.0653356E-2,-6.225569E-3,-7.642401E-3,-1.957444E-3,-1.3225654E-2,-9.19086E-3,-1.54046295E-2,-1.3164333E-2,-1.4763708E-2,-1.3527477E-2,-1.2179656E-2,-1.0573691E-2,-8.107655E-3,-4.494859E-3,-3.2433697E-3,-1.1469889E-2,1.4184325E-2,1.015277E-2,-8.140719E-3,1.704002E-2,-1.514925E-3,1.2889028E-2,1.05618965E-2,3.8728744E-3,-9.703571E-3,-5.870838E-4,-5.4433226E-4,5.533238E-3,3.0562992E-3,9.950576E-3,1.932057E-3,5.953142E-3,-2.2252789E-3,8.9278845E-3,-1.4078026E-2,-2.2684666E-3,-1.9302355E-3,3.2038775E-3,-3.3337534E-3,-1.1758616E-2,-3.0597323E-3,-7.608489E-3,-1.4014832E-2,4.934256E-4,-5.248779E-3,-1.0775122E-2],"categories":[],"categories_nodes":[],"categories_segments":[],"categories_sizes":[],"default_left":[0,0,0,0,0,0,0,0,0,0,0,0,0,0,0,0,0,0,0,0,0,0,0,0,0,0,0,0,0,0,0,0,0,0,0,0,0,0,0,0,0,0,0,0,0,0,0,0,0,0,0,0,0,0,0,0,0,0,0,0,0,0,0,0,0,0,0,0,0,0,0,0,0,0,0,0,0,0,0,0,0,0,0,0,0,0,0,0,0,0,0,0,0,0,0,0,0,0,0,0,0,0,0,0,0,0,0,0,0,0,0,0,0,0,0,0,0,0,0,0,0],"id":2,"left_children":[1,3,5,7,9,11,13,15,17,19,21,23,25,27,29,31,33,35,37,39,41,43,45,47,49,51,53,55,57,59,61,63,65,67,69,71,73,75,77,79,81,-1,83,-1,85,87,89,91,93,95,97,-1,99,101,103,105,107,109,111,113,115,117,119,-1,-1,-1,-1,-1,-1,-1,-1,-1,-1,-1,-1,-1,-1,-1,-1,-1,-1,-1,-1,-1,-1,-1,-1,-1,-1,-1,-1,-1,-1,-1,-1,-1,-1,-1,-1,-1,-1,-1,-1,-1,-1,-1,-1,-1,-1,-1,-1,-1,-1,-1,-1,-1,-1,-1,-1,-1,-1],"loss_changes":[6.33038E2,5.7421875E1,1.3703932E2,3.1017921E1,5.5060425E0,9.377405E1,3.281217E1,1.5570078E1,7.9560547E0,1.5064697E0,1.5540695E0,7.075836E0,2.413731E1,1.8060898E1,7.217819E0,2.451044E0,5.7578993E0,2.2306824E0,3.455925E0,1.2169647E0,1.06292725E-1,5.5973053E-2,1.0257511E0,4.271515E0,2.4873505E0,1.733717E0,8.788136E0,2.2824173E0,2.8532653E0,2.4584427E0,5.2902994E0,1.5970421E-1,5.8115864E-1,8.91726E-1,3.371921E0,2.0653534E-1,1.7230091E0,1.6133347E0,3.9780483E0,9.915371E-1,4.158783E-1,0E0,2.9388428E-2,0E0,5.85804E-2,4.3855953E-1,1.4677048E-3,1.697197E0,4.160904E0,1.3301544E0,2.0825157E0,0E0,1.5955515E0,7.107246E0,1.3411308E1,8.875027E-1,2.3426762E0,1.2754488E0,3.578843E0,5.7388306E-2,1.9941473E0,3.56373E0,9.325347E-1,0E0,0E0,0E0,0E0,0E0,0E0,0E0,0E0,0E0,0E0,0E0,0E0,0E0,0E0,0E0,0E0,0E0,0E0,0E0,0E0,0E0,0E0,0E0,0E0,0E0,0E0,0E0,0E0,0E0,0E0,0E0,0E0,0E0,0E0,0E0,0E0,0E0,0E0,0E0,0E0,0E0,0E0,0E0,0E0,0E0,0E0,0E0,0E0,0E0,0E0,0E0,0E0,0E0,0E0,0E0,0E0,0E0,0E0],"parents":[2147483647,0,0,1,1,2,2,3,3,4,4,5,5,6,6,7,7,8,8,9,9,10,10,11,11,12,12,13,13,14,14,15,15,16,16,17,17,18,18,19,19,20,20,21,21,22,22,23,23,24,24,25,25,26,26,27,27,28,28,29,29,30,30,31,31,32,32,33,33,34,34,35,35,36,36,37,37,38,38,39,39,40,40,42,42,44,44,45,45,46,46,47,47,48,48,49,49,50,50,52,52,53,53,54,54,55,55,56,56,57,57,58,58,59,59,60,60,61,61,62,62],"right_children":[2,4,6,8,10,12,14,16,18,20,22,24,26,28,30,32,34,36,38,40,42,44,46,48,50,52,54,56,58,60,62,64,66,68,70,72,74,76,78,80,82,-1,84,-1,86,88,90,92,94,96,98,-1,100,102,104,106,108,110,112,114,116,118,120,-1,-1,-1,-1,-1,-1,-1,-1,-1,-1,-1,-1,-1,-1,-1,-1,-1,-1,-1,-1,-1,-1,-1,-1,-1,-1,-1,-1,-1,-1,-1,-1,-1,-1,-1,-1,-1,-1,-1,-1,-1,-1,-1,-1,-1,-1,-1,-1,-1,-1,-1,-1,-1,-1,-1,-1,-1,-1],"split_conditions":[3.823E2,-2.5881904E-1,-7.0710677E-1,3.9625E1,2.367E2,1.0625E1,-5E-1,-7.0710677E-1,1.469E2,-1.8369701E-16,-8.660254E-1,-8.660254E-1,2.702707E2,9.25E0,-7.0710677E-1,1.386E2,1.859E2,2.8397385E2,2.7887064E2,1.8625E1,1.349E2,2.646E2,1E0,-3.4964746E-1,1E0,4.520722E-1,-4.5973274E-1,-5E-1,2.7180475E2,-8.660254E-1,9.659258E-1,2.970279E2,4.975133E-1,2.7491315E2,3.375E0,1.018E2,8.543222E-1,8.429415E-1,4.2110088E-1,-8.660254E-1,2.7832303E2,-1.5446928E-2,1E0,-1.3322266E-2,1E0,1E0,-9.9966663E-1,4E0,2.6837488E2,2.6958795E2,3.017546E2,-1.52889285E-2,2.6887405E2,8.77E2,5.89E2,-6.4534813E-1,2.7504587E2,4.0542573E-1,-5E-1,-4.6355027E-1,8.125E0,2.7430344E2,1E0,-1.1079036E-2,-1.6957471E-3,-6.3086203E-3,-2.00327E-3,-6.2463563E-3,-1.5161616E-3,4.945774E-3,-3.8912505E-4,-1.4344704E-2,-1.2378297E-2,-9.901361E-3,2.7926841E-3,-1.0653356E-2,-6.225569E-3,-7.642401E-3,-1.957444E-3,-1.3225654E-2,-9.19086E-3,-1.54046295E-2,-1.3164333E-2,-1.4763708E-2,-1.3527477E-2,-1.2179656E-2,-1.0573691E-2,-8.107655E-3,-4.494859E-3,-3.2433697E-3,-1.1469889E-2,1.4184325E-2,1.015277E-2,-8.140719E-3,1.704002E-2,-1.514925E-3,1.2889028E-2,1.05618965E-2,3.8728744E-3,-9.703571E-3,-5.870838E-4,-5.4433226E-4,5.533238E-3,3.0562992E-3,9.950576E-3,1.932057E-3,5.953142E-3,-2.2252789E-3,8.9278845E-3,-1.4078026E-2,-2.2684666E-3,-1.9302355E-3,3.2038775E-3,-3.3337534E-3,-1.1758616E-2,-3.0597323E-3,-7.608489E-3,-1.4014832E-2,4.934256E-4,-5.248779E-3,-1.0775122E-2],"split_indices":[6,1,1,8,6,8,1,0,6,1,0,1,7,8,0,6,6,7,7,8,6,6,9,3,8,3,3,0,7,0,0,7,3,7,8,6,2,3,3,0,7,0,11,0,9,11,3,8,7,7,7,0,7,6,6,3,7,3,0,2,8,7,9,0,0,0,0,0,0,0,0,0,0,0,0,0,0,0,0,0,0,0,0,0,0,0,0,0,0,0,0,0,0,0,0,0,0,0,0,0,0,0,0,0,0,0,0,0,0,0,0,0,0,0,0,0,0,0,0,0,0],"split_type":[0,0,0,0,0,0,0,0,0,0,0,0,0,0,0,0,0,0,0,0,0,0,0,0,0,0,0,0,0,0,0,0,0,0,0,0,0,0,0,0,0,0,0,0,0,0,0,0,0,0,0,0,0,0,0,0,0,0,0,0,0,0,0,0,0,0,0,0,0,0,0,0,0,0,0,0,0,0,0,0,0,0,0,0,0,0,0,0,0,0,0,0,0,0,0,0,0,0,0,0,0,0,0,0,0,0,0,0,0,0,0,0,0,0,0,0,0,0,0,0,0],"sum_hessian":[2.7792E4,1.1022E4,1.677E4,5.848E3,5.174E3,1.0821E4,5.949E3,2.331E3,3.517E3,3.91E3,1.264E3,5.658E3,5.163E3,3.195E3,2.754E3,6.9E2,1.641E3,1.148E3,2.369E3,1.679E3,2.231E3,6.38E2,6.26E2,3.486E3,2.172E3,3.02E2,4.861E3,1.669E3,1.526E3,1.233E3,1.521E3,3.25E2,3.65E2,4.01E2,1.24E3,8.28E2,3.2E2,1.041E3,1.328E3,6.38E2,1.041E3,1.138E3,1.093E3,1.35E2,5.03E2,4.23E2,2.03E2,1.534E3,1.952E3,1.512E3,6.6E2,8.3E1,2.19E2,1.941E3,2.92E3,6.07E2,1.062E3,9.3E1,1.433E3,2.2E2,1.013E3,1.155E3,3.66E2,3.2E2,5E0,2.49E2,1.16E2,2.13E2,1.88E2,7.52E2,4.88E2,5.59E2,2.69E2,2.91E2,2.9E1,7.5E2,2.91E2,8.42E2,4.86E2,3.13E2,3.25E2,3.98E2,6.43E2,8.57E2,2.36E2,3.43E2,1.6E2,3E2,1.23E2,1E0,2.02E2,1.182E3,3.52E2,1.6E1,1.936E3,1.6E1,1.496E3,5.07E2,1.53E2,1.48E2,7.1E1,8.77E2,1.064E3,1.195E3,1.725E3,2.12E2,3.95E2,4.9E1,1.013E3,5.2E1,4.1E1,8.83E2,5.5E2,3E0,2.17E2,4E2,6.13E2,4.3E1,1.112E3,2.55E2,1.11E2],"tree_param":{"num_deleted":"0","num_feature":"13","num_nodes":"121","size_leaf_vector":"1"}},{"base_weights":[-1.4191724E-3,-1.7857677E-1,1.1428235E-1,-1.144643E-1,-2.502907E-1,1.7569777E-1,1.2644498E-3,-3.056982E-2,-1.7074034E-1,-2.6798102E-1,-1.9355904E-1,2.6189408E-1,8.197314E-2,6.513364E-2,-7.2027765E-2,-1.4194784E-1,2.0291256E-2,-2.0930143E-1,-1.160715E-1,-2.4394774E-1,-2.856831E-1,-1.7126599E-1,-2.1143666E-1,-1.670492E-1,2.648983E-1,-1.8936674E-1,9.923709E-2,1.2751363E-1,-2.4353482E-2,-4.7344502E-2,-1.6581047E-1,-1.4434598E-1,1.6440194E-2,-3.3287022E-2,6.7297935E-2,-2.3150432E-1,-1.5637434E-1,-1.3316555E-1,1.540761E-2,-2.0988838E-1,-2.6549554E-1,-1.4747749E-2,-2.7778208E-1,-3.0804446E-1,-1.628473E-1,-2.0166488E-1,-2.3912503E-1,-2.0546821E-1,1.4297746E-1,2.2924523E-1,2.995202E-1,1.6356006E-1,-2.0402902E-1,4.419669E-2,1.3543145E-1,1.627266E-1,9.800338E-2,-1.9124453E-1,-1.0564676E-2,-9.827408E-3,-1.0458689E-1,-1.113603E-1,-1.8591325E-1,-9.188776E-3,-5.8231666E-3,-2.169964E-3,1.0928751E-2,-8.746283E-3,4.099745E-3,-1.3056566E-2,-9.555869E-3,-8.389864E-3,-1.7334216E-3,-1.1331621E-2,-5.613855E-3,-1.1104164E-3,6.923499E-3,-9.774716E-3,-1.2752983E-2,-1.4527435E-2,-1.2468308E-2,-1.3524015E-2,-1.466381E-2,-1.5942847E-2,4.0823445E-4,-6.1605754E-3,-8.9887865E-3,-1.0173346E-2,-6.4376565E-3,-1.224603E-2,-9.289456E-3,-1.1183689E-2,3.4675465E-3,1.3085522E-2,-8.298861E-3,1.249409E-2,8.201823E-3,1.6147269E-2,1.2949714E-2,1.5169342E-2,1.9122489E-3,-1.3310107E-2,-7.3981876E-3,-9.64678E-4,4.8121153E-3,2.590216E-3,9.625136E-3,7.443423E-5,8.977109E-3,5.96191E-3,2.4090286E-3,-1.2891813E-2,-4.1092266E-3,-1.7432256E-3,2.790108E-3,7.8520924E-4,-2.2532695E-3,-1.2339191E-2,-4.7206823E-3,-3.8723524E-3,-9.57554E-3,-8.308462E-3,-1.103383E-2],"categories":[],"categories_nodes":[],"categories_segments":[],"categories_sizes":[],"default_left":[0,0,0,0,0,0,0,0,0,0,0,0,0,0,0,0,0,0,0,0,0,0,0,0,0,0,0,0,0,0,0,0,0,0,0,0,0,0,0,0,0,0,0,0,0,0,0,0,0,0,0,0,0,0,0,0,0,0,0,0,0,0,0,0,0,0,0,0,0,0,0,0,0,0,0,0,0,0,0,0,0,0,0,0,0,0,0,0,0,0,0,0,0,0,0,0,0,0,0,0,0,0,0,0,0,0,0,0,0,0,0,0,0,0,0,0,0,0,0,0,0,0,0],"id":3,"left_children":[1,3,5,7,9,11,13,15,17,19,21,23,25,27,29,31,33,35,37,39,41,43,45,47,49,51,53,55,57,59,61,63,-1,65,67,69,71,73,75,77,79,-1,81,83,85,87,89,91,93,95,97,99,101,103,105,107,109,111,113,115,117,119,121,-1,-1,-1,-1,-1,-1,-1,-1,-1,-1,-1,-1,-1,-1,-1,-1,-1,-1,-1,-1,-1,-1,-1,-1,-1,-1,-1,-1,-1,-1,-1,-1,-1,-1,-1,-1,-1,-1,-1,-1,-1,-1,-1,-1,-1,-1,-1,-1,-1,-1,-1,-1,-1,-1,-1,-1,-1,-1,-1,-1],"loss_changes":[5.685774E2,5.0358154E1,1.16470474E2,2.7321365E1,5.138733E0,8.781033E1,2.7665396E1,1.3173553E1,7.278137E0,1.6065369E0,4.552002E-1,7.341858E0,2.4424503E1,1.763171E1,6.3626537E0,8.704548E-1,4.024344E0,2.3493118E0,3.227232E0,1.175766E0,8.3847046E-2,5.8776474E-1,1.3576126E-1,5.0581396E-1,6.873474E0,1.6478796E0,9.753567E0,1.9178963E0,2.9849737E0,4.6806707E0,6.0650253E-1,7.7676105E-1,0E0,1.9120154E0,3.0438607E0,1.6587677E0,8.3249664E-1,2.4540768E0,7.715068E-1,3.7601852E-1,3.4133148E-1,0E0,6.084442E-2,1.0859227E-1,3.2943916E-1,4.067993E-2,7.663727E-3,1.956284E-1,2.2685349E-1,3.6932983E0,2.6219482E0,2.1618822E-1,1.0063381E0,6.428893E0,1.4093376E1,2.2962074E0,1.0681038E0,6.977968E-1,1.9371892E0,1.1864883E0,1.2251196E0,4.1191983E-1,2.495451E-1,0E0,0E0,0E0,0E0,0E0,0E0,0E0,0E0,0E0,0E0,0E0,0E0,0E0,0E0,0E0,0E0,0E0,0E0,0E0,0E0,0E0,0E0,0E0,0E0,0E0,0E0,0E0,0E0,0E0,0E0,0E0,0E0,0E0,0E0,0E0,0E0,0E0,0E0,0E0,0E0,0E0,0E0,0E0,0E0,0E0,0E0,0E0,0E0,0E0,0E0,0E0,0E0,0E0,0E0,0E0,0E0,0E0,0E0,0E0,0E0],"parents":[2147483647,0,0,1,1,2,2,3,3,4,4,5,5,6,6,7,7,8,8,9,9,10,10,11,11,12,12,13,13,14,14,15,15,16,16,17,17,18,18,19,19,20,20,21,21,22,22,23,23,24,24,25,25,26,26,27,27,28,28,29,29,30,30,31,31,33,33,34,34,35,35,36,36,37,37,38,38,39,39,40,40,42,42,43,43,44,44,45,45,46,46,47,47,48,48,49,49,50,50,51,51,52,52,53,53,54,54,55,55,56,56,57,57,58,58,59,59,60,60,61,61,62,62],"right_children":[2,4,6,8,10,12,14,16,18,20,22,24,26,28,30,32,34,36,38,40,42,44,46,48,50,52,54,56,58,60,62,64,-1,66,68,70,72,74,76,78,80,-1,82,84,86,88,90,92,94,96,98,100,102,104,106,108,110,112,114,116,118,120,122,-1,-1,-1,-1,-1,-1,-1,-1,-1,-1,-1,-1,-1,-1,-1,-1,-1,-1,-1,-1,-1,-1,-1,-1,-1,-1,-1,-1,-1,-1,-1,-1,-1,-1,-1,-1,-1,-1,-1,-1,-1,-1,-1,-1,-1,-1,-1,-1,-1,-1,-1,-1,-1,-1,-1,-1,-1,-1,-1,-1],"split_conditions":[3.823E2,-2.5881904E-1,-7.0710677E-1,3.9625E1,2.367E2,1.0625E1,-5E-1,1.7E2,2.408E2,-1.8369701E-16,2.921867E2,2.6837488E2,2.702707E2,1.525E1,-2.5881904E-1,9.16874E-1,6.118864E-1,2.8354675E2,9.574852E-1,1.8625E1,1.21E2,2.7310632E2,3.0218436E2,7.1767694E-1,-2.0089056E-1,4.115348E-1,-4.5973274E-1,2.9278488E2,2.7180475E2,1.2E1,2.9085223E2,8.98E1,1.6440194E-2,8.960976E-1,2.6837488E2,1.469E2,8.5876393E-1,2.729205E2,9.946708E-1,2.921867E2,2.7845108E2,-1.4747749E-2,1E0,9.813065E-1,8.75E-1,3.0193073E2,3.685E2,8.5207754E-1,7.7488405E-1,3.625E0,-8.660254E-1,-2.051045E-1,6.152846E-1,8.77E2,5.89E2,2.7504587E2,1.625E0,4.0542573E-1,-6.450845E-2,2.9656668E2,2.762702E2,1E0,4.3457243E-1,-9.188776E-3,-5.8231666E-3,-2.169964E-3,1.0928751E-2,-8.746283E-3,4.099745E-3,-1.3056566E-2,-9.555869E-3,-8.389864E-3,-1.7334216E-3,-1.1331621E-2,-5.613855E-3,-1.1104164E-3,6.923499E-3,-9.774716E-3,-1.2752983E-2,-1.4527435E-2,-1.2468308E-2,-1.3524015E-2,-1.466381E-2,-1.5942847E-2,4.0823445E-4,-6.1605754E-3,-8.9887865E-3,-1.0173346E-2,-6.4376565E-3,-1.224603E-2,-9.289456E-3,-1.1183689E-2,3.4675465E-3,1.3085522E-2,-8.298861E-3,1.249409E-2,8.201823E-3,1.6147269E-2,1.2949714E-2,1.5169342E-2,1.9122489E-3,-1.3310107E-2,-7.3981876E-3,-9.64678E-4,4.8121153E-3,2.590216E-3,9.625136E-3,7.443423E-5,8.977109E-3,5.96191E-3,2.4090286E-3,-1.2891813E-2,-4.1092266E-3,-1.7432256E-3,2.790108E-3,7.8520924E-4,-2.2532695E-3,-1.2339191E-2,-4.7206823E-3,-3.8723524E-3,-9.57554E-3,-8.308462E-3,-1.103383E-2],"split_indices":[6,1,1,8,6,8,1,6,6,1,7,7,7,8,1,5,3,7,3,8,6,7,7,2,3,5,3,7,7,8,7,6,0,5,7,6,2,7,3,7,7,0,9,2,8,7,6,3,2,8,1,2,2,6,6,7,8,3,3,7,7,9,5,0,0,0,0,0,0,0,0,0,0,0,0,0,0,0,0,0,0,0,0,0,0,0,0,0,0,0,0,0,0,0,0,0,0,0,0,0,0,0,0,0,0,0,0,0,0,0,0,0,0,0,0,0,0,0,0,0,0,0,0],"split_type":[0,0,0,0,0,0,0,0,0,0,0,0,0,0,0,0,0,0,0,0,0,0,0,0,0,0,0,0,0,0,0,0,0,0,0,0,0,0,0,0,0,0,0,0,0,0,0,0,0,0,0,0,0,0,0,0,0,0,0,0,0,0,0,0,0,0,0,0,0,0,0,0,0,0,0,0,0,0,0,0,0,0,0,0,0,0,0,0,0,0,0,0,0,0,0,0,0,0,0,0,0,0,0,0,0,0,0,0,0,0,0,0,0,0,0,0,0,0,0,0,0,0,0],"sum_hessian":[2.7737E4,1.0958E4,1.6779E4,5.787E3,5.171E3,1.0871E4,5.908E3,2.324E3,3.463E3,3.939E3,1.232E3,5.662E3,5.209E3,3.157E3,2.751E3,7.28E2,1.596E3,2.029E3,1.434E3,1.677E3,2.262E3,5.53E2,6.79E2,3.9E1,5.623E3,3.11E2,4.898E3,1.86E3,1.297E3,2.179E3,5.72E2,7.25E2,3E0,7.46E2,8.5E2,1.427E3,6.02E2,1.269E3,1.65E2,6.54E2,1.023E3,1.024E3,1.238E3,3E1,5.23E2,5.08E2,1.71E2,3.5E1,4E0,2.774E3,2.849E3,1.2E1,2.99E2,1.944E3,2.954E3,8.46E2,1.014E3,9.8E1,1.199E3,1.317E3,8.62E2,1.56E2,4.16E2,2.98E2,4.27E2,7.18E2,2.8E1,4.8E1,8.02E2,8.2E2,6.07E2,5.5E2,5.2E1,2.3E2,1.039E3,1.27E2,3.8E1,5E2,1.54E2,3.94E2,6.29E2,8.54E2,3.84E2,2.9E1,1E0,1.59E2,3.64E2,4.94E2,1.4E1,1.51E2,2E1,3.3E1,2E0,3E0,1E0,2.105E3,6.69E2,1.801E3,1.048E3,5E0,7E0,1.4E2,1.59E2,8.76E2,1.068E3,1.199E3,1.755E3,8E1,7.66E2,7.1E2,3.04E2,6E1,3.8E1,8.78E2,3.21E2,7.64E2,5.53E2,5.6E1,8.06E2,1.11E2,4.5E1,2.69E2,1.47E2],"tree_param":{"num_deleted":"0","num_feature":"13","num_nodes":"123","size_leaf_vector":"1"}},{"base_weights":[-7.0691964E-4,-1.7043023E-1,1.0791041E-1,-1.09638356E-1,-2.3826449E-1,1.6876239E-1,-2.5918006E-3,-1.709142E-1,-4.6581507E-2,-2.1275374E-1,-2.7085197E-1,1.17985375E-1,1.8677372E-1,6.024693E-2,-7.38483E-2,-2.3333871E-1,-1.5159906E-1,3.0626333E-3,-1.21894136E-1,-2.522602E-1,-1.9447829E-1,-2.6486754E-1,-1.4181057E-2,1.7948207E-1,-5.85092E-2,1.5588164E-1,2.454492E-1,3.8094153E-3,1.1151773E-1,-1.270434E-1,-3.044892E-2,-1.9676651E-1,-2.4417163E-1,-1.6912982E-1,-1.1123278E-1,-7.968891E-2,2.0746442E-2,-4.2982385E-2,-1.5574498E-1,-2.6750767E-1,-2.3441012E-1,-2.2537543E-1,-1.6409938E-1,-2.5682673E-1,-1.3845812E-2,1.9938411E-1,8.3297014E-2,-2.6639706E-2,-1.8140891E-1,8.4977075E-2,1.7641418E-1,1.9641536E-1,2.7905345E-1,-4.4505395E-2,3.94752E-2,1.3204265E-1,6.812855E-2,-2.0978475E-1,-1.0694387E-1,-7.089792E-4,-1.214575E-1,-1.0470917E-2,-2.6016778E-4,-1.3573241E-2,-1.05485525E-2,-9.847155E-3,-7.4282116E-3,-3.451796E-3,-8.69799E-3,-5.8801253E-3,-1.9031223E-3,2.3077136E-4,3.9417376E-3,3.829459E-4,-7.105553E-3,-8.5438965E-3,-4.6713697E-3,-1.1572717E-2,-1.3557659E-2,-5.2968794E-3,-1.1894324E-2,-1.16206715E-2,-1.04445275E-2,-9.10726E-3,-4.7428897E-3,-1.3591945E-2,-1.2058477E-2,7.931036E-3,1.2664533E-2,5.993708E-3,5.620417E-4,-4.280019E-3,6.7076145E-4,-9.69214E-3,7.2683505E-4,7.0407363E-3,1.5103808E-3,7.4398755E-3,1.0323458E-2,1.1040953E-2,2.1238436E-3,1.4762886E-2,1.073312E-2,-5.4506534E-3,-3.554133E-4,5.986271E-4,3.4620618E-3,5.733685E-3,8.832056E-3,5.336194E-3,2.3491073E-3,-1.0985512E-2,-9.257342E-3,-5.9595206E-3,-2.479295E-3,1.731669E-3,-3.7570836E-3,-7.2902935E-3,-1.6671505E-3],"categories":[],"categories_nodes":[],"categories_segments":[],"categories_sizes":[],"default_left":[0,0,0,0,0,0,0,0,0,0,0,0,0,0,0,0,0,0,0,0,0,0,0,0,0,0,0,0,0,0,0,0,0,0,0,0,0,0,0,0,0,0,0,0,0,0,0,0,0,0,0,0,0,0,0,0,0,0,0,0,0,0,0,0,0,0,0,0,0,0,0,0,0,0,0,0,0,0,0,0,0,0,0,0,0,0,0,0,0,0,0,0,0,0,0,0,0,0,0,0,0,0,0,0,0,0,0,0,0,0,0,0,0,0,0,0,0,0,0],"id":4,"left_children":[1,3,5,7,9,11,13,15,17,19,21,23,25,27,29,31,33,35,37,39,41,43,-1,45,47,49,51,53,55,57,59,61,63,65,67,69,71,73,75,77,79,81,83,85,-1,87,89,91,93,95,97,99,101,103,105,107,109,111,113,115,117,-1,-1,-1,-1,-1,-1,-1,-1,-1,-1,-1,-1,-1,-1,-1,-1,-1,-1,-1,-1,-1,-1,-1,-1,-1,-1,-1,-1,-1,-1,-1,-1,-1,-1,-1,-1,-1,-1,-1,-1,-1,-1,-1,-1,-1,-1,-1,-1,-1,-1,-1,-1,-1,-1,-1,-1,-1,-1],"loss_changes":[5.1105203E2,4.458484E1,1.1366763E2,2.2043106E1,4.1921387E0,9.947601E0,2.688837E1,3.454033E0,1.05214405E1,2.0245361E0,9.613037E-2,3.1019909E1,1.4544159E1,9.233042E0,6.492626E0,2.2215652E-1,1.5472183E0,2.4849794E0,2.979742E0,1.836052E-1,1.8102188E0,7.817078E-2,0E0,4.039749E0,2.889647E0,7.6617126E0,4.514389E0,2.6209986E0,1.4800186E0,2.0796776E0,4.1978345E0,3.8911438E-1,4.1573715E-1,8.521881E-1,1.7693434E0,4.6740782E-1,1.3105319E0,1.6928306E0,7.214985E-1,4.5776367E-4,1.6460991E-1,6.433487E-2,1.2272472E0,1.5491867E-1,0E0,3.8162842E0,9.606497E-1,1.389808E0,3.7314558E-1,3.6227684E0,3.3623886E0,4.2394104E0,1.6509476E0,1.5576367E0,7.1548545E-1,8.581734E-1,4.3489194E-1,1.9478798E-2,7.098732E-1,3.0804358E0,8.146982E-1,0E0,0E0,0E0,0E0,0E0,0E0,0E0,0E0,0E0,0E0,0E0,0E0,0E0,0E0,0E0,0E0,0E0,0E0,0E0,0E0,0E0,0E0,0E0,0E0,0E0,0E0,0E0,0E0,0E0,0E0,0E0,0E0,0E0,0E0,0E0,0E0,0E0,0E0,0E0,0E0,0E0,0E0,0E0,0E0,0E0,0E0,0E0,0E0,0E0,0E0,0E0,0E0,0E0,0E0,0E0,0E0,0E0,0E0],"parents":[2147483647,0,0,1,1,2,2,3,3,4,4,5,5,6,6,7,7,8,8,9,9,10,10,11,11,12,12,13,13,14,14,15,15,16,16,17,17,18,18,19,19,20,20,21,21,23,23,24,24,25,25,26,26,27,27,28,28,29,29,30,30,31,31,32,32,33,33,34,34,35,35,36,36,37,37,38,38,39,39,40,40,41,41,42,42,43,43,45,45,46,46,47,47,48,48,49,49,50,50,51,51,52,52,53,53,54,54,55,55,56,56,57,57,58,58,59,59,60,60],"right_children":[2,4,6,8,10,12,14,16,18,20,22,24,26,28,30,32,34,36,38,40,42,44,-1,46,48,50,52,54,56,58,60,62,64,66,68,70,72,74,76,78,80,82,84,86,-1,88,90,92,94,96,98,100,102,104,106,108,110,112,114,116,118,-1,-1,-1,-1,-1,-1,-1,-1,-1,-1,-1,-1,-1,-1,-1,-1,-1,-1,-1,-1,-1,-1,-1,-1,-1,-1,-1,-1,-1,-1,-1,-1,-1,-1,-1,-1,-1,-1,-1,-1,-1,-1,-1,-1,-1,-1,-1,-1,-1,-1,-1,-1,-1,-1,-1,-1,-1,-1],"split_conditions":[3.8E2,-2.5881904E-1,-7.0710677E-1,2.292E2,-1.8369701E-16,5.778E2,-5E-1,7.82E1,4.0216795E-1,1.349E2,1E0,5.32098E-1,-1.500554E-1,-5E-1,-7.0710677E-1,-3.975428E-1,8.660254E-1,-7.0710677E-1,-8.660254E-1,8.04E1,-8.660254E-1,1E0,-1.4181057E-2,3.4561232E-1,9.3383723E-1,8.37E2,6.87E2,-5.9126145E-1,1E0,-8.660254E-1,9.659258E-1,8.543222E-1,6.37E1,1.43E2,4.405188E-1,6.551564E-1,1E0,4.7115952E-1,3.575E2,-8.475409E-1,-9.7311836E-1,1E0,1E0,-9.659258E-1,-1.3845812E-2,4.889E2,1E0,-2.344914E-1,9.997685E-1,8.041928E-1,-7.9877937E-1,6.5383494E-1,9.966589E-1,7.03E2,-3.0120306E-2,7.445E2,-6.551564E-1,1E0,-2.1772324E-1,1E0,1E0,-1.0470917E-2,-2.6016778E-4,-1.3573241E-2,-1.05485525E-2,-9.847155E-3,-7.4282116E-3,-3.451796E-3,-8.69799E-3,-5.8801253E-3,-1.9031223E-3,2.3077136E-4,3.9417376E-3,3.829459E-4,-7.105553E-3,-8.5438965E-3,-4.6713697E-3,-1.1572717E-2,-1.3557659E-2,-5.2968794E-3,-1.1894324E-2,-1.16206715E-2,-1.04445275E-2,-9.10726E-3,-4.7428897E-3,-1.3591945E-2,-1.2058477E-2,7.931036E-3,1.2664533E-2,5.993708E-3,5.620417E-4,-4.280019E-3,6.7076145E-4,-9.69214E-3,7.2683505E-4,7.0407363E-3,1.5103808E-3,7.4398755E-3,1.0323458E-2,1.1040953E-2,2.1238436E-3,1.4762886E-2,1.073312E-2,-5.4506534E-3,-3.554133E-4,5.986271E-4,3.4620618E-3,5.733685E-3,8.832056E-3,5.336194E-3,2.3491073E-3,-1.0985512E-2,-9.257342E-3,-5.9595206E-3,-2.479295E-3,1.731669E-3,-3.7570836E-3,-7.2902935E-3,-1.6671505E-3],"split_indices":[6,1,1,6,1,6,1,6,5,6,9,5,3,0,0,3,0,0,1,6,0,10,0,2,2,6,6,3,9,0,0,2,6,6,2,2,11,2,6,3,3,9,11,0,0,6,12,3,2,5,3,5,2,6,3,6,2,9,3,9,12,0,0,0,0,0,0,0,0,0,0,0,0,0,0,0,0,0,0,0,0,0,0,0,0,0,0,0,0,0,0,0,0,0,0,0,0,0,0,0,0,0,0,0,0,0,0,0,0,0,0,0,0,0,0,0,0,0,0],"split_type":[0,0,0,0,0,0,0,0,0,0,0,0,0,0,0,0,0,0,0,0,0,0,0,0,0,0,0,0,0,0,0,0,0,0,0,0,0,0,0,0,0,0,0,0,0,0,0,0,0,0,0,0,0,0,0,0,0,0,0,0,0,0,0,0,0,0,0,0,0,0,0,0,0,0,0,0,0,0,0,0,0,0,0,0,0,0,0,0,0,0,0,0,0,0,0,0,0,0,0,0,0,0,0,0,0,0,0,0,0,0,0,0,0,0,0,0,0,0,0],"sum_hessian":[2.772E4,1.0817E4,1.6903E4,5.706E3,5.111E3,1.09E4,6.003E3,2.893E3,2.813E3,2.871E3,2.24E3,2.856E3,8.044E3,3.19E3,2.813E3,6.81E2,2.212E3,1.696E3,1.117E3,9.04E2,1.967E3,1.54E3,7E2,2.118E3,7.38E2,5.272E3,2.772E3,1.519E3,1.671E3,1.263E3,1.55E3,1.6E2,5.21E2,1.54E3,6.72E2,2.98E2,1.398E3,3.36E2,7.81E2,4.8E2,4.24E2,9.72E2,9.95E2,9.37E2,6.03E2,1.754E3,3.64E2,5.87E2,1.51E2,1.185E3,4.087E3,1.13E3,1.642E3,6.45E2,8.74E2,1.133E3,5.38E2,2.45E2,1.018E3,1.169E3,3.81E2,1.5E2,1E1,2.82E2,2.39E2,6.51E2,8.89E2,4.03E2,2.69E2,1.55E2,1.43E2,1.095E3,3.03E2,2.23E2,1.13E2,6.27E2,1.54E2,5E1,4.3E2,1.2E1,4.12E2,6.72E2,3E2,7.88E2,2.07E2,4.7E2,4.67E2,1.001E3,7.53E2,2.41E2,1.23E2,2.37E2,3.5E2,1.42E2,9E0,5.86E2,5.99E2,2.133E3,1.954E3,9.75E2,1.55E2,1.309E3,3.33E2,2.36E2,4.09E2,4.55E2,4.19E2,8.18E2,3.15E2,1.89E2,3.49E2,1.69E2,7.6E1,8.38E2,1.8E2,7.93E2,3.76E2,2.98E2,8.3E1],"tree_param":{"num_deleted":"0","num_feature":"13","num_nodes":"119","size_leaf_vector":"1"}},{"base_weights":[8.5740896E-5,-1.65216E-1,1.00467935E-1,-1.0746553E-1,-2.2822124E-1,-3.7542153E-3,1.6127326E-1,-3.0841481E-2,-1.587561E-1,-2.0427954E-1,-2.5788406E-1,-1.2146644E-1,3.6480773E-2,2.0595838E-1,6.2224655E-3,-1.2641354E-1,1.6061325E-2,-1.9267644E-1,-1.0268574E-1,-1.8466122E-1,-2.374369E-1,-2.718196E-1,-2.52495E-1,-2.3984022E-1,-6.9236904E-2,1.0355276E-1,-2.1669582E-2,2.5436845E-1,1.3318293E-1,7.058574E-2,-1.0003585E-1,-7.69386E-2,-1.6457151E-1,5.453995E-2,-3.8450107E-2,-2.1973105E-1,-1.4417925E-1,-6.2494855E-2,-1.7025894E-1,-1.3973325E-1,-2.1050851E-1,-1.3411755E-2,-2.198713E-1,-1.3604133E-2,-2.7705287E-3,-2.463798E-1,-2.6566646E-1,-2.7281278E-1,-1.8007307E-1,-9.9599004E-2,1.3687638E-2,6.377063E-2,1.8993175E-1,-6.0606316E-2,2.8167926E-2,2.8784633E-1,2.1809942E-1,7.080324E-2,1.7141832E-1,1.166927E-1,3.8574778E-3,-8.217181E-2,-1.9178559E-1,-1.8436635E-3,-8.392067E-3,-9.109205E-3,2.430995E-3,5.025388E-3,-5.0826126E-5,-2.4784065E-3,1.07233515E-2,-1.2826535E-2,-9.970409E-3,-7.926404E-3,-8.6482585E-4,-6.933227E-3,-7.090944E-4,-9.071346E-3,-2.2095486E-3,-4.1650906E-3,-1.0098911E-2,-1.20132975E-2,-1.0094329E-2,-1.1997111E-2,-1.0275407E-2,-1.1032777E-2,-1.2885093E-2,-1.33575825E-2,-9.119313E-3,-1.3901445E-2,-3.0260426E-5,-1.104497E-2,-1.3403058E-3,-6.6611255E-3,-2.9804043E-3,2.3757717E-4,1.5303251E-2,3.5272662E-3,-8.783431E-3,8.815208E-3,1.2667323E-2,-5.3208326E-3,-7.291684E-4,-3.025596E-4,4.3606353E-3,1.16875E-2,1.5089962E-2,1.1749331E-2,7.2680227E-3,1.0540116E-3,4.743493E-3,6.3247955E-3,1.0911209E-2,1.017005E-2,4.3204976E-3,3.0469736E-3,-3.289407E-3,-2.047902E-3,-5.6775534E-3,-1.0033381E-2,-4.558482E-3],"categories":[],"categories_nodes":[],"categories_segments":[],"categories_sizes":[],"default_left":[0,0,0,0,0,0,0,0,0,0,0,0,0,0,0,1,0,0,0,0,0,1,0,0,0,0,0,0,0,0,0,0,0,0,0,0,0,0,0,0,0,0,0,0,0,0,1,0,0,0,0,0,0,0,0,0,0,0,0,1,0,0,1,0,0,0,0,0,0,0,0,0,0,0,0,0,0,0,0,0,0,0,0,0,0,0,0,0,0,0,0,0,0,0,0,0,0,0,0,0,0,0,0,0,0,0,0,0,0,0,0,0,0,0,0,0,0,0,0,0,0],"id":5,"left_children":[1,3,5,7,9,11,13,15,17,19,21,23,25,27,29,31,33,35,37,39,41,43,45,47,49,51,53,55,57,59,61,63,65,67,69,71,73,75,77,79,81,-1,83,-1,-1,85,87,89,91,93,95,97,99,101,103,105,107,109,111,113,115,117,119,-1,-1,-1,-1,-1,-1,-1,-1,-1,-1,-1,-1,-1,-1,-1,-1,-1,-1,-1,-1,-1,-1,-1,-1,-1,-1,-1,-1,-1,-1,-1,-1,-1,-1,-1,-1,-1,-1,-1,-1,-1,-1,-1,-1,-1,-1,-1,-1,-1,-1,-1,-1,-1,-1,-1,-1,-1,-1],"loss_changes":[4.624567E2,3.8289734E1,1.0988872E2,2.159489E1,3.5230408E0,3.0268433E1,7.5872314E1,9.886157E0,6.241356E0,1.7716751E0,9.9975586E-2,1.0048677E1,1.8579184E1,2.991571E1,1.676978E1,1.3579283E0,3.106434E0,2.6580658E0,3.3651323E0,2.0120888E0,5.0040054E-1,1.9824982E-2,6.607056E-2,9.3227196E-1,2.8489537E0,7.5890694E0,4.953888E0,6.134552E0,8.092468E0,4.697575E0,1.5003347E0,1.1519822E0,1.54459E0,2.216809E0,1.7343482E0,9.315529E-1,1.3390532E0,2.872101E0,6.438513E-1,2.248785E0,2.3731232E-1,0E0,1.4210892E-1,0E0,0E0,2.719574E-1,1.374054E-2,4.5276642E-1,1.1203971E0,1.1054163E0,7.928101E-1,2.4715385E0,5.576763E-1,3.01968E0,2.2634435E0,1.9304199E0,2.9802399E0,1.5452881E0,4.400543E0,2.3534908E0,2.4887033E0,9.989171E-1,1.15756035E-1,0E0,0E0,0E0,0E0,0E0,0E0,0E0,0E0,0E0,0E0,0E0,0E0,0E0,0E0,0E0,0E0,0E0,0E0,0E0,0E0,0E0,0E0,0E0,0E0,0E0,0E0,0E0,0E0,0E0,0E0,0E0,0E0,0E0,0E0,0E0,0E0,0E0,0E0,0E0,0E0,0E0,0E0,0E0,0E0,0E0,0E0,0E0,0E0,0E0,0E0,0E0,0E0,0E0,0E0,0E0,0E0,0E0,0E0],"parents":[2147483647,0,0,1,1,2,2,3,3,4,4,5,5,6,6,7,7,8,8,9,9,10,10,11,11,12,12,13,13,14,14,15,15,16,16,17,17,18,18,19,19,20,20,21,21,22,22,23,23,24,24,25,25,26,26,27,27,28,28,29,29,30,30,31,31,32,32,33,33,34,34,35,35,36,36,37,37,38,38,39,39,40,40,42,42,45,45,46,46,47,47,48,48,49,49,50,50,51,51,52,52,53,53,54,54,55,55,56,56,57,57,58,58,59,59,60,60,61,61,62,62],"right_children":[2,4,6,8,10,12,14,16,18,20,22,24,26,28,30,32,34,36,38,40,42,44,46,48,50,52,54,56,58,60,62,64,66,68,70,72,74,76,78,80,82,-1,84,-1,-1,86,88,90,92,94,96,98,100,102,104,106,108,110,112,114,116,118,120,-1,-1,-1,-1,-1,-1,-1,-1,-1,-1,-1,-1,-1,-1,-1,-1,-1,-1,-1,-1,-1,-1,-1,-1,-1,-1,-1,-1,-1,-1,-1,-1,-1,-1,-1,-1,-1,-1,-1,-1,-1,-1,-1,-1,-1,-1,-1,-1,-1,-1,-1,-1,-1,-1,-1,-1,-1,-1],"split_conditions":[3.685E2,-2.5881904E-1,2.9945E-1,3.9625E1,-1.8369701E-16,1.668315E-2,-7.0710677E-1,1.7E2,1.684712E-1,5.075E1,8.04E1,2.7491315E2,1.5E1,1.0375E1,-5E-1,4.637633E-3,3E0,2.7920584E2,-5E-1,2.746541E-3,2.7832303E2,5.668167E-1,1E0,2.7146118E2,-3.171913E-1,-1.500554E-1,6.168E2,2.9427524E2,-5.049611E-1,1.6375E1,-2.5881904E-1,5.5E0,6.726417E-1,-5E-1,8.960976E-1,1.21E2,3.342E2,-2.0089056E-1,7.517569E-1,1E0,1.9182447E-1,-1.3411755E-2,1.349E2,-1.3604133E-2,-2.7705287E-3,2.672757E-3,5.006667E-1,9.0881765E-1,4.637633E-3,4.637633E-3,7.318E2,-2.5881904E-1,6.428E2,-1.6705163E-1,-4.4437817E-1,5.114464E-1,3.125E0,8.68E2,6.87E2,3.7371665E-1,2.963174E2,8.125E0,6.1808336E-1,-1.8436635E-3,-8.392067E-3,-9.109205E-3,2.430995E-3,5.025388E-3,-5.0826126E-5,-2.4784065E-3,1.07233515E-2,-1.2826535E-2,-9.970409E-3,-7.926404E-3,-8.6482585E-4,-6.933227E-3,-7.090944E-4,-9.071346E-3,-2.2095486E-3,-4.1650906E-3,-1.0098911E-2,-1.20132975E-2,-1.0094329E-2,-1.1997111E-2,-1.0275407E-2,-1.1032777E-2,-1.2885093E-2,-1.33575825E-2,-9.119313E-3,-1.3901445E-2,-3.0260426E-5,-1.104497E-2,-1.3403058E-3,-6.6611255E-3,-2.9804043E-3,2.3757717E-4,1.5303251E-2,3.5272662E-3,-8.783431E-3,8.815208E-3,1.2667323E-2,-5.3208326E-3,-7.291684E-4,-3.025596E-4,4.3606353E-3,1.16875E-2,1.5089962E-2,1.1749331E-2,7.2680227E-3,1.0540116E-3,4.743493E-3,6.3247955E-3,1.0911209E-2,1.017005E-2,4.3204976E-3,3.0469736E-3,-3.289407E-3,-2.047902E-3,-5.6775534E-3,-1.0033381E-2,-4.558482E-3],"split_indices":[6,1,4,8,1,4,1,6,4,8,6,7,8,8,1,4,8,7,1,4,7,4,9,7,3,3,6,7,3,8,1,8,5,1,5,6,6,3,4,9,5,0,6,0,0,4,4,3,4,4,6,1,6,3,3,4,8,6,6,4,7,8,4,0,0,0,0,0,0,0,0,0,0,0,0,0,0,0,0,0,0,0,0,0,0,0,0,0,0,0,0,0,0,0,0,0,0,0,0,0,0,0,0,0,0,0,0,0,0,0,0,0,0,0,0,0,0,0,0,0,0],"split_type":[0,0,0,0,0,0,0,0,0,0,0,0,0,0,0,0,0,0,0,0,0,0,0,0,0,0,0,0,0,0,0,0,0,0,0,0,0,0,0,0,0,0,0,0,0,0,0,0,0,0,0,0,0,0,0,0,0,0,0,0,0,0,0,0,0,0,0,0,0,0,0,0,0,0,0,0,0,0,0,0,0,0,0,0,0,0,0,0,0,0,0,0,0,0,0,0,0,0,0,0,0,0,0,0,0,0,0,0,0,0,0,0,0,0,0,0,0,0,0,0,0],"sum_hessian":[2.7868E4,1.0529E4,1.7339E4,5.495E3,5.034E3,6.389E3,1.095E4,2.204E3,3.291E3,2.79E3,2.244E3,1.627E3,4.762E3,8.5E3,2.45E3,7.25E2,1.479E3,2.049E3,1.242E3,1.757E3,1.033E3,6.12E2,1.632E3,4.97E2,1.13E3,2.211E3,2.551E3,5.103E3,3.397E3,1.526E3,9.24E2,3.17E2,4.08E2,8.67E2,6.12E2,1.313E3,7.36E2,7.8E2,4.62E2,6.44E2,1.113E3,3.7E2,6.63E2,6.11E2,1E0,1.128E3,5.04E2,3.18E2,1.79E2,8.27E2,3.03E2,1.515E3,6.96E2,1.432E3,1.119E3,2.65E3,2.453E3,1.292E3,2.105E3,9.02E2,6.24E2,7.75E2,1.49E2,2.21E2,9.6E1,3.77E2,3.1E1,4.74E2,3.93E2,5.87E2,2.5E1,4.63E2,8.5E2,6.61E2,7.5E1,3.02E2,4.78E2,4.24E2,3.8E1,3.39E2,3.05E2,2.44E2,8.69E2,2.7E2,3.93E2,3.51E2,7.77E2,4.93E2,1.1E1,3.12E2,6E0,1.41E2,3.8E1,4.48E2,3.79E2,2.95E2,8E0,1.474E3,4.1E1,5.76E2,1.2E2,7.17E2,7.15E2,7.09E2,4.1E2,5.47E2,2.103E3,1.989E3,4.64E2,4.22E2,8.7E2,1.076E3,1.029E3,2.32E2,6.7E2,3.43E2,2.81E2,3.36E2,4.39E2,1.36E2,1.3E1],"tree_param":{"num_deleted":"0","num_feature":"13","num_nodes":"121","size_leaf_vector":"1"}},{"base_weights":[1.0129409E-4,-1.5790129E-1,9.584205E-2,-1.0397524E-1,-2.1611291E-1,-4.354251E-3,1.5371872E-1,-1.5457337E-1,-4.5192193E-2,-1.9323178E-1,-2.446789E-1,-1.1686259E-1,3.4552105E-2,1.963961E-1,3.1675315E-3,-1.6284361E-1,-4.242336E-2,1.2763564E-2,-1.04091495E-1,-2.3389058E-1,-1.788691E-1,-2.5293705E-1,-2.3588662E-1,-2.298823E-1,-6.6985704E-2,4.0138356E-2,-1.8949494E-1,1.5042965E-1,2.2524282E-1,6.6439666E-2,-9.51995E-2,-1.8708302E-1,-1.3173974E-1,-1.7080525E-2,-1.4090563E-1,-1.5939872E-1,2.690296E-2,-1.1697112E-1,8.961181E-2,-2.547177E-1,-2.2637472E-1,-1.4308651E-1,-1.9881754E-1,-1.2652303E-2,-3.2380198E-3,-2.403702E-1,-2.1823038E-1,-2.3549922E-1,1.5823094E-2,-9.348138E-2,1.0611378E-2,1.2678903E-1,2.8752424E-2,-3.7100274E-2,-1.9614515E-1,7.4139215E-2,1.691695E-1,1.7485975E-1,2.4276067E-1,1.03058174E-1,-1.0175077E-2,-7.7709645E-2,-1.8293548E-1,-9.721282E-3,-2.0538124E-3,-1.2289373E-2,-6.131235E-3,4.634388E-3,-1.9944857E-3,-8.616025E-5,-8.009433E-3,-9.1990465E-3,4.933584E-3,4.4404212E-3,-1.706865E-4,-6.935327E-3,-2.1852395E-3,-5.807822E-3,1.1764005E-2,-1.3235303E-2,-1.0732257E-2,-1.1345379E-2,-2.758878E-3,-4.943798E-3,-9.854511E-3,-9.999037E-3,8.6182955E-4,-1.238628E-2,-1.0980142E-2,-1.1865741E-2,-1.0029166E-2,-1.2970008E-2,-9.551669E-3,-6.211687E-3,1.183747E-2,-6.1084186E-3,-2.4475295E-3,9.058735E-3,-1.7676284E-4,1.1893512E-2,5.4962276E-3,-3.3079986E-3,2.228371E-3,-4.0913527E-3,-5.894753E-4,-6.5555945E-3,-1.0141942E-2,4.9902376E-4,5.555579E-3,7.6069194E-3,1.0672833E-2,6.9114054E-3,1.0115428E-2,1.3379223E-2,9.164636E-3,8.162288E-3,4.044728E-3,-1.8016631E-3,1.4231199E-3,-5.3762165E-3,-2.7654315E-3,-9.561255E-3,-4.92249E-3],"categories":[],"categories_nodes":[],"categories_segments":[],"categories_sizes":[],"default_left":[0,0,0,0,0,0,0,0,0,0,0,0,0,0,0,0,0,0,0,0,1,1,0,0,0,0,0,0,1,0,0,0,0,0,0,0,1,1,0,0,0,0,0,0,0,0,0,0,0,0,0,0,0,0,0,0,0,0,0,0,0,1,1,0,0,0,0,0,0,0,0,0,0,0,0,0,0,0,0,0,0,0,0,0,0,0,0,0,0,0,0,0,0,0,0,0,0,0,0,0,0,0,0,0,0,0,0,0,0,0,0,0,0,0,0,0,0,0,0,0,0,0,0],"id":6,"left_children":[1,3,5,7,9,11,13,15,17,19,21,23,25,27,29,31,33,35,37,39,41,43,45,47,49,51,53,55,57,59,61,63,65,67,69,71,73,75,77,79,81,83,85,-1,-1,87,89,91,93,95,97,99,101,103,105,107,109,111,113,115,117,119,121,-1,-1,-1,-1,-1,-1,-1,-1,-1,-1,-1,-1,-1,-1,-1,-1,-1,-1,-1,-1,-1,-1,-1,-1,-1,-1,-1,-1,-1,-1,-1,-1,-1,-1,-1,-1,-1,-1,-1,-1,-1,-1,-1,-1,-1,-1,-1,-1,-1,-1,-1,-1,-1,-1,-1,-1,-1,-1,-1,-1],"loss_changes":[4.1767953E2,3.268091E1,9.9703384E1,1.6084042E1,3.226715E0,2.7563452E1,7.002045E1,2.6893616E0,8.548866E0,1.5851059E0,1.018219E-1,9.105385E0,5.8637605E0,1.1225037E1,1.4993458E1,2.0162582E0,4.9925312E-1,3.0787723E0,3.1090565E0,5.5667877E-2,1.4441376E0,6.843567E-3,3.3988953E-2,6.868782E-1,2.3119216E0,4.5011635E0,1.0825729E-1,4.6724854E0,4.5603027E0,4.1139374E0,1.4328079E0,1.6204987E0,1.2058849E0,4.0679708E-1,1.0976219E-1,6.2717175E-1,2.192369E0,1.8491707E0,2.365294E0,1.6830444E-2,3.6834717E-2,1.7520638E0,3.356781E-1,0E0,0E0,7.711792E-2,3.053379E-2,4.6482658E-1,4.0071917E-1,1.0645266E0,6.9314194E-1,9.667158E-1,6.062644E0,5.827713E-3,2.0854473E-2,1.5360117E0,1.9512329E0,1.3284454E0,5.6595E0,1.3100977E0,4.7559568E-1,5.203414E-1,9.0429306E-2,0E0,0E0,0E0,0E0,0E0,0E0,0E0,0E0,0E0,0E0,0E0,0E0,0E0,0E0,0E0,0E0,0E0,0E0,0E0,0E0,0E0,0E0,0E0,0E0,0E0,0E0,0E0,0E0,0E0,0E0,0E0,0E0,0E0,0E0,0E0,0E0,0E0,0E0,0E0,0E0,0E0,0E0,0E0,0E0,0E0,0E0,0E0,0E0,0E0,0E0,0E0,0E0,0E0,0E0,0E0,0E0,0E0,0E0,0E0,0E0],"parents":[2147483647,0,0,1,1,2,2,3,3,4,4,5,5,6,6,7,7,8,8,9,9,10,10,11,11,12,12,13,13,14,14,15,15,16,16,17,17,18,18,19,19,20,20,21,21,22,22,23,23,24,24,25,25,26,26,27,27,28,28,29,29,30,30,31,31,32,32,33,33,34,34,35,35,36,36,37,37,38,38,39,39,40,40,41,41,42,42,45,45,46,46,47,47,48,48,49,49,50,50,51,51,52,52,53,53,54,54,55,55,56,56,57,57,58,58,59,59,60,60,61,61,62,62],"right_children":[2,4,6,8,10,12,14,16,18,20,22,24,26,28,30,32,34,36,38,40,42,44,46,48,50,52,54,56,58,60,62,64,66,68,70,72,74,76,78,80,82,84,86,-1,-1,88,90,92,94,96,98,100,102,104,106,108,110,112,114,116,118,120,122,-1,-1,-1,-1,-1,-1,-1,-1,-1,-1,-1,-1,-1,-1,-1,-1,-1,-1,-1,-1,-1,-1,-1,-1,-1,-1,-1,-1,-1,-1,-1,-1,-1,-1,-1,-1,-1,-1,-1,-1,-1,-1,-1,-1,-1,-1,-1,-1,-1,-1,-1,-1,-1,-1,-1,-1,-1,-1,-1,-1],"split_conditions":[3.685E2,-2.5881904E-1,2.9945E-1,2.328E2,-1.8369701E-16,1.668315E-2,-7.0710677E-1,7.123364E-1,3.6295334E-1,1.147E2,1.349E2,2.7491315E2,-2.5881904E-1,-5.049611E-1,-5E-1,1.32E2,2.9389767E2,2.6887405E2,9.6230906E-1,4.81E1,2.672757E-3,8.294881E-1,1E0,9.0881765E-1,-3.171913E-1,4.603894E-1,2.028395E-2,8.68E2,5.157768E-1,3.0022073E2,-2.5881904E-1,2.9643668E2,2.6778223E2,-7.0710677E-1,7.208704E-1,9.6230906E-1,2.746541E-3,4.7443333E-1,7.9804465E-2,1.3316964E-1,7.664E-1,1E0,7.316E-1,-1.2652303E-2,-3.2380198E-3,1E0,6.123234E-17,2.7146118E2,1E0,5.8771665E-3,3.7827447E-1,3.6856258E-1,4.981E2,1.4579919E-1,-2.9671282E-1,-8.900276E-1,1.002E3,5.95E2,-8.660254E-1,3.7371665E-1,7.445E2,6.1024106E-1,5.8961666E-1,-9.721282E-3,-2.0538124E-3,-1.2289373E-2,-6.131235E-3,4.634388E-3,-1.9944857E-3,-8.616025E-5,-8.009433E-3,-9.1990465E-3,4.933584E-3,4.4404212E-3,-1.706865E-4,-6.935327E-3,-2.1852395E-3,-5.807822E-3,1.1764005E-2,-1.3235303E-2,-1.0732257E-2,-1.1345379E-2,-2.758878E-3,-4.943798E-3,-9.854511E-3,-9.999037E-3,8.6182955E-4,-1.238628E-2,-1.0980142E-2,-1.1865741E-2,-1.0029166E-2,-1.2970008E-2,-9.551669E-3,-6.211687E-3,1.183747E-2,-6.1084186E-3,-2.4475295E-3,9.058735E-3,-1.7676284E-4,1.1893512E-2,5.4962276E-3,-3.3079986E-3,2.228371E-3,-4.0913527E-3,-5.894753E-4,-6.5555945E-3,-1.0141942E-2,4.9902376E-4,5.555579E-3,7.6069194E-3,1.0672833E-2,6.9114054E-3,1.0115428E-2,1.3379223E-2,9.164636E-3,8.162288E-3,4.044728E-3,-1.8016631E-3,1.4231199E-3,-5.3762165E-3,-2.7654315E-3,-9.561255E-3,-4.92249E-3],"split_indices":[6,1,4,6,1,4,1,4,5,6,6,7,1,3,1,6,7,7,3,6,4,4,11,3,3,5,4,6,4,7,1,7,7,1,4,3,4,4,4,4,4,9,4,0,0,12,1,7,9,4,5,5,6,2,2,3,6,6,1,4,6,4,4,0,0,0,0,0,0,0,0,0,0,0,0,0,0,0,0,0,0,0,0,0,0,0,0,0,0,0,0,0,0,0,0,0,0,0,0,0,0,0,0,0,0,0,0,0,0,0,0,0,0,0,0,0,0,0,0,0,0,0,0],"split_type":[0,0,0,0,0,0,0,0,0,0,0,0,0,0,0,0,0,0,0,0,0,0,0,0,0,0,0,0,0,0,0,0,0,0,0,0,0,0,0,0,0,0,0,0,0,0,0,0,0,0,0,0,0,0,0,0,0,0,0,0,0,0,0,0,0,0,0,0,0,0,0,0,0,0,0,0,0,0,0,0,0,0,0,0,0,0,0,0,0,0,0,0,0,0,0,0,0,0,0,0,0,0,0,0,0,0,0,0,0,0,0,0,0,0,0,0,0,0,0,0,0,0,0],"sum_hessian":[2.7609E4,1.0417E4,1.7192E4,5.409E3,5.008E3,6.295E3,1.0897E4,2.906E3,2.503E3,2.785E3,2.223E3,1.617E3,4.678E3,8.49E3,2.407E3,2.706E3,2E2,1.262E3,1.241E3,7.23E2,2.062E3,1.132E3,1.091E3,4.94E2,1.123E3,4.565E3,1.13E2,3.276E3,5.214E3,1.465E3,9.42E2,1.518E3,1.188E3,1.6E2,4E1,9.5E1,1.167E3,1.164E3,7.7E1,1.83E2,5.4E2,7.41E2,1.321E3,1.131E3,1E0,8.6E2,2.31E2,4.83E2,1.1E1,8.37E2,2.86E2,5.29E2,4.036E3,5E0,1.08E2,6.47E2,2.629E3,1.348E3,3.866E3,9.91E2,4.74E2,7.87E2,1.55E2,1.445E3,7.3E1,8.6E1,1.102E3,2.7E1,1.33E2,5E0,3.5E1,8.7E1,8E0,3.83E2,7.84E2,8.97E2,2.67E2,3.2E1,4.5E1,1.42E2,4.1E1,5.38E2,2E0,4.09E2,3.32E2,1.314E3,7E0,6.27E2,2.33E2,1.05E2,1.26E2,3.11E2,1.72E2,7E0,4E0,5.08E2,3.29E2,2.1E1,2.65E2,6.8E1,4.61E2,5.76E2,3.46E3,1E0,4E0,1.2E1,9.6E1,2.37E2,4.1E2,1.902E3,7.27E2,5.8E2,7.68E2,2.725E3,1.141E3,2.65E2,7.26E2,2.84E2,1.9E2,3.36E2,4.51E2,1.4E2,1.5E1],"tree_param":{"num_deleted":"0","num_feature":"13","num_nodes":"123","size_leaf_vector":"1"}},{"base_weights":[-3.0941208E-4,-1.266514E-1,1.0813105E-1,-1.861298E-1,-5.6339975E-2,8.747647E-3,1.564778E-1,-1.4482991E-1,-2.1805334E-1,-1.1540071E-1,4.412711E-2,-1.8901803E-1,2.9016769E-2,-4.736916E-3,1.8913774E-1,-8.166265E-2,-1.7259553E-1,-1.9891217E-1,-2.3254354E-1,-1.882196E-1,-9.495444E-2,1.21709496E-1,-3.5297144E-2,-2.3601276E-1,-8.268925E-2,-8.060886E-2,6.4590655E-2,-5.3174525E-2,6.571827E-2,2.3146465E-1,1.2374899E-1,-1.4870106E-1,-2.9007494E-2,-1.9253041E-1,-1.1471601E-1,-1.6953135E-1,-2.172076E-1,-2.4153012E-1,-2.2525685E-1,-1.896606E-1,4.3825144E-3,-2.2588716E-1,-8.436227E-2,7.418067E-2,1.8593833E-1,-7.751313E-2,7.9535596E-2,5.3463965E-3,-2.3744546E-1,-1.7101167E-2,-1.5088114E-1,-1.03892915E-1,-1.3245741E-3,-4.9750237E-3,9.843479E-2,-8.635796E-2,-2.2427348E-2,-3.9888006E-2,9.408231E-2,2.6439044E-1,1.9757894E-1,6.521059E-2,1.6459543E-1,-7.980277E-3,-2.6214067E-3,-4.32003E-3,1.4691994E-3,-1.000641E-2,-5.0512203E-3,-6.1048525E-3,9.751372E-3,-6.1191884E-3,-9.85211E-3,-1.2022736E-2,-1.0095235E-2,-1.208238E-2,-3.1570692E-3,-1.147111E-2,-1.0469821E-2,-9.7402325E-3,-8.25538E-3,3.187647E-3,-4.8014517E-3,-3.500434E-3,-1.1985218E-2,-5.5934736E-3,-1.7930787E-3,1.2502706E-3,6.095191E-3,-9.113547E-3,9.759999E-3,-9.114292E-3,-2.2760124E-3,-1.317782E-3,6.3659213E-3,-1.2322603E-2,-8.828826E-3,-2.9464287E-3,1.3762509E-3,-9.700052E-3,8.6419674E-4,-1.4119681E-3,-6.5656477E-3,-1.7970875E-3,3.4596205E-3,1.1016789E-3,-4.833817E-3,6.224575E-3,1.6741597E-3,-5.478623E-3,-2.9054012E-3,3.6764127E-4,-3.4893844E-3,9.857513E-4,-3.1958488E-3,-8.683424E-5,6.2974067E-3,1.0464723E-2,1.4112028E-2,6.5895775E-3,1.0497163E-2,2.1943569E-3,8.539454E-3,9.572839E-3,5.3293398E-3],"categories":[],"categories_nodes":[],"categories_segments":[],"categories_sizes":[],"default_left":[0,0,0,0,0,0,0,0,0,0,0,0,0,1,0,0,0,0,0,1,0,0,0,0,0,0,0,0,0,0,0,0,0,0,0,0,0,1,0,1,0,0,0,0,0,0,0,0,0,0,0,0,0,0,0,0,0,0,0,0,0,0,0,0,0,0,0,0,0,0,0,0,0,0,0,0,0,0,0,0,0,0,0,0,0,0,0,0,0,0,0,0,0,0,0,0,0,0,0,0,0,0,0,0,0,0,0,0,0,0,0,0,0,0,0,0,0,0,0,0,0,0,0,0,0],"id":7,"left_children":[1,3,5,7,9,11,13,15,17,19,21,23,25,27,29,31,33,35,37,39,41,43,45,47,49,51,53,55,57,59,61,63,65,67,69,71,73,75,77,79,81,83,85,87,89,91,93,-1,95,97,99,101,103,105,107,109,111,113,115,117,119,121,123,-1,-1,-1,-1,-1,-1,-1,-1,-1,-1,-1,-1,-1,-1,-1,-1,-1,-1,-1,-1,-1,-1,-1,-1,-1,-1,-1,-1,-1,-1,-1,-1,-1,-1,-1,-1,-1,-1,-1,-1,-1,-1,-1,-1,-1,-1,-1,-1,-1,-1,-1,-1,-1,-1,-1,-1,-1,-1,-1,-1,-1,-1],"loss_changes":[3.805748E2,5.3644714E1,7.182173E1,9.131561E0,3.4900948E1,1.9619253E1,5.294841E1,5.3054123E0,1.040451E0,5.4969177E0,1.3424965E1,2.2540684E0,1.731646E1,5.787988E0,2.3114868E1,3.2714505E0,2.4078636E0,8.7429047E-1,9.12323E-2,2.25914E-1,3.994524E0,3.3503075E0,5.2272215E0,1.8016052E-1,6.2805283E-1,2.0083752E0,7.8924055E0,1.0234616E0,2.0735888E0,5.610016E0,7.8511543E0,4.1995335E-1,1.7485496E0,1.0678406E0,1.262948E0,8.2546616E-1,3.2178497E-1,5.317688E-3,3.407669E-2,6.951141E-2,4.785247E-2,4.4844055E-1,3.5700912E0,1.4871683E0,1.6315632E0,2.6330633E0,1.4706929E0,0E0,1.2862396E-1,1.3788362E-1,5.0369024E-1,1.740881E0,6.078794E-1,2.7215736E0,3.8122482E0,3.1038833E-1,7.381519E-1,2.1179344E-1,1.6642952E0,2.4694214E0,2.0099335E0,3.0385103E0,2.9962502E0,0E0,0E0,0E0,0E0,0E0,0E0,0E0,0E0,0E0,0E0,0E0,0E0,0E0,0E0,0E0,0E0,0E0,0E0,0E0,0E0,0E0,0E0,0E0,0E0,0E0,0E0,0E0,0E0,0E0,0E0,0E0,0E0,0E0,0E0,0E0,0E0,0E0,0E0,0E0,0E0,0E0,0E0,0E0,0E0,0E0,0E0,0E0,0E0,0E0,0E0,0E0,0E0,0E0,0E0,0E0,0E0,0E0,0E0,0E0,0E0,0E0,0E0],"parents":[2147483647,0,0,1,1,2,2,3,3,4,4,5,5,6,6,7,7,8,8,9,9,10,10,11,11,12,12,13,13,14,14,15,15,16,16,17,17,18,18,19,19,20,20,21,21,22,22,23,23,24,24,25,25,26,26,27,27,28,28,29,29,30,30,31,31,32,32,33,33,34,34,35,35,36,36,37,37,38,38,39,39,40,40,41,41,42,42,43,43,44,44,45,45,46,46,48,48,49,49,50,50,51,51,52,52,53,53,54,54,55,55,56,56,57,57,58,58,59,59,60,60,61,61,62,62],"right_children":[2,4,6,8,10,12,14,16,18,20,22,24,26,28,30,32,34,36,38,40,42,44,46,48,50,52,54,56,58,60,62,64,66,68,70,72,74,76,78,80,82,84,86,88,90,92,94,-1,96,98,100,102,104,106,108,110,112,114,116,118,120,122,124,-1,-1,-1,-1,-1,-1,-1,-1,-1,-1,-1,-1,-1,-1,-1,-1,-1,-1,-1,-1,-1,-1,-1,-1,-1,-1,-1,-1,-1,-1,-1,-1,-1,-1,-1,-1,-1,-1,-1,-1,-1,-1,-1,-1,-1,-1,-1,-1,-1,-1,-1,-1,-1,-1,-1,-1,-1,-1,-1,-1,-1,-1],"split_conditions":[4.369E2,2.367E2,2.9945E-1,-2.5881904E-1,4.520722E-1,4.637633E-3,-5E-1,3.4E1,-1.8369701E-16,-8.660254E-1,1.6375E1,2.7698425E2,1.2246469E-16,7.069167E-1,1.0625E1,-7.0710677E-1,2.426E-1,1.8625E1,1.177E2,6.768098E-1,2.747343E2,3.685E2,4.855028E-1,4.115348E-1,5.32098E-1,8.2067907E-1,6.7135E-2,-7.0710677E-1,-7.0710677E-1,2.9427524E2,-5.049611E-1,7.069167E-1,2.7593515E2,2.9205853E2,2.5881904E-1,2.746541E-3,2.7832303E2,8.294881E-1,1E0,5.4251784E-1,-3.975428E-1,3.0155218E-1,-2.0089056E-1,5E-1,2.6654205E2,2.702707E2,3.4387553E-1,5.3463965E-3,2.7453497E2,-3.8168922E-1,7.18E2,1.5E1,2.1446666E-1,6.525E1,4.5125E1,5.59E2,3.15E1,6.25E-1,-6.839194E-1,5.114464E-1,-2.5881904E-1,5E-1,8.5E1,-7.980277E-3,-2.6214067E-3,-4.32003E-3,1.4691994E-3,-1.000641E-2,-5.0512203E-3,-6.1048525E-3,9.751372E-3,-6.1191884E-3,-9.85211E-3,-1.2022736E-2,-1.0095235E-2,-1.208238E-2,-3.1570692E-3,-1.147111E-2,-1.0469821E-2,-9.7402325E-3,-8.25538E-3,3.187647E-3,-4.8014517E-3,-3.500434E-3,-1.1985218E-2,-5.5934736E-3,-1.7930787E-3,1.2502706E-3,6.095191E-3,-9.113547E-3,9.759999E-3,-9.114292E-3,-2.2760124E-3,-1.317782E-3,6.3659213E-3,-1.2322603E-2,-8.828826E-3,-2.9464287E-3,1.3762509E-3,-9.700052E-3,8.6419674E-4,-1.4119681E-3,-6.5656477E-3,-1.7970875E-3,3.4596205E-3,1.1016789E-3,-4.833817E-3,6.224575E-3,1.6741597E-3,-5.478623E-3,-2.9054012E-3,3.6764127E-4,-3.4893844E-3,9.857513E-4,-3.1958488E-3,-8.683424E-5,6.2974067E-3,1.0464723E-2,1.4112028E-2,6.5895775E-3,1.0497163E-2,2.1943569E-3,8.539454E-3,9.572839E-3,5.3293398E-3],"split_indices":[6,6,4,1,3,4,0,8,1,0,8,7,0,4,8,0,4,8,6,4,7,6,4,5,5,5,4,0,0,7,3,4,7,7,0,4,7,4,11,4,3,5,3,0,7,7,5,0,7,3,6,8,4,8,8,6,8,8,3,4,0,0,8,0,0,0,0,0,0,0,0,0,0,0,0,0,0,0,0,0,0,0,0,0,0,0,0,0,0,0,0,0,0,0,0,0,0,0,0,0,0,0,0,0,0,0,0,0,0,0,0,0,0,0,0,0,0,0,0,0,0,0,0,0,0],"split_type":[0,0,0,0,0,0,0,0,0,0,0,0,0,0,0,0,0,0,0,0,0,0,0,0,0,0,0,0,0,0,0,0,0,0,0,0,0,0,0,0,0,0,0,0,0,0,0,0,0,0,0,0,0,0,0,0,0,0,0,0,0,0,0,0,0,0,0,0,0,0,0,0,0,0,0,0,0,0,0,0,0,0,0,0,0,0,0,0,0,0,0,0,0,0,0,0,0,0,0,0,0,0,0,0,0,0,0,0,0,0,0,0,0,0,0,0,0,0,0,0,0,0,0,0,0],"sum_hessian":[2.7776E4,1.2829E4,1.4947E4,6.949E3,5.88E3,4.892E3,1.0055E4,3.032E3,3.917E3,3.703E3,2.177E3,4.54E2,4.438E3,1.694E3,8.361E3,9.27E2,2.105E3,1.694E3,2.223E3,8.1E2,2.893E3,1.101E3,1.076E3,3.14E2,1.4E2,1.087E3,3.351E3,1.004E3,6.9E2,5.074E3,3.287E3,4.07E2,5.2E2,1.564E3,5.41E2,6.54E2,1.04E3,9.81E2,1.242E3,8.04E2,6E0,2.15E2,2.678E3,6.34E2,4.67E2,7.87E2,2.89E2,1E0,3.13E2,7.2E1,6.8E1,8.4E2,2.47E2,1.097E3,2.254E3,4.82E2,5.22E2,1.46E2,5.44E2,2.57E3,2.504E3,1.352E3,1.935E3,3.65E2,4.2E1,2.62E2,2.58E2,1.443E3,1.21E2,5.29E2,1.2E1,2.43E2,4.11E2,4.07E2,6.33E2,9.8E2,1E0,9.73E2,2.69E2,6.59E2,1.45E2,4E0,2E0,1.8E1,1.97E2,1.708E3,9.7E2,3.13E2,3.21E2,1.1E1,4.56E2,1.83E2,6.04E2,9E1,1.99E2,2.7E2,4.3E1,3.7E1,3.5E1,5.4E1,1.4E1,2.24E2,6.16E2,1.66E2,8.1E1,8.48E2,2.49E2,1.608E3,6.46E2,2.63E2,2.19E2,3.21E2,2.01E2,4.2E1,1.04E2,1.36E2,4.08E2,6.32E2,1.938E3,3.98E2,2.106E3,1.126E3,2.26E2,1.321E3,6.14E2],"tree_param":{"num_deleted":"0","num_feature":"13","num_nodes":"125","size_leaf_vector":"1"}},{"base_weights":[-2.8356933E-4,-1.2086785E-1,1.03088245E-1,-1.760156E-1,-5.466031E-2,9.234575E-3,1.5028803E-1,-1.3584267E-1,-2.0735519E-1,-1.0946222E-1,3.8798273E-2,-1.6604766E-1,2.9229064E-2,1.8147333E-1,2.0799216E-2,-7.5452566E-2,-1.6493483E-1,-1.8970744E-1,-2.205496E-1,-7.720017E-2,-1.4414543E-1,1.0958803E-1,-3.450379E-2,-2.2287594E-1,-7.404876E-2,6.7441575E-2,-2.4157563E-2,2.2382668E-1,1.16309494E-1,6.700512E-2,-7.533044E-2,-1.0807612E-1,-1.9788595E-2,-1.8293908E-1,-1.1342655E-1,-1.6166906E-1,-2.0733638E-1,-1.1605176E-2,-2.1601857E-1,3.9748866E-3,-1.1045481E-1,-1.172244E-1,-1.7744295E-1,-1.7093353E-1,1.20385945E-1,-7.552289E-2,7.134781E-2,-2.5442317E-1,-1.5010324E-1,-1.1289256E-1,1.8719668E-2,4.169256E-2,1.2810813E-1,-2.1269184E-1,-1.351631E-2,2.5667587E-1,1.9058572E-1,5.627131E-2,1.563158E-1,1.2275963E-1,2.0761527E-2,-2.4860658E-2,-9.1993764E-2,-2.652697E-3,-7.0379633E-3,-1.23365745E-2,-1.6668979E-4,-1.0048023E-2,-7.427865E-3,-2.3172956E-3,-6.8226755E-3,-5.6722737E-3,-9.331926E-3,-1.1518499E-2,-9.621506E-3,-1.0995511E-2,-1.0034898E-2,1.7024986E-3,-1.6366309E-3,-1.0541906E-2,-4.716657E-3,-4.5034224E-3,-8.938668E-3,-8.963848E-3,1.189099E-3,-2.0784815E-3,-1.1823575E-2,3.8120807E-3,9.0599395E-3,-9.21349E-3,-2.474579E-3,5.854476E-3,6.420204E-4,-2.0438305E-3,-1.2910301E-2,-1.1114194E-2,-4.599921E-3,-4.0256707E-3,-1.0525948E-2,-5.8415264E-4,1.4461211E-2,-1.1560938E-3,3.1578836E-3,-1.7627424E-3,6.8732835E-3,-1.1948961E-2,-4.7796667E-3,-2.3969405E-3,1.380158E-3,9.765187E-3,1.35869235E-2,1.0538228E-2,7.4970587E-3,5.6494446E-4,5.0612926E-3,5.785339E-3,9.561041E-3,1.0503989E-2,4.492819E-3,3.0062718E-3,-2.3281898E-3,-5.492051E-3,-4.3499918E-4,-6.503132E-3,-3.1336353E-3],"categories":[],"categories_nodes":[],"categories_segments":[],"categories_sizes":[],"default_left":[0,0,0,0,0,0,0,0,0,0,0,0,0,0,0,0,0,0,0,0,1,0,0,0,0,0,0,0,0,0,0,1,0,0,0,1,0,0,0,1,0,0,0,0,0,0,0,0,0,0,0,0,0,0,0,0,0,0,0,0,0,0,0,0,0,0,0,0,0,0,0,0,0,0,0,0,0,0,0,0,0,0,0,0,0,0,0,0,0,0,0,0,0,0,0,0,0,0,0,0,0,0,0,0,0,0,0,0,0,0,0,0,0,0,0,0,0,0,0,0,0,0,0,0,0],"id":8,"left_children":[1,3,5,7,9,11,13,15,17,19,21,23,25,27,29,31,33,35,37,39,41,43,45,47,49,51,53,55,57,59,61,63,65,67,69,71,73,-1,75,77,79,81,83,85,87,89,91,93,95,97,99,101,103,105,107,109,111,113,115,117,119,121,123,-1,-1,-1,-1,-1,-1,-1,-1,-1,-1,-1,-1,-1,-1,-1,-1,-1,-1,-1,-1,-1,-1,-1,-1,-1,-1,-1,-1,-1,-1,-1,-1,-1,-1,-1,-1,-1,-1,-1,-1,-1,-1,-1,-1,-1,-1,-1,-1,-1,-1,-1,-1,-1,-1,-1,-1,-1,-1,-1,-1,-1,-1],"loss_changes":[3.4577957E2,4.674031E1,6.616319E1,8.765961E0,2.981259E1,1.7524742E1,4.0127335E1,5.370632E0,8.7138367E-1,4.094307E0,1.1170586E1,2.660304E0,9.157316E0,2.2078064E1,8.57764E0,1.8101869E0,1.8961182E0,7.9935837E-1,6.703186E-2,5.1374884E0,1.5631447E0,3.3373852E0,4.5991583E0,6.8727493E-1,7.119987E-1,4.0811234E0,3.754815E0,5.250244E0,7.5740204E0,3.35954E0,5.2501655E-1,1.123661E0,1.3808682E0,9.181442E-1,8.2470465E-1,7.675209E-1,3.0965805E-1,0E0,5.256653E-2,6.127202E-1,2.1648788E0,1.6218891E0,2.9507065E-1,3.377782E-1,2.8183775E0,2.1507988E0,7.9066014E-1,1.6635513E-1,3.905666E-1,4.224378E-1,4.8859936E-1,2.5585759E0,1.1956835E0,2.8497696E-1,2.512305E0,2.2006836E0,1.9498978E0,2.5543041E0,2.6625443E0,1.6791353E0,1.8950338E0,2.1465874E-1,5.175879E-1,0E0,0E0,0E0,0E0,0E0,0E0,0E0,0E0,0E0,0E0,0E0,0E0,0E0,0E0,0E0,0E0,0E0,0E0,0E0,0E0,0E0,0E0,0E0,0E0,0E0,0E0,0E0,0E0,0E0,0E0,0E0,0E0,0E0,0E0,0E0,0E0,0E0,0E0,0E0,0E0,0E0,0E0,0E0,0E0,0E0,0E0,0E0,0E0,0E0,0E0,0E0,0E0,0E0,0E0,0E0,0E0,0E0,0E0,0E0,0E0,0E0,0E0],"parents":[2147483647,0,0,1,1,2,2,3,3,4,4,5,5,6,6,7,7,8,8,9,9,10,10,11,11,12,12,13,13,14,14,15,15,16,16,17,17,18,18,19,19,20,20,21,21,22,22,23,23,24,24,25,25,26,26,27,27,28,28,29,29,30,30,31,31,32,32,33,33,34,34,35,35,36,36,38,38,39,39,40,40,41,41,42,42,43,43,44,44,45,45,46,46,47,47,48,48,49,49,50,50,51,51,52,52,53,53,54,54,55,55,56,56,57,57,58,58,59,59,60,60,61,61,62,62],"right_children":[2,4,6,8,10,12,14,16,18,20,22,24,26,28,30,32,34,36,38,40,42,44,46,48,50,52,54,56,58,60,62,64,66,68,70,72,74,-1,76,78,80,82,84,86,88,90,92,94,96,98,100,102,104,106,108,110,112,114,116,118,120,122,124,-1,-1,-1,-1,-1,-1,-1,-1,-1,-1,-1,-1,-1,-1,-1,-1,-1,-1,-1,-1,-1,-1,-1,-1,-1,-1,-1,-1,-1,-1,-1,-1,-1,-1,-1,-1,-1,-1,-1,-1,-1,-1,-1,-1,-1,-1,-1,-1,-1,-1,-1,-1,-1,-1,-1,-1,-1,-1,-1,-1,-1,-1],"split_conditions":[4.369E2,2.367E2,3.041E-1,-2.5881904E-1,4.520722E-1,6.995466E-3,-7.0710677E-1,3.7625E1,-1.8369701E-16,-2.5881904E-1,1.6375E1,2.7504587E2,2.875E1,1.0625E1,-5E-1,1.49E2,2.2809821E-1,1.8625E1,8.04E1,1.7625E1,2.3955E-2,2.672434E2,4.855028E-1,1E0,8.9963084E-1,-3.008198E-1,2.6887405E2,2.9440305E2,-5.049611E-1,5.5E0,8.75E-1,2.789777E-3,2.6837488E2,2.7874725E2,-7.0710677E-1,3.889296E-4,2.7832303E2,-1.1605176E-2,1E0,1.0686E-1,2.7504587E2,1E0,6.714738E-1,2.944E2,3.685E2,2.6958795E2,-7.0710677E-1,-7.4410397E-1,2.6887405E2,5.8778524E-1,6.27E2,5.848E-2,2.6924652E2,1.3036607E-1,-4.4437817E-1,5.114464E-1,8.75E-1,2.1352091E-1,6.87E2,3.7371665E-1,3.0022073E2,5.7065E-1,5.35E2,-2.652697E-3,-7.0379633E-3,-1.23365745E-2,-1.6668979E-4,-1.0048023E-2,-7.427865E-3,-2.3172956E-3,-6.8226755E-3,-5.6722737E-3,-9.331926E-3,-1.1518499E-2,-9.621506E-3,-1.0995511E-2,-1.0034898E-2,1.7024986E-3,-1.6366309E-3,-1.0541906E-2,-4.716657E-3,-4.5034224E-3,-8.938668E-3,-8.963848E-3,1.189099E-3,-2.0784815E-3,-1.1823575E-2,3.8120807E-3,9.0599395E-3,-9.21349E-3,-2.474579E-3,5.854476E-3,6.420204E-4,-2.0438305E-3,-1.2910301E-2,-1.1114194E-2,-4.599921E-3,-4.0256707E-3,-1.0525948E-2,-5.8415264E-4,1.4461211E-2,-1.1560938E-3,3.1578836E-3,-1.7627424E-3,6.8732835E-3,-1.1948961E-2,-4.7796667E-3,-2.3969405E-3,1.380158E-3,9.765187E-3,1.35869235E-2,1.0538228E-2,7.4970587E-3,5.6494446E-4,5.0612926E-3,5.785339E-3,9.561041E-3,1.0503989E-2,4.492819E-3,3.0062718E-3,-2.3281898E-3,-5.492051E-3,-4.3499918E-4,-6.503132E-3,-3.1336353E-3],"split_indices":[6,6,4,1,3,4,1,8,1,1,8,7,8,8,1,6,4,8,6,8,4,7,4,9,2,3,7,7,3,8,8,4,7,7,1,4,7,0,11,4,7,9,4,6,6,7,1,3,7,2,6,4,7,4,3,4,8,2,6,4,7,4,6,0,0,0,0,0,0,0,0,0,0,0,0,0,0,0,0,0,0,0,0,0,0,0,0,0,0,0,0,0,0,0,0,0,0,0,0,0,0,0,0,0,0,0,0,0,0,0,0,0,0,0,0,0,0,0,0,0,0,0,0,0,0],"split_type":[0,0,0,0,0,0,0,0,0,0,0,0,0,0,0,0,0,0,0,0,0,0,0,0,0,0,0,0,0,0,0,0,0,0,0,0,0,0,0,0,0,0,0,0,0,0,0,0,0,0,0,0,0,0,0,0,0,0,0,0,0,0,0,0,0,0,0,0,0,0,0,0,0,0,0,0,0,0,0,0,0,0,0,0,0,0,0,0,0,0,0,0,0,0,0,0,0,0,0,0,0,0,0,0,0,0,0,0,0,0,0,0,0,0,0,0,0,0,0,0,0,0,0,0,0],"sum_hessian":[2.7738E4,1.2803E4,1.4935E4,6.984E3,5.819E3,4.998E3,9.937E3,3.063E3,3.921E3,3.668E3,2.151E3,5.11E2,4.487E3,8.008E3,1.929E3,9.97E2,2.066E3,1.684E3,2.237E3,1.902E3,1.766E3,1.094E3,1.057E3,3.15E2,1.96E2,2.615E3,1.872E3,4.852E3,3.156E3,1.303E3,6.26E2,6.28E2,3.69E2,1.529E3,5.37E2,6.54E2,1.03E3,6.16E2,1.621E3,5.53E2,1.349E3,9.79E2,7.87E2,4E1,1.054E3,7.62E2,2.95E2,2.18E2,9.7E1,1.38E2,5.8E1,1.837E3,7.78E2,9.9E1,1.773E3,2.437E3,2.415E3,1.263E3,1.893E3,5.9E2,7.13E2,1.56E2,4.7E2,2.35E2,3.93E2,2.4E1,3.45E2,1E3,5.29E2,1.38E2,3.99E2,2.25E2,4.29E2,3.99E2,6.31E2,1.282E3,3.39E2,3.04E2,2.49E2,1.85E2,1.164E3,6.81E2,2.98E2,7.8E2,7E0,1.4E1,2.6E1,6.12E2,4.42E2,1.46E2,6.16E2,1.65E2,1.3E2,4E0,2.14E2,4.2E1,5.5E1,1.05E2,3.3E1,5.3E1,5E0,4.57E2,1.38E3,4.2E1,7.36E2,8E1,1.9E1,9.65E2,8.08E2,4.83E2,1.954E3,1.611E3,8.04E2,6.32E2,6.31E2,8.77E2,1.016E3,1.6E2,4.3E2,4.5E2,2.63E2,2.4E1,1.32E2,2.03E2,2.67E2],"tree_param":{"num_deleted":"0","num_feature":"13","num_nodes":"125","size_leaf_vector":"1"}},{"base_weights":[4.5422054E-5,8.2258485E-2,-1.3291731E-1,1.5059963E-1,-1.7401963E-2,-8.0499165E-2,-1.7774647E-1,7.268744E-2,1.7763825E-1,-1.20675996E-1,3.5832845E-2,-3.619464E-2,-1.4693743E-1,-1.5689649E-1,-2.092877E-1,-2.1929824E-4,1.2191362E-1,1.0704838E-1,2.1185604E-1,-1.6956475E-1,-8.72351E-2,-2.3049483E-2,7.446015E-2,-8.944494E-2,7.7668414E-3,-1.9184037E-1,-1.3026322E-1,-1.8127038E-1,-1.3203089E-1,-2.1868648E-1,-2.0433304E-1,-5.237898E-2,3.5635635E-2,8.001675E-2,1.533053E-1,2.178071E-2,1.2495352E-1,1.742812E-1,2.4698646E-1,-1.8286736E-1,-5.3067617E-2,-1.331138E-1,-1.03447065E-2,-6.261754E-2,5.018744E-2,1.014131E-1,1.7100414E-3,-1.13071665E-1,-3.2035314E-2,4.0383548E-2,-5.9341606E-2,-8.776571E-2,-1.9620052E-1,-1.3791014E-1,-7.247988E-2,-2.0859529E-1,-1.7368524E-1,-1.1323154E-1,-1.8492942E-1,-1.0961392E-2,-1.284376E-1,-1.9965093E-1,-1.0731253E-2,-5.039606E-3,-1.1711828E-3,1.0035035E-3,4.457241E-3,4.795001E-3,-3.7521862E-3,6.4264587E-3,1.1292955E-2,4.7339494E-3,-6.082616E-3,5.1712566E-3,8.383439E-3,9.988884E-3,6.515396E-3,1.165346E-2,1.3787105E-2,-1.0841425E-2,-8.176687E-3,5.9483685E-3,-6.788739E-3,-7.186487E-3,-2.2294037E-3,-3.5125155E-3,3.1753348E-3,-3.430624E-3,4.5322846E-3,-3.0658857E-3,4.062319E-3,1.7000566E-3,6.226566E-3,-2.9920328E-3,1.2598906E-3,-4.525572E-3,-7.927756E-3,-3.5816357E-3,-2.8346828E-4,4.215894E-3,-1.2452597E-3,-5.709003E-3,-2.4478312E-3,6.220275E-4,-5.475826E-3,-1.0199356E-2,-7.677269E-3,-8.227309E-3,-5.3298906E-3,-4.0024915E-3,2.176466E-3,-1.0828189E-2,-9.080475E-3,-8.899027E-3,-6.5771937E-3,-6.6255666E-3,-1.7716767E-3,-4.2452826E-3,-9.688522E-3,-6.8946034E-3,-1.7927688E-3,-8.935089E-3,-1.0436064E-2],"categories":[],"categories_nodes":[],"categories_segments":[],"categories_sizes":[],"default_left":[0,0,0,0,0,0,0,0,0,0,0,0,0,0,0,0,0,0,0,0,0,1,0,1,0,0,1,0,0,1,0,0,0,0,0,0,0,0,0,0,0,0,0,0,0,0,1,0,0,0,0,0,0,0,0,0,1,0,0,0,0,0,0,0,0,0,0,0,0,0,0,0,0,0,0,0,0,0,0,0,0,0,0,0,0,0,0,0,0,0,0,0,0,0,0,0,0,0,0,0,0,0,0,0,0,0,0,0,0,0,0,0,0,0,0,0,0,0,0,0,0,0,0],"id":9,"left_children":[1,3,5,7,9,11,13,15,17,19,21,23,25,27,29,31,33,35,37,39,41,43,45,47,49,51,53,55,57,59,61,63,65,67,69,71,73,75,77,79,81,83,85,87,89,91,93,95,97,99,101,103,105,107,109,111,113,115,117,-1,119,121,-1,-1,-1,-1,-1,-1,-1,-1,-1,-1,-1,-1,-1,-1,-1,-1,-1,-1,-1,-1,-1,-1,-1,-1,-1,-1,-1,-1,-1,-1,-1,-1,-1,-1,-1,-1,-1,-1,-1,-1,-1,-1,-1,-1,-1,-1,-1,-1,-1,-1,-1,-1,-1,-1,-1,-1,-1,-1,-1,-1,-1],"loss_changes":[3.0306955E2,1.1668712E2,2.4877762E1,2.1396866E1,3.8323803E1,1.4373758E1,3.7216034E0,9.402998E0,1.8199295E1,3.8615189E0,1.0464257E1,6.8643956E0,1.4380112E0,2.0615616E0,6.098175E-2,1.9786489E0,2.0447273E0,3.7606678E0,6.6626434E0,1.481123E0,4.972583E0,5.2859097E0,5.447013E0,1.7949667E0,3.5198889E0,2.2192192E-1,6.2098694E-1,3.233757E-1,1.6766014E0,9.414673E-3,2.9476166E-2,6.018225E-1,5.2043957E-1,1.6622434E0,1.5762291E0,4.4971504E0,1.8558655E0,2.7297897E0,9.8547363E-1,5.311794E-1,1.4390054E0,8.234205E-1,2.3403928E0,1.0940824E0,2.2214508E0,3.1547337E0,1.0886656E0,9.49172E-1,4.0467477E-1,3.105727E0,2.9396534E-1,5.1492512E-2,1.3640976E-1,1.0333443E0,1.5189743E-1,4.066086E-2,2.2348022E-1,1.8882141E0,3.7795067E-1,0E0,1.1830479E-3,1.6146088E-1,0E0,0E0,0E0,0E0,0E0,0E0,0E0,0E0,0E0,0E0,0E0,0E0,0E0,0E0,0E0,0E0,0E0,0E0,0E0,0E0,0E0,0E0,0E0,0E0,0E0,0E0,0E0,0E0,0E0,0E0,0E0,0E0,0E0,0E0,0E0,0E0,0E0,0E0,0E0,0E0,0E0,0E0,0E0,0E0,0E0,0E0,0E0,0E0,0E0,0E0,0E0,0E0,0E0,0E0,0E0,0E0,0E0,0E0,0E0,0E0,0E0],"parents":[2147483647,0,0,1,1,2,2,3,3,4,4,5,5,6,6,7,7,8,8,9,9,10,10,11,11,12,12,13,13,14,14,15,15,16,16,17,17,18,18,19,19,20,20,21,21,22,22,23,23,24,24,25,25,26,26,27,27,28,28,29,29,30,30,31,31,32,32,33,33,34,34,35,35,36,36,37,37,38,38,39,39,40,40,41,41,42,42,43,43,44,44,45,45,46,46,47,47,48,48,49,49,50,50,51,51,52,52,53,53,54,54,55,55,56,56,57,57,58,58,60,60,61,61],"right_children":[2,4,6,8,10,12,14,16,18,20,22,24,26,28,30,32,34,36,38,40,42,44,46,48,50,52,54,56,58,60,62,64,66,68,70,72,74,76,78,80,82,84,86,88,90,92,94,96,98,100,102,104,106,108,110,112,114,116,118,-1,120,122,-1,-1,-1,-1,-1,-1,-1,-1,-1,-1,-1,-1,-1,-1,-1,-1,-1,-1,-1,-1,-1,-1,-1,-1,-1,-1,-1,-1,-1,-1,-1,-1,-1,-1,-1,-1,-1,-1,-1,-1,-1,-1,-1,-1,-1,-1,-1,-1,-1,-1,-1,-1,-1,-1,-1,-1,-1,-1,-1,-1,-1],"split_conditions":[-5E-1,2.9E1,-2.5881904E-1,-2.5881904E-1,1.3036607E-1,3.35E1,-1.8369701E-16,7.014E-1,3.348811E-1,1.668315E-2,-2.5881904E-1,-7.0710677E-1,2.3933986E-1,-8.660254E-1,1.7678083E-1,4.0655E-1,-5E-1,1.49598215E-2,-3.4964746E-1,9.7110003E-1,5E-1,6.849E-1,8.853112E-1,6.7394644E-1,1E0,-9.307239E-1,6.458667E-1,2.227675E-1,5.075E1,5.668167E-1,1E0,-6.839194E-1,7.992307E-1,1.9E1,7.583058E-1,3.9229494E-1,9.025161E-2,3.875E0,6.9328123E-1,5E-1,9.025E1,9.413173E-1,2.1516098E-2,9.9887973E-1,-6.839194E-1,2.5163335E-1,2.9525894E-1,3.09017E-1,2.8023067E-1,1E0,1.8702948E-1,6E1,5.668167E-1,-7.0710677E-1,8.294881E-1,5.779833E-1,5.779833E-1,1E0,-9.497178E-1,-1.0961392E-2,2.0375E1,2.2905E-3,-1.0731253E-2,-5.039606E-3,-1.1711828E-3,1.0035035E-3,4.457241E-3,4.795001E-3,-3.7521862E-3,6.4264587E-3,1.1292955E-2,4.7339494E-3,-6.082616E-3,5.1712566E-3,8.383439E-3,9.988884E-3,6.515396E-3,1.165346E-2,1.3787105E-2,-1.0841425E-2,-8.176687E-3,5.9483685E-3,-6.788739E-3,-7.186487E-3,-2.2294037E-3,-3.5125155E-3,3.1753348E-3,-3.430624E-3,4.5322846E-3,-3.0658857E-3,4.062319E-3,1.7000566E-3,6.226566E-3,-2.9920328E-3,1.2598906E-3,-4.525572E-3,-7.927756E-3,-3.5816357E-3,-2.8346828E-4,4.215894E-3,-1.2452597E-3,-5.709003E-3,-2.4478312E-3,6.220275E-4,-5.475826E-3,-1.0199356E-2,-7.677269E-3,-8.227309E-3,-5.3298906E-3,-4.0024915E-3,2.176466E-3,-1.0828189E-2,-9.080475E-3,-8.899027E-3,-6.5771937E-3,-6.6255666E-3,-1.7716767E-3,-4.2452826E-3,-9.688522E-3,-6.8946034E-3,-1.7927688E-3,-8.935089E-3,-1.0436064E-2],"split_indices":[1,8,1,0,4,8,1,4,4,4,0,0,5,0,5,4,0,4,3,3,0,4,5,4,9,2,4,5,8,4,9,3,5,8,2,5,3,8,2,0,8,3,3,2,3,4,4,3,2,10,5,8,4,0,4,4,4,11,3,0,8,4,0,0,0,0,0,0,0,0,0,0,0,0,0,0,0,0,0,0,0,0,0,0,0,0,0,0,0,0,0,0,0,0,0,0,0,0,0,0,0,0,0,0,0,0,0,0,0,0,0,0,0,0,0,0,0,0,0,0,0,0,0],"split_type":[0,0,0,0,0,0,0,0,0,0,0,0,0,0,0,0,0,0,0,0,0,0,0,0,0,0,0,0,0,0,0,0,0,0,0,0,0,0,0,0,0,0,0,0,0,0,0,0,0,0,0,0,0,0,0,0,0,0,0,0,0,0,0,0,0,0,0,0,0,0,0,0,0,0,0,0,0,0,0,0,0,0,0,0,0,0,0,0,0,0,0,0,0,0,0,0,0,0,0,0,0,0,0,0,0,0,0,0,0,0,0,0,0,0,0,0,0,0,0,0,0,0,0],"sum_hessian":[2.7723E4,1.7131E4,1.0592E4,1.0162E4,6.969E3,4.884E3,5.708E3,2.619E3,7.543E3,2.37E3,4.599E3,2.931E3,1.953E3,3.44E3,2.268E3,1.056E3,1.563E3,2.464E3,5.079E3,9.61E2,1.409E3,1.822E3,2.777E3,1.325E3,1.606E3,5.26E2,1.427E3,1.734E3,1.706E3,7.68E2,1.5E3,4.3E2,6.26E2,6.71E2,8.92E2,4.28E2,2.036E3,2.457E3,2.622E3,8.62E2,9.9E1,8.82E2,5.27E2,1.183E3,6.39E2,2.026E3,7.51E2,9.38E2,3.87E2,1.081E3,5.25E2,2.2E1,5.04E2,1.259E3,1.68E2,3.71E2,1.363E3,1.261E3,4.45E2,7.62E2,6E0,1.045E3,4.55E2,1.6E2,2.7E2,4.86E2,1.4E2,6.09E2,6.2E1,6.67E2,2.25E2,2.84E2,1.44E2,1.356E3,6.8E2,1.553E3,9.04E2,1.773E3,8.49E2,3.09E2,5.53E2,3.2E1,6.7E1,7.87E2,9.5E1,2.91E2,2.36E2,1.139E3,4.4E1,1.39E2,5E2,5.18E2,1.508E3,2.07E2,5.44E2,6.29E2,3.09E2,1.54E2,2.33E2,6.46E2,4.35E2,8.2E1,4.43E2,4E0,1.8E1,4.23E2,8.1E1,6.78E2,5.81E2,1.58E2,1E1,2.81E2,9E1,1.234E3,1.29E2,1.01E3,2.51E2,3.7E1,4.08E2,5E0,1E0,3.22E2,7.23E2],"tree_param":{"num_deleted":"0","num_feature":"13","num_nodes":"123","size_leaf_vector":"1"}},{"base_weights":[6.946111E-4,7.974027E-2,-1.2657352E-1,1.4366294E-1,-1.6211629E-2,-7.680998E-2,-1.6929804E-1,6.847446E-2,1.6989858E-1,-9.548768E-2,1.863914E-2,-3.4912307E-2,-1.390117E-1,-1.4964974E-1,-1.9977741E-1,1.09067634E-1,3.44682E-2,-1.1564336E-1,1.7314711E-1,-2.1868527E-1,-7.350873E-2,-3.7431456E-2,4.9738422E-2,-8.41489E-2,5.3910697E-3,-1.9271363E-1,-1.1745513E-1,-1.7163321E-1,-1.2768133E-1,-1.9522531E-1,-1.0450412E-2,6.5475345E-2,1.4895791E-1,6.889457E-4,1.1438721E-1,-1.706792E-1,1.3580588E-1,1.4625792E-1,2.0457272E-1,-2.3725246E-1,-1.8856512E-1,-1.7200345E-1,-5.496277E-2,-7.4456535E-2,-4.298943E-3,2.893582E-2,1.13834076E-1,-1.05577596E-1,-3.808093E-2,3.5324685E-2,-5.7838213E-2,-2.3096141E-1,-1.8291624E-1,-1.356837E-1,-8.200441E-2,-2.0903718E-1,-1.678243E-1,-1.0812189E-1,-1.7749879E-1,-1.8847112E-1,-1.0256365E-2,2.1951878E-3,4.777355E-3,8.885433E-3,6.2422706E-3,-1.6305213E-3,1.57637E-3,3.928802E-3,7.7120736E-3,-1.0445866E-2,7.9961185E-4,-7.3631736E-3,1.6018692E-2,7.999452E-3,4.7464035E-3,1.0998643E-2,7.161554E-3,-8.094634E-3,-1.2092338E-2,-1.0400833E-2,-5.8500436E-3,-9.10301E-3,3.3884558E-3,-5.489814E-3,1.9536354E-4,-1.6798573E-3,-5.127326E-3,-4.2283228E-3,1.1531219E-4,2.8351515E-3,-7.8658777E-4,-2.3652338E-4,6.59777E-3,-4.1861255E-3,-6.941618E-3,4.1425537E-4,-3.2755216E-3,3.951219E-3,-1.2994922E-3,-6.682187E-3,-2.2149642E-3,-1.1781815E-2,7.9403026E-4,-1.0761294E-2,-8.342485E-3,-8.207254E-3,-5.9901904E-3,-5.735828E-3,-9.03736E-4,-6.16806E-3,-1.0552859E-2,-1.0384529E-2,-8.19284E-3,-6.380487E-3,-1.4752074E-3,-1.0522239E-2,-7.4885893E-3,-1.0078884E-2,-8.771929E-3],"categories":[],"categories_nodes":[],"categories_segments":[],"categories_sizes":[],"default_left":[0,0,0,0,0,0,0,0,0,0,0,0,0,0,0,0,0,0,0,0,0,0,0,0,0,0,0,0,0,0,0,0,0,0,0,0,0,0,0,0,0,0,0,0,0,0,0,0,0,0,0,0,0,0,0,0,0,0,0,0,0,0,0,0,0,0,0,0,0,0,0,0,0,0,0,0,0,0,0,0,0,0,0,0,0,0,0,0,0,0,0,0,0,0,0,0,0,0,0,0,0,0,0,0,0,0,0,0,0,0,0,0,0,0,0,0,0,0,0],"id":10,"left_children":[1,3,5,7,9,11,13,15,17,19,21,23,25,27,29,31,33,35,37,39,41,43,45,47,49,51,53,55,57,59,-1,61,63,65,67,69,71,73,75,77,79,81,83,85,87,89,91,93,95,97,99,101,103,105,107,109,111,113,115,117,-1,-1,-1,-1,-1,-1,-1,-1,-1,-1,-1,-1,-1,-1,-1,-1,-1,-1,-1,-1,-1,-1,-1,-1,-1,-1,-1,-1,-1,-1,-1,-1,-1,-1,-1,-1,-1,-1,-1,-1,-1,-1,-1,-1,-1,-1,-1,-1,-1,-1,-1,-1,-1,-1,-1,-1,-1,-1,-1],"loss_changes":[2.7829968E2,1.04670525E2,2.2521774E1,2.0191925E1,1.8855337E1,1.2759857E1,3.3848572E0,3.6557398E0,7.062317E0,5.6268845E0,8.269006E0,5.810779E0,2.2590523E0,1.6543808E0,5.2978516E-2,2.090847E0,3.8981502E0,1.2133087E0,6.313568E0,1.314249E-1,3.2237682E0,2.0753133E0,4.063443E0,1.2970791E0,3.0511522E0,1.6872406E-1,8.993931E-1,2.1167755E-1,1.6762657E0,6.232834E-2,0E0,3.7139988E-1,4.1456318E-1,1.0443597E0,6.001606E-1,5.1013684E-1,8.8310766E-1,2.8386078E0,3.2361145E0,2.6975632E-2,1.4966583E-1,6.8751144E-1,4.813453E0,9.13599E-1,4.7417766E-1,2.858529E0,1.6055889E0,6.41757E-1,5.3469753E-1,2.9333453E0,5.257164E-1,1.318326E-1,1.9924355E-1,4.0020752E-1,1.0038311E0,9.622574E-4,2.154007E-1,1.9144115E0,4.151802E-1,1.2007141E-1,0E0,0E0,0E0,0E0,0E0,0E0,0E0,0E0,0E0,0E0,0E0,0E0,0E0,0E0,0E0,0E0,0E0,0E0,0E0,0E0,0E0,0E0,0E0,0E0,0E0,0E0,0E0,0E0,0E0,0E0,0E0,0E0,0E0,0E0,0E0,0E0,0E0,0E0,0E0,0E0,0E0,0E0,0E0,0E0,0E0,0E0,0E0,0E0,0E0,0E0,0E0,0E0,0E0,0E0,0E0,0E0,0E0,0E0,0E0],"parents":[2147483647,0,0,1,1,2,2,3,3,4,4,5,5,6,6,7,7,8,8,9,9,10,10,11,11,12,12,13,13,14,14,15,15,16,16,17,17,18,18,19,19,20,20,21,21,22,22,23,23,24,24,25,25,26,26,27,27,28,28,29,29,31,31,32,32,33,33,34,34,35,35,36,36,37,37,38,38,39,39,40,40,41,41,42,42,43,43,44,44,45,45,46,46,47,47,48,48,49,49,50,50,51,51,52,52,53,53,54,54,55,55,56,56,57,57,58,58,59,59],"right_children":[2,4,6,8,10,12,14,16,18,20,22,24,26,28,30,32,34,36,38,40,42,44,46,48,50,52,54,56,58,60,-1,62,64,66,68,70,72,74,76,78,80,82,84,86,88,90,92,94,96,98,100,102,104,106,108,110,112,114,116,118,-1,-1,-1,-1,-1,-1,-1,-1,-1,-1,-1,-1,-1,-1,-1,-1,-1,-1,-1,-1,-1,-1,-1,-1,-1,-1,-1,-1,-1,-1,-1,-1,-1,-1,-1,-1,-1,-1,-1,-1,-1,-1,-1,-1,-1,-1,-1,-1,-1,-1,-1,-1,-1,-1,-1,-1,-1,-1,-1],"split_conditions":[-5E-1,3.1125E1,-2.5881904E-1,-2.5881904E-1,2.7845108E2,3.3E1,-1.8369701E-16,1.625E0,2.6837488E2,-5.5958927E-1,-2.5881904E-1,-7.0710677E-1,2.7638696E2,-8.660254E-1,1E0,-5E-1,6.016241E-1,7.638886E-1,-1.500554E-1,2.7384634E2,2.6924652E2,-4.7495106E-1,8.8805735E-1,5.4524046E-1,1E0,2.672434E2,-7.0710677E-1,2.760762E2,4.5625E1,1E0,-1.0450412E-2,-1.6280702E-1,2.9073035E2,-5E-1,-5E-1,8.5207754E-1,2.651607E2,7.0710677E-1,7.0710677E-1,4.125E1,-8.013611E-1,9.7110003E-1,3.5769823E-1,6.15E1,3.8125E1,9.3625E1,2.8073526E2,3.4157076E-1,8.75E-1,1E0,2.7491315E2,9.8522013E-1,1.5855938E-1,-6.021328E-2,2.899182E2,-4.5973274E-1,-9.611298E-1,1E0,2.7845108E2,-9.659258E-1,-1.0256365E-2,2.1951878E-3,4.777355E-3,8.885433E-3,6.2422706E-3,-1.6305213E-3,1.57637E-3,3.928802E-3,7.7120736E-3,-1.0445866E-2,7.9961185E-4,-7.3631736E-3,1.6018692E-2,7.999452E-3,4.7464035E-3,1.0998643E-2,7.161554E-3,-8.094634E-3,-1.2092338E-2,-1.0400833E-2,-5.8500436E-3,-9.10301E-3,3.3884558E-3,-5.489814E-3,1.9536354E-4,-1.6798573E-3,-5.127326E-3,-4.2283228E-3,1.1531219E-4,2.8351515E-3,-7.8658777E-4,-2.3652338E-4,6.59777E-3,-4.1861255E-3,-6.941618E-3,4.1425537E-4,-3.2755216E-3,3.951219E-3,-1.2994922E-3,-6.682187E-3,-2.2149642E-3,-1.1781815E-2,7.9403026E-4,-1.0761294E-2,-8.342485E-3,-8.207254E-3,-5.9901904E-3,-5.735828E-3,-9.03736E-4,-6.16806E-3,-1.0552859E-2,-1.0384529E-2,-8.19284E-3,-6.380487E-3,-1.4752074E-3,-1.0522239E-2,-7.4885893E-3,-1.0078884E-2,-8.771929E-3],"split_indices":[1,8,1,0,7,8,1,8,7,2,0,0,7,0,9,0,2,2,3,7,7,3,2,2,9,7,0,7,8,10,0,2,7,0,0,3,7,0,0,8,2,3,3,8,8,8,7,3,8,10,7,3,3,2,7,3,2,11,7,0,0,0,0,0,0,0,0,0,0,0,0,0,0,0,0,0,0,0,0,0,0,0,0,0,0,0,0,0,0,0,0,0,0,0,0,0,0,0,0,0,0,0,0,0,0,0,0,0,0,0,0,0,0,0,0,0,0,0,0],"split_type":[0,0,0,0,0,0,0,0,0,0,0,0,0,0,0,0,0,0,0,0,0,0,0,0,0,0,0,0,0,0,0,0,0,0,0,0,0,0,0,0,0,0,0,0,0,0,0,0,0,0,0,0,0,0,0,0,0,0,0,0,0,0,0,0,0,0,0,0,0,0,0,0,0,0,0,0,0,0,0,0,0,0,0,0,0,0,0,0,0,0,0,0,0,0,0,0,0,0,0,0,0,0,0,0,0,0,0,0,0,0,0,0,0,0,0,0,0,0,0],"sum_hessian":[2.7662E4,1.7064E4,1.0598E4,1.0241E4,6.823E3,4.897E3,5.701E3,2.65E3,7.591E3,2.083E3,4.74E3,2.927E3,1.97E3,3.47E3,2.231E3,1.207E3,1.443E3,8.5E1,7.506E3,3.14E2,1.769E3,1.691E3,3.049E3,1.317E3,1.61E3,5.62E2,1.408E3,1.731E3,1.739E3,1.509E3,7.22E2,5.78E2,6.29E2,1.015E3,4.28E2,7E1,1.5E1,4.048E3,3.458E3,1.9E2,1.24E2,2.79E2,1.49E3,7.98E2,8.93E2,2.303E3,7.46E2,8.98E2,4.19E2,1.093E3,5.17E2,1.1E2,4.52E2,9.28E2,4.8E2,1.55E2,1.576E3,1.251E3,4.88E2,9.09E2,6E2,3.38E2,2.4E2,2.84E2,3.45E2,4.88E2,5.27E2,2.27E2,2.01E2,5.8E1,1.2E1,6E0,9E0,3.192E3,8.56E2,2.762E3,6.96E2,1.3E1,1.77E2,9.6E1,2.8E1,2.68E2,1.1E1,7.71E2,7.19E2,3.26E2,4.72E2,6.7E1,8.26E2,1.42E3,8.83E2,9.9E1,6.47E2,5.44E2,3.54E2,1.56E2,2.63E2,6.38E2,4.55E2,7.7E1,4.4E2,1.08E2,2E0,1.46E2,3.06E2,3.29E2,5.99E2,3.17E2,1.63E2,5E0,1.5E2,1.38E2,1.438E3,1.002E3,2.49E2,2.2E2,2.68E2,4.46E2,4.63E2],"tree_param":{"num_deleted":"0","num_feature":"13","num_nodes":"119","size_leaf_vector":"1"}},{"base_weights":[7.30479E-5,7.46694E-2,-1.20036975E-1,1.4674996E-1,-1.4822886E-3,-7.272985E-2,-1.6059098E-1,1.7264494E-1,8.12211E-2,-1.0422314E-1,4.4242408E-2,-3.265025E-2,-1.3389143E-1,-1.4202046E-1,-1.8923557E-1,-1.0049465E-2,1.7799346E-1,-1.4053954E-1,8.492019E-2,-1.4456177E-1,-4.9822316E-2,6.503803E-2,-2.1313235E-2,-2.3364618E-3,-7.218196E-2,-1.850536E-1,-1.1310594E-1,-1.21676415E-1,-1.6326973E-1,-1.9749044E-1,-1.8445292E-1,-1.5103193E-1,5.8777105E-2,2.022024E-1,1.3940813E-1,-1.8319438E-1,4.640588E-3,1.0372566E-1,4.9836162E-2,-5.8943924E-2,-1.5738165E-1,-1.366875E-2,-8.555356E-2,3.8411473E-3,9.136473E-2,-3.4566633E-2,5.519318E-2,-9.420388E-2,1.7293885E-2,-9.327E-2,-2.8053464E-2,-1.9177507E-1,-6.899658E-2,-1.6559082E-1,-1.0197401E-1,-9.840114E-2,-1.569636E-1,-1.9937187E-1,-1.4976376E-1,-9.899424E-3,-9.8169714E-2,-1.7999712E-1,-9.701369E-3,-9.2908135E-3,6.6955546E-3,6.261874E-3,-1.3001099E-3,7.3118964E-3,1.08679235E-2,8.326036E-3,4.351759E-3,-1.0780688E-2,4.7174445E-4,6.31654E-3,4.1052564E-3,4.4810024E-4,3.8816133E-3,-9.19615E-3,-1.0272628E-3,-8.993404E-3,-6.100032E-3,1.680918E-3,-2.5601326E-3,-6.3117207E-3,-2.7547176E-3,-2.262264E-3,1.3432518E-3,8.555562E-4,5.7001724E-3,-1.145384E-3,-3.8293097E-3,-1.949969E-3,5.3433194E-3,-3.0335714E-3,-1.0456202E-2,2.3865534E-3,-2.1219726E-3,-6.958935E-3,-3.7503836E-3,-3.4344647E-4,-3.0054809E-3,-1.10774655E-2,-9.190201E-3,3.6089038E-4,-6.433771E-3,-6.7329765E-3,-9.235709E-3,-4.074478E-3,-6.0248426E-3,-5.9302705E-3,-5.330641E-4,-8.511764E-3,-6.4065033E-3,-1.0232611E-2,-8.311662E-3,-6.3811555E-3,-8.093751E-3,-1.4866892E-3,-5.295507E-3,-7.999473E-3,-9.430055E-3],"categories":[],"categories_nodes":[],"categories_segments":[],"categories_sizes":[],"default_left":[0,0,0,0,0,0,0,0,0,0,0,1,0,0,0,0,0,0,0,0,0,0,1,0,0,0,0,1,0,1,0,0,0,1,0,0,0,0,0,0,0,0,0,0,0,0,0,0,0,0,0,0,0,0,0,0,0,0,0,0,0,0,0,0,0,0,0,0,0,0,0,0,0,0,0,0,0,0,0,0,0,0,0,0,0,0,0,0,0,0,0,0,0,0,0,0,0,0,0,0,0,0,0,0,0,0,0,0,0,0,0,0,0,0,0,0,0,0,0,0,0],"id":11,"left_children":[1,3,5,7,9,11,13,15,17,19,21,23,25,27,29,31,33,35,37,39,41,43,45,47,49,51,53,55,57,59,61,63,65,67,69,71,-1,73,75,77,79,81,83,85,87,89,91,93,95,97,99,101,103,105,107,109,111,113,115,-1,117,119,-1,-1,-1,-1,-1,-1,-1,-1,-1,-1,-1,-1,-1,-1,-1,-1,-1,-1,-1,-1,-1,-1,-1,-1,-1,-1,-1,-1,-1,-1,-1,-1,-1,-1,-1,-1,-1,-1,-1,-1,-1,-1,-1,-1,-1,-1,-1,-1,-1,-1,-1,-1,-1,-1,-1,-1,-1,-1,-1],"loss_changes":[2.4695811E2,9.333063E1,2.0247604E1,1.4808136E1,3.8850674E1,1.1948324E1,2.9972382E0,6.1187134E0,2.043024E0,5.5820694E0,7.803385E0,3.5313857E0,2.0314903E0,1.4728546E0,5.1734924E-2,1.7457751E0,5.653076E0,4.2509878E-1,1.6020336E0,1.5954323E0,1.4017386E0,6.9999275E0,1.4001725E0,3.011486E0,1.1875997E0,4.2048836E-1,7.864685E-1,1.4366455E0,7.9222107E-1,2.0381927E-2,2.6039124E-2,6.096643E-1,6.850265E-1,3.1362457E0,3.3195877E0,2.2060645E-1,0E0,7.642727E-1,9.6729755E-1,9.176351E-1,9.892521E-1,9.619258E-1,6.695974E-1,1.4794652E0,5.104948E0,5.7437277E-1,9.9708295E-1,1.1202571E0,2.5037513E0,7.1477604E-1,2.814114E-1,8.387756E-2,1.4647712E-1,1.1649704E-1,4.2159176E-1,1.8920012E0,2.4643898E-1,4.5772552E-2,3.094368E-1,0E0,2.9228628E-5,1.400795E-1,0E0,0E0,0E0,0E0,0E0,0E0,0E0,0E0,0E0,0E0,0E0,0E0,0E0,0E0,0E0,0E0,0E0,0E0,0E0,0E0,0E0,0E0,0E0,0E0,0E0,0E0,0E0,0E0,0E0,0E0,0E0,0E0,0E0,0E0,0E0,0E0,0E0,0E0,0E0,0E0,0E0,0E0,0E0,0E0,0E0,0E0,0E0,0E0,0E0,0E0,0E0,0E0,0E0,0E0,0E0,0E0,0E0,0E0,0E0],"parents":[2147483647,0,0,1,1,2,2,3,3,4,4,5,5,6,6,7,7,8,8,9,9,10,10,11,11,12,12,13,13,14,14,15,15,16,16,17,17,18,18,19,19,20,20,21,21,22,22,23,23,24,24,25,25,26,26,27,27,28,28,29,29,30,30,31,31,32,32,33,33,34,34,35,35,37,37,38,38,39,39,40,40,41,41,42,42,43,43,44,44,45,45,46,46,47,47,48,48,49,49,50,50,51,51,52,52,53,53,54,54,55,55,56,56,57,57,58,58,60,60,61,61],"right_children":[2,4,6,8,10,12,14,16,18,20,22,24,26,28,30,32,34,36,38,40,42,44,46,48,50,52,54,56,58,60,62,64,66,68,70,72,-1,74,76,78,80,82,84,86,88,90,92,94,96,98,100,102,104,106,108,110,112,114,116,-1,118,120,-1,-1,-1,-1,-1,-1,-1,-1,-1,-1,-1,-1,-1,-1,-1,-1,-1,-1,-1,-1,-1,-1,-1,-1,-1,-1,-1,-1,-1,-1,-1,-1,-1,-1,-1,-1,-1,-1,-1,-1,-1,-1,-1,-1,-1,-1,-1,-1,-1,-1,-1,-1,-1,-1,-1,-1,-1,-1,-1],"split_conditions":[-5E-1,1.5625E1,-2.5881904E-1,-7.0710677E-1,1.3585E-1,3.35E1,-1.8369701E-16,7.598667E-2,2.6837488E2,2.7832303E2,-7.0710677E-1,1.1550893E-1,2.7638696E2,1.8625E1,1.8195485E-1,2.6958795E2,2.9729178E2,1.275E1,8.75E-1,4.3E1,6.635429E-1,3.3842856E-1,7.787667E-1,2.7491315E2,6.7394644E-1,5.9825E-1,2.2644089E-1,3.3554465E-2,2.7845108E2,5.668167E-1,1E0,8.5207754E-1,1.375E0,3.9605358E-1,2.5E0,9.6230906E-1,4.640588E-3,2.9097025E2,-5.772916E-1,-3.4561232E-1,2.217E-2,9.3625E1,7.297298E-2,2.8165152E2,-7.8830504E-1,3.0149057E2,4.0935597E-1,8.125E0,1E0,2.1868297E-1,4.125E0,2.672434E2,5.842982E-1,7.611043E-1,7.8625E1,1E0,1E0,1.7208333E-1,1.49598215E-2,-9.899424E-3,5.7065E-1,2.2905E-3,-9.701369E-3,-9.2908135E-3,6.6955546E-3,6.261874E-3,-1.3001099E-3,7.3118964E-3,1.08679235E-2,8.326036E-3,4.351759E-3,-1.0780688E-2,4.7174445E-4,6.31654E-3,4.1052564E-3,4.4810024E-4,3.8816133E-3,-9.19615E-3,-1.0272628E-3,-8.993404E-3,-6.100032E-3,1.680918E-3,-2.5601326E-3,-6.3117207E-3,-2.7547176E-3,-2.262264E-3,1.3432518E-3,8.555562E-4,5.7001724E-3,-1.145384E-3,-3.8293097E-3,-1.949969E-3,5.3433194E-3,-3.0335714E-3,-1.0456202E-2,2.3865534E-3,-2.1219726E-3,-6.958935E-3,-3.7503836E-3,-3.4344647E-4,-3.0054809E-3,-1.10774655E-2,-9.190201E-3,3.6089038E-4,-6.433771E-3,-6.7329765E-3,-9.235709E-3,-4.074478E-3,-6.0248426E-3,-5.9302705E-3,-5.330641E-4,-8.511764E-3,-6.4065033E-3,-1.0232611E-2,-8.311662E-3,-6.3811555E-3,-8.093751E-3,-1.4866892E-3,-5.295507E-3,-7.999473E-3,-9.430055E-3],"split_indices":[1,8,1,1,4,8,1,4,7,7,1,4,7,8,5,7,7,8,8,8,5,4,4,7,4,4,5,4,7,4,9,3,8,4,8,3,0,7,3,2,4,8,4,7,3,7,2,8,9,5,8,7,3,3,8,12,9,4,4,0,4,4,0,0,0,0,0,0,0,0,0,0,0,0,0,0,0,0,0,0,0,0,0,0,0,0,0,0,0,0,0,0,0,0,0,0,0,0,0,0,0,0,0,0,0,0,0,0,0,0,0,0,0,0,0,0,0,0,0,0,0],"split_type":[0,0,0,0,0,0,0,0,0,0,0,0,0,0,0,0,0,0,0,0,0,0,0,0,0,0,0,0,0,0,0,0,0,0,0,0,0,0,0,0,0,0,0,0,0,0,0,0,0,0,0,0,0,0,0,0,0,0,0,0,0,0,0,0,0,0,0,0,0,0,0,0,0,0,0,0,0,0,0,0,0,0,0,0,0,0,0,0,0,0,0,0,0,0,0,0,0,0,0,0,0,0,0,0,0,0,0,0,0,0,0,0,0,0,0,0,0,0,0,0,0],"sum_hessian":[2.7561E4,1.7002E4,1.0559E4,8.734E3,8.268E3,4.875E3,5.684E3,6.259E3,2.475E3,2.546E3,5.722E3,2.946E3,1.929E3,3.452E3,2.232E3,1.78E2,6.081E3,4E1,2.435E3,1.461E3,1.085E3,4.344E3,1.378E3,1.668E3,1.278E3,5.55E2,1.374E3,1.767E3,1.685E3,8.04E2,1.428E3,5.8E1,1.2E2,3.734E3,2.347E3,3.4E1,6E0,1.584E3,8.51E2,1.91E2,1.27E3,5.4E2,5.45E2,1.307E3,3.037E3,1.175E3,2.03E2,2.93E2,1.375E3,8.64E2,4.14E2,5.24E2,3.1E1,2.38E2,1.136E3,1.067E3,7E2,4.55E2,1.23E3,7.99E2,5E0,9.88E2,4.4E2,5.2E1,6E0,6.7E1,5.3E1,7.98E2,2.936E3,1.545E3,8.02E2,2.9E1,5E0,7.72E2,8.12E2,3.45E2,5.06E2,4.4E1,1.47E2,7.74E2,4.96E2,2.39E2,3.01E2,2.32E2,3.13E2,4.17E2,8.9E2,7.1E2,2.327E3,9.21E2,2.54E2,7.2E1,1.31E2,2.28E2,6.5E1,9.11E2,4.64E2,2.44E2,6.2E2,2.5E2,1.64E2,1.05E2,4.19E2,1.4E1,1.7E1,9.4E1,1.44E2,5.42E2,5.94E2,8.67E2,2E2,4.76E2,2.24E2,3.88E2,6.7E1,4.39E2,7.91E2,1E0,4E0,3.03E2,6.85E2],"tree_param":{"num_deleted":"0","num_feature":"13","num_nodes":"121","size_leaf_vector":"1"}},{"base_weights":[-2.6212053E-4,-7.454849E-2,7.142115E-2,-1.5951033E-1,-5.0135985E-2,-6.455697E-2,1.401416E-1,-1.746369E-1,-1.2302833E-1,-1.0785469E-1,2.258033E-2,-1.13338254E-1,1.3293564E-2,1.795624E-1,8.922693E-2,-2.0091668E-1,-1.6192846E-1,-1.8869293E-1,-1.02243505E-1,-7.5716026E-2,-1.5235074E-1,7.463162E-2,-4.1246355E-2,-1.5664929E-1,-7.945048E-2,-3.8449474E-2,5.626997E-2,2.0695761E-1,1.5583965E-1,4.4682667E-2,1.1879037E-1,-8.8384515E-3,-2.1508698E-1,-1.8520087E-1,-1.5040046E-1,-2.003645E-1,7.1803057E-3,-5.5019412E-2,-1.1579789E-1,-1.1235744E-2,-1.2678231E-1,-1.7411119E-1,-1.2604071E-1,4.2220604E-2,1.215783E-1,-7.8555554E-2,1.3434768E-2,-1.7247173E-1,-1.380546E-1,-9.248841E-2,-2.461305E-2,1.6445877E-3,-8.346978E-2,8.364749E-2,6.586282E-3,1.4086683E-1,2.2016503E-1,1.3975787E-1,1.9635032E-1,-1.3757105E-2,7.161899E-2,8.0196984E-2,1.5788662E-1,-8.250407E-3,-1.088723E-2,-9.317577E-3,-1.9654443E-3,-7.9789795E-3,-4.9160267E-3,-1.0229277E-2,2.986186E-3,-6.742233E-3,3.1636134E-3,-1.1334233E-3,-4.9483287E-3,-5.9440187E-3,4.990437E-3,-6.98275E-3,3.4075356E-4,-4.8214514E-3,-8.719285E-3,-9.171019E-3,-6.9617713E-3,-8.40659E-3,-5.307471E-3,-1.1074208E-3,3.0638664E-3,-1.0107304E-3,7.0862323E-3,-6.001471E-3,-1.721429E-3,-2.0289598E-3,2.8778894E-3,-8.9765E-3,-7.470944E-3,-7.0822495E-3,-3.534212E-3,-3.892721E-3,-6.2792203E-3,4.419117E-4,-3.2832448E-3,-2.594316E-4,6.5855803E-3,-5.826158E-3,-3.0035619E-3,3.490377E-3,6.626236E-3,-2.1693965E-3,3.9803307E-3,-3.716883E-3,7.99256E-3,8.980512E-3,1.210193E-2,7.2021945E-3,4.8545524E-4,7.02214E-3,1.0396327E-2,1.9459677E-3,-3.712258E-3,2.1666463E-3,6.362542E-3,1.526838E-3,5.8464594E-3,9.4892625E-3,4.9346224E-3],"categories":[],"categories_nodes":[],"categories_segments":[],"categories_sizes":[],"default_left":[0,0,0,0,0,0,0,0,0,0,0,0,0,0,0,0,0,0,0,0,0,0,0,0,1,0,0,0,0,0,0,0,0,0,0,0,0,0,0,0,0,0,0,0,0,0,0,0,1,0,0,0,0,0,0,0,1,0,0,0,0,1,0,0,0,0,0,0,0,0,0,0,0,0,0,0,0,0,0,0,0,0,0,0,0,0,0,0,0,0,0,0,0,0,0,0,0,0,0,0,0,0,0,0,0,0,0,0,0,0,0,0,0,0,0,0,0,0,0,0,0,0,0,0,0],"id":12,"left_children":[1,3,5,7,9,11,13,15,17,19,21,23,25,27,29,31,33,35,37,39,41,43,45,47,49,51,53,55,57,59,61,-1,63,65,67,69,71,73,75,77,79,81,83,85,87,89,91,93,95,97,99,101,103,105,107,109,111,113,115,117,119,121,123,-1,-1,-1,-1,-1,-1,-1,-1,-1,-1,-1,-1,-1,-1,-1,-1,-1,-1,-1,-1,-1,-1,-1,-1,-1,-1,-1,-1,-1,-1,-1,-1,-1,-1,-1,-1,-1,-1,-1,-1,-1,-1,-1,-1,-1,-1,-1,-1,-1,-1,-1,-1,-1,-1,-1,-1,-1,-1,-1,-1,-1,-1],"loss_changes":[1.4780852E2,2.8264488E1,1.3200914E2,1.6572342E0,4.444963E1,1.8013756E1,1.8818588E1,6.84845E-1,1.2022285E0,8.431435E0,1.5574514E1,4.2674103E0,4.067142E0,3.404358E0,5.3899612E0,2.0013428E-1,3.6196136E-1,4.9067497E-1,4.3017244E-1,1.129277E1,1.3950348E0,3.9236107E0,4.2975245E0,3.5248947E-1,1.1688385E0,1.498326E0,1.358305E0,2.1084366E0,1.8214645E0,2.5762987E0,3.7021408E0,0E0,2.1831512E-2,7.2752E-2,4.5136452E-1,2.3398304E-1,1.1209589E-1,2.1670341E-1,3.6344004E-1,3.5174673E0,2.7487602E0,4.134102E-1,9.232178E-1,1.8769245E0,3.013732E0,2.2871728E0,2.0400224E0,8.496094E-2,1.3342667E-1,6.3098717E-1,4.3452325E-1,3.9174506E-1,2.953999E-1,4.263878E-1,1.3025453E0,1.6910315E0,1.7670517E0,1.1328926E0,4.911461E-1,1.6502048E0,1.7569246E0,2.2601738E0,2.2886658E0,0E0,0E0,0E0,0E0,0E0,0E0,0E0,0E0,0E0,0E0,0E0,0E0,0E0,0E0,0E0,0E0,0E0,0E0,0E0,0E0,0E0,0E0,0E0,0E0,0E0,0E0,0E0,0E0,0E0,0E0,0E0,0E0,0E0,0E0,0E0,0E0,0E0,0E0,0E0,0E0,0E0,0E0,0E0,0E0,0E0,0E0,0E0,0E0,0E0,0E0,0E0,0E0,0E0,0E0,0E0,0E0,0E0,0E0,0E0,0E0,0E0,0E0],"parents":[2147483647,0,0,1,1,2,2,3,3,4,4,5,5,6,6,7,7,8,8,9,9,10,10,11,11,12,12,13,13,14,14,15,15,16,16,17,17,18,18,19,19,20,20,21,21,22,22,23,23,24,24,25,25,26,26,27,27,28,28,29,29,30,30,32,32,33,33,34,34,35,35,36,36,37,37,38,38,39,39,40,40,41,41,42,42,43,43,44,44,45,45,46,46,47,47,48,48,49,49,50,50,51,51,52,52,53,53,54,54,55,55,56,56,57,57,58,58,59,59,60,60,61,61,62,62],"right_children":[2,4,6,8,10,12,14,16,18,20,22,24,26,28,30,32,34,36,38,40,42,44,46,48,50,52,54,56,58,60,62,-1,64,66,68,70,72,74,76,78,80,82,84,86,88,90,92,94,96,98,100,102,104,106,108,110,112,114,116,118,120,122,124,-1,-1,-1,-1,-1,-1,-1,-1,-1,-1,-1,-1,-1,-1,-1,-1,-1,-1,-1,-1,-1,-1,-1,-1,-1,-1,-1,-1,-1,-1,-1,-1,-1,-1,-1,-1,-1,-1,-1,-1,-1,-1,-1,-1,-1,-1,-1,-1,-1,-1,-1,-1,-1,-1,-1,-1,-1,-1,-1,-1,-1,-1],"split_conditions":[2.8642857E-1,-5E-1,-5E-1,4.573877E-1,1.668315E-2,-7.0710677E-1,9.125E0,8.2467854E-2,2.8354675E2,3.3E1,4.4E1,-8.660254E-1,7.014E-1,2.925209E2,-5.049611E-1,-5.631507E-1,2.2644089E-1,9.9887973E-1,1.425E1,9.659258E-1,2.768283E2,-3.171913E-1,5E-1,2.6985514E-1,7.123364E-1,3.35E1,1.9E1,-2.5881904E-1,1E0,-5.1619668E-2,1.2246469E-16,-8.8384515E-3,-9.3688136E-1,9.9274874E-1,1.9245158E-1,4.8250774E-1,1.1550893E-1,3.0074933E2,1.5855938E-1,2.6958795E2,1E0,8.3355576E-1,2.4317582E-1,6.13732E-2,1.2246469E-16,1.3585E-1,6.13732E-2,1.5855938E-1,6.5421665E-1,4.8250774E-1,1.525E1,9.9421793E-1,-4.132786E-1,8.4524906E-1,6.994583E-1,4.6908334E-1,5.383833E-1,8.294881E-1,3.9605358E-1,3.1125E1,2.5881904E-1,6.795667E-1,8.2E1,-8.250407E-3,-1.088723E-2,-9.317577E-3,-1.9654443E-3,-7.9789795E-3,-4.9160267E-3,-1.0229277E-2,2.986186E-3,-6.742233E-3,3.1636134E-3,-1.1334233E-3,-4.9483287E-3,-5.9440187E-3,4.990437E-3,-6.98275E-3,3.4075356E-4,-4.8214514E-3,-8.719285E-3,-9.171019E-3,-6.9617713E-3,-8.40659E-3,-5.307471E-3,-1.1074208E-3,3.0638664E-3,-1.0107304E-3,7.0862323E-3,-6.001471E-3,-1.721429E-3,-2.0289598E-3,2.8778894E-3,-8.9765E-3,-7.470944E-3,-7.0822495E-3,-3.534212E-3,-3.892721E-3,-6.2792203E-3,4.419117E-4,-3.2832448E-3,-2.594316E-4,6.5855803E-3,-5.826158E-3,-3.0035619E-3,3.490377E-3,6.626236E-3,-2.1693965E-3,3.9803307E-3,-3.716883E-3,7.99256E-3,8.980512E-3,1.210193E-2,7.2021945E-3,4.8545524E-4,7.02214E-3,1.0396327E-2,1.9459677E-3,-3.712258E-3,2.1666463E-3,6.362542E-3,1.526838E-3,5.8464594E-3,9.4892625E-3,4.9346224E-3],"split_indices":[4,0,0,5,4,0,8,4,7,8,8,0,4,7,3,3,5,2,8,0,7,3,0,5,4,8,8,0,10,2,0,0,2,3,3,3,4,7,3,7,0,3,5,4,0,4,4,3,4,3,8,2,3,2,2,4,4,4,4,8,0,4,8,0,0,0,0,0,0,0,0,0,0,0,0,0,0,0,0,0,0,0,0,0,0,0,0,0,0,0,0,0,0,0,0,0,0,0,0,0,0,0,0,0,0,0,0,0,0,0,0,0,0,0,0,0,0,0,0,0,0,0,0,0,0],"split_type":[0,0,0,0,0,0,0,0,0,0,0,0,0,0,0,0,0,0,0,0,0,0,0,0,0,0,0,0,0,0,0,0,0,0,0,0,0,0,0,0,0,0,0,0,0,0,0,0,0,0,0,0,0,0,0,0,0,0,0,0,0,0,0,0,0,0,0,0,0,0,0,0,0,0,0,0,0,0,0,0,0,0,0,0,0,0,0,0,0,0,0,0,0,0,0,0,0,0,0,0,0,0,0,0,0,0,0,0,0,0,0,0,0,0,0,0,0,0,0,0,0,0,0,0,0],"sum_hessian":[2.7755E4,1.363E4,1.4125E4,3.041E3,1.0589E4,4.742E3,9.383E3,2.147E3,8.94E2,5.903E3,4.686E3,2.915E3,1.827E3,5.287E3,4.096E3,6.95E2,1.452E3,2.13E2,6.81E2,3.429E3,2.474E3,2.581E3,2.105E3,1.278E3,1.637E3,8.29E2,9.98E2,2.45E3,2.837E3,1.635E3,2.461E3,2.62E2,4.33E2,4.76E2,9.76E2,2.01E2,1.2E1,1.53E2,5.28E2,1.516E3,1.913E3,1.351E3,1.123E3,1.528E3,1.053E3,1.251E3,8.54E2,6.86E2,5.92E2,1.322E3,3.15E2,4.39E2,3.9E2,6.43E2,3.55E2,4.1E2,2.04E3,2.034E3,8.03E2,5.16E2,1.119E3,1.24E3,1.221E3,2.5E1,4.08E2,4.72E2,4E0,8.28E2,1.48E2,1.98E2,3E0,3E0,9E0,8.9E1,6.4E1,5.21E2,7E0,1.86E2,1.33E3,1.17E3,7.43E2,1.063E3,2.88E2,3.58E2,7.65E2,3.49E2,1.179E3,1.31E2,9.22E2,6.44E2,6.07E2,3.84E2,4.7E2,5.2E2,1.66E2,5.61E2,3.1E1,9.19E2,4.03E2,1.74E2,1.41E2,4.18E2,2.1E1,1.6E2,2.3E2,5.03E2,1.4E2,2.11E2,1.44E2,3.3E1,3.77E2,7.18E2,1.322E3,1.969E3,6.5E1,1.4E2,6.63E2,2.76E2,2.4E2,7.43E2,3.76E2,5.28E2,7.12E2,7.92E2,4.29E2],"tree_param":{"num_deleted":"0","num_feature":"13","num_nodes":"125","size_leaf_vector":"1"}},{"base_weights":[1.510723E-4,-1.11942254E-1,6.824138E-2,-1.3929749E-1,-6.113048E-2,-3.7621547E-2,8.944162E-2,-1.5207234E-1,-1.0402295E-1,-9.992546E-2,2.4240525E-4,-8.2322344E-2,-8.995496E-5,1.1994888E-1,2.0807654E-2,-1.5726002E-1,-9.316846E-2,-1.3618939E-1,-5.789474E-2,-1.3078953E-1,-7.8088075E-2,6.4271264E-2,-5.019269E-2,-3.791626E-2,-9.962174E-2,4.7302615E-2,-5.1321644E-2,1.4016305E-1,-8.157599E-3,-7.985202E-2,4.3322273E-2,-1.7135638E-1,-1.4769548E-1,-1.5198836E-1,-1.664181E-2,-9.64751E-2,-1.721788E-1,-4.3780017E-3,-9.501888E-2,-8.0971524E-2,-1.3914734E-1,-1.999548E-1,-6.88944E-2,-1.4164661E-1,7.3057964E-2,-1.5444139E-1,-2.4540756E-2,-1.1499541E-1,-2.0803696E-2,-1.1292393E-1,-7.647712E-2,1.2718437E-3,7.6811716E-2,-6.9922365E-2,6.997129E-3,1.5980804E-1,1.0447441E-1,1.7599382E-2,-7.4426465E-2,-1.7329781E-1,-4.106231E-2,-1.3001375E-3,7.6386884E-2,-8.77236E-3,-6.668158E-3,-7.942083E-3,-5.9593203E-3,-7.892452E-3,1.0930158E-2,2.8002877E-3,-4.4148634E-3,-6.7259916E-3,-1.8659588E-3,-6.709809E-3,-8.963879E-3,-1.0808272E-2,6.3644885E-4,-4.9793175E-3,8.232168E-3,-6.76149E-3,-3.250109E-3,-6.9887578E-3,3.6594376E-3,-1.0779622E-2,-3.8868964E-3,-4.5639346E-3,-1.3116727E-3,-9.04766E-3,1.1001089E-2,1.6631188E-3,5.5217776E-3,-1.5908008E-3,-9.468001E-3,-1.9787431E-3,7.311068E-3,-7.902956E-3,-4.44463E-3,-2.732614E-4,-3.8558994E-3,-6.219963E-3,-3.208476E-3,-3.3215266E-3,-8.518166E-3,7.777443E-4,-4.9370625E-3,5.5177542E-3,2.5163444E-3,-4.948953E-3,-6.250276E-4,-8.360627E-3,1.4099773E-3,8.561696E-3,5.227557E-3,3.8099873E-3,7.1359174E-3,1.4663968E-5,4.5400853E-3,-4.8766253E-3,8.881978E-4,-1.0650604E-2,-7.0320712E-3,-4.883995E-3,2.3470172E-3,-2.5978703E-3,1.1516087E-3,1.356741E-3,6.1002197E-3],"categories":[],"categories_nodes":[],"categories_segments":[],"categories_sizes":[],"default_left":[0,0,0,0,0,0,0,0,0,0,0,0,0,0,0,0,0,0,0,0,0,0,0,0,0,0,0,0,0,0,0,0,0,0,0,0,0,0,0,0,0,0,0,0,0,0,0,0,0,0,0,0,0,0,0,0,0,0,0,0,0,0,0,0,0,0,0,0,0,0,0,0,0,0,0,0,0,0,0,0,0,0,0,0,0,0,0,0,0,0,0,0,0,0,0,0,0,0,0,0,0,0,0,0,0,0,0,0,0,0,0,0,0,0,0,0,0,0,0,0,0,0,0,0,0,0,0],"id":13,"left_children":[1,3,5,7,9,11,13,15,17,19,21,23,25,27,29,31,33,35,37,39,41,43,45,47,49,51,53,55,57,59,61,63,65,67,69,71,73,75,77,79,81,83,85,87,89,91,93,95,97,99,101,103,105,107,109,111,113,115,117,119,121,123,125,-1,-1,-1,-1,-1,-1,-1,-1,-1,-1,-1,-1,-1,-1,-1,-1,-1,-1,-1,-1,-1,-1,-1,-1,-1,-1,-1,-1,-1,-1,-1,-1,-1,-1,-1,-1,-1,-1,-1,-1,-1,-1,-1,-1,-1,-1,-1,-1,-1,-1,-1,-1,-1,-1,-1,-1,-1,-1,-1,-1,-1,-1,-1,-1],"loss_changes":[2.1164836E2,1.4556976E1,3.872013E1,3.0533905E0,8.7357645E0,4.830068E0,3.0092186E1,1.5126038E0,2.683691E0,1.504919E0,4.595293E0,1.0056353E0,3.8046777E0,2.5767319E1,1.0029634E1,5.9381104E-1,1.829495E0,1.5098763E0,1.4836957E0,3.7595558E-1,1.464035E0,1.1448035E0,2.1248584E0,4.8564583E-1,2.8230476E-1,1.1055801E0,8.173218E-1,6.0085754E0,2.317554E0,2.925294E0,5.335227E0,2.6413345E-1,8.527069E-1,5.3404903E-1,9.3154097E-1,1.1427712E0,1.2666321E-1,1.1150258E0,5.394211E-1,1.0904944E-1,1.16209984E-1,1.5906882E-1,1.1702657E0,4.0942842E-1,8.917792E-1,6.6623497E-1,1.6488304E0,6.1263323E-2,2.6216614E-1,3.2658243E-1,3.1692886E-1,4.572246E-1,4.3508768E-1,9.514699E-1,6.806562E-1,3.4804535E0,3.291523E0,1.2389495E0,8.111918E-1,2.774129E-1,2.859556E0,1.8994135E0,4.6632013E0,0E0,0E0,0E0,0E0,0E0,0E0,0E0,0E0,0E0,0E0,0E0,0E0,0E0,0E0,0E0,0E0,0E0,0E0,0E0,0E0,0E0,0E0,0E0,0E0,0E0,0E0,0E0,0E0,0E0,0E0,0E0,0E0,0E0,0E0,0E0,0E0,0E0,0E0,0E0,0E0,0E0,0E0,0E0,0E0,0E0,0E0,0E0,0E0,0E0,0E0,0E0,0E0,0E0,0E0,0E0,0E0,0E0,0E0,0E0,0E0,0E0,0E0,0E0,0E0],"parents":[2147483647,0,0,1,1,2,2,3,3,4,4,5,5,6,6,7,7,8,8,9,9,10,10,11,11,12,12,13,13,14,14,15,15,16,16,17,17,18,18,19,19,20,20,21,21,22,22,23,23,24,24,25,25,26,26,27,27,28,28,29,29,30,30,31,31,32,32,33,33,34,34,35,35,36,36,37,37,38,38,39,39,40,40,41,41,42,42,43,43,44,44,45,45,46,46,47,47,48,48,49,49,50,50,51,51,52,52,53,53,54,54,55,55,56,56,57,57,58,58,59,59,60,60,61,61,62,62],"right_children":[2,4,6,8,10,12,14,16,18,20,22,24,26,28,30,32,34,36,38,40,42,44,46,48,50,52,54,56,58,60,62,64,66,68,70,72,74,76,78,80,82,84,86,88,90,92,94,96,98,100,102,104,106,108,110,112,114,116,118,120,122,124,126,-1,-1,-1,-1,-1,-1,-1,-1,-1,-1,-1,-1,-1,-1,-1,-1,-1,-1,-1,-1,-1,-1,-1,-1,-1,-1,-1,-1,-1,-1,-1,-1,-1,-1,-1,-1,-1,-1,-1,-1,-1,-1,-1,-1,-1,-1,-1,-1,-1,-1,-1,-1,-1,-1,-1,-1,-1,-1,-1,-1,-1,-1,-1,-1],"split_conditions":[3.685E2,2.328E2,-5E-1,5.2707773E-1,4.2110088E-1,-7.0710677E-1,3.1125E1,7.3153216E-1,1.284E2,-7.0710677E-1,9.25E0,3.875E0,1.9E1,8.660254E-1,2.7545886E2,1.11E2,2.868254E2,3.2625E1,3.9625E1,-8.9198136E-1,2.7331686E2,2.6837488E2,2.702707E2,-8.660254E-1,5.35E2,-6.0505605E-1,-4.7321387E-2,3.625E0,9.659258E-1,2.6887405E2,-4.5973274E-1,5.361363E-1,-1.159346E-1,9.9887973E-1,7.25E1,-5E-1,-6.551564E-1,2.6778223E2,2.918186E2,2.606E2,4.0542573E-1,9.8292655E-1,-2.0089056E-1,9.6230906E-1,-2.5881904E-1,3.0155218E-1,9.946708E-1,2.9836578E2,1E0,-2.1772324E-1,6.65E1,1.475E1,2.9085223E2,7.03E2,2.699472E2,7.0710677E-1,4.7115952E-1,1E0,1E0,4.975133E-1,4.975133E-1,6.39E2,5.95E2,-8.77236E-3,-6.668158E-3,-7.942083E-3,-5.9593203E-3,-7.892452E-3,1.0930158E-2,2.8002877E-3,-4.4148634E-3,-6.7259916E-3,-1.8659588E-3,-6.709809E-3,-8.963879E-3,-1.0808272E-2,6.3644885E-4,-4.9793175E-3,8.232168E-3,-6.76149E-3,-3.250109E-3,-6.9887578E-3,3.6594376E-3,-1.0779622E-2,-3.8868964E-3,-4.5639346E-3,-1.3116727E-3,-9.04766E-3,1.1001089E-2,1.6631188E-3,5.5217776E-3,-1.5908008E-3,-9.468001E-3,-1.9787431E-3,7.311068E-3,-7.902956E-3,-4.44463E-3,-2.732614E-4,-3.8558994E-3,-6.219963E-3,-3.208476E-3,-3.3215266E-3,-8.518166E-3,7.777443E-4,-4.9370625E-3,5.5177542E-3,2.5163444E-3,-4.948953E-3,-6.250276E-4,-8.360627E-3,1.4099773E-3,8.561696E-3,5.227557E-3,3.8099873E-3,7.1359174E-3,1.4663968E-5,4.5400853E-3,-4.8766253E-3,8.881978E-4,