{
  "model_state_dict": {
    "embedding.weight": [
      [
        1.2758036851882935,
        -0.47981852293014526,
        0.879672110080719,
        1.0373075008392334
      ],
      [
        0.08031655102968216,
        -1.603835940361023,
        1.0594111680984497,
        -1.5619155168533325
      ],
      [
        0.846182107925415,
        0.5070624947547913,
        -0.06411001831293106,
        -0.3003062903881073
      ],
      [
        0.4576120674610138,
        -0.28004494309425354,
        0.3799724280834198,
        0.03366052731871605
      ]
    ],
    "lstm.weight_ih_l0": [
      [
        -0.013952165842056274,
        -0.06775875389575958,
        -0.08661766350269318,
        0.11737808585166931,
        -0.1134335845708847,
        0.10460862517356873,
        0.10508556663990021,
        -0.014090076088905334,
        0.04343056678771973
      ],
      [
        0.1025766134262085,
        -0.05218225717544556,
        0.10952618718147278,
        0.09761160612106323,
        -0.030534788966178894,
        0.03864149749279022,
        -0.11382067203521729,
        0.10716165602207184,
        -0.022318854928016663
      ],
      [
        0.0006959824822843075,
        0.00828459206968546,
        -0.059934988617897034,
        -0.07364867627620697,
        -0.0880299061536789,
        0.05964786559343338,
        0.021391544491052628,
        -0.06755989044904709,
        -0.10511314123868942
      ],
      [
        0.0006621041684411466,
        0.0006934769335202873,
        0.00249599851667881,
        -0.2357618808746338,
        -0.9088672995567322,
        0.3934394419193268,
        -0.07466524839401245,
        -0.4598119556903839,
        -1.8506206274032593
      ],
      [
        0.07833854854106903,
        -0.06523838639259338,
        0.026825448498129845,
        0.06919778138399124,
        0.030102357268333435,
        -0.12347086519002914,
        0.005764688830822706,
        0.12407513707876205,
        0.07534591853618622
      ],
      [
        -0.0693102777004242,
        0.09969750791788101,
        -0.0007897582836449146,
        0.21560007333755493,
        -0.4694596230983734,
        -0.03377414122223854,
        0.17474611103534698,
        -0.17336708307266235,
        -0.4990534782409668
      ],
      [
        0.07214678823947906,
        -0.08756985515356064,
        -0.10105150192975998,
        0.172201469540596,
        -0.056825898587703705,
        0.09725535660982132,
        -0.29486462473869324,
        -0.17431427538394928,
        0.05085717886686325
      ],
      [
        -0.08245278894901276,
        -0.027626492083072662,
        -0.08445125073194504,
        0.05695126950740814,
        -0.015158683061599731,
        0.029597893357276917,
        -0.04419916868209839,
        -0.056848183274269104,
        -0.043372079730033875
      ],
      [
        -0.0332183912396431,
        0.026682395488023758,
        0.003852160181850195,
        0.28475162386894226,
        0.5041232705116272,
        -0.31847259402275085,
        0.12592120468616486,
        -0.16430170834064484,
        0.6668329238891602
      ],
      [
        -0.0879741758108139,
        0.15040665864944458,
        -0.03315047174692154,
        0.13839824497699738,
        0.03426628187298775,
        -0.26705071330070496,
        0.04835589975118637,
        0.19943904876708984,
        0.6190303564071655
      ],
      [
        -0.05890674889087677,
        -0.07412725687026978,
        -0.04928083345293999,
        -0.039597634226083755,
        -0.043761640787124634,
        0.008726358413696289,
        0.012259554117918015,
        -0.11780492961406708,
        -0.00017592193034943193
      ],
      [
        0.03701608628034592,
        0.15212634205818176,
        -0.037047773599624634,
        -0.09638181328773499,
        -0.3393552303314209,
        0.006080251652747393,
        -0.31086745858192444,
        -0.037458766251802444,
        -0.41224947571754456
      ],
      [
        -0.010492175817489624,
        -0.02736760675907135,
        0.05872836709022522,
        -0.03515465185046196,
        -0.09711624681949615,
        -0.12071916460990906,
        -0.04157327115535736,
        -0.0418715700507164,
        -0.013167394325137138
      ],
      [
        -0.027830133214592934,
        0.028013408184051514,
        0.015818003565073013,
        0.20713062584400177,
        -0.02684975042939186,
        -0.2618832588195801,
        0.438200980424881,
        -0.20201407372951508,
        0.11435525119304657
      ],
      [
        0.2158634215593338,
        -0.06752745807170868,
        0.015176864340901375,
        0.0009562732302583754,
        0.16357089579105377,
        0.020097067579627037,
        -0.186809703707695,
        0.03921077400445938,
        -0.21610118448734283
      ],
      [
        0.02134692668914795,
        0.047050803899765015,
        -0.09929679334163666,
        0.001901775598526001,
        -0.010988891124725342,
        0.07183705270290375,
        -0.01960355043411255,
        -0.09069342911243439,
        -0.06849497556686401
      ],
      [
        0.04899545758962631,
        0.05806317180395126,
        -0.10180207341909409,
        -0.13342224061489105,
        -0.4264526069164276,
        0.3232384920120239,
        0.42369598150253296,
        -0.09062851965427399,
        -0.8707940578460693
      ],
      [
        0.09655623137950897,
        -0.020376816391944885,
        0.011192113161087036,
        0.039246782660484314,
        -0.0920020192861557,
        0.09854599833488464,
        -0.04008074104785919,
        -0.09164556860923767,
        -0.11898238956928253
      ],
      [
        0.09050644934177399,
        0.07906672358512878,
        0.1003473699092865,
        0.06896607577800751,
        -0.058026447892189026,
        -0.040895119309425354,
        0.0841960608959198,
        -0.036785319447517395,
        0.08254268765449524
      ],
      [
        0.08834624290466309,
        0.00688779354095459,
        0.12141932547092438,
        -0.03055576980113983,
        0.059960395097732544,
        -0.014996826648712158,
        -0.11170889437198639,
        -0.11441874504089355,
        0.044570088386535645
      ],
      [
        0.02156885527074337,
        -0.05184680223464966,
        -0.03493460267782211,
        -0.07468786835670471,
        -0.026528194546699524,
        0.0040740519762039185,
        -0.0165402889251709,
        0.10348449647426605,
        0.023678570985794067
      ],
      [
        0.013417601585388184,
        -0.015827611088752747,
        0.08561460673809052,
        -0.06976623833179474,
        -0.03538018465042114,
        -0.008388802409172058,
        0.059107810258865356,
        -0.009900376200675964,
        0.09344887733459473
      ],
      [
        -0.11342759430408478,
        0.02509079873561859,
        -0.1058235615491867,
        -0.06956164538860321,
        -0.05865497887134552,
        -0.008630305528640747,
        0.07390736043453217,
        -0.09824301302433014,
        -0.00747641921043396
      ],
      [
        -0.10796254128217697,
        -0.0356251485645771,
        -0.012702693231403828,
        -0.00565502792596817,
        -0.05040014535188675,
        0.04437757283449173,
        0.02223918028175831,
        0.09663032740354538,
        0.0654182881116867
      ],
      [
        0.010514229536056519,
        -0.004518392030149698,
        0.03338241204619408,
        0.1387479305267334,
        -0.08108415454626083,
        -0.09864848852157593,
        0.06897348165512085,
        -0.03547065705060959,
        0.04910622537136078
      ],
      [
        0.020093491300940514,
        -0.13888531923294067,
        -0.062321074306964874,
        -0.006403557024896145,
        0.23952391743659973,
        0.05730369687080383,
        0.062681183218956,
        0.07493750005960464,
        0.1596875637769699
      ],
      [
        0.03514620289206505,
        -0.1589006781578064,
        0.011639948934316635,
        -0.036234933882951736,
        -0.3193012475967407,
        -0.040935542434453964,
        -0.06303513795137405,
        0.1124301478266716,
        -0.5831215381622314
      ],
      [
        -0.07886941730976105,
        -0.0766078531742096,
        -0.0714506059885025,
        0.027348920702934265,
        -0.032483384013175964,
        0.0721297413110733,
        0.12278592586517334,
        0.05065205693244934,
        0.008092552423477173
      ],
      [
        -0.07284612208604813,
        0.045344240963459015,
        0.03259966894984245,
        -0.24050839245319366,
        0.3575167953968048,
        0.18337994813919067,
        -0.3076140582561493,
        -0.15692099928855896,
        0.2901918590068817
      ],
      [
        -0.07156581431627274,
        0.019000887870788574,
        -0.06877399981021881,
        -0.1224539577960968,
        0.030559122562408447,
        -0.05498518794775009,
        -0.08604199439287186,
        0.036982566118240356,
        0.11436827480792999
      ],
      [
        -0.029217492789030075,
        -0.07103656232357025,
        -0.04402191936969757,
        -0.001297724898904562,
        0.023121649399399757,
        -0.0606437548995018,
        0.10269087553024292,
        0.025675442069768906,
        0.033014990389347076
      ],
      [
        -0.07171116024255753,
        0.03565468266606331,
        -0.026227187365293503,
        -0.0022381660528481007,
        -0.10454332083463669,
        -0.0786353200674057,
        0.0854623094201088,
        -0.03385069593787193,
        -0.1874874234199524
      ],
      [
        -0.004202387761324644,
        0.14625684916973114,
        -0.04546421021223068,
        -0.3260582387447357,
        -0.29842376708984375,
        0.15715207159519196,
        -0.2030831277370453,
        0.9070956707000732,
        -1.1647236347198486
      ],
      [
        0.010388229042291641,
        0.022944549098610878,
        0.0026364303193986416,
        0.017532557249069214,
        0.105721615254879,
        0.04714338853955269,
        0.0760403648018837,
        -0.014337526634335518,
        -0.0857473611831665
      ],
      [
        0.04891543090343475,
        0.08645083010196686,
        0.10131283104419708,
        -0.07912655174732208,
        0.08320800960063934,
        0.0025152862071990967,
        -0.10657262802124023,
        0.035664185881614685,
        -0.01151353120803833
      ],
      [
        0.0049659134820103645,
        -0.10655415058135986,
        -0.07189201563596725,
        -0.03007056936621666,
        -0.2620539665222168,
        0.11855429410934448,
        0.12892378866672516,
        -0.2867283523082733,
        -0.7038302421569824
      ],
      [
        0.02826949581503868,
        -0.021448958665132523,
        -0.0069088866002857685,
        -0.013171277940273285,
        0.4373980164527893,
        -0.05442134290933609,
        -0.11420061439275742,
        0.2574484646320343,
        0.35511183738708496
      ],
      [
        -0.04789701849222183,
        0.0815635621547699,
        -0.034551169723272324,
        -0.10332931578159332,
        -0.10998398065567017,
        -0.11273370683193207,
        0.055584490299224854,
        0.06931735575199127,
        0.09930536150932312
      ],
      [
        -0.046294908970594406,
        -0.024726679548621178,
        0.06735332310199738,
        -0.11370037496089935,
        0.5333913564682007,
        -0.16015246510505676,
        0.2724815607070923,
        0.11597862094640732,
        0.24807614088058472
      ],
      [
        0.08997483551502228,
        0.007172396872192621,
        -0.08499165624380112,
        -0.06415540724992752,
        0.11962759494781494,
        0.05292830988764763,
        0.050763826817274094,
        0.11520294100046158,
        0.09451228380203247
      ],
      [
        -0.04215409606695175,
        -0.11042577773332596,
        0.14839701354503632,
        -0.07048413157463074,
        0.06493345648050308,
        0.07656603306531906,
        0.1152709424495697,
        -0.12189093232154846,
        0.28473472595214844
      ],
      [
        0.13429859280586243,
        -0.05822518840432167,
        0.06331653147935867,
        0.12089728564023972,
        0.05571000277996063,
        0.014301064424216747,
        -0.11494113504886627,
        -0.09660950303077698,
        0.028087666258215904
      ],
      [
        -0.011496766470372677,
        -0.045869890600442886,
        0.12368101626634598,
        0.08596308529376984,
        -0.10902735590934753,
        -0.004936618264764547,
        -0.09264956414699554,
        0.047003649175167084,
        0.010750293731689453
      ],
      [
        0.03826034069061279,
        -0.1293230652809143,
        -0.03440634161233902,
        0.13797511160373688,
        -0.1696668416261673,
        -0.017793292179703712,
        -0.05275646224617958,
        -0.11322350800037384,
        -0.2759280204772949
      ],
      [
        0.07559496909379959,
        0.07602419704198837,
        0.04104136303067207,
        -0.12291327118873596,
        -0.10964011400938034,
        0.11667481064796448,
        0.05232914909720421,
        0.034149184823036194,
        -0.0683206170797348
      ],
      [
        0.12023012340068817,
        -0.03515840694308281,
        0.06018887087702751,
        -0.0036129546351730824,
        0.10088489204645157,
        0.06551752984523773,
        0.058015305548906326,
        0.0228390172123909,
        0.02015361376106739
      ],
      [
        -0.11934691667556763,
        0.08560208231210709,
        -0.10451044887304306,
        -0.01464859489351511,
        -0.06529462337493896,
        -0.07839898765087128,
        -0.05892319977283478,
        -0.04370416700839996,
        0.06654264032840729
      ],
      [
        -0.001167764887213707,
        -0.10108471661806107,
        -0.0642504096031189,
        -0.08763948827981949,
        0.07303936779499054,
        -0.0637182891368866,
        -0.08796796947717667,
        0.0842738151550293,
        -0.023532282561063766
      ],
      [
        -0.09702463448047638,
        0.054128196090459824,
        0.07370511442422867,
        0.2071884274482727,
        0.4042253792285919,
        0.16666914522647858,
        0.4009373188018799,
        -0.4287067651748657,
        0.2500245273113251
      ],
      [
        -0.07752746343612671,
        0.08178503811359406,
        -0.06437692046165466,
        -0.011077553033828735,
        0.09076015651226044,
        0.0062211304903030396,
        0.08405941724777222,
        -0.019624829292297363,
        -0.015770241618156433
      ],
      [
        -0.011628973297774792,
        0.001278543844819069,
        0.014785418286919594,
        0.17793644964694977,
        -0.6473746299743652,
        0.151310533285141,
        0.05207384377717972,
        -0.6772603988647461,
        -1.0938109159469604
      ],
      [
        -0.08734133839607239,
        0.02043190598487854,
        -0.0640261173248291,
        -0.12448473274707794,
        0.10718512535095215,
        0.04955311119556427,
        0.0498819500207901,
        -0.1201954185962677,
        -0.02502325177192688
      ],
      [
        -0.0069473981857299805,
        0.005905181169509888,
        0.11284634470939636,
        0.0875096470117569,
        -0.11690481007099152,
        0.0032950788736343384,
        -0.08224201202392578,
        0.09244538843631744,
        -0.04565471410751343
      ],
      [
        -0.053328465670347214,
        -0.01978122442960739,
        0.10888750106096268,
        -0.07155991345643997,
        0.130350723862648,
        -0.1838480681180954,
        0.29467087984085083,
        0.5431723594665527,
        0.42153623700141907
      ],
      [
        -0.12232306599617004,
        0.03002987802028656,
        0.00879380851984024,
        0.09961286187171936,
        0.12051466107368469,
        -0.007074281573295593,
        0.04755371809005737,
        0.0357791930437088,
        -0.0034865140914916992
      ],
      [
        -0.05968131870031357,
        -0.040493909269571304,
        -0.004102917388081551,
        0.02436417154967785,
        0.1528937667608261,
        0.08737784624099731,
        -0.07420331984758377,
        -0.010778481140732765,
        0.129455104470253
      ],
      [
        -0.08722425252199173,
        0.1119619756937027,
        0.08815270662307739,
        -0.12489236146211624,
        0.15495264530181885,
        -0.1574074625968933,
        -0.053546369075775146,
        0.224166139960289,
        0.5063176155090332
      ],
      [
        0.09530679136514664,
        -0.11163855344057083,
        -0.00860519427806139,
        -0.04757578298449516,
        0.1591416448354721,
        0.06700418889522552,
        -0.2828989326953888,
        0.12233051657676697,
        0.1251073181629181
      ],
      [
        0.12772786617279053,
        0.04448062181472778,
        -0.10781287401914597,
        -0.054737724363803864,
        -0.08304569125175476,
        -0.12592865526676178,
        -0.06533533334732056,
        -0.006579224951565266,
        0.40432700514793396
      ],
      [
        -0.018491948023438454,
        -0.057942379266023636,
        -0.07336492836475372,
        -0.013725297525525093,
        -0.023369070142507553,
        -0.02522021159529686,
        0.07179492712020874,
        -0.09578922390937805,
        -0.0475168451666832
      ],
      [
        -0.04347013309597969,
        -0.0147471372038126,
        0.12196869403123856,
        0.015017674304544926,
        0.2758750021457672,
        -0.04845639318227768,
        0.26153191924095154,
        0.19281351566314697,
        0.16429926455020905
      ],
      [
        0.1292443722486496,
        0.1348995864391327,
        0.01581430248916149,
        0.006586266681551933,
        -0.11738178879022598,
        -0.13007313013076782,
        0.01598416455090046,
        -0.12772707641124725,
        -0.021741896867752075
      ],
      [
        0.07843367755413055,
        -0.009143084287643433,
        0.08876672387123108,
        -0.10355465114116669,
        -0.002225905656814575,
        0.07378455996513367,
        0.023907676339149475,
        0.060149312019348145,
        0.03209367394447327
      ],
      [
        -0.06595693528652191,
        0.04472493380308151,
        -0.04121648892760277,
        -0.08994923532009125,
        -0.06549222022294998,
        -0.019411273300647736,
        0.06260426342487335,
        0.07185806334018707,
        0.03915918618440628
      ],
      [
        -0.029750272631645203,
        0.10059952735900879,
        -0.0005588531494140625,
        -0.07075002789497375,
        -0.10665525496006012,
        -0.04384918510913849,
        -0.01983773708343506,
        0.0120057612657547,
        0.06368418037891388
      ],
      [
        -0.07891050726175308,
        0.07759012281894684,
        -0.09769528359174728,
        0.03783011436462402,
        0.07097180187702179,
        0.012320862151682377,
        0.01139788143336773,
        -0.0963696837425232,
        -0.04699714481830597
      ],
      [
        0.01165156252682209,
        -0.08417442440986633,
        -0.02450382523238659,
        0.030983760952949524,
        -0.033347178250551224,
        0.08470755815505981,
        0.04871836304664612,
        0.02693638578057289,
        0.07012710720300674
      ],
      [
        -0.10398215800523758,
        -0.044465482234954834,
        -0.022937824949622154,
        -0.12702247500419617,
        -0.02320942096412182,
        -0.02600245550274849,
        -0.16822777688503265,
        0.12426801025867462,
        -0.05974886566400528
      ],
      [
        0.08699168264865875,
        -0.024581704288721085,
        0.03311203047633171,
        0.07104591280221939,
        -0.027561426162719727,
        0.09511157125234604,
        0.05734657496213913,
        -0.12598146498203278,
        -0.026559144258499146
      ],
      [
        0.061569906771183014,
        0.06305994093418121,
        -0.0013623336562886834,
        0.09001436084508896,
        0.08980027586221695,
        0.10972826182842255,
        -0.17109444737434387,
        0.0944950208067894,
        -0.19955173134803772
      ],
      [
        0.18454736471176147,
        -0.0026613415684551,
        -0.03646184131503105,
        -0.017034655436873436,
        0.133994460105896,
        0.05136137828230858,
        0.07623379677534103,
        0.12207158654928207,
        0.3718324899673462
      ],
      [
        -0.08127059042453766,
        0.0034494069404900074,
        0.016888931393623352,
        -0.004893437027931213,
        -0.1008194088935852,
        -0.05676297843456268,
        -0.023396745324134827,
        0.01736004650592804,
        -0.060865581035614014
      ],
      [
        -0.08438687026500702,
        0.008154205977916718,
        0.10267241299152374,
        0.14788557589054108,
        0.15879708528518677,
        0.06504674255847931,
        0.10912518203258514,
        -0.14471757411956787,
        0.09132419526576996
      ],
      [
        -0.009652645327150822,
        0.08963163942098618,
        0.05643095076084137,
        -0.06546362489461899,
        -0.010099690407514572,
        0.0874646008014679,
        -0.0692761018872261,
        0.1365557461977005,
        0.37208911776542664
      ],
      [
        -0.06708468496799469,
        0.05583576112985611,
        0.08319881558418274,
        -0.0943736582994461,
        0.011826634407043457,
        0.08764983713626862,
        0.007456064689904451,
        0.037705495953559875,
        0.01542753353714943
      ],
      [
        -0.03472980856895447,
        0.02145269513130188,
        0.053733330219984055,
        0.08150880038738251,
        -0.24565646052360535,
        -0.010830883868038654,
        0.2483503222465515,
        -0.2063673436641693,
        -0.35155168175697327
      ],
      [
        0.0469307005405426,
        0.07518064230680466,
        -0.03436312824487686,
        -0.11251088976860046,
        0.08690004050731659,
        -0.01457440946251154,
        -0.029336027801036835,
        -0.15688735246658325,
        -0.08677642792463303
      ],
      [
        0.1197921484708786,
        0.11301998794078827,
        0.09246249496936798,
        0.04745076596736908,
        -0.03125898540019989,
        0.11403980851173401,
        -0.10125702619552612,
        0.10006317496299744,
        0.11198915541172028
      ],
      [
        -0.08978231251239777,
        -0.009396339766681194,
        -0.08288580179214478,
        -0.01714348793029785,
        0.053725600242614746,
        0.10650663077831268,
        0.0868270993232727,
        -0.06265731155872345,
        0.11582741141319275
      ],
      [
        -0.06809289753437042,
        0.04075905680656433,
        -0.07641904056072235,
        0.06590139865875244,
        0.08973690867424011,
        -0.06594789028167725,
        -0.09528081119060516,
        -0.018954738974571228,
        -0.03797437250614166
      ],
      [
        -0.041066426783800125,
        0.059180501848459244,
        -0.06512020528316498,
        -0.08769768476486206,
        0.031217796728014946,
        -0.0026391397695988417,
        0.01156842615455389,
        0.10218475013971329,
        0.04040240868926048
      ],
      [
        0.11018572747707367,
        0.006393298506736755,
        -7.53835411160253e-05,
        0.0016582906246185303,
        0.07470077276229858,
        0.09044690430164337,
        0.07417765259742737,
        -0.041408419609069824,
        -0.04817047715187073
      ],
      [
        -0.07945489883422852,
        0.09868930280208588,
        0.1179685965180397,
        0.12457020580768585,
        0.16466543078422546,
        -0.03695274144411087,
        0.0488048791885376,
        -0.331465482711792,
        0.11997318267822266
      ],
      [
        0.12754207849502563,
        -0.055260952562093735,
        -0.10082966834306717,
        -0.18086135387420654,
        -0.15885098278522491,
        0.09946498274803162,
        0.12277819961309433,
        0.0035748251248151064,
        -0.1982387751340866
      ],
      [
        -0.04457225650548935,
        -0.09493628144264221,
        0.0036105697508901358,
        0.12413476407527924,
        0.08873684704303741,
        -0.04205706715583801,
        0.06826895475387573,
        0.03329122066497803,
        0.04370969533920288
      ],
      [
        0.0030247801914811134,
        -0.12839369475841522,
        0.07857301831245422,
        0.02817412093281746,
        0.03564803674817085,
        -0.061100028455257416,
        -0.03608366474509239,
        0.23690703511238098,
        0.10107199847698212
      ],
      [
        -0.09844422340393066,
        -0.0007504522800445557,
        0.11600928008556366,
        0.07481977343559265,
        0.034292206168174744,
        -0.09013476967811584,
        0.04358212649822235,
        -0.09515205025672913,
        -0.012988358736038208
      ],
      [
        -0.025150347501039505,
        0.02822796069085598,
        -0.005471041891723871,
        0.11832546442747116,
        0.08303013443946838,
        0.01658393256366253,
        0.05129105970263481,
        -0.10093799233436584,
        0.061148226261138916
      ],
      [
        0.0590953566133976,
        -0.10801324993371964,
        0.005630529019981623,
        0.2546224296092987,
        0.0839097872376442,
        -0.06401880085468292,
        0.2923382520675659,
        -0.37595105171203613,
        0.5271060466766357
      ],
      [
        -0.14413848519325256,
        -0.1785021871328354,
        0.09020525217056274,
        -0.13945643603801727,
        0.08873795717954636,
        0.10617224127054214,
        0.04536081850528717,
        0.0690327137708664,
        -0.07302042096853256
      ],
      [
        0.12523920834064484,
        -0.08307845890522003,
        0.036197125911712646,
        -0.02210400253534317,
        -0.13509392738342285,
        -0.07813343405723572,
        0.021414028480648994,
        -0.11102898418903351,
        0.12916335463523865
      ],
      [
        -0.06397823989391327,
        -0.0014069527387619019,
        -0.06861916184425354,
        0.081402987241745,
        0.08245399594306946,
        0.06914164125919342,
        -0.07522477209568024,
        -0.09352368116378784,
        0.06958721578121185
      ],
      [
        0.04432004690170288,
        -0.05603403598070145,
        0.015071641653776169,
        -0.09219054877758026,
        -0.1956639289855957,
        0.13281956315040588,
        -0.0006773155182600021,
        -0.145224466919899,
        0.0753355473279953
      ],
      [
        -0.08048146963119507,
        -0.03595969080924988,
        0.11204573512077332,
        -0.025475790724158287,
        -0.10888557136058807,
        -0.11223897337913513,
        0.048515040427446365,
        0.04246128723025322,
        0.09134861826896667
      ],
      [
        -0.10275223851203918,
        -0.03536626696586609,
        -0.06937235593795776,
        0.028714701533317566,
        0.020139172673225403,
        -0.060069143772125244,
        0.06623534858226776,
        0.01825946569442749,
        0.11326770484447479
      ],
      [
        0.01920502819120884,
        0.003030938794836402,
        -0.04040504992008209,
        -0.1010870561003685,
        -0.13641323149204254,
        0.028180502355098724,
        0.05126017704606056,
        -0.07369498908519745,
        -0.10500764846801758
      ],
      [
        -0.0724945068359375,
        -0.01058591902256012,
        -0.08341111242771149,
        -0.0006666779518127441,
        -0.0735606700181961,
        0.029466524720191956,
        -0.027768388390541077,
        0.11667931079864502,
        -0.033608660101890564
      ],
      [
        0.00920047890394926,
        -0.24998435378074646,
        -0.04904433712363243,
        0.09719015657901764,
        0.12641707062721252,
        -0.04688234254717827,
        0.17137140035629272,
        0.043268170207738876,
        0.28886911273002625
      ],
      [
        -0.12443265318870544,
        -0.07871702313423157,
        -0.052612558007240295,
        0.009979748167097569,
        -0.006060827057808638,
        -0.043642349541187286,
        0.014008348807692528,
        0.08290404081344604,
        0.11769453436136246
      ],
      [
        -0.11566253751516342,
        -0.08544453233480453,
        0.116239532828331,
        -0.10253319889307022,
        -0.3254500925540924,
        0.28538981080055237,
        0.04529601335525513,
        -0.04633757472038269,
        -0.3538379371166229
      ],
      [
        0.05054137483239174,
        -0.15564309060573578,
        -0.0743277445435524,
        -0.08846110105514526,
        0.06527473777532578,
        -0.04549507424235344,
        0.004292028956115246,
        0.34807050228118896,
        0.5773370862007141
      ],
      [
        0.022098839282989502,
        -0.07211688160896301,
        0.09583885967731476,
        0.11338110268115997,
        0.011349231004714966,
        0.08504018187522888,
        -0.04197615385055542,
        0.06088536977767944,
        -0.10331860184669495
      ],
      [
        0.0790189802646637,
        -0.009470941498875618,
        -0.04032699763774872,
        0.09640640020370483,
        0.32441025972366333,
        -0.1387479305267334,
        -0.13097995519638062,
        -0.19434331357479095,
        0.5620698928833008
      ],
      [
        0.0466768778860569,
        -0.03575204685330391,
        -0.054480474442243576,
        0.010034176521003246,
        -0.03472767397761345,
        0.10546743124723434,
        0.04565013572573662,
        -0.04922306165099144,
        -0.05316057801246643
      ],
      [
        0.04240286350250244,
        -0.028717592358589172,
        0.11702823638916016,
        -0.11529414355754852,
        -0.05383537709712982,
        0.11465869843959808,
        0.09489870071411133,
        -0.0801909863948822,
        0.016301661729812622
      ],
      [
        0.030827339738607407,
        0.04211592674255371,
        0.04857899248600006,
        -0.10272354632616043,
        0.023010049015283585,
        -0.016637418419122696,
        -0.11653763800859451,
        -0.06431382149457932,
        0.02116321586072445
      ],
      [
        -0.10830605030059814,
        -0.0997687354683876,
        0.059992194175720215,
        0.05523942783474922,
        0.06523709744215012,
        -0.03656289726495743,
        0.08853596448898315,
        -0.18569621443748474,
        0.03490540385246277
      ],
      [
        0.046227797865867615,
        -0.01680856943130493,
        0.09874619543552399,
        -0.001062735915184021,
        0.10068471729755402,
        0.08537217974662781,
        0.09279881417751312,
        -0.036340147256851196,
        -0.07637088000774384
      ],
      [
        0.008820384740829468,
        -0.07409483194351196,
        0.09762200713157654,
        -0.056477874517440796,
        -0.11216539144515991,
        -0.012802422046661377,
        -0.07842877507209778,
        0.0265054851770401,
        0.09778006374835968
      ],
      [
        0.08737371116876602,
        -0.009267164394259453,
        0.02029833197593689,
        -0.02614467963576317,
        0.04898136854171753,
        -0.012482740916311741,
        -0.001039280672557652,
        0.0034690594766288996,
        0.01774606853723526
      ],
      [
        -0.08457274734973907,
        -0.07088911533355713,
        -0.018502891063690186,
        -0.024615302681922913,
        0.04748047888278961,
        -0.030102506279945374,
        0.02388434112071991,
        -0.00525645911693573,
        0.12469044327735901
      ],
      [
        0.11822401732206345,
        0.06988893449306488,
        0.013220541179180145,
        -0.08091503381729126,
        0.10616321116685867,
        -0.08077967166900635,
        -0.11705947667360306,
        0.06568960100412369,
        0.001895050867460668
      ],
      [
        0.1290862113237381,
        -0.05871836841106415,
        -0.06563402712345123,
        -0.1605365127325058,
        0.20322006940841675,
        0.09597623348236084,
        -0.1605561077594757,
        0.10209771990776062,
        -0.04226922616362572
      ],
      [
        0.026803001761436462,
        -0.10210263729095459,
        0.0811396986246109,
        0.0009914636611938477,
        -0.04058811068534851,
        0.0489107221364975,
        -0.12201924622058868,
        0.02977485954761505,
        -0.06182137131690979
      ],
      [
        0.05430348962545395,
        -0.023578505963087082,
        -0.09389149397611618,
        0.04666956514120102,
        -0.20173349976539612,
        0.1405811905860901,
        0.41238534450531006,
        -0.5544707775115967,
        -0.880824089050293
      ],
      [
        -0.051837608218193054,
        0.11003643274307251,
        -0.07971417903900146,
        -0.029620662331581116,
        0.004684031009674072,
        0.07616409659385681,
        -0.018958941102027893,
        0.11270248889923096,
        -0.035649120807647705
      ],
      [
        0.08777812123298645,
        -0.09116123616695404,
        -0.056407373398542404,
        0.168038472533226,
        0.08134738355875015,
        -0.16788913309574127,
        -0.09623998403549194,
        0.00787387229502201,
        0.33293062448501587
      ],
      [
        0.1061745136976242,
        -0.04287946969270706,
        -0.05406902730464935,
        0.1578536033630371,
        0.5078369379043579,
        -0.1911003440618515,
        -0.2386217713356018,
        -0.255096435546875,
        0.421654611825943
      ],
      [
        -0.019319996237754822,
        0.07512497901916504,
        -0.07497559487819672,
        0.03597994148731232,
        0.10932078957557678,
        0.057019442319869995,
        0.10359381139278412,
        -0.04386591911315918,
        -0.0482599139213562
      ],
      [
        0.0003358419635333121,
        -0.10094456374645233,
        0.07518244534730911,
        0.05015614256262779,
        0.10071677714586258,
        -0.0010002835188061,
        0.009722280316054821,
        0.06131599843502045,
        0.03835425153374672
      ],
      [
        -0.06847535073757172,
        -0.046701982617378235,
        -0.05332830548286438,
        -0.06170845031738281,
        -0.10479176789522171,
        0.06340331584215164,
        -0.06677283346652985,
        -0.05370146781206131,
        0.08688270300626755
      ],
      [
        0.06058630347251892,
        0.01846218854188919,
        0.018907705321907997,
        0.12629219889640808,
        -0.02349184826016426,
        0.09401468932628632,
        -0.097121961414814,
        0.11128415912389755,
        0.04339772090315819
      ],
      [
        0.13280346989631653,
        -0.08818577229976654,
        -0.01836344040930271,
        0.09073419868946075,
        0.02463144063949585,
        -0.15598206222057343,
        -0.19881923496723175,
        0.07218657433986664,
        0.44656240940093994
      ],
      [
        -0.013736618682742119,
        0.03051804006099701,
        0.06548009812831879,
        -0.008300751447677612,
        -0.028407812118530273,
        -0.10242044925689697,
        0.010606035590171814,
        -0.09489594399929047,
        -0.05030204355716705
      ],
      [
        0.05687741935253143,
        0.021781250834465027,
        0.08893030881881714,
        0.030363768339157104,
        0.10817582905292511,
        0.08792492747306824,
        0.09717442095279694,
        -0.06649626791477203,
        -0.02025054395198822
      ],
      [
        0.10352590680122375,
        0.18962012231349945,
        -0.06411969661712646,
        -0.11074092984199524,
        -0.1689549684524536,
        0.14552882313728333,
        -0.1803843080997467,
        -0.014757579192519188,
        -0.307213693857193
      ],
      [
        -0.03158596158027649,
        6.632192526012659e-05,
        -0.018679413944482803,
        -0.04326106607913971,
        0.08467860519886017,
        0.011061474680900574,
        0.0024161338806152344,
        -0.04676982760429382,
        -0.051313191652297974
      ],
      [
        -0.04895088076591492,
        0.013316994532942772,
        -0.04797908663749695,
        -0.074315145611763,
        -0.02353796362876892,
        0.02358858287334442,
        -0.08982814848423004,
        0.026913687586784363,
        0.09751749038696289
      ],
      [
        0.12014712393283844,
        0.08855341374874115,
        0.03372521698474884,
        -0.029906973242759705,
        0.019939914345741272,
        -0.12043023109436035,
        0.06812644004821777,
        0.0056091248989105225,
        0.1221386045217514
      ],
      [
        0.08967495709657669,
        0.04307333007454872,
        -0.1127341240644455,
        -0.016048327088356018,
        0.10603927075862885,
        -0.1496076136827469,
        -0.09552289545536041,
        -0.004132276400923729,
        0.11769143491983414
      ],
      [
        0.01076728105545044,
        -0.11298204958438873,
        -0.11010167002677917,
        -0.06672260165214539,
        0.11532649397850037,
        -0.06353582441806793,
        -0.0659143328666687,
        -0.07434967160224915,
        -0.005937933921813965
      ],
      [
        0.022761300206184387,
        -0.003958281595259905,
        -0.12592336535453796,
        0.03745173290371895,
        0.1197749599814415,
        -0.08529460430145264,
        -0.002689498011022806,
        -0.1210830807685852,
        -0.07631637156009674
      ],
      [
        0.01068626344203949,
        -0.0448443740606308,
        0.05196318030357361,
        -0.10220496356487274,
        0.09546366333961487,
        -0.11109662055969238,
        -0.0442560613155365,
        0.07173340022563934,
        -0.11983601748943329
      ],
      [
        0.07922886312007904,
        -0.09161141514778137,
        0.03271104395389557,
        0.01392611674964428,
        -0.0964529737830162,
        0.06107266619801521,
        0.18484067916870117,
        -0.24122577905654907,
        0.06565659493207932
      ],
      [
        0.021005213260650635,
        -0.08994659781455994,
        0.09750944375991821,
        0.037810370326042175,
        -0.09286178648471832,
        0.010520249605178833,
        0.02688959240913391,
        -0.04129151999950409,
        0.11707162857055664
      ],
      [
        -0.06941589713096619,
        0.08683250844478607,
        0.11070948839187622,
        -0.015737727284431458,
        -0.07675494253635406,
        0.008432850241661072,
        -0.0012914687395095825,
        0.03822380304336548,
        0.12305811047554016
      ],
      [
        -0.054570477455854416,
        -0.03669628128409386,
        -0.02050505392253399,
        0.042908284813165665,
        0.007820883765816689,
        -0.010050603188574314,
        0.0063025024719536304,
        -0.031198544427752495,
        -0.10328586399555206
      ],
      [
        -0.1132860779762268,
        -0.03160811960697174,
        -0.039699211716651917,
        0.01175650954246521,
        0.0014830976724624634,
        -0.020175233483314514,
        0.005069375038146973,
        0.07679378986358643,
        -0.05481515824794769
      ],
      [
        -0.03587937355041504,
        -0.10440337657928467,
        0.06732991337776184,
        0.10005906224250793,
        -0.08700408041477203,
        0.11819440126419067,
        0.10551300644874573,
        0.0013178437948226929,
        -0.05991831421852112
      ],
      [
        -0.030068282037973404,
        0.00865237694233656,
        0.12007755786180496,
        0.09581097215414047,
        -0.08407291024923325,
        -0.06425631046295166,
        -0.21140870451927185,
        -0.5154110193252563,
        -0.43338868021965027
      ],
      [
        -0.06845888495445251,
        -0.030139625072479248,
        -0.05272945761680603,
        0.08205416798591614,
        0.11441396176815033,
        0.1025543212890625,
        -0.007273226976394653,
        0.12475652992725372,
        0.11682073771953583
      ],
      [
        0.026768529787659645,
        0.0859871581196785,
        -0.06296400725841522,
        0.0019778432324528694,
        0.16379186511039734,
        -0.06177474930882454,
        0.21014632284641266,
        0.01869613490998745,
        0.6804642677307129
      ],
      [
        -0.00888650119304657,
        0.11981947720050812,
        0.12466605007648468,
        -0.03363010287284851,
        0.008763954043388367,
        0.08121941983699799,
        -0.10975424945354462,
        -0.11608849465847015,
        -0.12467172741889954
      ],
      [
        0.03527677059173584,
        -0.032747283577919006,
        -0.09578055143356323,
        0.08477246761322021,
        0.10622119903564453,
        -0.09579217433929443,
        -0.0350547730922699,
        -0.12340481579303741,
        -0.10164511203765869
      ],
      [
        -0.07955765724182129,
        -0.06744033098220825,
        -0.05368633568286896,
        -0.1158805638551712,
        0.11892767250537872,
        -0.12012836337089539,
        0.11010733246803284,
        -0.009877488017082214,
        -0.05737161636352539
      ],
      [
        0.09613239765167236,
        -0.03635628521442413,
        -0.06787109375,
        -0.06282983720302582,
        -0.013330250978469849,
        0.01287752389907837,
        0.008897170424461365,
        0.017914488911628723,
        0.01629839837551117
      ],
      [
        0.03127868101000786,
        -0.02684907242655754,
        -0.0737529844045639,
        0.02918192744255066,
        0.5670011639595032,
        -0.015313783660531044,
        -0.06750594824552536,
        -0.039757441729307175,
        0.3268495202064514
      ],
      [
        -0.01563277840614319,
        -0.017848581075668335,
        -0.09261442720890045,
        -0.005503594875335693,
        -0.09994527697563171,
        -0.1042197048664093,
        -0.015287205576896667,
        0.039070770144462585,
        -0.07905814051628113
      ],
      [
        -0.050421684980392456,
        -0.11786001920700073,
        -0.009709909558296204,
        0.10816682875156403,
        -0.06020928919315338,
        -0.07816480100154877,
        0.018126025795936584,
        -0.03915998339653015,
        -0.05849343538284302
      ],
      [
        -0.022038698196411133,
        -0.05205997824668884,
        -0.03757341206073761,
        -0.025323137640953064,
        -0.043482705950737,
        0.06213243305683136,
        -0.06359121203422546,
        0.0012226104736328125,
        0.11121930181980133
      ],
      [
        -0.06592065095901489,
        -0.05524298548698425,
        -0.051401376724243164,
        0.09150181710720062,
        0.10569196939468384,
        -0.013479292392730713,
        0.07891076803207397,
        0.09114708006381989,
        0.07541413605213165
      ],
      [
        0.030407771468162537,
        -0.06712915003299713,
        -0.08425040543079376,
        0.12083156406879425,
        0.09465998411178589,
        -0.11077050864696503,
        -0.0798979103565216,
        -0.03882835805416107,
        -0.06722788512706757
      ],
      [
        -0.08172574639320374,
        -0.08153542876243591,
        -0.005743987858295441,
        -0.03198396414518356,
        0.01970362849533558,
        0.09370505809783936,
        -0.10487537831068039,
        0.018573490902781487,
        -0.016370601952075958
      ],
      [
        -0.0013590455055236816,
        0.12209245562553406,
        -0.11705183982849121,
        -0.1082095056772232,
        0.004471898078918457,
        -0.09117923676967621,
        -0.07140801846981049,
        0.08143223822116852,
        0.044881775975227356
      ],
      [
        -0.03832326829433441,
        -0.045308858156204224,
        -0.060973092913627625,
        -0.05433213710784912,
        -0.019189372658729553,
        0.028344571590423584,
        0.021991640329360962,
        -0.11683109402656555,
        -0.04518952965736389
      ],
      [
        0.11350084841251373,
        -0.011469319462776184,
        -0.027141615748405457,
        -0.06810559332370758,
        -0.08106023073196411,
        0.12253648042678833,
        0.10998791456222534,
        0.0933455377817154,
        0.11007533967494965
      ],
      [
        0.03651466965675354,
        0.028281331062316895,
        0.04232616722583771,
        0.10393042862415314,
        0.037338986992836,
        -0.0849561095237732,
        -0.033155202865600586,
        0.10192257165908813,
        -0.0324237197637558
      ],
      [
        -0.10070325434207916,
        -0.1161847785115242,
        0.09062499552965164,
        0.10033263266086578,
        0.07820524275302887,
        -0.03260764479637146,
        0.1004907637834549,
        -0.004481777548789978,
        -0.08341626822948456
      ],
      [
        0.024429813027381897,
        -0.06532101333141327,
        -0.08274629712104797,
        -0.054420799016952515,
        -0.07991349697113037,
        0.031682178378105164,
        0.05813762545585632,
        -0.09917941689491272,
        -0.12063714861869812
      ],
      [
        -0.024203971028327942,
        0.012188807129859924,
        0.0872468650341034,
        0.12476007640361786,
        0.05736495554447174,
        0.08256210386753082,
        -0.03903105854988098,
        0.06265096366405487,
        -0.11753927171230316
      ],
      [
        -0.06641244143247604,
        -0.035306140780448914,
        -0.022706646472215652,
        0.03066660277545452,
        -0.0010038482723757625,
        0.09674041718244553,
        -0.11982095241546631,
        -0.018946630880236626,
        -0.0699530690908432
      ],
      [
        0.038625285029411316,
        -0.010844603180885315,
        0.1159781962633133,
        -0.0399923175573349,
        -0.06572484970092773,
        0.02306520938873291,
        -0.004532918334007263,
        -0.03032618761062622,
        -0.06326277554035187
      ],
      [
        -0.0907006561756134,
        -0.03706204891204834,
        -0.08053968846797943,
        -0.029311805963516235,
        -0.05886849761009216,
        -0.11175656318664551,
        0.0685761570930481,
        -0.08543562889099121,
        -0.08606497943401337
      ],
      [
        0.012814468704164028,
        -0.01703227125108242,
        -0.08173905313014984,
        0.012577763758599758,
        -0.0857597291469574,
        0.013270571827888489,
        0.0635383278131485,
        0.09942980110645294,
        -0.03992250934243202
      ],
      [
        0.11889642477035522,
        0.06996120512485504,
        0.10634830594062805,
        -0.05449923872947693,
        0.09679502248764038,
        -0.10717014968395233,
        0.05523599684238434,
        0.1113559752702713,
        -0.08468583226203918
      ],
      [
        0.10371652245521545,
        -0.10254164040088654,
        0.00019639795937109739,
        0.01175527274608612,
        -0.05085413157939911,
        0.01727631688117981,
        -0.07420361042022705,
        0.12382940948009491,
        -0.11091911792755127
      ],
      [
        -0.07941612601280212,
        -0.1247050017118454,
        -0.10063731670379639,
        -0.006934612989425659,
        0.06864747405052185,
        0.12250921130180359,
        0.12138243019580841,
        0.08427955210208893,
        0.12227240204811096
      ],
      [
        0.03888319432735443,
        -0.037379518151283264,
        0.08584396541118622,
        -0.11503216624259949,
        0.06497280299663544,
        0.0464666485786438,
        0.10333625972270966,
        0.029866710305213928,
        -0.027820944786071777
      ],
      [
        0.007403545547276735,
        -0.03315281122922897,
        -0.08091716468334198,
        0.007261199876666069,
        -0.06343506276607513,
        -0.0008707110537216067,
        -0.05746752396225929,
        -0.10543254017829895,
        0.0022080964408814907
      ],
      [
        -0.12566307187080383,
        0.01319885067641735,
        0.04285195469856262,
        -0.10491932183504105,
        0.15551643073558807,
        0.1117890477180481,
        -0.021688492968678474,
        -0.00441842433065176,
        0.014850214123725891
      ],
      [
        0.03931041806936264,
        0.17163822054862976,
        -0.11251270771026611,
        -0.0004297978011891246,
        -0.21792344748973846,
        0.02756286785006523,
        0.0508454293012619,
        -0.32181379199028015,
        -0.7556561231613159
      ],
      [
        0.032806117087602615,
        -0.08546677231788635,
        -0.020156074315309525,
        -0.1330614686012268,
        -0.005380168091505766,
        0.0601193904876709,
        -0.14534570276737213,
        0.01517390925437212,
        0.053971678018569946
      ],
      [
        0.09973198175430298,
        0.009970754384994507,
        0.0787728875875473,
        -0.09917798638343811,
        0.03716935217380524,
        0.05585308372974396,
        0.012441739439964294,
        -0.06665876507759094,
        -0.019047215580940247
      ],
      [
        0.09713548421859741,
        -0.05211688205599785,
        -0.03778935968875885,
        -0.06893087923526764,
        0.008288192562758923,
        0.06754312664270401,
        0.17659328877925873,
        -0.01484689675271511,
        0.19565723836421967
      ],
      [
        -0.04579062759876251,
        0.0652695745229721,
        0.05359800159931183,
        0.04182523488998413,
        0.03410020470619202,
        -0.09317004680633545,
        0.1014900654554367,
        0.10758727788925171,
        0.11615408957004547
      ],
      [
        0.07433804869651794,
        0.023971885442733765,
        0.08860012888908386,
        0.12185515463352203,
        0.043368518352508545,
        -0.08181717991828918,
        -0.03300751745700836,
        0.024320796132087708,
        -0.1160556823015213
      ],
      [
        0.035831987857818604,
        0.10644879937171936,
        0.11923159658908844,
        0.10668410360813141,
        0.09698416292667389,
        -0.06686094403266907,
        -0.0798480361700058,
        0.02654440701007843,
        0.06993216276168823
      ],
      [
        -0.05131392180919647,
        -0.11146074533462524,
        0.07633146643638611,
        0.03359135985374451,
        -0.05147084593772888,
        -0.10920916497707367,
        0.06352889537811279,
        0.1238570362329483,
        -0.07354319095611572
      ],
      [
        0.041776642203330994,
        0.004544883966445923,
        0.05231514573097229,
        0.08972938358783722,
        0.056433871388435364,
        0.036761656403541565,
        -0.1078466922044754,
        0.022064805030822754,
        -0.011483103036880493
      ],
      [
        0.120388925075531,
        -0.11956910789012909,
        -0.043215662240982056,
        0.0675506740808487,
        0.009489908814430237,
        0.021397188305854797,
        0.002995699644088745,
        -0.05188509821891785,
        -0.03750069439411163
      ],
      [
        0.09067051112651825,
        0.04748137295246124,
        0.06505604088306427,
        -0.0749531239271164,
        -0.1072365790605545,
        -0.11474913358688354,
        -0.08998709917068481,
        0.12004075944423676,
        -0.019876956939697266
      ],
      [
        -0.012386584654450417,
        0.039179958403110504,
        0.0636405423283577,
        0.12326774001121521,
        -0.04978207126259804,
        0.003920406568795443,
        -0.11689045280218124,
        -0.11383800208568573,
        -0.09698112308979034
      ],
      [
        -0.11291724443435669,
        0.025355949997901917,
        0.12187927961349487,
        -0.06659449636936188,
        0.017772212624549866,
        0.04518197476863861,
        4.5746564865112305e-05,
        -0.033391013741493225,
        -0.0731734037399292
      ],
      [
        0.11911626160144806,
        0.09351937472820282,
        0.020906388759613037,
        0.0027924925088882446,
        -0.013481184840202332,
        0.03658239543437958,
        -0.08744318783283234,
        0.07894948124885559,
        0.022740468382835388
      ],
      [
        -0.00639159744605422,
        -0.11321913450956345,
        0.0336945503950119,
        -0.03310207277536392,
        -0.16843360662460327,
        -0.05601087212562561,
        0.3112201988697052,
        0.04780513048171997,
        -0.4180172085762024
      ],
      [
        -0.0007037680479697883,
        -0.0058897933922708035,
        0.029876723885536194,
        -0.09207438677549362,
        -0.06650111824274063,
        0.07443103939294815,
        0.03767469897866249,
        -0.09868698567152023,
        -0.11421472579240799
      ],
      [
        -0.11868713796138763,
        0.044639796018600464,
        -0.049744635820388794,
        0.09686943888664246,
        0.12200717628002167,
        0.12075959146022797,
        -0.040039271116256714,
        0.06397609412670135,
        -0.031031981110572815
      ],
      [
        -0.10195450484752655,
        -0.09846292436122894,
        -0.04388715326786041,
        0.10765820741653442,
        -0.1004270613193512,
        -0.0773320198059082,
        0.033384233713150024,
        0.11999507248401642,
        -0.11134366691112518
      ],
      [
        -0.10194319486618042,
        0.11099939048290253,
        -0.10577650368213654,
        0.11522567272186279,
        0.012806087732315063,
        0.06218379735946655,
        -0.0012807846069335938,
        0.1055031269788742,
        -0.10113650560379028
      ],
      [
        -0.08788363635540009,
        -0.09563316404819489,
        -0.11131927371025085,
        -0.026693716645240784,
        -0.03580580651760101,
        -0.11284008622169495,
        0.0353606641292572,
        0.08382923901081085,
        -0.05105830729007721
      ],
      [
        -0.000721469521522522,
        0.1195530891418457,
        -0.07320690155029297,
        9.879469871520996e-05,
        -0.012167394161224365,
        -0.07364910840988159,
        0.026398763060569763,
        -0.00845685601234436,
        -0.04322515428066254
      ],
      [
        0.10491607338190079,
        -0.08987800776958466,
        0.030803199857473373,
        0.06539063900709152,
        -0.06654509902000427,
        -0.11815390735864639,
        0.05793457478284836,
        -0.022980598732829094,
        -0.10930733382701874
      ],
      [
        -0.012002840638160706,
        0.019978642463684082,
        -0.10788093507289886,
        0.0021496564149856567,
        -0.052250370383262634,
        0.06727978587150574,
        -0.011736586689949036,
        -0.06692744791507721,
        -0.1176692545413971
      ],
      [
        -0.015586696565151215,
        -0.0236847922205925,
        0.10479249805212021,
        0.12747743725776672,
        0.1270810216665268,
        -0.06324003636837006,
        0.08688953518867493,
        -0.10467709600925446,
        -0.04224967211484909
      ],
      [
        -0.12128195911645889,
        0.05655965581536293,
        0.0034274074714630842,
        -0.08105937391519547,
        -0.0823550596833229,
        -0.09544546157121658,
        -0.12046065926551819,
        -0.12049642950296402,
        0.10741356760263443
      ],
      [
        -0.02341536432504654,
        0.07918507605791092,
        0.115457683801651,
        0.1010831892490387,
        -0.31458255648612976,
        0.20322321355342865,
        -0.05548301711678505,
        -0.3995566964149475,
        -0.2732027769088745
      ],
      [
        0.001630946877412498,
        0.008054770529270172,
        -0.009020593017339706,
        -0.3737909495830536,
        -0.621924877166748,
        0.35460156202316284,
        0.0679810643196106,
        0.5392081141471863,
        -1.5541341304779053
      ],
      [
        0.11522537469863892,
        -0.04504654183983803,
        0.06731786578893661,
        -0.03218432515859604,
        -0.07170267403125763,
        -0.090853750705719,
        0.08067262172698975,
        0.033770352602005005,
        -0.03530791029334068
      ],
      [
        0.023107752203941345,
        -0.06716080009937286,
        0.12413112819194794,
        -0.028491273522377014,
        -0.085524782538414,
        0.05757571756839752,
        0.024615228176116943,
        0.08548559248447418,
        0.049373239278793335
      ],
      [
        -0.062136515974998474,
        0.060299843549728394,
        0.06652861833572388,
        -0.02373325824737549,
        -0.10454696416854858,
        -0.10965940356254578,
        -0.06254959106445312,
        -0.10310482978820801,
        -0.10984843969345093
      ],
      [
        -0.09453052282333374,
        0.06890346109867096,
        0.03767343983054161,
        0.018042655661702156,
        0.16722352802753448,
        -0.07550705224275589,
        -0.1672585904598236,
        0.04965315759181976,
        0.04652025178074837
      ],
      [
        0.05663419887423515,
        0.033106446266174316,
        0.010680066421627998,
        0.06177971884608269,
        -0.002783913630992174,
        -0.007144952192902565,
        0.1400502771139145,
        0.00577309587970376,
        0.16153934597969055
      ],
      [
        0.06864006817340851,
        0.0864773541688919,
        -0.09851879626512527,
        0.010114772245287895,
        -0.05027789622545242,
        -0.11739713698625565,
        -0.12364750355482101,
        -0.08274348825216293,
        -0.012678451836109161
      ],
      [
        0.025770006701350212,
        -0.010578149929642677,
        0.0015799611574038863,
        -0.08919241279363632,
        0.14666464924812317,
        0.0022816923446953297,
        0.003916880581527948,
        0.645255446434021,
        -0.4479556977748871
      ],
      [
        0.0253971666097641,
        -0.08336640894412994,
        0.09812726080417633,
        -0.042714059352874756,
        -0.07678160071372986,
        0.0634339451789856,
        -0.003362298011779785,
        0.12026037275791168,
        0.02253003418445587
      ],
      [
        0.06371638178825378,
        -0.09071766585111618,
        -0.04737749695777893,
        0.12331344932317734,
        -0.10668803006410599,
        0.0398055762052536,
        -0.10496053099632263,
        -0.20743992924690247,
        -0.34817177057266235
      ],
      [
        -0.034428346902132034,
        0.09743666648864746,
        0.058237675577402115,
        0.12763407826423645,
        -0.29533666372299194,
        0.10663013160228729,
        0.090491384267807,
        -0.42554742097854614,
        -0.7277361750602722
      ],
      [
        -0.1015436053276062,
        0.05022116005420685,
        -0.05409267544746399,
        0.00014413893222808838,
        0.1009303629398346,
        0.03463657200336456,
        -0.03153592348098755,
        0.0049854665994644165,
        0.11314050853252411
      ],
      [
        -0.023286081850528717,
        -0.014521487057209015,
        0.07233452051877975,
        -0.04552779346704483,
        -0.25745144486427307,
        0.10190755128860474,
        -0.09616734087467194,
        -0.8143426775932312,
        -1.2343151569366455
      ],
      [
        -0.07081899046897888,
        0.02758897840976715,
        -0.10586853325366974,
        -0.07424400746822357,
        -0.0861605852842331,
        0.11000716686248779,
        -0.06957772374153137,
        0.012521162629127502,
        0.11691641807556152
      ],
      [
        -0.09690089523792267,
        0.0927126556634903,
        0.13383345305919647,
        -0.17036506533622742,
        -0.3255593776702881,
        0.12901729345321655,
        0.3661482334136963,
        -0.13797517120838165,
        -0.6173354983329773
      ],
      [
        0.0006900281878188252,
        0.041477639228105545,
        0.04525149241089821,
        0.05762314051389694,
        0.0918838232755661,
        0.08176974207162857,
        0.06409332156181335,
        0.03415733575820923,
        0.0064450837671756744
      ],
      [
        -0.11817890405654907,
        -0.08151882886886597,
        -0.056240182369947433,
        -0.08762618899345398,
        0.05814260616898537,
        -0.12146878242492676,
        0.003098874818533659,
        0.08315727114677429,
        0.028611943125724792
      ],
      [
        0.008016563951969147,
        -0.318064421415329,
        -0.024137817323207855,
        -0.13954825699329376,
        0.4878807067871094,
        -0.12141965329647064,
        -0.3665599524974823,
        0.5727603435516357,
        0.9164658784866333
      ],
      [
        -0.04418915510177612,
        0.01683424413204193,
        -0.0044852192513644695,
        -0.10331614315509796,
        -0.005551695823669434,
        -0.10694752633571625,
        -0.07414229214191437,
        0.004050225019454956,
        -0.007948994636535645
      ],
      [
        -0.12209946662187576,
        0.08175450563430786,
        -0.05772650986909866,
        -0.042368084192276,
        -0.029680967330932617,
        0.11186942458152771,
        -0.056049566715955734,
        0.009754486382007599,
        -0.012636737897992134
      ],
      [
        -0.0010141539387404919,
        0.013623841106891632,
        0.0002640324819367379,
        0.022467292845249176,
        0.3345942497253418,
        -0.29315444827079773,
        0.14237768948078156,
        0.23632487654685974,
        1.43373441696167
      ],
      [
        -0.08358960598707199,
        -0.09753447771072388,
        0.08783725649118423,
        -0.1203082874417305,
        -0.02492583356797695,
        0.062132105231285095,
        -0.07262111455202103,
        -0.07350972294807434,
        -0.0998295471072197
      ],
      [
        0.09208311140537262,
        0.0033229372929781675,
        0.04647655412554741,
        0.11935653537511826,
        -0.023086486384272575,
        0.08198286592960358,
        0.10146183520555496,
        0.07782020419836044,
        0.06301303207874298
      ],
      [
        0.12275643646717072,
        0.03618752956390381,
        0.08805930614471436,
        -0.06916043162345886,
        0.08837398886680603,
        0.06391878426074982,
        0.06043022871017456,
        -0.10515187680721283,
        -0.015410706400871277
      ],
      [
        0.02035471796989441,
        -0.013435900211334229,
        0.10535304248332977,
        -0.031373530626297,
        -0.07273826003074646,
        -0.012138232588768005,
        -0.03618265688419342,
        0.06038069725036621,
        -0.06631898880004883
      ],
      [
        0.11073113977909088,
        0.016567081212997437,
        0.06052201986312866,
        -0.0624113529920578,
        0.011621519923210144,
        0.08746640384197235,
        0.008999884128570557,
        0.07054518163204193,
        0.04328203201293945
      ],
      [
        -0.08911853283643723,
        -0.05330487713217735,
        -0.00292796827852726,
        0.008256012573838234,
        -0.08870386332273483,
        0.06232283636927605,
        0.1023021936416626,
        0.05821307376027107,
        -0.030379701405763626
      ],
      [
        0.10956108570098877,
        0.10951891541481018,
        0.10614678263664246,
        -0.00993184745311737,
        0.09630522131919861,
        -0.09104582667350769,
        0.03374135494232178,
        -0.11954888701438904,
        -0.10236477851867676
      ],
      [
        0.11155293881893158,
        -0.031939201056957245,
        0.057089000940322876,
        -0.046132754534482956,
        -0.022630056366324425,
        -0.02598698064684868,
        0.09563439339399338,
        0.0031334913801401854,
        0.09524539113044739
      ],
      [
        0.025299115106463432,
        -0.15973824262619019,
        -0.09589127451181412,
        -0.1273108273744583,
        0.23386415839195251,
        -0.12676644325256348,
        0.26610755920410156,
        0.13730160892009735,
        0.5335358381271362
      ],
      [
        -0.13230541348457336,
        0.09241199493408203,
        0.056093692779541016,
        -0.2285338193178177,
        -0.11950398236513138,
        0.22011493146419525,
        0.4174402058124542,
        0.07656466215848923,
        -0.31061801314353943
      ],
      [
        0.0151295131072402,
        0.05117526277899742,
        -0.024110114201903343,
        0.0013362537138164043,
        -0.4435611665248871,
        0.2653709948062897,
        0.25255364179611206,
        -0.4675973653793335,
        -0.7587384581565857
      ],
      [
        0.024128496646881104,
        0.0505138523876667,
        -0.043705053627491,
        0.07989901304244995,
        0.43145284056663513,
        -0.3591039776802063,
        -0.21513675153255463,
        0.35586315393447876,
        0.715284526348114
      ],
      [
        -0.051311034709215164,
        -0.0556640625,
        -0.050645411014556885,
        -0.006457775365561247,
        -0.030147092416882515,
        -0.06840385496616364,
        0.02440790832042694,
        0.05782204866409302,
        -0.024384409189224243
      ],
      [
        0.12503981590270996,
        0.097295843064785,
        -0.010577796958386898,
        0.13597731292247772,
        0.19493940472602844,
        0.043750301003456116,
        0.022597331553697586,
        0.1250426471233368,
        0.17932721972465515
      ],
      [
        0.028827212750911713,
        0.09534882754087448,
        -0.12023952603340149,
        -0.0010250648483633995,
        0.5460147857666016,
        0.0002140379074262455,
        -0.12191565334796906,
        -0.36971238255500793,
        -0.45229536294937134
      ],
      [
        0.08839432895183563,
        0.06685608625411987,
        0.03655227646231651,
        -0.05750863626599312,
        -0.10515238344669342,
        -0.06866706162691116,
        -0.08147922903299332,
        0.0968046635389328,
        0.10118884593248367
      ],
      [
        -0.013057412579655647,
        0.0907122865319252,
        0.1267995685338974,
        0.016977855935692787,
        -0.014118566177785397,
        0.027231909334659576,
        -0.0726078450679779,
        0.09753710776567459,
        0.08837706595659256
      ],
      [
        0.08655913919210434,
        0.022618183866143227,
        -0.02862999029457569,
        0.1683037132024765,
        0.0896424949169159,
        0.05389953777194023,
        0.060528043657541275,
        -0.22817376255989075,
        0.0478847473859787
      ],
      [
        0.13215799629688263,
        0.0609406940639019,
        0.04052577540278435,
        -0.050890110433101654,
        0.022043731063604355,
        0.004921414889395237,
        -0.10238692909479141,
        -0.02383207529783249,
        -0.005177583545446396
      ],
      [
        0.10945714265108109,
        0.14987529814243317,
        -0.019768724218010902,
        -0.028579089790582657,
        0.17915742099285126,
        -0.2738804519176483,
        0.08836599439382553,
        0.08008699864149094,
        0.22880351543426514
      ],
      [
        0.08017449080944061,
        -0.0901837944984436,
        0.09400680661201477,
        0.011739209294319153,
        -0.06505484879016876,
        -0.01412762701511383,
        0.10869655013084412,
        0.10054825246334076,
        -0.07603171467781067
      ],
      [
        -0.09142841398715973,
        0.0753602683544159,
        0.06456054747104645,
        0.1061890572309494,
        0.08951553702354431,
        -0.07919682562351227,
        0.05718250572681427,
        -0.0625421553850174,
        -0.048202693462371826
      ],
      [
        -0.09286104887723923,
        -0.04179728403687477,
        0.10309766232967377,
        -0.12259762734174728,
        0.10646583884954453,
        -3.843082595267333e-05,
        0.06126013398170471,
        0.0690830796957016,
        -0.06617160886526108
      ],
      [
        -0.11757330596446991,
        -0.014577695168554783,
        0.095083087682724,
        0.1507376879453659,
        0.2674839496612549,
        -0.047051578760147095,
        0.1454269289970398,
        -0.17305801808834076,
        0.5664413571357727
      ],
      [
        -0.10231834650039673,
        0.06292974948883057,
        -0.07613611221313477,
        0.056041717529296875,
        0.06449995934963226,
        0.028123855590820312,
        0.039713725447654724,
        0.0006854832172393799,
        -0.01043248176574707
      ],
      [
        0.0534992478787899,
        0.06115708500146866,
        -0.02059796452522278,
        -0.16155724227428436,
        -0.14689166843891144,
        0.14177148044109344,
        -0.5523430705070496,
        -0.03491165488958359,
        -0.7513006925582886
      ],
      [
        0.04158829152584076,
        -0.08073464035987854,
        -0.10002890229225159,
        0.03229908645153046,
        0.07713177800178528,
        0.11519831418991089,
        0.1082707941532135,
        0.0746539831161499,
        0.07826897501945496
      ],
      [
        0.09143037348985672,
        -0.06075724959373474,
        -0.08883179724216461,
        0.41958683729171753,
        0.2845868468284607,
        -0.2549510598182678,
        0.18147386610507965,
        -0.235068678855896,
        0.5766160488128662
      ],
      [
        0.029237493872642517,
        -0.028614267706871033,
        0.08825734257698059,
        -0.08339926600456238,
        -0.02300332486629486,
        0.07944506406784058,
        0.08762544393539429,
        -0.02159634232521057,
        -0.07468521595001221
      ],
      [
        0.050412461161613464,
        -0.028773650527000427,
        -0.0957217589020729,
        -0.040229544043540955,
        0.08423085510730743,
        -0.023690074682235718,
        0.032720863819122314,
        -0.029944151639938354,
        0.09731712937355042
      ],
      [
        -0.031904224306344986,
        -0.07976023107767105,
        -0.019998332485556602,
        0.0728125050663948,
        -0.07390575855970383,
        -0.07637746632099152,
        0.045611388981342316,
        -0.01127766352146864,
        0.11718053370714188
      ],
      [
        -0.020713424310088158,
        -0.0975503921508789,
        0.10335066169500351,
        0.08111639320850372,
        0.014181462116539478,
        0.021464340388774872,
        0.08583589643239975,
        -0.06441828608512878,
        -0.10062036663293839
      ],
      [
        -0.09985994547605515,
        0.07400909066200256,
        0.06640270352363586,
        -0.26583147048950195,
        -0.12321995943784714,
        0.16421084105968475,
        -0.09472264349460602,
        -0.06088833883404732,
        -0.6687471270561218
      ],
      [
        -0.033241961151361465,
        0.04409017786383629,
        0.054774899035692215,
        0.06480557471513748,
        0.4301471710205078,
        -0.15075382590293884,
        -0.5443854928016663,
        0.22415994107723236,
        0.8739876747131348
      ],
      [
        0.07242551445960999,
        -0.03636094927787781,
        0.08033736050128937,
        0.09144200384616852,
        0.09132680296897888,
        0.03282706439495087,
        -0.07688002288341522,
        -0.060540422797203064,
        -0.09256967902183533
      ],
      [
        0.04790621995925903,
        0.04924991726875305,
        -0.1032133623957634,
        0.10202782601118088,
        0.16410338878631592,
        -0.1064949631690979,
        -0.1430298089981079,
        -0.03143021836876869,
        0.8014423847198486
      ],
      [
        -0.05545976012945175,
        -0.05717843025922775,
        0.10269560664892197,
        -0.13449348509311676,
        -0.3952960669994354,
        0.32436054944992065,
        -0.11980757862329483,
        -0.18926610052585602,
        -0.8228493928909302
      ],
      [
        -0.08476826548576355,
        0.07767465710639954,
        -0.08828210830688477,
        0.06462668627500534,
        -0.09723938256502151,
        0.08790042996406555,
        0.09360353648662567,
        0.011297768913209438,
        -0.03586166724562645
      ],
      [
        0.03355022147297859,
        -0.002886394038796425,
        -0.03166825324296951,
        0.10855846107006073,
        -0.10683121532201767,
        -0.03272213414311409,
        0.051267560571432114,
        0.04634956642985344,
        0.04795556515455246
      ]
    ],
    "lstm.weight_hh_l0": [
      [
        0.09049926698207855,
        -0.04493999481201172,
        -0.10266698896884918,
        -0.08551590144634247,
        -0.0516500324010849,
        -0.01995430886745453,
        -0.053314000368118286,
        0.10217417776584625,
        -0.023857414722442627,
        0.12203535437583923,
        -0.11715371906757355,
        0.08448751270771027,
        -0.0001195371150970459,
        -0.05726179480552673,
        0.0559963583946228,
        0.06321841478347778,
        0.0335182249546051,
        -0.004726052284240723,
        0.04017612338066101,
        0.00955374538898468,
        -0.03461238741874695,
        -0.060318246483802795,
        0.0839538425207138,
        0.10527382791042328,
        -0.06775937974452972,
        0.003365829586982727,
        -0.08850328624248505,
        -0.07930003106594086,
        -0.0558694452047348,
        0.07470393180847168,
        -0.12223944067955017,
        0.07585778832435608,
        -0.04999500513076782,
        0.0607805997133255,
        -0.04117661714553833,
        -0.12235726416110992,
        -0.11193549633026123,
        -0.10602331161499023,
        -0.08514340221881866,
        0.07062637805938721,
        0.06097792088985443,
        0.11059893667697906,
        0.060324981808662415,
        0.0816066712141037,
        -0.09448505938053131,
        0.056042447686195374,
        0.04657331109046936,
        0.07510291039943695,
        0.0013424158096313477,
        -0.026079386472702026,
        -0.03550548851490021,
        0.08692772686481476,
        -0.08739355206489563,
        -0.09054753184318542,
        -0.023380041122436523,
        -0.11661027371883392,
        -0.041148439049720764,
        0.09967611730098724,
        -0.031913191080093384,
        -0.0790369063615799,
        -0.11526787281036377,
        -0.015941113233566284,
        -0.08766496181488037,
        0.060021400451660156
      ],
      [
        -0.014997988939285278,
        0.0664912611246109,
        -0.07445217669010162,
        -0.09275130927562714,
        0.10020492970943451,
        -0.00643526017665863,
        0.014640390872955322,
        -0.10103628039360046,
        -0.12315556406974792,
        -0.00844930112361908,
        0.045198217034339905,
        0.03175751864910126,
        -0.0174361914396286,
        -0.045136407017707825,
        -0.0666898787021637,
        -0.09499724209308624,
        -0.06940425932407379,
        -0.0651385486125946,
        0.023715317249298096,
        -0.09407888352870941,
        -0.0429195910692215,
        -0.07886245846748352,
        -0.10758407413959503,
        -0.04067809879779816,
        0.1222926527261734,
        0.05749347805976868,
        0.07867686450481415,
        0.10607016086578369,
        -0.0957091748714447,
        -0.04945620894432068,
        -0.06990520656108856,
        0.009259536862373352,
        0.11186906695365906,
        0.04442809522151947,
        0.03155471384525299,
        -0.11724504828453064,
        0.11129556596279144,
        0.06673219799995422,
        0.030836567282676697,
        -0.04123653471469879,
        -0.002560913562774658,
        0.047068700194358826,
        0.01648835837841034,
        -0.08545386791229248,
        -0.10285994410514832,
        -0.113539919257164,
        0.018606483936309814,
        -0.03862914443016052,
        0.08646875619888306,
        0.06185431778430939,
        -0.034292370080947876,
        0.08780273795127869,
        -0.10946422815322876,
        0.09178374707698822,
        -0.07706791162490845,
        0.051541030406951904,
        0.01052778959274292,
        -0.029508113861083984,
        0.08805505931377411,
        -0.0056629478931427,
        0.05035427212715149,
        0.0794096440076828,
        -0.11415714025497437,
        0.05475844442844391
      ],
      [
        0.028012797236442566,
        -0.03577383980154991,
        0.04378345608711243,
        0.09218423813581467,
        -0.10241065919399261,
        0.11762825399637222,
        0.05316965654492378,
        -0.12264500558376312,
        -0.05210001394152641,
        0.026434438303112984,
        -0.023341402411460876,
        -0.03178076073527336,
        -0.11892741173505783,
        -0.006939005572348833,
        -0.035153623670339584,
        -0.12032151222229004,
        0.08339034765958786,
        -0.08541592955589294,
        0.061356041580438614,
        -0.025866443291306496,
        -0.013595342636108398,
        -0.030228758230805397,
        -0.006083816289901733,
        0.08368673920631409,
        -0.010319438762962818,
        0.034530628472566605,
        0.06706210225820541,
        0.04171943664550781,
        -0.09361498802900314,
        0.0237521231174469,
        0.08053930103778839,
        -0.04966495931148529,
        0.07230161130428314,
        -0.09458726644515991,
        -0.03139463812112808,
        0.06749401986598969,
        0.02563977614045143,
        -0.01099349558353424,
        0.10835184156894684,
        0.09505308419466019,
        -0.09340796619653702,
        0.07748671621084213,
        0.014088781550526619,
        -0.09396667778491974,
        -0.0515352264046669,
        -0.04379021376371384,
        0.009190335869789124,
        -0.12100733816623688,
        -0.09889168292284012,
        -0.011047571897506714,
        0.02208162099123001,
        -0.10863105952739716,
        -0.01946200057864189,
        -0.07834572345018387,
        -0.08831070363521576,
        0.02034629136323929,
        -0.03711196035146713,
        -0.11047723144292831,
        0.07290210574865341,
        -0.034429386258125305,
        0.09796035289764404,
        -0.10402446985244751,
        0.043074414134025574,
        0.05490794777870178
      ],
      [
        0.10661466419696808,
        0.08976755291223526,
        0.04008645936846733,
        -0.3106246292591095,
        0.2588781416416168,
        0.11920161545276642,
        0.008503132499754429,
        -0.11410671472549438,
        0.29683250188827515,
        0.07133052498102188,
        0.037353359162807465,
        0.27741193771362305,
        -0.11115624010562897,
        -0.19905108213424683,
        0.04019991680979729,
        0.1010534018278122,
        -0.3710037171840668,
        0.0835840255022049,
        -0.013432050123810768,
        0.055157460272312164,
        0.07794974744319916,
        0.16546353697776794,
        0.08844341337680817,
        -0.07705629616975784,
        0.08627083152532578,
        0.5329631567001343,
        0.07247953861951828,
        -0.1215439885854721,
        -0.011067377403378487,
        -0.10918856412172318,
        0.10314692556858063,
        0.15909336507320404,
        -0.2707328498363495,
        -0.23658695816993713,
        -0.1414865404367447,
        0.06834931671619415,
        0.003399311099201441,
        0.025767222046852112,
        0.09491943567991257,
        -0.07521887123584747,
        0.2714051306247711,
        -0.1823134869337082,
        -0.1269746869802475,
        0.03687890246510506,
        -0.02335582673549652,
        0.06932613253593445,
        -0.053203925490379333,
        0.02132163569331169,
        -0.11416842043399811,
        -0.04610492289066315,
        0.21781904995441437,
        -0.0312727689743042,
        -0.13059717416763306,
        -0.23351497948169708,
        -0.07746030390262604,
        -0.0281965434551239,
        0.09076796472072601,
        -0.14339487254619598,
        0.08329308778047562,
        0.07618165016174316,
        0.13157276809215546,
        -0.22331462800502777,
        0.03311756253242493,
        0.05191050097346306
      ],
      [
        0.0726994127035141,
        0.10993034392595291,
        -0.004754824563860893,
        0.055582910776138306,
        0.01909279264509678,
        -0.1913810670375824,
        0.12904655933380127,
        -0.016969606280326843,
        0.06277714669704437,
        0.05161198601126671,
        0.053533509373664856,
        0.0490201860666275,
        0.022954272106289864,
        -0.09515418112277985,
        0.00385806686244905,
        -0.051790088415145874,
        0.07140094041824341,
        -0.05001354217529297,
        -0.051333073526620865,
        0.07856019586324692,
        0.034724295139312744,
        0.008285907097160816,
        -0.049771279096603394,
        -0.022651351988315582,
        -0.00037442389293573797,
        0.07646865397691727,
        0.08700510114431381,
        -0.081639364361763,
        0.004654026590287685,
        0.09098353981971741,
        -0.0984894335269928,
        0.036103829741477966,
        -0.026508621871471405,
        0.037914350628852844,
        -0.1099538654088974,
        0.03051856718957424,
        -0.039897218346595764,
        -0.09749123454093933,
        -0.03710658848285675,
        0.016505133360624313,
        0.04023473709821701,
        -0.11159271001815796,
        -0.002435076981782913,
        0.00415427703410387,
        -0.02049499750137329,
        0.2036876529455185,
        0.020711451768875122,
        -0.12114374339580536,
        0.07309789955615997,
        0.020555853843688965,
        -0.08882862329483032,
        -0.010173991322517395,
        0.07071734219789505,
        -0.07696540653705597,
        0.03814193606376648,
        0.06533049792051315,
        0.10499031841754913,
        0.08103179186582565,
        0.052136439830064774,
        0.008099347352981567,
        -0.011468593962490559,
        -0.03745948150753975,
        0.024940043687820435,
        -0.09099218249320984
      ],
      [
        -0.08701835572719574,
        0.12372228503227234,
        -0.04007912799715996,
        -0.3399689793586731,
        0.39953598380088806,
        -0.1342816948890686,
        0.09637055546045303,
        -0.007208973169326782,
        0.0067397430539131165,
        -0.03131663054227829,
        -0.04733744263648987,
        0.20474651455879211,
        -0.2739676535129547,
        0.6460513472557068,
        0.07212027162313461,
        -0.06453680992126465,
        -0.29944950342178345,
        0.04333007335662842,
        -0.31855902075767517,
        -0.31068384647369385,
        0.022229209542274475,
        0.3424822688102722,
        0.05739422142505646,
        -0.10562290251255035,
        -0.13181468844413757,
        -0.044607970863580704,
        0.009011668153107166,
        0.02287539839744568,
        0.11196860671043396,
        0.09964115172624588,
        0.026119617745280266,
        0.13332077860832214,
        -0.26743489503860474,
        -0.28720593452453613,
        -0.20318733155727386,
        -0.014953570440411568,
        0.14581073820590973,
        -0.0653388500213623,
        0.15917880833148956,
        -0.1367056667804718,
        -0.19919323921203613,
        -0.30550262331962585,
        -0.11372007429599762,
        0.14572295546531677,
        0.2634522318840027,
        0.26635098457336426,
        -0.04394276440143585,
        -0.018567582592368126,
        0.2525383532047272,
        -0.11832913756370544,
        0.11562910676002502,
        -0.0784308910369873,
        0.018815988674759865,
        -0.03727935999631882,
        -0.07601562142372131,
        -0.009951788000762463,
        -0.4398280680179596,
        0.24550622701644897,
        0.008664083667099476,
        0.08170098066329956,
        -0.248827263712883,
        -0.17851626873016357,
        -0.0333666056394577,
        -0.11067799478769302
      ],
      [
        0.09222699701786041,
        0.1538802832365036,
        -0.10931789875030518,
        0.13700105249881744,
        -0.13697168231010437,
        -0.002053979318588972,
        0.16930487751960754,
        0.010089442133903503,
        0.23137138783931732,
        0.16997507214546204,
        -0.04151234030723572,
        0.07696602493524551,
        0.0724627748131752,
        0.018297817558050156,
        -0.15610523521900177,
        -0.06692720949649811,
        0.14322985708713531,
        -0.11444833874702454,
        0.11566639691591263,
        -0.038799747824668884,
        0.03987058997154236,
        -0.10399530082941055,
        -0.12095107138156891,
        -0.07405519485473633,
        0.016321351751685143,
        -0.040534090250730515,
        -0.3716047406196594,
        -0.030357271432876587,
        -0.10266997665166855,
        -0.053208306431770325,
        0.0343538373708725,
        -0.01093258522450924,
        0.2716723084449768,
        -0.06301044672727585,
        0.11406898498535156,
        0.045957423746585846,
        -0.1298598349094391,
        0.0093764066696167,
        0.027880428358912468,
        -0.014323243871331215,
        0.10855153203010559,
        -0.019479691982269287,
        -0.10966355353593826,
        0.01412292942404747,
        -0.15521566569805145,
        0.11882816255092621,
        0.04861167073249817,
        0.00020206028420943767,
        -0.1742936074733734,
        -0.014465078711509705,
        -0.059170398861169815,
        0.07564103603363037,
        0.14179258048534393,
        -0.06727036833763123,
        0.06720253825187683,
        -0.033771198242902756,
        0.3807685971260071,
        -0.08931643515825272,
        -0.02545790560543537,
        0.09095166623592377,
        -0.13689929246902466,
        0.11461494863033295,
        0.0659581869840622,
        -0.055073875933885574
      ],
      [
        0.0033217966556549072,
        0.10794585943222046,
        -0.05991855263710022,
        0.06401771306991577,
        0.09398028254508972,
        0.07078322768211365,
        -0.06885455548763275,
        0.11227558553218842,
        -0.09574845433235168,
        0.04333658516407013,
        0.0292300283908844,
        0.07657186686992645,
        -0.03220359981060028,
        -0.12459705770015717,
        -0.05905614793300629,
        0.021736130118370056,
        0.11799809336662292,
        0.040621161460876465,
        0.05060410499572754,
        -0.05319984257221222,
        0.109320268034935,
        -0.08049456775188446,
        0.05878852307796478,
        0.0727316290140152,
        0.05200672149658203,
        -0.061686426401138306,
        0.045325249433517456,
        -0.11819559335708618,
        0.0247231125831604,
        0.1106780469417572,
        0.024974465370178223,
        0.008081138134002686,
        0.08823974430561066,
        0.08044089376926422,
        0.08921989798545837,
        -0.07246308028697968,
        0.1155819296836853,
        -0.01482190191745758,
        0.00287020206451416,
        0.013548657298088074,
        0.05639459192752838,
        0.03688645362854004,
        0.06718863546848297,
        0.07702365517616272,
        0.06569452583789825,
        -0.11888392269611359,
        0.102154940366745,
        -0.08417697250843048,
        -0.10848119854927063,
        0.09094305336475372,
        0.07064785063266754,
        0.03412860631942749,
        0.044533610343933105,
        -0.04601152241230011,
        0.07862696051597595,
        -0.0902835875749588,
        -0.011552229523658752,
        0.022718176245689392,
        0.036528900265693665,
        -0.09570002555847168,
        -0.04281587898731232,
        0.11809082329273224,
        0.08304233849048615,
        0.02494288980960846
      ],
      [
        0.026865154504776,
        -0.178706556558609,
        -0.11476287990808487,
        0.20581889152526855,
        -0.05394483357667923,
        0.2838778793811798,
        -0.02660250850021839,
        -0.05894264578819275,
        0.012766750529408455,
        -0.07521971315145493,
        -0.0004483487573452294,
        -0.26556509733200073,
        -0.014579035341739655,
        -0.2287934273481369,
        -0.09217815846204758,
        -0.014223992824554443,
        0.13165965676307678,
        -0.009684339165687561,
        -0.04947090521454811,
        0.04441541060805321,
        0.027084842324256897,
        -0.22444170713424683,
        0.0651446282863617,
        0.008248603902757168,
        -0.16849225759506226,
        -0.009263856336474419,
        0.0002681021869648248,
        -0.07297983765602112,
        0.19174504280090332,
        -0.054274722933769226,
        -0.010097801685333252,
        0.12083569914102554,
        -0.13741672039031982,
        0.284454882144928,
        -0.21485188603401184,
        -0.03630732744932175,
        -0.07316309958696365,
        -0.014341920614242554,
        -0.0663796216249466,
        0.1475744992494583,
        -0.0399366170167923,
        0.045962244272232056,
        0.09383180737495422,
        -0.11520876735448837,
        0.06344112753868103,
        -0.2530747950077057,
        0.09250617027282715,
        -0.06478077173233032,
        0.09340429306030273,
        0.06192652881145477,
        0.053151439875364304,
        0.036953702569007874,
        -0.13097207248210907,
        0.22101260721683502,
        0.056087926030159,
        0.08535802364349365,
        0.0840134397149086,
        -0.05159439146518707,
        0.2042054384946823,
        -0.07518094778060913,
        -0.13621936738491058,
        0.020900359377264977,
        -0.052075207233428955,
        0.009129853919148445
      ],
      [
        -0.0268009752035141,
        -0.0549752302467823,
        -0.06938204914331436,
        -0.1346232295036316,
        -0.24084025621414185,
        0.22007201611995697,
        -0.29842379689216614,
        -0.10026705265045166,
        -0.13570930063724518,
        0.0032012099400162697,
        0.023448511958122253,
        -0.20780807733535767,
        0.19230283796787262,
        -0.18616214394569397,
        -0.06555305421352386,
        -0.02387310564517975,
        0.0626903846859932,
        0.055169478058815,
        -0.0027804390992969275,
        0.14933694899082184,
        -0.04368734359741211,
        0.1391119658946991,
        0.04560351371765137,
        0.08075645565986633,
        0.1462838351726532,
        0.028139613568782806,
        0.42021915316581726,
        0.016583502292633057,
        0.08253206312656403,
        0.10926848649978638,
        -0.05504964664578438,
        -0.20598115026950836,
        0.11572244763374329,
        -0.09785136580467224,
        0.22088444232940674,
        0.15155674517154694,
        -0.2740839719772339,
        -0.01323080062866211,
        0.1361374408006668,
        0.13691121339797974,
        0.0419083796441555,
        0.5818049311637878,
        -0.15169396996498108,
        -0.35075151920318604,
        -0.12018132954835892,
        -0.4746769070625305,
        0.008081898093223572,
        -0.05505404248833656,
        -0.025734499096870422,
        -0.016039729118347168,
        -0.06936018168926239,
        -0.052517786622047424,
        -0.1554514765739441,
        0.006878807675093412,
        -0.12199923396110535,
        -0.11343163996934891,
        0.1732044517993927,
        -0.1596459597349167,
        0.2763140797615051,
        -0.11171117424964905,
        -0.12756583094596863,
        -0.021981865167617798,
        0.05284248664975166,
        -0.058821238577365875
      ],
      [
        -0.08343099057674408,
        -0.0011756598250940442,
        0.06772443652153015,
        0.12041294574737549,
        0.08287245035171509,
        0.04709918797016144,
        0.016548683866858482,
        0.05511742830276489,
        0.09441401064395905,
        -0.08289062976837158,
        -0.05523012578487396,
        0.08659617602825165,
        0.1121014803647995,
        -0.07278810441493988,
        0.12421786785125732,
        -0.010462656617164612,
        0.017789142206311226,
        -0.10074405372142792,
        -0.0057111745700240135,
        -0.008996265940368176,
        0.10312230885028839,
        -0.1240052804350853,
        -0.02089206874370575,
        0.05574023723602295,
        -0.06471189856529236,
        -0.025231197476387024,
        -0.023481732234358788,
        -0.06549941003322601,
        0.10113850235939026,
        0.06456400454044342,
        0.003988310694694519,
        0.08313702046871185,
        0.02601279318332672,
        -0.031895190477371216,
        -0.016792282462120056,
        0.07476971298456192,
        -0.07898929715156555,
        -0.06561785936355591,
        -0.08772939443588257,
        -0.10630813241004944,
        0.07248552143573761,
        0.04002458229660988,
        0.10302349179983139,
        0.11796950548887253,
        -0.10384399443864822,
        -0.08732294291257858,
        0.08976902067661285,
        0.013129949569702148,
        -0.014088014140725136,
        0.031093448400497437,
        0.028965458273887634,
        0.08871658146381378,
        0.06797381490468979,
        0.05501168966293335,
        0.07721294462680817,
        -0.0805903971195221,
        0.0417284220457077,
        -0.07126045227050781,
        0.08818607032299042,
        -0.01707923412322998,
        -0.07109010219573975,
        0.019136503338813782,
        -0.0651121586561203,
        -0.06381642818450928
      ],
      [
        -0.0026147067546844482,
        -0.030183618888258934,
        0.12059776484966278,
        -0.26231881976127625,
        0.19864487648010254,
        -0.18116870522499084,
        0.1015622615814209,
        0.07002703845500946,
        -0.1129787489771843,
        0.029253987595438957,
        -0.07254523038864136,
        -0.08857067674398422,
        -0.10176427662372589,
        -0.2143763154745102,
        0.093376524746418,
        -0.035000041127204895,
        -0.07835274189710617,
        0.04606178402900696,
        -0.18592767417430878,
        0.04485353082418442,
        -0.028643935918807983,
        0.2001173049211502,
        -0.04148136079311371,
        0.11780782043933868,
        0.058992207050323486,
        0.3074980080127716,
        -0.023365337401628494,
        -0.0999850332736969,
        -0.11347976326942444,
        -0.002567019546404481,
        -0.11046933382749557,
        0.07922407984733582,
        -0.04538731649518013,
        -0.19217823445796967,
        0.05014389753341675,
        0.09390518814325333,
        -0.08910011500120163,
        -0.08405199646949768,
        -0.05149904638528824,
        -0.03777576610445976,
        0.10183338075876236,
        -0.09614013135433197,
        0.061662621796131134,
        0.019952921196818352,
        -0.011629992164671421,
        -0.012074756436049938,
        -0.11330069601535797,
        0.04911666363477707,
        -0.028161391615867615,
        -0.005680099129676819,
        -0.10697413980960846,
        -0.06155554950237274,
        -0.031086614355444908,
        -0.12494180351495743,
        0.07439644634723663,
        0.0818047896027565,
        -0.004795166198164225,
        0.10589047521352768,
        -0.19072778522968292,
        0.1039523035287857,
        0.002777651185169816,
        -0.1282987743616104,
        -0.1083003431558609,
        -0.0671367272734642
      ],
      [
        -0.015594840049743652,
        -0.04669253155589104,
        0.07025175541639328,
        0.0005758493789471686,
        0.08396978676319122,
        -0.08661539852619171,
        0.06900174170732498,
        -0.01388692855834961,
        -0.12017309665679932,
        0.05872797220945358,
        0.027811842039227486,
        0.11314792931079865,
        -0.0399216003715992,
        0.09206120669841766,
        0.02291366457939148,
        0.08108383417129517,
        0.08103639632463455,
        0.10409367084503174,
        0.0611143559217453,
        0.0738796815276146,
        0.0708899199962616,
        0.06964262574911118,
        -0.10728253424167633,
        0.10862544178962708,
        0.0303531251847744,
        -0.04565444961190224,
        -0.08706343173980713,
        -0.05942919850349426,
        -0.01794559508562088,
        -0.11671231687068939,
        -0.07164491713047028,
        -0.08272247016429901,
        -0.11255119740962982,
        0.04199913516640663,
        -0.10528936237096786,
        -0.021681059151887894,
        0.11936628818511963,
        0.022204473614692688,
        0.08973783254623413,
        0.11651786416769028,
        0.033533282577991486,
        -0.022579550743103027,
        -0.0605764240026474,
        0.10987616330385208,
        -0.04116198420524597,
        -0.01579061523079872,
        -0.03464570641517639,
        0.06268417090177536,
        -0.05723423510789871,
        0.06422314047813416,
        -0.015715308487415314,
        -0.006686553359031677,
        0.13100937008857727,
        -0.05059822276234627,
        -0.1222592443227768,
        -0.12480373680591583,
        0.0359194315969944,
        0.07578578591346741,
        0.006387708708643913,
        0.009184218943119049,
        0.004751932341605425,
        0.08388237655162811,
        -0.11768734455108643,
        0.006320048123598099
      ],
      [
        0.012495920062065125,
        -0.23403535783290863,
        -0.0761362761259079,
        0.24209484457969666,
        -0.36175957322120667,
        -0.11837183684110641,
        -0.012698572129011154,
        -0.047231242060661316,
        0.04670166224241257,
        -0.18441924452781677,
        0.03669160604476929,
        -0.2473665177822113,
        -0.11117807030677795,
        0.15217696130275726,
        -0.06620683521032333,
        0.047537535429000854,
        0.2860736548900604,
        0.08320175111293793,
        -0.10055755078792572,
        -0.12673036754131317,
        0.08575309813022614,
        -0.23531301319599152,
        0.00419105589389801,
        0.10241606831550598,
        -0.03606094792485237,
        -0.1490785926580429,
        -0.1662505865097046,
        -0.10625077784061432,
        -0.14686517417430878,
        0.006006039213389158,
        -0.10501429438591003,
        0.06734730303287506,
        0.3568628430366516,
        0.13408979773521423,
        0.22288484871387482,
        -0.26467904448509216,
        0.004209513310343027,
        -0.1081056296825409,
        -0.07065790891647339,
        0.03835688531398773,
        -0.1533200740814209,
        -0.15766961872577667,
        0.0024710255675017834,
        0.07477395236492157,
        0.12458391487598419,
        0.21961136162281036,
        0.06430329382419586,
        0.04365824908018112,
        0.033819034695625305,
        0.1137402206659317,
        -0.01634785532951355,
        -0.025198757648468018,
        -0.010728881694376469,
        0.023139184340834618,
        -0.0747779905796051,
        0.05223287269473076,
        0.32354554533958435,
        0.08066781610250473,
        0.059942539781332016,
        -0.015622975304722786,
        -0.10011722892522812,
        0.011562398634850979,
        -0.11710856109857559,
        -0.11930610239505768
      ],
      [
        -0.12479722499847412,
        -0.013910952024161816,
        -0.03346654400229454,
        0.11371511220932007,
        0.018229197710752487,
        0.037105854600667953,
        -0.06428812444210052,
        -0.04027876257896423,
        0.029789168387651443,
        0.11936597526073456,
        -0.1124734878540039,
