{
  "model_state_dict": {
    "embedding.weight": [
      [
        -1.497719168663025,
        1.9959628582000732,
        0.5451181530952454,
        -0.2402118444442749
      ],
      [
        1.4683622121810913,
        0.8052009344100952,
        -0.4323865473270416,
        0.4055846929550171
      ],
      [
        -0.38110190629959106,
        0.7140142321586609,
        0.5585410594940186,
        -1.440643310546875
      ],
      [
        0.552642285823822,
        -1.520580768585205,
        -0.239815816283226,
        0.8574023246765137
      ]
    ],
    "lstm.weight_ih_l0": [
      [
        -0.11023090034723282,
        -0.0041349190287292,
        0.12906046211719513,
        0.3207540214061737,
        0.5353497862815857,
        -0.21123625338077545,
        0.36392244696617126,
        -0.3163793683052063,
        1.0010640621185303
      ],
      [
        0.07478827238082886,
        -0.06659889966249466,
        -0.06226726993918419,
        0.3469772934913635,
        0.6075409650802612,
        -0.2400030493736267,
        0.2749311625957489,
        -0.7470789551734924,
        1.0546196699142456
      ],
      [
        -0.12308643758296967,
        0.03720524534583092,
        -0.045247696340084076,
        -0.08480381965637207,
        -0.05563100799918175,
        0.010304776020348072,
        0.015195673331618309,
        -0.05800440534949303,
        -0.10243669152259827
      ],
      [
        -0.10568906366825104,
        0.014928569085896015,
        -0.03521513193845749,
        -0.016726335510611534,
        -0.056341223418712616,
        0.06351122260093689,
        0.05207270383834839,
        -0.015551755204796791,
        0.012005120515823364
      ],
      [
        0.1112990751862526,
        -0.025122860446572304,
        0.0024414306972175837,
        -0.003861738136038184,
        -0.07209786772727966,
        -0.03602396324276924,
        0.20037056505680084,
        -0.05464491248130798,
        -0.10788635164499283
      ],
      [
        0.11451493948698044,
        -0.03717023879289627,
        -0.026176847517490387,
        -0.07677118480205536,
        0.07003824412822723,
        0.11867259442806244,
        -0.061645835638046265,
        -0.0376630574464798,
        0.014338597655296326
      ],
      [
        0.11699512600898743,
        -0.06101273000240326,
        0.0644102394580841,
        0.023759059607982635,
        -0.07935653626918793,
        0.10866741091012955,
        0.05365295708179474,
        -0.08753866702318192,
        0.02724502794444561
      ],
      [
        0.014230617322027683,
        0.008794445544481277,
        -0.037062037736177444,
        0.13003413379192352,
        -0.5469051003456116,
        0.062212299555540085,
        -0.006387697532773018,
        -0.3387155532836914,
        -0.8544656038284302
      ],
      [
        -0.0864279642701149,
        -0.11700969934463501,
        -0.0032616732642054558,
        -0.10128861665725708,
        0.03440076857805252,
        0.14090828597545624,
        -0.10930125415325165,
        -0.0986454039812088,
        0.08328550308942795
      ],
      [
        0.07590270042419434,
        0.11421465873718262,
        0.1151602566242218,
        0.0045263320207595825,
        0.02910017967224121,
        0.11252987384796143,
        -0.10210499167442322,
        -0.10234065353870392,
        0.11130845546722412
      ],
      [
        -0.01079790759831667,
        0.1303093582391739,
        0.044510334730148315,
        0.04490954801440239,
        -0.06857744604349136,
        0.0974690318107605,
        -0.032132674008607864,
        0.0019148322753608227,
        0.0538049079477787
      ],
      [
        -0.11477623134851456,
        -0.07022634148597717,
        -0.051482904702425,
        -0.004449909552931786,
        -0.012552741914987564,
        0.045760247856378555,
        0.11470100283622742,
        -0.11646221578121185,
        0.020560063421726227
      ],
      [
        0.03428123891353607,
        -0.05649804323911667,
        0.05776383727788925,
        0.030629396438598633,
        0.09479811787605286,
        -0.11849212646484375,
        -0.007855579257011414,
        0.026993051171302795,
        0.11606413125991821
      ],
      [
        -0.08239477872848511,
        0.049114249646663666,
        0.11798731237649918,
        -0.10653672367334366,
        -0.3947240710258484,
        0.19834893941879272,
        0.2507571578025818,
        -0.1268959939479828,
        -0.6847671270370483
      ],
      [
        0.03533853963017464,
        -0.06817926466464996,
        -0.005588625092059374,
        0.11618004739284515,
        -0.0009728901204653084,
        0.1116194874048233,
        0.10007500648498535,
        0.12272897362709045,
        -0.07294726371765137
      ],
      [
        0.054960042238235474,
        0.08054926991462708,
        -0.0966009572148323,
        0.2740475833415985,
        0.491997092962265,
        -0.41943809390068054,
        -0.29764631390571594,
        0.09507987648248672,
        0.9781336188316345
      ],
      [
        0.027318982407450676,
        0.06826931983232498,
        0.0004892837605439126,
        0.011006372980773449,
        -0.10433588176965714,
        0.06797248870134354,
        -0.11560210585594177,
        -0.0393829308450222,
        -0.006871387828141451
      ],
      [
        -0.07458606362342834,
        0.04993008077144623,
        -0.07091663777828217,
        0.04329942166805267,
        0.03275473415851593,
        -0.09570038318634033,
        0.06289754807949066,
        -0.05744311213493347,
        -0.009351789951324463
      ],
      [
        -0.011285851709544659,
        0.0015422486467286944,
        -0.01241739559918642,
        -0.014310483820736408,
        -0.16921614110469818,
        -0.0890674740076065,
        0.09739650040864944,
        -0.0032879377249628305,
        -0.13260605931282043
      ],
      [
        0.016835618764162064,
        -0.022848140448331833,
        0.03361660614609718,
        0.10053034126758575,
        0.04766491800546646,
        0.06098475679755211,
        0.01844092458486557,
        0.014912146143615246,
        0.019322838634252548
      ],
      [
        0.1210070550441742,
        0.07960979640483856,
        -0.005859753582626581,
        -0.07691484689712524,
        0.021454453468322754,
        0.03670702874660492,
        -0.07783912122249603,
        -0.0826980322599411,
        -0.11098472774028778
      ],
      [
        -0.13060036301612854,
        0.030832404270768166,
        -0.023852085694670677,
        0.08098367601633072,
        0.017000537365674973,
        -0.07594368606805801,
        0.020103588700294495,
        0.12648405134677887,
        0.06934693455696106
      ],
      [
        -0.018147433176636696,
        -0.006600838620215654,
        0.09304869174957275,
        -0.05615995079278946,
        -0.24778039753437042,
        0.1452581137418747,
        0.13784612715244293,
        -0.3030763268470764,
        -0.24312524497509003
      ],
      [
        -0.08511438220739365,
        0.07712918519973755,
        -0.05948638543486595,
        0.11546957492828369,
        -0.09453510493040085,
        -0.09838151186704636,
        0.059777744114398956,
        -0.026707343757152557,
        0.005751108285039663
      ],
      [
        -0.07092320919036865,
        -0.033047571778297424,
        -0.05549609661102295,
        0.09047280251979828,
        0.038663968443870544,
        0.0392850786447525,
        0.024973124265670776,
        -0.0763452798128128,
        -0.018885895609855652
      ],
      [
        -0.08142164349555969,
        -0.0786273181438446,
        -0.0011473895283415914,
        0.10137435793876648,
        -0.10380145162343979,
        -0.06857376545667648,
        0.02677105739712715,
        -0.03779954835772514,
        -0.07731223106384277
      ],
      [
        0.08586951345205307,
        -0.0864025354385376,
        0.05031472444534302,
        0.03636942431330681,
        0.028171006590127945,
        -0.08802737295627594,
        -0.08614999800920486,
        0.08881686627864838,
        0.09634122252464294
      ],
      [
        0.06962142884731293,
        0.055116090923547745,
        -0.06477497518062592,
        0.02468423917889595,
        0.10392194986343384,
        -0.09347635507583618,
        -0.05753123387694359,
        0.10617350786924362,
        -0.10574883967638016
      ],
      [
        0.0917687863111496,
        -0.08466143906116486,
        0.11233203113079071,
        0.00880606472492218,
        -0.04129780828952789,
        0.12418709695339203,
        0.0633709579706192,
        -0.029588773846626282,
        0.0775315910577774
      ],
      [
        0.10565696656703949,
        -0.06584495306015015,
        -0.004667803645133972,
        0.03277856111526489,
        0.0874815583229065,
        0.09340594708919525,
        -0.02415376901626587,
        -0.1207006424665451,
        -0.023743227124214172
      ],
      [
        -0.08254700899124146,
        -0.02367437072098255,
        0.08960983157157898,
        -0.11739219725131989,
        0.21469129621982574,
        0.13424424827098846,
        0.08105098456144333,
        -0.17275981605052948,
        -0.10547996312379837
      ],
      [
        -0.022473812103271484,
        0.05308803915977478,
        -0.040906842797994614,
        -0.06552043557167053,
        -0.0014577691908925772,
        -0.05993475392460823,
        -0.12140164524316788,
        0.024389216676354408,
        -0.18806146085262299
      ],
      [
        0.05359968543052673,
        0.11635066568851471,
        -0.08964991569519043,
        -0.2012491673231125,
        -0.3500817120075226,
        0.15389350056648254,
        0.1335105448961258,
        0.3368874788284302,
        -0.6133677363395691
      ],
      [
        -0.10942907631397247,
        -0.08473961800336838,
        0.11088712513446808,
        -0.28557538986206055,
        -0.48189085721969604,
        0.20549464225769043,
        -0.33380821347236633,
        0.2059246450662613,
        -0.537505030632019
      ],
      [
        0.04400504007935524,
        -0.042925331741571426,
        0.05093924328684807,
        0.10196415334939957,
        0.025098852813243866,
        -0.11635442078113556,
        0.0865621492266655,
        0.11184632033109665,
        0.045483946800231934
      ],
      [
        -0.036051586270332336,
        -0.043921709060668945,
        -0.11727789044380188,
        0.04897761344909668,
        0.028545841574668884,
        0.06029558181762695,
        0.06663084030151367,
        0.03775930404663086,
        -0.04674302041530609
      ],
      [
        -0.11182217299938202,
        -0.09088316559791565,
        -0.10449717938899994,
        -0.08488191664218903,
        -0.11124956607818604,
        -0.12344396114349365,
        -0.11739741265773773,
        0.08168086409568787,
        -0.013816297054290771
      ],
      [
        -0.01641809195280075,
        -0.04453611373901367,
        0.044582515954971313,
        0.04972051456570625,
        0.802920937538147,
        0.10840917378664017,
        0.007203536108136177,
        -0.23695959150791168,
        0.8016464114189148
      ],
      [
        0.12362851202487946,
        0.016929656267166138,
        0.10657906532287598,
        0.06764519214630127,
        -0.02641618251800537,
        0.0555080771446228,
        -0.016027405858039856,
        -0.11731721460819244,
        0.003009587526321411
      ],
      [
        -0.07058648020029068,
        0.06063796952366829,
        0.007132609840482473,
        0.036612700670957565,
        0.020569544285535812,
        -0.10484134405851364,
        0.07711368799209595,
        -0.053961336612701416,
        -0.011407229118049145
      ],
      [
        0.03814646601676941,
        -0.0013942568330094218,
        -0.08841687440872192,
        0.02688373625278473,
        0.0365561842918396,
        -0.06670026481151581,
        0.10603426396846771,
        0.026967480778694153,
        0.0035551637411117554
      ],
      [
        0.021868988871574402,
        0.016795292496681213,
        0.07464252412319183,
        -0.10306917130947113,
        -0.11292211711406708,
        0.05870315432548523,
        0.001340225338935852,
        0.09513284265995026,
        0.06477658450603485
      ],
      [
        0.043621014803647995,
        -0.04946859925985336,
        0.029102450236678123,
        0.091518335044384,
        0.06760795414447784,
        0.017285943031311035,
        0.05356912314891815,
        0.03990522772073746,
        -0.045595090836286545
      ],
      [
        0.10463979840278625,
        0.08643960952758789,
        -0.09818809479475021,
        -0.10040844976902008,
        -0.023892516270279884,
        0.1154663935303688,
        -0.08609070628881454,
        0.09242758899927139,
        0.12132387608289719
      ],
      [
        0.0571829229593277,
        0.10981813073158264,
        0.10302719473838806,
        -0.06214112043380737,
        -0.017195597290992737,
        0.023929446935653687,
        -0.07987731695175171,
        0.021238192915916443,
        0.10453388094902039
      ],
      [
        0.0332290418446064,
        -0.031454604119062424,
        0.019764799624681473,
        0.01601007953286171,
        0.075882188975811,
        0.07952665537595749,
        -0.09843682497739792,
        -0.00314071006141603,
        -0.06463517248630524
      ],
      [
        0.018619239330291748,
        0.11558055877685547,
        0.03112722560763359,
        -0.011678604409098625,
        -0.055757567286491394,
        0.08337824791669846,
        -0.0832555815577507,
        -0.04381062462925911,
        -0.11699400097131729
      ],
      [
        0.060641877353191376,
        0.03585994616150856,
        -0.0942232608795166,
        0.08413572609424591,
        -0.02404842898249626,
        -0.055600740015506744,
        -0.03466489911079407,
        0.0388573557138443,
        0.12641014158725739
      ],
      [
        0.08904087543487549,
        -0.04536041244864464,
        -0.12974637746810913,
        -0.18551771342754364,
        -0.03804135322570801,
        -0.0482415072619915,
        0.03511670231819153,
        0.467072457075119,
        0.36366006731987
      ],
      [
        -0.08070598542690277,
        -0.0065485090017318726,
        0.043431684374809265,
        -0.03639313578605652,
        -0.020668193697929382,
        0.07279548048973083,
        0.10298888385295868,
        -0.01951681077480316,
        0.08396974205970764
      ],
      [
        -0.011506838724017143,
        -0.00701308436691761,
        0.045852936804294586,
        -0.17530366778373718,
        0.304866760969162,
        -0.11844316124916077,
        0.18162116408348083,
        0.4605090320110321,
        0.49747195839881897
      ],
      [
        0.0706639438867569,
        0.03544799983501434,
        0.11106124520301819,
        0.041264280676841736,
        -0.053140297532081604,
        -0.052771031856536865,
        -0.033633530139923096,
        -0.09336298704147339,
        0.0733981728553772
      ],
      [
        0.07118293642997742,
        0.10657534003257751,
        0.05469776690006256,
        0.044403061270713806,
        -0.028908103704452515,
        0.009901702404022217,
        0.04655064642429352,
        0.04193921387195587,
        -0.05423764884471893
      ],
      [
        -0.07163271307945251,
        -0.021680518984794617,
        -0.11421681940555573,
        0.011545062065124512,
        0.08646799623966217,
        -0.020625323057174683,
        0.09744812548160553,
        0.07739332318305969,
        0.05569176375865936
      ],
      [
        -0.15130212903022766,
        -0.08794915676116943,
        0.0472056046128273,
        -0.06994614750146866,
        0.32225263118743896,
        -0.04897432401776314,
        -0.20842410624027252,
        0.22988136112689972,
        0.024084744974970818
      ],
      [
        -0.12856465578079224,
        0.08232973515987396,
        0.08603093028068542,
        -0.14719758927822113,
        -0.19733478128910065,
        0.1498527079820633,
        0.505744218826294,
        0.2502833902835846,
        -0.2994568943977356
      ],
      [
        -0.093438521027565,
        -0.10798203945159912,
        -0.08169826865196228,
        0.10155892372131348,
        -0.022362932562828064,
        -0.09312424063682556,
        0.02647891640663147,
        0.10556529462337494,
        -0.07085873186588287
      ],
      [
        0.04849936068058014,
        -0.058178216218948364,
        -0.06558740139007568,
        0.12319259345531464,
        -0.030167803168296814,
        -0.08575990796089172,
        -0.056998252868652344,
        0.0618530809879303,
        0.031289711594581604
      ],
      [
        0.07838337123394012,
        0.08215685188770294,
        0.05480024218559265,
        -0.11012044548988342,
        0.07951346039772034,
        -0.03546139597892761,
        -0.033851489424705505,
        0.053140848875045776,
        -0.043933168053627014
      ],
      [
        -0.09885189682245255,
        -0.0291143748909235,
        0.06695058196783066,
        -0.07586634904146194,
        -0.23772655427455902,
        0.08435487747192383,
        0.19017642736434937,
        0.15274307131767273,
        -0.5130401849746704
      ],
      [
        -0.06089399755001068,
        0.061955779790878296,
        -0.12306368350982666,
        -0.11476925015449524,
        0.10933242738246918,
        0.05039417743682861,
        -0.08504025638103485,
        0.10483378171920776,
        0.02851945161819458
      ],
      [
        0.05556580424308777,
        0.05470395088195801,
        0.07172930240631104,
        -0.05084855854511261,
        0.08540669083595276,
        0.06829217076301575,
        -0.09858165681362152,
        0.07394228875637054,
        -0.10146303474903107
      ],
      [
        0.06262616813182831,
        0.12261192500591278,
        0.08197133243083954,
        -0.07958447933197021,
        0.01761898398399353,
        -0.029772594571113586,
        -0.024860873818397522,
        -0.0009386241436004639,
        -0.049556419253349304
      ],
      [
        -0.09130489826202393,
        0.08873267471790314,
        -0.11608274281024933,
        0.044134557247161865,
        -0.10812026262283325,
        0.025344043970108032,
        0.031844720244407654,
        0.08312439918518066,
        0.04785218834877014
      ],
      [
        -0.006670594681054354,
        -0.08398953080177307,
        -0.05405977740883827,
        -0.0382675938308239,
        -0.024607306346297264,
        -0.10948757827281952,
        -0.09519899636507034,
        0.08412449061870575,
        0.03110000491142273
      ],
      [
        -0.06939173489809036,
        -0.12102559953927994,
        0.08745017647743225,
        0.3309931755065918,
        0.5769864320755005,
        -0.3501523435115814,
        0.3051773011684418,
        -0.26420703530311584,
        0.8315877318382263
      ],
      [
        0.12488925457000732,
        0.12426143884658813,
        0.11913314461708069,
        0.09410542249679565,
        0.011905550956726074,
        -0.110444575548172,
        -0.028814539313316345,
        -0.009297668933868408,
        0.11262869834899902
      ],
      [
        0.013701602816581726,
        -0.093757763504982,
        -0.037636592984199524,
        0.08271437883377075,
        -0.001165151596069336,
        -0.014220237731933594,
        -0.00895284116268158,
        0.028248876333236694,
        -0.040527909994125366
      ],
      [
        0.029075196012854576,
        0.10288672894239426,
        -0.10033974796533585,
        -0.027582723647356033,
        0.4131583571434021,
        0.008063570596277714,
        0.5779895186424255,
        0.6807505488395691,
        1.0354989767074585
      ],
      [
        -0.10685060918331146,
        0.10372129082679749,
        -0.08376778662204742,
        0.005522981286048889,
        -0.004972532391548157,
        -0.006243675947189331,
        -0.03254716098308563,
        -0.05714927613735199,
        -0.07733254134654999
      ],
      [
        0.05263228341937065,
        0.031734880059957504,
        0.006467987317591906,
        0.0486602745950222,
        -0.010513776913285255,
        -0.001140882377512753,
        0.06463174521923065,
        -0.06745386868715286,
        0.06021356210112572
      ],
      [
        0.08856518566608429,
        0.08947379887104034,
        0.11058835685253143,
        0.07033200562000275,
        0.08773867785930634,
        -0.10287879407405853,
        -0.11603103578090668,
        0.09363570809364319,
        -0.08428125083446503
      ],
      [
        -0.0578760951757431,
        0.11304675042629242,
        -0.0926651656627655,
        -0.053262412548065186,
        0.06436780095100403,
        0.0525011271238327,
        -0.09274257719516754,
        0.11914293467998505,
        -0.04737652838230133
      ],
      [
        -0.10631715506315231,
        -0.1163196936249733,
        -0.016302697360515594,
        -0.08076553046703339,
        0.04183211922645569,
        0.09205165505409241,
        0.038324639201164246,
        0.08497176319360733,
        0.061483126133680344
      ],
      [
        -0.13463707268238068,
        -0.05079249292612076,
        0.0797334685921669,
        -0.02202853560447693,
        -0.06886977702379227,
        -0.013318201526999474,
        0.1172390729188919,
        -0.19702669978141785,
        0.00748309213668108
      ],
      [
        0.0641065239906311,
        0.03730602562427521,
        0.11059506237506866,
        -0.0328662246465683,
        -0.016787588596343994,
        0.03420086205005646,
        0.10422331094741821,
        -0.005899578332901001,
        0.002361878752708435
      ],
      [
        -0.12060543149709702,
        -0.05879201740026474,
        0.09532129764556885,
        0.021108319982886314,
        0.12188548594713211,
        0.12560272216796875,
        -0.10384579747915268,
        -0.10863487422466278,
        0.11325334757566452
      ],
      [
        -0.03309965133666992,
        -0.10210488736629486,
        -0.12294593453407288,
        -0.07587076723575592,
        0.0389958918094635,
        0.07361671328544617,
        0.016491010785102844,
        0.01024182140827179,
        -0.020262300968170166
      ],
      [
        -0.11398833990097046,
        -0.04936598241329193,
        -0.06464052200317383,
        0.020911768078804016,
        -0.10856369137763977,
        -0.05548161268234253,
        0.08459877967834473,
        0.027610138058662415,
        0.06115543842315674
      ],
      [
        -0.09143204987049103,
        -0.033920273184776306,
        -0.10175101459026337,
        0.01289801299571991,
        -0.061991557478904724,
        -0.0107564777135849,
        0.0175161212682724,
        0.04929797351360321,
        -0.016425400972366333
      ],
      [
        -0.05961120128631592,
        0.08469440042972565,
        -0.07796941697597504,
        -0.032337307929992676,
        0.04728904366493225,
        0.007743909955024719,
        -0.034191057085990906,
        -0.05292074382305145,
        -0.005424275994300842
      ],
      [
        -0.06843307614326477,
        0.08920596539974213,
        0.009240135550498962,
        -0.002757430076599121,
        0.11885420978069305,
        -0.03416435420513153,
        0.11757327616214752,
        -0.09987682104110718,
        0.026298493146896362
      ],
      [
        0.1219247505068779,
        -0.02389589324593544,
        0.0261585284024477,
        -0.051159001886844635,
        -0.0936519205570221,
        0.0014973062789067626,
        -0.024302994832396507,
        0.034237541258335114,
        0.052093129605054855
      ],
      [
        0.05660358443856239,
        0.05975641310214996,
        -0.08349387347698212,
        0.3308742046356201,
        0.1720883995294571,
        -0.35259005427360535,
        -0.0016826378414407372,
        0.04509986564517021,
        0.3957778811454773
      ],
      [
        -0.03668132424354553,
        -0.0478610098361969,
        -0.04091186821460724,
        0.02948714792728424,
        -0.06107927858829498,
        -0.036374881863594055,
        0.06799960136413574,
        -0.085600346326828,
        -0.12408436834812164
      ],
      [
        -0.018206903710961342,
        -0.07893554121255875,
        -0.015447462908923626,
        0.061781443655490875,
        0.010392867960035801,
        0.03432505950331688,
        0.09191691130399704,
        -0.1182563304901123,
        -0.04697676748037338
      ],
      [
        -0.02348518744111061,
        0.050544802099466324,
        -0.05537068471312523,
        -0.1079111248254776,
        0.0846257358789444,
        -0.07355626672506332,
        -0.15342670679092407,
        -0.02433042787015438,
        -0.021962745115160942
      ],
      [
        -0.11463910341262817,
        -0.12777885794639587,
        0.06661216169595718,
        -0.07947606593370438,
        -0.07547435909509659,
        0.08118831366300583,
        0.07974426448345184,
        -0.010884051211178303,
        -0.08535433560609818
      ],
      [
        0.12063102424144745,
        0.10846149921417236,
        0.07167726755142212,
        -0.12022759020328522,
        0.1132400780916214,
        0.07029438018798828,
        -0.01888751983642578,
        -0.1230480968952179,
        -0.012491360306739807
      ],
      [
        0.04451336711645126,
        0.054682113230228424,
        -0.13151155412197113,
        -0.07785212993621826,
        0.04356304183602333,
        -0.014899819158017635,
        -0.13141950964927673,
        -0.10016639530658722,
        0.028482165187597275
      ],
      [
        0.06268539279699326,
        0.022123416885733604,
        -0.11813338845968246,
        -0.012405943125486374,
        -0.42558804154396057,
        0.17622418701648712,
        0.4442403018474579,
        -0.2895965874195099,
        -0.6213600039482117
      ],
      [
        -0.09158087521791458,
        0.04084327071905136,
        0.12949277460575104,
        0.12455540150403976,
        -0.11703439056873322,
        0.10426463931798935,
        -0.06714601069688797,
        -0.021293040364980698,
        -0.11461014300584793
      ],
      [
        -0.06332847476005554,
        0.030620679259300232,
        0.02166701853275299,
        -0.05992823839187622,
        0.03461499512195587,
        0.07181912660598755,
        -0.006095468997955322,
        -0.0493733286857605,
        -0.08485418558120728
      ],
      [
        0.11598771810531616,
        0.04115505516529083,
        0.020135626196861267,
        0.08305837213993073,
        -0.12179738283157349,
        0.10277573764324188,
        -0.010569453239440918,
        -0.08997227251529694,
        -0.07486957311630249
      ],
      [
        -0.008034932427108288,
        0.19668789207935333,
        0.06264515221118927,
        0.19977879524230957,
        -0.41339927911758423,
        -0.12219047546386719,
        0.22810472548007965,
        -0.2097456455230713,
        -0.5165581703186035
      ],
      [
        -0.12690719962120056,
        0.028562037274241447,
        -0.009640274569392204,
        -0.1449793130159378,
        -0.04384521394968033,
        -0.06595175713300705,
        -0.11161135882139206,
        0.10284844785928726,
        -0.04149908944964409
      ],
      [
        -0.05579210817813873,
        0.0201922245323658,
        0.13286152482032776,
        0.010364919900894165,
        0.11124353110790253,
        -0.13638055324554443,
        0.22722604870796204,
        -0.04453520104289055,
        -0.18232159316539764
      ],
      [
        -0.10374198853969574,
        0.07546913623809814,
        -0.02715156599879265,
        0.11197778582572937,
        0.015627870336174965,
        -0.04621473327279091,
        -0.02697167359292507,
        -0.051502201706171036,
        -0.26601138710975647
      ],
      [
        -0.08104697614908218,
        0.16050702333450317,
        0.14341439306735992,
        0.3391461670398712,
        0.37150517106056213,
        -0.26309850811958313,
        -0.08370459824800491,
        -0.08888538926839828,
        0.9633597731590271
      ],
      [
        -0.05407226085662842,
        0.10054314136505127,
        0.05452801287174225,
        0.08861857652664185,
        -0.12295614182949066,
        0.07283109426498413,
        0.0845559686422348,
        0.12053176760673523,
        0.07117581367492676
      ],
      [
        -0.021972298622131348,
        -0.09328734874725342,
        -0.07912436127662659,
        0.10072758793830872,
        0.07399128377437592,
        0.05415329337120056,
        -0.08639834821224213,
        -0.07870283722877502,
        -0.10009995102882385
      ],
      [
        0.09073534607887268,
        -0.040714066475629807,
        -0.0878797248005867,
        0.07386229187250137,
        0.44626590609550476,
        -0.08254720270633698,
        0.05249370262026787,
        -0.029731247574090958,
        0.5535160899162292
      ],
      [
        -0.05750519782304764,
        0.07079663872718811,
        0.042484160512685776,
        0.3047310411930084,
        0.3312396705150604,
        -0.34619399905204773,
        -0.007333432324230671,
        -0.5055310726165771,
        0.9288970232009888
      ],
      [
        -0.03279368579387665,
        -0.08995120227336884,
        -0.08895939588546753,
        0.07655394077301025,
        0.024847686290740967,
        0.11678047478199005,
        0.05600675940513611,
        0.107221320271492,
        -0.05095541477203369
      ],
      [
        0.1044546365737915,
        -0.027022823691368103,
        -0.11001946032047272,
        0.0761021226644516,
        -0.05724993348121643,
        -0.020152747631072998,
        0.04461728036403656,
        0.0747084766626358,
        0.11136016249656677
      ],
      [
        0.09816546738147736,
        0.06303773820400238,
        -0.09070517122745514,
        0.1448182910680771,
        0.16898587346076965,
        -0.20625068247318268,
        0.07138054817914963,
        -0.20624729990959167,
        0.44576844573020935
      ],
      [
        -0.033859267830848694,
        0.03970830515027046,
        0.08926355838775635,
        -0.12084218114614487,
        0.41215333342552185,
        -0.29079145193099976,
        -0.2582559287548065,
        0.8028498888015747,
        0.9368868470191956
      ],
      [
        -0.005721957888454199,
        -0.06638462096452713,
        -0.032439179718494415,
        0.11086151003837585,
        -0.08249854296445847,
        -0.029796557500958443,
        -0.07895864546298981,
        -0.07591243833303452,
        0.08265490084886551
      ],
      [
        -0.008459299802780151,
        -0.1183321624994278,
        -0.06613083183765411,
        -0.009977966547012329,
        -0.05200813710689545,
        0.11810959875583649,
        -0.08602356910705566,
        0.09174977242946625,
        -0.07680164277553558
      ],
      [
        0.02209368348121643,
        -0.03484064340591431,
        0.08447524905204773,
        0.030137017369270325,
        0.12262432277202606,
        -0.0728091448545456,
        0.0013522505760192871,
        0.026232287287712097,
        -0.11991675198078156
      ],
      [
        -0.1187625378370285,
        0.052937522530555725,
        -0.061725541949272156,
        -0.014698877930641174,
        0.023304268717765808,
        0.05518665909767151,
        -0.04120011627674103,
        0.06341598927974701,
        -0.0899079442024231
      ],
      [
        0.08823272585868835,
        -0.01895122230052948,
        0.003572009736672044,
        0.038967519998550415,
        -0.008977377787232399,
        0.10164696723222733,
        0.11214415729045868,
        -0.07884648442268372,
        0.12368522584438324
      ],
      [
        0.0691596269607544,
        -0.07833187282085419,
        0.09786935150623322,
        -0.054176315665245056,
        -0.014042139053344727,
        -0.11024428904056549,
        -0.09146338701248169,
        0.10229270160198212,
        -0.015060275793075562
      ],
      [
        0.08549490571022034,
        -0.08673280477523804,
        -0.005472287535667419,
        -0.005706697702407837,
        -0.11607034504413605,
        0.03355760872364044,
        -0.056272998452186584,
        -0.12468409538269043,
        -0.0930437445640564
      ],
      [
        0.020847350358963013,
        0.03753472864627838,
        0.08480362594127655,
        -0.03422659635543823,
        0.021934017539024353,
        -0.022996768355369568,
        -0.014917805790901184,
        0.07654395699501038,
        0.019058912992477417
      ],
      [
        0.05588046461343765,
        -0.13516174256801605,
        -0.09353765845298767,
        0.06259765475988388,
        -0.0776081457734108,
        0.014845399186015129,
        0.07816433906555176,
        -0.02771405130624771,
        0.020751405507326126
      ],
      [
        -0.02783144637942314,
        -0.15718922019004822,
        -0.03658010810613632,
        -0.11493506282567978,
        0.025721848011016846,
        0.033749889582395554,
        -0.009297424927353859,
        -0.045462653040885925,
        -0.12094511836767197
      ],
      [
        -0.05374731123447418,
        -0.11628985404968262,
        -0.021408110857009888,
        -0.017409607768058777,
        0.06046658754348755,
        0.048694610595703125,
        0.0765453428030014,
        0.09202632308006287,
        0.01580861210823059
      ],
      [
        -0.06102316081523895,
        0.11251946538686752,
        0.038972750306129456,
        -0.10278961062431335,
        -0.06174284219741821,
        0.05468829348683357,
        -0.26913630962371826,
        0.44705238938331604,
        -0.40715062618255615
      ],
      [
        -0.03256230428814888,
        -0.09639951586723328,
        0.06362742930650711,
        -0.005688020493835211,
        -0.3218870460987091,
        -0.019839948043227196,
        0.0417507141828537,
        -0.1296188235282898,
        -0.19510839879512787
      ],
      [
        -0.10125724971294403,
        -0.052824512124061584,
        -0.09923794865608215,
        -0.09845636785030365,
        0.03448574244976044,
        -0.010472506284713745,
        0.08671776950359344,
        -0.03135444223880768,
        -0.06054624915122986
      ],
      [
        -0.01189468801021576,
        0.10820513963699341,
        -0.08960269391536713,
        -0.0010063797235488892,
        -0.060745373368263245,
        -0.01522374153137207,
        -0.06689555943012238,
        -0.0010981708765029907,
        -0.0343395471572876
      ],
      [
        0.05426754057407379,
        -0.08659885078668594,
        -0.05207782983779907,
        -0.2299477756023407,
        -0.520454466342926,
        0.1730273962020874,
        -0.10469113290309906,
        0.5177122354507446,
        -0.37914159893989563
      ],
      [
        -0.11523695290088654,
        -0.05182705447077751,
        0.12193629890680313,
        0.05495903268456459,
        -0.20354491472244263,
        0.08126766234636307,
        0.07876843959093094,
        0.14975185692310333,
        -0.6638708710670471
      ],
      [
        -0.09363940358161926,
        0.02316822111606598,
        -0.030959635972976685,
        0.10896283388137817,
        -0.014202535152435303,
        -0.08370542526245117,
        -0.056190237402915955,
        -0.011180534958839417,
        -0.05976499617099762
      ],
      [
        -0.028001291677355766,
        0.07634668797254562,
        0.014162693172693253,
        -0.03859260305762291,
        -0.29602497816085815,
        -0.006004584953188896,
        0.11392280459403992,
        -0.024006312713027,
        -0.5812613368034363
      ],
      [
        -0.0409979522228241,
        0.11437256634235382,
        -0.07040861248970032,
        0.04817388951778412,
        -0.054744869470596313,
        -0.11534611880779266,
        0.0691368579864502,
        -0.07649928331375122,
        -0.03181032836437225
      ],
      [
        0.11527331173419952,
        -0.022607848048210144,
        -0.12437810003757477,
        0.04021027684211731,
        0.09691283106803894,
        -0.013831764459609985,
        -0.09886105358600616,
        -0.11547911167144775,
        -0.12394145131111145
      ],
      [
        0.02848397195339203,
        -0.004745990037918091,
        -0.11911599338054657,
        0.1062803864479065,
        -0.05703672766685486,
        -0.04968962073326111,
        -0.013829037547111511,
        -0.06096729636192322,
        0.0014487653970718384
      ],
      [
        0.0018029857892543077,
        0.055472612380981445,
        -0.055291857570409775,
        0.013067314401268959,
        0.05397794023156166,
        0.07117196172475815,
        0.02302747406065464,
        -0.0929688960313797,
        0.06906278431415558
      ],
      [
        -0.003994017839431763,
        0.09620921313762665,
        -0.06702940165996552,
        -0.03647918999195099,
        -0.10009366273880005,
        0.03798376023769379,
        0.031225427985191345,
        -0.021509140729904175,
        0.04143379628658295
      ],
      [
        -0.02140723168849945,
        0.07271990180015564,
        -0.045053690671920776,
        -0.10621006786823273,
        -0.023819699883461,
        0.06895552575588226,
        0.1167532354593277,
        -0.018982231616973877,
        -0.0024497509002685547
      ],
      [
        0.09877011179924011,
        -0.08532391488552094,
        0.08023600280284882,
        -0.06904920935630798,
        -0.038837581872940063,
        0.08565154671669006,
        0.03791850805282593,
        -0.10454781353473663,
        0.017365172505378723
      ],
      [
        -0.017458036541938782,
        -0.028389647603034973,
        -0.08170346915721893,
        0.012643381953239441,
        -0.06939354538917542,
        0.02571101486682892,
        0.021474525332450867,
        -0.1051626056432724,
        -0.045491740107536316
      ],
      [
        -0.015991568565368652,
        0.09622295200824738,
        0.12271749973297119,
        0.006601393222808838,
        -0.013086870312690735,
        -0.0875311940908432,
        -0.11394733190536499,
        0.05415154993534088,
        -0.05782760679721832
      ],
      [
        0.10140221565961838,
        -0.14027360081672668,
        0.01908155530691147,
        -0.05735546723008156,
        -0.2026652693748474,
        -0.07659567892551422,
        0.04470332711935043,
        0.01749756559729576,
        -0.07435484975576401
      ],
      [
        0.12454760074615479,
        0.1125631034374237,
        -0.10653029382228851,
        0.12400496006011963,
        -0.0878760814666748,
        -0.05916644632816315,
        -0.11964640021324158,
        -0.05038098990917206,
        0.08276301622390747
      ],
      [
        0.03032732382416725,
        -0.01779700256884098,
        -0.13108202815055847,
        0.012485412880778313,
        0.3298167288303375,
        -0.15999947488307953,
        -0.27752670645713806,
        0.29968854784965515,
        0.7875252366065979
      ],
      [
        -0.02900942787528038,
        -0.14226169884204865,
        0.06970363855361938,
        -0.10273507237434387,
        0.05793008208274841,
        0.027924783527851105,
        -0.183354914188385,
        0.20001043379306793,
        -0.13225457072257996
      ],
      [
        -0.065611831843853,
        -0.07683628052473068,
        -0.006085100583732128,
        0.023927737027406693,
        -0.030737806111574173,
        0.06055869162082672,
        0.03640667349100113,
        0.09658548980951309,
        0.07120735943317413
      ],
      [
        -0.01130896806716919,
        -0.0724223256111145,
        -0.03826643526554108,
        -0.07401715219020844,
        -0.09154905378818512,
        -0.045385703444480896,
        0.11463874578475952,
        0.06244689226150513,
        -0.09618963301181793
      ],
      [
        -0.06964723765850067,
        0.10188078135251999,
        0.024388441815972328,
        0.1793249398469925,
        0.3183191120624542,
        -0.2098238468170166,
        -0.06198851764202118,
        -0.008188254199922085,
        0.581905722618103
      ],
      [
        -0.053811416029930115,
        0.017586708068847656,
        -0.09233890473842621,
        -0.007156163454055786,
        -0.027813374996185303,
        0.052012279629707336,
        -0.05633458495140076,
        -0.11398458480834961,
        -0.11879733204841614
      ],
      [
        0.06198269501328468,
        0.07573823630809784,
        -0.04034777730703354,
        0.003400768619030714,
        -0.05725322663784027,
        0.1164439246058464,
        0.02486583963036537,
        -0.027623122557997704,
        0.09484107047319412
      ],
      [
        -0.12090784311294556,
        0.09714385867118835,
        -0.09759755432605743,
        -0.042387962341308594,
        -0.1168319582939148,
        -0.054240718483924866,
        -0.12348674237728119,
        0.11046668887138367,
        0.12496665120124817
      ],
      [
        -0.0887550562620163,
        0.054184794425964355,
        -0.009363695979118347,
        -0.09790214896202087,
        -0.025360092520713806,
        -0.05366286635398865,
        -0.07195940613746643,
        -0.12157851457595825,
        0.02996326982975006
      ],
      [
        0.061040639877319336,
        0.06657320261001587,
        0.05072799324989319,
        0.09335796535015106,
        -0.023053273558616638,
        -0.06993380188941956,
        0.08553186058998108,
        -0.08086633682250977,
        -0.05001212656497955
      ],
      [
        0.09563399851322174,
        0.05229280889034271,
        -0.13559171557426453,
        0.011356666684150696,
        0.35214293003082275,
        -0.1815316528081894,
        0.020672522485256195,
        0.2259937971830368,
        0.45599058270454407
      ],
      [
        -0.03698679432272911,
        0.09307088702917099,
        -0.02603263221681118,
        0.0986434668302536,
        0.08698087930679321,
        -0.07405100762844086,
        0.12399303913116455,
        -0.05717328190803528,
        -0.02897059917449951
      ],
      [
        -0.05053664743900299,
        -0.019685715436935425,
        -0.120060995221138,
        -0.011502474546432495,
        -0.03779527544975281,
        -0.06605961918830872,
        0.08591590821743011,
        0.10430148243904114,
        0.035523414611816406
      ],
      [
        0.024585522711277008,
        0.12716437876224518,
        0.0005407648277468979,
        -0.05364907532930374,
        0.10245853662490845,
        0.06755513697862625,
        -0.0629841685295105,
        0.04659760743379593,
        -0.07150080800056458
      ],
      [
        0.02512092888355255,
        0.015317082405090332,
        -0.0501154363155365,
        -0.09246350824832916,
        -0.028996869921684265,
        0.03218139708042145,
        0.010486334562301636,
        0.024658337235450745,
        0.06401066482067108
      ],
      [
        -0.051439180970191956,
        0.07937365770339966,
        -0.10942891240119934,
        -0.06759098172187805,
        0.008551791310310364,
        -0.10994164645671844,
        -0.010582596063613892,
        -0.026710525155067444,
        -0.0337955504655838
      ],
      [
        0.04784484952688217,
        -0.004934841766953468,
        -0.06402052193880081,
        -0.014454828575253487,
        0.11326960474252701,
        -0.0009484558249823749,
        0.025552380830049515,
        -0.04638040438294411,
        0.04199543595314026
      ],
      [
        -0.046682074666023254,
        -0.056790560483932495,
        -0.028389066457748413,
        0.06046286225318909,
        -0.03400728106498718,
        0.029336899518966675,
        0.10384537279605865,
        -0.012321755290031433,
        -0.11102598905563354
      ],
      [
        -0.08024512231349945,
        -0.08674301207065582,
        -0.122190460562706,
        -0.03358836472034454,
        -0.12286578118801117,
        -0.11851949989795685,
        0.10528162121772766,
        -0.04159983992576599,
        -0.11831913888454437
      ],
      [
        -0.00808967649936676,
        -0.05365322530269623,
        0.10278496146202087,
        -0.05214105546474457,
        0.06471166014671326,
        0.02424710988998413,
        -0.008544132113456726,
        0.037374481558799744,
        -0.03870899975299835
      ],
      [
        0.091663658618927,
        -0.013757646083831787,
        -0.06616725027561188,
        0.03579631447792053,
        0.06876260042190552,
        0.07243992388248444,
        0.00943860411643982,
        -0.07069630920886993,
        -0.05954073369503021
      ],
      [
        0.12253005057573318,
        -0.023595396429300308,
        0.007917706854641438,
        -0.04870501905679703,
        0.08177988976240158,
        0.07143821567296982,
        0.015435791574418545,
        0.06820352375507355,
        -0.05738261714577675
      ],
      [
        0.001726984977722168,
        -0.07142426073551178,
        -0.10039806365966797,
        0.06629772484302521,
        -0.04782682657241821,
        -0.03264857828617096,
        -0.05918315052986145,
        -0.07678437232971191,
        0.025952860713005066
      ],
      [
        0.06002386659383774,
        0.021351732313632965,
        -0.1662214994430542,
        -0.07045632600784302,
        0.27779868245124817,
        -0.15578962862491608,
        -0.14300130307674408,
        0.05858300253748894,
        0.17397847771644592
      ],
      [
        -0.034527409821748734,
        -0.04234723746776581,
        -0.008001181297004223,
        0.027940498664975166,
        0.003706403309479356,
        -0.048252396285533905,
        0.11717373877763748,
        0.09660347551107407,
        0.11389105767011642
      ],
      [
        -0.09534712135791779,
        -0.11793122440576553,
        0.016161756590008736,
        -0.15852901339530945,
        -0.0797540619969368,
        0.1355910748243332,
        -0.08615574985742569,
        -0.006653294432908297,
        0.05969933792948723
      ],
      [
        0.07317909598350525,
        -0.09957091510295868,
        0.09221445024013519,
        0.04387098550796509,
        0.0320010781288147,
        -0.06592197716236115,
        0.08388511836528778,
        0.11567938327789307,
        -0.0640449970960617
      ],
      [
        0.11800852417945862,
        0.05633077025413513,
        0.05508801341056824,
        -0.06981693208217621,
        0.00032423436641693115,
        0.05837906897068024,
        0.010586664080619812,
        0.06875519454479218,
        0.09230729937553406
      ],
      [
        0.03913309425115585,
        -0.04922622814774513,
        -0.11896967887878418,
        0.054375894367694855,
        -0.21152271330356598,
        0.13446281850337982,
        -0.12011581659317017,
        -0.06092269718647003,
        0.04698003828525543
      ],
      [
        -0.04112009331583977,
        -0.1485312134027481,
        0.003877583658322692,
        -0.0843219980597496,
        -0.10928596556186676,
        -0.1278342604637146,
        -0.0860600471496582,
        0.0357375331223011,
        0.09687468409538269
      ],
      [
        -0.03500707820057869,
        -0.0890607088804245,
        0.09927323460578918,
        0.07864969223737717,
        0.07480984181165695,
        -0.01814623549580574,
        -0.07899884134531021,
        0.02813168428838253,
        -0.11118082702159882
      ],
      [
        -0.12298966944217682,
        0.03984956443309784,
        -0.04416719079017639,
        -0.11239330470561981,
        0.058835119009017944,
        0.08031244575977325,
        0.08687008917331696,
        0.06513525545597076,
        0.014996811747550964
      ],
      [
        0.0031268703751266003,
        0.08511938154697418,
        -0.05076199024915695,
        -0.023331137374043465,
        -1.2029489880660549e-05,
        -0.0026181931607425213,
        -0.03103736974298954,
        -0.031223054975271225,
        -0.0982372909784317
      ],
      [
        0.10961104929447174,
        -0.020446911454200745,
        0.06803026795387268,
        0.05764961242675781,
        -0.005782231688499451,
        0.07425557076931,
        -0.12161780893802643,
        -0.10943344235420227,
        -0.10924586653709412
      ],
      [
        0.0029983073472976685,
        0.11073493957519531,
        0.04575634002685547,
        0.04574514925479889,
        -0.0764685869216919,
        0.0880219042301178,
        -0.10142582654953003,
        0.0550912469625473,
        -0.0027491897344589233
      ],
      [
        0.1169227659702301,
        0.013729691505432129,
        0.0015615577576681972,
        -0.10791803896427155,
        0.02043233811855316,
        0.013594642281532288,
        -0.08178336918354034,
        0.08026185631752014,
        -0.10070034861564636
      ],
      [
        -0.013265401124954224,
        -0.10423517227172852,
        0.12372049689292908,
        0.12012730538845062,
        0.12073466181755066,
        -0.09441569447517395,
        0.06145748496055603,
        0.102119579911232,
        -0.12361882627010345
      ],
      [
        -0.038433656096458435,
        -0.02423185110092163,
        -0.040081143379211426,
        -0.012249410152435303,
        -0.01380126178264618,
        0.06120157241821289,
        0.03422752022743225,
        0.003438606858253479,
        -0.029884308576583862
      ],
      [
        0.09760826826095581,
        -0.034165188670158386,
        -0.0037813782691955566,
        -0.055662378668785095,
        0.049055323004722595,
        -0.03665068745613098,
        0.09749831259250641,
        0.01884278655052185,
        0.08840499818325043
      ],
      [
        -0.08527065813541412,
        -0.007373403757810593,
        0.060981377959251404,
        -0.09762437641620636,
        0.06342218816280365,
        0.13093072175979614,
        -0.012076769955456257,
        -0.07388733327388763,
        -0.020816205069422722
      ],
      [
        0.1211523562669754,
        0.014017000794410706,
        0.05639761686325073,
        -0.12019158899784088,
        0.061498820781707764,
        0.07788465917110443,
        -0.0014901161193847656,
        0.06013898551464081,
        0.07112224400043488
      ],
      [
        -0.09200455248355865,
        0.06911192834377289,
        -0.08423645794391632,
        0.03801970183849335,
        0.03973624110221863,
        -0.06052173674106598,
        0.05823056399822235,
        0.10166171193122864,
        0.08032451570034027
      ],
      [
        -0.11703194677829742,
        0.09013731777667999,
        -0.027554642409086227,
        0.030740659683942795,
        -0.013279548846185207,
        0.06881501525640488,
        0.11559861153364182,
        0.12033821642398834,
        -0.10940449684858322
      ],
      [
        -0.004767725709825754,
        0.09271068125963211,
        0.014783820137381554,
        0.011355995200574398,
        -0.6543881297111511,
        0.14591363072395325,
        0.21233540773391724,
        -0.614707887172699,
        -0.8908502459526062
      ],
      [
        0.09746216237545013,
        0.06924299895763397,
        -0.12231984734535217,
        0.04652594029903412,
        0.023613333702087402,
        -0.09877079725265503,
        -0.019867032766342163,
        -0.10978415608406067,
        -0.046017542481422424
      ],
      [
        0.12470471858978271,
        0.03390994295477867,
        -0.05790800228714943,
        0.10652053356170654,
        0.1324726790189743,
        -0.07855264097452164,
        0.08761236816644669,
        -0.08002892881631851,
        0.21303418278694153
      ],
      [
        -0.13901549577713013,
        0.10502580553293228,
        -0.020299991592764854,
        -0.04230763763189316,
        0.015621684491634369,
        0.018601519986987114,
        0.310794472694397,
        -0.16819295287132263,
        -0.10510296374559402
      ],
      [
        -0.07899421453475952,
        0.022910967469215393,
        -0.0343913733959198,
        -0.12399612367153168,
        -0.10447116196155548,
        -0.019859805703163147,
        -0.0838288962841034,
        0.045443639159202576,
        -0.07584415376186371
      ],
      [
        0.09536333382129669,
        -0.09798607230186462,
        0.06979930400848389,
        -0.07182967662811279,
        -0.10029500722885132,
        -0.09686976671218872,
        -0.07301391661167145,
        -0.060971856117248535,
        -0.12409627437591553
      ],
      [
        0.01251849252730608,
        0.07418883591890335,
        -0.013466405682265759,
        -0.3113999366760254,
        -0.44407737255096436,
        0.1261574625968933,
        -0.027600621804594994,
        0.2123948186635971,
        -0.2162194401025772
      ],
      [
        0.005767896771430969,
        -0.007301464676856995,
        -0.11518889665603638,
        -0.10811997950077057,
        0.07210443913936615,
        -0.11770446598529816,
        0.09010611474514008,
        -0.03647632896900177,
        -0.07645806670188904
      ],
      [
        -0.0033476948738098145,
        -0.03712311387062073,
        0.02085813879966736,
        -0.05118933320045471,
        -0.013973817229270935,
        0.02084428071975708,
        -0.08109952509403229,
        -0.10358153283596039,
        0.02546793222427368
      ],
      [
        -0.12488655745983124,
        0.06464195251464844,
        -0.10809981822967529,
        0.02727128565311432,
        0.014302581548690796,
        0.08249928057193756,
        -0.09409211575984955,
        -0.033265620470047,
        -0.05109040439128876
      ],
      [
        -0.021336112171411514,
        0.04334840923547745,
        -0.0006508490187115967,
        0.11483630537986755,
        0.028525836765766144,
        0.09555221349000931,
        -0.04417647421360016,
        0.12447628378868103,
        0.028336849063634872
      ],
      [
        -0.1048024445772171,
        0.04428420960903168,
        0.038961440324783325,
        0.11457565426826477,
        0.09473671019077301,
        0.024437621235847473,
        0.04265047609806061,
        0.0636066198348999,
        -0.03107719123363495
      ],
      [
        0.09570301324129105,
        -0.09118662029504776,
        -0.010945834219455719,
        0.2855455279350281,
        0.34805434942245483,
        -0.19274531304836273,
        0.0925411805510521,
        -0.7736896276473999,
        0.7756275534629822
      ],
      [
        -0.019747860729694366,
        0.09630512446165085,
        0.115946926176548,
        0.002080881502479315,
        -0.08540558815002441,
        0.021828515455126762,
        0.051474276930093765,
        0.03844106197357178,
        0.09893311560153961
      ],
      [
        -0.1029789000749588,
        -0.051812730729579926,
        0.06590918451547623,
        0.10632563382387161,
        -0.0992070659995079,
        0.11884654313325882,
        0.08243696391582489,
        -0.11973300576210022,
        0.09194574505090714
      ],
      [
        -0.1106882393360138,
        0.11467552930116653,
        -0.07441400736570358,
        -0.09206221997737885,
        0.0511443093419075,
        -0.08803871273994446,
        0.03657832741737366,
        -0.09601342678070068,
        0.09134842455387115
      ],
      [
        0.02409103512763977,
        0.10696077346801758,
        0.10148490965366364,
        -0.08195918798446655,
        -0.016065314412117004,
        -0.03357887268066406,
        -0.07685454189777374,
        -0.06311942636966705,
        -0.0823763757944107
      ],
      [
        0.07567460089921951,
        0.02502661943435669,
        -0.13660837709903717,
        -0.0553828664124012,
        -0.2099827080965042,
        0.16874535381793976,
        0.6087315678596497,
        -0.5137395262718201,
        -0.8197072744369507
      ],
      [
        0.03641987591981888,
        0.08048665523529053,
        0.04362456128001213,
        -0.09860875457525253,
        0.048368219286203384,
        0.051427144557237625,
        0.045995183289051056,
        -0.11035644263029099,
        -0.05205526575446129
      ],
      [
        0.11180807650089264,
        0.016445279121398926,
        0.09884271025657654,
        -0.021185189485549927,
        -0.08717453479766846,
        -0.061741068959236145,
        -0.1163104921579361,
        -0.11977136135101318,
        0.08254007995128632
      ],
      [
        -0.12805911898612976,
        -0.054320164024829865,
        0.054285332560539246,
        -0.09005942940711975,
        0.020587759092450142,
        -0.07879453897476196,
        -0.04044617339968681,
        -0.015214893035590649,
        0.061570387333631516
      ],
      [
        0.15588781237602234,
        0.03160983324050903,
        -0.05337183177471161,
        -0.0638943687081337,
        0.0455189123749733,
        0.047867294400930405,
        -0.02824033983051777,
        0.1598285287618637,
        -0.20911167562007904
      ],
      [
        -0.01971409283578396,
        -0.06015956029295921,
        -0.026520682498812675,
        -0.04624546319246292,
        0.10496226698160172,
        0.10518822073936462,
        0.04039016738533974,
        0.10700195282697678,
        0.07112935930490494
      ],
      [
        0.028075113892555237,
        -0.05473168194293976,
        0.12484705448150635,
        0.01063266396522522,
        0.062133967876434326,
        -0.03012309968471527,
        0.0805855244398117,
        0.10436266660690308,
        -0.04199214279651642
      ],
      [
        0.03182545304298401,
        0.022397728636860847,
        -0.08485321700572968,
        -0.14973650872707367,
        0.43625715374946594,
        -0.1275993436574936,
        0.06997761130332947,
        0.77806156873703,
        0.9952777624130249
      ],
      [
        0.09612147510051727,
        0.04166404902935028,
        0.07300852239131927,
        0.00524766743183136,
        -0.02009221911430359,
        0.07950165867805481,
        0.012309253215789795,
        0.025003105401992798,
        0.0862889438867569
      ],
      [
        0.02747339755296707,
        -0.16804851591587067,
        -0.10329252481460571,
        -0.022624513134360313,
        0.2745455503463745,
        0.07878395915031433,
        0.2610757350921631,
        0.32823827862739563,
        0.4202463626861572
      ],
      [
        0.042155664414167404,
        -0.12333779036998749,
        0.08957305550575256,
        -0.12176259607076645,
        -0.08884654194116592,
        -0.028525490313768387,
        -0.08454173058271408,
        -0.05105418711900711,
        0.06100468337535858
      ],
      [
        0.035280901938676834,
        0.03255225718021393,
        -0.11124596744775772,
        0.01952975243330002,
        0.5148036479949951,
        0.00653268164023757,
        0.14933381974697113,
        0.8396692872047424,
        1.0778082609176636
      ],
      [
        -0.06694434583187103,
        -0.04859036207199097,
        -0.10037396848201752,
        -0.07854928076267242,
        -0.01238161325454712,
        0.03533092141151428,
        0.1184760183095932,
        -0.019984126091003418,
        0.07895153760910034
      ],
      [
        0.010602384805679321,
        0.012923106551170349,
        0.11390557885169983,
        -0.03155018389225006,
        -0.05487598478794098,
        -0.07299880683422089,
        -0.0459941029548645,
        -0.0316300243139267,
        -0.044758141040802
      ],
      [
        0.11163440346717834,
        -0.1181061863899231,
        0.10822704434394836,
        -0.017247766256332397,
        0.09711092710494995,
        -0.12373769283294678,
        0.11730387806892395,
        0.018003955483436584,
        -0.08148853480815887
      ],
      [
        -0.03766760975122452,
        -0.04576576128602028,
        -0.0650349110364914,
        0.11819346249103546,
        0.06367993354797363,
        -0.12341520190238953,
        -0.0997244268655777,
        0.011063982732594013,
        -0.08285745978355408
      ],
      [
        -0.1607942432165146,
        0.03407454118132591,
        -0.03702433407306671,
        -0.05349099263548851,
        -0.07456450164318085,
        0.11589411646127701,
        0.01909102499485016,
        -0.077461838722229,
        0.019011717289686203
      ],
      [
        0.002637955592945218,
        -0.0020478470250964165,
        -0.0007380801253020763,
        -0.3874364197254181,
        -0.8108669519424438,
        0.3064601421356201,
        0.11843061447143555,
        0.11464019119739532,
        -2.080845594406128
      ],
      [
        0.1068640872836113,
        -0.031471963971853256,
        -0.014253756031394005,
        -0.05488774925470352,
        -0.049807384610176086,
        0.010033266618847847,
        0.09334494173526764,
        -0.05536099895834923,
        0.08193016052246094
      ],
      [
        0.009527248330414295,
        0.04671618342399597,
        -0.09281022846698761,
        -0.04208739101886749,
        0.04271690547466278,
        -0.012091204524040222,
        -0.08937522768974304,
        -0.004942804574966431,
        0.06990234553813934
      ],
      [
        -0.024212688207626343,
        -0.01929500512778759,
        0.11970561742782593,
        0.005961082875728607,
        0.09027685970067978,
        0.004120599944144487,
        -0.026350567117333412,
        0.012597916647791862,
        0.03368731588125229
      ],
      [
        0.11964185535907745,
        -0.038427531719207764,
        0.09290692210197449,
        -0.0557800829410553,
        0.06101702153682709,
        -0.06551197171211243,
        -0.11912032961845398,
        0.025483831763267517,
        0.0299321711063385
      ],
      [
        -0.01328842993825674,
        -0.05839838460087776,
        -0.018781807273626328,
        -0.06379763036966324,
        -0.0990593209862709,
        -0.05847347155213356,
        0.027016932144761086,
        -0.0987536832690239,
        -0.08836041390895844
      ],
      [
        -0.07593488693237305,
        -0.08806504309177399,
        -0.12291811406612396,
        -0.054624080657958984,
        0.058370307087898254,
        -0.04495765268802643,
        0.0001118779182434082,
        0.09952732920646667,
        0.10015742480754852
      ],
      [
        -0.08572503924369812,
        -0.034223541617393494,
        -0.10158893465995789,
        -0.10230329632759094,
        0.09471534192562103,
        0.050009533762931824,
        -0.02417255938053131,
        0.03188963234424591,
        -0.03515738248825073
      ],
      [
        -0.003990828990936279,
        0.04858866333961487,
        0.09909544885158539,
        0.0697539746761322,
        -0.09099359810352325,
        0.09840318560600281,
        -0.0710810124874115,
        0.014939844608306885,
        -0.08400872349739075
      ],
      [
        -0.005321466363966465,
        -0.024574970826506615,
        0.09434366226196289,
        -0.09110932052135468,
        0.11102880537509918,
        -0.05750209465622902,
        0.006518872454762459,
        0.11730418354272842,
        -0.0920632928609848
      ],
      [
        -0.02875189669430256,
        -0.03543762490153313,
        0.06130272150039673,
        0.04564237967133522,
        -0.255054235458374,
        0.19720931351184845,
        0.55032879114151,
        -0.49759641289711,
        -1.0995322465896606
      ],
      [
        -0.004983169957995415,
        -0.035012636333703995,
        0.0019399223383516073,
        -0.32300880551338196,
        -0.37948885560035706,
        0.22369451820850372,
        -0.19881652295589447,
        0.6521353125572205,
        -0.7347336411476135
      ],
      [
        0.08621188998222351,
        0.003541409969329834,
        0.10612945258617401,
        0.03485921025276184,
        0.0018898993730545044,
        -0.0563521534204483,
        0.050434306263923645,
        0.045588403940200806,
        -0.07629172503948212
      ],
      [
        -0.1125098168849945,
        -0.06851178407669067,
        0.009987786412239075,
        0.005563631653785706,
        -0.11292244493961334,
        -0.03469565510749817,
        -0.07610045373439789,
        0.04930001497268677,
        -0.09796923398971558
      ],
      [
        0.10967421531677246,
        0.10231181979179382,
        -0.03110632300376892,
        0.048173874616622925,
        0.04918038845062256,
        -0.048375532031059265,
        -0.02459663152694702,
        0.10566017031669617,
        -0.1175769567489624
      ],
      [
        -0.0173940472304821,
        0.07478245347738266,
        0.027774527668952942,
        0.04092562571167946,
        0.3885555863380432,
        0.008663084357976913,
        0.16165171563625336,
        0.6782860159873962,
        0.8778678178787231
      ],
      [
        -0.003974625375121832,
        0.04810209199786186,
        0.04644143208861351,
        0.0714683011174202,
        0.08342855423688889,
        -0.10216439515352249,
        -0.0554172545671463,
        0.10660664737224579,
        -0.09435359388589859
      ],
      [
        0.07254434376955032,
        0.05888385698199272,
        -0.09059026837348938,
        -0.03484991565346718,
        0.08573681861162186,
        0.07716256380081177,
        -0.10507884621620178,
        0.07941249758005142,
        0.009666603058576584
      ],
      [
        -0.06856803596019745,
        0.009673088788986206,
        -0.030704474076628685,
        -0.022557109594345093,
        0.057872891426086426,
        0.05283914506435394,
        0.11568708717823029,
        -0.04855090379714966,
        0.047537997364997864
      ],
      [
        0.007336676120758057,
        0.1022859513759613,
        0.08052031695842743,
        0.07272200286388397,
        -0.057972535490989685,
        0.03041011095046997,
        -0.06404189765453339,
        -0.020024269819259644,
        0.07889953255653381
      ],
      [
        -0.005253771785646677,
        -0.053485430777072906,
        0.022803878411650658,
        0.3996207118034363,
        0.480365514755249,
        -0.32008734345436096,
        0.3911670744419098,
        -0.6648776531219482,
        1.773720622062683
      ],
      [
        0.01768358051776886,
        0.09152795374393463,
        -0.11962912231683731,
        -0.11368659883737564,
        -0.009199019521474838,
        -0.02701306901872158,
        0.10487397760152817,
        -0.1379452347755432,
        -0.21845780313014984
      ],
      [
        -0.12476344406604767,
        -0.025020793080329895,
        -0.07677348703145981,
        0.01705704629421234,
        0.009669333696365356,
        0.09772248566150665,
        0.11608214676380157,
        -0.11013013124465942,
        0.11147750914096832
      ],
      [
        -0.0006976389558985829,
        -0.00233199680224061,
        0.007312227971851826,
        -0.06705325841903687,
        -0.8068611025810242,
        0.30349913239479065,
        -0.0072824303060770035,
        -0.9570232629776001,
        -1.9902554750442505
      ],
      [
        0.11768006533384323,
        0.03248020261526108,
        -0.12980002164840698,
        0.20741865038871765,
        0.31233251094818115,
        -0.21632985770702362,
        -0.292108952999115,
        -0.10871090739965439,
        0.5373067259788513
      ],
      [
        -0.04688311740756035,
        -0.15855319797992706,
        -0.012487944215536118,
        0.08597741276025772,
        -0.08417745679616928,
        -0.08612184226512909,
        0.020336048677563667,
        -0.0395391471683979,
        0.05482638627290726
      ],
      [
        0.06740805506706238,
        -0.11226941645145416,
        -0.11449064314365387,
        -0.18143431842327118,
        0.2657066881656647,
        -0.0680602490901947,
        -0.5426821708679199,
        0.574134886264801,
        0.9230828285217285
      ],
      [
        -0.11918029189109802,
        0.05637504160404205,
        -0.12205865979194641,
        -0.07524305582046509,
        0.02510453760623932,
        0.00359538197517395,
        0.029215797781944275,
        -0.04962582886219025,
        0.03754964470863342
      ],
      [
        0.05975685268640518,
        0.06997894495725632,
        -0.07141967117786407,
        0.44667190313339233,
        0.5634068846702576,
        -0.2623009979724884,
        0.1719590723514557,
        -0.031793978065252304,
        0.7545174360275269
      ],
      [
        0.0211982149630785,
        -0.10775700956583023,
        -0.10630474239587784,
        -0.040799062699079514,
        0.13371288776397705,
        -0.0014676577411592007,
        0.042264215648174286,
        0.04132053256034851,
        0.008636589162051678
      ],
      [
        0.08580667525529861,
        0.015453986823558807,
        0.03782927989959717,
        -0.04141037538647652,
        -0.12698575854301453,
        0.05742469057440758,
        -0.06372640281915665,
        -0.08526047319173813,
        -0.05423201248049736
      ],
      [
        0.03296121954917908,
        0.08443483710289001,
        0.08955857157707214,
        -0.06758983433246613,
        -0.008312046527862549,
        0.0023930519819259644,
        -0.08417481184005737,
        0.059471145272254944,
        0.03327518701553345
      ],
      [
        0.14998847246170044,
        0.00895634014159441,
        -0.042406219989061356,
        0.042824771255254745,
        0.08634278178215027,
        -0.11505677551031113,
        0.01842673122882843,
        0.03522563725709915,
        0.002084002597257495
      ],
      [
        0.16040104627609253,
        -0.07340938597917557,
        0.03268715366721153,
        -0.08595407754182816,
        0.1427362859249115,
        0.050375811755657196,
        -0.011366423219442368,
        -0.06656727939844131,
        -0.0009185690432786942
      ],
      [
        0.12220722436904907,
        -0.09636099636554718,
        0.10268910229206085,
        0.04384447634220123,
        0.10040950775146484,
        -0.018026456236839294,
        -0.03389465808868408,
        -0.09581229090690613,
        -0.06949934363365173
      ],
      [
        -0.057330742478370667,
        0.01604318432509899,
        -0.04374914616346359,
        0.0724652111530304,
        -0.0060433149337768555,
        -0.038390710949897766,
        0.005786925554275513,
        -0.08781768381595612,
        0.03377801179885864
      ],
      [
        0.06950381398200989,
        -0.12957175076007843,
        0.004334909841418266,
        -0.21816982328891754,
        -0.2608044743537903,
        0.15686781704425812,
        -0.16537436842918396,
        0.29277846217155457,
        -0.72264164686203
      ],
      [
        0.05751423537731171,
        0.0220726877450943,
        0.11424235999584198,
        -0.07073421776294708,
        0.10908305644989014,
        -0.12398044764995575,
        -0.10871325433254242,
        0.028773173689842224,
        0.04789400100708008
      ],
      [
        -0.002300053834915161,
        -0.11233283579349518,
        -0.019787490367889404,
        0.04370985925197601,
        0.07896009087562561,
        7.718801498413086e-05,
        -0.0644381046295166,
        0.03829126060009003,
        0.10141299664974213
      ],
      [
        0.046052876859903336,
        0.07573393732309341,
        -0.06475456058979034,
        -0.2971034348011017,
        -0.2994270622730255,
        0.28050798177719116,
        0.12725964188575745,
        -0.07693208009004593,
        -0.6516242623329163
      ],
      [
        0.029500095173716545,
        -0.14166240394115448,
        -0.06613520532846451,
        -0.00937461294233799,
        0.3919590413570404,
        -0.11790842562913895,
        0.21551015973091125,
        0.37181273102760315,
        0.9939010143280029
      ],
      [
        -0.02609868347644806,
        0.10385099053382874,
        -0.07548913359642029,
        -0.0831802636384964,
        -0.10059569776058197,
        0.021137669682502747,
        -0.04803380370140076,
        -0.09285342693328857,
        -0.010039940476417542
      ]
    ],
    "lstm.weight_hh_l0": [
      [
        -0.12677162885665894,
        0.144159734249115,
        0.05208571255207062,
        0.09701600670814514,
        -0.03721945732831955,
        -0.007421798072755337,
        0.039630498737096786,
        0.1386643648147583,
        -0.058178242295980453,
        0.2315279245376587,
        -0.03210291638970375,
        0.12076044082641602,
        -0.5535386204719543,
        -0.02909875474870205,
        -0.15358002483844757,
        -0.07421921193599701,
        -0.40481939911842346,
        0.07100798189640045,
        0.1531604826450348,
        0.034658271819353104,
        -0.1199304610490799,
        -0.11354991793632507,
        -0.2210313081741333,
        0.11061181128025055,
        0.05929417908191681,
        -0.1903640180826187,
        0.14509209990501404,
        0.08600977063179016,
        -0.09974810481071472,
        -0.05377735197544098,
        -0.03290145844221115,
        0.08610304445028305,
        0.07306619733572006,
        0.375008761882782,
        0.017519669607281685,
        0.04784595966339111,
        0.07909871637821198,
        -0.042767737060785294,
        0.1034524068236351,
        -0.07011495530605316,
        0.022014424204826355,
        -0.04154782369732857,
        0.06131041422486305,
        0.11398228257894516,
        0.0779329389333725,
        -0.10881287604570389,
        0.030940724536776543,
        -0.006688263267278671,
        -0.020554831251502037,
        0.02077317237854004,
        0.14325596392154694,
        0.11583145707845688,
        0.0472707524895668,
        -0.11507675051689148,
        -0.015335436910390854,
        0.01682412065565586,
        -0.06475597620010376,
        0.12173162400722504,
        0.09024538844823837,
        -0.06279966235160828,
        -0.014367133378982544,
        0.1455402970314026,
        -0.05802755057811737,
        0.06014089286327362
      ],
      [
        0.10125342756509781,
        -0.07843796163797379,
        -0.0666421428322792,
        -0.004367455840110779,
        -0.041478537023067474,
        -0.10808578133583069,
        -0.06427202373743057,
        0.5041760206222534,
        -0.08364977687597275,
        0.3901354670524597,
        -0.07350552082061768,
        0.03987501189112663,
        -0.3812136948108673,
        0.09958862513303757,
        -0.01593501679599285,
        0.051712192595005035,
        -0.28545457124710083,
        0.052744269371032715,
        0.05040529742836952,
        0.1987396478652954,
        -0.06725312769412994,
        -0.04399453476071358,
        -0.4817424416542053,
        -0.01150770578533411,
        -0.06418026983737946,
        -0.1732552945613861,
        -0.01957857795059681,
        -0.10137312114238739,
        0.08095891773700714,
        -0.027734726667404175,
        -0.1788722574710846,
        -0.04589827358722687,
        0.24541468918323517,
        0.26362648606300354,
        -0.06058560684323311,
        -0.1158217042684555,
        -0.0260409414768219,
        0.19390976428985596,
        -0.08946763724088669,
        0.015705717727541924,
        0.05727788805961609,
        0.00822186004370451,
        0.09201540797948837,
        0.021544506773352623,
        0.043717265129089355,
        -0.09978523850440979,
        0.11584802716970444,
        -0.02372509054839611,
        -0.37526533007621765,
        -0.011879876255989075,
        0.15492171049118042,
        -0.10048145055770874,
        -0.1668008416891098,
        -0.10138386487960815,
        -0.004867816809564829,
        0.018833724781870842,
        -0.014089405536651611,
        -0.02608005702495575,
        0.010232576169073582,
        -0.05854438245296478,
        0.018879443407058716,
        0.08693008124828339,
        0.0908581018447876,
        0.09361238777637482
      ],
      [
        0.09522847831249237,
        0.09313853830099106,
        0.029843052849173546,
        0.08119407296180725,
        -0.08428674191236496,
        -0.030054422095417976,
        0.05195428431034088,
        0.05002058669924736,
        -0.03983964025974274,
        -0.10149161517620087,
        -0.037668030709028244,
        -0.0016380511224269867,
        -0.0799548402428627,
        -0.0038935330230742693,
        -0.061507388949394226,
        0.08458435535430908,
        0.06210925802588463,
        0.11034327745437622,
        0.10052330791950226,
        0.011302442289888859,
        0.05960899591445923,
        0.11644606292247772,
        -0.06638433039188385,
        0.10899452865123749,
        -0.044496431946754456,
        0.03369160741567612,
        -0.08270784467458725,
        0.10088039189577103,
        0.04379716515541077,
        -0.06651023030281067,
        -0.008866897784173489,
        -0.007380484603345394,
        0.008327310904860497,
        0.08193209767341614,
        -0.10652980208396912,
        0.06712834537029266,
        0.10699696838855743,
        -0.016689475625753403,
        0.041564635932445526,
        0.050555966794490814,
        -0.013893261551856995,
        -0.04953543469309807,
        -0.13979946076869965,
        0.06483994424343109,
        0.05652894079685211,
        -0.12303473800420761,
        -0.007256717886775732,
        -0.11077480018138885,
        -0.05318639054894447,
        -0.05345886945724487,
        -0.04146084561944008,
        0.067101389169693,
        -0.03183840215206146,
        -0.11701560020446777,
        0.024967484176158905,
        0.058434706181287766,
        -0.007652893662452698,
        -0.11781488358974457,
        0.006018687970936298,
        0.028999557718634605,
        -0.054122135043144226,
        -0.04454539716243744,
        0.06589403003454208,
        -0.08909322321414948
      ],
      [
        0.07660990953445435,
        0.11283496022224426,
        -0.017062515020370483,
        -0.08319559693336487,
        0.018572954460978508,
        0.07951030135154724,
        0.09773531556129456,
        0.04057290032505989,
        0.09590931236743927,
        -0.003240443766117096,
        -0.0050405412912368774,
        -0.12443357706069946,
        0.08334046602249146,
        0.03488396108150482,
        -0.11621032655239105,
        -0.10043151676654816,
        -0.12282711267471313,
        -0.009059742093086243,
        -0.0062131136655807495,
        -0.08028220385313034,
        -0.08404307067394257,
        0.03577090799808502,
        0.09134534001350403,
        0.010361015796661377,
        -0.03206440806388855,
        -0.09114298224449158,
        -0.0067168790847063065,
        -0.004912018775939941,
        -0.03915657103061676,
        -0.08634412288665771,
        0.12317493557929993,
        -0.09105758368968964,
        -0.08554714918136597,
        0.08657342195510864,
        0.022541552782058716,
        -0.0432610809803009,
        -0.07212655246257782,
        -0.03237376734614372,
        0.09394082427024841,
        0.00894145667552948,
        -0.049319565296173096,
        0.023448774591088295,
        -0.050360824912786484,
        -0.03607615828514099,
        -0.1243661642074585,
        0.057454418390989304,
        0.06347745656967163,
        -0.06146220862865448,
        -0.015939056873321533,
        -0.0039148032665252686,
        -0.11462365090847015,
        -0.07546865940093994,
        -0.11469084769487381,
        -0.06656628847122192,
        -0.09453849494457245,
        -0.07406094670295715,
        0.1203339546918869,
        0.1129584014415741,
        0.06580305099487305,
        -0.11061376333236694,
        0.027750656008720398,
        -0.06728418171405792,
        0.10049936175346375,
        0.03928196430206299
      ],
      [
        0.21224400401115417,
        -0.028482671827077866,
        0.08947087824344635,
        -0.1006040871143341,
        -0.019351698458194733,
        -0.06215823441743851,
        -0.02767721377313137,
        -0.12884923815727234,
        -0.11266612261533737,
        -0.06394972652196884,
        -0.055449388921260834,
        0.09449408948421478,
        -0.18726371228694916,
        0.09859681874513626,
        -0.07023163884878159,
        0.029401790350675583,
        -0.0761042982339859,
        0.06411784887313843,
        0.09715623408555984,
        -0.06986016780138016,
        0.06587624549865723,
        0.013190653175115585,
        0.11045978963375092,
        0.06550423800945282,
        0.08275468647480011,
        0.0035283775068819523,
        0.03352059796452522,
        0.07224572449922562,
        -0.09069857001304626,
        -0.12122246623039246,
        0.11048508435487747,
        0.02969333343207836,
        -0.46855318546295166,
        -0.2371845841407776,
        -0.06937924027442932,
        -0.06182605028152466,
        -0.012506961822509766,
        -0.1394939422607422,
        -0.10433109849691391,
        -0.01685379445552826,
        0.023644715547561646,
        -0.06491729617118835,
        -0.13540299236774445,
        -0.025750942528247833,
        0.04263356328010559,
        -0.12277869135141373,
        0.008615154772996902,
        0.05394761264324188,
        -0.15136028826236725,
        -0.043426334857940674,
        0.16445523500442505,
        -0.06801321357488632,
        -0.15841297805309296,
        -0.1054888665676117,
        -0.02679308131337166,
        0.07836452126502991,
        -0.034498751163482666,
        -0.008290901780128479,
        -0.02135455049574375,
        0.02403445541858673,
        -0.023906975984573364,
        -0.05181527137756348,
        -0.24462030827999115,
        0.116442009806633
      ],
      [
        0.10809938609600067,
        0.024477466940879822,
        0.07042671740055084,
        -0.1088416576385498,
        -0.04770171642303467,
        -0.1227034330368042,
        0.039772868156433105,
        -0.06092020869255066,
        -0.06447863578796387,
        0.031291663646698,
        0.018611684441566467,
        -0.06566423177719116,
        -0.01695200800895691,
        -0.009691998362541199,
        0.08708053827285767,
        0.03208835422992706,
        -0.010200738906860352,
        0.004035100340843201,
        -0.09560579061508179,
        -0.11119100451469421,
        0.09847116470336914,
        0.11921493709087372,
        0.09820803999900818,
        -0.07136508822441101,
        -0.02720712125301361,
        0.09996433556079865,
        -0.04360063374042511,
        -0.02274562418460846,
        0.041289061307907104,
        0.04987967014312744,
        -0.03503641486167908,
        0.0752684473991394,
        0.050070106983184814,
        -0.06643173098564148,
        0.028016239404678345,
        -0.06636457145214081,
        -0.04382871091365814,
        0.09846219420433044,
        -0.06349898874759674,
        0.08922283351421356,
        -0.07866054773330688,
        0.10099367797374725,
        -0.09513303637504578,
        0.0018631219863891602,
        -0.10109984874725342,
        0.013474628329277039,
        0.1028178483247757,
        -0.08967219293117523,
        -0.010852381587028503,
        0.006650716066360474,
        -0.11115516722202301,
        -0.03060568869113922,
        0.02745741605758667,
        -0.11913138628005981,
        -0.08180691301822662,
        -0.059315189719200134,
        0.059750139713287354,
        0.10955901443958282,
        0.03511083126068115,
        0.11534099280834198,
        0.05368708074092865,
        -0.04887852072715759,
        0.07762123644351959,
        0.020942717790603638
      ],
      [
        0.05784187093377113,
        0.0036944211460649967,
        -0.0023763366043567657,
        0.11353111267089844,
        0.004514453466981649,
        -0.11645440757274628,
        -0.06346967071294785,
        0.05377918481826782,
        -0.12376929819583893,
        1.0348059731768444e-05,
        0.05166524648666382,
        0.042837679386138916,
        -0.023844847455620766,
        0.07817822694778442,
        -0.0018023323500528932,
        0.030593719333410263,
        0.09874432533979416,
        0.019757583737373352,
        -0.12483841180801392,
        -0.1211855337023735,
        0.07683734595775604,
        0.09768305718898773,
        0.05913759395480156,
        0.02599427103996277,
        0.06598013639450073,
        0.057365454733371735,
        -0.08380027860403061,
        -0.05596287548542023,
        0.005621626973152161,
        -0.041895076632499695,
        -0.0367441363632679,
        -0.11209255456924438,
        0.047994475811719894,
        -0.1133744865655899,
        0.02886485867202282,
        -0.08642807602882385,
        -0.04283609986305237,
        0.0675499439239502,
        -0.007323366589844227,
        -0.07718418538570404,
        -0.011234521865844727,
        0.10813260078430176,
        -0.07693547010421753,
        -0.0027721093501895666,
        0.08953636884689331,
        0.001079064211808145,
        -0.09087131917476654,
        -0.0941074937582016,
        0.06275596469640732,
        0.11832824349403381,
        -0.05884750187397003,
        0.10580174624919891,
        0.03505002334713936,
        -0.006360694766044617,
        -0.1178542748093605,
        -0.029753632843494415,
        -0.02353060245513916,
        0.12329041957855225,
        -0.036788489669561386,
        -0.11204932630062103,
        -0.0071175843477249146,
        0.07809077948331833,
        0.10726125538349152,
        -0.11268103122711182
      ],
      [
        -0.4066865146160126,
        0.10192713886499405,
        -0.05241222307085991,
        0.12314574420452118,
        -0.06255898624658585,
        0.1769108921289444,
        -0.15545541048049927,
        -0.0972958356142044,
        0.02109425701200962,
        -0.3057038486003876,
        0.032073140144348145,
        0.053756192326545715,
        0.1339622437953949,
        -0.10953603684902191,
        -0.18845796585083008,
        -0.23798954486846924,
        0.1606706827878952,
        -0.06784923374652863,
        -0.01938462257385254,
        -0.2709755301475525,
        0.08920401334762573,
        -0.045664601027965546,
        0.23841333389282227,
        0.11862562596797943,
        0.0946904718875885,
        0.05884810909628868,
        0.19478534162044525,
        -0.0177948996424675,
        0.07905425131320953,
        -0.06405608355998993,
        0.2189752161502838,
        0.045124638825654984,
        -0.4360013008117676,
        -0.3309869170188904,
        -0.004519917536526918,
        0.061229124665260315,
        0.01409265398979187,
        -0.03357694298028946,
        0.0957583487033844,
        -0.05655005946755409,
        0.02292570471763611,
        0.2245970368385315,
        0.015613604336977005,
        -0.21601761877536774,
        0.02400974929332733,
        0.17145447432994843,
        0.16172808408737183,
        -0.14071209728717804,
        0.1990508884191513,
        -0.027768954634666443,
        0.2641885280609131,
        -0.0163472481071949,
        0.30884024500846863,
        -0.014749109745025635,
        -0.1378287523984909,
        -0.43569737672805786,
        0.08617851138114929,
        -0.09182856976985931,
        0.0016307143960148096,
        -0.4176149368286133,
        0.021213337779045105,
        -0.007727906107902527,
        0.21969352662563324,
        -0.006271108984947205
      ],
      [
        0.10084737837314606,
        -0.01489877700805664,
        -0.11123107373714447,
        -0.04746294021606445,
        -0.1322798877954483,
        -0.09013397246599197,
        0.040831923484802246,
        -0.018115052953362465,
        -0.0014364084927365184,
        0.03753843531012535,
        -0.03353412076830864,
        0.07159358263015747,
        -0.047283485531806946,
        -0.0732588917016983,
        0.12305516749620438,
        0.031077375635504723,
        0.03714543953537941,
        0.06792981922626495,
        -0.032260969281196594,
        -0.0910179391503334,
        -0.0819435715675354,
        0.021022573113441467,
        -0.09344830363988876,
        0.04879505932331085,
        0.07496418058872223,
        0.11134955286979675,
        0.11295169591903687,
        -0.026672493666410446,
        -0.03369957208633423,
        0.06316730380058289,
        -0.014427349902689457,
        -0.0022898572497069836,
        -0.057709693908691406,
        0.02650558017194271,
        -0.0068726921454072,
        0.06385953724384308,
        -0.0604732483625412,
        -0.017694031819701195,
        -0.10026884078979492,
        -0.025850562378764153,
        -0.0679238885641098,
        -0.0024264997337013483,
        0.11234527081251144,
        -0.0005934374639764428,
        -0.022417455911636353,
        0.12784427404403687,
        -0.06113460659980774,
        -0.05123625695705414,
        0.03522453457117081,
        -0.06812956929206848,
        -0.0205015130341053,
        -0.11567802727222443,
        0.0027648527175188065,
        0.02236427366733551,
        -0.1159554272890091,
        -0.07150793075561523,
        -0.11866649985313416,
        0.1181289404630661,
        0.006874513812363148,
        -0.034914374351501465,
        -0.11802202463150024,
        -0.06534045934677124,
        -0.0207242202013731,
        -0.0006987303495407104
      ],
      [
        -0.1241283118724823,
        -0.12309704720973969,
        0.028116807341575623,
        -0.012804940342903137,
        0.04598750174045563,
        0.07578146457672119,
        -0.08743949234485626,
        0.07117922604084015,
        -0.048787668347358704,
        -0.03287006914615631,
        -0.09444324672222137,
        -0.07799634337425232,
        -0.02519826591014862,
        -0.033485233783721924,
        -0.016949579119682312,
        -0.07303076982498169,
        -0.02423301339149475,
        -0.06553283333778381,
        -0.07976509630680084,
        0.10727275907993317,
        -0.10036168992519379,
        0.08025825023651123,
        0.03812578320503235,
        0.06777516007423401,
        -0.07771271467208862,
        0.03910340368747711,
        -0.04405263066291809,
        0.02769407629966736,
        -0.12234382331371307,
        0.03651978075504303,
        0.05965550243854523,
        -0.031027764081954956,
        -0.007240384817123413,
        -0.0875665694475174,
        0.062196284532547,
        -0.0916185975074768,
        0.07645489275455475,
        0.08559657633304596,
        -0.09097230434417725,
        -0.04106402397155762,
        0.12177760899066925,
        0.04891085624694824,
        0.09970420598983765,
        -0.013503223657608032,
        0.09316003322601318,
        0.058087676763534546,
        -0.004524394869804382,
        0.07391238212585449,
        0.0820181667804718,
        0.03343178331851959,
        0.02284950017929077,
        0.0685424655675888,
        -0.09296496212482452,
        -0.02075238525867462,
        0.07850909233093262,
        -0.005914926528930664,
        -0.07658827304840088,
        0.07416039705276489,
        0.02816908061504364,
        -0.035691142082214355,
        0.09970884025096893,
        0.07511638104915619,
        -0.04192847013473511,
        0.10991109907627106
      ],
      [
        -0.03388521820306778,
        0.03908848762512207,
        0.09422221779823303,
        0.07583282887935638,
        -0.06556546688079834,
        -0.008301295340061188,
        0.057075176388025284,
        -0.017446298152208328,
        -0.03295740485191345,
        0.010694128461182117,
        -0.003026424441486597,
        0.06422494351863861,
        -0.06091035157442093,
        0.10290345549583435,
        0.057265907526016235,
        -0.09033074229955673,
        -0.11350506544113159,
        -0.0198383629322052,
        -0.02819819562137127,
        0.02022293023765087,
        -0.005700066685676575,
        -0.05449318885803223,
        0.034323543310165405,
        0.03358250856399536,
        -0.086396723985672,
        -0.019298728555440903,
        0.0063727423548698425,
        -0.0831303745508194,
        -0.07141686975955963,
        0.09005433320999146,
        0.09843131899833679,
        0.014738778583705425,
        -0.11574743688106537,
        0.08066859096288681,
        -0.10023245960474014,
        -0.038751840591430664,
        -0.10762488842010498,
        0.09173892438411713,
        0.059848129749298096,
        -0.08797574043273926,
        -0.06038099527359009,
        0.05873420834541321,
        0.05549522861838341,
        0.08229447901248932,
        -0.062258362770080566,
        -0.06386683136224747,
        0.07658345997333527,
        0.05875702202320099,
        -0.01583591103553772,
        -0.09535019099712372,
        0.12379401177167892,
        -0.013352248817682266,
        0.013231970369815826,
        0.07785990834236145,
        0.05326581001281738,
        0.0025722943246364594,
        -0.04506586492061615,
        0.09469646215438843,
        -0.0763009637594223,
        -0.02164638601243496,
        -0.012000858783721924,
        -0.01751749962568283,
        -0.08037810027599335,
        0.07349112629890442
      ],
      [
        -0.03344026207923889,
        -0.09724099189043045,
        0.10693072527647018,
        0.013357996940612793,
        -0.02196003496646881,
        0.12362772226333618,
        0.04348522424697876,
        0.037578970193862915,
        0.02371598780155182,
        0.11106954514980316,
        -0.024423450231552124,
        -0.04459454119205475,
        -0.08592113852500916,
        0.11762625724077225,
        -0.1120520606637001,
        0.05632375180721283,
        0.11970559507608414,
        0.08440916240215302,
        -0.019884413108229637,
        -0.015537180006504059,
        -0.06384067237377167,
        -0.08829815685749054,
        0.0931258425116539,
        0.03802265226840973,
        -0.07317526638507843,
        0.009410308673977852,
        -0.006163637153804302,
        0.11522205173969269,
        -0.0715889036655426,
        0.0349065363407135,
        -0.06334317475557327,
        0.0900711938738823,
        0.0663745179772377,
        -0.09124536067247391,
        0.022880490869283676,
        -0.10794045031070709,
        -0.09450767934322357,
        -0.05759304016828537,
        0.05051388591527939,
        -0.0788716971874237,
        0.017315059900283813,
        -0.08445596694946289,
        -0.07542192935943604,
        0.10785426199436188,
        -0.030285552144050598,
        0.05534590035676956,
        0.09660183638334274,
        -0.08943361043930054,
        -0.03824380785226822,
        -0.08725099265575409,
        0.024104522541165352,
        0.05758135765790939,
        0.048239924013614655,
        0.11088365316390991,
        0.09159993380308151,
        -0.11490470170974731,
        0.015356168150901794,
        -0.08438502252101898,
        0.026571258902549744,
        -0.036397259682416916,
        0.009303361177444458,
        0.03650813177227974,
        -0.12091009318828583,
        -0.0996701568365097
      ],
      [
        -0.08851274847984314,
        0.05918028950691223,
        -0.08860969543457031,
        -0.020256400108337402,
        0.10022367537021637,
        0.052567169070243835,
        -0.02429276704788208,
        -0.06779928505420685,
        -0.04174700379371643,
        -0.037587836384773254,
        -0.07953271269798279,
        -0.021859824657440186,
        -0.1139771044254303,
        -0.09393395483493805,
        -0.10647980868816376,
        -0.030210137367248535,
        -0.04730266332626343,
        -0.01670321822166443,
        -0.0023726075887680054,
        -0.09356772899627686,
        0.04605585336685181,
        -0.0876176655292511,
        -0.07406431436538696,
        0.0365765243768692,
        0.08402620255947113,
        -0.08872327208518982,
        0.10986874997615814,
        -0.0646989494562149,
        -0.05597701668739319,
        -0.10652489960193634,
        -0.10972268879413605,
        0.08886091411113739,
        -0.010973319411277771,
        0.08603556454181671,
        -0.027362927794456482,
        0.05856132507324219,
        -0.004127293825149536,
        0.027116894721984863,
        -0.1111072301864624,
        -0.07668694853782654,
        -0.05125659704208374,
        -0.031034544110298157,
        -0.0869114100933075,
        -0.10602809488773346,
        -0.10726585984230042,
        -0.11859889328479767,
        0.09278765320777893,
        0.10924084484577179,
        0.11049258708953857,
        0.0859096497297287,
        0.01670984923839569,
        0.051319628953933716,
        -0.12287259101867676,
        0.1066402941942215,
        -0.09902022778987885,
        0.09460455179214478,
        0.010055169463157654,
        0.052824169397354126,
        0.07765315473079681,
        0.11436432600021362,
        0.02649269998073578,
        -0.07224151492118835,
        0.03169938921928406,
        -0.118650883436203
      ],
      [
        0.031880442053079605,
        -0.019586723297834396,
        -0.06228068470954895,
        0.029809966683387756,
        -0.013711106963455677,
        -0.2349218726158142,
        -0.037280403077602386,
        0.165984109044075,
        -0.15978100895881653,
        -0.1398390680551529,
        -0.10098587721586227,
        -0.08844602108001709,
        0.16807743906974792,
        -0.3333494961261749,
        0.27207526564598083,
        0.06564632058143616,
        0.4607466459274292,
        -0.10338418185710907,
        0.01896248757839203,
        -0.010245529934763908,
        0.10895949602127075,
        -0.09287036210298538,
        0.20441502332687378,
        0.0887933000922203,
        -0.07364368438720703,
        -0.0991419330239296,
        -0.09533019363880157,
        0.005944312550127506,
        0.029650956392288208,
        0.07867680490016937,
        0.3474608063697815,
        0.036560021340847015,
        -0.04135226458311081,
        -0.21352533996105194,
        -0.028844445943832397,
        0.1149519830942154,
        -0.030955642461776733,
        -0.09014172852039337,
        -0.14198912680149078,
        0.09809593111276627,
        0.07640334963798523,
        -0.1605880856513977,
        -0.104365773499012,
        -0.10986211895942688,
        -0.09428344666957855,
        0.14545145630836487,
        0.05642934888601303,
        -0.015984417870640755,
        -0.07612628489732742,
        0.013735339045524597,
        -0.01915341056883335,
        0.029174331575632095,
        0.21128006279468536,
        -0.05697084963321686,
        -0.12905952334403992,
        -0.028419669717550278,
        -0.07448971271514893,
        -0.0769854336977005,
        0.04566129297018051,
        -0.09607308357954025,
        0.05271589756011963,
        -0.11185327917337418,
        0.24213334918022156,
        0.0738087147474289
      ],
      [
        -0.08009913563728333,
        0.11453384160995483,
        0.07960383594036102,
        0.10594107210636139,
        0.06419242918491364,
        0.10883605480194092,
        -0.08113618195056915,
