{
  "model_state_dict": {
    "embedding.weight": [
      [
        -0.7048195600509644,
        -1.6823745965957642,
        0.8206059336662292,
        1.1922024488449097
      ],
      [
        0.21438130736351013,
        0.8401439785957336,
        -0.6467940211296082,
        -0.9352349638938904
      ],
      [
        -0.0629025548696518,
        0.017408763989806175,
        0.5992583632469177,
        1.165131688117981
      ],
      [
        0.6543238162994385,
        0.2783351242542267,
        -1.014415979385376,
        0.37889641523361206
      ]
    ],
    "lstm.weight_ih_l0": [
      [
        -0.12023866921663284,
        0.08500374108552933,
        -0.06271962076425552,
        -0.1280888468027115,
        -0.06112736836075783,
        0.02325809933245182,
        0.024615798145532608,
        0.019699355587363243,
        -0.11842802166938782
      ],
      [
        -0.1110510528087616,
        0.03722637891769409,
        -0.08468898385763168,
        -0.05337698757648468,
        0.03682190179824829,
        -0.046704962849617004,
        -0.11239936947822571,
        -0.04952585697174072,
        -0.1034104973077774
      ],
      [
        0.058929964900016785,
        0.052367836236953735,
        0.08502160012722015,
        0.0034065842628479004,
        -0.03233915567398071,
        -0.0052474141120910645,
        0.023052185773849487,
        0.07339887320995331,
        0.045922428369522095
      ],
      [
        0.08579324185848236,
        -0.05925242230296135,
        -0.09719393402338028,
        0.00512591702863574,
        -0.04196633771061897,
        -0.09276185929775238,
        0.02121618203818798,
        0.08149987459182739,
        -0.09521607309579849
      ],
      [
        0.07299929857254028,
        0.058354005217552185,
        0.1196083277463913,
        0.0209084153175354,
        0.06284363567829132,
        -0.08711014688014984,
        0.10127390921115875,
        0.009529337286949158,
        0.08014094829559326
      ],
      [
        -0.027831872925162315,
        -0.026679135859012604,
        -0.02763589471578598,
        -0.049896132200956345,
        0.04909335449337959,
        -0.012901553884148598,
        -0.023609109222888947,
        0.09729132801294327,
        0.1217811182141304
      ],
      [
        -0.14974652230739594,
        -0.1382448524236679,
        0.02766684629023075,
        0.06238299608230591,
        -0.10626272112131119,
        -0.0708518996834755,
        -0.1116754561662674,
        -0.010482411831617355,
        -0.08388274163007736
      ],
      [
        -0.0005501708947122097,
        -0.03653044253587723,
        -0.004195747431367636,
        -0.15124297142028809,
        0.23163831233978271,
        -0.2423868030309677,
        0.042425885796546936,
        0.8249996304512024,
        0.6281205415725708
      ],
      [
        0.015970230102539062,
        0.10360661149024963,
        0.011483498848974705,
        -0.084500253200531,
        0.11572397500276566,
        0.07203126698732376,
        0.07644344866275787,
        0.004897003062069416,
        -0.04258723184466362
      ],
      [
        -0.1418917030096054,
        0.1072898656129837,
        -0.014398614875972271,
        0.0796603262424469,
        -0.03570780158042908,
        0.07879811525344849,
        -0.044862739741802216,
        -0.04188583791255951,
        0.19388633966445923
      ],
      [
        -0.03833413124084473,
        -0.09636128693819046,
        0.018539266660809517,
        -0.03152060508728027,
        0.07136760652065277,
        -0.12022621929645538,
        -0.029229501262307167,
        0.09024732559919357,
        0.1389007419347763
      ],
      [
        0.02948020212352276,
        0.0474579893052578,
        0.038549646735191345,
        -0.07098562270402908,
        -0.12118373066186905,
        0.06942353397607803,
        0.02419310435652733,
        -0.10379313677549362,
        0.10753919929265976
      ],
      [
        -0.011567064560949802,
        -0.05352409929037094,
        0.09298981726169586,
        0.059285249561071396,
        -0.012858986854553223,
        -0.09968271106481552,
        -0.056842707097530365,
        -0.07333413511514664,
        -0.05631450191140175
      ],
      [
        0.1480410099029541,
        -0.10801955312490463,
        0.013838606886565685,
        0.12726928293704987,
        0.2450113594532013,
        0.052880365401506424,
        -0.3642764687538147,
        0.03505178540945053,
        0.1154910996556282
      ],
      [
        -0.05929272249341011,
        -0.05827244743704796,
        -0.04080168157815933,
        -0.05208142101764679,
        -0.09455576539039612,
        0.08523072302341461,
        0.011233577504754066,
        -0.009072999469935894,
        0.022827789187431335
      ],
      [
        0.05254313349723816,
        0.016909843310713768,
        -0.10956956446170807,
        0.0816984698176384,
        -0.06668253988027573,
        -0.02487754262983799,
        0.09317892789840698,
        -0.07190436124801636,
        -0.09984263777732849
      ],
      [
        0.0706077367067337,
        0.055602360516786575,
        -0.008806025609374046,
        -0.06647006422281265,
        0.042161568999290466,
        0.011858257465064526,
        -0.11799640208482742,
        -0.0839683935046196,
        0.08145030587911606
      ],
      [
        -0.03035912849009037,
        -0.10303034633398056,
        -0.013217316009104252,
        -0.13732126355171204,
        -0.0019449027022346854,
        -0.07749643176794052,
        0.0639362707734108,
        0.02484430931508541,
        -0.07740657776594162
      ],
      [
        0.011048167943954468,
        -0.05333410203456879,
        -0.008394122123718262,
        0.09461453557014465,
        -0.06470002233982086,
        -0.039110973477363586,
        0.029126018285751343,
        0.07928405702114105,
        -0.07481351494789124
      ],
      [
        -0.10380179435014725,
        0.07917074114084244,
        0.03689442574977875,
        -0.07151737809181213,
        -0.06738930195569992,
        -0.07868321985006332,
        -0.10249391198158264,
        -0.00119861401617527,
        0.03160145878791809
      ],
      [
        0.04909895360469818,
        0.04565570503473282,
        -0.13858501613140106,
        0.130893737077713,
        1.201576828956604,
        -0.15120549499988556,
        -0.11967479437589645,
        -0.2547188699245453,
        0.09957428276538849
      ],
      [
        0.0415029376745224,
        -0.05670086666941643,
        -0.06408251076936722,
        -0.014266337268054485,
        0.6037569046020508,
        -0.18996956944465637,
        -0.6414287686347961,
        0.47516492009162903,
        1.3703413009643555
      ],
      [
        0.12044747918844223,
        -0.012471672147512436,
        -0.07486200332641602,
        0.02694125846028328,
        0.24317309260368347,
        -0.07175225764513016,
        0.264066606760025,
        -0.091432586312294,
        0.3508937656879425
      ],
      [
        0.013196319341659546,
        -0.009897887706756592,
        0.11409103870391846,
        -0.02953718602657318,
        0.11529543995857239,
        -0.013523310422897339,
        -0.06748621165752411,
        0.014478504657745361,
        -0.08120465278625488
      ],
      [
        0.08198324590921402,
        -0.09141021221876144,
        -0.023043952882289886,
        0.38822710514068604,
        0.37237876653671265,
        -0.24983391165733337,
        0.24977940320968628,
        -0.7001695036888123,
        0.5177344083786011
      ],
      [
        -0.06481155753135681,
        0.044890839606523514,
        -0.00033598748268559575,
        -0.0035105671267956495,
        0.395143985748291,
        -0.01671845279633999,
        0.028264671564102173,
        -0.447020560503006,
        -0.08613210171461105
      ],
      [
        0.022937938570976257,
        -0.11464822292327881,
        -0.09056684374809265,
        -0.06503674387931824,
        0.053602784872055054,
        -0.07967668771743774,
        0.016539692878723145,
        0.02014566957950592,
        0.11562144756317139
      ],
      [
        -0.06057165563106537,
        0.018702810630202293,
        0.04912962764501572,
        0.1217958927154541,
        0.07447241246700287,
        -0.17040562629699707,
        0.12009765952825546,
        -0.09615568071603775,
        0.21691183745861053
      ],
      [
        0.043864328414201736,
        0.07544904947280884,
        0.05553384870290756,
        0.016086921095848083,
        -0.099223792552948,
        -0.04655305668711662,
        0.059161506593227386,
        0.04710328206419945,
        0.07379523664712906
      ],
      [
        0.12170842289924622,
        -0.05510242283344269,
        0.11596980690956116,
        0.022414997220039368,
        0.025625944137573242,
        0.06656321883201599,
        0.07742658257484436,
        -0.0037765800952911377,
        -0.08413827419281006
      ],
      [
        -0.09383001923561096,
        -0.10586526244878769,
        -0.019229229539632797,
        -0.10882578790187836,
        -0.07067149132490158,
        -0.10138383507728577,
        0.08452770859003067,
        0.08190444856882095,
        -0.0013082297518849373
      ],
      [
        -0.030007705092430115,
        0.12162970006465912,
        -0.05232034623622894,
        0.08417397737503052,
        -0.010243117809295654,
        -0.06753575801849365,
        -0.03615373373031616,
        -0.003802970051765442,
        -0.08963519334793091
      ],
      [
        -0.10699009895324707,
        -0.024176394566893578,
        -0.07774364948272705,
        -0.1168479323387146,
        -0.0953347235918045,
        0.04121479392051697,
        -0.03837963938713074,
        0.11402255296707153,
        0.02229149639606476
      ],
      [
        0.08682918548583984,
        -0.0422387532889843,
        -0.06246193125844002,
        0.06785982102155685,
        0.047362975776195526,
        0.09380070865154266,
        -0.03406408056616783,
        0.08452662080526352,
        0.011332670226693153
      ],
      [
        -0.030127190053462982,
        -0.041814789175987244,
        0.0557105578482151,
        -0.05873807519674301,
        -0.24364204704761505,
        -0.01418998185545206,
        0.25551337003707886,
        0.42511865496635437,
        -0.09053080528974533
      ],
      [
        0.19272467494010925,
        -0.06154169142246246,
        0.008452433161437511,
        -0.08185238391160965,
        -0.0641508400440216,
        -0.149131640791893,
        -0.032536692917346954,
        -0.056144289672374725,
        -0.024597572162747383
      ],
      [
        -0.0540369488298893,
        0.03984455764293671,
        0.11382125318050385,
        -0.059487879276275635,
        0.38096582889556885,
        0.004932371433824301,
        0.563896894454956,
        0.2978779971599579,
        0.43032610416412354
      ],
      [
        0.058715518563985825,
        0.07256163656711578,
        -0.028439464047551155,
        0.23531824350357056,
        0.15449771285057068,
        -0.24760574102401733,
        0.0668124258518219,
        -0.1562294363975525,
        0.2668633460998535
      ],
      [
        -0.028813712298870087,
        -0.038895945996046066,
        -0.009178191423416138,
        -0.16830341517925262,
        -0.3587360978126526,
        0.046747397631406784,
        0.15249967575073242,
        -0.05923626944422722,
        -0.024180397391319275
      ],
      [
        -0.11637997627258301,
        0.1045362576842308,
        0.008052078075706959,
        -0.08247435092926025,
        0.07736864686012268,
        -0.055558107793331146,
        0.09541993588209152,
        0.016427233815193176,
        0.1069376990199089
      ],
      [
        0.0637107789516449,
        0.11274639517068863,
        -0.07619296759366989,
        0.10375397652387619,
        -0.0887267142534256,
        -0.04699130356311798,
        0.6894868016242981,
        -0.696384847164154,
        0.039810627698898315
      ],
      [
        -0.09608542919158936,
        -0.03500810265541077,
        -0.05558684468269348,
        0.06069856882095337,
        -0.11458373069763184,
        -0.09498834609985352,
        -0.08289064466953278,
        -0.05971875786781311,
        0.11024361848831177
      ],
      [
        -0.07010677456855774,
        -0.025852778926491737,
        0.09955964237451553,
        -0.09479737281799316,
        0.02491641603410244,
        -0.006961016915738583,
        0.08709441870450974,
        -0.045955490320920944,
        0.0883827656507492
      ],
      [
        0.04086102545261383,
        -0.06439061462879181,
        0.025480695068836212,
        -0.09715460240840912,
        0.03412236273288727,
        -0.10307136178016663,
        0.06217697262763977,
        -0.11475524306297302,
        -0.015742138028144836
      ],
      [
        0.05306556448340416,
        0.005387983284890652,
        0.038763951510190964,
        -0.09281733632087708,
        -0.11107528209686279,
        0.08902914822101593,
        0.08839807659387589,
        0.11791129410266876,
        -0.02268168516457081
      ],
      [
        0.06589704751968384,
        0.12083029747009277,
        -0.017706766724586487,
        0.03755292296409607,
        0.002711281180381775,
        -0.08310142159461975,
        -0.02465987205505371,
        0.03635290265083313,
        0.08243563771247864
      ],
      [
        0.12193958461284637,
        -0.0650097206234932,
        0.05056052282452583,
        -0.017397549003362656,
        -0.12978896498680115,
        0.0018322542309761047,
        -0.015582198277115822,
        -0.01027422584593296,
        0.09068110585212708
      ],
      [
        0.024122659116983414,
        0.030639102682471275,
        -0.08139883726835251,
        -0.027556011453270912,
        0.44438257813453674,
        -0.23511548340320587,
        -0.0193727295845747,
        0.44221484661102295,
        1.517234206199646
      ],
      [
        -0.12842081487178802,
        0.1397598832845688,
        0.04573478177189827,
        0.08577318489551544,
        0.2001858651638031,
        0.13976839184761047,
        0.1631150245666504,
        -0.09397879242897034,
        0.5805644989013672
      ],
      [
        -0.03886011615395546,
        0.07908202707767487,
        -0.06529652327299118,
        -0.1046697124838829,
        0.04014485701918602,
        0.12353504449129105,
        -0.027506036683917046,
        -0.06881974637508392,
        0.07390765100717545
      ],
      [
        -0.021883919835090637,
        -0.06638899445533752,
        0.04696628451347351,
        0.005995988845825195,
        0.013213351368904114,
        0.06986506283283234,
        0.02645772695541382,
        -0.02580741047859192,
        -0.010115191340446472
      ],
      [
        0.09854143112897873,
        -0.08961670100688934,
        0.026838285848498344,
        0.19481387734413147,
        0.39290663599967957,
        -0.018944622948765755,
        0.07098116725683212,
        0.08024191111326218,
        0.1403762847185135
      ],
      [
        -0.11470197886228561,
        0.08220193535089493,
        0.078964963555336,
        0.02057436853647232,
        -0.15475250780582428,
        -0.13502812385559082,
        0.0849180817604065,
        -0.0014901512768119574,
        -0.012758406810462475
      ],
      [
        -0.09580838680267334,
        0.09897855669260025,
        -0.0866577997803688,
        -0.1112886518239975,
        -0.03565961495041847,
        -0.004904376808553934,
        0.10176414251327515,
        -0.009995431639254093,
        0.011717132292687893
      ],
      [
        0.10653503239154816,
        0.005168812349438667,
        -0.07259877026081085,
        -0.43595367670059204,
        -0.4170161187648773,
        0.33117008209228516,
        -0.34273892641067505,
        0.3699030578136444,
        -0.4765926003456116
      ],
      [
        0.05700540542602539,
        0.039161115884780884,
        0.051300063729286194,
        0.08641451597213745,
        -0.0877968817949295,
        -0.1110878586769104,
        0.051463305950164795,
        0.025046974420547485,
        -0.09606651961803436
      ],
      [
        0.01879599504172802,
        0.10466764867305756,
        0.011964167468249798,
        0.07181605696678162,
        0.006356629077345133,
        0.08044719696044922,
        0.020795216783881187,
        -0.1180548220872879,
        -0.03582947328686714
      ],
      [
        0.021634042263031006,
        0.2371351420879364,
        -0.028472373262047768,
        0.14606288075447083,
        -0.528501570224762,
        0.0564231351017952,
        0.02723519690334797,
        -0.0569530613720417,
        -0.1998741179704666
      ],
      [
        0.06622916460037231,
        0.023122459650039673,
        0.06306195259094238,
        0.02341395616531372,
        0.013359621167182922,
        0.10633006691932678,
        0.12147586047649384,
        -0.10254795849323273,
        -0.10766538977622986
      ],
      [
        -0.039978887885808945,
        -0.03427507355809212,
        -0.0701398253440857,
        -0.010356320068240166,
        0.11623100936412811,
        -0.019441545009613037,
        0.10070255398750305,
        0.04443475976586342,
        0.0893966406583786
      ],
      [
        -0.03693234175443649,
        -0.09894552826881409,
        0.12004359066486359,
        -0.12177727371454239,
        -0.002195086097344756,
        -0.04198569059371948,
        0.05743962526321411,
        -0.06074625626206398,
        0.09302449971437454
      ],
      [
        0.058450255542993546,
        -0.09089598804712296,
        0.025640372186899185,
        0.007037370000034571,
        -0.004588984418660402,
        -0.13375043869018555,
        -0.07480838894844055,
        -0.16490282118320465,
        -0.06583516299724579
      ],
      [
        0.050942886620759964,
        0.08145210891962051,
        0.002666038228198886,
        0.10557518154382706,
        -0.11213794350624084,
        0.02384917251765728,
        0.08883091062307358,
        0.05242370441555977,
        -0.0967615395784378
      ],
      [
        -0.08720994740724564,
        0.12239339202642441,
        0.12376659363508224,
        0.008108004927635193,
        0.26100319623947144,
        -0.02350817434489727,
        0.3681739270687103,
        0.2039945125579834,
        0.4239899516105652
      ],
      [
        0.08572611957788467,
        -0.03868076950311661,
        -0.02203451283276081,
        0.012351537123322487,
        -0.10625650733709335,
        -0.0650767832994461,
        -0.04917418956756592,
        0.058871790766716,
        -0.012531298212707043
      ],
      [
        0.04588864743709564,
        -0.07698719203472137,
        -0.015863314270973206,
        -0.0725770890712738,
        0.10150220990180969,
        -0.0960601270198822,
        -0.059018224477767944,
        -0.06459327042102814,
        0.10182687640190125
      ],
      [
        0.08953432738780975,
        0.08365149796009064,
        -0.08512521535158157,
        0.041236426681280136,
        0.17154425382614136,
        -0.1954786479473114,
        -0.4630727469921112,
        -0.37273067235946655,
        0.27125081419944763
      ],
      [
        -0.008308439515531063,
        -0.034658681601285934,
        -0.028991052880883217,
        0.11285322159528732,
        0.0711987242102623,
        0.11013360321521759,
        -0.09714490920305252,
        -0.056599657982587814,
        0.03979743644595146
      ],
      [
        -0.002467650920152664,
        -0.039618007838726044,
        0.05669261887669563,
        -0.08091507107019424,
        -0.10244482755661011,
        -0.13317762315273285,
        -0.017777947708964348,
        -0.11518935114145279,
        -0.010648026131093502
      ],
      [
        0.08160439878702164,
        0.035611387342214584,
        -0.06612111628055573,
        0.029098933562636375,
        0.09467993676662445,
        -0.08136821538209915,
        -0.005309841129928827,
        -0.028687551617622375,
        0.07134441286325455
      ],
      [
        -0.09014193713665009,
        -0.01985493302345276,
        -0.056273624300956726,
        -0.10518407821655273,
        0.007964089512825012,
        0.006361037492752075,
        -0.03783346712589264,
        0.08958591520786285,
        -0.04075761139392853
      ],
      [
        0.11099675297737122,
        -0.10236181318759918,
        0.10558654367923737,
        0.043338656425476074,
        -0.06975574791431427,
        0.020338773727416992,
        -0.012908786535263062,
        -0.004192531108856201,
        -0.016095399856567383
      ],
      [
        0.013164075091481209,
        0.03086676076054573,
        0.05303024500608444,
        0.040889889001846313,
        -0.03674111142754555,
        0.027153678238391876,
        -0.11804039776325226,
        0.061846986413002014,
        -0.08765299618244171
      ],
      [
        -0.09610354155302048,
        0.03978775814175606,
        -0.08786693960428238,
        -0.09186474978923798,
        0.09585069119930267,
        -0.070489302277565,
        0.01728309690952301,
        -0.01627287268638611,
        -0.08891983330249786
      ],
      [
        -0.03417523205280304,
        -0.07734902203083038,
        -0.1237286925315857,
        0.10374303162097931,
        -0.07869015634059906,
        -0.060058653354644775,
        0.11047640442848206,
        -0.09446726739406586,
        -0.11214661598205566
      ],
      [
        0.09725095331668854,
        -0.13195888698101044,
        -0.09265580028295517,
        -0.2267879694700241,
        -0.19739939272403717,
        0.2536892592906952,
        -0.3694532513618469,
        -0.011661335825920105,
        -0.6943337321281433
      ],
      [
        0.01261517871171236,
        0.06336712092161179,
        -0.09890972077846527,
        0.04688279330730438,
        -0.015618343837559223,
        -0.07244060188531876,
        -0.009822609834372997,
        0.04658326134085655,
        -0.09758388251066208
      ],
      [
        -0.010868275538086891,
        -0.10252776741981506,
        0.11735497415065765,
        -0.10188650339841843,
        -0.030565904453396797,
        -0.0423649363219738,
        -0.08095278590917587,
        -0.04600527510046959,
        0.06396304816007614
      ],
      [
        -0.10062570869922638,
        -0.12090905010700226,
        -0.11600139737129211,
        -0.04162067174911499,
        0.07539790868759155,
        -0.04279927909374237,
        -0.011794030666351318,
        0.09924747049808502,
        0.08745039999485016
      ],
      [
        0.012506343424320221,
        0.06039506569504738,
        -0.09708119183778763,
        0.010327535681426525,
        0.10934317111968994,
        0.09850418567657471,
        -0.007230187766253948,
        -0.11962932348251343,
        -0.015742968767881393
      ],
      [
        -0.015713581815361977,
        -0.07201718538999557,
        0.09305746853351593,
        0.07367879897356033,
        0.005704492796212435,
        -0.050520095974206924,
        -0.1274828016757965,
        -8.807212725514546e-05,
        0.05005670711398125
      ],
      [
        -0.09825262427330017,
        0.01789391040802002,
        -0.08762876689434052,
        -0.042667850852012634,
        0.022690683603286743,
        -0.04247128963470459,
        0.0563368946313858,
        0.033823803067207336,
        0.07354636490345001
      ],
      [
        -0.10655122995376587,
        0.010483428835868835,
        0.01716873049736023,
        0.018137693405151367,
        0.04972730576992035,
        0.032672956585884094,
        0.04383102059364319,
        0.08854055404663086,
        -0.01698167622089386
      ],
      [
        0.09191163629293442,
        -0.08423013985157013,
        -0.07579325884580612,
        -0.0635865330696106,
        -0.07219860702753067,
        0.07409080862998962,
        0.11482901871204376,
        -0.048233453184366226,
        0.05067821964621544
      ],
      [
        -0.022043071687221527,
        -0.007573050446808338,
        0.029667912051081657,
        0.22023218870162964,
        0.9114694595336914,
        -0.2488435059785843,
        0.17414456605911255,
        -0.1768398880958557,
        0.46037402749061584
      ],
      [
        -0.11304768919944763,
        -0.09997083246707916,
        0.06334935128688812,
        0.2165600210428238,
        0.5414009094238281,
        -0.2662656009197235,
        0.448745459318161,
        0.1771508902311325,
        0.4844605028629303
      ],
      [
        0.06643567979335785,
        -0.031808461993932724,
        -0.03611033782362938,
        0.1542874425649643,
        0.3653416931629181,
        -0.09962379187345505,
        0.28744450211524963,
        -0.05476846545934677,
        0.5779080390930176
      ],
      [
        0.038405731320381165,
        -0.04050026834011078,
        0.12249264121055603,
        0.004486784338951111,
        0.09611280262470245,
        -0.014177098870277405,
        -0.08466008305549622,
        0.08007146418094635,
        0.020284727215766907
      ],
      [
        -0.06237788125872612,
        0.09599573910236359,
        -0.036202747374773026,
        0.12225466221570969,
        0.019492143765091896,
        -0.09839646518230438,
        0.014656499028205872,
        0.04888638108968735,
        0.0658552348613739
      ],
      [
        0.03322187066078186,
        -0.008986877277493477,
        0.05962035804986954,
        0.11259075254201889,
        0.026829898357391357,
        0.01895168051123619,
        -0.0019384874030947685,
        -0.024942932650446892,
        0.10794872045516968
      ],
      [
        0.05602507293224335,
        -0.07311218976974487,
        -0.03569351136684418,
        -0.10852925479412079,
        0.07197479903697968,
        0.07864534854888916,
        -0.10509197413921356,
        0.06199808418750763,
        0.0534757524728775
      ],
      [
        -0.1321227103471756,
        -0.001279735821299255,
        0.03083215281367302,
        0.417463093996048,
        0.41191065311431885,
        -0.34488025307655334,
        -0.21863603591918945,
        -0.35588908195495605,
        0.37739506363868713
      ],
      [
        0.12239957600831985,
        0.02248357981443405,
        -0.013173106126487255,
        0.09721425920724869,
        -0.053999416530132294,
        0.14107106626033783,
        0.05953941121697426,
        -0.005235438700765371,
        0.004880168009549379
      ],
      [
        -0.05911177769303322,
        0.05254671722650528,
        0.09127090126276016,
        0.08707917481660843,
        -0.15588615834712982,
        0.06386172026395798,
        0.3412148356437683,
        -0.322492390871048,
        -0.36219552159309387
      ],
      [
        -0.029103480279445648,
        -0.12500452995300293,
        0.024699319154024124,
        -0.11624778062105179,
        0.10639271885156631,
        -0.08075093477964401,
        0.09474019706249237,
        -0.06957869976758957,
        0.09150290489196777
      ],
      [
        0.09966839849948883,
        -0.10054890811443329,
        -0.0813530683517456,
        0.018703997135162354,
        0.048485592007637024,
        0.04499150812625885,
        0.022429317235946655,
        0.06554318964481354,
        -0.07250912487506866
      ],
      [
        -0.06553968787193298,
        0.03525061905384064,
        -0.027847975492477417,
        -0.07606011629104614,
        -0.06286238133907318,
        -0.07418695092201233,
        -0.004150897264480591,
        0.07715143263339996,
        -0.034430429339408875
      ],
      [
        0.06190015375614166,
        -0.05746723338961601,
        0.06928073614835739,
        0.03380458801984787,
        -0.06159663945436478,
        -0.0009367599850520492,
        0.05251503363251686,
        0.054919540882110596,
        0.042885154485702515
      ],
      [
        0.11066897958517075,
        -0.05100901797413826,
        -0.06923945993185043,
        -0.03207993134856224,
        -0.18816252052783966,
        0.09746170043945312,
        -0.06057116389274597,
        0.07450591772794724,
        -0.38569512963294983
      ],
      [
        -0.0065076169557869434,
        -0.007067718077450991,
        0.06856857240200043,
        -0.041275206953287125,
        0.031975846737623215,
        0.08743265271186829,
        0.0649140402674675,
        -0.06836651265621185,
        0.1310640126466751
      ],
      [
        0.00033699616324156523,
        -0.10898581147193909,
        0.11344476044178009,
        -0.040282826870679855,
        0.10717768967151642,
        -0.0710328072309494,
        -0.047998540103435516,
        0.02842593379318714,
        -0.018830381333827972
      ],
      [
        -0.08829478919506073,
        -0.033121008425951004,
        0.026949141174554825,
        -0.07218412309885025,
        -0.05130777135491371,
        0.08986648172140121,
        0.17023348808288574,
        0.06614970415830612,
        0.06685460358858109
      ],
      [
        -0.09500140696763992,
        -0.06449288129806519,
        0.05551725998520851,
        -0.1468171924352646,
        -0.004219598136842251,
        0.11914624273777008,
        -0.10081843286752701,
        -0.0028806531336158514,
        -0.15182919800281525
      ],
      [
        -0.025004521012306213,
        -0.035061612725257874,
        -0.09829694032669067,
        0.018826544284820557,
        -0.0840880274772644,
        0.05509321391582489,
        -0.05444565415382385,
        0.08042290806770325,
        0.09914427995681763
      ],
      [
        0.11515294015407562,
        -0.11325061321258545,
        0.1019941121339798,
        -0.03790661692619324,
        -0.07712031900882721,
        -0.11256179213523865,
        0.06861688196659088,
        -0.0513128787279129,
        -0.062054455280303955
      ],
      [
        0.045925259590148926,
        0.008298248052597046,
        0.043406546115875244,
        0.11898323893547058,
        0.05555008351802826,
        -0.06490963697433472,
        -0.06281912326812744,
        0.08553606271743774,
        0.00830051302909851
      ],
      [
        -0.05391862988471985,
        0.048978179693222046,
        -0.07557225227355957,
        -0.04558323323726654,
        -0.11627225577831268,
        0.11792416870594025,
        -0.10666051506996155,
        -0.04556025564670563,
        0.02781069278717041
      ],
      [
        0.05327285826206207,
        0.03879353404045105,
        0.1065165102481842,
        -0.12210483849048615,
        -0.08651350438594818,
        -0.013615041971206665,
        0.001626327633857727,
        -0.03764429688453674,
        0.0003501325845718384
      ],
      [
        -0.0940229669213295,
        -0.03443356975913048,
        -0.02523661032319069,
        -0.034108858555555344,
        0.09783999621868134,
        -0.09749214351177216,
        -0.10302441567182541,
        -0.06264301389455795,
        0.07582288980484009
      ],
      [
        0.016872107982635498,
        -0.12272664904594421,
        -0.07404877245426178,
        -0.10269057750701904,
        0.07798448204994202,
        0.08248871564865112,
        -0.007654204964637756,
        -0.054783254861831665,
        0.028166964650154114
      ],
      [
        -0.12248779833316803,
        -0.06260975450277328,
        0.04831527918577194,
        -0.2902120053768158,
        -0.482186883687973,
        0.12103047221899033,
        -0.04191392660140991,
        0.4558590352535248,
        -0.28677231073379517
      ],
      [
        -0.06589289009571075,
        0.06312184780836105,
        -0.07945527136325836,
        -0.11733198165893555,
        -0.08408527076244354,
        -0.12167251855134964,
        0.10677602887153625,
        -0.03361358866095543,
        0.0042271302081644535
      ],
      [
        0.11876198649406433,
        0.07434853911399841,
        -0.040347106754779816,
        0.063243567943573,
        0.12477385997772217,
        0.0451531708240509,
        0.010443154722452164,
        -0.19684584438800812,
        0.3275291621685028
      ],
      [
        -0.013955710455775261,
        0.030539495870471,
        -0.03835849463939667,
        0.0631154254078865,
        0.049472760409116745,
        -0.09624417126178741,
        0.1218276172876358,
        0.037111978977918625,
        0.040039800107479095
      ],
      [
        -0.08974510431289673,
        -0.027628570795059204,
        0.10714976489543915,
        -0.03969240188598633,
        0.05127561092376709,
        -0.0012387186288833618,
        -0.1102088987827301,
        0.02020345628261566,
        0.07478156685829163
      ],
      [
        0.10076527297496796,
        -0.059141743928194046,
        -0.022242605686187744,
        -0.1246713399887085,
        -0.14866876602172852,
        0.1621270775794983,
        0.2759535610675812,
        0.1697055697441101,
        -0.12461544573307037
      ],
      [
        0.1214393675327301,
        0.0960405021905899,
        0.1104409247636795,
        -0.04111132025718689,
        -0.005151316523551941,
        0.05347663164138794,
        0.00010529160499572754,
        0.0889827311038971,
        -0.1139502227306366
      ],
      [
        0.02835284173488617,
        0.12462525069713593,
        0.03216002881526947,
        -0.04318048059940338,
        0.010331690311431885,
        -0.062227994203567505,
        0.093621626496315,
        -0.10449467599391937,
        -0.04654058814048767
      ],
      [
        0.025248026475310326,
        0.004437591880559921,
        -0.0487041100859642,
        -0.32242128252983093,
        -0.5466859340667725,
        0.35983413457870483,
        -0.18902239203453064,
        0.17876651883125305,
        -1.0718986988067627
      ],
      [
        -0.10466200113296509,
        -0.03302794694900513,
        -0.020107373595237732,
        -0.06285341084003448,
        0.03735987842082977,
        0.1239892840385437,
        0.07061618566513062,
        0.10240526497364044,
        -0.05118809640407562
      ],
      [
        -0.005051851272583008,
        0.08252164721488953,
        0.1239500492811203,
        -0.05239465832710266,
        -0.11066508293151855,
        0.025371238589286804,
        -0.01725667715072632,
        0.022512659430503845,
        0.040495529770851135
      ],
      [
        0.04337940365076065,
        -0.05149811878800392,
        0.040555451065301895,
        0.15431378781795502,
        0.09235984832048416,
        -0.21865622699260712,
        -0.3206522762775421,
        -0.08450998365879059,
        -0.13803990185260773
      ],
      [
        -0.10766583681106567,
        -0.004585757851600647,
        -0.04586052894592285,
        0.02880193293094635,
        -0.12055614590644836,
        -0.07869449257850647,
        0.053737789392471313,
        -0.053194597363471985,
        -0.09963135421276093
      ],
      [
        0.04931315779685974,
        0.10069040954113007,
        0.03871721029281616,
        0.11088141798973083,
        -0.0720461755990982,
        0.10382446646690369,
        -0.03426624834537506,
        -0.015203148126602173,
        0.055892184376716614
      ],
      [
        0.010921578854322433,
        -0.12996909022331238,
        -0.0064547099173069,
        0.0003057429566979408,
        -0.04127325117588043,
        0.08720371127128601,
        -0.06503312289714813,
        -0.10384375602006912,
        0.11469355970621109
      ],
      [
        -0.013253483921289444,
        -0.13539880514144897,
        0.10436039417982101,
        0.4393984377384186,
        0.24320170283317566,
        -0.3634384870529175,
        0.01986471191048622,
        -0.2839454114437103,
        0.6298308372497559
      ],
      [
        0.0549326092004776,
        -0.09175721555948257,
        0.0026583753060549498,
        -0.12485288828611374,
        -0.3377936780452728,
        0.18239092826843262,
        0.18226657807826996,
        0.33291095495224,
        -0.11916691064834595
      ],
      [
        0.1255026012659073,
        -0.06996524333953857,
        0.026835309341549873,
        -0.027528518810868263,
        -0.09176426380872726,
        0.059701498597860336,
        0.17072738707065582,
        -0.005638427101075649,
        0.031174201518297195
      ],
      [
        -0.04016352817416191,
        0.026206085458397865,
        0.03413158282637596,
        0.05210297927260399,
        -0.08788710087537766,
        -0.04151212424039841,
        -0.000529778131749481,
        -0.02678428776562214,
        0.054065730422735214
      ],
      [
        0.047242894768714905,
        0.023510858416557312,
        0.04976792633533478,
        0.09733301401138306,
        0.03262987732887268,
        0.002231284976005554,
        -0.03245380520820618,
        -0.08309882879257202,
        0.024879664182662964
      ],
      [
        -0.0966755598783493,
        0.03820421174168587,
        0.03836048021912575,
        -0.14495477080345154,
        -0.3528114855289459,
        0.12691576778888702,
        0.07351824641227722,
        0.30836978554725647,
        -0.40715259313583374
      ],
      [
        0.03882218897342682,
        0.05360855162143707,
        0.09432882070541382,
        0.0522935688495636,
        0.11861610412597656,
        -0.046303704380989075,
        0.015386104583740234,
        -0.04477132856845856,
        -0.019283637404441833
      ],
      [
        -0.10430790483951569,
        -0.010499447584152222,
        -0.11078621447086334,
        0.05159124732017517,
        -0.025224804878234863,
        0.049667537212371826,
        0.11307181417942047,
        -0.04456283152103424,
        0.10098922252655029
      ],
      [
        0.07251541316509247,
        0.04900497570633888,
        -0.036101702600717545,
        -0.03637835010886192,
        -0.11557701975107193,
        0.08413340896368027,
        -0.060097288340330124,
        -0.020933087915182114,
        0.08593890815973282
      ],
      [
        0.14659816026687622,
        0.05145862326025963,
        0.018552016466856003,
        -0.08443667739629745,
        -0.07604552805423737,
        0.11864395439624786,
        0.12021404504776001,
        -0.051551830023527145,
        0.028113555163145065
      ],
      [
        0.033711884170770645,
        0.1520298719406128,
        -0.09660392999649048,
        -0.07219729572534561,
        -0.3738817274570465,
        0.0034363223239779472,
        -0.4994175136089325,
        -0.24850772321224213,
        -0.22717683017253876
      ],
      [
        -0.0914001539349556,
        0.07518774271011353,
        0.06450913101434708,
        -0.027994416654109955,
        0.21611687541007996,
        0.1329297125339508,
        0.277301162481308,
        -0.13585370779037476,
        0.519837498664856
      ],
      [
        -0.031690821051597595,
        -0.0007093995809555054,
        -0.09664390981197357,
        0.03761559724807739,
        -0.12139977514743805,
        -0.10535222291946411,
        -0.07873068749904633,
        0.02521708607673645,
        -0.01966787874698639
      ],
      [
        -0.0050583332777023315,
        -0.05753064155578613,
        0.07940547168254852,
        -0.07053826749324799,
        0.017280802130699158,
        0.05110098421573639,
        -0.05557519197463989,
        -0.07143965363502502,
        -0.0770498663187027
      ],
      [
        0.029548920691013336,
        -0.010374126024544239,
        0.03615864738821983,
        -0.04020177200436592,
        -0.023632928729057312,
        -0.00633245101198554,
        -0.08599311113357544,
        -0.01002794224768877,
        0.04919899255037308
      ],
      [
        0.05280470848083496,
        0.044272422790527344,
        0.08845719695091248,
        0.013774052262306213,
        -0.059992268681526184,
        -0.12254583835601807,
        -0.11360377073287964,
        -0.11195589601993561,
        0.09989455342292786
      ],
      [
        0.0777791440486908,
        -0.09646742790937424,
        -0.03029138781130314,
        -0.015327083878219128,
        -0.3914808928966522,
        0.09015175700187683,
        0.3805549442768097,
        -0.18112227320671082,
        -0.42324820160865784
      ],
      [
        0.038503438234329224,
        -0.0833006203174591,
        -0.09774872660636902,
        -0.09371207654476166,
        0.00833253562450409,
        0.11894229054450989,
        -0.0669616162776947,
        -0.12073798477649689,
        -0.06848932802677155
      ],
      [
        0.046249136328697205,
        0.052756041288375854,
        0.0590093731880188,
        0.07921525835990906,
        -0.009380102157592773,
        -0.0013267546892166138,
        0.032630786299705505,
        0.013323262333869934,
        -0.0738077461719513
      ],
      [
        0.10593986511230469,
        -0.080937460064888,
        0.12273411452770233,
        -0.006583988666534424,
        0.07018652558326721,
        0.11532136797904968,
        0.053690239787101746,
        0.013572096824645996,
        0.09105478227138519
      ],
      [
        -0.01755954883992672,
        -0.0900341123342514,
        -0.022501004859805107,
        -0.06209529936313629,
        -0.00918632559478283,
        -0.10408806800842285,
        -0.004584398120641708,
        0.06848479062318802,
        -0.11968086659908295
      ],
      [
        0.024176329374313354,
        -0.0648547112941742,
        0.04748526215553284,
        -0.059132322669029236,
        -0.05974709987640381,
        0.0637151449918747,
        -0.05712634325027466,
        0.07622142136096954,
        -0.03817276656627655
      ],
      [
        -0.04306700825691223,
        0.10800604522228241,
        0.007534356322139502,
        -0.09811727702617645,
        0.09918029606342316,
        -0.09474604576826096,
        0.006713268347084522,
        -0.13026519119739532,
        -0.024750374257564545
      ],
      [
        0.0006701350212097168,
        -0.10772417485713959,
        -0.08613520860671997,
        -0.10406486690044403,
        -0.016101747751235962,
        0.09301675856113434,
        -0.021534204483032227,
        0.04950694739818573,
        -0.02311776578426361
      ],
      [
        0.028185665607452393,
        0.10409098863601685,
        0.09464719891548157,
        0.006678491830825806,
        0.12193052470684052,
        0.09513421356678009,
        0.08786466717720032,
        0.09486161172389984,
        -0.013349607586860657
      ],
      [
        -0.06953603774309158,
        0.0426546186208725,
        0.017163485288619995,
        -0.0630682036280632,
        -0.03305485099554062,
        0.0007822393672540784,
        -0.13187839090824127,
        -0.02904423139989376,
        -0.1056659072637558
      ],
      [
        0.10101421922445297,
        -0.10532794892787933,
        0.05854889377951622,
        -0.025648482143878937,
        -0.12215297669172287,
        0.020427808165550232,
        0.1025388091802597,
        -0.007936675101518631,
        -0.011841959320008755
      ],
      [
        -0.1168946921825409,
        0.15640029311180115,
        0.09653689712285995,
        0.18641866743564606,
        0.1555609554052353,
        -0.09237734228372574,
        0.013873725198209286,
        0.021874092519283295,
        0.5938295722007751
      ],
      [
        0.027776077389717102,
        -0.024044618010520935,
        0.08192984759807587,
        -0.1027335375547409,
        -0.055771127343177795,
        -0.06737273931503296,
        -0.065082848072052,
        -0.03542788326740265,
        -0.1108531802892685
      ],
      [
        -0.11975471675395966,
        -0.053994566202163696,
        0.10618574917316437,
        0.018150925636291504,
        -0.009797900915145874,
        -0.04839561879634857,
        0.02529078722000122,
        -0.070127472281456,
        -0.00577351450920105
      ],
      [
        -0.025731654837727547,
        0.10601451992988586,
        0.0819379985332489,
        -0.061114102602005005,
        -0.09396710991859436,
        0.10206125676631927,
        -0.029929548501968384,
        0.05339215695858002,
        0.0634969025850296
      ],
      [
        -0.059568554162979126,
        -0.055386483669281006,
        0.10825353860855103,
        -0.057233698666095734,
        0.25750094652175903,
        -0.13977350294589996,
        -0.3720353841781616,
        0.16964782774448395,
        0.3642497658729553
      ],
      [
        0.03789225593209267,
        -0.04697609320282936,
        -0.08603876084089279,
        0.0468972884118557,
        0.12029986083507538,
        -0.04400968179106712,
        -0.06237439811229706,
        0.44743114709854126,
        0.6629670262336731
      ],
      [
        0.10529699921607971,
        -0.08280797302722931,
        0.06669089198112488,
        0.10976335406303406,
        -0.0026472508907318115,
        -0.017765715718269348,
        0.021540716290473938,
        0.052132219076156616,
        0.08107824623584747
      ],
      [
        -0.049107626080513,
        -0.08941672742366791,
        -0.10978241264820099,
        0.017374485731124878,
        -0.06986638903617859,
        0.03800307214260101,
        -0.04077623784542084,
        0.0330130010843277,
        -0.056490227580070496
      ],
      [
        -0.011902883648872375,
        0.11926545202732086,
        0.051664799451828,
        -0.0752071887254715,
        0.013942807912826538,
        0.04581807553768158,
        -0.011615261435508728,
        0.058786824345588684,
        -0.0711214691400528
      ],
      [
        -0.003622382879257202,
        -0.0902055948972702,
        0.09384974837303162,
        0.11744038760662079,
        0.013410285115242004,
        0.04446883499622345,
        0.05440753698348999,
        -0.1216394454240799,
        0.09975367784500122
      ],
      [
        -0.011750355362892151,
        0.05334240198135376,
        -0.10559134185314178,
        0.11980405449867249,
        -0.11799618601799011,
        0.0245647132396698,
        0.041918277740478516,
        0.03569020330905914,
        -0.06850273907184601
      ],
      [
        0.08115243911743164,
        -0.06888420879840851,
        0.055452316999435425,
        -0.03702464699745178,
        -0.02314363420009613,
        0.11330832540988922,
        0.08263692259788513,
        -0.06774066388607025,
        0.07427000999450684
      ],
      [
        -0.0695626437664032,
        -0.10024480521678925,
        -0.052522823214530945,
        0.024615272879600525,
        0.11248515546321869,
        0.010336190462112427,
        0.057999610900878906,
        -0.034359753131866455,
        -0.10217811167240143
      ],
      [
        0.04796140640974045,
        0.020106105133891106,
        -0.08873438090085983,
        -0.09616124629974365,
        -0.09253429621458054,
        0.14023223519325256,
        0.17416638135910034,
        -0.21908362209796906,
        -0.8112998604774475
      ],
      [
        0.03504176810383797,
        0.014049925841391087,
        -0.1511148363351822,
        0.03853316605091095,
        -0.06656685471534729,
        -0.06858516484498978,
        -0.05732065066695213,
        0.020381683483719826,
        -0.034654125571250916
      ],
      [
        0.03839249908924103,
        0.014413745142519474,
        -0.0010200344258919358,
        0.11326112598180771,
        0.06556583195924759,
        -0.039576154202222824,
        -0.024749698117375374,
        0.07380018383264542,
        0.0940357893705368
      ],
      [
        0.05606205761432648,
        -0.10831888020038605,
        0.06209225952625275,
        0.0682075247168541,
        -0.023851100355386734,
        0.02236833982169628,
        -0.04378379136323929,
        0.11683090031147003,
        -0.057223740965127945
      ],
      [
        -0.10409583151340485,
        -0.04732412099838257,
        -0.00016817450523376465,
        -0.04853926599025726,
        0.00045627355575561523,
        0.06462869048118591,
        0.05305904150009155,
        0.01882167160511017,
        -0.026177987456321716
      ],
      [
        0.019498413428664207,
        -0.02631770633161068,
        0.009744332171976566,
        0.09925290942192078,
        0.06144891679286957,
        -0.087249256670475,
        0.049929920583963394,
        -0.09288538992404938,
        0.014889023266732693
      ],
      [
        -0.12148679792881012,
        -0.0457087904214859,
        -0.0470486581325531,
        -0.11285226047039032,
        -0.10456264019012451,
        -0.014714643359184265,
        0.015745535492897034,
        -0.07757018506526947,
        0.00048100948333740234
      ],
      [
        -0.009288966655731201,
        0.029385864734649658,
        -0.0844842940568924,
        -0.01331205666065216,
        -0.041511744260787964,
        -0.002892225980758667,
        0.05964067578315735,
        -0.022655993700027466,
        -0.10138791799545288
      ],
      [
        0.03194873034954071,
        -0.061473652720451355,
        -0.10761052370071411,
        0.09598423540592194,
        0.04818461835384369,
        -0.08273731172084808,
        -0.07364821434020996,
        0.09119708836078644,
        -0.09686438739299774
      ],
      [
        -0.10629935562610626,
        0.06508296728134155,
        -0.1126788854598999,
        -0.12350577116012573,
        -0.0472276508808136,
        0.10110585391521454,
        0.0322541743516922,
        -0.12321698665618896,
        0.043671801686286926
      ],
      [
        -0.07150186598300934,
        0.028604602441191673,
        -0.019937768578529358,
        0.11569217592477798,
        0.024974772706627846,
        0.09826953709125519,
        -0.10305982828140259,
        -0.05602294206619263,
        -0.024707259610295296
      ],
      [
        0.028168171644210815,
        -0.020511910319328308,
        -0.11524611711502075,
        0.013550996780395508,
        0.06778134405612946,
        0.010265588760375977,
        0.03797820210456848,
        -0.045199617743492126,
        0.05581015348434448
      ],
      [
        -0.052176497876644135,
        0.029072759672999382,
        -0.010018187575042248,
        0.03524652495980263,
        0.06991267949342728,
        0.07728567719459534,
        0.043954335153102875,
        -0.08745013922452927,
        0.10977285355329514
      ],
      [
        0.07279296219348907,
        -0.11079062521457672,
        -0.03775106370449066,
        0.04904778301715851,
        -0.09740519523620605,
        0.01673857867717743,
        0.05403850972652435,
        -0.024166598916053772,
        0.034573957324028015
      ],
      [
        -0.13066856563091278,
        -0.14498202502727509,
        0.09419450908899307,
        0.1536303162574768,
        0.08956822007894516,
        -0.02313361130654812,
        -0.04835040494799614,
        -0.22893796861171722,
        0.18217983841896057
      ],
      [
        -0.053931307047605515,
        0.07199650257825851,
        0.029333043843507767,
        0.07334987074136734,
        -0.07237013429403305,
        -0.07732566446065903,
        -0.011567993089556694,
        0.008624354377388954,
        0.1836419552564621
      ],
      [
        -0.10870002210140228,
        0.0842888206243515,
        -0.11877135932445526,
        0.02734929323196411,
        0.11835536360740662,
        -0.04090709984302521,
        -0.11951935291290283,
        0.08225807547569275,
        0.04632246494293213
      ],
      [
        -0.055578842759132385,
        -0.06875206530094147,
        -0.06900593638420105,
        0.1010892242193222,
        0.0865301787853241,
        -0.039397090673446655,
        0.10698847472667694,
        0.0597081184387207,
        -0.08444073796272278
      ],
      [
        0.05096428096294403,
        -0.08161117136478424,
        -0.061379626393318176,
        -0.02733471989631653,
        0.0011822879314422607,
        0.08458943665027618,
        -0.06280361115932465,
        -0.03026120364665985,
        0.04435324668884277
      ],
      [
        -0.09288622438907623,
        0.02047722414135933,
        0.08254475891590118,
        0.07448703795671463,
        -0.01324539352208376,
        -0.09096701443195343,
        0.13341747224330902,
        -0.2884240448474884,
        -0.42222824692726135
      ],
      [
        0.08119599521160126,
        0.024333275854587555,
        -0.12419073283672333,
        -0.009116987697780132,
        0.3330930769443512,
        0.06372411549091339,
        -0.6536246538162231,
        0.16490298509597778,
        0.6376822590827942
      ],
      [
        -0.032292917370796204,
        0.012912631034851074,
        0.038140371441841125,
        0.07138587534427643,
        0.07709060609340668,
        -0.08972978591918945,
        0.006244733929634094,
        0.11442537605762482,
        -0.09060171246528625
      ],
      [
        0.013741430826485157,
        -0.09045099467039108,
        0.025355981662869453,
        0.083805151283741,
        -0.0623541995882988,
        -0.0535881370306015,
        -0.06598296016454697,
        -0.0024893584195524454,
        0.00362595496699214
      ],
      [
        0.005505419801920652,
        0.10720748454332352,
        -0.06162162497639656,
        0.08189717680215836,
        -0.05844005197286606,
        -0.01868715137243271,
        -0.06104467809200287,
        0.0819849744439125,
        -0.048979710787534714
      ],
      [
        -0.13231846690177917,
        -0.017851971089839935,
        -0.027559690177440643,
        -0.1003432497382164,
        -0.08656442910432816,
        0.036066483706235886,
        -0.09325924515724182,
        -0.0591137520968914,
        0.11231895536184311
      ],
      [
        0.06529270112514496,
        0.027721241116523743,
        0.03757841885089874,
        -0.013800099492073059,
        0.040461719036102295,
        0.004700616002082825,
        -0.11258488893508911,
        -0.10615904629230499,
        -0.09850728511810303
      ],
      [
        0.10739557445049286,
        0.10972503572702408,
        0.007261987775564194,
        -0.11076287180185318,
        0.06103242188692093,
        0.012279363349080086,
        -0.03190431743860245,
        -0.06656865775585175,
        -0.017345186322927475
      ],
      [
        0.010989166796207428,
        0.008352082222700119,
        -0.11910746246576309,
        0.029388217255473137,
        -0.04356389120221138,
        -0.00867239199578762,
        -0.10846393555402756,
        0.07287861406803131,
        -0.032391294836997986
      ],
      [
        -0.09187665581703186,
        -0.0536983460187912,
        0.006416325457394123,
        0.04290872812271118,
        -0.059912875294685364,
        0.06371544301509857,
        0.052966490387916565,
        -0.09695829451084137,
        0.04714898765087128
      ],
      [
        -0.012236285954713821,
        -0.09498859196901321,
        0.11274923384189606,
        0.0014689009403809905,
        -0.0009608269319869578,
        -0.1362786442041397,
        0.03284451365470886,
        -0.12785658240318298,
        -0.06996381282806396
      ],
      [
        -0.10226959735155106,
        0.037889763712882996,
        0.05763754993677139,
        0.017770282924175262,
        -0.06835345178842545,
        0.12433824688196182,
        -0.072453573346138,
        0.009684938937425613,
        0.06561202555894852
      ],
      [
        0.01436857134103775,
        -0.08996276557445526,
        0.07369131594896317,
        0.06639987230300903,
        0.07446014136075974,
        0.05036523565649986,
        0.12408014386892319,
        -0.1655711978673935,
        0.1118326336145401
      ],
      [
        -0.07208070904016495,
        -0.1455388069152832,
        0.07291250675916672,
        0.04671446233987808,
        -0.09070348739624023,
        -0.10131329298019409,
        -0.06216902285814285,
        -0.008112662471830845,
        -0.05149442330002785
      ],
      [
        -0.13060292601585388,
        -0.0135233448818326,
        -0.038711611181497574,
        -0.10620257258415222,
        -0.005933545064181089,
        -0.10106071829795837,
        -0.12455512583255768,
        0.08332137018442154,
        0.05442074313759804
      ],
      [
        0.053969744592905045,
        0.0467212051153183,
        -0.06450635939836502,
        0.30340173840522766,
        0.48167696595191956,
        -0.13395576179027557,
        -0.018356651067733765,
        -0.08638428896665573,
        0.5276380777359009
      ],
      [
        0.10314644873142242,
        0.01943962275981903,
        0.07118856906890869,
        0.10412335395812988,
        0.031038537621498108,
        0.10330602526664734,
        -0.0680563747882843,
        -0.11329434812068939,
        0.03717489540576935
      ],
      [
        0.02375096082687378,
        -0.09252877533435822,
        0.1111689954996109,
        -0.11189301311969757,
        0.029255136847496033,
        0.048530131578445435,
        -0.02513931691646576,
        0.11545595526695251,
        0.09762203693389893
      ],
      [
        0.0025568008422851562,
        0.11787790060043335,
        0.10590359568595886,
        -0.09477230906486511,
        0.09115658700466156,
        -0.0032717138528823853,
        -0.08189845085144043,
        -0.07813173532485962,
        0.12142322957515717
      ],
      [
        -0.054276712238788605,
        -0.04004734754562378,
        0.10028139501810074,
        -0.15231813490390778,
        -0.20603303611278534,
        0.04063240811228752,
        0.30100017786026,
        -0.23963779211044312,
        -0.9360359311103821
      ],
      [
        -0.11836221069097519,
        -0.04039878025650978,
        0.10427804291248322,
        0.2159317433834076,
        0.05624936521053314,
        -0.012574797496199608,
        -0.10032717138528824,
        -0.4443288743495941,
        0.29792019724845886
      ],
      [
        -0.04288176819682121,
        -0.03152358531951904,
        0.07816008478403091,
        -0.01293892040848732,
        -0.19354359805583954,
        0.1746545433998108,
        0.7019287347793579,
        -0.1573827564716339,
        -1.178954839706421
      ],
      [
        0.12172874808311462,
        -0.0686664879322052,
        0.08203868567943573,
        -0.11243554949760437,
        0.08232693374156952,
        0.09929914772510529,
        0.043121710419654846,
        -0.029490187764167786,
        0.10337714850902557
      ],
      [
        0.005696852691471577,
        -0.0915488675236702,
        -0.08041287958621979,
        -0.07727779448032379,
        0.014957966282963753,
        -0.004459827207028866,
        -0.055210210382938385,
        -0.1007290631532669,
        -0.011354072950780392
      ],
      [
        0.04102690890431404,
        -0.05601700767874718,
        0.0159585140645504,
        0.2040036916732788,
        0.1847882866859436,
        -0.06203187257051468,
        0.005700194276869297,
        -0.3344815969467163,
        0.25619155168533325
      ],
      [
        -0.0017354637384414673,
        -0.04459013044834137,
        0.09284965693950653,
        0.03880538046360016,
        -0.09608608484268188,
        -0.007636338472366333,
        0.05554802715778351,
        0.03179463744163513,
        -0.07355359196662903
      ],
      [
        -0.10824152827262878,
        0.01801307499408722,
        -0.0941382646560669,
        -0.0553864985704422,
        0.09093847870826721,
        0.019777849316596985,
        -0.019024521112442017,
        -0.09464724361896515,
        0.12317921221256256
      ],
      [
        -0.003074508858844638,
        0.08263129740953445,
        -0.05473894253373146,
        -0.10803236067295074,
        -0.10233841091394424,
        -0.007624246645718813,
        0.004089135676622391,
        -0.01957673393189907,
        0.014529471285641193
      ],
      [
        -0.07802875339984894,
        -0.06196186691522598,
        0.11014337092638016,
        0.14727245271205902,
        0.11882654577493668,
        -0.08454186469316483,
        -0.06623336672782898,
        -0.08365893363952637,
        -0.01017727516591549
      ],
      [
        0.08607001602649689,
        0.09489298611879349,
        0.036456964910030365,
        0.09772851318120956,
        -0.07957068085670471,
        -0.06519826501607895,
        -0.043600402772426605,
        0.07781841605901718,
        -0.028588028624653816
      ],
      [
        0.08622907102108002,
        -0.14359882473945618,
        -0.018618933856487274,
        0.34513869881629944,
        0.5745311379432678,
        -0.25566527247428894,
        -0.23656128346920013,
        -0.4230322539806366,
        0.4794806241989136
      ],
      [
        -0.07556498050689697,
        0.08619317412376404,
        0.059784162789583206,
        -0.14499349892139435,
        -0.3860762417316437,
        0.1344645619392395,
        -0.2655690014362335,
        -0.09953440725803375,
        -0.6916298270225525
      ],
      [
        0.05044526606798172,
        -0.007653543259948492,
        0.04310106486082077,
        -0.03964423015713692,
        0.03559878095984459,
        -0.12814877927303314,
        0.018402278423309326,
        -0.07526146620512009,
        0.03486417233943939
      ],
      [
        -0.14048853516578674,
        0.11337008327245712,
        0.0989900603890419,
        -0.019651642069220543,
        0.32426807284355164,
        -0.061075326055288315,
        0.16383890807628632,
        -0.04196932166814804,
        0.40808168053627014
      ],
      [
        -0.06948487460613251,
        -0.12229254841804504,
        -0.07424600422382355,
        0.11793135106563568,
        0.06107577681541443,
        -0.07334163784980774,
        -0.09950736165046692,
        -0.08853106200695038,
        -0.03540325164794922
      ],
      [
        -0.08690506219863892,
        -0.0758248046040535,
        0.052242767065763474,
        0.48825618624687195,
        0.7789692878723145,
        -0.4290768504142761,
        0.0957515761256218,
        -0.4376693069934845,
        0.7327446937561035
      ],
      [
        0.05233433470129967,
        -0.050723642110824585,
        -0.02526378631591797,
        -0.025059981271624565,
        0.04809163138270378,
        0.08009705692529678,
        0.0363151915371418,
        -0.18316009640693665,
        0.15742431581020355
      ],
      [
        0.06164267659187317,
        -0.01365327462553978,
        -0.02028070017695427,
        -0.17195193469524384,
        -0.179404616355896,
        0.05876091867685318,
        0.0745413601398468,
        0.5037477612495422,
        -0.25767141580581665
      ],
      [
        0.06803129613399506,
        0.02616632729768753,
        -0.00923627894371748,
        -0.11494218558073044,
        -0.007544802967458963,
        -0.05447831377387047,
        -0.0009537620353512466,
        0.10320741683244705,
        0.10109540075063705
      ],
      [
        -0.10497398674488068,
        -0.03541421890258789,
        -0.1178770512342453,
        -0.1187378317117691,
        -0.038439810276031494,
        -0.01583661139011383,
        0.011188879609107971,
        -0.008100703358650208,
        0.04177117347717285
      ],
      [
        0.09082111716270447,
        -0.06292963027954102,
        0.10709051787853241,
        0.05096767842769623,
        -0.05191774666309357,
        -0.016865849494934082,
        -0.10178734362125397,
        -0.10909508168697357,
        -0.12112224102020264
      ],
      [
        -0.010638010688126087,
        -0.07975522428750992,
        -0.011173008009791374,
        -0.091881163418293,
        0.08089613169431686,
        -0.03406863659620285,
        0.09981808066368103,
        0.14229749143123627,
        -0.00900682806968689
      ],
      [
        -0.046290989965200424,
        -0.1035674512386322,
        0.061449695378541946,
        -0.29318466782569885,
        -0.5444366931915283,
        0.3857593536376953,
        0.23258577287197113,
        -0.16083869338035583,
        -0.46296975016593933
      ],
      [
        0.09967615455389023,
        -0.029282914474606514,
        0.06793244183063507,
        0.12411190569400787,
        0.12226516008377075,
        -0.06975107640028,
        0.08261118829250336,
        -0.015522421337664127,
        0.11981004476547241
      ],
      [
        0.01318146288394928,
        0.045145243406295776,
        0.11912830173969269,
        -0.09059005975723267,
        -0.024980664253234863,
        -0.09951286017894745,
        0.041786715388298035,
        0.07923287153244019,
        -0.10608555376529694
      ],
      [
        0.06748814880847931,
        -0.021753370761871338,
        0.0818951427936554,
        0.07652683556079865,
        -0.0383220911026001,
        -0.11495919525623322,
        -0.08956052362918854,
        -0.013790920376777649,
        0.07204234600067139
      ],
      [
        0.07203851640224457,
        0.09201894700527191,
        0.10235057771205902,
        0.12026257812976837,
        0.09717243909835815,
        0.028134867548942566,
        0.12229087948799133,
        -0.026359573006629944,
        0.06682458519935608
      ],
      [
        0.0934065654873848,
        0.05734095722436905,
        -0.08600053191184998,
        0.10057943314313889,
        -0.026997804641723633,
        0.1096528023481369,
        -0.12516257166862488,
        -0.0762031152844429,
        0.02624351531267166
      ],
      [
        0.0023490488529205322,
        0.10585689544677734,
        0.08860450983047485,
        -0.08562134206295013,
        -0.06207968294620514,
        0.04333558678627014,
        0.08471821248531342,
        0.03104311227798462,
        0.12141601741313934
      ],
      [
        -0.005198478698730469,
        -0.039702385663986206,
        -0.03212328255176544,
        0.05866685509681702,
        0.1164691299200058,
        0.06603790819644928,
        0.1086498498916626,
        -0.10196496546268463,
        0.11548097431659698
      ],
      [
        0.061437420547008514,
        0.02868344448506832,
        -0.12664775550365448,
        -0.041477832943201065,
        -0.09449668973684311,
        0.059155311435461044,
        -0.024572696536779404,
        0.1486244648694992,
        -0.01233291532844305
      ],
      [
        -0.11150429397821426,
        -0.06253791600465775,
        -0.047600556164979935,
        0.017476676031947136,
        -0.07165923714637756,
        -0.0853184387087822,
        0.05594290792942047,
        -0.07229096442461014,
        0.07666728645563126
      ],
      [
        0.00774427829310298,
        -0.0839705765247345,
        0.08277933299541473,
        0.07398074865341187,
        0.11401280760765076,
        0.04710344970226288,
        0.04996350407600403,
        -0.12252777814865112,
        0.10946472734212875
      ],
      [
        -0.027799764648079872,
        0.037343259900808334,
        -0.09442852437496185,
        -0.12086406350135803,
        -0.10559888184070587,
        0.008467674255371094,
        0.06576190888881683,
        0.08035099506378174,
        -0.08230556547641754
      ],
      [
        0.0005652572144754231,
        0.0009432882070541382,
        0.0026546192821115255,
        -0.1913868486881256,
        -0.7785921096801758,
        0.32219409942626953,
        0.1529507040977478,
        -0.7518064379692078,
        -1.9325553178787231
      ],
      [
        -0.032954420894384384,
        0.11456222087144852,
        0.147271990776062,
        -0.016209786757826805,
        -0.10210658609867096,
        -0.061283186078071594,
        0.11058958619832993,
        0.08533232659101486,
        0.0490388497710228
      ],
      [
        -0.03348811715841293,
        0.0841481164097786,
        0.1540645956993103,
        -0.02894524857401848,
        -0.013290016911923885,
        0.010230079293251038,
        0.04365265369415283,
        0.13723428547382355,
        0.25940486788749695
      ],
      [
        0.06379479169845581,
        -0.031861238181591034,
        0.0017140735872089863,
        -0.0355365052819252,
        0.008557397872209549,
        0.060831520706415176,
        -0.017004378139972687,
        0.08071361482143402,
        0.0629873275756836
      ],
      [
        -0.005437924060970545,
        -0.0003941145841963589,
        -0.10892334580421448,
        -0.04746450483798981,
        0.09110257029533386,
        0.11779169738292694,
        -0.08789044618606567,
        0.06782650947570801,
        0.12475660443305969
      ],
      [
        0.12221195548772812,
        -0.11963898688554764,
        0.09120241552591324,
        0.09114109724760056,
        -0.04459160193800926,
        0.11216451972723007,
        -0.09521299600601196,
        -0.0927797332406044,
        -0.013618719764053822
      ],
      [
        -0.1207200363278389,
        0.04027530923485756,
        0.06660652905702591,
        0.31984397768974304,
        0.4058874845504761,
        -0.30250057578086853,
        0.3217041492462158,
        -0.30100199580192566,
        0.4257148206233978
      ],
      [
        0.004585012793540955,
        0.0226881206035614,
        0.06558483839035034,
        -0.04112862050533295,
        -0.08683723211288452,
        0.06191851198673248,
        0.10998345911502838,
        -0.014120519161224365,
        -0.03461432456970215
      ],
      [
        -0.00976092740893364,
        -0.028917046263813972,
        0.03445123881101608,
        0.056293144822120667,
        -0.3950480818748474,
        0.2535102665424347,
        -0.24443359673023224,
        -0.5967857241630554,
        -1.3989293575286865
      ],
      [
        -0.01620611548423767,
        -0.09570810198783875,
        -0.0986725389957428,
        -0.10203872621059418,
        -0.09436222910881042,
        -0.02111734449863434,
        0.021723031997680664,
        -0.03493088483810425,
        0.11074155569076538
      ],
      [
        0.0179342832416296,
        0.1372460126876831,
        -0.009117472916841507,
        0.06939015537500381,
        0.1508275866508484,
        -0.11268386244773865,
        0.14619895815849304,
        -0.19144289195537567,
        0.06764668971300125
      ],
      [
        0.04118271917104721,
        -0.016065360978245735,
        -0.006762333679944277,
        0.07365751266479492,
        0.03422258049249649,
        0.02529798448085785,
        0.004658610559999943,
        -0.0687481164932251,
        0.1537737101316452
      ],
      [
        -0.08829423040151596,
        -0.05066141113638878,
        -0.06541629135608673,
        0.00808560848236084,
        0.04687093198299408,
        0.00892898440361023,
        -0.11935025453567505,
        -0.10658532381057739,
        0.07187241315841675
      ],
      [
        0.0666923001408577,
        -0.06440714746713638,
        0.006637129466980696,
        0.008120227605104446,
        -0.02237686514854431,
        0.07027001678943634,
        -0.04489818215370178,
        0.03579875826835632,
        -0.12429992854595184
      ],
      [
        0.0063532618805766106,
        -0.24752038717269897,
        -0.021419046446681023,
        0.058449070900678635,
        0.26648613810539246,
        -0.17681962251663208,
        -0.12540358304977417,
        0.652170717716217,
        0.9639008641242981
      ],
      [
        0.13120441138744354,
        -0.009166842326521873,
        -0.034567199647426605,
        0.3097293972969055,
        0.5386884212493896,
        -0.25587910413742065,
        -0.32379940152168274,
        -0.2906785309314728,
        0.24880072474479675
      ],
      [
        0.05823022127151489,
        0.0710822194814682,
        0.05309906229376793,
        0.049827396869659424,
        0.0809987336397171,
        0.08021925389766693,
        -0.00750512070953846,
        -0.023860931396484375,
        -0.09702494740486145
      ],
      [
        0.03634403645992279,
        -0.024866610765457153,
        0.08356031775474548,
        -0.03566381335258484,
        -0.07838736474514008,
        -0.019477486610412598,
        -0.07055504620075226,
        0.04982359707355499,
        -0.09666645526885986
      ]
    ],
    "lstm.weight_hh_l0": [
      [
        0.05274549126625061,
        -0.12371419370174408,
        0.01233646459877491,
        0.059005334973335266,
        -0.004819000605493784,
        0.06063143163919449,
        -0.08311189711093903,
        0.009952080436050892,
        -0.09469669312238693,
        0.07616247236728668,
        -0.11120908707380295,
        0.03608575090765953,
        0.036796387284994125,
        -0.015201586298644543,
        0.12336643040180206,
        0.06384357810020447,
        0.09919580072164536,
        -0.10799965262413025,
        -0.045697152614593506,
        -0.050425320863723755,
        -0.050368811935186386,
        0.12030231207609177,
        -0.0904284417629242,
        -0.07410736382007599,
        -0.05307350307703018,
        0.10792851448059082,
        0.05079576373100281,
        0.06688407808542252,
        -0.12301094084978104,
        -0.022198453545570374,
        0.03874596953392029,
        0.0870065689086914,
        -0.11941492557525635,
        -0.07008607685565948,
        0.1328572779893875,
        0.02245268039405346,
        -0.05788697674870491,
        -0.07456661760807037,
        0.004312142264097929,
        0.07596883177757263,
        0.06692933291196823,
        0.1044529378414154,
        0.04809437692165375,
        0.024970248341560364,
        -0.08652830868959427,
        -0.0452733188867569,
        -0.08559487015008926,
        0.043185438960790634,
        -0.07677293568849564,
        -0.017842520028352737,
        0.07451899349689484,
        0.08433474600315094,
        -0.020117634907364845,
        -0.028827350586652756,
        0.06143771857023239,
        -0.10791262984275818,
        -0.1252916008234024,
        0.12933975458145142,
        -0.0106162428855896,
        0.05957135558128357,
        -0.06204497441649437,
        -0.07544925808906555,
        0.01125312503427267,
        -0.054024748504161835
      ],
      [
        -0.09258265793323517,
        0.02109338343143463,
        0.01089179515838623,
        -0.009727999567985535,
        -0.09976367652416229,
        0.058108851313591,
        -0.026320844888687134,
        0.1237735003232956,
        0.03435780107975006,
        0.08324280381202698,
        0.045072391629219055,
        -0.015689954161643982,
        0.03214651346206665,
        0.02454887330532074,
        -0.11139783263206482,
        -0.003931134939193726,
        -0.0007913112640380859,
        0.008954942226409912,
        -0.08922648429870605,
        -0.05468364059925079,
        0.07348035275936127,
        0.021731287240982056,
        0.0876530110836029,
        -0.016569972038269043,
        -0.009883791208267212,
        0.013151988387107849,
        0.09878908097743988,
        0.04898320138454437,
        -0.022522568702697754,
        -0.05098862946033478,
        0.11676563322544098,
        0.0431932657957077,
        -0.050412699580192566,
        -0.02485412359237671,
        -0.034741878509521484,
        0.08896636962890625,
        -0.08825626969337463,
        -0.11649718880653381,
        0.03151395916938782,
        -0.10374313592910767,
        -0.06320235133171082,
        -0.008689463138580322,
        0.0045305341482162476,
        0.07364663481712341,
        -0.026356607675552368,
        0.025799676775932312,
        -0.07417300343513489,
        0.0310344398021698,
        -0.031600698828697205,
        0.028407469391822815,
        0.08004556596279144,
        0.09617675840854645,
        0.04366299510002136,
        0.022902950644493103,
        -0.03634122014045715,
        -0.12021814286708832,
        0.06467333436012268,
        0.12189899384975433,
        -0.10321371257305145,
        0.04594302177429199,
        0.06310716271400452,
        0.03128591179847717,
        0.001200258731842041,
        0.1058102399110794
      ],
      [
        0.061965182423591614,
        -0.02896048128604889,
        0.003141149878501892,
        -0.006687670946121216,
        0.0800292044878006,
        0.0065277814865112305,
        0.0836222767829895,
        -0.0027466565370559692,
        0.018688127398490906,
        -0.058942005038261414,
        0.07166191935539246,
        0.11200502514839172,
        0.004183754324913025,
        -0.05171261727809906,
        0.09472468495368958,
        -0.07441811263561249,
        -0.0068520307540893555,
        -0.11655989289283752,
        -0.08379475772380829,
        0.07771889865398407,
        -0.035197049379348755,
        -0.006342992186546326,
        0.058160021901130676,
        -0.0738387405872345,
        0.01523861289024353,
        0.12196646630764008,
        -0.016714662313461304,
        -0.10418225824832916,
        -0.014814481139183044,
        -0.021101176738739014,
        -0.11563295125961304,
        -0.011082723736763,
        -0.0368959903717041,
        -0.05586594343185425,
        0.04859974980354309,
        0.09986558556556702,
        -0.008698061108589172,
        0.0194874107837677,
        -0.11195306479930878,
        0.03732970356941223,
        0.12039095163345337,
        0.007675066590309143,
        0.004024669528007507,
        0.04101300239562988,
        0.024052545428276062,
        -0.0019096285104751587,
        -0.043576598167419434,
        0.027348369359970093,
        0.018057912588119507,
        0.05212728679180145,
        -0.024786964058876038,
        0.010196670889854431,
        -0.015256151556968689,
        -0.07564784586429596,
        0.01823824644088745,
        0.013172850012779236,
        -0.05595897138118744,
        0.0475127249956131,
        -0.015213966369628906,
        -0.025866031646728516,
        -0.012848958373069763,
        0.0065191686153411865,
        -0.05082428455352783,
        -0.09272289276123047
      ],
      [
        0.08169347047805786,
        0.02835749089717865,
        -0.08745910972356796,
        0.07320048660039902,
        0.04649076238274574,
        0.08846388757228851,
        0.1142883151769638,
        0.022236881777644157,
        0.0047618318349123,
        0.011093199253082275,
        0.031916409730911255,
        0.036974430084228516,
        0.05079178512096405,
        0.029731113463640213,
        0.09232007712125778,
        -0.028865817934274673,
        -0.007790414150804281,
        0.0628841444849968,
        0.02938191592693329,
        0.08179586380720139,
        -0.01463633868843317,
        -0.12243055552244186,
        0.007871140725910664,
        0.07869640737771988,
        -0.04881272464990616,
        0.031975358724594116,
        0.056609123945236206,
        -0.09292171895503998,
        0.07469753175973892,
        -0.026900559663772583,
        0.09973692893981934,
        0.04585149884223938,
        -0.018573075532913208,
        0.0861888900399208,
        -0.09633852541446686,
        -0.12458738684654236,
        -0.0084606958553195,
        -0.08471766859292984,
        -0.06986614316701889,
        0.012032165192067623,
        -0.004377379082143307,
        -0.03762498497962952,
        0.10553900897502899,
        -0.009192332625389099,
        0.05472016707062721,
        0.02444930374622345,
        -0.07616826891899109,
        -0.049639251083135605,
        0.05988616123795509,
        -0.043899551033973694,
        -0.029499173164367676,
        -0.024219775572419167,
        0.027841784060001373,
        0.0263480506837368,
        -0.028491711243987083,
        -0.1085960865020752,
        -0.019593127071857452,
        -0.07698265463113785,
        -0.03397950530052185,
        -0.10022331774234772,
        -0.12096908688545227,
        -0.03706873580813408,
        -0.10726690292358398,
        0.055282384157180786
      ],
      [
        0.09598147869110107,
        -0.05772276222705841,
        -0.12102735042572021,
        0.10508348047733307,
        -0.07497614622116089,
        -0.04189750552177429,
        -0.0208655446767807,
        -0.000463828444480896,
        -0.03962549567222595,
        -0.06234608590602875,
        0.003058791160583496,
        -0.04281102120876312,
        0.0828491747379303,
        -0.07889054715633392,
        -0.09915189445018768,
        0.10249404609203339,
        0.04207712411880493,
        -0.09964002668857574,
        -0.018903285264968872,
        -0.0031135380268096924,
        -0.03648100793361664,
        0.07750554382801056,
        0.08723971247673035,
        -0.1222495436668396,
        -0.03469528257846832,
        0.04996462166309357,
        0.0850875973701477,
        0.10683901607990265,
        0.011298194527626038,
        0.013354644179344177,
        0.07869632542133331,
        0.0739220380783081,
        0.061118364334106445,
        0.11724139750003815,
        -0.07873569428920746,
        0.0019580870866775513,
        -0.07148739695549011,
        0.06478613615036011,
        0.03283904492855072,
        0.09768478572368622,
        -0.048756927251815796,
        0.05931691825389862,
        0.10643352568149567,
        0.0967937707901001,
        0.0028084516525268555,
        0.10094915330410004,
        -0.028348252177238464,
        -0.0618898868560791,
        -0.12484095990657806,
        -0.08401253819465637,
        -0.11911597847938538,
        -0.053647175431251526,
        0.03642389178276062,
        0.07504783570766449,
        0.015347883105278015,
        -0.022398382425308228,
        0.014924421906471252,
        0.0015200674533843994,
        -0.01435057818889618,
        -0.050057053565979004,
        -0.0753747969865799,
        0.10523590445518494,
        0.005410552024841309,
        0.03411915898323059
      ],
      [
        0.08647339046001434,
        -0.1201644241809845,
        -0.08627688139677048,
        0.08536321669816971,
        0.011348160915076733,
        0.11519142240285873,
        -0.09787527471780777,
        0.0412096343934536,
        -0.04732481390237808,
        -0.03627990558743477,
        -0.029673565179109573,
        0.05187678337097168,
        0.08475388586521149,
        0.008821416646242142,
        -0.008109159767627716,
        -0.08444860577583313,
        0.061592597514390945,
        0.11148145794868469,
        -0.08750295639038086,
        0.09486405551433563,
        -0.03065980225801468,
        -0.04496351629495621,
        0.13215236365795135,
        -0.10591629147529602,
        0.15491612255573273,
        0.07162054628133774,
        0.02402743697166443,
        -0.01894737221300602,
        0.029830994084477425,
        0.08757773041725159,
        -0.06986761093139648,
        -0.1102311909198761,
        0.06367772817611694,
        0.0574711374938488,
        0.07713329792022705,
        -0.1019783467054367,
        -0.03391663357615471,
        0.04729596525430679,
        -0.07341931760311127,
        -0.08105208724737167,
        -0.020534249022603035,
        -0.05534017086029053,
        -0.028419826179742813,
        -0.014817951247096062,
        0.04417891800403595,
        0.10581858456134796,
        0.14407376945018768,
        -0.021621128544211388,
        0.0025236872024834156,
        -0.03514433652162552,
        -0.09475816786289215,
        0.0006701554520986974,
        -0.03528643026947975,
        -0.07525048404932022,
        0.09754844754934311,
        0.12247082591056824,
        0.03307763487100601,
        -0.04787769541144371,
        0.10210569202899933,
        -0.058529362082481384,
        0.04715512692928314,
        0.08610191196203232,
        -0.13055312633514404,
        -0.04496413469314575
      ],
      [
        -0.0850895345211029,
        -0.11051671206951141,
        0.012331794016063213,
        -0.1071934700012207,
        -0.00042243817006237805,
        -0.011690816842019558,
        -0.06931750476360321,
        0.05437992513179779,
        0.05548745021224022,
        0.12139429152011871,
        0.12359928339719772,
        0.03083180822432041,
        -0.026327287778258324,
        -0.06735673546791077,
        0.09734275937080383,
        0.04965724050998688,
        0.0713893324136734,
        -0.10942362248897552,
        0.11327369511127472,
        0.045769259333610535,
        -0.0005882785771973431,
        0.08964329212903976,
        0.013439979404211044,
        -0.05226672440767288,
        -0.09803251177072525,
        0.0016310892533510923,
        0.08145733177661896,
        0.015383274294435978,
        0.10958877950906754,
        0.08546800166368484,
        0.06257236003875732,
        -0.06996774673461914,
        -0.016669705510139465,
        0.02279958687722683,
        0.06053253263235092,
        0.048490218818187714,
        0.0564236082136631,
        0.13022388517856598,
        -0.03254473954439163,
        -0.06212406978011131,
        0.026369279250502586,
        -0.03964139521121979,
        -0.06670361757278442,
        0.11874657869338989,
        0.124631866812706,
        -0.05340313911437988,
        0.002863612724468112,
        0.0026920458767563105,
        -0.005979034584015608,
        -0.05787917971611023,
        0.07297490537166595,
        0.09468071907758713,
        0.03320099785923958,
        -0.003108695149421692,
        -0.03530329093337059,
        0.06787887215614319,
        0.08929982781410217,
        0.10164054483175278,
        -0.0543527752161026,
        0.10526841878890991,
        0.05123654752969742,
        0.03441838175058365,
        0.018187740817666054,
        -0.0628305971622467
      ],
      [
        0.08639691025018692,
        -0.044973403215408325,
        0.1670883595943451,
        -0.05435795709490776,
        0.22763098776340485,
        0.07178229838609695,
        0.10984619706869125,
        0.03786390274763107,
        0.45914119482040405,
        0.325949102640152,
        -0.3617490530014038,
        -0.0077318246476352215,
        -0.134785458445549,
        -0.019918862730264664,
        -0.10124076157808304,
        -0.12187138199806213,
        -0.1204499676823616,
        0.02976171486079693,
        0.017350494861602783,
        0.1296461522579193,
        0.35922983288764954,
        -0.24498987197875977,
        0.019092531874775887,
        0.010839825496077538,
        0.2832391858100891,
        -0.048841241747140884,
        0.055076658725738525,
        -0.413703054189682,
        0.4452248215675354,
        -0.5253946185112,
        -0.05420471727848053,
        0.07368335127830505,
        0.01943899691104889,
        0.062436070293188095,
        0.47514739632606506,
        -0.19537179172039032,
        -0.03811471536755562,
        -0.09622066468000412,
        0.2295399159193039,
        0.18406400084495544,
        -0.12457064539194107,
        0.06620170176029205,
        0.07096324115991592,
        -0.07654482126235962,
        0.045966073870658875,
        0.10281451046466827,
        0.0350155271589756,
        0.19842584431171417,
        0.1429356187582016,
        -0.03061608411371708,
        0.10343998670578003,
        -0.2724442481994629,
        -0.3044964373111725,
        0.06102971360087395,
        -0.04519026353955269,
        0.11425866186618805,
        0.258477121591568,
        -0.48843589425086975,
        -0.0304042249917984,
        -0.06995692849159241,
        0.5346418023109436,
        0.13936515152454376,
        -0.1200246810913086,
        0.07135416567325592
      ],
      [
        0.08993400633335114,
        0.034771159291267395,
        -0.11455490440130234,
        -0.10300202667713165,
        -0.07127087563276291,
        -0.008087648078799248,
        -0.0282471664249897,
        0.0711895078420639,
        -0.038723673671483994,
        0.0876079574227333,
        -0.08077410608530045,
        0.13960684835910797,
        -0.06399622559547424,
        0.029765626415610313,
        -0.08392143249511719,
        -0.08101511001586914,
        -0.018459275364875793,
        -0.03783753514289856,
        0.041037991642951965,
        -0.08017953485250473,
        0.0134318508207798,
        -0.05067158117890358,
        -0.0403791181743145,
        -0.024747459217905998,
        0.04538533091545105,
        0.016004841774702072,
        0.11938738822937012,
        -0.024268506094813347,
        -0.04904288053512573,
        0.11778540164232254,
        0.09560447931289673,
        0.05140306055545807,
        -0.03630992770195007,
        -0.12579596042633057,
        -0.11902038753032684,
        -0.0347740575671196,
        -0.01585797592997551,
        0.06137453019618988,
        0.050511281937360764,
        0.024644197896122932,
        -0.01907014474272728,
        0.028642863035202026,
        0.03980142995715141,
        0.10098440945148468,
        0.09062249213457108,
        0.11879481375217438,
        -0.07177670300006866,
        -0.004800713621079922,
        -0.0783180370926857,
        0.05930062383413315,
        -0.07699482142925262,
        -0.12452299147844315,
        0.0691443532705307,
        -0.08203119039535522,
        0.08682046085596085,
        0.03745754063129425,
        0.03202459216117859,
        -0.004049544222652912,
        0.02362777292728424,
        -0.1009824126958847,
        -0.10914410650730133,
        -0.0659286230802536,
        0.05039801821112633,
        -0.09084175527095795
      ],
      [
        -0.028505921363830566,
        -0.06675645709037781,
        -0.17142616212368011,
        -0.04778609797358513,
        0.06955138593912125,
        -0.07858630269765854,
        -0.06885574758052826,
        -0.0968628004193306,
        0.0203675739467144,
        0.09564796090126038,
        -0.13843967020511627,
        -0.08530693501234055,
        -0.13230611383914948,
        -0.036096468567848206,
        0.042893581092357635,
        0.031051035970449448,
        -0.007376191671937704,
        -0.11481612920761108,
        0.11238576471805573,
        0.0802072137594223,
        0.32517433166503906,
        0.018329018726944923,
        -0.09333867579698563,
        -0.12581998109817505,
        -0.19264712929725647,
        -0.19440169632434845,
        -0.036058008670806885,
        -0.1129959225654602,
        -0.05726287513971329,
        -0.19729329645633698,
        -0.11225248128175735,
        0.048401981592178345,
        0.09828434884548187,
        0.13093507289886475,
        0.17209747433662415,
        -0.05085994675755501,
        0.04497911408543587,
        0.06450779736042023,
        -0.15287275612354279,
        -0.08103285729885101,
        0.08918648213148117,
        -0.11755084991455078,
        -0.041636813431978226,
        -0.04918748140335083,
        0.05396789684891701,
        0.03014424443244934,
        0.08297987282276154,
        -0.04729446396231651,
        0.10626161843538284,
        -0.014427629299461842,
        0.03263498842716217,
        0.1087944284081459,
        -0.08936440944671631,
        -0.012392237782478333,
        -0.06551260501146317,
        -0.017440736293792725,
        0.14826777577400208,
        0.0004441762575879693,
        -0.09067273139953613,
        0.01651918888092041,
        0.1337408721446991,
        -0.0012608426623046398,
        -0.06233122572302818,
        0.03826289251446724
      ],
      [
        -0.11454087495803833,
        0.071406289935112,
        -0.019111406058073044,
        0.10930877923965454,
        0.13851569592952728,
        0.04806050285696983,
        0.09906560927629471,
        -0.2019258588552475,
        0.08652626723051071,
        0.015836739912629128,
        -0.0812796801328659,
        -0.11973597854375839,
        0.033372387290000916,
        -0.054719988256692886,
        0.12300191819667816,
        -0.03797280415892601,
        -0.0738251581788063,
        0.14887534081935883,
        -0.06765379011631012,
        0.02944771945476532,
        -0.014430326409637928,
        -0.045498885214328766,
        -0.12796887755393982,
        0.1332940310239792,
        0.12450967729091644,
        -0.19481751322746277,
        0.10813182592391968,
        0.047106415033340454,
        0.02333996631205082,
        -0.07173386961221695,
        -0.022477416321635246,
        -0.07591356337070465,
        0.04307436943054199,
        -0.05642642080783844,
        -0.007422587834298611,
        -0.010284260846674442,
        0.10522682964801788,
        0.035514455288648605,
        0.05284898355603218,
        0.0446150004863739,
        0.07128274440765381,
        0.1129000186920166,
        -0.0712224543094635,
        0.036300621926784515,
        0.04629100114107132,
        0.11375370621681213,
        0.1266390085220337,
        0.0840941071510315,
        0.1779935508966446,
        0.0130202891305089,
        -0.09615650773048401,
        0.0989551693201065,
        -0.16418595612049103,
        -0.019539332017302513,
        0.012778115458786488,
        0.09972819685935974,
        0.054113805294036865,
        -0.0964946299791336,
        -0.11494439840316772,
        0.11357162892818451,
        -0.05095112696290016,
        0.038935959339141846,
        0.04281010851264,
        -0.17765694856643677
      ],
      [
        0.05344444513320923,
        -0.02788861095905304,
        0.06389222294092178,
        -0.045411840081214905,
        -0.019678030163049698,
        0.05113207921385765,
        -0.06319761276245117,
        -0.1014251634478569,
        -0.08805915713310242,
        -0.009678030386567116,
        -0.009379484690725803,
        -0.11799401789903641,
        -0.01825775019824505,
        0.09498946368694305,
        -0.009531646966934204,
        -0.03710572421550751,
        0.08327653259038925,
        0.08895351737737656,
        -0.0038175731897354126,
        -0.0988243818283081,
        0.06468122452497482,
        0.08547919243574142,
        -0.01544393040239811,
        -0.11376431584358215,
        -0.0666072741150856,
        -0.09494392573833466,
        -0.08570770919322968,
        -0.039420127868652344,
        0.10357614606618881,
        0.043809693306684494,
        0.10529682040214539,
        0.028897419571876526,
        -0.08640483021736145,
        0.016651635989546776,
        -0.050931502133607864,
        -0.1064639762043953,
        0.005998097360134125,
        0.029977789148688316,
        0.04382585361599922,
        -0.07011633366346359,
        0.054040245711803436,
        0.0993945300579071,
        -0.024662330746650696,
        0.1243656724691391,
        -0.004958671983331442,
        0.017722293734550476,
        -0.04277804493904114,
        -0.0914805606007576,
        0.04581503942608833,
        0.0024449825286865234,
        -0.09796947240829468,
        0.053480278700590134,
        0.05722248554229736,
        0.0732310563325882,
        -0.06373677402734756,
        0.07789567112922668,
        -0.04572508856654167,
        -0.09527724236249924,
        0.08456608653068542,
        0.05050855875015259,
        -0.025046933442354202,
        0.09571941196918488,
        0.0928473100066185,
        -0.12162390351295471
      ],
      [
        0.11536425352096558,
        -0.098720982670784,
        0.06907960772514343,
        -0.03449539840221405,
        0.10835696756839752,
        0.03751347213983536,
        -0.08844968676567078,
        0.022535886615514755,
        -0.08863241970539093,
        0.01293692085891962,
        -0.02171305939555168,
        0.11671996861696243,
        -0.034680139273405075,
        -0.0019693949725478888,
        0.017375260591506958,
        0.00024122107424773276,
        -0.00994160957634449,
        0.003420669585466385,
        -0.01560857892036438,
        0.10550497472286224,
        -0.07293995469808578,
        0.07497451454401016,
        -0.1339026391506195,
        -0.011138774454593658,
        -0.01258020382374525,
        0.04160749539732933,
        -0.098176509141922,
        0.10183946043252945,
        0.08501364290714264,
        0.04613719508051872,
        -0.013091996312141418,
        0.04308813810348511,
        -0.006006136536598206,
        -0.03818713128566742,
        0.11311855912208557,
        -0.013307950459420681,
        -0.0567818246781826,
        0.0038327022921293974,
        -0.09086568653583527,
        0.024721719324588776,
        0.10440199822187424,
        0.013816475868225098,
        -0.015555151738226414,
        0.0603293776512146,
        0.002605598187074065,
        0.11155781149864197,
        -0.041994042694568634,
        -0.07730028033256531,
        0.014753300696611404,
        -0.001010588021017611,
        0.06566178798675537,
        0.041421078145504,
        -0.10559774935245514,
        0.09220698475837708,
        -0.09043031185865402,
        0.025491446256637573,
        0.11171699315309525,
        0.11006637662649155,
        -0.0375472754240036,
        -0.12211380898952484,
        0.05065575987100601,
        -0.08554612845182419,
        -0.05255444720387459,
        -0.02005045861005783
      ],
      [
        0.03564581274986267,
        0.06562155485153198,
        0.1401587277650833,
        -0.02977439947426319,
        -0.0630192682147026,
        -0.02819903939962387,
        -0.07839552313089371,
        -0.2649786174297333,
        0.35743269324302673,
        -0.3815051317214966,
        -0.11390514671802521,
        -0.017096957191824913,
        0.06593482196331024,
        -0.2008017748594284,
        0.032630667090415955,
        0.05426086485385895,
        -0.18158550560474396,
        0.08503272384405136,
        0.02031789720058441,
        0.13093695044517517,
        0.27523648738861084,
        -0.3212030529975891,
        0.09435228258371353,
        0.09463651478290558,
        0.11898686736822128,
        0.4431253969669342,
        -0.02356855571269989,
        0.17412006855010986,
        0.019854752346873283,
        0.07234950363636017,
        0.10849715024232864,
        0.04213157296180725,
        -0.11840447783470154,
        0.03941912204027176,
        -0.08915931731462479,
        -0.10912413895130157,
        -0.14920513331890106,
        0.03167284280061722,
        -0.03868671506643295,
        0.007621401455253363,
        -0.3698064684867859,
        -0.015014991164207458,
        0.10158099234104156,
        -0.012936457991600037,
        -0.027048856019973755,
        0.06304466724395752,
        -0.013237696141004562,
        0.2439088672399521,
        0.11963619291782379,
        0.09341036528348923,
        -0.0017780810594558716,
        0.3645262122154236,
        0.14499340951442719,
        0.10427678376436234,
        0.17573392391204834,
        -0.015345498919487,
        0.4256884753704071,
        -0.1558281034231186,
        0.08852274715900421,
        0.015181630849838257,
        -0.1870032399892807,
        0.2925724983215332,
        -0.09755341708660126,
        0.03825695812702179
      ],
      [
        0.10777422785758972,
        0.06303161382675171,
        0.022100236266851425,
        -0.007488930132240057,
        0.043386079370975494,
        -0.02893841452896595,
        -0.08751335740089417,
        0.06998953968286514,
        0.11219582706689835,
