{
  "model_state_dict": {
    "embedding.weight": [
      [
        -0.3708861172199249,
        0.42794516682624817,
        0.01056209672242403,
        -0.8906681537628174
      ],
      [
        -1.44375741481781,
        2.0872983932495117,
        0.7052329182624817,
        -1.8492100238800049
      ],
      [
        -0.7937580943107605,
        -0.3588731288909912,
        -0.45200371742248535,
        -0.8155328035354614
      ],
      [
        -0.49116215109825134,
        0.4701545834541321,
        1.1991448402404785,
        1.5655133724212646
      ]
    ],
    "lstm.weight_ih_l0": [
      [
        -0.09000745415687561,
        -0.06540943682193756,
        0.10962995886802673,
        -0.03814560920000076,
        -0.23291835188865662,
        0.12261926382780075,
        -0.0258695799857378,
        0.13151445984840393,
        -0.2440216988325119
      ],
      [
        0.05722042918205261,
        -0.04463464021682739,
        0.03603748977184296,
        0.07315808534622192,
        -0.10556459426879883,
        -0.08727598190307617,
        -0.12444661557674408,
        -0.0727054625749588,
        -0.06870543956756592
      ],
      [
        0.0015090972883626819,
        -0.07539155334234238,
        0.007519273553043604,
        0.053112346678972244,
        -0.02157231792807579,
        0.0005161631852388382,
        0.06223354861140251,
        -0.07653877139091492,
        -0.10454650968313217
      ],
      [
        -0.029994014650583267,
        -0.06180236488580704,
        -0.0517517626285553,
        -0.09096760302782059,
        0.010958668775856495,
        -0.07456254959106445,
        -0.12432935833930969,
        0.08947451412677765,
        -0.08412744104862213
      ],
      [
        -0.02648816630244255,
        0.07890847325325012,
        0.07862846553325653,
        -3.788230969803408e-05,
        0.24680893123149872,
        -0.0749213919043541,
        0.17226065695285797,
        0.16791148483753204,
        0.35108327865600586
      ],
      [
        -0.10013582557439804,
        0.022877827286720276,
        0.12345807254314423,
        -0.22539696097373962,
        0.01655195839703083,
        -0.033715251833200455,
        0.4416007995605469,
        0.4753267168998718,
        0.1690734177827835
      ],
      [
        -0.008919267915189266,
        -0.025039419531822205,
        -0.07195395976305008,
        -0.11931464076042175,
        -0.08415009826421738,
        -0.09195071458816528,
        -0.06544728577136993,
        -0.08051221817731857,
        -0.016459526494145393
      ],
      [
        0.05386921763420105,
        0.0469830185174942,
        0.08003202080726624,
        0.05283701419830322,
        0.09446379542350769,
        -0.026067063212394714,
        -0.04364362359046936,
        -0.10975329577922821,
        -0.0752028077840805
      ],
      [
        0.08547493070363998,
        -0.02302398346364498,
        -0.03347800299525261,
        0.03193721920251846,
        0.06931023299694061,
        -0.0675891563296318,
        0.20442335307598114,
        -0.1029590368270874,
        -0.18019115924835205
      ],
      [
        -0.005015213508158922,
        0.13075394928455353,
        -0.04510902613401413,
        -0.19332171976566315,
        0.4895951747894287,
        -0.014361685141921043,
        -0.45475658774375916,
        0.4357813894748688,
        1.0935828685760498
      ],
      [
        -0.06717022508382797,
        -0.11327087879180908,
        0.14782540500164032,
        0.1329987794160843,
        -0.49985557794570923,
        0.06145254150032997,
        0.13218212127685547,
        -0.1879100203514099,
        -0.3576836585998535
      ],
      [
        -0.01716701127588749,
        0.038367509841918945,
        -0.07596039026975632,
        0.11104947328567505,
        -0.03242911770939827,
        0.03828269615769386,
        0.027169866487383842,
        0.05928480625152588,
        -0.017051953822374344
      ],
      [
        0.01122349314391613,
        -0.13247671723365784,
        -0.09099937975406647,
        0.10268597304821014,
        -0.09494113177061081,
        0.07944975048303604,
        0.08882279694080353,
        0.1205587387084961,
        -0.04010748490691185
      ],
      [
        0.06062019243836403,
        -0.10546427965164185,
        0.02576586604118347,
        0.08789896965026855,
        -0.13488328456878662,
        -0.12504266202449799,
        0.06576494127511978,
        0.053013887256383896,
        -0.09345370531082153
      ],
      [
        -0.06356506049633026,
        0.023471012711524963,
        -0.1185825914144516,
        -0.08224324882030487,
        0.07735143601894379,
        0.02426759898662567,
        -0.02801455557346344,
        0.09295019507408142,
        -0.11979953944683075
      ],
      [
        -0.005082547198981047,
        0.4212157726287842,
        0.015805507078766823,
        0.0037866062484681606,
        -0.3543702960014343,
        0.31472811102867126,
        0.45642945170402527,
        -0.9375672340393066,
        -1.0827840566635132
      ],
      [
        0.0499492846429348,
        0.10549373179674149,
        0.0046234456822276115,
        -0.08774098008871078,
        -0.08139178156852722,
        0.10637038201093674,
        -0.09003905951976776,
        0.026623357087373734,
        0.1185719296336174
      ],
      [
        0.12507720291614532,
        0.0633789449930191,
        -0.07125058025121689,
        0.3256324231624603,
        -0.05492349714040756,
        -0.38618093729019165,
        -0.22925372421741486,
        -0.21042346954345703,
        0.09383587539196014
      ],
      [
        -0.002789098536595702,
        -0.02030351385474205,
        -0.00145698559936136,
        -0.14269493520259857,
        0.7360126972198486,
        -0.03310398757457733,
        0.32214459776878357,
        0.7089390754699707,
        0.6769244074821472
      ],
      [
        0.05588936805725098,
        0.06024518236517906,
        -0.098079614341259,
        0.051544439047575,
        0.08342497050762177,
        0.013117042370140553,
        -0.2208496630191803,
        -0.048266470432281494,
        0.2377573698759079
      ],
      [
        -0.058055613189935684,
        0.02470269612967968,
        0.11018386483192444,
        0.05715806782245636,
        0.3677164316177368,
        -0.039294082671403885,
        -0.298753023147583,
        0.00632248492911458,
        0.2935957908630371
      ],
      [
        -0.07466113567352295,
        -0.013170089572668076,
        -0.013188461773097515,
        0.08483302593231201,
        0.08897764980792999,
        -0.00033651222474873066,
        0.046200696378946304,
        -0.05634960159659386,
        -0.02217169478535652
      ],
      [
        0.08266432583332062,
        -0.20129427313804626,
        -0.07766154408454895,
        -0.22067539393901825,
        -0.16470752656459808,
        0.2103576511144638,
        -0.09732520580291748,
        -0.10981784760951996,
        -0.7684065699577332
      ],
      [
        0.01831590011715889,
        0.03251117840409279,
        -0.09110163897275925,
        0.007065758109092712,
        0.015232950448989868,
        -0.01010894775390625,
        -0.06906262040138245,
        -0.038797527551651,
        -0.11353346705436707
      ],
      [
        -0.07784494757652283,
        -0.09915235638618469,
        0.11778759211301804,
        0.08179789781570435,
        -0.12090126425027847,
        0.08092939108610153,
        -0.015051604248583317,
        -0.07218364626169205,
        0.05430909991264343
      ],
      [
        -0.03356393426656723,
        0.01253285352140665,
        0.12675414979457855,
        -0.052296221256256104,
        -0.3496934175491333,
        -0.02936531975865364,
        0.33591654896736145,
        -0.24734443426132202,
        -0.5058462619781494
      ],
      [
        -0.042637381702661514,
        -0.028302710503339767,
        0.08482812345027924,
        -0.014382123947143555,
        -0.24014092981815338,
        -0.03168604150414467,
        0.04833840951323509,
        -0.081588976085186,
        -0.4378124177455902
      ],
      [
        0.07323014736175537,
        -0.0632304847240448,
        0.12125623226165771,
        -0.02650691568851471,
        0.11891800165176392,
        0.07583650946617126,
        -0.1175728291273117,
        0.09215974807739258,
        0.09184552729129791
      ],
      [
        -0.0637587308883667,
        -0.002567727118730545,
        0.03360038995742798,
        0.005534261465072632,
        0.1058093011379242,
        0.017349496483802795,
        -0.12446248531341553,
        -0.12458394467830658,
        0.01913312077522278
      ],
      [
        0.060989007353782654,
        -0.042669981718063354,
        0.12154501676559448,
        -0.07256826758384705,
        0.02052493393421173,
        0.07922542095184326,
        0.12149487435817719,
        0.027351737022399902,
        -0.12052035331726074
      ],
      [
        0.020303914323449135,
        -0.030028730630874634,
        -0.018918344751000404,
        0.051296744495630264,
        0.12145985662937164,
        -0.003254799172282219,
        -0.07185531407594681,
        0.01389999408274889,
        0.07009212672710419
      ],
      [
        0.08611012995243073,
        -0.06382714211940765,
        0.08596600592136383,
        0.07258796691894531,
        0.012887701392173767,
        -0.06558741629123688,
        -0.06248010694980621,
        -0.11488194763660431,
        -0.10240894556045532
      ],
      [
        -0.0477018728852272,
        -0.022972185164690018,
        0.015547669492661953,
        -0.029786283150315285,
        0.14587652683258057,
        0.004734863061457872,
        -0.39592039585113525,
        0.1664154827594757,
        -0.45095884799957275
      ],
      [
        -0.0977868065237999,
        -0.07199227809906006,
        0.12680275738239288,
        -0.10737113654613495,
        -0.14706090092658997,
        0.039688777178525925,
        0.3300391435623169,
        -0.04436538740992546,
        -0.3863905072212219
      ],
      [
        0.027683744207024574,
        -0.14529195427894592,
        -0.04265657439827919,
        -0.08879181742668152,
        0.058229513466358185,
        0.03700731694698334,
        -0.00018815982912201434,
        0.009397443383932114,
        0.1486859917640686
      ],
      [
        -0.05578341335058212,
        0.08127395063638687,
        -0.0010506983380764723,
        0.06281760334968567,
        -0.07840531319379807,
        0.03679108992218971,
        0.01226833090186119,
        0.003722350811585784,
        -0.10827047377824783
      ],
      [
        0.08939003944396973,
        0.0884714126586914,
        0.08618690073490143,
        0.0039155930280685425,
        -0.0008134990930557251,
        -0.09410744905471802,
        0.014484226703643799,
        -0.12095814943313599,
        0.10475717484951019
      ],
      [
        -0.10015907883644104,
        -0.09948166459798813,
        0.017884163185954094,
        -0.1041281595826149,
        -0.056970205157995224,
        0.04819492623209953,
        -0.09887808561325073,
        -0.27014729380607605,
        -0.16322019696235657
      ],
      [
        0.07511085271835327,
        0.11959253251552582,
        0.010912023484706879,
        0.023954272270202637,
        -0.0981583297252655,
        0.05054424703121185,
        -0.05343301594257355,
        -0.07328276336193085,
        0.0771683007478714
      ],
      [
        -0.11114377528429031,
        -0.09229721128940582,
        0.06262414157390594,
        0.041107118129730225,
        0.10656343400478363,
        -0.10609112679958344,
        0.07955671846866608,
        -0.05742853879928589,
        0.06825529038906097
      ],
      [
        -0.03700651228427887,
        -0.028328051790595055,
        0.10702332109212875,
        -0.011547571048140526,
        -0.2587478458881378,
        0.18107850849628448,
        -0.25989067554473877,
        -0.4579513370990753,
        -0.6571171879768372
      ],
      [
        -0.080951027572155,
        0.017946390435099602,
        -0.041830189526081085,
        -0.06096847727894783,
        0.0924219936132431,
        0.017229152843356133,
        -0.04903404787182808,
        -0.05801795795559883,
        0.08867815136909485
      ],
      [
        0.06519333273172379,
        0.012884341180324554,
        -0.07082328200340271,
        0.008203541859984398,
        0.13528506457805634,
        -0.034053653478622437,
        -0.14323772490024567,
        0.07039991766214371,
        -0.04558181390166283
      ],
      [
        -0.07797787338495255,
        -0.07431589066982269,
        0.08346039801836014,
        0.19742101430892944,
        0.3148416578769684,
        -0.17934682965278625,
        0.0867258682847023,
        -0.12591956555843353,
        0.6790415644645691
      ],
      [
        0.03864581882953644,
        -0.06964096426963806,
        0.11527571082115173,
        -0.0038392990827560425,
        -0.10982164740562439,
        -0.10621273517608643,
        -0.0033444762229919434,
        -0.02256406843662262,
        -0.056695908308029175
      ],
      [
        0.10299292951822281,
        0.040448859333992004,
        0.016743550077080727,
        -0.011479760520160198,
        0.06650807708501816,
        -0.021786700934171677,
        0.03167327865958214,
        -0.0653124675154686,
        0.05518621951341629
      ],
      [
        -0.04944014921784401,
        0.08476203680038452,
        0.09733127057552338,
        0.0029547358863055706,
        0.2850354313850403,
        -0.017229612916707993,
        -0.4574434757232666,
        0.570603609085083,
        0.9703115820884705
      ],
      [
        -0.10703490674495697,
        0.11045387387275696,
        0.06839177012443542,
        0.06360472738742828,
        0.11918531358242035,
        0.03353355824947357,
        -0.048263728618621826,
        0.051208123564720154,
        -0.10807754099369049
      ],
      [
        -0.05790881812572479,
        0.023089885711669922,
        -0.021336346864700317,
        -0.07603216171264648,
        0.10510747134685516,
        0.056777551770210266,
        0.06798303127288818,
        0.07718481123447418,
        -0.04004831612110138
      ],
      [
        0.0872214213013649,
        -0.09964121878147125,
        -0.05592022463679314,
        0.09640339016914368,
        -0.08124740421772003,
        0.11876761168241501,
        -0.06396419554948807,
        -0.022704653441905975,
        0.09709618240594864
      ],
      [
        -0.11926400661468506,
        -0.0420544408261776,
        -0.05699886009097099,
        -0.005595695693045855,
        0.11318531632423401,
        -0.09302813559770584,
        0.0788409486413002,
        0.02945028617978096,
        0.11257457733154297
      ],
      [
        0.03639373183250427,
        0.10143747925758362,
        0.08572323620319366,
        -0.10243120789527893,
        -0.10442806780338287,
        0.021900758147239685,
        -0.018948644399642944,
        0.09563471376895905,
        -0.03706306219100952
      ],
      [
        -0.09238716214895248,
        0.07445923984050751,
        -0.026837186887860298,
        -0.03554097190499306,
        -0.1101192981004715,
        0.023356297984719276,
        -0.08754192292690277,
        -0.06460630148649216,
        0.029148032888770103
      ],
      [
        0.11003293842077255,
        -0.04925147071480751,
        -0.028093621134757996,
        0.0008954981458373368,
        -0.050058767199516296,
        0.03713644668459892,
        -0.056329138576984406,
        -0.013760856352746487,
        0.06019149720668793
      ],
      [
        -0.03045906126499176,
        -0.10577066242694855,
        0.04757288098335266,
        0.0848323404788971,
        -0.04238919913768768,
        0.053164899349212646,
        0.11221568286418915,
        -0.12336985766887665,
        0.07487854361534119
      ],
      [
        0.12265720963478088,
        0.054788801819086075,
        -0.04363686591386795,
        -0.09526167064905167,
        -0.07414469122886658,
        0.08463920652866364,
        -0.23324741423130035,
        0.23804450035095215,
        -0.34938353300094604
      ],
      [
        0.021927518770098686,
        0.042204029858112335,
        -0.0803377628326416,
        -0.18105165660381317,
        0.23543581366539001,
        -0.11022043973207474,
        0.6618766188621521,
        0.7426007390022278,
        1.474740743637085
      ],
      [
        0.046182699501514435,
        -0.015814967453479767,
        -0.12080014497041702,
        0.022155987098813057,
        0.6795061826705933,
        -0.00710906321182847,
        -0.2698097229003906,
        0.5853686928749084,
        0.9089561700820923
      ],
      [
        -0.05276864022016525,
        -0.13654755055904388,
        -0.013219357468187809,
        0.05290614441037178,
        0.07377972453832626,
        0.1241140365600586,
        -0.11420491337776184,
        0.16893276572227478,
        -0.06364388763904572
      ],
      [
        -0.0010643861023709178,
        -0.06809167563915253,
        -0.1049027219414711,
        -0.09226344525814056,
        0.06366246938705444,
        0.043897420167922974,
        0.11467736959457397,
        0.06032468378543854,
        0.11807113885879517
      ],
      [
        0.005595193710178137,
        0.05442247539758682,
        -0.10939863324165344,
        0.07440392673015594,
        0.055896226316690445,
        0.11162509024143219,
        0.09860458970069885,
        0.12188264727592468,
        0.06829389929771423
      ],
      [
        0.0918673425912857,
        0.020320594310760498,
        0.11207602918148041,
        -0.10470926761627197,
        -0.0745469182729721,
        0.07020619511604309,
        0.07058314979076385,
        -0.08900454640388489,
        -0.11418461799621582
      ],
      [
        0.10731877386569977,
        0.05594007670879364,
        0.10798777639865875,
        0.054216161370277405,
        0.08706094324588776,
        0.020097926259040833,
        -0.10424971580505371,
        -0.06038382649421692,
        -0.05949486792087555
      ],
      [
        0.10893334448337555,
        -0.07095208019018173,
        -0.012724286876618862,
        -0.2539287805557251,
        -0.07447043806314468,
        -0.006520854774862528,
        -0.22620239853858948,
        0.20897632837295532,
        -0.14321787655353546
      ],
      [
        -0.15270276367664337,
        -0.04992327466607094,
        0.08406168967485428,
        -0.14789126813411713,
        -0.17892740666866302,
        0.09900948405265808,
        -0.15887416899204254,
        0.013403918594121933,
        -0.2965574562549591
      ],
      [
        0.05697073042392731,
        0.03664274513721466,
        -0.02567337453365326,
        -0.06859372556209564,
        0.10704857110977173,
        -0.07675062119960785,
        0.06465698778629303,
        -0.006415948271751404,
        -0.07093681395053864
      ],
      [
        0.01218721829354763,
        -0.050144046545028687,
        0.022633427754044533,
        -0.11972259730100632,
        0.06414001435041428,
        -0.03171968087553978,
        0.07209799438714981,
        0.03191714733839035,
        0.06847725808620453
      ],
      [
        -0.06437361240386963,
        0.039882972836494446,
        -0.033794935792684555,
        -0.0898556113243103,
        -0.06212921440601349,
        0.04268461465835571,
        0.115554079413414,
        0.07664239406585693,
        -0.11760063469409943
      ],
      [
        0.015157565474510193,
        0.11106009781360626,
        0.12345331907272339,
        -0.09728200733661652,
        0.08562198281288147,
        -0.03353700041770935,
        0.014983922243118286,
        -0.02181316912174225,
        -0.07952797412872314
      ],
      [
        0.0733037069439888,
        0.038559865206480026,
        -0.055835284292697906,
        -0.06561419367790222,
        0.04119529202580452,
        -0.04289932921528816,
        0.10095762461423874,
        0.3380764126777649,
        0.028353583067655563
      ],
      [
        -0.0820770114660263,
        0.0224001407623291,
        -0.06330950558185577,
        -0.07711362838745117,
        -0.09391170740127563,
        0.07582955062389374,
        0.11381880939006805,
        -0.05392172932624817,
        -0.09524214267730713
      ],
      [
        0.07331671565771103,
        -0.01959732174873352,
        0.05878094211220741,
        0.09919113665819168,
        0.05425326153635979,
        0.05195537954568863,
        0.12215268611907959,
        -0.07227875292301178,
        0.10638334602117538
      ],
      [
        0.13779756426811218,
        0.10767773538827896,
        -0.08246240019798279,
        0.03642196208238602,
        -0.10473211854696274,
        0.004846969153732061,
        -0.1938246786594391,
        -0.19925040006637573,
        0.09758609533309937
      ],
      [
        -0.034220464527606964,
        -0.04827476292848587,
        0.11421563476324081,
        -0.054770033806562424,
        0.05222006142139435,
        -0.007257056422531605,
        0.19744370877742767,
        0.3708692193031311,
        0.8071527481079102
      ],
      [
        -0.10246062278747559,
        0.12509900331497192,
        0.1101130023598671,
        -0.08507238328456879,
        -0.23514358699321747,
        -0.03907142952084541,
        -0.12303103506565094,
        0.038288794457912445,
        -0.36107319593429565
      ],
      [
        0.071385458111763,
        -0.0018897851696237922,
        -0.03257320821285248,
        0.06679899990558624,
        0.1009591743350029,
        -0.04252104461193085,
        0.1027839407324791,
        -0.02473771758377552,
        0.04388449713587761
      ],
      [
        0.09092985093593597,
        0.05063413456082344,
        -0.07551886141300201,
        0.00451193330809474,
        -0.036154527217149734,
        0.0735420510172844,
        0.011924411170184612,
        0.050180159509181976,
        0.011554369702935219
      ],
      [
        0.0400901660323143,
        0.11647161841392517,
        -0.028496606275439262,
        0.20843444764614105,
        0.16061225533485413,
        -0.10900241136550903,
        0.4146721065044403,
        -0.17990709841251373,
        0.33862924575805664
      ],
      [
        -0.12473829090595245,
        -0.09887118637561798,
        -0.027917861938476562,
        -0.1146477609872818,
        -0.056797564029693604,
        -0.050093695521354675,
        0.06359338760375977,
        -0.06851613521575928,
        0.10438074171543121
      ],
      [
        -0.10077127814292908,
        -0.14009948074817657,
        0.005353657063096762,
        -0.0778220072388649,
        0.07566633820533752,
        0.09171213209629059,
        0.008684031665325165,
        0.019893627613782883,
        -0.08963602781295776
      ],
      [
        -0.03777619078755379,
        -0.11817735433578491,
        -0.006217986810952425,
        -0.029942933470010757,
        -0.04887129366397858,
        0.01785941794514656,
        -0.08360127359628677,
        -0.1105920597910881,
        0.04580402374267578
      ],
      [
        0.03768446296453476,
        -0.15403863787651062,
        -0.004936906974762678,
        0.012059170752763748,
        0.03144991770386696,
        -0.16586562991142273,
        -0.21249400079250336,
        -0.18336114287376404,
        -0.07411027699708939
      ],
      [
        0.11097773909568787,
        0.0331072174012661,
        -0.09168421477079391,
        -0.07357638329267502,
        0.3521007299423218,
        -0.005103603936731815,
        -0.04878963157534599,
        0.20566506683826447,
        0.04276609048247337
      ],
      [
        -0.0017788581317290664,
        0.008305157534778118,
        -0.002219497226178646,
        0.29966607689857483,
        0.9225767850875854,
        -0.45243731141090393,
        -0.08315148204565048,
        -0.004588324110955,
        1.2759783267974854
      ],
      [
        0.031225264072418213,
        0.046568870544433594,
        0.09701855480670929,
        -0.1245933324098587,
        0.036355942487716675,
        -0.11296108365058899,
        -0.04830878973007202,
        0.12425090372562408,
        0.000208929181098938
      ],
      [
        -0.09047558158636093,
        0.06746482104063034,
        0.0929388552904129,
        0.037690311670303345,
        -0.05920129269361496,
        0.02555207908153534,
        -0.004004176706075668,
        0.09280288964509964,
        0.20249533653259277
      ],
      [
        0.037588931620121,
        -0.03735771030187607,
        -0.12236521393060684,
        0.01596089079976082,
        -0.06328170746564865,
        0.04410850629210472,
        0.06156457960605621,
        0.021480301395058632,
        0.019359497353434563
      ],
      [
        0.0455184131860733,
        0.04533745348453522,
        0.07349178194999695,
        0.11895009875297546,
        0.07445058226585388,
        -0.0764884352684021,
        -0.10214611887931824,
        0.08994118869304657,
        0.01368720829486847
      ],
      [
        0.03379452973604202,
        0.0658172145485878,
        -0.058403052389621735,
        0.07024212181568146,
        -0.01390246395021677,
        0.052163176238536835,
        -0.12462916225194931,
        0.10790716856718063,
        0.04386627674102783
      ],
      [
        -0.008301095105707645,
        0.11866014450788498,
        -0.012637032195925713,
        0.019909996539354324,
        -0.22721365094184875,
        0.01693199947476387,
        0.03540954366326332,
        0.25967928767204285,
        -0.67495197057724
      ],
      [
        -0.031616710126399994,
        0.1382722556591034,
        0.04391709342598915,
        -0.01888791099190712,
        -0.169549360871315,
        0.02607070282101631,
        0.12363951653242111,
        0.059650592505931854,
        -0.5379456281661987
      ],
      [
        -0.03648700192570686,
        -0.010518417693674564,
        -0.06264255940914154,
        -0.11155393719673157,
        0.11288326978683472,
        -0.10677961260080338,
        -0.010034763254225254,
        0.10535398870706558,
        -0.08843065798282623
      ],
      [
        -0.0914200097322464,
        -0.057157352566719055,
        -0.10534422099590302,
        -0.0909065455198288,
        -0.12251321971416473,
        0.055505335330963135,
        -0.07655520737171173,
        0.04866369068622589,
        -0.04198369383811951
      ],
      [
        -0.016608839854598045,
        -0.08598556369543076,
        0.043899308890104294,
        0.0785088762640953,
        0.10832739621400833,
        0.12199518829584122,
        0.054026659578084946,
        -0.03874317929148674,
        0.102608323097229
      ],
      [
        -0.11530923843383789,
        0.05335679650306702,
        -0.12382207810878754,
        0.11975614726543427,
        0.04806537926197052,
        -0.11239644885063171,
        -0.011363968253135681,
        -0.06297105550765991,
        -0.0960364043712616
      ],
      [
        -0.07331676781177521,
        0.11169302463531494,
        -0.0696379691362381,
        0.00988970696926117,
        -0.009557753801345825,
        0.10886092483997345,
        0.06747192144393921,
        -0.1121702492237091,
        0.060344189405441284
      ],
      [
        -0.08700482547283173,
        -0.1395500898361206,
        0.1190296933054924,
        -0.027697034180164337,
        -0.31664666533470154,
        0.00255688838660717,
        -0.2528303563594818,
        0.31499940156936646,
        -0.4802398085594177
      ],
      [
        -0.07241130620241165,
        0.08249450474977493,
        0.03492601215839386,
        0.061782412230968475,
        -0.052692268043756485,
        0.10707920044660568,
        0.14850856363773346,
        -0.036111507564783096,
        -0.503227174282074
      ],
      [
        -0.17938843369483948,
        0.006850979756563902,
        0.021177316084504128,
        0.05756864696741104,
        -0.0463482104241848,
        -0.09721319377422333,
        0.0022350666113197803,
        0.01529181282967329,
        -0.19682972133159637
      ],
      [
        -0.09740033745765686,
        -0.021565139293670654,
        -0.12125593423843384,
        -0.12181030213832855,
        -0.0870017260313034,
        0.04431331157684326,
        -0.11715234816074371,
        0.09166547656059265,
        -0.06943592429161072
      ],
      [
        -0.1136583760380745,
        -0.01362617127597332,
        -0.04855750501155853,
        -0.11381753534078598,
        0.11733479052782059,
        0.0680631697177887,
        0.03223268315196037,
        0.11212752759456635,
        0.03312572464346886
      ],
      [
        0.10156305879354477,
        -0.014110569842159748,
        -0.046881966292858124,
        -0.03010994754731655,
        -0.0237179696559906,
        -0.03360171988606453,
        0.045684389770030975,
        0.09756644070148468,
        -0.023924022912979126
      ],
      [
        -0.05693278834223747,
        -0.007767455652356148,
        0.004621325526386499,
        0.0011664649937301874,
        0.11594191938638687,
        0.024463757872581482,
        0.05411941558122635,
        -0.0678253173828125,
        0.07239395380020142
      ],
      [
        -0.039771080017089844,
        -0.00220625102519989,
        -0.11059769988059998,
        0.10909374058246613,
        9.238719940185547e-07,
        0.11613215506076813,
        -0.11068844795227051,
        0.07023413479328156,
        0.07352890074253082
      ],
      [
        -0.09160418063402176,
        0.11282793432474136,
        0.11272665113210678,
        0.13732878863811493,
        -0.008403702639043331,
        0.07023290544748306,
        -0.05290406197309494,
        0.01680673472583294,
        -0.03166600689291954
      ],
      [
        0.09415888041257858,
        -0.05338499695062637,
        -0.015346652828156948,
        0.023615997284650803,
        0.12351925671100616,
        -0.0338662788271904,
        0.10731519013643265,
        0.0917547345161438,
        0.04485371336340904
      ],
      [
        0.044589653611183167,
        -0.03694690763950348,
        0.08383552730083466,
        -0.05551239848136902,
        -0.07699564099311829,
        -0.08115725219249725,
        -0.057605743408203125,
        -0.10178469121456146,
        0.04064546525478363
      ],
      [
        -0.17772921919822693,
        -0.02432977221906185,
        0.039932504296302795,
        0.05681762844324112,
        -0.23920148611068726,
        -0.012963255867362022,
        0.20856845378875732,
        -0.17227286100387573,
        0.18395520746707916
      ],
      [
        0.03099048137664795,
        0.03729981184005737,
        0.06262776255607605,
        -0.09807536005973816,
        0.009534850716590881,
        0.02213338017463684,
        -0.05335018038749695,
        0.009089380502700806,
        -0.08015954494476318
      ],
      [
        -0.08257529139518738,
        -0.016038913279771805,
        0.10474363714456558,
        0.11400078237056732,
        -0.07935411483049393,
        0.09911767393350601,
        0.04610593244433403,
        0.10741691291332245,
        0.029965832829475403
      ],
      [
        -0.018737630918622017,
        -0.23468957841396332,
        0.05365261435508728,
        -0.1127241998910904,
        0.18336372077465057,
        -0.033873122185468674,
        -0.47802677750587463,
        0.4878101050853729,
        0.4111032485961914
      ],
      [
        0.04643329977989197,
        0.02191963791847229,
        0.12196594476699829,
        0.104209765791893,
        0.033125996589660645,
        -0.11725212633609772,
        -0.11326068639755249,
        -0.07016715407371521,
        0.09437583386898041
      ],
      [
        0.11596621572971344,
        0.0540955513715744,
        0.06443411111831665,
        -0.09009145200252533,
        -0.0878000408411026,
        0.082204669713974,
        0.09830582141876221,
        0.06377172470092773,
        0.06663917005062103
      ],
      [
        -0.10350731015205383,
        -0.062375232577323914,
        -0.031498104333877563,
        0.0814913809299469,
        0.06448182463645935,
        -0.12118489295244217,
        -0.022280536592006683,
        -0.11170271784067154,
        0.0630420446395874
      ],
      [
        -0.05191003531217575,
        0.10353364795446396,
        0.08112448453903198,
        -0.09826913475990295,
        0.06946341693401337,
        0.10807076096534729,
        0.11708682775497437,
        -0.07420989871025085,
        0.09726078808307648
      ],
      [
        0.11894126236438751,
        -0.04911588504910469,
        0.05856284871697426,
        -0.11374367028474808,
        -0.03096751868724823,
        -0.074484683573246,
        0.062366507947444916,
        0.0843939557671547,
        -0.04186747968196869
      ],
      [
        -0.03914092853665352,
        0.0907694548368454,
        -0.042290810495615005,
        -0.030025482177734375,
        -0.0411868691444397,
        -0.04749004542827606,
        0.043655142188072205,
        -0.0714457631111145,
        -0.11328014731407166
      ],
      [
        0.11360092461109161,
        -0.0018306212732568383,
        0.03852561116218567,
        -0.07259337604045868,
        0.02755136601626873,
        0.046205416321754456,
        0.11080886423587799,
        0.00558730773627758,
        0.10449744760990143
      ],
      [
        -0.10936617851257324,
        -0.11188961565494537,
        0.07697217166423798,
        0.07218995690345764,
        -0.08193530142307281,
        0.02075253427028656,
        -0.02185770869255066,
        0.055109262466430664,
        0.02412337064743042
      ],
      [
        -0.0909346491098404,
        -0.059257134795188904,
        0.15202480554580688,
        -0.14199820160865784,
        -0.3023233115673065,
        0.19480447471141815,
        0.3682521879673004,
        -0.22685474157333374,
        -0.9469766020774841
      ],
      [
        -0.08575623482465744,
        -0.07714364677667618,
        0.10278384387493134,
        0.1244824007153511,
        0.2041749507188797,
        -0.09122592210769653,
        -0.24746114015579224,
        -0.17749379575252533,
        0.5037789344787598
      ],
      [
        -0.03836249187588692,
        -0.10123051702976227,
        0.06219305843114853,
        0.23807980120182037,
        0.09575721621513367,
        -0.16573064029216766,
        -0.43581628799438477,
        -0.28569886088371277,
        0.6337286233901978
      ],
      [
        0.12672404944896698,
        0.09072235226631165,
        0.006984038278460503,
        -0.009820718318223953,
        -0.0686529129743576,
        0.11458577960729599,
        0.07799682766199112,
        0.049673598259687424,
        0.06357605755329132
      ],
      [
        0.10116089880466461,
        0.041846856474876404,
        0.09456145763397217,
        -0.0588565468788147,
        0.04632313549518585,
        0.02825583517551422,
        0.07318474352359772,
        -0.02698744833469391,
        -0.03206491470336914
      ],
      [
        0.067850261926651,
        -0.02367432415485382,
        0.0721709281206131,
        -0.004398345947265625,
        -0.07125444710254669,
        0.04554729163646698,
        -0.11118435859680176,
        -0.05336800217628479,
        -0.03360015153884888
      ],
      [
        0.049717217683792114,
        0.04165621101856232,
        0.02977152168750763,
        0.02955789864063263,
        -0.0060369521379470825,
        0.02292656898498535,
        0.0031645745038986206,
        -0.08563728630542755,
        0.08423316478729248
      ],
      [
        -0.04034223407506943,
        -0.03226940333843231,
        0.0006814594380557537,
        -0.11654965579509735,
        0.10405707359313965,
        -0.10718809068202972,
        0.04890318214893341,
        0.06777709722518921,
        -0.02500128746032715
      ],
      [
        -0.04887501150369644,
        0.0876467376947403,
        -0.05201992392539978,
        -0.10827372223138809,
        -0.07832800596952438,
        -0.07031095772981644,
        -0.08588404208421707,
        0.09052811563014984,
        -0.015152446925640106
      ],
      [
        -0.09699082374572754,
        -0.06118106469511986,
        0.0025125823449343443,
        0.05567915365099907,
        -0.06834010034799576,
        0.09129811823368073,
        -0.010448141023516655,
        0.01544325053691864,
        -0.021932678297162056
      ],
      [
        -0.04735790193080902,
        0.10035333037376404,
        -0.09871016442775726,
        -0.11596569418907166,
        0.0194845050573349,
        -0.08630207180976868,
        -0.028253570199012756,
        5.634129047393799e-05,
        0.1181216686964035
      ],
      [
        -0.07604588568210602,
        -0.09779182076454163,
        -0.037434548139572144,
        -0.09184366464614868,
        -0.015018835663795471,
        0.03997009992599487,
        0.12405519187450409,
        0.12247733771800995,
        0.00967399775981903
      ],
      [
        0.026208294555544853,
        -0.058999210596084595,
        0.018879953771829605,
        0.058456238359212875,
        -0.05401548743247986,
        0.00387464533559978,
        -0.08643543720245361,
        -0.010768464766442776,
        0.0754094272851944
      ],
      [
        0.12297695875167847,
        0.09084083139896393,
        0.04611752927303314,
        0.06962510943412781,
        -0.08657073974609375,
        0.07300823926925659,
        -0.10823842883110046,
        -0.06759905815124512,
        0.08913423120975494
      ],
      [
        -0.08615350723266602,
        0.018327385187149048,
        -0.08930549025535583,
        -0.04344362020492554,
        0.053796231746673584,
        -0.05109161138534546,
        0.11424919962882996,
        0.049837782979011536,
        0.06282912194728851
      ],
      [
        0.039961569011211395,
        0.004427420441061258,
        -0.07296209037303925,
        0.03781075403094292,
        0.10178786516189575,
        0.026929635554552078,
        -0.11226088553667068,
        -0.01017033588141203,
        -0.0038480879738926888
      ],
      [
        -0.09211105853319168,
        0.0896320715546608,
        0.05418376997113228,
        0.009790599346160889,
        -0.026050850749015808,
        -0.1086130365729332,
        -0.23391102254390717,
        -0.16885581612586975,
        -0.14720170199871063
      ],
      [
        -0.04302211478352547,
        0.09185691922903061,
        -0.02486831322312355,
        -0.021493922919034958,
        0.01970493420958519,
        0.09267600625753403,
        -0.08118686079978943,
        0.081346794962883,
        -0.06472697854042053
      ],
      [
        -0.08900286257266998,
        -0.10679996013641357,
        -0.00042597102583386004,
        0.06812359392642975,
        0.10073745995759964,
        0.022558104246854782,
        0.002617151942104101,
        0.09217552840709686,
        -0.10240114480257034
      ],
      [
        0.11704816669225693,
        -0.11658450961112976,
        0.0599772147834301,
        0.0423678383231163,
        -0.05318818613886833,
        -0.12730248272418976,
        0.05814165994524956,
        0.026804864406585693,
        -0.1181851327419281
      ],
      [
        0.09948202222585678,
        -0.03899741917848587,
        0.019387127831578255,
        0.013853853568434715,
        -0.04651400446891785,
        0.047416336834430695,
        -0.11612047255039215,
        0.05050612986087799,
        -0.008773944340646267
      ],
      [
        0.012401148676872253,
        -0.12081179022789001,
        0.06846940517425537,
        0.09892363846302032,
        0.06439682841300964,
        0.09096860885620117,
        0.08020097017288208,
        -0.06784912943840027,
        0.11840713024139404
      ],
      [
        0.03755504637956619,
        0.11857552826404572,
        0.018662743270397186,
        -0.08053360879421234,
        -0.014154118485748768,
        0.029610615223646164,
        0.03492816910147667,
        -0.12027893960475922,
        -0.10257872194051743
      ],
      [
        -0.033228799700737,
        0.10712264478206635,
        -0.05616109073162079,
        -0.106821209192276,
        -0.0939054936170578,
        -0.08438241481781006,
        0.10401856899261475,
        0.010177642107009888,
        0.03626810014247894
      ],
      [
        -0.03736719489097595,
        -0.052289992570877075,
        -0.04221372306346893,
        0.023419156670570374,
        0.09877973794937134,
        -0.11009618639945984,
        -0.02122543752193451,
        0.09922784566879272,
        -0.029924899339675903
      ],
      [
        0.0032677899580448866,
        0.11123523116111755,
        0.00669780233874917,
        0.03132016584277153,
        0.02236950770020485,
        -0.060633543878793716,
        0.05403492599725723,
        0.034262336790561676,
        -0.07448960095643997
      ],
      [
        0.03931884467601776,
        0.10462889075279236,
        -0.10490816086530685,
        -0.03462650626897812,
        -0.05601637437939644,
        -0.061233121901750565,
        0.3823542296886444,
        0.549289882183075,
        0.22538113594055176
      ],
      [
        -0.14356639981269836,
        0.06315510720014572,
        0.013965599238872528,
        -0.09363140165805817,
        -0.08820647746324539,
        0.2569374442100525,
        -0.5666289925575256,
        -0.29828062653541565,
        -0.4678891599178314
      ],
      [
        0.0872039869427681,
        -0.06492611765861511,
        -0.09549768269062042,
        0.09304840117692947,
        0.09684901684522629,
        0.07316354662179947,
        -0.26394006609916687,
        0.0365777388215065,
        0.4947461485862732
      ],
      [
        0.0731223076581955,
        -0.04915313422679901,
        0.07691313326358795,
        0.01073668897151947,
        -0.059861332178115845,
        0.0813264548778534,
        -0.11942392587661743,
        -0.030918791890144348,
        -0.06403309106826782
      ],
      [
        -0.012595802545547485,
        -0.008161544799804688,
        -0.03673940896987915,
        -0.10950230062007904,
        0.07547084987163544,
        0.09300234913825989,
        0.024909377098083496,
        0.08941653370857239,
        0.11348678171634674
      ],
      [
        -0.061569757759571075,
        0.10322019457817078,
        -0.041689105331897736,
        0.10646581649780273,
        -0.03705510497093201,
        -0.12498889863491058,
        0.10907822847366333,
        0.013682201504707336,
        -0.005286514759063721
      ],
      [
        -0.12123696506023407,
        -0.055513545870780945,
        0.11676426231861115,
        0.08631834387779236,
        0.03558965027332306,
        0.021221905946731567,
        -0.014839142560958862,
        0.03160180151462555,
        -0.042106494307518005
      ],
      [
        0.03125038743019104,
        -0.02571520209312439,
        -0.07804769277572632,
        -0.046987950801849365,
        0.011931419372558594,
        0.12425750494003296,
        0.031441718339920044,
        0.035481780767440796,
        0.004140749573707581
      ],
      [
        0.014581233263015747,
        0.09635774791240692,
        0.03234928846359253,
        0.1139553040266037,
        -0.05744197964668274,
        -0.03243134915828705,
        0.06101636588573456,
        0.0875493735074997,
        0.003477141261100769
      ],
      [
        -0.10781416296958923,
        0.02053600549697876,
        -0.06182721257209778,
        -0.08608373999595642,
        -0.08580245077610016,
        -0.10563188791275024,
        0.11785313487052917,
        1.786649227142334e-05,
        0.0705728679895401
      ],
      [
        -0.018883511424064636,
        -0.03456437587738037,
        -0.047387585043907166,
        0.08253248035907745,
        0.07975755631923676,
        -0.11292989552021027,
        0.016017019748687744,
        -0.04618649184703827,
        0.03461600840091705
      ],
      [
        0.005183368921279907,
        0.04348796606063843,
        0.009902611374855042,
        0.07086829841136932,
        0.1034921258687973,
        -0.018758520483970642,
        -0.1052306741476059,
        0.008873388171195984,
        0.11960083246231079
      ],
      [
        -0.08261279761791229,
        -0.02753385156393051,
        0.004173376131802797,
        0.0257713682949543,
        -0.040881019085645676,
        -0.07200666517019272,
        -0.09053845703601837,
        0.03491261228919029,
        0.1159185990691185
      ],
      [
        0.07687041163444519,
        -0.09667795896530151,
        0.10720257461071014,
        0.0785713940858841,
        -0.0945509672164917,
        0.02849435806274414,
        -0.07184481620788574,
        -0.01607578992843628,
        -0.09695860743522644
      ],
      [
        -0.07243016362190247,
        -0.05652613937854767,
        0.11208736896514893,
        0.10258464515209198,
        0.06297275424003601,
        -0.044146016240119934,
        -0.07601942121982574,
        0.09011717140674591,
        -0.0899750292301178
      ],
      [
        0.05887176841497421,
        -0.07455718517303467,
        0.05646694451570511,
        -0.09234223514795303,
        -0.034584857523441315,
        0.01177150383591652,
        -0.12175989151000977,
        0.11855543404817581,
        0.09091535955667496
      ],
      [
        -0.06853197515010834,
        -0.043480828404426575,
        -0.07605689764022827,
        0.05928599834442139,
        -0.017760321497917175,
        -0.11427788436412811,
        0.06016317009925842,
        0.0997696965932846,
        0.06239771842956543
      ],
      [
        -0.007477842271327972,
        0.08444607257843018,
        -0.021101877093315125,
        0.1199842318892479,
        0.07167237997055054,
        0.08078669756650925,
        0.06516875326633453,
        -0.09629309922456741,
        -0.04441061243414879
      ],
      [
        -0.0863572433590889,
        -0.000989477033726871,
        0.07524397224187851,
        0.1033073216676712,
        -0.08711277693510056,
        -0.04320387542247772,
        -0.03213232755661011,
        0.045597076416015625,
        -0.01996101252734661
      ],
      [
        -0.0457787811756134,
        -0.08383126556873322,
        -0.0808572918176651,
        0.029540956020355225,
        -0.06847645342350006,
        0.08623406291007996,
        0.0012669563293457031,
        -0.07434272766113281,
        -0.024014592170715332
      ],
      [
        0.04143911600112915,
        0.06039696931838989,
        0.1138308048248291,
        -0.0919928103685379,
        0.08222940564155579,
        0.08852165937423706,
        -0.03513091802597046,
        0.04041436314582825,
        0.09320160746574402
      ],
      [
        -0.05328460782766342,
        -0.06874781847000122,
        0.007975504733622074,
        -0.08616211265325546,
        -0.09086930006742477,
        0.023942651227116585,
        0.11254771053791046,
        0.03281598538160324,
        -0.05156169831752777
      ],
      [
        0.11087881028652191,
        -0.04886054992675781,
        -0.08330270648002625,
        -0.030920550227165222,
        0.007507219910621643,
        -0.0464148223400116,
        -0.029305219650268555,
        0.10410355031490326,
        0.06742329895496368
      ],
      [
        -0.07128503173589706,
        0.05778246372938156,
        0.08496485650539398,
        -0.02678206004202366,
        0.33945056796073914,
        -0.09780901670455933,
        -0.21471086144447327,
        -0.06153460219502449,
        0.8541609048843384
      ],
      [
        0.04971832036972046,
        0.06664164364337921,
        -0.08848768472671509,
        0.06071002781391144,
        0.0583246648311615,
        0.09934753179550171,
        0.06316588819026947,
        -0.1212473213672638,
        0.11696112155914307
      ],
      [
        0.08222773671150208,
        0.10442289710044861,
        0.08886998891830444,
        -0.013469457626342773,
        0.10834318399429321,
        0.036040276288986206,
        0.05327020585536957,
        0.05402815341949463,
        0.02726571261882782
      ],
      [
        -0.053525447845458984,
        -0.037037193775177,
        -0.05399326980113983,
        -0.1001836508512497,
        0.00930275022983551,
        0.026786163449287415,
        0.01806241273880005,
        0.023149758577346802,
        -0.06417624652385712
      ],
      [
        -0.05262138694524765,
        -0.06864574551582336,
        0.12754292786121368,
        -0.08583945780992508,
        0.06379938125610352,
        0.056508664041757584,
        -0.0006351436604745686,
        -0.13681377470493317,
        0.13838638365268707
      ],
      [
        0.11513745039701462,
        -0.03307222202420235,
        -0.09353427588939667,
        -0.018516654148697853,
        -0.11867416650056839,
        -0.03723514825105667,
        -0.035799674689769745,
        0.0835547223687172,
        -0.027114413678646088
      ],
      [
        0.005796968936920166,
        -0.06716352701187134,
        0.0868920087814331,
        0.09426409006118774,
        0.01345379650592804,
        -0.019900202751159668,
        0.09664186835289001,
        0.06742803752422333,
        -0.05166745185852051
      ],
      [
        0.046878665685653687,
        0.03086264431476593,
        0.08005933463573456,
        -0.012667223811149597,
        -0.02789972722530365,
        -0.08509838581085205,
        0.03037266433238983,
        0.06701603531837463,
        0.08703877031803131
      ],
      [
        0.018990889191627502,
        0.05329310894012451,
        0.009984761476516724,
        -0.09742210805416107,
        0.11460833251476288,
        -0.11756770312786102,
        -0.06960149109363556,
        0.056829020380973816,
        0.00013557076454162598
      ],
      [
        0.06248018145561218,
        0.06422224640846252,
        0.06187717616558075,
        -0.0702463686466217,
        0.040178850293159485,
        0.07931353151798248,
        -0.09102019667625427,
        -0.04408983886241913,
        0.04822419583797455
      ],
      [
        0.12194937467575073,
        0.11794839799404144,
        -0.1014443188905716,
        0.013492166996002197,
        -0.05819852650165558,
        0.048550888895988464,
        -0.06613671779632568,
        0.1104535162448883,
        0.12112249433994293
      ],
      [
        -0.0613379031419754,
        0.10074731707572937,
        -0.02949787676334381,
        -0.008119912818074226,
        -0.027742575854063034,
        0.02094418928027153,
        -0.053719088435173035,
        0.0497729629278183,
        -0.09180979430675507
      ],
      [
        0.09562700986862183,
        0.12046070396900177,
        -0.07190434634685516,
        -0.049428075551986694,
        -0.012755244970321655,
        0.06159329414367676,
        0.043896451592445374,
        0.11617901921272278,
        -0.0008490681648254395
      ],
      [
        0.06576665490865707,
        0.012736269272863865,
        -0.0062507931143045425,
        -0.08382809907197952,
        -0.023520033806562424,
        -0.016495302319526672,
        0.041385482996702194,
        -0.026680584996938705,
        0.07025836408138275
      ],
      [
        -0.046409428119659424,
        -0.06003624200820923,
        -0.018664732575416565,
        0.02112022042274475,
        0.07296858727931976,
        0.041307106614112854,
        0.10375142097473145,
        -0.10364331305027008,
        0.017393693327903748
      ],
      [
        -0.006906524300575256,
        0.10295453667640686,
        -0.12140804529190063,
        0.12486989796161652,
        -0.03141315281391144,
        0.08221681416034698,
        -0.06742364168167114,
        0.10180778801441193,
        -0.025582492351531982
      ],
      [
        0.04161420464515686,
        -0.004293382167816162,
        0.11125196516513824,
        0.06548014283180237,
        0.10516829788684845,
        -0.05537062883377075,
        0.023729681968688965,
        0.10184305906295776,
        -0.10602115094661713
      ],
      [
        -0.10842794179916382,
        -0.03435008227825165,
        -0.06541413068771362,
        0.08365839719772339,
        0.08473356068134308,
        -0.07249608635902405,
        0.10586434602737427,
        0.1217157393693924,
        0.07697871327400208
      ],
      [
        -0.06897048652172089,
        -0.022246889770030975,
        0.014359400607645512,
        -0.09257630258798599,
        -0.03473152220249176,
        -0.05111362040042877,
        0.04180897772312164,
        0.017661433666944504,
        -0.10232386738061905
      ],
      [
        0.06462240219116211,
        0.04865966737270355,
        0.08729946613311768,
        0.12411808967590332,
        0.03863859176635742,
        -0.08668871223926544,
        0.10724356770515442,
        -0.05205248296260834,
        -0.022204548120498657
      ],
      [
        -0.06972306966781616,
        -0.049571726471185684,
        0.027804456651210785,
        -0.03509750962257385,
        0.12194633483886719,
        -0.0487227588891983,
        -0.06932689249515533,
        -0.0633661150932312,
        -0.11464989185333252
      ],
      [
        -0.10404208302497864,
        -0.05040675774216652,
        0.12441164255142212,
        -0.006991714239120483,
        0.07112656533718109,
        3.869492138619535e-05,
        0.05786336958408356,
        -0.06911425292491913,
        0.06758478283882141
      ],
      [
        -0.10568991303443909,
        0.059213876724243164,
        0.007824108935892582,
        -0.04853479564189911,
        0.07946687936782837,
        -0.09811224043369293,
        0.09659098088741302,
        -0.06032833456993103,
        0.009174123406410217
      ],
      [
        -0.06127460300922394,
        -0.11848030984401703,
        -0.07093222439289093,
        0.031356945633888245,
        -0.06182242929935455,
        -0.017234593629837036,
        -0.011565610766410828,
        0.028590127825737,
        0.06330437958240509
      ],
      [
        -0.06540226936340332,
        -0.04538393020629883,
        0.0670725628733635,
        -0.3464694619178772,
        -0.4498988389968872,
        0.3436296284198761,
        -0.42707645893096924,
        0.02287406288087368,
        -0.6745572090148926
      ],
      [
        -0.10981760919094086,
        -0.1011582612991333,
        -0.06984612345695496,
        0.05100211501121521,
        -0.049032196402549744,
        -0.02425675094127655,
        -0.06375303864479065,
        0.09090559184551239,
        -0.1030520349740982
      ],
      [
        0.01494486816227436,
        -0.112532839179039,
        -0.09583071619272232,
        -0.05336429923772812,
        0.017281344160437584,
        0.02113148383796215,
        -0.11251109838485718,
        -0.05861921235918999,
        -0.02951132133603096
      ],
      [
        -0.12065036594867706,
        -0.08633723855018616,
        0.08549129962921143,
        -0.10511236637830734,
        -0.001507639535702765,
        -0.10497204959392548,
        0.08412989974021912,
        0.03430661931633949,
        -0.010116166435182095
      ],
      [
        0.12827737629413605,
        -0.03853040561079979,
        -0.015119550749659538,
        0.23317021131515503,
        0.08695146441459656,
        -0.18691687285900116,
        0.1717464029788971,
        -0.3025953769683838,
        0.1308872252702713
      ],
      [
        0.07593252509832382,
        -0.08198973536491394,
        -0.12846998870372772,
        0.07614221423864365,
        0.29576247930526733,
        -0.12756456434726715,
        -0.1977836787700653,
        0.10025501996278763,
        0.6343480944633484
      ],
      [
        0.11910457164049149,
        -0.12245422601699829,
        -0.07338845729827881,
        0.0300271138548851,
        0.09477434307336807,
        -0.04830993711948395,
        -0.0712181031703949,
        -0.06878771632909775,
        0.024936025962233543
      ],
      [
        0.015039477497339249,
        -0.05471508204936981,
        -0.038720596581697464,
        0.046453461050987244,
        0.25877052545547485,
        -0.12644091248512268,
        0.013732989318668842,
        0.4424358904361725,
        0.7560868263244629
      ],
      [
        0.04033780097961426,
        0.09826540946960449,
        -0.07761599868535995,
        -0.22976604104042053,
        -0.5181527137756348,
        0.21611490845680237,
        0.3418319821357727,
        -0.12743863463401794,
        -1.0693333148956299
      ],
      [
        0.0031857076101005077,
        -0.030018318444490433,
        0.00653325067833066,
        0.02999112941324711,
        0.6559756398200989,
        -0.1766471117734909,
        -0.19545118510723114,
        0.2838863730430603,
        1.5041860342025757
      ],
      [
        -0.02700396627187729,
        0.032671768218278885,
        0.015151381492614746,
        -0.34015971422195435,
        -0.5528638362884521,
        0.25621581077575684,
        -0.30315953493118286,
        -0.2279886156320572,
        -1.0096261501312256
      ],
      [
        -0.11317665874958038,
        -0.0981239452958107,
        0.05958452820777893,
        -0.03513718023896217,
        -0.03466731682419777,
        -0.05518067628145218,
        0.02551284246146679,
        0.042578745633363724,
        0.006220767740160227
      ],
      [
        0.10362128168344498,
        0.09316206723451614,
        -0.016175195574760437,
        -0.090593621134758,
        0.0035071847960352898,
        -0.12159140408039093,
        -0.04141642153263092,
        -0.029354525730013847,
        0.058998629450798035
      ],
      [
        -0.022949233651161194,
        0.012022930197417736,
        0.11062298715114594,
        0.12218957394361496,
        -0.048948414623737335,
        -0.08801095187664032,
        -0.012274228036403656,
        0.05596799775958061,
        -0.0787581279873848
      ],
      [
        -0.07610651850700378,
        -0.12037687003612518,
        0.10029725730419159,
        -0.04502612352371216,
        -0.016634926199913025,
        0.013377487659454346,
        0.022881120443344116,
        -0.043276458978652954,
        -0.0457470566034317
      ],
      [
        0.01764531061053276,
        -0.04323930665850639,
        0.0726386234164238,
        -0.10879675298929214,
        -0.03243621438741684,
        0.04904186725616455,
        -0.033140189945697784,
        -0.0479888916015625,
        -0.053651414811611176
      ],
      [
        -0.1386032998561859,
        0.06076297163963318,
        -0.03355050086975098,
        0.16634498536586761,
        0.06669696420431137,
        -0.11033996194601059,
        0.06311136484146118,
        0.05201578885316849,
        0.17090387642383575
      ],
      [
        0.03566651791334152,
        0.08250720798969269,
        -0.10229769349098206,
        0.059782981872558594,
        0.4885205626487732,
        -0.002845598151907325,
        0.49492114782333374,
        0.34077775478363037,
        0.3052149713039398
      ],
      [
        0.0615585520863533,
        -0.018745040521025658,
        -0.07604191452264786,
        0.14296671748161316,
        0.3851802945137024,
        -0.32229083776474,
        -0.43317222595214844,
        0.07028388231992722,
        0.9897587895393372
      ],
      [
        0.14938843250274658,
        -0.017136534675955772,
        0.04216563701629639,
        0.045193009078502655,
        0.009818699210882187,
        -0.048222824931144714,
        -0.08393040299415588,
        -0.06222246214747429,
        0.07771752774715424
      ],
      [
        -0.03710877522826195,
        0.055158499628305435,
        0.06065286695957184,
        0.14028847217559814,
        0.5986605882644653,
        -0.22339609265327454,
        -0.2922446131706238,
        -0.1308903992176056,
        0.8600217700004578
      ],
      [
        -0.036886006593704224,
        0.0643644630908966,
        0.026264609768986702,
        0.004221080802381039,
        -0.03945719823241234,
        -0.12748587131500244,
        0.0865924209356308,
        0.08336842060089111,
        -0.008490319363772869
      ],
      [
        -0.0683356449007988,
        0.03640889748930931,
        0.11649008840322495,
        -0.15090321004390717,
        -0.4222792387008667,
        0.23531696200370789,
        0.5129334926605225,
        -0.30452316999435425,
        -0.7890352606773376
      ],
      [
        -0.03389134258031845,
        -0.07125768065452576,
        -0.05340157821774483,
        0.10187235474586487,
        -0.11913427710533142,
        -0.11265820264816284,
        -0.05573636293411255,
        -0.0651816576719284,
        0.08736571669578552
      ],
      [
        -0.10538408905267715,
        -0.11965589970350266,
        0.039004407823085785,
        0.2697533965110779,
        0.48881345987319946,
        -0.33973971009254456,
        0.5430608987808228,
        -0.3084886968135834,
        0.46859827637672424
      ],
      [
        0.0012992124538868666,
        -0.0010624650167301297,
        0.0012594428844749928,
        -0.4915524423122406,
        -0.875993013381958,
        0.5781273245811462,
        0.2233266830444336,
        -0.020318634808063507,
        -2.1680309772491455
      ],
      [
        0.019002079963684082,
        0.03934292495250702,
        0.0895543098449707,
        -0.12181101739406586,
        -0.047475665807724,
        -0.01385679841041565,
        0.048333555459976196,
        -0.10395772755146027,
        -0.08865930140018463
      ],
      [
        -0.11955805122852325,
        0.07597528398036957,
        0.08842133730649948,
        0.309721976518631,
        0.416265606880188,
        -0.15373754501342773,
        0.23407979309558868,
        0.147999107837677,
        0.7187075018882751
      ],
      [
        0.0047187190502882,
        0.05292252078652382,
        -0.11973580718040466,
        -0.09292268753051758,
        -0.06997820734977722,
        -0.04893818497657776,
        0.010993674397468567,
        0.040235504508018494,
        0.06140461564064026
      ],
      [
        -0.04038560390472412,
        -0.013858983293175697,
        -0.04773693531751633,
        0.10642051696777344,
        -0.005137799773365259,
        -0.07920647412538528,
        0.09517934918403625,
        0.05688561126589775,
        0.0010720008285716176
      ],
      [
        0.043505556881427765,
        -0.039591234177351,
        -0.09055860340595245,
        -0.06298165023326874,
        0.3069553077220917,
        -0.10381166636943817,
        -0.1769486963748932,
        0.4972629249095917,
        0.7192261815071106
      ],
      [
        -0.06830711662769318,
        -0.07557995617389679,
        -0.07385166734457016,
        -0.03671450912952423,
        -0.02913665771484375,
        -0.012890160083770752,
        -0.003968626260757446,
        -0.01230563223361969,
        -0.011195138096809387
      ],
      [
        0.03386005759239197,
        -0.08975966274738312,
        0.10365313291549683,
        -0.028478115797042847,
        -0.09094774723052979,
        -0.010791316628456116,
        -0.05877797305583954,
        0.07288815081119537,
        0.011955037713050842
      ],
      [
        0.0654706358909607,
        0.06796856224536896,
        0.060268864035606384,
        -0.12428157031536102,
        0.020266056060791016,
        0.12051096558570862,
        -0.11728619039058685,
        -0.10035553574562073,
        -0.09520533680915833
      ],
      [
        -0.1253403127193451,
        0.028077494353055954,
        0.018153874203562737,
        -0.04110025241971016,
        0.02136855758726597,
        0.042097724974155426,
        0.14378783106803894,
        -0.01585317961871624,
        -0.07335402816534042
      ],
      [
        0.09571248292922974,
        0.009104731492698193,
        -0.09538278728723526,
        -0.04203016683459282,
        0.12282172590494156,
        -0.07012318074703217,
        -0.10370630025863647,
        -0.06407081335783005,
        0.08953608572483063
      ],
      [
        -0.01571730524301529,
        0.0336039662361145,
        0.011118791997432709,
        0.28547143936157227,
        0.5468912720680237,
        -0.4442889094352722,
        -0.20674672722816467,
        0.0195186547935009,
        1.9547196626663208
      ],
      [
        0.03243614733219147,
        0.07565106451511383,
        0.11779172718524933,
        -0.07018280029296875,
        0.09898784756660461,
        -0.03589652478694916,
        -0.007862403988838196,
        -0.022051140666007996,
        0.01563797891139984
      ],
      [
        0.06892520189285278,
        -0.027213014662265778,
        -0.11379305273294449,
        0.08217660337686539,
        0.500115692615509,
        -0.1296304315328598,
        -0.45010730624198914,
        0.1124923899769783,
        0.9956532120704651
      ],
      [
        0.013304144144058228,
        -0.09090567380189896,
        -0.07555032521486282,
        -0.03026621788740158,
        0.0683411955833435,
        -0.027827944606542587,
        -0.004040180239826441,
        -0.07900744676589966,
        -0.009580625221133232
      ],
      [
        0.10912615060806274,
        0.12383030354976654,
        0.08639980852603912,
        0.08192329108715057,
        0.11551809310913086,
        -0.013943493366241455,
        -0.12076202034950256,
        -0.11217926442623138,
        0.1216263622045517
      ],
      [
        -0.05895819887518883,
        -0.020473970100283623,
        -0.020794687792658806,
        -0.01958491839468479,
        0.10659264773130417,
        -0.047096896916627884,
        -0.09201201796531677,
        -0.06876187771558762,
        0.017691828310489655
      ],
      [
        0.08093475550413132,
        0.09413931518793106,
        -0.11740085482597351,
        0.24704141914844513,
        0.4647517502307892,
        -0.3653419315814972,
        -0.56004399061203,
        0.15905696153640747,
        0.6267687678337097
      ],
      [
        0.00225713849067688,
        0.0456402450799942,
        0.0890413373708725,
        0.016856014728546143,
        -0.11933079361915588,
        -0.1200452446937561,
        -0.05400027334690094,
        0.018240749835968018,
        -0.007617682218551636
      ],
      [
        0.011249593459069729,
        -0.13901729881763458,
        -0.07936844974756241,
        -0.11293251812458038,
        0.07066957652568817,
        0.036799356341362,
        -0.06225113198161125,
        0.030304769054055214,
        -0.09767131507396698
      ],
      [
        -0.007368086837232113,
        -0.12512582540512085,
        -0.020326362922787666,
        0.10042824596166611,
        -0.07792726159095764,
        0.10907740890979767,
        0.0770689994096756,
        0.07957092672586441,
        0.11493977159261703
      ],
      [
        0.04020346701145172,
        -0.043122872710227966,
        0.09220501780509949,
        -0.001505926251411438,
        -0.06886725127696991,
        -0.03355352580547333,
        0.04010815918445587,
        -0.034278303384780884,
        -0.007489502429962158
      ],
      [
        -0.1084451675415039,
        -0.03656591475009918,
        -0.09913775324821472,
        0.06872980296611786,
        0.12125654518604279,
        -0.0921085923910141,
        -0.06434997916221619,
        0.07003162801265717,
        0.020761743187904358
      ],
      [
        -0.09575572609901428,
        0.006844386458396912,
        -0.11942727863788605,
        0.11303375661373138,
        0.009305879473686218,
        -0.08335275948047638,
        0.043981730937957764,
        0.05192093551158905,
        0.0407090038061142
      ],
      [
        -0.12524157762527466,
        -0.0854836106300354,
        0.007758518680930138,
        0.03483419492840767,
        0.059473711997270584,
        0.020749932155013084,
        -0.049382347613573074,
        -0.03164530545473099,
        -0.02951381541788578
      ],
      [
        -0.03816987946629524,
        0.05356685817241669,
        0.02357761189341545,
        0.060485124588012695,
        0.09045843780040741,
        -0.0006557783344760537,
        -0.009289338253438473,
        0.03481660783290863,
        -0.10412426292896271
      ],
      [
        -0.02621970698237419,
        0.04761596769094467,
        0.07360324263572693,
        -0.017697801813483238,
        0.20939812064170837,
        -0.006715122610330582,
        0.2544759213924408,
        0.48261409997940063,
        1.0518916845321655
      ],
      [
        -0.11015930026769638,
        0.06974588334560394,
        -0.07361437380313873,
        -0.01629539392888546,
        0.11081389337778091,
        -0.06131082400679588,
        -0.0580882653594017,
        -0.10650842636823654,
        0.11428350955247879
      ],
      [
        -0.06712034344673157,
        0.05127786472439766,
        -0.03714968264102936,
        0.06917344033718109,
        -0.008294908329844475,
        0.11751338094472885,
        0.04491453990340233,
        -0.04635126516222954,
        0.03550994396209717
      ],
      [
        -0.05374610424041748,
        -0.09062431752681732,
        -0.10420066118240356,
        -0.03340126574039459,
        0.01023438572883606,
        -0.037481263279914856,
        0.08081316947937012,
        -0.017130374908447266,
        -0.09922762215137482
      ],
      [
        0.0191502682864666,
        -0.057388778775930405,
        0.06950511038303375,
        -0.06347592920064926,
        0.0013573711039498448,
        -0.06728862971067429,
        -0.0862329974770546,
        0.09594248980283737,
        -0.06929033249616623
      ],
      [
        0.20535100996494293,
        -0.04404842108488083,
        -0.019756056368350983,
        -0.08070048689842224,
        0.10099631547927856,
        0.07593484967947006,
        -0.08919377624988556,
        -0.019473422318696976,
        0.0749824047088623
      ],
      [
        0.03015543520450592,
        -0.05384399741888046,
        -0.015817848965525627,
        0.07160612940788269,
        0.037085212767124176,
        0.022542957216501236,
        0.1203809455037117,
        -0.062221746891736984,
        -0.0016115165781229734
      ],
      [
        0.0124393031001091,
        0.10945960134267807,
        0.027338948100805283,
        0.04490115866065025,
        -0.06308217346668243,
        -0.02087322622537613,
        -0.08367875963449478,
        0.005225810222327709,
        0.1239127665758133
      ],
      [
        0.08927349746227264,
        -0.05704475939273834,
        -0.11230102181434631,
        0.03526054322719574,
        -0.09084613621234894,
        0.09721416234970093,
        -0.05867445468902588,
        -0.12289613485336304,
        -0.041329026222229004
      ],
      [
        0.005973906256258488,
        -0.06837242841720581,
        -0.013749607838690281,
        -0.036879632622003555,
        0.03186178579926491,
        -0.04064581170678139,
        0.0805085077881813,
        0.09788104146718979,
        0.06763513386249542
      ],
      [
        -0.06555148959159851,
        0.08700141310691833,
        -0.10716192424297333,
        0.09204904735088348,
        -0.09383600950241089,
        -0.04765918850898743,
        -0.043461427092552185,
        0.011401737108826637,
        0.11225666105747223
      ],
      [
        0.030708834528923035,
        -0.03464891389012337,
        -0.10360084474086761,
        -0.11198687553405762,
        -0.07801753282546997,
        0.11046137660741806,
        0.2417285144329071,
        0.11973545700311661,
        0.6842475533485413
      ],
      [
        0.11856408417224884,
        0.08763156086206436,
        0.005444429814815521,
        0.0783734992146492,
        0.05836167186498642,
        0.08322597295045853,
        -0.09079117327928543,
        -0.043118271976709366,
        -0.16269436478614807
      ]
    ],
    "lstm.weight_hh_l0": [
      [
        -0.07543352991342545,
        -0.04344823956489563,
        0.06857232749462128,
        0.019637659192085266,
        -0.11402931809425354,
        0.01995575800538063,
        -0.06871107220649719,
        0.005999301560223103,
        0.15874779224395752,
        -0.4306086599826813,
        0.1777879297733307,
        0.04238855838775635,
        0.09215938299894333,
        -0.023305213078856468,
        -0.011365249752998352,
        -0.04791449010372162,
        -0.02827095426619053,
        0.07263566553592682,
        0.11726264655590057,
        -0.0791437029838562,
        0.43218541145324707,
        -0.05064116418361664,
        -0.08576163649559021,
        0.09111729264259338,
        -0.10027070343494415,
        0.231894850730896,
        -0.48099181056022644,
        -0.12371785193681717,
        -0.08249475061893463,
        0.040965065360069275,
        -0.1492311805486679,
        -0.12395134568214417,
        -0.02066977694630623,
        -0.09161683917045593,
        0.060624029487371445,
        0.06466218829154968,
        -0.4124726355075836,
        -0.03713950887322426,
        0.11222110688686371,
        -0.12323203682899475,
        0.22775088250637054,
        0.09504181891679764,
        0.04348721727728844,
        -0.13155414164066315,
        0.1060325875878334,
        0.10588905960321426,
        0.22401516139507294,
        -0.11335660517215729,
        0.011970072984695435,
        0.10102811455726624,
        -0.0996110588312149,
        -0.07585075497627258,
        -0.08661262691020966,
        -0.012758799828588963,
        0.033578336238861084,
        0.052965037524700165,
        0.062461238354444504,
        0.10150668025016785,
        0.08168419450521469,
        -0.01288895308971405,
        0.09752523899078369,
        -0.02540154755115509,
        0.08678458631038666,
        -0.10234640538692474
      ],
      [
        0.03094857931137085,
        -0.10766126215457916,
        0.11926217377185822,
        -0.12391522526741028,
        0.026706472039222717,
        0.08481751382350922,
        0.11148124933242798,
        -0.052771881222724915,
        -0.10543695092201233,
        0.03264613449573517,
        -0.04604022204875946,
        -0.10863344371318817,
        0.07339580357074738,
        0.08344711363315582,
        0.11353524029254913,
        -0.04390569031238556,
        -0.08735162019729614,
        -0.11736592650413513,
        -0.011997148394584656,
        -0.10347121953964233,
        -0.10762092471122742,
        -0.003707483410835266,
        0.08139130473136902,
        0.00443616509437561,
        -0.07770422101020813,
        0.12426874041557312,
        -0.0761142373085022,
        0.024919360876083374,
        0.036445409059524536,
        0.03468412160873413,
        -0.03656934201717377,
        -0.00511014461517334,
        -0.06802605092525482,
        0.07824049890041351,
        -0.02496984601020813,
        0.050585001707077026,
        -0.0548412948846817,
        0.07138790190219879,
        -0.06780672073364258,
        0.07882460951805115,
        -0.0363338440656662,
        -0.05557432770729065,
        0.051673486828804016,
        -0.06764647364616394,
        -0.07931135594844818,
        -0.09349754452705383,
        -0.07002060115337372,
        -0.009606629610061646,
        -0.03040345013141632,
        -0.041190147399902344,
        0.10634177923202515,
        0.053334057331085205,
        -0.06949973106384277,
        0.0599704384803772,
        -0.0999012142419815,
        0.09821915626525879,
        0.07409414649009705,
        -0.09670917689800262,
        0.06311921775341034,
        -0.08630691468715668,
        -0.041865602135658264,
        0.03173075616359711,
        -0.01721729338169098,
        -0.0497736930847168
      ],
      [
        -0.11684262752532959,
        0.12046323716640472,
        0.052114348858594894,
        0.041617631912231445,
        -0.11741722375154495,
        -0.10846675932407379,
        -0.06191161274909973,
        0.07261861860752106,
        0.07347651571035385,
        0.06237373501062393,
        -0.03607415780425072,
        0.07548379898071289,
        0.10662736743688583,
        -0.08279567211866379,
        -0.04183065891265869,
        -0.10625559091567993,
        -0.09747127443552017,
        -0.08762326091527939,
        0.02974209003150463,
        0.024705620482563972,
        0.06056651473045349,
        -0.02845146134495735,
        -0.07596096396446228,
        -0.027202680706977844,
        -0.08097019791603088,
        0.039640992879867554,
        0.10706300288438797,
        -0.03719193488359451,
        -0.03769493103027344,
        0.1097772866487503,
        -0.07120122015476227,
        0.06912030279636383,
        -0.09601683169603348,
        0.09485373646020889,
        -0.10154856741428375,
        0.12080192565917969,
        -0.011012989096343517,
        0.06410624086856842,
        0.006198758725076914,
        -0.09689977765083313,
        -0.11766929179430008,
        0.09610819816589355,
        -0.026275089010596275,
        0.1052657961845398,
        -0.08125126361846924,
        0.053223688155412674,
        -0.02315121330320835,
        -0.04772612452507019,
        -0.00625939667224884,
        0.09024707973003387,
        -0.08174274861812592,
        0.028183074668049812,
        0.05630117654800415,
        -0.011045140214264393,
        0.014419317245483398,
        -0.04398922249674797,
        -0.05176930874586105,
        -0.04079611599445343,
        -0.10638539493083954,
        -0.10034818947315216,
        0.06740915775299072,
        0.055528029799461365,
        0.08797110617160797,
        -0.10736677050590515
      ],
      [
        -0.11139272898435593,
        -0.05551372468471527,
        0.028940018266439438,
        0.005378514528274536,
        -0.11417415738105774,
        -0.08978217840194702,
        0.10097229480743408,
        0.0038867767434567213,
        -0.11835408955812454,
        -0.09990322589874268,
        -0.07774090766906738,
        -0.05151677131652832,
        -0.0816786140203476,
        0.004111710470169783,
        -0.12118571996688843,
        -0.12460360676050186,
        0.01469641923904419,
        0.06470009684562683,
        0.04104847460985184,
        -0.026213442906737328,
        -0.12078327685594559,
        0.04192163422703743,
        -0.0840996578335762,
        -0.06774230301380157,
        -0.10358504951000214,
        -0.05905008688569069,
        -0.019328301772475243,
        0.04558354988694191,
        -0.07527266442775726,
        -0.028111532330513,
        0.10601135343313217,
        -0.01503811776638031,
        -0.04191439226269722,
        0.07948924601078033,
        -0.06907591223716736,
        0.06057502329349518,
        -0.08780518174171448,
        -0.03608936816453934,
        0.08415442705154419,
        -0.07566238939762115,
        0.1190086379647255,
        -0.0832209438085556,
        -0.0444338396191597,
        0.03744788095355034,
        -0.01798674464225769,
        -0.036925774067640305,
        -0.028391819447278976,
        -0.07603839039802551,
        -0.10458645224571228,
        -0.09498763084411621,
        0.0048454999923706055,
        0.1167527362704277,
        0.06791862845420837,
        0.005114570260047913,
        0.10237079858779907,
        -0.03248272463679314,
        0.00670356722548604,
        0.07375577837228775,
        0.11883170902729034,
        0.07685230672359467,
        0.07483601570129395,
        0.09152738749980927,
        -0.10472305119037628,
        -0.06184787675738335
      ],
      [
        -0.054489389061927795,
        0.0525193065404892,
        0.055537305772304535,
        0.005931974388659,
        0.19705528020858765,
        0.10354478657245636,
        -0.0033689336851239204,
        0.28571367263793945,
        0.26521533727645874,
        -0.048677295446395874,
        -0.054974306374788284,
        -0.061582908034324646,
        -0.02303393930196762,
        -0.15277698636054993,
        -0.05022852122783661,
        0.15720057487487793,
        -0.10793891549110413,
        -0.13524657487869263,
        0.0012479472206905484,
        -0.052111707627773285,
        -0.1098860427737236,
        -0.10856013000011444,
        -0.009076031856238842,
        0.03276744484901428,
        0.045021455734968185,
        0.1792745441198349,
        -0.016171200200915337,
        -0.04050289839506149,
        -0.050831958651542664,
        -0.016369689255952835,
        -0.3563278615474701,
        -0.025104254484176636,
        -0.014076773077249527,
        -0.06294340640306473,
        -0.06443008035421371,
        -0.02479908987879753,
        0.11632580310106277,
        0.08504945039749146,
        0.11209437996149063,
        0.027013860642910004,
        -0.13656465709209442,
        -0.05657532811164856,
        -0.0978228896856308,
        0.09194422513246536,
        0.02870321273803711,
        -0.06416814029216766,
        -0.030895603820681572,
        -0.04837104678153992,
        -0.026748672127723694,
        -0.0336059145629406,
        -0.12002770602703094,
        -0.047236353158950806,
        -0.11881376802921295,
        0.10381486266851425,
        -0.05210873484611511,
        0.20752567052841187,
        -0.15644215047359467,
        0.230811208486557,
        0.14454443752765656,
        -0.014047324657440186,
        0.006253338884562254,
        0.04963564872741699,
        0.08063618093729019,
        0.19070002436637878
      ],
      [
        -0.004612141288816929,
        0.040047645568847656,
        0.04917176440358162,
        0.04155219718813896,
        -0.30567827820777893,
        0.14559097588062286,
        0.03548473119735718,
        0.16200748085975647,
        0.4527609348297119,
        0.2792394757270813,
        -0.03818168863654137,
        -0.05424269661307335,
        -0.010348629206418991,
        -0.3697867691516876,
        -0.005505740642547607,
        0.3359091877937317,
        -0.029842501506209373,
        -0.3280004560947418,
        0.2074672132730484,
        -0.39898332953453064,
        -0.12431012839078903,
        -0.042778823524713516,
        -0.32400578260421753,
        0.04603798687458038,
        -0.04176246002316475,
        0.1010766327381134,
        0.1511753648519516,
        0.04763355851173401,
        -0.009804293513298035,
        0.044690392911434174,
        -0.3306334912776947,
        -0.009422332048416138,
        0.09937252104282379,
        0.2067548632621765,
        -0.09564732015132904,
        0.0732870027422905,
        0.10717102885246277,
        -0.09111533313989639,
        0.35075944662094116,
        -0.038480281829833984,
        0.04982965439558029,
        0.0634148046374321,
        -0.31263643503189087,
        0.08590005338191986,
        -0.11435120552778244,
        0.049900155514478683,
        -0.058197688311338425,
        0.0718645304441452,
        0.11146138608455658,
        -0.06257236748933792,
        -0.02733810804784298,
        0.14522762596607208,
        -0.03237011283636093,
        -0.08353998512029648,
        0.059746310114860535,
        0.3707056939601898,
        -0.13790546357631683,
        0.39397579431533813,
        -0.054862674325704575,
        0.05010375380516052,
        0.07347553968429565,
        0.11096751689910889,
        0.12418677657842636,
        0.15963530540466309
      ],
      [
        -0.015136255882680416,
        -0.026936903595924377,
        -0.10157199203968048,
        -0.03301133215427399,
        -0.05053204298019409,
        0.11066452413797379,
        -0.11203597486019135,
        0.11981062591075897,
        -0.025079110637307167,
        -0.019906925037503242,
        -0.05585591495037079,
        -0.047244593501091,
        -0.07241056114435196,
        0.048840269446372986,
        0.05950075387954712,
        -0.09895701706409454,
        -0.06992608308792114,
        0.08262453973293304,
        -0.09047617018222809,
        0.054525695741176605,
        -0.0051803733222186565,
        -0.047388508915901184,
        -0.004234871827065945,
        -0.07475434243679047,
        0.02177228033542633,
        0.034962188452482224,
        -0.020420746877789497,
        0.04052245616912842,
        -0.005326315760612488,
        0.10456858575344086,
        0.09367689490318298,
        0.004604354500770569,
        -0.05212290585041046,
        -0.021901875734329224,
        -0.07270460575819016,
        -0.008808180689811707,
        0.10025262832641602,
        -0.122612364590168,
        -0.02806735783815384,
        0.10215997695922852,
        0.07382260262966156,
        -0.09193666279315948,
        -0.04475843533873558,
        -0.07502869516611099,
        -0.019629687070846558,
        -0.06461376696825027,
        -0.09182856231927872,
        -0.0003020167350769043,
        0.08730751276016235,
        0.051845088601112366,
        -0.09663097560405731,
        -0.09773653745651245,
        -0.06666873395442963,
        -0.009096041321754456,
        0.04218512773513794,
        -0.10747414827346802,
        0.05031690001487732,
        0.09670411050319672,
        -0.1193607747554779,
        0.007231861352920532,
        -0.10756203532218933,
        0.05984668433666229,
        -0.021856606006622314,
        -0.09122829139232635
      ],
      [
        -0.07000724971294403,
        -0.11068913340568542,
        0.01118411123752594,
        -0.0763239711523056,
        0.010669857263565063,
        0.0059537142515182495,
        -0.05879630148410797,
        0.11625562608242035,
        0.11869531869888306,
        -0.10371378064155579,
        -0.06079939007759094,
        0.03272631764411926,
        0.035154789686203,
        0.11681082844734192,
        0.02050657570362091,
        -0.10241368412971497,
        -0.05057397484779358,
        0.047249674797058105,
        -0.01317991316318512,
        0.036587193608284,
        -0.1236967146396637,
        0.12037120759487152,
        0.09546424448490143,
        -0.0382532924413681,
        0.03434363007545471,
        -0.0018082112073898315,
        -0.05360928177833557,
        0.04857295751571655,
        0.08049264550209045,
        0.11075520515441895,
        0.017031937837600708,
        0.10569572448730469,
        -0.05598212778568268,
        -0.03350365161895752,
        0.12059509754180908,
        0.034544751048088074,
        -0.07712419331073761,
        0.10126055777072906,
        0.003645166754722595,
        0.04985235631465912,
        -0.12233354151248932,
        -0.01571957767009735,
        0.0801096111536026,
        -0.05096012353897095,
        0.05061197280883789,
        0.06471817195415497,
        0.07835255563259125,
        -0.07477709650993347,
        0.08824829757213593,
        -0.03503665328025818,
        0.12297974526882172,
        0.118838369846344,
        0.031081050634384155,
        -0.04451882839202881,
        -0.1013193279504776,
        -0.037229686975479126,
        -0.09948575496673584,
        -0.01743510365486145,
        0.03938785195350647,
        -0.08194904029369354,
        0.08981136977672577,
        0.020730167627334595,
        0.05691911280155182,
        0.10131287574768066
      ],
      [
        -0.28297460079193115,
        -0.01628592610359192,
        -0.057101450860500336,
        0.07015584409236908,
        -0.11610754579305649,
        -0.14949995279312134,
        -0.04754739999771118,
        0.22751235961914062,
        0.24454662203788757,
        0.07081209123134613,
        0.17977207899093628,
        -0.08160001039505005,
        -0.10889733582735062,
        0.022895609959959984,
        -0.09882500767707825,
        0.012084164656698704,
        0.02078849822282791,
        -0.3046497702598572,
        0.18081963062286377,
        -0.10365831106901169,
        0.08088479936122894,
        0.10003001242876053,
        0.0037377572152763605,
        -0.0737234503030777,
        0.06741777807474136,
        -0.12252950668334961,
        0.023539496585726738,
        0.054279424250125885,
        0.06111687421798706,
        0.07279805839061737,
        -0.2518408000469208,
        -0.09182314574718475,
        0.057992544025182724,
        -0.20264112949371338,
        -0.11451393365859985,
        0.10158728063106537,
        -0.10523790866136551,
        0.05319239944219589,
        0.21109479665756226,
        0.019609898328781128,
        0.08605597168207169,
        0.021465415135025978,
        -0.04255911335349083,
        -0.24481377005577087,
        -0.10957354307174683,
        0.09111137688159943,
        0.06918612867593765,
        -0.1023930162191391,
        0.04408331215381622,
        -0.0025988577399402857,
        -0.08120810985565186,
        -0.08427862077951431,
        0.11404283344745636,
        -0.11290325969457626,
        -0.06903909146785736,
        0.06901312619447708,
        -0.18417178094387054,
        0.17923671007156372,
        -0.07138444483280182,
        0.06753073632717133,
        -0.03996577858924866,
        0.03407317399978638,
        0.1913435012102127,
        0.12284956872463226
      ],
      [
        -0.1550329178571701,
        0.08643347024917603,
        -0.10270553827285767,
        -0.06146032363176346,
        0.07818930596113205,
        -0.21196332573890686,
        0.05752359330654144,
        0.1666480451822281,
        0.06049918755888939,
        0.012808061204850674,
        0.13917763531208038,
        0.10513260215520859,
        0.05544004216790199,
        -0.08770650625228882,
        -0.11739648878574371,
        -0.0471515916287899,
        -0.08353046327829361,
        -0.30205175280570984,
        -0.45129168033599854,
        -0.11586268991231918,
        0.31316667795181274,
        -0.034767646342515945,
        0.20859107375144958,
        -0.10861678421497345,
        -0.07573108375072479,
        -0.009259522892534733,
        -0.16784650087356567,
        -0.36594101786613464,
        0.07211562991142273,
        -0.01945848949253559,
        -0.34360426664352417,
        0.09594111144542694,
        0.15944966673851013,
        -0.16899144649505615,
        0.06974094361066818,
        0.0514974482357502,
        -0.2088402807712555,
        0.2791963815689087,
        0.2937353253364563,
        0.07205691933631897,
        0.4044300615787506,
        0.04290849715471268,
        -0.03781650587916374,
        -0.2348138988018036,
        -0.07858915627002716,
        0.04707477614283562,
        0.20499664545059204,
        -0.04072578251361847,
        -0.010154619812965393,
        -0.006991231814026833,
        0.12415279448032379,
        0.07529508322477341,
        0.11659291386604309,
        -0.09661988168954849,
        -0.02091801166534424,
        -0.006909468676894903,
        -0.2504726052284241,
        0.3863307535648346,
        0.13778851926326752,
        -0.0054919421672821045,
        0.12010681629180908,
        0.014127969741821289,
        0.0842898041009903,
        0.005506572313606739
      ],
      [
        -0.15435050427913666,
        0.038698941469192505,
        -0.012495629489421844,
        -0.03955766558647156,
        -0.10885710269212723,
        0.15578453242778778,
        -0.06365132331848145,
        0.07718805968761444,
        -0.23250646889209747,
        -0.1715010106563568,
        -0.07432114332914352,
        0.08118712902069092,
        0.09292181581258774,
        0.15308891236782074,
        0.1198461502790451,
        0.017034862190485,
        -0.09829562902450562,
        0.06707995384931564,
        0.3385164737701416,
        0.042285848408937454,
        0.033490028232336044,
        -0.09183495491743088,
        -0.16940775513648987,
        0.04674138128757477,
        -0.19201064109802246,
        0.1384846270084381,
        0.11712906509637833,
        0.05548573657870293,
        -0.011033937335014343,
        0.07892706245183945,
        0.009599857032299042,
        -0.03332732617855072,
        0.08141666650772095,
        0.1266871839761734,
        -0.2689008414745331,
        -0.07789675891399384,
        -0.013398168608546257,
        0.06684284657239914,
        -0.18267185986042023,
        0.03919883072376251,
        0.060317542403936386,
        -0.0650886595249176,
        0.14718087017536163,
        -0.13965940475463867,
        -0.05288269370794296,
        0.02657771296799183,
        -0.04633137211203575,
        -0.09948019683361053,
        0.016777127981185913,
        -0.11357314884662628,
        -0.030704796314239502,
        0.04343559220433235,
        0.022786974906921387,
        0.04138851538300514,
        0.05508683621883392,
        -0.07858774811029434,
        -0.04497245326638222,
        0.05326751992106438,
        0.11992087215185165,
        -0.1111869364976883,
        0.0485224649310112,
        0.032625794410705566,
        -0.15567006170749664,
        -0.05509529635310173
      ],
      [
        -0.11579243093729019,
        0.045584455132484436,
        -0.0025091778952628374,
        -0.11579073965549469,
        0.12222932279109955,
        0.10846267640590668,
        -0.10600718855857849,
        0.11844664812088013,
        -0.1053101196885109,
        -0.09519122540950775,
        -0.029990851879119873,
        0.0035447324626147747,
        0.05923036113381386,
        -0.09842078387737274,
        -0.11545433104038239,
        0.1074778288602829,
        -0.00933025125414133,
        -0.08778412640094757,
        -0.1098448857665062,
        0.051518622785806656,
        0.07321318984031677,
        0.05034089833498001,
        -0.0490170456469059,
        0.09816701710224152,
        0.02236638404428959,
        -0.06243879720568657,
        0.08626341819763184,
        0.12276092916727066,
        -0.07558317482471466,
        -0.019636303186416626,
        -0.05948644503951073,
        0.007353499531745911,
        0.031971585005521774,
        0.002804209478199482,
        0.04429282248020172,
        0.0694943517446518,
        0.10006103664636612,
        -0.11037619411945343,
        0.013083637692034245,
        -0.03089369833469391,
        -0.04158814996480942,
        -0.02601422369480133,
        0.07698957622051239,
        -0.051469836384058,
        0.1043468788266182,
        0.1163448840379715,
        -0.014766868203878403,
        0.11546970903873444,
        -0.03519357740879059,
        -0.059246331453323364,
        0.08798162639141083,
        0.11393766850233078,
        0.08362196385860443,
        -0.09767340123653412,
        0.053542569279670715,
        0.03765859454870224,
        0.06772248446941376,
        0.11531110852956772,
        0.05616861581802368,
        -0.046754032373428345,
        0.10541026294231415,
        -0.03177839517593384,
        0.014095984399318695,
        -0.06920892000198364
      ],
      [
        0.07950148731470108,
        -0.02758932113647461,
        0.11186903715133667,
        -0.05656660720705986,
        -0.018950333818793297,
        0.07951293885707855,
        0.018655942752957344,
        -0.0754113644361496,
        0.08440583944320679,
        0.04119599238038063,
        -0.10551692545413971,
        0.0843643844127655,
        0.09856922924518585,
        0.05848797783255577,
        0.07408834993839264,
        -0.025268536061048508,
        0.021492738276720047,
        0.047743406146764755,
        0.11766048520803452,
        0.00862749945372343,
        -0.10822001099586487,
        -0.016549885272979736,
        -0.010563129559159279,
        -0.06081831455230713,
        0.099089115858078,
        -0.03603246062994003,
        -0.027585985139012337,
        -0.0015183849027380347,
        -0.0833691954612732,
        0.005769015289843082,
        -0.051363810896873474,
        0.08469831943511963,
        -0.03966287896037102,
        -0.044031135737895966,
        0.04821503907442093,
        -0.028783561661839485,
        -0.05829470604658127,
        -0.1063075065612793,
        0.02105199731886387,
        0.01042427122592926,
        0.09104000777006149,
        -0.04098430275917053,
        0.07577434927225113,
        0.13324886560440063,
        0.024981528520584106,
        0.08725761622190475,
        0.030283674597740173,
        0.10768409073352814,
        0.015280425548553467,
        0.02018856443464756,
        -0.07064205408096313,
        0.02131696604192257,
        -0.0904151201248169,
        0.11837223917245865,
        -0.12017227709293365,
        -0.026280183345079422,
        -0.06408388912677765,
        -0.10008344799280167,
        -0.043675534427165985,
        0.027685850858688354,
        0.10328171402215958,
        -0.10277153551578522,
        -0.04502119868993759,
        -0.04107159748673439
      ],
      [
        -0.03729194775223732,
        0.001996174454689026,
        -0.01400506030768156,
        0.029868775978684425,
        -0.025964602828025818,
        0.0957556739449501,
        0.03564289212226868,
        0.02379564382135868,
        -0.029694421216845512,
        -0.02129499800503254,
        0.07883395999670029,
        0.07285885512828827,
        0.10545843839645386,
        0.041214484721422195,
        0.0934879332780838,
        -0.04871518909931183,
        0.01863132417201996,
        -0.007849860936403275,
        0.19409434497356415,
        -0.04681975767016411,
        -0.06908945739269257,
        0.10131676495075226,
        -0.12475039064884186,
        0.039296284317970276,
        -0.04369401931762695,
        -0.0648430660367012,
        -0.08706902712583542,
        -0.07357069104909897,
        0.009109705686569214,
        -0.0276812557131052,
        -0.2684682607650757,
        -0.1111036092042923,
        0.04697903245687485,
        0.02796964719891548,
        0.008321115747094154,
        -0.05296711623668671,
        -0.04380088672041893,
        -0.04229358583688736,
        0.17580974102020264,
        -0.04372316598892212,
        0.0025491148699074984,
        -0.0719221830368042,
        -0.0073683676309883595,
        -0.016576949506998062,
        0.016962364315986633,
        -0.06312739849090576,
        -0.070377416908741,
        -0.11437326669692993,
        -0.06069573760032654,
        0.11567874252796173,
        0.08443093299865723,
        0.07874296605587006,
        0.08405282348394394,
        -0.08582888543605804,
        0.001670539379119873,
        -0.10577544569969177,
        0.0959431380033493,
        0.09064831584692001,
        -0.004010473843663931,
        0.028442129492759705,
        0.054836586117744446,
        0.10918569564819336,
        0.07166924327611923,
        0.0071282400749623775
      ],
      [
        -0.017570391297340393,
        0.08090190589427948,
        -0.11336737871170044,
        0.0700492262840271,
        0.09520302712917328,
        -0.124555304646492,
        0.03093317151069641,
        0.07094307243824005,
        0.0769260972738266,
        0.018863067030906677,
        0.09982419013977051,
        0.07305559515953064,
