{
  "model_state_dict": {
    "embedding.weight": [
      [
        0.10393207520246506,
        -0.1639343947172165,
        1.8473613262176514,
        0.067311130464077
      ],
      [
        -1.3831650018692017,
        0.9508194327354431,
        1.1230676174163818,
        -1.1324925422668457
      ],
      [
        -1.4812028408050537,
        0.5486598610877991,
        0.5194103121757507,
        -0.2889283299446106
      ],
      [
        0.6167032122612,
        -0.5059629082679749,
        -1.5107622146606445,
        -0.6807126402854919
      ]
    ],
    "lstm.weight_ih_l0": [
      [
        -0.011301716789603233,
        -0.010916021652519703,
        0.07749701291322708,
        0.10108886659145355,
        0.06223474070429802,
        -0.004604047629982233,
        -0.08703222870826721,
        0.0803677886724472,
        0.12268172204494476
      ],
      [
        -0.027716878801584244,
        -0.022754132747650146,
        0.029349762946367264,
        0.048310235142707825,
        0.6032028794288635,
        0.022500818595290184,
        0.3699512481689453,
        0.3564175069332123,
        0.6753153204917908
      ],
      [
        -0.03815615922212601,
        0.11691966652870178,
        -0.028402458876371384,
        -0.3345802426338196,
        -0.27502575516700745,
        0.2733798325061798,
        -0.3393693268299103,
        0.29363813996315,
        -0.41738083958625793
      ],
      [
        -0.04825975373387337,
        0.0216389000415802,
        -0.011359276250004768,
        0.05697736144065857,
        0.03844515606760979,
        -0.08932551741600037,
        0.06401102244853973,
        -0.022937774658203125,
        -0.03057204745709896
      ],
      [
        -0.008832469582557678,
        0.035116806626319885,
        0.11814306676387787,
        0.03395859897136688,
        0.10592685639858246,
        0.004423797130584717,
        0.07900398969650269,
        0.10996200144290924,
        0.023407578468322754
      ],
      [
        0.11929652094841003,
        -0.03193974867463112,
        0.059920091181993484,
        0.10712773352861404,
        -0.07524499297142029,
        -0.09770414978265762,
        0.07016543298959732,
        -0.06545554846525192,
        0.02965044602751732
      ],
      [
        0.01486216951161623,
        -0.03510696813464165,
        0.06643521785736084,
        0.07453834265470505,
        0.05272730067372322,
        0.0416681170463562,
        -0.08340481668710709,
        0.02856152318418026,
        -0.0069195921532809734
      ],
      [
        0.09949788451194763,
        0.06337788701057434,
        -0.07351326942443848,
        -0.06075394153594971,
        -0.050944939255714417,
        -0.06887820363044739,
        0.01500275731086731,
        -0.11621838808059692,
        -0.10454416275024414
      ],
      [
        -0.058075085282325745,
        0.10558117926120758,
        0.11773701012134552,
        0.005604605656117201,
        -0.20980769395828247,
        0.2733173370361328,
        0.023710545152425766,
        -0.44476181268692017,
        -0.7861966490745544
      ],
      [
        0.01197860948741436,
        -0.07335711270570755,
        0.049996018409729004,
        -0.06964431703090668,
        0.03489689901471138,
        -0.07617582380771637,
        0.006997360847890377,
        0.10668604075908661,
        -0.017499908804893494
      ],
      [
        0.004758007824420929,
        -0.06663630157709122,
        -0.09912688285112381,
        -0.07346443831920624,
        0.08892801403999329,
        0.043955739587545395,
        0.10215936601161957,
        0.11798170953989029,
        -0.008834147825837135
      ],
      [
        0.11787372827529907,
        0.05172131955623627,
        0.08550889790058136,
        0.025441721081733704,
        -0.11241254210472107,
        -0.050389036536216736,
        -0.10538245737552643,
        -0.08841338753700256,
        0.04888150095939636
      ],
      [
        -0.1156080961227417,
        0.043793369084596634,
        0.039140962064266205,
        -0.06741977483034134,
        -0.021284669637680054,
        0.10667730122804642,
        0.028274226933717728,
        0.08191125839948654,
        0.0633382722735405
      ],
      [
        0.061971694231033325,
        0.09030056744813919,
        -0.018053771927952766,
        -0.07831589132547379,
        0.07048790901899338,
        -0.02831963449716568,
        -0.0792795792222023,
        -0.08870001882314682,
        -0.06997538357973099
      ],
      [
        0.002744995290413499,
        -0.004390174988657236,
        -0.013455874286592007,
        0.06479306519031525,
        0.5943222641944885,
        -0.1282881200313568,
        -0.04531893506646156,
        0.3072711229324341,
        1.4318737983703613
      ],
      [
        0.03155917674303055,
        0.08410683274269104,
        -0.04114281386137009,
        0.17483046650886536,
        -0.2506759464740753,
        -0.2013399451971054,
        0.1533246785402298,
        -0.08020453155040741,
        -0.4653463661670685
      ],
      [
        0.035452209413051605,
        -0.07305686175823212,
        -0.04552923142910004,
        0.047028422355651855,
        0.009552552364766598,
        0.1121508926153183,
        -0.09997029602527618,
        0.13091838359832764,
        0.13079573214054108
      ],
      [
        0.007720062974840403,
        -0.09675773233175278,
        -0.04380859434604645,
        -0.1907956898212433,
        0.4875373840332031,
        -0.006123884115368128,
        -0.025643283501267433,
        0.33825716376304626,
        0.4900319278240204
      ],
      [
        -0.022740082815289497,
        -0.10154527425765991,
        0.05063837766647339,
        -0.06753123551607132,
        0.7321096062660217,
        0.035438116639852524,
        0.35805466771125793,
        0.484895795583725,
        0.906024694442749
      ],
      [
        -0.10684297233819962,
        0.09632144123315811,
        -0.05735365301370621,
        -0.08756044507026672,
        -0.09265637397766113,
        -0.07038713246583939,
        0.01664634607732296,
        -0.07102330774068832,
        0.02801765874028206
      ],
      [
        -0.12064610421657562,
        0.03192128241062164,
        -0.10892844200134277,
        0.0363599956035614,
        -0.1225404441356659,
        0.06208883225917816,
        0.015386775135993958,
        -0.09834751486778259,
        0.11123715341091156
      ],
      [
        -0.018414122983813286,
        -0.054854169487953186,
        -0.09075171500444412,
        -0.0847940593957901,
        0.08143644034862518,
        0.12305787205696106,
        -0.047623321413993835,
        0.05842527747154236,
        -0.10243372619152069
      ],
      [
        0.08025866001844406,
        -0.0888231173157692,
        0.0737542062997818,
        0.12505465745925903,
        -0.002240292727947235,
        0.04080981761217117,
        -0.08113184571266174,
        -0.055382996797561646,
        -0.08402356505393982
      ],
      [
        -0.013846752233803272,
        -0.09266901761293411,
        -0.033405233174562454,
        0.026823215186595917,
        -0.08784598112106323,
        0.11848405003547668,
        0.04971203953027725,
        -0.010979813523590565,
        0.03189138323068619
      ],
      [
        -0.04550376534461975,
        -0.0210769921541214,
        0.039777204394340515,
        0.039821773767471313,
        -0.03629739582538605,
        0.0156174898147583,
        -0.020314723253250122,
        -0.061390653252601624,
        -0.09013678133487701
      ],
      [
        -0.10296867787837982,
        -0.0074290931224823,
        0.0391109436750412,
        -0.08188211917877197,
        0.005962088704109192,
        -0.0248175710439682,
        0.12266059219837189,
        0.09526669979095459,
        0.03918272256851196
      ],
      [
        0.037276752293109894,
        0.09402916580438614,
        -0.04829629883170128,
        -0.3095817267894745,
        0.04306396469473839,
        -0.005642599426209927,
        -0.2564277946949005,
        0.5387815237045288,
        -0.5399295091629028
      ],
      [
        0.053732648491859436,
        -0.010245218873023987,
        0.08476515114307404,
        -0.10618378221988678,
        -0.04485324025154114,
        0.09539023041725159,
        0.041386425495147705,
        -0.0653359442949295,
        0.08427806198596954
      ],
      [
        -0.058684900403022766,
        0.07191495597362518,
        -0.11705052852630615,
        -0.07991871237754822,
        0.03517821431159973,
        0.07603514194488525,
        -0.11970281600952148,
        0.06056191027164459,
        0.04972474277019501
      ],
      [
        0.10038834065198898,
        -0.0393487773835659,
        -0.09492691606283188,
        0.008455822244286537,
        0.22902877628803253,
        0.08967790007591248,
        -0.7076972126960754,
        0.10872843116521835,
        0.2802252769470215
      ],
      [
        -0.10446329414844513,
        0.05688796937465668,
        -0.05079581215977669,
        -0.12614834308624268,
        -0.09912457317113876,
        0.12402427196502686,
        -0.23890544474124908,
        0.035590026527643204,
        0.18748152256011963
      ],
      [
        -0.13748270273208618,
        -0.041668862104415894,
        -0.023752199485898018,
        -0.047485265880823135,
        -0.12311160564422607,
        0.0052743759006261826,
        -0.19877934455871582,
        0.18213312327861786,
        -0.12090963125228882
      ],
      [
        -0.11461153626441956,
        0.10825952142477036,
        0.10669644176959991,
        0.05511002615094185,
        -0.023942183703184128,
        -0.06729903072118759,
        -0.12440330535173416,
        -0.02091212011873722,
        -0.005059936549514532
      ],
      [
        0.09938809275627136,
        -0.07498852908611298,
        0.055325448513031006,
        -0.0941905751824379,
        -0.028710395097732544,
        -0.11135585606098175,
        -0.009509570896625519,
        0.07010416686534882,
        0.07083699107170105
      ],
      [
        0.03432588279247284,
        0.055366918444633484,
        0.10790356993675232,
        0.06368550658226013,
        -0.12039929628372192,
        0.0602409690618515,
        -0.11537151038646698,
        -0.01962284743785858,
        -0.06814880669116974
      ],
      [
        -0.06259654462337494,
        0.10570688545703888,
        -0.08388730883598328,
        0.08181612938642502,
        0.12336277216672897,
        -0.09521493315696716,
        -0.1317044198513031,
        -0.09807563573122025,
        -0.06024078279733658
      ],
      [
        0.08407482504844666,
        -0.10776343196630478,
        -0.08167510479688644,
        0.08105852454900742,
        -0.17033149302005768,
        0.14224883913993835,
        0.09346189349889755,
        -0.10935758799314499,
        -0.3704886734485626
      ],
      [
        -0.005417723208665848,
        0.11418325453996658,
        -0.03580763190984726,
        -0.28739655017852783,
        0.4102395176887512,
        0.13114404678344727,
        -0.012319231405854225,
        0.38260558247566223,
        0.9841448068618774
      ],
      [
        -0.06533317267894745,
        0.16366058588027954,
        -0.04157120734453201,
        -0.06213991343975067,
        0.25961047410964966,
        0.019373901188373566,
        -0.2690984010696411,
        0.08961406350135803,
        0.040609873831272125
      ],
      [
        -0.006555025931447744,
        0.00893218070268631,
        0.038307297974824905,
        0.12532708048820496,
        0.34400874376296997,
        -0.04576004669070244,
        0.0724063366651535,
        0.3999727964401245,
        0.28419074416160583
      ],
      [
        -0.10842946171760559,
        -0.10391900688409805,
        -0.0302492193877697,
        0.0019300136482343078,
        -0.06278868019580841,
        -0.11567305028438568,
        -0.03454968333244324,
        -0.08536448329687119,
        -0.042687010020017624
      ],
      [
        -0.022845283150672913,
        -0.07289747893810272,
        -0.10045410692691803,
        -0.0067038387060165405,
        -0.08050596714019775,
        0.12431035935878754,
        -0.055643901228904724,
        -0.11761391162872314,
        -0.02204066514968872
      ],
      [
        0.11969403177499771,
        -0.0002475494984537363,
        -0.03973446413874626,
        -0.006638552527874708,
        -0.1388552337884903,
        -0.10235533118247986,
        0.10410309582948685,
        -0.10238064080476761,
        -0.32932189106941223
      ],
      [
        -0.009101618081331253,
        0.11358552426099777,
        0.03991048410534859,
        0.09615463763475418,
        0.06010791286826134,
        0.006816243752837181,
        0.07634878903627396,
        -0.14149007201194763,
        0.13509945571422577
      ],
      [
        -0.12027058005332947,
        0.04868488386273384,
        0.11870883405208588,
        -0.11281275004148483,
        0.09402017295360565,
        -0.025746043771505356,
        -0.0751439705491066,
        0.4331953823566437,
        0.1349124312400818
      ],
      [
        -0.006996999029070139,
        -0.07698099315166473,
        0.10737244039773941,
        0.09413489699363708,
        -0.0832766443490982,
        0.03207443654537201,
        -0.07171310484409332,
        -0.06508415937423706,
        0.035041481256484985
      ],
      [
        0.0030256586614996195,
        -0.006900370121002197,
        -0.020881585776805878,
        0.033417075872421265,
        0.045793697237968445,
        0.004533708095550537,
        -0.07401743531227112,
        -0.11023534834384918,
        -0.010704323649406433
      ],
      [
        -0.11948174983263016,
        0.055141881108284,
        0.09080392867326736,
        0.35268735885620117,
        0.30543047189712524,
        -0.15122218430042267,
        0.22308656573295593,
        -0.41125568747520447,
        0.7185777425765991
      ],
      [
        0.0056948065757751465,
        0.10057500004768372,
        0.11410902440547943,
        0.10269911587238312,
        0.006678462028503418,
        0.0514645129442215,
        0.08545525372028351,
        0.06800392270088196,
        0.060083821415901184
      ],
      [
        -0.06842789053916931,
        0.08647990226745605,
        0.14218981564044952,
        0.06404707580804825,
        0.1901247203350067,
        0.06227399408817291,
        0.20523464679718018,
        0.333368182182312,
        0.6584577560424805
      ],
      [
        0.073357954621315,
        0.002980858087539673,
        0.09548249840736389,
        -0.04086187481880188,
        0.034325048327445984,
        0.03968183696269989,
        0.11067643761634827,
        -0.06126110255718231,
        0.041312962770462036
      ],
      [
        0.1062140241265297,
        -0.08410739153623581,
        0.07986702024936676,
        0.13210929930210114,
        -0.0835404023528099,
        -0.08028903603553772,
        0.12103759497404099,
        -0.06632203608751297,
        0.12172903120517731
      ],
      [
        0.03772436082363129,
        -0.06076143682003021,
        -0.07247912883758545,
        -0.013442546129226685,
        -0.06258362531661987,
        0.08582405745983124,
        0.031195834279060364,
        0.005385890603065491,
        0.05396313965320587
      ],
      [
        0.10013917088508606,
        -0.07489411532878876,
        -0.017755180597305298,
        0.003966033458709717,
        -0.07728813588619232,
        -0.09301544725894928,
        0.07186248898506165,
        -0.12356887757778168,
        -0.00824667513370514
      ],
      [
        -0.10764527320861816,
        -0.14084500074386597,
        0.05607197806239128,
        -0.014571744948625565,
        -0.1559523046016693,
        0.05083124712109566,
        0.1916663646697998,
        0.08813094347715378,
        -0.12353615462779999
      ],
      [
        -0.01226070523262024,
        -0.027570053935050964,
        -0.11056868731975555,
        -0.04193474352359772,
        -0.10980728268623352,
        -0.08224020898342133,
        -0.0835568904876709,
        0.030543029308319092,
        -0.039614900946617126
      ],
      [
        0.009676567278802395,
        0.12182334065437317,
        0.04401421546936035,
        -0.01272900402545929,
        -0.08999432623386383,
        -0.08387085050344467,
        0.11799535900354385,
        0.07690709829330444,
        0.009242745116353035
      ],
      [
        0.11040911078453064,
        0.11934389173984528,
        0.0056993961334228516,
        0.07052937150001526,
        -0.06435248255729675,
        0.10422089695930481,
        -0.11608618497848511,
        -0.08717739582061768,
        -0.10539630055427551
      ],
      [
        -0.04467950761318207,
        0.11527277529239655,
        -0.04370759427547455,
        0.0030667930841445923,
        0.11633172631263733,
        -0.1041167676448822,
        0.04880900681018829,
        0.013818040490150452,
        0.027304261922836304
      ],
      [
        0.11572553217411041,
        -0.10227136313915253,
        -0.054415829479694366,
        0.01068781316280365,
        -0.05988502502441406,
        -0.10653036832809448,
        -0.036343857645988464,
        0.09807434678077698,
        -0.11929082870483398
      ],
      [
        0.05228406935930252,
        0.07744937390089035,
        0.005839643534272909,
        -0.06017163023352623,
        0.09718658775091171,
        0.09509056061506271,
        -0.0426972396671772,
        0.057359129190444946,
        0.06037253141403198
      ],
      [
        0.11089324206113815,
        -0.0298822820186615,
        -0.031095972284674644,
        -0.04175310209393501,
        -0.011120235547423363,
        0.00581997400149703,
        0.012858424335718155,
        -0.15614137053489685,
        0.2667284905910492
      ],
      [
        -0.011636142618954182,
        -0.0265802089124918,
        0.09684645384550095,
        0.015964427962899208,
        -0.0890129804611206,
        -0.06590592116117477,
        0.04009825736284256,
        -0.01067578885704279,
        0.07762055099010468
      ],
      [
        0.09583654999732971,
        -0.09622268378734589,
        0.03630441799759865,
        -0.014299171976745129,
        -0.03213675320148468,
        0.04563340172171593,
        0.17712470889091492,
        0.025087596848607063,
        -0.14369964599609375
      ],
      [
        0.07373285293579102,
        -0.06995675712823868,
        -0.07448750734329224,
        0.16894985735416412,
        0.280099481344223,
        -0.1431872844696045,
        -0.006204794626682997,
        0.03133343905210495,
        0.428730309009552
      ],
      [
        -0.008271634578704834,
        -0.01651407778263092,
        0.11064143478870392,
        -0.06057600677013397,
        -0.04792891442775726,
        -0.09041467308998108,
        -0.04772655665874481,
        0.09303726255893707,
        -0.06303387880325317
      ],
      [
        0.0012266157427802682,
        -0.03613266348838806,
        -0.08775550127029419,
        -0.017340093851089478,
        0.009604007005691528,
        0.058962732553482056,
        -0.04167214035987854,
        0.07154712080955505,
        -0.030851051211357117
      ],
      [
        -0.07410329580307007,
        0.03295792639255524,
        -0.09280139207839966,
        -0.083122119307518,
        -0.08805812895298004,
        0.013559073209762573,
        -0.09792822599411011,
        -0.051996275782585144,
        -0.1079837828874588
      ],
      [
        0.08688866347074509,
        -0.1309501677751541,
        -0.045223817229270935,
        -0.38882407546043396,
        -0.3598397672176361,
        0.16850584745407104,
        0.17938607931137085,
        0.3783431947231293,
        -1.0217410326004028
      ],
      [
        0.15089762210845947,
        -0.1350175142288208,
        0.02314969338476658,
        0.0030178807210177183,
        0.25431373715400696,
        -0.055633220821619034,
        -0.1746540665626526,
        0.12161733210086823,
        0.08962075412273407
      ],
      [
        -0.07818447053432465,
        -0.10978987067937851,
        -0.019512269645929337,
        -0.12453135848045349,
        0.07775802165269852,
        0.06855149567127228,
        0.04971200227737427,
        0.04537355154752731,
        0.10685057193040848
      ],
      [
        -0.023722246289253235,
        0.07267607748508453,
        0.11812108755111694,
        0.07552933692932129,
        -0.08165030181407928,
        -0.05153399705886841,
        -0.039557307958602905,
        0.05338113009929657,
        0.029898792505264282
      ],
      [
        -0.008664841763675213,
        0.09784089773893356,
        -0.0826750248670578,
        -0.11616325378417969,
        0.024737603962421417,
        0.028764832764863968,
        0.0469135083258152,
        0.09138065576553345,
        -0.10679987072944641
      ],
      [
        -0.0926542580127716,
        0.09424449503421783,
        0.09133701026439667,
        -0.016089875251054764,
        -0.06698019057512283,
        -0.02942444197833538,
        0.16542784869670868,
        0.19311612844467163,
        0.11439739167690277
      ],
      [
        0.023851703852415085,
        0.07120542228221893,
        -0.05264459177851677,
        0.00996150728315115,
        0.05146666243672371,
        0.05743107944726944,
        0.09019648283720016,
        0.04222594201564789,
        -0.07626128196716309
      ],
      [
        0.03409278392791748,
        0.03486998379230499,
        -0.026674732565879822,
        -0.06267721951007843,
        0.06586901843547821,
        -0.0059566497802734375,
        0.09778718650341034,
        -0.06539113819599152,
        0.00379982590675354
      ],
      [
        -0.1164160817861557,
        0.014635967090725899,
        -0.049621984362602234,
        0.049028441309928894,
        -0.0006518211448565125,
        -0.039873331785202026,
        0.04436703026294708,
        0.020415186882019043,
        -0.12400563061237335
      ],
      [
        -0.08724060654640198,
        0.0886629968881607,
        -0.11625503748655319,
        -0.060266733169555664,
        0.05544702708721161,
        -0.05596823990345001,
        -0.09249275922775269,
        -0.02239762246608734,
        -0.04284101724624634
      ],
      [
        -0.004774431232362986,
        0.019937528297305107,
        -0.001073129940778017,
        0.2689289450645447,
        0.6210342645645142,
        -0.13186617195606232,
        0.056059420108795166,
        -0.16271080076694489,
        1.3365446329116821
      ],
      [
        0.019875407218933105,
        0.07060892879962921,
        0.120658278465271,
        -0.026953890919685364,
        -0.021708771586418152,
        -0.11312957108020782,
        -0.06545472145080566,
        0.10638600587844849,
        -0.11721006035804749
      ],
      [
        0.019337451085448265,
        -0.038741420954465866,
        0.0692637711763382,
        0.09005904942750931,
        -0.032437317073345184,
        -0.007546525448560715,
        0.007967455312609673,
        -0.025733688846230507,
        0.06625819206237793
      ],
      [
        0.1008785143494606,
        0.023143218830227852,
        -0.13122965395450592,
        0.12293935567140579,
        0.11130823940038681,
        -0.1270357221364975,
        -0.14291052520275116,
        0.13084669411182404,
        0.2650461494922638
      ],
      [
        0.011324921622872353,
        -0.09426739811897278,
        0.06212281808257103,
        -0.05952100083231926,
        0.015711918473243713,
        -0.11953094601631165,
        0.10879690945148468,
        0.044080156832933426,
        -0.014662693254649639
      ],
      [
        0.037184376269578934,
        0.04037070646882057,
        -0.0338071770966053,
        0.08395733684301376,
        0.0022868739906698465,
        0.04784668609499931,
        0.029289452359080315,
        -0.10526549816131592,
        0.0811464786529541
      ],
      [
        0.04651038348674774,
        0.05126573145389557,
        -0.11028105020523071,
        0.05450049042701721,
        -0.11782118678092957,
        0.06149931252002716,
        -0.029385656118392944,
        0.11605456471443176,
        0.02490963041782379
      ],
      [
        -0.03341813012957573,
        0.03953152894973755,
        0.07074665278196335,
        0.10584814846515656,
        0.10823357105255127,
        -0.005555510520935059,
        0.07948563992977142,
        -0.05717478692531586,
        -0.08254243433475494
      ],
      [
        -0.12155088782310486,
        -0.007654068525880575,
        -0.0448586642742157,
        -0.00846137199550867,
        -0.09560276567935944,
        -0.12044472247362137,
        0.034577421844005585,
        -0.07164854556322098,
        -0.0666620060801506
      ],
      [
        0.0733756572008133,
        0.025469563901424408,
        -0.042662881314754486,
        -0.014446680434048176,
        0.005924394819885492,
        -0.014475710690021515,
        -0.10749717801809311,
        0.08200904726982117,
        -0.0063349343836307526
      ],
      [
        -0.03782191872596741,
        0.07101157307624817,
        -0.07845611870288849,
        -0.012865319848060608,
        0.11416465044021606,
        -0.06830310821533203,
        -0.12305110692977905,
        0.021624475717544556,
        -0.11626075208187103
      ],
      [
        0.029092833399772644,
        0.019076332449913025,
        -0.03896799683570862,
        0.01577332615852356,
        0.09731349349021912,
        0.018443629145622253,
        0.019664794206619263,
        -0.058607012033462524,
        0.02670609951019287
      ],
      [
        -0.05388178303837776,
        -0.03651726618409157,
        0.11275225132703781,
        -0.046108923852443695,
        -0.3217710554599762,
        0.15618756413459778,
        -0.06008521467447281,
        0.03620843589305878,
        -0.0954023078083992
      ],
      [
        0.024611666798591614,
        -0.11446695029735565,
        -0.07940773665904999,
        -0.06039513647556305,
        -0.049444347620010376,
        -0.01593172550201416,
        0.09728629887104034,
        -0.03155520558357239,
        0.07212266325950623
      ],
      [
        0.03302052617073059,
        0.11579637229442596,
        -0.09289297461509705,
        0.09696866571903229,
        -0.02745896577835083,
        -0.0924103707075119,
        -0.11077742278575897,
        -0.12454952299594879,
        0.11685116589069366
      ],
      [
        0.09383534640073776,
        -0.021652987226843834,
        0.02830229513347149,
        0.042194344103336334,
        -0.09477837383747101,
        0.09809946268796921,
        -0.00804259441792965,
        0.013368449173867702,
        0.008890775963664055
      ],
      [
        0.09959714114665985,
        -0.01002693735063076,
        -0.10313500463962555,
        0.02763204276561737,
        -0.030592672526836395,
        -0.07146680355072021,
        -0.07548340409994125,
        -0.06864495575428009,
        0.01009767409414053
      ],
      [
        0.004588576033711433,
        -0.04718197137117386,
        0.0826125293970108,
        0.08492434024810791,
        0.11392446607351303,
        0.027230773121118546,
        -0.07878592610359192,
        -0.013559938408434391,
        -0.0480341762304306
      ],
      [
        -0.09306807816028595,
        -0.04243580996990204,
        -0.12204581499099731,
        0.010905459523200989,
        -0.0882948786020279,
        0.01431901752948761,
        -0.02258133888244629,
        0.07978074252605438,
        -0.007309809327125549
      ],
      [
        0.07017026096582413,
        -0.0025233624037355185,
        0.01684466563165188,
        -0.09507057070732117,
        0.07946289330720901,
        0.012560121715068817,
        0.03946757689118385,
        0.003579205134883523,
        -0.05486053600907326
      ],
      [
        0.11426492035388947,
        -0.06888115406036377,
        -0.09589318186044693,
        -0.07611574232578278,
        0.07788635790348053,
        0.0869499146938324,
        0.009136289358139038,
        0.036604300141334534,
        0.08362367749214172
      ],
      [
        -0.06696655601263046,
        -0.09397398680448532,
        0.07772574573755264,
        0.08021976798772812,
        0.05579647421836853,
        -0.06872032582759857,
        0.03866893798112869,
        0.11873304843902588,
        0.04926186800003052
      ],
      [
        0.12162977457046509,
        0.12163218855857849,
        -0.01573774218559265,
        0.08024536073207855,
        0.010307044722139835,
        -0.03675456717610359,
        0.14247474074363708,
        -0.09643624722957611,
        0.06782078742980957
      ],
      [
        -0.017877770587801933,
        -0.011798141524195671,
        0.13584928214550018,
        0.04077327996492386,
        -0.0749296322464943,
        -0.054852988570928574,
        0.14130906760692596,
        0.12599511444568634,
        -0.03548477590084076
      ],
      [
        -0.01978873461484909,
        0.03343302011489868,
        0.1689898669719696,
        0.0010081286309286952,
        0.07051828503608704,
        -0.09913385659456253,
        0.0606766901910305,
        0.1106656864285469,
        -0.006817837245762348
      ],
      [
        0.004382328595966101,
        0.00614906195551157,
        0.034373413771390915,
        0.10214287042617798,
        -0.09859955310821533,
        0.06023363023996353,
        -0.04966777563095093,
        -0.025553472340106964,
        0.045197781175374985
      ],
      [
        -0.10292141139507294,
        -0.033817414194345474,
        -0.018176065757870674,
        -0.00889076292514801,
        -0.03263556957244873,
        -0.011505797505378723,
        0.06009942293167114,
        0.12145815789699554,
        0.08069686591625214
      ],
      [
        0.05812917649745941,
        0.014803647994995117,
        -0.021091744303703308,
        -0.09500493109226227,
        0.011787131428718567,
        -0.07713574171066284,
        0.06578777730464935,
        -0.05772508680820465,
        0.05356726050376892
      ],
      [
        0.07715708017349243,
        0.08173401653766632,
        0.10738451778888702,
        -0.11010859906673431,
        0.012474536895751953,
        0.012188121676445007,
        0.06696712970733643,
        -0.08411861956119537,
        0.08887982368469238
      ],
      [
        0.04718173295259476,
        -0.03331204131245613,
        0.05889010801911354,
        -0.030973151326179504,
        0.04142868518829346,
        -0.017371580004692078,
        -0.03066989779472351,
        0.07769781351089478,
        0.03380885720252991
      ],
      [
        0.07315700501203537,
        -0.08633479475975037,
        0.008993295021355152,
        -0.1605762243270874,
        0.12779434025287628,
        0.2590649425983429,
        0.047075096517801285,
        -0.0023054787889122963,
        -0.1893688142299652
      ],
      [
        0.002673829672858119,
        -0.06064373254776001,
        -0.038384631276130676,
        0.05188208073377609,
        0.0890994593501091,
        0.0760393813252449,
        0.04380463808774948,
        0.06548260152339935,
        0.04477733001112938
      ],
      [
        0.04222084581851959,
        -0.06691405177116394,
        -0.05754077434539795,
        0.04566998779773712,
        -0.03261066973209381,
        0.005778074264526367,
        0.03272859752178192,
        -0.10159172117710114,
        -0.043628543615341187
      ],
      [
        -0.06619679927825928,
        0.06455422937870026,
        -0.03210597485303879,
        -0.10648360848426819,
        0.1659049093723297,
        0.0996013656258583,
        -0.033634744584560394,
        0.0645274743437767,
        0.05361015722155571
      ],
      [
        -0.10580595582723618,
        -0.14134764671325684,
        0.009543046355247498,
        -0.10846371203660965,
        0.10328277945518494,
        -0.043112993240356445,
        -0.19229979813098907,
        -0.04561448097229004,
        0.051313936710357666
      ],
      [
        0.044028833508491516,
        -0.02374533750116825,
        -0.09195085614919662,
        -0.10213856399059296,
        0.39763665199279785,
        0.05818411335349083,
        0.004692740738391876,
        -0.027009595185518265,
        0.9274885654449463
      ],
      [
        0.10107138007879257,
        -0.043983764946460724,
        0.01920115388929844,
        -0.019442617893218994,
        -0.11663336306810379,
        -0.005994725506752729,
        -0.04655458405613899,
        -0.0010236080270260572,
        0.07212729007005692
      ],
      [
        -0.007035615388303995,
        -0.1978597640991211,
        0.008853022009134293,
        -0.08468663692474365,
        -0.4078265130519867,
        0.05196395516395569,
        0.09124363213777542,
        -0.2192929983139038,
        -0.790368378162384
      ],
      [
        0.09199410676956177,
        -0.09443125128746033,
        -0.06911100447177887,
        -0.052823856472969055,
        0.1142667680978775,
        -0.09178479015827179,
        -0.09117075800895691,
        0.11052274703979492,
        0.10973809659481049
      ],
      [
        -0.09376862645149231,
        -0.0766693502664566,
        0.06681735813617706,
        -0.03555314242839813,
        -0.09307940304279327,
        0.08914948999881744,
        0.04021017253398895,
        -0.014867663383483887,
        -0.04737190902233124
      ],
      [
        -0.07635663449764252,
        0.2114415466785431,
        0.05259881168603897,
        0.1082538515329361,
        -0.3133693337440491,
        -0.12465835362672806,
        0.3681935667991638,
        -0.22553019225597382,
        -0.44416797161102295
      ],
      [
        0.08977890014648438,
        0.09925800561904907,
        0.0663822740316391,
        -0.05866217613220215,
        0.042304620146751404,
        -0.049185022711753845,
        -0.0018728524446487427,
        -0.03188642859458923,
        -0.11406567692756653
      ],
      [
        -0.02086508832871914,
        0.11690825968980789,
        -0.03224353864789009,
        -0.2071496844291687,
        -0.2807100713253021,
        0.042071085423231125,
        -0.1419539451599121,
        0.20873846113681793,
        -0.23131753504276276
      ],
      [
        0.08300308883190155,
        0.03077644109725952,
        0.02989916503429413,
        0.07821506261825562,
        -0.07556864619255066,
        -0.03906509280204773,
        -0.024995893239974976,
        0.007564857602119446,
        -0.026361852884292603
      ],
      [
        0.02007417380809784,
        -0.06332328915596008,
        0.033463671803474426,
        0.11754719913005829,
        -0.05187390744686127,
        -0.058925360441207886,
        -0.04037240147590637,
        -0.002869322896003723,
        0.10635176301002502
      ],
      [
        -0.08269435912370682,
        0.02151387743651867,
        0.0160070713609457,
        -0.07532112300395966,
        0.08222681283950806,
        -0.02007681131362915,
        -0.11091046035289764,
        0.07979428768157959,
        -0.06340554356575012
      ],
      [
        -0.11052016168832779,
        0.07547373324632645,
        0.1126454621553421,
        0.036381203681230545,
        -0.1138407438993454,
        -0.07801083475351334,
        0.021153831854462624,
        -0.039475783705711365,
        0.08736016601324081
      ],
      [
        -0.002109259134158492,
        -0.06238997355103493,
        0.057890698313713074,
        0.11680463701486588,
        -0.03315918520092964,
        -0.07128006964921951,
        0.003891877830028534,
        -0.024068372324109077,
        0.13432461023330688
      ],
      [
        0.04870527982711792,
        -0.03490161895751953,
        0.07033603638410568,
        -0.008371159434318542,
        0.021757736802101135,
        -0.01049947738647461,
        0.031175613403320312,
        0.01036304235458374,
        -0.12466193735599518
      ],
      [
        -0.008980704471468925,
        0.11421441286802292,
        -0.07535456120967865,
        0.031037766486406326,
        0.09396179765462875,
        0.01623803749680519,
        -0.12938009202480316,
        0.05523187294602394,
        0.051000889390707016
      ],
      [
        -0.025060519576072693,
        0.02299445867538452,
        -0.09603533148765564,
        0.11767016351222992,
        0.05672381818294525,
        -0.0725875049829483,
        0.02221524715423584,
        0.06365135312080383,
        0.005412742495536804
      ],
      [
        0.11536413431167603,
        -0.09431156516075134,
        0.038194965571165085,
        -0.0021844070870429277,
        -0.08807361125946045,
        -0.12956230342388153,
        0.026246147230267525,
        -0.07491597533226013,
        -0.0680936723947525
      ],
      [
        -0.006099748890846968,
        0.11584915220737457,
        0.014124923385679722,
        -0.02690647542476654,
        0.056134115904569626,
        0.06991565227508545,
        -0.01204955019056797,
        -0.01645676977932453,
        0.0017958007520064712
      ],
      [
        0.061322301626205444,
        -0.005967423319816589,
        0.08543390035629272,
        -0.08692251145839691,
        0.05749756097793579,
        0.014865219593048096,
        -0.044657811522483826,
        -0.0507752001285553,
        -0.101351797580719
      ],
      [
        -0.016399888321757317,
        0.04096706956624985,
        0.07726329565048218,
        -0.05433061718940735,
        0.09632129967212677,
        -0.11288467049598694,
        -0.11670327186584473,
        -0.010717601515352726,
        0.07653655111789703
      ],
      [
        0.1027173399925232,
        0.017964975908398628,
        -0.10068459063768387,
        0.04144322872161865,
        0.10599556565284729,
        0.08222993463277817,
        -0.16598188877105713,
        0.13487182557582855,
        0.1808968484401703
      ],
      [
        -0.011980208568274975,
        0.07152165472507477,
        0.07347613573074341,
        0.10480960458517075,
        0.046056218445301056,
        -0.030614012852311134,
        -0.09199858456850052,
        0.06830805540084839,
        0.0439070425927639
      ],
      [
        0.07771143317222595,
        -0.09192691743373871,
        0.10853718221187592,
        -0.10784044861793518,
        0.1100892722606659,
        -0.10026969015598297,
        0.0413382351398468,
        -0.04229667782783508,
        -0.05530746281147003
      ],
      [
        -0.02407907508313656,
        0.09874727576971054,
        -0.06505760550498962,
        -0.07442920655012131,
        0.1139686182141304,
        -0.016204632818698883,
        0.0007866707746870816,
        -0.0980573445558548,
        0.02402503415942192
      ],
      [
        -0.04602398723363876,
        0.074276864528656,
        0.0789526179432869,
        0.013817738741636276,
        -0.42519456148147583,
        0.2954738438129425,
        0.32838186621665955,
        -0.343915730714798,
        -1.0162558555603027
      ],
      [
        -0.10098955035209656,
        -0.04218366742134094,
        -0.06789687275886536,
        -0.022306054830551147,
        -0.020879268646240234,
        -0.02339734137058258,
        0.06668774783611298,
        0.11066842079162598,
        0.1017846167087555
      ],
      [
        -0.049819350242614746,
        0.08799026906490326,
        -0.044794753193855286,
        0.004843354225158691,
        -0.06305275857448578,
        0.058030471205711365,
        -0.07799316942691803,
        0.07537280023097992,
        -0.08702743053436279
      ],
      [
        0.0323096439242363,
        -0.09626760333776474,
        -0.0070765260607004166,
        0.05470867455005646,
        -0.005033836234360933,
        0.09065777063369751,
        -0.028392761945724487,
        0.10419571399688721,
        0.028228595852851868
      ],
      [
        0.061600759625434875,
        0.10193705558776855,
        0.038572654128074646,
        0.09373217821121216,
        0.02125871181488037,
        0.05310937762260437,
        -0.10397781431674957,
        -0.08834068477153778,
        -0.02399905025959015
      ],
      [
        -0.11225129663944244,
        0.12256832420825958,
        -0.07406046986579895,
        0.0004969239234924316,
        -0.11428052186965942,
        -0.12460918724536896,
        0.0017645657062530518,
        -0.05063667893409729,
        0.03512720763683319
      ],
      [
        -0.023215457797050476,
        0.0238257497549057,
        -0.053829923272132874,
        0.02750694751739502,
        -0.12330885231494904,
        0.017964884638786316,
        0.031095609068870544,
        -0.052624985575675964,
        -0.09666343033313751
      ],
      [
        0.09611424803733826,
        0.025289908051490784,
        0.05354003608226776,
        0.03582791984081268,
        0.1173827052116394,
        0.10986743867397308,
        0.026509985327720642,
        -0.11874514818191528,
        0.12148186564445496
      ],
      [
        0.07511478662490845,
        -0.09081268310546875,
        0.10119614005088806,
        0.09337402880191803,
        0.0019495636224746704,
        -0.08765685558319092,
        -0.00842505693435669,
        0.03327913582324982,
        0.07966122031211853
      ],
      [
        0.1136341542005539,
        0.02507082186639309,
        -0.09934234619140625,
        -0.4440172612667084,
        0.21410304307937622,
        0.14000408351421356,
        -0.14895707368850708,
        0.48017123341560364,
        0.7341061234474182
      ],
      [
        -0.00920628011226654,
        0.0931667685508728,
        0.08409267663955688,
        0.006192654371261597,
        -0.006717294454574585,
        0.023640498518943787,
        0.022499606013298035,
        -0.07778957486152649,
        0.11311115324497223
      ],
      [
        0.057231321930885315,
        -0.05525889992713928,
        -0.05276365578174591,
        -0.08699759840965271,
        0.05952049791812897,
        0.09461790323257446,
        -0.10135786235332489,
        0.07298369705677032,
        -0.0005441009998321533
      ],
      [
        -0.04813223332166672,
        -0.03555327653884888,
        0.010607843287289143,
        -0.02035282552242279,
        0.10721147060394287,
        -0.029602333903312683,
        0.11978006362915039,
        0.08979599177837372,
        -0.03713281452655792
      ],
      [
        -0.10263754427433014,
        0.12496738135814667,
        -0.08959099650382996,
        -0.017761290073394775,
        0.014964699745178223,
        -0.06370857357978821,
        -0.06338997185230255,
        0.11279985308647156,
        0.1010475605726242
      ],
      [
        0.003598483046516776,
        -0.10952498763799667,
        0.049385130405426025,
        -0.10822970420122147,
        -0.0403415784239769,
        0.07901112735271454,
        -0.009440449066460133,
        0.08695772290229797,
        -0.007676040753722191
      ],
      [
        -0.11717736721038818,
        0.005090981721878052,
        0.02419985830783844,
        0.0791894793510437,
        0.008333295583724976,
        0.10116912424564362,
        0.03358398377895355,
        0.12336571514606476,
        0.08252842724323273
      ],
      [
        -0.08782166242599487,
        0.11914148926734924,
        -0.11308106780052185,
        0.09054887294769287,
        0.12417669594287872,
        -0.0012233704328536987,
        -0.05281826853752136,
        -0.10656656324863434,
        -0.052785053849220276
      ],
      [
        -0.08244431763887405,
        -0.08320292830467224,
        0.028860587626695633,
        -0.07625249773263931,
        0.08722151070833206,
        0.11286050081253052,
        0.03143042325973511,
        -0.08377829939126968,
        0.04415547475218773
      ],
      [
        -0.045483533293008804,
        -0.12465579807758331,
        -0.016048554331064224,
        0.029562681913375854,
        0.09220775961875916,
        -0.12305280566215515,
        0.07347695529460907,
        -0.02151760458946228,
        -0.09210288524627686
      ],
      [
        -0.07396940886974335,
        0.004391983151435852,
        -0.014255315065383911,
        0.12001629173755646,
        -0.114630788564682,
        0.12340962886810303,
        -0.04358793795108795,
        -0.05785495042800903,
        0.06415048241615295
      ],
      [
        0.05680463835597038,
        0.09257279336452484,
        -0.009488007985055447,
        -0.038866836577653885,
        -0.052158042788505554,
        0.07698928564786911,
        0.010938020423054695,
        0.0833325907588005,
        -0.05898695066571236
      ],
      [
        -0.05964742600917816,
        -0.0013250857591629028,
        -0.06442196667194366,
        -0.11037033796310425,
        -0.08980122208595276,
        0.014675885438919067,
        -0.062418848276138306,
        -0.01020367443561554,
        -0.08438387513160706
      ],
      [
        0.03589420020580292,
        -0.031063511967658997,
        0.08386591076850891,
        0.060316428542137146,
        -0.12043118476867676,
        -0.04145410656929016,
        -0.0645056664943695,
        0.0772915929555893,
        0.02810634672641754
      ],
      [
        -0.02926451526582241,
        -0.054419588297605515,
        0.06700463593006134,
        -0.04443678632378578,
        -0.11648621410131454,
        0.09946371614933014,
        0.08535007387399673,
        0.1063799113035202,
        -0.034639570862054825
      ],
      [
        0.09391181915998459,
        -0.043181490153074265,
        0.024133509024977684,
        0.09777066856622696,
        -0.09533461928367615,
        0.08914469927549362,
        0.13892394304275513,
        -0.06758375465869904,
        -0.0018284772522747517
      ],
      [
        0.08157780021429062,
        -0.03842928633093834,
        0.031452156603336334,
        -0.009127176366746426,
        -0.11385130882263184,
        -0.035174332559108734,
        -0.1210009828209877,
        0.07655540108680725,
        0.06886527687311172
      ],
      [
        -0.052626803517341614,
        0.053094878792762756,
        -0.07055310904979706,
        0.08056026697158813,
        0.041588425636291504,
        -0.04974828660488129,
        -0.020278126001358032,
        0.09344398975372314,
        -0.0976572334766388
      ],
      [
        0.060173243284225464,
        -0.0620226189494133,
        -0.025465533137321472,
        0.058006808161735535,
        -0.15264807641506195,
        0.022879905998706818,
        -0.15348441898822784,
        0.13478469848632812,
        -0.1660781055688858
      ],
      [
        -0.05930529162287712,
        0.06461138278245926,
        0.13680726289749146,
        0.03997781500220299,
        0.15766407549381256,
        -0.05272531509399414,
        0.2326725870370865,
        0.18537768721580505,
        0.40243759751319885
      ],
      [
        0.08438140898942947,
        0.004583351779729128,
        -0.0751846581697464,
        -0.03777708485722542,
        -0.03264883905649185,
        0.1414187103509903,
        -0.03828614205121994,
        0.0066346279345452785,
        -0.14069201052188873
      ],
      [
        -0.07855786383152008,
        -0.043865934014320374,
        -0.09848976135253906,
        0.03575454652309418,
        -0.015672340989112854,
        -0.0020460188388824463,
        0.022680431604385376,
        -0.02083013951778412,
        -0.04288260638713837
      ],
      [
        0.03615780174732208,
        -0.10174506902694702,
        -0.04199196398258209,
        0.03286714851856232,
        -0.05584545433521271,
        0.06634598970413208,
        -0.10298441350460052,
        -0.012998729944229126,
        -0.11795355379581451
      ],
      [
        0.026897341012954712,
        0.0617755651473999,
        -0.0685550719499588,
        0.08768126368522644,
        -0.04512070119380951,
        0.060314714908599854,
        -0.021816790103912354,
        0.11381176114082336,
        -0.10361391305923462
      ],
      [
        0.06121605634689331,
        -0.08941125869750977,
        0.09936648607254028,
        -0.028376266360282898,
        0.03803946077823639,
        0.014760196208953857,
        -0.1192777007818222,
        0.11357063055038452,
        0.056412890553474426
      ],
      [
        -0.004003861919045448,
        0.1146581843495369,
        0.05528609827160835,
        0.00018994996207766235,
        0.03845132514834404,
        -0.0048941983841359615,
        -0.06623668968677521,
        -0.12643365561962128,
        0.06333820521831512
      ],
      [
        -0.07248035818338394,
        0.046779047697782516,
        0.010996273718774319,
        0.22521468997001648,
        -0.022086668759584427,
        -0.19157016277313232,
        0.04001592844724655,
        -0.11047215759754181,
        -0.049024708569049835
      ],
      [
        -0.12052503228187561,
        -0.09475286304950714,
        -0.08080120384693146,
        -0.004314228892326355,
        -0.03175082802772522,
        -0.005428776144981384,
        -0.05359634757041931,
        0.01208139955997467,
        -0.0884120762348175
      ],
      [
        -0.1120515912771225,
        -0.012820854783058167,
        0.03060626983642578,
        -0.03918673098087311,
        0.10084386169910431,
        -0.05849155783653259,
        -0.049534350633621216,
        -0.002765566110610962,
        0.09417606890201569
      ],
      [
        0.03865862265229225,
        0.09898679703474045,
        -0.08728501945734024,
        -0.12866255640983582,
        -0.07631350308656693,
        -0.05611439049243927,
        0.012612977996468544,
        0.00322238402441144,
        -0.050763607025146484
      ],
      [
        0.08753035962581635,
        -0.004171028733253479,
        0.12448178231716156,
        0.04811421036720276,
        0.08447630703449249,
        0.1114434003829956,
        0.00823974609375,
        0.05750785768032074,
        0.06023421883583069
      ],
      [
        0.10022581368684769,
        -0.06458975374698639,
        -0.06395939737558365,
        0.09392935037612915,
        0.06178593635559082,
        -0.0272391214966774,
        0.12153379619121552,
        -0.34918442368507385,
        0.4796845614910126
      ],
      [
        0.0023688131477683783,
        0.14785565435886383,
        0.024928400292992592,
        -0.053462427109479904,
        0.0016293589724227786,
        -0.07415065169334412,
        -0.05741574987769127,
        -0.06495789438486099,
        -0.05906718969345093
      ],
      [
        -0.06942588090896606,
        -0.10844594240188599,
        -0.06148897111415863,
        -0.06396359205245972,
        0.0251874178647995,
        -0.08713750541210175,
        -0.03876367211341858,
        0.05029939115047455,
        0.04047344624996185
      ],
      [
        0.012384667992591858,
        -0.05539423227310181,
        -0.0031002014875411987,
        0.008229300379753113,
        -0.09219539165496826,
        -0.0034424811601638794,
        -0.07520098984241486,
        0.025646686553955078,
        0.11220349371433258
      ],
      [
        -0.07613754272460938,
        -0.008042752742767334,
        0.09292398393154144,
        -0.11342902481555939,
        0.09088146686553955,
        -0.03310069441795349,
        -0.03897109627723694,
        -0.08580948412418365,
        -0.051055967807769775
      ],
      [
        -0.11182641983032227,
        0.10222785919904709,
        0.05370686948299408,
        0.12747976183891296,
        -0.06129034608602524,
        -0.02136765606701374,
        0.273611843585968,
        -0.4073350727558136,
        -0.2395177185535431
      ],
      [
        -0.04541650414466858,
        0.09313960373401642,
        0.012414619326591492,
        -0.03284567594528198,
        -0.08432844281196594,
        0.1220816969871521,
        -0.032309964299201965,
        0.08563065528869629,
        0.1160641759634018
      ],
      [
        -0.014094062149524689,
        -0.039854276925325394,
        0.1001610979437828,
        -0.10647271573543549,
        -0.16650882363319397,
        0.09397590160369873,
        -0.10167238861322403,
        -0.019675493240356445,
        0.03462912142276764
      ],
      [
        0.005636274814605713,
        0.0911131352186203,
        0.10094453394412994,
        0.11578652262687683,
        0.11336886882781982,
        0.1144162267446518,
        0.11825934052467346,
        -0.0968942791223526,
        -0.0877726674079895
      ],
      [
        0.040124475955963135,
        -0.022496387362480164,
        -0.02878721058368683,
        0.10740874707698822,
        -0.10319502651691437,
        -0.07578189671039581,
        -0.016258448362350464,
        -0.004726901650428772,
        -0.10134005546569824
      ],
      [
        -0.004270836710929871,
        0.011444568634033203,
        -0.10155566036701202,
        -0.07047830522060394,
        -0.030561327934265137,
        0.0029730647802352905,
        0.11017943918704987,
        0.022914215922355652,
        0.022737085819244385
      ],
      [
        0.10217893123626709,
        -0.06132535636425018,
        0.0788547694683075,
        -0.03303772211074829,
        0.016426771879196167,
        0.12087365984916687,
        -0.02954070270061493,
        -0.06678716838359833,
        -0.022123873233795166
      ],
      [
        -0.05529618263244629,
        -0.11067444086074829,
        -0.10510718822479248,
        0.11980922520160675,
        0.12254302203655243,
        0.02290940284729004,
        -0.10413417220115662,
        0.09416377544403076,
        -0.04967352747917175
      ],
      [
        0.025734245777130127,
        0.10188959538936615,
        0.050940707325935364,
        0.03599730134010315,
        -0.08885730803012848,
        -0.03838534653186798,
        0.03882162272930145,
        -0.0586417019367218,
        -0.05429382622241974
      ],
      [
        0.06265097111463547,
        0.01909840665757656,
        -0.031417932361364365,
        -0.28678902983665466,
        -0.22131411731243134,
        0.10945023596286774,
        -0.11122333258390427,
        0.05481306090950966,
        -0.3579193949699402
      ],
      [
        -0.1312413364648819,
        0.06464344263076782,
        0.09172803908586502,
        0.2229209691286087,
        0.3641778528690338,
        -0.224093958735466,
        0.27956560254096985,
        -0.2862717807292938,
        0.6577653288841248
      ],
      [
        0.03225620090961456,
        -0.015936091542243958,
        0.09924101829528809,
        0.11142846941947937,
        0.009929731488227844,
        -0.06492580473423004,
        0.08061331510543823,
        0.11808416247367859,
        0.09394603967666626
      ],
      [
        -0.14326851069927216,
        0.054745595902204514,
        0.030456673353910446,
        -0.23888075351715088,
        -0.4118090271949768,
        0.20176027715206146,
        -0.35360974073410034,
        0.4296255111694336,
        -0.4965848922729492
      ],
      [
        0.10804639011621475,
        0.03075968474149704,
        -0.06738211214542389,
        0.08466333895921707,
        -0.0644322857260704,
        0.11558444052934647,
        -0.05195512995123863,
        0.03628925234079361,
        -0.0016340019647032022
      ],
      [
        -0.0005492012132890522,
        -0.0005504921427927911,
        0.006396552547812462,
        -0.1608208566904068,
        -0.7618006467819214,
        0.3132006525993347,
        0.1911645531654358,
        -0.6128615140914917,
        -1.666808843612671
      ],
      [
        0.006257038097828627,
        -0.28589707612991333,
        -0.02213977836072445,
        -0.11811909079551697,
        0.3285256326198578,
        -0.24293355643749237,
        -0.14235344529151917,
        0.5627179741859436,
        0.8634190559387207
      ],
      [
        -0.13129392266273499,
        -0.0034859604202210903,
        0.07053016126155853,
        0.09363114088773727,
        0.04731589928269386,
        -0.21421709656715393,
        -0.22112604975700378,
        0.13929039239883423,
        0.46508413553237915
      ],
      [
        -0.06941598653793335,
        -0.12047693133354187,
        -0.04130912944674492,
        0.030138010159134865,
        0.12185673415660858,
        0.03584059700369835,
        0.010830791667103767,
        -0.09148936718702316,
        -0.013134046457707882
      ],
      [
        -0.02532431110739708,
        0.027419544756412506,
        0.11764847487211227,
        -0.1042756661772728,
        -0.03954906389117241,
        0.03992152586579323,
        0.05271178111433983,
        -0.10142543166875839,
        0.04588843137025833
      ],
      [
        0.17465786635875702,
        -0.08650846034288406,
        0.03751719743013382,
        -0.1364111453294754,
        -0.1372237652540207,
        0.07421329617500305,
        -0.0025817230343818665,
        0.15534496307373047,
        -0.00788944959640503
      ],
      [
        0.06678800284862518,
        -0.0068863085471093655,
        -0.01728876307606697,
        -0.03336337208747864,
        0.021006658673286438,
        -0.1066579818725586,
        0.07173852622509003,
        0.05069787800312042,
        -0.004314586520195007
      ],
      [
        -0.001096740597859025,
        -0.0037211477756500244,
        -0.11678852140903473,
        -0.1092182844877243,
        -0.10153275728225708,
        0.1108519434928894,
        -0.05504320561885834,
        -0.03420521318912506,
        -0.08912831544876099
      ],
      [
        -0.1026851013302803,
        0.07552264630794525,
        -0.07478384673595428,
        0.013497961685061455,
        0.012961945496499538,
        0.11048775166273117,
        0.05073855072259903,
        -0.09120079129934311,
        -0.12231260538101196
      ],
      [
        0.1281001716852188,
        -0.03628963604569435,
        0.047935765236616135,
        0.03038995899260044,
        -0.06202436238527298,
        0.07324058562517166,
        0.11228647083044052,
        -0.08719579130411148,
        0.006043573841452599
      ],
      [
        0.04797172546386719,
        0.05138957500457764,
        0.07520121335983276,
        -0.047998279333114624,
        -0.09468182921409607,
        -0.025364041328430176,
        0.009403422474861145,
        -0.08461092412471771,
        0.053615644574165344
      ],
      [
        0.11985550075769424,
        -0.054222140461206436,
        0.06674937158823013,
        0.09224098175764084,
        -0.08436203002929688,
        -0.10259556025266647,
        0.12467305362224579,
        -0.12357823550701141,
        0.039734452962875366
      ],
      [
        -0.05112643912434578,
        -0.07308096438646317,
        0.0203970056027174,
        0.007140254136174917,
        0.08654408901929855,
        -0.09396692365407944,
        -0.0992649719119072,
        -0.07272029668092728,
        0.14293764531612396
      ],
      [
        0.03479382395744324,
        -0.010036364197731018,
        0.09835696220397949,
        -0.0690927654504776,
        -0.013636425137519836,
        -0.11275698244571686,
        -0.024721652269363403,
        -0.03131040930747986,
        -0.056699737906455994
      ],
      [
        0.0760410875082016,
        -0.02031501568853855,
        -0.08741734176874161,
        0.3326214849948883,
        0.17568464577198029,
        -0.23070545494556427,
        0.1442861109972,
        -0.0290514025837183,
        0.14636407792568207
      ],
      [
        -0.09938899427652359,
        -0.0614931620657444,
        0.03055717796087265,
        0.07477589696645737,
        0.0063553545624017715,
        -0.059950314462184906,
        0.08094953000545502,
        0.08824533969163895,
        0.09814056009054184
      ],
      [
        -0.01570020616054535,
        0.042524710297584534,
        -0.10284088551998138,
        0.08601541817188263,
        -0.07153023779392242,
        -0.10058896243572235,
        0.029723137617111206,
        0.008969753980636597,
        0.031750380992889404
      ],
      [
        0.06304478645324707,
        -0.11230407655239105,
        0.06909865140914917,
        -0.046235233545303345,
        -0.057673871517181396,
        -0.03664207458496094,
        0.054057225584983826,
        -0.025165721774101257,
        0.017353594303131104
      ],
      [
        0.011636476032435894,
        0.1068650558590889,
        -0.022887207567691803,
        0.3814489543437958,
        0.5847517251968384,
        -0.516159176826477,
        -0.36332738399505615,
        -0.05883007496595383,
        0.9206476807594299
      ],
      [
        0.023810923099517822,
        -0.023244813084602356,
        0.06969815492630005,
        0.08686450123786926,
        -0.0940668135881424,
        0.04756505787372589,
        0.027760371565818787,
        0.08034491539001465,
        0.05713585019111633
      ],
      [
        -0.014688372611999512,
        -0.10612787306308746,
        -0.09579381346702576,
        -0.0323774516582489,
        0.028663530945777893,
        -0.12408316135406494,
        -0.1065092384815216,
        0.1198139488697052,
        0.1127757877111435
      ],
      [
        -0.038172438740730286,
        -0.016422539949417114,
        -0.11979824304580688,
        0.0905533879995346,
        -0.062066465616226196,
        -0.053672611713409424,
        0.10825200378894806,
        -0.0005852878093719482,
        0.11497962474822998
      ],
      [
        -0.09349628537893295,
        0.007080714218318462,
        0.12425218522548676,
        -0.37028467655181885,
        -0.4397099018096924,
        0.25260457396507263,
        0.13035614788532257,
        -0.23378612101078033,
        -1.040061116218567
      ],
      [
        -0.0686398297548294,
        0.06418550759553909,
        -0.03276274725794792,
        0.09811736643314362,
        0.19015242159366608,
        0.023394033312797546,
        -0.0049290466122329235,
        0.07412068545818329,
        -0.047058239579200745
      ],
      [
        0.10068228840827942,
        -0.11840629577636719,
        -0.019913241267204285,
        0.04378144443035126,
        -0.04536034166812897,
        -0.019511088728904724,
        0.06254512071609497,
        -0.01461733877658844,
        0.0835556834936142
      ],
      [
        0.015815282240509987,
        -0.0825723335146904,
        0.07917729020118713,
        0.12584161758422852,
        -0.019144294783473015,
        0.06745214760303497,
        -0.01270387228578329,
        -0.08257663249969482,
        0.10558720678091049
      ],
      [
        -0.06824373453855515,
        -0.00972333550453186,
        0.09380006045103073,
        0.010313009843230247,
        0.09107277542352676,
        -0.09009123593568802,
        -0.06268854439258575,
        -0.02397782914340496,
        -0.006593383848667145
      ],
      [
        0.07655944675207138,
        0.0013366100611165166,
        -0.14222045242786407,
        0.06897348910570145,
        -0.11853047460317612,
        0.11866728961467743,
        -0.0008450602181255817,
        0.06280981004238129,
        0.027652384713292122
      ],
      [
        -0.12387446314096451,
        0.08442438393831253,
        0.005804944317787886,
        0.20392635464668274,
        0.10134664177894592,
        -0.07785968482494354,
        0.14211684465408325,
        -0.3503715991973877,
        0.6660719513893127
      ],
      [
        -0.1280800849199295,
        -0.05673946440219879,
        0.01828206703066826,
        0.1398642212152481,
        0.04845116287469864,
        -0.021528184413909912,
        0.19122502207756042,
        0.052125293761491776,
        0.23041243851184845
      ],
      [
        -0.09873029589653015,
        0.03485215827822685,
        -0.030706457793712616,
        0.00855947658419609,
        0.1552879512310028,
        0.007956083863973618,
        -0.05801345407962799,
        -0.048844486474990845,
        -0.09044414013624191
      ],
      [
        -0.001956819323822856,
        0.092437744140625,
        0.004606095142662525,
        0.09611209481954575,
        0.07171978801488876,
        -0.10195920616388321,
        0.11358078569173813,
        0.11233671009540558,
        0.0599202960729599
      ],
      [
        0.11327563226222992,
        -0.021621733903884888,
        0.09649117290973663,
        -0.10108992457389832,
        0.003732532262802124,
        0.10090060532093048,
        0.029758766293525696,
        -0.07887092232704163,
        0.06646482646465302
      ],
      [
        0.047454144805669785,
        0.034604206681251526,
        -0.057404208928346634,
        0.1620827317237854,
        0.36546987295150757,
        -0.07705780863761902,
        -0.26516789197921753,
        -0.05697210505604744,
        0.9421758055686951
      ],
      [
        0.11903250217437744,
        -0.04353649914264679,
        0.06150570511817932,
        0.09261525422334671,
        0.015571844764053822,
        0.03697213530540466,
        -0.006947808433324099,
        0.07235371321439743,
        -0.02628878690302372
      ],
      [
        -0.007461709436029196,
        -0.019921163097023964,
        0.021189870312809944,
        0.010228852741420269,
        0.7220983505249023,
        -0.23908768594264984,
        0.14796140789985657,
        0.3268245458602905,
        1.4418542385101318
      ],
      [
        -0.04472235217690468,
        -0.08624511957168579,
        0.06777466833591461,
        -0.08979231119155884,
        0.026093244552612305,
        0.04008914530277252,
        0.0012580017792060971,
        0.07432112097740173,
        0.06383168697357178
      ],
      [
        -0.09266415238380432,
        0.04292668402194977,
        -0.09588156640529633,
        0.11021275818347931,
        0.009670794010162354,
        0.03779248893260956,
        -0.029817983508110046,
        -0.06318813562393188,
        -0.007165133953094482
      ],
      [
        0.0674375370144844,
        0.08283722400665283,
        0.003981355112046003,
        0.0004337476857472211,
        0.0042326794937253,
        0.09054796397686005,
        0.03732282295823097,
        -0.1031671091914177,
        -0.011562398634850979
      ],
      [
        0.02693532593548298,
        0.06858433037996292,
        -0.09395936876535416,
        -0.08278071880340576,
        0.46793290972709656,
        -0.12038057297468185,
        0.5986226797103882,
        0.5592370629310608,
        1.0631393194198608
      ],
      [
        0.007759131025522947,
        -0.05714958906173706,
        -0.011825007386505604,
        -0.12468665093183517,
        0.7538654804229736,
        -0.04732683300971985,
        -0.07510999590158463,
        0.4134828448295593,
        0.6683001518249512
      ],
      [
        -0.08746986091136932,
        -0.062377579510211945,
        0.04671003296971321,
        -0.3668542504310608,
        -0.48893317580223083,
        0.3008098602294922,
        0.040551599115133286,
        0.4023832082748413,
        -0.7290610074996948
      ],
      [
        -0.001962267095223069,
        -0.0002970497589558363,
        -0.106954425573349,
        -0.07583922147750854,
        0.08087632060050964,
        0.019051000475883484,
        -0.012238219380378723,
        0.12029701471328735,
        -0.05560468137264252
      ],
      [
        0.13654686510562897,
        0.026268815621733665,
        -0.011671467684209347,
        0.03515224531292915,
        -0.044127654284238815,
        0.05498262867331505,
        0.06364962458610535,
        -0.2536962926387787,
        -0.14267027378082275
      ],
      [
        0.006261295638978481,
        -0.09723328053951263,
        0.030472561717033386,
        0.277521014213562,
        0.24086697399616241,
        -0.04933266341686249,
        0.3161614239215851,
        -0.48485249280929565,
        0.499033123254776
      ],
      [
        -0.019870709627866745,
        0.07430172711610794,
        0.02629188448190689,
        0.024266358464956284,
        0.14058992266654968,
        -0.30904531478881836,
        0.059230007231235504,
        0.7065794467926025,
        1.2642120122909546
      ],
      [
        0.08787660300731659,
        -0.014090080745518208,
        0.05681483820080757,
        0.10135270655155182,
        0.007683204486966133,
        6.605488306377083e-05,
        0.09212778508663177,
        -0.0892481729388237,
        0.07448427379131317
      ],
      [
        0.06526441872119904,
        0.04853205382823944,
        0.07070772349834442,
        -0.08226872980594635,
        -0.024149015545845032,
        -0.05083569884300232,
        0.05209822952747345,
        -0.05240641534328461,
        0.05786082148551941
      ],
      [
        -0.11026853322982788,
        0.03620080649852753,
        -0.09800560772418976,
        0.021506518125534058,
        0.06512698531150818,
        -0.055729642510414124,
        -0.05469980835914612,
        0.013707563281059265,
        0.05410550534725189
      ],
      [
        -0.06875953823328018,
        0.03543543443083763,
        -0.09170839190483093,
        -0.0893058031797409,
        0.030832365155220032,
        0.006357476580888033,
        0.061875298619270325,
        -0.12131272256374359,
        0.06429451704025269
      ],
      [
        0.011908281594514847,
        -0.1115969717502594,
        0.07769704610109329,
        -0.08008058369159698,
        0.04519074782729149,
        -0.05319943651556969,
        0.05428144335746765,
        -0.039132557809352875,
        0.07983138412237167
      ],
      [
        0.06273189187049866,
        -0.0900045782327652,
        -0.1012248694896698,
        -0.05179566144943237,
        -0.06772854924201965,
        -0.044779375195503235,
        -0.08887213468551636,
        -0.06950093805789948,
        -0.00731852650642395
      ],
      [
        -0.10967212915420532,
        0.035439878702163696,
        0.044433798640966415,
        -0.22374862432479858,
        -0.4097471237182617,
        0.24042212963104248,
        -0.26667889952659607,
        0.3820246160030365,
        -0.751636266708374
      ],
      [
        -0.014780282974243164,
        -0.029066532850265503,
        -0.12317730486392975,
        0.11207641661167145,
        0.06323201954364777,
        -0.11133603751659393,
        -0.0651131272315979,
        0.06731228530406952,
        -0.011621758341789246
      ],
      [
        -0.037177443504333496,
        -0.07110433280467987,
        -0.0772046446800232,
        -0.05467602610588074,
        0.055056288838386536,
        -0.0319845974445343,
        -0.11226525902748108,
        0.014522016048431396,
        -0.0053075700998306274
      ],
      [
        -0.0017005527624860406,
        -0.06859326362609863,
        -0.08033715188503265,
        -0.09035869687795639,
        0.06354722380638123,
        0.10587364435195923,
        -0.11193370819091797,
        -0.03445311263203621,
        0.008482535369694233
      ],
      [
        0.027939967811107635,
        0.008470455184578896,
        -0.08380530774593353,
        -0.10271725058555603,
        0.1375235617160797,
        -0.022675251588225365,
        0.5342236161231995,
        0.4569438397884369,
        0.9697253704071045
      ],
      [
        0.0027249997947365046,
        0.003536688396707177,
        -0.007717642933130264,
        0.20747607946395874,
        0.4794071316719055,
        -0.33988726139068604,
        -0.28289803862571716,
        -0.05981570854783058,
        1.3847185373306274
      ],
      [
        -0.13228197395801544,
        0.13095040619373322,
        0.07119819521903992,
        0.3306019604206085,
        0.29997631907463074,
        -0.19631847739219666,
        0.10289116203784943,
        -0.221598818898201,
        0.5595182776451111
      ],
      [
        0.061083272099494934,
        0.10542257130146027,
        0.07401014864444733,
        0.009104162454605103,
        -0.09591355919837952,
        0.047704607248306274,
        0.11165283620357513,
        -0.06065474450588226,
        0.09428361058235168
      ]
    ],
    "lstm.weight_hh_l0": [
      [
        0.08957866579294205,
        0.06669997423887253,
        0.1361437737941742,
        -0.11598746478557587,
        -0.0976068452000618,
        -0.09530490636825562,
        0.05973218008875847,
        0.08062535524368286,
        0.0011211112141609192,
        0.09684980660676956,
        -0.0847897082567215,
        0.08747458457946777,
        -0.11763033270835876,
        -0.05521465465426445,
        0.10385573655366898,
        0.028938621282577515,
        0.05776979774236679,
        -0.13269206881523132,
        -0.11616512387990952,
        -0.10468324273824692,
        0.022489815950393677,
        -0.0034407079219818115,
        0.041887108236551285,
        0.09180596470832825,
        0.07001382112503052,
        0.07615986466407776,
        0.017108041793107986,
        0.08410317450761795,
        0.10741186141967773,
        -0.005144318100064993,
        0.037070803344249725,
        0.027073020115494728,
        0.10741124302148819,
        -0.03472023084759712,
        -0.05060059204697609,
        -0.09972864389419556,
        0.0721047893166542,
        0.03797737509012222,
        0.05364876240491867,
        0.109823077917099,
        -0.058155033737421036,
        0.03500072658061981,
        -0.008858103305101395,
        -0.05715293437242508,
        -0.08191543072462082,
        0.022648505866527557,
        0.06709474325180054,
        0.08960631489753723,
        -0.02925158105790615,
        -0.1089174896478653,
        0.04228411614894867,
        -0.09306181967258453,
        0.08392256498336792,
        -0.029801741242408752,
        -0.07761646807193756,
        -0.00035338103771209717,
        0.0011131253559142351,
        -0.0531010776758194,
        0.08734266459941864,
        -0.06502644717693329,
        0.101854607462883,
        0.050919387489557266,
        0.05579984188079834,
        -0.023649921640753746
      ],
      [
        -0.050764769315719604,
        0.09270542860031128,
        0.1257414072751999,
        0.06665314733982086,
        -0.2882888913154602,
        -0.2818724513053894,
        0.08120431005954742,
        0.09823949635028839,
        0.4191935360431671,
        0.14329342544078827,
        -0.07613807171583176,
        0.023973196744918823,
        -0.005416031461209059,
        -0.2696126401424408,
        0.3196960687637329,
        0.300538033246994,
        0.0658441111445427,
        -0.30732837319374084,
        -0.17047853767871857,
        -0.09282591938972473,
        -0.10090018808841705,
        0.02035081386566162,
        0.2832838296890259,
        -0.1053733304142952,
        0.11436732113361359,
        0.09283797442913055,
        0.12749722599983215,
        0.003691422753036022,
        0.046831682324409485,
        -0.35587215423583984,
        -0.026954680681228638,
        -0.05631700158119202,
        -0.08030931651592255,
        0.026507815346121788,
        0.08412493020296097,
        -0.026547735556960106,
        -0.3166596293449402,
        -0.026996277272701263,
        -0.08356214314699173,
        0.10267821699380875,
        -0.015128674916923046,
        -0.03152799606323242,
        -0.30301520228385925,
        0.017826857045292854,
        -0.06232687458395958,
        -0.0794999897480011,
        -0.04793296754360199,
        0.06092454865574837,
        -0.3294014632701874,
        -0.13731539249420166,
        -0.21210022270679474,
        0.38369786739349365,
        0.008140802383422852,
        0.009835869073867798,
        -0.22826917469501495,
        -0.03211599588394165,
        -0.16305170953273773,
        0.05021943151950836,
        0.016050666570663452,
        -0.055413853377103806,
        0.1240803524851799,
        0.2831454575061798,
        -0.04303170368075371,
        -0.23228298127651215
      ],
      [
        -0.21460522711277008,
        0.11141326278448105,
        0.16326209902763367,
        -0.11420678347349167,
        0.2685798704624176,
        -0.02563047595322132,
        0.26783615350723267,
        -0.04498252272605896,
        -0.1688828319311142,
        0.3304598033428192,
        -0.027611643075942993,
        -0.08105677366256714,
        -0.0913393422961235,
        0.018687333911657333,
        0.11536221206188202,
        -0.05609997361898422,
        -0.13772177696228027,
        -0.26008445024490356,
        0.10795174539089203,
        0.008554760366678238,
        0.05927908420562744,
        -0.03433571755886078,
        0.0179402194917202,
        0.07747293263673782,
        0.05138327181339264,
        0.05968277156352997,
        -0.16561461985111237,
        0.04439915716648102,
        0.01049797236919403,
        -0.0006487827631644905,
        0.08751489222049713,
        0.010673402808606625,
        0.20825868844985962,
        -0.42852783203125,
        0.11276255548000336,
        0.11471915245056152,
        0.037554603070020676,
        -0.43189433217048645,
        0.03913586214184761,
        -0.1792992353439331,
        -0.06842660903930664,
        0.04132799804210663,
        0.046530190855264664,
        -0.25296011567115784,
        -0.18235641717910767,
        -0.1851864606142044,
        0.1150493323802948,
        -0.3332475423812866,
        0.09336692839860916,
        -0.19648775458335876,
        0.06412342190742493,
        0.011830547824501991,
        -0.00033551454544067383,
        0.011736497282981873,
        0.06545338034629822,
        0.07735307514667511,
        0.30580824613571167,
        0.06105387210845947,
        0.01690778136253357,
        -0.051929231733083725,
        -0.23902375996112823,
        0.2530253529548645,
        0.24739590287208557,
        -0.19375838339328766
      ],
      [
        0.08545023202896118,
        -0.002395229646936059,
        -0.05645452067255974,
        -0.11557421088218689,
        0.10939331352710724,
        0.05613041669130325,
        -0.1055041179060936,
        0.016547173261642456,
        0.047238610684871674,
        0.09829026460647583,
        0.010333331301808357,
        0.0950373113155365,
        0.022024810314178467,
        -0.12828074395656586,
        -0.055566947907209396,
        -0.08245427906513214,
        -0.07510080188512802,
        -0.03882257267832756,
        0.06387060880661011,
        0.09768074005842209,
        -0.11186565458774567,
        0.06221848726272583,
        0.02123873122036457,
        -0.02291775867342949,
        0.03829048573970795,
        -0.09026263654232025,
        -0.001894060056656599,
        -0.006722167134284973,
        0.002140745520591736,
        -0.1269460767507553,
        -0.11681777238845825,
        -0.055589210242033005,
        -0.12372156232595444,
        -0.05784109979867935,
        -0.1291903853416443,
        -0.0798758789896965,
        -0.1145864948630333,
        -0.046603526920080185,
        -0.08019072562456131,
        0.0008710007532499731,
        -0.04986784607172012,
        -0.09488707780838013,
        -0.07971199601888657,
        -0.03173670917749405,
        0.03509615361690521,
        0.07761331647634506,
        -0.12283776700496674,
        -0.04423642158508301,
        -0.031068097800016403,
        0.019748253747820854,
        -0.1014796569943428,
        0.09764284640550613,
        -0.03710712492465973,
        -0.058636993169784546,
        -0.001908136298879981,
        0.0734061747789383,
        -0.004584716632962227,
        -0.11228503286838531,
        -0.04192858934402466,
        0.09313620626926422,
        0.06705651432275772,
        0.10437071323394775,
        0.07235634326934814,
        0.08591978251934052
      ],
      [
        0.08465704321861267,
        -0.02788923680782318,
        -0.11387313902378082,
        -0.09866048395633698,
        0.003260508179664612,
        0.0435134619474411,
        -0.0036704540252685547,
        -0.03948661684989929,
        -0.006643116474151611,
        0.010715126991271973,
        -0.03036116063594818,
        0.08546976745128632,
        -0.08795133233070374,
        -0.04123246669769287,
        0.11703374981880188,
        0.016547709703445435,
        -0.07065153121948242,
        0.08227303624153137,
        0.10660691559314728,
        0.040678054094314575,
        -0.03144332766532898,
        -0.06522062420845032,
        0.010389894247055054,
        -0.045440033078193665,
        0.061867162585258484,
        -0.07347063720226288,
        0.09321528673171997,
        0.05652676522731781,
        0.07031697034835815,
        0.08464652299880981,
        -0.01274806261062622,
        0.009565219283103943,
        0.1099960207939148,
        -0.01770104467868805,
        0.06913557648658752,
        -0.013628959655761719,
        0.09413908421993256,
        0.04149523377418518,
        -0.06490887701511383,
        0.11610223352909088,
        0.09094475209712982,
        0.057626381516456604,
        -0.006722956895828247,
        -0.059865862131118774,
        -0.015706464648246765,
        0.10481058061122894,
        0.12400685250759125,
        -0.11681737005710602,
        -0.018604978919029236,
        -0.016551285982131958,
        -0.08133845031261444,
        0.004638805985450745,
        -0.022956132888793945,
        -0.12036716938018799,
        -0.11982150375843048,
        -0.05224107205867767,
        0.10496483743190765,
        0.05502396821975708,
        0.01155109703540802,
        0.029314711689949036,
        0.12192131578922272,
        0.000763431191444397,
        0.10629342496395111,
        -0.02143363654613495
      ],
      [
        0.07660301774740219,
        -0.04970984905958176,
        0.025590267032384872,
        0.03520724177360535,
        0.0021158030722290277,
        0.10707661509513855,
        -0.10659195482730865,
        0.0016995668411254883,
        0.020818859338760376,
        0.11972703039646149,
        0.07801146805286407,
        0.1110425591468811,
        -0.11591789126396179,
        0.1238272562623024,
        0.11737751960754395,
        0.11750161647796631,
        -0.10675513744354248,
        -0.11539068818092346,
        -0.0798521339893341,
        -0.10140201449394226,
        -0.0630904883146286,
        0.029850557446479797,
        0.10319989174604416,
        0.012294963002204895,
        -0.030605509877204895,
        -0.06919410824775696,
        -0.10181154310703278,
        0.1036899983882904,
        0.06514769792556763,
        0.06858807802200317,
        0.02940128743648529,
        -0.03606307506561279,
        -0.05925750732421875,
        -0.057283177971839905,
        0.05315524339675903,
        -0.04842761158943176,
        -0.08357172459363937,
        -0.12404142320156097,
        -0.0614432692527771,
        -0.013001161627471447,
        0.10807546973228455,
        -0.059973299503326416,
        0.05044309049844742,
        -0.11541874706745148,
        0.09369604289531708,
        0.019084956496953964,
        0.0965537577867508,
        0.10158149898052216,
        -0.1033184602856636,
        0.024397321045398712,
        -0.10977024585008621,
        -0.07581926137208939,
        0.041366949677467346,
        -0.12428633868694305,
        -0.09681474417448044,
        -0.06800124049186707,
        -0.10555523633956909,
        0.10943879187107086,
        -0.10786360502243042,
        0.05796739459037781,
        -0.11101134121417999,
        0.08300067484378815,
        -0.10524746030569077,
        0.07276475429534912
      ],
      [
        -0.06808428466320038,
        -0.030988292768597603,
        -0.08244213461875916,
        -0.12219011783599854,
        -0.016192520037293434,
        -0.12023752182722092,
        0.024185147136449814,
        0.026095449924468994,
        0.03191821277141571,
        -0.04886554554104805,
        0.03122316300868988,
        0.1184825450181961,
        -0.11472786962985992,
        -0.0977601706981659,
        0.01593788154423237,
        -0.04246538504958153,
        -0.07068031281232834,
        0.05674372985959053,
        -0.0392945297062397,
        -0.06379098445177078,
        -0.0117826908826828,
        -0.10932640731334686,
        0.003702207701280713,
        0.05288112163543701,
        0.05202886462211609,
        0.020473718643188477,
        -0.025409217923879623,
        0.01671547442674637,
        -0.07784393429756165,
        0.026467517018318176,
        -0.09337694197893143,
        0.11669161915779114,
        -0.07976867258548737,
        -0.09538719803094864,
        0.09794691950082779,
        -0.11385804414749146,
        -0.09187334775924683,
        -0.044223200529813766,
        -0.09580783545970917,
        -0.1059575080871582,
        -0.002289324998855591,
        0.06934916973114014,
        -0.00804886408150196,
        -0.021528342738747597,
        0.0697338804602623,
        -0.06507128477096558,
        -0.06636673212051392,
        0.09268978238105774,
        -0.05351518839597702,
        -0.0386434830725193,
        0.11848539113998413,
        0.024400867521762848,
        0.012839838862419128,
        0.020508259534835815,
        0.01076847966760397,
        0.11693058907985687,
        0.05256084352731705,
        -0.015744760632514954,
        -0.04828253388404846,
        -0.12411898374557495,
        -0.0808616355061531,
        0.043859049677848816,
        -0.04224947839975357,
        -0.07304196059703827
      ],
      [
        0.10860903561115265,
        0.11273561418056488,
        -0.051837339997291565,
        -0.05062110722064972,
        0.05745919048786163,
        0.011177554726600647,
        -0.061424270272254944,
        -0.028884917497634888,
        0.1041300892829895,
        -0.030548810958862305,
        -0.026143252849578857,
        -0.11342568695545197,
        -0.11947259306907654,
        -0.10167963802814484,
        0.03786639869213104,
        0.06410105526447296,
        0.06756892800331116,
        -0.1001722514629364,
        -0.004488080739974976,
        -0.10643494129180908,
        -0.11809876561164856,
        -0.08653393387794495,
        0.0645226240158081,
        -0.08780695497989655,
        -0.07255445420742035,
        -0.08725559711456299,
        -0.019982963800430298,
        0.08276663720607758,
        -0.09232571721076965,
        0.031061843037605286,
        0.08713297545909882,
        -0.022380366921424866,
        -0.11464755237102509,
        0.11594626307487488,
        0.0011975914239883423,
        -0.001193702220916748,
        0.03243890404701233,
        -0.0009486536146141589,
        -0.10805536806583405,
        -0.10221017897129059,
        -0.07973800599575043,
        -0.10741288959980011,
        -0.08434724807739258,
        0.0595875084400177,
        0.0803600549697876,
        0.09942427277565002,
        0.07623912394046783,
        -0.026759788393974304,
        0.06287498772144318,
        0.11711573600769043,
        0.04318881034851074,
        -0.06924615800380707,
        0.0877336859703064,
        -0.0791953057050705,
        -0.00024057930568233132,
        -0.007524371147155762,
        -0.09908637404441833,
        -0.0827624499797821,
        -0.0753433108329773,
        0.0012544691562652588,
        -0.04603075981140137,
        -0.03937560319900513,
        0.08628341555595398,
        -0.025489524006843567
      ],
      [
        -0.31101688742637634,
        -0.25103509426116943,
        -0.11422549933195114,
        -0.070408396422863,
        0.174378901720047,
        0.016228409484028816,
        0.19059079885482788,
        0.0998474583029747,
        -0.18143528699874878,
        0.3049922585487366,
        0.05243688449263573,
        -0.018583029508590698,
        0.05381099134683609,
        0.0003951002727262676,
        -0.04399140551686287,
        -0.014389587566256523,
        0.05068104714155197,
        0.09583607316017151,
        -0.26858869194984436,
        -0.018691321834921837,
        0.010577574372291565,
        -0.08194717764854431,
        -0.05672754719853401,
        -0.06451942771673203,
        0.10393358767032623,
        0.0608920156955719,
        -0.3215968608856201,
        0.0942753255367279,
        0.11778716742992401,
        0.06792999058961868,
        0.03224596753716469,
        -0.015920596197247505,
        -0.07116219401359558,
        0.02394084818661213,
        0.07873692363500595,
        -0.09939997643232346,
        -0.02458365634083748,
        -0.2901894152164459,
        0.16801883280277252,
        0.0901709645986557,
        -0.12411770969629288,
        0.0654871016740799,
        -0.11176015436649323,
        -0.04782234877347946,
        0.044192150235176086,
        -0.1064063012599945,
        -0.014864325523376465,
        -0.08743927627801895,
        0.1055944412946701,
        0.018827538937330246,
        0.02873709425330162,
        -0.05010630935430527,
        -0.0421648770570755,
        0.11570820212364197,
        0.2854543924331665,
        0.012239590287208557,
        0.0583902969956398,
        -0.09596455097198486,
        0.036260947585105896,
        0.10844437777996063,
        -0.19804596900939941,
        -0.08864236623048782,
        0.2974087595939636,
        -0.01743440516293049
      ],
      [
        0.11128702014684677,
        -0.06146164983510971,
        -0.08514603227376938,
        -0.09791572391986847,
        0.08800441771745682,
        -0.038977209478616714,
        0.0531892329454422,
        0.008846968412399292,
        0.017111752182245255,
        0.0610700361430645,
        0.08002820611000061,
        0.08158567547798157,
        -0.006217415910214186,
        -0.031098617240786552,
        -0.07541029900312424,
        -0.09014681726694107,
        0.0710182636976242,
        -0.030773010104894638,
        -0.153778538107872,
        0.06960479170084,
        -0.11440037190914154,
        0.02323882281780243,
        -0.07889670878648758,
        0.12154871225357056,
        0.05854722857475281,
        0.04202130436897278,
        0.03141086921095848,
        -0.06751580536365509,
        0.011959895491600037,
        0.018888790160417557,
        -0.051924705505371094,
        -0.019391216337680817,
        -0.03961705416440964,
        -0.07582556456327438,
        -0.08840490132570267,
        -0.04304905980825424,
        0.12290416657924652,
        0.11449088901281357,
        0.012276615016162395,
        -0.0320754200220108,
        0.05773533880710602,
        -0.013435214757919312,
        0.024964086711406708,
        0.0008234468987211585,
        0.005755705293267965,
        -0.102789506316185,
        0.10106311738491058,
        -0.10589388757944107,
        -0.1037931814789772,
        0.11659281700849533,
        -0.0552024208009243,
        0.04380885884165764,
        0.021733328700065613,
        -0.01806098222732544,
        -0.03618042171001434,
        0.062076032161712646,
        -0.12680883705615997,
        0.07678234577178955,
        -0.08984008431434631,
        0.09816168248653412,
        -0.10176908224821091,
        0.0346408449113369,
        0.04652310535311699,
        -0.07754845917224884
      ],
      [
        -0.12229861319065094,
        0.0226710457354784,
        0.04756509140133858,
        0.008379524573683739,
        -0.080657958984375,
        0.05477470904588699,
        -0.026671014726161957,
        0.11235679686069489,
        0.04575088247656822,
        -0.07990403473377228,
        -0.0685659646987915,
        -0.016308918595314026,
        -0.07913723587989807,
        -0.03582454100251198,
        -0.059824444353580475,
        0.01939898170530796,
        -0.07112288475036621,
        0.07767894119024277,
        0.09809968620538712,
        0.0011059939861297607,
        0.09490779042243958,
        0.06186506152153015,
        -0.10778635740280151,
        0.05353271961212158,
        0.004968076944351196,
        -0.010502099990844727,
        0.07049202919006348,
        0.12094244360923767,
        -0.02168107032775879,
        0.05453190580010414,
        -0.00712016224861145,
        0.043636441230773926,
        0.12021128833293915,
        0.09770523011684418,
        0.10865005850791931,
        -0.0738612711429596,
        0.0569724403321743,
        0.0381401926279068,
        -0.09961535036563873,
        0.06036387011408806,
        -0.0948457419872284,
        -0.11393663287162781,
        0.023622527718544006,
        -0.035026732832193375,
        -0.08136496692895889,
        -0.034185923635959625,
        -0.04519127309322357,
        -0.10823505371809006,
        0.1096726804971695,
        0.001584537560120225,
        -0.04232693836092949,
        -0.03962089493870735,
        -0.03469948470592499,
        0.07860545814037323,
        -0.04834370315074921,
        0.045726239681243896,
        -0.11647441238164902,
        0.0214758962392807,
        -0.025818079710006714,
        0.06243303418159485,
        -0.10208630561828613,
        0.08766137808561325,
        0.014705561101436615,
        -0.01467566192150116
      ],
      [
        -0.11550745368003845,
        0.007269710302352905,
        0.03790666162967682,
        0.03641502559185028,
        0.058670446276664734,
        0.008232980966567993,
        -0.04282781481742859,
        0.09741398692131042,
        0.03666318953037262,
        0.04627877473831177,
        0.11450214684009552,
        0.028468772768974304,
        -0.09400615096092224,
        0.020730137825012207,
        -0.11143031716346741,
        0.013175785541534424,
        0.09102851152420044,
        -0.06035836040973663,
        -0.004818707704544067,
        0.03143233060836792,
        -0.027059465646743774,
        0.02820606529712677,
        -0.02084110677242279,
        -0.05425938963890076,
        -0.03544756770133972,
        0.018638357520103455,
        0.12343566119670868,
        -0.10866174101829529,
        -0.03410504758358002,
        0.07423590123653412,
        -0.07699672877788544,
        -0.07896262407302856,
        0.040845587849617004,
        -0.10235908627510071,
        -0.05304540693759918,
        0.021402299404144287,
        0.06952513754367828,
        -0.07445096969604492,
        0.09527251124382019,
        -0.1215783953666687,
        0.009190499782562256,
        -0.049558594822883606,
        0.07197245955467224,
        0.013314947485923767,
        0.09547917544841766,
        -0.05858293175697327,
        0.016280457377433777,
        -0.0706792026758194,
        -0.0552823543548584,
        -0.052261218428611755,
        0.02674981951713562,
        -0.0529380738735199,
        -0.004980489611625671,
        0.00803665816783905,
        -0.09472639858722687,
        -0.08196921646595001,
        0.0609683096408844,
        -0.0782620757818222,
        0.06267783045768738,
        0.00913393497467041,
        -0.12435081601142883,
        -0.0266922265291214,
        -0.08127912878990173,
        -0.08432246744632721
      ],
      [
        0.08625315874814987,
        0.0006177310133352876,
        0.050756122916936874,
        -0.06960323452949524,
        0.1014767438173294,
        0.10697761178016663,
        -0.11495257169008255,
        -0.06540028750896454,
        -0.04289711266756058,
        0.0965655967593193,
        -0.07478509843349457,
        0.1000303328037262,
        -0.08421944081783295,
        0.034236568957567215,
        0.10497955977916718,
        -0.06050518527626991,
        -0.11834286153316498,
        -0.048579029738903046,
        -0.10462453961372375,
        -0.04859668016433716,
        -0.08524717390537262,
        -0.10812719166278839,
        -0.12494797259569168,
        -0.000429689884185791,
        -0.0736902505159378,
        0.048374682664871216,
        0.010815121233463287,
        -0.12368565797805786,
        -0.01900152862071991,
        0.06234520673751831,
        0.024350494146347046,
        0.06383326649665833,
        0.07530596107244492,
        0.034016579389572144,
        -0.06186428666114807,
        -0.114825040102005,
        0.08633976429700851,
        -0.06954926252365112,
        -0.07914350926876068,
        0.038698866963386536,
        0.08686016499996185,
        0.051934823393821716,
        0.1109388917684555,
        -0.10366709530353546,
        -0.10783727467060089,
        -0.06827443838119507,
        0.054148927330970764,
        0.12105674296617508,
        -0.1108797937631607,
        -0.002481643809005618,
        0.07864692062139511,
        -0.006769731640815735,
        0.028142735362052917,
        -0.07915788888931274,
        -0.01686006225645542,
        0.09895563125610352,
        -0.10331165790557861,
        -0.009884297847747803,
        -0.017803236842155457,
        -0.08474257588386536,
        -0.11721774935722351,
        -0.05482012778520584,
        -0.025639796629548073,
        0.05626724287867546
      ],
      [
        -0.11402317881584167,
        0.12907975912094116,
        -0.082827128469944,
        0.017211195081472397,
        0.05027429759502411,
        0.05958070605993271,
        0.048633918166160583,
        -0.005337005015462637,
        0.07755594700574875,
        -0.07297558337450027,
        -0.03707394003868103,
        0.05157361924648285,
        -0.06255961209535599,
        -0.08954509347677231,
        -0.05922619253396988,
        -0.0989006981253624,
        -0.040261730551719666,
        0.0128928879275918,
        0.16539551317691803,
        0.10368715971708298,
        0.0005395561456680298,
        -0.04468473792076111,
        0.0034884235356003046,
        -0.10544812679290771,
        0.049747198820114136,
        -0.07110726833343506,
        -0.08405625075101852,
        0.0202194694429636,
        0.09597744047641754,
        0.07818101346492767,
        -0.11386415362358093,
        -0.015261766500771046,
        0.03333352506160736,
        0.0844263806939125,
        0.06449873000383377,
        0.015898164361715317,
        0.12535542249679565,
        -0.09015394002199173,
        -0.10892634093761444,
        0.05106063187122345,
        0.041269030421972275,
        0.07776181399822235,
        -0.02757321484386921,
        0.09578768163919449,
        -0.07088611274957657,
        -0.09348034858703613,
        -0.004157006740570068,
        -0.1328248828649521,
        0.03147279843688011,
        -0.044280827045440674,
        0.07412011176347733,
        -0.031172871589660645,
        -0.07828430831432343,
        0.04567292332649231,
        -0.008055521175265312,
        0.05084596574306488,
        0.0757380947470665,
        -0.10590502619743347,
        0.04678887128829956,
        0.09898525476455688,
        0.06421542912721634,
        0.0643170028924942,
        0.004404920618981123,
        0.1177532821893692
      ],
      [
        -0.3071110248565674,
        0.009242694824934006,
        0.014706481248140335,
        -0.02763785794377327,
        -0.30970507860183716,
        0.005874363239854574,
        -0.23895543813705444,
        0.08758069574832916,
