{
  "model_state_dict": {
    "embedding.weight": [
      [
        -1.2895958423614502,
        0.4705940783023834,
        1.7210350036621094,
        -0.8045340776443481
      ],
      [
        1.742911458015442,
        0.49018824100494385,
        1.1691458225250244,
        0.5324252247810364
      ],
      [
        0.6106700301170349,
        1.5044281482696533,
        1.1339709758758545,
        0.21418842673301697
      ],
      [
        -0.07409012317657471,
        -3.070037603378296,
        -0.009934334084391594,
        -0.056752320379018784
      ]
    ],
    "lstm.weight_ih_l0": [
      [
        -0.006364814937114716,
        -0.10508544743061066,
        0.10683376342058182,
        0.12427440285682678,
        0.10403955727815628,
        -0.07223105430603027,
        0.07638401538133621,
        0.027221621945500374,
        0.11084675043821335
      ],
      [
        0.05673687160015106,
        -0.0338788777589798,
        0.06612274050712585,
        -0.005393415689468384,
        0.024197101593017578,
        0.013047024607658386,
        -0.04300476610660553,
        0.01981554925441742,
        0.09521585702896118
      ],
      [
        -0.008192869834601879,
        -0.09302113205194473,
        0.008944325149059296,
        -0.1447119563817978,
        0.42103755474090576,
        -0.000572044518776238,
        0.02633867971599102,
        0.5803865194320679,
        0.4530502259731293
      ],
      [
        0.076496422290802,
        0.005244418978691101,
        0.04545743763446808,
        -0.019739821553230286,
        0.11522813141345978,
        -0.05326025187969208,
        0.005716577172279358,
        0.11701986193656921,
        -0.10389149188995361
      ],
      [
        -0.022798065096139908,
        -0.1052725538611412,
        0.04199780523777008,
        0.328768253326416,
        0.14144736528396606,
        -0.4354014992713928,
        0.15584857761859894,
        -0.55359947681427,
        0.9474607110023499
      ],
      [
        -0.03635028749704361,
        0.03572564572095871,
        0.062415871769189835,
        0.05399267375469208,
        0.025289345532655716,
        -0.010967900045216084,
        -0.022003650665283203,
        0.006972779519855976,
        -0.03861619904637337
      ],
      [
        0.0018458948470652103,
        -0.0008599395514465868,
        -0.014744475483894348,
        -0.21102868020534515,
        0.6475414037704468,
        -0.07307730615139008,
        -0.2826750576496124,
        0.8755218982696533,
        1.4552276134490967
      ],
      [
        0.10635365545749664,
        0.0880100280046463,
        0.12157255411148071,
        -0.02559782564640045,
        0.0523502379655838,
        -0.0790611058473587,
        0.08902023732662201,
        0.010932192206382751,
        0.11736807227134705
      ],
      [
        0.007787411566823721,
        -0.1981625258922577,
        -0.026078270748257637,
        -0.13166554272174835,
        -0.19180315732955933,
        -0.04056988283991814,
        -0.02133909799158573,
        0.5863821506500244,
        0.56082683801651
      ],
      [
        -0.011387587524950504,
        -0.05183852091431618,
        -0.01672786846756935,
        -0.005907057318836451,
        -0.005339545197784901,
        0.0009937987197190523,
        -0.05385415256023407,
        0.1342967450618744,
        -0.15585917234420776
      ],
      [
        -0.09876278042793274,
        -0.084121935069561,
        0.08964706212282181,
        0.03729797899723053,
        -0.1181219294667244,
        0.075729139149189,
        -0.11130519956350327,
        0.004514908418059349,
        0.03557940572500229
      ],
      [
        0.0799780786037445,
        -0.0165933258831501,
        -0.07675690203905106,
        -0.24101218581199646,
        -0.39356058835983276,
        0.34897640347480774,
        0.10601438581943512,
        0.2164386510848999,
        -0.8774675130844116
      ],
      [
        -0.0024406895972788334,
        0.0134939169511199,
        -0.005905019119381905,
        -0.10846908390522003,
        0.8199422955513,
        0.06510240584611893,
        -0.04354916885495186,
        0.38376277685165405,
        1.506807565689087
      ],
      [
        -0.06246907263994217,
        0.07105100899934769,
        0.05099235102534294,
        0.05254889652132988,
        -0.53470379114151,
        -0.06496303528547287,
        0.05171622335910797,
        -0.31271329522132874,
        -1.046051025390625
      ],
      [
        0.09794114530086517,
        0.03446647524833679,
        0.0614778995513916,
        0.039157360792160034,
        -0.09751236438751221,
        0.06358252465724945,
        0.024678483605384827,
        -0.018342211842536926,
        -0.03870895504951477
      ],
      [
        0.048127658665180206,
        -0.0917239561676979,
        0.08544590324163437,
        0.0950031504034996,
        -0.1129324734210968,
        0.04368595778942108,
        -0.11690143495798111,
        -0.05614824593067169,
        0.023969201371073723
      ],
      [
        -0.052895352244377136,
        0.05362618714570999,
        -0.01531124860048294,
        0.029619337990880013,
        -0.05201629176735878,
        -0.03696803003549576,
        0.06795220822095871,
        -0.009775866754353046,
        -0.22557353973388672
      ],
      [
        -0.04784688726067543,
        -0.018290482461452484,
        -0.03194308280944824,
        -0.10827615112066269,
        0.12284277379512787,
        0.06995421648025513,
        -0.11732596904039383,
        0.008665788918733597,
        -0.08304646611213684
      ],
      [
        -0.08323167264461517,
        -0.10676808655261993,
        -0.11250458657741547,
        -0.016460999846458435,
        -0.10577137768268585,
        -0.05078020691871643,
        0.06707768142223358,
        -0.0972205400466919,
        0.12310171127319336
      ],
      [
        -0.1091684028506279,
        0.06409631669521332,
        0.009523488581180573,
        -0.31184202432632446,
        0.33851656317710876,
        0.1425822526216507,
        -0.8572643995285034,
        0.3347283899784088,
        -0.01901223696768284
      ],
      [
        -0.08085240423679352,
        0.042787011712789536,
        0.039110902696847916,
        -0.11013014614582062,
        -0.25792834162712097,
        0.08019288629293442,
        0.10252204537391663,
        0.041410934180021286,
        -0.5785098671913147
      ],
      [
        -0.05462436005473137,
        -0.07235488295555115,
        0.03246784955263138,
        0.04481639340519905,
        0.25176066160202026,
        -0.15649685263633728,
        0.08612720668315887,
        -0.13858510553836823,
        0.27703067660331726
      ],
      [
        0.01691645383834839,
        -0.03142651915550232,
        0.11614678800106049,
        0.03676323592662811,
        0.036622121930122375,
        0.085211843252182,
        0.04042127728462219,
        0.056021690368652344,
        0.058058783411979675
      ],
      [
        -0.14085592329502106,
        -0.08906109631061554,
        0.03912675380706787,
        -0.07741792500019073,
        0.09167835116386414,
        -0.08748675137758255,
        -0.015096665360033512,
        -0.029933296144008636,
        -0.09494280815124512
      ],
      [
        -0.10617943108081818,
        -0.09705942869186401,
        -0.07298004627227783,
        -0.08710667490959167,
        -0.07090070843696594,
        0.026889756321907043,
        -0.03358714282512665,
        -0.1196795105934143,
        -0.0339626669883728
      ],
      [
        0.06752079725265503,
        0.08405520021915436,
        0.09928445518016815,
        -0.0281599760055542,
        0.019169241189956665,
        -0.011257097125053406,
        0.08118478953838348,
        0.07191136479377747,
        0.006372347474098206
      ],
      [
        -0.1345379501581192,
        0.014624080620706081,
        0.0882527306675911,
        -0.1264984905719757,
        0.1022375151515007,
        0.19352485239505768,
        0.12371943891048431,
        -0.12682300806045532,
        -0.3449965715408325
      ],
      [
        -0.11046536266803741,
        0.0019298261031508446,
        0.03544376417994499,
        -0.07161624729633331,
        -0.07801304012537003,
        0.07759058475494385,
        -0.015074432827532291,
        0.3444315493106842,
        -0.3446658253669739
      ],
      [
        -0.09797228127717972,
        -0.02251223474740982,
        -0.012422210536897182,
        -0.07355944067239761,
        -0.025095224380493164,
        0.08490300178527832,
        -0.12694674730300903,
        0.07147995382547379,
        0.07862130552530289
      ],
      [
        -0.044495612382888794,
        -0.1125861257314682,
        -0.018487824127078056,
        0.08299107849597931,
        0.0031331628561019897,
        0.09816914796829224,
        0.043854594230651855,
        -0.04434630274772644,
        -0.10042916238307953
      ],
      [
        -0.03144170716404915,
        0.008864465169608593,
        -0.03913870081305504,
        0.00918484479188919,
        -0.09812646359205246,
        -0.0029220383148640394,
        -0.07484172284603119,
        -0.08467081189155579,
        -0.007528249640017748
      ],
      [
        -0.06867033243179321,
        0.1199190616607666,
        0.00526848528534174,
        -0.1161995679140091,
        -0.01571802794933319,
        -0.10267992317676544,
        0.04448886215686798,
        -0.009610563516616821,
        -0.11871463060379028
      ],
      [
        -0.0645482987165451,
        -0.0833045169711113,
        0.0034906314685940742,
        -0.09077935665845871,
        0.0495503805577755,
        -0.021362612023949623,
        0.08174888789653778,
        -0.010450723581016064,
        0.0009063382749445736
      ],
      [
        0.07310185581445694,
        0.06227528303861618,
        0.012111598625779152,
        0.024570180103182793,
        -0.10740964114665985,
        0.16536955535411835,
        0.031195929273962975,
        0.08553389459848404,
        0.0638921782374382
      ],
      [
        -0.04497165232896805,
        0.006711743306368589,
        0.0001094089457183145,
        0.042919304221868515,
        0.00798166822642088,
        0.048954155296087265,
        0.1956033855676651,
        -0.11939234286546707,
        0.055410537868738174
      ],
      [
        -0.005494707729667425,
        -0.0567035973072052,
        -0.0644187405705452,
        0.02401764504611492,
        0.10209046304225922,
        -0.11967745423316956,
        -0.11439061164855957,
        0.017064834013581276,
        0.010481573641300201
      ],
      [
        -0.024790838360786438,
        -0.03739744424819946,
        -0.07374508678913116,
        0.02287617325782776,
        0.09044772386550903,
        0.07782211899757385,
        -0.011805504560470581,
        0.04732070863246918,
        0.01760774850845337
      ],
      [
        -0.08451399207115173,
        -0.1246291995048523,
        -0.12420299649238586,
        -0.040917545557022095,
        -0.027594223618507385,
        0.07654722034931183,
        -0.06040194630622864,
        -0.11048468947410583,
        -0.1242719441652298
      ],
      [
        -0.04696309566497803,
        0.03782013803720474,
        0.09699399024248123,
        -0.06431207060813904,
        -0.08031567186117172,
        0.07590167224407196,
        -6.16712131886743e-05,
        -0.24130700528621674,
        -0.39057067036628723
      ],
      [
        -0.13937339186668396,
        0.03541788458824158,
        -0.023320814594626427,
        0.07100895047187805,
        -0.06616100668907166,
        -0.07981301099061966,
        -0.03610615059733391,
        -0.13714765012264252,
        -0.15135695040225983
      ],
      [
        -0.03484845161437988,
        0.11074529588222504,
        0.09862728416919708,
        -0.03873424232006073,
        -0.10265608131885529,
        0.094827800989151,
        0.024083435535430908,
        0.09595192968845367,
        -0.04508548974990845
      ],
      [
        0.040464598685503006,
        0.034238602966070175,
        -0.055208299309015274,
        0.29366815090179443,
        0.4463008940219879,
        -0.264435738325119,
        -0.25113222002983093,
        0.23442840576171875,
        0.8771148920059204
      ],
      [
        0.03592681512236595,
        -0.015053394250571728,
        0.047387488186359406,
        0.06440924853086472,
        0.07096077501773834,
        -0.11486604064702988,
        0.07892011851072311,
        0.05115014314651489,
        0.09595982730388641
      ],
      [
        0.04164350777864456,
        0.049349911510944366,
        -0.06435533612966537,
        0.005703642964363098,
        -0.010129004716873169,
        0.003957077860832214,
        0.056618839502334595,
        -0.09396103024482727,
        0.03724561631679535
      ],
      [
        0.10484163463115692,
        -0.06061564385890961,
        0.09806232154369354,
        0.02737206220626831,
        0.05324466526508331,
        0.05042308568954468,
        -0.09603564441204071,
        -0.10291258990764618,
        0.0921776294708252
      ],
      [
        0.0213508028537035,
        -0.1487533301115036,
        -0.06714679300785065,
        -0.12679986655712128,
        0.3818398714065552,
        -0.04246281087398529,
        -0.10590948909521103,
        0.5317147970199585,
        1.3193082809448242
      ],
      [
        -0.016907185316085815,
        -0.032451316714286804,
        -0.12299850583076477,
        -0.08905325829982758,
        0.08241687715053558,
        0.09726452827453613,
        0.09650617837905884,
        -0.11567512154579163,
        0.03222447633743286
      ],
      [
        -0.06763072311878204,
        0.06237832084298134,
        0.05989670753479004,
        -0.012573876418173313,
        0.22959105670452118,
        -0.04769386723637581,
        0.08833583444356918,
        0.2192898839712143,
        0.721250057220459
      ],
      [
        -0.06652731448411942,
        0.05900004133582115,
        0.03519931063055992,
        0.2260877788066864,
        -0.01178221870213747,
        0.00617169588804245,
        0.0783207044005394,
        -0.19792845845222473,
        0.13233977556228638
      ],
      [
        0.0041999658569693565,
        0.027552763000130653,
        -0.06230717897415161,
        0.047225382179021835,
        0.08680897951126099,
        -0.081151083111763,
        -0.06678400933742523,
        -0.10847564041614532,
        -0.013997784815728664
      ],
      [
        0.1127094253897667,
        -0.10236941277980804,
        -0.07216396182775497,
        0.03142388164997101,
        0.009940232150256634,
        -0.052860960364341736,
        0.08979447185993195,
        -0.030885498970746994,
        -0.013530080206692219
      ],
      [
        -0.03988535329699516,
        -0.06862471252679825,
        0.01314176432788372,
        -0.11887913942337036,
        0.05948150157928467,
        0.09007281064987183,
        -0.07884559035301208,
        -0.07312750816345215,
        -0.05116210877895355
      ],
      [
        0.029428694397211075,
        -0.016607733443379402,
        0.061176151037216187,
        -0.08176755905151367,
        0.007407087367027998,
        -0.08254235237836838,
        -0.1140039786696434,
        0.03535795211791992,
        -0.010179846547544003
      ],
      [
        0.03549852967262268,
        -0.0024012476205825806,
        -0.07602199912071228,
        0.08636647462844849,
        -0.11737796664237976,
        0.006290704011917114,
        -0.024470984935760498,
        0.027200639247894287,
        -0.0023538023233413696
      ],
      [
        0.04939274862408638,
        -0.05278509855270386,
        -0.13793374598026276,
        0.1409255415201187,
        -0.01280770543962717,
        0.1305587887763977,
        -0.46647757291793823,
        -0.6103108525276184,
        -0.7076202034950256
      ],
      [
        -0.04898388311266899,
        -0.01731019839644432,
        0.14389725029468536,
        0.06230771541595459,
        0.32361528277397156,
        -0.014613259583711624,
        0.24093469977378845,
        0.036746468394994736,
        0.32211366295814514
      ],
      [
        -0.03810165822505951,
        0.05267438292503357,
        0.10673104971647263,
        -0.1025247573852539,
        -0.08866541087627411,
        0.07425731420516968,
        -0.004357621073722839,
        0.12299947440624237,
        0.019628658890724182
      ],
      [
        0.0666554719209671,
        -0.05433516949415207,
        -0.1101590171456337,
        0.011873002164065838,
        0.002099514240399003,
        0.04152892529964447,
        0.10969133675098419,
        -0.0526740737259388,
        0.0375777892768383
      ],
      [
        0.08887006342411041,
        -0.09434334188699722,
        0.014915857464075089,
        0.04782339930534363,
        -0.04335054010152817,
        0.013183427043259144,
        -0.10646720975637436,
        0.09990233182907104,
        0.005929362028837204
      ],
      [
        0.01697424054145813,
        0.019937574863433838,
        0.12430088222026825,
        -0.06306299567222595,
        0.05821548402309418,
        0.03560596704483032,
        0.003317922353744507,
        -0.01499427855014801,
        -0.062307655811309814
      ],
      [
        -0.11862330138683319,
        0.011666297912597656,
        -0.11157095432281494,
        0.059266313910484314,
        0.10344307124614716,
        -0.09756322205066681,
        -0.06060364842414856,
        0.07914645969867706,
        -0.013574674725532532
      ],
      [
        0.05367438495159149,
        0.034456297755241394,
        0.07959794998168945,
        0.07723645865917206,
        -0.040828168392181396,
        -0.002258867025375366,
        0.008965373039245605,
        0.08302357792854309,
        0.10315996408462524
      ],
      [
        -0.021677719429135323,
        -0.08435780555009842,
        0.11772166192531586,
        0.08924426883459091,
        -0.13668511807918549,
        -0.031550489366054535,
        -0.0681338906288147,
        -0.0906309112906456,
        0.04288267344236374
      ],
      [
        0.0010604273993521929,
        -0.07859702408313751,
        -0.09603836387395859,
        0.09263720363378525,
        0.009010478854179382,
        0.08784259110689163,
        0.10470250993967056,
        0.09433603286743164,
        -0.0019454685971140862
      ],
      [
        -0.0812729075551033,
        0.08564095199108124,
        0.13639816641807556,
        0.2473728060722351,
        0.149648517370224,
        -0.1498773992061615,
        0.3553702235221863,
        -0.08278900384902954,
        -0.059948697686195374
      ],
      [
        0.08334977924823761,
        0.02859853208065033,
        -0.03336910903453827,
        -0.041554972529411316,
        0.05866639316082001,
        0.08605632185935974,
        0.08058016002178192,
        0.021832868456840515,
        0.03570367395877838
      ],
      [
        0.1245695948600769,
        0.06974439322948456,
        0.07019071280956268,
        0.09832729399204254,
        0.07801021635532379,
        -0.11789071559906006,
        -0.01693400740623474,
        0.031905874609947205,
        0.01218421757221222
      ],
      [
        0.016884222626686096,
        -0.0646127313375473,
        0.08834564685821533,
        -0.0429358035326004,
        -0.0037761032581329346,
        -0.11524690687656403,
        -0.022977694869041443,
        -0.012272149324417114,
        -0.0053891390562057495
      ],
      [
        0.13208946585655212,
        -0.1455765813589096,
        -0.08007138222455978,
        0.1559116691350937,
        0.044405896216630936,
        0.061925120651721954,
        -0.2408820390701294,
        -0.11988427489995956,
        0.14395539462566376
      ],
      [
        -0.013088137842714787,
        -0.06876599043607712,
        -0.010731267742812634,
        -0.11272405833005905,
        -0.052797913551330566,
        -0.0010072424774989486,
        0.012693306431174278,
        0.021859582513570786,
        0.03156846761703491
      ],
      [
        0.05804289132356644,
        -0.022731520235538483,
        -0.07856106013059616,
        -0.0314202681183815,
        0.5070329904556274,
        -0.3296433091163635,
        -0.3895367980003357,
        0.48984476923942566,
        1.1164098978042603
      ],
      [
        0.0031197296921163797,
        0.09128866344690323,
        0.022641368210315704,
        0.05221604183316231,
        -0.12526589632034302,
        -0.08833292871713638,
        -0.05171234533190727,
        -0.13253085315227509,
        -0.07412514090538025
      ],
      [
        0.07343144714832306,
        0.02180878445506096,
        -0.1605972796678543,
        -0.021488696336746216,
        0.16159220039844513,
        -0.213686004281044,
        -0.05321802198886871,
        0.4704403877258301,
        0.7386722564697266
      ],
      [
        0.083717480301857,
        0.12147960811853409,
        0.025820255279541016,
        -0.06548710912466049,
        0.07249914854764938,
        -0.1137743815779686,
        -0.044563353061676025,
        -0.09506866335868835,
        0.07706160098314285
      ],
      [
        -0.10774698853492737,
        0.08532728254795074,
        -0.08479811251163483,
        0.07456983625888824,
        0.004561468958854675,
        0.011620849370956421,
        -0.08008663356304169,
        -0.04933317005634308,
        -0.009857401251792908
      ],
      [
        -0.06418977677822113,
        -0.08900067210197449,
        -0.09094575047492981,
        -0.051671698689460754,
        -0.06568905711174011,
        0.07430233061313629,
        0.0071454644203186035,
        0.05237714946269989,
        -0.09197144210338593
      ],
      [
        0.05534755438566208,
        -0.05057553946971893,
        0.07409852743148804,
        0.02084527723491192,
        -0.06324058026075363,
        -0.019597988575696945,
        -0.003664659569039941,
        -0.05504261702299118,
        0.0807156041264534
      ],
      [
        0.058388158679008484,
        0.018366776406764984,
        -0.11263548582792282,
        0.01255513820797205,
        -0.17772744596004486,
        -0.08295271545648575,
        -0.3089292347431183,
        -0.2661089301109314,
        -1.0716140270233154
      ],
      [
        0.06922426074743271,
        -0.0915546864271164,
        -0.021608194336295128,
        0.2324490249156952,
        0.33809196949005127,
        -0.25594714283943176,
        -0.24853932857513428,
        -0.16692429780960083,
        0.5581808686256409
      ],
      [
        -0.08454158902168274,
        0.13444629311561584,
        0.09728316217660904,
        0.09458989650011063,
        0.10781100392341614,
        -0.2337266355752945,
        0.23050621151924133,
        -0.10643365234136581,
        0.3254288136959076
      ],
      [
        -0.10792228579521179,
        0.029513679444789886,
        0.008508874103426933,
        -0.08577258139848709,
        -0.004743092693388462,
        -0.09431752562522888,
        0.06549040228128433,
        0.08203551918268204,
        -0.08737921714782715
      ],
      [
        -0.07194365561008453,
        -0.02391071617603302,
        -0.10669244825839996,
        0.122874915599823,
        -0.07786253094673157,
        0.07587787508964539,
        -0.04978036880493164,
        -0.00644037127494812,
        -0.0405849814414978
      ],
      [
        -0.10385984182357788,
        0.04220378398895264,
        -0.02009791135787964,
        0.10493077337741852,
        0.09850262105464935,
        0.061866551637649536,
        0.06063249707221985,
        -0.02053801715373993,
        -0.006401345133781433
      ],
      [
        0.08246871083974838,
        0.07730884104967117,
        -0.03121427446603775,
        -0.1290878802537918,
        0.18020452558994293,
        -0.09739959985017776,
        -0.41454944014549255,
        0.2718775272369385,
        0.37194791436195374
      ],
      [
        -0.024493133649230003,
        -0.11889947950839996,
        -0.040733013302087784,
        -0.041195619851350784,
        0.10521618276834488,
        0.0991550162434578,
        0.10217192023992538,
        0.029832748696208,
        -0.057933442294597626
      ],
      [
        0.003838041564449668,
        0.1079370528459549,
        0.05812220275402069,
        -0.12021110951900482,
        0.0018615580629557371,
        0.039094578474760056,
        -0.11593416333198547,
        0.02020135708153248,
        0.001591915381141007
      ],
      [
        -0.10121797770261765,
        -0.0662747472524643,
        -0.02715040184557438,
        -0.12900952994823456,
        -0.019020630046725273,
        0.06881029158830643,
        0.0944981500506401,
        -0.11191965639591217,
        0.11527906358242035
      ],
      [
        -0.051635127514600754,
        -0.061041682958602905,
        0.0415373332798481,
        0.10152662545442581,
        0.03411486744880676,
        0.028053462505340576,
        0.017951352521777153,
        0.11730792373418808,
        0.03491795435547829
      ],
      [
        -0.03410477936267853,
        -0.0680989921092987,
        0.06967324018478394,
        -0.09969399869441986,
        -0.12139464914798737,
        -0.041757091879844666,
        0.026815220713615417,
        -0.027959108352661133,
        -0.09973849356174469
      ],
      [
        -0.07491134852170944,
        -0.10363686829805374,
        -0.05815691128373146,
        0.08308422565460205,
        -0.11599785089492798,
        -0.020446553826332092,
        -0.011185258626937866,
        0.0998830646276474,
        -0.09597378969192505
      ],
      [
        -0.02076209895312786,
        0.08702076226472855,
        -0.08162496984004974,
        0.08480808138847351,
        0.11440486460924149,
        0.0818592831492424,
        -0.023908238857984543,
        -0.058665625751018524,
        0.10706035047769547
      ],
      [
        -0.06610107421875,
        0.08811585605144501,
        -0.11658936738967896,
        0.10753926634788513,
        0.08530841767787933,
        -0.040741682052612305,
        0.0063116103410720825,
        -0.08498010039329529,
        0.037208616733551025
      ],
      [
        -0.10082312673330307,
        -0.042272940278053284,
        0.07259788364171982,
        0.07127676159143448,
        -0.05704787001013756,
        0.05162512883543968,
        -0.026032036170363426,
        0.014332194812595844,
        0.05853560194373131
      ],
      [
        -0.049773648381233215,
        -0.014514461159706116,
        -0.09734955430030823,
        -0.012392804026603699,
        0.0454041063785553,
        0.024508222937583923,
        -0.03982388973236084,
        0.0864100307226181,
        0.01983460783958435
      ],
      [
        0.02166193164885044,
        -0.04590070992708206,
        0.05704965069890022,
        0.037540972232818604,
        -0.09239213913679123,
        -0.07442580163478851,
        -0.06283081322908401,
        -0.051107585430145264,
        -0.10012762248516083
      ],
      [
        -0.017125874757766724,
        0.06711982190608978,
        0.12171138823032379,
        0.059839680790901184,
        0.12396050989627838,
        -0.07270042598247528,
        0.04093658924102783,
        -0.057536110281944275,
        -0.08593729138374329
      ],
      [
        -0.003581841941922903,
        0.037602998316287994,
        -0.01911829225718975,
        -0.07508201152086258,
        -0.04266973212361336,
        0.053729716688394547,
        -0.1229122206568718,
        -0.037636835128068924,
        0.09379974007606506
      ],
      [
        0.1041431874036789,
        -0.09332229942083359,
        -0.12634879350662231,
        -0.20967617630958557,
        -0.24410700798034668,
        0.19817109405994415,
        0.06255502998828888,
        -0.06566249579191208,
        -0.5003947019577026
      ],
      [
        -0.060681529343128204,
        0.031450267881155014,
        0.0836339145898819,
        -0.0701192244887352,
        0.04362446069717407,
        -0.061468273401260376,
        0.11026235669851303,
        -0.0180366151034832,
        0.07613043487071991
      ],
      [
        0.06749813258647919,
        -0.06771406531333923,
        -0.08824920654296875,
        0.05909712612628937,
        -0.09912164509296417,
        -0.03813257813453674,
        -0.09923487901687622,
        0.0584709495306015,
        0.0374709814786911
      ],
      [
        0.1044330894947052,
        -0.004106685519218445,
        -0.04383084177970886,
        0.06186142563819885,
        -0.0876598060131073,
        -0.019562140107154846,
        -0.0073854923248291016,
        0.021198228001594543,
        0.014585688710212708
      ],
      [
        0.11448334157466888,
        0.0061537474393844604,
        -0.046010687947273254,
        0.11965671181678772,
        0.09255531430244446,
        -0.04942576587200165,
        0.12487764656543732,
        -0.0070377737283706665,
        0.07272064685821533
      ],
      [
        -0.14034835994243622,
        -0.07846928387880325,
        -0.005936414003372192,
        -0.030688542872667313,
        0.022912301123142242,
        0.1024872288107872,
        -0.14146345853805542,
        -0.055993758141994476,
        -0.03143305703997612
      ],
      [
        0.013093956746160984,
        0.13161486387252808,
        0.04446810111403465,
        -0.06580203771591187,
        0.06380552798509598,
        -0.021871166303753853,
        -0.10256100445985794,
        -0.11653821170330048,
        -0.14832694828510284
      ],
      [
        -0.10018980503082275,
        0.006669923663139343,
        -0.08475947380065918,
        0.05304919183254242,
        0.11965005099773407,
        -0.04344478249549866,
        -0.09170457720756531,
        -0.011874914169311523,
        0.11210601031780243
      ],
      [
        -0.11779986321926117,
        0.059172119945287704,
        -0.05645428225398064,
        0.09115523099899292,
        0.07476028054952621,
        -0.11920735239982605,
        0.05444646626710892,
        0.11009310930967331,
        -0.08279071003198624
      ],
      [
        0.06029953435063362,
        -0.05628672614693642,
        0.05621606111526489,
        -0.03339478000998497,
        -0.03520367294549942,
        -0.0987410843372345,
        -0.0384090356528759,
        -0.05582974851131439,
        -0.07539037615060806
      ],
      [
        -0.02103862166404724,
        0.025656133890151978,
        -0.050013989210128784,
        0.05231282114982605,
        -0.024646863341331482,
        -0.06787562370300293,
        0.11517669260501862,
        -0.02976648509502411,
        0.08280397951602936
      ],
      [
        -0.05055011808872223,
        0.11169171333312988,
        -0.10199874639511108,
        -0.04735814034938812,
        -0.07141011953353882,
        0.02044498920440674,
        -0.12323391437530518,
        -0.11931544542312622,
        -0.06516052782535553
      ],
      [
        -0.04052050784230232,
        -0.013493984937667847,
        0.08530683815479279,
        0.06509251147508621,
        0.16266830265522003,
        -0.15198048949241638,
        -0.06566199660301208,
        -0.16479800641536713,
        0.6000238060951233
      ],
      [
        0.06298509240150452,
        -0.027094915509223938,
        -0.0897672176361084,
        0.06581895053386688,
        0.11531168222427368,
        -0.0024850666522979736,
        -0.11057092249393463,
        -0.06879366934299469,
        -0.05274561047554016
      ],
      [
        0.117009736597538,
        -0.006428212858736515,
        0.05589793622493744,
        0.015264783054590225,
        -0.01566234789788723,
        0.006345106288790703,
        0.07628551125526428,
        0.10849317908287048,
        0.048882052302360535
      ],
      [
        -0.03476707264780998,
        0.12162832170724869,
        -0.11032235622406006,
        0.040478214621543884,
        -0.06419916450977325,
        0.02135772630572319,
        -0.012838982976973057,
        -0.08412764966487885,
        0.11625535786151886
      ],
      [
        -0.027611827477812767,
        0.03206164762377739,
        0.024482164531946182,
        -0.12418565154075623,
        0.11620588600635529,
        -0.08358706533908844,
        -0.03358074277639389,
        -0.05765903368592262,
        0.08386372029781342
      ],
      [
        0.12329459190368652,
        0.005720137152820826,
        -0.003985777031630278,
        -0.018091756850481033,
        -0.05937362089753151,
        -0.11910568922758102,
        -0.1244889497756958,
        -0.07165204733610153,
        0.04931498318910599
      ],
      [
        -0.09890477359294891,
        0.08572255074977875,
        0.11513523757457733,
        -0.10760277509689331,
        0.0638432502746582,
        -0.03301261365413666,
        0.06763319671154022,
        -0.07500351965427399,
        0.006236284971237183
      ],
      [
        0.11471659690141678,
        -0.12604038417339325,
        0.028005650267004967,
        0.055640608072280884,
        0.05383792519569397,
        0.0019561536610126495,
        -0.05259215459227562,
        -0.0025075776502490044,
        0.20803627371788025
      ],
      [
        -0.12073525786399841,
        0.11300849914550781,
        0.08804343640804291,
        -0.013183161616325378,
        -0.027240455150604248,
        0.026487678289413452,
        -0.07070900499820709,
        -0.00290660560131073,
        0.08595150709152222
      ],
      [
        0.06651363521814346,
        0.01735418476164341,
        0.004314703401178122,
        0.02840188518166542,
        -0.046185966581106186,
        0.10834014415740967,
        0.0792635902762413,
        0.0363701768219471,
        0.07585268467664719
      ],
      [
        0.04152873158454895,
        0.018601253628730774,
        0.061867937445640564,
        -0.054876044392585754,
        0.12460219860076904,
        -0.05840638279914856,
        -0.051083505153656006,
        0.045060575008392334,
        0.055777162313461304
      ],
      [
        -0.08539335429668427,
        0.10544891655445099,
        0.00017826318799052387,
        0.10217408835887909,
        0.08314412832260132,
        0.026201650500297546,
        0.11501038074493408,
        -0.06489142775535583,
        0.030840933322906494
      ],
      [
        0.10083076357841492,
        -0.0331658273935318,
        0.08918704092502594,
        -0.01784069836139679,
        0.06913724541664124,
        0.115416020154953,
        0.001409873366355896,
        0.11292122304439545,
        -0.11335811018943787
      ],
      [
        -0.09641464054584503,
        -0.062430888414382935,
        -0.031817615032196045,
        0.11175450682640076,
        0.07470320165157318,
        0.03502976894378662,
        0.09590472280979156,
        0.0012124627828598022,
        -0.03497171401977539
      ],
      [
        -0.05063902214169502,
        -0.06077739968895912,
        0.11130731552839279,
        -0.10724745690822601,
        -0.09491217136383057,
        0.10497485846281052,
        -0.19571225345134735,
        0.07314343005418777,
        -0.03800273686647415
      ],
      [
        0.04111425578594208,
        -0.12210573256015778,
        -0.031528666615486145,
        -0.07200302183628082,
        -0.06267502903938293,
        -0.07318548858165741,
        0.08320926129817963,
        -0.08211755752563477,
        0.04268398880958557
      ],
      [
        0.10633274912834167,
        0.05932159721851349,
        0.04401783645153046,
        -0.014390915632247925,
        -0.015188127756118774,
        -0.0957648754119873,
        -0.09370285272598267,
        0.1201300173997879,
        0.01158173382282257
      ],
      [
        0.0031467892695218325,
        0.013340228237211704,
        0.03702457249164581,
        -0.04405609518289566,
        -0.028602244332432747,
        -0.031606584787368774,
        -0.10095736384391785,
        -0.10206789523363113,
        -0.039588093757629395
      ],
      [
        0.09838760644197464,
        -0.1087801530957222,
        -0.03739471361041069,
        0.07154408097267151,
        -0.1209973692893982,
        0.02178320288658142,
        0.10036806762218475,
        -0.08860801160335541,
        0.03963787853717804
      ],
      [
        -0.056194204837083817,
        0.043489355593919754,
        0.13928909599781036,
        0.1236128881573677,
        -0.47184279561042786,
        0.12768273055553436,
        0.3000200688838959,
        -0.5710524320602417,
        -0.6602783203125
      ],
      [
        0.05938400328159332,
        -0.1202595978975296,
        -0.12009070813655853,
        -0.07930265367031097,
        -0.025163546204566956,
        -0.041163355112075806,
        -0.09739324450492859,
        0.11243684589862823,
        -0.019275441765785217
      ],
      [
        0.02290363423526287,
        -0.11050253361463547,
        -0.1124325543642044,
        0.11841607093811035,
        0.05521382391452789,
        0.01888209395110607,
        -0.05735858157277107,
        -0.07295198738574982,
        -0.10412939637899399
      ],
      [
        -0.025657087564468384,
        0.02008901536464691,
        -0.10016372799873352,
        0.016261562705039978,
        -0.0978495180606842,
        0.10798083245754242,
        -0.031033828854560852,
        -0.0719345360994339,
        0.09474645555019379
      ],
      [
        -0.07349136471748352,
        -0.10098780691623688,
        -0.08060155808925629,
        0.06787461042404175,
        0.06527861952781677,
        -0.10429862141609192,
        0.11462792754173279,
        -0.07531245052814484,
        0.10373334586620331
      ],
      [
        -0.08968643099069595,
        -0.14937487244606018,
        0.07912607491016388,
        -0.1985897570848465,
        -0.23863215744495392,
        -0.005025787744671106,
        -0.029894230887293816,
        0.15291345119476318,
        -0.3275882601737976
      ],
      [
        0.10499516874551773,
        0.056581683456897736,
        -0.06596790999174118,
        0.0942031517624855,
        0.28406408429145813,
        -0.04690269008278847,
        -0.01170684676617384,
        0.06613373011350632,
        0.48600155115127563
      ],
      [
        0.10612619668245316,
        -0.11546842753887177,
        -0.08484639972448349,
        -0.05672934651374817,
        -0.0802520364522934,
        0.09207316488027573,
        -0.11172280460596085,
        0.08531241863965988,
        0.2835993468761444
      ],
      [
        0.041752733290195465,
        -0.018512537702918053,
        0.01203163806349039,
        0.02901327610015869,
        -0.07162655144929886,
        -0.01539357379078865,
        -0.03369555622339249,
        0.01800689846277237,
        -0.0963456779718399
      ],
      [
        0.036190684884786606,
        -0.01962968334555626,
        -0.054970692843198776,
        0.07078438252210617,
        0.03839111328125,
        -0.011712617240846157,
        0.1374768614768982,
        -0.061884086579084396,
        0.014862711541354656
      ],
      [
        0.031934600323438644,
        0.010961636900901794,
        -0.08314242959022522,
        -0.02472454309463501,
        0.10035896301269531,
        -0.08086095750331879,
        0.010162189602851868,
        0.07282544672489166,
        0.04346010088920593
      ],
      [
        -0.02539697289466858,
        -0.04213009774684906,
        -0.0751648098230362,
        0.04749093949794769,
        -0.12134309113025665,
        -0.005989819765090942,
        0.02809789776802063,
        0.09497426450252533,
        -0.027772799134254456
      ],
      [
        -0.03633333742618561,
        0.1506853699684143,
        0.14313462376594543,
        0.08413467556238174,
        0.24799220263957977,
        -0.03150957450270653,
        -0.013064127415418625,
        0.14102782309055328,
        0.2855607271194458
      ],
      [
        -0.0012685696128755808,
        0.0513262040913105,
        0.033560629934072495,
        -0.08924676477909088,
        0.12163181602954865,
        0.008900614455342293,
        -0.0814829021692276,
        0.030443258583545685,
        -0.07572275400161743
      ],
      [
        -0.08958899974822998,
        -0.0888122171163559,
        -0.07080839574337006,
        -0.05736002326011658,
        0.07994575798511505,
        0.009158775210380554,
        0.10633960366249084,
        0.1073259711265564,
        -0.06902138888835907
      ],
      [
        -0.013659530319273472,
        0.13045808672904968,
        -0.03618006035685539,
        -0.20198668539524078,
        -0.22604988515377045,
        0.2704232335090637,
        0.15002860128879547,
        0.12594455480575562,
        -0.997026264667511
      ],
      [
        -0.04128457233309746,
        0.008890721946954727,
        0.09710884094238281,
        0.08500393480062485,
        0.08950895816087723,
        -0.023112066090106964,
        -0.052681006491184235,
        -0.010568124242126942,
        0.03018931858241558
      ],
      [
        0.01194215752184391,
        -0.0735815018415451,
        0.03721586614847183,
        -0.0587022490799427,
        -0.09477613866329193,
        -0.08390224725008011,
        -0.0965554341673851,
        0.06622211635112762,
        0.030716776847839355
      ],
      [
        -0.015807658433914185,
        0.07794263958930969,
        -0.010877102613449097,
        -0.01628701388835907,
        0.07698036730289459,
        -0.05571286380290985,
        0.019458994269371033,
        -0.02020411193370819,
        0.07259343564510345
      ],
      [
        0.07983439415693283,
        0.13587099313735962,
        -0.05375044420361519,
        -0.24708552658557892,
        0.4034428000450134,
        0.14353619515895844,
        -0.02785855531692505,
        0.288769394159317,
        0.18145950138568878
      ],
      [
        0.12312588095664978,
        0.11336110532283783,
        0.11626572906970978,
        -0.07497045397758484,
        -0.018444016575813293,
        -0.0722815990447998,
        0.01163548231124878,
        0.11995647847652435,
        0.1080009788274765
      ],
      [
        -0.009317249059677124,
        -0.09058497846126556,
        0.11523447930812836,
        -0.02335771918296814,
        -0.005690515041351318,
        -0.07310016453266144,
        0.1247590035200119,
        0.032872557640075684,
        -0.03338049352169037
      ],
      [
        0.04086720943450928,
        -0.05509698763489723,
        0.015380347147583961,
        -0.10990128666162491,
        -0.17205022275447845,
        0.04651689901947975,
        -0.0490790419280529,
        0.09381367266178131,
        -0.06557910889387131
      ],
      [
        -0.017040997743606567,
        0.003227800130844116,
        0.1022523045539856,
        0.10773292183876038,
        0.03907005488872528,
        -0.014844000339508057,
        0.011691540479660034,
        0.007560655474662781,
        0.06461670994758606
      ],
      [
        0.0837906152009964,
        -0.05064091086387634,
        -0.0846741646528244,
        0.0681319534778595,
        0.03312106430530548,
        -0.05254663527011871,
        -0.002266228199005127,
        0.11755834519863129,
        -0.056156888604164124
      ],
      [
        -0.09212277829647064,
        -0.09691432863473892,
        -0.012536799535155296,
        -0.056259918957948685,
        0.03384442254900932,
        0.004157614894211292,
        0.007003397215157747,
        -0.02223106659948826,
        0.10600530356168747
      ],
      [
        -0.10775584727525711,
        0.009554840624332428,
        0.044215355068445206,
        0.09528765082359314,
        0.013051444664597511,
        -0.2370319366455078,
        -0.009897707961499691,
        -0.35492202639579773,
        0.37845778465270996
      ],
      [
        0.10095223039388657,
        0.1726859211921692,
        -0.03873307630419731,
        0.029264604672789574,
        -0.07016593217849731,
        0.13416121900081635,
        -0.2180577963590622,
        -0.038393113762140274,
        -0.12049046903848648
      ],
      [
        -0.053203288465738297,
        0.030804183334112167,
        -0.017832063138484955,
        0.08106256276369095,
        0.06448313593864441,
        0.05425211042165756,
        0.011319228447973728,
        -0.023502202704548836,
        0.08593712002038956
      ],
      [
        -0.12264956533908844,
        -0.12130700051784515,
        -0.1042519211769104,
        -0.07939082384109497,
        0.09799569845199585,
        0.03755806386470795,
        0.02719864249229431,
        -0.07754926383495331,
        0.01347854733467102
      ],
      [
        -0.09060104191303253,
        -0.008915841579437256,
        -0.062099337577819824,
        0.0653582364320755,
        0.025637701153755188,
        -0.07639768719673157,
        -0.02436406910419464,
        -0.09461313486099243,
        -0.07481347024440765
      ],
      [
        0.10191285610198975,
        0.09697218239307404,
        0.007453009486198425,
        0.10102711617946625,
        0.03872595727443695,
        -0.019113585352897644,
        0.10564784705638885,
        0.06044694781303406,
        0.08623863756656647
      ],
      [
        -0.020198658108711243,
        0.10716003179550171,
        -0.09140735864639282,
        -0.015039071440696716,
        -0.12365584075450897,
        -0.11139562726020813,
        -0.09018146991729736,
        -0.11768174171447754,
        0.015180125832557678
      ],
      [
        -0.00465807318687439,
        0.06415215134620667,
        -0.07209421694278717,
        0.11149051785469055,
        0.1093778908252716,
        -0.1076945960521698,
        0.08402948081493378,
        0.00999489426612854,
        0.023791715502738953
      ],
      [
        0.06097150966525078,
        -0.05454088747501373,
        -0.07080581039190292,
        -0.12073849141597748,
        -0.004419128876179457,
        0.11216188967227936,
        0.04972957447171211,
        -0.06683088839054108,
        -0.04475070536136627
      ],
      [
        0.061993539333343506,
        0.004594534635543823,
        0.11475515365600586,
        -0.0433315634727478,
        -0.062247976660728455,
        -0.09506458044052124,
        -0.018954917788505554,
        0.019343316555023193,
        -0.10364452004432678
      ],
      [
        -0.10745172202587128,
        -0.038583725690841675,
        -0.03945279121398926,
        0.09721104800701141,
        -0.11149808764457703,
        0.056855857372283936,
        -0.08171084523200989,
        0.11839881539344788,
        0.036947786808013916
      ],
      [
        -0.056788235902786255,
        0.08701470494270325,
        0.035313889384269714,
        0.01252073049545288,
        -0.05047325789928436,
        0.07501497864723206,
        0.004054933786392212,
        0.04306451976299286,
        -0.08299058675765991
      ],
      [
        0.1211884543299675,
        -0.04191179573535919,
        -0.047249261289834976,
        -0.12105153501033783,
        -0.05452591925859451,
        -0.005954041611403227,
        -0.09918002784252167,
        -0.05182330682873726,
        -0.33215227723121643
      ],
      [
        0.08627264946699142,
        -0.010366803035140038,
        -0.05259356275200844,
        -0.05863489583134651,
        0.05416591838002205,
        0.028867527842521667,
        0.12221983075141907,
        -0.007419834844768047,
        0.023624040186405182
      ],
      [
        -0.04657931625843048,
        0.08394667506217957,
        -0.05799517035484314,
        -0.05956016480922699,
        0.021234720945358276,
        0.0007921606302261353,
        -0.09269678592681885,
        -0.11045102775096893,
        0.02763819694519043
      ],
      [
        0.07994505763053894,
        -0.06749153137207031,
        0.11450758576393127,
        -0.06869694590568542,
        0.031004637479782104,
        -0.10508391261100769,
        0.007551759481430054,
        -0.05734056234359741,
        0.017744943499565125
      ],
      [
        -0.09943889826536179,
        -0.09650810807943344,
        0.001626172219403088,
        0.027145054191350937,
        -0.05832400545477867,
        -0.049688246101140976,
        -0.03884763643145561,
        -0.04293122515082359,
        -0.0782393366098404
      ],
      [
        -0.01773218810558319,
        -0.09553186595439911,
        -0.048681408166885376,
        -0.01370328664779663,
        -0.06501728296279907,
        -0.062348902225494385,
        -0.07389698922634125,
        -0.08176498115062714,
        -0.10259512066841125
      ],
      [
        -0.03563135862350464,
        0.04624094069004059,
        -0.11623446643352509,
        0.028926730155944824,
        -0.04924999177455902,
        -0.02468055486679077,
        -0.08957710862159729,
        -0.004018247127532959,
        -0.05207003653049469
      ],
      [
        0.11889275163412094,
        -0.024266952648758888,
        -0.07308544218540192,
        -0.026991743594408035,
        0.028676223009824753,
        -0.10751436650753021,
        0.05326605215668678,
        -0.04164496064186096,
        0.006388713605701923
      ],
      [
        0.11723698675632477,
        -0.012946084141731262,
        0.0835152119398117,
        -0.013786062598228455,
        0.046219199895858765,
        -0.06599965691566467,
        -0.08483847975730896,
        -0.0063142478466033936,
        -0.06884880363941193
      ],
      [
        -0.00551169877871871,
        0.12460417300462723,
        0.01865830272436142,
        -0.07798060029745102,
        0.03355409950017929,
        0.0881136879324913,
        -0.023323092609643936,
        -0.08020514249801636,
        0.0602434016764164
      ],
      [
        0.018238157033920288,
        -0.05551739037036896,
        0.0644427090883255,
        -0.0031893551349639893,
        -0.04980212450027466,
        -0.01852402091026306,
        0.05954371392726898,
        -0.07738061249256134,
        -0.02931971848011017
      ],
      [
        -0.09658632427453995,
        -0.06097014620900154,
        0.09836433827877045,
        -0.11121664941310883,
        -0.10501949489116669,
        -0.10140186548233032,
        -0.11277522146701813,
        0.0400778129696846,
        0.08681711554527283
      ],
      [
        0.08761467039585114,
        -0.05379754304885864,
        0.049522265791893005,
        0.1060735434293747,
        0.06473024189472198,
        -0.10319456458091736,
        -0.10663746297359467,
        -0.1245737373828888,
        0.04831452667713165
      ],
      [
        -0.004026755690574646,
        -0.08997884392738342,
        0.03510718047618866,
        -0.06364232301712036,
        -0.1053464263677597,
        0.04709014296531677,
        -0.0005242228507995605,
        0.000603988766670227,
        0.059823960065841675
      ],
      [
        0.01880182884633541,
        0.034798845648765564,
        -0.10343015193939209,
        -0.031122291460633278,
        -0.09155356138944626,
        -0.06201667711138725,
        -0.0856255516409874,
        -0.06165539100766182,
        0.0906062126159668
      ],
      [
        0.03634406626224518,
        0.10188956558704376,
        0.07344360649585724,
        -0.04176534712314606,
        -0.06621123850345612,
        -0.08712533116340637,
        -0.05886872112751007,
        -0.03703621029853821,
        0.07923233509063721
      ],
      [
        0.038373708724975586,
        0.04107743501663208,
        -0.0009284918778575957,
        0.0570480078458786,
        0.0683688223361969,
        -0.11407780647277832,
        -0.11926043033599854,
        0.0984298437833786,
        -0.02466510236263275
      ],
      [
        0.016141319647431374,
        -0.06136758625507355,
        -0.05969685688614845,
        -0.06488046795129776,
        0.0786740705370903,
        0.06410648673772812,
        0.008959115482866764,
        -0.04669841751456261,
        -0.10162243247032166
      ],
      [
        -0.08204513788223267,
        -0.06703007221221924,
        -0.07346202433109283,
        -0.027942940592765808,
        0.03689761459827423,
        -0.011661499738693237,
        0.0791647732257843,
        -0.10381470620632172,
        -0.020946577191352844
      ],
      [
        -0.045339688658714294,
        0.10395970940589905,
        -0.02119217813014984,
        -0.06845295429229736,
        0.040426865220069885,
        0.11501409113407135,
        -0.06262502074241638,
        0.04873266816139221,
        -0.012498602271080017
      ],
      [
        -0.026551052927970886,
        0.0421706885099411,
        -0.08332571387290955,
        -0.0772702544927597,
        -0.002567276358604431,
        -0.0423562228679657,
        -0.0360276997089386,
        -0.008125156164169312,
        -0.06985664367675781
      ],
      [
        -0.012944981455802917,
        -0.07859155535697937,
        -0.05700168013572693,
        -0.11889030039310455,
        -0.047247812151908875,
        0.02635180950164795,
        -0.07840289175510406,
        -0.0794653445482254,
        0.09668402373790741
      ],
      [
        -0.11906890571117401,
        -0.0008969157934188843,
        -0.060075417160987854,
        -0.04385443031787872,
        0.00829671323299408,
        -0.12299512326717377,
        -0.03568129241466522,
        -0.05256129801273346,
        0.009736746549606323
      ],
      [
        -0.09050434082746506,
        -0.05424385890364647,
        0.08500383049249649,
        0.09678592532873154,
        0.014033188112080097,
        -0.07561071962118149,
        0.335531622171402,
        -0.02899887226521969,
        -0.14621831476688385
      ],
      [
        0.07568317651748657,
        0.0055220723152160645,
        0.10040193796157837,
        -0.007543057203292847,
        0.049489036202430725,
        0.027424335479736328,
        0.08493469655513763,
        -0.005583062767982483,
        -0.08964824676513672
      ],
      [
        -0.08814561367034912,
        0.006934053264558315,
        0.09419310092926025,
        0.07348400354385376,
        -0.069710373878479,
        -0.040647536516189575,
        -0.0651572197675705,
        -0.04987823963165283,
        0.07843588292598724
      ],
      [
        -0.0692593902349472,
        0.05753343552350998,
        0.12262433767318726,
        0.1880219578742981,
        -0.5682318210601807,
        0.3556463122367859,
        0.8456369638442993,
        -0.8624594211578369,
        -1.5014859437942505
      ],
      [
        -0.11633358895778656,
        -0.05620881915092468,
        -0.09842382371425629,
        -0.10534054040908813,
        -0.04115836322307587,
        0.03496010601520538,
        -0.07648363709449768,
        0.029319852590560913,
        -0.1092376708984375
      ],
      [
        0.1454654037952423,
        0.09192220866680145,
        -0.040520790964365005,
        0.10533133149147034,
        -0.06918080151081085,
        0.006270985119044781,
        0.24568326771259308,
        0.1531563550233841,
        0.025760555639863014
      ],
      [
        -0.0210744496434927,
        0.007501126267015934,
        -0.0750119537115097,
        -0.10451702028512955,
        -0.04329511150717735,
        -0.10541416704654694,
        0.11347745358943939,
        -0.09603511542081833,
        -0.023621562868356705
      ],
      [
        -0.10481733828783035,
        -0.02415202558040619,
        0.08665135502815247,
        0.32739442586898804,
        0.026962703093886375,
        -0.3277474641799927,
        0.19121403992176056,
        -0.669061541557312,
        0.5061979293823242
      ],
      [
        -0.10353625565767288,
        -0.0702957883477211,
        0.10988841205835342,
        0.22248931229114532,
        0.4195847809314728,
        -0.14833617210388184,
        0.139383003115654,
        -0.007154451217502356,
        0.427999883890152
      ],
      [
        0.004768411163240671,
        0.12389173358678818,
        0.07637646794319153,
        -0.07404206693172455,
        -0.08486876636743546,
        -0.1034640222787857,
        -0.02157241478562355,
        -0.027958640828728676,
        -0.0817849263548851
      ],
      [
        0.03447616845369339,
        0.0852658674120903,
        -0.11588038504123688,
        -0.09420359879732132,
        -0.033810462802648544,
        -0.13105417788028717,
        0.5296445488929749,
        0.5116272568702698,
        1.2867850065231323
      ],
      [
        0.10312431305646896,
        0.06671331822872162,
        -0.11182264983654022,
        -0.03218590468168259,
        -0.10732340067625046,
        -0.13465885818004608,
        -0.0699128732085228,
        -0.0826171338558197,
        -0.09259817749261856
      ],
      [
        -0.03740620240569115,
        -0.08588583767414093,
        0.007839169353246689,
        0.13788680732250214,
        0.09732770174741745,
        0.013291912153363228,
        0.14140814542770386,
        -0.07814840227365494,
        0.08409871906042099
      ],
      [
        0.06259254366159439,
        -0.08169038593769073,
        -0.08597567677497864,
        0.12093345075845718,
        0.01078255195170641,
        -0.07010835409164429,
        -0.07060566544532776,
        -0.09804177284240723,
        0.0717431828379631
      ],
      [
        0.022942475974559784,
        -0.11568169295787811,
        0.08932250738143921,
        -0.09709565341472626,
        -0.06432697176933289,
        0.12086506187915802,
        -0.12211887538433075,
        0.008098285645246506,
        -0.0025818049907684326
      ],
      [
        0.08504165709018707,
        0.15537047386169434,
        0.022308768704533577,
        0.13391418755054474,
        0.09387097507715225,
        -0.06390630453824997,
        -0.1004767194390297,
        0.008710398338735104,
        0.0022430464159697294
      ],
      [
        0.07610518485307693,
        0.1141735166311264,
        -0.08580697327852249,
        -0.17628563940525055,
        -0.46046531200408936,
        0.3551443815231323,
        0.010525299236178398,
        0.33092808723449707,
        -0.6648921966552734
      ],
      [
        0.12567506730556488,
        -0.12428313493728638,
        -0.03289631009101868,
        0.18153105676174164,
        0.23258259892463684,
        -0.22859974205493927,
        0.1538824439048767,
        -0.1036551296710968,
        0.4279530942440033
      ],
      [
        -0.07013660669326782,
        0.04866177216172218,
        0.13755899667739868,
        0.06325436383485794,
        0.4346718490123749,
        -0.3004942536354065,
        -0.24716277420520782,
        0.3051186501979828,
        0.8761237859725952
      ],
      [
        0.07774579524993896,
        0.02187618613243103,
        0.09056000411510468,
        -0.03418049216270447,
        -0.0974990725517273,
        0.08239233493804932,
        -0.06421603262424469,
        0.023589685559272766,
        0.0755828469991684
      ],
      [
        0.09816047549247742,
        0.0911954864859581,
        -0.09916391223669052,
        0.1029435321688652,
        -0.11772149801254272,
        0.04962640255689621,
        0.12354360520839691,
        0.026537856087088585,
        0.04413389042019844
      ],
      [
        0.022358983755111694,
        -0.02953876554965973,
        -0.07274772226810455,
        0.026928022503852844,
        -0.020735830068588257,
        -0.048253804445266724,
        0.013285964727401733,
        -0.006584540009498596,
        -0.1050945371389389
      ],
      [
        0.02323208749294281,
        0.056689828634262085,
        0.07702504098415375,
        0.04880042374134064,
        0.06020975112915039,
        0.07420866191387177,
        -0.10329511761665344,
        -0.07274521887302399,
        -0.06734493374824524
      ],
      [
        0.12282112240791321,
        -0.008519068360328674,
        0.11330631375312805,
        -0.08377829194068909,
        0.07794496417045593,
        -0.01709999144077301,
        0.11792799830436707,
        0.004053473472595215,
        0.022008121013641357
      ],
      [
        -0.03210896998643875,
        0.10497994720935822,
        -0.012001252733170986,
        0.2168147712945938,
        0.18331676721572876,
        -0.07484602183103561,
        0.2484622448682785,
        -0.0162492785602808,
        0.389526903629303
      ],
      [
        0.007281780242919922,
        0.09784653782844543,
        0.06543552875518799,
        0.0052940696477890015,
        0.07651795446872711,
        -0.0480487197637558,
        -0.0802614688873291,
        -0.08046838641166687,
        -0.02762417495250702
      ],
      [
        -0.01486919540911913,
        0.08968788385391235,
        -0.06683113425970078,
        0.08858805894851685,
        -0.04961240291595459,
        0.0298665352165699,
        -0.12384095042943954,
        0.03743738308548927,
        -0.05078256130218506
      ],
      [
        -0.11063836514949799,
        -0.050729453563690186,
        -0.032259777188301086,
        0.09329403936862946,
        0.008589327335357666,
        -0.06965400278568268,
        -0.1081845611333847,
        -0.030783653259277344,
        0.06600867211818695
      ],
      [
        0.08137346804141998,
        0.05807368457317352,
        0.12459917366504669,
        0.0631205141544342,
        0.062172338366508484,
        0.01272757351398468,
        -0.006365761160850525,
        -0.12016737461090088,
        0.07231222093105316
      ],
      [
        0.0806378498673439,
        -0.055596981197595596,
        0.005403218325227499,
        0.21870876848697662,
        -0.13855603337287903,
        -0.08654258400201797,
        -0.018023546785116196,
        -0.13552014529705048,
        0.2819054424762726
      ],
      [
        -0.03850962221622467,
        0.12090899050235748,
        0.08890394866466522,
        -0.10599438846111298,
        -0.049846068024635315,
        -0.003365054726600647,
        0.029467180371284485,
        -0.1022140383720398,
        -0.04562777280807495
      ],
      [
        -0.006044625770300627,
        -0.06113073602318764,
        -0.011474328115582466,
        -0.1195753887295723,
        0.12110571563243866,
        -0.02703186869621277,
        -0.11857103556394577,
        0.06679954379796982,
        0.03570561856031418
      ],
      [
        -0.12103867530822754,
        -0.013147923164069653,
        -0.03552091121673584,
        -0.046813592314720154,
        0.013843223452568054,
        0.07876649498939514,
        -0.011137217283248901,
        0.009153783321380615,
        -0.02445577085018158
      ],
      [
        0.015725336968898773,
        -0.04667700082063675,
        -0.06303422152996063,
        -0.08426036685705185,
        0.08229027688503265,
        0.0576874241232872,
        0.06645773351192474,
        -0.07427554577589035,
        0.12223400920629501
      ],
      [
        -0.04102156683802605,
        0.07098599523305893,
        -0.11321324855089188,
        0.04910087585449219,
        -0.08338022232055664,
        0.06297768652439117,
        -0.03848394751548767,
        0.005845904350280762,
        -0.11591753363609314
      ],
      [
        0.08330686390399933,
        0.03990235924720764,
        0.09502734243869781,
        -0.008893683552742004,
        0.030290022492408752,
        0.09435942769050598,
        -0.10484562814235687,
        -0.05778105556964874,
        0.07648749649524689
      ],
      [
        0.04354165494441986,
        -0.022098373621702194,
        0.06097957119345665,
        -0.016808804124593735,
        0.014112915843725204,
        0.03399736434221268,
        0.08513999730348587,
        -0.12322729080915451,
        0.0794248953461647
      ],
      [
        -0.10514649003744125,
        -0.13685861229896545,
        0.0020991635974496603,
        -0.0788315013051033,
        0.22345015406608582,
        -0.14059564471244812,
        0.16343723237514496,
        -0.08995909988880157,
        -0.024120083078742027
      ],
      [
        0.01846197247505188,
        -0.020960867404937744,
        -0.08325640112161636,
        0.019447723403573036,
        0.05787692964076996,
        -0.11366836726665497,
        -0.08625725656747818,
        -0.02858688496053219,
        -0.03717818111181259
      ],
      [
        -0.046148255467414856,
        0.06934238970279694,
        -0.06932979822158813,
        0.09448522329330444,
        -0.015078440308570862,
        -0.06991834938526154,
        -0.12026675045490265,
        -0.0810588151216507,
        0.07921069860458374
      ],
      [
        0.1028381884098053,
        -0.03885805606842041,
        -0.1142100840806961,
        0.08063241839408875,
        -0.0567203164100647,
        -0.02358400821685791,
        -0.05650967359542847,
        -0.05026818811893463,
        -0.08775073289871216
      ],
      [
        -0.08801379799842834,
        0.09922686964273453,
        0.07519307732582092,
        -0.23181480169296265,
        -0.39005300402641296,
        0.32162168622016907,
        -0.11954934895038605,
        -0.15327666699886322,
        -0.7474467158317566
      ],
      [
        0.0017337511526420712,
        -0.17369312047958374,
        -0.041421569883823395,
        0.014903424307703972,
        -0.05249517410993576,
        0.17787539958953857,
        -0.061842918395996094,
        0.13065990805625916,
        -0.14171525835990906
      ],
      [
        -0.0791197121143341,
        -0.060059115290641785,
        -0.11176025867462158,
        0.07982856035232544,
        0.02641892433166504,
        0.0716305673122406,
        0.06752839684486389,
        -0.038409098982810974,
        0.08767960965633392
      ],
      [
        0.039437223225831985,
        -0.03775372356176376,
        0.06533270329236984,
        0.05565878748893738,
        -0.048695728182792664,
        -0.020092515274882317,
        0.05145558714866638,
        -0.05366829037666321,
        -0.10433639585971832
      ],
      [
        0.11087172478437424,
        0.0019654950592666864,
        0.04372520372271538,
        0.06137435510754585,
        -0.10701204091310501,
        0.09986482560634613,
        -0.06110413372516632,
        -0.004483128432184458,
        0.06844798475503922
      ],
      [
        -0.02445441670715809,
        -0.019308283925056458,
        -0.055344000458717346,
        -0.010850563645362854,
        0.06532943248748779,
        -0.017286330461502075,
        0.043160632252693176,
        0.020076870918273926,
        -0.09180699288845062
      ],
      [
        -0.008619677275419235,
        0.0980624184012413,
        -0.1098916158080101,
        0.10860330611467361,
        -0.09380581974983215,
        -0.05265432968735695,
        0.08112363517284393,
        0.09150474518537521,
        0.045739173889160156
      ],
      [
        0.1299545168876648,
        0.1177309975028038,
        0.01869725063443184,
        -0.03431199491024017,
        -0.09156666696071625,
        0.03399985656142235,
        0.10204145312309265,
        0.013439671136438847,
        -0.03743331879377365
      ],
      [
        -0.005846738815307617,
        0.023008450865745544,
        0.07200257480144501,
        0.05608135461807251,
        0.10262085497379303,
        -0.025195226073265076,
        -0.09619051218032837,
        -0.0022983402013778687,
        0.056950643658638
      ],
      [
        0.07278050482273102,
        -0.030505910515785217,
        -0.02428266778588295,
        0.1096009910106659,
        0.1829455941915512,
        -0.3046771287918091,
        0.13213925063610077,
        -0.310101717710495,
        0.52027428150177
      ],
      [
        0.12455222010612488,
        -0.022503213956952095,
        0.02412206493318081,
        0.022099873051047325,
        0.08667674660682678,
        0.0735502615571022,
        0.11924166232347488,
        0.041467439383268356,
        0.02328365482389927
      ],
      [
        0.10040783882141113,
        -0.1291571408510208,
        -0.02291720174252987,
        0.06726344674825668,
        0.022572077810764313,
        0.07128623127937317,
        0.07413861155509949,
        -0.10315492004156113,
        -0.020198335871100426
      ],
      [
        0.011451414786279202,
        -0.046803735196590424,
        -0.0832887589931488,
        -0.041703056544065475,
        0.01648540608584881,
        0.03405032679438591,
        -0.046334851533174515,
        0.08188635110855103,
        0.08109129220247269
      ],
      [
        -0.11876463890075684,
        -0.11022981256246567,
        -0.054154179990291595,
        0.03784815967082977,
        0.10815848410129547,
        -0.021332696080207825,
        0.07495830953121185,
        0.0610213577747345,
        0.04248484969139099
      ],
      [
        0.0837603211402893,
        -0.05732855200767517,
        0.03004997968673706,
        -0.085783451795578,
        0.13757659494876862,
        -0.0017529091564938426,
        0.021270286291837692,
        -0.005201667547225952,
        0.1589949131011963
      ],
      [
        -0.024075383320450783,
        -0.08716979622840881,
        -0.08071260154247284,
        0.02369922399520874,
        -0.10443995893001556,
        -0.10910756886005402,
        0.050136998295784,
        0.08669896423816681,
        -0.056640952825546265
      ],
      [
        0.0690334364771843,
        0.014646791853010654,
        -0.0929517075419426,
        -0.314458429813385,
        -0.18332810699939728,
        0.20989863574504852,
        -0.15123191475868225,
        0.17062626779079437,
        -0.6327778697013855
      ],
      [
        0.036783367395401,
        -0.05236850678920746,
        -0.09071285277605057,
        -0.02679808996617794,
        0.23701965808868408,
        -0.1539156436920166,
        -0.20668627321720123,
        0.5968087911605835,
        1.217834234237671
      ],
      [
        -0.014408017508685589,
        -0.07984402775764465,
        -0.06262281537055969,
        -0.11370617151260376,
        0.06222187355160713,
        -0.0027504991739988327,
        0.009821377694606781,
        0.07579006254673004,
        -0.12434811890125275
      ],
      [
        -0.010724758729338646,
        0.11814035475254059,
        -0.11516410857439041,
        -0.07816056162118912,
        -0.0004285158065613359,
        -0.10378121584653854,
        -0.09879916161298752,
        0.08439825475215912,
        0.0887051671743393
      ],
      [
        -0.0937926396727562,
        0.017854683101177216,
        -0.05128153786063194,
        -0.03511940315365791,
        -0.08150041848421097,
        -0.11829876899719238,
        -0.08796361088752747,
        0.09283372759819031,
        0.0365031473338604
      ],
      [
        -0.08198907226324081,
        -0.12383671849966049,
        0.08506511896848679,
        -0.31985795497894287,
        -0.21366241574287415,
        0.35082483291625977,
        -0.09814086556434631,
        0.31026551127433777,
        -0.6378489136695862
      ],
      [
        0.059492990374565125,
        -0.09733906388282776,
        -0.09309691190719604,
        0.04700225591659546,
        0.10691860318183899,
        -0.07930998504161835,
        0.10364119708538055,
        -0.10691390931606293,
        0.06226107478141785
      ],
      [
        -0.03225728124380112,
        0.020676622167229652,
        0.0330105721950531,
        0.23425665497779846,
        0.6086655855178833,
        -0.23887377977371216,
        0.014030158519744873,
        -0.10573244094848633,
        1.0675029754638672
      ],
      [
        -0.10846997797489166,
        0.09227816015481949,
        0.05965361371636391,
        0.1517399251461029,
        0.20296333730220795,
        -0.21031881868839264,
        -0.15758167207241058,
        -0.22046677768230438,
        0.14982551336288452
      ],
      [
        0.11399917304515839,
        0.03267529606819153,
        -0.06456579267978668,
        -0.07739979028701782,
        0.08603207767009735,
        -0.04272347688674927,
        0.023944199085235596,
        0.010672792792320251,
        0.06295330822467804
      ]
    ],
    "lstm.weight_hh_l0": [
      [
        -0.01091116014868021,
        -0.07364244759082794,
        -0.10226798057556152,
        -0.06829372048377991,
        0.10486773401498795,
        -0.10018744319677353,
        0.07605289667844772,
        0.07997291535139084,
        0.11639814078807831,
        -0.04177454113960266,
        -0.009620001539587975,
        -0.1248900294303894,
        0.0760800763964653,
        -0.006341945379972458,
        0.04059615731239319,
        -0.05503181368112564,
        -0.051292482763528824,
        0.018112093210220337,
        0.11051911115646362,
        -0.11364521831274033,
        -0.030215837061405182,
        -0.09822184592485428,
        -0.029916273429989815,
        0.041206713765859604,
        -0.09022976458072662,
        -0.08025605231523514,
        -0.05064472556114197,
        -0.044655442237854004,
        0.02799038216471672,
        -0.013439923524856567,
        -0.04221583530306816,
        -0.0075577497482299805,
        0.007907435297966003,
        -0.023811262100934982,
        -0.06157737970352173,
        0.07937879860401154,
        0.06831005215644836,
        0.11662821471691132,
        -0.018933363258838654,
        0.12269344925880432,
        -0.00537535548210144,
        -0.0029946391005069017,
        -0.09062719345092773,
        0.016436055302619934,
        -0.02870108187198639,
        0.004921615589410067,
        -0.07433617115020752,
        -0.07768464833498001,
        -0.04475566744804382,
        0.10897839814424515,
        0.032454963773489,
        -0.06993858516216278,
        -0.036681003868579865,
        0.07984930276870728,
        -0.04934563860297203,
        -0.027959754690527916,
        0.05000753700733185,
        -0.10541218519210815,
        0.10343244671821594,
        -0.015589768998324871,
        0.008736371994018555,
        0.07619837671518326,
        0.027485167607665062,
        -0.0014503300189971924
      ],
      [
        0.11797614395618439,
        -0.055092066526412964,
        -0.11148954927921295,
        0.0760631263256073,
        -0.0873517245054245,
        0.026519253849983215,
        -0.020923584699630737,
        -0.012524724006652832,
        0.07781508564949036,
        0.036064863204956055,
        0.07991069555282593,
        -0.09808765351772308,
        0.07112152874469757,
        -0.005475148558616638,
        0.07469472289085388,
        0.0724475085735321,
        0.081367626786232,
        0.0374985933303833,
        -0.01714254915714264,
        0.11044669151306152,
        -0.031744495034217834,
        0.05874927341938019,
        0.11628618836402893,
        -0.00518152117729187,
        -0.027422383427619934,
        -0.07993189990520477,
        0.04437233507633209,
        -0.07128800451755524,
        -0.11172245442867279,
        0.015601128339767456,
        0.06386072933673859,
        0.0047933608293533325,
        -0.047013625502586365,
        -0.0893106460571289,
        0.06386320292949677,
        -0.09353819489479065,
        -0.10659095644950867,
        -0.11196313798427582,
        -0.08791086077690125,
        0.022265449166297913,
        -0.09991936385631561,
        -0.008907034993171692,
        0.0886610746383667,
        0.01215161383152008,
        0.05915123224258423,
        0.1083868145942688,
        -0.05641622841358185,
        0.10863207280635834,
        0.06313881278038025,
        0.012419655919075012,
        0.057816311717033386,
        -0.08582890033721924,
        0.028655797243118286,
        0.04965846240520477,
        0.04350680112838745,
        -0.01614360511302948,
        -0.01392965018749237,
        0.021250352263450623,
        -0.09048756957054138,
        0.04207932949066162,
        -0.08382713794708252,
        -0.07126688957214355,
        -0.0051558613777160645,
        -0.06728129088878632
      ],
      [
        0.0014081621775403619,
        0.11899113655090332,
        0.01766136661171913,
        0.051972296088933945,
        0.27303287386894226,
        -0.43728670477867126,
        -0.1730411797761917,
        0.003245909931138158,
        -0.3693431317806244,
        -0.14966687560081482,
        -0.09225419908761978,
        0.3098653554916382,
        0.4201567769050598,
        -0.3511659502983093,
        0.16023333370685577,
        0.34392276406288147,
        0.1808897703886032,
        -0.047442540526390076,
        -0.09283508360385895,
        0.2021886259317398,
        -0.19055788218975067,
        -0.11735837161540985,
        -0.38863322138786316,
        0.11238251626491547,
        0.022641345858573914,
        0.26369836926460266,
        -0.09167367219924927,
        0.2805212736129761,
        -0.024001702666282654,
        0.09823353588581085,
        0.03495964780449867,
        -0.07370814681053162,
        0.1647242307662964,
        0.17363902926445007,
        0.1240953877568245,
        0.018949031829833984,
        0.08256210386753082,
        0.1122669130563736,
        0.08766379952430725,
        -0.14602822065353394,
        -0.03916384279727936,
        -0.23748871684074402,
        0.226614311337471,
        0.08538959920406342,
        0.07974300533533096,
        -0.21073849499225616,
        0.12341299653053284,
        0.1899278461933136,
        -0.057784926146268845,
        -0.018083615228533745,
        0.09911977499723434,
        0.030818214640021324,
        0.2714669704437256,
        0.03171102702617645,
        -0.328122615814209,
        -0.01136372983455658,
        0.005211023148149252,
        0.05499455705285072,
        0.09655162692070007,
        0.0178656205534935,
        -0.08294345438480377,
        0.16010183095932007,
        -0.1680763214826584,
        0.061407670378685
      ],
      [
        -0.09070491790771484,
        -0.029423266649246216,
        -0.06737923622131348,
        -0.10649208724498749,
        -0.017527908086776733,
        -0.05565613508224487,
        -0.08253790438175201,
        0.10940121114253998,
        0.06387007236480713,
        0.0707770586013794,
        0.018028244376182556,
        0.07161016762256622,
        0.03987640142440796,
        0.0837378054857254,
        0.03976507484912872,
        -0.044810473918914795,
        0.04664824903011322,
        -0.09131254255771637,
        -0.10126709938049316,
        0.026881694793701172,
        0.034592002630233765,
        -0.014342129230499268,
        0.026781216263771057,
        -0.08325392007827759,
        -0.08505712449550629,
        -0.021794632077217102,
        -0.05545094609260559,
        -0.011399462819099426,
        -0.00750105082988739,
        -0.011548921465873718,
        -0.009904757142066956,
        0.004109933972358704,
        -0.042807891964912415,
        0.11758407950401306,
        0.1193404495716095,
        -0.0768374651670456,
        -0.02049146592617035,
        0.05034792423248291,
        -0.11539189517498016,
        -0.08005496859550476,
        -0.09486061334609985,
        0.06558260321617126,
        -0.10503362119197845,
        -0.08964769542217255,
        0.07153519988059998,
        0.016561537981033325,
        -0.06606036424636841,
        -0.11038167774677277,
        0.056688547134399414,
        0.07078586518764496,
        0.09845191240310669,
        -0.05961146950721741,
        0.09695012867450714,
        0.05531689524650574,
        -0.08814403414726257,
        -0.09314556419849396,
        0.06130792200565338,
        0.08723168075084686,
        0.09645704925060272,
        0.08913487195968628,
        0.013268008828163147,
        -0.010752469301223755,
        -0.03709283471107483,
        -0.03681781888008118
      ],
      [
        -0.3354642689228058,
        0.01204603910446167,
        0.09957778453826904,
        -0.08726532757282257,
        0.010751143097877502,
        -0.18264254927635193,
        0.2641560435295105,
        -0.0150400809943676,
        0.1525290608406067,
        -0.05924347788095474,
        -0.008824222721159458,
        0.09885405004024506,
        0.047154124826192856,
        -0.049143869429826736,
        -0.10349232703447342,
        0.34342053532600403,
        -0.36005979776382446,
        0.0854228287935257,
        -0.12181544303894043,
        -0.2733394503593445,
        -0.12908132374286652,
        -0.001846437924541533,
        0.07865826040506363,
        -0.01673407480120659,
        0.05513317883014679,
        -0.09360827505588531,
        -0.19807124137878418,
        -0.280633807182312,
        -0.07140715420246124,
        0.04648438096046448,
        0.03838596120476723,
        0.03811563551425934,
        -0.11851333826780319,
        -0.04165388271212578,
        0.13972420990467072,
        -0.019528165459632874,
        0.05411440134048462,
        0.054910093545913696,
        0.03107660636305809,
        -0.1078791618347168,
        0.037474438548088074,
        -0.017107512801885605,
        0.10115624964237213,
        0.04161645472049713,
        -0.030171789228916168,
        0.06615107506513596,
        0.09730106592178345,
        0.09741202741861343,
        0.08021160960197449,
        -0.11789409071207047,
        -0.0321122482419014,
        -0.06671799719333649,
        -0.08705933392047882,
        -0.029405727982521057,
        0.16570758819580078,
        -0.18343257904052734,
        -0.04222699999809265,
        -0.03911266103386879,
        -0.11338327825069427,
        0.19905193150043488,
        0.057217076420784,
        0.2964182198047638,
        0.14583316445350647,
        -0.07821765542030334
      ],
      [
        -0.09606871753931046,
        -0.054185569286346436,
        -0.0832301676273346,
        0.11573649942874908,
        0.03798820078372955,
        0.08222322911024094,
        -0.2145921289920807,
        -0.08362654596567154,
        -0.044089168310165405,
        0.10526077449321747,
        0.11885640770196915,
        -0.056165553629398346,
        -0.08909282833337784,
        0.0021746514830738306,
        0.03819159418344498,
        0.11913004517555237,
        -0.0811258926987648,
        -0.0638122707605362,
        0.020703405141830444,
        -0.02489837072789669,
        0.019454924389719963,
        0.0449078306555748,
        -0.053343068808317184,
        0.006641901098191738,
        -0.11296544969081879,
        0.08297274261713028,
        -0.020202962681651115,
        -0.09606291353702545,
        -0.061936017125844955,
        -0.11553449928760529,
        0.08204411715269089,
        -0.08027167618274689,
        -0.11360381543636322,
        0.0025102668441832066,
        -0.03986872360110283,
        0.0819283127784729,
        -0.10429888963699341,
        -0.01946711540222168,
        0.012205624021589756,
        -0.03090214729309082,
        0.017341122031211853,
        0.08890241384506226,
        -0.0649401992559433,
        -0.12180235981941223,
        0.038496434688568115,
        0.006749078631401062,
        -0.047478824853897095,
        0.1267375499010086,
        -0.12341051548719406,
        -0.09220197796821594,
        -0.05045948550105095,
        0.02517491579055786,
        -0.12493225932121277,
        -0.01800483465194702,
        0.08353882282972336,
        0.09696920961141586,
        -0.06197799742221832,
        -0.02257847785949707,
        -0.059803009033203125,
        -0.04175283759832382,
        -0.003461211919784546,
        0.08976434171199799,
        -0.07299608737230301,
        0.08746129274368286
      ],
      [
        0.021336182951927185,
        -0.06263759732246399,
        -0.05083724856376648,
        0.03631734102964401,
        0.35632628202438354,
        -0.48748525977134705,
        0.2223832607269287,
        0.3636894226074219,
        -0.2774171531200409,
        -0.06412098556756973,
        -0.05424452945590019,
        -0.01292942650616169,
        0.3172680139541626,
        -0.2694482207298279,
        0.0407964363694191,
        0.17088542878627777,
        -0.1494930237531662,
        0.074762262403965,
        0.0688231885433197,
        0.42637938261032104,
        -0.09779292345046997,
        0.15139774978160858,
        0.0793481171131134,
        -0.0009828939801082015,
        -0.0681958943605423,
        -0.007388293277472258,
        0.12960600852966309,
        -0.5368824005126953,
        -0.006672717165201902,
        -0.004157021641731262,
        -0.009393750689923763,
        -0.0017311722040176392,
        0.0162640493363142,
        -0.08158324658870697,
        -0.06688334792852402,
        -0.05956268310546875,
        0.06212988495826721,
        -0.09571464359760284,
        -0.2952077090740204,
        0.0067160180769860744,
        0.05058431625366211,
        0.12467310577630997,
        -0.094179168343544,
        -0.1110394150018692,
        0.08584859222173691,
        -0.2092452049255371,
        0.0918334424495697,
        0.04187440872192383,
        -0.10196228325366974,
        -0.005169520620256662,
        -0.11668648570775986,
        -0.10821481049060822,
        -0.08245985209941864,
        -0.04654158651828766,
        -0.2654466927051544,
        -0.39144477248191833,
        -0.025014404207468033,
        0.07860107719898224,
        -0.06643017381429672,
        0.1951303780078888,
        0.006457507610321045,
        0.4131603538990021,
        -0.26545199751853943,
        -0.09567981958389282
      ],
      [
        -0.05084596574306488,
        0.020020663738250732,
        0.0020370781421661377,
        0.1054135262966156,
        0.05424425005912781,
        0.02069731056690216,
        -0.07737109065055847,
        -0.06474645435810089,
        0.086915522813797,
        -0.007410585880279541,
        -0.02346120774745941,
        0.0855618566274643,
        0.08891834318637848,
        0.0958806723356247,
        -0.09912130236625671,
        -0.07225066423416138,
        -0.06678956747055054,
        0.016500502824783325,
        -0.09176813066005707,
        -0.05199216306209564,
        0.03510954976081848,
        -0.035111814737319946,
        0.11735007166862488,
        0.08402712643146515,
        -0.0362929105758667,
        0.0888863056898117,
        -0.03216865658760071,
        0.010320454835891724,
        -0.08762200176715851,
        -0.11197766661643982,
        -0.0896926075220108,
        -0.07731936872005463,
        0.0732828676700592,
        0.07072503864765167,
        -0.11465556919574738,
        0.07536323368549347,
        0.0792640745639801,
        0.0331602543592453,
        0.08966846764087677,
        -0.03606872260570526,
        0.05515214800834656,
        0.09057261049747467,
        -0.03470562398433685,
        -0.07751831412315369,
        -0.052391231060028076,
        -0.10505487024784088,
        -0.029612332582473755,
        -0.11752302944660187,
        -0.01826329529285431,
        -0.03799532353878021,
        0.10089173913002014,
        -0.07256552577018738,
        0.023914068937301636,
        0.11258888244628906,
        0.03211277723312378,
        -0.052686527371406555,
        0.06025056540966034,
        0.12375031411647797,
        0.018087521195411682,
        0.03308717906475067,
        0.09396311640739441,
        -0.11212444305419922,
        0.0242835134267807,
        -0.10315254330635071
      ],
      [
        -0.3052544891834259,
        -0.01693911850452423,
        -0.013692756183445454,
        -0.016209743916988373,
        0.021513452753424644,
        0.12218408286571503,
        0.11089414358139038,
        0.35685476660728455,
        0.06212715059518814,
        -0.17714668810367584,
        -0.09748057276010513,
        -0.08724624663591385,
        0.2324714958667755,
        0.007818521000444889,
        -0.13428039848804474,
        0.4585344195365906,
        0.024995729327201843,
        -0.0689973458647728,
        -0.08298346400260925,
        -0.22560444474220276,
        -0.01688632369041443,
        0.018868399783968925,
        -0.09061864763498306,
        0.07894515991210938,
        -0.01578746736049652,
        -0.09865543991327286,
        -0.09956604242324829,
        -0.09938051551580429,
        -0.11878897994756699,
        0.07127903401851654,
        -0.024234116077423096,
        -0.015751227736473083,
        -0.12417754530906677,
        -0.11578617990016937,
        0.01297895610332489,
        -0.11703957617282867,
        0.01396922767162323,
        0.0015658438205718994,
        0.07975248247385025,
        -0.07074159383773804,
        -0.10748657584190369,
        0.03882066532969475,
        -0.1374259889125824,
        -0.005696311593055725,
        0.10712802410125732,
        0.05399935692548752,
        -0.0975700318813324,
        0.007261455990374088,
        -0.10945628583431244,
        -0.03600495308637619,
        0.08772270381450653,
        0.11550624668598175,
        -0.00906642246991396,
        -0.06997436285018921,
        0.19570010900497437,
        -0.2793211042881012,
        0.11589662730693817,
        -0.059454545378685,
        0.11524105817079544,
        0.1116151362657547,
        -0.03650389611721039,
        0.33045321702957153,
        -0.16238652169704437,
        0.0773017555475235
      ],
      [
        0.09793337434530258,
        -0.06782127916812897,
        0.043478406965732574,
        0.054703354835510254,
        0.0579850859940052,
        0.016589000821113586,
        -0.13936109840869904,
        -0.06974051892757416,
        -0.09701231867074966,
        0.0027372855693101883,
        0.004825291223824024,
        0.1338788866996765,
        0.0823354497551918,
        0.051359131932258606,
        -0.002707418520003557,
        0.11044727265834808,
        -0.020803235471248627,
        -0.07454097270965576,
        -0.05073188245296478,
        0.0820884108543396,
        0.07738760858774185,
        0.0396234393119812,
        -0.05180545523762703,
        0.10855478793382645,
        0.09747311472892761,
        0.12393008917570114,
        0.1090460941195488,
        -0.12062302231788635,
        -0.018108898773789406,
        0.01668688654899597,
        0.015783950686454773,
        0.07218165695667267,
        0.09183494746685028,
        -0.006322290748357773,
        0.09336438775062561,
        -0.049045100808143616,
        -0.0026949644088745117,
        -0.03507965803146362,
        0.025995923206210136,
        0.011252973228693008,
        -0.12155020236968994,
        0.04180524870753288,
        0.14891783893108368,
        0.0035635679960250854,
        0.007410943508148193,
        -0.04108069837093353,
        0.0037571191787719727,
        0.0878894254565239,
        -0.007819842547178268,
        0.01984717883169651,
        -0.005026619881391525,
        0.11860083043575287,
        0.018744030967354774,
        0.08956657350063324,
        -0.004271364770829678,
        0.06926979124546051,
        0.05529263615608215,
        -0.09122036397457123,
        -0.11013868451118469,
        -0.0859156921505928,
        0.0014951229095458984,
        0.05384256690740585,
        0.0669945627450943,
        0.08125302195549011
      ],
      [
        0.06061573699116707,
        -0.11487147212028503,
        0.03869921341538429,
        -0.08551366627216339,
        0.06916412711143494,
        0.0555235780775547,
        -0.22363613545894623,
        0.06971078366041183,
        0.10649615526199341,
        -0.11236756294965744,
        0.029510535299777985,
        -0.0002811932936310768,
        -0.0603143684566021,
        0.09157607704401016,
        -0.056883495301008224,
        -0.00344413542188704,
        0.08428303897380829,
        -0.038193345069885254,
        -0.03386814892292023,
        -0.0680425837635994,
        -0.1260869801044464,
        -0.04322346672415733,
        0.09680509567260742,
        -0.03723905608057976,
        0.07742543518543243,
        -0.08267457038164139,
        0.12792982161045074,
        -0.11417672783136368,
        -0.016280492767691612,
        -0.12231963872909546,
        0.10370723903179169,
        -0.10470668971538544,
        0.06886870414018631,
        -0.05858156830072403,
        -0.04104169085621834,
        -0.11013126373291016,
        0.09368585050106049,
        -0.0031720995903015137,
        0.00635730754584074,
        0.09523323178291321,
        -0.12402153015136719,
        -0.039941154420375824,
        -0.030062854290008545,
        0.12158696353435516,
        0.11539167165756226,
        -0.07383881509304047,
        0.07171584665775299,
        0.06330941617488861,
        -0.10347452759742737,
        0.04933112859725952,
        0.09900489449501038,
        0.04532596468925476,
        0.059065237641334534,
        0.03594036400318146,
        -0.05184287205338478,
        -0.03048194944858551,
        0.015326842665672302,
        -0.11200335621833801,
        -0.07290811836719513,
        0.10985809564590454,
        -0.12408138811588287,
        -0.0845155417919159,
        0.11413632333278656,
        0.1066271960735321
      ],
      [
        0.5160882472991943,
        0.0605655163526535,
        -0.16758108139038086,
        0.10471492260694504,
        -0.06387834250926971,
        0.024282030761241913,
        -0.12503643333911896,
        -0.204897940158844,
        -0.04360370337963104,
        -0.05064459145069122,
        -0.08995779603719711,
        0.10143837332725525,
        0.0018157291924580932,
        0.2761220335960388,
        0.06171804666519165,
        -0.25744009017944336,
        0.00389755773358047,
        -0.01267936173826456,
        0.1064351499080658,
        0.043702784925699234,
        0.009277168661355972,
        0.001421154011040926,
        -0.042774733155965805,
        0.06583461910486221,
        -0.07915936410427094,
        0.030699435621500015,
        -0.018280262127518654,
        0.11433164775371552,
        0.09547693282365799,
        -0.025125563144683838,
        -0.06157192960381508,
        -0.057930514216423035,
        -0.014103077352046967,
        0.07747719436883926,
        0.15539848804473877,
        0.05807881057262421,
        -0.016896724700927734,
        0.12363019585609436,
        0.2682989537715912,
        -0.11299784481525421,
        -0.08556433022022247,
        -0.015454079955816269,
        0.06866694986820221,
        -0.07298301160335541,
        0.02477860450744629,
        -0.08918563276529312,
        0.08120563626289368,
        -0.12435709685087204,
        0.08011510968208313,
        0.04058209806680679,
        0.057458583265542984,
        0.08297571539878845,
        0.04318970814347267,
        0.02046036720275879,
        -0.14288358390331268,
        0.22715237736701965,
        -0.05653062462806702,
        -0.015001253224909306,
        0.052078235894441605,
        0.006301212124526501,
        0.03131917119026184,
        -0.08522298187017441,
        0.04192689061164856,
        -0.03952895104885101
      ],
      [
        -0.3551689088344574,
        0.058876022696495056,
        0.11036936193704605,
        -0.011213005520403385,
        0.2352561354637146,
        -0.3108985722064972,
        0.10104598850011826,
        0.36531275510787964,
        0.3400441110134125,
        -0.24764083325862885,
        -0.15821008384227753,
        0.10195950418710709,
        -0.14537851512432098,
        0.1412361115217209,
        0.2326374500989914,
        -0.020532924681901932,
        0.032072264701128006,
        -0.020358609035611153,
        0.001269012689590454,
        -0.04526328295469284,
        -0.029873879626393318,
        -0.023273665457963943,
        -0.2518625557422638,
        -0.04265037551522255,
        0.001716718077659607,
        0.2605685591697693,
        0.15775872766971588,
        -0.45214375853538513,
        -0.02177719585597515,
        0.00011522165004862472,
        -0.12275427579879761,
        0.12231512367725372,
        -0.07109345495700836,
        0.10837440192699432,
        -0.06480642408132553,
        0.03755812346935272,
        0.035684362053871155,
        -0.004234865307807922,
        -0.26861536502838135,
        -0.055259186774492264,
        -0.09145766496658325,
        -0.12251857668161392,
        0.04045917093753815,
        0.004233956336975098,
        0.009300713427364826,
        -0.15109285712242126,
        -0.08630949258804321,
        -0.06388840079307556,
        -0.18996281921863556,
        0.047027233988046646,
        -0.024545015767216682,
        0.07101812958717346,
        0.050761058926582336,
        0.12238559126853943,
        0.2974737584590912,
        -0.9330001473426819,
        0.006417219527065754,
        -0.01956261694431305,
        -0.022228889167308807,
        0.18360896408557892,
        -0.10361570119857788,
        -0.3016475439071655,
        -0.09536509215831757,
        -0.12142342329025269
      ],
      [
        0.1421554684638977,
        -0.04246079921722412,
        -0.3921705484390259,
        0.0854361355304718,
        0.0008371237199753523,
        0.26803725957870483,
        0.06750261038541794,
        0.03125516325235367,
        0.18390505015850067,
        -0.04728541895747185,
        0.07005592435598373,
        -0.1369420289993286,
        -0.015153881162405014,
        0.06953931599855423,
        -0.2209939956665039,
        -0.20142574608325958,
        0.20231078565120697,
        0.09197746217250824,
        -0.04215577244758606,
        -0.053125813603401184,
        -0.1305505335330963,
        -0.26804766058921814,
        0.09482550621032715,
        0.02018178254365921,
        0.09847643971443176,
        -0.17672806978225708,
        0.16643880307674408,
        -0.028505003079771996,
        0.03515806794166565,
        0.0950661301612854,
        0.05875811725854874,
        -0.10778887569904327,
        -0.05048387870192528,
        -0.16688211262226105,
        -0.09748561680316925,
        0.05362403392791748,
        -0.02361881732940674,
        -0.029212504625320435,
        0.08015451580286026,
        -0.01597396656870842,
        0.09548258781433105,
        0.14506851136684418,
        -0.020418284460902214,
        -0.02361813187599182,
        0.08941906690597534,
        0.22123049199581146,
        0.07028083503246307,
        -0.07680574804544449,
        -0.3078244626522064,
        -0.06849630922079086,
        0.010138123296201229,
        -0.0036061157006770372,
        -0.017896922305226326,
        -0.030537456274032593,
        0.22417910397052765,
        -0.028600065037608147,
        -0.017555801197886467,
        0.020744025707244873,
        -0.030731795355677605,
        -0.03802694007754326,
        -0.06834541261196136,
        -0.17948414385318756,
        -0.13934913277626038,
        -0.11847150325775146
      ],
      [
        -0.09006503224372864,
        -0.00020740926265716553,
        -0.1053520143032074,
        -0.01544325053691864,
        -0.05085211992263794,
        -0.011192068457603455,
        -0.020897045731544495,
        -0.029007136821746826,
