{
  "model_state_dict": {
    "embedding.weight": [
      [
        -0.02563306875526905,
        0.25648894906044006,
        0.01865575462579727,
        -2.721160411834717
      ],
      [
        0.55958491563797,
        0.3997819423675537,
        0.37067335844039917,
        -0.44335177540779114
      ],
      [
        0.10306444764137268,
        1.0515663623809814,
        0.1424883008003235,
        1.5736346244812012
      ],
      [
        0.13623259961605072,
        -0.2630833387374878,
        -0.992533266544342,
        -1.8182891607284546
      ]
    ],
    "lstm.weight_ih_l0": [
      [
        0.0385250523686409,
        0.0585726760327816,
        -0.10456915199756622,
        0.1697770208120346,
        -1.056038498878479,
        0.04170554503798485,
        0.6547661423683167,
        -0.36960139870643616,
        -1.1980258226394653
      ],
      [
        0.060789112001657486,
        0.0661165788769722,
        -0.06943915039300919,
        0.2339172214269638,
        0.24507468938827515,
        -0.1331290453672409,
        0.3336154520511627,
        -0.3566877543926239,
        0.14477811753749847
      ],
      [
        0.06852129101753235,
        -0.11734068393707275,
        -0.006059698760509491,
        0.020109951496124268,
        0.01567034423351288,
        0.051147520542144775,
        0.07713745534420013,
        -0.10082191228866577,
        -0.12042242288589478
      ],
      [
        0.023298166692256927,
        -0.1108611449599266,
        0.07690197974443436,
        0.04134576395153999,
        0.08284027874469757,
        0.08504050970077515,
        0.07286381721496582,
        0.024480881169438362,
        0.05564313009381294
      ],
      [
        -0.003000319004058838,
        0.09738220274448395,
        0.05239398777484894,
        0.044411227107048035,
        -0.02962411940097809,
        -0.07845963537693024,
        0.0949447900056839,
        -0.041495904326438904,
        0.055730342864990234
      ],
      [
        0.05398023501038551,
        -0.04338785633444786,
        -0.05958695709705353,
        -0.23872411251068115,
        -0.4966414272785187,
        0.31939762830734253,
        0.42278680205345154,
        0.07569959759712219,
        -0.6886156797409058
      ],
      [
        0.15075275301933289,
        -0.048379700630903244,
        -0.009773967787623405,
        0.01580869033932686,
        0.009679739363491535,
        -0.007168833632022142,
        -0.19121140241622925,
        -0.11390262842178345,
        -0.0892881378531456
      ],
      [
        -0.10911308974027634,
        0.09379597753286362,
        0.06961087137460709,
        -0.06515246629714966,
        0.06096908077597618,
        -0.0785038098692894,
        -0.1460784673690796,
        0.09817782789468765,
        0.08256102353334427
      ],
      [
        -0.05011196434497833,
        -0.0028879791498184204,
        -0.12172803282737732,
        -0.039402395486831665,
        0.09576398134231567,
        -0.04358366131782532,
        0.06418056786060333,
        -0.06426841020584106,
        0.1248035579919815
      ],
      [
        -0.10807482153177261,
        0.08299523591995239,
        -0.03464025259017944,
        0.014970619231462479,
        0.007118870038539171,
        -0.09800903499126434,
        0.044679105281829834,
        0.15763570368289948,
        0.1270175278186798
      ],
      [
        0.06713680922985077,
        0.058609992265701294,
        0.09520234167575836,
        0.10876969993114471,
        -0.04818147420883179,
        0.0943540632724762,
        0.11306627094745636,
        0.06304733455181122,
        0.0582708865404129
      ],
      [
        0.06418193131685257,
        0.07307161390781403,
        -0.08796756714582443,
        -0.023870378732681274,
        0.10129311680793762,
        -0.0441264808177948,
        0.04497779905796051,
        0.06311841309070587,
        -0.0432925671339035
      ],
      [
        0.02402682416141033,
        0.006743561010807753,
        -0.11995615810155869,
        -0.01846545934677124,
        -0.023240936920046806,
        -0.0013098176568746567,
        -0.07907170057296753,
        -0.09175629913806915,
        -0.015308265574276447
      ],
      [
        0.02261146903038025,
        0.10363730788230896,
        0.11966782808303833,
        0.01635320484638214,
        -0.10044421255588531,
        0.01611262559890747,
        0.009118720889091492,
        0.02331005036830902,
        -0.008575648069381714
      ],
      [
        -0.08114452660083771,
        0.08330852538347244,
        -0.11268440634012222,
        0.03357990086078644,
        -0.03856198489665985,
        -0.09907406568527222,
        -0.007435758598148823,
        0.003651263425126672,
        0.044210731983184814
      ],
      [
        0.03676915913820267,
        0.15157589316368103,
        -0.02233942598104477,
        0.024478433653712273,
        -0.13488660752773285,
        -0.1266814023256302,
        0.06111719459295273,
        0.01793244108557701,
        0.07862746715545654
      ],
      [
        0.061090245842933655,
        0.027580738067626953,
        -0.04761691391468048,
        -0.11330384016036987,
        0.030470162630081177,
        0.09231992065906525,
        -0.08970460295677185,
        -0.053277790546417236,
        0.12290871143341064
      ],
      [
        -0.08826906234025955,
        0.03798065707087517,
        -0.06501448154449463,
        -0.09380204230546951,
        0.10860060900449753,
        0.0717339813709259,
        -0.03007495030760765,
        0.024813992902636528,
        0.07246648520231247
      ],
      [
        -0.045346200466156006,
        -0.030972763895988464,
        -0.10347941517829895,
        0.03489978611469269,
        -0.0024471431970596313,
        0.042122721672058105,
        -0.09141583740711212,
        -0.012177586555480957,
        0.04391370713710785
      ],
      [
        -0.0674685537815094,
        -0.11269061267375946,
        0.08124621212482452,
        -0.04973148927092552,
        0.09839330613613129,
        0.13229995965957642,
        -0.10947078466415405,
        -0.06073148548603058,
        -0.06267249584197998
      ],
      [
        0.0341995470225811,
        0.013397056609392166,
        -0.11711271107196808,
        -0.013745509088039398,
        -0.008418792858719826,
        0.019283903762698174,
        0.07718335837125778,
        0.08963187783956528,
        -0.1261669546365738
      ],
      [
        -0.03888073191046715,
        0.08867169171571732,
        0.13038845360279083,
        0.044146861881017685,
        0.08508849143981934,
        -0.11088301986455917,
        0.10458049923181534,
        -0.05894644930958748,
        0.07772859930992126
      ],
      [
        -0.026317432522773743,
        0.09391975402832031,
        -0.07316464185714722,
        -0.025746524333953857,
        0.012431859970092773,
        0.05357597768306732,
        -0.08717311918735504,
        0.00837571918964386,
        0.037847936153411865
      ],
      [
        -0.0818788930773735,
        0.12067413330078125,
        0.016217317432165146,
        -0.3710511326789856,
        0.22382892668247223,
        0.013838380575180054,
        -0.2859427332878113,
        0.6097114682197571,
        0.6883242726325989
      ],
      [
        -0.07118263840675354,
        -0.05605485662817955,
        0.12653811275959015,
        -0.1111561730504036,
        -0.03604574874043465,
        -0.043107811361551285,
        -0.04214378446340561,
        -0.10415613651275635,
        0.1084485724568367
      ],
      [
        -0.01186442282050848,
        -0.12078174203634262,
        0.013152223080396652,
        -0.10197113454341888,
        0.47143977880477905,
        -0.11381687968969345,
        0.2219284027814865,
        0.5586140155792236,
        0.45939627289772034
      ],
      [
        0.08438552916049957,
        -0.033396825194358826,
        -0.06476882100105286,
        -0.05309879034757614,
        -0.09615374356508255,
        0.004912809003144503,
        -0.088834248483181,
        0.08210153877735138,
        -0.057407256215810776
      ],
      [
        0.12214277684688568,
        0.0032673776149749756,
        0.11011125147342682,
        0.018611222505569458,
        0.07237248122692108,
        -0.013942956924438477,
        0.11236342787742615,
        0.08773277699947357,
        0.08788023889064789
      ],
      [
        -0.010217124596238136,
        -0.08639766275882721,
        0.05158303305506706,
        -0.13466602563858032,
        0.5902701020240784,
        0.06535536050796509,
        0.2216230034828186,
        0.24458059668540955,
        0.6695892214775085
      ],
      [
        0.052276115864515305,
        0.048712871968746185,
        0.033616725355386734,
        -0.1111396923661232,
        0.07898420840501785,
        -0.03791999816894531,
        -0.07828225940465927,
        0.01050000824034214,
        0.016816044226288795
      ],
      [
        0.0272199809551239,
        -0.07375356554985046,
        0.08131778240203857,
        0.07238112390041351,
        0.05229650437831879,
        0.037472739815711975,
        0.040636658668518066,
        0.09589681029319763,
        0.0017777234315872192
      ],
      [
        0.022396095097064972,
        0.02089141681790352,
        -0.029537998139858246,
        -0.15352188050746918,
        -0.8976123929023743,
        0.14790092408657074,
        0.22847490012645721,
        0.04835044965147972,
        -0.7870851159095764
      ],
      [
        0.029356699436903,
        -0.05983341112732887,
        0.017361920326948166,
        -0.10056319832801819,
        -0.058936916291713715,
        0.0444132536649704,
        -0.06921841949224472,
        0.10621316730976105,
        -0.0860852524638176
      ],
      [
        -0.011170177720487118,
        0.12403565645217896,
        0.09493021667003632,
        0.012645326554775238,
        -0.12435509264469147,
        0.007975989952683449,
        0.007282937411218882,
        -0.051454782485961914,
        0.11841089278459549
      ],
      [
        0.04367382079362869,
        0.047906503081321716,
        -0.05921778455376625,
        0.5476820468902588,
        0.6537440419197083,
        -0.46125826239585876,
        0.13462185859680176,
        -0.4880809485912323,
        0.872241735458374
      ],
      [
        -0.06311880052089691,
        0.1177605390548706,
        0.06943976134061813,
        0.013692265376448631,
        -0.10314568877220154,
        -0.07907475531101227,
        -0.02631637640297413,
        -0.10033734887838364,
        0.11328304558992386
      ],
      [
        0.017618151381611824,
        -0.028803769499063492,
        -0.04653218388557434,
        -0.09899641573429108,
        0.29971444606781006,
        -0.05662611871957779,
        -0.09313955903053284,
        0.6166969537734985,
        0.5473179221153259
      ],
      [
        0.05484791845083237,
        0.010592128150165081,
        -0.03502780199050903,
        -0.06367816776037216,
        0.1224193423986435,
        0.02307356335222721,
        0.018253915011882782,
        -0.009803681634366512,
        0.08417125046253204
      ],
      [
        -0.08365193754434586,
        0.02512921579182148,
        -0.09217458218336105,
        0.038022592663764954,
        -0.0725770890712738,
        -0.06542925536632538,
        0.019996434450149536,
        0.06019553542137146,
        0.05914270877838135
      ],
      [
        0.13852150738239288,
        -0.09252233058214188,
        -0.11237455159425735,
        0.10641834139823914,
        0.2651500105857849,
        0.15269814431667328,
        0.2565245032310486,
        -0.4614071846008301,
        0.3459796607494354
      ],
      [
        0.0012912845704704523,
        0.107707679271698,
        0.06493255496025085,
        0.11016729474067688,
        0.12318985909223557,
        0.07266413420438766,
        0.0340629443526268,
        0.12024880945682526,
        0.12048152834177017
      ],
      [
        -0.049556415528059006,
        0.04287593439221382,
        -0.06753270328044891,
        -0.021066084504127502,
        -0.06423193216323853,
        -0.0970846563577652,
        0.11891813576221466,
        0.08294346928596497,
        -0.07939821481704712
      ],
      [
        -0.022100895643234253,
        -0.09607073664665222,
        -0.10875767469406128,
        -0.11212512850761414,
        0.0166986882686615,
        -0.0521547794342041,
        -0.07056678831577301,
        -0.11675740778446198,
        0.0032138675451278687
      ],
      [
        0.06618833541870117,
        0.00516154058277607,
        0.05204595997929573,
        0.03363948315382004,
        0.09533463418483734,
        0.06877953559160233,
        -0.12247390300035477,
        0.07676857709884644,
        -0.10067003220319748
      ],
      [
        -0.07754688709974289,
        0.0084293307736516,
        0.022384315729141235,
        0.4502565860748291,
        0.7676273584365845,
        -0.2864602208137512,
        0.168812558054924,
        -0.6898584365844727,
        0.3423374891281128
      ],
      [
        0.06158525124192238,
        -0.09358587116003036,
        -0.10110672563314438,
        0.015776021406054497,
        -0.22578570246696472,
        0.09521149098873138,
        0.0036113315727561712,
        0.21161648631095886,
        -0.21506556868553162
      ],
      [
        0.021380946040153503,
        0.053671061992645264,
        0.10743527114391327,
        -0.07548832893371582,
        0.023889631032943726,
        0.024867728352546692,
        -0.06379689276218414,
        -0.04494479298591614,
        0.05098022520542145
      ],
      [
        0.04873842000961304,
        -0.039450421929359436,
        0.08962620794773102,
        -0.10263296961784363,
        -0.04258151352405548,
        0.01397562026977539,
        0.0029956549406051636,
        -0.09778639674186707,
        0.019068390130996704
      ],
      [
        0.029887134209275246,
        0.11173773556947708,
        -0.12142593413591385,
        0.05684554949402809,
        -0.08182840049266815,
        0.11977062374353409,
        -0.09732823073863983,
        -0.5952402949333191,
        -0.7117640972137451
      ],
      [
        -0.12034226953983307,
        -0.027404502034187317,
        -0.10277846455574036,
        0.03191027045249939,
        0.08660507202148438,
        0.022060319781303406,
        0.028256908059120178,
        -0.09165839850902557,
        0.028244689106941223
      ],
      [
        -0.024895356968045235,
        0.09806492924690247,
        -0.05520432069897652,
        0.0956481322646141,
        0.0629604309797287,
        -0.04538804665207863,
        0.03562621399760246,
        0.11609116196632385,
        0.09480784088373184
      ],
      [
        -0.009486883878707886,
        0.10862910747528076,
        0.11227209866046906,
        -0.004629999399185181,
        0.04217538237571716,
        -0.10300561785697937,
        0.054947614669799805,
        -0.08272628486156464,
        0.09426409006118774
      ],
      [
        0.05545816570520401,
        0.02536802925169468,
        0.032124169170856476,
        0.09973260760307312,
        0.06230088695883751,
        0.06767630577087402,
        -0.09556600451469421,
        0.017459211871027946,
        0.06475749611854553
      ],
      [
        0.0016692077042534947,
        0.05407951399683952,
        -0.11190666258335114,
        -0.08672258257865906,
        -0.091621533036232,
        -0.015552199445664883,
        -0.05454955995082855,
        0.005873886868357658,
        -0.06670057773590088
      ],
      [
        0.03287295997142792,
        -0.032711125910282135,
        -0.05310292914509773,
        -0.06529360264539719,
        0.3217211067676544,
        -0.04593391716480255,
        -0.05828182399272919,
        0.16217398643493652,
        0.33048015832901
      ],
      [
        0.08565818518400192,
        -0.10106538236141205,
        -0.1103951632976532,
        -0.003812005277723074,
        0.11450164020061493,
        -0.09360469877719879,
        0.07583995908498764,
        -0.09749183803796768,
        0.06369605660438538
      ],
      [
        0.06682993471622467,
        -0.06552888453006744,
        -0.0554056242108345,
        0.06785303354263306,
        0.20432771742343903,
        0.024933772161602974,
        0.19122977554798126,
        -0.14000993967056274,
        0.044357798993587494
      ],
      [
        0.036140501499176025,
        -0.11615301668643951,
        -0.07075370103120804,
        0.04851793125271797,
        0.28667235374450684,
        0.15457262098789215,
        -0.3733864724636078,
        0.1369248479604721,
        0.5660862326622009
      ],
      [
        0.04803586006164551,
        0.0349857360124588,
        0.11357781291007996,
        0.11128604412078857,
        -0.11125360429286957,
        0.11966966092586517,
        0.08603963255882263,
        -0.04336988925933838,
        0.051956698298454285
      ],
      [
        -0.05108633264899254,
        0.06546811014413834,
        0.08211220055818558,
        -0.05090710520744324,
        0.04302091896533966,
        0.1038845032453537,
        0.06701190769672394,
        0.005658268928527832,
        0.03463594615459442
      ],
      [
        0.09352750331163406,
        -0.012147209607064724,
        -0.08377492427825928,
        -0.08576826751232147,
        -0.014112475328147411,
        -0.028992870822548866,
        -0.07053764164447784,
        0.005786056164652109,
        -0.03879313915967941
      ],
      [
        -0.00955478847026825,
        -0.014360114932060242,
        -0.05974787473678589,
        -0.03524389863014221,
        -0.08451293408870697,
        0.1071050763130188,
        0.0560905784368515,
        -0.011015057563781738,
        -0.08898991346359253
      ],
      [
        0.09425811469554901,
        0.049205124378204346,
        -0.03470764681696892,
        0.2425529658794403,
        -0.19266630709171295,
        -0.13607172667980194,
        0.6838696599006653,
        -0.7174691557884216,
        0.23869168758392334
      ],
      [
        0.08328325301408768,
        0.12027638405561447,
        0.02505144104361534,
        0.03554562106728554,
        -0.058219604194164276,
        0.06792470067739487,
        -0.03331344202160835,
        0.11517282575368881,
        0.017355460673570633
      ],
      [
        0.05972195416688919,
        0.08087459951639175,
        0.040809739381074905,
        -0.09467537701129913,
        -0.07072035223245621,
        0.10075271874666214,
        0.03395939618349075,
        0.10139404237270355,
        -0.08637748658657074
      ],
      [
        0.05145472660660744,
        -0.10782788693904877,
        0.010527640581130981,
        0.2100282907485962,
        0.5562440752983093,
        -0.28221380710601807,
        0.33716660737991333,
        -0.40510886907577515,
        0.30892693996429443
      ],
      [
        0.042559847235679626,
        0.009434744715690613,
        0.04575242102146149,
        -0.09782402217388153,
        -0.023803234100341797,
        0.09968674182891846,
        -0.08821499347686768,
        -0.10920368134975433,
        0.05276583135128021
      ],
      [
        0.03980622813105583,
        0.00015238381456583738,
        0.03212633356451988,
        -0.052984561771154404,
        -0.12220774590969086,
        -0.06432002037763596,
        0.018585016950964928,
        0.07144630700349808,
        -0.07722820341587067
      ],
      [
        0.025297001004219055,
        -0.060679808259010315,
        0.06431229412555695,
        -0.03598640859127045,
        -0.038248732686042786,
        -0.035485029220581055,
        0.04091402888298035,
        -0.0719311386346817,
        0.10694476962089539
      ],
      [
        -0.04941299930214882,
        0.023992041125893593,
        0.06757879257202148,
        0.05222686380147934,
        -0.0991840586066246,
        0.08517026901245117,
        0.13059312105178833,
        -0.21034348011016846,
        -0.4270440638065338
      ],
      [
        0.19536210596561432,
        -0.11251670122146606,
        0.019441114738583565,
        -0.081083282828331,
        0.017268657684326172,
        -0.012248104438185692,
        0.03931109234690666,
        -0.0020969293545931578,
        -0.15738555788993835
      ],
      [
        4.858071042690426e-05,
        -0.10130991041660309,
        0.10421241074800491,
        -0.047254715114831924,
        0.08621443808078766,
        0.0889512300491333,
        -0.0889090821146965,
        -0.024486275389790535,
        -0.04965585470199585
      ],
      [
        0.023137062788009644,
        -0.09681147336959839,
        0.07733704149723053,
        -0.08039093017578125,
        0.0723709911108017,
        0.06585080921649933,
        0.08499407768249512,
        0.01867641508579254,
        -0.11820608377456665
      ],
      [
        0.0902305394411087,
        -0.011527925729751587,
        0.08011205494403839,
        -0.11827105283737183,
        -0.058235615491867065,
        0.11381320655345917,
        0.00837235152721405,
        -0.10274392366409302,
        0.07412807643413544
      ],
      [
        0.19603019952774048,
        0.13639698922634125,
        -0.0380060076713562,
        -0.006459326948970556,
        -0.2510719299316406,
        0.11917562037706375,
        -0.15102770924568176,
        -0.06865254789590836,
        -0.20205062627792358
      ],
      [
        0.07602959871292114,
        -0.0449666827917099,
        0.024132296442985535,
        0.03783595561981201,
        0.04214617609977722,
        -0.014840230345726013,
        -0.0033630281686782837,
        0.06295891106128693,
        0.05856156349182129
      ],
      [
        0.056942954659461975,
        -0.02648065984249115,
        0.0894622951745987,
        -0.046398937702178955,
        0.07273589074611664,
        -0.02522285282611847,
        -0.017759665846824646,
        0.044099360704422,
        0.09977973997592926
      ],
      [
        0.046682994812726974,
        0.05632567033171654,
        0.03463205322623253,
        -0.11129225790500641,
        -0.03210608661174774,
        -0.12122796475887299,
        -0.11711138486862183,
        0.008341503329575062,
        0.11879143118858337
      ],
      [
        -0.0047594159841537476,
        -0.01833660900592804,
        -0.07691042125225067,
        0.044614821672439575,
        0.056604161858558655,
        0.08039727807044983,
        0.07613871991634369,
        -0.12436087429523468,
        0.044446468353271484
      ],
      [
        -0.10212373733520508,
        -0.009531937539577484,
        -0.08614439517259598,
        -0.03379848599433899,
        -0.06934788823127747,
        0.10236401855945587,
        -0.026967644691467285,
        0.03640724718570709,
        0.10131236910820007
      ],
      [
        -0.08788031339645386,
        0.0910753607749939,
        0.10684651136398315,
        -0.08882199227809906,
        -0.06712071597576141,
        0.0005936026573181152,
        0.0631127804517746,
        0.11554981768131256,
        -0.030324891209602356
      ],
      [
        0.10406844317913055,
        0.12423820793628693,
        0.0863981544971466,
        0.022123977541923523,
        -0.10420888662338257,
        -0.0008506029844284058,
        0.09275630116462708,
        0.023068711161613464,
        -0.05756792426109314
      ],
      [
        -0.0489531010389328,
        -0.03606601059436798,
        0.011529281735420227,
        0.009417638182640076,
        -0.031270965933799744,
        0.019560232758522034,
        -0.014489531517028809,
        -0.08247862756252289,
        -0.048086002469062805
      ],
      [
        -0.0448714978992939,
        -0.1743699014186859,
        -0.007355677895247936,
        -0.02713192254304886,
        0.13142286241054535,
        -0.03909996151924133,
        -0.05431259796023369,
        0.06322631984949112,
        -0.013416223227977753
      ],
      [
        0.07714693993330002,
        0.10702673345804214,
        0.015276342630386353,
        0.004766450263559818,
        0.0559450164437294,
        0.07558493316173553,
        0.000880712061189115,
        -0.041200101375579834,
        0.09105012565851212
      ],
      [
        0.04410921037197113,
        0.04525540769100189,
        0.09552499651908875,
        0.10803765058517456,
        -0.10902892053127289,
        -0.0284852534532547,
        -0.08490754663944244,
        -0.05419278144836426,
        -0.06061409413814545
      ],
      [
        0.0878499299287796,
        -0.05899721384048462,
        0.047525495290756226,
        0.027466505765914917,
        0.028821542859077454,
        0.0545143187046051,
        -0.0967177301645279,
        -0.08256690204143524,
        -0.0001644343137741089
      ],
      [
        0.03217928111553192,
        0.06154794991016388,
        0.06413310766220093,
        0.0001765042543411255,
        0.003847762942314148,
        0.09127180278301239,
        0.01585635542869568,
        -0.12388677895069122,
        -0.02975231409072876
      ],
      [
        0.046692561358213425,
        -0.027653736993670464,
        -0.07958472520112991,
        -0.04185757786035538,
        -0.05763670429587364,
        -0.00654554320499301,
        -0.07251383364200592,
        -0.0899268388748169,
        0.023620910942554474
      ],
      [
        0.04202035441994667,
        -0.13872934877872467,
        0.018037110567092896,
        0.22747643291950226,
        0.29760587215423584,
        -0.06972676515579224,
        0.017121119424700737,
        -0.2128966599702835,
        0.21110503375530243
      ],
      [
        -0.032000746577978134,
        0.1169029250741005,
        -0.051154378801584244,
        -0.10585406422615051,
        0.030690113082528114,
        -0.09680594503879547,
        -0.11524458974599838,
        0.08130023628473282,
        -0.11365214735269547
      ],
      [
        -0.01647910289466381,
        -0.09239178895950317,
        -0.020451799035072327,
        0.10537011921405792,
        -0.08772863447666168,
        0.05356161296367645,
        0.06868723034858704,
        -0.05429704859852791,
        -0.014487873762845993
      ],
      [
        0.0381990522146225,
        -0.031518131494522095,
        0.12150600552558899,
        -0.048131585121154785,
        -0.06119094789028168,
        -0.09737804532051086,
        -0.10617148876190186,
        -0.06740313768386841,
        0.025441035628318787
      ],
      [
        0.06442555040121078,
        -0.04354223608970642,
        -0.016744770109653473,
        -0.3185914158821106,
        -0.4499809741973877,
        0.2622106075286865,
        -0.17288388311862946,
        0.540617823600769,
        -0.59029221534729
      ],
      [
        0.11684238910675049,
        0.004535898566246033,
        -0.09396053850650787,
        0.09188097715377808,
        -0.052674517035484314,
        -0.09272697567939758,
        0.03392347693443298,
        -0.03339308500289917,
        -0.08229555189609528
      ],
      [
        -0.05264117196202278,
        0.04394014552235603,
        0.11253854632377625,
        -0.049389924854040146,
        -0.12051565945148468,
        0.10145283490419388,
        -0.03473162651062012,
        -0.18172991275787354,
        -0.6331228017807007
      ],
      [
        0.014131422154605389,
        0.03697339817881584,
        -0.08456773310899734,
        -0.14149928092956543,
        0.04671700298786163,
        0.03054472617805004,
        0.135696679353714,
        0.2767375409603119,
        0.4003894627094269
      ],
      [
        0.05251062288880348,
        -0.08639971166849136,
        0.049296069890260696,
        -0.05696537345647812,
        -0.09544368088245392,
        -0.02049446478486061,
        0.07018754631280899,
        0.18054480850696564,
        0.012159522622823715
      ],
      [
        -0.13344310224056244,
        -0.07428785413503647,
        0.07199150323867798,
        0.3119131326675415,
        0.5373795032501221,
        -0.274860143661499,
        0.42587074637413025,
        -0.5393179655075073,
        0.5729967355728149
      ],
      [
        -0.04818215221166611,
        -0.1244969293475151,
        0.05139997601509094,
        -0.10214634239673615,
        0.07473360002040863,
        0.0488663911819458,
        -0.10408185422420502,
        -0.021338870748877525,
        -0.11375638097524643
      ],
      [
        0.08149994909763336,
        -0.07396426796913147,
        0.01622089184820652,
        0.059804338961839676,
        -0.15315639972686768,
        -0.014088070951402187,
        -0.0985008180141449,
        0.040208809077739716,
        0.012095989659428596
      ],
      [
        -0.040558915585279465,
        -0.12269473075866699,
        -0.004736696369946003,
        -0.0146553386002779,
        0.04301304370164871,
        0.10791724175214767,
        0.09651625901460648,
        0.09762130677700043,
        0.08419724553823471
      ],
      [
        0.04609392583370209,
        0.11464828252792358,
        0.018707439303398132,
        0.09949547052383423,
        -0.07007285952568054,
        0.043616294860839844,
        -0.11240147054195404,
        -0.05640813708305359,
        0.11731597781181335
      ],
      [
        0.04421110451221466,
        0.06669469177722931,
        0.10910727083683014,
        0.026127368211746216,
        -0.02867618203163147,
        0.10389281809329987,
        0.07889674603939056,
        -0.04227910935878754,
        0.0524512380361557
      ],
      [
        -0.08114778995513916,
        0.020333806052803993,
        -0.08855569362640381,
        -0.11989131569862366,
        0.05868785083293915,
        0.07304419577121735,
        -0.10943587124347687,
        -0.11219261586666107,
        -0.01907239854335785
      ],
      [
        0.05546236038208008,
        -0.07709622383117676,
        0.0901307761669159,
        -0.1183270663022995,
        -0.05162039399147034,
        0.0593976229429245,
        -0.0023330897092819214,
        0.050308629870414734,
        0.1075507253408432
      ],
      [
        -0.019591331481933594,
        -0.0862044095993042,
        -0.053904324769973755,
        -0.10115528106689453,
        0.07587131857872009,
        0.052823036909103394,
        0.02050630748271942,
        0.11786647140979767,
        -0.01875530183315277
      ],
      [
        -0.06115706264972687,
        -0.11346596479415894,
        -0.09746755659580231,
        0.10643501579761505,
        -0.057539477944374084,
        0.0876200944185257,
        -0.09594888985157013,
        0.08892980217933655,
        -0.029422074556350708
      ],
      [
        -0.09232235699892044,
        0.0574972964823246,
        0.04936831444501877,
        0.02016543596982956,
        -0.0004511711886152625,
        -0.02644401788711548,
        -0.14007019996643066,
        0.22073452174663544,
        -0.013513942249119282
      ],
      [
        -0.10546664893627167,
        0.01718437299132347,
        0.05721034109592438,
        0.0765928104519844,
        -0.31432947516441345,
        -0.054031334817409515,
        0.270194411277771,
        -0.08857396245002747,
        -0.2639974355697632
      ],
      [
        -0.22014082968235016,
        -0.08268726617097855,
        0.021703576669096947,
        -0.01546794455498457,
        0.17365120351314545,
        -0.1308671534061432,
        0.0927959531545639,
        -0.130179300904274,
        0.3347812294960022
      ],
      [
        -0.04475133866071701,
        0.01404021866619587,
        0.12037648260593414,
        -0.04501476138830185,
        0.02791067771613598,
        -0.06348110735416412,
        -0.12036022543907166,
        0.0732170045375824,
        0.11605146527290344
      ],
      [
        0.006603817921131849,
        -0.0336361825466156,
        -0.09875451773405075,
        -0.07489210367202759,
        0.030073396861553192,
        0.08588911592960358,
        -0.018116826191544533,
        -0.11650508642196655,
        0.056050803512334824
      ],
      [
        -0.09029455482959747,
        -0.09501095116138458,
        0.11645302176475525,
        0.0907846987247467,
        -0.05702058970928192,
        0.05823841691017151,
        0.04648268222808838,
        -0.007737293839454651,
        -0.00252319872379303
      ],
      [
        0.12586186826229095,
        0.0023493189364671707,
        0.008890895172953606,
        -0.0515509694814682,
        0.07053975760936737,
        -0.08406155556440353,
        -0.008570360951125622,
        -0.05365593358874321,
        0.11933909356594086
      ],
      [
        0.02151460200548172,
        -0.1148911640048027,
        0.01723414845764637,
        0.07148368656635284,
        0.6003164649009705,
        -0.2494538128376007,
        0.32726800441741943,
        -0.018528854474425316,
        0.29103511571884155
      ],
      [
        0.013685191981494427,
        -0.02021147310733795,
        -0.10927698016166687,
        -0.002997857518494129,
        0.11337512731552124,
        -0.0875517874956131,
        -0.05283332243561745,
        0.046437811106443405,
        -0.051351651549339294
      ],
      [
        0.07018820941448212,
        -0.0613168329000473,
        0.07868906855583191,
        0.008827641606330872,
        -0.12363556027412415,
        -0.027622535824775696,
        -0.06405752897262573,
        0.006611675024032593,
        -0.10178670287132263
      ],
      [
        -0.10024433583021164,
        -0.03403063490986824,
        0.0769994929432869,
        -0.06422344595193863,
        0.2008017748594284,
        0.00288137374445796,
        -0.49043235182762146,
        0.1713559776544571,
        0.2646331191062927
      ],
      [
        0.10306946933269501,
        0.04248075187206268,
        0.11445336043834686,
        0.014582738280296326,
        0.004696249961853027,
        0.03325524926185608,
        -0.05560486018657684,
        -0.022981807589530945,
        0.10541053116321564
      ],
      [
        -0.0719134584069252,
        -0.08269397169351578,
        0.04656551405787468,
        0.06673635542392731,
        0.1194019615650177,
        -0.18506647646427155,
        0.12962397933006287,
        -0.20917506515979767,
        0.13993220031261444
      ],
      [
        0.0006427522748708725,
        -0.07850104570388794,
        0.07261710613965988,
        -0.03318973258137703,
        -0.22543515264987946,
        -0.040470194071531296,
        0.1161547601222992,
        -0.02728211134672165,
        0.29955676198005676
      ],
      [
        0.015318784862756729,
        0.011805328540503979,
        -0.02830270305275917,
        0.3556118607521057,
        0.810900866985321,
        -0.3648710548877716,
        -0.7524821162223816,
        -0.028507232666015625,
        1.3035889863967896
      ],
      [
        0.10520641505718231,
        0.04444020986557007,
        0.11105921864509583,
        -0.00030040740966796875,
        0.1042492687702179,
        0.06674933433532715,
        0.00924237072467804,
        0.10156606137752533,
        -0.04802505671977997
      ],
      [
        0.020102545619010925,
        0.0955364853143692,
        -0.08627873659133911,
        0.07614403963088989,
        -0.05673222243785858,
        0.1143135279417038,
        0.10628806054592133,
        -0.014527037739753723,
        0.03864845633506775
      ],
      [
        -0.08854591846466064,
        -0.10760684311389923,
        -0.08514298498630524,
        0.09203755855560303,
        -0.06606809794902802,
        0.06474325060844421,
        -0.02637946605682373,
        -0.07514132559299469,
        0.10375769436359406
      ],
      [
        0.1087096706032753,
        -0.1582278162240982,
        0.029319455847144127,
        0.0014104603324085474,
        0.0913219004869461,
        0.07099062949419022,
        -0.02435920387506485,
        0.27198171615600586,
        0.05757296830415726
      ],
      [
        -0.008186295628547668,
        0.09468019008636475,
        0.10094252228736877,
        -0.07255128026008606,
        0.018993526697158813,
        0.009538471698760986,
        -0.0007719099521636963,
        -0.060077279806137085,
        0.12027044594287872
      ],
      [
        0.08120165765285492,
        -0.08168797194957733,
        0.0027112062089145184,
        -0.036000411957502365,
        -0.09974897652864456,
        0.006673000752925873,
        -0.02094263955950737,
        0.03974894434213638,
        0.03228553757071495
      ],
      [
        0.017070861533284187,
        -0.107825368642807,
        0.07097865641117096,
        -0.0590410977602005,
        0.026960184797644615,
        -0.10527215898036957,
        -0.014796815812587738,
        0.038029249757528305,
        0.06378395110368729
      ],
      [
        -0.032365456223487854,
        0.05390435457229614,
        -0.08371351659297943,
        0.027654021978378296,
        0.0817919671535492,
        0.04590378701686859,
        0.042877718806266785,
        0.020162567496299744,
        0.05370017886161804
      ],
      [
        -0.1224006861448288,
        -0.04358425736427307,
        -0.11169745028018951,
        -0.09091998636722565,
        0.04630573093891144,
        0.08837427198886871,
        0.07075510919094086,
        -0.10883596539497375,
        0.038709625601768494
      ],
      [
        -0.12347027659416199,
        0.07471075654029846,
        -0.08990433812141418,
        -0.05571649968624115,
        0.007454857230186462,
        0.04109601676464081,
        0.019690141081809998,
        0.10604029893875122,
        -0.0819745659828186
      ],
      [
        0.01897025853395462,
        -0.06164480745792389,
        -0.03798548877239227,
        0.10398288071155548,
        0.36941829323768616,
        -0.05360860377550125,
        -0.1376969963312149,
        0.4279536306858063,
        0.7545347809791565
      ],
      [
        0.014176890254020691,
        -0.019455254077911377,
        0.11961016058921814,
        -0.07780158519744873,
        0.06958749890327454,
        -0.03967684507369995,
        -0.08728772401809692,
        -0.08474257588386536,
        -0.08913151919841766
      ],
      [
        9.784102439880371e-05,
        -0.02247755229473114,
        0.0896492749452591,
        -0.059263139963150024,
        0.05815829336643219,
        0.11867891252040863,
        0.023685142397880554,
        -0.11358900368213654,
        -0.04688335955142975
      ],
      [
        0.11368443071842194,
        -0.0747978687286377,
        0.01558782160282135,
        0.021743789315223694,
        0.11153209209442139,
        -0.07227593660354614,
        0.09692978858947754,
        -0.08381608128547668,
        0.07279720902442932
      ],
      [
        -0.09552042186260223,
        0.12081319093704224,
        -0.10213655233383179,
        0.05155138671398163,
        -0.0006581544876098633,
        -0.04998256266117096,
        0.019290953874588013,
        -0.11174671351909637,
        0.03178878128528595
      ],
      [
        -0.04068949818611145,
        0.0658954530954361,
        -0.058334559202194214,
        -0.09991994500160217,
        0.08111138641834259,
        0.10482040047645569,
        -0.03257980942726135,
        0.10473920404911041,
        -0.10425242781639099
      ],
      [
        -0.03308786451816559,
        0.01581883430480957,
        -0.03953646123409271,
        0.07651051878929138,
        -0.08725617825984955,
        -0.03039182722568512,
        -0.027669519186019897,
        0.07686182856559753,
        -0.05262035131454468
      ],
      [
        -0.05924136936664581,
        0.058640215545892715,
        0.011668693274259567,
        0.010980292223393917,
        0.11759081482887268,
        0.07171054929494858,
        -0.07390687614679337,
        0.07321134209632874,
        -0.09251229465007782
      ],
      [
        -0.006106913089752197,
        -0.04392607510089874,
        -0.11092093586921692,
        -0.09439685940742493,
        -0.10526697337627411,
        -0.06407111883163452,
        0.007927268743515015,
        0.06362658739089966,
        -0.09390854835510254
      ],
      [
        0.12262506783008575,
        -0.05505414307117462,
        0.10391569137573242,
        -0.07529519498348236,
        0.036826297640800476,
        0.05560353398323059,
        0.11220505833625793,
        -0.06185048818588257,
        -0.02346523106098175
      ],
      [
        -0.1147085577249527,
        0.08048362284898758,
        0.040712546557188034,
        0.027999311685562134,
        0.3264142870903015,
        -0.04033093899488449,
        -0.22894155979156494,
        -0.2256660908460617,
        0.39573103189468384
      ],
      [
        0.03497207164764404,
        0.010687410831451416,
        0.09021003544330597,
        -0.12313613295555115,
        0.005721867084503174,
        0.10506471991539001,
        0.07210814952850342,
        0.0013043880462646484,
        -0.03207017481327057
      ],
      [
        0.05392879247665405,
        0.08466202020645142,
        -0.11110466718673706,
        0.07059700787067413,
        -0.10819901525974274,
        0.09802716970443726,
        0.11183267831802368,
        -0.015058398246765137,
        0.08194354176521301
      ],
      [
        -0.00015471875667572021,
        0.09468883275985718,
        0.06131693720817566,
        0.0627216100692749,
        -0.07436482608318329,
        0.06625108420848846,
        -0.10282528400421143,
        0.11891645193099976,
        0.041643574833869934
      ],
      [
        0.09680669009685516,
        0.03168739378452301,
        0.05655302107334137,
        0.019977331161499023,
        -0.05814100801944733,
        -0.10869766771793365,
        0.07955589890480042,
        -0.042418524622917175,
        0.09367921948432922
      ],
      [
        -0.10071942210197449,
        -0.10540449619293213,
        -0.057741954922676086,
        0.030387237668037415,
        0.10128185153007507,
        0.07098329067230225,
        0.06517291069030762,
        0.12365061044692993,
        -0.10459907352924347
      ],
      [
        0.020432889461517334,
        0.09157423675060272,
        0.05409950017929077,
        -0.05563764274120331,
        0.001606568694114685,
        -0.022102996706962585,
        -0.09534135460853577,
        0.015835225582122803,
        0.09899862110614777
      ],
      [
        0.053562358021736145,
        0.09002989530563354,
        0.10557606816291809,
        -0.10700854659080505,
        -0.03547714650630951,
        -0.011299297213554382,
        0.03223197162151337,
        -0.09719614684581757,
        0.03784039616584778
      ],
      [
        -0.001754184952005744,
        0.03433547914028168,
        -0.04695336893200874,
        -0.0777452141046524,
        -0.05923706665635109,
        -0.12366140633821487,
        -0.03528638184070587,
        -0.008658671751618385,
        -0.0863458439707756
      ],
      [
        -0.09295764565467834,
        -0.0872676819562912,
        -0.07422637939453125,
        -0.09091837704181671,
        -0.007435783743858337,
        -0.03522542119026184,
        0.04888729751110077,
        -0.04934309422969818,
        -0.0928599089384079
      ],
      [
        0.04099215939640999,
        0.04027273505926132,
        -0.0006273301551118493,
        -0.05302850529551506,
        0.22886374592781067,
        0.05098467692732811,
        -0.0286432895809412,
        0.16776441037654877,
        0.22088748216629028
      ],
      [
        0.03103034198284149,
        0.11823329329490662,
        -0.005715593695640564,
        -0.05896556377410889,
        -0.04136316478252411,
        0.04910622537136078,
        -0.07675665616989136,
        0.11920922994613647,
        -0.0016378462314605713
      ],
      [
        -0.017852213233709335,
        -0.11131071299314499,
        0.12778736650943756,
        -0.08424422889947891,
        -0.007898490875959396,
        0.1093968078494072,
        -0.04429977387189865,
        0.031116817146539688,
        -0.055277906358242035
      ],
      [
        0.0945974588394165,
        0.026524052023887634,
        -0.03363480418920517,
        -0.030263105407357216,
        0.3161585032939911,
        -0.016443844884634018,
        -0.18178746104240417,
        0.1396651268005371,
        0.03600167855620384
      ],
      [
        -0.008720236830413342,
        0.044892337173223495,
        -0.05182674154639244,
        0.08880596607923508,
        -0.07665804028511047,
        0.002441451186314225,
        0.09504939615726471,
        0.009464533999562263,
        0.04302797466516495
      ],
      [
        0.08363170921802521,
        0.10523980855941772,
        -0.08794428408145905,
        0.10030229389667511,
        0.10913580656051636,
        0.07110939919948578,
        -0.05802975594997406,
        0.06657399237155914,
        0.03135886788368225
      ],
      [
        0.018720382824540138,
        -0.05814717710018158,
        -0.05480116605758667,
        0.0674414336681366,
        0.04046908766031265,
        -0.009219339117407799,
        0.2081732451915741,
        0.5586815476417542,
        0.700502872467041
      ],
      [
        0.007461893372237682,
        -0.007038541603833437,
        0.012673432938754559,
        -0.15810920298099518,
        -0.3869969844818115,
        0.2803230881690979,
        0.34947454929351807,
        -0.31596308946609497,
        -0.6406735181808472
      ],
      [
        -0.06337975710630417,
        0.09434964507818222,
        0.0781179890036583,
        -0.054491713643074036,
        0.476149320602417,
        0.023118991404771805,
        -0.2279084175825119,
        0.15642449259757996,
        0.5062199831008911
      ],
      [
        0.12235554307699203,
        0.04293240234255791,
        0.006018920335918665,
        -0.0835258811712265,
        0.026537492871284485,
        0.04352806508541107,
        0.10950349271297455,
        0.013383329845964909,
        0.12132447957992554
      ],
      [
        0.059867825359106064,
        -0.11649202555418015,
        0.0020979014225304127,
        0.09408768266439438,
        -0.03479385003447533,
        0.0416269451379776,
        -0.10507691651582718,
        0.04596544802188873,
        -0.05729561299085617
      ],
      [
        0.04149383679032326,
        -0.023714255541563034,
        -0.1087314784526825,
        -0.037157684564590454,
        0.0055561307817697525,
        0.15599916875362396,
        -0.44072678685188293,
        -0.8160740733146667,
        -0.5553087592124939
      ],
      [
        0.009068548679351807,
        -0.02397198975086212,
        0.0274478942155838,
        -0.11095993220806122,
        0.10135750472545624,
        -0.05645392835140228,
        -0.013837426900863647,
        0.024543464183807373,
        0.012787044048309326
      ],
      [
        -0.0703764408826828,
        0.07891669869422913,
        -0.01006412785500288,
        -0.06368578970432281,
        -0.07707326114177704,
        -0.06035161018371582,
        0.041938796639442444,
        -0.009739503264427185,
        -0.000164031982421875
      ],
      [
        0.11118440330028534,
        -0.12046860158443451,
        0.04812406003475189,
        -0.04026530683040619,
        0.050544753670692444,
        0.06989185512065887,
        0.02939365804195404,
        -0.08860331773757935,
        0.04413507878780365
      ],
      [
        -0.09999209642410278,
        0.033521249890327454,
        -0.10076116025447845,
        -0.08443419635295868,
        -0.11513243615627289,
        -0.043272778391838074,
        0.10648311674594879,
        0.07287681102752686,
        0.09705635905265808
      ],
      [
        0.015597090125083923,
        -0.015446722507476807,
        0.10032856464385986,
        -0.07146729528903961,
        -0.08715438842773438,
        0.08379775285720825,
        0.05536659061908722,
        -0.07136040925979614,
        0.07044124603271484
      ],
      [
        -0.09382665157318115,
        0.10489518940448761,
        -0.11075036227703094,
        -0.05958588421344757,
        0.04278552532196045,
        0.1196584403514862,
        0.018325254321098328,
        -0.03038625419139862,
        0.09309084713459015
      ],
      [
        0.034731850028038025,
        0.015946701169013977,
        0.04736758768558502,
        -0.07229113578796387,
        -0.07639308273792267,
        -0.09409235417842865,
        0.05402068793773651,
        -0.054627224802970886,
        -0.022489696741104126
      ],
      [
        0.033670276403427124,
        0.002578222658485174,
        -0.047375332564115524,
        0.11560922861099243,
        0.028686504811048508,
        0.06637097895145416,
        0.06567560881376266,
        -0.09987000375986099,
        -0.024111414328217506
      ],
      [
        -0.045123785734176636,
        -0.014899656176567078,
        -0.05641759932041168,
        -0.07048219442367554,
        -0.039100974798202515,
        -0.00716651976108551,
        0.002709224820137024,
        0.08624935150146484,
        0.11469115316867828
      ],
      [
        -0.1233881264925003,
        0.09683163464069366,
        0.03420272842049599,
        0.019544927403330803,
        -0.14233554899692535,
        0.20728978514671326,
        0.2062058448791504,
        0.005379382520914078,
        -0.35667747259140015
      ],
      [
        -0.08771736919879913,
        0.029300471767783165,
        0.09137432277202606,
        -0.03709293529391289,
        0.09648247063159943,
        0.0945146381855011,
        -0.11282666027545929,
        -0.01879342459142208,
        -0.08198650926351547
      ],
      [
        0.054267168045043945,
        0.10039762407541275,
        -0.03269507735967636,
        -0.006074805743992329,
        0.06479601562023163,
        -0.09478665888309479,
        -0.06331000477075577,
        0.029134560376405716,
        -0.02561388909816742
      ],
      [
        -0.10360690951347351,
        -0.0023923665285110474,
        -0.054817959666252136,
        -0.1060178279876709,
        0.08080790936946869,
        -0.0958225429058075,
        -0.05689844489097595,
        0.013414129614830017,
        0.06528040766716003
      ],
      [
        0.11998775601387024,
        0.07842690497636795,
        -0.009757032617926598,
        -0.10188544541597366,
        -0.05795536935329437,
        0.12017085403203964,
        0.04647698625922203,
        -0.14911863207817078,
        0.049387600272893906
      ],
      [
        0.11046251654624939,
        0.03730010613799095,
        -0.1149463877081871,
        -0.0916706994175911,
        0.10790517181158066,
        0.10354135185480118,
        0.024556007236242294,
        -0.08403952419757843,
        -0.004254558123648167
      ],
      [
        0.037566833198070526,
        -0.08868073672056198,
        -0.0450158528983593,
        -0.0867961123585701,
        0.022731870412826538,
        -0.06040967255830765,
        -0.09290566295385361,
        0.05997844040393829,
        0.053653519600629807
      ],
      [
        0.005666807293891907,
        0.10141780972480774,
        0.04072420299053192,
        0.11971865594387054,
        -0.12288638949394226,
        0.01212814450263977,
        -0.10944816470146179,
        -0.08159063756465912,
        0.0912371575832367
      ],
      [
        -0.041479989886283875,
        -0.024322807788848877,
        -0.06612956523895264,
        -0.11374656856060028,
        0.0844637006521225,
        -0.10911776125431061,
        -0.09268522262573242,
        -0.053813204169273376,
        -0.04525519907474518
      ],
      [
        0.06418222188949585,
        0.0539788119494915,
        -0.08194797486066818,
        -0.031853750348091125,
        0.10718932747840881,
        0.07527154684066772,
        -0.07324863225221634,
        0.07073689997196198,
        0.06057432293891907
      ],
      [
        -0.029443606734275818,
        -0.041455939412117004,
        -0.06532271206378937,
        -0.10941776633262634,
        0.005471527576446533,
        0.062066271901130676,
        0.013055503368377686,
        0.10590977966785431,
        -0.053176164627075195
      ],
      [
        0.02068992145359516,
        0.10869591683149338,
        -0.12490883469581604,
        -0.028923694044351578,
        -0.01985807530581951,
        0.10327831655740738,
        0.08349809795618057,
        0.13814537227153778,
        -0.2958509624004364
      ],
      [
        -0.014171048998832703,
        0.10485178232192993,
        -0.0948956161737442,
        0.0600363165140152,
        -0.032421454787254333,
        0.05405661463737488,
        0.05925042927265167,
        -0.07135598361492157,
        0.007543623447418213
      ],
      [
        9.141862392425537e-05,
        0.022906124591827393,
        0.12044192850589752,
        0.08373917639255524,
        0.09520834684371948,
        -0.03923808038234711,
        0.07575751841068268,
        0.006026506423950195,
        0.07119400799274445
      ],
      [
        0.02090798318386078,
        -0.12177933752536774,
        0.09457400441169739,
        -0.037799760699272156,
        0.022766754031181335,
        0.029636546969413757,
        0.044629812240600586,
        0.05032539367675781,
        0.03034871816635132
      ],
      [
        0.12276427447795868,
        0.09720605611801147,
        -0.11421869695186615,
        0.11455483734607697,
        0.10798288881778717,
        -0.07017488777637482,
        -0.006323322653770447,
        -0.029952064156532288,
        -0.0760590136051178
      ],
      [
        -0.05989590659737587,
        -0.08666923642158508,
        0.07315181940793991,
        0.25996509194374084,
        -0.322377473115921,
        -0.010115147568285465,
        0.7956691980361938,
        -0.28569960594177246,
        -0.4132902920246124
      ],
      [
        0.0863116979598999,
        -0.0009255558252334595,
        0.08714736998081207,
        -0.07148158550262451,
        0.013761460781097412,
        0.025417402386665344,
        0.08187204599380493,
        -0.10725726187229156,
        -0.009001806378364563
      ],
      [
        0.0891299918293953,
        0.06693804264068604,
        -0.10945821553468704,
        -0.4779542088508606,
        -0.34115272760391235,
        0.3614414930343628,
        0.07807892560958862,
        0.5169228315353394,
        -0.2845408618450165
      ],
      [
        0.07445567846298218,
        0.10206764936447144,
        0.04959709942340851,
        0.10059131681919098,
        -0.07012088596820831,
        -0.12315861880779266,
        0.006105974316596985,
        -0.029256552457809448,
        -0.12157003581523895
      ],
      [
        -0.09058808535337448,
        0.093199223279953,
        -0.09445437043905258,
        0.04065509885549545,
        0.09728008508682251,
        -0.0678049772977829,
        0.10235891491174698,
        -0.009378981776535511,
        0.050215765833854675
      ],
      [
        0.09071406722068787,
        -0.01957855373620987,
        -0.1479593962430954,
        0.09175979346036911,
        0.24616341292858124,
        -0.259008526802063,
        -0.28523391485214233,
        -0.04967672377824783,
        1.112755298614502
      ],
      [
        -0.07482700794935226,
        0.005026711616665125,
        -0.06381496042013168,
        -0.010140390135347843,
        -0.1029401421546936,
        -0.008918468840420246,
        -0.09269646555185318,
        0.05854610726237297,
        -0.06714242696762085
      ],
      [
        0.07430917024612427,
        -0.08534190058708191,
        -0.028780005872249603,
        -0.09438194334506989,
        -0.12768428027629852,
        0.150637686252594,
        -0.12386055290699005,
        0.20478925108909607,
        -0.12143310159444809
      ],
      [
        -0.04627436026930809,
        -0.21919402480125427,
        0.03157801553606987,
        -0.24926620721817017,
        0.12258319556713104,
        0.10861089825630188,
        0.2069941759109497,
        0.4826304316520691,
        -0.4959091544151306
      ],
      [
        0.0068870773538947105,
        0.018339503556489944,
        -0.08345749974250793,
        -0.0841020718216896,
        0.06835576146841049,
        -0.10926339775323868,
        0.08923373371362686,
        -0.059971049427986145,
        0.046938180923461914
      ],
      [
        -0.0895981639623642,
        0.10373684763908386,
        0.03437161445617676,
        0.10412313044071198,
        0.08087943494319916,
        0.043194085359573364,
        -0.058713674545288086,
        0.0708087831735611,
        0.11030426621437073
      ],
      [
        -0.08804108947515488,
        0.060103803873062134,
        0.1151430532336235,
        0.019655045121908188,
        0.04789178445935249,
        0.08944424241781235,
        0.03642008453607559,
        -0.12092208117246628,
        -0.0661662369966507
      ],
      [
        0.014930516481399536,
        0.030035197734832764,
        0.08305011689662933,
        0.04075932502746582,
        0.08783158659934998,
        -0.1237758994102478,
        0.08525215089321136,
        -0.04276101291179657,
        -0.04731115698814392
      ],
      [
        -0.03073173016309738,
        0.005980105604976416,
        -0.07346075028181076,
        -0.045059915632009506,
        0.016180751845240593,
        0.04702599719166756,
        0.00180430943146348,
        -0.01048542745411396,
        -0.10231222212314606
      ],
      [
        0.022852463647723198,
        0.003364836797118187,
        -0.04076554626226425,
        -0.014999596402049065,
        0.068581722676754,
        -0.030207348987460136,
        -0.037163931876420975,
        0.06539679318666458,
        -0.012041561305522919
      ],
      [
        0.02193821407854557,
        0.06267856806516647,
        -0.04895271733403206,
        0.23150689899921417,
        0.6653835773468018,
        -0.4614172875881195,
        -0.8236404657363892,
        -0.06460917741060257,
        1.2331244945526123
      ],
      [
        -0.05970683693885803,
        -0.013666003942489624,
        0.10677872598171234,
        -0.05226188898086548,
        -0.06466259062290192,
        0.07997289299964905,
        -0.002976924180984497,
        0.016943737864494324,
        -0.08303545415401459
      ],
      [
        -0.006753922440111637,
        0.33420103788375854,
        0.018392879515886307,
        0.07534436881542206,
        -0.1539701670408249,
        0.2256215214729309,
        0.30098631978034973,
        -0.7801281809806824,
        -1.081859827041626
      ],
      [
        -0.0323638916015625,
        -0.11282195150852203,
        -0.11633245646953583,
        -0.004382714629173279,
        0.032984212040901184,
        -0.09292511641979218,
        0.10207998752593994,
        0.04535406827926636,
        -0.02423296868801117
      ],
      [
        0.003026622114703059,
        0.07414242625236511,
        -0.08577247709035873,
        -0.030276836827397346,
        -0.05611288547515869,
        0.016891712322831154,
        0.0977586880326271,
        -0.056567199528217316,
        -0.12489297240972519
      ],
      [
        0.05376158654689789,
        0.09193913638591766,
        0.11294417083263397,
        0.12265101075172424,
        -0.07578228414058685,
        -0.02690182626247406,
        -0.09553997218608856,
        -0.08112259209156036,
        -0.09133203327655792
      ],
      [
        -0.2296067178249359,
        0.06461048126220703,
        0.0028319305274635553,
        0.05228329822421074,
        0.02959335781633854,
        0.03908677399158478,
        0.029339419677853584,
        -0.17449845373630524,
        0.02102656662464142
      ],
      [
        -0.0795571580529213,
        -0.02552386000752449,
        -0.016433153301477432,
        -0.11221826076507568,
        -0.09558915346860886,
        0.055532779544591904,
        -0.05384885519742966,
        0.04382692649960518,
        -0.1422889083623886
      ],
      [
        -0.08751921355724335,
        0.07518719136714935,
        -0.004269445315003395,
        -0.22367873787879944,
        -0.17993400990962982,
        0.12481153756380081,
        -0.15227507054805756,
        0.27871158719062805,
        -0.25160545110702515
      ],
      [
        -0.005369856953620911,
        -0.06771419942378998,
        -0.06995388865470886,
        -0.09836240112781525,
        0.11412090063095093,
        -0.05709297955036163,
        -0.09206756949424744,
        0.09821294248104095,
        -0.0670289397239685
      ],
      [
        0.07759997993707657,
        -0.1055772602558136,
        -0.09159701317548752,
        -0.0805690586566925,
        0.6199495792388916,
        -0.17143313586711884,
        -0.8234286308288574,
        0.45068398118019104,
        0.8360915184020996
      ],
      [
        -0.0776452049612999,
        0.1020149290561676,
        -0.012317043729126453,
        -0.02249775640666485,
        -0.2584357261657715,
        -0.031821172684431076,
        0.18663695454597473,
        0.359752893447876,
        0.09818007051944733
      ],
      [
        0.033242709934711456,
        -0.0970388725399971,
        0.063200943171978,
        0.13763348758220673,
        -0.01491665281355381,
        -0.014863741584122181,
        -0.07703142613172531,
        -0.06411529332399368,
        0.09910327196121216
      ],
      [
        0.0377638079226017,
        0.11211753636598587,
        -0.1346035748720169,
        -0.16032540798187256,
        -0.023790113627910614,
        0.0893624946475029,
        0.9351800680160522,
        0.5533912777900696,
        0.9092618823051453
      ],
      [
        0.0016298145055770874,
        0.1207703948020935,
        0.0706012099981308,
        0.06986911594867706,
        0.10607162117958069,
        0.12277011573314667,
        0.03802698850631714,
        0.007186427712440491,
        -0.007861003279685974
      ],
      [
        0.0019426769576966763,
        -0.11563153564929962,
        0.03840439394116402,
        0.4735160768032074,
        0.7057539820671082,
        -0.3578873872756958,
        0.18486255407333374,
        -0.44306492805480957,
        1.6881071329116821
      ],
      [
        -0.04957544431090355,
        0.009153414517641068,
        0.1282351315021515,
        -0.08485203981399536,
        -0.4387158453464508,
        0.04929898679256439,
        0.05371584743261337,
        -0.7014499306678772,
        -0.9468367099761963
      ],
      [
        -0.059405844658613205,
        0.004426121711730957,
        -0.07516594231128693,
        0.0324578657746315,
        0.012078295461833477,
        -0.10336408019065857,
        -0.011250831186771393,
        0.08832661807537079,
        -0.11692683398723602
      ],
      [
        0.07435502111911774,
        -0.09217497706413269,
        0.08936815708875656,
        -0.019016295671463013,
        -0.024842945858836174,
        0.03362938389182091,
        0.11864328384399414,
        0.052023936063051224,
        0.09997023642063141
      ],
      [
        0.006934648379683495,
        -0.019596492871642113,
        -0.004474832210689783,
        -0.469591349363327,
        -0.8134739398956299,
        0.5769281387329102,
        -0.19994570314884186,
        0.5357624888420105,
        -1.3188807964324951
      ],
      [
        0.04483574628829956,
        -0.08634203672409058,
        0.013679569587111473,
        -0.0516861155629158,
        -0.09051138162612915,
        0.033093322068452835,
        -0.5089125633239746,
        0.2526579797267914,
        -0.3134443163871765
      ],
      [
        -0.08426308631896973,
        0.178964763879776,
        0.08933992683887482,
        0.22968177497386932,
        0.44451338052749634,
        -0.2755202353000641,
        -0.1262284815311432,
        0.24114546179771423,
        1.289794683456421
      ],
      [
        -0.02802024595439434,
        -0.02912386879324913,
        -0.05090725049376488,
        -0.06262598186731339,
        0.061130136251449585,
        0.10162006318569183,
        -0.006782082375138998,
        0.07043568789958954,
        0.10992911458015442
      ],
      [
        0.049289315938949585,
        0.030532874166965485,
        -0.0846136063337326,
        -0.09980911761522293,
        -0.12553586065769196,
        -0.011263148859143257,
        -0.10032732039690018,
        0.07405518740415573,
        0.0965636596083641
      ],
      [
        -0.1073123961687088,
        -0.0820365697145462,
        -0.030920667573809624,
        0.016159290447831154,
        0.11043334752321243,
        0.053473006933927536,
        0.057941265404224396,
        0.0347839891910553,
        0.09790968149900436
      ],
      [
        0.03871491178870201,
        0.018696840852499008,
        -0.11485704034566879,
        0.0949152261018753,
        0.09954841434955597,
        -0.03827528655529022,
        -0.11357919871807098,
        0.07169139385223389,
        0.11042582988739014
      ],
      [
        -0.0013438451569527388,
        -0.0029563496354967356,
        -0.0003482085303403437,
        0.14132024347782135,
        0.8726853728294373,
        -0.5004668235778809,
        -0.018032314255833626,
        0.7110646963119507,
        1.9933032989501953
      ],
      [
        0.05181378126144409,
        0.061297014355659485,
        0.06343443691730499,
        0.10064728558063507,
        0.1228322833776474,
        -0.06606495380401611,
        -0.0829826146364212,
        0.11660510301589966,
        -0.08956679701805115
      ],
      [
        -0.05081159994006157,
        -0.04514041543006897,
        -0.014009476639330387,
        -0.08372148871421814,
        0.11621323227882385,
        0.0847238153219223,
        0.015136748552322388,
        -0.0006482307217083871,
        0.08651454746723175
      ],
      [
        -0.037727415561676025,
        -0.10750027000904083,
        -0.06870812177658081,
        0.056553542613983154,
        0.08156652748584747,
        0.024303555488586426,
        0.08535563945770264,
        0.043596237897872925,
        -0.10622191429138184
      ],
      [
        -0.035484153777360916,
        -0.07897404581308365,
        0.03545946255326271,
        -0.4164590835571289,
        -0.4392394721508026,
        0.23849521577358246,
        0.13286900520324707,
        0.6301938891410828,
        -0.6068490743637085
      ],
      [
        -0.14973212778568268,
        0.13546308875083923,
        0.025422733277082443,
        0.0415167510509491,
        0.5297755599021912,
        -0.23872815072536469,
        0.36224520206451416,
        -0.22173817455768585,
        0.14293508231639862
      ],
      [
        -0.04679886996746063,
        0.14708144962787628,
        0.004213009495288134,
        0.050242677330970764,
        0.09751970320940018,
        0.04351022467017174,
        -0.13024772703647614,
        -0.11312355101108551,
        -0.19276277720928192
      ],
      [
        0.017830759286880493,
        0.045062437653541565,
        0.08005882799625397,
        -0.08243124186992645,
        -0.09178800880908966,
        0.06437718868255615,
        -0.02163223922252655,
        0.08305494487285614,
        0.11265426874160767
      ],
      [
        -0.013735945336520672,
        0.024287641048431396,
        -0.06960725784301758,
        -0.08039578050374985,
        -0.009991150349378586,
        0.09194091707468033,
        0.0632849708199501,
        0.051833026111125946,
        -0.06455407291650772
      ],
      [
        -0.016431614756584167,
        -0.1440848559141159,
        0.07007963955402374,
        -0.011746988631784916,
        0.13655985891819,
        -0.051647234708070755,
        -0.46144944429397583,
        -0.14672042429447174,
        -0.5540130138397217
      ],
      [
        -0.05362941324710846,
        -0.018055632710456848,
        0.023711904883384705,
        -0.015570327639579773,
        -0.05436716973781586,
        0.054315656423568726,
        0.06521756947040558,
        -0.061424970626831055,
        -0.06990613043308258
      ],
      [
        -0.13201259076595306,
        -0.11994411051273346,
        0.05275429040193558,
        -0.10839027911424637,
        -0.07280077785253525,
        0.1293656975030899,
        -0.1133861318230629,
        -0.031141208484768867,
        -0.02860485389828682
      ],
      [
        -0.1294616162776947,
        -0.059120990335941315,
        0.09966724365949631,
        0.178330197930336,
        0.26273226737976074,
        -0.17075152695178986,
        -0.37827304005622864,
        0.12809795141220093,
        0.3658171594142914
      ],
      [
        -0.016822433099150658,
        0.07471180707216263,
        -0.009469044394791126,
        0.04767809808254242,
        -0.048539187759160995,
        0.05522873252630234,
        0.08186985552310944,
        0.340950608253479,
        -0.3570099472999573
      ],
      [
        -0.12200649827718735,
        -0.014372242614626884,
        0.02711564674973488,
        0.036180004477500916,
        -0.0873241126537323,
        -0.042679429054260254,
        -0.003253593808040023,
        0.039396703243255615,
        -0.012943997979164124
      ],
      [
        -0.05289076268672943,
        0.08387487381696701,
        0.048551395535469055,
        0.05268849432468414,
        0.12002745270729065,
        -0.011445976793766022,
        -0.09420209378004074,
        0.09584157913923264,
        0.2258133590221405
      ],
      [
        -0.053329356014728546,
        -0.1346626579761505,
        -0.020396744832396507,
        -0.05620884895324707,
        0.038480598479509354,
        0.04224216192960739,
        -0.020991936326026917,
        -0.07214084267616272,
        0.04219333827495575
      ],
      [
        -0.07086428254842758,
        -0.2069535106420517,
        0.04135516658425331,
        0.22904156148433685,
        0.29014766216278076,
        -0.3575771152973175,
        0.49916544556617737,
        0.07455571740865707,
        0.30287209153175354
      ],
      [
        0.029206084087491035,
        0.04146821051836014,
        0.040690287947654724,
        0.07067114114761353,
        0.07881749421358109,
        -0.003363379742950201,
        0.07975339889526367,
        -0.09751523286104202,
        0.07254757732152939
      ],
      [
        0.06666480749845505,
        -0.06759210675954819,
        -0.018793737515807152,
        0.16344237327575684,
        0.25642675161361694,
        -0.2327878773212433,
        0.15461231768131256,
        -0.3277953565120697,
        0.5307595729827881
      ],
      [
        -0.035320911556482315,
        0.1218850314617157,
        -0.10623516142368317,
        0.0854414775967598,
        0.03883777931332588,
        -0.0714518204331398,
        0.012080049142241478,
        0.050861675292253494,
        -0.04842783138155937
      ],
      [
        -0.019793834537267685,
        -0.0985925942659378,
        -0.04746880382299423,
        -0.08374723047018051,
        0.0030919986311346292,
        -0.014469357207417488,
        -0.08652681857347488,
        0.02874455600976944,
        -0.061136625707149506
      ],
      [
        -0.04809148609638214,
        0.057824283838272095,
        -0.10692775249481201,
        -0.11370849609375,
        -0.08089274168014526,
        0.049813106656074524,
        0.07661648094654083,
        -0.08708010613918304,
        -0.03914381563663483
      ],
      [
        0.09312980622053146,
        0.0841841846704483,
        -0.12348827719688416,
        0.25234684348106384,
        0.5522693991661072,
        -0.44793978333473206,
        -0.48926085233688354,
        -0.2803153395652771,
        0.5946742296218872
      ],
      [
        -0.13267724215984344,
        0.0767233744263649,
        0.02394242212176323,
        0.13934142887592316,
        0.4436691403388977,
        -0.11024737358093262,
        0.11981357634067535,
        -0.15671324729919434,
        0.42447182536125183
      ]
    ],
    "lstm.weight_hh_l0": [
      [
        0.0697031244635582,
        0.04953601211309433,
        -0.11967049539089203,
        0.059425126761198044,
        -0.11957249045372009,
        -0.012600707821547985,
        -0.239349827170372,
        0.04520222172141075,
        0.02399095892906189,
        0.11398741602897644,
        0.11340069025754929,
        -0.0679716020822525,
        0.07896741479635239,
        0.15191371738910675,
        -0.09960588812828064,
        -0.13607707619667053,
        0.06835450232028961,
        0.02968747168779373,
        0.017897874116897583,
        -0.1302361786365509,
        -0.09364163130521774,
        -0.1374506652355194,
        0.0016932934522628784,
        -0.07747110724449158,
        -0.054310090839862823,
        -0.2592163383960724,
        0.15158994495868683,
        -0.13626940548419952,
        -0.08316175639629364,
        0.09382309764623642,
        0.05797736346721649,
        -0.009782567620277405,
        0.1388869434595108,
        0.1462375372648239,
        0.10575155168771744,
        0.03627248480916023,
        0.060052964836359024,
        -0.10653521865606308,
        0.0684497058391571,
        -0.36427733302116394,
        0.06429596990346909,
        0.0925135463476181,
        0.022580087184906006,
        -0.16260206699371338,
        0.13863198459148407,
        0.0355776809155941,
        -0.07985612750053406,
        0.08857135474681854,
        0.17252866923809052,
        0.07687368988990784,
        0.019979650154709816,
        0.009487016126513481,
        -0.1454373151063919,
        -0.019119367003440857,
        0.31563669443130493,
        0.0589335560798645,
        -0.3345789909362793,
        0.11845014244318008,
        0.037141893059015274,
        -0.056532829999923706,
        0.013388012535870075,
        0.08976881206035614,
        0.08408914506435394,
        -0.14215292036533356
      ],
      [
        -0.021284203976392746,
        -0.20464988052845,
        -0.035048600286245346,
        0.05667005479335785,
        0.005060216877609491,
        -0.05206594988703728,
        -0.2613901197910309,
        -0.08299538493156433,
        -0.10020013153553009,
        0.048463962972164154,
        0.022902101278305054,
        0.024109870195388794,
        -0.08155085146427155,
        -0.06855981796979904,
        -0.013823732733726501,
        -0.16434378921985626,
        -0.02160598337650299,
        -0.03076748736202717,
        -0.03460186719894409,
        -0.2697703242301941,
        -0.1131739616394043,
        0.03010517917573452,
        0.07060454785823822,
        -0.10554542392492294,
        0.05066380277276039,
        -0.1806672066450119,
        0.07444215565919876,
        0.03965790942311287,
        -0.06933900713920593,
        -0.023063918575644493,
        -0.12418676912784576,
        -0.06317976117134094,
        -0.22261881828308105,
        0.07658666372299194,
        -0.09857198596000671,
        0.04760151728987694,
        -0.12503652274608612,
        0.008421674370765686,
        0.0693054050207138,
        -0.07424504309892654,
        -0.09122356027364731,
        -0.08165353536605835,
        -0.08076295256614685,
        -0.08988438546657562,
        0.048677779734134674,
        0.2864806652069092,
        -0.18442325294017792,
        0.07183810323476791,
        0.06011433154344559,
        -0.1109876036643982,
        -0.11492537707090378,
        0.0032764337956905365,
        -0.19106720387935638,
        -0.0406641811132431,
        0.13911215960979462,
        -0.11860156804323196,
        0.00066091661574319,
        0.15456990897655487,
        -0.11916963756084442,
        -0.098172128200531,
        -0.026695847511291504,
        -0.026676446199417114,
        -0.007672865409404039,
        -0.17245973646640778
      ],
      [
        -0.094236359000206,
        -0.05758184194564819,
        -0.07997161149978638,
        -0.06305000185966492,
        -0.08122850954532623,
        -0.10828940570354462,
        -0.10006187856197357,
        0.04581931233406067,
        0.11092033982276917,
        -0.10385154187679291,
        -0.00464580999687314,
        0.018669620156288147,
        0.12115977704524994,
        0.044014111161231995,
        -0.10067929327487946,
        -0.04206922650337219,
        -0.08499813079833984,
        0.03416113555431366,
        -0.09757091104984283,
        -0.016040831804275513,
        -0.12407545745372772,
        0.010161921381950378,
        0.08700139820575714,
        -0.08846345543861389,
        -0.0008965586894191802,
        0.08426715433597565,
        -0.01082681119441986,
        -0.010829344391822815,
        0.10757099092006683,
        0.09619136154651642,
        -0.10893149673938751,
        -0.08506321907043457,
        -0.09137818217277527,
        0.07141952216625214,
        -0.06861220300197601,
        0.09790731966495514,
        -0.007406547665596008,
        0.10423316061496735,
        -0.08634340763092041,
        -0.0630117654800415,
        0.008257627487182617,
        -0.03195992112159729,
        0.09508785605430603,
        0.09428340196609497,
        -0.010907500982284546,
        0.07268045842647552,
        0.08918733894824982,
        -0.08488719165325165,
        -0.08466266095638275,
        -0.06824652850627899,
        -0.11352995038032532,
        -0.1110573410987854,
        0.08246999979019165,
        0.024663925170898438,
        -0.021558940410614014,
        -0.01471082866191864,
        -0.04244565963745117,
        0.05979853868484497,
        -0.12314973771572113,
        -0.06868304312229156,
        -0.08439014852046967,
        -0.05119428038597107,
        0.06400790810585022,
        -0.12286509573459625
      ],
      [
        -0.08237213641405106,
        -0.10240078717470169,
        0.06360192596912384,
        0.08968145400285721,
        -0.04869396984577179,
        -0.09862588346004486,
        -0.08726641535758972,
        -0.03968800604343414,
        -0.10963036119937897,
        0.015825046226382256,
        0.005827648565173149,
        0.03919091820716858,
        0.006956097669899464,
        -0.023466115817427635,
        -0.03664369881153107,
        0.0193489883095026,
        0.08668167889118195,
        -0.01808863878250122,
        -0.10267975926399231,
        0.05625136196613312,
        -0.017815440893173218,
        0.03948725387454033,
        -0.10408259928226471,
        -0.056615132838487625,
        0.08165992051362991,
        -0.10584638267755508,
        0.042734019458293915,
        -0.050300344824790955,
        0.036008648574352264,
        0.06172008439898491,
        0.0641009509563446,
        -0.08042723685503006,
        0.09563183039426804,
        0.11904923617839813,
        0.035705599933862686,
        0.013533607125282288,
        0.03462020680308342,
        0.1088225394487381,
        -0.031194016337394714,
        -0.1232600137591362,
        -0.053097203373909,
        0.062409043312072754,
        -0.11642427742481232,
        0.037332188338041306,
        0.0197890792042017,
        0.06298477202653885,
        -0.002023938111960888,
        0.12177933752536774,
        -0.03838352859020233,
        -0.11256484687328339,
        -0.025031261146068573,
        -0.11252741515636444,
        -0.04330507293343544,
        -0.08965645730495453,
        -0.03527536615729332,
        0.047635406255722046,
        0.05432102829217911,
        0.07689586281776428,
        0.03352518379688263,
        0.014863386750221252,
        0.11225597560405731,
        0.056333377957344055,
        -0.05001940205693245,
        0.03664880245923996
      ],
      [
        0.002484917640686035,
        0.0770510584115982,
        -0.09660941362380981,
        0.0014271140098571777,
        0.10005144774913788,
        0.11058269441127777,
        0.01522858440876007,
        -0.11690762639045715,
        0.024128764867782593,
        -0.11095519363880157,
        0.10146938264369965,
        0.0603301078081131,
        -0.11237084865570068,
        -0.00662115216255188,
        -0.05875542759895325,
        0.07101482152938843,
        -0.06345188617706299,
        0.06285946071147919,
        0.10908299684524536,
        -0.08530394732952118,
        -0.11383290588855743,
        0.0704595148563385,
        0.11454810202121735,
        0.1046106219291687,
        0.040137529373168945,
        0.06116826832294464,
        -0.052733272314071655,
        -0.0813303142786026,
        0.08983112871646881,
        -0.03038528561592102,
        -0.007427722215652466,
        -0.10255777835845947,
        0.044595032930374146,
        0.030252903699874878,
        -0.008384570479393005,
        0.10931822657585144,
        -0.05656793713569641,
        0.012940675020217896,
        0.03286656737327576,
        0.0963127613067627,
        -0.04027236998081207,
        0.03666958212852478,
        -0.06652754545211792,
        0.05958782136440277,
        -0.10151755809783936,
        -0.054525867104530334,
        0.11009421944618225,
        0.03744833171367645,
        0.03185853362083435,
        -0.11224700510501862,
        0.10807746648788452,
        -0.06119424104690552,
        0.0018123388290405273,
        0.0462053120136261,
        0.10149332880973816,
        0.05540543794631958,
        -0.0669567734003067,
        0.10581448674201965,
        -0.11003275215625763,
        -0.009076803922653198,
        0.10291503369808197,
        -0.0993785709142685,
        0.11606518924236298,
        0.11451110243797302
      ],
      [
        -0.02794823981821537,
        0.045598484575748444,
        0.056477755308151245,
        -0.012704060412943363,
        0.08205734938383102,
        -0.05717742443084717,
        0.005792694166302681,
        -0.002474720822647214,
        -0.09059824049472809,
        -0.00485534593462944,
        -0.05775415897369385,
        -0.014345959760248661,
        -0.09662692248821259,
        -0.012322310358285904,
        0.04648149013519287,
        -0.07150660455226898,
        0.06808780133724213,
        -0.060680512338876724,
        -0.08514878153800964,
        0.10926087945699692,
        -0.010331904515624046,
        0.07429920881986618,
        0.06524181365966797,
        -0.010641134344041348,
        -0.18921683728694916,
        0.29663145542144775,
        0.0035182556603103876,
        0.11702263355255127,
        0.05666588991880417,
        -0.29746732115745544,
        0.11139705777168274,
        -0.012541752308607101,
        0.1653524935245514,
        -0.11341627687215805,
        -0.21338090300559998,
        0.0694359838962555,
        -0.18605628609657288,
        0.11360836029052734,
        0.0026051700115203857,
        -0.10363764315843582,
        0.03915604203939438,
        -0.08365777134895325,
        -0.1175289899110794,
        0.17456786334514618,
        -0.2009410262107849,
        0.39854174852371216,
        -0.04541492834687233,
        -0.0965026393532753,
        -0.14404325187206268,
        0.05446045100688934,
        -0.012431558221578598,
        -0.1223936378955841,
        -0.02664816565811634,
        0.05929560959339142,
        0.05168842151761055,
        -0.08210871368646622,
        0.17723730206489563,
        0.023241737857460976,
        0.09983273595571518,
        0.11420781910419464,
        0.03563079237937927,
        -0.11154977977275848,
        0.004297016654163599,
        -0.008076857775449753
      ],
      [
        -0.17200402915477753,
        -0.1225009486079216,
        0.07782956957817078,
        0.15736010670661926,
        0.0790458470582962,
        0.014855634421110153,
        -0.10290026664733887,
        -0.03973120450973511,
        0.0360003262758255,
        0.07344122976064682,
        -0.007909918203949928,
        0.11593049764633179,
        -0.0430326983332634,
        0.11641684174537659,
        0.11398942768573761,
        0.12685422599315643,
        -0.12024763226509094,
        -0.06416518986225128,
        -0.09654693305492401,
        -0.036017850041389465,
        0.10118451714515686,
        0.02005075477063656,
        0.08278881013393402,
        -0.12261350452899933,
        -0.12091050297021866,
        -0.1048232764005661,
        -0.12755881249904633,
        -0.03280331939458847,
        0.06886877864599228,
        0.062340058386325836,
        -0.025457188487052917,
        -0.029547687619924545,
        0.09522842615842819,
        0.12345273047685623,
        0.11594271659851074,
        0.020070256665349007,
        -0.07587765157222748,
        -0.008156180381774902,
        -0.0792149007320404,
        -0.08856970071792603,
        0.09285541623830795,
        -0.03898040950298309,
        0.04407136142253876,
        -0.001751133007928729,
        -0.1239575445652008,
        0.10902711004018784,
        -0.04808846488595009,
        -0.007694080471992493,
        -0.0845513716340065,
        0.10633927583694458,
        -0.11745034903287888,
        -0.12371167540550232,
        0.08514504134654999,
        0.08428075909614563,
        -0.09067050367593765,
        -0.052208248525857925,
        0.03562914952635765,
        0.059691108763217926,
        0.06585896015167236,
        0.03378450870513916,
        -0.05113606154918671,
        0.039028480648994446,
        0.15291936695575714,
        -0.033255722373723984
      ],
      [
        0.02940661832690239,
        0.12114384770393372,
        -0.062223732471466064,
        0.09455554187297821,
        -0.08135676383972168,
        0.023023534566164017,
        0.06116858497262001,
        0.033499736338853836,
        -0.08925479650497437,
        0.06269504874944687,
        0.027307521551847458,
        -0.08385288715362549,
        -0.043554916977882385,
        -0.09334404766559601,
        0.0071149468421936035,
        0.0873967632651329,
        0.03765550255775452,
        -0.08657681941986084,
        0.037588998675346375,
        -0.06326960772275925,
        -0.07763630151748657,
        -0.07990166544914246,
        0.11727969348430634,
        0.08270180970430374,
        0.09842456877231598,
        0.11221126466989517,
        0.0946483388543129,
        0.10262572765350342,
        0.02637466788291931,
        -0.11875147372484207,
        0.024614736437797546,
        -0.03763190284371376,
        0.06949452310800552,
        0.05144757404923439,
        0.018219010904431343,
        -0.0780118852853775,
        -0.04336497560143471,
        -0.017833516001701355,
        -0.1182706356048584,
        0.06683240085840225,
        -0.05427001789212227,
        0.026671230792999268,
        -0.021785572171211243,
        -0.10170848667621613,
        -0.007746480870991945,
        0.10343945026397705,
        0.06094243377447128,
        0.027445971965789795,
        -0.024547869339585304,
        -0.04560963809490204,
        -0.11476835608482361,
        0.006585325580090284,
        0.12683917582035065,
        0.0932445377111435,
        -0.029089216142892838,
        -0.0995604395866394,
        -0.08834177255630493,
        -0.02942466549575329,
        0.07496511191129684,
        -0.003789663314819336,
        -0.11141282320022583,
        0.09130552411079407,
        -0.03239773213863373,
        0.10465888679027557
      ],
      [
        0.11017127335071564,
        0.035085529088974,
        -0.01037546992301941,
        0.11138784885406494,
        -0.08146965503692627,
        -0.1167498379945755,
        0.07877077162265778,
        0.11470718681812286,
        0.1198926717042923,
        0.03740169107913971,
        0.12345540523529053,
        -0.04009038209915161,
        0.01442025601863861,
        -0.02682049572467804,
        -0.10995431244373322,
        -0.0722733736038208,
        0.04019215703010559,
        -0.021650642156600952,
        0.0001100003719329834,
        0.040856823325157166,
        0.11919896304607391,
        -0.058671340346336365,
        -0.0267401784658432,
        0.07712662220001221,
        -0.04834538698196411,
        0.08564083278179169,
        -0.0847277045249939,
        0.10727356374263763,
        0.09294793009757996,
        7.870793342590332e-05,
        0.03702510893344879,
        0.12207387387752533,
        0.02259710431098938,
        0.01958543062210083,
        0.06472809612751007,
        -0.11095510423183441,
        0.12028314173221588,
        0.06680144369602203,
        -0.004814609885215759,
        0.01871258020401001,
        -0.07479870319366455,
        0.07228779792785645,
        -0.04032708704471588,
        -0.04756113886833191,
        -0.09339818358421326,
        0.054971843957901,
        0.09512880444526672,
        0.12081536650657654,
        -0.11152000725269318,
        -0.00923629105091095,
        -0.07810893654823303,
        -0.017042353749275208,
        0.0024764984846115112,
        -0.09754182398319244,
        -0.09879283607006073,
        -0.10594673454761505,
        -0.10936032235622406,
        0.06278006732463837,
        0.04745885729789734,
        -0.03146304190158844,
        -0.048527419567108154,
        0.06773175299167633,
        -0.12288238108158112,
        0.008104562759399414
      ],
      [
        0.19974830746650696,
        0.24093389511108398,
        -0.11465049535036087,
        -0.2118453085422516,
        0.02360839582979679,
        -0.05344460904598236,
        0.10351647436618805,
        0.07524269819259644,
        -0.10687956213951111,
        -0.018484631553292274,
        -0.01701502688229084,
        0.060626834630966187,
        -0.06842390447854996,
        -0.17519930005073547,
        -0.11812275648117065,
        -0.10414667427539825,
        -0.084292933344841,
        -0.11038897931575775,
        0.08921311795711517,
        0.12715868651866913,
        0.022369369864463806,
        -0.009643081575632095,
        -0.0012541413307189941,
        0.03150591254234314,
        0.20999722182750702,
        0.42861267924308777,
        0.3158223032951355,
        -0.00977520365267992,
        0.011733893305063248,
        -0.04682391136884689,
        -0.09309341013431549,
        -0.0022335161920636892,
        -0.09754416346549988,
        -0.26211896538734436,
        -0.022178390994668007,
        -0.0703745111823082,
        0.07371430099010468,
        -0.08280414342880249,
        0.016197815537452698,
        -0.004447142127901316,
        -0.21590173244476318,
        -0.04437717795372009,
        -0.005848526954650879,
        0.005873298272490501,
        -0.052432529628276825,
        0.1009596586227417,
        -0.07040679454803467,
        -0.05031639337539673,
        0.1674841046333313,
        0.06808394193649292,
        0.12240355461835861,
        -0.00788247212767601,
        -0.001236274023540318,
        0.0570298433303833,
        0.04251546040177345,
        -0.06485907733440399,
        -0.027837485074996948,
        -0.041642382740974426,
        -0.27342554926872253,
        -0.044793371111154556,
        0.07464037835597992,
        -0.09984603524208069,
        -0.09296208620071411,
        0.00831921212375164
      ],
      [
        -0.06022246181964874,
        0.09214092791080475,
        -0.12294153869152069,
        -0.0875203013420105,
        -0.08287565410137177,
        0.10733963549137115,
        0.08940373361110687,
        -0.11649106442928314,
        0.015998467803001404,
        -0.10752834379673004,
        -0.11170412600040436,
        -0.09829071164131165,
        -0.08598358929157257,
        0.09983518719673157,
        0.10120753943920135,
        -0.013063222169876099,
        0.1222647875547409,
        0.05390004813671112,
        -0.08200977742671967,
        0.01097021996974945,
        0.08679632842540741,
        0.021489635109901428,
        -0.055933862924575806,
        -0.12122082710266113,
        0.059455230832099915,
        -0.0016024410724639893,
        0.11851011216640472,
        0.05978628993034363,
        0.03316560387611389,
        0.07253514230251312,
        -0.0092172771692276,
        0.038551315665245056,
        0.11771401762962341,
        0.08162246644496918,
        0.03345409035682678,
        0.08837674558162689,
        0.003760799765586853,
        0.0037719756364822388,
        -0.060419559478759766,
        0.11784549057483673,
        -0.031625181436538696,
        -0.0036298781633377075,
        0.09115675091743469,
        -0.10440172255039215,
        -0.09068340063095093,
        0.011916428804397583,
        -0.028504639863967896,
        -0.030047670006752014,
        -0.10380229353904724,
        0.0791316032409668,
        0.1052500307559967,
        0.05560736358165741,
        0.017584800720214844,
        -0.06774148344993591,
        -0.06672555208206177,
        0.03407911956310272,
        -0.00721190869808197,
        -0.10966381430625916,
        -0.0690860003232956,
        -0.09493641555309296,
        0.055266112089157104,
        -0.014287382364273071,
        0.03241577744483948,
        0.019159257411956787
      ],
      [
        -0.004573613405227661,
        0.08839230239391327,
        0.1203441470861435,
        -0.076728954911232,
        -0.06205710768699646,
        -0.05323542654514313,
        -0.12035290896892548,
        -0.049655213952064514,
        -0.10866224765777588,
        0.07716886699199677,
        0.08202797174453735,
        -0.019540637731552124,
        0.08583371341228485,
        -0.1144227385520935,
        0.012992814183235168,
        -0.10889856517314911,
        0.04060238599777222,
        0.0013639628887176514,
        -0.027324646711349487,
        0.0718366950750351,
        0.1240057647228241,
        0.007795438170433044,
        -0.040179893374443054,
        -0.07773810625076294,
        0.04715399444103241,
        0.10899627208709717,
        0.018836170434951782,
        0.1138194352388382,
        -0.07848455011844635,
        0.10203543305397034,
        0.00328180193901062,
        0.014160886406898499,
        -0.12034109234809875,
        0.12412981688976288,
        -0.10213872790336609,
        0.0926358699798584,
        0.04715205729007721,
        -0.02678711712360382,
        -0.021841391921043396,
        -0.07385848462581635,
        0.032613605260849,
        -0.06596916913986206,
        0.05184824764728546,
        -0.03991450369358063,
        0.12165601551532745,
        0.04114796221256256,
        -0.06417983770370483,
        0.07791884243488312,
        0.08116167783737183,
        -0.05127476155757904,
        0.047546833753585815,
        -0.10580648481845856,
        -0.057209357619285583,
        0.08638420701026917,
        -0.024470925331115723,
        -0.05654910206794739,
        0.11906510591506958,
        0.017519742250442505,
        -0.08779644966125488,
        -0.10744175314903259,
        0.08286385238170624,
        -0.11803652346134186,
        -0.09022854268550873,
        -0.09671732783317566
      ],
      [
        -0.08019696921110153,
        -0.08464613556861877,
        -0.060785502195358276,
        0.04968694970011711,
        -0.01112358272075653,
        0.09323700517416,
        -0.03620094433426857,
        -0.10973674058914185,
        -0.07780006527900696,
        -0.03344070538878441,
        0.09141618758440018,
        0.11462162435054779,
        0.023374127224087715,
        -0.11948057264089584,
        0.04637680947780609,
        -0.03209472447633743,
        0.0968673974275589,
        -0.08083218336105347,
        -0.08431091904640198,
        0.012727968394756317,
        -0.053014688193798065,
        -0.10405124723911285,
        -0.0823831558227539,
        -0.11115282028913498,
        -0.08358491212129593,
        0.028534546494483948,
        -0.04183982312679291,
        -0.02862761914730072,
        -0.0637340098619461,
        0.02880018949508667,
        0.0019186437129974365,
        0.05180040001869202,
        0.046396654099226,
        -0.07006428390741348,
        -0.029088236391544342,
        -0.09446243941783905,
        -0.02586294524371624,
        0.12440483272075653,
        -0.03646570444107056,
        -0.0709424763917923,
        -0.008566363714635372,
        0.11615137755870819,
        -0.04901960492134094,
        -0.03871981427073479,
        0.08804553002119064,
        -0.059676699340343475,
        0.08263224363327026,
        -0.03480890393257141,
        -0.0021437648683786392,
        0.07923266291618347,
        -0.026791872456669807,
        -0.08699255436658859,
        -0.05382421612739563,
        -0.11054039001464844,
        0.007278633303940296,
        -0.06397826969623566,
        -0.09130676835775375,
        0.004357251338660717,
        -0.052907366305589676,
        -0.05379268527030945,
        -0.12268234044313431,
        0.06224741041660309,
        -0.118085116147995,
        0.009824561886489391
      ],
      [
        -0.07086710631847382,
        0.06817691028118134,
        -0.12105530500411987,
        -0.05530865490436554,
        0.09847541153430939,
        -0.12094128131866455,
        0.009783431887626648,
        0.08293834328651428,
        -0.09328268468379974,
        0.10348838567733765,
        0.07953645288944244,
        -0.0420563668012619,
        0.05954204499721527,
        0.11496764421463013,
        -0.052025631070137024,
        -0.046990081667900085,
        0.02708977460861206,
        0.026868730783462524,
        -0.02409757673740387,
        -0.06212875247001648,
        -0.0071248859167099,
        -0.10030199587345123,
        -0.044059962034225464,
        -0.05791662633419037,
        -0.1106971800327301,
        -0.10892230272293091,
        -0.04504106938838959,
        0.056949615478515625,
        -0.08995018899440765,
        0.0173284113407135,
        0.09464609622955322,
        0.08852674067020416,
        0.10482269525527954,
        -0.030321091413497925,
        -0.08839654922485352,
        0.04518193006515503,
        -0.016070902347564697,
        0.05266362428665161,
        -0.10167199373245239,
        -0.0697484016418457,
        0.06394597887992859,
        0.046859756112098694,
        0.0032217204570770264,
        -0.06802824139595032,
        0.000987023115158081,
        0.03652277588844299,
        -0.11030308902263641,
        -0.043525293469429016,
        0.11244180798530579,
        -0.07501097023487091,
        -0.08664028346538544,
        -0.04675297439098358,
        -0.12285277247428894,
        -0.0845920741558075,
        -0.11734195053577423,
        0.0027007609605789185,
        -0.07912817597389221,
        0.06867195665836334,
        0.030716747045516968,
        0.09624801576137543,
        0.11604028940200806,
        -0.08205503225326538,
        -0.12451258301734924,
        0.09519912302494049
      ],
      [
        -0.02140936255455017,
        -0.015396226197481155,
        0.12348327040672302,
        0.06759203970432281,
        0.04866628348827362,
        0.06621265411376953,
        -0.01033511757850647,
        -0.06562036275863647,
        0.014321491122245789,
        -0.043525099754333496,
        0.11126191914081573,
        -0.05598577857017517,
