{
  "model_state_dict": {
    "embedding.weight": [
      [
        0.4979369640350342,
        0.5406973958015442,
        -2.4652254581451416,
        -0.9244344830513
      ],
      [
        1.5532281398773193,
        0.30846673250198364,
        1.8804558515548706,
        0.5897940397262573
      ],
      [
        1.0573337078094482,
        -0.3030082881450653,
        0.22724418342113495,
        -0.8926902413368225
      ],
      [
        1.558018684387207,
        1.159616231918335,
        -0.44971171021461487,
        0.76019287109375
      ]
    ],
    "lstm.weight_ih_l0": [
      [
        0.0807674378156662,
        -0.008522478863596916,
        -0.01939711719751358,
        0.1269284337759018,
        -0.33632633090019226,
        0.06940266489982605,
        -0.1088760644197464,
        -0.0006460530566982925,
        -0.2811965048313141
      ],
      [
        0.11705371737480164,
        -0.1226232647895813,
        0.07176367193460464,
        0.07084757089614868,
        -0.11977024376392365,
        -0.036019936203956604,
        0.03878718242049217,
        -0.008002324029803276,
        0.10733769834041595
      ],
      [
        0.08573959767818451,
        -0.059624530375003815,
        0.0613943412899971,
        -0.07698522508144379,
        -0.10473781079053879,
        -0.025354187935590744,
        -0.03585394471883774,
        0.023181714117527008,
        0.012634851038455963
      ],
      [
        0.09119214862585068,
        -0.04330751672387123,
        -0.07917163521051407,
        0.4661799967288971,
        0.5603317618370056,
        -0.39647001028060913,
        0.08934245258569717,
        -0.23711779713630676,
        0.5043619871139526
      ],
      [
        0.04274493455886841,
        0.0860695093870163,
        0.11961327493190765,
        0.016207009553909302,
        -0.10127086937427521,
        -0.08131368458271027,
        0.013963013887405396,
        0.06584037840366364,
        -0.05570074915885925
      ],
      [
        -0.0032606031745672226,
        0.057524725794792175,
        0.07136023789644241,
        0.11505170166492462,
        -0.10773977637290955,
        0.0602581612765789,
        0.11888003349304199,
        -0.03715011477470398,
        0.0688742995262146
      ],
      [
        -0.0048032402992248535,
        0.03466838598251343,
        0.09250874817371368,
        0.06587792932987213,
        0.05279958248138428,
        -0.02480664849281311,
        -0.06368915736675262,
        0.10897040367126465,
        -0.07924418151378632
      ],
      [
        0.017765171825885773,
        0.14051951467990875,
        -0.008028470911085606,
        0.12446129322052002,
        -0.03201783075928688,
        0.011692581698298454,
        -0.0652555599808693,
        0.08637456595897675,
        -0.06485722959041595
      ],
      [
        0.10607530176639557,
        0.022029109299182892,
        -0.01406446285545826,
        0.04981137067079544,
        0.14595870673656464,
        -0.04348880797624588,
        0.13730771839618683,
        0.09016245603561401,
        0.04160738363862038
      ],
      [
        0.06865070760250092,
        0.02667447179555893,
        -0.08073025941848755,
        -0.010323834605515003,
        -0.00833272933959961,
        0.012929515913128853,
        0.0025063243228942156,
        -0.17480365931987762,
        0.15802867710590363
      ],
      [
        -0.12490434944629669,
        0.06364262849092484,
        0.0393536239862442,
        -0.10804832726716995,
        -0.39669251441955566,
        0.14878083765506744,
        0.1666567325592041,
        0.2751050591468811,
        -0.1971881240606308
      ],
      [
        0.04132232069969177,
        0.151893749833107,
        0.005689517594873905,
        -0.051152922213077545,
        -0.03540869429707527,
        -0.022561712190508842,
        0.05436939001083374,
        0.024719219654798508,
        0.02242724783718586
      ],
      [
        0.07152195274829865,
        -0.04179753363132477,
        0.08917441964149475,
        -0.05962306261062622,
        -0.11355946958065033,
        -0.06124493479728699,
        -0.12271696329116821,
        0.12162616848945618,
        -0.10405929386615753
      ],
      [
        0.044506292790174484,
        -0.029993770644068718,
        0.008890968747437,
        0.00050465198000893,
        -0.23766736686229706,
        0.01567411981523037,
        0.13404206931591034,
        0.16304536163806915,
        0.12356960028409958
      ],
      [
        -0.02664402313530445,
        -0.0717412531375885,
        0.09935104101896286,
        -0.05984039977192879,
        -0.20449253916740417,
        -0.03096696175634861,
        -0.4321877956390381,
        -0.5610198378562927,
        -0.8968530297279358
      ],
      [
        -0.034114956855773926,
        0.0318889357149601,
        -0.06533787399530411,
        -0.052692852914333344,
        0.12105054408311844,
        0.1244221031665802,
        0.0633436068892479,
        -0.023139214143157005,
        -0.058857034891843796
      ],
      [
        0.025151118636131287,
        0.18407104909420013,
        -0.035343486815690994,
        0.18390528857707977,
        -0.28596174716949463,
        0.09855148941278458,
        -0.06958168745040894,
        -0.44910508394241333,
        -0.12426497042179108
      ],
      [
        0.12172718346118927,
        -0.060851458460092545,
        0.004805069882422686,
        0.08125339448451996,
        0.11036843061447144,
        -0.11119255423545837,
        0.08193112909793854,
        -0.11504945158958435,
        -0.013543888926506042
      ],
      [
        0.028210995718836784,
        -0.09560155123472214,
        0.03300289064645767,
        -0.20357364416122437,
        -0.30341869592666626,
        0.15657047927379608,
        -0.017372621223330498,
        0.3581465780735016,
        -0.04691571742296219
      ],
      [
        0.13814809918403625,
        -0.12317711859941483,
        -0.017451422289013863,
        0.12842799723148346,
        0.0935022160410881,
        0.14402198791503906,
        -0.3124053180217743,
        -0.31574949622154236,
        -0.08961708098649979
      ],
      [
        -0.15325817465782166,
        0.01592371240258217,
        0.022208163514733315,
        -0.04410148039460182,
        0.044856708496809006,
        0.11531196534633636,
        0.03732232004404068,
        -0.14778992533683777,
        0.10843094438314438
      ],
      [
        -0.054514020681381226,
        0.06469829380512238,
        -0.06309978663921356,
        -0.12173405289649963,
        0.09032104909420013,
        -0.09439791738986969,
        0.0885779857635498,
        -0.000427931547164917,
        0.016492381691932678
      ],
      [
        0.08923981338739395,
        -0.11448679119348526,
        -0.019657691940665245,
        0.08121383935213089,
        -0.04652580991387367,
        -0.044228456914424896,
        0.07285317033529282,
        0.07258208841085434,
        0.024898044764995575
      ],
      [
        -0.010007187724113464,
        -0.06330214440822601,
        -0.12342576682567596,
        0.011437788605690002,
        0.06663176417350769,
        -0.009672105312347412,
        -0.017547473311424255,
        0.09578827023506165,
        0.06876805424690247
      ],
      [
        -0.11815457046031952,
        -0.015192024409770966,
        0.04021549969911575,
        -0.08248357474803925,
        -0.053228944540023804,
        -0.1161426305770874,
        -0.01871676743030548,
        0.010309860110282898,
        -0.11329890787601471
      ],
      [
        -0.04555847495794296,
        0.104537233710289,
        0.0052919997833669186,
        -0.33267343044281006,
        -0.5612757205963135,
        0.21802164614200592,
        0.18185511231422424,
        0.3079637885093689,
        -0.4248571991920471
      ],
      [
        0.04919043183326721,
        0.06369583308696747,
        0.12200751900672913,
        -0.09213855862617493,
        0.1144377589225769,
        -0.09107841551303864,
        0.11993478238582611,
        0.11436611413955688,
        -0.0168466717004776
      ],
      [
        0.039904311299324036,
        0.048128899186849594,
        0.012574702501296997,
        -0.0024323395919054747,
        0.1126980185508728,
        0.10755914449691772,
        0.025984987616539,
        -0.03119579888880253,
        0.08227172493934631
      ],
      [
        0.07322690635919571,
        -0.05110270902514458,
        -0.05959523469209671,
        0.07385861873626709,
        -0.16382327675819397,
        0.0066114007495343685,
        0.2902139127254486,
        -0.30067333579063416,
        -0.47313356399536133
      ],
      [
        0.08013039827346802,
        -0.046451665461063385,
        -0.07811207324266434,
        -0.04647882282733917,
        0.052576664835214615,
        0.005280582699924707,
        0.18948613107204437,
        -0.10023147612810135,
        -0.2520444989204407
      ],
      [
        0.12987405061721802,
        -0.10493344068527222,
        0.017034221440553665,
        0.21889108419418335,
        0.1698470413684845,
        -0.21637603640556335,
        0.10008459538221359,
        -0.040169186890125275,
        0.11212805658578873
      ],
      [
        -0.07828160375356674,
        0.03889545053243637,
        0.014417209662497044,
        0.18341228365898132,
        0.5393089652061462,
        -0.3787299692630768,
        -0.2105039358139038,
        -0.30428364872932434,
        0.3416779935359955
      ],
      [
        0.06257852911949158,
        -0.0039801886305212975,
        -0.11330222338438034,
        -0.021184487268328667,
        0.3357871472835541,
        -0.18082047998905182,
        -0.6584456562995911,
        0.1193159818649292,
        0.869814395904541
      ],
      [
        0.04548901319503784,
        -0.01758083701133728,
        0.09490199387073517,
        -0.06434382498264313,
        0.05159902572631836,
        -0.10140614211559296,
        -0.004265159368515015,
        0.03674718737602234,
        0.05433768033981323
      ],
      [
        0.07803460955619812,
        -0.09385333955287933,
        0.10298451781272888,
        0.012981906533241272,
        -0.03741978108882904,
        -0.004183769226074219,
        -0.027697712182998657,
        0.09106332063674927,
        -0.010566800832748413
      ],
      [
        0.07873966544866562,
        0.14552012085914612,
        -0.05309697985649109,
        -0.01816263236105442,
        0.003991211298853159,
        0.13223013281822205,
        -0.17768293619155884,
        -0.2562369108200073,
        -0.5130710601806641
      ],
      [
        -0.022036248818039894,
        0.0010955750476568937,
        -0.09491953253746033,
        0.052790895104408264,
        0.05982327461242676,
        -0.04820087552070618,
        0.08739879727363586,
        0.07013078033924103,
        0.0011681020259857178
      ],
      [
        -0.045512307435274124,
        -0.010765801183879375,
        -0.04287615790963173,
        0.06520648300647736,
        -0.013758150860667229,
        -0.0641552209854126,
        -0.12440776824951172,
        0.08388525247573853,
        -0.12118680775165558
      ],
      [
        0.11745987832546234,
        0.059482112526893616,
        0.10395118594169617,
        0.0059885382652282715,
        0.11078926920890808,
        0.03706805408000946,
        0.0007802695035934448,
        0.04105997085571289,
        -0.054786741733551025
      ],
      [
        -0.17696811258792877,
        -0.023675723001360893,
        0.023389780893921852,
        -0.1531504988670349,
        -0.04634951800107956,
        0.06060154736042023,
        -0.36433306336402893,
        -0.0854051485657692,
        -0.24546508491039276
      ],
      [
        0.08083247393369675,
        -0.051122844219207764,
        -0.04377712681889534,
        0.19196315109729767,
        0.49820247292518616,
        -0.23905335366725922,
        -0.16958387196063995,
        -0.2937019467353821,
        0.3979383707046509
      ],
      [
        -0.020305313169956207,
        -0.12119050323963165,
        -0.009810274466872215,
        -0.11431851983070374,
        -0.005519154015928507,
        0.07730056345462799,
        -0.08107079565525055,
        0.09640482068061829,
        -0.04514927417039871
      ],
      [
        0.050508130341768265,
        -0.037401746958494186,
        -0.1248125433921814,
        -0.11071517318487167,
        0.6044106483459473,
        -0.007069290149956942,
        -0.18138350546360016,
        -0.2598014175891876,
        0.22909027338027954
      ],
      [
        -0.0060607679188251495,
        -0.019341157749295235,
        0.019886799156665802,
        0.07199335098266602,
        0.8183833360671997,
        -0.2460353821516037,
        0.25983908772468567,
        0.4559552073478699,
        0.9030952453613281
      ],
      [
        -0.015450695529580116,
        -0.01892678625881672,
        0.03968057781457901,
        -0.025393327698111534,
        0.07775736600160599,
        0.038319703191518784,
        -0.0001292900269618258,
        0.02509564347565174,
        -0.08966593444347382
      ],
      [
        -0.028432920575141907,
        -0.10620987415313721,
        -0.0936504602432251,
        -0.010563820600509644,
        -0.008993357419967651,
        -0.06610634922981262,
        0.04109157621860504,
        0.06436826288700104,
        0.10459770262241364
      ],
      [
        -0.056394174695014954,
        -0.015455911867320538,
        -0.007347431033849716,
        -0.055217720568180084,
        -0.09760148078203201,
        -0.07210574299097061,
        0.013584733009338379,
        -0.018984930589795113,
        -0.0924147218465805
      ],
      [
        0.042493220418691635,
        -0.11955209076404572,
        0.002090193796902895,
        -0.1512010246515274,
        -0.15391121804714203,
        0.2748119533061981,
        -0.17668479681015015,
        0.010274302214384079,
        -0.6174439191818237
      ],
      [
        -0.0950734093785286,
        0.10825952887535095,
        -0.02268408238887787,
        -0.13298346102237701,
        0.27729031443595886,
        0.0030140220187604427,
        -0.27662092447280884,
        0.09529277682304382,
        0.0863761454820633
      ],
      [
        0.043974075466394424,
        0.19988420605659485,
        -0.024970803409814835,
        0.008572656661272049,
        -0.09647087007761002,
        0.1298699676990509,
        -0.07991044968366623,
        -0.21769966185092926,
        -0.13556809723377228
      ],
      [
        0.07853402197360992,
        -0.08843310922384262,
        -0.1264941692352295,
        -0.1188010424375534,
        -0.023785697296261787,
        0.038289010524749756,
        -0.11212879419326782,
        -0.30593612790107727,
        0.036624107509851456
      ],
      [
        -0.0775860846042633,
        -0.02788994461297989,
        0.08695584535598755,
        -0.07032474130392075,
        -0.06861481070518494,
        -0.10863983631134033,
        -0.08751435577869415,
        -0.07232505083084106,
        0.0043520391918718815
      ],
      [
        0.16954052448272705,
        -0.017756517976522446,
        0.028367839753627777,
        -0.06898009777069092,
        -0.12952162325382233,
        0.07491371035575867,
        -0.03712446242570877,
        -0.07043390721082687,
        0.055248893797397614
      ],
      [
        0.005732890218496323,
        -0.005989671219140291,
        -0.011544858105480671,
        -0.6852163076400757,
        -0.8943262100219727,
        0.4558998644351959,
        -0.16348639130592346,
        0.23101544380187988,
        -1.323104739189148
      ],
      [
        0.016197964549064636,
        0.003922389820218086,
        0.03424585610628128,
        0.05233640596270561,
        0.04237035661935806,
        0.05778256058692932,
        -0.055492937564849854,
        -0.08147185295820236,
        0.05445240065455437
      ],
      [
        -0.05152164399623871,
        -0.0354209840297699,
        0.012555897235870361,
        0.11293914914131165,
        -0.06387574970722198,
        -0.005529418587684631,
        -0.10433883965015411,
        -0.10438676178455353,
        -0.014695435762405396
      ],
      [
        -0.041932638734579086,
        0.09567265212535858,
        0.07003926485776901,
        -0.03811531886458397,
        -0.3936850428581238,
        -0.00603443430736661,
        -0.159309521317482,
        -0.2677116394042969,
        -0.407989501953125
      ],
      [
        0.1284012794494629,
        0.031725212931632996,
        -0.10452725738286972,
        0.1280042976140976,
        0.27928099036216736,
        0.022830983623862267,
        -0.12244456261396408,
        -0.2134103924036026,
        0.23824559152126312
      ],
      [
        0.03318408131599426,
        -0.1123005598783493,
        0.09819219261407852,
        -0.010181093588471413,
        -0.08922532200813293,
        -0.0529504157602787,
        -0.02949395217001438,
        -0.059358809143304825,
        -0.04300609603524208
      ],
      [
        0.11822322010993958,
        -0.10154677927494049,
        -0.0558125376701355,
        -0.34433773159980774,
        -0.5227816700935364,
        0.4650844931602478,
        -0.3482629656791687,
        0.15990030765533447,
        -0.903728187084198
      ],
      [
        0.031476568430662155,
        0.11416025459766388,
        -0.10628052055835724,
        0.11438468843698502,
        -0.07486053556203842,
        -0.12223177403211594,
        0.05252822861075401,
        0.08326096087694168,
        -0.08443808555603027
      ],
      [
        0.07787033915519714,
        -0.082249216735363,
        -0.06165345385670662,
        0.00957717839628458,
        0.2654343843460083,
        -0.11823208630084991,
        0.5264472365379333,
        -0.1816370040178299,
        -0.6516493558883667
      ],
      [
        -0.11267992854118347,
        -0.10706144571304321,
        0.004164576530456543,
        0.08600187301635742,
        -0.01931948959827423,
        -0.04406139254570007,
        -0.11306197941303253,
        0.0056412070989608765,
        -0.10849477350711823
      ],
      [
        -0.07262342423200607,
        0.024259256199002266,
        0.09157054126262665,
        0.10364403575658798,
        -0.027368050068616867,
        -0.10271827131509781,
        0.11002694070339203,
        0.12460470199584961,
        0.01677582412958145
      ],
      [
        0.01071483176201582,
        -0.120584636926651,
        0.03827353194355965,
        0.22659075260162354,
        0.15555930137634277,
        -0.08771447837352753,
        0.29658064246177673,
        -0.15058541297912598,
        0.3135455846786499
      ],
      [
        -0.017174439504742622,
        -0.024865390732884407,
        0.10437380522489548,
        0.031897954642772675,
        0.031386807560920715,
        -0.11498252302408218,
        0.05022969841957092,
        0.13097847998142242,
        -0.02984165959060192
      ],
      [
        0.11590354144573212,
        -0.07139372825622559,
        0.056105587631464005,
        -0.04439922422170639,
        -0.04383590444922447,
        0.07886535674333572,
        0.0992603451013565,
        0.004762654658406973,
        -0.10561119765043259
      ],
      [
        -0.10294052213430405,
        -0.11842096596956253,
        0.03067750111222267,
        -0.08740922808647156,
        0.03432448208332062,
        -0.035634011030197144,
        0.015354650095105171,
        -0.0010235916124656796,
        0.06497590243816376
      ],
      [
        -0.08863519132137299,
        0.10399184376001358,
        -0.09294328838586807,
        0.11859084665775299,
        0.05620908737182617,
        0.10797759145498276,
        -0.05979975312948227,
        0.030439384281635284,
        0.10159771889448166
      ],
      [
        0.15470974147319794,
        -0.024528827518224716,
        0.005353359505534172,
        -0.18479201197624207,
        -0.08368190377950668,
        0.009161888621747494,
        -0.058383263647556305,
        0.15657225251197815,
        -0.19255128502845764
      ],
      [
        -0.04744888097047806,
        0.037378646433353424,
        -0.08787047863006592,
        0.0859626978635788,
        -0.013163089752197266,
        -0.009389027953147888,
        0.06007742881774902,
        -0.10514216125011444,
        -0.0031017959117889404
      ],
      [
        0.10108591616153717,
        0.053991273045539856,
        0.07296063005924225,
        -0.04736146330833435,
        0.06965820491313934,
        0.029972389340400696,
        0.07479633390903473,
        -0.08366930484771729,
        -0.04225221276283264
      ],
      [
        0.03599269688129425,
        -0.013675898313522339,
        0.06578996777534485,
        -0.08256310224533081,
        0.074360191822052,
        -0.06087779998779297,
        0.0435093492269516,
        0.11958813667297363,
        -0.03686125576496124
      ],
      [
        0.0132400868460536,
        0.10836821049451828,
        -0.022530261427164078,
        0.2747817635536194,
        0.42335620522499084,
        -0.3074195981025696,
        0.32277318835258484,
        -0.28175097703933716,
        0.4444948136806488
      ],
      [
        -0.08646091818809509,
        -0.057575732469558716,
        -0.0653390884399414,
        -0.09559617936611176,
        -0.08241291344165802,
        0.05350559949874878,
        0.008159264922142029,
        0.08690372109413147,
        0.11388242244720459
      ],
      [
        0.10755769163370132,
        -0.15594333410263062,
        -0.10011202841997147,
        0.3173695206642151,
        0.39183545112609863,
        -0.2800888419151306,
        0.09316780418157578,
        -0.08013863861560822,
        0.6825630068778992
      ],
      [
        -0.06507992744445801,
        -0.08964869379997253,
        -0.08154518902301788,
        -0.006646081805229187,
        -0.11475154757499695,
        -0.051894307136535645,
        -0.08709189295768738,
        -0.058414533734321594,
        0.03241442143917084
      ],
      [
        -0.1199290007352829,
        -0.0824865847826004,
        -0.0950978547334671,
        0.12498311698436737,
        0.08067075908184052,
        0.0031423866748809814,
        -0.07764336466789246,
        0.012685433030128479,
        -0.02732446789741516
      ],
      [
        -0.11247216165065765,
        0.015023435465991497,
        0.003308153711259365,
        -0.05550667271018028,
        -0.12172692269086838,
        0.009144805371761322,
        -0.10813391208648682,
        0.1959000676870346,
        -0.21445271372795105
      ],
      [
        0.019083907827734947,
        0.07662902772426605,
        -0.10252580791711807,
        -0.015696020796895027,
        0.08823006600141525,
        -0.04283377155661583,
        -0.004921118263155222,
        -0.02578280121088028,
        0.107269287109375
      ],
      [
        0.06806276738643646,
        0.04212405905127525,
        0.007652968168258667,
        -0.052275169640779495,
        0.01862487755715847,
        -0.03508542850613594,
        0.09571942687034607,
        -0.10701625049114227,
        0.03661221265792847
      ],
      [
        0.04063887894153595,
        -0.09392622113227844,
        0.0813169777393341,
        0.04849743843078613,
        0.100624218583107,
        0.042072221636772156,
        -0.04433654248714447,
        0.024856209754943848,
        -0.07516185939311981
      ],
      [
        -0.05225762724876404,
        -0.008371144533157349,
        -0.10451890528202057,
        0.07133626937866211,
        -0.10168416798114777,
        0.056292012333869934,
        0.05022996664047241,
        0.09581072628498077,
        0.11034272611141205
      ],
      [
        0.09238728880882263,
        0.10114851593971252,
        0.07130692899227142,
        0.08959329128265381,
        0.11830280721187592,
        -0.042351171374320984,
        0.10644176602363586,
        0.11852706968784332,
        -0.08088992536067963
      ],
      [
        0.05989278480410576,
        -0.05649365112185478,
        -0.025272339582443237,
        -0.1338292360305786,
        0.23648232221603394,
        0.12087602913379669,
        0.17150816321372986,
        -0.3805926740169525,
        -0.543877363204956
      ],
      [
        -0.05517607927322388,
        -0.11009186506271362,
        -0.03889590501785278,
        -0.0857294350862503,
        -0.03188784420490265,
        0.07506923377513885,
        0.022758066654205322,
        -0.04705299437046051,
        -0.053683772683143616
      ],
      [
        -0.05013562738895416,
        -0.10896044969558716,
        -0.05882994830608368,
        0.07647015154361725,
        -0.06722483038902283,
        -0.07233878970146179,
        -0.047487691044807434,
        -0.09149841964244843,
        0.08293673396110535
      ],
      [
        0.12349510192871094,
        -0.06266984343528748,
        0.10225515067577362,
        -0.05113247036933899,
        0.06980696320533752,
        -0.11887514591217041,
        0.009028911590576172,
        0.010289862751960754,
        -0.11595059931278229
      ],
      [
        -0.052106231451034546,
        -0.05124816298484802,
        -0.09554353356361389,
        -0.05002780258655548,
        0.10835492610931396,
        0.06314851343631744,
        -0.014727145433425903,
        -0.04153728485107422,
        0.006503567099571228
      ],
      [
        -0.12243762612342834,
        -0.0009960647439584136,
        0.1307176798582077,
        -0.02457278221845627,
        -0.041059959679841995,
        0.026585517451167107,
        -0.40592071413993835,
        0.3464254140853882,
        -0.11923480778932571
      ],
      [
        0.1297781616449356,
        -0.07479771971702576,
        -0.06143132969737053,
        -0.012549971230328083,
        -0.10956764966249466,
        -0.03737427294254303,
        0.0818709060549736,
        0.018922368064522743,
        -0.11850716918706894
      ],
      [
        0.06683360785245895,
        -0.06091109290719032,
        -0.015839768573641777,
        -0.08018214255571365,
        -0.11785472184419632,
        0.04867078736424446,
        -0.07363272458314896,
        -0.05390806496143341,
        0.0845005214214325
      ],
      [
        0.13730569183826447,
        -0.017874255776405334,
        -0.11121220141649246,
        0.08578517287969589,
        0.010539257898926735,
        0.015417154878377914,
        -0.015050127170979977,
        0.1255345493555069,
        -0.22906865179538727
      ],
      [
        0.04698435962200165,
        0.06473276019096375,
        0.05807027220726013,
        -0.03943696618080139,
        -0.09991055727005005,
        -0.06962385773658752,
        0.017641916871070862,
        0.005166977643966675,
        0.11803354322910309
      ],
      [
        -0.03685615584254265,
        0.061838869005441666,
        -0.050981685519218445,
        0.02061212994158268,
        -0.0015618805773556232,
        -0.00807282142341137,
        -0.08007151633501053,
        -0.020207421854138374,
        0.07422430068254471
      ],
      [
        -0.09871067106723785,
        -0.003517288714647293,
        0.08216042071580887,
        0.21680626273155212,
        0.06844952702522278,
        -0.1407797634601593,
        0.1373501718044281,
        -0.42484110593795776,
        0.014346572570502758
      ],
      [
        -0.0683254525065422,
        0.09319884330034256,
        -0.04317263886332512,
        0.08937591314315796,
        0.12670564651489258,
        0.09416398406028748,
        0.012113063596189022,
        0.04913560673594475,
        0.07258211821317673
      ],
      [
        0.15879790484905243,
        -0.005101004149764776,
        -0.024641098454594612,
        0.055813342332839966,
        0.13857713341712952,
        -0.19415630400180817,
        0.07743511348962784,
        0.031154951080679893,
        0.33314934372901917
      ],
      [
        -0.08789029717445374,
        -0.08354970812797546,
        0.06760581582784653,
        -0.26904410123825073,
        -0.6304332613945007,
        0.2619378864765167,
        0.1495080441236496,
        -0.23711636662483215,
        -0.20318928360939026
      ],
      [
        0.018431654199957848,
        0.020378492772579193,
        0.043265726417303085,
        0.11954709142446518,
        0.04122479632496834,
        -0.05378924310207367,
        -0.07499127835035324,
        0.016971245408058167,
        -0.11531110852956772
      ],
      [
        -0.11756685376167297,
        0.12291398644447327,
        0.039857253432273865,
        0.09992927312850952,
        0.10814496874809265,
        0.11181601881980896,
        0.014568477869033813,
        0.0602559894323349,
        0.09222301840782166
      ],
      [
        0.002233147621154785,
        0.09444482624530792,
        0.02656376361846924,
        0.01740342378616333,
        -0.0390484482049942,
        0.028188779950141907,
        -0.051803141832351685,
        0.06475649774074554,
        0.03867466747760773
      ],
      [
        -0.020331358537077904,
        -0.08134748786687851,
        0.05008002370595932,
        -0.01064372155815363,
        -0.5542411804199219,
        0.1273183524608612,
        0.130686953663826,
        -0.037458159029483795,
        -0.9251551628112793
      ],
      [
        0.04424360394477844,
        0.015828758478164673,
        0.09392312169075012,
        -0.018095672130584717,
        -0.04952743649482727,
        0.011036217212677002,
        0.061368778347969055,
        -0.019416585564613342,
        -0.07738369703292847
      ],
      [
        0.07950573414564133,
        -0.10084594786167145,
        -0.036101266741752625,
        0.17279359698295593,
        0.3669377565383911,
        -0.33511921763420105,
        0.34304937720298767,
        -0.07296377420425415,
        0.4428037106990814
      ],
      [
        -0.025395497679710388,
        -0.07299675047397614,
        -0.0930793434381485,
        0.06992578506469727,
        0.10974855720996857,
        0.06513170897960663,
        0.04118916392326355,
        -0.03340555727481842,
        -0.07569281756877899
      ],
      [
        0.09958310425281525,
        0.014562110416591167,
        -0.019262898713350296,
        0.033835478127002716,
        0.12315242737531662,
        0.033777445554733276,
        -0.07330439239740372,
        0.014814060181379318,
        0.08485085517168045
      ],
      [
        0.06861180812120438,
        0.08100628107786179,
        -0.10500192642211914,
        0.13912466168403625,
        0.4782010316848755,
        -0.3665411174297333,
        -0.563373863697052,
        0.660403847694397,
        0.852302074432373
      ],
      [
        -0.02096278965473175,
        -0.05428899824619293,
        -0.10976807773113251,
        -0.00938841700553894,
        -0.025277674198150635,
        -0.0506918728351593,
        0.0644320696592331,
        -0.1165664941072464,
        -0.03839382529258728
      ],
      [
        0.04941439628601074,
        0.0005268305540084839,
        -0.09331285953521729,
        0.054039448499679565,
        0.05699563026428223,
        0.03856417536735535,
        0.06214815378189087,
        0.10022290050983429,
        0.07349812984466553
      ],
      [
        0.030497953295707703,
        0.044162169098854065,
        0.0992230772972107,
        0.09424459934234619,
        -0.06041419506072998,
        -0.12071661651134491,
        0.04182663559913635,
        -0.11546331644058228,
        0.03233671188354492
      ],
      [
        0.06985504925251007,
        -0.12093472480773926,
        -0.07107682526111603,
        -0.21930837631225586,
        -0.2595287561416626,
        0.12293168902397156,
        0.02450297586619854,
        0.17677846550941467,
        -0.6648735404014587
      ],
      [
        0.1009773463010788,
        -0.05479466915130615,
        -0.0579645074903965,
        -0.11295908689498901,
        0.07722317427396774,
        -0.03068850375711918,
        -0.268349826335907,
        0.2533727288246155,
        0.6777878999710083
      ],
      [
        0.027746334671974182,
        0.04278963804244995,
        0.07968227565288544,
        0.08692170679569244,
        0.05588337779045105,
        0.10822023451328278,
        -0.08001205325126648,
        -0.10962752997875214,
        0.11299969255924225
      ],
      [
        0.09798246622085571,
        -0.013871952891349792,
        0.12282988429069519,
        -0.006400242447853088,
        0.09213162958621979,
        0.006697922945022583,
        -0.09189517796039581,
        -0.09799325466156006,
        0.09030580520629883
      ],
      [
        -0.08849786221981049,
        -0.036716219037771225,
        0.03424631804227829,
        -0.010733846575021744,
        0.027442706748843193,
        0.08417749404907227,
        0.05322589725255966,
        -0.11968418955802917,
        0.015192355029284954
      ],
      [
        0.026007551699876785,
        0.023188017308712006,
        -0.13459496200084686,
        -0.04056515172123909,
        0.12313314527273178,
        -0.06624716520309448,
        0.10322582721710205,
        0.1298401802778244,
        0.16334716975688934
      ],
      [
        -0.045672379434108734,
        -0.005767539609223604,
        0.020395757630467415,
        -0.25071704387664795,
        -0.67843097448349,
        0.3043443560600281,
        -0.006411590613424778,
        0.26247432827949524,
        -0.40725797414779663
      ],
      [
        -0.08715565502643585,
        -0.044753849506378174,
        -0.09624224901199341,
        -0.10804660618305206,
        -0.04936259984970093,
        0.10087761282920837,
        -0.01231643557548523,
        -0.06543609499931335,
        -0.025835439562797546
      ],
      [
        0.05933302640914917,
        0.02061590552330017,
        0.011504605412483215,
        -0.08362279832363129,
        -0.014857381582260132,
        -0.10618439316749573,
        -0.08348500728607178,
        0.040149688720703125,
        -0.10447889566421509
      ],
      [
        0.2113659530878067,
        0.030203774571418762,
        -0.03068496845662594,
        -0.12998385727405548,
        0.16931289434432983,
        0.1430482417345047,
        -0.07267563790082932,
        0.24208790063858032,
        -0.06964008510112762
      ],
      [
        0.09856408834457397,
        -0.07733702659606934,
        -0.026265088468790054,
        0.2771013379096985,
        0.5881207585334778,
        -0.2296621948480606,
        0.028566623106598854,
        -0.1854839026927948,
        0.45428380370140076
      ],
      [
        -0.10494254529476166,
        0.08891552686691284,
        -0.0684017688035965,
        0.04382471367716789,
        -0.10308929532766342,
        -0.053269434720277786,
        -0.09198015928268433,
        0.027736663818359375,
        -0.041572205722332
      ],
      [
        0.012547549791634083,
        -0.03990820050239563,
        -0.11313170939683914,
        -0.010665816254913807,
        -0.10801001638174057,
        0.06982074677944183,
        0.07354208827018738,
        0.029599936679005623,
        -0.07858825474977493
      ],
      [
        0.11631491780281067,
        0.06143574416637421,
        0.10229440033435822,
        0.04931953549385071,
        -0.11082598567008972,
        -0.05539487302303314,
        -0.1117934137582779,
        -0.0020778924226760864,
        0.0690729171037674
      ],
      [
        0.07720527052879333,
        0.08051097393035889,
        0.045806631445884705,
        0.0390494167804718,
        -0.11225980520248413,
        -0.11042076349258423,
        0.05283328890800476,
        0.01976907253265381,
        -0.11548560857772827
      ],
      [
        0.06456902623176575,
        0.006339475512504578,
        0.048899486660957336,
        -0.10398238897323608,
        -0.035141780972480774,
        0.07558438181877136,
        0.015249699354171753,
        0.09642480313777924,
        -0.04164685308933258
      ],
      [
        -0.09670930355787277,
        -0.004750832915306091,
        -0.06358053535223007,
        0.05973629280924797,
        -0.07971670478582382,
        0.03693056479096413,
        0.08291670680046082,
        -0.1171230748295784,
        -0.053249865770339966
      ],
      [
        0.09386254847049713,
        -0.03931931033730507,
        -0.10912829637527466,
        0.049290306866168976,
        0.07027643918991089,
        -0.059391673654317856,
        -0.08140379190444946,
        -0.022322190925478935,
        0.35898807644844055
      ],
      [
        -0.06904853880405426,
        -0.08543547987937927,
        -0.03646084666252136,
        -0.11527073383331299,
        0.02791041135787964,
        -0.04581455886363983,
        0.06780001521110535,
        -0.03154265880584717,
        0.0015141069889068604
      ],
      [
        0.06944781541824341,
        -0.02605835162103176,
        -0.09598010778427124,
        0.06369730085134506,
        -0.13586480915546417,
        -0.05351074039936066,
        0.21217560768127441,
        -0.22390198707580566,
        -0.40603402256965637
      ],
      [
        0.08577211946249008,
        -0.05798466503620148,
        -0.04128647595643997,
        0.06836302578449249,
        0.06517350673675537,
        -0.05442831292748451,
        0.10814934223890305,
        0.02133156731724739,
        0.136973038315773
      ],
      [
        0.09116525202989578,
        -0.016487691551446915,
        -0.10897362977266312,
        -0.0023375325836241245,
        -0.022221487015485764,
        0.17961855232715607,
        0.03597088158130646,
        0.10376816987991333,
        -0.13315927982330322
      ],
      [
        0.0012320280075073242,
        -0.050786688923835754,
        -0.04701831936836243,
        -0.034930408000946045,
        0.03775246441364288,
        0.046903565526008606,
        -0.06407202780246735,
        0.09375442564487457,
        0.10296103358268738
      ],
      [
        0.12045960128307343,
        -0.02734456956386566,
        0.04367236793041229,
        -0.0198356956243515,
        0.09827889502048492,
        0.0022573918104171753,
        0.02300506830215454,
        0.035700827836990356,
        0.016878247261047363
      ],
      [
        0.07917197048664093,
        -0.01969330385327339,
        -0.0447230190038681,
        0.03870391845703125,
        0.2592751383781433,
        -0.04177064448595047,
        0.028444115072488785,
        -0.013830258511006832,
        0.023484375327825546
      ],
      [
        -0.027868017554283142,
        -0.021641703322529793,
        0.06077318266034126,
        0.017268294468522072,
        0.3083934783935547,
        -0.10712680220603943,
        0.019439173862338066,
        0.09677854925394058,
        0.4553854167461395
      ],
      [
        0.05391305685043335,
        0.11253678798675537,
        0.057278186082839966,
        0.02159219980239868,
        -0.06629785895347595,
        -0.07887600362300873,
        -0.10218377411365509,
        0.09200583398342133,
        0.12374740839004517
      ],
      [
        0.05741044506430626,
        0.016920818015933037,
        -0.02036823332309723,
        -0.23890820145606995,
        -0.3558475971221924,
        0.27520453929901123,
        0.04726952686905861,
        -0.02661421336233616,
        -0.21729755401611328
      ],
      [
        0.010690475814044476,
        -0.001112616853788495,
        -0.07224307954311371,
        -0.0989939495921135,
        0.07301926612854004,
        0.05307835340499878,
        -0.0054315002635121346,
        -0.07502876967191696,
        0.0386001355946064
      ],
      [
        -0.11993440985679626,
        -0.0616203211247921,
        -0.010893253609538078,
        -0.11009182035923004,
        0.03132059425115585,
        0.07271482795476913,
        0.0048363097012043,
        0.07739990204572678,
        -0.11062926054000854
      ],
      [
        0.06920116394758224,
        0.09076850116252899,
        -0.03818556293845177,
        -0.3370290994644165,
        -0.3957955837249756,
        0.20734424889087677,
        -0.3465624153614044,
        0.13897421956062317,
        -0.24568678438663483
      ],
      [
        0.05672500282526016,
        0.07727434486150742,
        -0.0014355082530528307,
        -0.025009267032146454,
        0.01166980154812336,
        -0.05810297653079033,
        0.03367212787270546,
        0.11324991285800934,
        -0.13153596222400665
      ],
      [
        0.056488264352083206,
        -0.01814981736242771,
        -0.010683718137443066,
        0.05110669508576393,
        -0.04607083648443222,
        -0.05181294307112694,
        -0.061172086745500565,
        0.011604010127484798,
        -0.09221243113279343
      ],
      [
        0.1012832298874855,
        -0.08452243357896805,
        -0.1369689553976059,
        -0.06644053012132645,
        -0.01710895635187626,
        -0.0553518570959568,
        -0.39692193269729614,
        0.15726962685585022,
        0.25158217549324036
      ],
      [
        0.05715201795101166,
        0.07207410037517548,
        0.027800872921943665,
        0.05578726530075073,
        0.09675009548664093,
        0.005514174699783325,
        -0.10351432859897614,
        -0.01306810975074768,
        -0.0997149646282196
      ],
      [
        -0.1273215413093567,
        0.045181699097156525,
        0.09222744405269623,
        -0.12072272598743439,
        -0.15646584331989288,
        0.0674949660897255,
        -0.2133403718471527,
        0.001863120007328689,
        -0.4446839690208435
      ],
      [
        -0.08575642108917236,
        -0.0827181339263916,
        0.10033518821001053,
        -0.033287156373262405,
        -0.06286996603012085,
        -0.03723995387554169,
        0.20511935651302338,
        -0.26176559925079346,
        -0.18466782569885254
      ],
      [
        0.18707658350467682,
        -0.04476485401391983,
        -0.04216973856091499,
        -0.03221582993865013,
        0.2961440682411194,
        -0.034258294850587845,
        0.485854834318161,
        0.14898505806922913,
        0.4117416739463806
      ],
      [
        -0.0015486180782318115,
        0.007234811782836914,
        -0.11308400332927704,
        0.12308835983276367,
        -0.12045840919017792,
        -0.10291270911693573,
        0.041826874017715454,
        0.010626569390296936,
        -0.07918193936347961
      ],
      [
        0.10140830278396606,
        0.03091852366924286,
        0.07349593937397003,
        0.08619056642055511,
        -0.10924564301967621,
        -0.05475477874279022,
        -0.014648869633674622,
        0.08673727512359619,
        0.001677870750427246
      ],
      [
        -0.12339982390403748,
        -0.07807376980781555,
        0.08862055838108063,
        -0.058893635869026184,
        -0.0018001347780227661,
        0.01660020649433136,
        0.024155452847480774,
        0.08373214304447174,
        0.1097651869058609
      ],
      [
        -0.07727982848882675,
        0.0905807837843895,
        -0.03052458167076111,
        -0.03219608590006828,
        0.08081872761249542,
        0.03711201995611191,
        -0.026137296110391617,
        -0.10569159686565399,
        0.002831847872585058
      ],
      [
        0.03522343933582306,
        0.01340817753225565,
        -0.08642999827861786,
        0.04998308792710304,
        -0.05613541230559349,
        -0.01169024407863617,
        -0.07741719484329224,
        -0.10863734781742096,
        0.09894218295812607
      ],
      [
        -0.12321995198726654,
        -0.059384673833847046,
        -0.11510878801345825,
        -0.030910924077033997,
        -0.0886596292257309,
        -0.07268919050693512,
        -0.11360958218574524,
        -0.09128987789154053,
        0.06109619140625
      ],
      [
        0.10986679792404175,
        -0.07791971415281296,
        -0.02194860763847828,
        0.07345584779977798,
        -0.10643985867500305,
        -0.028075801208615303,
        -0.08135352283716202,
        0.07618594914674759,
        -0.07161083817481995
      ],
      [
        0.10705948621034622,
        -0.02812149003148079,
        -0.038476500660181046,
        0.04109031707048416,
        0.050606269389390945,
        0.0033069674391299486,
        -0.12897004187107086,
        0.10556633770465851,
        0.10502827167510986
      ],
      [
        -0.1377217173576355,
        -0.05198454484343529,
        0.08638468384742737,
        -0.12041795253753662,
        0.012617130763828754,
        -0.09452035278081894,
        -0.024365440011024475,
        -0.11880695819854736,
        -0.1207982525229454
      ],
      [
        -0.10851296782493591,
        0.09623520076274872,
        -0.10607753694057465,
        0.026672139763832092,
        -0.04293198883533478,
        -0.06739898025989532,
        0.08734972774982452,
        0.006721228361129761,
        0.08820320665836334
      ],
      [
        -0.08897548913955688,
        0.06327105313539505,
        0.08412682265043259,
        0.0891137421131134,
        0.08660158514976501,
        -0.11681555211544037,
        0.0013938660267740488,
        -0.07544193416833878,
        -0.06027323007583618
      ],
      [
        0.12499172985553741,
        -0.10855964571237564,
        -0.06267427653074265,
        -0.12011893093585968,
        0.06592205911874771,
        0.025551687926054,
        -0.11689619719982147,
        -0.03215482831001282,
        -0.11682681739330292
      ],
      [
        0.030023466795682907,
        -0.01900975964963436,
        -0.1235051304101944,
        0.10977969318628311,
        0.028112951666116714,
        -0.11124846339225769,
        -0.036927301436662674,
        -0.028104223310947418,
        0.07230488955974579
      ],
      [
        -0.0049507454968988895,
        0.17092302441596985,
        0.012351957149803638,
        0.10847453773021698,
        -0.37327277660369873,
        0.2141426056623459,
        0.17748098075389862,
        -0.5598733425140381,
        -0.7096596956253052
      ],
      [
        0.07630832493305206,
        0.07056419551372528,
        0.061360642313957214,
        -0.03648819029331207,
        0.050175026059150696,
        -0.12430654466152191,
        -0.07467657327651978,
        -0.033500537276268005,
        0.0531715452671051
      ],
      [
        0.09702543914318085,
        -0.04251322150230408,
        0.03855453431606293,
        -0.07403916120529175,
        -0.04853065311908722,
        -0.024854078888893127,
        -0.018581658601760864,
        0.08365166187286377,
        0.04045450687408447
      ],
      [
        0.060259029269218445,
        0.12427408993244171,
        -0.06950584053993225,
        -0.06011274456977844,
        0.06838102638721466,
        -0.006635397672653198,
        0.06772385537624359,
        0.045445606112480164,
        0.0034272372722625732
      ],
      [
        -0.032042816281318665,
        0.08621904253959656,
        -0.05696987733244896,
        -0.10046267509460449,
        -0.0935739055275917,
        -0.07339398562908173,
        0.04149707034230232,
        -0.11214859783649445,
        -0.10576240718364716
      ],
      [
        -0.013822193257510662,
        0.045997604727745056,
        0.0440947525203228,
        0.014506280422210693,
        -0.11888532340526581,
        0.005668520927429199,
        -0.045219630002975464,
        0.04577268660068512,
        0.05176003277301788
      ],
      [
        -0.097652867436409,
        -0.04112127423286438,
        -0.06404675543308258,
        0.011929690837860107,
        0.07924382388591766,
        -0.10308128595352173,
        0.11821544170379639,
        0.11920744180679321,
        0.011495158076286316
      ],
      [
        -0.09599782526493073,
        0.0056381672620773315,
        -0.12231378257274628,
        0.10205493867397308,
        -0.04531353712081909,
        0.0986846387386322,
        0.12174439430236816,
        0.12052147090435028,
        0.12424497306346893
      ],
      [
        -0.07443087548017502,
        0.06938539445400238,
        0.10489372909069061,
        0.00968983955681324,
        -0.03406216949224472,
        -0.04023462533950806,
        0.0065351128578186035,
        0.028414692729711533,
        -0.1047481894493103
      ],
      [
        0.11817583441734314,
        -0.024273589253425598,
        0.09957650303840637,
        0.03795477747917175,
        0.06837652623653412,
        0.10925498604774475,
        0.10747860372066498,
        -0.001971513032913208,
        -0.06306084990501404
      ],
      [
        -0.05907350406050682,
        -0.002625727094709873,
        0.08635486662387848,
        0.09894084930419922,
        0.12169337272644043,
        0.11488938331604004,
        0.08690893650054932,
        0.11487703025341034,
        -0.12143111228942871
      ],
      [
        0.11880066990852356,
        -0.03812709450721741,
        -0.1132049709558487,
        0.12478749454021454,
        0.09453941881656647,
        -0.0904279351234436,
        0.11744017899036407,
        0.023940086364746094,
        0.09859578311443329
      ],
      [
        -0.07976852357387543,
        0.0016101273940876126,
        -0.001145121525041759,
        -0.05309799313545227,
        -0.016360079869627953,
        0.026896681636571884,
        -0.025966353714466095,
        -0.11337466537952423,
        -0.024232476949691772
      ],
      [
        -0.10302260518074036,
        -0.02934950217604637,
        0.05637236684560776,
        0.09928637742996216,
        0.310077428817749,
        -0.1393783986568451,
        0.3425568640232086,
        -0.09395555406808853,
        0.1918705701828003
      ],
      [
        -0.036132216453552246,
        -0.08251643180847168,
        -0.10862404108047485,
        -0.021757319569587708,
        -0.01705963909626007,
        -0.09167186915874481,
        -0.10540591180324554,
        -0.015123099088668823,
        -0.11807799339294434
      ],
      [
        -0.05330357328057289,
        -0.07521440088748932,
        0.014187570661306381,
        -0.06358229368925095,
        0.022573251277208328,
        -0.10677730292081833,
        0.05377581715583801,
        -0.012486138381063938,
        -0.061625633388757706
      ],
      [
        -0.0702340304851532,
        0.00928477942943573,
        -0.038842275738716125,
        0.03683479130268097,
        -0.05004020035266876,
        -0.10329075157642365,
        0.05107058584690094,
        -0.02850736677646637,
        -0.018196702003479004
      ],
      [
        0.1146300882101059,
        -0.07708226144313812,
        0.11061148345470428,
        0.10519160330295563,
        0.12096193432807922,
        0.004292279481887817,
        0.0312366783618927,
        0.02406814694404602,
        -0.038372963666915894
      ],
      [
        -0.009084828197956085,
        0.10768383741378784,
        0.0671808049082756,
        -0.09080761671066284,
        0.029278209432959557,
        -0.05960320308804512,
        0.00514676608145237,
        -0.005243778228759766,
        0.0812358558177948
      ],
      [
        0.01544143259525299,
        0.11801658570766449,
        0.028602004051208496,
        -0.12405094504356384,
        0.045041292905807495,
        -0.030955657362937927,
        0.02724704146385193,
        -0.03834100067615509,
        -0.041474297642707825
      ],
      [
        0.018832504749298096,
        0.10955293476581573,
        0.022723272442817688,
        -0.0063970983028411865,
        -0.055032044649124146,
        0.05380348861217499,
        -0.033425748348236084,
        0.04922682046890259,
        -0.011097162961959839
      ],
      [
        -0.009093940258026123,
        -0.0007765889167785645,
        0.07074205577373505,
        -0.009363323450088501,
        -0.00022074580192565918,
        0.000398784875869751,
        -0.03295049071311951,
        0.03087739646434784,
        0.0568661242723465
      ],
      [
        -0.06508196890354156,
        0.040275394916534424,
        0.08272124826908112,
        -0.046326011419296265,
        0.06447544693946838,
        0.011968721635639668,
        -0.08338342607021332,
        0.3583691418170929,
        0.43576982617378235
      ],
      [
        0.012429322116076946,
        -0.03507784754037857,
        -0.09072074294090271,
        0.05787234753370285,
        0.005898451432585716,
        0.07759195566177368,
        -0.0043278350494802,
        -0.10570476949214935,
        -0.13508343696594238
      ],
      [
        -0.04237944632768631,
        0.047266874462366104,
        0.04499523714184761,
        -0.1076904833316803,
        -0.26734277606010437,
        0.18633805215358734,
        0.058904219418764114,
        0.0721951350569725,
        -0.6632298827171326
      ],
      [
        -0.0010799657320603728,
        0.0030873294454067945,
        0.0031611300073564053,
        0.02723930962383747,
        -0.4181331396102905,
        0.1887826919555664,
        0.004140159115195274,
        -0.44884032011032104,
        -1.4914475679397583
      ],
      [
        0.01591399684548378,
        -0.016833512112498283,
        -0.02354559861123562,
        -0.004610339645296335,
        0.05826624110341072,
        -0.111776202917099,
        0.09930210560560226,
        -0.009158494882285595,
        0.09506726264953613
      ],
      [
        0.10791291296482086,
        0.062008097767829895,
        0.06036713719367981,
        -0.03624126315116882,
        0.02733294665813446,
        -0.019892871379852295,
        -0.11329683661460876,
        -0.007852315902709961,
        -0.048928335309028625
      ],
      [
        0.011856839060783386,
        -0.03520418703556061,
        -0.10507336258888245,
        -0.006964951753616333,
        0.05871528387069702,
        0.07713159918785095,
        -0.06735940277576447,
        0.10403506457805634,
        -0.09819021821022034
      ],
      [
        -0.054321154952049255,
        0.07644906640052795,
        -0.06123368442058563,
        0.10960541665554047,
        0.10084500908851624,
        -0.081687331199646,
        0.05881489813327789,
        0.09902194142341614,
        -0.03623168170452118
      ],
      [
        0.07850775122642517,
        -0.014937147498130798,
        0.09062205255031586,
        -0.07119119167327881,
        -0.054948627948760986,
        -0.11203625798225403,
        -0.09795206785202026,
        -0.03147675096988678,
        -0.06061777472496033
      ],
      [
        0.01338003110140562,
        -0.12954235076904297,
        -0.0634554848074913,
        -0.07793180644512177,
        -0.13178245723247528,
        -0.10865755379199982,
        0.44636815786361694,
        0.22695402801036835,
        0.3990081250667572
      ],
      [
        0.12181372195482254,
        0.11809238791465759,
        -0.026670433580875397,
        -0.01598658785223961,
        -0.1622694879770279,
        0.08597592264413834,
        -0.13863882422447205,
        -0.04208473861217499,
        -0.10150876641273499
      ],
      [
        0.08245956897735596,
        -0.12984512746334076,
        -0.008589940145611763,
        -0.02664456143975258,
        0.1464782953262329,
        -0.1288561075925827,
        0.07176929712295532,
        -0.004218872636556625,
        0.1479966789484024
      ],
      [
        -0.07035673409700394,
        -0.06323777139186859,
        0.06189989671111107,
        0.41873282194137573,
        0.6374565362930298,
        -0.32302409410476685,
        -0.003251448040828109,
        -0.32487764954566956,
        0.8473567962646484
      ],
      [
        0.00986876804381609,
        -0.09065926820039749,
        0.06557492166757584,
        0.1098211407661438,
        -0.051504362374544144,
        -0.10307731479406357,
        0.0635647401213646,
        0.06641101092100143,
        -0.030454261228442192
      ],
      [
        0.09499013423919678,
        0.041984811425209045,
        0.12367114424705505,
        0.08873459696769714,
        0.03315530717372894,
        0.05996474623680115,
        -0.05343998968601227,
        0.02710971236228943,
        0.07653018832206726
      ],
      [
        -0.019334087148308754,
        0.12610410153865814,
        -0.047840192914009094,
        0.08667042851448059,
        0.3715648949146271,
        -0.22186213731765747,
        0.07552354037761688,
        -0.14909465610980988,
        0.4581451416015625
      ],
      [
        0.05355590581893921,
        0.11288204789161682,
        0.06616771221160889,
        -0.026610583066940308,
        0.005491867661476135,
        -0.11807230114936829,
        0.03740370273590088,
        0.042929694056510925,
        0.11545714735984802
      ],
      [
        0.014855182729661465,
        -0.07868073880672455,
        0.05517158657312393,
        0.052888140082359314,
        0.18526025116443634,
        -0.15187984704971313,
        -0.07417990267276764,
        -0.1432274580001831,
        0.07622066140174866
      ],
      [
        0.015475386753678322,
        -0.1606103479862213,
        0.03516361117362976,
        -0.09035926312208176,
        -0.18529511988162994,
        -0.01694384030997753,
        0.31208810210227966,
        0.12524795532226562,
        0.07261227071285248
      ],
      [
        0.10921939462423325,
        -0.10859216749668121,
        -0.006819211877882481,
        0.08341056108474731,
        0.36533814668655396,
        -0.07763509452342987,
        -0.12264742702245712,
        -0.20576587319374084,
        0.46135661005973816
      ],
      [
        -0.02345515601336956,
        -0.03246007487177849,
        0.021651510149240494,
        -0.7194739580154419,
        -0.775725781917572,
        0.5249353051185608,
        -0.06738876551389694,
        0.5921518802642822,
        -0.727218747138977
      ],
      [
        -0.06057538837194443,
        0.10667361319065094,
        0.09908086806535721,
        -0.0019492069259285927,
        -0.2767031788825989,
        0.054894763976335526,
        0.3365092873573303,
        -0.1620706170797348,
        -0.8031225204467773
      ],
      [
        -0.02038876712322235,
        -0.054700326174497604,
        0.1253383606672287,
        -0.1070045605301857,
        0.09661948680877686,
        0.10750409960746765,
        -0.06874977052211761,
        0.0447908379137516,
        0.08625234663486481
      ],
      [
        0.05621294677257538,
        0.11843889951705933,
        0.01101633720099926,
        -0.011067792773246765,
        0.11198492348194122,
        -0.05882382392883301,
        0.011832371354103088,
        -0.02994459867477417,
        -0.05445541441440582
      ],
      [
        0.05336993932723999,
        -0.054110705852508545,
        -0.0010513941524550319,
        -0.06549029052257538,
        -0.12286500632762909,
        0.048855360597372055,
        0.19830504059791565,
        -0.08180777728557587,
        -0.2325015515089035
      ],
      [
        0.011374025605618954,
        -0.03885067626833916,
        -0.1081869900226593,
        -0.014299454167485237,
        0.04071001335978508,
        0.0347161628305912,
        -0.012929696589708328,
        -0.11705669015645981,
        -0.054056424647569656
      ],
      [
        -0.0813317596912384,
        0.0815335363149643,
        0.10023676604032516,
        0.15594837069511414,
        0.47805699706077576,
        -0.29706382751464844,
        -0.23408272862434387,
        -0.15994566679000854,
        0.6758384108543396
      ],
      [
        0.016174135729670525,
        0.016646452248096466,
        -0.03745223209261894,
        -0.028285101056098938,
        0.2605876326560974,
        -0.11321096867322922,
        -0.4568396508693695,
        0.19713859260082245,
        1.1086474657058716
      ],
      [
        0.046446651220321655,
        0.07036730647087097,
        0.06057526171207428,
        -0.045456454157829285,
        -0.02431437373161316,
        -0.08141525089740753,
        -0.00935952365398407,
        -0.09537479281425476,
        0.10774172842502594
      ],
      [
        0.07420715689659119,
        0.025232814252376556,
        -0.0940798819065094,
        -0.10349917411804199,
        -0.07861317694187164,
        0.022212490439414978,
        -0.02369016408920288,
        0.017913714051246643,
        -0.03849714994430542
      ],
      [
        0.08313887566328049,
        -0.043508440256118774,
        -0.1011756956577301,
        0.2647022306919098,
        0.3490479290485382,
        -0.36538198590278625,
        -0.20664340257644653,
        0.1579730063676834,
        0.8228068351745605
      ],
      [
        0.01497235894203186,
        -0.02167437970638275,
        0.03938561677932739,
        0.004710525274276733,
        -0.03501136600971222,
        0.028714865446090698,
        -0.09681528806686401,
        0.12026581168174744,
        0.060296714305877686
      ],
      [
        -0.041899506002664566,
        0.06243665888905525,
        -0.09143618494272232,
        -0.06350401788949966,
        0.104189932346344,
        0.0017443825490772724,
        -0.04210926592350006,
        -0.10833730548620224,
        0.010492884553968906
      ],
      [
        0.05611447989940643,
        0.09394866228103638,
        0.05551156401634216,
        0.10269191861152649,
        0.09611284732818604,
        0.12140911817550659,
        0.08998285233974457,
        -0.08096525073051453,
        -0.025109589099884033
      ],
      [
        -0.06210833787918091,
        0.11199275404214859,
        -0.07243207842111588,
        0.08689708262681961,
        0.08554452657699585,
        0.06121464818716049,
        -0.00042302400106564164,
        0.05685804784297943,
        -0.01066491100937128
      ],
      [
        0.014288769103586674,
        0.09623952209949493,
        -0.1244746521115303,
        -0.11063061654567719,
        0.09120232611894608,
        0.03822675719857216,
        -0.10181360691785812,
        0.04769522324204445,
        -0.02688947506248951
      ],
      [
        0.03879183158278465,
        -0.04722775146365166,
        -0.030005956068634987,
        -0.49743780493736267,
        -0.7741341590881348,
        0.41592860221862793,
        -0.07174655795097351,
        0.1980811506509781,
        -1.3191956281661987
      ],
      [
        0.058585770428180695,
        0.008363325148820877,
        -0.087647445499897,
        -0.2034713178873062,
        -0.4277181327342987,
        0.3573141098022461,
        0.7662127017974854,
        0.029630839824676514,
        -1.009069800376892
      ],
      [
        0.0027894526720046997,
        -0.01529666781425476,
        0.11005760729312897,
        -0.02928800880908966,
        -0.07997715473175049,
        0.10456803441047668,
        0.05343000590801239,
        -0.10471563041210175,
        0.08493073284626007
      ],
      [
        -0.013463094830513,
        0.07135474681854248,
        0.09813547134399414,
        0.07903806865215302,
        0.049564868211746216,
        0.0013150572776794434,
        0.027947917580604553,
        -0.03301939368247986,
        -0.03931298851966858
      ],
      [
        0.025259556248784065,
        -0.07572604715824127,
        0.015055053867399693,
        0.03106357529759407,
        0.11573857814073563,
        -0.002407036954537034,
        -0.06334790587425232,
        0.06624943763017654,
        0.26734501123428345
      ],
      [
        -0.07901133596897125,
        0.08373330533504486,
        0.09497981518507004,
        0.40484318137168884,
        0.5017813444137573,
        -0.28696975111961365,
        -0.15416371822357178,
        -0.12802043557167053,
        0.7933399677276611
      ],
      [
        0.019735828042030334,
        0.09528563916683197,
        0.07759112119674683,
        0.07365770637989044,
        -0.045989856123924255,
        -0.027313292026519775,
        -0.03697909414768219,
        -0.1220880001783371,
        0.11659605801105499
      ],
      [
        0.08241404592990875,
        -0.009321749210357666,
        0.1050916463136673,
        0.029938220977783203,
        -0.0669664740562439,
        -0.0561792254447937,
        0.08825090527534485,
        -0.06852208077907562,
        -0.05675412714481354
      ],
      [
        -0.036219894886016846,
        0.09534209966659546,
        0.10150490701198578,
        0.11422844231128693,
        0.07407283782958984,
        -0.09203805029392242,
        -0.02805599570274353,
        0.02370557188987732,
        0.07655338943004608
      ],
      [
        -0.054891765117645264,
        -0.02748909592628479,
        -0.023051990196108818,
        0.10860389471054077,
        0.1036486029624939,
        0.0550825297832489,
        -0.0013173246989026666,
        0.08547993004322052,
        -0.10319812595844269
      ],
      [
        0.11969126015901566,
        0.12227966636419296,
        -0.01674087904393673,
        0.014547641389071941,
        -0.07442786544561386,
        -0.12694820761680603,
        -0.08399390429258347,
        -0.09622219949960709,
        -0.15858598053455353
      ],
      [
        0.03341492637991905,
        -0.05893642455339432,
        -0.004014907404780388,
        -0.14051631093025208,
        0.026042934507131577,
        0.05673893913626671,
        0.06444776058197021,
        0.09292617440223694,
        -0.1572481393814087
      ],
      [
        0.10272271186113358,
        0.18585947155952454,
        -0.0302373506128788,
        0.001048120204359293,
        0.08956422656774521,
        -0.092919260263443,
        0.0753968209028244,
        -0.02708926983177662,
        -0.042478084564208984
      ],
      [
        -0.1232784166932106,
        -0.0324489064514637,
        -0.01812778413295746,
        0.03651418909430504,
        -0.09690462797880173,
        -0.025045553222298622,
        0.019692951813340187,
        0.05180224031209946,
        -0.0018325367709621787
      ],
      [
        0.10552753508090973,
        0.09408892691135406,
        0.09784725308418274,
        0.10039585828781128,
        0.002995431423187256,
        0.047965556383132935,
        -0.03537417948246002,
        0.017751246690750122,
        0.11180269718170166
      ],
      [
        0.08458946645259857,
        0.17940813302993774,
        -0.03371770307421684,
        0.1714768260717392,
        0.2813290059566498,
        -0.1533375233411789,
        0.3291199505329132,
        -0.21169036626815796,
        0.18920180201530457
      ],
      [
        0.012282311916351318,
        0.01682361029088497,
        -0.1189250499010086,
        0.09074689447879791,
        0.12119211256504059,
        -0.06294526904821396,
        0.025228256359696388,
        0.03146771714091301,
        0.12440446019172668
      ],
      [
        0.07582312822341919,
        -0.014829754829406738,
        0.026339665055274963,
        0.04034331440925598,
        -0.1027471125125885,
        0.06656049191951752,
        0.11440062522888184,
        -0.0919143557548523,
        0.09012492001056671
      ],
      [
        -0.09451610594987869,
        0.02724655158817768,
        -0.056612689048051834,
        0.03449200838804245,
        -0.06460760533809662,
        0.07711978256702423,
        -0.0809902623295784,
        0.05998937040567398,
        0.10216641426086426
      ],
      [
        0.10801082849502563,
        0.03530450165271759,
        0.06729306280612946,
        0.09254243969917297,
        -0.011510372161865234,
        0.08917704224586487,
        -0.015675827860832214,
        -0.09867158532142639,
        -0.02087610960006714
      ],
      [
        0.1022033616900444,
        -0.08077254891395569,
        0.07258713990449905,
        -0.1011958047747612,
        -0.07112857699394226,
        -0.0777645856142044,
        0.09009476751089096,
        -0.05565619096159935,
        -0.04365161806344986
      ],
      [
        -0.028384864330291748,
        0.020030256360769272,
        0.05027737095952034,
        0.05073019117116928,
        0.18979135155677795,
        -0.08816112577915192,
        -0.37199845910072327,
        0.16488243639469147,
        0.9159758687019348
      ],
      [
        -0.07747460156679153,
        0.07913035154342651,
        0.004859546665102243,
        0.2843284606933594,
        0.6920733451843262,
        -0.3216652572154999,
        -0.29894548654556274,
        -0.17229467630386353,
        0.5560665726661682
      ],
      [
        -0.09293117374181747,
        0.07877562940120697,
        -0.0794483870267868,
        0.11817752569913864,
        0.03985138610005379,
        0.06821361929178238,
        -0.05607963725924492,
        0.012497959658503532,
        -0.11331941187381744
      ],
      [
        0.018823519349098206,
        -0.028745800256729126,
        0.08187441527843475,
        0.03913481533527374,
        0.021261408925056458,
        0.03839722275733948,
        0.10418832302093506,
        0.05035144090652466,
        0.08723309636116028
      ],
      [
        0.16619454324245453,
        0.1693916916847229,
        -0.03813231736421585,
        0.0916949063539505,
        -0.026932401582598686,
        0.11212707310914993,
        -0.3310874104499817,
        -0.06859152764081955,
        -0.261252224445343
      ],
      [
        0.011421860195696354,
        -0.14791245758533478,
        -0.05776555463671684,
        0.026436835527420044,
        0.11205652356147766,
        -0.08261162787675858,
        0.07004296779632568,
        0.10948781669139862,
        0.2499549388885498
      ],
      [
        -0.03593657910823822,
        -0.05779166519641876,
        -0.1111522763967514,
        -0.12255707383155823,
        0.11685141921043396,
        -0.11317266523838043,
        -0.0997573733329773,
        0.0029183924198150635,
        -0.04075217247009277
      ],
      [
        0.13012823462486267,
        0.0615018829703331,
        -0.026600709185004234,
        0.035881128162145615,
        0.06333772838115692,
        0.04181265830993652,
        0.12625110149383545,
        -0.13738422095775604,
        0.08928077667951584
      ],
      [
        -0.07233224809169769,
        -0.006646135821938515,
        0.07698843628168106,
        0.48195216059684753,
        0.48053184151649475,
        -0.4533173441886902,
        0.26587313413619995,
        -0.3228744566440582,
        0.7009961009025574
      ],
      [
        0.0853259265422821,
        0.04443620145320892,
        0.062354058027267456,
        -0.11668790876865387,
        0.0904368907213211,
        0.055400460958480835,
        0.11613664031028748,
        0.009607598185539246,
        -0.009959280490875244
      ],
      [
        -0.008428518660366535,
        0.1301409900188446,
        0.08973319828510284,
        0.06848713755607605,
        0.019989505410194397,
        -0.04287390783429146,
        0.038408443331718445,
        -0.055495597422122955,
        -0.0772828534245491
      ],
      [
        -0.05923924222588539,
        0.01287878304719925,
        -0.0629255622625351,
        -0.10360758751630783,
        0.03149290382862091,
        0.11760443449020386,
        -0.07403802871704102,
        0.09188607335090637,
        -0.0355328693985939
      ],
      [
        0.06893618404865265,
        -0.010899394750595093,
        0.0800776332616806,
        -0.11238591372966766,
        0.004557371139526367,
        -0.038876622915267944,
        0.06161995232105255,
        -0.03678406774997711,
        0.05754007399082184
      ],
      [
        -0.01545049250125885,
        0.04780355095863342,
        -0.10959509015083313,
        -0.12103000283241272,
        0.000929519534111023,
        0.04493172466754913,
        -0.01113399863243103,
        -0.08771450817584991,
        -0.014120027422904968
      ],
      [
        -0.11255373060703278,
        -0.08690907806158066,
        0.04851910471916199,
        -0.36733278632164,
        -0.523284912109375,
        0.26847484707832336,
        0.009879505261778831,
        0.3861871659755707,
        -0.5650864839553833
      ]
    ],
    "lstm.weight_hh_l0": [
      [
        -0.026726091280579567,
        0.02244267612695694,
        -0.16297924518585205,
        -0.2092173993587494,
        -0.10036319494247437,
        -0.17694689333438873,
        0.049998316913843155,
        -0.3599502742290497,
        0.08852192014455795,
        0.03497627004981041,
        0.32741379737854004,
        0.037045642733573914,
        -0.19091631472110748,
        0.20836442708969116,
        0.13273553550243378,
        -0.06148841604590416,
        -0.007168792188167572,
        -0.07855477929115295,
        0.20803193747997284,
        0.19026070833206177,
        0.011729344725608826,
        -0.02953590452671051,
        -0.06177155673503876,
        0.02421678602695465,
        -0.018469318747520447,
        -0.3469115197658539,
        -0.13954024016857147,
        -0.06498745083808899,
        -0.22380268573760986,
        0.16007809340953827,
        0.05068483576178551,
        0.08588309586048126,
        -0.019495628774166107,
        -0.2697732448577881,
        0.20343734323978424,
        0.22471128404140472,
        -0.0110226571559906,
        -0.062451645731925964,
        -0.07999824732542038,
        0.017788946628570557,
        -0.015581822954118252,
        0.016697511076927185,
        -0.1783541589975357,
        -0.16498211026191711,
        0.08451178669929504,
        0.00697636604309082,
        -0.04239348694682121,
        0.27904853224754333,
        -0.08414901793003082,
        -0.22738313674926758,
        0.186562180519104,
        0.11668529361486435,
        -0.051096461713314056,
        -0.21655558049678802,
        0.04531827196478844,
        -0.09804785251617432,
        0.12022307515144348,
        -0.1978813111782074,
        0.30073800683021545,
        -0.09220727533102036,
        0.0946989357471466,
        0.030973991379141808,
        0.0779569149017334,
        0.08608200401067734
      ],
      [
        0.031038567423820496,
        0.12453888356685638,
        -0.09794017672538757,
        0.009583041071891785,
        -0.04940134286880493,
        -0.02825324237346649,
        0.08953595161437988,
        -0.12351475656032562,
        -0.06451179087162018,
        0.09959383308887482,
        0.09612016379833221,
        -0.02034050226211548,
        0.03240351378917694,
        -0.06833618879318237,
        -0.08964566886425018,
        -0.10834231972694397,
        -0.028836801648139954,
        0.023778259754180908,
        -0.013354703783988953,
        -0.057963863015174866,
        -0.10457448661327362,
        0.0008459687232971191,
        0.03232043981552124,
        0.10701495409011841,
        -0.04541194438934326,
        -0.011248573660850525,
        -0.0788445919752121,
        -0.07617585361003876,
        0.09033374488353729,
        -0.0608636736869812,
        -0.07914692163467407,
        -0.007248044013977051,
        0.09498783946037292,
        -0.09312175214290619,
        -0.04009075462818146,
        -0.10396327078342438,
        0.10552604496479034,
        -0.00015598535537719727,
        0.009399160742759705,
        0.019289419054985046,
        0.018816888332366943,
        0.06089338660240173,
        -0.030372515320777893,
        0.05096331238746643,
        -0.10858649015426636,
        0.01003904640674591,
        0.0002825707197189331,
        -0.053137362003326416,
        -0.060380592942237854,
        0.02770809829235077,
        0.019496694207191467,
        -0.11487609148025513,
        0.11896079778671265,
        -0.011111408472061157,
        0.026156559586524963,
        0.08243536949157715,
        0.0993921309709549,
        -0.12478847801685333,
        0.06298437714576721,
        -0.04947806894779205,
        0.12499873340129852,
        -0.09763413667678833,
        0.07422970235347748,
        -0.0016578733921051025
      ],
      [
        -0.12010964006185532,
        -0.03554578498005867,
        0.01433021854609251,
        0.03758101165294647,
        0.05387873202562332,
        -0.02654937095940113,
        0.03038693219423294,
        0.09414732456207275,
        0.10416234284639359,
        0.121949702501297,
        0.1173013374209404,
        0.0006846832693554461,
        0.1254560798406601,
        0.056071117520332336,
        -0.05303161218762398,
        -0.07631906867027283,
        -0.018554311245679855,
        -0.12122979760169983,
        -0.06526577472686768,
        0.023773230612277985,
        -0.026533273980021477,
        -0.09390787780284882,
        -0.02053886093199253,
        0.08154399693012238,
        0.051131293177604675,
        -0.008030399680137634,
        -0.11563841998577118,
        -0.09132730215787888,
        0.0294334813952446,
        0.09078238904476166,
        -0.07243387401103973,
        -0.014000354334712029,
        -0.009533410891890526,
        0.07911086827516556,
        -0.04778405651450157,
        -0.049654770642519,
        -0.031753212213516235,
        -0.08961068093776703,
        -0.09447075426578522,
        0.05822274088859558,
        0.00800229050219059,
        0.048742931336164474,
        -0.050477396696805954,
        -0.12397840619087219,
        0.018968358635902405,
        0.06194411218166351,
        -0.039340779185295105,
        -0.09762607514858246,
        -0.005086932331323624,
        -0.09093566983938217,
        0.02308639883995056,
        -0.11218884587287903,
        -0.031009815633296967,
        -0.013891279697418213,
        -0.09615737199783325,
        -0.03466515243053436,
        -0.007246614433825016,
        -0.09129881113767624,
        0.07757887244224548,
        0.09790987521409988,
        -0.09605227410793304,
        0.09050822257995605,
        -0.09386806190013885,
        -0.003624382195994258
      ],
      [
        -0.0221523679792881,
        -0.036755338311195374,
        -0.1361803114414215,
        -0.059410881251096725,
        0.054464709013700485,
        0.05832580104470253,
        0.06271835416555405,
        0.21488986909389496,
        -0.033775538206100464,
        -0.006601120810955763,
        -0.04725614935159683,
        -0.06463868170976639,
        0.17172777652740479,
        -0.3525524437427521,
        -0.3655083179473877,
        0.07676661014556885,
        -0.1497035175561905,
        0.005895621608942747,
        0.22469563782215118,
        -0.5211129188537598,
        -0.16718047857284546,
        -0.03457534313201904,
        0.006016490515321493,
        0.11086727678775787,
        0.03391727805137634,
        -0.015715938061475754,
        -0.048344530165195465,
        0.10963819921016693,
        0.13190968334674835,
        -0.12125981599092484,
        -0.08468684554100037,
        0.09897899627685547,
        0.3642853796482086,
        0.13425913453102112,
        0.1630152314901352,
        -0.08318434655666351,
        -0.08745010197162628,
        -0.12006613612174988,
        0.09466288983821869,
        0.13104824721813202,
        -0.08078379929065704,
        0.09017804265022278,
        0.19783298671245575,
        0.07769138365983963,
        -0.047916874289512634,
        -0.0771348774433136,
        -0.06366609036922455,
        -0.03615899384021759,
        0.019790781661868095,
        0.20233149826526642,
        0.030251767486333847,
        0.028300803154706955,
        -0.041844047605991364,
        0.04604874178767204,
        0.11268128454685211,
        -0.03027905523777008,
        -0.4896377921104431,
        -0.07902087271213531,
        0.062748983502388,
        -0.30366286635398865,
        0.052361443638801575,
        -0.052876923233270645,
        0.08065272867679596,
        0.31630393862724304
      ],
      [
        -0.07521986961364746,
        -0.057891979813575745,
        -0.12374240159988403,
        0.017811015248298645,
        0.1239253580570221,
        -0.10413378477096558,
        -0.04058977961540222,
        0.12492527067661285,
        -0.08824090659618378,
        0.08301687240600586,
        0.09554573893547058,
        0.07464416325092316,
        0.005034804344177246,
        -0.024614527821540833,
        0.028533488512039185,
        0.0023675858974456787,
        -0.06116023659706116,
        -0.0961073637008667,
        -0.05659601092338562,
        -0.06116507947444916,
        -0.10078626871109009,
        -0.03499974310398102,
        -0.0845165103673935,
        0.03436015546321869,
        0.07627634704113007,
        -0.050854071974754333,
        -0.05753237009048462,
        0.1200370192527771,
        0.022280752658843994,
        -0.09601360559463501,
        0.017487794160842896,
        -0.12356333434581757,
        -0.0946662575006485,
        -0.026545628905296326,
        0.04549708962440491,
        0.01995973289012909,
        -0.09539328515529633,
        0.036877214908599854,
        0.10095430910587311,
        -0.11487653851509094,
        0.12454234063625336,
        0.11094176769256592,
        0.07793331146240234,
        0.05554260313510895,
        0.019532516598701477,
        -0.07221496105194092,
        -0.08891843259334564,
        0.10787488520145416,
        0.06005541980266571,
        -0.07649344205856323,
        0.09520131349563599,
        -0.06668399274349213,
        0.006544545292854309,
        0.09960155189037323,
        0.12116008996963501,
        0.014940813183784485,
        0.06159691512584686,
        0.014816462993621826,
        0.05214372277259827,
        0.03039596974849701,
        0.05406147241592407,
        0.0829659104347229,
        -0.04740804433822632,
        -0.08601649105548859
      ],
      [
        0.05994521081447601,
        -0.03365860879421234,
        0.048183053731918335,
        -0.026226460933685303,
        -0.11781446635723114,
        -0.06447373330593109,
        0.0701303482055664,
        0.06522195041179657,
        -0.1053289920091629,
        -0.10444656014442444,
        0.001471400260925293,
        0.0815221518278122,
        -0.09047147631645203,
        -0.04404275119304657,
        0.09168769419193268,
        0.09183892607688904,
        -0.017867684364318848,
        -0.0679146945476532,
        -0.1177200973033905,
        0.05398103594779968,
        0.04367353022098541,
        0.08718819916248322,
        0.053514331579208374,
        -0.0789819210767746,
        -0.057499080896377563,
        0.12095977365970612,
        0.044985249638557434,
        -0.0769432932138443,
        -0.05261409282684326,
        0.02707993984222412,
        0.10892538726329803,
        -0.023117855191230774,
        -0.11084823310375214,
        -0.09309126436710358,
        0.11323735117912292,
        0.0349864661693573,
        -0.06123994290828705,
        -0.0750596821308136,
        0.06220538914203644,
        0.012935459613800049,
        -0.0024039321579039097,
        0.11890915036201477,
        -0.12059293687343597,
        -0.019466236233711243,
        0.12291236221790314,
        0.09798465669155121,
        -0.028247162699699402,
        0.11151918768882751,
        -0.0074778348207473755,
        0.034208327531814575,
        0.09421791136264801,
        0.056517839431762695,
        -6.180060154292732e-05,
        0.04306866228580475,
        -0.005970582365989685,
        0.0658983439207077,
        -0.0062216222286224365,
        0.034237489104270935,
        -0.09949567914009094,
        -0.03833471238613129,
        -0.08945633471012115,
        0.08998364210128784,
        0.08497625589370728,
        -0.06685128808021545
      ],
      [
        0.07468129694461823,
        0.11677692830562592,
        -0.10090984404087067,
        0.02268444001674652,
        0.05905531346797943,
        -0.04535132646560669,
        -0.09953655302524567,
        0.10215021669864655,
        -0.04534779489040375,
        0.08484542369842529,
        0.044884175062179565,
        -0.08183600008487701,
        0.05489388108253479,
        0.013880163431167603,
        0.014784350991249084,
        -0.10808318853378296,
        -0.08953115344047546,
        -0.03644712269306183,
        -0.09683425724506378,
        0.08864092826843262,
        -0.01909935474395752,
        0.110133096575737,
        -0.006847977638244629,
        -0.001438930630683899,
        0.10259413719177246,
        -0.0670626312494278,
        0.007745638489723206,
        0.042892828583717346,
        -0.08093428611755371,
        -0.09696580469608307,
        0.0609704852104187,
        -0.012750640511512756,
        -0.09177641570568085,
        -0.05588112771511078,
        -0.08855445683002472,
        -0.08617442846298218,
        0.09775857627391815,
        -0.10463085770606995,
        0.06216536462306976,
        0.09876079857349396,
        0.12341181933879852,
        0.09457217156887054,
        -0.10216984152793884,
        -0.09268371760845184,
        0.011335417628288269,
        -0.07204817235469818,
        -0.1012294590473175,
        0.0006667822599411011,
        0.06224489212036133,
        -0.0951070785522461,
        0.019185781478881836,
        -0.1184614896774292,
        0.016062363982200623,
        0.036045655608177185,
        -0.07537171244621277,
        -0.1066991537809372,
        0.04253986477851868,
        -0.00542217493057251,
        0.09811337292194366,
        0.0503096729516983,
        -0.0021588951349258423,
        -0.06540866196155548,
        0.11340019106864929,
        0.03008309006690979
      ],
      [
        -0.08771950751543045,
        0.03318556770682335,
        -0.07504374533891678,
        -0.05123478174209595,
        0.12002146989107132,
        -0.04956107959151268,
        -0.04988887906074524,
        -0.019074255600571632,
        0.14368808269500732,
        0.05990305170416832,
        -0.03694916516542435,
        0.016284804791212082,
        0.05919975787401199,
        0.1079801395535469,
        0.12220657616853714,
        -0.037247661501169205,
        -0.04848026484251022,
        0.06939011812210083,
        -0.15487176179885864,
        -0.05314095318317413,
        -0.04833057150244713,
        -0.03723464906215668,
        -0.058081261813640594,
        -0.0907682478427887,
        -0.09268519282341003,
        0.01043320819735527,
        0.09316889196634293,
        0.09789061546325684,
        0.13709254562854767,
        -0.16896308958530426,
        0.08268364518880844,
        -0.11821340769529343,
        -0.03148217499256134,
        0.07004623115062714,
        -0.06800027191638947,
        0.10242775827646255,
        -0.04720206558704376,
        0.04380592703819275,
        -0.11130313575267792,
        -0.02740316092967987,
        -0.024451488628983498,
        -0.07588572800159454,
        0.029660366475582123,
        0.09463292360305786,
        -0.05346199870109558,
        -0.012653440237045288,
        -0.029287680983543396,
        0.06927306950092316,
        -0.009555825032293797,
        -0.0577559731900692,
        0.06379420310258865,
        -0.09428845345973969,
        -0.0942498967051506,
        -0.05176513269543648,
        0.07851549237966537,
        -0.08940200507640839,
        0.06237313523888588,
        0.003918686881661415,
        0.039036381989717484,
        -0.07377848029136658,
        0.09438617527484894,
        -0.008646643720567226,
        0.024587824940681458,
        0.20205014944076538
      ],
      [
        -0.01846431940793991,
        -0.0456790030002594,
        0.05497940629720688,
        -0.046206265687942505,
        -0.022952886298298836,
        -0.007966350764036179,
        0.07922396808862686,
        -0.0387255884706974,
        0.09288464486598969,
        0.07560627162456512,
        -0.07011716067790985,
        -0.06901815533638,
        -0.1090516746044159,
        -0.0018169870600104332,
        0.08471786975860596,
        0.013788914307951927,
        0.07700406014919281,
        0.044013991951942444,
        -0.11856409907341003,
        -0.09412197768688202,
        -0.22022712230682373,
        0.03858406841754913,
        0.08185645937919617,
        -0.06076890230178833,
        0.08203651010990143,
        -0.16870450973510742,
        -0.06726101785898209,
        -0.10883849114179611,
        0.053810782730579376,
        -0.01698172278702259,
        -0.056823667138814926,
        0.2141059935092926,
        0.0019977372139692307,
        0.0001630995247978717,
        -0.05272752419114113,
        0.08423912525177002,
        0.04772832989692688,
        2.7156460419064388e-05,
        0.07769083976745605,
        0.04388609528541565,
        -0.012049119919538498,
        -0.12848517298698425,
        -0.03247674182057381,
        0.1348586231470108,
        0.012655535712838173,
        -0.029417455196380615,
        0.08114465326070786,
        0.05771564692258835,
        -0.13166646659374237,
        -0.042589303106069565,
        -0.10760533809661865,
        0.03516710177063942,
        0.14007754623889923,
        -0.06578372418880463,
        -0.06936757266521454,
        0.0252121239900589,
        0.06190132722258568,
        0.037873703986406326,
        0.14854122698307037,
        -0.07863011211156845,
        -0.01645677164196968,
        0.0511157251894474,
        0.09666869044303894,
        -0.07879403233528137
      ],
      [
        0.03522332385182381,
        0.05927116796374321,
        0.05011020600795746,
        0.06276159733533859,
        0.23696398735046387,
        -0.03302856534719467,
        0.016637438908219337,
        0.1930665522813797,
        0.028596818447113037,
        -0.013159492053091526,
        -0.02135780081152916,
        -0.04612651467323303,
        0.1171509325504303,
        -0.1148371770977974,
        -0.03388390317559242,
        -0.05265884846448898,
        0.1582067459821701,
        -0.024914255365729332,
        -0.18745863437652588,
        -0.002244584495201707,
        -0.018583832308650017,
        -0.1085444837808609,
        0.09810729324817657,
        -0.07176168262958527,
        -0.04884898662567139,
        0.25251978635787964,
        0.0916643887758255,
        0.10483049601316452,
        -0.060563355684280396,
        0.020528065040707588,
        0.06495169550180435,
        -0.19263571500778198,
        -0.06358994543552399,
        0.2023187130689621,
        -0.16066889464855194,
        -0.0731302872300148,
        -0.08117401599884033,
        -0.07988134026527405,
        -0.09661595523357391,
        -0.05565984919667244,
        -0.14023053646087646,
        0.0427444763481617,
        0.04912922531366348,
        0.11649219691753387,
        0.07539062201976776,
        -0.12372815608978271,
        -0.0943516194820404,
        -0.010320843197405338,
        -0.04560289531946182,
        -0.06157466769218445,
        -0.027045652270317078,
        0.0027038005646318197,
        0.1267453283071518,
        -0.03258529677987099,
        0.12382470071315765,
        0.0030134767293930054,
        -0.052282318472862244,
        0.21087099611759186,
        -0.024124816060066223,
        0.049850016832351685,
        -0.03161051869392395,
        -0.019142068922519684,
        -0.09616471827030182,
        -0.16455435752868652
      ],
      [
        -0.019719811156392097,
        0.014598317444324493,
        0.020323865115642548,
        0.2080082893371582,
        0.18943098187446594,
        -0.024099230766296387,
        -0.10210040211677551,
        -0.023120522499084473,
        0.3600718379020691,
        -0.05774690583348274,
        0.3247402310371399,
        -0.12441528588533401,
        -0.0007151439785957336,
        -0.04791554808616638,
        0.08670899271965027,
        -0.011014018207788467,
        0.01951887086033821,
        -0.062389712780714035,
        0.15920361876487732,
        0.16818974912166595,
        0.3027809262275696,
        0.08568130433559418,
        0.18564610183238983,
        -0.047633782029151917,
        0.12490585446357727,
        0.2839501202106476,
        0.08002129942178726,
        0.036384761333465576,
        0.20445653796195984,
        -0.03895954042673111,
        -0.135111004114151,
        -0.39868709444999695,
        0.1885782778263092,
        0.2908165752887726,
        0.07875019311904907,
        0.08805977553129196,
        0.09543919563293457,
        0.07862627506256104,
        0.06489896029233932,
        -0.2358511984348297,
        0.06033364310860634,
        0.024900702759623528,
        0.06784229725599289,
        -0.06286663562059402,
        -0.11026789247989655,
        0.015584617853164673,
        -0.06630851328372955,
        0.06043127551674843,
        0.26263171434402466,
        0.06888466328382492,
        -0.0034584375098347664,
        0.015283050015568733,
        0.14322645962238312,
        0.13003382086753845,
        0.10184849798679352,
        0.11395007371902466,
        -0.26958388090133667,
        0.11067073792219162,
        -0.28468459844589233,
        0.06720779091119766,
        0.06817156076431274,
        0.15595412254333496,
        -0.08100169897079468,
        0.09334423393011093
      ],
      [
        -0.06990878283977509,
        -0.11824779212474823,
        0.09568044543266296,
        0.04519478231668472,
        -0.04170747473835945,
        -0.01812339760363102,
        0.11991619318723679,
        0.10656595230102539,
        -0.16631394624710083,
        -0.04768873378634453,
        -0.032129932194948196,
        -0.0240665003657341,
        2.680857278392068e-07,
        -0.09861713647842407,
        -0.08778803795576096,
        -0.05722697079181671,
        0.07713933289051056,
        -0.09607106447219849,
        0.05132238194346428,
        0.020587822422385216,
        -0.001955615822225809,
        0.013961538672447205,
        -0.08325936645269394,
        0.06585688889026642,
        0.10757765173912048,
        0.0488455556333065,
        -0.11078590154647827,
        0.02913760393857956,
        -0.12022063881158829,
        0.06588150560855865,
        0.1017991453409195,
        -0.11616162955760956,
        -0.08324644714593887,
        0.049346789717674255,
        -0.051030974835157394,
        0.07905157655477524,
        0.04344119131565094,
        -0.03222101926803589,
        -0.10091488808393478,
        0.017307013273239136,
        0.08749096840620041,
        0.03026110678911209,
        -0.027789199724793434,
        -0.03237537294626236,
        0.029306337237358093,
        0.05975055694580078,
        0.016211077570915222,
        -0.03557378426194191,
        -0.12992806732654572,
        0.19072182476520538,
        0.18304741382598877,
        0.078219935297966,
        0.08719895780086517,
        -0.04432240501046181,
        0.04966594651341438,
        -0.012505263090133667,
        -0.016892801970243454,
        -0.015410630963742733,
        0.06289787590503693,
        -0.022729795426130295,
        -0.12158383429050446,
        0.015137946233153343,
        0.07260294258594513,
        -0.026459550485014915
      ],
      [
        -0.12213601171970367,
        0.08589066565036774,
        0.08720560371875763,
        -0.0575745552778244,
        0.12049242854118347,
        -0.04207424819469452,
        0.07991120219230652,
        -0.0665367990732193,
        -0.06966061890125275,
        0.03885553777217865,
        0.07903797924518585,
        -0.056451573967933655,
        0.10116904973983765,
        0.04055708646774292,
        0.09726369380950928,
        -0.028480008244514465,
        0.08429208397865295,
        -0.04560503363609314,
        -0.056841716170310974,
        -0.07523317635059357,
        0.08210167288780212,
        -0.0461612343788147,
        0.09631691873073578,
        -0.06425133347511292,
        0.005427315831184387,
        -0.061358898878097534,
        -0.02226388454437256,
        -0.010205745697021484,
        0.09258206188678741,
        -0.041516587138175964,
        0.0314021110534668,
        -0.031222328543663025,
        0.08195920288562775,
        0.05593407154083252,
        0.06704556941986084,
        -0.07901684939861298,
        -0.039250969886779785,
        0.0004089772701263428,
        0.0770031213760376,
        0.002406880259513855,
        -0.09464713931083679,
        -0.08127069473266602,
        -0.10492013394832611,
        0.07075062394142151,
        0.047193482518196106,
        -0.002384290099143982,
        -0.022645458579063416,
        -0.04913818836212158,
        0.06497497856616974,
        0.11936348676681519,
        0.1067134439945221,
        0.0855366438627243,
        0.05424799025058746,
        0.05843326449394226,
        0.007469639182090759,
        -0.10467074811458588,
        0.06434109807014465,
        0.06451354920864105,
        -0.04539257287979126,
        -0.11164870858192444,
        0.08413675427436829,
        0.08929106593132019,
        0.048582494258880615,
        -0.039741113781929016
      ],
      [
        -0.037283964455127716,
        0.2263268679380417,
        -0.24100378155708313,
        -0.11374684423208237,
        -0.05710462108254433,
        0.0018880508141592145,
        0.09205633401870728,
        0.3253040313720703,
        -0.40305471420288086,
        0.08597258478403091,
        0.013176790438592434,
        0.004197973292320967,
        -0.05466851219534874,
        -0.0001839607721194625,
        0.03173135221004486,
        -0.05423792451620102,
        -0.10597611218690872,
        -0.04381242394447327,
        -0.06753013283014297,
        0.12022506445646286,
        0.33044371008872986,
        0.0518183559179306,
        -0.16102874279022217,
        -0.03590992093086243,
        -0.046303823590278625,
        0.25764378905296326,
        -0.07682261615991592,
        -0.03797280043363571,
        -0.22225253283977509,
        0.19820457696914673,
        0.07180250436067581,
        -0.04575960710644722,
        -0.05115695670247078,
        -0.006226752884685993,
        -0.08480216562747955,
        0.011731784790754318,
        0.01050741970539093,
        0.003891289234161377,
        -0.06096496805548668,
        0.09841929376125336,
        0.1696874052286148,
        -0.02066614478826523,
        0.056824054569005966,
        -0.2193116694688797,
        0.038105517625808716,
        0.05384920537471771,
        0.04672504961490631,
        0.09559346735477448,
        0.19902420043945312,
        -0.1729615032672882,
        -0.23624399304389954,
        -0.020031042397022247,
        -0.06303367018699646,
        0.015468387864530087,
        0.027449097484350204,
        0.05461190640926361,
        0.03866373375058174,
        -0.39237409830093384,
        0.33797967433929443,
        0.13000205159187317,
        0.04765385761857033,
        -0.07755551487207413,
        -0.11500532925128937,
        0.027316724881529808
      ],
      [
        0.00561662670224905,
        -0.12943172454833984,
        -0.06604816019535065,
        -0.03282783553004265,
        -0.171402245759964,
        0.006244896911084652,
        0.09444256871938705,
        0.03914419189095497,
        -0.3504186272621155,
        0.10571352392435074,
