{
  "model_state_dict": {
    "embedding.weight": [
      [
        0.963179886341095,
        -0.014051967300474644,
        -0.8364564180374146,
        0.5818201303482056
      ],
      [
        -1.593929409980774,
        1.5361442565917969,
        -0.9172418117523193,
        -0.2051391750574112
      ],
      [
        -0.022372093051671982,
        -0.6685153245925903,
        -0.2619338035583496,
        0.13013491034507751
      ],
      [
        0.9678378105163574,
        -0.8230831623077393,
        -0.6189600229263306,
        0.47108784317970276
      ]
    ],
    "lstm.weight_ih_l0": [
      [
        -0.0233607217669487,
        0.02582264132797718,
        0.051430027931928635,
        0.06315547227859497,
        0.6119273900985718,
        -0.18888254463672638,
        0.2861439883708954,
        0.5192214250564575,
        0.7633716464042664
      ],
      [
        -0.10338430851697922,
        -0.010604900307953358,
        0.053082823753356934,
        0.08593868464231491,
        -0.21803592145442963,
        -0.16519252955913544,
        0.3489115834236145,
        -0.17949964106082916,
        -0.41114410758018494
      ],
      [
        0.07363839447498322,
        -0.16543328762054443,
        -0.0019852626137435436,
        -0.12852635979652405,
        0.07629796862602234,
        0.03897004947066307,
        0.0045682950876653194,
        0.30664703249931335,
        -0.7012423872947693
      ],
      [
        -0.05892619863152504,
        0.030955258756875992,
        0.14949703216552734,
        0.21481144428253174,
        -0.4566262662410736,
        0.22140806913375854,
        0.13795936107635498,
        -0.9568018913269043,
        -1.219965934753418
      ],
      [
        -0.12291870266199112,
        0.007672279141843319,
        0.10809189081192017,
        0.3161144554615021,
        0.2515352964401245,
        -0.09191544353961945,
        0.139581561088562,
        -0.41093894839286804,
        0.6625648736953735
      ],
      [
        -0.02732415497303009,
        -0.11753715574741364,
        -0.08835946023464203,
        -0.10550113022327423,
        -0.06190389394760132,
        -0.08550091087818146,
        0.019859686493873596,
        0.007407575845718384,
        0.12251533567905426
      ],
      [
        -0.10234591364860535,
        0.059597406536340714,
        0.1119537428021431,
        -0.08555067330598831,
        0.15394935011863708,
        -0.08666754513978958,
        0.19516009092330933,
        0.3193795382976532,
        0.4861098825931549
      ],
      [
        0.018456971272826195,
        -0.06951021403074265,
        -0.10783787071704865,
        0.0955115556716919,
        0.0760619044303894,
        -0.07020369917154312,
        0.08278466761112213,
        -0.034935709089040756,
        -0.05989713966846466
      ],
      [
        0.006199547555297613,
        -0.13629479706287384,
        0.08965244144201279,
        -0.0647544264793396,
        -0.1425037682056427,
        -0.1438704878091812,
        -0.07911551743745804,
        0.02755012735724449,
        0.26859667897224426
      ],
      [
        -0.03874694183468819,
        0.09462307393550873,
        -0.0656433030962944,
        -0.0325637124478817,
        0.05677472800016403,
        0.033959951251745224,
        -0.13138212263584137,
        -0.04696701467037201,
        0.09328291565179825
      ],
      [
        -0.020918503403663635,
        0.033662647008895874,
        -0.008479788899421692,
        0.07973818480968475,
        -0.1151505559682846,
        -0.02260550856590271,
        -0.03120724856853485,
        0.07775191962718964,
        0.0514201819896698
      ],
      [
        -0.032277658581733704,
        -0.07352328300476074,
        0.05004189908504486,
        -0.10093890130519867,
        0.11330084502696991,
        0.10499726235866547,
        -0.07637996971607208,
        0.016877099871635437,
        0.023183375597000122
      ],
      [
        -0.003261476755142212,
        -0.0980774313211441,
        0.10143913328647614,
        -0.04383724927902222,
        -0.05240154266357422,
        -0.12278302013874054,
        0.1203637570142746,
        0.04444645345211029,
        -0.05790667235851288
      ],
      [
        0.06935553252696991,
        -0.010396035388112068,
        -0.06702042371034622,
        -0.1269330233335495,
        0.1501246988773346,
        0.040245551615953445,
        -0.08614160120487213,
        -0.10354078561067581,
        0.5408319234848022
      ],
      [
        0.04143896698951721,
        0.032437682151794434,
        -0.11320270597934723,
        -0.10744144022464752,
        -0.061847999691963196,
        0.0618353933095932,
        -0.04490862786769867,
        -0.011821731925010681,
        0.07796826958656311
      ],
      [
        -0.03717663139104843,
        -0.08036033064126968,
        0.1345524787902832,
        -0.11792335659265518,
        0.02176164835691452,
        -0.09838597476482391,
        0.06202053651213646,
        -0.08150973170995712,
        0.03237516060471535
      ],
      [
        0.0753486379981041,
        -0.01579841785132885,
        -0.08703850209712982,
        0.04072679206728935,
        0.056867774575948715,
        -0.03739582747220993,
        -0.05588332563638687,
        0.06540542095899582,
        0.0854012742638588
      ],
      [
        -0.11824554204940796,
        -0.11789728701114655,
        -0.0041986266151070595,
        0.009783062152564526,
        0.046137887984514236,
        0.15833887457847595,
        -0.06086519733071327,
        0.05616103485226631,
        -0.11700627952814102
      ],
      [
        -0.004486963152885437,
        0.08438710868358612,
        -0.12399578094482422,
        -0.008355662226676941,
        0.10668984055519104,
        -0.11810790002346039,
        0.10933728516101837,
        0.0006342232227325439,
        -0.08530491590499878
      ],
      [
        -0.005602207966148853,
        -0.2073555886745453,
        -0.006788759492337704,
        -0.007296460215002298,
        0.4944486618041992,
        -0.22767436504364014,
        0.06712084263563156,
        0.4486989378929138,
        0.5296357870101929
      ],
      [
        -0.00252179685048759,
        0.06243683770298958,
        -0.06203805282711983,
        0.041661739349365234,
        0.020750919356942177,
        0.004514854401350021,
        0.10036639124155045,
        0.05290811136364937,
        0.05818343535065651
      ],
      [
        -0.12259140610694885,
        0.09858476370573044,
        -0.07931457459926605,
        -0.02774818055331707,
        -0.08197469264268875,
        -0.05583631247282028,
        -0.06080584600567818,
        -0.09768232703208923,
        -0.06278478354215622
      ],
      [
        -0.022190840914845467,
        0.01911505125463009,
        -0.11512047797441483,
        -0.12268340587615967,
        0.020146340131759644,
        0.11972986161708832,
        -0.004213646054267883,
        0.12168282270431519,
        -0.08790931105613708
      ],
      [
        0.114606574177742,
        0.08846259862184525,
        0.039462365210056305,
        -0.08889240026473999,
        -0.02228306047618389,
        0.010647254064679146,
        0.08396321535110474,
        0.10972117632627487,
        0.04045213758945465
      ],
      [
        0.021364765241742134,
        0.061273328959941864,
        -0.004934415221214294,
        0.0635218620300293,
        0.06310764700174332,
        -0.014617782086133957,
        -0.05651123449206352,
        0.12429849058389664,
        -0.0663069561123848
      ],
      [
        -0.030120307579636574,
        -0.07998665422201157,
        0.07246518135070801,
        0.11355684697628021,
        0.02714821696281433,
        -0.04243004694581032,
        -0.0529005229473114,
        -0.04397064447402954,
        0.007096825633198023
      ],
      [
        0.167692169547081,
        0.029980208724737167,
        -0.09093613177537918,
        -0.08580461889505386,
        -0.33492374420166016,
        0.06535191833972931,
        -0.4170457422733307,
        0.35248076915740967,
        -0.4837580919265747
      ],
      [
        -0.08304513245820999,
        0.08245918154716492,
        0.027960699051618576,
        0.04863462969660759,
        -0.013916850090026855,
        0.11550077050924301,
        0.10506626963615417,
        0.05492347851395607,
        -0.05918378382921219
      ],
      [
        -0.1022791862487793,
        0.01592375710606575,
        -0.020605463534593582,
        -0.015564936213195324,
        0.041812025010585785,
        0.02214721404016018,
        -0.08313678950071335,
        0.0810474157333374,
        0.03493660315871239
      ],
      [
        -0.03062678687274456,
        0.11693336814641953,
        -0.10538800805807114,
        -0.029440179467201233,
        -0.10885609686374664,
        0.07083487510681152,
        0.02949519455432892,
        -0.07873226702213287,
        -0.02575591206550598
      ],
      [
        0.01753229647874832,
        0.08502159267663956,
        0.04807257279753685,
        0.11228000372648239,
        -0.11973568797111511,
        -0.06763189285993576,
        -0.11341457813978195,
        -0.005667070392519236,
        0.0397353358566761
      ],
      [
        0.10278059542179108,
        0.1104688048362732,
        -0.10117757320404053,
        0.08544811606407166,
        0.002439752221107483,
        0.07704950869083405,
        0.10380686819553375,
        0.10034970939159393,
        -0.10430257022380829
      ],
      [
        -0.08644822239875793,
        -0.05995680391788483,
        -0.07254359871149063,
        0.08557160198688507,
        -0.004037618637084961,
        -0.11677931249141693,
        0.09758567810058594,
        -0.03574757277965546,
        -0.058759644627571106
      ],
      [
        -0.0998733639717102,
        -0.08874606341123581,
        0.0012019930873066187,
        -0.11964826285839081,
        -0.09008222818374634,
        -0.06525301188230515,
        -0.05274542048573494,
        -0.0546545647084713,
        -0.07439468801021576
      ],
      [
        0.12449940294027328,
        0.1344076693058014,
        -0.053781408816576004,
        -0.10240759700536728,
        0.014849371276795864,
        -0.008179847151041031,
        0.05046907439827919,
        0.20975954830646515,
        -0.11626249551773071
      ],
      [
        -0.11886100471019745,
        0.11819048225879669,
        -0.11841642111539841,
        -0.014419883489608765,
        0.06966891884803772,
        0.10551686584949493,
        -0.10098722577095032,
        0.09242619574069977,
        -0.03516441583633423
      ],
      [
        -0.010429194197058678,
        -0.06712711602449417,
        0.06767003238201141,
        -0.0549236424267292,
        0.0740041509270668,
        -0.14830432832241058,
        -0.0892242044210434,
        -0.027542905882000923,
        -0.08438364416360855
      ],
      [
        0.0009369801846332848,
        -0.010259897448122501,
        -0.11470676958560944,
        0.08896045386791229,
        0.05141831934452057,
        0.014920622110366821,
        -0.012463882565498352,
        0.044681236147880554,
        0.0873333215713501
      ],
      [
        0.08544035255908966,
        -0.09086361527442932,
        0.03620767220854759,
        0.010066626593470573,
        -0.11752279102802277,
        -0.0763484388589859,
        0.07187973707914352,
        -0.01027621142566204,
        0.10802990198135376
      ],
      [
        -0.04018295928835869,
        -0.09299319982528687,
        -0.07579974085092545,
        -0.03319784998893738,
        0.09542538970708847,
        0.0938732773065567,
        -0.11519282311201096,
        -0.06639738380908966,
        0.10346321761608124
      ],
      [
        -0.02436932735145092,
        0.09875446557998657,
        0.13700149953365326,
        0.15366582572460175,
        0.09950172901153564,
        -0.13579799234867096,
        0.09047529846429825,
        -0.08522836118936539,
        -0.018800243735313416
      ],
      [
        -0.11155396699905396,
        -0.016542017459869385,
        -0.09718342125415802,
        0.04502399265766144,
        0.013175025582313538,
        -0.11669452488422394,
        -0.0744272917509079,
        0.001055985689163208,
        -0.017221510410308838
      ],
      [
        -0.1303727775812149,
        0.055815279483795166,
        -0.0790412575006485,
        0.05589741840958595,
        0.11854046583175659,
        -0.0188760943710804,
        0.040475182235240936,
        -0.10292432457208633,
        -0.022659851238131523
      ],
      [
        -0.030337361618876457,
        -0.005654350854456425,
        0.08024100959300995,
        0.006954710930585861,
        -0.37108325958251953,
        0.19176362454891205,
        0.3907618224620819,
        -0.5853617787361145,
        -1.1062073707580566
      ],
      [
        -0.003994077444076538,
        -0.02083456516265869,
        0.11597909033298492,
        -0.007522836327552795,
        0.10938885807991028,
        0.0009345710277557373,
        0.018722370266914368,
        0.024818941950798035,
        0.07968662679195404
      ],
      [
        0.06046853959560394,
        0.07591138780117035,
        0.05988326668739319,
        0.005698338150978088,
        0.08486276865005493,
        -0.014956951141357422,
        0.011909201741218567,
        0.03819289803504944,
        0.07159136235713959
      ],
      [
        0.023192724213004112,
        -0.34099385142326355,
        -0.07436775416135788,
        -0.14995308220386505,
        0.36959102749824524,
        -0.10190542042255402,
        0.10834112018346786,
        0.4572852849960327,
        0.9013896584510803
      ],
      [
        -0.006544009316712618,
        -0.003994202706962824,
        0.017589963972568512,
        0.009349997155368328,
        1.081758737564087,
        -0.22610826790332794,
        -0.033787887543439865,
        1.0619804859161377,
        1.6801106929779053
      ],
      [
        0.0307663232088089,
        0.1120939701795578,
        0.07419523596763611,
        -0.05526620149612427,
        0.08606010675430298,
        -0.12131530046463013,
        -0.09943284094333649,
        -0.009182721376419067,
        0.05138039588928223
      ],
      [
        -0.1354736089706421,
        -0.09424568712711334,
        -0.01329871267080307,
        -0.05977689474821091,
        -0.09466465562582016,
        -0.05172954499721527,
        0.025567565113306046,
        0.07344140112400055,
        -0.06265947222709656
      ],
      [
        0.04365955665707588,
        -0.05046916753053665,
        -0.1442655473947525,
        -9.405702439835295e-05,
        0.19888365268707275,
        -0.009976972825825214,
        0.268401563167572,
        0.25079771876335144,
        0.7930763959884644
      ],
      [
        0.09977149218320847,
        0.06620226800441742,
        -0.03986654430627823,
        0.11775954067707062,
        -0.1111602634191513,
        -0.10837532579898834,
        0.031038079410791397,
        0.025072017684578896,
        -0.1693798303604126
      ],
      [
        -0.07113851606845856,
        -0.03310992568731308,
        0.020797058939933777,
        0.2152840495109558,
        0.47525233030319214,
        -0.22972773015499115,
        0.05209251865744591,
        -0.26141223311424255,
        0.43062540888786316
      ],
      [
        -0.11304526031017303,
        -0.051940858364105225,
        -0.011951799504458904,
        0.04586506262421608,
        0.10735974460840225,
        0.023659061640501022,
        0.10466808825731277,
        -0.08406157791614532,
        0.18434375524520874
      ],
      [
        -0.02456638403236866,
        -0.08184044808149338,
        0.04668018966913223,
        0.0724538192152977,
        -0.03585759922862053,
        0.03352995589375496,
        -0.09602614492177963,
        -0.08857027441263199,
        0.057375717908144
      ],
      [
        -0.0645470917224884,
        -0.1089559867978096,
        0.037020135670900345,
        -0.002355779055505991,
        0.10070368647575378,
        0.04890151694417,
        0.10882676392793655,
        -0.0643593892455101,
        -0.09420476853847504
      ],
      [
        0.059061285108327866,
        -0.08226261287927628,
        -0.06945554167032242,
        -0.08823984861373901,
        -0.09035129100084305,
        0.010518454946577549,
        -0.02199690043926239,
        0.11019103229045868,
        0.06994087994098663
      ],
      [
        0.07886841893196106,
        0.08456157147884369,
        0.11579479277133942,
        0.028756707906723022,
        -0.08490924537181854,
        0.031248435378074646,
        0.06104332208633423,
        0.04272177815437317,
        -0.10012233257293701
      ],
      [
        0.012100748717784882,
        -0.019010944291949272,
        -0.1188664361834526,
        -0.011625980958342552,
        0.1202109232544899,
        0.06471507996320724,
        0.04688112437725067,
        0.08069382607936859,
        -0.09201458096504211
      ],
      [
        -0.021149473264813423,
        0.08836953341960907,
        0.07762560993432999,
        0.07556639611721039,
        0.05109132453799248,
        0.07940714806318283,
        -0.1621270328760147,
        0.14357176423072815,
        0.10542858392000198
      ],
      [
        -0.11330704391002655,
        0.07935582101345062,
        -0.09412694722414017,
        0.052902717143297195,
        -0.10222367197275162,
        0.050652481615543365,
        0.11268310248851776,
        -0.00478194048628211,
        0.04592149704694748
      ],
      [
        0.0018736571073532104,
        -0.04400177299976349,
        0.06632429361343384,
        0.0656435489654541,
        0.049436554312705994,
        -0.07348555326461792,
        0.0931113064289093,
        -0.0117424875497818,
        -0.052997320890426636
      ],
      [
        -0.01749742031097412,
        -0.09881769120693207,
        0.08778257668018341,
        -0.06218218803405762,
        -0.06252430379390717,
        -0.04922512173652649,
        -0.09712828695774078,
        -0.010668501257896423,
        -0.055497169494628906
      ],
      [
        -0.05808763578534126,
        0.017473524436354637,
        0.02206619642674923,
        -0.2108309119939804,
        0.47122031450271606,
        -0.06391467899084091,
        -0.32949987053871155,
        0.27523788809776306,
        0.6502413749694824
      ],
      [
        -0.0023704320192337036,
        -0.05384373664855957,
        0.12234155833721161,
        -0.09075123071670532,
        0.0625080019235611,
        -0.020931705832481384,
        -0.10415893793106079,
        -0.0736108124256134,
        -0.041236430406570435
      ],
      [
        0.050213854759931564,
        -0.005953462328761816,
        0.040145400911569595,
        -0.01936812326312065,
        -0.0064893183298408985,
        0.056930869817733765,
        0.060681574046611786,
        -0.1111975833773613,
        -0.06934183090925217
      ],
      [
        0.023469746112823486,
        0.051582008600234985,
        0.1086023598909378,
        0.07575264573097229,
        0.10640215873718262,
        -0.056105390191078186,
        -0.001026347279548645,
        0.0349016934633255,
        -0.0447501540184021
      ],
      [
        -0.003195136785507202,
        0.0010280791902914643,
        0.012954981066286564,
        0.018994305282831192,
        -0.6848961710929871,
        0.25177058577537537,
        0.3459327816963196,
        -0.6300013065338135,
        -1.0980117321014404
      ],
      [
        0.06711502373218536,
        -0.03349944204092026,
        0.009311721660196781,
        0.06483160704374313,
        0.03000355139374733,
        0.03825100138783455,
        0.08956105262041092,
        -0.170002281665802,
        0.13141120970249176
      ],
      [
        -0.12441287934780121,
        -0.0632326602935791,
        -0.01603136956691742,
        -0.0010123997926712036,
        -0.030032381415367126,
        -0.07936695218086243,
        0.09379832446575165,
        0.032693326473236084,
        0.09322328865528107
      ],
      [
        0.10263946652412415,
        -0.033286865800619125,
        0.06614537537097931,
        0.011825486086308956,
        0.05466064065694809,
        0.04717593267560005,
        -0.1021432876586914,
        0.0019583289977163076,
        -0.01762242242693901
      ],
      [
        -0.10827028751373291,
        -0.0932028666138649,
        0.01561499759554863,
        0.00501120463013649,
        -0.016417084261775017,
        -0.020240144804120064,
        0.11875875294208527,
        0.01076224260032177,
        0.048853471875190735
      ],
      [
        -0.11524023115634918,
        -0.0017007429851219058,
        -0.08224238455295563,
        0.013224482536315918,
        0.02630510926246643,
        -0.10753968358039856,
        -0.015094593167304993,
        0.11814609169960022,
        -0.11715526878833771
      ],
      [
        0.011638134717941284,
        0.043800488114356995,
        0.10869094729423523,
        0.06073985993862152,
        -0.12247040867805481,
        -0.11429671943187714,
        0.1102372407913208,
        0.0212927907705307,
        0.06563787162303925
      ],
      [
        -0.08872054517269135,
        0.04268883168697357,
        -0.04084166884422302,
        0.0924500972032547,
        -0.03031112253665924,
        0.06013423204421997,
        -0.08524920046329498,
        0.06714768707752228,
        -0.014494985342025757
      ],
      [
        -0.049459755420684814,
        -0.10320569574832916,
        -0.028699398040771484,
        -0.010340467095375061,
        -0.029187947511672974,
        -0.025929540395736694,
        0.11540600657463074,
        -0.022154971957206726,
        0.04097186028957367
      ],
      [
        0.017389342188835144,
        -0.06256383657455444,
        0.1212082952260971,
        0.09086050093173981,
        -0.08242562413215637,
        0.08405645191669464,
        0.02038346230983734,
        -0.10550811886787415,
        -0.11379215121269226
      ],
      [
        -0.02383963204920292,
        0.11633075773715973,
        0.12718483805656433,
        -0.07511314749717712,
        0.08539179712533951,
        0.056927453726530075,
        -0.10358421504497528,
        -0.048983197659254074,
        -0.090622179210186
      ],
      [
        0.049809202551841736,
        0.061844006180763245,
        -0.05857716500759125,
        0.09786498546600342,
        -0.08624701201915741,
        0.002849772572517395,
        0.013488322496414185,
        -0.05675935745239258,
        -0.010220557451248169
      ],
      [
        0.10564962029457092,
        -0.11963724344968796,
        0.0649019330739975,
        -0.06732374429702759,
        -0.022557303309440613,
        0.08229464292526245,
        0.09155918657779694,
        -0.07124243676662445,
        -0.0817650556564331
      ],
      [
        0.019571557641029358,
        0.08805771172046661,
        0.12079820036888123,
        -0.10765862464904785,
        0.037587836384773254,
        -0.048285096883773804,
        0.10325013101100922,
        0.08058002591133118,
        -0.12109328806400299
      ],
      [
        -0.015684237703680992,
        -0.07139300554990768,
        -0.04480299353599548,
        0.004689622204750776,
        -0.08884276449680328,
        -0.090628981590271,
        0.10896562039852142,
        0.02450394071638584,
        0.02057577669620514
      ],
      [
        -0.1200493574142456,
        -0.12497842311859131,
        -0.06802977621555328,
        -0.013154610991477966,
        0.09969931840896606,
        -0.03400684893131256,
        -0.05726277828216553,
        -0.09158796072006226,
        -0.07979534566402435
      ],
      [
        0.08398906141519547,
        -0.0003540178877301514,
        -0.01702304743230343,
        0.045990679413080215,
        0.08216904103755951,
        -0.14863622188568115,
        0.059597812592983246,
        0.15283003449440002,
        0.12287203967571259
      ],
      [
        0.0783810243010521,
        -0.046468477696180344,
        -0.1398126184940338,
        -0.03708619624376297,
        -0.029335685074329376,
        -0.09770091623067856,
        0.09305316209793091,
        0.11089681833982468,
        -0.09587310999631882
      ],
      [
        0.11120070517063141,
        -0.03067861497402191,
        0.05844421684741974,
        0.05117310583591461,
        -0.11847853660583496,
        0.1183476597070694,
        -0.0038640648126602173,
        -0.10364185273647308,
        0.07584841549396515
      ],
      [
        -0.028525453060865402,
        -0.012155234813690186,
        0.09760195016860962,
        0.0685727447271347,
        0.07313770055770874,
        0.03512510657310486,
        0.005937859416007996,
        -0.060342371463775635,
        -0.004856616258621216
      ],
      [
        -0.04458978399634361,
        0.03670341148972511,
        0.0817507654428482,
        0.017915304750204086,
        0.07484544813632965,
        0.093628890812397,
        -0.022354377433657646,
        0.12016626447439194,
        0.05630171298980713
      ],
      [
        0.06121954321861267,
        0.025158945471048355,
        -0.09289238601922989,
        0.05779968574643135,
        -0.09963647276163101,
        -0.09172911196947098,
        -0.0391237810254097,
        -0.04247773066163063,
        0.025729985907673836
      ],
      [
        0.017127539962530136,
        -0.11185603588819504,
        -0.0071847643703222275,
        0.02571767568588257,
        -0.10770738124847412,
        0.027504323050379753,
        -0.05586963891983032,
        0.023892179131507874,
        -0.00048753051669336855
      ],
      [
        0.11772093176841736,
        0.04138801991939545,
        0.0682203471660614,
        -0.03710456192493439,
        -0.0069029927253723145,
        0.0003559589385986328,
        -0.06466136872768402,
        0.0018328279256820679,
        0.0598045289516449
      ],
      [
        0.0912744402885437,
        0.11879464983940125,
        0.0271620936691761,
        0.03200255334377289,
        -0.07799835503101349,
        -0.03451213240623474,
        0.10415071249008179,
        -0.11352980136871338,
        0.11567942798137665
      ],
      [
        -0.07735645025968552,
        0.014676143415272236,
        0.01152716763317585,
        0.0747573971748352,
        0.09738136827945709,
        0.11571729928255081,
        0.004641381558030844,
        0.019078150391578674,
        -0.07877451926469803
      ],
      [
        -0.109376922249794,
        -0.10378873348236084,
        -0.04694126546382904,
        0.04711693525314331,
        0.09894347190856934,
        -0.07495450973510742,
        0.016228273510932922,
        -0.07985489070415497,
        -0.0380459725856781
      ],
      [
        -0.09528798609972,
        -0.0016865190118551254,
        -0.0038456523325294256,
        0.014828067272901535,
        0.06066122651100159,
        0.10036581754684448,
        0.030918633565306664,
        0.031613029539585114,
        -0.012578515335917473
      ],
      [
        -0.08640313148498535,
        -0.020119547843933105,
        -0.10514961183071136,
        0.04198521375656128,
        -0.04412907361984253,
        0.10398150980472565,
        -0.1229206770658493,
        -0.08732683956623077,
        0.11727133393287659
      ],
      [
        0.042645812034606934,
        0.045827820897102356,
        -0.11705009639263153,
        0.03879210352897644,
        -0.02550305426120758,
        0.0648098737001419,
        -0.10540874302387238,
        -0.03844781219959259,
        0.0651029497385025
      ],
      [
        -0.16246852278709412,
        -0.028055230155587196,
        -0.009547309018671513,
        0.052639756351709366,
        -0.03358982130885124,
        -0.0572151355445385,
        0.022101573646068573,
        0.10365502536296844,
        -0.0012748164590448141
      ],
      [
        0.01657629944384098,
        -0.030353715643286705,
        0.02064121700823307,
        0.05714002624154091,
        -0.1736821085214615,
        0.11540304124355316,
        0.022789977490901947,
        -0.051480237394571304,
        0.001286499435082078
      ],
      [
        0.01896578073501587,
        -0.10403162240982056,
        -0.06795558333396912,
        0.030992716550827026,
        -0.12319730222225189,
        -0.009740307927131653,
        -0.048162057995796204,
        -0.036531269550323486,
        0.0970039963722229
      ],
      [
        0.05449715629220009,
        -0.08462393283843994,
        0.004061466548591852,
        0.44087639451026917,
        0.3151249289512634,
        -0.13889682292938232,
        -0.037716250866651535,
        -0.7033501863479614,
        0.4833698272705078
      ],
      [
        0.08019086718559265,
        -0.10438227653503418,
        -0.04607461392879486,
        -0.050722867250442505,
        0.06279830634593964,
        0.037696465849876404,
        -0.05193889141082764,
        -0.08356960117816925,
        0.07679992914199829
      ],
      [
        -0.05043536424636841,
        -0.010893285274505615,
        -0.07590183615684509,
        -0.05170869827270508,
        0.008790358901023865,
        -0.04239676892757416,
        0.11476048827171326,
        -0.038747042417526245,
        0.014589458703994751
      ],
      [
        0.09754838049411774,
        0.023000091314315796,
        0.03781589865684509,
        -0.08809511363506317,
        0.049907341599464417,
        0.1079448014497757,
        -0.07006025314331055,
        -0.07484675943851471,
        -0.02572554349899292
      ],
      [
        -0.06051983684301376,
        -0.07502423226833344,
        0.11132684350013733,
        0.14383739233016968,
        0.4594336152076721,
        -0.3751051127910614,
        -0.3907480239868164,
        0.2641100287437439,
        1.266018271446228
      ],
      [
        0.0013406723737716675,
        0.12082135677337646,
        0.028194978833198547,
        0.11421559751033783,
        -0.07832497358322144,
        -0.09561988711357117,
        0.09577231109142303,
        0.05891421437263489,
        -0.057969629764556885
      ],
      [
        -0.06794314086437225,
        0.07517066597938538,
        0.03268161416053772,
        0.05360349640250206,
        -0.11786112189292908,
        -0.014634429477155209,
        -0.027915313839912415,
        -0.029323844239115715,
        0.0032704961486160755
      ],
      [
        -0.038821108639240265,
        -0.11600184440612793,
        -0.0697830393910408,
        -0.07732437551021576,
        -0.10796430706977844,
        -0.10233964025974274,
        -0.12320280075073242,
        -0.11983330547809601,
        -0.0015736520290374756
      ],
      [
        -0.024403801187872887,
        -0.0026309213135391474,
        0.05885783210396767,
        -0.0491439625620842,
        -0.6645679473876953,
        0.10265839844942093,
        0.15218669176101685,
        -0.2554067075252533,
        -0.6455018520355225
      ],
      [
        -0.06306701898574829,
        0.09529557079076767,
        0.11289048939943314,
        0.20805636048316956,
        0.21397191286087036,
        -0.17423787713050842,
        -0.1293954700231552,
        -0.21718743443489075,
        0.19751287996768951
      ],
      [
        -0.04434169828891754,
        0.032491669058799744,
        -0.11540304124355316,
        0.03300409018993378,
        -0.0853082686662674,
        0.062260702252388,
        -0.062889963388443,
        -0.040228381752967834,
        -0.04054117202758789
      ],
      [
        0.00892565120011568,
        0.03711926192045212,
        -0.0979042798280716,
        -0.050331078469753265,
        0.10971919447183609,
        -0.08361277729272842,
        0.07626478374004364,
        0.04184583202004433,
        -0.06463364511728287
      ],
      [
        0.02133883349597454,
        -0.08814027160406113,
        -0.06472215056419373,
        0.04118743911385536,
        0.11699532717466354,
        0.07189080119132996,
        -0.044181808829307556,
        -0.041627030819654465,
        0.01185222901403904
      ],
      [
        -0.023262664675712585,
        -0.08243823051452637,
        -0.04303939640522003,
        0.10258539021015167,
        -0.057580798864364624,
        -0.04428471624851227,
        -0.10332739353179932,
        -0.10224176943302155,
        0.05578835308551788
      ],
      [
        -0.08336074650287628,
        0.007972687482833862,
        -0.04223059117794037,
        0.06310223042964935,
        0.00260026752948761,
        -0.0029183626174926758,
        -0.04033993184566498,
        -0.11414523422718048,
        -0.012091785669326782
      ],
      [
        -0.12099483609199524,
        -0.10972172021865845,
        -0.0892193466424942,
        0.09000661969184875,
        0.057405367493629456,
        -0.09165830910205841,
        -0.0792912095785141,
        -0.005731299519538879,
        0.1123599112033844
      ],
      [
        -0.09135732054710388,
        -0.13132983446121216,
        0.037284404039382935,
        0.25628557801246643,
        0.1460125744342804,
        -0.22482949495315552,
        0.23102030158042908,
        0.0014733372954651713,
        0.3858869671821594
      ],
      [
        -0.14360828697681427,
        0.052953507751226425,
        -0.007189129013568163,
        0.012938152067363262,
        0.10586134344339371,
        0.11117371916770935,
        0.0701037347316742,
        0.005227398592978716,
        -0.08007549494504929
      ],
      [
        0.015696443617343903,
        0.03514865040779114,
        0.043839339166879654,
        0.06950946897268295,
        0.008629093877971172,
        0.037131305783987045,
        -0.04528353363275528,
        -0.045134153217077255,
        -0.06423994898796082
      ],
      [
        -0.1217963844537735,
        0.08099889755249023,
        0.00117054907605052,
        0.10365617275238037,
        0.09624972939491272,
        0.06791587173938751,
        0.0007881969213485718,
        -0.028344526886940002,
        -0.09928256273269653
      ],
      [
        -0.09525582939386368,
        -0.11678392440080643,
        -0.055055104196071625,
        0.10333104431629181,
        0.07084234803915024,
        -0.01776149868965149,
        0.07635153084993362,
        -0.04672737419605255,
        0.040137797594070435
      ],
      [
        -0.08458559215068817,
        0.03790898621082306,
        -0.12017390131950378,
        0.08877839148044586,
        0.08824226260185242,
        -0.10979664325714111,
        -0.04049795866012573,
        0.05744065344333649,
        -0.012284204363822937
      ],
      [
        0.10900308191776276,
        -0.11405584216117859,
        0.1176486611366272,
        0.11162441968917847,
        -0.07265697419643402,
        -0.03481897711753845,
        -0.05992336571216583,
        -0.024483680725097656,
        0.11776861548423767
      ],
      [
        0.003121188608929515,
        0.09912990033626556,
        -0.07949376851320267,
        0.05744590237736702,
        0.06283474713563919,
        0.12218771874904633,
        -0.09180294722318649,
        0.014008636586368084,
        -0.06335701048374176
      ],
      [
        -0.0721895769238472,
        -0.018163247033953667,
        0.07869044691324234,
        0.06912751495838165,
        -0.042355310171842575,
        -0.11828216910362244,
        0.034896381199359894,
        0.023766936734318733,
        -0.07043050229549408
      ],
      [
        0.09641562402248383,
        0.024511396884918213,
        0.10349003970623016,
        -0.0564485639333725,
        -0.11535628139972687,
        -0.008298531174659729,
        0.03345175087451935,
        -0.10153985023498535,
        -0.032878682017326355
      ],
      [
        -0.014130786061286926,
        0.08051836490631104,
        -0.04940173029899597,
        0.02358648180961609,
        0.05354788899421692,
        0.04625271260738373,
        -0.0727265328168869,
        -0.06180216372013092,
        -0.016108930110931396
      ],
      [
        0.0935685932636261,
        -0.11057242751121521,
        0.12261968851089478,
        -0.11643831431865692,
        -0.044894978404045105,
        -0.07580633461475372,
        -0.057462409138679504,
        0.03181977570056915,
        0.035488441586494446
      ],
      [
        0.13931120932102203,
        0.10723626613616943,
        -0.021683335304260254,
        0.04211939126253128,
        0.10443225502967834,
        0.1270059049129486,
        -0.24594180285930634,
        -0.14948850870132446,
        0.029556820169091225
      ],
      [
        -0.04252114146947861,
        -0.044720638543367386,
        0.0915377289056778,
        -0.019856885075569153,
        0.04320092499256134,
        0.034344181418418884,
        -0.10406049340963364,
        0.10798963159322739,
        0.07349178940057755
      ],
      [
        -0.06300798058509827,
        -0.06059516221284866,
        0.018075738102197647,
        -0.11984224617481232,
        -0.031052226200699806,
        -0.06593973934650421,
        0.0353413000702858,
        -0.0790514126420021,
        0.0866611897945404
      ],
      [
        -0.010505307465791702,
        0.013211872428655624,
        0.04640430957078934,
        0.06607452780008316,
        -0.1499471664428711,
        -0.13190259039402008,
        -0.028517544269561768,
        -0.030468560755252838,
        0.08831590414047241
      ],
      [
        -0.003228485584259033,
        -0.11845770478248596,
        -0.10932661592960358,
        -0.06513260304927826,
        0.05108237266540527,
        -0.04682348668575287,
        0.0988556444644928,
        0.08865927159786224,
        -0.05291774868965149
      ],
      [
        -0.021967709064483643,
        0.08890330791473389,
        -0.04481522738933563,
        0.10145193338394165,
        -0.05492052435874939,
        0.09404247999191284,
        -0.08588311076164246,
        -0.03076063096523285,
        0.02717253565788269
      ],
      [
        -0.07699880748987198,
        -0.004987176973372698,
        0.01932489313185215,
        0.03151506558060646,
        -0.18641558289527893,
        -0.03697502985596657,
        0.045588571578264236,
        -0.19659583270549774,
        -0.1745435893535614
      ],
      [
        0.11485686898231506,
        -0.022531554102897644,
        0.1023252010345459,
        -0.06286737322807312,
        0.059656187891960144,
        0.07865884900093079,
        -0.09060721099376678,
        -0.004256799817085266,
        -0.11570124328136444
      ],
      [
        0.05897168815135956,
        0.08456374704837799,
        0.021049946546554565,
        0.025407060980796814,
        -0.0902993381023407,
        -0.021414324641227722,
        0.014810875058174133,
        -0.10246632993221283,
        -0.04520039260387421
      ],
      [
        0.013558808714151382,
        -0.08577001094818115,
        -0.035280972719192505,
        -0.0782720148563385,
        -0.09189589321613312,
        -0.02344624698162079,
        0.048083722591400146,
        -0.03306002914905548,
        0.11640794575214386
      ],
      [
        -0.012727245688438416,
        -0.10714957118034363,
        -0.044632211327552795,
        0.08732156455516815,
        0.033108219504356384,
        -0.03981578350067139,
        -0.031502366065979004,
        0.07954686880111694,
        0.05684223771095276
      ],
      [
        0.06953203678131104,
        -0.0677725076675415,
        0.04021792113780975,
        -0.019687771797180176,
        0.09768989682197571,
        0.10820461809635162,
        0.05795547366142273,
        -0.055436328053474426,
        0.08383134007453918
      ],
      [
        0.028444230556488037,
        -0.05193726718425751,
        0.02894216775894165,
        -0.08485007286071777,
        -0.105783611536026,
        0.05671362578868866,
        0.05487231910228729,
        0.08026967942714691,
        0.12348294258117676
      ],
      [
        0.04613635689020157,
        -0.07060190290212631,
        0.037433527410030365,
        -0.08076643198728561,
        0.023349376395344734,
        0.09162070602178574,
        -0.0589447058737278,
        0.05647924169898033,
        -0.09595349431037903
      ],
      [
        0.11456064879894257,
        -0.03314219415187836,
        0.07694517076015472,
        0.110905721783638,
        0.06507192552089691,
        -0.011265546083450317,
        -0.10025615990161896,
        -0.09200805425643921,
        -0.07947957515716553
      ],
      [
        0.07265067100524902,
        -0.08094491064548492,
        0.1072273999452591,
        0.01371718943119049,
        0.00892549753189087,
        -0.1122753769159317,
        0.08947610855102539,
        0.021273374557495117,
        0.023680970072746277
      ],
      [
        -0.035479068756103516,
        0.04045993089675903,
        -0.04748043417930603,
        -0.10933917760848999,
        0.0485544353723526,
        -0.10623255372047424,
        -0.07950708270072937,
        0.04187914729118347,
        0.03508886694908142
      ],
      [
        0.05531779304146767,
        0.1176491379737854,
        -0.08590177446603775,
        -0.0022400319576263428,
        -0.12008602917194366,
        -0.01333707571029663,
        0.0727149099111557,
        0.05756731331348419,
        0.10326890647411346
      ],
      [
        -0.08438074588775635,
        0.010595351457595825,
        0.1002027839422226,
        -0.002756372094154358,
        0.06965608894824982,
        -0.021598607301712036,
        0.024493098258972168,
        0.08419062197208405,
        0.05334421992301941
      ],
      [
        -0.008038908243179321,
        -0.009881407022476196,
        0.06635954976081848,
        0.054494112730026245,
        0.08635151386260986,
        -0.06281629204750061,
        0.03019428253173828,
        0.01220238208770752,
        0.009541153907775879
      ],
      [
        0.12224405258893967,
        -0.0683988556265831,
        -0.04272998869419098,
        -0.0017693425761535764,
        -0.06117382273077965,
        -0.07071387767791748,
        -0.03484160453081131,
        0.02885177545249462,
        0.033314868807792664
      ],
      [
        0.050041839480400085,
        -0.07418118417263031,
        0.08326618373394012,
        -0.060945555567741394,
        0.04852430522441864,
        0.0638367235660553,
        0.056047409772872925,
        -0.10783989727497101,
        0.0863041877746582
      ],
      [
        -0.09935761988162994,
        0.08512280881404877,
        0.037001609802246094,
        -0.08481773734092712,
        0.11630041897296906,
        0.07238827645778656,
        -0.031038671731948853,
        -0.0043924301862716675,
        -0.01617245376110077
      ],
      [
        0.02177239954471588,
        0.025208085775375366,
        0.07703663408756256,
        0.08008188009262085,
        -0.04694034159183502,
        -0.10921791195869446,
        0.1126977801322937,
        0.025455817580223083,
        0.026846319437026978
      ],
      [
        0.08675916492938995,
        -0.08522429317235947,
        0.054288577288389206,
        0.022522687911987305,
        -0.07121016085147858,
        0.011344794183969498,
        -0.08779020607471466,
        0.0866183489561081,
        -0.11213052272796631
      ],
      [
        -0.047633130103349686,
        -0.08120496571063995,
        0.0018447579350322485,
        0.02766573429107666,
        -0.1116095632314682,
        -0.004782333970069885,
        0.017215535044670105,
        -0.001437649130821228,
        0.06044895946979523
      ],
      [
        -0.130551278591156,
        0.0069772289134562016,
        0.027792729437351227,
        0.10090164840221405,
        0.021333053708076477,
        0.05664420127868652,
        0.06875228881835938,
        -0.04170546680688858,
        0.05330369248986244
      ],
      [
        0.11469448357820511,
        -0.03793078660964966,
        -0.09204669296741486,
        -0.052657268941402435,
        0.09916436672210693,
        0.016873799264431,
        0.10057448595762253,
        -0.09092880040407181,
        -0.07925304770469666
      ],
      [
        -0.09918216615915298,
        -0.0993804931640625,
        0.03168710693717003,
        0.04393592104315758,
        -0.10152240097522736,
        -0.02839479222893715,
        0.04996592178940773,
        -0.01512476522475481,
        -0.07959380000829697
      ],
      [
        -0.07018588483333588,
        -0.04688945412635803,
        -0.0957057774066925,
        -0.09339302778244019,
        0.02996082603931427,
        -0.07833260297775269,
        0.11454105377197266,
        -0.03659188747406006,
        0.0008099526166915894
      ],
      [
        0.0015268921852111816,
        0.0162469744682312,
        -0.09455429017543793,
        -0.0266716331243515,
        0.0010678470134735107,
        0.09696389734745026,
        -0.06082981824874878,
        -0.05138789117336273,
        0.0621415376663208
      ],
      [
        -0.02760407328605652,
        -0.0937974750995636,
        0.06882117688655853,
        0.1145775318145752,
        0.02799677848815918,
        0.07890079915523529,
        -0.015306025743484497,
        -0.060931235551834106,
        0.03582113981246948
      ],
      [
        0.012948483228683472,
        0.05732226371765137,
        0.10998056828975677,
        0.00046490132808685303,
        0.012410104274749756,
        -0.1081775575876236,
        0.06294827163219452,
        -0.030959352850914,
        -0.09895144402980804
      ],
      [
        -0.038929395377635956,
        -0.07152639329433441,
        0.05523942783474922,
        -0.038375359028577805,
        -0.02599821239709854,
        -0.03100517950952053,
        -0.10171809792518616,
        -0.13230258226394653,
        0.1162518635392189
      ],
      [
        -0.07771973311901093,
        -0.06554490327835083,
        -0.10106050968170166,
        -0.07207417488098145,
        -0.093885138630867,
        0.07849550247192383,
        0.11405400931835175,
        0.08651216328144073,
        0.10613682866096497
      ],
      [
        0.02103947103023529,
        -0.04958075284957886,
        0.0615788996219635,
        -0.01460924744606018,
        -0.10387177765369415,
        -0.054999470710754395,
        -0.059935957193374634,
        -0.12090042233467102,
        -0.12301367521286011
      ],
      [
        0.11692143976688385,
        0.12201552093029022,
        0.0790116935968399,
        0.09677134454250336,
        0.056799665093421936,
        -0.0021930038928985596,
        0.1244996190071106,
        0.09954974055290222,
        0.055376723408699036
      ],
      [
        0.04096008464694023,
        0.004912324715405703,
        -0.06905463337898254,
        0.08063113689422607,
        -0.014843523502349854,
        0.05432385206222534,
        0.11099064350128174,
        -0.006048679351806641,
        -0.04975531995296478
      ],
      [
        -0.026559695601463318,
        0.03845527768135071,
        0.12218813598155975,
        -0.10814136266708374,
        -0.00010609626770019531,
        -0.02600729465484619,
        0.04315875470638275,
        -0.0564834326505661,
        0.0751718133687973
      ],
      [
        -0.04675808548927307,
        -0.11812542378902435,
        -0.10427528619766235,
        -0.018119826912879944,
        -0.004698514938354492,
        0.0912829339504242,
        -0.08481760323047638,
        -0.05583472549915314,
        0.07977400720119476
      ],
      [
        -0.003849312663078308,
        -0.02245962619781494,
        -0.1059352457523346,
        -0.10569065809249878,
        -0.017990842461586,
        -0.004373431205749512,
        -0.09611974656581879,
        0.10622264444828033,
        0.10614503920078278
      ],
      [
        -0.04018096625804901,
        -0.028061479330062866,
        0.09141865372657776,
        0.049769073724746704,
        -0.0899011492729187,
        0.014983460307121277,
        0.05567850172519684,
        0.033414408564567566,
        0.08010044693946838
      ],
      [
        -0.04332464933395386,
        -0.02370704710483551,
        -0.11489833891391754,
        0.09359323978424072,
        0.05142383277416229,
        -0.05581030249595642,
        0.04760286211967468,
        -0.06212593615055084,
        -0.07154709100723267
      ],
      [
        -0.18333977460861206,
        0.05930006876587868,
        -0.025198690593242645,
        0.09290110319852829,
        -0.018673652783036232,
        -0.14123213291168213,
        -0.03472729027271271,
        -0.0020738549064844847,
        -0.061343271285295486
      ],
      [
        -0.035208892077207565,
        -0.1030922457575798,
        0.03804129362106323,
        0.1859428733587265,
        0.19704656302928925,
        -0.20110926032066345,
        -0.04396235942840576,
        0.050679415464401245,
        0.16943742334842682
      ],
      [
        -0.014831671491265297,
        0.03682451322674751,
        0.09308582544326782,
        0.0871991217136383,
        0.0654044821858406,
        -0.04753774777054787,
        -0.03925090283155441,
        -0.10516911745071411,
        -0.009773526340723038
      ],
      [
        -0.060689881443977356,
        0.05488350987434387,
        -0.0858643501996994,
        -0.07110114395618439,
        -0.05793727934360504,
        -0.028995677828788757,
        -0.024809718132019043,
        -0.009040772914886475,
        0.01967751979827881
      ],
      [
        -0.04993852972984314,
        -0.032691746950149536,
        -0.08127409219741821,
        -0.06249748170375824,
        -0.12091641128063202,
        -0.12176370620727539,
        0.011439815163612366,
        -0.032795220613479614,
        0.06429140269756317
      ],
      [
        0.011848408728837967,
        0.13545748591423035,
        -0.0025450806133449078,
        0.17605389654636383,
        0.21316362917423248,
        -0.09989379346370697,
        0.1560939997434616,
        -0.1752438098192215,
        0.10104034841060638
      ],
      [
        0.0632064938545227,
        0.010688379406929016,
        -0.09297405183315277,
        0.06336887180805206,
        -0.04171009361743927,
        -0.0043060630559921265,
        -0.087702676653862,
        -0.07497693598270416,
        0.025645479559898376
      ],
      [
        -0.033502642065286636,
        0.05387550964951515,
        0.028990188613533974,
        -0.011793890967965126,
        0.10558393597602844,
        -0.030380601063370705,
        0.05483378469944,
        0.11797621101140976,
        0.004680112935602665
      ],
      [
        0.03686051070690155,
        -0.06464172899723053,
        0.09607644379138947,
        0.015147984027862549,
        -0.05854426324367523,
        0.08060847222805023,
        -0.013950824737548828,
        0.0029862523078918457,
        -0.07338671386241913
      ],
      [
        0.1032503992319107,
        0.03589092195034027,
        0.05205322802066803,
        -0.07165762782096863,
        0.006650149822235107,
        0.03342375159263611,
        -0.041254326701164246,
        -0.10520303249359131,
        -0.052532389760017395
      ],
      [
        0.07160778343677521,
        0.038872987031936646,
        0.09888280928134918,
        -0.041349396109580994,
        0.08031615614891052,
        0.1104808896780014,
        0.046552181243896484,
        -0.049946993589401245,
        -0.08964578807353973
      ],
      [
        0.06258410215377808,
        0.004200071096420288,
        0.11998628079891205,
        -0.08223994076251984,
        -0.02399243414402008,
        -0.08752842247486115,
        0.09378288686275482,
        0.11988604068756104,
        -0.04391469061374664
      ],
      [
        -0.05394257977604866,
        0.03361355885863304,
        0.062367361038923264,
        0.1313565969467163,
        -0.0987415537238121,
        -0.0750119760632515,
        -0.06749872863292694,
        0.07257062196731567,
        0.09742552787065506
      ],
      [
        -0.02224939502775669,
        0.12876072525978088,
        0.021844079717993736,
        0.07502853125333786,
        0.012577692046761513,
        -0.004360794555395842,
        0.008523083291947842,
        -0.08049602061510086,
        -0.0790855810046196
      ],
      [
        -0.03158332407474518,
        0.029739394783973694,
        -0.05288660526275635,
        -0.03446635603904724,
        -0.08806462585926056,
        0.03646424412727356,
        0.11297251284122467,
        0.1137084811925888,
        0.0964265912771225
      ],
      [
        0.05248244106769562,
        0.051893480122089386,
        -0.05488431081175804,
        0.06506241858005524,
        0.10399278998374939,
        0.01573770120739937,
        -0.03537331521511078,
        -0.059799328446388245,
        0.01651822030544281
      ],
      [
        -0.05140552669763565,
        -0.041317060589790344,
        0.09339729696512222,
        -0.11916681379079819,
        -0.560274064540863,
        0.3543461859226227,
        0.7296628355979919,
        -0.6681964993476868,
        -1.1863558292388916
      ],
      [
        -0.11354862153530121,
        0.09812647849321365,
        -0.006989341229200363,
        -0.1105126291513443,
        -0.0121759669855237,
        0.09562388062477112,
        0.0555732287466526,
        0.05112985894083977,
        0.10979503393173218
      ],
      [
        0.10384956002235413,
        -0.059615254402160645,
        0.05065523087978363,
        -0.018818631768226624,
        0.04875461757183075,
        -0.0010087043046951294,
        0.01267901062965393,
        0.06149128079414368,
        0.056946590542793274
      ],
      [
        -0.0869915634393692,
        0.07411950826644897,
        0.0875895619392395,
        0.06732937693595886,
        0.11604282259941101,
        0.08486220240592957,
        -0.08958989381790161,
        -0.03532023727893829,
        0.06767886877059937
      ],
      [
        0.06307592242956161,
        -0.044795673340559006,
        -0.0936131700873375,
        0.03214924782514572,
        -0.02518908679485321,
        -0.04752139002084732,
        0.10648564994335175,
        0.10330855846405029,
        -0.03098425082862377
      ],
      [
        0.08938071876764297,
        0.03921020030975342,
        -0.11373218894004822,
        0.07149923592805862,
        0.42670199275016785,
        -0.2297346442937851,
        -0.4608343839645386,
        0.4211997091770172,
        0.823270320892334
      ],
      [
        0.026388511061668396,
        -0.05371180176734924,
        0.11571085453033447,
        0.07406562566757202,
        0.06065632402896881,
        -0.031972914934158325,
        0.03715266287326813,
        -0.11775572597980499,
        0.11500129103660583
      ],
      [
        0.07139281928539276,
        0.042755063623189926,
        -0.055823858827352524,
        -0.2922608256340027,
        -0.27734145522117615,
        0.08757111430168152,
        0.10316602140665054,
        0.4869207739830017,
        -0.7402209639549255
      ],
      [
        0.0551227442920208,
        -0.10637460649013519,
        0.005439873319119215,
        -0.5107189416885376,
        -0.8091211915016174,
        0.38944584131240845,
        0.1326456218957901,
        0.6985618472099304,
        -0.7489679455757141
      ],
      [
        -0.10045772045850754,
        0.02808067761361599,
        0.0916166678071022,
        0.4200252294540405,
        0.30839890241622925,
        -0.2014438658952713,
        0.10681403428316116,
        -0.4439358413219452,
        0.5730403661727905
      ],
      [
        -0.08570767939090729,
        -0.03855498135089874,
        0.015441149473190308,
        0.042073994874954224,
        -0.12134113907814026,
        0.006004005670547485,
        -0.05528096854686737,
        0.042873919010162354,
        -0.010357365012168884
      ],
      [
        0.04049193114042282,
        -0.056601304560899734,
        0.00573789793998003,
        0.3611835837364197,
        0.339980810880661,
        -0.2382347583770752,
        -0.1761091947555542,
        -0.3955526351928711,
        0.4764964282512665
      ],
      [
        0.109797403216362,
        -0.04339630901813507,
        0.07047317922115326,
        0.09606508910655975,
        0.03717011213302612,
        0.0500190407037735,
        -0.010189861059188843,
        -0.11525364220142365,
        -0.025926679372787476
      ],
      [
        0.038558732718229294,
        0.2310616374015808,
        -0.03325829654932022,
        0.2511889636516571,
        0.41410213708877563,
        -0.09629669785499573,
        0.43920382857322693,
        -0.2065090537071228,
        0.22702085971832275
      ],
      [
        -0.11274788528680801,
        -0.09749744832515717,
        0.01065779197961092,
        0.03879690170288086,
        -0.08785604685544968,
        0.06392280012369156,
        -0.11873581260442734,
        -0.02036486379802227,
        -0.11962898075580597
      ],
      [
        -0.09515798091888428,
        -0.02128356695175171,
        -0.09274663031101227,
        0.011284038424491882,
        -0.12096653878688812,
        -0.06868058443069458,
        -0.10999749600887299,
        0.03788536787033081,
        -0.096184641122818
      ],
      [
        -0.12008818984031677,
        0.09729261696338654,
        -0.11916626244783401,
        0.1059565395116806,
        0.0899251252412796,
        0.04364438354969025,
        0.011187911033630371,
        -0.10451078414916992,
        -0.05908726155757904
      ],
      [
        -0.02261899597942829,
        0.06163783371448517,
        -0.10902179777622223,
        0.07736028730869293,
        -0.04086892306804657,
        -0.09635809063911438,
        -0.11890187859535217,
        0.09752047061920166,
        0.11637179553508759
      ],
      [
        -0.0020570605993270874,
        0.00046904143528081477,
        0.0030747679993510246,
        0.13490889966487885,
        1.0121631622314453,
        -0.31889820098876953,
        0.06637617945671082,
        0.711275041103363,
        1.836299180984497
      ],
      [
        -0.08508472144603729,
        0.08848194777965546,
        -0.10198596119880676,
        -0.011773258447647095,
        -0.024933308362960815,
        0.09871892631053925,
        -0.10690607130527496,
        0.11101652681827545,
        -0.012315526604652405
      ],
      [
        -0.06061295047402382,
        -0.06863148510456085,
        -0.020034220069646835,
        -0.027613934129476547,
        0.03224281221628189,
        -0.03115871548652649,
        -0.04837128147482872,
        0.03244300186634064,
        -0.1264277845621109
      ],
      [
        0.01209046971052885,
        0.006423293612897396,
        -0.03739996254444122,
        -0.12980127334594727,
        0.3199262022972107,
        -0.21068143844604492,
        0.062461212277412415,
        0.7507283687591553,
        1.4168916940689087
      ],
      [
        0.0729823112487793,
        -0.03918205201625824,
        0.09736953675746918,
        -0.10971720516681671,
        -0.06597061455249786,
        -0.11137712001800537,
        0.12432625889778137,
        -0.0015327036380767822,
        0.08572016656398773
      ],
      [
        0.009237468242645264,
        -0.0927005410194397,
        -0.03222726285457611,
        -0.04829786717891693,
        0.03574647009372711,
        0.017664074897766113,
        -0.0831669270992279,
        0.0014084726572036743,
        -0.03489747643470764
      ],
      [
        0.12760749459266663,
        0.00458410894498229,
        -0.06103390455245972,
        0.2067781388759613,
        0.17521482706069946,
        -0.21469983458518982,
        -0.04766865074634552,
        -0.09095167368650436,
        0.266816645860672
      ],
      [
        0.10302476584911346,
        0.10314014554023743,
        -0.017768587917089462,
        -0.053688306361436844,
        0.10111609101295471,
        -0.06829851865768433,
        0.053873978555202484,
        0.07576820999383926,
        0.12131582200527191
      ],
      [
        -0.02083575166761875,
        0.0877310261130333,
        0.09061194956302643,
        -0.060220055282115936,
        -0.010986157692968845,
        -0.09235154837369919,
        0.023453781381249428,
        -0.10725153982639313,
        -0.10757914930582047
      ],
      [
        0.07196351885795593,
        0.11260095238685608,
        0.011826083064079285,
        -0.07437899708747864,
        0.055445894598960876,
        -0.033787116408348083,
        -0.05353188514709473,
        0.11538201570510864,
        0.06584110856056213
      ],
      [
        -0.10084526240825653,
        -0.01569236069917679,
        -0.01497355941683054,
        0.023345043882727623,
        0.05388365313410759,
        0.019391031935811043,
        -0.0831570252776146,
        0.019810864701867104,
        -0.13968968391418457
      ],
      [
        0.005427200812846422,
        0.08733148127794266,
        -0.09365444630384445,
        0.036524251103401184,
        -0.026031088083982468,
        -0.08808530122041702,
        -0.03417939692735672,
        0.10759291052818298,
        -0.0509510263800621
      ],
      [
        -0.008092330768704414,
        -0.0045955306850373745,
        -0.06777077168226242,
        -0.08154208213090897,
        0.05179794877767563,
        -0.014782322570681572,
        -0.05969082564115524,
        0.009608796797692776,
        0.07133235037326813
      ],
      [
        -0.04477382078766823,
        -0.0008682432235218585,
        0.03217288479208946,
        -0.3710172772407532,
        -0.44867655634880066,
        0.41615039110183716,
        -0.0701819658279419,
        0.7973892092704773,
        -0.8457471132278442
      ],
      [
        -0.02439906634390354,
        -0.06829115003347397,
        -0.009864827618002892,
        0.034712500870227814,
        -0.007081352639943361,
        -0.00016075567691586912,
        0.1192646324634552,
        0.11947426944971085,
        0.018864329904317856
      ],
      [
        0.01942625641822815,
        -0.13192498683929443,
        -0.003411741927266121,
        0.05024753510951996,
        0.005858214572072029,
        0.11494658142328262,
        -0.12523780763149261,
        -0.002715758513659239,
        -0.07336729764938354
      ],
      [
        -0.031949322670698166,
        -0.00247155106626451,
        -0.016309523954987526,
        0.056884363293647766,
        0.1155143678188324,
        0.050582900643348694,
        -0.07386772334575653,
        0.04551468789577484,
        -0.03760416805744171
      ],
      [
        0.006619746796786785,
        -0.3386450707912445,
        -0.020902905613183975,
        0.008850490674376488,
        0.40435442328453064,
        -0.11363506317138672,
        -0.2232012152671814,
        0.5401075482368469,
        1.23868989944458
      ],
      [
        -0.012099072337150574,
        -0.02565920352935791,
        -0.10934789478778839,
        -0.06374946236610413,
        0.12104767560958862,
        0.09527093172073364,
        -0.10373188555240631,
        0.09797467291355133,
        -0.01067669689655304
      ],
      [
        -0.09736888110637665,
        -0.08876197040081024,
        0.06548608839511871,
        0.09551694989204407,
        0.08252158761024475,
        -0.11492478847503662,
        0.10335485637187958,
        0.049926117062568665,
        -0.02944028377532959
      ],
      [
        0.10021103173494339,
        -0.09973182529211044,
        0.05575916916131973,
        -0.14761754870414734,
        -0.26070883870124817,
        0.15101222693920135,
        -0.03680720552802086,
        0.03722545877099037,
        0.004093559924513102
      ],
      [
        -0.0704977959394455,
        0.010835719294846058,
        0.017489047721028328,
        -0.31267112493515015,
        -0.7841622829437256,
        0.24761560559272766,
        -0.09836427867412567,
        0.43635472655296326,
        -0.7101520299911499
      ],
      [
        -0.10341194272041321,
        0.02305680327117443,
        -0.008375832810997963,
        0.037027508020401,
        0.11175747215747833,
        -0.0843902975320816,
        -0.11149603128433228,
        -0.0275275856256485,
        0.042406365275382996
      ],
      [
        0.07441360503435135,
        -0.09927396476268768,
        0.08153718709945679,
        0.08653274923563004,
        -0.08189458400011063,
        0.004411689471453428,
        -0.028796719387173653,
        -0.10352339595556259,
        -0.046191874891519547
      ],
      [
        0.10661853849887848,
        0.01332344114780426,
        0.014224514365196228,
        0.05968311429023743,
        -0.08351382613182068,
        0.09137384593486786,
        -0.013052552938461304,
        0.07806460559368134,
        0.03358277678489685
      ],
      [
        -0.05710773915052414,
        0.0328199602663517,
        -0.06718247383832932,
        -0.0027844414580613375,
        -0.07489319890737534,
        -0.040959473699331284,
        0.08295897394418716,
        -0.0984095111489296,
        -0.09953629970550537
      ],
      [
        0.06864384561777115,
        0.025153309106826782,
        -0.10019184648990631,
        -0.07498334348201752,
        0.09690959751605988,
        0.10391102731227875,
        -0.01697525382041931,
        0.052725374698638916,
        -0.10577154159545898
      ],
      [
        0.16374459862709045,
        0.01663653366267681,
        -0.03384922444820404,
        0.10245481878519058,
        0.22184590995311737,
        -0.13303908705711365,
        0.002687153173610568,
        -0.30683037638664246,
        0.39382869005203247
      ],
      [
        -0.012035861611366272,
        0.05759793519973755,
        0.10035021603107452,
        -0.06044067442417145,
        0.005638182163238525,
        0.1184513121843338,
        -0.003996372222900391,
        -0.07895152270793915,
        -0.08828143775463104
      ],
      [
        0.12392710149288177,
        0.04159127175807953,
        0.12062573432922363,
        0.023765385150909424,
        0.025945737957954407,
        -0.04924730956554413,
        0.04289720952510834,
        0.10587143898010254,
        0.018190905451774597
      ],
      [
        0.02835415117442608,
        0.0780838206410408,
        -0.022695783525705338,
        -0.2852449417114258,
        -0.35024309158325195,
        0.1210155263543129,
        -0.22241565585136414,
        0.056727394461631775,
        -0.4488762617111206
      ],
      [
        -0.03829153999686241,
        0.0002879792882595211,
        0.07872310280799866,
        0.07771392911672592,
        -0.6474818587303162,
        0.2611415386199951,
        0.5405572652816772,
        -0.6249390840530396,
        -1.169547200202942
      ],
      [
        -0.020408300682902336,
        -0.02135583385825157,
        0.01814301498234272,
        0.33821386098861694,
        0.5517480373382568,
        -0.2756778597831726,
        0.040814775973558426,
        -0.4469280242919922,
        0.8648807406425476
      ],
      [
        0.09203888475894928,
        0.06709691137075424,
        -0.04377228766679764,
        0.056690823286771774,
        0.030237598344683647,
        -0.021093470975756645,
        -0.02913985215127468,
        0.11182350665330887,
        0.031223129481077194
      ],
      [
        0.007061246782541275,
        0.0013700379058718681,
        -0.01717587746679783,
        0.10664746165275574,
        0.8178771138191223,
        -0.5548975467681885,
        -0.8838657140731812,
        0.6651016473770142,
        2.0421688556671143
      ],
      [
        -0.07026828825473785,
        0.021329285576939583,
        0.11324611306190491,
        0.0860242247581482,
        0.38244837522506714,
        -0.1612982600927353,
        -0.051846057176589966,
        -0.06636521965265274,
        0.5007994174957275
      ],
      [
        -0.11808682233095169,
        0.09497500211000443,
        -0.05002184584736824,
        0.028874052688479424,
        -0.0945507287979126,
        -0.07478637248277664,
        -0.05309373140335083,
        0.0315096490085125,
        0.0691131204366684
      ],
      [
        0.08606978505849838,
        -0.06284061074256897,
        -0.08775337785482407,
        -0.10415380448102951,
        -0.09719257801771164,
        -0.029718147590756416,
        -0.11527806520462036,
        -0.032687149941921234,
        0.10740300267934799
      ],
      [
        0.08113615959882736,
        -0.07898803800344467,
        0.034457430243492126,
        0.1373782604932785,
        -0.08667722344398499,
        0.02680273912847042,
        -0.04633551836013794,
        -0.02113530784845352,
        -0.09984524548053741
      ],
      [
        -0.012212321162223816,
        0.0375266969203949,
        0.07513263821601868,
        -0.023851320147514343,
        -0.06973496079444885,
        -0.04325304925441742,
        -0.09430679678916931,
        0.067652627825737,
        -0.01864907145500183
      ],
      [
        0.11979976296424866,
        0.10104325413703918,
        0.05784435570240021,
        -0.05374018847942352,
        0.09786711633205414,
        -0.0932745635509491,
        -0.11174802482128143,
        0.059747114777565,
        0.07493354380130768
      ],
      [
        -0.00045046122977510095,
        0.081159807741642,
        -0.06827050447463989,
        -0.03204056993126869,
        0.052970703691244125,
        0.014618068002164364,
        -0.14275044202804565,
        0.00632416782900691,
        -0.10722121596336365
      ],
      [
        0.10308006405830383,
        -0.10081637650728226,
        -0.10689383000135422,
        0.04026779532432556,
        0.1180863007903099,
        -0.021019788458943367,
        -0.0518597848713398,
        0.06122149899601936,
        0.06410279870033264
      ],
      [
        -0.053937748074531555,
        -0.030979052186012268,
        0.04192671552300453,
        0.04712803661823273,
        0.14084093272686005,
        0.03797047585248947,
        -0.04448757693171501,
        0.05715050548315048,
        0.03096737153828144
      ],
      [
        0.049372293055057526,
        -0.029512720182538033,
        -0.07323154807090759,
        0.02476583793759346,
        0.3686940670013428,
        -0.4219546318054199,
        -0.468618243932724,
        0.4947013854980469,
        1.111247181892395
      ],
      [
        0.0389217734336853,
        0.12039585411548615,
        0.012287523597478867,
        -0.06823262572288513,
        0.11823862791061401,
        0.1071087121963501,
        -0.08633092045783997,
        -0.08992791175842285,
        -0.09940628707408905
      ],
      [
        -0.03538539633154869,
        -0.061871763318777084,
        0.07775161415338516,
        0.04367075487971306,
        0.9073182344436646,
        -0.014783441089093685,
        -0.9740529656410217,
        0.22600258886814117,
        1.4176762104034424
      ],
      [
        0.07396307587623596,
        0.05529564619064331,
        -0.028579475358128548,
        -0.06750776618719101,
        0.039971765130758286,
        -0.09947162121534348,
        -0.0058965436182916164,
        0.1121956929564476,
        0.03858935460448265
      ],
      [
        -0.045582547783851624,
        0.008509457111358643,
        -0.1197921633720398,
        -0.12114550173282623,
        0.06035993993282318,
        -0.010321691632270813,
        -0.06206206977367401,
        -0.07437597215175629,
        0.03372280299663544
      ],
      [
        -0.04916110262274742,
        -0.07707899063825607,
        -0.053592391312122345,
        -0.06592781841754913,
        -7.069830462569371e-05,
        -0.09156664460897446,
        -0.005287118721753359,
        -0.04604656621813774,
        -0.12451773136854172
      ],
      [
        -0.030964190140366554,
        0.07361321896314621,
        0.14221079647541046,
        0.10412783175706863,
        0.03209466114640236,
        0.03383494168519974,
        0.1001676395535469,
        0.08754889667034149,
        -0.0870361477136612
      ]
    ],
    "lstm.weight_hh_l0": [
      [
        0.39676374197006226,
        -0.13508501648902893,
        0.5273503661155701,
        -0.4094880223274231,
        0.06304863095283508,
        0.08172436058521271,
        0.23455071449279785,
        -0.08972320705652237,
        -0.570601761341095,
        0.006358546204864979,
        0.007266208529472351,
        -0.07621192932128906,
        -0.07991267740726471,
        -0.3167072832584381,
        0.04123251140117645,
        0.05196501314640045,
        0.13204944133758545,
        -0.02446800470352173,
        0.06704403460025787,
        -0.08254936337471008,
        -0.0936521589756012,
        -0.10572512447834015,
        -0.050246790051460266,
        0.10110653191804886,
        -0.09308640658855438,
        0.08858367055654526,
        0.5847470760345459,
        -0.07042478770017624,
        0.02471756748855114,
        -0.008771926164627075,
        0.15684542059898376,
        -0.09419640898704529,
        0.0326046496629715,
        -0.012925239279866219,
        0.676476776599884,
        0.028401747345924377,
        -0.42481619119644165,
        -0.014478012919425964,
        0.0896051675081253,
        -0.021227553486824036,
        0.5576022267341614,
        0.013383790850639343,
        0.03190729394555092,
        0.37827160954475403,
        0.17125709354877472,
        -0.18556523323059082,
        0.06487772613763809,
        0.23861320316791534,
        -0.39204782247543335,
        0.08598261326551437,
        -0.05378018692135811,
        -0.4742770195007324,
        -0.005323703866451979,
        -0.06600111722946167,
        0.024484029039740562,
        -0.034412603825330734,
        0.0939682126045227,
        0.39644527435302734,
        0.08532639592885971,
        -0.3274309039115906,
        -0.09440748393535614,
        -0.05208835005760193,
        -0.09795431792736053,
        0.6096495389938354
      ],
      [
        -0.013467627577483654,
        0.0126072121784091,
        -0.11862846463918686,
        0.6301712989807129,
        -0.27624496817588806,
        -0.05409380793571472,
        -0.3972857892513275,
        0.08251950144767761,
        0.3117646872997284,
        -0.08821214735507965,
        0.08285157382488251,
        0.08007772266864777,
        0.07736124098300934,
        -0.08338349312543869,
        0.024552688002586365,
        -0.06956037878990173,
        -0.02991933375597,
        -0.05484763905405998,
        -0.04870711266994476,
        -0.23972046375274658,
        -0.04243608936667442,
        0.05725158751010895,
        -0.006067946553230286,
        0.0066101523116230965,
        -0.09175357222557068,
        -0.034935228526592255,
        -0.8168798685073853,
        0.12263461947441101,
        -0.07447125017642975,
        -0.00730539858341217,
        0.11196678131818771,
        0.11563603579998016,
        -0.037738263607025146,
        -0.31605759263038635,
        0.44936618208885193,
        -0.11583369970321655,
        0.4186438024044037,
        0.03704604506492615,
        0.019389044493436813,
        0.10164552927017212,
        -0.3008017838001251,
        0.0744207352399826,
        -0.11829029768705368,
        -0.3117748498916626,
        -0.3693872392177582,
        0.20279529690742493,
        0.2969096004962921,
        -0.028086086735129356,
        0.4985479414463043,
        0.09147222340106964,
        -0.22584612667560577,
        0.4034765660762787,
        -0.06886708736419678,
        0.131822869181633,
        -0.021056998521089554,
        0.05615169182419777,
        0.13247157633304596,
        -0.1827469915151596,
        0.09447350353002548,
        0.41847407817840576,
        -0.08086912333965302,
        -0.08072857558727264,
        -0.004626015201210976,
        0.009494354017078876
      ],
      [
        0.45600301027297974,
        -0.1942606121301651,
        -0.6200119853019714,
        -0.0618152841925621,
        0.023046817630529404,
        0.037413373589515686,
        0.03565876558423042,
        -0.09686252474784851,
        -0.09182486683130264,
        -0.01158079318702221,
        -0.12331028282642365,
        0.0935460776090622,
        0.03010256588459015,
        0.5832567811012268,
        -0.06877139210700989,
        0.12079823017120361,
        -0.11748820543289185,
        -0.06516266614198685,
        0.02576814591884613,
        0.04164895787835121,
        0.018186837434768677,
        0.11411282420158386,
        0.10768568515777588,
        -0.04179760813713074,
        -0.08272113651037216,
        -0.03525058925151825,
        -0.08224192261695862,
        0.06319005787372589,
        0.11436174809932709,
        -0.02278853952884674,
        0.14493831992149353,
        0.11260510981082916,
        0.002541869878768921,
        0.06484480947256088,
        -0.45943817496299744,
        -0.08260256052017212,
        -0.03446916118264198,
        0.05855324864387512,
        0.1196194663643837,
        0.01741892099380493,
        -0.00021462076983880252,
        0.05370074510574341,
        -0.03625037521123886,
        0.1356288641691208,
        0.17207863926887512,
        0.30897340178489685,
        -0.055279362946748734,
        -0.12133046984672546,
        -0.0799049660563469,
        -0.11125146597623825,
        0.0879872664809227,
        -0.04206150397658348,
        0.13811515271663666,
        0.154743030667305,
        0.029270246624946594,
        0.12410447001457214,
        -0.06361974775791168,
        -0.43699827790260315,
        0.11855180561542511,
        0.044368356466293335,
        -0.0245553869754076,
        -0.12006016075611115,
        -0.10099729895591736,
        0.19403903186321259
      ],
      [
        -0.16694098711013794,
        -0.2097090631723404,
        -0.008874483406543732,
        -0.10236908495426178,
        -0.14986173808574677,
        0.10641612112522125,
        -0.09299074113368988,
        -0.03933114558458328,
        0.048263926059007645,
        0.019834674894809723,
        0.0620390921831131,
        -0.06871300935745239,
        -0.06381462514400482,
        -0.16996976733207703,
        0.02055738866329193,
        0.03002988174557686,
        -0.13212823867797852,
        -0.012444395571947098,
        -0.11401817202568054,
        -0.4423629641532898,
        0.11722906678915024,
        -0.09718706458806992,
        -0.056955501437187195,
        0.009091236628592014,
        0.05618846416473389,
        0.009564049541950226,
        -0.17158065736293793,
        0.10374162346124649,
        0.11672284454107285,
        -0.06249353289604187,
        0.2445196956396103,
        -0.06450122594833374,
        -0.11804032325744629,
        0.2436206042766571,
        0.3035551905632019,
        -0.1047741025686264,
        -0.028022535145282745,
        -0.03202846646308899,
        0.07981406152248383,
        0.11085975170135498,
        -0.15069769322872162,
        0.001628294587135315,
        0.023609021678566933,
        -0.0980464443564415,
        -0.27477312088012695,
        0.04290322959423065,
        0.08022072166204453,
        0.23300594091415405,
        0.24710983037948608,
        -0.11763818562030792,
        0.13972868025302887,
        0.0280193742364645,
        -0.16640688478946686,
        -0.11435995995998383,
        0.12605486810207367,
        -0.045124366879463196,
        -0.05150201544165611,
        -0.022526131942868233,
        -0.08299259841442108,
        0.3810267746448517,
        0.021514246240258217,
        -0.11761833727359772,
        -0.0483785979449749,
        0.09473202377557755
      ],
      [
        -0.018997840583324432,
        0.17466840147972107,
        0.0017958092503249645,
        -0.18422910571098328,
        -0.12552103400230408,
        0.08986546099185944,
        0.018605908378958702,
        -0.012933440506458282,
        -0.08493712544441223,
        0.10794128477573395,
        -0.03083030879497528,
        -0.09033156931400299,
        -0.010060235857963562,
        -0.03296903893351555,
        -0.09644302725791931,
        -0.014197946526110172,
        -0.08195231854915619,
        0.06595052778720856,
        0.1062140166759491,
        -0.33075904846191406,
        0.09890343993902206,
        -0.052071887999773026,
        0.06423455476760864,
        -0.11024689674377441,
        0.07350768893957138,
        -0.08803845942020416,
        -0.021780215203762054,
        -0.022244535386562347,
        -0.03222603350877762,
        -0.0245525985956192,
        0.11814071983098984,
        0.08311440050601959,
        0.02138456702232361,
        -0.09850719571113586,
        0.3170337677001953,
        0.09547582268714905,
        -0.05507735162973404,
        -0.09519962966442108,
        0.021099014207720757,
        0.012808501720428467,
        0.14873649179935455,
        0.08469448983669281,
        0.06622939556837082,
        0.2819441556930542,
        0.45764046907424927,
        0.10053282976150513,
        -0.04183672368526459,
        0.10158149898052216,
        -0.2630566656589508,
        -0.005758752580732107,
        -0.24649246037006378,
        -0.19077914953231812,
        0.16530586779117584,
        -0.0021470936480909586,
        -0.06871642172336578,
        -0.011977593414485455,
        -0.11980453133583069,
        -0.2046571522951126,
        0.04193820804357529,
        -0.5072817802429199,
        -0.031117036938667297,
        0.09466779232025146,
        0.08221007883548737,
        -0.24425679445266724
      ],
      [
        0.03561274707317352,
        0.09541325271129608,
        -0.009026572108268738,
        -0.03881458938121796,
        0.08504869043827057,
        -0.0590800940990448,
        0.02447129786014557,
        -0.048581838607788086,
        -0.01305299997329712,
        0.05757775902748108,
        -0.019669339060783386,
        -0.024986058473587036,
        0.012436002492904663,
        0.10774143040180206,
        -0.0585414320230484,
        -0.08265967667102814,
        -0.09269595146179199,
        0.05737060308456421,
        -0.03769809007644653,
        -0.007463812828063965,
        0.04935465753078461,
        -0.015618100762367249,
        -0.09961074590682983,
        0.07778908312320709,
        0.07549180090427399,
        -0.02911292016506195,
        0.002862021327018738,
        -0.053180620074272156,
        -0.10401810705661774,
        0.020321384072303772,
        -0.07129576802253723,
        -0.029977545142173767,
        0.009744197130203247,
        0.12398898601531982,
        0.08484581112861633,
        0.02410043776035309,
        0.10653191804885864,
        0.09701098501682281,
        0.08468502759933472,
        -0.04186670482158661,
        0.051507607102394104,
        -0.07691264152526855,
        0.06799198687076569,
        -0.10103189945220947,
        0.0654291957616806,
        0.043831825256347656,
        0.041868895292282104,
        -0.06503792107105255,
        0.057178035378456116,
        -0.05982968211174011,
        -0.10730147361755371,
        0.11175763607025146,
        0.06819704174995422,
        -0.08534830808639526,
        0.013168036937713623,
        -0.0005369633436203003,
        0.08216722309589386,
        0.07149046659469604,
        0.046084582805633545,
        -0.02362208068370819,
        -0.009180814027786255,
        0.10221856832504272,
        -0.015376865863800049,
        0.059163838624954224
      ],
      [
        0.025310372933745384,
        0.05463343486189842,
        0.18039622902870178,
        0.1200670599937439,
        -0.10408765822649002,
        0.02447552978992462,
        -0.08752807974815369,
        -0.009709274396300316,
        -0.1527814269065857,
        0.08066091686487198,
        0.06153157353401184,
        -0.03447067737579346,
        0.10193014144897461,
        -0.15574029088020325,
        0.05530919134616852,
        0.0735149011015892,
        -0.10249120742082596,
        -0.03670084476470947,
        -0.08620847761631012,
        -0.18573862314224243,
        -0.09922412037849426,
        -0.06926681101322174,
        0.0992705225944519,
        -0.07794070243835449,
        -0.021871225908398628,
        -0.002087260130792856,
        0.0462915375828743,
        0.010547744110226631,
        0.06493434309959412,
        -0.07946069538593292,
        -0.06235489621758461,
        -0.0598921924829483,
        0.06719735264778137,
        -0.04202931746840477,
        0.09627622365951538,
        0.028249725699424744,
        -0.09368235617876053,
        -0.07872100174427032,
        0.0742926225066185,
        -0.11722485721111298,
        0.11315876245498657,
        0.0014405548572540283,
        -0.09908870607614517,
        -0.0369173064827919,
        -0.1706124097108841,
        0.005461553577333689,
        -0.011305884458124638,
        0.1461225003004074,
        -0.03728234022855759,
        -0.11641702800989151,
        -0.042957741767168045,
        -0.12420890480279922,
        0.08742907643318176,
        0.048001501709222794,
        -0.04578326269984245,
        -0.0820610374212265,
        0.0715496689081192,
        0.12244993448257446,
        -0.030931027606129646,
        0.3370882570743561,
        -0.07145213335752487,
        -0.025145456194877625,
        -0.10062504559755325,
        0.169026181101799
      ],
      [
        0.05322938412427902,
        -0.0047314404509961605,
        -0.0451422780752182,
        -0.0817321315407753,
        0.012351016514003277,
        -0.014529868960380554,
        -0.013499215245246887,
        -0.03585106134414673,
        -0.0627964660525322,
        -0.0964851975440979,
        0.0308445543050766,
        -0.0340128093957901,
        -0.07388196885585785,
        0.04826284199953079,
        0.08981503546237946,
        -0.0721898227930069,
        0.014359156601130962,
        -0.04684308171272278,
        0.1018199771642685,
        0.003595635062083602,
        0.07721176743507385,
        0.06525824964046478,
        -2.0712616333184997e-06,
        0.0556955486536026,
        -0.07792842388153076,
        0.12147681415081024,
        0.09072314202785492,
        -0.013829346746206284,
        0.08543629944324493,
        -0.08168743550777435,
        0.0858844742178917,
        -0.042319148778915405,
        -0.09506027400493622,
        -0.10338857769966125,
        -0.12263783812522888,
        -0.013221755623817444,
        -0.1269671618938446,
        -0.08125117421150208,
        -0.060667574405670166,
        0.08345010876655579,
        0.06788747757673264,
        -0.04669809341430664,
        0.0823984444141388,
        -0.08417824655771255,
        -0.04377354681491852,
        -0.0884186327457428,
        0.07839971035718918,
        0.015925701707601547,
        -0.07461778074502945,
        0.021051377058029175,
        -0.07897856086492538,
        -0.07816841453313828,
        -0.11594924330711365,
        0.11766327917575836,
        0.03462037071585655,
        0.11904698610305786,
        -0.08381365984678268,
        0.10368441045284271,
        -0.03872881457209587,
        0.10465534031391144,
        0.018931999802589417,
        -0.047170206904411316,
        -0.035636648535728455,
        -0.09068883210420609
      ],
      [
        0.0015505461487919092,
        -0.13340090215206146,
        0.08171144127845764,
        -0.1441006064414978,
        0.032176610082387924,
        -0.02278982102870941,
        0.14110471308231354,
        0.037198275327682495,
        -0.08670169115066528,
        0.003172321477904916,
        0.052303895354270935,
        -0.11226895451545715,
        0.053596094250679016,
        0.0741533562541008,
        -0.09161597490310669,
        -0.06505564600229263,
        0.06603309512138367,
        -0.08340136706829071,
        0.02226458489894867,
        0.20092779397964478,
        -0.018883690237998962,
        -0.018817706033587456,
        0.11525225639343262,
        0.007007118780165911,
        -0.0991026908159256,
        -0.004843542352318764,
        0.10364904999732971,
        0.044348523020744324,
        -0.08824900537729263,
        -0.08416815102100372,
        0.003985109273344278,
        -0.04464693367481232,
        -0.05728346109390259,
        0.06453199684619904,
        -0.012361659668385983,
        0.021261632442474365,
        0.008563369512557983,
        -0.06298843026161194,
        -0.02817377820611,
        0.0460730642080307,
        -0.06734701991081238,
        0.08675603568553925,
        -0.1170407310128212,
        0.1370588093996048,
        0.21991391479969025,
        0.05242695286870003,
        -0.11474139988422394,
        -0.09271994978189468,
        -0.01654067263007164,
        0.019777806475758553,
        0.03899173438549042,
        0.15077243745326996,
        0.12633758783340454,
        0.09552153944969177,
        -0.09005656093358994,
        0.08386686444282532,
        0.02820454351603985,
        -0.13897201418876648,
        -0.07832278311252594,
        -0.05273693799972534,
        -0.04107321798801422,
        -0.08027470111846924,
        0.11856698989868164,
        0.22389759123325348
      ],
      [
        0.03874567896127701,
        -0.04283473640680313,
        0.016045764088630676,
        -0.09486689418554306,
        -0.002752063563093543,
        0.0017464160919189453,
        -0.03670327737927437,
        -0.09380584955215454,
        0.0477435477077961,
        -0.01840066723525524,
        0.04001753032207489,
        -0.11427202820777893,
        0.01106177270412445,
        0.0008198610739782453,
        0.07444305717945099,
        -0.024729447439312935,
        -0.11625777184963226,
        0.0716528445482254,
        -0.08590014278888702,
        0.08964213728904724,
        -0.07085965573787689,
        0.0499671995639801,
        -0.056947484612464905,
        0.028697839006781578,
        -0.015091142617166042,
        -0.040154799818992615,
        0.10820745676755905,
        -0.024775918573141098,
        0.0640551820397377,
        0.04465921223163605,
        0.04000386223196983,
        -0.06665690243244171,
        -0.04615911841392517,
        0.0661560520529747,
        -0.01577666774392128,
        0.06489285826683044,
        0.005303450394421816,
        0.05187050998210907,
        0.12182742357254028,
        0.06285426020622253,
        -0.08988989889621735,
        -0.08559255301952362,
        0.10070938616991043,
        0.10733497887849808,
        0.11973653733730316,
        -0.08665663003921509,
        -0.0022423756308853626,
        0.01930437795817852,
        -0.12092068791389465,
        0.09560057520866394,
        -0.0036404666025191545,
        -0.1025393158197403,
        -0.022981036454439163,
        0.07695576548576355,
        -0.04932284355163574,
        -0.05370005592703819,
        -0.05124257877469063,
        -0.0628601461648941,
        -0.0651005432009697,
        0.0698816329240799,
        0.11265169084072113,
        -0.03317190706729889,
        -0.013540133833885193,
        0.008451951667666435
      ],
      [
        0.022502616047859192,
        0.08453258872032166,
        -0.06721588969230652,
        -0.07893115282058716,
        -0.03776144981384277,
        0.04146680235862732,
        -0.010440781712532043,
        -0.08645842969417572,
        -0.05991150438785553,
        0.030127674341201782,
        -0.0851646363735199,
        0.009906694293022156,
        0.09652583301067352,
        -0.011926591396331787,
        0.07641327381134033,
        -0.035356804728507996,
        -0.024997010827064514,
        0.08864513039588928,
        0.07796633243560791,
        0.08334742486476898,
        0.011541411280632019,
        0.09222309291362762,
        0.00880962610244751,
        -0.07677240669727325,
        -0.05498999357223511,
        0.05143222212791443,
        -0.06877404451370239,
        0.04727303981781006,
        0.039507925510406494,
        -0.06939820945262909,
        -0.004687264561653137,
        0.03346793353557587,
        0.11020639538764954,
        -0.0812968760728836,
        -0.04938560724258423,
        -0.0561409592628479,
        0.09182454645633698,
        -0.09166131913661957,
        -0.10135330259799957,
        0.024873703718185425,
        0.019498318433761597,
        0.07336476445198059,
        0.11116154491901398,
        -0.09366090595722198,
        -0.0995713323354721,
        -0.09015141427516937,
        -0.10098886489868164,
        -0.03358142077922821,
        -0.05337291955947876,
        0.1018664687871933,
        0.10185857117176056,
        0.06042678654193878,
        0.11481723189353943,
        -0.1181725412607193,
        -0.07181228697299957,
        0.0179736465215683,
        -0.11790308356285095,
        -0.000818207859992981,
        -0.002343401312828064,
        0.01630045473575592,
        -0.01356254518032074,
        0.037689849734306335,
        -0.032848283648490906,
        -0.11146165430545807
      ],
      [
        -0.024369359016418457,
        -0.09233608841896057,
        0.10637602210044861,
        0.038950443267822266,
        -0.010068312287330627,
        -0.07796600461006165,
        0.12478514015674591,
        -0.01464475691318512,
        -0.07444818317890167,
        -0.034382373094558716,
        0.007815077900886536,
        -0.06868088245391846,
        0.1038878858089447,
        0.05611191689968109,
        -0.12060338258743286,
        0.02673664689064026,
        -0.03680805861949921,
        0.014698013663291931,
        -0.05692610144615173,
        -0.10382972657680511,
        0.003697231411933899,
        -0.005944401025772095,
        0.04892100393772125,
        0.10274502635002136,
        -0.0798109769821167,
        -0.017611756920814514,
        -0.06275735795497894,
        -0.08058440685272217,
        -0.07780076563358307,
        0.11045825481414795,
        -0.06393866240978241,
        -0.006869450211524963,
        0.09568095207214355,
        0.015585064888000488,
        -0.10067301988601685,
        -0.03105004131793976,
        -0.10908478498458862,
        0.0998116284608841,
        -0.092068612575531,
        0.09320569038391113,
        0.09224551916122437,
        -0.028678536415100098,
        0.11140403151512146,
        0.115340456366539,
        -0.0026881247758865356,
        0.061755821108818054,
        0.06774331629276276,
        -0.10596103966236115,
        0.007731243968009949,
        0.10886232554912567,
        0.09472963213920593,
        -0.061584994196891785,
        -0.019284024834632874,
        -0.046136513352394104,
        -0.00360165536403656,
        -0.07546941936016083,
        0.07625702023506165,
        -0.09650430083274841,
        0.07246848940849304,
        -0.11870570480823517,
        0.0035574734210968018,
        -0.008271321654319763,
        0.07271473109722137,
        -0.1224188357591629
      ],
      [
        -0.035213395953178406,
        -0.01382872462272644,
        -0.018155619502067566,
        0.003342956304550171,
        0.00484253466129303,
        -0.06374555826187134,
        0.10078571736812592,
        -0.01368093490600586,
        -0.008899018168449402,
        0.04495151340961456,
        0.010300830006599426,
        0.013889864087104797,
        0.11920809745788574,
        0.08306354284286499,
        -0.03149159252643585,
        -0.08901497721672058,
        0.09670595824718475,
        -0.004008099436759949,
        -0.0717155933380127,
        -0.11819778382778168,
        -0.0522117018699646,
        0.005718261003494263,
        -0.09886004030704498,
        0.04526056349277496,
        -0.12221920490264893,
        -0.11853133141994476,
        -0.015257805585861206,
        -0.02915959060192108,
        0.0401802659034729,
        -0.04176977276802063,
        -0.02535329759120941,
        -0.02595725655555725,
        0.08442270755767822,
        0.06351619958877563,
        0.005129188299179077,
        -0.05078214406967163,
        0.07637840509414673,
        -0.1236494779586792,
        -0.049801722168922424,
        -0.08203119039535522,
        0.07522109150886536,
        0.11136174201965332,
        -0.020026490092277527,
        -0.085908442735672,
        -0.08226670324802399,
        -0.06254470348358154,
        -0.12281765043735504,
        -0.08466292917728424,
        0.04186667501926422,
        -0.09786534309387207,
        -0.0881897509098053,
        0.08446216583251953,
        -0.02848602831363678,
        -0.004858046770095825,
        0.05982023477554321,
        -0.0064818114042282104,
        -0.02223847806453705,
        0.1093723326921463,
        0.09526939690113068,
        0.014072448015213013,
        0.07046642899513245,
        0.0906895101070404,
        0.033539384603500366,
        0.022511452436447144
      ],
      [
        0.10022217780351639,
        0.010392787866294384,
        0.0815509781241417,
        0.11971672624349594,
        0.19588278234004974,
        0.06250718235969543,
        -0.0775517150759697,
        -0.05381753295660019,
        0.05275160074234009,
        -0.001964807976037264,
        -0.0427679717540741,
        -0.09777586162090302,
        0.09337341785430908,
        0.03706900402903557,
        -0.11297732591629028,
        -0.014534653164446354,
        0.10449495911598206,
        0.04359779879450798,
        -0.08800019323825836,
        0.21050620079040527,
        0.08599475026130676,
        -0.05455527454614639,
        0.06572428345680237,
        -0.033237140625715256,
        0.04010044410824776,
        0.11078466475009918,
        0.45793789625167847,
        0.013365390710532665,
        -0.07938041538000107,
        0.09341023862361908,
        -0.03424111381173134,
        -0.039763376116752625,
        -0.0911727100610733,
        -0.28508177399635315,
        0.7530503869056702,
        0.06359924376010895,
        0.03145753592252731,
        -0.0397542268037796,
        0.10741202533245087,
        -0.12170624732971191,
        0.034466322511434555,
        -0.09749150276184082,
        -0.01400189008563757,
        0.07362817972898483,
        0.1548265516757965,
        -0.09488843381404877,
        0.06627335399389267,
        -0.019600341096520424,
        0.028006045147776604,
        -0.10887818783521652,
        0.1346566528081894,
        0.025755785405635834,
        -0.09159288555383682,
        0.10125137865543365,
        -0.07135045528411865,
        -0.12827064096927643,
        0.036593738943338394,
        -0.16072112321853638,
        0.10694878548383713,
        0.010821044445037842,
        0.12359873205423355,
        -0.06851239502429962,
        0.0911228135228157,
        -0.16573084890842438
      ],
      [
        -0.0028945952653884888,
        0.021624237298965454,
        -0.09940381348133087,
        0.08744871616363525,
        0.1180429607629776,
        0.05576387047767639,
        -0.031672149896621704,
        -0.08136062324047089,
        -0.021445617079734802,
