{
  "model_state_dict": {
    "embedding.weight": [
      [
        -1.5342848300933838,
        -2.100922107696533,
        -0.24544353783130646,
        1.1128519773483276
      ],
      [
        -1.260404348373413,
        0.38751474022865295,
        -1.1607431173324585,
        -1.5957361459732056
      ],
      [
        1.1511576175689697,
        0.2914542853832245,
        0.731191873550415,
        0.49695923924446106
      ],
      [
        -1.0727280378341675,
        0.6799311637878418,
        0.4555622339248657,
        0.6447817087173462
      ]
    ],
    "lstm.weight_ih_l0": [
      [
        -0.040510356426239014,
        0.00713993888348341,
        -0.03781028091907501,
        -0.1120254248380661,
        0.020224764943122864,
        0.07796125113964081,
        -0.0551881343126297,
        0.10968169569969177,
        0.07314199209213257
      ],
      [
        -0.007858792319893837,
        -0.05621679872274399,
        0.0315784215927124,
        -0.00396895594894886,
        -0.07903429120779037,
        0.013538794592022896,
        0.09296882152557373,
        -0.13814890384674072,
        0.0529889278113842
      ],
      [
        -0.05610477179288864,
        -0.01351149007678032,
        0.05899210646748543,
        -0.0025721685960888863,
        0.413107305765152,
        -0.16058270633220673,
        0.03848884627223015,
        0.2207290232181549,
        0.5624112486839294
      ],
      [
        0.0977744460105896,
        -0.0890541598200798,
        -0.08192157000303268,
        0.11604523658752441,
        0.36730021238327026,
        -0.15251824259757996,
        -0.017291763797402382,
        0.06961879879236221,
        0.7588599324226379
      ],
      [
        0.032430894672870636,
        -0.06768399477005005,
        0.062215838581323624,
        0.09658113867044449,
        -0.04393809288740158,
        0.03218063339591026,
        0.02817777544260025,
        -0.053063731640577316,
        -0.05234421417117119
      ],
      [
        -0.026611829176545143,
        -0.07069960236549377,
        0.10320116579532623,
        0.010665848851203918,
        -0.08450117707252502,
        0.0693897008895874,
        0.07752752304077148,
        0.08279488980770111,
        -0.05911017954349518
      ],
      [
        0.03857329487800598,
        -0.07017756998538971,
        -0.06649740040302277,
        -0.10722781717777252,
        -0.049506738781929016,
        -0.09259438514709473,
        0.019095003604888916,
        0.00983351469039917,
        -0.10933332145214081
      ],
      [
        -0.12063539028167725,
        0.09955400973558426,
        0.08833202719688416,
        -0.05662140995264053,
        -0.014361495152115822,
        -0.07790074497461319,
        -0.029598213732242584,
        -0.052196696400642395,
        -0.19546782970428467
      ],
      [
        0.07159845530986786,
        -0.0568079799413681,
        0.09528292715549469,
        0.037575408816337585,
        0.11703507602214813,
        0.003119632601737976,
        0.08286106586456299,
        0.06113249063491821,
        0.07206347584724426
      ],
      [
        0.04431742802262306,
        -0.03194504603743553,
        -0.031158732250332832,
        0.026824951171875,
        -0.03719356283545494,
        -0.08830976486206055,
        -0.07518922537565231,
        -0.1557956337928772,
        0.1448180377483368
      ],
      [
        0.09570899605751038,
        0.04432791844010353,
        0.04473918676376343,
        0.005245082546025515,
        0.02337874099612236,
        0.09176071733236313,
        -0.1004604771733284,
        0.08768560737371445,
        0.022221766412258148
      ],
      [
        0.11093568801879883,
        -0.07851902395486832,
        -0.10764917731285095,
        0.0470760278403759,
        0.1335005760192871,
        0.06627552956342697,
        -0.019418127834796906,
        0.11547696590423584,
        0.09458225220441818
      ],
      [
        -0.034472282975912094,
        0.07787865400314331,
        0.03015032969415188,
        0.12811073660850525,
        -0.035885345190763474,
        -0.041447341442108154,
        0.2179684191942215,
        -0.17954424023628235,
        0.153610959649086
      ],
      [
        0.12256987392902374,
        -0.04207975044846535,
        0.028183354064822197,
        0.059513844549655914,
        -0.02010365016758442,
        -0.06984326988458633,
        0.07991289347410202,
        0.03493141755461693,
        0.08145955950021744
      ],
      [
        0.09212972968816757,
        -0.11153822392225266,
        -0.11899551004171371,
        0.08354691416025162,
        0.13499371707439423,
        0.05103149265050888,
        -0.12327060103416443,
        0.10104132443666458,
        -0.08581624180078506
      ],
      [
        0.02148006111383438,
        -0.03188769519329071,
        -0.012050601653754711,
        -0.023197917267680168,
        0.00777641125023365,
        0.047788798809051514,
        0.09195812791585922,
        0.014073401689529419,
        0.03176199272274971
      ],
      [
        -0.025874681770801544,
        -0.04706843942403793,
        -0.07000575214624405,
        -0.03291524201631546,
        -0.050421059131622314,
        0.046019699424505234,
        -0.07440859824419022,
        0.04743000119924545,
        0.08348280191421509
      ],
      [
        0.08732639998197556,
        0.11161606013774872,
        -0.007997524924576283,
        -0.07926765084266663,
        0.0600050687789917,
        0.0062562040984630585,
        0.11255943775177002,
        -0.09953060001134872,
        0.036833129823207855
      ],
      [
        -0.009683631360530853,
        0.09374794363975525,
        0.04639779403805733,
        0.06138048321008682,
        -0.049819234758615494,
        -0.05253221094608307,
        0.1125546544790268,
        -0.059445008635520935,
        -0.0438939668238163
      ],
      [
        0.18400046229362488,
        -0.040030527859926224,
        0.046381302177906036,
        0.03520137816667557,
        -0.12263349443674088,
        -0.020429886877536774,
        -0.1354416161775589,
        0.19066770374774933,
        -0.05858822539448738
      ],
      [
        -0.038405388593673706,
        -0.01822596974670887,
        -0.07503966242074966,
        0.01045792642980814,
        -0.028853336349129677,
        -0.12480035424232483,
        -0.05195780098438263,
        -0.07866090536117554,
        -0.025486905127763748
      ],
      [
        -0.020002832636237144,
        -0.16717354953289032,
        0.021437738090753555,
        0.16702480614185333,
        0.3553757071495056,
        -0.06901038438081741,
        0.03512763977050781,
        0.03155975416302681,
        0.24096933007240295
      ],
      [
        -0.08602253347635269,
        -0.04991893842816353,
        -0.06012371927499771,
        -0.1078677698969841,
        -0.049936261028051376,
        -0.09078487753868103,
        0.060262858867645264,
        -0.014166958630084991,
        0.009357284754514694
      ],
      [
        0.0016289511695504189,
        -0.10550533980131149,
        0.03839462995529175,
        0.11414097994565964,
        0.005130755715072155,
        -0.09987423568964005,
        0.10592073947191238,
        -0.1263994723558426,
        0.06672481447458267
      ],
      [
        0.045510776340961456,
        0.12545622885227203,
        -0.0937371775507927,
        0.20834286510944366,
        0.47967591881752014,
        -0.2830345034599304,
        -0.039259351789951324,
        0.09547383338212967,
        0.8606227040290833
      ],
      [
        -0.025115273892879486,
        -0.032187797129154205,
        0.08095625787973404,
        0.003424977418035269,
        0.6308092474937439,
        -0.04736897721886635,
        0.11411736160516739,
        0.3797374963760376,
        0.5739462375640869
      ],
      [
        -0.11411889642477036,
        0.06918533146381378,
        -0.0026238218415528536,
        -0.06350880861282349,
        0.05631615221500397,
        -0.12419037520885468,
        0.02642051875591278,
        0.040784791111946106,
        -0.01236143708229065
      ],
      [
        -0.006601207889616489,
        -0.11000552028417587,
        -0.0015924882609397173,
        -0.10109467804431915,
        0.4391389787197113,
        -0.10529115051031113,
        -0.18710781633853912,
        0.6698270440101624,
        0.5298964381217957
      ],
      [
        -0.0578940212726593,
        0.01735183782875538,
        -0.09919922798871994,
        -0.03225027024745941,
        -0.07909570634365082,
        -0.012530133128166199,
        -0.04148310422897339,
        -0.11968429386615753,
        0.011478453874588013
      ],
      [
        0.056675560772418976,
        -0.1685412973165512,
        0.022443078458309174,
        -0.07491280138492584,
        -0.2487824261188507,
        0.04093565419316292,
        0.029735678806900978,
        0.07954593747854233,
        -0.30929645895957947
      ],
      [
        -0.024692829698324203,
        0.06896951794624329,
        0.040961116552352905,
        0.08661431074142456,
        0.5620039105415344,
        -0.20262818038463593,
        0.10560840368270874,
        0.7629519701004028,
        1.5783965587615967
      ],
      [
        0.05186848342418671,
        0.03388895094394684,
        0.060293808579444885,
        -0.057628512382507324,
        0.017115354537963867,
        -0.11958728730678558,
        0.024472519755363464,
        0.05408863723278046,
        -0.06507982313632965
      ],
      [
        0.0979095995426178,
        -0.04798018932342529,
        -0.00684769032523036,
        -0.3025992810726166,
        -0.2380618005990982,
        0.1839408427476883,
        -0.11791611462831497,
        0.3211424946784973,
        -0.30325233936309814
      ],
      [
        -0.005622819997370243,
        -0.09354280680418015,
        0.13318847119808197,
        0.059311650693416595,
        -0.001240032259374857,
        -0.008078896440565586,
        -0.07207972556352615,
        -0.002210712991654873,
        0.10394960641860962
      ],
      [
        -0.04930025339126587,
        0.03663031756877899,
        0.07936026155948639,
        -0.05443933606147766,
        0.10596373677253723,
        0.05933234095573425,
        0.08025479316711426,
        -0.0959620475769043,
        -0.10759912431240082
      ],
      [
        -0.04265112429857254,
        0.024854585528373718,
        0.14810505509376526,
        0.12681324779987335,
        -0.06201648712158203,
        -0.013625409454107285,
        -0.018248731270432472,
        -0.007895218208432198,
        -0.076747827231884
      ],
      [
        -0.058187998831272125,
        3.189746348652989e-05,
        -0.042085472494363785,
        0.1060662567615509,
        0.10650931298732758,
        0.009688243269920349,
        -0.10004480183124542,
        -0.0627414882183075,
        -0.07477991282939911
      ],
      [
        -0.08091220259666443,
        -0.015204821713268757,
        0.10316336154937744,
        -0.036939505487680435,
        0.03886275738477707,
        0.12351510673761368,
        -0.08052743226289749,
        -0.10566556453704834,
        -0.042067382484674454
      ],
      [
        0.0043694982305169106,
        -0.027796443551778793,
        -0.03930074721574783,
        0.11525533348321915,
        -0.01248131413012743,
        -0.004936767276376486,
        0.02463119849562645,
        -0.0029831971041858196,
        -0.034745439887046814
      ],
      [
        -0.03336193412542343,
        0.07225992530584335,
        0.11876567453145981,
        -0.0067484425380826,
        0.04100348800420761,
        -0.003095366293564439,
        -0.002544038463383913,
        -0.12334540486335754,
        0.009433364495635033
      ],
      [
        -0.010041102766990662,
        -0.02610073983669281,
        0.10088363289833069,
        -0.0686606615781784,
        -0.013716474175453186,
        0.0784442126750946,
        0.10163697600364685,
        -0.1196759045124054,
        0.12297192215919495
      ],
      [
        -0.0037751810159534216,
        0.051806867122650146,
        -0.0888575091958046,
        0.10115194320678711,
        0.08230000734329224,
        -0.10458117723464966,
        0.07086054980754852,
        0.028244003653526306,
        -0.08268469572067261
      ],
      [
        0.08143684267997742,
        0.10065454244613647,
        0.09032775461673737,
        -0.07136259973049164,
        0.07562646269798279,
        0.05169624090194702,
        0.08722682297229767,
        0.053813204169273376,
        0.09626595675945282
      ],
      [
        0.2275024950504303,
        -0.014732982032001019,
        -0.018440980464220047,
        0.14865706861019135,
        -0.04768553748726845,
        0.04418813809752464,
        0.32162556052207947,
        -0.4393310248851776,
        0.0019573341123759747
      ],
      [
        0.021473899483680725,
        -0.1423346847295761,
        0.012956935912370682,
        -0.22551728785037994,
        -0.37065866589546204,
        0.08845480531454086,
        -0.3086211383342743,
        0.056961335241794586,
        -0.052172187715768814
      ],
      [
        -0.016355231404304504,
        -0.07064856588840485,
        -0.11940547823905945,
        0.08285151422023773,
        0.01323157548904419,
        -0.07518666982650757,
        -0.0006154626607894897,
        0.007839098572731018,
        0.06763015687465668
      ],
      [
        -0.04040176421403885,
        -0.1099851131439209,
        -0.029828278347849846,
        0.025194523856043816,
        -0.12100689113140106,
        -0.05596643686294556,
        -0.048012662678956985,
        0.07460981607437134,
        0.04892784357070923
      ],
      [
        -0.14994177222251892,
        0.11499897390604019,
        -0.028847886249423027,
        0.10267647355794907,
        -0.0829608142375946,
        -0.3205189108848572,
        0.127046138048172,
        -0.021206576377153397,
        -0.038290414959192276
      ],
      [
        0.012516801245510578,
        -0.05807018280029297,
        -0.09169516712427139,
        0.10858546197414398,
        0.10131660103797913,
        -0.09511278569698334,
        0.06447002291679382,
        -0.008630288764834404,
        0.0571439303457737
      ],
      [
        0.06009671837091446,
        0.0788998156785965,
        0.00011998560512438416,
        0.10819658637046814,
        -0.047216497361660004,
        0.006732790265232325,
        -0.07085101306438446,
        0.10505924373865128,
        -1.4659020052931737e-05
      ],
      [
        0.025463949888944626,
        0.03879987448453903,
        -0.08429716527462006,
        -0.1378275752067566,
        0.46770966053009033,
        -0.2687479555606842,
        -0.44442370533943176,
        0.8610703349113464,
        1.389410138130188
      ],
      [
        0.1660197526216507,
        -0.002996916649863124,
        0.000558887084480375,
        -0.014923559501767159,
        0.1293056160211563,
        -0.030335072427988052,
        0.01849636435508728,
        -0.06811103969812393,
        0.021878773346543312
      ],
      [
        -0.06868279725313187,
        0.1005115658044815,
        0.05872628465294838,
        -0.0024818757083266973,
        0.013136333785951138,
        -0.04840037226676941,
        -0.027418220415711403,
        -0.07129212468862534,
        0.10583725571632385
      ],
      [
        0.058082953095436096,
        -0.08119558542966843,
        -0.046916838735342026,
        -0.09230007976293564,
        -0.025379937142133713,
        0.08221162855625153,
        -0.007835795171558857,
        0.015389667823910713,
        0.12152869254350662
      ],
      [
        -0.1077328696846962,
        -0.00901841651648283,
        -0.02974857948720455,
        0.09975320845842361,
        -0.04534289613366127,
        0.11010828614234924,
        -0.04343969374895096,
        0.07218695431947708,
        0.09666447341442108
      ],
      [
        0.13094912469387054,
        -0.11658923327922821,
        -0.06718739867210388,
        -0.014045724645256996,
        -0.2525171637535095,
        0.053661126643419266,
        -0.03004021756350994,
        0.4924808442592621,
        -0.35395869612693787
      ],
      [
        -0.06738933175802231,
        -0.09138702601194382,
        0.09222019463777542,
        -0.18184565007686615,
        -0.5167357921600342,
        0.45581838488578796,
        0.2226303070783615,
        -0.12064217776060104,
        -0.773104190826416
      ],
      [
        -0.010505087673664093,
        0.25976675748825073,
        0.023927578702569008,
        0.002529210178181529,
        -0.3676551580429077,
        0.12139321863651276,
        0.10839115083217621,
        -0.6832095384597778,
        -0.9979647994041443
      ],
      [
        0.04482908546924591,
        -0.024557456374168396,
        0.10073953866958618,
        -0.03837786614894867,
        -0.004444822669029236,
        0.03355571627616882,
        0.09530755877494812,
        0.034091368317604065,
        0.0854296088218689
      ],
      [
        -0.12164652347564697,
        0.11894586682319641,
        -0.06864096224308014,
        0.05078020691871643,
        0.08663119375705719,
        -0.09655389189720154,
        0.11044041812419891,
        -0.02698652446269989,
        0.013768881559371948
      ],
      [
        -0.014388114213943481,
        0.11674129962921143,
        0.117349773645401,
        0.026129528880119324,
        0.0674944519996643,
        0.10064852237701416,
        0.06851238012313843,
        -0.0506020188331604,
        -0.09087313711643219
      ],
      [
        -0.05985058844089508,
        0.021681083366274834,
        0.00027496807160787284,
        0.08216256648302078,
        -0.08708970993757248,
        -0.03454458713531494,
        -0.10443148761987686,
        0.0483439676463604,
        0.013690724968910217
      ],
      [
        -0.09059643745422363,
        0.13793164491653442,
        0.0010179930832237005,
        0.07700633257627487,
        0.502617359161377,
        -0.10100527852773666,
        0.3515019118785858,
        0.11099813133478165,
        0.009392019361257553
      ],
      [
        -0.02803078293800354,
        -0.019106123596429825,
        -0.02382667176425457,
        -0.05039665102958679,
        0.001368001103401184,
        -0.029092207551002502,
        -0.12487457692623138,
        -0.034074828028678894,
        0.06160496175289154
      ],
      [
        -0.06622341275215149,
        -0.03500479459762573,
        0.04190795123577118,
        0.007268860936164856,
        0.10022594034671783,
        -0.0642385482788086,
        0.048160672187805176,
        0.09378586709499359,
        -0.10962888598442078
      ],
      [
        0.007606723345816135,
        -0.0648391917347908,
        -0.05018144100904465,
        0.12234015017747879,
        0.10379447788000107,
        0.07986816763877869,
        -0.09089583158493042,
        -0.028013376519083977,
        -0.11967480182647705
      ],
      [
        0.05223987624049187,
        0.03897108510136604,
        -0.054579488933086395,
        -0.11379080265760422,
        0.2913852334022522,
        -0.03722758591175079,
        -0.2833750545978546,
        0.2573021948337555,
        0.4158702790737152
      ],
      [
        -0.05220751464366913,
        -0.014463067054748535,
        -0.07655073702335358,
        -0.08474566042423248,
        -0.00586681067943573,
        -0.04332907497882843,
        0.05739554762840271,
        -0.032003045082092285,
        0.0034508854150772095
      ],
      [
        0.015632428228855133,
        -0.33704668283462524,
        -0.0804210677742958,
        0.03721359372138977,
        0.06214402988553047,
        -0.09840533882379532,
        -0.04910261556506157,
        0.2733813226222992,
        0.5651543140411377
      ],
      [
        0.07490426301956177,
        0.03587660193443298,
        -0.07203003764152527,
        0.10172446072101593,
        0.015446007251739502,
        -0.0008741468191146851,
        0.10721050202846527,
        0.027242153882980347,
        -0.09205746650695801
      ],
      [
        -0.06382369995117188,
        0.028811737895011902,
        -0.07108670473098755,
        -0.07957763969898224,
        0.08443619310855865,
        0.01958492398262024,
        -0.003160998225212097,
        0.10179746150970459,
        0.07350701093673706
      ],
      [
        0.12247864902019501,
        -0.1175193190574646,
        0.11215044558048248,
        0.1235208511352539,
        -0.0193987637758255,
        0.043752580881118774,
        -0.05327273905277252,
        -0.05798116326332092,
        0.11498251557350159
      ],
      [
        -0.09340137243270874,
        0.06060323864221573,
        -0.008043221198022366,
        -0.2661210000514984,
        -0.13544583320617676,
        0.04447300732135773,
        -0.21386656165122986,
        0.4123914837837219,
        -0.12134509533643723
      ],
      [
        0.027420641854405403,
        0.05463648959994316,
        0.005132093094289303,
        0.12288753688335419,
        -0.04114680737257004,
        -0.0965958684682846,
        -0.10004033148288727,
        0.031153997406363487,
        -0.0584055595099926
      ],
      [
        0.062061190605163574,
        -0.04516500234603882,
        -0.02649662084877491,
        0.06450636684894562,
        0.3384130001068115,
        0.044534776359796524,
        -0.08326752483844757,
        0.17746779322624207,
        0.1677291989326477
      ],
      [
        -0.01925215683877468,
        0.05693042278289795,
        0.11874044686555862,
        0.06714934855699539,
        -0.09050027281045914,
        0.0018048640340566635,
        0.03205685690045357,
        -0.1189938560128212,
        -0.041098468005657196
      ],
      [
        -0.023487061262130737,
        -0.11553795635700226,
        -0.10968565940856934,
        0.013292595744132996,
        -0.050069525837898254,
        0.0342465341091156,
        0.02668185532093048,
        -0.09795211255550385,
        -0.09324075281620026
      ],
      [
        0.0568142831325531,
        -0.05144151300191879,
        -0.13835158944129944,
        0.08343420177698135,
        0.1511903703212738,
        -0.05293729901313782,
        -0.2333088219165802,
        0.13840439915657043,
        0.3611256182193756
      ],
      [
        -0.10599304735660553,
        0.034466613084077835,
        0.0659981295466423,
        -0.06383546441793442,
        0.03173977881669998,
        0.08113878965377808,
        -0.032326314598321915,
        0.10886386781930923,
        -0.09102759510278702
      ],
      [
        0.045641422271728516,
        0.11357204616069794,
        0.060266658663749695,
        0.04236249625682831,
        -0.07406429946422577,
        0.09358112514019012,
        0.036294832825660706,
        0.029043540358543396,
        0.0655079185962677
      ],
      [
        -0.06562242656946182,
        -0.09081650525331497,
        0.047052107751369476,
        0.08262242376804352,
        -0.07936632633209229,
        -0.03491588681936264,
        0.014577774330973625,
        0.027843086048960686,
        -0.07594174146652222
      ],
      [
        0.013473243452608585,
        -0.13915826380252838,
        -0.09774994105100632,
        -0.1123046875,
        0.11565490067005157,
        0.04000743478536606,
        -0.08039811998605728,
        0.09616798907518387,
        0.11415732651948929
      ],
      [
        0.08055215328931808,
        -0.11735226958990097,
        -0.09360028058290482,
        -0.12166982889175415,
        -0.3390447497367859,
        0.08826255798339844,
        -0.3894280195236206,
        0.28292277455329895,
        -0.5731816291809082
      ],
      [
        -0.1207127720117569,
        -0.11612971127033234,
        -0.04009202867746353,
        0.06452317535877228,
        0.11173637211322784,
        0.06959585845470428,
        -0.049850866198539734,
        0.050759002566337585,
        -0.005281880497932434
      ],
      [
        0.060233741998672485,
        -0.09496481716632843,
        -0.048807088285684586,
        -0.05465398728847504,
        -0.011899849399924278,
        -0.10664093494415283,
        0.01221423875540495,
        0.09236186742782593,
        -0.05211128294467926
      ],
      [
        -0.08238084614276886,
        0.07206892967224121,
        -0.1228465735912323,
        0.07417809963226318,
        0.02056032419204712,
        -0.057184308767318726,
        0.024771392345428467,
        0.06261837482452393,
        0.014506638050079346
      ],
      [
        0.12134664505720139,
        0.08189687877893448,
        -0.1037905365228653,
        0.018533959984779358,
        0.05464065074920654,
        -0.10174299776554108,
        -0.03986406326293945,
        0.02884148806333542,
        -0.09360916912555695
      ],
      [
        0.01972876489162445,
        -0.03997979313135147,
        0.005843807477504015,
        -0.13245709240436554,
        0.0007306378684006631,
        0.10185244679450989,
        0.028880136087536812,
        -0.028944676741957664,
        0.11369089037179947
      ],
      [
        -0.12397042661905289,
        0.08925678580999374,
        -0.003749091876670718,
        0.14697568118572235,
        0.24356122314929962,
        0.04749823361635208,
        -0.3520899713039398,
        -0.08730355650186539,
        0.018626121804118156
      ],
      [
        0.07711778581142426,
        0.025098366662859917,
        -0.10820437967777252,
        -0.07963205873966217,
        0.4562438726425171,
        -0.3534626364707947,
        -0.21380773186683655,
        0.6495685577392578,
        0.8374027609825134
      ],
      [
        0.026557788252830505,
        0.09256890416145325,
        0.014614224433898926,
        0.008879393339157104,
        0.0487479567527771,
        0.021996408700942993,
        0.04269185662269592,
        0.10959021747112274,
        0.11741428077220917
      ],
      [
        0.05776552855968475,
        -0.01973140239715576,
        0.08997851610183716,
        -0.08050931990146637,
        0.03170819580554962,
        -0.032558903098106384,
        -0.02111820876598358,
        -0.11968408524990082,
        0.09085814654827118
      ],
      [
        -0.06982360780239105,
        -0.05964954197406769,
        0.08667963743209839,
        -0.10017234086990356,
        -0.07541260123252869,
        -0.01610422134399414,
        0.061917901039123535,
        0.04813976585865021,
        0.11990247666835785
      ],
      [
        0.10242891311645508,
        0.004266992211341858,
        0.12179425358772278,
        -0.10011895000934601,
        0.03530389070510864,
        0.000447690486907959,
        0.10859881341457367,
        0.08960679173469543,
        -0.05459357798099518
      ],
      [
        -0.06671865284442902,
        -0.12129411101341248,
        -0.054717496037483215,
        0.019160494208335876,
        -0.11848264932632446,
        0.04764777421951294,
        -0.049626320600509644,
        0.05555887520313263,
        -0.09582403302192688
      ],
      [
        -0.03541913628578186,
        0.0185424592345953,
        0.017323322594165802,
        0.037471260875463486,
        -0.005066993646323681,
        -0.011438715271651745,
        0.08808790147304535,
        0.04561777040362358,
        0.05060543119907379
      ],
      [
        -0.04098573699593544,
        -0.10579764097929001,
        -0.04517060145735741,
        0.04343504086136818,
        0.04748939722776413,
        0.091362364590168,
        -0.016686612740159035,
        0.030791480094194412,
        0.10926645249128342
      ],
      [
        0.09830763936042786,
        -0.04762738570570946,
        0.06757184863090515,
        -0.04921067878603935,
        -0.05105586722493172,
        0.019209938123822212,
        -0.09676461666822433,
        -0.09106091409921646,
        -0.10063452273607254
      ],
      [
        0.08566512167453766,
        -0.11172071099281311,
        -0.11247816681861877,
        0.025515303015708923,
        -0.007828816771507263,
        -0.024723544716835022,
        -0.06118158996105194,
        0.045282602310180664,
        -0.09949293732643127
      ],
      [
        0.12017488479614258,
        -0.014622226357460022,
        0.02765936590731144,
        -0.05190017446875572,
        0.040330562740564346,
        -0.12489626556634903,
        0.08573998510837555,
        0.11507228016853333,
        -0.08124025911092758
      ],
      [
        -0.01840957999229431,
        0.0032118409872055054,
        -0.03270441293716431,
        -0.021662995219230652,
        0.07740737497806549,
        0.11100274324417114,
        0.07381962239742279,
        0.05456584692001343,
        -0.005319193005561829
      ],
      [
        0.03940886631608009,
        -0.012024225667119026,
        -0.07055509835481644,
        -0.025946905836462975,
        -0.1213977113366127,
        0.11556435376405716,
        -0.1084563136100769,
        0.012156354263424873,
        0.04623264819383621
      ],
      [
        -0.10136701911687851,
        0.10119371861219406,
        0.06411777436733246,
        -0.02903345413506031,
        0.09566491097211838,
        0.0035260492004454136,
        0.11946549266576767,
        0.006819924805313349,
        -0.07521846145391464
      ],
      [
        0.04359957575798035,
        -0.040354251861572266,
        0.0966426432132721,
        -0.11156430840492249,
        0.060393571853637695,
        -0.10125672817230225,
        0.06752023100852966,
        0.06119844317436218,
        -0.11821836233139038
      ],
      [
        0.01841197907924652,
        -0.10482586920261383,
        -0.007265031337738037,
        -0.05064302682876587,
        -0.014964565634727478,
        0.020131006836891174,
        0.01874677836894989,
        0.11266356706619263,
        0.02652357518672943
      ],
      [
        -0.0783652812242508,
        0.020093023777008057,
        0.0053611695766448975,
        0.09658898413181305,
        0.12497779726982117,
        -0.09406019747257233,
        0.07315072417259216,
        -0.11394870281219482,
        0.053853750228881836
      ],
      [
        -0.12358978390693665,
        0.05925366282463074,
        -0.12375321984291077,
        -0.07319523394107819,
        0.08028526604175568,
        -0.08676917850971222,
        -0.08372326195240021,
        0.03948362171649933,
        -0.10087159276008606
      ],
      [
        -0.03293849155306816,
        0.06794103235006332,
        0.052675265818834305,
        0.20663166046142578,
        0.5448755025863647,
        -0.36552855372428894,
        -0.2685301601886749,
        0.5778014659881592,
        1.2678037881851196
      ],
      [
        -0.10685998201370239,
        -0.06414996832609177,
        0.05940480902791023,
        -0.08312857896089554,
        0.15900243818759918,
        0.05715685337781906,
        -0.09171357750892639,
        -0.02411131002008915,
        -0.17198769748210907
      ],
      [
        0.11105775833129883,
        -0.04445017874240875,
        0.015187755227088928,
        -0.08242514729499817,
        -0.00547635555267334,
        -0.07497890293598175,
        0.049638137221336365,
        0.04388609528541565,
        0.08629140257835388
      ],
      [
        -0.11440671980381012,
        -0.12435963749885559,
        -0.07409624755382538,
        -0.11212979257106781,
        -0.1196950376033783,
        -0.08995284140110016,
        0.12448117136955261,
        0.09879741072654724,
        -0.053495585918426514
      ],
      [
        0.04651007056236267,
        -0.056509122252464294,
        0.09218961000442505,
        -0.12170633673667908,
        0.02987004816532135,
        -0.1183687150478363,
        0.09965500235557556,
        0.11534366011619568,
        0.09969949722290039
      ],
      [
        0.033087559044361115,
        0.0556991808116436,
        0.030970409512519836,
        -0.11450480669736862,
        0.06934821605682373,
        -0.016911737620830536,
        -0.07626937329769135,
        -0.018525373190641403,
        0.10149022191762924
      ],
      [
        -0.0945487767457962,
        -0.07019196450710297,
        -0.10719612240791321,
        -0.11943843960762024,
        0.12352991104125977,
        0.10997875034809113,
        0.06029592454433441,
        -0.009063273668289185,
        0.001610293984413147
      ],
      [
        -0.08851002156734467,
        0.009963296353816986,
        0.12346002459526062,
        0.2883616089820862,
        0.47136881947517395,
        -0.356114000082016,
        0.32125160098075867,
        0.020952090620994568,
        0.3566179573535919
      ],
      [
        0.068924680352211,
        0.029893189668655396,
        0.10776729881763458,
        -0.03721374273300171,
        -0.12103569507598877,
        -0.07219378650188446,
        0.10086707770824432,
        -0.10934397578239441,
        0.039950400590896606
      ],
      [
        0.0038836027961224318,
        0.025746053084731102,
        -0.12023448199033737,
        -0.09837844222784042,
        -0.078206367790699,
        -0.0009938118746504188,
        0.011767135001718998,
        0.14961229264736176,
        -0.16325418651103973
      ],
      [
        0.06409673392772675,
        -0.07700471580028534,
        -0.06861301511526108,
        0.02340117283165455,
        0.05148955434560776,
        -0.031922709196805954,
        0.12020637840032578,
        -0.07596444338560104,
        0.12327259033918381
      ],
      [
        0.025404665619134903,
        -0.08390696346759796,
        -0.0023205464240163565,
        0.046425312757492065,
        0.09053501486778259,
        0.04050882160663605,
        -0.08533262461423874,
        0.08893296867609024,
        0.09047737717628479
      ],
      [
        0.03362780809402466,
        -0.01785704493522644,
        0.094073086977005,
        0.028793901205062866,
        -0.03870733082294464,
        -0.08529345691204071,
        -0.11053265631198883,
        0.10082311928272247,
        -0.1010884940624237
      ],
      [
        -0.06059930846095085,
        0.07685459405183792,
        0.07526616752147675,
        -0.11668279021978378,
        -0.38617679476737976,
        0.07493748515844345,
        0.24818725883960724,
        0.1581171602010727,
        -0.46117180585861206
      ],
      [
        -0.07796686142683029,
        -0.02078862115740776,
        -0.05575288459658623,
        0.12314897030591965,
        0.11099091917276382,
        -0.11810736358165741,
        -0.08020470291376114,
        -0.0826493576169014,
        0.0421881340444088
      ],
      [
        0.007668048143386841,
        0.008247673511505127,
        -0.03828173875808716,
        0.12279300391674042,
        0.0172274112701416,
        -0.06436030566692352,
        -0.05110812187194824,
        -0.0015544742345809937,
        0.10354222357273102
      ],
      [
        -0.055739372968673706,
        -0.10365749895572662,
        -0.025489985942840576,
        0.012711644172668457,
        -0.012145757675170898,
        -0.055297791957855225,
        -0.033750250935554504,
        -0.10229966044425964,
        -0.050412580370903015
      ],
      [
        -0.10951873660087585,
        0.00337720918469131,
        -0.03444686904549599,
        0.03871103376150131,
        0.021859940141439438,
        -0.03165431320667267,
        -0.08276060968637466,
        -0.05513625964522362,
        0.06994687765836716
      ],
      [
        0.10529740154743195,
        0.007851053960621357,
        -0.0380835086107254,
        0.1085503101348877,
        0.02826625481247902,
        -0.00010926044342340901,
        -0.1228846088051796,
        -0.07993714511394501,
        -0.07672403007745743
      ],
      [
        -0.12997156381607056,
        -0.0723576545715332,
        0.006651836447417736,
        0.03611709550023079,
        0.09450358152389526,
        0.09235081076622009,
        -0.11072388291358948,
        0.04284031689167023,
        -0.056731730699539185
      ],
      [
        -0.059514403343200684,
        -0.11711588501930237,
        0.0015099048614501953,
        0.0785384327173233,
        0.08959977328777313,
        0.016319692134857178,
        0.03830277919769287,
        0.011325031518936157,
        -0.06031246483325958
      ],
      [
        0.09361812472343445,
        -0.0012917965650558472,
        -0.12164317071437836,
        0.042079344391822815,
        -0.037118956446647644,
        -0.07349643111228943,
        0.006852149963378906,
        -0.08000299334526062,
        0.08063971996307373
      ],
      [
        -0.054140906780958176,
        -0.0026426552794873714,
        0.11640534549951553,
        0.0803278461098671,
        -0.08152593672275543,
        -0.06674020737409592,
        0.059949181973934174,
        -0.01658584177494049,
        0.08946621417999268
      ],
      [
        -0.10752269625663757,
        -0.048208415508270264,
        -0.01860100030899048,
        0.11238069832324982,
        -0.06899768114089966,
        -0.07121221721172333,
        -0.04087585210800171,
        -0.014562994241714478,
        -0.06822825968265533
      ],
      [
        -0.07634875178337097,
        -0.15280155837535858,
        0.07584799081087112,
        -0.008045194670557976,
        -0.02000139281153679,
        0.07551860809326172,
        -0.2710445821285248,
        0.30084192752838135,
        -0.050171200186014175
      ],
      [
        0.01163753867149353,
        0.024364203214645386,
        -0.11365436017513275,
        0.02421930432319641,
        -0.004500061273574829,
        0.09867222607135773,
        -0.03626003861427307,
        0.023299232125282288,
        -0.07988785207271576
      ],
      [
        0.045593827962875366,
        -0.029437735676765442,
        0.060177817940711975,
        0.02403309941291809,
        0.04113578796386719,
        0.04848729074001312,
        0.049042508006095886,
        -0.04715071618556976,
        -0.0715293288230896
      ],
      [
        0.05345386266708374,
        0.05219246447086334,
        -0.017413437366485596,
        0.09446556866168976,
        -0.0547323077917099,
        0.003378763794898987,
        0.09537886083126068,
        0.04291719198226929,
        -0.04782383143901825
      ],
      [
        0.10462714731693268,
        -0.07853048294782639,
        0.047002725303173065,
        -0.017922906205058098,
        -0.0920669212937355,
        -0.016151772812008858,
        0.01860041171312332,
        -0.0905395895242691,
        -0.0293853972107172
      ],
      [
        0.03940935432910919,
        -0.11185319721698761,
        0.12076336145401001,
        -0.044765129685401917,
        -0.10597087442874908,
        -0.08279521763324738,
        0.10316270589828491,
        0.1227903664112091,
        -0.1216471940279007
      ],
      [
        -0.15046800673007965,
        -0.05227893218398094,
        0.10096554458141327,
        -0.025509463623166084,
        -0.05830811336636543,
        0.1422295719385147,
        0.08822237700223923,
        -0.11438390612602234,
        -0.03483840078115463
      ],
      [
        0.004152968525886536,
        0.05688311159610748,
        -0.10389728844165802,
        -0.08690975606441498,
        0.08791153132915497,
        -0.08504197001457214,
        0.11072804033756256,
        0.012201681733131409,
        -0.052398741245269775
      ],
      [
        -0.06519865989685059,
        0.018317461013793945,
        -0.0031271427869796753,
        0.12362268567085266,
        0.06523194909095764,
        0.019901767373085022,
        -0.07932941615581512,
        0.034979045391082764,
        -0.11476536095142365
      ],
      [
        0.049611181020736694,
        0.013880250044167042,
        -0.10430958867073059,
        -0.08787647634744644,
        0.011984034441411495,
        -0.001892509520985186,
        -0.08016493171453476,
        0.095461905002594,
        0.065372534096241
      ],
      [
        0.12038201838731766,
        -0.07207927107810974,
        -0.11224237829446793,
        0.0583127960562706,
        0.3162587285041809,
        -0.10631012916564941,
        0.039326075464487076,
        -0.020616719499230385,
        0.4700201451778412
      ],
      [
        -0.11018943786621094,
        -0.009422972798347473,
        -0.09450013935565948,
        -0.062078699469566345,
        0.0602189302444458,
        -0.09179328382015228,
        -0.03980147838592529,
        -0.03631855547428131,
        -0.09553030133247375
      ],
      [
        0.12283004075288773,
        -0.0020954671781510115,
        -0.021734021604061127,
        -0.0795675590634346,
        0.1308818757534027,
        -0.06453648209571838,
        0.014765062369406223,
        0.05616770312190056,
        0.052382830530405045
      ],
      [
        0.1163460984826088,
        -0.01161313708871603,
        -0.09018812328577042,
        -0.04026660695672035,
        -0.11041788756847382,
        0.10670299828052521,
        -0.1237807646393776,
        0.06602415442466736,
        0.012483679689466953
      ],
      [
        0.08125178515911102,
        -0.020177140831947327,
        0.09996660053730011,
        0.06332950294017792,
        -0.11291797459125519,
        0.06444297730922699,
        -0.10334359109401703,
        0.05170449614524841,
        -0.011033207178115845
      ],
      [
        -0.1226254254579544,
        0.07326006889343262,
        -0.0504918210208416,
        0.014813830144703388,
        0.10887323319911957,
        0.09992621839046478,
        0.05342914164066315,
        -0.07104935497045517,
        -0.11501238495111465
      ],
      [
        -0.1065000593662262,
        0.03210730850696564,
        -0.10372281074523926,
        0.07205943763256073,
        0.029793351888656616,
        0.06769156455993652,
        0.058893248438835144,
        -0.01995551586151123,
        0.009643718600273132
      ],
      [
        -0.07406648993492126,
        -0.0004677325487136841,
        -0.05811765789985657,
        0.04034200310707092,
        -0.09361375868320465,
        0.11066725850105286,
        0.07259200513362885,
        0.03289024531841278,
        0.043237894773483276
      ],
      [
        0.08828973770141602,
        0.07976286113262177,
        0.0939449816942215,
        -0.004966944456100464,
        -0.039188235998153687,
        -0.06629273295402527,
        -0.06176920235157013,
        0.014046803116798401,
        0.0043814778327941895
      ],
      [
        -0.11891457438468933,
        -0.0021860897541046143,
        -0.07408031821250916,
        0.0071969181299209595,
        -0.032239362597465515,
        0.11636845767498016,
        0.07372426986694336,
        0.03272488713264465,
        -0.08852754533290863
      ],
      [
        0.06859871745109558,
        0.03448827564716339,
        0.07876920700073242,
        0.04385457932949066,
        0.03207232058048248,
        -0.03787849843502045,
        0.10606302320957184,
        -0.06794728338718414,
        -0.03506985306739807
      ],
      [
        0.009214997291564941,
        0.09469278156757355,
        -0.08106431365013123,
        0.00023591186618432403,
        -0.022205643355846405,
        -0.10414653271436691,
        -0.1322087198495865,
        -0.0068096378818154335,
        -0.07774777710437775
      ],
      [
        0.02202807366847992,
        -0.03153510391712189,
        0.04584591090679169,
        0.07335434854030609,
        -0.02790476381778717,
        0.1026187539100647,
        -0.1000283807516098,
        -0.12419162690639496,
        -0.07834148406982422
      ],
      [
        -0.0691041648387909,
        0.06901930272579193,
        -0.08816923201084137,
        0.07466007769107819,
        0.010823741555213928,
        -0.028952181339263916,
        -0.01097959280014038,
        -0.009020134806632996,
        -0.06638950109481812
      ],
      [
        -0.0675056129693985,
        -0.01680469512939453,
        -0.12362438440322876,
        -0.10417404770851135,
        -0.046246349811553955,
        0.05455763638019562,
        0.07575075328350067,
        0.09690922498703003,
        0.08860869705677032
      ],
      [
        -0.04686710238456726,
        0.07259538769721985,
        0.00014283541531767696,
        -0.013537004590034485,
        -0.0085257887840271,
        0.044463708996772766,
        -0.10019120573997498,
        0.012655392289161682,
        0.017372339963912964
      ],
      [
        -0.0315009206533432,
        0.043191730976104736,
        -0.0994412750005722,
        0.12134243547916412,
        -0.01721806824207306,
        -0.07627473771572113,
        0.029410123825073242,
        -0.04527363181114197,
        -0.006536364555358887
      ],
      [
        0.03469870984554291,
        -0.038759082555770874,
        0.03759005665779114,
        0.016038179397583008,
        -0.09018701314926147,
        0.08780783414840698,
        0.08766895532608032,
        0.10268795490264893,
        0.05992583930492401
      ],
      [
        -0.0742943286895752,
        -0.004029512405395508,
        -0.025908470153808594,
        0.11660926043987274,
        0.0845002830028534,
        0.04737159609794617,
        -0.11258193850517273,
        -0.12009109556674957,
        0.0018360316753387451
      ],
      [
        -0.10614323616027832,
        -0.10134616494178772,
        -0.08046671748161316,
        -0.01313917338848114,
        0.046967849135398865,
        0.07414808869361877,
        -0.057949259877204895,
        0.008334815502166748,
        0.10888059437274933
      ],
      [
        0.04666416347026825,
        -0.050458550453186035,
        0.009027848020195961,
        0.130524143576622,
        -0.18088915944099426,
        0.03497115522623062,
        0.2538397014141083,
        -0.115284264087677,
        -0.03652382642030716
      ],
      [
        -0.07554185390472412,
        0.11105719208717346,
        0.0554499477148056,
        -0.03281785547733307,
        -0.10332340002059937,
        0.05781543254852295,
        -0.1226816475391388,
        -0.08705256879329681,
        -0.039270296692848206
      ],
      [
        -0.09298716485500336,
        0.06883437931537628,
        -0.11572675406932831,
        0.07786299288272858,
        0.06290195882320404,
        -0.12375611066818237,
        0.10751307010650635,
        -0.03778107464313507,
        -0.01930345594882965
      ],
      [
        0.021449431777000427,
        -0.0170276015996933,
        -0.04643283784389496,
        0.08678799867630005,
        -0.0796082466840744,
        -0.03278335928916931,
        0.03340688347816467,
        0.03680509328842163,
        -0.0742926150560379
      ],
      [
        0.057340893894433975,
        0.06333044916391373,
        -0.0745466873049736,
        0.09623182564973831,
        -0.018259432166814804,
        0.043608490377664566,
        -0.05152373015880585,
        -0.06695433706045151,
        0.12296061962842941
      ],
      [
        -0.03468269109725952,
        -0.12771421670913696,
        0.08282497525215149,
        -0.07410820573568344,
        0.07814189791679382,
        -0.10646936297416687,
        -0.02003321424126625,
        0.1030936911702156,
        -0.00870495941489935
      ],
      [
        0.07880847156047821,
        -0.08683404326438904,
        0.07764872908592224,
        0.08830158412456512,
        -0.12456849217414856,
        0.05536511540412903,
        -0.06513413786888123,
        -0.0621093213558197,
        0.09680619835853577
      ],
      [
        0.07379993796348572,
        -0.11083026230335236,
        0.10436049103736877,
        -0.0817222148180008,
        0.0314108282327652,
        -0.015462666749954224,
        -0.07807041704654694,
        -0.08378855884075165,
        0.07484747469425201
      ],
      [
        0.056089386343955994,
        0.06229028105735779,
        0.07027682662010193,
        -0.014771372079849243,
        0.0691179484128952,
        0.02526359260082245,
        0.03255020081996918,
        -0.09184733033180237,
        -0.05368991196155548
      ],
      [
        -0.06879344582557678,
        0.04950827360153198,
        -0.0033919215202331543,
        -0.07816760241985321,
        -0.10080425441265106,
        0.06761610507965088,
        -0.021695449948310852,
        0.03681349754333496,
        0.10454048216342926
      ],
      [
        0.09518507122993469,
        0.016200989484786987,
        0.10638006031513214,
        0.011944815516471863,
        0.11380383372306824,
        0.08084751665592194,
        0.08878937363624573,
        0.10927613079547882,
        -0.04695940017700195
      ],
      [
        -0.05925804749131203,
        0.08287587016820908,
        -0.024633947759866714,
        0.004853676073253155,
        -0.06441713869571686,
        0.0987904742360115,
        0.012954744510352612,
        -0.11156193166971207,
        0.012495335191488266
      ],
      [
        0.040236011147499084,
        -0.07410170137882233,
        0.040484726428985596,
        0.0289706289768219,
        -0.12132938206195831,
        0.06607076525688171,
        -0.08845269680023193,
        0.035490408539772034,
        0.09037144482135773
      ],
      [
        0.0647100880742073,
        0.07584896683692932,
        -0.030796563252806664,
        0.006324157118797302,
        -0.04333612322807312,
        0.04259118437767029,
        0.06101405620574951,
        -0.10564140975475311,
        -0.10666851699352264
      ],
      [
        0.06466110050678253,
        -0.06637921184301376,
        -0.05096298083662987,
        -0.06808847934007645,
        0.12109924852848053,
        -0.06218763068318367,
        0.01728099212050438,
        -0.10670006275177002,
        0.11698918044567108
      ],
      [
        0.042451001703739166,
        0.016265396028757095,
        -0.0010355893755331635,
        -0.018811911344528198,
        -0.03574177622795105,
        0.08269636332988739,
        0.04938690364360809,
        -0.08613868057727814,
        0.12025344371795654
      ],
      [
        -0.054541900753974915,
        -0.08927556872367859,
        0.1496991515159607,
        -0.06496239453554153,
        -0.2257361114025116,
        -0.15965038537979126,
        -0.10761385411024094,
        0.5637348890304565,
        0.7101261019706726
      ],
      [
        0.06684288382530212,
        0.12403546273708344,
        0.10033601522445679,
        0.028596922755241394,
        -0.10456518828868866,
        -0.017159506678581238,
        -0.10467529296875,
        0.039053142070770264,
        0.009025946259498596
      ],
      [
        -0.10059326887130737,
        0.030092421919107437,
        -0.01071963645517826,
        0.0256719458848238,
        0.03475780785083771,
        0.061915721744298935,
        0.12297597527503967,
        -0.1049262210726738,
        -0.09383115917444229
      ],
      [
        -0.0013016313314437866,
        -0.035558491945266724,
        0.1015835553407669,
        0.0879981517791748,
        0.019546866416931152,
        -0.05018942058086395,
        -0.020264744758605957,
        -0.03657574951648712,
        -0.054334819316864014
      ],
      [
        -0.03031512163579464,
        0.022503530606627464,
        0.10435457527637482,
        0.12467055022716522,
        0.1236499771475792,
        0.04118167608976364,
        -0.045806191861629486,
        0.07302932441234589,
        -0.08708921074867249
      ],
      [
        0.08941447734832764,
        -0.08934979140758514,
        0.08332951366901398,
        -0.024012848734855652,
        0.07675683498382568,
        -0.11962759494781494,
        0.08230498433113098,
        -0.04727587103843689,
        0.11821192502975464
      ],
      [
        -0.15086185932159424,
        0.021322032436728477,
        0.01694570481777191,
        -0.08506471663713455,
        0.03359087184071541,
        0.08626378327608109,
        -0.05595589429140091,
        -0.0869537815451622,
        0.06511878967285156
      ],
      [
        -0.14574317634105682,
        0.08954904228448868,
        -0.0470561683177948,
        0.03513004258275032,
        0.11027314513921738,
        0.017695896327495575,
        0.10607950389385223,
        -0.013622328639030457,
        -0.09452027082443237
      ],
      [
        -0.001720041036605835,
        -0.017969593405723572,
        -0.0783115029335022,
        0.05722920596599579,
        0.047963887453079224,
        0.05728347599506378,
        -0.007456138730049133,
        -0.08987416326999664,
        0.07702943682670593
      ],
      [
        -0.09899571537971497,
        0.1104266345500946,
        -0.09487941861152649,
        0.01349058747291565,
        -0.0008103400468826294,
        -0.057134002447128296,
        0.09491433203220367,
        0.04361540079116821,
        0.0779527872800827
      ],
      [
        -0.033652499318122864,
        0.06612777709960938,
        -0.08212064206600189,
        -0.04859013855457306,
        0.06066820025444031,
        -0.06354890763759613,
        -0.11755859851837158,
        0.02471175789833069,
        -0.058998554944992065
      ],
      [
        -0.06846490502357483,
        0.0409628264605999,
        0.07060306519269943,
        0.07246338576078415,
        0.2618776559829712,
        -0.07874993979930878,
        -0.10879780352115631,
        0.13803167641162872,
        0.3998696506023407
      ],
      [
        -0.07774755358695984,
        0.10642331838607788,
        -0.11131662130355835,
        -0.10047224164009094,
        0.06496579945087433,
        -0.07625281810760498,
        -0.10341906547546387,
        0.03839340806007385,
        -0.11232329905033112
      ],
      [
        -0.01486898958683014,
        0.06263209879398346,
        0.09718933701515198,
        -0.07970736920833588,
        -0.07865652441978455,
        -0.012414515018463135,
        -0.07176868617534637,
        0.00852636992931366,
        -0.029071658849716187
      ],
      [
        -0.0887223333120346,
        0.1232551634311676,
        -0.02237321436405182,
        0.04436521232128143,
        -0.11940053105354309,
        -0.05027344822883606,
        -0.1220872551202774,
        -0.003085792064666748,
        0.04299664497375488
      ],
      [
        -0.1121935248374939,
        0.035805150866508484,
        -0.07013963162899017,
        -0.01598815619945526,
        -0.06074818968772888,
        -0.056053027510643005,
        0.01824277639389038,
        0.043158724904060364,
        0.008410289883613586
      ],
      [
        -0.050615470856428146,
        -0.11612935364246368,
        0.01431715115904808,
        0.27025800943374634,
        0.3757762908935547,
        -0.3557741045951843,
        0.12121876329183578,
        -0.04017040878534317,
        0.3811117708683014
      ],
      [
        0.1027594730257988,
        0.12920385599136353,
        -0.09563103318214417,
        0.29991090297698975,
        0.30669087171554565,
        -0.2089986950159073,
        0.10894840210676193,
        0.09834184497594833,
        0.5090709924697876
      ],
      [
        0.10817789286375046,
        -0.03524406626820564,
        -0.05002756044268608,
        -0.010060149244964123,
        -0.09896238148212433,
        0.0371914878487587,
        -0.0064887385815382,
        -0.09033052623271942,
        0.08421814441680908
      ],
      [
        0.05462820455431938,
        -0.08133390545845032,
        -0.019895700737833977,
        0.4545544981956482,
        0.6431512236595154,
        -0.4093734622001648,
        0.13834843039512634,
        -0.639638364315033,
        0.947597861289978
      ],
      [
        0.008054103702306747,
        -0.08299412578344345,
        -0.10928136855363846,
        -0.09252068400382996,
        -0.04840819537639618,
        -0.11017416417598724,
        -0.05098851025104523,
        0.01273497473448515,
        -0.02803734503686428
      ],
      [
        -0.11257791519165039,
        0.10781578719615936,
        -0.060549601912498474,
        -0.008454278111457825,
        -0.07200194895267487,
        0.09091447293758392,
        -0.0938347578048706,
        -0.04198603332042694,
        -0.09443098306655884
      ],
      [
        -0.14726798236370087,
        0.024541622027754784,
        0.031080052256584167,
        -0.07508279383182526,
        -0.18396687507629395,
        -0.018447628244757652,
        -0.0683775395154953,
        0.2697661221027374,
        -0.19749340415000916
      ],
      [
        -0.010222744196653366,
        -0.018605152145028114,
        0.033062875270843506,
        0.1676548570394516,
        -0.23174893856048584,
        0.11471309512853622,
        -0.1684732437133789,
        -0.9482162594795227,
        -1.3500316143035889
      ],
      [
        -0.015734700486063957,
        0.053969718515872955,
        0.09064725041389465,
        -0.04471363499760628,
        -0.11495447903871536,
        -0.13172206282615662,
        0.10882963240146637,
        -0.13721182942390442,
        -0.0817955806851387
      ],
      [
        0.07574847340583801,
        -0.0007348729413934052,
        -0.08852856606245041,
        0.21519039571285248,
        0.36763641238212585,
        -0.19466614723205566,
        -0.011531727388501167,
        0.06352218985557556,
        0.6962817311286926
      ],
      [
        -0.08767630159854889,
        -0.08433424681425095,
        0.016415920108556747,
        0.0709284320473671,
        0.12708570063114166,
        -0.04068613052368164,
        0.016184447333216667,
        -0.12653592228889465,
        0.006653430871665478
      ],
      [
        -0.11264676600694656,
        0.0752744972705841,
        0.08044934272766113,
        0.43757450580596924,
        0.8219518661499023,
        -0.29664212465286255,
        0.5583879947662354,
        -0.7620381116867065,
        0.6974904537200928
      ],
      [
        -0.027961494401097298,
        0.11552433669567108,
        0.06754113733768463,
        0.03092210739850998,
        0.47875523567199707,
        -0.27954384684562683,
        -0.2348087579011917,
        0.6115759611129761,
        0.9661756753921509
      ],
      [
        0.022896073758602142,
        -0.17694619297981262,
        -0.05907830223441124,
        -0.0698012262582779,
        0.28601545095443726,
        0.008594599552452564,
        0.33063066005706787,
        0.3671257793903351,
        0.706396758556366
      ],
      [
        0.006265087518841028,
        -0.002611838048323989,
        0.01786799728870392,
        0.025778545066714287,
        0.28380846977233887,
        -0.09429298341274261,
        0.0365726612508297,
        0.03149145841598511,
        0.07820236682891846
      ],
      [
        -0.011810998432338238,
        0.012592666782438755,
        -0.012625441886484623,
        -0.06039183586835861,
        -0.00934501551091671,
        -0.055734358727931976,
        0.06582476943731308,
        -0.0012894624378532171,
        -0.09349355846643448
      ],
      [
        -0.024226099252700806,
        -0.04403636232018471,
        0.044904034584760666,
        0.37063315510749817,
        0.7060908675193787,
        -0.3902394473552704,
        0.010718991979956627,
        -0.2920420467853546,
        1.4657715559005737
      ],
      [
        -0.030590016394853592,
        0.05611267313361168,
        0.06460379809141159,
        0.11428312212228775,
        0.021220702677965164,
        0.15564191341400146,
        0.0006791864288970828,
        -0.4740743935108185,
        -1.0188571214675903
      ],
      [
        -0.008887977339327335,
        0.03687440976500511,
        -0.04761234298348427,
        -0.11159999668598175,
        0.01029143575578928,
        -0.06490844488143921,
        -0.05548510700464249,
        0.03594719618558884,
        0.002752956934273243
      ],
      [
        0.05474919453263283,
        -0.030603110790252686,
        -0.04697561264038086,
        0.06562919914722443,
        0.053803861141204834,
        -0.03752581775188446,
        -0.09986604750156403,
        -0.03099653124809265,
        0.03196471929550171
      ],
      [
        -0.07514197379350662,
        -0.1425490528345108,
        0.029504727572202682,
        0.17706869542598724,
        0.45442718267440796,
        -0.1865866780281067,
        0.12371685355901718,
        0.15756084024906158,
        0.3994589149951935
      ],
      [
        -0.07251138240098953,
        0.12077946960926056,
        0.05357075482606888,
        -0.04249370098114014,
        0.0757935494184494,
        -0.10802201926708221,
        -0.05721352994441986,
        0.009862735867500305,
        -0.10125355422496796
      ],
      [
        0.025526510551571846,
        -0.14667585492134094,
        -0.09001096338033676,
        -0.018678627908229828,
        0.06960255652666092,
        -0.015538589097559452,
        0.4851599335670471,
        0.22787481546401978,
        0.617808997631073
      ],
      [
        -0.0030710361897945404,
        -0.018159497529268265,
        0.1301657259464264,
        -0.09888728708028793,
        -0.04522128403186798,
        -0.052652858197689056,
        -0.02223792113363743,
        0.029373694211244583,
        0.12794795632362366
      ],
      [
        0.02073652483522892,
        0.18894506990909576,
        -0.012363111600279808,
        0.13861800730228424,
        0.27761390805244446,
        -0.3639841377735138,
        -0.004966399632394314,
        0.21477526426315308,
        0.33547908067703247
      ],
      [
        -0.07717148959636688,
        0.1116802841424942,
        -0.11207915842533112,
        0.011407418176531792,
        -0.10552120208740234,
        -0.00654748547822237,
        0.03843230754137039,
        -0.0887574553489685,
        -0.02659618854522705
      ],
      [
        0.0659632533788681,
        0.09268411993980408,
        0.033470772206783295,
        -0.022003592923283577,
        -0.04504045471549034,
        -0.08915094286203384,
        -0.09240949898958206,
        -0.12689971923828125,
        0.004207941237837076
      ],
      [
        0.07208074629306793,
        0.06294144690036774,
        -0.016293495893478394,
        -0.023693978786468506,
        0.10047781467437744,
        0.001203298568725586,
        0.08651350438594818,
        -0.014738425612449646,
        0.001750364899635315
      ],
      [
        0.08558224886655807,
        0.02169128693640232,
        -0.007497279439121485,
        -0.13850633800029755,
        -0.2248680740594864,
        0.2648880183696747,
        0.0073359147645533085,
        0.139508455991745,
        -0.16217882931232452
      ],
      [
        0.07254106551408768,
        0.09487387537956238,
        -0.13417991995811462,
        0.2748660445213318,
        0.9403489232063293,
        -0.2972407639026642,
        0.17818155884742737,
        0.33072811365127563,
        1.2753384113311768
      ],
      [
        0.009394836612045765,
        0.03319401293992996,
        -0.11351076513528824,
        0.0872616320848465,
        -0.07278934866189957,
        -0.028234003111720085,
        0.023471683263778687,
        -0.02699422463774681,
        -0.019056156277656555
      ],
      [
        -0.001849576598033309,
        0.0033126540947705507,
        0.009090477600693703,
        0.1025349423289299,
        -0.606031060218811,
        0.4030703604221344,
        0.1333240419626236,
        -0.9627724885940552,
        -1.8153369426727295
      ],
      [
        0.08708345144987106,
        -0.13040071725845337,
        0.04698750749230385,
        0.043842364102602005,
        0.015099707059562206,
        0.160407155752182,
        -0.1904856413602829,
        -0.008925007656216621,
        -0.041783399879932404
      ],
      [
        -0.12316188216209412,
        -0.03144393861293793,
        -0.12114666402339935,
        -0.11461834609508514,
        -0.06667931377887726,
        -0.05287903547286987,
        0.029658243060112,
        -0.10508865118026733,
        0.09256333112716675
      ],
      [
        -0.023283028975129128,
        -0.08553648740053177,
        0.0580730214715004,
        -0.4384177327156067,
        -0.860616147518158,
        0.5601627826690674,
        0.31561732292175293,
        -0.192245215177536,
        -1.1341660022735596
      ],
      [
        -0.066477470099926,
        0.10898204892873764,
        -0.07871723175048828,
        -0.08980843424797058,
        -0.08811196684837341,
        -0.06655988097190857,
        -0.07780507206916809,
        0.06620851159095764,
        -0.10261601209640503
      ],
      [
        -0.06482698023319244,
        -0.1407129317522049,
        0.022185154259204865,
        0.1452527791261673,
        0.13883332908153534,
        0.026258695870637894,
        -0.08949381113052368,
        -0.1475086212158203,
        0.03754207864403725
      ],
      [
        0.0017526127630844712,
        -0.10148205608129501,
        -0.03825552761554718,
        0.11552173644304276,
        0.1216655820608139,
        0.009305426850914955,
        0.010829308070242405,
        0.0427742637693882,
        0.04953446611762047
      ],
      [
        0.06135408580303192,
        -0.03607654571533203,
        -0.10876905918121338,
        -0.0645715743303299,
        0.5197144746780396,
        -0.23077379167079926,
        -0.45456650853157043,
        0.5635140538215637,
        1.1713645458221436
      ],
      [
        -0.08283334970474243,
        -0.02951464056968689,
        -0.0926361083984375,
        0.1213778704404831,
        0.07725352048873901,
        0.042304277420043945,
        0.03295522928237915,
        0.09515979886054993,
        0.05314207077026367
      ],
      [
        0.008283814415335655,
        -0.1007518619298935,
        -0.037968456745147705,
        -0.04489105939865112,
        0.09749792516231537,
        0.11338557302951813,
        -0.09742087125778198,
        -0.030685320496559143,
        0.050328418612480164
      ],
      [
        -0.0302874892950058,
        -0.026632681488990784,
        -0.09872712194919586,
        0.11583885550498962,
        0.07195623219013214,
        -0.024478405714035034,
        0.08809617161750793,
        0.018698155879974365,
        -0.04718939960002899
      ],
      [
        0.068163201212883,
        -0.010604522190988064,
        -0.047634270042181015,
        0.5835118293762207,
        0.4790215790271759,
        -0.2968086898326874,
        0.10947421938180923,
        -0.7903918623924255,
        0.7343909740447998
      ],
      [
        -0.11553241312503815,
        -0.03166091442108154,
        0.02997620962560177,
        0.005792698357254267,
        -0.08908356726169586,
        0.1680351346731186,
        0.2711511254310608,
        0.018393857404589653,
        -0.2909187078475952
      ],
      [
        0.027206256985664368,
        -0.04469749331474304,
        0.10484878718852997,
        -0.036710456013679504,
        0.04622329771518707,
        -0.02067503333091736,
        -0.04412585496902466,
        -0.09591273963451385,
        -0.056264281272888184
      ],
      [
        0.060973964631557465,
        -0.07670316845178604,
        -0.06037003919482231,
        -0.05142190679907799,
        0.02860368601977825,
        -0.05510047450661659,
        -0.0897810161113739,
        -0.05604500323534012,
        -0.03717207536101341
      ],
      [
        0.1566479206085205,
        0.055718690156936646,
        -0.04464322701096535,
        -0.013736025430262089,
        -0.15244877338409424,
        0.06695470958948135,
        -0.002602954627946019,
        0.21729233860969543,
        -0.2565595209598541
      ],
      [
        0.1208360344171524,
        0.03757743909955025,
        0.009790895506739616,
        -0.049403659999370575,
        -0.10967068374156952,
        -0.06544375419616699,
        -0.07827581465244293,
        -0.03407866507768631,
        0.0737503319978714
      ],
      [
        0.09150033444166183,
        0.005288456566631794,
        -0.10242410004138947,
        0.11177342385053635,
        -0.04498009383678436,
        -0.14466147124767303,
        0.2901163101196289,
        0.21387670934200287,
        0.3283601701259613
      ],
      [
        0.006454632617533207,
        0.1175772100687027,
        0.0484711192548275,
        -0.06475972384214401,
        -0.004524827469140291,
        0.0716681033372879,
        0.0070619722828269005,
        -0.002083013067021966,
        0.028500379994511604
      ],
      [
        -0.13317446410655975,
        0.06864827126264572,
        -0.0006646598340012133,
        -0.10808105021715164,
        -0.2850897014141083,
        0.009765266440808773,
        -0.11694122105836868,
        0.36049413681030273,
        -0.15187577903270721
      ],
      [
        0.036879632622003555,
        -0.05399937182664871,
        -0.11972303688526154,
        -0.12307079881429672,
        -0.09295396506786346,
        0.12233801186084747,
        -0.06580407917499542,
        -0.10676364600658417,
        0.0324847549200058
      ],
      [
        -0.011457790620625019,
        0.0775914415717125,
        -0.07481083273887634,
        -0.11076044291257858,
        0.07604905962944031,
        0.1023292988538742,
        0.10738439857959747,
        0.0026331094559282064,
        -0.04125827178359032
      ],
      [
        0.006850354839116335,
        -0.082400843501091,
        -0.10273943841457367,
        -0.042347148060798645,
        0.05204338952898979,
        0.06838866323232651,
        -0.04350004345178604,
        -0.08097430318593979,
        0.014753337018191814
      ],
      [
        0.0022595329210162163,
        0.006049954332411289,
        -0.006138194818049669,
        -0.44179484248161316,
        -1.0545995235443115,
        0.3890480399131775,
        0.08360516279935837,
        -0.26086559891700745,
        -1.9764803647994995
      ],
      [
        0.07040755450725555,
        0.012974773533642292,
        -0.06005076691508293,
        -0.5390455722808838,
        -0.5590872764587402,
        0.23301765322685242,
        -0.20921389758586884,
        0.3825708329677582,
        -0.6880384087562561
      ],
      [
        0.06942576169967651,
        -0.05282142758369446,
        0.07033348083496094,
        -0.027966970577836037,
        0.006759163457900286,
        -0.028344497084617615,
        0.10466977208852768,
        -0.10979867726564407,
        0.1142093762755394
      ],
      [
        -0.1154518648982048,
        -0.09486981481313705,
        -0.0497245229780674,
        -0.12243655323982239,
        0.0031118583865463734,
        -0.10134641081094742,
        0.1235995963215828,
        -0.10092265158891678,
        0.03284591808915138
      ],
      [
        -0.12426847219467163,
        -0.05974957346916199,
        -0.09317690134048462,
        -0.0025198161602020264,
        0.12027572095394135,
        -0.12314921617507935,
        0.010955259203910828,
        0.12234003841876984,
        -0.07671625912189484
      ],
      [
        0.021170182153582573,
        -0.06860871613025665,
        0.024501120671629906,
        0.10110863298177719,
        0.1338750720024109,
        -0.1215759664773941,
        0.15523508191108704,
        -0.22374770045280457,
        0.24084952473640442
      ],
      [
        0.014399110339581966,
        -0.09696044772863388,
        -0.12321169674396515,
        0.08933915942907333,
        -0.10936744511127472,
        -0.027485214173793793,
        -0.10143273323774338,
        0.02774137631058693,
        0.01611950434744358
      ],
      [
        -0.04223240539431572,
        -0.12221874296665192,
        0.02012849971652031,
        0.16957934200763702,
        0.47452807426452637,
        -0.22538580000400543,
        0.13238805532455444,
        0.08847934752702713,
        0.3722447454929352
      ],
      [
        -0.04962852597236633,
        0.0164409838616848,
        -0.07032087445259094,
        0.026021376252174377,
        0.06977677345275879,
        0.0025722235441207886,
        0.08209240436553955,
        0.0636204183101654,
        -0.054157525300979614
      ]
    ],
    "lstm.weight_hh_l0": [
      [
        0.006875425577163696,
        0.08160823583602905,
        0.08359716832637787,
        0.11837460100650787,
        0.08078479766845703,
        -0.07676786184310913,
        -0.005864977836608887,
        0.03613956272602081,
        -0.025328978896141052,
        -0.05502039194107056,
        -0.006132751703262329,
        -0.05749647319316864,
        -0.014707684516906738,
        0.0447542667388916,
        0.07209190726280212,
        -0.051730141043663025,
        -0.09324315190315247,
        -0.004134386777877808,
        -0.01821516454219818,
        0.029582053422927856,
        0.12435106933116913,
        0.05247797071933746,
        -0.11987973749637604,
        0.06585545837879181,
        -0.10936450958251953,
        0.11928679049015045,
        -0.12479792535305023,
        -0.03056110441684723,
        -0.0965045839548111,
        -0.11857293546199799,
        -0.0912504494190216,
        0.008943349123001099,
        0.007334098219871521,
        0.08228614926338196,
        -0.04591694474220276,
        -0.04812607169151306,
        0.10684971511363983,
        -0.08846928179264069,
        0.07416635751724243,
        0.09182244539260864,
        -0.051062390208244324,
        -0.036057472229003906,
        -0.044994160532951355,
        0.1011253148317337,
        -0.05763623118400574,
        -0.07383044064044952,
        0.05487367510795593,
        0.12216351926326752,
        0.11957947909832001,
        -0.00452810525894165,
        0.029426202178001404,
        0.08060447871685028,
        0.0648953765630722,
        -0.0818183571100235,
        -0.04444311559200287,
        -0.015215128660202026,
        0.014650896191596985,
        -0.04264725744724274,
        -0.005271971225738525,
        -0.09503845870494843,
        0.1076316237449646,
        0.054795295000076294,
        0.10259906947612762,
        0.08735626935958862
      ],
      [
        0.07078723609447479,
        0.0853075161576271,
        0.0449720062315464,
        -0.141531303524971,
        0.07971548289060593,
        -0.09144628047943115,
        -0.08336281776428223,
        -0.08439147472381592,
        0.07717157155275345,
        -0.13705100119113922,
        -0.08297820389270782,
        0.025660863146185875,
        0.002882556524127722,
        0.12033314257860184,
        -0.09052230417728424,
        0.033591583371162415,
        -0.05191583186388016,
        -0.0052849305793643,
        -0.10110810399055481,
        -0.06747134029865265,
        -0.09207332134246826,
        0.060289014130830765,
        0.10557004809379578,
        0.11283265799283981,
        -0.04206470400094986,
        0.14145639538764954,
        0.058868005871772766,
        -0.1381850242614746,
        -0.011758163571357727,
        -0.01789196766912937,
        0.11152409762144089,
        0.04679509997367859,
        -0.07005564868450165,
        0.1261133849620819,
        0.0916883796453476,
        -0.08851755410432816,
        -0.12286576628684998,
        -0.08066320419311523,
        -0.1006431132555008,
        -0.04028020054101944,
        -0.011501133441925049,
        -0.10218265652656555,
        0.03064979612827301,
        -0.005784361623227596,
        -0.0690200924873352,
        -0.060514435172080994,
        0.0816769152879715,
        -0.02613341063261032,
        0.0694519504904747,
        -0.10627686232328415,
        0.09262846410274506,
        -0.02140030264854431,
        0.07317298650741577,
        -0.021449992433190346,
        0.11537373065948486,
        -0.08977626264095306,
        0.013188338838517666,
        -0.08071891963481903,
        0.03065800666809082,
        0.07301899790763855,
        0.012107426300644875,
        0.010201603174209595,
        0.09396637231111526,
        0.0864017903804779
      ],
      [
        0.05665057897567749,
        0.05923902615904808,
        -0.16193482279777527,
        0.09039207547903061,
        0.1724739372730255,
        -0.08804433047771454,
        -0.11768914759159088,
        0.07144542783498764,
        -0.3251814544200897,
        0.33912068605422974,
        0.18958786129951477,
        0.07682877033948898,
        -0.05330907180905342,
        0.005251619033515453,
        -0.1495124250650406,
        -0.3015885651111603,
        -0.056360047310590744,
        -0.20591574907302856,
        0.1274608075618744,
        0.005844988860189915,
        0.11848393082618713,
        0.13211117684841156,
        0.11427101492881775,
        0.3383011519908905,
        0.09584856033325195,
        0.16306212544441223,
        0.09381835162639618,
        0.15626898407936096,
        0.10259521007537842,
        0.26273635029792786,
        0.11042819917201996,
        0.02331545762717724,
        0.2271975427865982,
        -0.1757243573665619,
        -0.09877094626426697,
        0.10217300057411194,
        0.054810330271720886,
        0.021186964586377144,
        0.08087310194969177,
        -0.07652340084314346,
        -0.10425776243209839,
        0.0099334716796875,
        -0.028979897499084473,
        -0.24954602122306824,
        0.0013305825414136052,
        -0.11473943293094635,
        0.0816362053155899,
        -0.472368448972702,
        0.06171197071671486,
        0.03037252277135849,
        -0.039410971105098724,
        -0.4120346009731293,
        0.014232098124921322,
        0.06768649816513062,
        0.0785192921757698,
        0.02778814360499382,
        -0.01000239048153162,
        0.1790999472141266,
        0.12301097810268402,
        -0.06294675171375275,
        0.2715960741043091,
        -0.0706292986869812,
        0.1115591749548912,
        0.015930503606796265
      ],
      [
        0.0356835275888443,
        -0.07578304409980774,
        0.09553918242454529,
        -0.17112977802753448,
        0.038047630339860916,
        -0.09171134233474731,
        0.00564102828502655,
        0.16649234294891357,
        -0.022603193297982216,
        -0.02294367365539074,
        -0.006399531848728657,
        -0.08323298394680023,
        0.16789835691452026,
        0.07607106119394302,
        -0.25801730155944824,
        -0.07311748713254929,
        0.10257973521947861,
        0.14130839705467224,
        0.080191470682621,
        0.10029405355453491,
        -0.014145135879516602,
        0.045015253126621246,
        0.10438160598278046,
        0.4238016605377197,
        0.026684928685426712,
        -0.07435615360736847,
        -0.02374446392059326,
        0.02210196480154991,
        -0.10704842209815979,
        -0.12001262605190277,
        0.034171417355537415,
        -0.10063504427671432,
        0.20175865292549133,
        0.07740344107151031,
        -0.028432980179786682,
        0.012815822847187519,
        -0.04176923632621765,
        -0.07507794350385666,
        0.01729934848845005,
        0.09715961664915085,
        0.0991818904876709,
        -0.059330493211746216,
        -0.002822309732437134,
        0.07491420209407806,
        0.01971110701560974,
        -0.1198587417602539,
        0.00603371812030673,
        -0.3532969653606415,
        0.058821942657232285,
        0.09451818466186523,
        0.09914140403270721,
        -0.3286225497722626,
        0.08169321715831757,
        0.029897859320044518,
        0.08577483892440796,
        0.06989007443189621,
        0.16319569945335388,
        0.14648088812828064,
        -0.017313316464424133,
        0.006840884685516357,
        -0.013076591305434704,
        0.11725273728370667,
        0.025416433811187744,
        0.0534643679857254
      ],
      [
        0.042030006647109985,
        -0.01984928920865059,
        -0.13378238677978516,
        -0.0514603853225708,
        0.07442400604486465,
        -0.01660063862800598,
        -0.024996057152748108,
        0.005205890629440546,
        -0.06868374347686768,
        -0.11321665346622467,
        -0.005230025853961706,
        -0.12130564451217651,
        -0.05469653010368347,
        -0.06500142812728882,
        0.03149574622511864,
        -0.10792706906795502,
        -0.1058327928185463,
        0.03474381938576698,
        -0.01540054939687252,
        -0.011326163075864315,
        -0.014644399285316467,
        -0.05777838081121445,
        0.04445438086986542,
        0.06605789065361023,
        -0.035946451127529144,
        0.013498312793672085,
        0.0074923038482666016,
        -0.04272882640361786,
        -0.0030934512615203857,
        0.0461626872420311,
        -0.042793869972229004,
        0.016789477318525314,
        0.02919253520667553,
        0.11223307996988297,
        0.07268093526363373,
        -0.06789468973875046,
        0.01255027949810028,
        0.09606122225522995,
        -0.07862193882465363,
        -0.0841904878616333,
        0.10840117931365967,
        0.08548764884471893,
        -0.08376361429691315,
        -0.005174689460545778,
        0.07551068067550659,
        0.08350828289985657,
        -0.12354300916194916,
        -0.0002681625774130225,
        0.01912728138267994,
        -0.09935542196035385,
        -0.0902426615357399,
        0.029611622914671898,
        -0.06833948194980621,
        0.03766832873225212,
        -0.07850570976734161,
        0.051528848707675934,
        0.05549871176481247,
        -0.09656186401844025,
        0.09885193407535553,
        0.12314288318157196,
        -0.11086442321538925,
        0.0950855165719986,
        -0.0256902314722538,
        0.016500264406204224
      ],
      [
        -0.04448704421520233,
        0.06410172581672668,
        -0.040929362177848816,
        -0.062338218092918396,
        -0.056581392884254456,
        0.0697455108165741,
        -0.04646691679954529,
        0.04939369857311249,
        0.00846157968044281,
        0.03796952962875366,
        -0.059539005160331726,
        0.025657355785369873,
        -0.06624573469161987,
        -0.05165974795818329,
        -0.02436979115009308,
        -0.11176802217960358,
        -0.050379738211631775,
        -0.05511096119880676,
        0.12297211587429047,
        0.10021321475505829,
        -0.09852911531925201,
        0.10149574279785156,
        -0.10016719996929169,
        0.027578964829444885,
        -0.02895975112915039,
        0.04567669332027435,
        0.024015650153160095,
        0.07197865843772888,
        -0.09845151007175446,
        0.0884760320186615,
        0.0191156268119812,
        0.0357460081577301,
        0.02474161982536316,
        0.00038076937198638916,
        -0.12432529032230377,
        0.017538636922836304,
        0.0918654203414917,
        0.04897613823413849,
        -0.05562905967235565,
        -0.10242976248264313,
        -0.11502160131931305,
        -0.11294770240783691,
        -0.03897258639335632,
        0.03325866162776947,
        0.09505297243595123,
        0.01617969572544098,
        -0.11463102698326111,
        -0.09433554112911224,
        0.009630978107452393,
        0.10093876719474792,
        0.06772327423095703,
        0.05021819472312927,
        0.00724436342716217,
        0.031210124492645264,
        -0.11222600936889648,
        -0.11952978372573853,
        0.013011723756790161,
        0.048105448484420776,
        0.05975700914859772,
        0.035587236285209656,
        0.10363240540027618,
        0.10308773815631866,
        0.1078452616930008,
        0.00549827516078949
      ],
      [
        0.031788378953933716,
        -0.011285528540611267,
        -0.05710648000240326,
        0.05968807637691498,
        0.03262771666049957,
        0.058663368225097656,
        0.11046311259269714,
        0.03511938452720642,
        0.12410859763622284,
        0.08267416059970856,
        -0.07545202970504761,
        0.09959104657173157,
        -0.0023889243602752686,
        0.02236679196357727,
        -0.07953047752380371,
        -0.10810855031013489,
        0.028215155005455017,
        0.09882724285125732,
        0.06746779382228851,
        0.09641674160957336,
        0.003030717372894287,
        0.09909987449645996,
        0.0026712119579315186,
        -0.04887300729751587,
        0.030956760048866272,
        0.11203445494174957,
        -0.11612886190414429,
        0.08002641797065735,
        -0.09863355755805969,
        0.0041022151708602905,
        -0.07864400744438171,
        -0.11737774312496185,
        -0.08938968181610107,
        -0.062311336398124695,
        -0.0920831561088562,
        -0.09938432276248932,
        -0.09371115267276764,
        -0.06414423882961273,
        0.07604779303073883,
        0.002402961254119873,
        0.038227424025535583,
        -0.12463261187076569,
        0.08791796863079071,
        -0.05284088850021362,
        -0.0088738352060318,
        0.008679956197738647,
        0.09987562894821167,
        -0.11953416466712952,
        -0.11259239912033081,
        0.04428514838218689,
        0.007078617811203003,
        0.05990922451019287,
        -0.07559318840503693,
        0.04053641855716705,
        0.02766597270965576,
        -0.046236202120780945,
        0.007773846387863159,
        0.04323902726173401,
        -0.10007652640342712,
        -0.026725828647613525,
        0.039376527070999146,
        -0.09487438201904297,
        0.049637675285339355,
        -0.1108040064573288
      ],
      [
        0.05879460275173187,
        -0.062236934900283813,
        -0.0722016915678978,
        -0.09992387890815735,
        0.024115130305290222,
        -0.12431555986404419,
        0.07150514423847198,
        0.1086118295788765,
        0.021113654598593712,
        -0.1291607767343521,
        0.027121465653181076,
        0.006424145773053169,
        -0.03318829461932182,
        -0.18105873465538025,
        -0.04501223936676979,
        0.08368389308452606,
        0.07218111306428909,
        0.2078382819890976,
        0.08334242552518845,
        -0.008474076166749,
        0.08143670856952667,
        0.01929057575762272,
        0.11808660626411438,
        -0.040149953216314316,
        0.12140259146690369,
        0.06855935603380203,
        0.08076211810112,
        -0.13893240690231323,
        0.0815725028514862,
        -0.005507816560566425,
        -0.192120760679245,
        -0.019081739708781242,
        0.05245355889201164,
        0.10877799987792969,
        0.03439614176750183,
        -0.015244614332914352,
        0.055030956864356995,
        0.11151101440191269,
        -0.11245531588792801,
        0.04618874937295914,
        0.08632318675518036,
        -0.011930033564567566,
        -0.026042938232421875,
        -0.025617148727178574,
        -0.10431628674268723,
        0.053354889154434204,
        -0.11704221367835999,
        -0.06333532929420471,
        -0.0984828770160675,
        -0.12773245573043823,
        -0.011327959597110748,
        -0.12205363810062408,
        0.07108712941408157,
        -0.10906574875116348,
        -0.024542957544326782,
        0.08584944903850555,
        0.01409714575856924,
        0.09077489376068115,
        0.0032739341259002686,
        0.036656320095062256,
        0.15936529636383057,
        -0.002253502607345581,
        0.0014368752017617226,
        -0.020906031131744385
      ],
      [
        -0.08033780753612518,
        0.04132770001888275,
        -0.1162373423576355,
        -0.009230583906173706,
        -0.02737344801425934,
        -0.034148961305618286,
        -0.09820674359798431,
        0.10173866152763367,
        -0.10922189056873322,
        -0.02579677104949951,
        -0.002382904291152954,
        0.032546982169151306,
        0.08137780427932739,
        0.08313922584056854,
        0.07486546039581299,
        0.0031829774379730225,
        -0.10003073513507843,
        0.06287366151809692,
        -0.11502675712108612,
        -0.12439769506454468,
        0.07002435624599457,
        0.0938519686460495,
        -0.017524316906929016,
        0.11725334823131561,
        0.10736028850078583,
        0.10713601112365723,
        -0.01007823646068573,
        -0.11244314908981323,
        0.09260588884353638,
        0.11890852451324463,
        0.07152807712554932,
        0.12410686910152435,
        0.029425978660583496,
        0.10091657936573029,
        0.04377126693725586,
        -0.10895214974880219,
        -0.017274975776672363,
        -0.08163471519947052,
        0.05396275222301483,
        0.09332771599292755,
        0.08150419592857361,
        -0.0568583607673645,
        -0.011162325739860535,
        -0.03857700526714325,
        -0.045986101031303406,
        0.06927841901779175,
        0.005507349967956543,
        0.04231272637844086,
        0.07921428978443146,
        -0.10099978744983673,
        -0.07670801877975464,
        0.018263548612594604,
        -0.11884555220603943,
        -0.0035680681467056274,
        0.057812198996543884,
        -0.06333394348621368,
        -0.09242424368858337,
        0.04913792014122009,
        0.0006868690252304077,
        0.04867732524871826,
        -0.08986186981201172,
        -0.04344138503074646,
        -0.048465877771377563,
        -0.05948235094547272
      ],
      [
        0.12152212858200073,
        0.0706348866224289,
        -0.1543790102005005,
        -0.11428327113389969,
        -0.04734986647963524,
        -0.06336918473243713,
        -0.039524465799331665,
        -0.3648765981197357,
        -0.046972814947366714,
        -0.17118406295776367,
        0.01916615106165409,
        0.058019936084747314,
        0.07026559114456177,
        0.09643657505512238,
        -0.004771608859300613,
        0.22847075760364532,
        -0.048565853387117386,
        -0.21839970350265503,
        -0.016322998329997063,
        -0.036377765238285065,
        -0.0905347615480423,
        -0.05033419281244278,
        -0.12087298929691315,
        -0.14481520652770996,
        -0.061184439808130264,
        0.039107199758291245,
        0.11136843264102936,
        -0.06984462589025497,
        0.0724857747554779,
        -0.20714440941810608,
        0.06091829761862755,
        -0.10114885866641998,
        -0.06126964092254639,
        0.28240829706192017,
        -0.06689636409282684,
        0.08828358352184296,
        -0.037557393312454224,
        -0.10320328921079636,
        0.0420537106692791,
        -0.02557656168937683,
        0.12493349611759186,
        0.07367299497127533,
        -0.05441385507583618,
        0.26059865951538086,
        0.07154659181833267,
        -0.08274291455745697,
        -0.04207395762205124,
        -0.24477972090244293,
        -0.04636717587709427,
        0.08521074801683426,
        0.04903724417090416,
        0.5879915356636047,
        0.10585905611515045,
        -0.10659092664718628,
        0.022333353757858276,
        -0.2454351782798767,
        -0.09971170127391815,
        -0.09639029204845428,
        -0.04725624620914459,
        -0.07926131784915924,
        -0.0927727147936821,
        -0.006377891171723604,
        -0.1213645190000534,
        -0.013579994440078735
      ],
      [
        -0.11446031928062439,
        -0.044563159346580505,
        -0.04068444296717644,
        -0.0013660760596394539,
        0.019625792279839516,
        -0.060687631368637085,
        0.111955925822258,
        0.05157798156142235,
        -0.08559903502464294,
        -0.056421175599098206,
        0.06572974473237991,
        -0.1109418272972107,
        -0.12426114827394485,
        -0.12334892898797989,
        -0.10483366996049881,
        -0.007890645414590836,
        -0.10788412392139435,
        -0.11488775163888931,
        0.02985302545130253,
        -0.05088923126459122,
        -0.024834051728248596,
        0.008008703589439392,
        0.030971884727478027,
        0.10362504422664642,
        0.1106201633810997,
        0.00493909465149045,
        0.035115450620651245,
        -0.012120702303946018,
        -0.0052174776792526245,
        0.1246386468410492,
        -0.09721272438764572,
        0.06804504990577698,
        0.07343187928199768,
        0.08816996216773987,
        0.0361248254776001,
        0.01322693470865488,
        0.01117733120918274,
        0.08783483505249023,
        0.07369010150432587,
        0.03566775470972061,
        -0.0560566782951355,
        0.003820642828941345,
        -0.08549806475639343,
        0.05074193328619003,
        0.1211940199136734,
        0.1183081716299057,
        -0.092063769698143,
        0.008196115493774414,
        -0.004347681999206543,
        0.041133370250463486,
        -0.014539537951350212,
        0.10784043371677399,
        -0.06473030149936676,
        -0.056325048208236694,
        -0.07890406250953674,
        0.10100875049829483,
        0.11726702749729156,
        -0.11561142653226852,
        0.08188115060329437,
        0.04033173620700836,
        -0.09233913570642471,
        -0.09348946809768677,
        -0.025988325476646423,
        -0.04582042992115021
      ],
      [
        0.12318356335163116,
        -0.11838755756616592,
        0.020732970908284187,
        0.11453170329332352,
        -0.07436513155698776,
        -0.06210523843765259,
        -0.086891770362854,
        0.004626169800758362,
        -0.0657636746764183,
        0.07467274367809296,
        0.09743193536996841,
        0.024883130565285683,
        -0.12928636372089386,
        0.05155850201845169,
        0.05881047993898392,
        0.08474665880203247,
        -0.066857248544693,
        -0.05362071096897125,
        0.011884050443768501,
        -0.031930144876241684,
        -0.08948375284671783,
        -0.015912676230072975,
        -0.029218673706054688,
        -0.045399583876132965,
        0.11930560320615768,
        0.11008898913860321,
        0.10474005341529846,
        0.0023204574827104807,
        -0.0005587935447692871,
        0.09695424884557724,
        -0.09028947353363037,
        -0.03698008880019188,
        -0.03105347789824009,
        0.025627637282013893,
        -0.1062747985124588,
        -0.08481420576572418,
        0.026288896799087524,
        -0.042151667177677155,
        0.02062537521123886,
        -0.07477563619613647,
        0.03157971799373627,
        0.026911407709121704,
        -0.0644255131483078,
        -0.1250627189874649,
        -0.12151476740837097,
        0.021049007773399353,
        -0.0072536468505859375,
        -0.060731664299964905,
        0.08086473494768143,
        0.0927729532122612,
        -0.03948134928941727,
        0.004149761516600847,
        0.0619347058236599,
        0.10826747119426727,
        0.11573110520839691,
        -0.014910717494785786,
        -0.11120615154504776,
        0.06058131158351898,
        -0.11715513467788696,
        -0.11305791139602661,
        0.006894235499203205,
        -0.04010818898677826,
        -0.044341977685689926,
        -0.06418068706989288
      ],
      [
        0.08210264146327972,
        0.07707881182432175,
        -0.10541258007287979,
        -0.023473994806408882,
        0.029443932697176933,
        0.019096896052360535,
        0.05431222915649414,
        0.1046808585524559,
        -0.006932482589036226,
        -0.10564170777797699,
        -0.09099357575178146,
        -0.012952596880495548,
        0.09101013094186783,
        0.03969946503639221,
        0.030495386570692062,
        0.06096947193145752,
        0.05651409924030304,
        -0.014786801300942898,
        0.11038900911808014,
        0.025779692456126213,
        -0.09089623391628265,
        -0.030974039807915688,
        -0.023016631603240967,
        -0.01564723812043667,
        0.070247121155262,
        -0.1174902468919754,
        0.11110161244869232,
        0.2622136175632477,
        -0.1245536208152771,
        -0.02839171141386032,
        0.008552445098757744,
        -0.03766154125332832,
        0.03939264640212059,
        0.04285409301519394,
        -0.07436375319957733,
        -0.0632510706782341,
        0.04169158637523651,
        0.13412819802761078,
        0.09059562534093857,
        0.07809104025363922,
        -0.07493217289447784,
        -0.07350917160511017,
        -0.04549987614154816,
        -0.03118499554693699,
        0.05590762570500374,
        0.02843010425567627,
        -0.025133103132247925,
        -0.21864715218544006,
        0.08940206468105316,
        -0.1131686121225357,
        0.12913386523723602,
        -0.14127156138420105,
        0.02617468126118183,
        0.039741791784763336,
        -0.08901643007993698,
        0.04050649330019951,
        0.16116543114185333,
        -0.1001339703798294,
        0.06071481108665466,
        0.09297092258930206,
        -0.029212184250354767,
        -0.08388733863830566,
        -0.044003065675497055,
        0.08797691762447357
      ],
      [
        0.10102587938308716,
        0.06746011227369308,
        -0.039674244821071625,
        -0.07226984202861786,
        0.036965206265449524,
        -0.007892563939094543,
        0.0254146009683609,
        -0.062191955745220184,
        0.11971556395292282,
        0.0260174497961998,
        0.04073720797896385,
        0.016987096518278122,
        0.10452181845903397,
        0.07638776302337646,
        0.0033513796515762806,
        0.06934458017349243,
        -0.024140236899256706,
        -0.06223425641655922,
        -0.04193979129195213,
        0.0491926483809948,
        0.0992356687784195,
        0.08386927843093872,
        0.044601842761039734,
        0.0005611447850242257,
        -0.043319813907146454,
        -0.05291870981454849,
        0.03018014132976532,
        0.11016839742660522,
        0.028054192662239075,
        0.03818695619702339,
        0.03957232087850571,
        -0.0029366272501647472,
        -0.11287414282560349,
        0.10598137229681015,
        -0.12110602855682373,
        0.03327944502234459,
        0.07274553179740906,
        -0.08614443242549896,
        0.08743124455213547,
        0.12299149483442307,
        0.10756437480449677,
        -0.029669538140296936,
        -0.03291253745555878,
        0.07860305905342102,
        0.010006350465118885,
        -0.10252079367637634,
        -0.04046483337879181,
        0.07649248838424683,
        0.11983460932970047,
        0.08489780128002167,
        0.11783198267221451,
        -0.07941428571939468,
        0.0035622341092675924,
        -0.023670801892876625,
        -0.06760579347610474,
        -0.09769541770219803,
        0.11208800226449966,
        -0.04055655002593994,
        -0.02814604341983795,
        0.048761799931526184,
        -0.03103737346827984,
        0.05773007869720459,
        -0.12319373339414597,
        0.014169037342071533
      ],
      [
        0.08993259072303772,
        0.07247689366340637,
        -0.10988157987594604,
        -0.0970916897058487,
        -0.0821521207690239,
        0.08402383327484131,
        0.10523857176303864,
        0.08025290817022324,
        0.08733595907688141,
        -0.11681202799081802,
