{"learner":{"attributes":{"best_iteration":"106","best_score":"0.16965140607568516"},"feature_names":["dswrf","t2m","tcc","system_10","system_4","system_50","system_51"],"feature_types":["float","float","float","i","i","i","i"],"gradient_booster":{"model":{"cats":{"enc":[],"feature_segments":[],"sorted_idx":[]},"gbtree_model_param":{"num_parallel_tree":"1","num_trees":"157"},"iteration_indptr":[0,1,2,3,4,5,6,7,8,9,10,11,12,13,14,15,16,17,18,19,20,21,22,23,24,25,26,27,28,29,30,31,32,33,34,35,36,37,38,39,40,41,42,43,44,45,46,47,48,49,50,51,52,53,54,55,56,57,58,59,60,61,62,63,64,65,66,67,68,69,70,71,72,73,74,75,76,77,78,79,80,81,82,83,84,85,86,87,88,89,90,91,92,93,94,95,96,97,98,99,100,101,102,103,104,105,106,107,108,109,110,111,112,113,114,115,116,117,118,119,120,121,122,123,124,125,126,127,128,129,130,131,132,133,134,135,136,137,138,139,140,141,142,143,144,145,146,147,148,149,150,151,152,153,154,155,156,157],"tree_info":[0,0,0,0,0,0,0,0,0,0,0,0,0,0,0,0,0,0,0,0,0,0,0,0,0,0,0,0,0,0,0,0,0,0,0,0,0,0,0,0,0,0,0,0,0,0,0,0,0,0,0,0,0,0,0,0,0,0,0,0,0,0,0,0,0,0,0,0,0,0,0,0,0,0,0,0,0,0,0,0,0,0,0,0,0,0,0,0,0,0,0,0,0,0,0,0,0,0,0,0,0,0,0,0,0,0,0,0,0,0,0,0,0,0,0,0,0,0,0,0,0,0,0,0,0,0,0,0,0,0,0,0,0,0,0,0,0,0,0,0,0,0,0,0,0,0,0,0,0,0,0,0,0,0,0,0,0],"trees":[{"base_weights":[2.072821E-4,-1.7769274E-1,1.5596306E-1,-2.6075628E-1,-8.01602E-2,9.728992E-2,2.0660658E-1,-3.127385E-1,-2.4521455E-1,-3.197051E-2,-1.6085167E-1,1.3229406E-1,-2.6482016E-2,-2.1292338E-1,2.104762E-1,-3.2013947E-1,-2.9196703E-1,-2.2262047E-1,-2.7595666E-1,-2.1091576E-1,-1.619646E-2,-1.21299244E-1,-1.8966813E-1,-1.8343611E-1,1.4920989E-1,-5.086985E-2,8.380491E-2,-2.720027E-1,-4.2763058E-2,2.4850269E-1,1.7457764E-1,-1.6324213E-2,-2.6531193E-1,-2.8157595E-1,-1.5912607E-2,-2.3986717E-1,-1.8170318E-1,-2.932757E-1,-2.6635924E-1,-2.571018E-1,-1.4345951E-1,-5.870379E-2,4.512373E-2,-1.619634E-1,-8.273261E-2,-1.3959843E-2,-1.8436274E-1,-2.509416E-1,-5.2936994E-2,1.6752715E-1,8.922936E-2,-2.7566625E-2,-9.161512E-2,1.0376232E-1,-7.0365556E-2,-1.9205108E-1,-1.6256321E-2,-1.8168652E-1,1.8833295E-1,7.44561E-2,2.5287944E-1,1.10325366E-1,2.0994921E-1,1.3672604E-2,-1.3805988E-2,-1.3667958E-2,-1.6397955E-2,-1.2419605E-2,-1.0429434E-2,-1.3550353E-2,-8.641099E-3,-1.47616165E-2,-9.855232E-3,-1.2756007E-2,-1.4196375E-2,-1.353661E-2,1.4464061E-3,-2.2035022E-3,-8.332024E-3,-1.7137344E-3,-4.497218E-3,3.3905234E-3,1.8570451E-4,-9.063033E-3,-6.534914E-3,-3.2266944E-3,-6.333732E-3,-8.78004E-3,-1.1920063E-2,-1.5807023E-2,-9.4310995E-3,-5.2057495E-3,1.5272778E-2,4.653484E-3,8.682358E-3,2.6344554E-3,6.080968E-3,-2.3145583E-3,1.2140018E-3,-7.1311677E-3,-3.4766854E-3,5.897132E-3,2.7152013E-3,5.3066714E-3,-4.2834966E-3,-1.199532E-2,-2.077934E-3,4.152046E-3,-1.5428496E-2,2.0676635E-2,-7.0125E-3,1.989054E-2,-3.1498415E-4,1.1963068E-2,1.4437734E-2,7.0319474E-3,2.5481489E-3,9.98225E-3,1.4923749E-2],"categories":[],"categories_nodes":[],"categories_segments":[],"categories_sizes":[],"default_left":[0,0,0,0,0,0,0,0,0,0,0,0,0,0,0,0,0,0,0,0,0,0,0,0,0,0,0,0,0,0,0,0,0,0,0,0,0,0,0,0,0,0,0,0,0,0,0,0,0,0,0,0,0,0,0,0,0,0,0,0,0,0,0,0,0,0,0,0,0,0,0,0,0,0,0,0,0,0,0,0,0,0,0,0,0,0,0,0,0,0,0,0,0,0,0,0,0,0,0,0,0,0,0,0,0,0,0,0,0,0,0,0,0,0,0,0,0,0,0],"id":0,"left_children":[1,3,5,7,9,11,13,15,17,19,21,23,25,27,29,31,33,35,37,39,41,43,45,47,49,51,53,55,57,59,61,-1,63,65,-1,67,69,71,73,75,77,79,81,83,85,-1,87,89,91,93,95,97,99,101,103,105,-1,107,109,111,113,115,117,-1,-1,-1,-1,-1,-1,-1,-1,-1,-1,-1,-1,-1,-1,-1,-1,-1,-1,-1,-1,-1,-1,-1,-1,-1,-1,-1,-1,-1,-1,-1,-1,-1,-1,-1,-1,-1,-1,-1,-1,-1,-1,-1,-1,-1,-1,-1,-1,-1,-1,-1,-1,-1,-1,-1,-1],"loss_changes":[7.682031E2,1.0482742E2,4.390335E1,5.5696716E0,2.3146965E1,2.9681335E1,1.2923401E1,1.5327454E-1,3.6789246E0,1.0522399E1,2.514103E0,2.854744E1,4.068338E0,7.22234E-1,1.0687622E1,3.214264E-1,2.8652191E-2,2.150406E0,3.0036926E-1,9.0400887E-1,8.937928E0,1.4623518E0,5.593567E-1,2.3828745E0,5.5542526E0,1.1729507E0,8.503561E-1,1.6691494E-1,6.7631066E-1,2.8872833E0,9.174469E0,0E0,8.15011E-1,3.192711E-2,0E0,5.3054047E-1,6.875992E-1,9.27124E-2,2.1900177E-1,7.0180035E-1,2.8064895E-1,1.5423541E0,1.3187358E0,2.5203228E-1,3.7967443E-1,0E0,5.343628E-1,6.67676E-1,1.7559329E0,1.7527924E0,1.3996363E0,7.6708883E-1,4.9693298E-1,1.6401982E-1,9.5531076E-2,1.6287452E-1,0E0,4.622877E-1,6.4997244E-1,2.4832184E0,1.7488251E0,2.5822945E0,2.3203125E0,0E0,0E0,0E0,0E0,0E0,0E0,0E0,0E0,0E0,0E0,0E0,0E0,0E0,0E0,0E0,0E0,0E0,0E0,0E0,0E0,0E0,0E0,0E0,0E0,0E0,0E0,0E0,0E0,0E0,0E0,0E0,0E0,0E0,0E0,0E0,0E0,0E0,0E0,0E0,0E0,0E0,0E0,0E0,0E0,0E0,0E0,0E0,0E0,0E0,0E0,0E0,0E0,0E0,0E0,0E0,0E0],"parents":[2147483647,0,0,1,1,2,2,3,3,4,4,5,5,6,6,7,7,8,8,9,9,10,10,11,11,12,12,13,13,14,14,15,15,16,16,17,17,18,18,19,19,20,20,21,21,22,22,23,23,24,24,25,25,26,26,27,27,28,28,29,29,30,30,32,32,33,33,35,35,36,36,37,37,38,38,39,39,40,40,41,41,42,42,43,43,44,44,46,46,47,47,48,48,49,49,50,50,51,51,52,52,53,53,54,54,55,55,57,57,58,58,59,59,60,60,61,61,62,62],"right_children":[2,4,6,8,10,12,14,16,18,20,22,24,26,28,30,32,34,36,38,40,42,44,46,48,50,52,54,56,58,60,62,-1,64,66,-1,68,70,72,74,76,78,80,82,84,86,-1,88,90,92,94,96,98,100,102,104,106,-1,108,110,112,114,116,118,-1,-1,-1,-1,-1,-1,-1,-1,-1,-1,-1,-1,-1,-1,-1,-1,-1,-1,-1,-1,-1,-1,-1,-1,-1,-1,-1,-1,-1,-1,-1,-1,-1,-1,-1,-1,-1,-1,-1,-1,-1,-1,-1,-1,-1,-1,-1,-1,-1,-1,-1,-1,-1,-1,-1,-1],"split_conditions":[4.392E2,2.369E2,6.951E2,7.53E1,2.9038184E2,2.9742136E2,2.692014E2,6.35E1,2.8776813E2,2.7031506E2,2.9564636E2,2.704816E2,6.427E2,2.682119E2,2.9709286E2,2.9457983E2,1E0,1.824E2,1.416E2,2.682119E2,3.627E2,3.59E2,2.48E2,2.692014E2,2.9179004E2,3.0332715E2,3.0660568E2,7.8E2,7.57E2,2.7402374E2,8.34E2,-1.6324213E-2,2.9472067E2,2.9457983E2,-1.5912607E-2,1E0,2.69603E2,3.0605695E2,2.9617776E2,4.176E2,2.7E2,2.8192178E2,2.8452554E2,3.162E2,2.9393555E2,-1.3959843E-2,3.055028E2,2.655947E2,6.671E2,4.554E2,5.668E2,6.02E2,5.25E2,6.83E2,6.489E2,7.45E2,-1.6256321E-2,7.132E2,8.01E2,7.244E2,9.15E2,3.0366476E2,1.025E3,1.3672604E-2,-1.3805988E-2,-1.3667958E-2,-1.6397955E-2,-1.2419605E-2,-1.0429434E-2,-1.3550353E-2,-8.641099E-3,-1.47616165E-2,-9.855232E-3,-1.2756007E-2,-1.4196375E-2,-1.353661E-2,1.4464061E-3,-2.2035022E-3,-8.332024E-3,-1.7137344E-3,-4.497218E-3,3.3905234E-3,1.8570451E-4,-9.063033E-3,-6.534914E-3,-3.2266944E-3,-6.333732E-3,-8.78004E-3,-1.1920063E-2,-1.5807023E-2,-9.4310995E-3,-5.2057495E-3,1.5272778E-2,4.653484E-3,8.682358E-3,2.6344554E-3,6.080968E-3,-2.3145583E-3,1.2140018E-3,-7.1311677E-3,-3.4766854E-3,5.897132E-3,2.7152013E-3,5.3066714E-3,-4.2834966E-3,-1.199532E-2,-2.077934E-3,4.152046E-3,-1.5428496E-2,2.0676635E-2,-7.0125E-3,1.989054E-2,-3.1498415E-4,1.1963068E-2,1.4437734E-2,7.0319474E-3,2.5481489E-3,9.98225E-3,1.4923749E-2],"split_indices":[0,0,0,0,1,1,1,0,1,1,1,1,0,1,1,1,4,0,0,1,0,0,0,1,1,1,1,0,0,1,0,0,1,1,0,5,1,1,1,0,0,1,1,0,1,0,1,1,0,0,0,0,0,0,0,0,0,0,0,0,0,1,0,0,0,0,0,0,0,0,0,0,0,0,0,0,0,0,0,0,0,0,0,0,0,0,0,0,0,0,0,0,0,0,0,0,0,0,0,0,0,0,0,0,0,0,0,0,0,0,0,0,0,0,0,0,0,0,0],"split_type":[0,0,0,0,0,0,0,0,0,0,0,0,0,0,0,0,0,0,0,0,0,0,0,0,0,0,0,0,0,0,0,0,0,0,0,0,0,0,0,0,0,0,0,0,0,0,0,0,0,0,0,0,0,0,0,0,0,0,0,0,0,0,0,0,0,0,0,0,0,0,0,0,0,0,0,0,0,0,0,0,0,0,0,0,0,0,0,0,0,0,0,0,0,0,0,0,0,0,0,0,0,0,0,0,0,0,0,0,0,0,0,0,0,0,0,0,0,0,0],"sum_hessian":[2.7722E4,1.2941E4,1.4781E4,6.988E3,5.953E3,6.849E3,7.932E3,1.604E3,5.384E3,3.728E3,2.225E3,5.339E3,1.51E3,7.2E1,7.86E3,1.172E3,4.32E2,3.108E3,2.276E3,3.01E2,3.427E3,9.4E2,1.285E3,2.71E2,5.068E3,1.237E3,2.73E2,5.3E1,1.9E1,3.814E3,4.046E3,1.046E3,1.26E2,3.18E2,1.14E2,2.183E3,9.25E2,8.01E2,1.475E3,1.77E2,1.24E2,2.024E3,1.403E3,4.56E2,4.84E2,6.9E1,1.216E3,1.78E2,9.3E1,3.881E3,1.187E3,7.88E2,4.49E2,2.42E2,3.1E1,2.3E1,3E1,1.2E1,7E0,9.4E1,3.72E3,1.438E3,2.608E3,2E0,1.24E2,2.76E2,4.2E1,1.71E3,4.73E2,8.1E1,8.44E2,7.83E2,1.8E1,9.09E2,5.66E2,1.69E2,8E0,2.4E1,1E2,1.137E3,8.87E2,9.06E2,4.97E2,2.79E2,1.77E2,3.44E2,1.4E2,1.05E3,1.66E2,8.5E1,9.3E1,8.2E1,1.1E1,2.96E2,3.585E3,5.59E2,6.28E2,5.79E2,2.09E2,1.34E2,3.15E2,1.87E2,5.5E1,2E0,2.9E1,1.7E1,6E0,4E0,8E0,4E0,3E0,1.8E1,7.6E1,2.702E3,1.018E3,9.51E2,4.87E2,2.339E3,2.69E2],"tree_param":{"num_deleted":"0","num_feature":"7","num_nodes":"119","size_leaf_vector":"1"}},{"base_weights":[3.454951E-4,8.387001E-2,-7.5780965E-2,-1.9308428E-1,8.753329E-2,-1.8427812E-1,-4.84618E-2,-1.4604645E-2,-1.313627E-1,1.0343807E-1,3.840072E-2,-2.4990585E-1,-1.4272088E-1,-1.1415628E-2,-6.6196665E-2,-5.8192197E-2,-2.423176E-1,9.5761046E-2,1.3680817E-1,6.336219E-2,9.923733E-3,-2.6500267E-1,-2.0747764E-1,-2.7995642E-2,-1.7098555E-1,2.166458E-2,-4.459502E-2,-1.15220465E-1,-5.3965174E-2,-8.997453E-2,2.5000796E-3,-1.2262379E-2,-2.981477E-3,1.1714836E-1,7.1851924E-2,1.4732625E-1,3.9428867E-2,5.3703234E-2,9.480656E-2,4.211903E-2,-4.508576E-3,-2.85381E-1,-2.5007227E-1,-2.3459324E-1,-1.6236573E-1,-4.0899776E-2,2.037147E-1,-1.4786309E-1,-1.9908185E-1,-4.8294887E-3,3.3293407E-2,-5.041064E-2,4.709968E-2,-4.698806E-2,-1.3286872E-1,-4.176985E-2,-7.450464E-2,-2.6425954E-3,-9.826883E-3,2.4510615E-3,-7.2616786E-3,2.449375E-3,6.498954E-3,2.3315875E-3,4.2202016E-3,6.7496235E-3,8.762107E-3,6.901638E-5,6.2506716E-3,3.257051E-3,-2.2839482E-3,5.6205927E-3,-2.582071E-4,-7.8891115E-3,2.6439053E-3,-7.965321E-4,4.9665915E-3,-8.807214E-3,-1.46487905E-2,-3.9663236E-3,-1.2601254E-2,-5.6058518E-3,-1.2864112E-2,1.9841536E-3,-8.587004E-3,1.9569392E-3,-4.391708E-3,2.2220553E-3,1.3690352E-2,-7.7966587E-3,2.2738811E-4,-1.0971252E-2,-8.608196E-3,1.7271846E-3,-3.293133E-3,1.2721813E-2,1.3878065E-3,-1.8086097E-3,-3.2400985E-3,5.4222457E-3,-1.0966954E-3,-1.7503105E-3,-1.0520983E-2,-8.583236E-3,-5.2770767E-3,-7.123866E-4,-2.6288207E-3,-5.198345E-3,-2.8579356E-3],"categories":[],"categories_nodes":[],"categories_segments":[],"categories_sizes":[],"default_left":[0,0,0,0,0,0,0,0,0,0,0,0,0,0,0,0,0,0,0,0,0,0,0,0,0,0,0,0,0,0,0,0,0,0,0,0,0,0,0,0,0,0,0,0,0,0,0,0,0,0,0,0,0,0,0,0,0,0,0,0,0,0,0,0,0,0,0,0,0,0,0,0,0,0,0,0,0,0,0,0,0,0,0,0,0,0,0,0,0,0,0,0,0,0,0,0,0,0,0,0,0,0,0,0,0,0,0,0,0],"id":1,"left_children":[1,3,5,7,9,11,13,-1,15,17,19,21,23,25,27,29,31,33,35,37,39,41,43,45,47,49,51,53,55,57,59,-1,-1,61,63,65,67,69,71,73,75,77,79,81,83,85,87,89,91,93,95,97,99,101,103,105,107,-1,-1,-1,-1,-1,-1,-1,-1,-1,-1,-1,-1,-1,-1,-1,-1,-1,-1,-1,-1,-1,-1,-1,-1,-1,-1,-1,-1,-1,-1,-1,-1,-1,-1,-1,-1,-1,-1,-1,-1,-1,-1,-1,-1,-1,-1,-1,-1,-1,-1,-1,-1],"loss_changes":[1.7741916E2,1.3515625E1,4.32603E1,1.0249381E0,1.0257927E1,7.97171E0,7.6619415E0,0E0,8.708291E-1,2.5282364E0,2.2832599E0,6.733017E-1,5.83202E0,4.1465306E0,4.723095E0,1.2946403E-1,8.392572E-3,4.1171722E0,1.8921127E0,5.1487684E-1,6.980979E-1,1.8268585E-1,3.32551E-1,1.0757694E0,9.086647E-1,5.830765E-1,1.0081055E0,1.8891392E0,1.5784531E0,1.6367236E-1,1.7206527E-1,0E0,0E0,3.7166061E0,1.2028141E0,5.5202866E-1,5.924864E-1,1.494343E0,7.063463E-1,1.0084434E0,1.232725E0,2.3544884E-1,1.4338684E-1,4.907999E-1,2.2842193E-1,1.2769117E0,1.9994497E-1,9.7976494E-1,3.176155E-1,1.3912498E0,1.6031941E0,3.6116648E-1,4.8092026E-1,6.290531E-1,1.3071136E0,1.1782217E0,1.1955366E0,0E0,0E0,0E0,0E0,0E0,0E0,0E0,0E0,0E0,0E0,0E0,0E0,0E0,0E0,0E0,0E0,0E0,0E0,0E0,0E0,0E0,0E0,0E0,0E0,0E0,0E0,0E0,0E0,0E0,0E0,0E0,0E0,0E0,0E0,0E0,0E0,0E0,0E0,0E0,0E0,0E0,0E0,0E0,0E0,0E0,0E0,0E0,0E0,0E0,0E0,0E0,0E0],"parents":[2147483647,0,0,1,1,2,2,3,3,4,4,5,5,6,6,8,8,9,9,10,10,11,11,12,12,13,13,14,14,15,15,16,16,17,17,18,18,19,19,20,20,21,21,22,22,23,23,24,24,25,25,26,26,27,27,28,28,29,29,30,30,33,33,34,34,35,35,36,36,37,37,38,38,39,39,40,40,41,41,42,42,43,43,44,44,45,45,46,46,47,47,48,48,49,49,50,50,51,51,52,52,53,53,54,54,55,55,56,56],"right_children":[2,4,6,8,10,12,14,-1,16,18,20,22,24,26,28,30,32,34,36,38,40,42,44,46,48,50,52,54,56,58,60,-1,-1,62,64,66,68,70,72,74,76,78,80,82,84,86,88,90,92,94,96,98,100,102,104,106,108,-1,-1,-1,-1,-1,-1,-1,-1,-1,-1,-1,-1,-1,-1,-1,-1,-1,-1,-1,-1,-1,-1,-1,-1,-1,-1,-1,-1,-1,-1,-1,-1,-1,-1,-1,-1,-1,-1,-1,-1,-1,-1,-1,-1,-1,-1,-1,-1,-1,-1,-1,-1],"split_conditions":[1.5875E1,2.6880396E2,2.7660107E2,2.655947E2,3.625E0,2.711814E2,4.7125E1,-1.4604645E-2,3.125E0,3.00599E2,2.9499786E2,2.700033E2,4.5375E1,2.9418393E2,2.8142892E2,2.682119E2,1.3875E1,2.8963715E2,2.25E0,1.1625E1,6.75E0,2.670626E2,9.55E1,4.4E1,2.7446625E2,2.8294806E2,3.0741232E2,7.5E1,1E2,2.6771436E2,1E0,-1.2262379E-2,-2.981477E-3,2.753905E2,2.928631E2,1E0,3.0605695E2,1.0375E1,1.525E1,2.9579507E2,3.0770566E2,2.75E1,1.95E1,3.2625E1,9.7E1,2.6125E1,2.7278003E2,2.7422055E2,2.7578162E2,3.2625E1,2.8335345E2,2.8625E1,2.25E1,2.8111212E2,9.975E1,2.8854663E2,2.874383E2,-2.6425954E-3,-9.826883E-3,2.4510615E-3,-7.2616786E-3,2.449375E-3,6.498954E-3,2.3315875E-3,4.2202016E-3,6.7496235E-3,8.762107E-3,6.901638E-5,6.2506716E-3,3.257051E-3,-2.2839482E-3,5.6205927E-3,-2.582071E-4,-7.8891115E-3,2.6439053E-3,-7.965321E-4,4.9665915E-3,-8.807214E-3,-1.46487905E-2,-3.9663236E-3,-1.2601254E-2,-5.6058518E-3,-1.2864112E-2,1.9841536E-3,-8.587004E-3,1.9569392E-3,-4.391708E-3,2.2220553E-3,1.3690352E-2,-7.7966587E-3,2.2738811E-4,-1.0971252E-2,-8.608196E-3,1.7271846E-3,-3.293133E-3,1.2721813E-2,1.3878065E-3,-1.8086097E-3,-3.2400985E-3,5.4222457E-3,-1.0966954E-3,-1.7503105E-3,-1.0520983E-2,-8.583236E-3,-5.2770767E-3,-7.123866E-4,-2.6288207E-3,-5.198345E-3,-2.8579356E-3],"split_indices":[2,1,1,1,2,1,2,0,2,1,1,1,2,1,1,1,2,1,2,2,2,1,2,2,1,1,1,2,2,1,2,0,0,1,1,4,1,2,2,1,1,2,2,2,2,2,1,1,1,2,1,2,2,1,2,1,1,0,0,0,0,0,0,0,0,0,0,0,0,0,0,0,0,0,0,0,0,0,0,0,0,0,0,0,0,0,0,0,0,0,0,0,0,0,0,0,0,0,0,0,0,0,0,0,0,0,0,0,0],"split_type":[0,0,0,0,0,0,0,0,0,0,0,0,0,0,0,0,0,0,0,0,0,0,0,0,0,0,0,0,0,0,0,0,0,0,0,0,0,0,0,0,0,0,0,0,0,0,0,0,0,0,0,0,0,0,0,0,0,0,0,0,0,0,0,0,0,0,0,0,0,0,0,0,0,0,0,0,0,0,0,0,0,0,0,0,0,0,0,0,0,0,0,0,0,0,0,0,0,0,0,0,0,0,0,0,0,0,0,0,0],"sum_hessian":[2.7901E4,1.3304E4,1.4597E4,1.73E2,1.3131E4,2.935E3,1.1662E4,6.5E1,1.08E2,9.919E3,3.212E3,1.136E3,1.799E3,3.776E3,7.886E3,6.6E1,4.2E1,8.067E3,1.852E3,1.711E3,1.501E3,8.34E2,3.02E2,3.56E2,1.443E3,1.891E3,1.885E3,1.573E3,6.313E3,4.3E1,2.3E1,4.1E1,1E0,4.256E3,3.811E3,1.671E3,1.81E2,1.311E3,4E2,4.64E2,1.037E3,3.45E2,4.89E2,1.86E2,1.16E2,3.38E2,1.8E1,7.95E2,6.48E2,5.77E2,1.314E3,1.773E3,1.12E2,3.24E2,1.249E3,3.963E3,2.35E3,3.3E1,1E1,1.8E1,5E0,6.75E2,3.581E3,1.268E3,2.543E3,1.163E3,5.08E2,1.26E2,5.5E1,1.176E3,1.35E2,3.4E2,6E1,2.3E1,4.41E2,9.35E2,1.02E2,2.4E1,3.21E2,6E0,4.83E2,3E1,1.56E2,5E0,1.11E2,1.25E2,2.13E2,6E0,1.2E1,7.55E2,4E1,3.65E2,2.83E2,3.51E2,2.26E2,3.1E1,1.283E3,8.93E2,8.8E2,5.9E1,5.3E1,3.03E2,2.1E1,5.14E2,7.35E2,1.118E3,2.845E3,8.69E2,1.481E3],"tree_param":{"num_deleted":"0","num_feature":"7","num_nodes":"109","size_leaf_vector":"1"}},{"base_weights":[1.18350115E-4,-1.6575618E-1,1.46263E-1,-2.4617428E-1,-7.5440675E-2,8.791256E-2,1.9160806E-1,-2.8780568E-1,-2.2965235E-1,-3.6558133E-2,-1.7115624E-1,1.2222281E-1,-3.506849E-2,-7.559507E-2,1.9566186E-1,-2.9975933E-1,-2.685238E-1,-2.0483808E-1,-2.6067293E-1,-7.330317E-2,1.6926669E-2,-1.3385652E-1,-1.8752718E-1,-1.6788213E-1,1.3805203E-1,-5.3230003E-2,5.841837E-2,-2.396446E-1,1.030522E-2,2.4044096E-1,1.6711478E-1,-1.525794E-2,-2.5013182E-1,-2.3617882E-1,-1.420036E-2,-2.1671498E-1,-1.6365759E-1,-2.729243E-1,-2.5210753E-1,-2.2912931E-1,-6.3549936E-2,-1.6865844E-1,2.6459163E-2,-1.4855292E-1,-8.638961E-2,-1.2555246E-2,-1.7918919E-1,-2.8000662E-1,-1.1705814E-1,1.5604335E-1,7.910083E-2,-2.789897E-2,-9.306974E-2,1.0207144E-1,-6.151367E-2,-1.7353645E-1,-1.474299E-2,1.7755602E-1,-4.560862E-2,2.0685741E-1,2.5556874E-1,1.2325144E-1,2.0762537E-1,-6.323613E-3,-1.587023E-2,-1.4727282E-2,-1.1202608E-2,-1.12406975E-2,-9.366502E-3,-1.37489885E-2,-7.7014877E-3,-1.1878718E-2,-1.3955185E-2,-1.181811E-2,-1.3292934E-2,-5.916878E-3,-1.1723132E-2,-1.6928467E-3,-4.7798795E-3,-1.2411977E-2,-4.9413578E-3,2.9607893E-3,-1.3874411E-3,-1.03108585E-2,-7.003274E-3,-3.6526122E-3,-7.14041E-3,-8.558394E-3,-1.0926368E-2,-7.0276023E-3,-1.4178415E-2,-8.344475E-3,-2.3469443E-3,4.610241E-3,8.143458E-3,2.311296E-3,5.6034657E-3,-2.1576947E-3,8.71737E-4,-6.42682E-3,-3.0227262E-3,1.4241339E-3,6.088802E-3,-8.741347E-4,-7.655229E-3,-1.2926652E-2,-3.251843E-3,-1.1326054E-2,1.1600631E-2,-4.060998E-3,1.9186344E-2,8.154335E-3,1.0886626E-2,1.9513907E-2,1.25992745E-2,7.1804547E-3,3.324559E-3,9.943377E-3,1.3932817E-2],"categories":[],"categories_nodes":[],"categories_segments":[],"categories_sizes":[],"default_left":[0,0,0,0,0,0,0,0,0,0,0,0,0,0,0,0,0,0,0,0,0,0,0,0,0,0,0,0,0,0,0,0,0,0,0,0,0,0,0,0,0,0,0,0,0,0,0,0,0,0,0,0,0,0,0,0,0,0,0,0,0,0,0,0,0,0,0,0,0,0,0,0,0,0,0,0,0,0,0,0,0,0,0,0,0,0,0,0,0,0,0,0,0,0,0,0,0,0,0,0,0,0,0,0,0,0,0,0,0,0,0,0,0,0,0,0,0,0,0],"id":2,"left_children":[1,3,5,7,9,11,13,15,17,19,21,23,25,27,29,31,33,35,37,39,41,43,45,47,49,51,53,55,57,59,61,-1,63,65,-1,67,69,71,73,75,77,79,81,83,85,-1,87,89,91,93,95,97,99,101,103,105,-1,107,109,111,113,115,117,-1,-1,-1,-1,-1,-1,-1,-1,-1,-1,-1,-1,-1,-1,-1,-1,-1,-1,-1,-1,-1,-1,-1,-1,-1,-1,-1,-1,-1,-1,-1,-1,-1,-1,-1,-1,-1,-1,-1,-1,-1,-1,-1,-1,-1,-1,-1,-1,-1,-1,-1,-1,-1,-1,-1,-1],"loss_changes":[6.7396716E2,9.456021E1,3.90896E1,4.671692E0,2.2826157E1,2.7283424E1,9.022583E0,3.6965942E-1,3.7460938E0,8.577816E0,1.0569344E0,2.323642E1,2.3987944E0,1.7639574E0,1.0431763E1,2.4442291E-1,3.120346E-1,1.3080902E0,1.61026E-1,3.9171839E0,3.1499026E0,3.6665726E-1,6.0651016E-1,1.4602599E0,5.072212E0,1.1902566E0,1.2104211E0,1.0578871E-1,7.8428376E-1,1.5662537E0,8.869736E0,0E0,9.830847E-1,1.11662865E-1,0E0,4.6455383E-1,6.210823E-1,1.2788391E-1,2.190628E-1,6.206894E-2,2.3148394E0,4.589479E-1,3.0060775E0,1.7373657E-1,8.814174E-2,0E0,3.0653763E-1,3.7622452E-4,6.2809944E-1,1.5850601E0,1.211967E0,5.0144356E-1,5.231788E-1,2.4158788E-1,2.473592E-1,1.8607199E-1,0E0,5.146537E-1,9.943865E-1,4.381218E-1,9.6022034E-1,2.7705956E0,1.5626068E0,0E0,0E0,0E0,0E0,0E0,0E0,0E0,0E0,0E0,0E0,0E0,0E0,0E0,0E0,0E0,0E0,0E0,0E0,0E0,0E0,0E0,0E0,0E0,0E0,0E0,0E0,0E0,0E0,0E0,0E0,0E0,0E0,0E0,0E0,0E0,0E0,0E0,0E0,0E0,0E0,0E0,0E0,0E0,0E0,0E0,0E0,0E0,0E0,0E0,0E0,0E0,0E0,0E0,0E0,0E0,0E0],"parents":[2147483647,0,0,1,1,2,2,3,3,4,4,5,5,6,6,7,7,8,8,9,9,10,10,11,11,12,12,13,13,14,14,15,15,16,16,17,17,18,18,19,19,20,20,21,21,22,22,23,23,24,24,25,25,26,26,27,27,28,28,29,29,30,30,32,32,33,33,35,35,36,36,37,37,38,38,39,39,40,40,41,41,42,42,43,43,44,44,46,46,47,47,48,48,49,49,50,50,51,51,52,52,53,53,54,54,55,55,57,57,58,58,59,59,60,60,61,61,62,62],"right_children":[2,4,6,8,10,12,14,16,18,20,22,24,26,28,30,32,34,36,38,40,42,44,46,48,50,52,54,56,58,60,62,-1,64,66,-1,68,70,72,74,76,78,80,82,84,86,-1,88,90,92,94,96,98,100,102,104,106,-1,108,110,112,114,116,118,-1,-1,-1,-1,-1,-1,-1,-1,-1,-1,-1,-1,-1,-1,-1,-1,-1,-1,-1,-1,-1,-1,-1,-1,-1,-1,-1,-1,-1,-1,-1,-1,-1,-1,-1,-1,-1,-1,-1,-1,-1,-1,-1,-1,-1,-1,-1,-1,-1,-1,-1,-1,-1,-1,-1,-1],"split_conditions":[4.392E2,2.342E2,6.77E2,8.28E1,2.931156E2,2.9742136E2,2.7254486E2,6.35E1,2.8713782E2,3.627E2,2.963276E2,2.704816E2,6.389E2,2.682119E2,2.9432773E2,2.9593698E2,2.7738068E2,1.975E2,1.549E2,2.6880396E2,2.700033E2,3.96E2,2.569E2,2.655947E2,2.9179004E2,3.0313605E2,3.0489346E2,7.8E2,7.192E2,7.64E2,8.76E2,-1.525794E-2,2.9844263E2,2.6771436E2,-1.420036E-2,1E0,2.692014E2,9.45E1,2.9364066E2,2.369E2,2.8192178E2,2.655947E2,2.8615598E2,2.659E2,4.306E2,-1.2555246E-2,3.055028E2,4.423E2,5.592E2,4.612E2,5.668E2,6.02E2,5.668E2,6.427E2,3.0770566E2,7.244E2,-1.474299E-2,6.83E2,1.004E3,6.951E2,7.68E2,3.0403534E2,1.025E3,-6.323613E-3,-1.587023E-2,-1.4727282E-2,-1.1202608E-2,-1.12406975E-2,-9.366502E-3,-1.37489885E-2,-7.7014877E-3,-1.1878718E-2,-1.3955185E-2,-1.181811E-2,-1.3292934E-2,-5.916878E-3,-1.1723132E-2,-1.6928467E-3,-4.7798795E-3,-1.2411977E-2,-4.9413578E-3,2.9607893E-3,-1.3874411E-3,-1.03108585E-2,-7.003274E-3,-3.6526122E-3,-7.14041E-3,-8.558394E-3,-1.0926368E-2,-7.0276023E-3,-1.4178415E-2,-8.344475E-3,-2.3469443E-3,4.610241E-3,8.143458E-3,2.311296E-3,5.6034657E-3,-2.1576947E-3,8.71737E-4,-6.42682E-3,-3.0227262E-3,1.4241339E-3,6.088802E-3,-8.741347E-4,-7.655229E-3,-1.2926652E-2,-3.251843E-3,-1.1326054E-2,1.1600631E-2,-4.060998E-3,1.9186344E-2,8.154335E-3,1.0886626E-2,1.9513907E-2,1.25992745E-2,7.1804547E-3,3.324559E-3,9.943377E-3,1.3932817E-2],"split_indices":[0,0,0,0,1,1,1,0,1,0,1,1,0,1,1,1,1,0,0,1,1,0,0,1,1,1,1,0,0,0,0,0,1,1,0,5,1,0,1,0,1,1,1,0,0,0,1,0,0,0,0,0,0,0,1,0,0,0,0,0,0,1,0,0,0,0,0,0,0,0,0,0,0,0,0,0,0,0,0,0,0,0,0,0,0,0,0,0,0,0,0,0,0,0,0,0,0,0,0,0,0,0,0,0,0,0,0,0,0,0,0,0,0,0,0,0,0,0,0],"split_type":[0,0,0,0,0,0,0,0,0,0,0,0,0,0,0,0,0,0,0,0,0,0,0,0,0,0,0,0,0,0,0,0,0,0,0,0,0,0,0,0,0,0,0,0,0,0,0,0,0,0,0,0,0,0,0,0,0,0,0,0,0,0,0,0,0,0,0,0,0,0,0,0,0,0,0,0,0,0,0,0,0,0,0,0,0,0,0,0,0,0,0,0,0,0,0,0,0,0,0,0,0,0,0,0,0,0,0,0,0,0,0,0,0,0,0,0,0,0,0],"sum_hessian":[2.78E4,1.3021E4,1.4779E4,6.887E3,6.134E3,6.464E3,8.315E3,1.952E3,4.935E3,4.363E3,1.771E3,5.054E3,1.41E3,1.24E2,8.191E3,1.196E3,7.56E2,2.746E3,2.189E3,2.586E3,1.777E3,5.43E2,1.228E3,2.61E2,4.793E3,1.181E3,2.29E2,4.2E1,8.2E1,3.186E3,5.005E3,1.074E3,1.22E2,2.5E2,5.06E2,2.128E3,6.18E2,8.88E2,1.301E3,1.51E2,2.435E3,8.6E1,1.691E3,4.13E2,1.3E2,1.39E2,1.089E3,8E1,1.81E2,3.671E3,1.122E3,7.23E2,4.58E2,1.68E2,6.1E1,2.1E1,2.1E1,2E1,6.2E1,9.94E2,2.192E3,2.405E3,2.6E3,4.4E1,7.8E1,3.9E1,2.11E2,1.663E3,4.65E2,4.7E1,5.71E2,1.38E2,7.5E2,6.15E2,6.86E2,8E0,1.43E2,1.265E3,1.17E3,3.9E1,4.7E1,1.054E3,6.37E2,5E1,3.63E2,1.07E2,2.3E1,9.09E2,1.8E2,3E0,7.7E1,1.05E2,7.6E1,3.56E2,3.315E3,5.63E2,5.59E2,5.41E2,1.82E2,2.18E2,2.4E2,3.6E1,1.32E2,4.2E1,1.9E1,1.1E1,1E1,2E0,1.8E1,5.8E1,4E0,2.01E2,7.93E2,5.4E1,2.138E3,1.769E3,6.36E2,2.318E3,2.82E2],"tree_param":{"num_deleted":"0","num_feature":"7","num_nodes":"119","size_leaf_vector":"1"}},{"base_weights":[-5.770891E-4,-1.5812255E-1,1.3856512E-1,-2.3295712E-1,-7.3809996E-2,8.324079E-2,1.8220983E-1,-2.7337697E-1,-2.1734174E-1,-1.0462626E-1,-3.0188328E-2,7.673037E-2,1.2013685E-1,1.5598151E-1,2.0306577E-1,-1.4257087E-2,-2.5411153E-1,-2.238715E-1,-1.9137645E-1,-1.1303926E-1,-7.3403046E-2,-4.3008864E-2,1.7367885E-2,3.631811E-2,8.129741E-2,1.1568309E-1,1.2531282E-1,1.4299504E-1,1.6751973E-1,1.9718182E-1,2.7686882E-1,-1.2346982E-2,-1.3768333E-2,-2.3276491E-1,-2.0068143E-1,-2.0241548E-1,-1.693198E-1,-1.2333708E-1,-8.729502E-2,-5.297646E-3,-6.822776E-2,-5.6777656E-2,-8.942486E-3,2.3590721E-2,-4.5341924E-2,5.0550275E-2,1.4872135E-2,9.440211E-2,6.9282904E-2,1.2366618E-1,8.327531E-2,1.29655E-1,1.121418E-1,1.4720462E-1,7.664523E-2,1.9779809E-1,1.6161866E-1,1.8900625E-1,2.179175E-1,1.3151412E-2,1.567291E-2,-1.2065577E-2,-1.0435045E-2,-1.054199E-2,-9.592791E-3,-7.787785E-3,-1.0199615E-2,-5.673516E-3,-8.658901E-3,-6.688406E-3,-5.5697877E-3,-4.6244967E-3,-2.3124681E-3,-3.0124313E-3,-4.3794317E-3,-2.1139295E-3,-3.6092345E-3,-2.2103507E-3,-8.544722E-5,-7.513242E-4,1.6206851E-3,-1.4241613E-3,-3.2368724E-3,3.1315256E-3,1.037712E-3,-6.447309E-4,1.8705415E-3,4.392089E-3,6.0312073E-3,3.2462627E-3,4.3416647E-3,5.7903174E-3,7.367115E-3,5.306344E-3,9.780985E-4,6.127136E-3,7.16272E-3,6.375632E-3,3.926235E-3,6.8249363E-3,8.696434E-3,4.1512786E-3,1.9366896E-3,8.295881E-3,1.2879387E-2,7.118673E-3,8.576174E-3,9.780358E-3,8.596561E-3,9.92852E-3,1.1430566E-2],"categories":[],"categories_nodes":[],"categories_segments":[],"categories_sizes":[],"default_left":[0,0,0,0,0,0,0,0,0,0,0,0,0,0,0,0,0,0,0,0,0,0,0,0,0,0,0,0,0,0,0,0,0,0,0,0,0,0,0,0,0,0,0,0,0,0,0,0,0,0,0,0,0,0,0,0,0,0,0,0,0,0,0,0,0,0,0,0,0,0,0,0,0,0,0,0,0,0,0,0,0,0,0,0,0,0,0,0,0,0,0,0,0,0,0,0,0,0,0,0,0,0,0,0,0,0,0,0,0,0,0],"id":3,"left_children":[1,3,5,7,9,11,13,15,17,19,21,23,25,27,29,-1,31,33,35,37,39,41,43,45,47,49,51,53,55,57,59,-1,-1,61,63,65,67,69,71,-1,73,75,77,79,81,83,85,87,89,91,93,95,97,99,101,103,105,107,109,-1,-1,-1,-1,-1,-1,-1,-1,-1,-1,-1,-1,-1,-1,-1,-1,-1,-1,-1,-1,-1,-1,-1,-1,-1,-1,-1,-1,-1,-1,-1,-1,-1,-1,-1,-1,-1,-1,-1,-1,-1,-1,-1,-1,-1,-1,-1,-1,-1,-1,-1,-1],"loss_changes":[6.0820435E2,8.208197E1,3.5559326E1,4.2912292E0,8.22369E0,1.551899E0,4.4730225E0,3.620453E-1,8.009949E-1,9.336777E-1,1.5463264E0,1.0171356E0,7.932663E-3,5.23262E-1,1.9360199E0,0E0,4.4193268E-2,7.722626E-1,2.109108E-1,7.3763657E-1,1.2147045E-1,9.361913E-1,2.1140516E-1,1.7108864E-1,7.751808E-1,1.2837267E-1,1.0510445E-2,4.705162E-1,3.1251526E-1,6.791229E-1,8.770752E-2,0E0,0E0,5.386658E-1,5.8883667E-2,1.7225266E-2,5.404377E-2,2.3596191E-1,1.6843796E-1,0E0,9.6990824E-2,3.1460476E-1,1.468548E-1,1.6778001E-1,1.4178261E-2,1.2036091E-1,1.4191915E-1,3.974495E-1,1.9274712E-1,6.258345E-2,1.5662241E-1,1.3686657E-2,4.9926996E-2,4.4003677E-1,2.2182286E-2,5.481596E-1,2.8419495E-1,3.107071E-1,2.0184326E-1,0E0,0E0,0E0,0E0,0E0,0E0,0E0,0E0,0E0,0E0,0E0,0E0,0E0,0E0,0E0,0E0,0E0,0E0,0E0,0E0,0E0,0E0,0E0,0E0,0E0,0E0,0E0,0E0,0E0,0E0,0E0,0E0,0E0,0E0,0E0,0E0,0E0,0E0,0E0,0E0,0E0,0E0,0E0,0E0,0E0,0E0,0E0,0E0,0E0,0E0,0E0,0E0],"parents":[2147483647,0,0,1,1,2,2,3,3,4,4,5,5,6,6,7,7,8,8,9,9,10,10,11,11,12,12,13,13,14,14,16,16,17,17,18,18,19,19,20,20,21,21,22,22,23,23,24,24,25,25,26,26,27,27,28,28,29,29,30,30,33,33,34,34,35,35,36,36,37,37,38,38,40,40,41,41,42,42,43,43,44,44,45,45,46,46,47,47,48,48,49,49,50,50,51,51,52,52,53,53,54,54,55,55,56,56,57,57,58,58],"right_children":[2,4,6,8,10,12,14,16,18,20,22,24,26,28,30,-1,32,34,36,38,40,42,44,46,48,50,52,54,56,58,60,-1,-1,62,64,66,68,70,72,-1,74,76,78,80,82,84,86,88,90,92,94,96,98,100,102,104,106,108,110,-1,-1,-1,-1,-1,-1,-1,-1,-1,-1,-1,-1,-1,-1,-1,-1,-1,-1,-1,-1,-1,-1,-1,-1,-1,-1,-1,-1,-1,-1,-1,-1,-1,-1,-1,-1,-1,-1,-1,-1,-1,-1,-1,-1,-1,-1,-1,-1,-1,-1,-1,-1],"split_conditions":[4.392E2,2.342E2,6.77E2,8.28E1,3.627E2,6.3E2,8.34E2,6.35E1,1E0,1E0,1E0,4.612E2,6.544E2,7.57E2,1.025E3,-1.4257087E-2,1E0,1E0,1.824E2,1E0,2.45E2,1E0,4.306E2,4.512E2,5.421E2,6.489E2,6.72E2,7.526E2,7.68E2,1E0,1E0,-1.2346982E-2,-1.3768333E-2,1.975E2,1.507E2,8.57E1,1.862E2,3.019E2,3.467E2,-5.297646E-3,3.247E2,4.01E2,3.784E2,3.784E2,4.347E2,1E0,4.554E2,1E0,1E0,6.427E2,1E0,1E0,1E0,1E0,1E0,7.64E2,7.87E2,1E0,9.02E2,1.3151412E-2,1.567291E-2,-1.2065577E-2,-1.0435045E-2,-1.054199E-2,-9.592791E-3,-7.787785E-3,-1.0199615E-2,-5.673516E-3,-8.658901E-3,-6.688406E-3,-5.5697877E-3,-4.6244967E-3,-2.3124681E-3,-3.0124313E-3,-4.3794317E-3,-2.1139295E-3,-3.6092345E-3,-2.2103507E-3,-8.544722E-5,-7.513242E-4,1.6206851E-3,-1.4241613E-3,-3.2368724E-3,3.1315256E-3,1.037712E-3,-6.447309E-4,1.8705415E-3,4.392089E-3,6.0312073E-3,3.2462627E-3,4.3416647E-3,5.7903174E-3,7.367115E-3,5.306344E-3,9.780985E-4,6.127136E-3,7.16272E-3,6.375632E-3,3.926235E-3,6.8249363E-3,8.696434E-3,4.1512786E-3,1.9366896E-3,8.295881E-3,1.2879387E-2,7.118673E-3,8.576174E-3,9.780358E-3,8.596561E-3,9.92852E-3,1.1430566E-2],"split_indices":[0,0,0,0,0,0,0,0,5,5,5,0,0,0,0,0,4,6,0,6,0,6,0,0,0,0,0,0,0,4,4,0,0,0,0,0,0,0,0,0,0,0,0,0,0,3,0,5,5,0,4,3,3,4,6,0,0,5,0,0,0,0,0,0,0,0,0,0,0,0,0,0,0,0,0,0,0,0,0,0,0,0,0,0,0,0,0,0,0,0,0,0,0,0,0,0,0,0,0,0,0,0,0,0,0,0,0,0,0,0,0],"split_type":[0,0,0,0,0,0,0,0,0,0,0,0,0,0,0,0,0,0,0,0,0,0,0,0,0,0,0,0,0,0,0,0,0,0,0,0,0,0,0,0,0,0,0,0,0,0,0,0,0,0,0,0,0,0,0,0,0,0,0,0,0,0,0,0,0,0,0,0,0,0,0,0,0,0,0,0,0,0,0,0,0,0,0,0,0,0,0,0,0,0,0,0,0,0,0,0,0,0,0,0,0,0,0,0,0,0,0,0,0,0,0],"sum_hessian":[2.7743E4,1.3011E4,1.4732E4,6.892E3,6.119E3,6.498E3,8.234E3,1.916E3,4.976E3,3.585E3,2.534E3,5.526E3,9.72E2,3.651E3,4.583E3,1.181E3,7.35E2,3.97E3,1.006E3,2.822E3,7.63E2,1.996E3,5.38E2,5.62E2,4.964E3,5.35E2,4.37E2,1.724E3,1.927E3,4.248E3,3.35E2,5.59E2,1.76E2,2.863E3,1.107E3,6.65E2,3.41E2,2.013E3,8.09E2,1.02E2,6.61E2,1.421E3,5.75E2,4.9E2,4.8E1,3.37E2,2.25E2,2.371E3,2.593E3,4.27E2,1.08E2,3.22E2,1.15E2,1.62E3,1.04E2,3.09E2,1.618E3,3.054E3,1.194E3,2.49E2,8.6E1,2.106E3,7.57E2,5.04E2,6.03E2,2.5E1,6.4E2,2.4E1,3.17E2,1.069E3,9.44E2,7.17E2,9.2E1,4.71E2,1.9E2,7.34E2,6.87E2,9.7E1,4.78E2,9.1E1,3.99E2,2.7E1,2.1E1,2.39E2,9.8E1,1.01E2,1.24E2,1.9E3,4.71E2,2.081E3,5.12E2,3.25E2,1.02E2,7.9E1,2.9E1,2.18E2,1.04E2,7.7E1,3.8E1,1.161E3,4.59E2,8.8E1,1.6E1,2.04E2,1.05E2,5.55E2,1.063E3,2.195E3,8.59E2,4.32E2,7.62E2],"tree_param":{"num_deleted":"0","num_feature":"7","num_nodes":"111","size_leaf_vector":"1"}},{"base_weights":[-1.4987414E-3,-1.501963E-1,1.3061284E-1,-2.2142524E-1,-6.904073E-2,2.080494E-1,7.118248E-2,-2.6377115E-1,-2.083651E-1,7.212444E-3,-1.0293475E-1,1.6326694E-1,2.4064486E-1,1.251546E-2,1.1810577E-1,-2.6931658E-1,-2.4871933E-1,-2.2146647E-1,-1.9450575E-1,3.0176835E-2,-3.9997645E-2,-1.2476082E-1,-7.0532694E-2,1.808878E-1,8.941969E-2,2.5386268E-1,1.919142E-1,5.0696958E-2,1.2253067E-3,9.096515E-2,1.3989726E-1,-2.6203814E-1,-1.4002672E-2,-2.2803316E-1,-2.5800955E-1,-1.992083E-1,-2.289448E-1,-2.0449105E-1,-1.6229622E-1,6.438069E-2,-2.6390905E-2,-7.045137E-2,-3.310318E-3,-1.398358E-1,-1.03354976E-1,1.64036E-2,-7.4271634E-2,1.977227E-1,1.4727016E-1,1.3902287E-1,5.0816484E-2,2.3386878E-1,2.7002698E-1,9.922753E-2,2.2395654E-1,2.6193995E-2,8.795988E-2,-1.4689413E-2,2.0809783E-2,1.0954064E-1,7.3080115E-2,1.326983E-1,2.33745E-1,-1.3155371E-2,-4.5471E-3,-1.2154522E-2,-5.247225E-3,-1.1012155E-2,-1.3500817E-2,-9.157566E-3,-1.233906E-2,-1.2707271E-2,-1.1279456E-2,-1.0676885E-2,-9.5064435E-3,-3.5878145E-3,-8.438676E-3,1.7472936E-3,4.452865E-3,-2.5445758E-3,4.0816936E-5,-2.8562339E-3,-6.4212717E-3,2.2564821E-3,-9.682379E-4,-6.380215E-3,-8.1562875E-3,-6.4914087E-3,-3.8668055E-3,-8.267256E-3,4.5459834E-3,-7.93093E-3,-3.5862622E-3,7.2499453E-3,1.0263257E-2,4.0314808E-3,7.7062673E-3,-8.722032E-3,7.866493E-3,1.1423838E-3,8.335351E-3,1.2355685E-2,1.0764298E-2,1.2864157E-2,1.505173E-2,1.0100343E-2,3.73155E-3,1.02187125E-2,1.4058995E-2,2.101639E-3,-1.5559342E-3,7.3160077E-3,3.4194496E-3,-2.962768E-4,-3.0105324E-3,-1.0581737E-3,1.559027E-3,4.9738684E-3,7.4000293E-3,-4.8685344E-3,3.8917984E-3,9.453825E-3,6.1176894E-3,1.27615305E-2,5.854648E-3],"categories":[],"categories_nodes":[],"categories_segments":[],"categories_sizes":[],"default_left":[0,0,0,0,0,0,0,0,0,0,0,0,0,0,0,0,0,0,0,0,0,0,0,0,0,0,0,0,0,0,0,0,0,0,0,0,0,0,0,0,0,0,0,0,0,0,0,0,0,0,0,0,0,0,0,0,0,0,0,0,0,0,0,0,0,0,0,0,0,0,0,0,0,0,0,0,0,0,0,0,0,0,0,0,0,0,0,0,0,0,0,0,0,0,0,0,0,0,0,0,0,0,0,0,0,0,0,0,0,0,0,0,0,0,0,0,0,0,0,0,0,0,0,0,0],"id":4,"left_children":[1,3,5,7,9,11,13,15,17,19,21,23,25,27,29,31,33,35,37,39,41,43,45,47,49,51,53,55,57,59,61,63,-1,65,67,69,71,73,75,77,79,81,83,85,87,89,91,93,95,97,99,101,103,105,107,109,111,113,115,117,119,121,123,-1,-1,-1,-1,-1,-1,-1,-1,-1,-1,-1,-1,-1,-1,-1,-1,-1,-1,-1,-1,-1,-1,-1,-1,-1,-1,-1,-1,-1,-1,-1,-1,-1,-1,-1,-1,-1,-1,-1,-1,-1,-1,-1,-1,-1,-1,-1,-1,-1,-1,-1,-1,-1,-1,-1,-1,-1,-1,-1,-1,-1,-1],"loss_changes":[5.447859E2,7.540448E1,6.756677E1,3.7875977E0,1.5766348E1,9.267761E0,2.2874695E1,6.94046E-2,9.220123E-1,2.0372427E0,2.9777489E0,3.482895E0,2.3267822E0,1.5923288E0,2.717926E0,1.8981934E-2,2.8224945E-2,4.0797424E-1,8.0013275E-1,2.44733E0,6.868853E-1,7.9937744E-1,5.5445194E-1,1.1989975E0,9.8865366E-1,8.734436E-1,2.3269653E0,7.6739883E-1,8.8922113E-1,6.7604446E-1,1.6978607E0,1.077919E-1,0E0,2.5064278E-1,7.883263E-2,4.841709E-1,1.1458588E-1,2.1588135E-1,3.503189E-1,5.692527E-1,3.1800696E-1,2.5225842E-1,2.1862334E-1,3.9993858E-1,7.1044636E-1,9.766002E-1,3.3914566E-1,5.440712E-1,3.2014847E-1,1.330101E0,9.491391E-1,2.6750946E-1,5.5322266E-1,5.0316715E-1,6.0030556E-1,4.6426722E-1,3.7147546E-1,6.275786E-1,5.5740154E-1,3.7540722E-1,8.603711E-1,1.3643112E0,4.2376137E-1,0E0,0E0,0E0,0E0,0E0,0E0,0E0,0E0,0E0,0E0,0E0,0E0,0E0,0E0,0E0,0E0,0E0,0E0,0E0,0E0,0E0,0E0,0E0,0E0,0E0,0E0,0E0,0E0,0E0,0E0,0E0,0E0,0E0,0E0,0E0,0E0,0E0,0E0,0E0,0E0,0E0,0E0,0E0,0E0,0E0,0E0,0E0,0E0,0E0,0E0,0E0,0E0,0E0,0E0,0E0,0E0,0E0,0E0,0E0,0E0,0E0,0E0],"parents":[2147483647,0,0,1,1,2,2,3,3,4,4,5,5,6,6,7,7,8,8,9,9,10,10,11,11,12,12,13,13,14,14,15,15,16,16,17,17,18,18,19,19,20,20,21,21,22,22,23,23,24,24,25,25,26,26,27,27,28,28,29,29,30,30,31,31,33,33,34,34,35,35,36,36,37,37,38,38,39,39,40,40,41,41,42,42,43,43,44,44,45,45,46,46,47,47,48,48,49,49,50,50,51,51,52,52,53,53,54,54,55,55,56,56,57,57,58,58,59,59,60,60,61,61,62,62],"right_children":[2,4,6,8,10,12,14,16,18,20,22,24,26,28,30,32,34,36,38,40,42,44,46,48,50,52,54,56,58,60,62,64,-1,66,68,70,72,74,76,78,80,82,84,86,88,90,92,94,96,98,100,102,104,106,108,110,112,114,116,118,120,122,124,-1,-1,-1,-1,-1,-1,-1,-1,-1,-1,-1,-1,-1,-1,-1,-1,-1,-1,-1,-1,-1,-1,-1,-1,-1,-1,-1,-1,-1,-1,-1,-1,-1,-1,-1,-1,-1,-1,-1,-1,-1,-1,-1,-1,-1,-1,-1,-1,-1,-1,-1,-1,-1,-1,-1,-1,-1,-1,-1,-1,-1,-1],"split_conditions":[4.392E2,2.342E2,4.75E0,7.53E1,1.625E0,6.671E2,6.77E2,6.35E1,1.549E2,1E0,3.59E2,5E-1,1E0,2.0625E1,8.34E2,1E2,7.75E0,1.375E0,9.8375E1,1E0,3.627E2,8.8875E1,3.125E0,1E0,5.511E2,8.16E2,7.8E2,5.8E2,5.636E2,3.8375E1,1.025E3,9.975E1,-1.4002672E-2,3.125E0,6.58E1,1E0,8.28E1,2.07E2,9.975E1,3.467E2,3.627E2,3.386E2,3.865E2,4.875E1,2.94E2,3.865E2,4.125E0,4.719E2,4.651E2,4.423E2,6.3E2,7.68E2,1E0,7.011E2,9.88E2,5.592E2,5.999E2,5.393E2,3.375E1,2.9E1,4E1,1.0375E1,6.8E1,-1.3155371E-2,-4.5471E-3,-1.2154522E-2,-5.247225E-3,-1.1012155E-2,-1.3500817E-2,-9.157566E-3,-1.233906E-2,-1.2707271E-2,-1.1279456E-2,-1.0676885E-2,-9.5064435E-3,-3.5878145E-3,-8.438676E-3,1.7472936E-3,4.452865E-3,-2.5445758E-3,4.0816936E-5,-2.8562339E-3,-6.4212717E-3,2.2564821E-3,-9.682379E-4,-6.380215E-3,-8.1562875E-3,-6.4914087E-3,-3.8668055E-3,-8.267256E-3,4.5459834E-3,-7.93093E-3,-3.5862622E-3,7.2499453E-3,1.0263257E-2,4.0314808E-3,7.7062673E-3,-8.722032E-3,7.866493E-3,1.1423838E-3,8.335351E-3,1.2355685E-2,1.0764298E-2,1.2864157E-2,1.505173E-2,1.0100343E-2,3.73155E-3,1.02187125E-2,1.4058995E-2,2.101639E-3,-1.5559342E-3,7.3160077E-3,3.4194496E-3,-2.962768E-4,-3.0105324E-3,-1.0581737E-3,1.559027E-3,4.9738684E-3,7.4000293E-3,-4.8685344E-3,3.8917984E-3,9.453825E-3,6.1176894E-3,1.27615305E-2,5.854648E-3],"split_indices":[0,0,2,0,2,0,0,0,0,3,0,2,2,2,0,2,2,2,2,4,0,2,2,3,0,0,0,0,0,2,0,2,0,2,0,4,0,0,2,0,0,0,0,2,0,0,2,0,0,0,0,0,4,0,0,0,0,0,2,2,2,2,2,0,0,0,0,0,0,0,0,0,0,0,0,0,0,0,0,0,0,0,0,0,0,0,0,0,0,0,0,0,0,0,0,0,0,0,0,0,0,0,0,0,0,0,0,0,0,0,0,0,0,0,0,0,0,0,0,0,0,0,0,0,0],"split_type":[0,0,0,0,0,0,0,0,0,0,0,0,0,0,0,0,0,0,0,0,0,0,0,0,0,0,0,0,0,0,0,0,0,0,0,0,0,0,0,0,0,0,0,0,0,0,0,0,0,0,0,0,0,0,0,0,0,0,0,0,0,0,0,0,0,0,0,0,0,0,0,0,0,0,0,0,0,0,0,0,0,0,0,0,0,0,0,0,0,0,0,0,0,0,0,0,0,0,0,0,0,0,0,0,0,0,0,0,0,0,0,0,0,0,0,0,0,0,0,0,0,0,0,0,0],"sum_hessian":[2.773E4,1.3046E4,1.4684E4,6.947E3,6.099E3,6.375E3,8.309E3,1.633E3,5.314E3,1.877E3,4.222E3,2.688E3,3.687E3,3.693E3,4.616E3,1.181E3,4.52E2,2.724E3,2.59E3,1.263E3,6.14E2,2.521E3,1.701E3,2.169E3,5.19E2,2.897E3,7.9E2,8.42E2,2.851E3,2.058E3,2.558E3,7.19E2,4.62E2,1.48E2,3.04E2,6.92E2,2.032E3,1.973E3,6.17E2,7.87E2,4.76E2,3.35E2,2.79E2,1.476E3,1.045E3,7E1,1.631E3,1.442E3,7.27E2,2.26E2,2.93E2,1.302E3,1.595E3,2.04E2,5.86E2,5.09E2,3.33E2,1.573E3,1.278E3,1.007E3,1.051E3,2.378E3,1.8E2,7.14E2,5E0,1.31E2,1.7E1,7.8E1,2.26E2,5.21E2,1.71E2,2.3E2,1.802E3,1.202E3,7.71E2,4.2E1,5.75E2,3.6E2,4.27E2,2.5E2,2.26E2,2.74E2,6.1E1,6.9E1,2.1E2,9.72E2,5.04E2,5.16E2,5.29E2,2E1,5E1,4.6E1,1.585E3,1.83E2,1.259E3,6.9E1,6.58E2,1.2E1,2.14E2,2.37E2,5.6E1,7.53E2,5.49E2,1.137E3,4.58E2,3.8E1,1.66E2,4.4E2,1.46E2,3.99E2,1.1E2,8.2E1,2.51E2,1.32E3,2.53E2,2.53E2,1.025E3,8.01E2,2.06E2,2.8E1,1.023E3,3.66E2,2.012E3,1.51E2,2.9E1],"tree_param":{"num_deleted":"0","num_feature":"7","num_nodes":"125","size_leaf_vector":"1"}},{"base_weights":[3.4282127E-4,6.677448E-2,-7.18984E-2,8.861132E-2,1.8205894E-2,-3.8381442E-2,-8.26252E-2,9.976732E-2,6.603037E-2,2.9874023E-2,7.6865647E-3,-2.6364742E-2,-4.5550022E-2,-7.4252166E-2,-9.3921185E-2,1.05207294E-1,6.7462415E-2,6.714148E-2,4.246009E-2,2.6874652E-2,7.0274524E-2,-1.4601633E-2,1.014552E-2,-8.138235E-2,-2.0528305E-2,-6.608273E-2,-3.2284986E-2,-7.7168904E-2,-3.9640285E-2,-9.787232E-2,-3.9120084E-3,1.1461161E-1,9.138093E-2,6.42635E-2,6.3751414E-3,6.589727E-2,7.438855E-2,1.10155195E-2,5.476377E-2,3.5041068E-2,1.5513237E-2,1.402099E-1,4.716785E-2,-5.7630534E-3,-3.3498276E-2,2.201465E-2,5.835039E-4,-5.5167302E-2,-9.02941E-2,2.423762E-2,-2.7582426E-2,-6.0172986E-2,-1.19635455E-1,4.1534636E-2,-3.609309E-2,-7.1296126E-2,-9.148798E-2,1.3677393E-2,-6.0845386E-2,-5.0482885E-3,-4.5201713E-3,5.769381E-3,5.3225304E-3,4.528282E-3,5.643467E-3,3.5989382E-3,2.3514635E-3,3.3057723E-3,2.6612808E-3,4.668796E-3,3.2970689E-3,7.086954E-4,3.7577582E-4,3.3780758E-3,1.5945202E-3,1.4322775E-3,4.942264E-3,2.8562188E-4,1.4728535E-3,8.388946E-3,3.926395E-3,1.5728206E-3,4.8963297E-3,-7.737149E-4,1.6081214E-4,-8.200318E-4,-3.0806074E-3,9.093471E-4,1.8746713E-3,-3.7898738E-3,3.3175087E-4,-3.4622196E-3,2.5000382E-4,-4.8258295E-3,-3.1799662E-3,6.93995E-4,3.348785E-3,-3.921928E-3,-6.6883856E-4,-3.879955E-3,-2.0762945E-3,-5.437618E-3,-7.1197296E-3,1.4853608E-3,3.519965E-3,-3.203657E-3,-1.3992352E-3,-3.0781282E-3,-4.0199333E-3,-4.2803087E-3,-6.2950836E-3,1.5442978E-3,-1.8920646E-3,-5.1602637E-3,-8.7934727E-4],"categories":[],"categories_nodes":[],"categories_segments":[],"categories_sizes":[],"default_left":[0,0,0,0,0,0,0,0,0,0,0,0,0,0,0,0,0,0,0,0,0,0,0,0,0,0,0,0,0,0,0,0,0,0,0,0,0,0,0,0,0,0,0,0,0,0,0,0,0,0,0,0,0,0,0,0,0,0,0,0,0,0,0,0,0,0,0,0,0,0,0,0,0,0,0,0,0,0,0,0,0,0,0,0,0,0,0,0,0,0,0,0,0,0,0,0,0,0,0,0,0,0,0,0,0,0,0,0,0,0,0,0,0,0,0],"id":5,"left_children":[1,3,5,7,9,11,13,15,17,19,21,23,25,27,29,31,33,35,37,39,41,43,45,47,49,51,53,55,57,59,-1,61,63,65,-1,67,69,71,73,75,77,79,81,83,85,87,89,91,93,95,97,99,101,103,105,107,109,111,113,-1,-1,-1,-1,-1,-1,-1,-1,-1,-1,-1,-1,-1,-1,-1,-1,-1,-1,-1,-1,-1,-1,-1,-1,-1,-1,-1,-1,-1,-1,-1,-1,-1,-1,-1,-1,-1,-1,-1,-1,-1,-1,-1,-1,-1,-1,-1,-1,-1,-1,-1,-1,-1,-1,-1,-1],"loss_changes":[1.3379903E2,1.5402313E1,4.798706E0,2.517334E0,5.528408E-1,2.7790165E-1,9.499054E-1,1.1710434E0,8.3992004E-2,2.569437E-1,1.300924E-1,3.8783175E-1,5.502267E-1,5.839882E-1,2.5894928E-1,7.353668E-1,1.7791653E-1,2.3635864E-2,5.82031E-2,1.8409264E-1,2.309348E-1,3.922355E-2,2.424078E-1,2.2118866E-2,3.473996E-1,2.4440503E-1,3.4839225E-1,4.4438553E-1,5.1412773E-1,7.0186615E-2,0E0,9.311676E-3,3.0546188E-2,1.1921024E-1,0E0,3.973961E-3,6.69806E-2,3.798674E-4,2.9752731E-2,4.6929526E-1,1.1380677E-1,4.804313E-2,8.623879E-2,1.4176192E-2,3.504058E-2,5.5781722E-2,5.47772E-1,2.7449638E-2,7.9808235E-3,6.547075E-2,6.8455064E-1,2.3008919E-1,3.8340092E-3,1.8733695E-2,2.645558E-1,3.3234978E-1,3.041792E-1,1.16421886E-1,5.937222E-1,0E0,0E0,0E0,0E0,0E0,0E0,0E0,0E0,0E0,0E0,0E0,0E0,0E0,0E0,0E0,0E0,0E0,0E0,0E0,0E0,0E0,0E0,0E0,0E0,0E0,0E0,0E0,0E0,0E0,0E0,0E0,0E0,0E0,0E0,0E0,0E0,0E0,0E0,0E0,0E0,0E0,0E0,0E0,0E0,0E0,0E0,0E0,0E0,0E0,0E0,0E0,0E0,0E0,0E0,0E0,0E0],"parents":[2147483647,0,0,1,1,2,2,3,3,4,4,5,5,6,6,7,7,8,8,9,9,10,10,11,11,12,12,13,13,14,14,15,15,16,16,17,17,18,18,19,19,20,20,21,21,22,22,23,23,24,24,25,25,26,26,27,27,28,28,29,29,31,31,32,32,33,33,35,35,36,36,37,37,38,38,39,39,40,40,41,41,42,42,43,43,44,44,45,45,46,46,47,47,48,48,49,49,50,50,51,51,52,52,53,53,54,54,55,55,56,56,57,57,58,58],"right_children":[2,4,6,8,10,12,14,16,18,20,22,24,26,28,30,32,34,36,38,40,42,44,46,48,50,52,54,56,58,60,-1,62,64,66,-1,68,70,72,74,76,78,80,82,84,86,88,90,92,94,96,98,100,102,104,106,108,110,112,114,-1,-1,-1,-1,-1,-1,-1,-1,-1,-1,-1,-1,-1,-1,-1,-1,-1,-1,-1,-1,-1,-1,-1,-1,-1,-1,-1,-1,-1,-1,-1,-1,-1,-1,-1,-1,-1,-1,-1,-1,-1,-1,-1,-1,-1,-1,-1,-1,-1,-1,-1,-1,-1,-1,-1,-1],"split_conditions":[2.25E1,3.625E0,4.7125E1,1E0,1.0375E1,3.0375E1,1E2,1E0,2.5E0,9.75E0,1.1375E1,2.3E1,3.6E1,9.8375E1,1E0,1E0,3.375E0,5E-1,3E0,6.75E0,1E1,1E0,1.5875E1,2.2625E1,2.4E1,3.5375E1,3.65E1,1E0,9.9E1,1E0,-3.9120084E-3,2.5E-1,6.25E-1,1E0,6.3751414E-3,2.5E-1,1E0,2.75E0,3.125E0,6.375E0,8.375E0,1E0,1E0,1.0875E1,1.1E1,1.5E1,1.6125E1,1E0,1E0,1E0,2.5625E1,3.2625E1,1E0,1E0,3.9E1,7.5E1,9.3375E1,1E0,9.95E1,-5.0482885E-3,-4.5201713E-3,5.769381E-3,5.3225304E-3,4.528282E-3,5.643467E-3,3.5989382E-3,2.3514635E-3,3.3057723E-3,2.6612808E-3,4.668796E-3,3.2970689E-3,7.086954E-4,3.7577582E-4,3.3780758E-3,1.5945202E-3,1.4322775E-3,4.942264E-3,2.8562188E-4,1.4728535E-3,8.388946E-3,3.926395E-3,1.5728206E-3,4.8963297E-3,-7.737149E-4,1.6081214E-4,-8.200318E-4,-3.0806074E-3,9.093471E-4,1.8746713E-3,-3.7898738E-3,3.3175087E-4,-3.4622196E-3,2.5000382E-4,-4.8258295E-3,-3.1799662E-3,6.93995E-4,3.348785E-3,-3.921928E-3,-6.6883856E-4,-3.879955E-3,-2.0762945E-3,-5.437618E-3,-7.1197296E-3,1.4853608E-3,3.519965E-3,-3.203657E-3,-1.3992352E-3,-3.0781282E-3,-4.0199333E-3,-4.2803087E-3,-6.2950836E-3,1.5442978E-3,-1.8920646E-3,-5.1602637E-3,-8.7934727E-4],"split_indices":[2,2,2,3,2,2,2,2,2,2,2,2,2,2,5,4,2,2,2,2,2,3,2,2,2,2,2,3,2,4,0,2,2,6,0,2,2,2,2,2,2,3,6,2,2,2,2,4,5,5,2,2,3,4,2,2,2,3,2,0,0,0,0,0,0,0,0,0,0,0,0,0,0,0,0,0,0,0,0,0,0,0,0,0,0,0,0,0,0,0,0,0,0,0,0,0,0,0,0,0,0,0,0,0,0,0,0,0,0,0,0,0,0,0,0],"split_type":[0,0,0,0,0,0,0,0,0,0,0,0,0,0,0,0,0,0,0,0,0,0,0,0,0,0,0,0,0,0,0,0,0,0,0,0,0,0,0,0,0,0,0,0,0,0,0,0,0,0,0,0,0,0,0,0,0,0,0,0,0,0,0,0,0,0,0,0,0,0,0,0,0,0,0,0,0,0,0,0,0,0,0,0,0,0,0,0,0,0,0,0,0,0,0,0,0,0,0,0,0,0,0,0,0,0,0,0,0,0,0,0,0,0,0],"sum_hessian":[2.7878E4,1.4523E4,1.3355E4,1.0018E4,4.505E3,3.239E3,1.0116E4,6.703E3,3.315E3,2.135E3,2.37E3,1.212E3,2.027E3,5.814E3,4.302E3,5.735E3,9.68E2,3.164E3,1.51E2,1.989E3,1.46E2,2.35E2,2.135E3,1.15E2,1.097E3,7.94E2,1.233E3,5.361E3,4.53E2,3.432E3,8.7E2,3.409E3,2.326E3,9.21E2,4.7E1,2.709E3,4.55E2,4.3E1,1.08E2,1.156E3,8.33E2,3.5E1,1.11E2,1.61E2,7.4E1,9.52E2,1.183E3,3.1E1,8.4E1,1.49E2,9.48E2,7.17E2,7.7E1,6E1,1.173E3,3.806E3,1.555E3,1.29E2,3.24E2,2.418E3,1.014E3,3.101E3,3.08E2,2.246E3,8E1,6.34E2,2.87E2,2.659E3,5E1,1.37E2,3.18E2,2.1E1,2.2E1,6.8E1,4E1,1.052E3,1.04E2,4.9E2,3.43E2,2.3E1,1.2E1,8.6E1,2.5E1,7.7E1,8.4E1,4.7E1,2.7E1,7.65E2,1.87E2,8.6E1,1.097E3,2.5E1,6E0,6.6E1,1.8E1,1.21E2,2.8E1,2.06E2,7.42E2,3.69E2,3.48E2,5.6E1,2.1E1,4.4E1,1.6E1,2.62E2,9.11E2,1.843E3,1.963E3,1.331E3,2.24E2,9.7E1,3.2E1,1.63E2,1.61E2],"tree_param":{"num_deleted":"0","num_feature":"7","num_nodes":"115","size_leaf_vector":"1"}},{"base_weights":[1.1782988E-3,-1.4899683E-1,1.330602E-2,-2.3070422E-1,-1.1152655E-1,-3.801439E-2,2.0456837E-2,-2.4720088E-1,-2.1259E-1,-1.372726E-1,-8.058618E-2,-4.5725558E-2,-1.27326045E-2,2.7117722E-2,6.3635563E-3,-1.2970658E-2,-9.966419E-3,-9.993483E-3,-1.1884453E-2,-1.5884285E-1,-1.2827726E-1,-6.863192E-2,-1.0310859E-1,-5.4157637E-2,-2.9878281E-2,-3.3628475E-2,5.1801475E-3,3.911338E-2,1.7719375E-2,1.7891661E-3,2.3925185E-2,-1.4242385E-1,-8.706333E-3,-1.13225445E-1,-1.3169892E-1,-6.175101E-2,-4.6102284E-3,-1.1242472E-1,-3.440632E-3,-5.132633E-2,-9.106428E-2,-4.491207E-2,-3.2462035E-3,-1.7607942E-2,-8.957237E-2,1.0979886E-2,-3.599719E-2,4.804462E-2,2.2873338E-2,1.1012286E-2,2.643292E-2,5.543081E-2,1.1717331E-3,3.8158267E-3,2.2610653E-2,-7.6062693E-3,-4.138496E-3,-4.8335944E-3,-7.679704E-3,-7.6952428E-3,-6.2073427E-3,-3.8452751E-3,-2.3249786E-3,-6.5918616E-3,-3.9070905E-3,-3.262549E-3,-1.9039301E-3,-6.308266E-3,-2.929216E-3,-1.3228477E-3,-2.931064E-3,7.739721E-4,-3.5880466E-3,-1.5096089E-3,4.6240885E-4,-3.7824903E-3,-4.8352545E-3,-2.9756673E-4,2.1326337E-3,-3.3949863E-3,1.5093523E-4,7.3970123E-3,2.337211E-3,-5.8520114E-4,1.7530889E-3,1.3401797E-3,2.711911E-4,7.859448E-4,2.398055E-3,3.309259E-3,2.216089E-3,-2.0232608E-3,9.455403E-5,5.4758036E-4,1.4986838E-3],"categories":[],"categories_nodes":[],"categories_segments":[],"categories_sizes":[],"default_left":[0,0,0,0,0,0,0,0,0,0,0,0,0,0,0,0,0,0,0,0,0,0,0,0,0,0,0,0,0,0,0,0,0,0,0,0,0,0,0,0,0,0,0,0,0,0,0,0,0,0,0,0,0,0,0,0,0,0,0,0,0,0,0,0,0,0,0,0,0,0,0,0,0,0,0,0,0,0,0,0,0,0,0,0,0,0,0,0,0,0,0,0,0,0,0],"id":6,"left_children":[1,3,5,7,9,11,13,15,17,19,21,23,25,27,29,-1,-1,-1,-1,31,33,35,37,39,41,43,45,47,49,51,53,55,-1,57,59,61,-1,63,-1,65,67,69,71,73,75,77,79,81,83,85,87,89,91,-1,93,-1,-1,-1,-1,-1,-1,-1,-1,-1,-1,-1,-1,-1,-1,-1,-1,-1,-1,-1,-1,-1,-1,-1,-1,-1,-1,-1,-1,-1,-1,-1,-1,-1,-1,-1,-1,-1,-1,-1,-1],"loss_changes":[5.030761E1,6.2934074E0,9.380127E0,1.4108658E-1,1.117712E0,6.0883856E-1,2.1056967E0,1.4297295E-1,5.338192E-2,1.2941551E-1,1.66852E-1,3.1841516E-1,2.741637E-1,1.7166653E0,5.7844055E-1,0E0,0E0,0E0,0E0,3.1161308E-2,1.3415337E-2,6.324172E-2,6.319404E-2,1.585455E-1,3.3377194E-1,3.013557E-1,9.4728276E-2,9.6938896E-1,4.9898314E-1,1.891834E-1,1.0075307E-1,5.2805662E-2,0E0,5.799043E-2,5.5016994E-2,7.315838E-2,0E0,1.0483241E-1,0E0,2.655499E-1,1.18017495E-1,1.3330078E-1,3.8857153E-1,8.950165E-2,1.322031E-4,1.863357E-1,6.1195567E-2,5.53751E-1,1.0017617E0,4.2600983E-1,8.561237E-1,4.8321337E-3,1.6930212E-1,0E0,1.2440568E-1,0E0,0E0,0E0,0E0,0E0,0E0,0E0,0E0,0E0,0E0,0E0,0E0,0E0,0E0,0E0,0E0,0E0,0E0,0E0,0E0,0E0,0E0,0E0,0E0,0E0,0E0,0E0,0E0,0E0,0E0,0E0,0E0,0E0,0E0,0E0,0E0,0E0,0E0,0E0,0E0],"parents":[2147483647,0,0,1,1,2,2,3,3,4,4,5,5,6,6,7,7,8,8,9,9,10,10,11,11,12,12,13,13,14,14,19,19,20,20,21,21,22,22,23,23,24,24,25,25,26,26,27,27,28,28,29,29,30,30,31,31,33,33,34,34,35,35,37,37,39,39,40,40,41,41,42,42,43,43,44,44,45,45,46,46,47,47,48,48,49,49,50,50,51,51,52,52,54,54],"right_children":[2,4,6,8,10,12,14,16,18,20,22,24,26,28,30,-1,-1,-1,-1,32,34,36,38,40,42,44,46,48,50,52,54,56,-1,58,60,62,-1,64,-1,66,68,70,72,74,76,78,80,82,84,86,88,90,92,-1,94,-1,-1,-1,-1,-1,-1,-1,-1,-1,-1,-1,-1,-1,-1,-1,-1,-1,-1,-1,-1,-1,-1,-1,-1,-1,-1,-1,-1,-1,-1,-1,-1,-1,-1,-1,-1,-1,-1,-1,-1],"split_conditions":[2.7254486E2,2.682119E2,2.7793384E2,2.655947E2,2.7087726E2,1E0,1E0,1E0,2.6771436E2,2.692014E2,2.7205286E2,1E0,2.753905E2,2.906833E2,3.0199005E2,-1.2970658E-2,-9.966419E-3,-9.993483E-3,-1.1884453E-2,2.6880396E2,2.69603E2,1E0,1E0,2.7764337E2,2.7644794E2,2.7479285E2,2.7764337E2,1E0,1E0,2.7822238E2,3.0214023E2,1E0,-8.706333E-3,1E0,2.700033E2,2.714593E2,-4.6102284E-3,1E0,-3.440632E-3,2.753905E2,2.7780725E2,2.7446625E2,2.7764337E2,2.7422055E2,2.750055E2,2.7695294E2,2.7780725E2,2.7808026E2,2.820768E2,2.9418393E2,3.0199005E2,2.7808026E2,2.7870053E2,3.8158267E-3,3.0439215E2,-7.6062693E-3,-4.138496E-3,-4.8335944E-3,-7.679704E-3,-7.6952428E-3,-6.2073427E-3,-3.8452751E-3,-2.3249786E-3,-6.5918616E-3,-3.9070905E-3,-3.262549E-3,-1.9039301E-3,-6.308266E-3,-2.929216E-3,-1.3228477E-3,-2.931064E-3,7.739721E-4,-3.5880466E-3,-1.5096089E-3,4.6240885E-4,-3.7824903E-3,-4.8352545E-3,-2.9756673E-4,2.1326337E-3,-3.3949863E-3,1.5093523E-4,7.3970123E-3,2.337211E-3,-5.8520114E-4,1.7530889E-3,1.3401797E-3,2.711911E-4,7.859448E-4,2.398055E-3,3.309259E-3,2.216089E-3,-2.0232608E-3,9.455403E-5,5.4758036E-4,1.4986838E-3],"split_indices":[1,1,1,1,1,5,3,5,1,1,1,6,1,1,1,0,0,0,0,1,1,4,5,1,1,1,1,4,4,1,1,5,0,4,1,1,0,6,0,1,1,1,1,1,1,1,1,1,1,1,1,1,1,0,1,0,0,0,0,0,0,0,0,0,0,0,0,0,0,0,0,0,0,0,0,0,0,0,0,0,0,0,0,0,0,0,0,0,0,0,0,0,0,0,0],"split_type":[0,0,0,0,0,0,0,0,0,0,0,0,0,0,0,0,0,0,0,0,0,0,0,0,0,0,0,0,0,0,0,0,0,0,0,0,0,0,0,0,0,0,0,0,0,0,0,0,0,0,0,0,0,0,0,0,0,0,0,0,0,0,0,0,0,0,0,0,0,0,0,0,0,0,0,0,0,0,0,0,0,0,0,0,0,0,0,0,0,0,0,0,0,0,0],"sum_hessian":[2.762E4,2.063E3,2.5557E4,6.47E2,1.416E3,3.125E3,2.2432E4,3.32E2,3.15E2,7.71E2,6.45E2,2.394E3,7.31E2,1.5232E4,7.2E3,2.61E2,7.1E1,2.15E2,1E2,2.22E2,5.49E2,4.24E2,2.21E2,1.561E3,8.33E2,3.37E2,3.94E2,6.69E3,8.542E3,5.713E3,1.487E3,1.12E2,1.1E2,1.08E2,4.41E2,3.31E2,9.3E1,1.72E2,4.9E1,1.452E3,1.09E2,5.32E2,3.01E2,2.63E2,7.4E1,3.46E2,4.8E1,4.315E3,2.375E3,4.828E3,3.714E3,6.4E1,5.649E3,3.5E1,1.452E3,9.5E1,1.7E1,7.9E1,2.9E1,1.07E2,3.34E2,1.64E2,1.67E2,1.08E2,6.4E1,7.06E2,7.46E2,5.1E1,5.8E1,2.28E2,3.04E2,2.37E2,6.4E1,1.79E2,8.4E1,2.9E1,4.5E1,2.26E2,1.2E2,2.6E1,2.2E1,5.4E1,4.261E3,6.19E2,1.756E3,1.261E3,3.567E3,2.481E3,1.233E3,3E1,3.4E1,9.5E1,5.554E3,5.63E2,8.89E2],"tree_param":{"num_deleted":"0","num_feature":"7","num_nodes":"95","size_leaf_vector":"1"}},{"base_weights":[6.659188E-4,-1.406021E-1,1.2512174E-1,-2.0661382E-1,-6.2317733E-2,1.8921596E-1,6.931357E-2,-2.4835905E-1,-1.941367E-1,-2.1722598E-3,-8.9721546E-2,1.4573184E-1,2.2009909E-1,1.8797984E-2,1.1610367E-1,-1.2653586E-2,-2.3501149E-1,-2.0609653E-1,-1.8206574E-1,-3.0588845E-2,2.8659781E-2,-1.1820195E-1,-6.3828275E-2,1.6644959E-1,8.234503E-2,2.3641433E-1,1.7627625E-1,1.0184092E-2,5.759568E-2,9.21925E-2,1.3410246E-1,-2.2627579E-1,-1.2835495E-2,-2.1220025E-1,-1.8238635E-1,-2.0409225E-1,-1.6882311E-1,-4.49902E-2,3.125276E-2,1.2438375E-2,8.682669E-2,-1.3565385E-1,-9.3795545E-2,-7.8658275E-2,-4.1792374E-2,1.0154922E-1,1.7326415E-1,-1.0214656E-2,8.8016875E-2,2.2503948E-1,2.5740615E-1,8.685829E-2,2.1232222E-1,2.914438E-2,-3.2886276E-3,9.078827E-2,4.405316E-2,1.7193891E-1,8.5584156E-2,1.283765E-1,2.1279192E-1,-9.979814E-3,-1.1937055E-2,-1.1009932E-2,-9.60506E-3,-7.4748024E-3,-9.796406E-3,-1.0587106E-2,-5.5387784E-3,-3.7293215E-3,-8.543623E-3,-3.352678E-3,7.44266E-4,-2.9372748E-3,1.7571955E-3,-6.634007E-4,4.0822434E-3,4.491831E-3,-3.9678332E-3,-5.1984605E-3,-7.446874E-3,-5.2183396E-3,-2.8487926E-3,-3.2871407E-3,-7.049461E-3,7.841974E-3,-2.4312276E-3,4.762217E-3,1.6860895E-2,1.0649472E-2,7.666467E-3,6.284865E-3,2.9295923E-3,1.09059615E-2,1.2106421E-2,1.2270998E-2,1.438981E-2,7.04872E-3,3.1478906E-3,1.0189078E-2,1.3619612E-2,1.3196394E-3,8.376969E-3,-9.989701E-3,-9.3654984E-5,2.889368E-3,7.3478566E-3,-5.461938E-3,3.748899E-3,1.0002951E-2,5.549683E-4,5.307354E-3,3.4129692E-3,8.81619E-3,6.1038807E-3,1.4573338E-2,9.2159575E-3],"categories":[],"categories_nodes":[],"categories_segments":[],"categories_sizes":[],"default_left":[0,0,0,0,0,0,0,0,0,0,0,0,0,0,0,0,0,0,0,0,0,0,0,0,0,0,0,0,0,0,0,0,0,0,0,0,0,0,0,0,0,0,0,0,0,0,0,0,0,0,0,0,0,0,0,0,0,0,0,0,0,0,0,0,0,0,0,0,0,0,0,0,0,0,0,0,0,0,0,0,0,0,0,0,0,0,0,0,0,0,0,0,0,0,0,0,0,0,0,0,0,0,0,0,0,0,0,0,0,0,0,0,0,0,0,0,0],"id":7,"left_children":[1,3,5,7,9,11,13,15,17,19,21,23,25,27,29,-1,31,33,35,37,39,41,43,45,47,49,51,53,55,57,59,61,-1,63,65,67,69,71,73,75,77,79,81,83,85,87,89,-1,91,93,95,97,99,101,103,105,107,109,111,113,115,-1,-1,-1,-1,-1,-1,-1,-1,-1,-1,-1,-1,-1,-1,-1,-1,-1,-1,-1,-1,-1,-1,-1,-1,-1,-1,-1,-1,-1,-1,-1,-1,-1,-1,-1,-1,-1,-1,-1,-1,-1,-1,-1,-1,-1,-1,-1,-1,-1,-1,-1,-1,-1,-1,-1,-1],"loss_changes":[4.8852307E2,6.723938E1,5.2826035E1,3.6290588E0,9.814924E0,9.200562E0,1.866576E1,4.2495728E-2,7.4783325E-1,1.6348802E0,3.009369E0,3.7395134E0,2.8311005E0,1.2690363E0,1.7521629E0,0E0,2.4745941E-2,3.556671E-1,7.57782E-1,8.661813E-1,8.433964E-1,8.165798E-1,6.976824E-1,9.3460846E-1,1.1657734E0,6.405029E-1,3.5076866E0,7.9453504E-1,3.061633E-1,9.148998E-1,1.0256767E0,5.8769226E-2,0E0,3.050995E-1,2.223568E-1,7.01107E-1,3.159485E-1,1.0419894E0,6.650069E-2,1.2481965E0,1.0466814E-1,4.613781E-1,3.1127548E-1,1.0219774E0,1.1815071E0,2.7545595E-1,1.509201E0,0E0,7.609973E-1,1.7248535E-1,3.012848E-1,3.9983916E-1,3.4415054E-1,4.875803E-1,5.055967E-1,3.6037886E-1,2.340529E0,6.038382E-1,5.737953E-1,6.3716507E-1,2.9797173E-1,0E0,0E0,0E0,0E0,0E0,0E0,0E0,0E0,0E0,0E0,0E0,0E0,0E0,0E0,0E0,0E0,0E0,0E0,0E0,0E0,0E0,0E0,0E0,0E0,0E0,0E0,0E0,0E0,0E0,0E0,0E0,0E0,0E0,0E0,0E0,0E0,0E0,0E0,0E0,0E0,0E0,0E0,0E0,0E0,0E0,0E0,0E0,0E0,0E0,0E0,0E0,0E0,0E0,0E0,0E0,0E0],"parents":[2147483647,0,0,1,1,2,2,3,3,4,4,5,5,6,6,7,7,8,8,9,9,10,10,11,11,12,12,13,13,14,14,16,16,17,17,18,18,19,19,20,20,21,21,22,22,23,23,24,24,25,25,26,26,27,27,28,28,29,29,30,30,31,31,33,33,34,34,35,35,36,36,37,37,38,38,39,39,40,40,41,41,42,42,43,43,44,44,45,45,46,46,48,48,49,49,50,50,51,51,52,52,53,53,54,54,55,55,56,56,57,57,58,58,59,59,60,60],"right_children":[2,4,6,8,10,12,14,16,18,20,22,24,26,28,30,-1,32,34,36,38,40,42,44,46,48,50,52,54,56,58,60,62,-1,64,66,68,70,72,74,76,78,80,82,84,86,88,90,-1,92,94,96,98,100,102,104,106,108,110,112,114,116,-1,-1,-1,-1,-1,-1,-1,-1,-1,-1,-1,-1,-1,-1,-1,-1,-1,-1,-1,-1,-1,-1,-1,-1,-1,-1,-1,-1,-1,-1,-1,-1,-1,-1,-1,-1,-1,-1,-1,-1,-1,-1,-1,-1,-1,-1,-1,-1,-1,-1,-1,-1,-1,-1,-1,-1],"split_conditions":[4.392E2,2.369E2,6.75E0,7.53E1,1.625E0,6.671E2,7.011E2,6.35E1,1.549E2,3.627E2,3.327E2,5E-1,1E0,6.389E2,8.39E2,-1.2653586E-2,1E0,1E0,1.5875E1,1E0,1E0,8.9375E1,7.9125E1,4.651E2,4.423E2,9.07E2,7.9E2,4.4625E1,2.5E1,7.132E2,1.025E3,7.75E0,-1.2835495E-2,1E0,7.75E0,2.307E2,1.75E1,1E0,2.398E2,1E0,1.375E0,1.7E1,1E0,5.65E1,8.1875E1,2.5E-1,5.328E2,-1.0214656E-2,5.511E2,1E0,1E0,7.29E2,1.009E3,4.4E1,4.5375E1,1.75E1,3.375E1,9.3375E1,3.7E1,1.1625E1,1.5E1,-9.979814E-3,-1.1937055E-2,-1.1009932E-2,-9.60506E-3,-7.4748024E-3,-9.796406E-3,-1.0587106E-2,-5.5387784E-3,-3.7293215E-3,-8.543623E-3,-3.352678E-3,7.44266E-4,-2.9372748E-3,1.7571955E-3,-6.634007E-4,4.0822434E-3,4.491831E-3,-3.9678332E-3,-5.1984605E-3,-7.446874E-3,-5.2183396E-3,-2.8487926E-3,-3.2871407E-3,-7.049461E-3,7.841974E-3,-2.4312276E-3,4.762217E-3,1.6860895E-2,1.0649472E-2,7.666467E-3,6.284865E-3,2.9295923E-3,1.09059615E-2,1.2106421E-2,1.2270998E-2,1.438981E-2,7.04872E-3,3.1478906E-3,1.0189078E-2,1.3619612E-2,1.3196394E-3,8.376969E-3,-9.989701E-3,-9.3654984E-5,2.889368E-3,7.3478566E-3,-5.461938E-3,3.748899E-3,1.0002951E-2,5.549683E-4,5.307354E-3,3.4129692E-3,8.81619E-3,6.1038807E-3,1.4573338E-2,9.2159575E-3],"split_indices":[0,0,2,0,2,0,0,0,0,0,0,2,2,0,0,0,4,5,2,5,6,2,2,0,0,0,0,2,2,0,0,2,0,6,2,0,2,6,0,5,2,2,5,2,2,2,0,0,0,4,4,0,0,2,2,2,2,2,2,2,2,0,0,0,0,0,0,0,0,0,0,0,0,0,0,0,0,0,0,0,0,0,0,0,0,0,0,0,0,0,0,0,0,0,0,0,0,0,0,0,0,0,0,0,0,0,0,0,0,0,0,0,0,0,0,0,0],"split_type":[0,0,0,0,0,0,0,0,0,0,0,0,0,0,0,0,0,0,0,0,0,0,0,0,0,0,0,0,0,0,0,0,0,0,0,0,0,0,0,0,0,0,0,0,0,0,0,0,0,0,0,0,0,0,0,0,0,0,0,0,0,0,0,0,0,0,0,0,0,0,0,0,0,0,0,0,0,0,0,0,0,0,0,0,0,0,0,0,0,0,0,0,0,0,0,0,0,0,0,0,0,0,0,0,0,0,0,0,0,0,0,0,0,0,0,0,0],"sum_hessian":[2.7784E4,1.3013E4,1.4771E4,7.059E3,5.954E3,6.874E3,7.897E3,1.62E3,5.439E3,1.864E3,4.09E3,2.857E3,4.017E3,3.798E3,4.099E3,1.184E3,4.36E2,2.724E3,2.715E3,9.7E2,8.94E2,1.946E3,2.144E3,2.152E3,7.05E2,2.924E3,1.093E3,3.109E3,6.89E2,1.763E3,2.336E3,3.19E2,1.17E2,2.16E3,5.64E2,1.014E3,1.701E3,7.87E2,1.83E2,7E2,1.94E2,1.132E3,8.14E2,1.28E3,8.64E2,2.06E2,1.946E3,1.3E1,6.92E2,1.904E3,1.02E3,3.15E2,7.78E2,1.291E3,1.818E3,1.98E2,4.91E2,1.33E2,1.63E3,2.18E3,1.56E2,1.07E2,2.12E2,1.538E3,6.22E2,1.68E2,3.96E2,9.36E2,7.8E1,3.7E1,1.664E3,5.75E2,2.12E2,7E0,1.76E2,5.11E2,1.89E2,1.91E2,3E0,3.37E2,7.95E2,6.31E2,1.83E2,1.062E3,2.18E2,2.8E1,8.36E2,2.02E2,4E0,6.47E2,1.299E3,3.02E2,3.9E2,1.365E3,5.39E2,7.38E2,2.82E2,9.5E1,2.2E2,6.85E2,9.3E1,1.267E3,2.4E1,1.2E1,1.806E3,1.26E2,7.2E1,8.2E1,4.09E2,1.13E2,2E1,7.43E2,8.87E2,2.5E2,1.93E3,3.9E1,1.17E2],"tree_param":{"num_deleted":"0","num_feature":"7","num_nodes":"117","size_leaf_vector":"1"}},{"base_weights":[1.0370577E-3,-1.3346423E-1,1.1920253E-1,-1.9772045E-1,-5.915082E-2,1.8467058E-1,6.88644E-2,-2.3052773E-1,-1.8495716E-1,1.4697522E-3,-8.670731E-2,1.445798E-1,2.138789E-1,1.9351395E-2,1.1452131E-1,-2.3854828E-1,-2.1737377E-1,-1.9224967E-1,-1.6379441E-1,-2.6575109E-2,3.209934E-2,-1.0709023E-1,-5.3639848E-2,1.6058703E-1,8.669196E-2,1.8846223E-1,2.3310813E-1,-6.9919665E-4,4.083231E-2,1.10407785E-1,2.136801E-1,-2.3197198E-1,-1.2424349E-2,-2.0723385E-1,-1.2303122E-2,-1.8562105E-1,-2.116289E-1,-1.7869313E-1,-1.2270515E-1,-7.831739E-3,-6.364053E-2,5.0047144E-2,-7.4105533E-3,-1.2767309E-1,-7.7956304E-2,-1.9673333E-3,-5.6285765E-2,9.153211E-2,1.688559E-1,1.2917879E-1,5.154323E-2,2.0564665E-1,1.139983E-1,2.2180526E-1,2.6096937E-1,7.6458617E-3,-3.417853E-2,7.758215E-2,3.1772293E-2,1.4983064E-1,1.03318125E-1,2.323359E-1,1.0943831E-1,-1.1682197E-2,5.195705E-4,-8.637903E-3,-1.1198118E-2,-8.671969E-3,-1.0095097E-2,-1.1103941E-2,-9.049674E-3,-8.501365E-3,-9.929808E-3,-3.1807532E-3,-6.8308683E-3,1.1165439E-3,-2.8490548E-3,-1.1200814E-3,-3.6548642E-3,4.0106075E-3,-1.3501783E-5,-6.1455666E-4,3.7248635E-3,-5.3120344E-3,-6.82287E-3,-5.6497473E-3,-2.387157E-3,-6.331857E-3,2.3092674E-3,-8.350038E-3,-2.6494346E-3,3.5373406E-3,5.5760737E-3,1.0589194E-2,7.448314E-3,-7.23944E-3,7.3064105E-3,1.1842017E-3,7.5241276E-3,1.0767738E-2,9.140483E-3,1.200139E-2,4.6399026E-3,1.1528694E-2,9.580161E-3,1.2739894E-2,1.4879783E-2,4.7083595E-3,1.1684951E-4,-1.2804108E-4,-2.578822E-3,-4.7546453E-3,4.1239792E-3,-3.271885E-3,1.7523759E-3,7.265108E-3,1.528203E-2,3.4051437E-3,5.5877897E-3,1.011607E-2,1.4265853E-2,-7.7935173E-3,1.1167764E-2],"categories":[],"categories_nodes":[],"categories_segments":[],"categories_sizes":[],"default_left":[0,0,0,0,0,0,0,0,0,0,0,0,0,0,0,0,0,0,0,0,0,0,0,0,0,0,0,0,0,0,0,0,0,0,0,0,0,0,0,0,0,0,0,0,0,0,0,0,0,0,0,0,0,0,0,0,0,0,0,0,0,0,0,0,0,0,0,0,0,0,0,0,0,0,0,0,0,0,0,0,0,0,0,0,0,0,0,0,0,0,0,0,0,0,0,0,0,0,0,0,0,0,0,0,0,0,0,0,0,0,0,0,0,0,0,0,0,0,0,0,0,0,0],"id":8,"left_children":[1,3,5,7,9,11,13,15,17,19,21,23,25,27,29,31,33,35,37,39,41,43,45,47,49,51,53,55,57,59,61,63,-1,65,-1,67,69,71,73,75,77,79,81,83,85,87,89,91,93,95,97,99,101,103,105,107,109,111,113,115,117,119,121,-1,-1,-1,-1,-1,-1,-1,-1,-1,-1,-1,-1,-1,-1,-1,-1,-1,-1,-1,-1,-1,-1,-1,-1,-1,-1,-1,-1,-1,-1,-1,-1,-1,-1,-1,-1,-1,-1,-1,-1,-1,-1,-1,-1,-1,-1,-1,-1,-1,-1,-1,-1,-1,-1,-1,-1,-1,-1,-1,-1],"loss_changes":[4.410103E2,6.1954773E1,4.866571E1,2.8712769E0,1.0054808E1,7.486801E0,1.8878403E1,1.533432E-1,7.424774E-1,1.6174958E0,2.7833157E0,2.4963036E0,1.7702789E0,1.7262944E0,1.7486954E0,2.066803E-2,1.6660309E-1,4.390869E-1,7.690048E-1,6.82422E-1,6.38575E-1,1.5245743E0,2.15909E-1,1.1956558E0,8.729296E-1,2.029068E0,6.062622E-1,5.7970995E-1,6.4180183E-1,1.1511345E0,3.090639E-1,3.0067444E-1,0E0,2.8369904E-1,0E0,5.1693726E-1,2.6137543E-1,1.2939644E-1,2.765689E-1,9.708098E-1,1.2705791E-1,9.3955076E-1,1.13647304E-1,2.6752853E-1,1.1188688E0,4.740972E-1,5.397997E-1,8.725655E-2,1.584732E0,1.2563524E0,8.8949984E-1,2.4928665E-1,7.872987E-1,3.5491943E-1,6.047821E-2,7.627281E-1,2.2760186E-1,3.308866E-1,4.9706292E-1,4.0292835E-1,1.0445404E0,1.7285395E-1,8.8106287E-1,0E0,0E0,0E0,0E0,0E0,0E0,0E0,0E0,0E0,0E0,0E0,0E0,0E0,0E0,0E0,0E0,0E0,0E0,0E0,0E0,0E0,0E0,0E0,0E0,0E0,0E0,0E0,0E0,0E0,0E0,0E0,0E0,0E0,0E0,0E0,0E0,0E0,0E0,0E0,0E0,0E0,0E0,0E0,0E0,0E0,0E0,0E0,0E0,0E0,0E0,0E0,0E0,0E0,0E0,0E0,0E0,0E0,0E0,0E0,0E0],"parents":[2147483647,0,0,1,1,2,2,3,3,4,4,5,5,6,6,7,7,8,8,9,9,10,10,11,11,12,12,13,13,14,14,15,15,16,16,17,17,18,18,19,19,20,20,21,21,22,22,23,23,24,24,25,25,26,26,27,27,28,28,29,29,30,30,31,31,33,33,35,35,36,36,37,37,38,38,39,39,40,40,41,41,42,42,43,43,44,44,45,45,46,46,47,47,48,48,49,49,50,50,51,51,52,52,53,53,54,54,55,55,56,56,57,57,58,58,59,59,60,60,61,61,62,62],"right_children":[2,4,6,8,10,12,14,16,18,20,22,24,26,28,30,32,34,36,38,40,42,44,46,48,50,52,54,56,58,60,62,64,-1,66,-1,68,70,72,74,76,78,80,82,84,86,88,90,92,94,96,98,100,102,104,106,108,110,112,114,116,118,120,122,-1,-1,-1,-1,-1,-1,-1,-1,-1,-1,-1,-1,-1,-1,-1,-1,-1,-1,-1,-1,-1,-1,-1,-1,-1,-1,-1,-1,-1,-1,-1,-1,-1,-1,-1,-1,-1,-1,-1,-1,-1,-1,-1,-1,-1,-1,-1,-1,-1,-1,-1,-1,-1,-1,-1,-1,-1,-1,-1,-1],"split_conditions":[4.392E2,2.342E2,4.75E0,8.28E1,1.625E0,6.671E2,7.011E2,6.35E1,1.975E2,3.627E2,3.627E2,2.5E-1,8.16E2,5.668E2,1.025E3,1E2,1E0,1E0,8.55E1,1E0,1E0,8.8875E1,3.125E0,4.682E2,5.511E2,1E0,1E0,5.393E2,1.5875E1,1.0375E1,6.8E1,9.975E1,-1.2424349E-2,7.75E0,-1.2303122E-2,1E0,9.45E1,1E0,9.6125E1,1E0,2.529E2,1E0,1E0,1.7E1,2.94E2,3.865E2,4.125E0,4.554E2,5.328E2,4.512E2,6.3E2,7.8E2,7.011E2,1.125E0,1.009E3,8.125E0,3.2625E1,5E0,1.75E1,1.009E3,7.6E2,2.4E1,8.075E1,-1.1682197E-2,5.195705E-4,-8.637903E-3,-1.1198118E-2,-8.671969E-3,-1.0095097E-2,-1.1103941E-2,-9.049674E-3,-8.501365E-3,-9.929808E-3,-3.1807532E-3,-6.8308683E-3,1.1165439E-3,-2.8490548E-3,-1.1200814E-3,-3.6548642E-3,4.0106075E-3,-1.3501783E-5,-6.1455666E-4,3.7248635E-3,-5.3120344E-3,-6.82287E-3,-5.6497473E-3,-2.387157E-3,-6.331857E-3,2.3092674E-3,-8.350038E-3,-2.6494346E-3,3.5373406E-3,5.5760737E-3,1.0589194E-2,7.448314E-3,-7.23944E-3,7.3064105E-3,1.1842017E-3,7.5241276E-3,1.0767738E-2,9.140483E-3,1.200139E-2,4.6399026E-3,1.1528694E-2,9.580161E-3,1.2739894E-2,1.4879783E-2,4.7083595E-3,1.1684951E-4,-1.2804108E-4,-2.578822E-3,-4.7546453E-3,4.1239792E-3,-3.271885E-3,1.7523759E-3,7.265108E-3,1.528203E-2,3.4051437E-3,5.5877897E-3,1.011607E-2,1.4265853E-2,-7.7935173E-3,1.1167764E-2],"split_indices":[0,0,2,0,2,0,0,0,0,0,0,2,0,0,0,2,4,4,2,3,3,2,2,0,0,2,4,0,2,2,2,2,0,2,0,3,2,3,2,4,0,4,2,2,0,0,2,0,0,0,0,0,0,2,0,2,2,2,2,0,0,2,2,0,0,0,0,0,0,0,0,0,0,0,0,0,0,0,0,0,0,0,0,0,0,0,0,0,0,0,0,0,0,0,0,0,0,0,0,0,0,0,0,0,0,0,0,0,0,0,0,0,0,0,0,0,0,0,0,0,0,0,0],"split_type":[0,0,0,0,0,0,0,0,0,0,0,0,0,0,0,0,0,0,0,0,0,0,0,0,0,0,0,0,0,0,0,0,0,0,0,0,0,0,0,0,0,0,0,0,0,0,0,0,0,0,0,0,0,0,0,0,0,0,0,0,0,0,0,0,0,0,0,0,0,0,0,0,0,0,0,0,0,0,0,0,0,0,0,0,0,0,0,0,0,0,0,0,0,0,0,0,0,0,0,0,0,0,0,0,0,0,0,0,0,0,0,0,0,0,0,0,0,0,0,0,0,0,0],"sum_hessian":[2.7746E4,1.2976E4,1.477E4,6.958E3,6.018E3,6.419E3,8.351E3,1.944E3,5.014E3,1.881E3,4.137E3,2.708E3,3.711E3,4.007E3,4.344E3,1.197E3,7.47E2,3.723E3,1.291E3,9.82E2,8.99E2,2.558E3,1.579E3,2.12E3,5.88E2,1.603E3,2.108E3,2.073E3,1.934E3,4.173E3,1.71E2,7.35E2,4.62E2,5.58E2,1.89E2,2.782E3,9.41E2,9.45E2,3.46E2,6.53E2,3.29E2,6.18E2,2.81E2,1.497E3,1.061E3,7.7E1,1.502E3,2.28E2,1.892E3,2.65E2,3.23E2,1.301E3,3.02E2,1.506E3,6.02E2,1.66E3,4.13E2,3.81E2,1.553E3,6.33E2,3.54E3,1.44E2,2.7E1,7.3E2,5E0,1.86E2,3.72E2,1.598E3,1.184E3,6.97E2,2.44E2,6.65E2,2.8E2,6.7E1,2.79E2,4.05E2,2.48E2,6.2E1,2.67E2,3.86E2,2.32E2,2.66E2,1.5E1,4.39E2,1.058E3,4.9E2,5.71E2,2.1E1,5.6E1,4.2E1,1.46E3,1.14E2,1.14E2,5.96E2,1.296E3,1.5E1,2.5E2,2.53E2,7E1,9.07E2,3.94E2,4.2E1,2.6E2,1.162E3,3.44E2,5.22E2,8E1,9.5E1,1.565E3,1.47E2,2.66E2,1E1,3.71E2,5E1,1.503E3,6.17E2,1.6E1,6.86E2,2.854E3,9.5E1,4.9E1,8E0,1.9E1],"tree_param":{"num_deleted":"0","num_feature":"7","num_nodes":"123","size_leaf_vector":"1"}},{"base_weights":[2.3290188E-4,-1.2722771E-1,1.126844E-1,-1.8786137E-1,-5.8430284E-2,1.7648925E-1,6.5829344E-2,-2.2465432E-1,-1.7634843E-1,5.1624677E-3,-8.640931E-2,1.3860409E-1,2.0494932E-1,1.9340731E-2,1.0713678E-1,-2.3442015E-1,-2.1949835E-1,-1.8735947E-1,-1.6585818E-1,2.3072373E-2,-3.282598E-2,-1.1114564E-1,-6.305298E-2,1.5001535E-1,9.301943E-2,2.1577097E-1,1.588828E-1,1.258333E-2,4.7079198E-2,8.429653E-2,1.2426305E-1,-2.02172E-1,-1.2016723E-2,-1.0701072E-2,-2.3437934E-1,-1.8124941E-1,-2.053127E-1,-1.7787069E-1,-1.3117963E-1,5.2902445E-2,-2.5072344E-2,-5.0942227E-2,-1.3080411E-2,-1.2490344E-1,-9.1448635E-2,-7.538884E-2,-3.7653692E-2,1.6610225E-1,1.1594554E-1,-8.39512E-3,9.87733E-2,2.071729E-1,2.3722832E-1,6.555754E-2,1.9304538E-1,3.1437885E-2,-2.0351089E-3,3.0819008E-2,7.001935E-2,1.1552573E-1,6.753597E-2,1.1854889E-1,2.0223346E-1,-1.1461437E-2,3.6410557E-3,-1.262736E-2,-1.0728045E-2,-7.7519394E-3,-9.524709E-3,-1.0956889E-2,-9.955937E-3,-9.155847E-3,-7.594283E-3,-6.6722254E-3,-2.9355902E-3,1.2902202E-3,4.003664E-3,-2.43563E-3,4.588636E-5,-1.9328544E-3,-5.569413E-3,1.6927088E-3,-1.5225485E-3,-4.9757785E-3,-6.7196786E-3,-7.894195E-3,-4.142868E-3,-5.8445605E-3,-3.1562173E-3,8.7298633E-4,-2.4242029E-3,5.006795E-3,8.617475E-3,2.2709828E-3,5.9709405E-3,6.914341E-3,3.3304808E-3,9.959849E-3,1.1152159E-2,1.0717716E-2,1.2683004E-2,7.6439376E-3,1.5461999E-3,8.616375E-3,1.2401892E-2,1.1989004E-3,4.466759E-3,-8.7600824E-4,7.8035536E-4,3.7079197E-3,-1.3197878E-3,9.588588E-3,2.981996E-3,8.777336E-3,4.0378883E-3,1.4238277E-3,4.682934E-3,7.908379E-3,5.5084666E-3,1.2618812E-2,8.646592E-3],"categories":[],"categories_nodes":[],"categories_segments":[],"categories_sizes":[],"default_left":[0,0,0,0,0,0,0,0,0,0,0,0,0,0,0,0,0,0,0,0,0,0,0,0,0,0,0,0,0,0,0,0,0,0,0,0,0,0,0,0,0,0,0,0,0,0,0,0,0,0,0,0,0,0,0,0,0,0,0,0,0,0,0,0,0,0,0,0,0,0,0,0,0,0,0,0,0,0,0,0,0,0,0,0,0,0,0,0,0,0,0,0,0,0,0,0,0,0,0,0,0,0,0,0,0,0,0,0,0,0,0,0,0,0,0,0,0,0,0,0,0],"id":9,"left_children":[1,3,5,7,9,11,13,15,17,19,21,23,25,27,29,31,33,35,37,39,41,43,45,47,49,51,53,55,57,59,61,63,-1,-1,65,67,69,71,73,75,77,79,81,83,85,87,89,91,93,-1,95,97,99,101,103,105,107,109,111,113,115,117,119,-1,-1,-1,-1,-1,-1,-1,-1,-1,-1,-1,-1,-1,-1,-1,-1,-1,-1,-1,-1,-1,-1,-1,-1,-1,-1,-1,-1,-1,-1,-1,-1,-1,-1,-1,-1,-1,-1,-1,-1,-1,-1,-1,-1,-1,-1,-1,-1,-1,-1,-1,-1,-1,-1,-1,-1,-1,-1],"loss_changes":[3.975009E2,5.4213593E1,4.403685E1,2.8869781E0,1.0837936E1,6.69751E0,1.631493E1,3.127289E-2,5.77301E-1,1.2676054E0,2.4368744E0,1.3796043E0,1.7404327E0,7.4898005E-1,1.7493896E0,5.6884766E-2,3.8757324E-2,2.4382782E-1,1.1039276E0,1.8195052E0,2.1288985E-1,5.4491615E-1,6.795769E-1,1.1541748E0,8.257899E-1,4.82193E-1,2.1585312E0,8.867469E-1,2.8990996E-1,1.0029202E0,1.1206055E0,7.0121074E-1,0E0,0E0,4.7709465E-2,4.357071E-1,1.1426926E-2,2.4578857E-1,1.0705662E-1,5.737021E-1,2.9803443E-1,2.266388E-1,2.3501624E-1,2.7719307E-1,4.709258E-1,7.383146E-1,4.270321E-1,5.8111954E-1,1.635952E-1,0E0,6.618247E-1,2.168274E-1,2.527008E-1,5.5173296E-1,5.2464104E-1,6.0468674E-1,4.955682E-1,1.1425977E0,3.9800823E-1,1.3902445E0,1.2819381E0,7.7801895E-1,2.12008E-1,0E0,0E0,0E0,0E0,0E0,0E0,0E0,0E0,0E0,0E0,0E0,0E0,0E0,0E0,0E0,0E0,0E0,0E0,0E0,0E0,0E0,0E0,0E0,0E0,0E0,0E0,0E0,0E0,0E0,0E0,0E0,0E0,0E0,0E0,0E0,0E0,0E0,0E0,0E0,0E0,0E0,0E0,0E0,0E0,0E0,0E0,0E0,0E0,0E0,0E0,0E0,0E0,0E0,0E0,0E0,0E0,0E0,0E0],"parents":[2147483647,0,0,1,1,2,2,3,3,4,4,5,5,6,6,7,7,8,8,9,9,10,10,11,11,12,12,13,13,14,14,15,15,16,16,17,17,18,18,19,19,20,20,21,21,22,22,23,23,24,24,25,25,26,26,27,27,28,28,29,29,30,30,31,31,34,34,35,35,36,36,37,37,38,38,39,39,40,40,41,41,42,42,43,43,44,44,45,45,46,46,47,47,48,48,50,50,51,51,52,52,53,53,54,54,55,55,56,56,57,57,58,58,59,59,60,60,61,61,62,62],"right_children":[2,4,6,8,10,12,14,16,18,20,22,24,26,28,30,32,34,36,38,40,42,44,46,48,50,52,54,56,58,60,62,64,-1,-1,66,68,70,72,74,76,78,80,82,84,86,88,90,92,94,-1,96,98,100,102,104,106,108,110,112,114,116,118,120,-1,-1,-1,-1,-1,-1,-1,-1,-1,-1,-1,-1,-1,-1,-1,-1,-1,-1,-1,-1,-1,-1,-1,-1,-1,-1,-1,-1,-1,-1,-1,-1,-1,-1,-1,-1,-1,-1,-1,-1,-1,-1,-1,-1,-1,-1,-1,-1,-1,-1,-1,-1,-1,-1,-1,-1,-1,-1],"split_conditions":[4.392E2,2.342E2,4.125E0,7.53E1,1.375E0,6.671E2,7.011E2,4.17E1,1.507E2,1E0,3.327E2,2.5E-1,1E0,6.34E2,8.39E2,5.325E1,1E0,1E0,9.5E1,1E0,3.627E2,8.8875E1,9.3E1,1E0,4.423E2,1E0,7.9E2,4.4625E1,6.125E1,2.45E1,1.025E3,5.2125E1,-1.2016723E-2,-1.0701072E-2,6.075E1,1.375E0,5.875E0,2.21E2,2.307E2,3.627E2,3.627E2,3.386E2,3.898E2,1.475E1,2.424E2,3.627E2,1E2,4.651E2,4.554E2,-8.39512E-3,5.511E2,9.15E2,8.16E2,7.244E2,9.88E2,3.8375E1,9.5875E1,2.5E1,6.8E1,7.526E2,7.57E2,1.0375E1,1.5E1,-1.1461437E-2,3.6410557E-3,-1.262736E-2,-1.0728045E-2,-7.7519394E-3,-9.524709E-3,-1.0956889E-2,-9.955937E-3,-9.155847E-3,-7.594283E-3,-6.6722254E-3,-2.9355902E-3,1.2902202E-3,4.003664E-3,-2.43563E-3,4.588636E-5,-1.9328544E-3,-5.569413E-3,1.6927088E-3,-1.5225485E-3,-4.9757785E-3,-6.7196786E-3,-7.894195E-3,-4.142868E-3,-5.8445605E-3,-3.1562173E-3,8.7298633E-4,-2.4242029E-3,5.006795E-3,8.617475E-3,2.2709828E-3,5.9709405E-3,6.914341E-3,3.3304808E-3,9.959849E-3,1.1152159E-2,1.0717716E-2,1.2683004E-2,7.6439376E-3,1.5461999E-3,8.616375E-3,1.2401892E-2,1.1989004E-3,4.466759E-3,-8.7600824E-4,7.8035536E-4,3.7079197E-3,-1.3197878E-3,9.588588E-3,2.981996E-3,8.777336E-3,4.0378883E-3,1.4238277E-3,4.682934E-3,7.908379E-3,5.5084666E-3,1.2618812E-2,8.646592E-3],"split_indices":[0,0,2,0,2,0,0,0,0,3,0,2,2,0,0,2,4,4,2,4,0,2,2,3,0,4,0,2,2,2,0,2,0,0,2,2,2,0,0,0,0,0,0,2,0,0,2,0,0,0,0,0,0,0,0,2,2,2,2,0,0,2,2,0,0,0,0,0,0,0,0,0,0,0,0,0,0,0,0,0,0,0,0,0,0,0,0,0,0,0,0,0,0,0,0,0,0,0,0,0,0,0,0,0,0,0,0,0,0,0,0,0,0,0,0,0,0,0,0,0,0],"split_type":[0,0,0,0,0,0,0,0,0,0,0,0,0,0,0,0,0,0,0,0,0,0,0,0,0,0,0,0,0,0,0,0,0,0,0,0,0,0,0,0,0,0,0,0,0,0,0,0,0,0,0,0,0,0,0,0,0,0,0,0,0,0,0,0,0,0,0,0,0,0,0,0,0,0,0,0,0,0,0,0,0,0,0,0,0,0,0,0,0,0,0,0,0,0,0,0,0,0,0,0,0,0,0,0,0,0,0,0,0,0,0,0,0,0,0,0,0,0,0,0,0],"sum_hessian":[2.7731E4,1.2998E4,1.4733E4,6.908E3,6.09E3,6.237E3,8.496E3,1.642E3,5.266E3,1.861E3,4.229E3,2.678E3,3.559E3,3.998E3,4.498E3,5.52E2,1.09E3,2.561E3,2.705E3,1.265E3,5.96E2,2.052E3,2.177E3,2.14E3,5.38E2,2.879E3,6.8E2,3.216E3,7.82E2,1.93E3,2.568E3,9.1E1,4.61E2,8.08E2,2.82E2,1.919E3,6.42E2,2.006E3,6.99E2,7.81E2,4.84E2,3.1E2,2.86E2,1.205E3,8.47E2,1.464E3,7.13E2,1.451E3,6.89E2,1.1E1,5.27E2,2.063E3,8.16E2,1.83E2,4.97E2,1.404E3,1.812E3,4.59E2,3.23E2,6.72E2,1.258E3,2.395E3,1.73E2,8.3E1,8E0,1.41E2,1.41E2,5.05E2,1.414E3,1.88E2,4.54E2,1.664E3,3.42E2,6.77E2,2.2E1,3.92E2,3.89E2,2.53E2,2.31E2,2.59E2,5.1E1,7.7E1,2.09E2,3.31E2,8.74E2,9.5E1,7.52E2,3.32E2,1.132E3,1.17E2,5.96E2,1.27E2,1.324E3,3.3E1,6.56E2,2.35E2,2.92E2,1.382E3,6.81E2,3.47E2,4.69E2,5.1E1,1.32E2,3.64E2,1.33E2,1.245E3,1.59E2,9.65E2,8.47E2,2.61E2,1.98E2,2.4E1,2.99E2,2.45E2,4.27E2,5.05E2,7.53E2,4.15E2,1.98E3,6.1E1,1.12E2],"tree_param":{"num_deleted":"0","num_feature":"7","num_nodes":"121","size_leaf_vector":"1"}},{"base_weights":[3.560447E-6,-1.2050921E-1,1.0611147E-1,-1.7623153E-1,-5.43668E-2,1.6459747E-1,6.080622E-2,-2.0739101E-1,-1.6436161E-1,1.6836406E-3,-7.948855E-2,1.25868E-1,1.9266905E-1,1.28837405E-2,9.906244E-2,-2.1558253E-1,-1.9377197E-1,-1.7653063E-1,-1.5364543E-1,2.1276379E-2,-3.8481016E-2,-1.0065982E-1,-6.0449585E-2,1.3941205E-1,7.1003385E-2,2.0361514E-1,1.5224132E-1,3.87089E-2,5.4387003E-3,9.467901E-2,2.1098933E-1,-1.192709E-2,-2.1281064E-1,-1.6848764E-1,-2.060203E-1,-1.7020915E-1,-1.941623E-1,-1.736695E-1,-1.4175886E-1,5.133744E-2,-2.7363168E-2,-5.6218468E-2,-1.8554728E-2,-1.14312746E-1,-8.166036E-2,-7.268689E-2,-4.264313E-2,1.527287E-1,1.1262275E-1,1.12150885E-1,3.4769844E-2,1.9367443E-1,2.2852708E-1,7.902192E-2,1.8253317E-1,1.6879054E-2,7.0523575E-2,-8.600576E-2,7.0633125E-3,1.3389295E-1,8.8231586E-2,2.2524342E-1,1.2912904E-1,-2.6683954E-3,-1.0667688E-2,-8.6309025E-3,6.2278337E-3,-8.937481E-3,-1.0509741E-2,-7.9384735E-3,-9.250897E-3,-1.0167569E-2,-8.248812E-3,-8.985496E-3,-4.9150684E-3,-3.1198561E-3,-7.176208E-3,9.796371E-4,4.2501255E-3,-2.492165E-3,-1.440448E-4,-2.6748462E-3,-8.474521E-3,1.5278597E-3,-1.8120104E-3,-3.7353453E-3,-6.4158193E-3,-4.857794E-3,-2.9853734E-3,-2.986989E-3,-6.362751E-3,7.914368E-3,-2.410693E-3,9.045335E-3,6.7620995E-3,2.5515098E-3,5.936623E-3,-6.699773E-3,6.040295E-3,-8.553653E-3,2.5414757E-3,9.0961745E-3,1.0148262E-2,1.0380598E-2,1.2234606E-2,8.371036E-3,3.0015137E-3,8.360668E-3,1.2103075E-2,1.6294128E-3,-1.171347E-3,6.4295563E-3,2.3838494E-3,-1.8231036E-3,-7.92491E-3,-1.3172964E-4,9.4587693E-4,5.827448E-3,8.468692E-3,3.54576E-3,5.169983E-3,9.633105E-3,1.36367995E-2,-6.016521E-3,9.429555E-3],"categories":[],"categories_nodes":[],"categories_segments":[],"categories_sizes":[],"default_left":[0,0,0,0,0,0,0,0,0,0,0,0,0,0,0,0,0,0,0,0,0,0,0,0,0,0,0,0,0,0,0,0,0,0,0,0,0,0,0,0,0,0,0,0,0,0,0,0,0,0,0,0,0,0,0,0,0,0,0,0,0,0,0,0,0,0,0,0,0,0,0,0,0,0,0,0,0,0,0,0,0,0,0,0,0,0,0,0,0,0,0,0,0,0,0,0,0,0,0,0,0,0,0,0,0,0,0,0,0,0,0,0,0,0,0,0,0,0,0,0,0,0,0,0,0],"id":10,"left_children":[1,3,5,7,9,11,13,15,17,19,21,23,25,27,29,31,33,35,37,39,41,43,45,47,49,51,53,55,57,59,61,-1,63,65,67,69,71,73,75,77,79,81,83,85,87,89,91,93,95,97,99,101,103,105,107,109,111,113,115,117,119,121,123,-1,-1,-1,-1,-1,-1,-1,-1,-1,-1,-1,-1,-1,-1,-1,-1,-1,-1,-1,-1,-1,-1,-1,-1,-1,-1,-1,-1,-1,-1,-1,-1,-1,-1,-1,-1,-1,-1,-1,-1,-1,-1,-1,-1,-1,-1,-1,-1,-1,-1,-1,-1,-1,-1,-1,-1,-1,-1,-1,-1,-1,-1],"loss_changes":[3.5386456E2,4.7744873E1,3.898329E1,2.5667725E0,8.344446E0,6.958832E0,1.5204388E1,1.742096E-1,6.375427E-1,1.4448454E0,1.6433144E0,1.9979286E0,1.6160736E0,7.079174E-1,2.242775E0,2.5604248E-2,1.9352913E-1,2.3223114E-1,6.2231445E-1,1.8057058E0,2.1172869E-1,4.928608E-1,4.6691608E-1,7.555046E-1,7.967243E-1,6.803436E-1,1.7532845E0,5.710856E-1,4.2549422E-1,1.1107521E0,1.727786E-1,0E0,8.213425E-2,3.1925726E-1,1.843834E-2,2.6878357E-1,1.3299942E-1,4.4123077E-1,2.3075485E-1,8.137429E-1,2.5962853E-1,8.8964224E-2,2.4864928E-1,6.138134E-1,2.7075863E-1,8.94598E-1,9.937613E-1,6.870537E-1,2.6601505E-1,5.509174E-1,9.574512E-1,1.9212341E-1,2.2948074E-1,3.844769E-1,4.729576E-1,3.1101918E-1,4.3829525E-1,1.73798E-1,3.232057E-1,3.6487293E-1,9.949608E-1,1.7336988E-1,4.3802777E-1,0E0,0E0,0E0,0E0,0E0,0E0,0E0,0E0,0E0,0E0,0E0,0E0,0E0,0E0,0E0,0E0,0E0,0E0,0E0,0E0,0E0,0E0,0E0,0E0,0E0,0E0,0E0,0E0,0E0,0E0,0E0,0E0,0E0,0E0,0E0,0E0,0E0,0E0,0E0,0E0,0E0,0E0,0E0,0E0,0E0,0E0,0E0,0E0,0E0,0E0,0E0,0E0,0E0,0E0,0E0,0E0,0E0,0E0,0E0,0E0,0E0,0E0],"parents":[2147483647,0,0,1,1,2,2,3,3,4,4,5,5,6,6,7,7,8,8,9,9,10,10,11,11,12,12,13,13,14,14,15,15,16,16,17,17,18,18,19,19,20,20,21,21,22,22,23,23,24,24,25,25,26,26,27,27,28,28,29,29,30,30,32,32,33,33,34,34,35,35,36,36,37,37,38,38,39,39,40,40,41,41,42,42,43,43,44,44,45,45,46,46,47,47,48,48,49,49,50,50,51,51,52,52,53,53,54,54,55,55,56,56,57,57,58,58,59,59,60,60,61,61,62,62],"right_children":[2,4,6,8,10,12,14,16,18,20,22,24,26,28,30,32,34,36,38,40,42,44,46,48,50,52,54,56,58,60,62,-1,64,66,68,70,72,74,76,78,80,82,84,86,88,90,92,94,96,98,100,102,104,106,108,110,112,114,116,118,120,122,124,-1,-1,-1,-1,-1,-1,-1,-1,-1,-1,-1,-1,-1,-1,-1,-1,-1,-1,-1,-1,-1,-1,-1,-1,-1,-1,-1,-1,-1,-1,-1,-1,-1,-1,-1,-1,-1,-1,-1,-1,-1,-1,-1,-1,-1,-1,-1,-1,-1,-1,-1,-1,-1,-1,-1,-1,-1,-1,-1,-1,-1,-1],"split_conditions":[4.392E2,2.369E2,5E0,8.28E1,1.375E0,6.671E2,6.77E2,6.35E1,1.549E2,1E0,3.327E2,5E-1,1E0,2.0625E1,1.025E3,1.0875E1,7.75E0,1E0,1.5875E1,1E0,3.627E2,8.8875E1,7.9125E1,1E0,5.511E2,1E0,7.9E2,5.8E2,2.175E1,1.0375E1,6.8E1,-1.192709E-2,1.45E1,7.5E0,6.58E1,1E0,9.5875E1,2.307E2,1.75E1,3.627E2,3.627E2,3.59E2,3.865E2,1.475E1,2.94E2,5.4375E1,8.1125E1,5.328E2,4.651E2,4.423E2,6.25E-1,8.16E2,8.16E2,7.011E2,9.93E2,5.466E2,5.999E2,5.89E2,5.636E2,9.23E2,8.34E2,2.7875E1,8.075E1,-2.6683954E-3,-1.0667688E-2,-8.6309025E-3,6.2278337E-3,-8.937481E-3,-1.0509741E-2,-7.9384735E-3,-9.250897E-3,-1.0167569E-2,-8.248812E-3,-8.985496E-3,-4.9150684E-3,-3.1198561E-3,-7.176208E-3,9.796371E-4,4.2501255E-3,-2.492165E-3,-1.440448E-4,-2.6748462E-3,-8.474521E-3,1.5278597E-3,-1.8120104E-3,-3.7353453E-3,-6.4158193E-3,-4.857794E-3,-2.9853734E-3,-2.986989E-3,-6.362751E-3,7.914368E-3,-2.410693E-3,9.045335E-3,6.7620995E-3,2.5515098E-3,5.936623E-3,-6.699773E-3,6.040295E-3,-8.553653E-3,2.5414757E-3,9.0961745E-3,1.0148262E-2,1.0380598E-2,1.2234606E-2,8.371036E-3,3.0015137E-3,8.360668E-3,1.2103075E-2,1.6294128E-3,-1.171347E-3,6.4295563E-3,2.3838494E-3,-1.8231036E-3,-7.92491E-3,-1.3172964E-4,9.4587693E-4,5.827448E-3,8.468692E-3,3.54576E-3,5.169983E-3,9.633105E-3,1.36367995E-2,-6.016521E-3,9.429555E-3],"split_indices":[0,0,2,0,2,0,0,0,0,3,0,2,2,2,0,2,2,4,2,4,0,2,2,3,0,4,0,0,2,2,2,0,2,2,0,3,2,0,2,0,0,0,0,2,0,2,2,0,0,0,2,0,0,0,0,0,0,0,0,0,0,2,2,0,0,0,0,0,0,0,0,0,0,0,0,0,0,0,0,0,0,0,0,0,0,0,0,0,0,0,0,0,0,0,0,0,0,0,0,0,0,0,0,0,0,0,0,0,0,0,0,0,0,0,0,0,0,0,0,0,0,0,0,0,0],"split_type":[0,0,0,0,0,0,0,0,0,0,0,0,0,0,0,0,0,0,0,0,0,0,0,0,0,0,0,0,0,0,0,0,0,0,0,0,0,0,0,0,0,0,0,0,0,0,0,0,0,0,0,0,0,0,0,0,0,0,0,0,0,0,0,0,0,0,0,0,0,0,0,0,0,0,0,0,0,0,0,0,0,0,0,0,0,0,0,0,0,0,0,0,0,0,0,0,0,0,0,0,0,0,0,0,0,0,0,0,0,0,0,0,0,0,0,0,0,0,0,0,0,0,0,0,0],"sum_hessian":[2.7671E4,1.2956E4,1.4715E4,7.031E3,5.925E3,6.422E3,8.293E3,1.935E3,5.096E3,1.834E3,4.091E3,2.701E3,3.721E3,3.682E3,4.611E3,1.199E3,7.36E2,2.379E3,2.717E3,1.233E3,6.01E2,1.935E3,2.156E3,2.165E3,5.36E2,2.925E3,7.96E2,8.23E2,2.859E3,4.439E3,1.72E2,1.2E2,1.079E3,2.45E2,4.91E2,1.759E3,6.2E2,1.007E3,1.71E3,7.62E2,4.71E2,3.17E2,2.84E2,1.123E3,8.12E2,1.276E3,8.8E2,1.443E3,7.22E2,2.5E2,2.86E2,2.097E3,8.28E2,2.34E2,5.62E2,4.89E2,3.34E2,4.9E1,2.81E3,6.24E2,3.815E3,1.45E2,2.7E1,4E0,1.075E3,2.42E2,3E0,7.1E1,4.2E2,9.99E2,7.6E2,4.67E2,1.53E2,9.31E2,7.6E1,3.8E1,1.672E3,3.93E2,3.69E2,2.45E2,2.26E2,3.11E2,6E0,7.5E1,2.09E2,2.95E2,8.28E2,4.74E2,3.38E2,1.033E3,2.43E2,2.3E1,8.57E2,5.49E2,8.94E2,6.6E1,6.56E2,8E0,2.42E2,2E1,2.66E2,9.35E2,1.162E3,3.67E2,4.61E2,4E1,1.94E2,4.5E2,1.12E2,3.52E2,1.37E2,9.3E1,2.41E2,3E1,1.9E1,1.546E3,1.264E3,4.22E2,2.02E2,1.784E3,2.031E3,8.9E1,5.6E1,5E0,2.2E1],"tree_param":{"num_deleted":"0","num_feature":"7","num_nodes":"125","size_leaf_vector":"1"}},{"base_weights":[-4.382172E-4,5.5897094E-2,-5.1835027E-2,-1.5772574E-1,5.8872804E-2,-1.8692742E-1,-4.0399842E-2,-1.1642656E-2,-1.0825033E-1,9.5298976E-2,4.008056E-2,-2.0029773E-1,-1.5015991E-1,-8.817821E-2,-3.3059213E-2,-4.836908E-2,-1.9833384E-1,1.12404846E-1,6.860936E-2,5.1656354E-2,9.943251E-3,-2.1312834E-1,-1.8380985E-1,-1.8240571E-1,-9.404174E-2,8.520552E-3,-1.12018414E-1,-1.4308796E-2,-4.2268816E-2,-7.0242815E-2,1.8936668E-1,-1.07945325E-2,-1.335248E-1,4.3587554E-2,1.1759E-1,6.633883E-2,3.233296E-1,3.827944E-2,7.3726475E-2,4.529308E-2,-4.277579E-3,-1.3018908E-2,-2.0403115E-1,-4.983209E-2,-1.8703881E-1,-1.0446083E-1,-2.0985767E-1,8.770701E-2,-1.0687144E-1,-3.3427593E-3,2.1599226E-1,-1.4771879E-1,-9.239533E-2,1.5906338E-2,-4.4916652E-2,-3.3747748E-2,-6.0462676E-2,9.98827E-4,-5.2009514E-3,-6.3481564E-3,1.39012635E-2,3.4169757E-3,-7.904439E-3,3.4867947E-3,-1.7610387E-3,6.9611245E-3,4.9042036E-3,-5.0592674E-3,3.428908E-3,3.9309077E-3,1.8897798E-2,2.3999773E-3,1.0038656E-3,3.167238E-3,4.8902906E-3,1.0711468E-3,3.9952504E-3,1.0007904E-3,-7.790715E-4,-3.4324632E-3,-1.0299149E-2,2.7119368E-4,-9.028532E-3,-1.0127196E-2,-8.871E-3,-3.3255161E-3,-8.934093E-3,-2.761542E-3,-1.1125832E-2,5.519578E-3,-1.7771184E-3,-6.3383006E-3,-2.73251E-3,7.0067295E-3,-1.0875429E-3,3.0716541E-3,1.5051617E-2,-6.621662E-3,-1.00493515E-2,-3.430449E-3,-6.312863E-3,6.431091E-4,6.6926577E-3,-1.3542895E-3,-2.814748E-3,-2.8989147E-3,-1.362741E-3,-4.17792E-3,-2.702223E-3],"categories":[],"categories_nodes":[],"categories_segments":[],"categories_sizes":[],"default_left":[0,0,0,0,0,0,0,0,0,0,0,0,0,0,0,0,0,0,0,0,0,0,0,0,0,0,0,0,0,0,0,0,0,0,0,0,0,0,0,0,0,0,0,0,0,0,0,0,0,0,0,0,0,0,0,0,0,0,0,0,0,0,0,0,0,0,0,0,0,0,0,0,0,0,0,0,0,0,0,0,0,0,0,0,0,0,0,0,0,0,0,0,0,0,0,0,0,0,0,0,0,0,0,0,0,0,0,0,0],"id":11,"left_children":[1,3,5,7,9,11,13,-1,15,17,19,21,23,25,27,29,31,33,35,37,39,41,43,45,47,49,51,53,55,57,59,-1,61,63,65,67,69,71,73,75,77,-1,79,81,83,85,87,89,91,93,95,97,99,101,103,105,107,-1,-1,-1,-1,-1,-1,-1,-1,-1,-1,-1,-1,-1,-1,-1,-1,-1,-1,-1,-1,-1,-1,-1,-1,-1,-1,-1,-1,-1,-1,-1,-1,-1,-1,-1,-1,-1,-1,-1,-1,-1,-1,-1,-1,-1,-1,-1,-1,-1,-1,-1,-1],"loss_changes":[7.9839294E1,8.3716545E0,2.226701E1,6.4756346E-1,8.877949E0,5.229645E-1,4.6599503E0,0E0,5.8917546E-1,2.0079536E0,2.9861069E0,1.3471985E-1,5.329566E-1,4.0813675E0,1.9897499E0,3.6691323E-1,2.1238208E-2,9.5438766E-1,9.773598E-1,1.8231754E0,1.195121E0,1.428814E-1,1.4944649E-1,3.889079E-1,2.728647E-1,8.646388E-1,9.811344E-1,3.5131829E0,1.1961946E0,1.9405583E-1,2.0357108E-1,0E0,7.030684E-2,3.9399046E-1,1.0412483E0,6.4955807E-1,1.7080116E-1,6.8073463E-1,5.7701874E-1,5.61751E-1,4.6604842E-1,0E0,8.8121414E-2,7.322022E-2,1.7457008E-2,1.3458556E-1,2.6370573E-1,2.6290424E-2,1.03197575E-1,8.825494E-1,2.3123735E-1,3.8212872E-1,7.315469E-1,6.847794E-1,3.8131952E-1,8.269048E-1,3.6073112E-1,0E0,0E0,0E0,0E0,0E0,0E0,0E0,0E0,0E0,0E0,0E0,0E0,0E0,0E0,0E0,0E0,0E0,0E0,0E0,0E0,0E0,0E0,0E0,0E0,0E0,0E0,0E0,0E0,0E0,0E0,0E0,0E0,0E0,0E0,0E0,0E0,0E0,0E0,0E0,0E0,0E0,0E0,0E0,0E0,0E0,0E0,0E0,0E0,0E0,0E0,0E0,0E0],"parents":[2147483647,0,0,1,1,2,2,3,3,4,4,5,5,6,6,8,8,9,9,10,10,11,11,12,12,13,13,14,14,15,15,16,16,17,17,18,18,19,19,20,20,21,21,22,22,23,23,24,24,25,25,26,26,27,27,28,28,29,29,30,30,32,32,33,33,34,34,35,35,36,36,37,37,38,38,39,39,40,40,42,42,43,43,44,44,45,45,46,46,47,47,48,48,49,49,50,50,51,51,52,52,53,53,54,54,55,55,56,56],"right_children":[2,4,6,8,10,12,14,-1,16,18,20,22,24,26,28,30,32,34,36,38,40,42,44,46,48,50,52,54,56,58,60,-1,62,64,66,68,70,72,74,76,78,-1,80,82,84,86,88,90,92,94,96,98,100,102,104,106,108,-1,-1,-1,-1,-1,-1,-1,-1,-1,-1,-1,-1,-1,-1,-1,-1,-1,-1,-1,-1,-1,-1,-1,-1,-1,-1,-1,-1,-1,-1,-1,-1,-1,-1,-1,-1,-1,-1,-1,-1,-1,-1,-1,-1,-1,-1,-1,-1,-1,-1,-1,-1],"split_conditions":[1.5875E1,2.6880396E2,2.711814E2,2.655947E2,2.8713782E2,2.700033E2,2.7660107E2,-1.1642656E-2,3.125E0,2.5E-1,3E0,9.55E1,9.55E1,4.5375E1,4.7125E1,2.25E0,1E0,2.7254486E2,2.869922E2,2.985946E2,2.9393555E2,2.6400708E2,9.725E1,2.7031506E2,9.7E1,4.4E1,9.3E1,2.9418393E2,1E0,2.670626E2,2.6771436E2,-1.07945325E-2,4.75E0,1E0,2.8142892E2,2.69603E2,4.125E0,1E0,1E0,8.375E0,5.875E0,-1.3018908E-2,1.95E1,1E0,2.670626E2,5.5125E1,3.2625E1,1E0,1E0,1.8875E1,2.7278003E2,8.325E1,2.7446625E2,2.9393555E2,2.45E1,2.8142892E2,2.823499E2,9.98827E-4,-5.2009514E-3,-6.3481564E-3,1.39012635E-2,3.4169757E-3,-7.904439E-3,3.4867947E-3,-1.7610387E-3,6.9611245E-3,4.9042036E-3,-5.0592674E-3,3.428908E-3,3.9309077E-3,1.8897798E-2,2.3999773E-3,1.0038656E-3,3.167238E-3,4.8902906E-3,1.0711468E-3,3.9952504E-3,1.0007904E-3,-7.790715E-4,-3.4324632E-3,-1.0299149E-2,2.7119368E-4,-9.028532E-3,-1.0127196E-2,-8.871E-3,-3.3255161E-3,-8.934093E-3,-2.761542E-3,-1.1125832E-2,5.519578E-3,-1.7771184E-3,-6.3383006E-3,-2.73251E-3,7.0067295E-3,-1.0875429E-3,3.0716541E-3,1.5051617E-2,-6.621662E-3,-1.00493515E-2,-3.430449E-3,-6.312863E-3,6.431091E-4,6.6926577E-3,-1.3542895E-3,-2.814748E-3,-2.8989147E-3,-1.362741E-3,-4.17792E-3,-2.702223E-3],"split_indices":[2,1,1,1,1,1,1,0,2,2,2,2,2,2,2,2,3,1,1,1,1,1,2,1,2,2,2,1,3,1,1,0,2,3,1,1,2,3,4,2,2,0,2,4,1,2,2,3,3,2,1,2,1,1,2,1,1,0,0,0,0,0,0,0,0,0,0,0,0,0,0,0,0,0,0,0,0,0,0,0,0,0,0,0,0,0,0,0,0,0,0,0,0,0,0,0,0,0,0,0,0,0,0,0,0,0,0,0,0],"split_type":[0,0,0,0,0,0,0,0,0,0,0,0,0,0,0,0,0,0,0,0,0,0,0,0,0,0,0,0,0,0,0,0,0,0,0,0,0,0,0,0,0,0,0,0,0,0,0,0,0,0,0,0,0,0,0,0,0,0,0,0,0,0,0,0,0,0,0,0,0,0,0,0,0,0,0,0,0,0,0,0,0,0,0,0,0,0,0,0,0,0,0,0,0,0,0,0,0,0,0,0,0,0,0,0,0,0,0,0,0],"sum_hessian":[2.7572E4,1.3154E4,1.4418E4,1.8E2,1.2974E4,1.124E3,1.3294E4,7E1,1.1E2,4.414E3,8.56E3,8.21E2,3.03E2,1.769E3,1.1525E4,6.7E1,4.3E1,2.688E3,1.726E3,6.184E3,2.376E3,4.55E2,3.66E2,1.91E2,1.12E2,3.5E2,1.419E3,3.797E3,7.728E3,6.2E1,5E0,3.2E1,1.1E1,1.89E2,2.499E3,1.712E3,1.4E1,3.852E3,2.332E3,6.81E2,1.695E3,6.9E1,3.86E2,9E0,3.57E2,5.1E1,1.4E2,7E0,1.05E2,3.32E2,1.8E1,5.01E2,9.18E2,1.911E3,1.886E3,5.265E3,2.463E3,1.7E1,4.5E1,1E0,4E0,1E0,1E1,1.42E2,4.7E1,1.182E3,1.317E3,2.2E1,1.69E3,3E0,1.1E1,2.51E3,1.342E3,1.632E3,7E2,4.04E2,2.77E2,5.38E2,1.157E3,6E0,3.8E2,7E0,2E0,1.29E2,2.28E2,3.5E1,1.6E1,1.1E1,1.29E2,6E0,1E0,7.5E1,3E1,3.7E1,2.95E2,7E0,1.1E1,3.92E2,1.09E2,5.41E2,3.77E2,1.864E3,4.7E1,7.36E2,1.15E3,1.111E3,4.154E3,5.33E2,1.93E3],"tree_param":{"num_deleted":"0","num_feature":"7","num_nodes":"109","size_leaf_vector":"1"}},{"base_weights":[-6.3660595E-4,-1.1520952E-1,1.0033572E-1,-1.7020725E-1,-5.367214E-2,-1.8364233E-1,1.05900064E-1,-1.4894518E-1,-1.871034E-1,-8.231156E-3,-1.3033155E-1,1.1792584E-1,-1.905752E-1,1.3905354E-1,6.488873E-2,-1.9955605E-1,-1.2667584E-1,-1.9753404E-1,-1.7742674E-1,-1.2127028E-1,4.3419735E-3,-9.876997E-2,-1.5770568E-1,-9.796943E-3,1.4132974E-2,-2.500315E-1,-1.635424E-1,1.0616704E-1,1.7073572E-1,-4.4687558E-2,1.0096583E-1,-2.1760912E-1,-1.896208E-1,-1.3869037E-1,-8.527611E-2,-1.98295E-1,-1.145264E-1,-1.5632127E-1,-1.9086939E-1,-1.405766E-1,-2.0055668E-2,-2.041417E-2,5.3679783E-2,-1.459198E-1,-8.56643E-2,-1.0784014E-2,-1.4883113E-1,-1.3053948E-2,3.894925E-2,-1.4200705E-1,-1.430723E-2,1.3068116E-1,6.721328E-2,1.5460553E-2,1.758486E-1,-8.71898E-3,-9.4432026E-2,5.3768508E-2,1.3333817E-1,-1.0949871E-2,-4.275729E-3,-9.075847E-3,-1.0019577E-2,-9.3105575E-3,-6.7323297E-3,-9.003812E-3,-2.9252337E-3,-9.73988E-3,-1.0750731E-2,8.804733E-3,-1.1544891E-2,-7.930711E-3,-1.4326911E-3,-8.912264E-3,-9.898887E-3,-8.756239E-3,-5.158539E-3,8.102854E-3,-4.017105E-3,1.8201284E-4,-2.4538864E-3,4.060789E-3,2.5758578E-4,-7.935379E-3,-5.435465E-3,-3.1477974E-3,-5.3250464E-3,-6.6843266E-3,-8.107235E-3,7.13513E-3,-6.80777E-3,-7.9532135E-3,5.7177823E-3,4.2915163E-3,7.2664483E-3,4.03675E-3,2.2107544E-3,5.3050155E-3,-6.4399927E-3,7.4842214E-3,9.485542E-3,1.407273E-3,-1.6411137E-3,-6.019466E-3,-3.6424864E-3,3.475936E-3,-2.342314E-3,6.3525955E-3,9.678741E-3],"categories":[],"categories_nodes":[],"categories_segments":[],"categories_sizes":[],"default_left":[0,0,0,0,0,0,0,0,0,0,0,0,0,0,0,0,0,0,0,0,0,0,0,0,0,0,0,0,0,0,0,0,0,0,0,0,0,0,0,0,0,0,0,0,0,0,0,0,0,0,0,0,0,0,0,0,0,0,0,0,0,0,0,0,0,0,0,0,0,0,0,0,0,0,0,0,0,0,0,0,0,0,0,0,0,0,0,0,0,0,0,0,0,0,0,0,0,0,0,0,0,0,0,0,0,0,0,0,0],"id":12,"left_children":[1,3,5,7,9,11,13,15,17,19,21,23,25,27,29,31,33,35,37,39,41,43,45,-1,-1,47,49,51,53,55,57,59,61,63,65,67,69,71,73,75,77,79,81,83,85,-1,87,-1,89,91,-1,93,95,97,99,101,103,105,107,-1,-1,-1,-1,-1,-1,-1,-1,-1,-1,-1,-1,-1,-1,-1,-1,-1,-1,-1,-1,-1,-1,-1,-1,-1,-1,-1,-1,-1,-1,-1,-1,-1,-1,-1,-1,-1,-1,-1,-1,-1,-1,-1,-1,-1,-1,-1,-1,-1,-1],"loss_changes":[3.2121634E2,4.4011948E1,2.3340897E1,2.4394531E0,2.1387487E1,6.162405E-1,1.9673538E1,3.4077759E0,3.5081482E-1,5.480888E0,1.9585953E0,4.173125E-1,4.0593147E-1,8.321365E0,2.5593538E1,1.253624E-1,1.0416603E0,9.2941284E-2,5.3560257E-1,7.5145674E-1,4.2406235E0,6.4497757E-1,5.9661674E-1,0E0,0E0,2.8153133E-1,4.7158003E-1,3.7440414E0,3.2324448E0,2.8691142E0,7.433647E0,4.0506363E-2,1.6607285E-2,2.900753E-1,1.2051361E0,6.412506E-2,6.832396E-1,2.2407913E-1,7.355881E-2,4.0063763E-1,7.046923E-1,1.5942689E0,1.5496528E0,9.218979E-2,3.8838863E-1,0E0,1.9265556E-1,0E0,9.21005E-2,7.4845314E-1,0E0,1.5714684E0,4.6911287E-1,1.7265861E0,1.4024277E0,8.290565E-1,3.6825562E-1,3.1457243E0,1.0689888E0,0E0,0E0,0E0,0E0,0E0,0E0,0E0,0E0,0E0,0E0,0E0,0E0,0E0,0E0,0E0,0E0,0E0,0E0,0E0,0E0,0E0,0E0,0E0,0E0,0E0,0E0,0E0,0E0,0E0,0E0,0E0,0E0,0E0,0E0,0E0,0E0,0E0,0E0,0E0,0E0,0E0,0E0,0E0,0E0,0E0,0E0,0E0,0E0,0E0,0E0],"parents":[2147483647,0,0,1,1,2,2,3,3,4,4,5,5,6,6,7,7,8,8,9,9,10,10,11,11,12,12,13,13,14,14,15,15,16,16,17,17,18,18,19,19,20,20,21,21,22,22,25,25,26,26,27,27,28,28,29,29,30,30,31,31,32,32,33,33,34,34,35,35,36,36,37,37,38,38,39,39,40,40,41,41,42,42,43,43,44,44,46,46,48,48,49,49,51,51,52,52,53,53,54,54,55,55,56,56,57,57,58,58],"right_children":[2,4,6,8,10,12,14,16,18,20,22,24,26,28,30,32,34,36,38,40,42,44,46,-1,-1,48,50,52,54,56,58,60,62,64,66,68,70,72,74,76,78,80,82,84,86,-1,88,-1,90,92,-1,94,96,98,100,102,104,106,108,-1,-1,-1,-1,-1,-1,-1,-1,-1,-1,-1,-1,-1,-1,-1,-1,-1,-1,-1,-1,-1,-1,-1,-1,-1,-1,-1,-1,-1,-1,-1,-1,-1,-1,-1,-1,-1,-1,-1,-1,-1,-1,-1,-1,-1,-1,-1,-1,-1,-1],"split_conditions":[4.392E2,2.307E2,2.700033E2,2.8158087E2,2.9038184E2,4.423E2,2.9521503E2,7.53E1,1.382E2,2.7087726E2,2.963276E2,2.6771436E2,2.655947E2,6.3E2,6.427E2,4.17E1,1.824E2,3.0605695E2,2.8963715E2,3.96E2,3.751E2,2.94E2,2.569E2,-9.796943E-3,1.4132974E-2,7.45E2,8.01E2,2.8674005E2,2.7347815E2,3.016977E2,8.34E2,2.8111212E2,2.7630032E2,2.670626E2,2.711814E2,2.9844263E2,3.064118E2,2.893758E2,2.9364066E2,2.682119E2,4.01E2,2.8192178E2,2.8452554E2,2.9457983E2,2.931156E2,-1.0784014E-2,2.998361E2,-1.3053948E-2,7.64E2,7.45E2,-1.430723E-2,2.7695294E2,2.9211835E2,7.36E2,7.484E2,2.9742136E2,5.668E2,3.062221E2,1.025E3,-1.0949871E-2,-4.275729E-3,-9.075847E-3,-1.0019577E-2,-9.3105575E-3,-6.7323297E-3,-9.003812E-3,-2.9252337E-3,-9.73988E-3,-1.0750731E-2,8.804733E-3,-1.1544891E-2,-7.930711E-3,-1.4326911E-3,-8.912264E-3,-9.898887E-3,-8.756239E-3,-5.158539E-3,8.102854E-3,-4.017105E-3,1.8201284E-4,-2.4538864E-3,4.060789E-3,2.5758578E-4,-7.935379E-3,-5.435465E-3,-3.1477974E-3,-5.3250464E-3,-6.6843266E-3,-8.107235E-3,7.13513E-3,-6.80777E-3,-7.9532135E-3,5.7177823E-3,4.2915163E-3,7.2664483E-3,4.03675E-3,2.2107544E-3,5.3050155E-3,-6.4399927E-3,7.4842214E-3,9.485542E-3,1.407273E-3,-1.6411137E-3,-6.019466E-3,-3.6424864E-3,3.475936E-3,-2.342314E-3,6.3525955E-3,9.678741E-3],"split_indices":[0,0,1,1,1,0,1,0,0,1,1,1,1,0,0,0,0,1,1,0,0,0,0,0,0,0,0,1,1,1,0,1,1,1,1,1,1,1,1,1,0,1,1,1,1,0,1,0,0,0,0,1,1,0,0,1,0,1,0,0,0,0,0,0,0,0,0,0,0,0,0,0,0,0,0,0,0,0,0,0,0,0,0,0,0,0,0,0,0,0,0,0,0,0,0,0,0,0,0,0,0,0,0,0,0,0,0,0,0],"split_type":[0,0,0,0,0,0,0,0,0,0,0,0,0,0,0,0,0,0,0,0,0,0,0,0,0,0,0,0,0,0,0,0,0,0,0,0,0,0,0,0,0,0,0,0,0,0,0,0,0,0,0,0,0,0,0,0,0,0,0,0,0,0,0,0,0,0,0,0,0,0,0,0,0,0,0,0,0,0,0,0,0,0,0,0,0,0,0,0,0,0,0,0,0,0,0,0,0,0,0,0,0,0,0,0,0,0,0,0,0],"sum_hessian":[2.7764E4,1.3006E4,1.4758E4,6.867E3,6.139E3,2.83E2,1.4475E4,3.045E3,3.822E3,3.855E3,2.284E3,6E0,2.77E2,8.003E3,6.472E3,9.28E2,2.117E3,1.83E3,1.992E3,3.85E2,3.47E3,1.063E3,1.221E3,2E0,4E0,8.4E1,1.93E2,3.929E3,4.074E3,1.603E3,4.869E3,3.22E2,6.06E2,1.639E3,4.78E2,1.812E3,1.8E1,7.8E2,1.212E3,3.23E2,6.2E1,2.311E3,1.159E3,2.29E2,8.34E2,1.59E2,1.062E3,8.1E1,3E0,1.66E2,2.7E1,2.41E3,1.519E3,1.3E2,3.944E3,9.31E2,6.72E2,1.982E3,2.887E3,3.18E2,4E0,3.56E2,2.5E2,1.25E2,1.514E3,1.04E2,3.74E2,1.509E3,3.03E2,5E0,1.3E1,7.66E2,1.4E1,4.46E2,7.66E2,1.66E2,1.57E2,1.5E1,4.7E1,1.257E3,1.054E3,7.39E2,4.2E2,1.68E2,6.1E1,4.01E2,4.33E2,5.02E2,5.6E2,2E0,1E0,1.56E2,1E1,5.95E2,1.815E3,9.55E2,5.64E2,8E1,5E1,1.37E3,2.574E3,3.68E2,5.63E2,3.03E2,3.69E2,1.714E3,2.68E2,2.617E3,2.7E2],"tree_param":{"num_deleted":"0","num_feature":"7","num_nodes":"109","size_leaf_vector":"1"}},{"base_weights":[-3.2984544E-4,-1.10389546E-1,9.648423E-2,-1.5992346E-1,-5.1501397E-2,1.4977214E-1,5.5735864E-2,-1.3908146E-1,-1.7650105E-1,-8.940313E-3,-1.2317715E-1,1.8660842E-1,1.0750849E-1,-1.8889783E-1,6.379482E-2,-1.8775663E-1,-1.1821114E-1,-1.9887885E-1,-1.5772498E-1,6.44269E-2,-4.529622E-2,-9.489864E-2,-1.4805077E-1,-5.364378E-2,1.9128604E-1,-1.6678762E-2,1.4374372E-1,3.5059173E-2,-1.9684617E-1,9.208637E-2,1.7864542E-2,-1.4939155E-1,-1.9241883E-1,-6.929203E-2,-1.391951E-1,-1.5995099E-1,-2.1439779E-1,-1.7542067E-1,-1.4369379E-1,1.1954501E-1,-4.562995E-3,-1.4150563E-1,-2.9547228E-2,-1.17681414E-1,-7.166704E-2,-2.1294111E-1,-1.4349183E-1,-1.8180723E-1,2.1094711E-1,2.1777825E-1,1.6082136E-1,3.098671E-2,-4.744625E-2,1.04233645E-1,1.7006555E-1,-1.6769563E-1,1.3567655E-2,-2.3503667E-1,-1.7237712E-1,6.0773924E-2,1.3032863E-1,-7.558464E-2,5.2645773E-2,-7.92815E-3,6.206051E-3,-1.0288927E-2,-9.194047E-3,-3.9577694E-3,5.4550464E-3,-7.795907E-3,-4.9615856E-3,-8.349723E-3,6.5098854E-4,-1.1238097E-2,-9.929257E-3,-9.565139E-3,-7.2000823E-3,-7.7886567E-3,-5.991749E-3,-6.0242494E-3,6.6123353E-3,-3.4438015E-3,1.3111356E-3,4.3659876E-3,-7.529591E-3,-2.823764E-3,-3.3414213E-4,-6.6431924E-3,-3.5439262E-3,-2.787828E-3,-5.4181674E-3,-1.1424958E-2,-5.6109903E-3,-8.127483E-3,-6.536659E-3,-1.1894565E-2,-5.3191516E-3,2.0618415E-2,-1.3978973E-2,6.522336E-3,1.1138115E-2,5.1196674E-3,9.794651E-3,-7.2628673E-4,2.704203E-3,-4.224616E-3,-8.751908E-4,5.9966864E-3,-1.4739782E-3,8.690577E-3,1.2537468E-3,-1.1049102E-2,2.4684088E-3,-9.273729E-3,-1.2981357E-2,-9.326156E-3,-2.0790144E-3,3.643604E-3,6.5900706E-4,-1.4211866E-3,6.793935E-3,-1.7220698E-3,-4.7755805E-3,8.4951345E-4,4.786881E-3],"categories":[],"categories_nodes":[],"categories_segments":[],"categories_sizes":[],"default_left":[0,0,0,0,0,0,0,0,0,0,0,0,0,0,0,0,0,0,0,0,0,0,0,0,0,0,0,0,0,0,0,0,0,0,0,0,0,0,0,0,0,0,0,0,0,0,0,0,0,0,0,0,0,0,0,0,0,0,0,0,0,0,0,0,0,0,0,0,0,0,0,0,0,0,0,0,0,0,0,0,0,0,0,0,0,0,0,0,0,0,0,0,0,0,0,0,0,0,0,0,0,0,0,0,0,0,0,0,0,0,0,0,0,0,0,0,0,0,0,0,0,0,0,0,0],"id":13,"left_children":[1,3,5,7,9,11,13,15,17,19,21,23,25,27,29,31,33,35,37,39,41,43,45,47,49,51,53,55,57,59,61,63,65,67,69,71,73,75,77,79,81,83,85,87,89,91,93,95,97,99,101,103,105,107,109,111,-1,113,115,117,119,121,123,-1,-1,-1,-1,-1,-1,-1,-1,-1,-1,-1,-1,-1,-1,-1,-1,-1,-1,-1,-1,-1,-1,-1,-1,-1,-1,-1,-1,-1,-1,-1,-1,-1,-1,-1,-1,-1,-1,-1,-1,-1,-1,-1,-1,-1,-1,-1,-1,-1,-1,-1,-1,-1,-1,-1,-1,-1,-1,-1,-1,-1,-1],"loss_changes":[2.955575E2,3.7856827E1,3.2034927E1,2.411316E0,1.8095043E1,9.934341E0,1.650162E1,3.1554337E0,1.616951E0,9.9333935E0,1.5404396E0,3.8480759E0,1.3412262E1,4.821844E-1,1.052121E1,1.3885117E-1,2.2404766E0,1.0446625E0,5.0564194E-1,4.692946E0,3.7686696E0,5.404291E-1,3.1674957E-1,2.2764702E0,2.6686783E0,9.899229E-1,2.3815002E0,5.2460206E-1,2.005825E-1,5.992546E0,1.0040836E1,2.855823E-1,5.7064056E-2,1.169941E0,1.0090446E0,6.271696E-1,1.6415405E-1,4.4201088E-1,3.265953E-1,2.1074018E0,1.0887833E0,7.4085283E-1,1.3178221E0,3.6150646E-1,2.9522777E-1,9.188485E-2,2.4621582E-1,1.6504681E-1,2.2889435E0,7.496338E-1,3.1807404E0,2.793581E-1,4.533133E-1,1.9453936E0,7.4679947E-1,8.030875E-2,0E0,7.128382E-2,2.9013443E-1,1.5865126E0,1.990715E0,6.83753E-1,3.4569488E0,0E0,0E0,0E0,0E0,0E0,0E0,0E0,0E0,0E0,0E0,0E0,0E0,0E0,0E0,0E0,0E0,0E0,0E0,0E0,0E0,0E0,0E0,0E0,0E0,0E0,0E0,0E0,0E0,0E0,0E0,0E0,0E0,0E0,0E0,0E0,0E0,0E0,0E0,0E0,0E0,0E0,0E0,0E0,0E0,0E0,0E0,0E0,0E0,0E0,0E0,0E0,0E0,0E0,0E0,0E0,0E0,0E0,0E0,0E0,0E0,0E0,0E0],"parents":[2147483647,0,0,1,1,2,2,3,3,4,4,5,5,6,6,7,7,8,8,9,9,10,10,11,11,12,12,13,13,14,14,15,15,16,16,17,17,18,18,19,19,20,20,21,21,22,22,23,23,24,24,25,25,26,26,27,27,28,28,29,29,30,30,31,31,32,32,33,33,34,34,35,35,36,36,37,37,38,38,39,39,40,40,41,41,42,42,43,43,44,44,45,45,46,46,47,47,48,48,49,49,50,50,51,51,52,52,53,53,54,54,55,55,57,57,58,58,59,59,60,60,61,61,62,62],"right_children":[2,4,6,8,10,12,14,16,18,20,22,24,26,28,30,32,34,36,38,40,42,44,46,48,50,52,54,56,58,60,62,64,66,68,70,72,74,76,78,80,82,84,86,88,90,92,94,96,98,100,102,104,106,108,110,112,-1,114,116,118,120,122,124,-1,-1,-1,-1,-1,-1,-1,-1,-1,-1,-1,-1,-1,-1,-1,-1,-1,-1,-1,-1,-1,-1,-1,-1,-1,-1,-1,-1,-1,-1,-1,-1,-1,-1,-1,-1,-1,-1,-1,-1,-1,-1,-1,-1,-1,-1,-1,-1,-1,-1,-1,-1,-1,-1,-1,-1,-1,-1,-1,-1,-1,-1],"split_conditions":[4.392E2,2.369E2,4.75E0,2.817084E2,2.9038184E2,2.9512646E2,2.704816E2,7.53E1,2.6125E1,3.125E0,2.963276E2,2.700033E2,6.427E2,4.423E2,2.9709286E2,7.75E0,2.25E1,2.8759872E2,1.21E2,2.8266693E2,2.714593E2,3.59E2,2.48E2,6.72E2,2.8788574E2,2.9844263E2,8.34E2,2.6771436E2,2.670626E2,6.951E2,6.62E2,7.5E0,4.17E1,2.21E2,1.783E2,2.307E2,1.862E2,2.9405252E2,9.8375E1,2.682119E2,3.132E2,7.5E0,3.247E2,8.775E1,2.9432773E2,5.7625E1,1.3125E1,5.753E2,1E0,4.612E2,6.3E2,5.511E2,5.668E2,3.064118E2,3.0896695E2,1E0,1.3567655E-2,2.7E1,9.8375E1,2.9179004E2,2.7402374E2,3.0045172E2,8.98E2,-7.92815E-3,6.206051E-3,-1.0288927E-2,-9.194047E-3,-3.9577694E-3,5.4550464E-3,-7.795907E-3,-4.9615856E-3,-8.349723E-3,6.5098854E-4,-1.1238097E-2,-9.929257E-3,-9.565139E-3,-7.2000823E-3,-7.7886567E-3,-5.991749E-3,-6.0242494E-3,6.6123353E-3,-3.4438015E-3,1.3111356E-3,4.3659876E-3,-7.529591E-3,-2.823764E-3,-3.3414213E-4,-6.6431924E-3,-3.5439262E-3,-2.787828E-3,-5.4181674E-3,-1.1424958E-2,-5.6109903E-3,-8.127483E-3,-6.536659E-3,-1.1894565E-2,-5.3191516E-3,2.0618415E-2,-1.3978973E-2,6.522336E-3,1.1138115E-2,5.1196674E-3,9.794651E-3,-7.2628673E-4,2.704203E-3,-4.224616E-3,-8.751908E-4,5.9966864E-3,-1.4739782E-3,8.690577E-3,1.2537468E-3,-1.1049102E-2,2.4684088E-3,-9.273729E-3,-1.2981357E-2,-9.326156E-3,-2.0790144E-3,3.643604E-3,6.5900706E-4,-1.4211866E-3,6.793935E-3,-1.7220698E-3,-4.7755805E-3,8.4951345E-4,4.786881E-3],"split_indices":[0,0,2,1,1,1,1,0,2,2,1,1,0,0,1,2,2,1,0,1,1,0,0,0,1,1,0,1,1,0,0,2,0,0,0,0,0,1,2,1,0,2,0,2,1,2,2,0,2,0,0,0,0,1,1,3,0,2,2,1,1,1,0,0,0,0,0,0,0,0,0,0,0,0,0,0,0,0,0,0,0,0,0,0,0,0,0,0,0,0,0,0,0,0,0,0,0,0,0,0,0,0,0,0,0,0,0,0,0,0,0,0,0,0,0,0,0,0,0,0,0,0,0,0,0],"split_type":[0,0,0,0,0,0,0,0,0,0,0,0,0,0,0,0,0,0,0,0,0,0,0,0,0,0,0,0,0,0,0,0,0,0,0,0,0,0,0,0,0,0,0,0,0,0,0,0,0,0,0,0,0,0,0,0,0,0,0,0,0,0,0,0,0,0,0,0,0,0,0,0,0,0,0,0,0,0,0,0,0,0,0,0,0,0,0,0,0,0,0,0,0,0,0,0,0,0,0,0,0,0,0,0,0,0,0,0,0,0,0,0,0,0,0,0,0,0,0,0,0,0,0,0,0],"sum_hessian":[2.7736E4,1.298E4,1.4756E4,7.049E3,5.931E3,6.393E3,8.363E3,3.127E3,3.922E3,3.722E3,2.209E3,3.414E3,2.979E3,2.66E2,8.097E3,9.36E2,2.191E3,1.785E3,2.137E3,1.233E3,2.489E3,1.036E3,1.173E3,6.5E1,3.349E3,6.73E2,2.306E3,9E0,2.57E2,5.01E3,3.087E3,1.05E2,8.31E2,6.59E2,1.532E3,5.12E2,1.273E3,9.4E2,1.197E3,6.85E2,5.48E2,3.49E2,2.14E3,5.21E2,5.15E2,7.4E1,1.099E3,4.4E1,2.1E1,1.788E3,1.561E3,2.64E2,4.09E2,9.24E2,1.382E3,5E0,4E0,9.7E1,1.6E2,2.756E3,2.254E3,8.37E2,2.25E3,1.02E2,3E0,3.15E2,5.16E2,6.25E2,3.4E1,1.078E3,4.54E2,4.92E2,2E1,7.61E2,5.12E2,6.21E2,3.19E2,7.91E2,4.06E2,3.4E1,6.51E2,1.77E2,3.71E2,1.3E1,3.36E2,9.82E2,1.158E3,3.92E2,1.29E2,3.61E2,1.54E2,6.3E1,1.1E1,4.36E2,6.63E2,2.4E1,2E1,1.5E1,6E0,9.8E1,1.69E3,5.87E2,9.74E2,8.9E1,1.75E2,1.82E2,2.27E2,8.27E2,9.7E1,1.347E3,3.5E1,4E0,1E0,3.5E1,6.2E1,1.44E2,1.6E1,2.197E3,5.59E2,7.6E1,2.178E3,2.74E2,5.63E2,1.232E3,1.018E3],"tree_param":{"num_deleted":"0","num_feature":"7","num_nodes":"125","size_leaf_vector":"1"}},{"base_weights":[1.5741751E-4,-1.030208E-1,9.1037534E-2,-1.5225255E-1,-4.724183E-2,1.3824846E-1,4.7907073E-2,-1.7826518E-1,-1.4206605E-1,2.582027E-3,-6.9358855E-2,1.0209545E-1,1.5832956E-1,9.31563E-3,7.590169E-2,-1.8441628E-1,-1.6808537E-1,-1.4918663E-1,-1.2564035E-1,1.939898E-2,-3.2607615E-2,-8.667408E-2,-4.2023968E-2,1.2205171E-1,4.3406114E-2,1.7136165E-1,1.2571263E-1,2.599501E-2,-2.1730927E-3,5.767132E-2,9.360023E-2,-1.0404742E-2,-1.814914E-1,-1.4864081E-1,-1.7784166E-1,-1.5424106E-1,-1.3126235E-1,-1.4584412E-1,-1.0189386E-1,4.8244935E-2,-2.723368E-2,-5.015259E-2,-1.2740167E-2,-1.041851E-1,-6.1822653E-2,-4.8922166E-2,-2.5687061E-2,1.3515036E-1,8.89552E-2,-2.907482E-2,5.560524E-2,1.5935054E-1,1.8343809E-1,7.3259935E-2,1.5173325E-1,1.678285E-2,8.598806E-2,-1.631728E-2,1.3955901E-2,7.1719155E-2,4.263559E-2,8.8799745E-2,1.6127418E-1,-9.3277416E-4,-9.096486E-3,-7.6160626E-3,5.9733237E-3,-8.619536E-3,-1.0452716E-2,-7.4204938E-3,-8.140235E-3,-6.3699605E-3,-8.86075E-3,-4.7922507E-3,-7.398512E-3,-5.7092137E-3,-4.0836325E-3,9.066878E-4,4.0144697E-3,-2.1118105E-3,-5.514988E-4,-2.2561462E-3,-5.4050065E-3,-8.8320643E-4,3.572785E-3,-5.0540566E-3,-8.953576E-3,-4.4210865E-3,-1.8326779E-3,-2.3148668E-3,-1.058573E-2,2.7646876E-3,-2.1189223E-3,4.053516E-3,7.2913314E-3,4.6535856E-3,-5.7259295E-4,1.564922E-3,-8.890655E-3,-5.372761E-3,3.0508903E-3,8.313972E-3,7.0850635E-3,8.794823E-3,1.0092212E-2,5.6424565E-3,2.2931604E-3,7.141871E-3,1.0884918E-2,1.006182E-3,-4.6683648E-3,-4.274683E-4,8.924856E-3,-7.6454016E-3,-7.2741404E-4,3.6871756E-4,3.9720344E-3,4.765202E-3,2.4844506E-3,-2.985327E-3,2.6000205E-3,4.0376764E-3,5.7560196E-3,8.996351E-3,4.064353E-3],"categories":[],"categories_nodes":[],"categories_segments":[],"categories_sizes":[],"default_left":[0,0,0,0,0,0,0,0,0,0,0,0,0,0,0,0,0,0,0,0,0,0,0,0,0,0,0,0,0,0,0,0,0,0,0,0,0,0,0,0,0,0,0,0,0,0,0,0,0,0,0,0,0,0,0,0,0,0,0,0,0,0,0,0,0,0,0,0,0,0,0,0,0,0,0,0,0,0,0,0,0,0,0,0,0,0,0,0,0,0,0,0,0,0,0,0,0,0,0,0,0,0,0,0,0,0,0,0,0,0,0,0,0,0,0,0,0,0,0,0,0,0,0,0,0],"id":14,"left_children":[1,3,5,7,9,11,13,15,17,19,21,23,25,27,29,31,33,35,37,39,41,43,45,47,49,51,53,55,57,59,61,-1,63,65,67,69,71,73,75,77,79,81,83,85,87,89,91,93,95,97,99,101,103,105,107,109,111,113,115,117,119,121,123,-1,-1,-1,-1,-1,-1,-1,-1,-1,-1,-1,-1,-1,-1,-1,-1,-1,-1,-1,-1,-1,-1,-1,-1,-1,-1,-1,-1,-1,-1,-1,-1,-1,-1,-1,-1,-1,-1,-1,-1,-1,-1,-1,-1,-1,-1,-1,-1,-1,-1,-1,-1,-1,-1,-1,-1,-1,-1,-1,-1,-1,-1],"loss_changes":[2.6041382E2,3.5708557E1,3.0060326E1,1.80513E0,6.7210054E0,5.101349E0,8.337454E0,9.047699E-2,5.6243134E-1,1.1108165E0,1.9956188E0,2.9461765E0,1.9040222E0,6.220705E-1,1.4378185E0,4.527664E-2,1.14328384E-1,2.9331207E-1,7.0911026E-1,1.7096717E0,2.1094543E-1,1.1184807E0,1.8356347E-1,8.0299187E-1,5.6839156E-1,4.398651E-1,1.7590961E0,7.3028606E-1,4.3892464E-1,4.6289253E-1,7.224808E-1,0E0,7.332611E-2,2.6883173E-1,4.7159195E-2,1.1035919E-1,1.1375904E-1,7.2244644E-2,1.6389704E-1,7.559879E-1,1.1767909E-1,8.897126E-2,1.1983131E-1,3.3405495E-1,7.137666E-1,4.824512E-1,6.6331553E-1,7.647438E-1,2.2260904E-1,8.406881E-1,4.9109006E-1,1.7564774E-1,1.8743134E-1,4.633777E-1,4.770851E-1,4.246978E-1,1.5407459E0,2.4544522E-1,3.8687545E-1,5.8706427E-1,1.0266925E0,4.396782E-1,2.0767999E-1,0E0,0E0,0E0,0E0,0E0,0E0,0E0,0E0,0E0,0E0,0E0,0E0,0E0,0E0,0E0,0E0,0E0,0E0,0E0,0E0,0E0,0E0,0E0,0E0,0E0,0E0,0E0,0E0,0E0,0E0,0E0,0E0,0E0,0E0,0E0,0E0,0E0,0E0,0E0,0E0,0E0,0E0,0E0,0E0,0E0,0E0,0E0,0E0,0E0,0E0,0E0,0E0,0E0,0E0,0E0,0E0,0E0,0E0,0E0,0E0,0E0,0E0],"parents":[2147483647,0,0,1,1,2,2,3,3,4,4,5,5,6,6,7,7,8,8,9,9,10,10,11,11,12,12,13,13,14,14,15,15,16,16,17,17,18,18,19,19,20,20,21,21,22,22,23,23,24,24,25,25,26,26,27,27,28,28,29,29,30,30,32,32,33,33,34,34,35,35,36,36,37,37,38,38,39,39,40,40,41,41,42,42,43,43,44,44,45,45,46,46,47,47,48,48,49,49,50,50,51,51,52,52,53,53,54,54,55,55,56,56,57,57,58,58,59,59,60,60,61,61,62,62],"right_children":[2,4,6,8,10,12,14,16,18,20,22,24,26,28,30,32,34,36,38,40,42,44,46,48,50,52,54,56,58,60,62,-1,64,66,68,70,72,74,76,78,80,82,84,86,88,90,92,94,96,98,100,102,104,106,108,110,112,114,116,118,120,122,124,-1,-1,-1,-1,-1,-1,-1,-1,-1,-1,-1,-1,-1,-1,-1,-1,-1,-1,-1,-1,-1,-1,-1,-1,-1,-1,-1,-1,-1,-1,-1,-1,-1,-1,-1,-1,-1,-1,-1,-1,-1,-1,-1,-1,-1,-1,-1,-1,-1,-1,-1,-1,-1,-1,-1,-1,-1,-1,-1,-1,-1,-1],"split_conditions":[4.392E2,2.342E2,7.5E0,8.28E1,1.375E0,6.3E2,6.544E2,6.35E1,9.1625E1,1E0,3.627E2,5E-1,1E0,4.4625E1,8.39E2,1.0875E1,7.75E0,1E0,1.575E2,1E0,3.627E2,8.8875E1,9.3E1,5.863E2,1E0,8.16E2,7.9E2,3.8375E1,9.5875E1,5.0625E1,1.025E3,-1.0404742E-2,1.3625E1,7.5E0,7.98E1,1E0,8.075E1,8.57E1,2.044E2,3.627E2,3.627E2,5E-1,1E0,8.4625E1,2.94E2,9.1625E1,1E2,4.682E2,2.5E-1,5.863E2,4.423E2,7.76E2,1E0,7.244E2,1.009E3,3.7E1,5.668E2,4.5375E1,6.227E2,7.484E2,5.5125E1,8.5E1,6.8E1,-9.3277416E-4,-9.096486E-3,-7.6160626E-3,5.9733237E-3,-8.619536E-3,-1.0452716E-2,-7.4204938E-3,-8.140235E-3,-6.3699605E-3,-8.86075E-3,-4.7922507E-3,-7.398512E-3,-5.7092137E-3,-4.0836325E-3,9.066878E-4,4.0144697E-3,-2.1118105E-3,-5.514988E-4,-2.2561462E-3,-5.4050065E-3,-8.8320643E-4,3.572785E-3,-5.0540566E-3,-8.953576E-3,-4.4210865E-3,-1.8326779E-3,-2.3148668E-3,-1.058573E-2,2.7646876E-3,-2.1189223E-3,4.053516E-3,7.2913314E-3,4.6535856E-3,-5.7259295E-4,1.564922E-3,-8.890655E-3,-5.372761E-3,3.0508903E-3,8.313972E-3,7.0850635E-3,8.794823E-3,1.0092212E-2,5.6424565E-3,2.2931604E-3,7.141871E-3,1.0884918E-2,1.006182E-3,-4.6683648E-3,-4.274683E-4,8.924856E-3,-7.6454016E-3,-7.2741404E-4,3.6871756E-4,3.9720344E-3,4.765202E-3,2.4844506E-3,-2.985327E-3,2.6000205E-3,4.0376764E-3,5.7560196E-3,8.996351E-3,4.064353E-3],"split_indices":[0,0,2,0,2,0,0,0,2,3,0,2,2,2,0,2,2,6,0,4,0,2,2,0,2,0,0,2,2,2,0,0,2,2,0,3,2,0,0,0,0,2,2,2,0,2,2,0,2,0,0,0,4,0,0,2,0,2,0,0,2,2,2,0,0,0,0,0,0,0,0,0,0,0,0,0,0,0,0,0,0,0,0,0,0,0,0,0,0,0,0,0,0,0,0,0,0,0,0,0,0,0,0,0,0,0,0,0,0,0,0,0,0,0,0,0,0,0,0,0,0,0,0,0,0],"split_type":[0,0,0,0,0,0,0,0,0,0,0,0,0,0,0,0,0,0,0,0,0,0,0,0,0,0,0,0,0,0,0,0,0,0,0,0,0,0,0,0,0,0,0,0,0,0,0,0,0,0,0,0,0,0,0,0,0,0,0,0,0,0,0,0,0,0,0,0,0,0,0,0,0,0,0,0,0,0,0,0,0,0,0,0,0,0,0,0,0,0,0,0,0,0,0,0,0,0,0,0,0,0,0,0,0,0,0,0,0,0,0,0,0,0,0,0,0,0,0,0,0,0,0,0,0],"sum_hessian":[2.777E4,1.3005E4,1.4765E4,6.907E3,6.098E3,7.048E3,7.717E3,1.939E3,4.968E3,1.875E3,4.223E3,2.519E3,4.529E3,3.245E3,4.472E3,1.198E3,7.41E2,3.46E3,1.508E3,1.269E3,6.06E2,2.584E3,1.639E3,1.879E3,6.4E2,3.233E3,1.296E3,1.323E3,1.922E3,2.205E3,2.267E3,1.24E2,1.074E3,2.53E2,4.88E2,2.693E3,7.67E2,8.12E2,6.96E2,7.84E2,4.85E2,3.21E2,2.85E2,1.514E3,1.07E3,