{"learner":{"attributes":{"best_iteration":"118","best_score":"0.16977118841454264"},"feature_names":["dswrf","t2m","tcc","system_10","system_4","system_50","system_51"],"feature_types":["float","float","float","i","i","i","i"],"gradient_booster":{"model":{"cats":{"enc":[],"feature_segments":[],"sorted_idx":[]},"gbtree_model_param":{"num_parallel_tree":"1","num_trees":"169"},"iteration_indptr":[0,1,2,3,4,5,6,7,8,9,10,11,12,13,14,15,16,17,18,19,20,21,22,23,24,25,26,27,28,29,30,31,32,33,34,35,36,37,38,39,40,41,42,43,44,45,46,47,48,49,50,51,52,53,54,55,56,57,58,59,60,61,62,63,64,65,66,67,68,69,70,71,72,73,74,75,76,77,78,79,80,81,82,83,84,85,86,87,88,89,90,91,92,93,94,95,96,97,98,99,100,101,102,103,104,105,106,107,108,109,110,111,112,113,114,115,116,117,118,119,120,121,122,123,124,125,126,127,128,129,130,131,132,133,134,135,136,137,138,139,140,141,142,143,144,145,146,147,148,149,150,151,152,153,154,155,156,157,158,159,160,161,162,163,164,165,166,167,168,169],"tree_info":[0,0,0,0,0,0,0,0,0,0,0,0,0,0,0,0,0,0,0,0,0,0,0,0,0,0,0,0,0,0,0,0,0,0,0,0,0,0,0,0,0,0,0,0,0,0,0,0,0,0,0,0,0,0,0,0,0,0,0,0,0,0,0,0,0,0,0,0,0,0,0,0,0,0,0,0,0,0,0,0,0,0,0,0,0,0,0,0,0,0,0,0,0,0,0,0,0,0,0,0,0,0,0,0,0,0,0,0,0,0,0,0,0,0,0,0,0,0,0,0,0,0,0,0,0,0,0,0,0,0,0,0,0,0,0,0,0,0,0,0,0,0,0,0,0,0,0,0,0,0,0,0,0,0,0,0,0,0,0,0,0,0,0,0,0,0,0,0,0],"trees":[{"base_weights":[-6.950038E-4,-1.7180005E-1,1.5827422E-1,-2.623579E-1,-7.3653586E-2,9.3785E-2,2.0513389E-1,-3.1176898E-1,-2.4733137E-1,-2.9584575E-2,-1.5111732E-1,1.3464071E-1,-3.308655E-2,-2.4874541E-1,2.0823964E-1,-3.1780288E-1,-2.7706388E-1,-2.2613963E-1,-2.7433613E-1,-2.1637344E-1,-1.2568663E-2,-1.1517433E-1,-1.7936248E-1,-2.5662348E-1,1.5193205E-1,-1.5968516E-2,-9.627429E-2,8.171393E-2,-2.8209177E-1,2.4392459E-1,1.6878603E-1,-3.2640615E-1,-2.9268947E-1,-1.5751138E-1,-2.819688E-1,-2.4879135E-1,-2.0110546E-1,-2.8093797E-1,-2.4853376E-1,-2.9483694E-1,-1.8069817E-1,-5.7232186E-2,6.0351882E-2,-1.6258095E-1,-8.02256E-2,-2.4312772E-1,-1.7272587E-1,-1.5204394E-2,-2.2137325E-1,1.6866183E-1,8.853252E-2,-3.344536E-2,9.8529056E-2,-1.11645445E-1,-6.8328E-2,1.128046E-2,7.813036E-3,-1.7391078E-1,-1.5684642E-2,2.361631E-1,3.3418489E-1,1.0485095E-1,2.0542473E-1,-1.6617602E-2,-1.4762729E-2,-1.4172018E-2,-1.6310742E-2,1.3673218E-2,-1.3552648E-2,-1.3218795E-2,-1.5710818E-2,-1.1640775E-2,-1.3629972E-2,-1.293427E-2,-9.647451E-3,-1.44208735E-2,-1.3527225E-2,-1.26166465E-2,4.7668276E-4,-1.5565346E-2,-1.1641011E-2,-2.2645965E-3,-9.614593E-3,-3.3361358E-3,-1.2180118E-3,4.935926E-3,7.351241E-4,-8.538568E-3,-5.6728725E-3,-4.2668143E-3,4.4660602E-4,-9.8643815E-3,-1.4775053E-2,-8.810101E-3,-5.122124E-3,-1.4078214E-2,-9.685816E-3,6.776772E-4,8.689477E-3,2.4962882E-3,6.694919E-3,-3.034015E-3,-6.784072E-4,8.300081E-3,3.7886382E-3,-9.768421E-3,-5.2648E-3,1.2315428E-2,-3.8072846E-3,-6.2952572E-3,6.9463435E-3,-1.0297091E-2,6.0917734E-4,6.0529877E-3,1.1974036E-2,-3.2892532E-3,1.7077245E-2,6.9336975E-3,2.5625618E-3,9.9555915E-3,1.4787227E-2],"categories":[],"categories_nodes":[],"categories_segments":[],"categories_sizes":[],"default_left":[0,0,0,0,0,0,0,0,0,0,0,0,0,0,0,0,0,0,0,0,0,0,0,0,0,0,0,0,0,0,0,0,0,0,0,0,0,0,0,0,0,0,0,0,0,0,0,0,0,0,0,0,0,0,0,0,0,0,0,0,0,0,0,0,0,0,0,0,0,0,0,0,0,0,0,0,0,0,0,0,0,0,0,0,0,0,0,0,0,0,0,0,0,0,0,0,0,0,0,0,0,0,0,0,0,0,0,0,0,0,0,0,0,0,0,0,0,0,0,0,0],"id":0,"left_children":[1,3,5,7,9,11,13,15,17,19,21,23,25,27,29,31,33,35,37,39,41,43,45,47,49,51,53,55,57,59,61,63,65,67,69,71,73,75,77,79,81,83,85,87,89,91,93,-1,95,97,99,101,103,105,107,-1,109,111,-1,113,115,117,119,-1,-1,-1,-1,-1,-1,-1,-1,-1,-1,-1,-1,-1,-1,-1,-1,-1,-1,-1,-1,-1,-1,-1,-1,-1,-1,-1,-1,-1,-1,-1,-1,-1,-1,-1,-1,-1,-1,-1,-1,-1,-1,-1,-1,-1,-1,-1,-1,-1,-1,-1,-1,-1,-1,-1,-1,-1,-1],"loss_changes":[7.5386005E2,1.1861679E2,4.3397003E1,5.077179E0,2.1867428E1,3.1353825E1,1.1779999E1,2.501526E-1,2.9870605E0,1.2980976E1,2.3376846E0,3.099105E1,1.5928144E0,6.5116906E-1,1.1593689E1,2.0024109E-1,1.0042572E-1,1.6460571E0,3.2844543E-1,9.0125275E-1,1.2200501E1,1.6851797E0,5.0772476E-1,2.5727177E-1,4.632889E0,2.3265216E0,1.272552E-1,6.204124E-2,1.23214245E-1,2.9594116E0,9.179794E0,8.912659E-2,1.8856049E-2,6.6132724E-1,5.0819397E-2,5.3217316E-1,6.1980057E-1,6.6101074E-2,4.7792053E-1,3.4770012E-2,3.6334753E-1,7.230854E-1,2.4908109E0,1.5524006E-1,2.705102E-1,2.2979736E-1,2.7023697E-1,0E0,1.3689613E-1,2.7543259E0,1.5993748E0,5.4486215E-1,2.2387719E-1,8.627868E-2,2.991647E-1,0E0,1.0515311E-1,8.596018E-2,0E0,1.4973145E0,1.0262985E0,2.590783E0,1.3642807E0,0E0,0E0,0E0,0E0,0E0,0E0,0E0,0E0,0E0,0E0,0E0,0E0,0E0,0E0,0E0,0E0,0E0,0E0,0E0,0E0,0E0,0E0,0E0,0E0,0E0,0E0,0E0,0E0,0E0,0E0,0E0,0E0,0E0,0E0,0E0,0E0,0E0,0E0,0E0,0E0,0E0,0E0,0E0,0E0,0E0,0E0,0E0,0E0,0E0,0E0,0E0,0E0,0E0,0E0,0E0,0E0,0E0,0E0],"parents":[2147483647,0,0,1,1,2,2,3,3,4,4,5,5,6,6,7,7,8,8,9,9,10,10,11,11,12,12,13,13,14,14,15,15,16,16,17,17,18,18,19,19,20,20,21,21,22,22,23,23,24,24,25,25,26,26,27,27,28,28,29,29,30,30,31,31,32,32,33,33,34,34,35,35,36,36,37,37,38,38,39,39,40,40,41,41,42,42,43,43,44,44,45,45,46,46,48,48,49,49,50,50,51,51,52,52,53,53,54,54,56,56,57,57,59,59,60,60,61,61,62,62],"right_children":[2,4,6,8,10,12,14,16,18,20,22,24,26,28,30,32,34,36,38,40,42,44,46,48,50,52,54,56,58,60,62,64,66,68,70,72,74,76,78,80,82,84,86,88,90,92,94,-1,96,98,100,102,104,106,108,-1,110,112,-1,114,116,118,120,-1,-1,-1,-1,-1,-1,-1,-1,-1,-1,-1,-1,-1,-1,-1,-1,-1,-1,-1,-1,-1,-1,-1,-1,-1,-1,-1,-1,-1,-1,-1,-1,-1,-1,-1,-1,-1,-1,-1,-1,-1,-1,-1,-1,-1,-1,-1,-1,-1,-1,-1,-1,-1,-1,-1,-1,-1,-1],"split_conditions":[4.544E2,2.319E2,6.699E2,7.47E1,2.909734E2,2.9677158E2,2.6878918E2,2.9367383E2,2.8716104E2,2.702906E2,2.964885E2,2.6999026E2,3.0504218E2,2.658865E2,2.9777548E2,6.39E1,2.9394522E2,1.47E2,2.069E2,2.658865E2,3.749E2,3.462E2,2.486E2,2.658865E2,2.9178662E2,6.38E2,1E0,6.77E2,7.45E2,9.96E2,8.31E2,2.8579144E2,2.8776123E2,3.67E1,2.9997992E2,2.7876004E2,2.6999026E2,1.57E2,3.074562E2,1E0,2.486E2,1E0,2.8309363E2,2.957968E2,4.439E2,3.0177518E2,4.439E2,-1.5204394E-2,5.081E2,2.7153577E2,5.81E2,5.528E2,2.9838846E2,3.0518985E2,4.629E2,1.128046E-2,7.38E2,7.41E2,-1.5684642E-2,2.7343442E2,2.7209015E2,3.034744E2,1.03E3,-1.6617602E-2,-1.4762729E-2,-1.4172018E-2,-1.6310742E-2,1.3673218E-2,-1.3552648E-2,-1.3218795E-2,-1.5710818E-2,-1.1640775E-2,-1.3629972E-2,-1.293427E-2,-9.647451E-3,-1.44208735E-2,-1.3527225E-2,-1.26166465E-2,4.7668276E-4,-1.5565346E-2,-1.1641011E-2,-2.2645965E-3,-9.614593E-3,-3.3361358E-3,-1.2180118E-3,4.935926E-3,7.351241E-4,-8.538568E-3,-5.6728725E-3,-4.2668143E-3,4.4660602E-4,-9.8643815E-3,-1.4775053E-2,-8.810101E-3,-5.122124E-3,-1.4078214E-2,-9.685816E-3,6.776772E-4,8.689477E-3,2.4962882E-3,6.694919E-3,-3.034015E-3,-6.784072E-4,8.300081E-3,3.7886382E-3,-9.768421E-3,-5.2648E-3,1.2315428E-2,-3.8072846E-3,-6.2952572E-3,6.9463435E-3,-1.0297091E-2,6.0917734E-4,6.0529877E-3,1.1974036E-2,-3.2892532E-3,1.7077245E-2,6.9336975E-3,2.5625618E-3,9.9555915E-3,1.4787227E-2],"split_indices":[0,0,0,0,1,1,1,1,1,1,1,1,1,1,1,0,1,0,0,1,0,0,0,1,1,0,4,0,0,0,0,1,1,0,1,1,1,0,1,5,0,5,1,1,0,1,0,0,0,1,0,0,1,1,0,0,0,0,0,1,1,1,0,0,0,0,0,0,0,0,0,0,0,0,0,0,0,0,0,0,0,0,0,0,0,0,0,0,0,0,0,0,0,0,0,0,0,0,0,0,0,0,0,0,0,0,0,0,0,0,0,0,0,0,0,0,0,0,0,0,0],"split_type":[0,0,0,0,0,0,0,0,0,0,0,0,0,0,0,0,0,0,0,0,0,0,0,0,0,0,0,0,0,0,0,0,0,0,0,0,0,0,0,0,0,0,0,0,0,0,0,0,0,0,0,0,0,0,0,0,0,0,0,0,0,0,0,0,0,0,0,0,0,0,0,0,0,0,0,0,0,0,0,0,0,0,0,0,0,0,0,0,0,0,0,0,0,0,0,0,0,0,0,0,0,0,0,0,0,0,0,0,0,0,0,0,0,0,0,0,0,0,0,0,0],"sum_hessian":[2.7713E4,1.3347E4,1.4366E4,6.941E3,6.406E3,6.047E3,8.319E3,1.614E3,5.327E3,4.084E3,2.322E3,4.574E3,1.473E3,5.6E1,8.263E3,1.368E3,2.46E2,2.99E3,2.337E3,3.4E2,3.744E3,1.024E3,1.298E3,1.93E2,4.381E3,1.16E3,3.13E2,5E0,5.1E1,4.336E3,3.927E3,1.01E3,3.58E2,1.1E1,2.35E2,1.565E3,1.425E3,1.853E3,4.84E2,1.04E2,2.36E2,2.322E3,1.422E3,4.33E2,5.91E2,1.19E2,1.179E3,7.9E1,1.14E2,3.465E3,9.16E2,1.007E3,1.53E2,2E2,1.13E2,1E0,4E0,1.3E1,3.8E1,3.996E3,3.4E2,1.432E3,2.495E3,8.4E2,1.7E2,2.88E2,7E1,2E0,9E0,1.58E2,7.7E1,9.43E2,6.22E2,1.73E2,1.252E3,1.062E3,7.91E2,4.77E2,7E0,7.9E1,2.5E1,1.9E1,2.17E2,1.801E3,5.21E2,7.72E2,6.5E2,3.69E2,6.4E1,5.59E2,3.2E1,6.6E1,5.3E1,1.122E3,5.7E1,3.3E1,8.1E1,1.11E2,3.354E3,4.96E2,4.2E2,4.24E2,5.83E2,3.7E1,1.16E2,1.2E1,1.88E2,2E0,1.11E2,2E0,2E0,1.1E1,2E0,1.13E2,3.883E3,6E0,3.34E2,8.77E2,5.55E2,2.335E3,1.6E2],"tree_param":{"num_deleted":"0","num_feature":"7","num_nodes":"121","size_leaf_vector":"1"}},{"base_weights":[3.4956887E-4,8.78813E-2,-8.105926E-2,-1.7108698E-1,9.240247E-2,-1.9621538E-1,-5.5640463E-2,-2.691712E-1,-1.258798E-1,1.044137E-1,4.847965E-2,-2.635497E-1,-1.6399708E-1,-2.3969159E-2,-8.00559E-2,-1.488887E-2,-2.3042247E-1,-5.3899847E-2,-1.8126531E-1,1.31224E-1,9.228455E-2,7.117428E-2,2.1557953E-2,-2.7116355E-1,-2.2739056E-1,1.7923792E-1,-1.7041984E-1,-8.327962E-4,-3.95634E-2,-1.5845618E-1,-6.985484E-2,-1.23541765E-2,-1.0871334E-1,-1.2395975E-1,6.486296E-2,-1.4962414E-1,-1.2669824E-2,8.336928E-2,1.4620067E-1,7.72072E-2,1.2813696E-1,6.421303E-2,1.3925609E-1,9.246176E-3,8.2287565E-2,-2.7880132E-1,-1.2008079E-2,-2.6421574E-1,-1.9867718E-1,-2.2288337E-3,1.9511552E-1,-1.08247206E-1,-1.7880131E-1,3.0788949E-2,-1.8953029E-2,-4.490018E-2,7.094098E-3,-1.8348521E-1,-1.4169852E-1,-9.062437E-2,-5.9507567E-2,6.714798E-3,-1.3189599E-2,-7.042598E-3,-3.8247367E-3,8.730881E-3,-2.476239E-3,-8.476909E-3,-3.4384787E-4,3.2315538E-3,7.5692832E-3,1.1430848E-2,7.0200637E-3,4.461767E-3,2.6648832E-3,7.1324045E-3,3.4012713E-3,3.3691325E-3,-4.3923855E-3,8.170689E-3,3.580624E-4,1.8243227E-3,-5.5555376E-4,4.3430254E-3,-9.2611695E-3,-1.53710395E-2,-1.3363582E-2,-1.0037286E-2,-1.5553481E-2,-1.9799166E-3,-1.1251019E-2,1.651907E-2,6.6851056E-3,-6.145257E-3,1.3769812E-2,-8.264927E-3,-1.1184294E-2,7.922097E-4,5.9273615E-3,-2.5747651E-3,6.9077645E-4,-2.0402276E-3,-6.0976027E-3,-5.436013E-4,6.964469E-3,-6.9401176E-3,-1.21283755E-2,2.1090035E-3,-7.502876E-3,2.8983128E-4,-4.621295E-3,-3.1543567E-3,-1.5501665E-3],"categories":[],"categories_nodes":[],"categories_segments":[],"categories_sizes":[],"default_left":[0,0,0,0,0,0,0,0,0,0,0,0,0,0,0,0,0,0,0,0,0,0,0,0,0,0,0,0,0,0,0,0,0,0,0,0,0,0,0,0,0,0,0,0,0,0,0,0,0,0,0,0,0,0,0,0,0,0,0,0,0,0,0,0,0,0,0,0,0,0,0,0,0,0,0,0,0,0,0,0,0,0,0,0,0,0,0,0,0,0,0,0,0,0,0,0,0,0,0,0,0,0,0,0,0,0,0,0,0,0,0,0,0],"id":1,"left_children":[1,3,5,7,9,11,13,15,17,19,21,23,25,27,29,-1,31,33,35,37,39,41,43,45,47,49,51,53,55,57,59,-1,61,63,65,67,-1,69,71,73,75,77,79,81,83,85,-1,87,89,-1,91,93,95,97,99,101,103,105,107,109,111,-1,-1,-1,-1,-1,-1,-1,-1,-1,-1,-1,-1,-1,-1,-1,-1,-1,-1,-1,-1,-1,-1,-1,-1,-1,-1,-1,-1,-1,-1,-1,-1,-1,-1,-1,-1,-1,-1,-1,-1,-1,-1,-1,-1,-1,-1,-1,-1,-1,-1,-1,-1],"loss_changes":[1.9877574E2,1.5754257E1,4.229489E1,9.90397E-1,6.965164E0,5.625412E0,9.154354E0,1.1193752E-2,6.280935E-1,3.361374E0,1.7330322E0,1.7070007E-1,3.932537E0,1.8602211E0,5.3361664E0,0E0,4.4112086E-2,5.9879667E-1,1.6749406E-1,2.3020515E0,3.8529434E0,7.209172E-1,9.7123533E-1,9.690094E-2,1.09285355E-1,1.2596786E-1,8.863182E-1,1.1906908E0,7.67241E-1,2.965393E-1,1.2664318E0,0E0,2.615395E-1,2.5306046E-2,3.4762177E-1,1.8360782E-1,0E0,9.74133E-1,1.1427383E0,1.4426689E0,1.8343124E0,6.80202E-1,4.5196724E-1,6.0041463E-1,2.8399408E-1,9.898758E-2,0E0,1.2787819E-1,3.6824775E-1,0E0,2.1334863E-1,1.2091415E0,8.9030457E-1,9.909469E-1,1.4093775E0,8.672743E-1,7.5440097E-1,7.715206E-1,7.210531E-1,3.4204102E-1,4.013796E-1,0E0,0E0,0E0,0E0,0E0,0E0,0E0,0E0,0E0,0E0,0E0,0E0,0E0,0E0,0E0,0E0,0E0,0E0,0E0,0E0,0E0,0E0,0E0,0E0,0E0,0E0,0E0,0E0,0E0,0E0,0E0,0E0,0E0,0E0,0E0,0E0,0E0,0E0,0E0,0E0,0E0,0E0,0E0,0E0,0E0,0E0,0E0,0E0,0E0,0E0,0E0,0E0],"parents":[2147483647,0,0,1,1,2,2,3,3,4,4,5,5,6,6,7,7,8,8,9,9,10,10,11,11,12,12,13,13,14,14,16,16,17,17,18,18,19,19,20,20,21,21,22,22,23,23,24,24,25,25,26,26,27,27,28,28,29,29,30,30,32,32,33,33,34,34,35,35,37,37,38,38,39,39,40,40,41,41,42,42,43,43,44,44,45,45,47,47,48,48,50,50,51,51,52,52,53,53,54,54,55,55,56,56,57,57,58,58,59,59,60,60],"right_children":[2,4,6,8,10,12,14,16,18,20,22,24,26,28,30,-1,32,34,36,38,40,42,44,46,48,50,52,54,56,58,60,-1,62,64,66,68,-1,70,72,74,76,78,80,82,84,86,-1,88,90,-1,92,94,96,98,100,102,104,106,108,110,112,-1,-1,-1,-1,-1,-1,-1,-1,-1,-1,-1,-1,-1,-1,-1,-1,-1,-1,-1,-1,-1,-1,-1,-1,-1,-1,-1,-1,-1,-1,-1,-1,-1,-1,-1,-1,-1,-1,-1,-1,-1,-1,-1,-1,-1,-1,-1,-1,-1,-1,-1,-1],"split_conditions":[1.7E1,2.6964325E2,2.7593976E2,2.658865E2,5.25E0,2.6999026E2,6.625E1,2.6407895E2,2.5E-1,2.8609308E2,2.9526718E2,2.6921442E2,1.9E1,2.9034766E2,2.784714E2,-1.488887E-2,7.75E0,2.6878918E2,7.75E0,2.7613147E2,3.002992E2,2.9333835E2,3.0658817E2,1E0,8.9125E1,2.702906E2,4.175E1,3.1E1,3.0643716E2,9.8625E1,2.859059E2,-1.23541765E-2,1.4E1,1E0,2.6921442E2,6.75E0,-1.2669824E-2,1E0,2.769565E2,1E0,1.875E0,1.65E1,1.525E1,3.0101282E2,1.65E1,2.6407895E2,-1.2008079E-2,6.1875E1,9.6625E1,-2.2288337E-3,1.7875E1,4.1E1,2.7483746E2,2.8804126E2,2.8340253E2,3.0574615E2,5.6875E1,9.1125E1,2.7613147E2,6.8875E1,3.036116E2,6.714798E-3,-1.3189599E-2,-7.042598E-3,-3.8247367E-3,8.730881E-3,-2.476239E-3,-8.476909E-3,-3.4384787E-4,3.2315538E-3,7.5692832E-3,1.1430848E-2,7.0200637E-3,4.461767E-3,2.6648832E-3,7.1324045E-3,3.4012713E-3,3.3691325E-3,-4.3923855E-3,8.170689E-3,3.580624E-4,1.8243227E-3,-5.5555376E-4,4.3430254E-3,-9.2611695E-3,-1.53710395E-2,-1.3363582E-2,-1.0037286E-2,-1.5553481E-2,-1.9799166E-3,-1.1251019E-2,1.651907E-2,6.6851056E-3,-6.145257E-3,1.3769812E-2,-8.264927E-3,-1.1184294E-2,7.922097E-4,5.9273615E-3,-2.5747651E-3,6.9077645E-4,-2.0402276E-3,-6.0976027E-3,-5.436013E-4,6.964469E-3,-6.9401176E-3,-1.21283755E-2,2.1090035E-3,-7.502876E-3,2.8983128E-4,-4.621295E-3,-3.1543567E-3,-1.5501665E-3],"split_indices":[2,1,1,1,2,1,2,1,2,1,1,1,2,1,1,0,2,1,2,1,1,1,1,5,2,1,2,2,1,2,1,0,2,4,1,2,0,5,1,3,2,2,2,1,2,1,0,2,2,0,2,2,1,1,1,1,2,2,1,2,1,0,0,0,0,0,0,0,0,0,0,0,0,0,0,0,0,0,0,0,0,0,0,0,0,0,0,0,0,0,0,0,0,0,0,0,0,0,0,0,0,0,0,0,0,0,0,0,0,0,0,0,0],"split_type":[0,0,0,0,0,0,0,0,0,0,0,0,0,0,0,0,0,0,0,0,0,0,0,0,0,0,0,0,0,0,0,0,0,0,0,0,0,0,0,0,0,0,0,0,0,0,0,0,0,0,0,0,0,0,0,0,0,0,0,0,0,0,0,0,0,0,0,0,0,0,0,0,0,0,0,0,0,0,0,0,0,0,0,0,0,0,0,0,0,0,0,0,0,0,0,0,0,0,0,0,0,0,0,0,0,0,0,0,0,0,0,0,0],"sum_hessian":[2.7893E4,1.3441E4,1.4452E4,2.3E2,1.3211E4,2.612E3,1.184E4,7.1E1,1.59E2,1.0373E4,2.838E3,8.43E2,1.769E3,5.155E3,6.685E3,3.7E1,3.4E1,7E1,8.9E1,3.228E3,7.145E3,1.539E3,1.299E3,6.91E2,1.52E2,3.2E1,1.737E3,2.076E3,3.079E3,7.68E2,5.917E3,2.9E1,5E0,4.4E1,2.6E1,6.4E1,2.5E1,7.71E2,2.457E3,5.032E3,2.113E3,1.398E3,1.41E2,1.081E3,2.18E2,5.48E2,1.43E2,6.3E1,8.9E1,2E0,3E1,2.08E2,1.529E3,7.56E2,1.32E3,2.763E3,3.16E2,3.04E2,4.64E2,1.965E3,3.952E3,2E0,3E0,3.1E1,1.3E1,1.3E1,1.3E1,5.6E1,8E0,6.06E2,1.65E2,1.59E2,2.298E3,3.346E3,1.686E3,1.701E3,4.12E2,1.37E3,2.8E1,1.19E2,2.2E1,4.62E2,6.19E2,2.15E2,3E0,1.5E2,3.98E2,2.9E1,3.4E1,1.3E1,7.6E1,8E0,2.2E1,2.01E2,7E0,1.179E3,3.5E2,6.47E2,1.09E2,6.62E2,6.58E2,2.625E3,1.38E2,2.79E2,3.7E1,1.75E2,1.29E2,2E1,4.44E2,3.6E1,1.929E3,3.51E3,4.42E2],"tree_param":{"num_deleted":"0","num_feature":"7","num_nodes":"113","size_leaf_vector":"1"}},{"base_weights":[-3.2511665E-4,-1.6075687E-1,1.477427E-1,-2.4579282E-1,-6.799426E-2,9.21501E-2,1.9625725E-1,-2.9087237E-1,-2.3179702E-1,-2.4786847E-2,-1.469512E-1,1.3328378E-1,-1.7418412E-2,-2.3073444E-1,1.987915E-1,-2.9603496E-1,-2.6115993E-1,-1.9881447E-1,-2.5315404E-1,-6.551594E-2,4.1631132E-2,-1.15390874E-1,-1.7288178E-1,-2.0531024E-1,1.4721365E-1,2.1035379E-2,-6.08813E-2,-1.1162511E-1,-1.3967824E-2,2.3391657E-1,1.6253564E-1,-3.038128E-1,-2.7408978E-1,-2.3048505E-1,-2.9096556E-1,-2.0840228E-1,-1.4441088E-1,-2.60841E-1,-2.2091126E-1,-2.3523618E-1,-5.566627E-2,-1.7699957E-1,5.8397256E-2,-1.6314243E-1,-8.051156E-2,-1.5722366E-1,-2.0159289E-1,-2.5662285E-1,-1.7081387E-1,1.6617964E-1,1.0818993E-1,-6.003823E-3,1.0643577E-1,-9.84561E-2,-3.4980305E-2,-5.68264E-3,-1.3479586E-2,2.265972E-1,3.0604193E-1,1.2638842E-1,2.0280161E-1,-1.5408146E-2,-1.4020631E-2,-1.3180087E-2,-1.5473467E-2,-9.768883E-3,-1.480781E-2,-9.4989715E-3,-1.5544216E-2,-1.0940073E-2,-8.571902E-3,-1.1815986E-2,-6.167636E-3,-1.2395791E-2,-1.3683227E-2,-8.852108E-3,-1.2052211E-2,-1.2514213E-2,2.2171328E-3,-3.301109E-3,-9.797637E-4,-1.32783055E-2,-6.1057573E-3,3.936637E-3,-1.6537675E-5,-1.1948756E-2,-7.737598E-3,-4.4348887E-3,3.0422835E-3,-8.1514735E-3,-2.655221E-3,-1.4130862E-2,-9.427915E-3,-1.3708303E-2,-7.9674125E-3,-9.528571E-3,-2.8398372E-3,1.326064E-3,8.607648E-3,3.6827226E-3,7.0786397E-3,-1.5778324E-3,7.87504E-4,4.5608315E-3,9.146728E-3,-4.299481E-3,-6.8911747E-3,-1.6877474E-4,-2.7095103E-3,-4.236201E-3,4.515177E-3,1.1859153E-2,9.559694E-3,-2.5498257E-3,1.587868E-2,4.6988917E-3,7.309438E-3,9.777968E-3,1.38873635E-2],"categories":[],"categories_nodes":[],"categories_segments":[],"categories_sizes":[],"default_left":[0,0,0,0,0,0,0,0,0,0,0,0,0,0,0,0,0,0,0,0,0,0,0,0,0,0,0,0,0,0,0,0,0,0,0,0,0,0,0,0,0,0,0,0,0,0,0,0,0,0,0,0,0,0,0,0,0,0,0,0,0,0,0,0,0,0,0,0,0,0,0,0,0,0,0,0,0,0,0,0,0,0,0,0,0,0,0,0,0,0,0,0,0,0,0,0,0,0,0,0,0,0,0,0,0,0,0,0,0,0,0,0,0,0,0,0,0,0,0],"id":2,"left_children":[1,3,5,7,9,11,13,15,17,19,21,23,25,27,29,31,33,35,37,39,41,43,45,47,49,51,53,55,-1,57,59,61,63,65,67,69,71,73,75,77,79,81,83,85,87,89,91,93,95,97,99,101,103,105,107,109,-1,111,113,115,117,-1,-1,-1,-1,-1,-1,-1,-1,-1,-1,-1,-1,-1,-1,-1,-1,-1,-1,-1,-1,-1,-1,-1,-1,-1,-1,-1,-1,-1,-1,-1,-1,-1,-1,-1,-1,-1,-1,-1,-1,-1,-1,-1,-1,-1,-1,-1,-1,-1,-1,-1,-1,-1,-1,-1,-1,-1,-1],"loss_changes":[6.6028784E2,1.0521918E2,3.8967804E1,4.3237915E0,2.1768713E1,3.037019E1,8.3975525E0,1.7501831E-1,3.694336E0,1.1164152E1,1.8271255E0,2.3136703E1,3.0764961E0,2.3521829E-1,9.73349E0,1.5466309E-1,1.6333771E-1,1.0621643E0,7.411957E-1,4.2630844E0,5.761646E0,1.6873827E0,5.2441406E-1,2.9956532E-1,3.4650345E0,2.2566867E0,8.3742213E-1,2.4949864E-1,0E0,1.9868622E0,5.474724E0,1.7417908E-2,5.757332E-2,2.395525E-1,1.903677E-1,6.459427E-1,5.843806E-1,3.625946E-1,5.1110077E-1,6.000948E-1,9.0231895E-1,5.1199365E-1,1.741261E0,2.3661518E-1,6.904471E-1,4.779606E-1,4.0401077E-1,8.600664E-2,2.572472E-1,2.6357574E0,1.767334E0,4.1351116E-1,2.5691104E-1,1.6090083E-1,3.1127226E-1,8.351968E-2,0E0,1.2813568E0,1.4819336E0,1.2658939E0,9.150772E-1,0E0,0E0,0E0,0E0,0E0,0E0,0E0,0E0,0E0,0E0,0E0,0E0,0E0,0E0,0E0,0E0,0E0,0E0,0E0,0E0,0E0,0E0,0E0,0E0,0E0,0E0,0E0,0E0,0E0,0E0,0E0,0E0,0E0,0E0,0E0,0E0,0E0,0E0,0E0,0E0,0E0,0E0,0E0,0E0,0E0,0E0,0E0,0E0,0E0,0E0,0E0,0E0,0E0,0E0,0E0,0E0,0E0,0E0],"parents":[2147483647,0,0,1,1,2,2,3,3,4,4,5,5,6,6,7,7,8,8,9,9,10,10,11,11,12,12,13,13,14,14,15,15,16,16,17,17,18,18,19,19,20,20,21,21,22,22,23,23,24,24,25,25,26,26,27,27,29,29,30,30,31,31,32,32,33,33,34,34,35,35,36,36,37,37,38,38,39,39,40,40,41,41,42,42,43,43,44,44,45,45,46,46,47,47,48,48,49,49,50,50,51,51,52,52,53,53,54,54,55,55,57,57,58,58,59,59,60,60],"right_children":[2,4,6,8,10,12,14,16,18,20,22,24,26,28,30,32,34,36,38,40,42,44,46,48,50,52,54,56,-1,58,60,62,64,66,68,70,72,74,76,78,80,82,84,86,88,90,92,94,96,98,100,102,104,106,108,110,-1,112,114,116,118,-1,-1,-1,-1,-1,-1,-1,-1,-1,-1,-1,-1,-1,-1,-1,-1,-1,-1,-1,-1,-1,-1,-1,-1,-1,-1,-1,-1,-1,-1,-1,-1,-1,-1,-1,-1,-1,-1,-1,-1,-1,-1,-1,-1,-1,-1,-1,-1,-1,-1,-1,-1,-1,-1,-1,-1,-1,-1],"split_conditions":[4.544E2,2.319E2,7.072E2,7.47E1,2.909734E2,2.959056E2,2.6921442E2,2.9367383E2,2.8157355E2,3.749E2,2.964885E2,2.6999026E2,3.0144904E2,7.59E2,2.9777548E2,6.39E1,5.32E1,1.973E2,2.069E2,2.6878918E2,2.702906E2,3.462E2,3.0283414E2,2.658865E2,2.8888168E2,6.335E2,5.71E2,2.6827393E2,-1.3967824E-2,9.96E2,9.03E2,2.8579144E2,2.8664093E2,2.9997992E2,2.9555893E2,1E0,2.7119742E2,2.915418E2,2.8841122E2,3.633E2,1E0,2.670406E2,2.8678967E2,2.914294E2,4.439E2,4.439E2,2.486E2,1E0,6.215E2,2.7153577E2,5.81E2,5.528E2,6.96E2,5.558E2,3.036116E2,7.237E2,-1.3479586E-2,2.942182E2,2.7209015E2,7.863E2,1.03E3,-1.5408146E-2,-1.4020631E-2,-1.3180087E-2,-1.5473467E-2,-9.768883E-3,-1.480781E-2,-9.4989715E-3,-1.5544216E-2,-1.0940073E-2,-8.571902E-3,-1.1815986E-2,-6.167636E-3,-1.2395791E-2,-1.3683227E-2,-8.852108E-3,-1.2052211E-2,-1.2514213E-2,2.2171328E-3,-3.301109E-3,-9.797637E-4,-1.32783055E-2,-6.1057573E-3,3.936637E-3,-1.6537675E-5,-1.1948756E-2,-7.737598E-3,-4.4348887E-3,3.0422835E-3,-8.1514735E-3,-2.655221E-3,-1.4130862E-2,-9.427915E-3,-1.3708303E-2,-7.9674125E-3,-9.528571E-3,-2.8398372E-3,1.326064E-3,8.607648E-3,3.6827226E-3,7.0786397E-3,-1.5778324E-3,7.87504E-4,4.5608315E-3,9.146728E-3,-4.299481E-3,-6.8911747E-3,-1.6877474E-4,-2.7095103E-3,-4.236201E-3,4.515177E-3,1.1859153E-2,9.559694E-3,-2.5498257E-3,1.587868E-2,4.6988917E-3,7.309438E-3,9.777968E-3,1.38873635E-2],"split_indices":[0,0,0,0,1,1,1,1,1,0,1,1,1,0,1,0,0,0,0,1,1,0,1,1,1,0,0,1,0,0,0,1,1,1,1,5,1,1,1,0,5,1,1,1,0,0,0,5,0,1,0,0,0,0,1,0,0,1,1,0,0,0,0,0,0,0,0,0,0,0,0,0,0,0,0,0,0,0,0,0,0,0,0,0,0,0,0,0,0,0,0,0,0,0,0,0,0,0,0,0,0,0,0,0,0,0,0,0,0,0,0,0,0,0,0,0,0,0,0],"split_type":[0,0,0,0,0,0,0,0,0,0,0,0,0,0,0,0,0,0,0,0,0,0,0,0,0,0,0,0,0,0,0,0,0,0,0,0,0,0,0,0,0,0,0,0,0,0,0,0,0,0,0,0,0,0,0,0,0,0,0,0,0,0,0,0,0,0,0,0,0,0,0,0,0,0,0,0,0,0,0,0,0,0,0,0,0,0,0,0,0,0,0,0,0,0,0,0,0,0,0,0,0,0,0,0,0,0,0,0,0,0,0,0,0,0,0,0,0,0,0],"sum_hessian":[2.7794E4,1.334E4,1.4454E4,6.959E3,6.381E3,6.737E3,7.717E3,1.644E3,5.315E3,4.125E3,2.256E3,4.898E3,1.839E3,4.5E1,7.672E3,1.393E3,2.51E2,2.093E3,3.222E3,2.557E3,1.568E3,1.02E3,1.236E3,1.93E2,4.705E3,9.76E2,8.63E2,1.4E1,3.1E1,3.894E3,3.778E3,1.019E3,3.74E2,1.28E2,1.23E2,1.777E3,3.16E2,2.596E3,6.26E2,1.39E2,2.418E3,1.11E2,1.457E3,4.29E2,5.91E2,8.04E2,4.32E2,7.5E1,1.18E2,3.164E3,1.541E3,7.42E2,2.34E2,3.51E2,5.12E2,9E0,5E0,3.539E3,3.55E2,1.993E3,1.785E3,8.49E2,1.7E2,2.95E2,7.9E1,8.6E1,4.2E1,2.2E1,1.01E2,1.383E3,3.94E2,5.7E1,2.59E2,1.303E3,1.293E3,2E2,4.26E2,1.32E2,7E0,1.878E3,5.4E2,4.1E1,7E1,1.082E3,3.75E2,4E1,3.89E2,5.59E2,3.2E1,7.61E2,4.3E1,5.7E1,3.75E2,6.2E1,1.3E1,1E2,1.8E1,1.3E2,3.034E3,7.59E2,7.82E2,3.41E2,4.01E2,1.97E2,3.7E1,2.69E2,8.2E1,1.94E2,3.18E2,5E0,4E0,2.72E3,8.19E2,1.1E1,3.44E2,7.58E2,1.235E3,1.631E3,1.54E2],"tree_param":{"num_deleted":"0","num_feature":"7","num_nodes":"119","size_leaf_vector":"1"}},{"base_weights":[-5.2729325E-4,-1.5810026E-1,1.3604093E-1,-2.3441193E-1,-6.8957776E-2,7.509135E-2,1.8072428E-1,-2.777058E-1,-2.2106728E-1,-9.6580006E-2,-2.69329E-2,1.2464906E-2,8.5347116E-2,1.619354E-1,2.1305797E-1,-1.4107599E-2,-2.5846055E-1,-2.2734791E-1,-1.8867144E-1,-8.694539E-2,-1.1778973E-1,-1.4254923E-2,-5.5243146E-2,-2.567083E-3,2.1964978E-2,1.0253919E-1,7.8054905E-2,1.4065608E-1,1.7385764E-1,2.0777704E-1,2.779334E-1,-1.2333277E-2,-1.4444212E-2,-2.3394944E-1,-2.0161033E-1,-1.9645256E-1,-7.913162E-3,-7.3490836E-2,-1.1023786E-1,-1.3343999E-1,-1.01644374E-1,5.294921E-3,-4.836087E-2,-4.2073376E-2,-6.915182E-2,-8.947701E-3,2.166175E-2,3.775589E-2,9.515245E-4,9.166687E-2,1.4290367E-1,7.4281804E-2,1.1696433E-1,1.4740205E-1,8.569367E-2,1.852368E-1,1.4893295E-1,1.9760923E-1,2.343194E-1,1.3104997E-2,1.583748E-2,-1.21246455E-2,-1.0623045E-2,-1.0683518E-2,-9.625464E-3,-1.0271151E-2,-8.492345E-3,-5.6077E-3,-3.4493492E-3,-7.1454556E-3,-5.30389E-3,-6.2540914E-3,-7.61176E-3,-5.464155E-3,-3.8912788E-3,-3.0158954E-3,6.064887E-4,-1.2630628E-3,-3.6082529E-3,-2.2953197E-3,-2.8051593E-4,-5.3331233E-3,-2.4187302E-3,-1.1865191E-4,-1.0239601E-3,1.8590527E-3,6.563747E-4,7.640123E-4,3.8401939E-3,-2.4053342E-4,6.737665E-4,4.138799E-3,6.3245157E-3,6.3569173E-3,1.0031076E-2,8.9150807E-4,3.8020306E-3,7.2027356E-3,5.1508965E-3,7.183338E-3,9.808137E-3,4.592435E-3,2.7702095E-3,8.817215E-3,1.1270097E-2,6.1858417E-3,7.7391625E-3,9.62196E-3,1.0702142E-2,1.1263296E-2,1.3175152E-2],"categories":[],"categories_nodes":[],"categories_segments":[],"categories_sizes":[],"default_left":[0,0,0,0,0,0,0,0,0,0,0,0,0,0,0,0,0,0,0,0,0,0,0,0,0,0,0,0,0,0,0,0,0,0,0,0,0,0,0,0,0,0,0,0,0,0,0,0,0,0,0,0,0,0,0,0,0,0,0,0,0,0,0,0,0,0,0,0,0,0,0,0,0,0,0,0,0,0,0,0,0,0,0,0,0,0,0,0,0,0,0,0,0,0,0,0,0,0,0,0,0,0,0,0,0,0,0,0,0,0,0],"id":3,"left_children":[1,3,5,7,9,11,13,15,17,19,21,23,25,27,29,-1,31,33,35,37,39,41,43,45,47,49,51,53,55,57,59,-1,-1,61,63,65,-1,67,69,71,73,75,77,79,81,83,85,87,89,91,93,95,97,99,101,103,105,107,109,-1,-1,-1,-1,-1,-1,-1,-1,-1,-1,-1,-1,-1,-1,-1,-1,-1,-1,-1,-1,-1,-1,-1,-1,-1,-1,-1,-1,-1,-1,-1,-1,-1,-1,-1,-1,-1,-1,-1,-1,-1,-1,-1,-1,-1,-1,-1,-1,-1,-1,-1,-1],"loss_changes":[5.9697144E2,8.760144E1,4.045932E1,3.9475708E0,6.8950005E0,4.037609E0,5.1743164E0,6.663513E-2,1.037323E0,7.2234344E-1,8.45538E-1,1.2658164E-1,6.693611E-1,1.3523712E0,1.0207672E0,0E0,4.2856216E-2,7.075653E-1,1.742878E-1,7.656574E-1,2.6867867E-1,1.0870845E0,1.306243E-1,5.337448E-2,1.801432E-1,6.917019E-1,5.488949E-1,7.1186066E-1,9.5771027E-1,7.403946E-1,6.079483E-2,0E0,0E0,5.96344E-1,5.9188843E-2,1.2907219E-1,0E0,2.653036E-1,1.0743618E-1,6.956005E-2,9.2292786E-2,4.6577853E-1,3.2479835E-1,5.2433312E-2,2.6995683E-1,2.0649098E-2,9.047996E-3,2.708913E-1,1.6951337E-2,3.8211632E-1,2.829628E-1,3.4267426E-1,1.11349106E-1,2.8855515E-1,3.5180688E-2,8.1066895E-1,1.4224052E-1,1.384201E-1,1.5254211E-1,0E0,0E0,0E0,0E0,0E0,0E0,0E0,0E0,0E0,0E0,0E0,0E0,0E0,0E0,0E0,0E0,0E0,0E0,0E0,0E0,0E0,0E0,0E0,0E0,0E0,0E0,0E0,0E0,0E0,0E0,0E0,0E0,0E0,0E0,0E0,0E0,0E0,0E0,0E0,0E0,0E0,0E0,0E0,0E0,0E0,0E0,0E0,0E0,0E0,0E0,0E0,0E0],"parents":[2147483647,0,0,1,1,2,2,3,3,4,4,5,5,6,6,7,7,8,8,9,9,10,10,11,11,12,12,13,13,14,14,16,16,17,17,18,18,19,19,20,20,21,21,22,22,23,23,24,24,25,25,26,26,27,27,28,28,29,29,30,30,33,33,34,34,35,35,37,37,38,38,39,39,40,40,41,41,42,42,43,43,44,44,45,45,46,46,47,47,48,48,49,49,50,50,51,51,52,52,53,53,54,54,55,55,56,56,57,57,58,58],"right_children":[2,4,6,8,10,12,14,16,18,20,22,24,26,28,30,-1,32,34,36,38,40,42,44,46,48,50,52,54,56,58,60,-1,-1,62,64,66,-1,68,70,72,74,76,78,80,82,84,86,88,90,92,94,96,98,100,102,104,106,108,110,-1,-1,-1,-1,-1,-1,-1,-1,-1,-1,-1,-1,-1,-1,-1,-1,-1,-1,-1,-1,-1,-1,-1,-1,-1,-1,-1,-1,-1,-1,-1,-1,-1,-1,-1,-1,-1,-1,-1,-1,-1,-1,-1,-1,-1,-1,-1,-1,-1,-1,-1,-1],"split_conditions":[4.359E2,2.319E2,6.591E2,7.47E1,3.668E2,4.694E2,8.99E2,6.59E1,2.069E2,1E0,1E0,4.492E2,5.23E2,7.55E2,1.03E3,-1.4107599E-2,1E0,1E0,1E0,1E0,2.98E2,1E0,4.022E2,1E0,4.629E2,5.113E2,6.422E2,7.45E2,8.54E2,1E0,1E0,-1.2333277E-2,-1.4444212E-2,1E0,1.289E2,1E0,-7.913162E-3,2.421E2,2.451E2,2.765E2,3.508E2,3.749E2,4.022E2,3.982E2,4.141E2,1E0,4.4E2,4.584E2,1E0,1E0,1E0,5.28E2,6.483E2,7.41E2,1E0,8.31E2,8.65E2,1E3,1E3,1.3104997E-2,1.583748E-2,-1.21246455E-2,-1.0623045E-2,-1.0683518E-2,-9.625464E-3,-1.0271151E-2,-8.492345E-3,-5.6077E-3,-3.4493492E-3,-7.1454556E-3,-5.30389E-3,-6.2540914E-3,-7.61176E-3,-5.464155E-3,-3.8912788E-3,-3.0158954E-3,6.064887E-4,-1.2630628E-3,-3.6082529E-3,-2.2953197E-3,-2.8051593E-4,-5.3331233E-3,-2.4187302E-3,-1.1865191E-4,-1.0239601E-3,1.8590527E-3,6.563747E-4,7.640123E-4,3.8401939E-3,-2.4053342E-4,6.737665E-4,4.138799E-3,6.3245157E-3,6.3569173E-3,1.0031076E-2,8.9150807E-4,3.8020306E-3,7.2027356E-3,5.1508965E-3,7.183338E-3,9.808137E-3,4.592435E-3,2.7702095E-3,8.817215E-3,1.1270097E-2,6.1858417E-3,7.7391625E-3,9.62196E-3,1.0702142E-2,1.1263296E-2,1.3175152E-2],"split_indices":[0,0,0,0,0,0,0,0,0,3,3,0,0,0,0,0,4,5,5,4,0,4,0,5,0,0,0,0,0,4,4,0,0,6,0,6,0,0,0,0,0,0,0,0,0,4,0,0,3,5,6,0,0,0,6,0,0,0,0,0,0,0,0,0,0,0,0,0,0,0,0,0,0,0,0,0,0,0,0,0,0,0,0,0,0,0,0,0,0,0,0,0,0,0,0,0,0,0,0,0,0,0,0,0,0,0,0,0,0,0,0],"split_type":[0,0,0,0,0,0,0,0,0,0,0,0,0,0,0,0,0,0,0,0,0,0,0,0,0,0,0,0,0,0,0,0,0,0,0,0,0,0,0,0,0,0,0,0,0,0,0,0,0,0,0,0,0,0,0,0,0,0,0,0,0,0,0,0,0,0,0,0,0,0,0,0,0,0,0,0,0,0,0,0,0,0,0,0,0,0,0,0,0,0,0,0,0,0,0,0,0,0,0,0,0,0,0,0,0,0,0,0,0,0,0],"sum_hessian":[2.7739E4,1.2879E4,1.486E4,6.938E3,5.941E3,6.287E3,8.573E3,1.63E3,5.308E3,3.584E3,2.357E3,8.85E2,5.402E3,5.426E3,3.147E3,1.313E3,3.17E2,4.441E3,8.67E2,2.468E3,1.116E3,1.629E3,7.28E2,3.43E2,5.42E2,1.605E3,3.797E3,1.953E3,3.473E3,2.914E3,2.33E2,2.35E2,8.2E1,3.528E3,9.13E2,6.86E2,1.81E2,1.567E3,9.01E2,5.63E2,5.53E2,1.036E3,5.93E2,3.76E2,3.52E2,2.72E2,7.1E1,3.09E2,2.33E2,1.267E3,3.38E2,3.464E3,3.33E2,1.738E3,2.15E2,2.38E3,1.093E3,2.113E3,8.01E2,1.71E2,6.2E1,2.517E3,1.011E3,3.83E2,5.3E2,5.08E2,1.78E2,1.61E2,1.406E3,9.8E1,8.03E2,3.95E2,1.68E2,4.16E2,1.37E2,9.7E1,9.39E2,3.02E2,2.91E2,3.4E2,3.6E1,1.24E2,2.28E2,1.74E2,9.8E1,2.4E1,4.7E1,1.97E2,1.12E2,1.6E2,7.3E1,1.012E3,2.55E2,2.68E2,7E1,1.05E2,3.359E3,1.1E2,2.23E2,1.618E3,1.2E2,1.77E2,3.8E1,1.953E3,4.27E2,2.1E2,8.83E2,1.617E3,4.96E2,6.18E2,1.83E2],"tree_param":{"num_deleted":"0","num_feature":"7","num_nodes":"111","size_leaf_vector":"1"}},{"base_weights":[-1.5625888E-3,-1.4763035E-1,1.3205639E-1,-2.2344555E-1,-6.3687995E-2,2.0182075E-1,6.378002E-2,-2.6309797E-1,-2.1136464E-1,5.7730167E-3,-9.291786E-2,1.5224127E-1,2.3247786E-1,4.6643014E-3,1.0668346E-1,-1.4021325E-2,-2.5662616E-1,-2.1762303E-1,-1.784259E-1,-2.4595223E-2,3.699414E-2,-1.269356E-1,-6.392622E-2,1.7285234E-1,6.499227E-2,2.5249872E-1,1.93335E-1,4.4046104E-2,-2.0758035E-3,7.524356E-2,1.2164376E-1,-2.46583E-1,-2.642943E-1,-1.9851181E-1,-2.2324638E-1,-1.9963294E-1,-1.1486207E-1,-3.908136E-3,-6.6553615E-2,2.0930786E-2,9.3548E-2,-7.58543E-2,-1.3224658E-1,-7.3195204E-2,-4.273584E-2,1.8829566E-1,1.4168958E-1,9.9993765E-2,3.305255E-2,2.302597E-1,2.7097267E-1,1.627143E-1,2.4628901E-1,4.7371488E-2,-1.7317042E-1,-1.1211391E-2,2.105412E-2,1.1068428E-1,4.8848867E-2,1.1861009E-1,2.1854146E-1,-1.2420903E-2,-3.6864143E-3,-1.40508115E-2,-1.2880611E-2,-9.1793975E-3,-1.1976104E-2,-1.1806598E-2,-1.0714993E-2,-9.768635E-3,-1.1920928E-2,-2.37498E-3,-6.6856775E-3,1.2861103E-3,-2.5373367E-3,-2.847632E-3,-5.7285656E-3,3.8281118E-3,2.6623014E-4,5.1115747E-3,-2.659176E-3,-5.9336205E-3,1.8676622E-3,-7.295327E-3,-5.3838817E-3,-2.1622942E-3,-4.788087E-3,8.23669E-3,-2.6397498E-3,6.1048726E-3,9.68957E-3,4.6739127E-3,7.5684064E-3,2.4543868E-3,7.01461E-3,1.1144046E-3,1.0329097E-2,1.1824357E-2,7.797163E-3,1.2970718E-2,1.5049835E-2,6.3758935E-3,9.196288E-3,1.1174135E-2,1.4197382E-2,2.1591922E-3,1.04143275E-2,9.47007E-3,-1.3258298E-2,1.6399921E-4,-2.1329767E-3,1.2039241E-4,5.045593E-3,6.1108563E-3,9.1585575E-4,2.2805352E-5,4.4823657E-3,7.1109417E-3,5.535696E-3,1.4271925E-2,7.5623873E-3],"categories":[],"categories_nodes":[],"categories_segments":[],"categories_sizes":[],"default_left":[0,0,0,0,0,0,0,0,0,0,0,0,0,0,0,0,0,0,0,0,0,0,0,0,0,0,0,0,0,0,0,0,0,0,0,0,0,0,0,0,0,0,0,0,0,0,0,0,0,0,0,0,0,0,0,0,0,0,0,0,0,0,0,0,0,0,0,0,0,0,0,0,0,0,0,0,0,0,0,0,0,0,0,0,0,0,0,0,0,0,0,0,0,0,0,0,0,0,0,0,0,0,0,0,0,0,0,0,0,0,0,0,0,0,0,0,0,0,0,0,0],"id":4,"left_children":[1,3,5,7,9,11,13,15,17,19,21,23,25,27,29,-1,31,33,35,37,39,41,43,45,47,49,51,53,55,57,59,61,63,65,67,69,71,73,75,77,79,81,83,85,87,89,91,93,95,97,99,101,103,105,107,109,111,113,115,117,119,-1,-1,-1,-1,-1,-1,-1,-1,-1,-1,-1,-1,-1,-1,-1,-1,-1,-1,-1,-1,-1,-1,-1,-1,-1,-1,-1,-1,-1,-1,-1,-1,-1,-1,-1,-1,-1,-1,-1,-1,-1,-1,-1,-1,-1,-1,-1,-1,-1,-1,-1,-1,-1,-1,-1,-1,-1,-1,-1,-1],"loss_changes":[5.41101E2,8.427835E1,6.8954346E1,3.2780151E0,1.2765257E1,1.084906E1,1.8562447E1,1.09825134E-1,1.0617828E0,1.7672771E0,4.355953E0,4.914295E0,3.417389E0,8.1737345E-1,1.9856033E0,0E0,2.6618958E-2,4.373474E-1,1.1336575E0,8.1999695E-1,8.3290267E-1,5.420494E-1,4.664955E-1,1.0393066E0,5.8361244E-1,1.138504E0,2.3937798E0,3.3325088E-1,5.5596936E-1,1.276156E0,8.183174E-1,1.5011597E-1,1.5830994E-3,5.8519745E-1,3.4770203E-1,5.949974E-2,2.692132E-1,8.811981E-1,1.3731217E-1,6.2208784E-1,2.640878E-1,9.448154E-1,6.0248566E-1,1.1191254E0,1.532185E0,5.140419E-1,3.302126E-1,5.0597167E-1,5.109496E-1,5.8003235E-1,4.7403717E-1,6.887722E-1,4.0719604E-1,2.9019696E-1,2.837077E-1,8.5964066E-1,1.1090986E0,6.198716E-1,1.5537719E0,5.0380325E-1,3.439784E-1,0E0,0E0,0E0,0E0,0E0,0E0,0E0,0E0,0E0,0E0,0E0,0E0,0E0,0E0,0E0,0E0,0E0,0E0,0E0,0E0,0E0,0E0,0E0,0E0,0E0,0E0,0E0,0E0,0E0,0E0,0E0,0E0,0E0,0E0,0E0,0E0,0E0,0E0,0E0,0E0,0E0,0E0,0E0,0E0,0E0,0E0,0E0,0E0,0E0,0E0,0E0,0E0,0E0,0E0,0E0,0E0,0E0,0E0,0E0,0E0],"parents":[2147483647,0,0,1,1,2,2,3,3,4,4,5,5,6,6,7,7,8,8,9,9,10,10,11,11,12,12,13,13,14,14,16,16,17,17,18,18,19,19,20,20,21,21,22,22,23,23,24,24,25,25,26,26,27,27,28,28,29,29,30,30,31,31,32,32,33,33,34,34,35,35,36,36,37,37,38,38,39,39,40,40,41,41,42,42,43,43,44,44,45,45,46,46,47,47,48,48,49,49,50,50,51,51,52,52,53,53,54,54,55,55,56,56,57,57,58,58,59,59,60,60],"right_children":[2,4,6,8,10,12,14,16,18,20,22,24,26,28,30,-1,32,34,36,38,40,42,44,46,48,50,52,54,56,58,60,62,64,66,68,70,72,74,76,78,80,82,84,86,88,90,92,94,96,98,100,102,104,106,108,110,112,114,116,118,120,-1,-1,-1,-1,-1,-1,-1,-1,-1,-1,-1,-1,-1,-1,-1,-1,-1,-1,-1,-1,-1,-1,-1,-1,-1,-1,-1,-1,-1,-1,-1,-1,-1,-1,-1,-1,-1,-1,-1,-1,-1,-1,-1,-1,-1,-1,-1,-1,-1,-1,-1,-1,-1,-1,-1,-1,-1,-1,-1,-1],"split_conditions":[4.492E2,2.319E2,9.25E0,7.47E1,8.75E-1,6.53E2,6.53E2,3.67E1,2.069E2,3.633E2,3.393E2,1.875E0,1E0,1.9E1,7.79E2,-1.4021325E-2,7.4875E1,6.25E-1,8.7E1,1E0,1E0,6.125E0,9.775E1,1E0,5.494E2,8.13E2,9.23E2,6.483E2,9.8875E1,4.0625E1,1.03E3,7.4E1,9.4375E1,1E0,1.289E2,6.7375E1,9.8125E1,1E0,3.393E2,3.875E2,5E-1,5E0,2.98E2,2.9875E1,9.8625E1,4.694E2,4.869E2,4.91E2,6.483E2,2.5E-1,1E0,7.72E2,1.005E3,6.335E2,1.3125E1,7.275E1,5.945E2,7.72E2,9.075E1,2.1125E1,4.5E1,-1.2420903E-2,-3.6864143E-3,-1.40508115E-2,-1.2880611E-2,-9.1793975E-3,-1.1976104E-2,-1.1806598E-2,-1.0714993E-2,-9.768635E-3,-1.1920928E-2,-2.37498E-3,-6.6856775E-3,1.2861103E-3,-2.5373367E-3,-2.847632E-3,-5.7285656E-3,3.8281118E-3,2.6623014E-4,5.1115747E-3,-2.659176E-3,-5.9336205E-3,1.8676622E-3,-7.295327E-3,-5.3838817E-3,-2.1622942E-3,-4.788087E-3,8.23669E-3,-2.6397498E-3,6.1048726E-3,9.68957E-3,4.6739127E-3,7.5684064E-3,2.4543868E-3,7.01461E-3,1.1144046E-3,1.0329097E-2,1.1824357E-2,7.797163E-3,1.2970718E-2,1.5049835E-2,6.3758935E-3,9.196288E-3,1.1174135E-2,1.4197382E-2,2.1591922E-3,1.04143275E-2,9.47007E-3,-1.3258298E-2,1.6399921E-4,-2.1329767E-3,1.2039241E-4,5.045593E-3,6.1108563E-3,9.1585575E-4,2.2805352E-5,4.4823657E-3,7.1109417E-3,5.535696E-3,1.4271925E-2,7.5623873E-3],"split_indices":[0,0,2,0,2,0,0,0,0,0,0,2,2,2,0,0,2,2,2,3,6,2,2,3,0,0,0,0,2,2,0,2,2,4,0,2,2,4,0,0,2,2,0,2,2,0,0,0,0,2,4,0,0,0,2,2,0,0,2,2,2,0,0,0,0,0,0,0,0,0,0,0,0,0,0,0,0,0,0,0,0,0,0,0,0,0,0,0,0,0,0,0,0,0,0,0,0,0,0,0,0,0,0,0,0,0,0,0,0,0,0,0,0,0,0,0,0,0,0,0,0],"split_type":[0,0,0,0,0,0,0,0,0,0,0,0,0,0,0,0,0,0,0,0,0,0,0,0,0,0,0,0,0,0,0,0,0,0,0,0,0,0,0,0,0,0,0,0,0,0,0,0,0,0,0,0,0,0,0,0,0,0,0,0,0,0,0,0,0,0,0,0,0,0,0,0,0,0,0,0,0,0,0,0,0,0,0,0,0,0,0,0,0,0,0,0,0,0,0,0,0,0,0,0,0,0,0,0,0,0,0,0,0,0,0,0,0,0,0,0,0,0,0,0,0],"sum_hessian":[2.7722E4,1.3244E4,1.4478E4,6.958E3,6.286E3,7.16E3,7.318E3,1.62E3,5.338E3,1.862E3,4.424E3,2.738E3,4.422E3,3.078E3,4.24E3,4.29E2,1.191E3,4.481E3,8.57E2,9.44E2,9.18E2,2.034E3,2.39E3,2.214E3,5.24E2,2.922E3,1.5E3,4.49E2,2.629E3,1.369E3,2.871E3,5.3E2,6.61E2,1.027E3,3.454E3,6.41E2,2.16E2,6.33E2,3.11E2,7.16E2,2.02E2,1.93E2,1.841E3,1.661E3,7.29E2,1.477E3,7.37E2,2.49E2,2.75E2,1.332E3,1.59E3,9.53E2,5.47E2,4.43E2,6E0,1.885E3,7.44E2,5.83E2,7.86E2,2.786E3,8.5E1,5.24E2,6E0,1.77E2,4.84E2,7.57E2,2.7E2,1.405E3,2.049E3,5.83E2,5.8E1,4.8E1,1.68E2,3.88E2,2.45E2,2.61E2,5E1,1.56E2,5.6E2,1.91E2,1.1E1,1.4E2,5.3E1,1.18E3,6.61E2,7.15E2,9.46E2,3.3E1,6.96E2,1.15E2,1.362E3,1.25E2,6.12E2,1.11E2,1.38E2,2.6E2,1.5E1,1.227E3,1.05E2,1.155E3,4.35E2,3.61E2,5.92E2,3.45E2,2.02E2,4.33E2,1E1,1E0,5E0,1.291E3,5.94E2,6.04E2,1.4E2,5.18E2,6.5E1,3.6E2,4.26E2,6.94E2,2.092E3,4.1E1,4.4E1],"tree_param":{"num_deleted":"0","num_feature":"7","num_nodes":"121","size_leaf_vector":"1"}},{"base_weights":[6.3741254E-4,7.473997E-2,-6.8341926E-2,8.6568475E-2,3.23858E-2,-3.9639458E-2,-8.813869E-2,9.804379E-2,6.3261986E-2,4.6753515E-2,2.1199036E-2,-2.8655238E-2,-5.2342035E-2,-9.22009E-2,-7.2872244E-2,1.03454456E-1,7.752178E-2,6.5922156E-2,5.1822912E-2,3.7897397E-2,8.826788E-2,-8.89599E-3,2.396976E-2,-3.054834E-2,6.204288E-2,-8.345132E-2,-4.9285047E-2,-8.723495E-2,-9.958177E-2,-8.3796814E-2,-7.0092425E-2,5.6685433E-3,8.896743E-2,2.0972583E-2,8.162816E-2,3.2568716E-3,4.2208037E-3,-1.507701E-3,5.6054838E-2,4.487023E-2,-5.699385E-2,1.7345367E-1,5.406937E-2,1.1898751E-2,-5.164826E-2,3.5149712E-2,1.3078857E-2,-2.8520258E-2,-1.07716575E-1,6.787494E-2,1.7974655E-3,-7.048658E-2,-6.376131E-3,3.1621877E-2,-5.2088078E-2,-8.09101E-2,-9.322401E-2,-8.210315E-2,-1.0067025E-1,-7.602143E-2,-1.3653515E-1,-6.2694825E-2,-3.713194E-3,4.4200527E-3,4.994569E-3,7.346314E-4,1.6733933E-3,3.9627324E-3,4.8809974E-3,2.1155728E-3,3.5889042E-3,1.9026774E-3,5.8888867E-3,-1.9393432E-3,-4.7443933E-3,1.0083475E-2,4.8006265E-3,3.3483703E-3,8.102385E-5,-1.7554093E-3,2.192632E-3,-3.2526774E-3,-1.5405647E-4,1.0692849E-3,3.9968765E-3,-2.3946003E-3,1.0930124E-3,-1.7226331E-3,2.5929278E-4,-6.072053E-3,-3.2013976E-3,3.8956203E-3,2.4673806E-3,-4.4069174E-3,-1.8382807E-3,1.2327371E-3,2.5674622E-3,-2.283129E-3,-3.4236994E-3,-4.838093E-3,-3.426913E-3,-4.9134064E-3,-4.4162627E-3,-5.6823133E-3,-3.5505723E-3,-5.60829E-3,-4.926741E-3,-3.012523E-3,-4.2372434E-3,-8.622966E-3,-5.9920154E-3,-3.5652195E-3,-2.0908804E-3],"categories":[],"categories_nodes":[],"categories_segments":[],"categories_sizes":[],"default_left":[0,0,0,0,0,0,0,0,0,0,0,0,0,0,0,0,0,0,0,0,0,0,0,0,0,0,0,0,0,0,0,0,0,0,0,0,0,0,0,0,0,0,0,0,0,0,0,0,0,0,0,0,0,0,0,0,0,0,0,0,0,0,0,0,0,0,0,0,0,0,0,0,0,0,0,0,0,0,0,0,0,0,0,0,0,0,0,0,0,0,0,0,0,0,0,0,0,0,0,0,0,0,0,0,0,0,0,0,0,0,0,0,0],"id":5,"left_children":[1,3,5,7,9,11,13,15,17,19,21,23,25,27,29,31,33,35,37,39,41,43,45,47,49,51,53,55,57,59,61,-1,63,65,67,-1,-1,-1,69,71,73,75,77,79,81,83,85,87,89,91,-1,93,-1,95,97,99,101,103,105,107,109,111,-1,-1,-1,-1,-1,-1,-1,-1,-1,-1,-1,-1,-1,-1,-1,-1,-1,-1,-1,-1,-1,-1,-1,-1,-1,-1,-1,-1,-1,-1,-1,-1,-1,-1,-1,-1,-1,-1,-1,-1,-1,-1,-1,-1,-1,-1,-1,-1,-1,-1,-1],"loss_changes":[1.4246898E2,6.7289505E0,8.198715E0,2.802826E0,4.7074628E-1,8.208771E-1,5.230179E-1,7.7323914E-1,1.0211468E-1,4.6872497E-1,1.3796526E-1,5.449848E-1,2.5570202E-1,2.3846054E-1,4.8789024E-2,7.893791E-1,3.401041E-1,3.528118E-2,2.3031056E-1,7.0391834E-1,6.4609766E-1,1.2507768E-1,1.8376279E-1,4.819324E-1,7.451594E-3,1.2985492E-1,5.663409E-1,1.454525E-1,4.319763E-2,1.3724232E-1,3.981161E-2,0E0,5.1898956E-3,7.4337237E-3,4.4340134E-2,0E0,0E0,0E0,1.3245177E-1,4.8654175E-1,4.668492E-2,1.2048125E-1,1.0948244E-1,1.4423478E-1,2.9748142E-2,4.581697E-1,4.1224104E-1,6.042528E-1,3.95931E-2,5.8255047E-3,0E0,1.0985416E-1,0E0,1.0279223E-2,2.5030088E-1,3.8010788E-1,4.242134E-2,4.9307942E-2,5.1347733E-2,3.8368464E-2,6.3210726E-3,9.156346E-2,0E0,0E0,0E0,0E0,0E0,0E0,0E0,0E0,0E0,0E0,0E0,0E0,0E0,0E0,0E0,0E0,0E0,0E0,0E0,0E0,0E0,0E0,0E0,0E0,0E0,0E0,0E0,0E0,0E0,0E0,0E0,0E0,0E0,0E0,0E0,0E0,0E0,0E0,0E0,0E0,0E0,0E0,0E0,0E0,0E0,0E0,0E0,0E0,0E0,0E0,0E0],"parents":[2147483647,0,0,1,1,2,2,3,3,4,4,5,5,6,6,7,7,8,8,9,9,10,10,11,11,12,12,13,13,14,14,15,15,16,16,17,17,18,18,19,19,20,20,21,21,22,22,23,23,24,24,25,25,26,26,27,27,28,28,29,29,30,30,32,32,33,33,34,34,38,38,39,39,40,40,41,41,42,42,43,43,44,44,45,45,46,46,47,47,48,48,49,49,51,51,53,53,54,54,55,55,56,56,57,57,58,58,59,59,60,60,61,61],"right_children":[2,4,6,8,10,12,14,16,18,20,22,24,26,28,30,32,34,36,38,40,42,44,46,48,50,52,54,56,58,60,62,-1,64,66,68,-1,-1,-1,70,72,74,76,78,80,82,84,86,88,90,92,-1,94,-1,96,98,100,102,104,106,108,110,112,-1,-1,-1,-1,-1,-1,-1,-1,-1,-1,-1,-1,-1,-1,-1,-1,-1,-1,-1,-1,-1,-1,-1,-1,-1,-1,-1,-1,-1,-1,-1,-1,-1,-1,-1,-1,-1,-1,-1,-1,-1,-1,-1,-1,-1,-1,-1,-1,-1,-1,-1],"split_conditions":[1.7E1,5.25E0,6.625E1,1E0,9.25E0,3.875E1,1E0,8.75E-1,8.75E-1,8.625E0,1E1,3.8125E1,4.1E1,1E0,8.525E1,1E0,1E0,5E-1,1E0,8.375E0,8.875E0,9.75E0,1.3125E1,3.7625E1,1E0,4.0625E1,4.175E1,1E2,7.35E1,8.3E1,1E2,5.6685433E-3,5E-1,1E0,4.5E0,3.2568716E-3,4.2208037E-3,-1.507701E-3,3E0,8.125E0,1E0,1E0,1E0,9.5E0,1E0,1.25E1,1.3625E1,3.4E1,1E0,1E0,1.7974655E-3,3.9625E1,-6.376131E-3,1E0,1E0,8.6E1,1E0,6.825E1,8.7E1,7.35E1,8.35E1,9.75E1,-3.713194E-3,4.4200527E-3,4.994569E-3,7.346314E-4,1.6733933E-3,3.9627324E-3,4.8809974E-3,2.1155728E-3,3.5889042E-3,1.9026774E-3,5.8888867E-3,-1.9393432E-3,-4.7443933E-3,1.0083475E-2,4.8006265E-3,3.3483703E-3,8.102385E-5,-1.7554093E-3,2.192632E-3,-3.2526774E-3,-1.5405647E-4,1.0692849E-3,3.9968765E-3,-2.3946003E-3,1.0930124E-3,-1.7226331E-3,2.5929278E-4,-6.072053E-3,-3.2013976E-3,3.8956203E-3,2.4673806E-3,-4.4069174E-3,-1.8382807E-3,1.2327371E-3,2.5674622E-3,-2.283129E-3,-3.4236994E-3,-4.838093E-3,-3.426913E-3,-4.9134064E-3,-4.4162627E-3,-5.6823133E-3,-3.5505723E-3,-5.60829E-3,-4.926741E-3,-3.012523E-3,-4.2372434E-3,-8.622966E-3,-5.9920154E-3,-3.5652195E-3,-2.0908804E-3],"split_indices":[2,2,2,3,2,2,5,2,2,2,2,2,2,3,2,4,2,2,2,2,2,2,2,2,6,2,2,2,2,2,2,0,2,6,2,0,0,0,2,2,4,3,6,2,5,2,2,2,4,3,0,2,0,6,3,2,4,2,2,2,2,2,0,0,0,0,0,0,0,0,0,0,0,0,0,0,0,0,0,0,0,0,0,0,0,0,0,0,0,0,0,0,0,0,0,0,0,0,0,0,0,0,0,0,0,0,0,0,0,0,0,0,0],"split_type":[0,0,0,0,0,0,0,0,0,0,0,0,0,0,0,0,0,0,0,0,0,0,0,0,0,0,0,0,0,0,0,0,0,0,0,0,0,0,0,0,0,0,0,0,0,0,0,0,0,0,0,0,0,0,0,0,0,0,0,0,0,0,0,0,0,0,0,0,0,0,0,0,0,0,0,0,0,0,0,0,0,0,0,0,0,0,0,0,0,0,0,0,0,0,0,0,0,0,0,0,0,0,0,0,0,0,0,0,0,0,0,0,0],"sum_hessian":[2.787E4,1.3436E4,1.4434E4,1.0502E4,2.934E3,5.893E3,8.541E3,7.035E3,3.467E3,1.283E3,1.651E3,3.162E3,2.731E3,6.742E3,1.799E3,5.564E3,1.471E3,2.809E3,6.58E2,1.059E3,2.24E2,1.39E2,1.512E3,3.098E3,6.4E1,2.42E2,2.489E3,4.038E3,2.704E3,3.59E2,1.44E3,3.299E3,2.265E3,1E2,1.371E3,2.699E3,1.1E2,3.2E1,6.26E2,9.87E2,7.2E1,6.3E1,1.61E2,9.4E1,4.5E1,7.45E2,7.67E2,3.02E3,7.8E1,5.1E1,1.3E1,1.89E2,5.3E1,8.3E1,2.406E3,1.971E3,2.067E3,1.63E2,2.541E3,3.15E2,4.4E1,5.25E2,9.15E2,2.162E3,1.03E2,6.8E1,3.2E1,1.199E3,1.72E2,3.36E2,2.9E2,9.04E2,8.3E1,5E1,2.2E1,4.5E1,1.8E1,1.29E2,3.2E1,3.8E1,5.6E1,3.5E1,1E1,5.71E2,1.74E2,9.6E1,6.71E2,2.568E3,4.52E2,5.8E1,2E1,3.1E1,2E1,1.23E2,6.6E1,6.3E1,2E1,1.731E3,6.75E2,8.61E2,1.11E3,1.009E3,1.058E3,4E1,1.23E2,3.9E2,2.151E3,1.15E2,2E2,1.1E1,3.3E1,3.7E2,1.55E2],"tree_param":{"num_deleted":"0","num_feature":"7","num_nodes":"113","size_leaf_vector":"1"}},{"base_weights":[2.9886054E-4,-1.0347541E-1,1.685375E-2,-2.1050091E-1,-6.629659E-2,2.3036005E-2,3.6766515E-3,-2.5663555E-1,-1.972598E-1,-8.76705E-2,-5.499547E-2,-2.5693E-4,2.5613664E-2,-1.0537049E-3,2.597871E-2,-1.3352285E-2,-1.0568696E-2,-1.0520849E-2,-1.7860378E-1,-7.970776E-2,-1.1475801E-1,-5.063279E-2,-6.076595E-3,7.619585E-3,-1.9594235E-2,3.7172295E-2,1.7057387E-2,-2.8259639E-2,2.0084756E-3,2.1286253E-2,3.5497155E-2,-1.8545872E-1,-1.4612094E-1,-8.558219E-2,-4.163406E-2,-1.0208574E-1,-8.009875E-3,-4.3457363E-2,-6.2322233E-2,-2.0651196E-3,1.4596243E-2,7.0378095E-2,-3.0284025E-2,4.3950412E-2,2.5462383E-2,-4.5186996E-2,1.7669762E-2,1.4726114E-3,-3.0870942E-2,1.2051271E-2,-5.494705E-3,2.6456762E-2,-9.581169E-3,5.0862767E-2,1.5360142E-2,-9.65841E-3,-8.38211E-3,-9.173997E-3,-6.0960227E-3,-4.848361E-3,-3.9873137E-3,-9.962824E-4,-5.428364E-3,-4.332067E-3,-6.499303E-3,-3.0234444E-3,-1.2893666E-3,-2.7767473E-3,-4.2180875E-3,4.3892392E-4,-1.984869E-3,5.472386E-3,2.6136517E-4,4.796921E-3,2.154701E-3,-2.0589388E-3,-3.2733032E-4,4.194717E-3,2.0864818E-3,-1.0254461E-3,1.5480955E-3,-2.5215524E-3,-1.5976233E-3,1.3312851E-3,7.131486E-4,-1.3058853E-3,-2.8794303E-3,-9.5044285E-5,1.1436774E-3,-1.0245609E-3,-8.90546E-5,1.0034478E-3,2.9843382E-3,-1.547445E-4,-1.1713727E-3,3.0780572E-3,1.9921537E-3,-4.1096853E-4,1.393794E-3],"categories":[],"categories_nodes":[],"categories_segments":[],"categories_sizes":[],"default_left":[0,0,0,0,0,0,0,0,0,0,0,0,0,0,0,0,0,0,0,0,0,0,0,0,0,0,0,0,0,0,0,0,0,0,0,0,0,0,0,0,0,0,0,0,0,0,0,0,0,0,0,0,0,0,0,0,0,0,0,0,0,0,0,0,0,0,0,0,0,0,0,0,0,0,0,0,0,0,0,0,0,0,0,0,0,0,0,0,0,0,0,0,0,0,0,0,0,0,0],"id":6,"left_children":[1,3,5,7,9,11,13,15,17,19,21,23,25,27,29,-1,-1,-1,31,33,35,37,-1,39,41,43,45,47,49,51,53,55,57,59,61,63,-1,65,67,69,71,73,75,77,79,81,83,-1,85,87,89,91,93,95,97,-1,-1,-1,-1,-1,-1,-1,-1,-1,-1,-1,-1,-1,-1,-1,-1,-1,-1,-1,-1,-1,-1,-1,-1,-1,-1,-1,-1,-1,-1,-1,-1,-1,-1,-1,-1,-1,-1,-1,-1,-1,-1,-1,-1],"loss_changes":[4.7438374E1,1.5102573E1,1.9399037E0,5.474243E-1,6.7658806E-1,9.732151E-1,8.0243516E-1,4.4857025E-2,1.5019417E-1,2.0093584E-1,5.3027916E-1,2.4628316E-1,1.4426956E0,5.229071E-1,5.869335E-2,0E0,0E0,0E0,4.4822693E-2,1.6552544E-1,1.09751225E-1,1.429019E-1,0E0,7.76645E-2,4.522469E-1,4.915371E-1,3.205223E-1,9.660578E-2,4.2520735E-1,1.429362E-1,1.3474357E-1,3.742218E-3,3.278041E-2,3.571987E-2,1.4749716E-1,6.371498E-2,0E0,3.227818E-1,9.374404E-2,1.9703777E-1,5.930513E-1,3.0735105E-2,1.0808936E-1,3.4511614E-1,5.7656E-1,4.079595E-3,2.5307488E-1,0E0,7.5709164E-2,3.643922E-1,1.798462E-1,1.6139847E-1,1.1513097E-2,2.6784658E-2,5.659609E-2,0E0,0E0,0E0,0E0,0E0,0E0,0E0,0E0,0E0,0E0,0E0,0E0,0E0,0E0,0E0,0E0,0E0,0E0,0E0,0E0,0E0,0E0,0E0,0E0,0E0,0E0,0E0,0E0,0E0,0E0,0E0,0E0,0E0,0E0,0E0,0E0,0E0,0E0,0E0,0E0,0E0,0E0,0E0,0E0],"parents":[2147483647,0,0,1,1,2,2,3,3,4,4,5,5,6,6,7,7,8,8,9,9,10,10,11,11,12,12,13,13,14,14,18,18,19,19,20,20,21,21,23,23,24,24,25,25,26,26,27,27,28,28,29,29,30,30,31,31,32,32,33,33,34,34,35,35,37,37,38,38,39,39,40,40,41,41,42,42,43,43,44,44,45,45,46,46,48,48,49,49,50,50,51,51,52,52,53,53,54,54],"right_children":[2,4,6,8,10,12,14,16,18,20,22,24,26,28,30,-1,-1,-1,32,34,36,38,-1,40,42,44,46,48,50,52,54,56,58,60,62,64,-1,66,68,70,72,74,76,78,80,82,84,-1,86,88,90,92,94,96,98,-1,-1,-1,-1,-1,-1,-1,-1,-1,-1,-1,-1,-1,-1,-1,-1,-1,-1,-1,-1,-1,-1,-1,-1,-1,-1,-1,-1,-1,-1,-1,-1,-1,-1,-1,-1,-1,-1,-1,-1,-1,-1,-1,-1],"split_conditions":[2.7593976E2,2.6964325E2,1E0,2.6407895E2,2.722743E2,2.7926028E2,3.0269458E2,1E0,2.6827393E2,2.7183344E2,2.7576514E2,1E0,2.909734E2,2.7926028E2,3.0626404E2,-1.3352285E-2,-1.0568696E-2,-1.0520849E-2,1E0,2.7153577E2,1E0,2.7465118E2,-6.076595E-3,2.7744116E2,2.7631332E2,1E0,2.9107953E2,2.7613147E2,2.9034766E2,3.0574615E2,3.074562E2,1E0,2.6878918E2,2.702906E2,1E0,1E0,-8.009875E-3,2.7343442E2,1E0,2.7714645E2,2.775717E2,2.7613147E2,2.783201E2,2.7991608E2,2.8079474E2,1E0,2.9503418E2,1.4726114E-3,2.7876004E2,2.8445227E2,2.926482E2,3.0518985E2,3.061027E2,3.0679807E2,3.0806357E2,-9.65841E-3,-8.38211E-3,-9.173997E-3,-6.0960227E-3,-4.848361E-3,-3.9873137E-3,-9.962824E-4,-5.428364E-3,-4.332067E-3,-6.499303E-3,-3.0234444E-3,-1.2893666E-3,-2.7767473E-3,-4.2180875E-3,4.3892392E-4,-1.984869E-3,5.472386E-3,2.6136517E-4,4.796921E-3,2.154701E-3,-2.0589388E-3,-3.2733032E-4,4.194717E-3,2.0864818E-3,-1.0254461E-3,1.5480955E-3,-2.5215524E-3,-1.5976233E-3,1.3312851E-3,7.131486E-4,-1.3058853E-3,-2.8794303E-3,-9.5044285E-5,1.1436774E-3,-1.0245609E-3,-8.90546E-5,1.0034478E-3,2.9843382E-3,-1.547445E-4,-1.1713727E-3,3.0780572E-3,1.9921537E-3,-4.1096853E-4,1.393794E-3],"split_indices":[1,1,3,1,1,1,1,5,1,1,1,4,1,1,1,0,0,0,5,1,4,1,0,1,1,4,1,1,1,1,1,6,1,1,4,3,0,1,4,1,1,1,1,1,1,5,1,0,1,1,1,1,1,1,1,0,0,0,0,0,0,0,0,0,0,0,0,0,0,0,0,0,0,0,0,0,0,0,0,0,0,0,0,0,0,0,0,0,0,0,0,0,0,0,0,0,0,0,0],"split_type":[0,0,0,0,0,0,0,0,0,0,0,0,0,0,0,0,0,0,0,0,0,0,0,0,0,0,0,0,0,0,0,0,0,0,0,0,0,0,0,0,0,0,0,0,0,0,0,0,0,0,0,0,0,0,0,0,0,0,0,0,0,0,0,0,0,0,0,0,0,0,0,0,0,0,0,0,0,0,0,0,0,0,0,0,0,0,0,0,0,0,0,0,0,0,0,0,0,0,0],"sum_hessian":[2.7611E4,3.798E3,2.3813E4,9.78E2,2.82E3,1.6208E4,7.605E3,2.14E2,7.64E2,9.73E2,1.847E3,1.615E3,1.4593E4,6.275E3,1.33E3,1.7E2,4.4E1,4.42E2,3.22E2,7.55E2,2.18E2,1.735E3,1.12E2,1.148E3,4.67E2,6.206E3,8.387E3,6.34E2,5.641E3,8.93E2,4.37E2,2.62E2,6E1,6.53E2,1.02E2,1.73E2,4.5E1,1.078E3,6.57E2,4.81E2,6.67E2,4.9E1,4.18E2,3.929E3,2.277E3,8.1E1,8.306E3,2.7E1,6.07E2,2.412E3,3.229E3,7.65E2,1.28E2,2.47E2,1.9E2,1.76E2,8.6E1,2.1E1,3.9E1,2.16E2,4.37E2,7.8E1,2.4E1,1.14E2,5.9E1,5.48E2,5.3E2,5.05E2,1.52E2,3.74E2,1.07E2,5.9E1,6.08E2,2.4E1,2.5E1,2.86E2,1.32E2,2.05E2,3.724E3,2.43E2,2.034E3,5.6E1,2.5E1,2.287E3,6.019E3,5.17E2,9E1,1.054E3,1.358E3,6.4E2,2.589E3,6.43E2,1.22E2,8.8E1,4E1,1.23E2,1.24E2,6.6E1,1.24E2],"tree_param":{"num_deleted":"0","num_feature":"7","num_nodes":"99","size_leaf_vector":"1"}},{"base_weights":[-3.4527668E-5,-1.3775624E-1,1.24723814E-1,-2.0832247E-1,-6.0109247E-2,1.8703796E-1,6.0544234E-2,-2.4554999E-1,-1.9694574E-1,1.6343859E-3,-8.672374E-2,1.3511726E-1,2.1767661E-1,1.2153317E-2,1.00225136E-1,-1.2839111E-2,-2.41045E-1,-2.020536E-1,-1.5987581E-1,-1.4018342E-2,5.697672E-2,-1.14198014E-1,-5.7494037E-2,1.574351E-1,5.182591E-2,2.3542123E-1,1.8830839E-1,2.5923869E-2,-1.3551535E-3,8.659059E-2,1.2545842E-1,-2.6143876E-1,-2.3671901E-1,-2.0766078E-1,-1.8004248E-1,-1.8333079E-1,-7.884984E-2,-3.741849E-2,5.2510954E-2,3.390005E-2,8.078858E-2,-1.2527199E-1,-9.9107146E-2,-6.687885E-2,-3.4409747E-2,8.7075345E-2,1.6349891E-1,1.0688947E-1,1.9037334E-2,2.1261498E-1,2.5508666E-1,1.64478E-1,2.311687E-1,1.9069536E-2,1.6151665E-1,-3.4466777E-2,1.869512E-2,7.301973E-2,1.15432724E-1,1.710457E-1,1.13301024E-1,-1.23401545E-2,-1.4512784E-2,-1.0050461E-2,-1.2072426E-2,-1.0837785E-2,-9.180235E-3,-7.290818E-3,-9.452715E-3,-8.812851E-3,-1.1485633E-2,-3.07955E-3,-5.7702656E-3,-2.366192E-3,4.112247E-3,8.378704E-4,4.418172E-3,2.5198113E-3,-1.6436512E-3,3.4583644E-3,6.502048E-3,-3.30809E-3,-6.563607E-3,-6.2243156E-3,-3.0090513E-3,-2.0648825E-3,-4.2934907E-3,6.9939303E-3,-2.2398094E-3,4.032619E-3,1.2673834E-2,1.010552E-2,7.233041E-3,4.621091E-3,1.6340552E-2,-3.088459E-3,1.3482107E-3,1.0957784E-2,6.258338E-3,1.2178307E-2,1.4173969E-2,6.9592195E-3,8.918861E-3,1.1811863E-2,5.003697E-3,8.359565E-4,5.3013945E-3,1.2693283E-2,5.3285435E-3,-1.2541964E-4,-3.1493176E-3,1.592212E-4,2.7162137E-3,2.00426E-3,4.4782935E-3,9.021684E-3,5.111273E-3,7.2563267E-3,1.1577218E-2,3.037737E-3,6.179142E-3],"categories":[],"categories_nodes":[],"categories_segments":[],"categories_sizes":[],"default_left":[0,0,0,0,0,0,0,0,0,0,0,0,0,0,0,0,0,0,0,0,0,0,0,0,0,0,0,0,0,0,0,0,0,0,0,0,0,0,0,0,0,0,0,0,0,0,0,0,0,0,0,0,0,0,0,0,0,0,0,0,0,0,0,0,0,0,0,0,0,0,0,0,0,0,0,0,0,0,0,0,0,0,0,0,0,0,0,0,0,0,0,0,0,0,0,0,0,0,0,0,0,0,0,0,0,0,0,0,0,0,0,0,0,0,0,0,0,0,0,0,0],"id":7,"left_children":[1,3,5,7,9,11,13,15,17,19,21,23,25,27,29,-1,31,33,35,37,39,41,43,45,47,49,51,53,55,57,59,61,63,65,67,69,71,73,75,77,79,81,83,85,87,89,91,93,95,97,99,101,103,105,107,109,111,113,115,117,119,-1,-1,-1,-1,-1,-1,-1,-1,-1,-1,-1,-1,-1,-1,-1,-1,-1,-1,-1,-1,-1,-1,-1,-1,-1,-1,-1,-1,-1,-1,-1,-1,-1,-1,-1,-1,-1,-1,-1,-1,-1,-1,-1,-1,-1,-1,-1,-1,-1,-1,-1,-1,-1,-1,-1,-1,-1,-1,-1,-1],"loss_changes":[4.7731412E2,7.233559E1,5.8282394E1,2.8811646E0,1.0333059E1,1.1734436E1,1.3789623E1,1.9821167E-2,9.7180176E-1,1.6423587E0,3.5220985E0,5.098194E0,2.3783875E0,6.0217893E-1,1.3467331E0,0E0,4.1244507E-2,5.373688E-1,1.2151451E0,2.3029082E0,2.269516E-1,3.6593628E-1,4.5936155E-1,9.098854E-1,1.0487404E0,1.2437134E0,1.7555199E0,1.4867452E0,1.0861162E0,9.955425E-1,7.4655724E-1,1.0607719E-2,1.1613464E-1,7.7082825E-1,2.663746E-1,1.2388611E-1,8.5635126E-2,1.3006194E0,4.920329E-1,2.373777E-1,1.0834277E-1,4.530964E-1,9.438667E-1,7.319727E-1,1.1249917E0,1.6552627E-1,1.4204025E0,6.602354E-1,2.3610444E-1,7.424431E-1,4.3763733E-1,3.7314034E-1,3.9164352E-1,3.1032693E-1,3.6365795E-1,5.622002E-1,5.6296E-1,9.484186E-1,6.846552E-1,4.1956997E-1,5.8354664E-1,0E0,0E0,0E0,0E0,0E0,0E0,0E0,0E0,0E0,0E0,0E0,0E0,0E0,0E0,0E0,0E0,0E0,0E0,0E0,0E0,0E0,0E0,0E0,0E0,0E0,0E0,0E0,0E0,0E0,0E0,0E0,0E0,0E0,0E0,0E0,0E0,0E0,0E0,0E0,0E0,0E0,0E0,0E0,0E0,0E0,0E0,0E0,0E0,0E0,0E0,0E0,0E0,0E0,0E0,0E0,0E0,0E0,0E0,0E0,0E0],"parents":[2147483647,0,0,1,1,2,2,3,3,4,4,5,5,6,6,7,7,8,8,9,9,10,10,11,11,12,12,13,13,14,14,16,16,17,17,18,18,19,19,20,20,21,21,22,22,23,23,24,24,25,25,26,26,27,27,28,28,29,29,30,30,31,31,32,32,33,33,34,34,35,35,36,36,37,37,38,38,39,39,40,40,41,41,42,42,43,43,44,44,45,45,46,46,47,47,48,48,49,49,50,50,51,51,52,52,53,53,54,54,55,55,56,56,57,57,58,58,59,59,60,60],"right_children":[2,4,6,8,10,12,14,16,18,20,22,24,26,28,30,-1,32,34,36,38,40,42,44,46,48,50,52,54,56,58,60,62,64,66,68,70,72,74,76,78,80,82,84,86,88,90,92,94,96,98,100,102,104,106,108,110,112,114,116,118,120,-1,-1,-1,-1,-1,-1,-1,-1,-1,-1,-1,-1,-1,-1,-1,-1,-1,-1,-1,-1,-1,-1,-1,-1,-1,-1,-1,-1,-1,-1,-1,-1,-1,-1,-1,-1,-1,-1,-1,-1,-1,-1,-1,-1,-1,-1,-1,-1,-1,-1,-1,-1,-1,-1,-1,-1,-1,-1,-1,-1],"split_conditions":[4.492E2,2.319E2,1.0375E1,7.47E1,8.75E-1,6.483E2,6.699E2,3.67E1,2.127E2,1E0,3.508E2,2E0,8.75E-1,6.125E1,8.99E2,-1.2839111E-2,3E0,1E0,8.975E1,1E0,3.668E2,2.98E2,9.775E1,4.694E2,5.19E2,8.13E2,9.23E2,6.53E2,9.25E1,8.35E1,1.9E1,1E0,2.7625E1,1E0,6.25E-1,6.7375E1,2.251E2,4.32E2,3.668E2,3.337E2,4.288E2,7.25E0,8.35E1,2.95E1,9.8625E1,1.125E0,5.312E2,1E1,2.25E0,2.5E-1,1E0,7.59E2,9.75E0,6E1,1.925E1,7.9375E1,5.881E2,7.55E2,9.4E1,1E3,2.6125E1,-1.23401545E-2,-1.4512784E-2,-1.0050461E-2,-1.2072426E-2,-1.0837785E-2,-9.180235E-3,-7.290818E-3,-9.452715E-3,-8.812851E-3,-1.1485633E-2,-3.07955E-3,-5.7702656E-3,-2.366192E-3,4.112247E-3,8.378704E-4,4.418172E-3,2.5198113E-3,-1.6436512E-3,3.4583644E-3,6.502048E-3,-3.30809E-3,-6.563607E-3,-6.2243156E-3,-3.0090513E-3,-2.0648825E-3,-4.2934907E-3,6.9939303E-3,-2.2398094E-3,4.032619E-3,1.2673834E-2,1.010552E-2,7.233041E-3,4.621091E-3,1.6340552E-2,-3.088459E-3,1.3482107E-3,1.0957784E-2,6.258338E-3,1.2178307E-2,1.4173969E-2,6.9592195E-3,8.918861E-3,1.1811863E-2,5.003697E-3,8.359565E-4,5.3013945E-3,1.2693283E-2,5.3285435E-3,-1.2541964E-4,-3.1493176E-3,1.592212E-4,2.7162137E-3,2.00426E-3,4.4782935E-3,9.021684E-3,5.111273E-3,7.2563267E-3,1.1577218E-2,3.037737E-3,6.179142E-3],"split_indices":[0,0,2,0,2,0,0,0,0,6,0,2,2,2,0,0,2,5,2,5,0,0,2,0,0,0,0,0,2,2,2,4,2,6,2,2,0,0,0,0,0,2,2,2,2,2,0,2,2,2,4,0,2,2,2,2,0,0,2,0,2,0,0,0,0,0,0,0,0,0,0,0,0,0,0,0,0,0,0,0,0,0,0,0,0,0,0,0,0,0,0,0,0,0,0,0,0,0,0,0,0,0,0,0,0,0,0,0,0,0,0,0,0,0,0,0,0,0,0,0,0],"split_type":[0,0,0,0,0,0,0,0,0,0,0,0,0,0,0,0,0,0,0,0,0,0,0,0,0,0,0,0,0,0,0,0,0,0,0,0,0,0,0,0,0,0,0,0,0,0,0,0,0,0,0,0,0,0,0,0,0,0,0,0,0,0,0,0,0,0,0,0,0,0,0,0,0,0,0,0,0,0,0,0,0,0,0,0,0,0,0,0,0,0,0,0,0,0,0,0,0,0,0,0,0,0,0,0,0,0,0,0,0,0,0,0,0,0,0,0,0,0,0,0,0],"sum_hessian":[2.7778E4,1.3203E4,1.4575E4,6.916E3,6.287E3,7.394E3,7.181E3,1.614E3,5.302E3,1.894E3,4.393E3,2.746E3,4.648E3,3.236E3,3.945E3,4.46E2,1.168E3,4.656E3,6.46E2,1.477E3,4.17E2,2.263E3,2.13E3,2.165E3,5.81E2,2.893E3,1.755E3,1.602E3,1.634E3,2.564E3,1.381E3,1.94E2,9.74E2,3.704E3,9.52E2,5E2,1.46E2,1.093E3,3.84E2,2.13E2,2.04E2,1.301E3,9.62E2,1.513E3,6.17E2,1.73E2,1.992E3,2.16E2,3.65E2,1.345E3,1.548E3,1.131E3,6.24E2,1.526E3,7.6E1,6.16E2,1.018E3,1.746E3,8.18E2,2.88E2,1.093E3,1.35E2,5.9E1,1.19E2,8.55E2,2.682E3,1.022E3,2.02E2,7.5E2,4.38E2,6.2E1,1.01E2,4.5E1,1.01E3,8.3E1,1.93E2,1.91E2,1.71E2,4.2E1,1.67E2,3.7E1,1.21E2,1.18E3,5.81E2,3.81E2,6.46E2,8.67E2,3.4E1,5.83E2,1.68E2,5E0,6.5E2,1.342E3,2.04E2,1.2E1,3.2E1,3.33E2,1.25E3,9.5E1,1.108E3,4.4E2,4.05E2,7.26E2,6E2,2.4E1,1.487E3,3.9E1,2.7E1,4.9E1,2.91E2,3.25E2,7.1E2,3.08E2,5.85E2,1.161E3,1.36E2,6.82E2,2.04E2,8.4E1,1.8E2,9.13E2],"tree_param":{"num_deleted":"0","num_feature":"7","num_nodes":"121","size_leaf_vector":"1"}},{"base_weights":[-4.840236E-5,-1.3200146E-1,1.17930934E-1,-1.9693826E-1,-5.5769067E-2,1.7818704E-1,5.615065E-2,-2.1586971E-1,-1.7732985E-1,1.8806108E-3,-8.052537E-2,1.3104677E-1,2.0608263E-1,6.0142935E-3,9.8333605E-2,-2.3518696E-1,-2.0472236E-1,-1.8688576E-1,-1.5206087E-1,2.4537751E-2,-4.5167886E-2,-1.0516367E-1,-5.3598393E-2,1.5176047E-1,5.3642593E-2,2.246882E-1,1.7308259E-1,-6.795224E-3,2.6191581E-2,8.513732E-2,1.2258294E-1,-1.2289055E-2,-2.2962658E-1,-1.970941E-1,-1.1335902E-2,-1.9356851E-1,-1.6484323E-1,-1.6473189E-1,-7.539201E-2,5.9105113E-2,-3.2727838E-2,-6.5405935E-2,-2.305393E-2,-1.1713673E-1,-9.008369E-2,-6.4744495E-2,-2.6996939E-2,1.7693146E-1,1.3524026E-1,1.03271455E-1,2.0873362E-2,2.0230074E-1,2.4386494E-1,1.5006888E-1,2.0739727E-1,-3.70038E-2,7.657822E-4,8.2619704E-2,1.703532E-2,7.2816916E-2,1.1008746E-1,1.685961E-1,1.0934073E-1,-9.739545E-3,-1.1694058E-2,-8.547342E-3,-1.024888E-2,-9.329589E-3,-1.0449907E-2,-8.315737E-3,4.67074E-3,-6.2849387E-3,-8.641238E-3,4.0174755E-3,-4.2797085E-3,1.8163426E-3,4.051328E-3,-2.0047312E-3,2.638759E-3,-2.7816694E-3,-5.5080946E-3,2.0590245E-3,-2.1780736E-3,-3.966694E-3,-6.6345297E-3,-5.898012E-3,-2.5911005E-3,-2.2912533E-3,-3.9973455E-3,5.1749554E-3,-1.7407928E-3,6.6133426E-3,1.0760265E-2,7.345017E-3,5.536754E-3,2.116808E-3,9.307957E-3,-4.1079153E-3,1.5700188E-3,1.0399925E-2,6.7029097E-3,1.166622E-2,1.3498442E-2,5.024722E-3,7.841122E-3,1.141091E-2,8.562771E-3,9.151856E-3,-2.0105953E-3,4.8541604E-3,-5.5688415E-5,2.8357864E-3,1.199598E-2,-7.2485097E-3,1.0766096E-3,5.269983E-3,2.8180603E-3,5.70367E-3,-1.8229764E-3,6.9429427E-3,1.2169965E-2,4.1230293E-3,6.6050063E-3],"categories":[],"categories_nodes":[],"categories_segments":[],"categories_sizes":[],"default_left":[0,0,0,0,0,0,0,0,0,0,0,0,0,0,0,0,0,0,0,0,0,0,0,0,0,0,0,0,0,0,0,0,0,0,0,0,0,0,0,0,0,0,0,0,0,0,0,0,0,0,0,0,0,0,0,0,0,0,0,0,0,0,0,0,0,0,0,0,0,0,0,0,0,0,0,0,0,0,0,0,0,0,0,0,0,0,0,0,0,0,0,0,0,0,0,0,0,0,0,0,0,0,0,0,0,0,0,0,0,0,0,0,0,0,0,0,0,0,0,0,0,0,0],"id":8,"left_children":[1,3,5,7,9,11,13,15,17,19,21,23,25,27,29,31,33,35,37,39,41,43,45,47,49,51,53,55,57,59,61,-1,63,65,-1,67,69,71,73,75,77,79,81,83,85,87,89,91,93,95,97,99,101,103,105,107,109,111,113,115,117,119,121,-1,-1,-1,-1,-1,-1,-1,-1,-1,-1,-1,-1,-1,-1,-1,-1,-1,-1,-1,-1,-1,-1,-1,-1,-1,-1,-1,-1,-1,-1,-1,-1,-1,-1,-1,-1,-1,-1,-1,-1,-1,-1,-1,-1,-1,-1,-1,-1,-1,-1,-1,-1,-1,-1,-1,-1,-1,-1,-1,-1],"loss_changes":[4.318645E2,6.4813034E1,5.451178E1,2.5865784E0,8.598988E0,9.722443E0,1.5296476E1,7.255707E-1,8.1165314E-1,1.931606E0,2.790741E0,4.4154396E0,2.819809E0,8.546511E-1,1.2465286E0,2.0614624E-2,3.3887482E-1,3.3930206E-1,9.2019653E-1,2.4228878E0,2.620951E-1,3.8666534E-1,5.960016E-1,8.809166E-1,9.4760334E-1,1.227478E0,1.2979546E0,4.6209615E-1,6.619978E-1,7.749195E-1,8.236408E-1,0E0,8.383179E-2,3.164215E-1,0E0,1.6854858E-1,2.4089241E-1,2.3825264E-1,2.2614568E-1,3.7804747E-1,2.924918E-1,1.2814677E-1,3.7458694E-1,7.085724E-1,1.0370255E0,4.0475845E-1,6.12745E-1,1.4399834E0,3.6032677E-1,1.1639013E0,3.8544917E-1,5.079193E-1,3.764267E-1,3.227291E-1,4.6735382E-1,2.932555E-1,2.9320127E-1,7.1576285E-1,8.088624E-1,9.0984154E-1,4.9482536E-1,6.491051E-1,6.4737797E-1,0E0,0E0,0E0,0E0,0E0,0E0,0E0,0E0,0E0,0E0,0E0,0E0,0E0,0E0,0E0,0E0,0E0,0E0,0E0,0E0,0E0,0E0,0E0,0E0,0E0,0E0,0E0,0E0,0E0,0E0,0E0,0E0,0E0,0E0,0E0,0E0,0E0,0E0,0E0,0E0,0E0,0E0,0E0,0E0,0E0,0E0,0E0,0E0,0E0,0E0,0E0,0E0,0E0,0E0,0E0,0E0,0E0,0E0,0E0,0E0],"parents":[2147483647,0,0,1,1,2,2,3,3,4,4,5,5,6,6,7,7,8,8,9,9,10,10,11,11,12,12,13,13,14,14,15,15,16,16,17,17,18,18,19,19,20,20,21,21,22,22,23,23,24,24,25,25,26,26,27,27,28,28,29,29,30,30,32,32,33,33,35,35,36,36,37,37,38,38,39,39,40,40,41,41,42,42,43,43,44,44,45,45,46,46,47,47,48,48,49,49,50,50,51,51,52,52,53,53,54,54,55,55,56,56,57,57,58,58,59,59,60,60,61,61,62,62],"right_children":[2,4,6,8,10,12,14,16,18,20,22,24,26,28,30,32,34,36,38,40,42,44,46,48,50,52,54,56,58,60,62,-1,64,66,-1,68,70,72,74,76,78,80,82,84,86,88,90,92,94,96,98,100,102,104,106,108,110,112,114,116,118,120,122,-1,-1,-1,-1,-1,-1,-1,-1,-1,-1,-1,-1,-1,-1,-1,-1,-1,-1,-1,-1,-1,-1,-1,-1,-1,-1,-1,-1,-1,-1,-1,-1,-1,-1,-1,-1,-1,-1,-1,-1,-1,-1,-1,-1,-1,-1,-1,-1,-1,-1,-1,-1,-1,-1,-1,-1,-1,-1,-1,-1],"split_conditions":[4.439E2,2.357E2,1.0375E1,1.325E2,8.75E-1,6.422E2,6.699E2,6.59E1,9.525E1,1E0,3.508E2,1.875E0,1E0,5.71E2,8.99E2,3.67E1,1E0,2.127E2,2.155E2,1E0,3.633E2,8.35E1,9.775E1,5.312E2,5.19E2,8.13E2,9.07E2,4.694E2,1.9E1,8.3E1,1.9E1,-1.2289055E-2,4.13E1,6.25E-1,-1.1335902E-2,1E0,9.25E1,1E2,9.8625E1,3.633E2,4.288E2,3.393E2,3.875E2,1.3125E1,2.933E2,3.1E1,9.8625E1,4.869E2,1E0,4.91E2,2.25E0,2.5E-1,1E0,6.897E2,5.875E0,1.3375E1,1.175E1,6.53E2,2.0875E1,2.4E1,8.95E2,1E3,5.1E1,-9.739545E-3,-1.1694058E-2,-8.547342E-3,-1.024888E-2,-9.329589E-3,-1.0449907E-2,-8.315737E-3,4.67074E-3,-6.2849387E-3,-8.641238E-3,4.0174755E-3,-4.2797085E-3,1.8163426E-3,4.051328E-3,-2.0047312E-3,2.638759E-3,-2.7816694E-3,-5.5080946E-3,2.0590245E-3,-2.1780736E-3,-3.966694E-3,-6.6345297E-3,-5.898012E-3,-2.5911005E-3,-2.2912533E-3,-3.9973455E-3,5.1749554E-3,-1.7407928E-3,6.6133426E-3,1.0760265E-2,7.345017E-3,5.536754E-3,2.116808E-3,9.307957E-3,-4.1079153E-3,1.5700188E-3,1.0399925E-2,6.7029097E-3,1.166622E-2,1.3498442E-2,5.024722E-3,7.841122E-3,1.141091E-2,8.562771E-3,9.151856E-3,-2.0105953E-3,4.8541604E-3,-5.5688415E-5,2.8357864E-3,1.199598E-2,-7.2485097E-3,1.0766096E-3,5.269983E-3,2.8180603E-3,5.70367E-3,-1.8229764E-3,6.9429427E-3,1.2169965E-2,4.1230293E-3,6.6050063E-3],"split_indices":[0,0,2,0,2,0,0,0,2,3,0,2,2,0,0,0,4,0,0,4,0,2,2,0,0,0,0,0,2,2,2,0,0,2,0,3,2,2,2,0,0,0,0,2,0,2,2,0,3,0,2,2,4,0,2,2,2,0,2,2,0,0,2,0,0,0,0,0,0,0,0,0,0,0,0,0,0,0,0,0,0,0,0,0,0,0,0,0,0,0,0,0,0,0,0,0,0,0,0,0,0,0,0,0,0,0,0,0,0,0,0,0,0,0,0,0,0,0,0,0,0,0,0],"split_type":[0,0,0,0,0,0,0,0,0,0,0,0,0,0,0,0,0,0,0,0,0,0,0,0,0,0,0,0,0,0,0,0,0,0,0,0,0,0,0,0,0,0,0,0,0,0,0,0,0,0,0,0,0,0,0,0,0,0,0,0,0,0,0,0,0,0,0,0,0,0,0,0,0,0,0,0,0,0,0,0,0,0,0,0,0,0,0,0,0,0,0,0,0,0,0,0,0,0,0,0,0,0,0,0,0,0,0,0,0,0,0,0,0,0,0,0,0,0,0,0,0,0,0],"sum_hessian":[2.7739E4,1.3094E4,1.4645E4,7.07E3,6.024E3,7.413E3,7.232E3,3.592E3,3.478E3,1.81E3,4.214E3,2.758E3,4.655E3,3.305E3,3.927E3,1.307E3,2.285E3,2.519E3,9.59E2,1.222E3,5.88E2,2.199E3,2.015E3,2.175E3,5.83E2,2.973E3,1.682E3,2.022E3,1.283E3,2.546E3,1.381E3,4.35E2,8.72E2,1.704E3,5.81E2,1.927E3,5.92E2,8.22E2,1.37E2,7.62E2,4.6E2,3.06E2,2.82E2,1.222E3,9.77E2,1.419E3,5.96E2,8.58E2,1.317E3,2.31E2,3.52E2,1.377E3,1.596E3,1.01E3,6.72E2,4.04E2,1.618E3,1.78E2,1.105E3,1.707E3,8.39E2,3.06E2,1.075E3,1E2,7.72E2,4E2,1.304E3,1.336E3,5.91E2,5.89E2,3E0,1.44E2,6.78E2,8E0,1.29E2,3.75E2,3.87E2,4.24E2,3.6E1,2.53E2,5.3E1,6.8E1,2.14E2,3.58E2,8.64E2,5.64E2,4.13E2,6.34E2,7.85E2,3.3E1,5.63E2,3.98E2,4.6E2,8.89E2,4.28E2,1.34E2,9.7E1,3.2E1,3.2E2,1.269E3,1.08E2,1.144E3,4.52E2,1.23E2,8.87E2,4.23E2,2.49E2,5E0,3.99E2,3E1,1.588E3,1.54E2,2.4E1,2.9E1,1.076E3,5.71E2,1.136E3,8.17E2,2.2E1,2.21E2,8.5E1,4.95E2,5.8E2],"tree_param":{"num_deleted":"0","num_feature":"7","num_nodes":"123","size_leaf_vector":"1"}},{"base_weights":[3.0353107E-4,-1.5031333E-1,9.468537E-2,-1.891816E-1,-7.8982316E-2,4.1440748E-2,1.4630707E-1,-2.1076268E-1,-1.7534286E-1,-2.2646891E-2,-1.0093066E-1,1.0484981E-1,-4.4384236E-3,1.947758E-1,9.507439E-2,-2.2353512E-1,-1.9897237E-1,-1.847581E-1,-1.5478197E-1,-4.460113E-3,-5.9423402E-2,-1.1224717E-1,-7.112218E-2,1.2272186E-2,1.3868253E-1,-3.8800582E-2,1.5703656E-2,2.1326485E-1,1.6087098E-1,8.0876864E-2,1.219764E-1,-1.2292627E-2,-2.1984531E-1,-1.91639E-1,-1.1036928E-2,-1.9012247E-1,-1.6534774E-1,-1.6810897E-1,-7.946368E-2,2.0392587E-2,-4.172346E-2,-6.5285906E-2,4.614361E-2,-1.619861E-1,-1.1043222E-1,-1.0027538E-1,-3.518332E-2,3.2655615E-2,-3.4038547E-2,1.5205574E-1,1.11044E-1,-1.990743E-2,-4.7294836E-2,8.536287E-2,1.2545991E-2,1.8994866E-1,2.332825E-1,1.3387252E-1,2.0698947E-1,8.421021E-2,3.2089002E-2,1.5983605E-1,1.1043457E-1,-3.3053078E-3,-1.1180334E-2,-8.319355E-3,-1.0192697E-2,-9.6432315E-3,-8.102364E-3,-7.4612224E-3,-8.6388355E-3,-9.596814E-3,-7.916714E-3,6.6604884E-4,-4.983295E-3,-5.0060735E-3,1.3444339E-3,-2.5138452E-3,5.751005E-3,-2.8770678E-3,-5.3907163E-3,3.1115032E-5,3.959672E-3,5.642373E-4,-8.514225E-3,-8.8712526E-4,-5.7144403E-3,-2.9380221E-3,-6.9302903E-3,1.1550289E-2,-2.0353205E-3,3.2329771E-3,-9.788703E-4,2.8380177E-3,-2.0682588E-3,7.917593E-3,4.636988E-3,5.3271144E-3,8.952018E-3,-2.0761283E-3,1.2606847E-3,-4.091812E-3,-2.0505707E-3,7.440023E-3,9.354774E-4,-4.9383775E-3,7.5687596E-4,9.797464E-3,5.5293604E-3,1.10868625E-2,1.3031669E-2,6.375438E-3,1.1005614E-2,9.252587E-3,1.2305488E-2,3.2267687E-3,4.853331E-3,4.8199818E-3,3.8010007E-4,7.0769987E-3,1.4423634E-2,5.2485447E-3,9.468605E-3],"categories":[],"categories_nodes":[],"categories_segments":[],"categories_sizes":[],"default_left":[0,0,0,0,0,0,0,0,0,0,0,0,0,0,0,0,0,0,0,0,0,0,0,0,0,0,0,0,0,0,0,0,0,0,0,0,0,0,0,0,0,0,0,0,0,0,0,0,0,0,0,0,0,0,0,0,0,0,0,0,0,0,0,0,0,0,0,0,0,0,0,0,0,0,0,0,0,0,0,0,0,0,0,0,0,0,0,0,0,0,0,0,0,0,0,0,0,0,0,0,0,0,0,0,0,0,0,0,0,0,0,0,0,0,0,0,0,0,0,0,0,0,0],"id":9,"left_children":[1,3,5,7,9,11,13,15,17,19,21,23,25,27,29,31,33,35,37,39,41,43,45,47,49,51,53,55,57,59,61,-1,63,65,-1,67,69,71,73,75,77,79,81,83,85,87,89,91,93,95,97,99,101,103,105,107,109,111,113,115,117,119,121,-1,-1,-1,-1,-1,-1,-1,-1,-1,-1,-1,-1,-1,-1,-1,-1,-1,-1,-1,-1,-1,-1,-1,-1,-1,-1,-1,-1,-1,-1,-1,-1,-1,-1,-1,-1,-1,-1,-1,-1,-1,-1,-1,-1,-1,-1,-1,-1,-1,-1,-1,-1,-1,-1,-1,-1,-1,-1,-1,-1],"loss_changes":[3.9413885E2,2.9598282E1,4.684346E1,2.027649E0,4.6579666E0,2.4414093E1,2.1470932E1,3.6151123E-1,7.879486E-1,7.073744E-1,9.068489E-1,1.1032875E1,3.3712602E0,2.7527618E0,1.5977325E0,5.1856995E-2,1.8291855E-1,2.6927185E-1,1.3226566E0,6.57452E-1,2.1962285E-1,1.5941048E-1,7.81224E-1,8.9222074E-1,9.367256E-1,2.879281E-1,6.7442757E-1,1.2970734E0,1.9308739E0,4.4582176E-1,6.168289E-1,0E0,6.2882996E-1,2.939682E-1,0E0,1.4243317E-1,5.0037384E-2,2.327919E-1,3.799677E-1,3.3619484E-1,3.865409E-1,1.03144884E-1,2.8535679E-2,9.825885E-2,6.764393E-1,6.4905643E-1,5.048555E-1,1.0978762E0,1.946052E-1,6.336403E-1,2.3957825E-1,5.472145E-1,2.659881E-1,5.595833E-1,8.4931487E-1,6.1312866E-1,4.2913055E-1,5.1800156E-1,4.513607E-1,6.46595E-1,2.7957702E-1,7.5231457E-1,4.6144104E-1,0E0,0E0,0E0,0E0,0E0,0E0,0E0,0E0,0E0,0E0,0E0,0E0,0E0,0E0,0E0,0E0,0E0,0E0,0E0,0E0,0E0,0E0,0E0,0E0,0E0,0E0,0E0,0E0,0E0,0E0,0E0,0E0,0E0,0E0,0E0,0E0,0E0,0E0,0E0,0E0,0E0,0E0,0E0,0E0,0E0,0E0,0E0,0E0,0E0,0E0,0E0,0E0,0E0,0E0,0E0,0E0,0E0,0E0,0E0,0E0],"parents":[2147483647,0,0,1,1,2,2,3,3,4,4,5,5,6,6,7,7,8,8,9,9,10,10,11,11,12,12,13,13,14,14,15,15,16,16,17,17,18,18,19,19,20,20,21,21,22,22,23,23,24,24,25,25,26,26,27,27,28,28,29,29,30,30,32,32,33,33,35,35,36,36,37,37,38,38,39,39,40,40,41,41,42,42,43,43,44,44,45,45,46,46,47,47,48,48,49,49,50,50,51,51,52,52,53,53,54,54,55,55,56,56,57,57,58,58,59,59,60,60,61,61,62,62],"right_children":[2,4,6,8,10,12,14,16,18,20,22,24,26,28,30,32,34,36,38,40,42,44,46,48,50,52,54,56,58,60,62,-1,64,66,-1,68,70,72,74,76,78,80,82,84,86,88,90,92,94,96,98,100,102,104,106,108,110,112,114,116,118,120,122,-1,-1,-1,-1,-1,-1,-1,-1,-1,-1,-1,-1,-1,-1,-1,-1,-1,-1,-1,-1,-1,-1,-1,-1,-1,-1,-1,-1,-1,-1,-1,-1,-1,-1,-1,-1,-1,-1,-1,-1,-1,-1,-1,-1,-1,-1,-1,-1,-1,-1,-1,-1,-1,-1,-1,-1,-1,-1,-1,-1],"split_conditions":[3.749E2,2.319E2,6.53E2,1.066E2,1.375E0,4.75E0,9.25E0,6.59E1,9E1,1E0,3.393E2,4.359E2,4.694E2,8.75E-1,8.99E2,1.975E1,1E0,1E0,2.069E2,1E0,3.633E2,4E0,8.525E1,1E0,1E0,4.022E2,7E0,8.13E2,9.23E2,8.88E2,1.9E1,-1.2292627E-2,2.7625E1,1.2875E1,-1.1036928E-2,2.212E2,8.75E-1,1.352E2,9.9375E1,2.357E2,3.668E2,3.393E2,3.668E2,1.625E0,6.125E0,2.8125E1,8.6375E1,1E0,3.816E2,1.875E0,6.38E2,9.775E1,4.111E2,5.631E2,8E0,2.5E-1,1E0,8.625E0,1.005E3,7.55E2,2.0875E1,1.7E1,1.03E3,-3.3053078E-3,-1.1180334E-2,-8.319355E-3,-1.0192697E-2,-9.6432315E-3,-8.102364E-3,-7.4612224E-3,-8.6388355E-3,-9.596814E-3,-7.916714E-3,6.6604884E-4,-4.983295E-3,-5.0060735E-3,1.3444339E-3,-2.5138452E-3,5.751005E-3,-2.8770678E-3,-5.3907163E-3,3.1115032E-5,3.959672E-3,5.642373E-4,-8.514225E-3,-8.8712526E-4,-5.7144403E-3,-2.9380221E-3,-6.9302903E-3,1.1550289E-2,-2.0353205E-3,3.2329771E-3,-9.788703E-4,2.8380177E-3,-2.0682588E-3,7.917593E-3,4.636988E-3,5.3271144E-3,8.952018E-3,-2.0761283E-3,1.2606847E-3,-4.091812E-3,-2.0505707E-3,7.440023E-3,9.354774E-4,-4.9383775E-3,7.5687596E-4,9.797464E-3,5.5293604E-3,1.10868625E-2,1.3031669E-2,6.375438E-3,1.1005614E-2,9.252587E-3,1.2305488E-2,3.2267687E-3,4.853331E-3,4.8199818E-3,3.8010007E-4,7.0769987E-3,1.4423634E-2,5.2485447E-3,9.468605E-3],"split_indices":[0,0,0,0,2,2,2,0,2,3,0,0,0,2,0,2,4,6,0,4,0,2,2,3,3,0,2,0,0,0,2,0,2,2,0,0,2,0,2,0,0,0,0,2,2,2,2,4,0,2,0,2,0,0,2,2,4,2,0,0,2,2,0,0,0,0,0,0,0,0,0,0,0,0,0,0,0,0,0,0,0,0,0,0,0,0,0,0,0,0,0,0,0,0,0,0,0,0,0,0,0,0,0,0,0,0,0,0,0,0,0,0,0,0,0,0,0,0,0,0,0,0,0],"split_type":[0,0,0,0,0,0,0,0,0,0,0,0,0,0,0,0,0,0,0,0,0,0,0,0,0,0,0,0,0,0,0,0,0,0,0,0,0,0,0,0,0,0,0,0,0,0,0,0,0,0,0,0,0,0,0,0,0,0,0,0,0,0,0,0,0,0,0,0,0,0,0,0,0,0,0,0,0,0,0,0,0,0,0,0,0,0,0,0,0,0,0,0,0,0,0,0,0,0,0,0,0,0,0,0,0,0,0,0,0,0,0,0,0,0,0,0,0,0,0,0,0,0,0],"sum_hessian":[2.7724E4,1.068E4,1.7044E4,6.912E3,3.768E3,8.391E3,8.653E3,2.695E3,4.217E3,1.057E3,2.711E3,3.522E3,4.869E3,4.445E3,4.208E3,1.285E3,1.41E3,2.887E3,1.33E3,7.08E2,3.49E2,1.963E3,7.48E2,9.43E2,2.579E3,1.799E3,3.07E3,2.873E3,1.572E3,2.757E3,1.451E3,1.73E2,1.112E3,1.062E3,3.48E2,2.255E3,6.32E2,1.129E3,2.01E2,4.25E2,2.83E2,3.31E2,1.8E1,6.6E1,1.897E3,4.12E2,3.36E2,6.55E2,2.88E2,1.735E3,8.44E2,5.59E2,1.24E3,1.32E2,2.938E3,1.332E3,1.541E3,9.94E2,5.78E2,2.58E3,1.77E2,3.36E2,1.115E3,2.7E1,1.085E3,3.51E2,7.11E2,2.049E3,2.06E2,2.06E2,4.26E2,3.23E2,8.06E2,3.6E1,1.65E2,2.1E1,4.04E2,2.69E2,1.4E1,2.82E2,4.9E1,8E0,1E1,3E0,6.3E1,7.6E1,1.821E3,1.99E2,2.13E2,6E0,3.3E2,4.06E2,2.49E2,2.1E1,2.67E2,1.567E3,1.68E2,7.94E2,5E1,3.78E2,1.81E2,1.89E2,1.051E3,6.7E1,6.5E1,6.6E1,2.872E3,1.237E3,9.5E1,1.09E3,4.51E2,9.28E2,6.6E1,3.74E2,2.04E2,1.022E3,1.558E3,4.8E1,1.29E2,2.96E2,4E1,1.045E3,7E1],"tree_param":{"num_deleted":"0","num_feature":"7","num_nodes":"123","size_leaf_vector":"1"}},{"base_weights":[2.3176208E-4,-1.21383674E-1,1.0476315E-1,-1.7836025E-1,-4.9370024E-2,1.6627476E-1,5.6980915E-2,-1.9991255E-1,-1.6266358E-1,-1.4122654E-3,-6.9750205E-2,1.3042271E-1,1.9590494E-1,5.5211824E-3,9.5928095E-2,-2.1490303E-1,-1.8855107E-1,-1.6950145E-1,-1.3226199E-1,1.7552473E-2,-3.9372973E-2,-8.8964455E-2,-3.8618933E-2,1.456028E-1,7.636489E-2,1.7415182E-1,2.0945585E-1,-4.102851E-2,1.1369017E-2,1.2764864E-1,8.211931E-2,-1.1743579E-2,-2.1194369E-1,-1.8000612E-1,-2.1192613E-1,-1.7552431E-1,-1.5461552E-1,-1.4686394E-1,-8.227679E-2,4.6973333E-2,-3.251214E-2,-5.4793157E-2,-2.0593405E-2,-9.758287E-2,-7.524465E-2,-5.3512197E-2,-2.152237E-2,8.908937E-2,1.533007E-1,1.2006134E-1,4.1727018E-2,1.8875584E-1,1.4870541E-1,2.007375E-1,2.3173091E-1,-1.5381663E-1,-3.1544704E-2,4.8827223E-2,3.5285817E-3,1.1323296E-1,2.3221576E-1,4.855681E-2,9.323357E-2,6.629315E-3,-1.0648831E-2,-7.402309E-3,-9.527405E-3,-1.1480467E-2,-1.0262504E-2,-9.090591E-3,-7.597048E-3,-5.0600213E-3,-7.908746E-3,-7.9119075E-3,-5.4760845E-3,-2.424757E-4,-5.5751232E-3,1.5842097E-3,3.2368575E-3,-1.0479297E-3,-3.5462994E-3,-2.2488257E-3,-4.234526E-3,6.408096E-4,-3.3093125E-3,-4.2194105E-3,-6.37849E-3,-4.6535777E-3,-1.2478519E-3,-1.8344572E-3,-4.9619144E-3,4.975772E-3,-1.6348179E-3,5.585679E-3,2.3527285E-3,7.334067E-3,1.0660115E-2,-1.4134778E-3,6.5660155E-3,2.8667783E-3,-1.7487366E-3,9.941144E-3,6.7031006E-3,3.4599658E-3,8.572387E-3,1.0414233E-2,9.120758E-3,1.2077936E-2,1.02024255E-2,-1.4040825E-3,-8.845818E-3,7.336738E-3,-2.049878E-3,1.6246121E-3,6.2335017E-3,-1.836676E-4,1.0492617E-3,6.0447203E-3,2.4727704E-3,9.970244E-3,1.3744003E-2,1.4900245E-3,3.993119E-3,3.3411253E-3,5.4317666E-3],"categories":[],"categories_nodes":[],"categories_segments":[],"categories_sizes":[],"default_left":[0,0,0,0,0,0,0,0,0,0,0,0,0,0,0,0,0,0,0,0,0,0,0,0,0,0,0,0,0,0,0,0,0,0,0,0,0,0,0,0,0,0,0,0,0,0,0,0,0,0,0,0,0,0,0,0,0,0,0,0,0,0,0,0,0,0,0,0,0,0,0,0,0,0,0,0,0,0,0,0,0,0,0,0,0,0,0,0,0,0,0,0,0,0,0,0,0,0,0,0,0,0,0,0,0,0,0,0,0,0,0,0,0,0,0,0,0,0,0,0,0,0,0,0,0],"id":10,"left_children":[1,3,5,7,9,11,13,15,17,19,21,23,25,27,29,31,33,35,37,39,41,43,45,47,49,51,53,55,57,59,61,-1,63,65,67,69,71,73,75,77,79,81,83,85,87,89,91,93,95,97,99,101,103,105,107,109,111,113,115,117,119,121,123,-1,-1,-1,-1,-1,-1,-1,-1,-1,-1,-1,-1,-1,-1,-1,-1,-1,-1,-1,-1,-1,-1,-1,-1,-1,-1,-1,-1,-1,-1,-1,-1,-1,-1,-1,-1,-1,-1,-1,-1,-1,-1,-1,-1,-1,-1,-1,-1,-1,-1,-1,-1,-1,-1,-1,-1,-1,-1,-1,-1,-1,-1],"loss_changes":[3.5170767E2,5.2461517E1,4.371936E1,2.3825989E0,5.5221424E0,6.883667E0,1.6784744E1,4.7109222E-1,8.3737946E-1,1.2144675E0,2.3682861E0,2.406376E0,1.0126343E0,9.8289E-1,2.077568E0,2.633667E-2,3.0480576E-1,2.7526855E-1,5.455456E-1,1.6585892E0,1.6161805E-1,2.824707E-1,3.8460302E-1,9.864845E-1,9.7577167E-1,4.8179245E-1,3.7839508E-1,4.2622113E-1,9.416872E-1,2.1503983E0,1.2353992E0,0E0,4.310875E-1,3.976555E-1,6.4697266E-3,3.2736206E-1,1.703167E-1,2.3326588E-1,3.954605E-1,1.9050872E-1,1.8358484E-1,8.6586356E-2,3.8927406E-1,5.835266E-1,8.493266E-1,6.186843E-1,9.594537E-1,2.5912237E-1,7.704735E-1,4.8134804E-1,4.3658996E-1,4.5126915E-1,9.0125275E-1,1.8048859E-1,1.1639404E-1,8.5069776E-2,6.346142E-1,6.8353355E-1,3.336166E-1,6.150665E-1,1.8876266E-1,4.8438978E-1,1.0080585E0,0E0,0E0,0E0,0E0,0E0,0E0,0E0,0E0,0E0,0E0,0E0,0E0,0E0,0E0,0E0,0E0,0E0,0E0,0E0,0E0,0E0,0E0,0E0,0E0,0E0,0E0,0E0,0E0,0E0,0E0,0E0,0E0,0E0,0E0,0E0,0E0,0E0,0E0,0E0,0E0,0E0,0E0,0E0,0E0,0E0,0E0,0E0,0E0,0E0,0E0,0E0,0E0,0E0,0E0,0E0,0E0,0E0,0E0,0E0,0E0,0E0,0E0],"parents":[2147483647,0,0,1,1,2,2,3,3,4,4,5,5,6,6,7,7,8,8,9,9,10,10,11,11,12,12,13,13,14,14,15,15,16,16,17,17,18,18,19,19,20,20,21,21,22,22,23,23,24,24,25,25,26,26,27,27,28,28,29,29,30,30,32,32,33,33,34,34,35,35,36,36,37,37,38,38,39,39,40,40,41,41,42,42,43,43,44,44,45,45,46,46,47,47,48,48,49,49,50,50,51,51,52,52,53,53,54,54,55,55,56,56,57,57,58,58,59,59,60,60,61,61,62,62],"right_children":[2,4,6,8,10,12,14,16,18,20,22,24,26,28,30,32,34,36,38,40,42,44,46,48,50,52,54,56,58,60,62,-1,64,66,68,70,72,74,76,78,80,82,84,86,88,90,92,94,96,98,100,102,104,106,108,110,112,114,116,118,120,122,124,-1,-1,-1,-1,-1,-1,-1,-1,-1,-1,-1,-1,-1,-1,-1,-1,-1,-1,-1,-1,-1,-1,-1,-1,-1,-1,-1,-1,-1,-1,-1,-1,-1,-1,-1,-1,-1,-1,-1,-1,-1,-1,-1,-1,-1,-1,-1,-1,-1,-1,-1,-1,-1,-1,-1,-1,-1,-1,-1,-1,-1,-1],"split_conditions":[4.32E2,2.398E2,5.5E0,1.164E2,8.75E-1,6.96E2,6.53E2,6.59E1,2.155E2,1E0,3.668E2,2.5E-1,8.13E2,4.584E2,1.9E1,1.175E1,1E0,9.525E1,9.4375E1,1E0,3.633E2,9.4E1,6.4E1,4.694E2,5.456E2,7.79E2,1E0,9.25E0,1.6125E1,1E3,7.55E2,-1.1743579E-2,1.2875E1,1.375E0,8.75E-1,1E0,9.8125E1,2.319E2,2.212E2,3.668E2,4.022E2,3.292E2,4.052E2,5.875E1,3.337E2,3.6E1,7.125E1,1E0,6.591E2,5E-1,4E0,1.875E0,7.863E2,8.75E-1,8.75E-1,5.625E0,1.3125E1,1.425E1,9.775E1,9.71E2,1.1375E1,9.075E1,4.45E1,6.629315E-3,-1.0648831E-2,-7.402309E-3,-9.527405E-3,-1.1480467E-2,-1.0262504E-2,-9.090591E-3,-7.597048E-3,-5.0600213E-3,-7.908746E-3,-7.9119075E-3,-5.4760845E-3,-2.424757E-4,-5.5751232E-3,1.5842097E-3,3.2368575E-3,-1.0479297E-3,-3.5462994E-3,-2.2488257E-3,-4.234526E-3,6.408096E-4,-3.3093125E-3,-4.2194105E-3,-6.37849E-3,-4.6535777E-3,-1.2478519E-3,-1.8344572E-3,-4.9619144E-3,4.975772E-3,-1.6348179E-3,5.585679E-3,2.3527285E-3,7.334067E-3,1.0660115E-2,-1.4134778E-3,6.5660155E-3,2.8667783E-3,-1.7487366E-3,9.941144E-3,6.7031006E-3,3.4599658E-3,8.572387E-3,1.0414233E-2,9.120758E-3,1.2077936E-2,1.02024255E-2,-1.4040825E-3,-8.845818E-3,7.336738E-3,-2.049878E-3,1.6246121E-3,6.2335017E-3,-1.836676E-4,1.0492617E-3,6.0447203E-3,2.4727704E-3,9.970244E-3,1.3744003E-2,1.4900245E-3,3.993119E-3,3.3411253E-3,5.4317666E-3],"split_indices":[0,0,2,0,2,0,0,0,0,3,0,2,0,0,2,2,4,2,2,4,0,2,2,0,0,0,4,2,2,0,0,0,2,2,2,6,2,0,0,0,0,0,0,2,0,2,2,3,0,2,2,2,0,2,2,2,2,2,2,0,2,2,2,0,0,0,0,0,0,0,0,0,0,0,0,0,0,0,0,0,0,0,0,0,0,0,0,0,0,0,0,0,0,0,0,0,0,0,0,0,0,0,0,0,0,0,0,0,0,0,0,0,0,0,0,0,0,0,0,0,0,0,0,0,0],"split_type":[0,0,0,0,0,0,0,0,0,0,0,0,0,0,0,0,0,0,0,0,0,0,0,0,0,0,0,0,0,0,0,0,0,0,0,0,0,0,0,0,0,0,0,0,0,0,0,0,0,0,0,0,0,0,0,0,0,0,0,0,0,0,0,0,0,0,0,0,0,0,0,0,0,0,0,0,0,0,0,0,0,0,0,0,0,0,0,0,0,0,0,0,0,0,0,0,0,0,0,0,0,0,0,0,0,0,0,0,0,0,0,0,0,0,0,0,0,0,0,0,0,0,0,0,0],"sum_hessian":[2.7664E4,1.2787E4,1.4877E4,7.138E3,5.649E3,6.503E3,8.374E3,3.003E3,4.135E3,1.685E3,3.964E3,2.945E3,3.558E3,3.608E3,4.766E3,1.287E3,1.716E3,3.372E3,7.63E2,1.124E3,5.61E2,2.45E3,1.514E3,2.298E3,6.47E2,1.371E3,2.187E3,4.02E2,3.206E3,1.443E3,3.323E3,1.56E2,1.131E3,1.263E3,4.53E2,2.393E3,9.79E2,5.89E2,1.74E2,7.08E2,4.16E2,3.07E2,2.54E2,1.501E3,9.49E2,8.08E2,7.06E2,2.77E2,2.021E3,2.85E2,3.62E2,8.67E2,5.04E2,1.579E3,6.08E2,3E1,3.72E2,5.54E2,2.652E3,1.27E3,1.73E2,8.28E2,2.495E3,3E0,1.128E3,3.17E2,9.46E2,1.15E2,3.38E2,1.884E3,5.09E2,6.3E1,9.16E2,4.49E2,1.4E2,4.8E1,1.26E2,3.82E2,3.26E2,3.21E2,9.5E1,2.33E2,7.4E1,1.47E2,1.07E2,1.045E3,4.56E2,7E2,2.49E2,5.92E2,2.16E2,5.9E1,6.47E2,1.79E2,9.8E1,1.823E3,1.98E2,2E1,2.65E2,3.01E2,6.1E1,7.3E2,1.37E2,1.13E2,3.91E2,1.111E3,4.68E2,4.43E2,1.65E2,5E0,2.5E1,1.8E1,3.54E2,4.57E2,9.7E1,1.878E3,7.74E2,1.133E3,1.37E2,1.01E2,7.2E1,5.19E2,3.09E2,9.21E2,1.574E3],"tree_param":{"num_deleted":"0","num_feature":"7","num_nodes":"125","size_leaf_vector":"1"}},{"base_weights":[5.654199E-4,5.5139523E-2,-5.288401E-2,-1.5421034E-1,5.847229E-2,-1.370491E-1,-3.4005843E-2,-2.2401331E-1,-1.17986396E-1,9.4121814E-2,4.0022522E-2,-1.9724436E-1,-1.1206133E-1,-1.4299812E-2,-4.6249855E-2,-1.2310566E-2,-1.885717E-1,-7.6309286E-2,-1.7774925E-1,1.17083766E-1,6.1899245E-2,4.704832E-2,-1.1455943E-3,-2.226532E-2,-1.9815642E-1,-1.08731754E-1,-1.9184655E-1,1.2185881E-2,-4.678109E-2,-8.7222055E-2,-4.0985014E-2,-1.0493788E-2,-1.207152E-1,-1.17978536E-1,5.8284998E-2,-1.197918E-1,-2.0740639E-1,1.2814684E-1,9.098953E-2,-1.5297683E-1,6.3798234E-2,4.052081E-2,5.663223E-2,-6.8871737E-3,7.039685E-2,-7.9409234E-2,4.230037E-2,-2.0319973E-1,-1.757665E-1,-1.320764E-1,-9.643163E-2,-1.1221408E-2,-1.14092395E-1,8.6535156E-2,5.9818244E-3,-6.869367E-2,-2.801681E-2,1.2744406E-2,-9.251414E-2,-3.5172503E-2,-5.284023E-2,-7.0357355E-3,-1.3572391E-3,-7.3941858E-3,7.760285E-3,6.4496608E-3,-9.688998E-3,-1.0234518E-2,-4.1390513E-3,-6.3007907E-3,-1.127568E-2,6.9452287E-3,5.308221E-3,1.0426395E-3,5.2106753E-3,-9.800377E-3,-5.2507996E-4,3.682375E-3,1.8878834E-3,1.5792914E-3,3.1927787E-3,3.6197163E-3,9.887571E-4,-2.8449893E-3,8.991189E-5,-6.594941E-3,4.0313E-3,2.950702E-4,-6.250763E-3,-4.178565E-4,3.5903843E-3,-1.0717173E-2,-9.210496E-3,-7.5706216E-3,-9.807671E-3,-8.257353E-3,-5.2367975E-3,-2.9120222E-3,-5.5729593E-3,-4.6504443E-3,-9.549344E-3,1.5120785E-3,7.767543E-3,-9.483019E-3,3.6103613E-4,-2.1571987E-3,-4.0603583E-3,7.212984E-3,-1.6164981E-3,-6.3606324E-3,5.370272E-3,-2.328982E-3,-5.1241405E-3,-2.42854E-3,-1.4202603E-3,-2.8016146E-3,-1.2422275E-3],"categories":[],"categories_nodes":[],"categories_segments":[],"categories_sizes":[],"default_left":[0,0,0,0,0,0,0,0,0,0,0,0,0,0,0,0,0,0,0,0,0,0,0,0,0,0,0,0,0,0,0,0,0,0,0,0,0,0,0,0,0,0,0,0,0,0,0,0,0,0,0,0,0,0,0,0,0,0,0,0,0,0,0,0,0,0,0,0,0,0,0,0,0,0,0,0,0,0,0,0,0,0,0,0,0,0,0,0,0,0,0,0,0,0,0,0,0,0,0,0,0,0,0,0,0,0,0,0,0,0,0,0,0,0,0,0,0],"id":11,"left_children":[1,3,5,7,9,11,13,15,17,19,21,23,25,27,29,-1,31,33,35,37,39,41,43,45,47,49,51,53,55,57,59,-1,61,63,65,67,69,71,73,75,77,79,81,83,85,87,89,91,93,95,97,-1,99,101,103,105,107,109,111,113,115,-1,-1,-1,-1,-1,-1,-1,-1,-1,-1,-1,-1,-1,-1,-1,-1,-1,-1,-1,-1,-1,-1,-1,-1,-1,-1,-1,-1,-1,-1,-1,-1,-1,-1,-1,-1,-1,-1,-1,-1,-1,-1,-1,-1,-1,-1,-1,-1,-1,-1,-1,-1,-1,-1,-1,-1],"loss_changes":[8.040585E1,9.525143E0,2.2122116E1,5.146766E-1,8.826855E0,3.814972E0,2.7441492E0,1.0216236E-2,3.426124E-1,3.3799858E0,2.5595293E0,1.14803314E-1,4.5863724E-1,3.7522907E0,1.5098639E0,0E0,2.0924568E-2,4.892025E-1,7.484782E-2,7.5969696E-1,7.879071E-1,4.7058868E-1,5.3078455E-1,2.180672E-2,4.8181534E-2,4.8545647E-1,1.5426254E-1,1.1079072E0,8.03565E-1,4.2334557E-1,4.2668343E-1,0E0,1.4893949E-2,5.621476E-1,3.992806E-1,5.218306E-2,2.611065E-2,4.284191E-1,7.388892E-1,1.021654E-1,4.822235E-1,9.3621254E-1,1.7762604E0,5.19621E-1,2.0928842E-1,1.2409801E-2,5.084407E-3,8.748627E-2,4.1796684E-2,5.215864E-1,6.477785E-1,0E0,1.9524246E-2,7.1197045E-1,5.392123E-1,2.8519964E-1,7.900725E-1,5.568509E-1,3.4231853E-1,3.7725973E-1,1.8126774E-1,0E0,0E0,0E0,0E0,0E0,0E0,0E0,0E0,0E0,0E0,0E0,0E0,0E0,0E0,0E0,0E0,0E0,0E0,0E0,0E0,0E0,0E0,0E0,0E0,0E0,0E0,0E0,0E0,0E0,0E0,0E0,0E0,0E0,0E0,0E0,0E0,0E0,0E0,0E0,0E0,0E0,0E0,0E0,0E0,0E0,0E0,0E0,0E0,0E0,0E0,0E0,0E0,0E0,0E0,0E0,0E0],"parents":[2147483647,0,0,1,1,2,2,3,3,4,4,5,5,6,6,7,7,8,8,9,9,10,10,11,11,12,12,13,13,14,14,16,16,17,17,18,18,19,19,20,20,21,21,22,22,23,23,24,24,25,25,26,26,27,27,28,28,29,29,30,30,32,32,33,33,34,34,35,35,36,36,37,37,38,38,39,39,40,40,41,41,42,42,43,43,44,44,45,45,46,46,47,47,48,48,49,49,50,50,52,52,53,53,54,54,55,55,56,56,57,57,58,58,59,59,60,60],"right_children":[2,4,6,8,10,12,14,16,18,20,22,24,26,28,30,-1,32,34,36,38,40,42,44,46,48,50,52,54,56,58,60,-1,62,64,66,68,70,72,74,76,78,80,82,84,86,88,90,92,94,96,98,-1,100,102,104,106,108,110,112,114,116,-1,-1,-1,-1,-1,-1,-1,-1,-1,-1,-1,-1,-1,-1,-1,-1,-1,-1,-1,-1,-1,-1,-1,-1,-1,-1,-1,-1,-1,-1,-1,-1,-1,-1,-1,-1,-1,-1,-1,-1,-1,-1,-1,-1,-1,-1,-1,-1,-1,-1,-1,-1,-1,-1,-1,-1],"split_conditions":[1.9E1,2.6921442E2,2.7593976E2,2.658865E2,2.8716104E2,2.6964325E2,6.125E1,2.6407895E2,2.25E0,2.5E-1,9.75E0,1.925E1,2.7576514E2,2.951746E2,2.784714E2,-1.2310566E-2,1E0,2.6878918E2,2.670406E2,1E0,2.6964325E2,2.9854E2,3.074562E2,1E0,2.6878918E2,2.7209015E2,9.8125E1,2.777505E2,3.4E1,2.7613147E2,1E0,-1.0493788E-2,7.75E0,1.125E0,1E0,3.875E0,5.25E0,1E0,2.754129E2,5.5E0,1E0,5E-1,1.875E0,1.1E1,1E1,2.6827393E2,2.6827393E2,9.975E1,9.6625E1,8.975E1,2.7299548E2,-1.1221408E-2,1E0,2.7684076E2,2.778877E2,2.3375E1,3.425E1,9.8625E1,8.6E1,2.859059E2,3.036116E2,-7.0357355E-3,-1.3572391E-3,-7.3941858E-3,7.760285E-3,6.4496608E-3,-9.688998E-3,-1.0234518E-2,-4.1390513E-3,-6.3007907E-3,-1.127568E-2,6.9452287E-3,5.308221E-3,1.0426395E-3,5.2106753E-3,-9.800377E-3,-5.2507996E-4,3.682375E-3,1.8878834E-3,1.5792914E-3,3.1927787E-3,3.6197163E-3,9.887571E-4,-2.8449893E-3,8.991189E-5,-6.594941E-3,4.0313E-3,2.950702E-4,-6.250763E-3,-4.178565E-4,3.5903843E-3,-1.0717173E-2,-9.210496E-3,-7.5706216E-3,-9.807671E-3,-8.257353E-3,-5.2367975E-3,-2.9120222E-3,-5.5729593E-3,-4.6504443E-3,-9.549344E-3,1.5120785E-3,7.767543E-3,-9.483019E-3,3.6103613E-4,-2.1571987E-3,-4.0603583E-3,7.212984E-3,-1.6164981E-3,-6.3606324E-3,5.370272E-3,-2.328982E-3,-5.1241405E-3,-2.42854E-3,-1.4202603E-3,-2.8016146E-3,-1.2422275E-3],"split_indices":[2,1,1,1,1,1,2,1,2,2,2,2,1,1,1,0,6,1,1,3,1,1,1,3,1,1,2,1,2,1,3,0,2,2,2,2,2,4,1,2,3,2,2,2,2,1,1,2,2,2,1,0,4,1,1,2,2,2,2,1,1,0,0,0,0,0,0,0,0,0,0,0,0,0,0,0,0,0,0,0,0,0,0,0,0,0,0,0,0,0,0,0,0,0,0,0,0,0,0,0,0,0,0,0,0,0,0,0,0,0,0,0,0,0,0,0,0],"split_type":[0,0,0,0,0,0,0,0,0,0,0,0,0,0,0,0,0,0,0,0,0,0,0,0,0,0,0,0,0,0,0,0,0,0,0,0,0,0,0,0,0,0,0,0,0,0,0,0,0,0,0,0,0,0,0,0,0,0,0,0,0,0,0,0,0,0,0,0,0,0,0,0,0,0,0,0,0,0,0,0,0,0,0,0,0,0,0,0,0,0,0,0,0,0,0,0,0,0,0,0,0,0,0,0,0,0,0,0,0,0,0,0,0,0,0,0,0],"sum_hessian":[2.7563E4,1.3638E4,1.3925E4,2.13E2,1.3425E4,2.55E3,1.1375E4,7.1E1,1.42E2,4.577E3,8.848E3,7.46E2,1.804E3,4.36E3,7.015E3,4E1,3.1E1,8.5E1,5.7E1,2.671E3,1.906E3,7.558E3,1.29E3,4E0,7.42E2,1.734E3,7E1,2.402E3,1.958E3,7.97E2,6.218E3,2.2E1,9E0,6.5E1,2E1,2.1E1,3.6E1,1.873E3,7.98E2,1.6E1,1.89E3,4.499E3,3.059E3,1.195E3,9.5E1,2E0,2E0,5.99E2,1.43E2,5.95E2,1.139E3,4.8E1,2.2E1,1.84E2,2.218E3,9.02E2,1.056E3,4E1,7.57E2,4.175E3,2.043E3,7E0,2E0,5.9E1,6E0,1.6E1,4E0,5E0,1.6E1,8E0,2.8E1,1.254E3,6.19E2,1.27E2,6.71E2,1.2E1,4E0,1.37E3,5.2E2,3.255E3,1.244E3,2.142E3,9.17E2,1.76E2,1.019E3,4E0,9.1E1,1E0,1E0,1E0,1E0,3.71E2,2.28E2,6.9E1,7.4E1,2.67E2,3.28E2,3.23E2,8.16E2,1.9E1,3E0,1.02E2,8.2E1,1.3E1,2.205E3,2.98E2,6.04E2,2.5E1,1.031E3,1.6E1,2.4E1,1.36E2,6.21E2,1.399E3,2.776E3,1.833E3,2.1E2],"tree_param":{"num_deleted":"0","num_feature":"7","num_nodes":"117","size_leaf_vector":"1"}},{"base_weights":[-2.6138904E-4,-1.0996035E-1,1.0282958E-1,-1.6818437E-1,-4.414812E-2,-1.9179244E-1,1.08167216E-1,-1.5379289E-1,-1.9370316E-1,1.2478721E-3,-1.1898348E-1,-2.048379E-1,-5.1297437E-2,1.3805038E-1,6.1179593E-2,-1.993546E-1,-1.369954E-1,-1.5697E-1,-1.9657089E-1,-1.3552457E-1,1.3447174E-2,-9.021349E-2,-1.4505531E-1,-1.9067596E-1,-1.4105938E-2,-1.1251817E-2,1.8898407E-2,1.052899E-1,1.6728637E-1,-3.8676158E-2,1.0572866E-1,-2.0632851E-1,-1.7757346E-1,-1.460214E-1,-8.3818465E-2,-1.0267511E-2,-1.3324355E-1,-2.0648727E-1,-1.8720238E-1,-1.7042755E-1,-7.291313E-2,-2.2340616E-2,6.550185E-2,-1.1734562E-1,-7.157721E-2,-1.3448264E-1,-1.6372377E-1,-2.0632116E-1,-3.9553095E-2,1.3633947E-1,6.64109E-2,1.2800816E-2,1.700205E-1,-1.4175663E-2,-8.9027405E-2,8.148069E-2,1.4224769E-1,-1.0410938E-2,-5.266678E-3,-8.405884E-3,-1.0345812E-2,-6.5291296E-3,-8.891053E-3,-9.521212E-3,-3.9302856E-3,-4.7899527E-3,-1.0255214E-2,-1.0356466E-2,-9.2720485E-4,-8.829323E-3,-1.008892E-2,-1.0287716E-2,-6.976624E-3,-2.7909677E-3,-7.2094984E-3,-1.1824356E-4,-2.9870844E-3,4.057351E-3,1.3274213E-3,-6.274275E-3,-3.7229822E-3,-2.6614636E-3,-4.7546807E-3,-7.057549E-3,-2.7639344E-3,-7.5652585E-3,-9.892763E-3,-1.2878763E-2,-9.321089E-3,1.0837667E-2,-5.8588395E-3,8.73351E-4,7.0410655E-3,2.3471185E-3,4.923247E-3,7.822396E-3,-7.918437E-3,7.885789E-3,1.0070658E-2,-2.3708132E-3,2.9245282E-3,-3.9776806E-3,-9.829931E-3,6.507862E-3,3.6007098E-3,6.3689537E-3,8.9535955E-3],"categories":[],"categories_nodes":[],"categories_segments":[],"categories_sizes":[],"default_left":[0,0,0,0,0,0,0,0,0,0,0,0,0,0,0,0,0,0,0,0,0,0,0,0,0,0,0,0,0,0,0,0,0,0,0,0,0,0,0,0,0,0,0,0,0,0,0,0,0,0,0,0,0,0,0,0,0,0,0,0,0,0,0,0,0,0,0,0,0,0,0,0,0,0,0,0,0,0,0,0,0,0,0,0,0,0,0,0,0,0,0,0,0,0,0,0,0,0,0,0,0,0,0,0,0,0,0],"id":12,"left_children":[1,3,5,7,9,11,13,15,17,19,21,23,25,27,29,31,33,35,37,39,41,43,45,47,-1,-1,-1,49,51,53,55,57,59,61,63,-1,65,67,69,71,73,75,77,79,81,83,85,87,89,91,93,95,97,99,101,103,105,-1,-1,-1,-1,-1,-1,-1,-1,-1,-1,-1,-1,-1,-1,-1,-1,-1,-1,-1,-1,-1,-1,-1,-1,-1,-1,-1,-1,-1,-1,-1,-1,-1,-1,-1,-1,-1,-1,-1,-1,-1,-1,-1,-1,-1,-1,-1,-1,-1,-1],"loss_changes":[3.1391446E2,5.1523315E1,2.2524445E1,2.590561E0,2.1450233E1,4.568615E-1,1.9728119E1,3.4679184E0,2.3976135E-1,6.5608077E0,1.775116E0,2.0121288E-1,1.8003998E0,8.210724E0,2.4319483E1,1.4989471E-1,1.5908699E0,1.9188547E-1,1.8236542E-1,6.912484E-1,6.726611E0,5.660105E-1,2.2450447E-1,4.6470928E-1,0E0,0E0,0E0,4.884842E0,1.9146042E0,2.0798724E0,3.3356514E0,1.5446854E-1,4.9838066E-2,1.3779526E0,2.5566244E-1,0E0,3.328445E-1,1.34449E-1,1.553154E-1,1.9612312E-1,1.3450313E-1,1.5986834E0,8.943219E-1,1.515851E-1,2.8661728E-1,4.163084E-1,1.5953064E-1,1.3658905E-1,4.233075E-1,1.1978607E0,1.1199069E0,1.9918174E0,1.6906586E0,2.746746E0,5.469074E-1,1.038476E0,8.0230904E-1,0E0,0E0,0E0,0E0,0E0,0E0,0E0,0E0,0E0,0E0,0E0,0E0,0E0,0E0,0E0,0E0,0E0,0E0,0E0,0E0,0E0,0E0,0E0,0E0,0E0,0E0,0E0,0E0,0E0,0E0,0E0,0E0,0E0,0E0,0E0,0E0,0E0,0E0,0E0,0E0,0E0,0E0,0E0,0E0,0E0,0E0,0E0,0E0,0E0,0E0],"parents":[2147483647,0,0,1,1,2,2,3,3,4,4,5,5,6,6,7,7,8,8,9,9,10,10,11,11,12,12,13,13,14,14,15,15,16,16,17,17,18,18,19,19,20,20,21,21,22,22,23,23,27,27,28,28,29,29,30,30,31,31,32,32,33,33,34,34,36,36,37,37,38,38,39,39,40,40,41,41,42,42,43,43,44,44,45,45,46,46,47,47,48,48,49,49,50,50,51,51,52,52,53,53,54,54,55,55,56,56],"right_children":[2,4,6,8,10,12,14,16,18,20,22,24,26,28,30,32,34,36,38,40,42,44,46,48,-1,-1,-1,50,52,54,56,58,60,62,64,-1,66,68,70,72,74,76,78,80,82,84,86,88,90,92,94,96,98,100,102,104,106,-1,-1,-1,-1,-1,-1,-1,-1,-1,-1,-1,-1,-1,-1,-1,-1,-1,-1,-1,-1,-1,-1,-1,-1,-1,-1,-1,-1,-1,-1,-1,-1,-1,-1,-1,-1,-1,-1,-1,-1,-1,-1,-1,-1,-1,-1,-1,-1,-1,-1],"split_conditions":[4.584E2,2.398E2,2.6999026E2,2.8841122E2,2.9034766E2,2.6964325E2,2.9718484E2,7.47E1,5.32E1,2.702906E2,2.964885E2,7.59E2,6.057E2,6.422E2,7.19E2,6.39E1,2.1E2,2.9333835E2,1.57E2,2.6878918E2,3.749E2,3.508E2,3.0283414E2,6.699E2,-1.4105938E-2,-1.1251817E-2,1.8898407E-2,2.8678967E2,2.7209015E2,3.036116E2,9.23E2,2.874343E2,1E0,2.8157355E2,2.670406E2,-1.0267511E-2,2.9997992E2,3.0643716E2,2.966399E2,2.658865E2,4.022E2,2.8353748E2,2.8554092E2,2.9555893E2,2.9333835E2,4.439E2,4.168E2,2.6407895E2,7.01E2,2.7153577E2,5.81E2,7.237E2,8.99E2,6.335E2,7.01E2,2.9908444E2,1E0,-1.0410938E-2,-5.266678E-3,-8.405884E-3,-1.0345812E-2,-6.5291296E-3,-8.891053E-3,-9.521212E-3,-3.9302856E-3,-4.7899527E-3,-1.0255214E-2,-1.0356466E-2,-9.2720485E-4,-8.829323E-3,-1.008892E-2,-1.0287716E-2,-6.976624E-3,-2.7909677E-3,-7.2094984E-3,-1.1824356E-4,-2.9870844E-3,4.057351E-3,1.3274213E-3,-6.274275E-3,-3.7229822E-3,-2.6614636E-3,-4.7546807E-3,-7.057549E-3,-2.7639344E-3,-7.5652585E-3,-9.892763E-3,-1.2878763E-2,-9.321089E-3,1.0837667E-2,-5.8588395E-3,8.73351E-4,7.0410655E-3,2.3471185E-3,4.923247E-3,7.822396E-3,-7.918437E-3,7.885789E-3,1.0070658E-2,-2.3708132E-3,2.9245282E-3,-3.9776806E-3,-9.829931E-3,6.507862E-3,3.6007098E-3,6.3689537E-3,8.9535955E-3],"split_indices":[0,0,1,1,1,1,1,0,0,1,1,0,0,0,0,0,0,1,0,1,0,0,1,0,0,0,0,1,1,1,0,1,4,1,1,0,1,1,1,1,0,1,1,1,1,0,0,1,0,1,0,0,0,0,0,1,4,0,0,0,0,0,0,0,0,0,0,0,0,0,0,0,0,0,0,0,0,0,0,0,0,0,0,0,0,0,0,0,0,0,0,0,0,0,0,0,0,0,0,0,0,0,0,0,0,0,0],"split_type":[0,0,0,0,0,0,0,0,0,0,0,0,0,0,0,0,0,0,0,0,0,0,0,0,0,0,0,0,0,0,0,0,0,0,0,0,0,0,0,0,0,0,0,0,0,0,0,0,0,0,0,0,0,0,0,0,0,0,0,0,0,0,0,0,0,0,0,0,0,0,0,0,0,0,0,0,0,0,0,0,0,0,0,0,0,0,0,0,0,0,0,0,0,0,0,0,0,0,0,0,0,0,0,0,0,0,0],"sum_hessian":[2.7756E4,1.3447E4,1.4309E4,7.134E3,6.313E3,2.54E2,1.4055E4,4.566E3,2.568E3,3.93E3,2.383E3,2.32E2,2.2E1,8.59E3,5.465E3,1.227E3,3.339E3,1.9E2,2.378E3,3.21E2,3.609E3,1.135E3,1.248E3,1.99E2,3.3E1,1.6E1,6E0,4.053E3,4.537E3,1.686E3,3.779E3,9.23E2,3.04E2,2.853E3,4.86E2,6E1,1.3E2,1.145E3,1.233E3,2.05E2,1.16E2,2.139E3,1.47E3,4.6E2,6.75E2,8.02E2,4.46E2,1.8E2,1.9E1,2.252E3,1.801E3,7.9E1,4.458E3,1.135E3,5.51E2,2.273E3,1.506E3,9.05E2,1.8E1,2.35E2,6.9E1,1.924E3,9.29E2,2.1E1,4.65E2,8.7E1,4.3E1,1.141E3,4E0,7.21E2,5.12E2,9.3E1,1.12E2,9.5E1,2.1E1,1.395E3,7.44E2,1.048E3,4.22E2,3.85E2,7.5E1,3.81E2,2.94E2,7.39E2,6.3E1,3.31E2,1.15E2,4.7E1,1.33E2,4E0,1.5E1,8.2E1,2.17E3,1.122E3,6.79E2,4.3E1,3.6E1,3.207E3,1.251E3,7.79E2,3.56E2,5.08E2,4.3E1,3.68E2,1.905E3,1.076E3,4.3E2],"tree_param":{"num_deleted":"0","num_feature":"7","num_nodes":"107","size_leaf_vector":"1"}},{"base_weights":[-1.9725408E-4,-1.0487801E-1,9.646801E-2,-1.6093579E-1,-4.409212E-2,1.5197767E-1,5.3419396E-2,-1.4019282E-1,-1.7687199E-1,-2.6514053E-3,-1.1324541E-1,2.089497E-1,1.276078E-1,-1.5899612E-1,6.2293842E-2,-6.2141586E-2,-1.5580317E-1,-2.0669866E-1,-1.5882051E-1,6.290006E-2,-4.7002017E-2,-8.260004E-2,-1.4108561E-1,-1.3754307E-1,2.178848E-1,5.662472E-2,1.6286342E-1,-1.9949149E-1,-7.6546706E-2,9.123944E-2,1.4833331E-2,-4.400357E-2,-1.3683578E-1,-1.8896753E-1,-1.274608E-1,-1.76253E-1,-2.230452E-1,2.9442644E-1,-1.5987125E-1,1.11546874E-1,1.4535937E-2,-1.0854305E-1,-1.8523207E-2,-1.1306501E-1,-6.1278578E-2,-1.739611E-1,-1.17602855E-1,-3.5321325E-2,-2.2267988E-1,2.3316754E-1,1.784902E-1,9.808506E-2,-2.6157673E-2,1.2528765E-1,1.8188514E-1,-1.861478E-1,-2.639414E-1,7.299837E-2,-1.1963001E-1,4.7272753E-2,1.3085477E-1,-6.5929875E-2,5.6995567E-2,-6.2542385E-3,-1.3249032E-3,-1.1183692E-2,-6.1058993E-3,-7.2595174E-3,-9.658064E-3,-7.284847E-3,-5.1895487E-3,-1.0198988E-2,-7.8065023E-3,-1.199183E-2,-1.082213E-2,1.967469E-2,7.325966E-3,-8.570355E-3,-7.0545836E-3,-3.3229496E-3,6.4975703E-3,-1.2968512E-3,2.8457039E-3,-9.086704E-3,-4.3865545E-3,-3.3125186E-3,9.309049E-4,-6.4741173E-3,-2.8827358E-3,-3.346699E-3,1.8947556E-3,-7.359331E-3,-1.0548115E-2,1.9432551E-3,-6.023898E-3,-1.0353924E-2,6.968964E-3,-1.3039368E-2,-5.21698E-3,1.0326144E-2,1.4121271E-2,9.703274E-3,6.317188E-3,5.55768E-3,-1.4104777E-4,-2.5167125E-3,1.8571316E-3,6.6713104E-3,-5.0760508E-3,9.370774E-3,5.654816E-3,-9.597061E-3,1.1368436E-2,-6.7565553E-3,-1.404527E-2,-3.4248177E-3,1.1599618E-2,-1.4864099E-2,-3.3796715E-4,3.2596611E-3,-1.2119779E-3,6.2467866E-3,1.0696443E-2,-1.0061277E-3,-5.0363797E-3,1.2228156E-3,5.1364945E-3],"categories":[],"categories_nodes":[],"categories_segments":[],"categories_sizes":[],"default_left":[0,0,0,0,0,0,0,0,0,0,0,0,0,0,0,0,0,0,0,0,0,0,0,0,0,0,0,0,0,0,0,0,0,0,0,0,0,0,0,0,0,0,0,0,0,0,0,0,0,0,0,0,0,0,0,0,0,0,0,0,0,0,0,0,0,0,0,0,0,0,0,0,0,0,0,0,0,0,0,0,0,0,0,0,0,0,0,0,0,0,0,0,0,0,0,0,0,0,0,0,0,0,0,0,0,0,0,0,0,0,0,0,0,0,0,0,0,0,0,0,0,0,0,0,0,0,0],"id":13,"left_children":[1,3,5,7,9,11,13,15,17,19,21,23,25,27,29,31,33,35,37,39,41,43,45,47,49,51,53,55,57,59,61,63,65,67,69,71,73,75,77,79,81,83,85,87,89,91,93,95,97,99,101,103,105,107,109,111,113,115,117,119,121,123,125,-1,-1,-1,-1,-1,-1,-1,-1,-1,-1,-1,-1,-1,-1,-1,-1,-1,-1,-1,-1,-1,-1,-1,-1,-1,-1,-1,-1,-1,-1,-1,-1,-1,-1,-1,-1,-1,-1,-1,-1,-1,-1,-1,-1,-1,-1,-1,-1,-1,-1,-1,-1,-1,-1,-1,-1,-1,-1,-1,-1,-1,-1,-1,-1],"loss_changes":[2.806199E2,4.5360657E1,3.4445343E1,2.2646942E0,1.8309055E1,8.716095E0,1.5320442E1,3.6626015E0,2.0739975E0,1.1620318E1,2.0308418E0,5.8658295E0,1.1034546E1,1.0731859E0,1.0709951E1,6.768E-1,2.3361435E0,6.9327164E-1,1.2100639E0,3.7933817E0,4.1762247E0,7.348666E-1,9.46867E-1,4.0987062E-1,1.0649567E0,5.03415E0,2.0843124E0,1.3834763E-1,7.1100837E-1,8.429131E0,1.0065997E1,5.743681E-1,9.7935796E-2,1.8400192E-1,5.706196E-1,2.5772667E-1,5.385208E-2,3.0262172E-2,5.037651E-1,2.6426306E0,1.3907629E0,1.1325865E0,2.892424E0,4.1917896E-1,3.8056087E-1,4.8410606E-1,3.3487988E-1,7.190022E-1,9.0040565E-2,1.6754303E0,3.9619827E-1,1.2886791E0,7.51758E-1,1.8483667E0,7.225342E-1,4.844451E-1,3.852105E-2,5.7831085E-1,1.7023847E0,2.9452643E0,1.2256813E0,1.6142793E0,2.8874955E0,0E0,0E0,0E0,0E0,0E0,0E0,0E0,0E0,0E0,0E0,0E0,0E0,0E0,0E0,0E0,0E0,0E0,0E0,0E0,0E0,0E0,0E0,0E0,0E0,0E0,0E0,0E0,0E0,0E0,0E0,0E0,0E0,0E0,0E0,0E0,0E0,0E0,0E0,0E0,0E0,0E0,0E0,0E0,0E0,0E0,0E0,0E0,0E0,0E0,0E0,0E0,0E0,0E0,0E0,0E0,0E0,0E0,0E0,0E0,0E0,0E0,0E0,0E0,0E0],"parents":[2147483647,0,0,1,1,2,2,3,3,4,4,5,5,6,6,7,7,8,8,9,9,10,10,11,11,12,12,13,13,14,14,15,15,16,16,17,17,18,18,19,19,20,20,21,21,22,22,23,23,24,24,25,25,26,26,27,27,28,28,29,29,30,30,31,31,32,32,33,33,34,34,35,35,36,36,37,37,38,38,39,39,40,40,41,41,42,42,43,43,44,44,45,45,46,46,47,47,48,48,49,49,50,50,51,51,52,52,53,53,54,54,55,55,56,56,57,57,58,58,59,59,60,60,61,61,62,62],"right_children":[2,4,6,8,10,12,14,16,18,20,22,24,26,28,30,32,34,36,38,40,42,44,46,48,50,52,54,56,58,60,62,64,66,68,70,72,74,76,78,80,82,84,86,88,90,92,94,96,98,100,102,104,106,108,110,112,114,116,118,120,122,124,126,-1,-1,-1,-1,-1,-1,-1,-1,-1,-1,-1,-1,-1,-1,-1,-1,-1,-1,-1,-1,-1,-1,-1,-1,-1,-1,-1,-1,-1,-1,-1,-1,-1,-1,-1,-1,-1,-1,-1,-1,-1,-1,-1,-1,-1,-1,-1,-1,-1,-1,-1,-1,-1,-1,-1,-1,-1,-1,-1,-1,-1,-1,-1,-1],"split_conditions":[4.544E2,2.319E2,5.5E0,2.8157355E2,2.9034766E2,2.8841122E2,2.7183344E2,1.375E0,1.3375E1,1.3125E1,2.964885E2,2.6964325E2,6.96E2,2.702906E2,2.9759937E2,2.7876004E2,9.97E1,2.8841122E2,1.3625E1,2.8142453E2,2.7613147E2,3.462E2,1.1375E1,2.5E-1,2.5E-1,2.9823468E2,8.13E2,7.59E2,2.675E1,6.53E2,7.237E2,8.12E1,2.7926028E2,1.525E1,1.646E2,1.352E2,1.192E2,2.251E2,1.57E2,2.702906E2,3.749E2,2.6878918E2,3.292E2,8.975E1,4.439E2,3.0283414E2,1.2875E1,5.421E2,1E0,6.591E2,2.8579144E2,1.125E0,6.38E2,3.074562E2,3.0720447E2,7.5E2,2.0375E1,1.7E1,5.2375E1,2.921597E2,9.96E2,3.0191544E2,9.23E2,-6.2542385E-3,-1.3249032E-3,-1.1183692E-2,-6.1058993E-3,-7.2595174E-3,-9.658064E-3,-7.284847E-3,-5.1895487E-3,-1.0198988E-2,-7.8065023E-3,-1.199183E-2,-1.082213E-2,1.967469E-2,7.325966E-3,-8.570355E-3,-7.0545836E-3,-3.3229496E-3,6.4975703E-3,-1.2968512E-3,2.8457039E-3,-9.086704E-3,-4.3865545E-3,-3.3125186E-3,9.309049E-4,-6.4741173E-3,-2.8827358E-3,-3.346699E-3,1.8947556E-3,-7.359331E-3,-1.0548115E-2,1.9432551E-3,-6.023898E-3,-1.0353924E-2,6.968964E-3,-1.3039368E-2,-5.21698E-3,1.0326144E-2,1.4121271E-2,9.703274E-3,6.317188E-3,5.55768E-3,-1.4104777E-4,-2.5167125E-3,1.8571316E-3,6.6713104E-3,-5.0760508E-3,9.370774E-3,5.654816E-3,-9.597061E-3,1.1368436E-2,-6.7565553E-3,-1.404527E-2,-3.4248177E-3,1.1599618E-2,-1.4864099E-2,-3.3796715E-4,3.2596611E-3,-1.2119779E-3,6.2467866E-3,1.0696443E-2,-1.0061277E-3,-5.0363797E-3,1.2228156E-3,5.1364945E-3],"split_indices":[0,0,2,1,1,1,1,2,2,2,1,1,0,1,1,1,0,1,2,1,1,0,2,2,2,1,0,0,2,0,0,0,1,2,0,0,0,0,0,1,0,1,0,2,0,1,2,0,3,0,1,2,0,1,1,0,2,2,2,1,0,1,0,0,0,0,0,0,0,0,0,0,0,0,0,0,0,0,0,0,0,0,0,0,0,0,0,0,0,0,0,0,0,0,0,0,0,0,0,0,0,0,0,0,0,0,0,0,0,0,0,0,0,0,0,0,0,0,0,0,0,0,0,0,0,0,0],"split_type":[0,0,0,0,0,0,0,0,0,0,0,0,0,0,0,0,0,0,0,0,0,0,0,0,0,0,0,0,0,0,0,0,0,0,0,0,0,0,0,0,0,0,0,0,0,0,0,0,0,0,0,0,0,0,0,0,0,0,0,0,0,0,0,0,0,0,0,0,0,0,0,0,0,0,0,0,0,0,0,0,0,0,0,0,0,0,0,0,0,0,0,0,0,0,0,0,0,0,0,0,0,0,0,0,0,0,0,0,0,0,0,0,0,0,0,0,0,0,0,0,0,0,0,0,0,0,0],"sum_hessian":[2.773E4,1.3313E4,1.4417E4,6.925E3,6.388E3,6.296E3,8.121E3,3.013E3,3.912E3,3.995E3,2.393E3,1.884E3,4.412E3,3.25E2,7.796E3,5.03E2,2.51E3,1.471E3,2.441E3,1.612E3,2.383E3,1.141E3,1.252E3,4.7E1,1.837E3,1.465E3,2.947E3,2.17E2,1.08E2,4.842E3,2.954E3,4.06E2,9.7E1,1.154E3,1.356E3,5.18E2,9.53E2,5E0,2.436E3,8.03E2,8.09E2,7.53E2,1.63E3,4.68E2,6.73E2,5.19E2,7.33E2,2.2E1,2.5E1,1.32E3,5.17E2,9.76E2,4.89E2,9.93E2,1.954E3,1.83E2,3.4E1,2.4E1,8.4E1,2.296E3,2.546E3,1.013E3,1.941E3,7.1E1,3.35E2,1.2E1,8.5E1,1.04E2,1.05E3,7.63E2,5.93E2,2.14E2,3.04E2,2.59E2,6.94E2,2E0,3E0,1.504E3,9.32E2,7.5E1,7.28E2,4.14E2,3.95E2,1.65E2,5.88E2,7.13E2,9.17E2,3.6E2,1.08E2,6.37E2,3.6E1,3.04E2,2.15E2,1.3E1,7.2E2,1.1E1,1.1E1,1.8E1,7E0,8.6E2,4.6E2,3.96E2,1.21E2,8.64E2,1.12E2,3.54E2,1.35E2,9.59E2,3.4E1,1.807E3,1.47E2,1.81E2,2E0,5E0,2.9E1,1.3E1,1.1E1,3.2E1,5.2E1,1.836E3,4.6E2,2.379E3,1.67E2,4.38E2,5.75E2,1.135E3,8.06E2],"tree_param":{"num_deleted":"0","num_feature":"7","num_nodes":"127","size_leaf_vector":"1"}},{"base_weights":[-3.301293E-4,-1.01073965E-1,9.21994E-2,-1.5428616E-1,-4.3104198E-2,1.3813277E-1,4.4169255E-2,-1.802873E-1,-1.4626841E-1,2.6516973E-3,-6.298117E-2,1.0112688E-1,1.5919808E-1,5.407893E-3,7.539258E-2,-1.9479193E-1,-1.7730087E-1,-1.5077418E-1,-1.2225654E-1,2.0388637E-2,-3.324335E-2,-8.774518E-2,-4.353895E-2,1.1639581E-1,4.188721E-2,1.7344326E-1,1.3552958E-1,4.273854E-2,2.554994E-4,6.2496968E-2,9.9233076E-2,-1.8388897E-1,-1.1122691E-2,-1.2857696E-1,-1.800004E-1,-1.5582573E-1,-1.3837518E-1,-1.4202479E-1,-6.7659065E-2,4.251159E-2,-1.646417E-2,-4.1385822E-2,4.4454847E-2,-1.1072724E-1,-8.301241E-2,-5.3464092E-2,-1.9899245E-2,1.3550068E-1,9.97276E-2,8.887972E-2,1.2772275E-2,1.6266899E-1,2.0038414E-1,1.2573825E-1,2.0524918E-1,3.4208767E-2,1.8814655E-1,-7.702882E-3,1.41568305E-2,5.1480632E-2,8.537423E-2,1.266055E-1,8.7459944E-2,-9.551451E-3,-7.38286E-3,-8.06913E-3,1.3779238E-2,-9.151423E-3,-8.088097E-3,-8.096681E-3,-6.7020566E-3,-7.7862176E-3,-5.790642E-3,-7.753259E-3,-6.173638E-3,-4.479704E-4,-4.1929316E-3,-4.810697E-3,2.2809308E-3,-2.4373333E-3,7.4196985E-4,-2.6327579E-3,-1.3299144E-3,2.8836783E-3,-4.3945768E-4,-6.7820908E-3,-4.6716235E-3,-4.5303362E-3,-3.6211738E-3,-1.6221012E-3,-3.5042507E-3,7.537381E-3,-1.4056223E-3,3.5231132E-3,7.2613764E-3,4.81684E-3,9.928656E-3,2.0582797E-3,7.021901E-3,-4.786342E-3,1.1947551E-3,7.382748E-3,8.80933E-3,9.059178E-3,1.0832255E-2,4.940901E-3,7.0771165E-3,9.666223E-3,1.206056E-2,1.378009E-3,6.5647E-3,1.0514356E-2,3.761964E-3,-3.3948713E-3,-1.1584965E-4,4.773631E-3,4.7343582E-4,3.7108515E-3,2.0018911E-3,8.143901E-3,3.4177587E-3,5.7921126E-3,1.37696145E-2,-2.3246333E-3,4.749672E-3],"categories":[],"categories_nodes":[],"categories_segments":[],"categories_sizes":[],"default_left":[0,0,0,0,0,0,0,0,0,0,0,0,0,0,0,0,0,0,0,0,0,0,0,0,0,0,0,0,0,0,0,0,0,0,0,0,0,0,0,0,0,0,0,0,0,0,0,0,0,0,0,0,0,0,0,0,0,0,0,0,0,0,0,0,0,0,0,0,0,0,0,0,0,0,0,0,0,0,0,0,0,0,0,0,0,0,0,0,0,0,0,0,0,0,0,0,0,0,0,0,0,0,0,0,0,0,0,0,0,0,0,0,0,0,0,0,0,0,0,0,0,0,0,0,0],"id":14,"left_children":[1,3,5,7,9,11,13,15,17,19,21,23,25,27,29,31,33,35,37,39,41,43,45,47,49,51,53,55,57,59,61,63,-1,65,67,69,71,73,75,77,79,81,83,85,87,89,91,93,95,97,99,101,103,105,107,109,111,113,115,117,119,121,123,-1,-1,-1,-1,-1,-1,-1,-1,-1,-1,-1,-1,-1,-1,-1,-1,-1,-1,-1,-1,-1,-1,-1,-1,-1,-1,-1,-1,-1,-1,-1,-1,-1,-1,-1,-1,-1,-1,-1,-1,-1,-1,-1,-1,-1,-1,-1,-1,-1,-1,-1,-1,-1,-1,-1,-1,-1,-1,-1,-1,-1,-1],"loss_changes":[2.588099E2,4.099518E1,3.1921837E1,1.418335E0,5.7872458E0,5.7501526E0,8.563384E0,3.6026E-2,5.5519867E-1,1.2281743E0,2.1319695E0,2.4246826E0,1.5652008E0,6.0740566E-1,1.1986465E0,3.9920807E-2,1.5600204E-1,2.577896E-1,9.0023804E-1,1.0532432E0,4.054739E-1,2.0290852E-1,5.824542E-1,6.6636467E-1,7.541022E-1,8.202133E-1,1.185894E0,4.6859753E-1,3.0722374E-1,6.372566E-1,4.3171215E-1,2.3014545E-2,0E0,1.038883E0,4.1526794E-2,3.9889526E-1,4.9083328E-1,1.3036346E-1,2.1415412E-1,3.5222507E-1,4.9084365E-1,9.4920635E-2,4.343976E-2,1.295209E-1,1.2379074E-1,6.095362E-1,1.0371854E0,6.173229E-1,3.6429977E-1,5.132911E-1,4.1501877E-1,4.0099716E-1,2.214508E-1,6.49292E-1,4.642582E-2,2.3069075E-1,3.667456E-2,5.7238185E-1,3.8450718E-1,4.4477797E-1,1.0783939E0,6.262846E-1,9.772196E-1,0E0,0E0,0E0,0E0,0E0,0E0,0E0,0E0,0E0,0E0,0E0,0E0,0E0,0E0,0E0,0E0,0E0,0E0,0E0,0E0,0E0,0E0,0E0,0E0,0E0,0E0,0E0,0E0,0E0,0E0,0E0,0E0,0E0,0E0,0E0,0E0,0E0,0E0,0E0,0E0,0E0,0E0,0E0,0E0,0E0,0E0,0E0,0E0,0E0,0E0,0E0,0E0,0E0,0E0,0E0,0E0,0E0,0E0,0E0,0E0,0E0,0E0],"parents":[2147483647,0,0,1,1,2,2,3,3,4,4,5,5,6,6,7,7,8,8,9,9,10,10,11,11,12,12,13,13,14,14,15,15,16,16,17,17,18,18,19,19,20,20,21,21,22,22,23,23,24,24,25,25,26,26,27,27,28,28,29,29,30,30,31,31,33,33,34,34,35,35,36,36,37,37,38,38,39,39,40,40,41,41,42,42,43,43,44,44,45,45,46,46,47,47,48,48,49,49,50,50,51,51,52,52,53,53,54,54,55,55,56,56,57,57,58,58,59,59,60,60,61,61,62,62],"right_children":[2,4,6,8,10,12,14,16,18,20,22,24,26,28,30,32,34,36,38,40,42,44,46,48,50,52,54,56,58,60,62,64,-1,66,68,70,72,74,76,78,80,82,84,86,88,90,92,94,96,98,100,102,104,106,108,110,112,114,116,118,120,122,124,-1,-1,-1,-1,-1,-1,-1,-1,-1,-1,-1,-1,-1,-1,-1,-1,-1,-1,-1,-1,-1,-1,-1,-1,-1,-1,-1,-1,-1,-1,-1,-1,-1,-1,-1,-1,-1,-1,-1,-1,-1,-1,-1,-1,-1,-1,-1,-1,-1,-1,-1,-1,-1,-1,-1,-1,-1,-1,-1,-1,-1,-1],"split_conditions":[4.544E2,2.319E2,1.0375E1,7.47E1,8.75E-1,6.422E2,6.699E2,1.0375E1,2.069E2,1E0,3.337E2,1.875E0,8.75E-1,1.8375E1,8.99E2,1E0,2.7625E1,9.575E1,8.7E1,1E0,4.32E2,2.451E2,9.775E1,5.456E2,5.19E2,1E0,1.005E3,6.53E2,5.81E2,8.3E1,2.3375E1,7.15E1,-1.1122691E-2,2.725E1,6.59E1,1E0,1.47E2,1.3375E1,9.8125E1,2.357E2,3.633E2,3.633E2,4.492E2,5.9375E1,8.975E1,2.95E1,9.8625E1,4.694E2,1E0,4.91E2,2.25E0,8.13E2,8.13E2,7.97E2,1E0,1.8E1,1.65E1,2.3375E1,2.225E1,2.4E1,9.4E1,2.2875E1,2.5875E1,-9.551451E-3,-7.38286E-3,-8.06913E-3,1.3779238E-2,-9.151423E-3,-8.088097E-3,-8.096681E-3,-6.7020566E-3,-7.7862176E-3,-5.790642E-3,-7.753259E-3,-6.173638E-3,-4.479704E-4,-4.1929316E-3,-4.810697E-3,2.2809308E-3,-2.4373333E-3,7.4196985E-4,-2.6327579E-3,-1.3299144E-3,2.8836783E-3,-4.3945768E-4,-6.7820908E-3,-4.6716235E-3,-4.5303362E-3,-3.6211738E-3,-1.6221012E-3,-3.5042507E-3,7.537381E-3,-1.4056223E-3,3.5231132E-3,7.2613764E-3,4.81684E-3,9.928656E-3,2.0582797E-3,7.021901E-3,-4.786342E-3,1.1947551E-3,7.382748E-3,8.80933E-3,