{"learner":{"attributes":{"best_iteration":"106","best_score":"0.1703781133170305"},"feature_names":["dswrf","t2m","tcc","system_10","system_4","system_50","system_51"],"feature_types":["float","float","float","i","i","i","i"],"gradient_booster":{"model":{"cats":{"enc":[],"feature_segments":[],"sorted_idx":[]},"gbtree_model_param":{"num_parallel_tree":"1","num_trees":"157"},"iteration_indptr":[0,1,2,3,4,5,6,7,8,9,10,11,12,13,14,15,16,17,18,19,20,21,22,23,24,25,26,27,28,29,30,31,32,33,34,35,36,37,38,39,40,41,42,43,44,45,46,47,48,49,50,51,52,53,54,55,56,57,58,59,60,61,62,63,64,65,66,67,68,69,70,71,72,73,74,75,76,77,78,79,80,81,82,83,84,85,86,87,88,89,90,91,92,93,94,95,96,97,98,99,100,101,102,103,104,105,106,107,108,109,110,111,112,113,114,115,116,117,118,119,120,121,122,123,124,125,126,127,128,129,130,131,132,133,134,135,136,137,138,139,140,141,142,143,144,145,146,147,148,149,150,151,152,153,154,155,156,157],"tree_info":[0,0,0,0,0,0,0,0,0,0,0,0,0,0,0,0,0,0,0,0,0,0,0,0,0,0,0,0,0,0,0,0,0,0,0,0,0,0,0,0,0,0,0,0,0,0,0,0,0,0,0,0,0,0,0,0,0,0,0,0,0,0,0,0,0,0,0,0,0,0,0,0,0,0,0,0,0,0,0,0,0,0,0,0,0,0,0,0,0,0,0,0,0,0,0,0,0,0,0,0,0,0,0,0,0,0,0,0,0,0,0,0,0,0,0,0,0,0,0,0,0,0,0,0,0,0,0,0,0,0,0,0,0,0,0,0,0,0,0,0,0,0,0,0,0,0,0,0,0,0,0,0,0,0,0,0,0],"trees":[{"base_weights":[-7.690691E-4,-1.7620347E-1,1.5618663E-1,-2.6591554E-1,-7.89814E-2,-2.4790205E-1,1.6311471E-1,-3.1459442E-1,-2.4895586E-1,-4.016032E-2,-1.7564516E-1,-1.5729764E-2,-2.1285091E-1,1.0726424E-1,2.05931E-1,-3.2896492E-1,-2.960407E-1,-2.3026375E-1,-2.7386436E-1,-2.2965184E-1,-3.014254E-2,-1.6251992E-1,-2.2207046E-1,-1.8280274E-1,-1.5423222E-2,1.5111668E-1,-1.3823569E-2,2.3799126E-1,1.6828991E-1,-1.694837E-2,-3.1581354E-1,-2.8853127E-1,-1.5876513E-2,-2.5318173E-1,-2.0474297E-1,-2.922041E-1,-2.6346084E-1,7.53482E-2,-2.3551314E-1,-6.329799E-2,3.0592717E-2,-2.0233051E-1,-1.5262596E-1,-1.4630537E-2,-2.0877346E-1,-2.7274212E-1,-9.143469E-2,4.7654867E-2,1.5963157E-1,-4.5463715E-2,3.4964032E-2,2.1944124E-1,2.782188E-1,1.0279226E-1,2.0315316E-1,-1.1271134E-2,-1.59243E-2,-1.455792E-2,-8.837077E-3,-1.1857478E-2,-1.3606156E-2,-1.5019814E-2,-9.6866945E-3,-1.4854774E-2,-1.3428861E-2,-1.2551824E-2,-1.39344605E-2,4.9020103E-3,-3.8549528E-4,-1.2726921E-2,-8.081998E-3,-2.5147807E-3,-5.8159106E-3,2.9555056E-3,-1.4843489E-3,-7.3468373E-3,-1.1146123E-2,-6.78527E-3,-8.194874E-3,-1.0803357E-2,-7.304086E-3,-1.4363873E-2,-9.681036E-3,-5.5611976E-3,1.1907878E-2,-4.349542E-3,3.2409707E-3,8.94865E-3,5.0764806E-3,-1.5268667E-3,-5.5202856E-3,3.715947E-3,-2.0715932E-3,1.1634595E-2,9.324831E-3,-1.2233554E-3,1.423599E-2,6.575644E-3,2.7010879E-3,9.789893E-3,1.5454833E-2],"categories":[],"categories_nodes":[],"categories_segments":[],"categories_sizes":[],"default_left":[0,0,0,0,0,0,0,0,0,0,0,0,0,0,0,0,0,0,0,0,0,0,0,0,0,0,0,0,0,0,0,0,0,0,0,0,0,0,0,0,0,0,0,0,0,0,0,0,0,0,0,0,0,0,0,0,0,0,0,0,0,0,0,0,0,0,0,0,0,0,0,0,0,0,0,0,0,0,0,0,0,0,0,0,0,0,0,0,0,0,0,0,0,0,0,0,0,0,0,0,0],"id":0,"left_children":[1,3,5,7,9,11,13,15,17,19,21,-1,23,25,27,29,31,33,35,37,39,41,43,45,-1,47,49,51,53,-1,55,57,-1,59,61,63,65,67,69,71,73,75,77,-1,79,81,83,85,87,89,91,93,95,97,99,-1,-1,-1,-1,-1,-1,-1,-1,-1,-1,-1,-1,-1,-1,-1,-1,-1,-1,-1,-1,-1,-1,-1,-1,-1,-1,-1,-1,-1,-1,-1,-1,-1,-1,-1,-1,-1,-1,-1,-1,-1,-1,-1,-1,-1,-1],"loss_changes":[7.632545E2,1.14141205E2,4.0998077E1,5.541382E0,2.357048E1,5.104437E-1,3.437451E1,3.7054443E-1,2.2895813E0,8.504986E0,1.0607262E0,0E0,4.1765833E-1,3.3157707E1,9.784363E0,2.1865845E-2,3.3607483E-2,1.6402283E0,3.353424E-1,4.1997814E-1,8.580318E0,5.233116E-1,3.0847168E-1,1.0269136E0,0E0,4.030739E0,2.5655866E0,3.2178345E0,8.537529E0,0E0,3.4008026E-2,1.20643616E-1,0E0,3.9704895E-1,1.3887024E0,9.536743E-3,1.9283295E-1,1.01796575E-2,2.694626E-1,1.894105E0,2.58888E0,2.8320885E-1,1.9346237E-1,0E0,1.2161636E-1,1.7980099E-2,4.5044404E-1,8.145348E-1,4.74102E0,9.7373223E-1,1.969365E0,1.2714539E0,2.7283707E0,1.8194323E0,1.8447418E0,0E0,0E0,0E0,0E0,0E0,0E0,0E0,0E0,0E0,0E0,0E0,0E0,0E0,0E0,0E0,0E0,0E0,0E0,0E0,0E0,0E0,0E0,0E0,0E0,0E0,0E0,0E0,0E0,0E0,0E0,0E0,0E0,0E0,0E0,0E0,0E0,0E0,0E0,0E0,0E0,0E0,0E0,0E0,0E0,0E0,0E0],"parents":[2147483647,0,0,1,1,2,2,3,3,4,4,5,5,6,6,7,7,8,8,9,9,10,10,12,12,13,13,14,14,15,15,16,16,17,17,18,18,19,19,20,20,21,21,22,22,23,23,25,25,26,26,27,27,28,28,30,30,31,31,33,33,34,34,35,35,36,36,37,37,38,38,39,39,40,40,41,41,42,42,44,44,45,45,46,46,47,47,48,48,49,49,50,50,51,51,52,52,53,53,54,54],"right_children":[2,4,6,8,10,12,14,16,18,20,22,-1,24,26,28,30,32,34,36,38,40,42,44,46,-1,48,50,52,54,-1,56,58,-1,60,62,64,66,68,70,72,74,76,78,-1,80,82,84,86,88,90,92,94,96,98,100,-1,-1,-1,-1,-1,-1,-1,-1,-1,-1,-1,-1,-1,-1,-1,-1,-1,-1,-1,-1,-1,-1,-1,-1,-1,-1,-1,-1,-1,-1,-1,-1,-1,-1,-1,-1,-1,-1,-1,-1,-1,-1,-1,-1,-1,-1],"split_conditions":[4.422E2,2.316E2,2.6954358E2,7.78E1,2.928653E2,2.6579935E2,6.764E2,5.71E1,2.877039E2,2.6871692E2,3.033628E2,-1.5729764E-2,7.59E2,2.9601758E2,2.9836472E2,2.8141455E2,2.9060495E2,1.475E2,1.393E2,2.356E2,3.764E2,2.823E2,2.634E2,5.404E2,-1.5423222E-2,2.7399365E2,5.98E2,9.01E2,8.27E2,-1.694837E-2,2.8192877E2,2.9032748E2,-1.5876513E-2,2.780907E2,2.6993857E2,1E0,2.9579105E2,1E0,1E0,2.8812518E2,2.8704556E2,2.9579105E2,2.9601758E2,-1.4630537E-2,3.077269E2,2.6922858E2,7.502E2,2.7029922E2,2.9070602E2,3.0531436E2,3.0319196E2,2.9347906E2,2.750515E2,3.0379785E2,1.032E3,-1.1271134E-2,-1.59243E-2,-1.455792E-2,-8.837077E-3,-1.1857478E-2,-1.3606156E-2,-1.5019814E-2,-9.6866945E-3,-1.4854774E-2,-1.3428861E-2,-1.2551824E-2,-1.39344605E-2,4.9020103E-3,-3.8549528E-4,-1.2726921E-2,-8.081998E-3,-2.5147807E-3,-5.8159106E-3,2.9555056E-3,-1.4843489E-3,-7.3468373E-3,-1.1146123E-2,-6.78527E-3,-8.194874E-3,-1.0803357E-2,-7.304086E-3,-1.4363873E-2,-9.681036E-3,-5.5611976E-3,1.1907878E-2,-4.349542E-3,3.2409707E-3,8.94865E-3,5.0764806E-3,-1.5268667E-3,-5.5202856E-3,3.715947E-3,-2.0715932E-3,1.1634595E-2,9.324831E-3,-1.2233554E-3,1.423599E-2,6.575644E-3,2.7010879E-3,9.789893E-3,1.5454833E-2],"split_indices":[0,0,1,0,1,1,0,0,1,1,1,0,0,1,1,1,1,0,0,0,0,0,0,0,0,1,0,0,0,0,1,1,0,1,1,5,1,4,5,1,1,1,1,0,1,1,0,1,1,1,1,1,1,1,0,0,0,0,0,0,0,0,0,0,0,0,0,0,0,0,0,0,0,0,0,0,0,0,0,0,0,0,0,0,0,0,0,0,0,0,0,0,0,0,0,0,0,0,0,0,0],"split_type":[0,0,0,0,0,0,0,0,0,0,0,0,0,0,0,0,0,0,0,0,0,0,0,0,0,0,0,0,0,0,0,0,0,0,0,0,0,0,0,0,0,0,0,0,0,0,0,0,0,0,0,0,0,0,0,0,0,0,0,0,0,0,0,0,0,0,0,0,0,0,0,0,0,0,0,0,0,0,0,0,0,0,0,0,0,0,0,0,0,0,0,0,0,0,0,0,0,0,0,0,0],"sum_hessian":[2.7717E4,1.3088E4,1.4629E4,6.806E3,6.282E3,2.46E2,1.4383E4,1.754E3,5.052E3,4.483E3,1.799E3,8.2E1,1.64E2,6.243E3,8.14E3,9.79E2,7.75E2,2.892E3,2.16E3,2.24E2,4.259E3,1.406E3,3.93E2,1.27E2,3.7E1,4.583E3,1.66E3,4.393E3,3.747E3,5.42E2,4.37E2,5.85E2,1.9E2,1.519E3,1.373E3,7.72E2,1.388E3,4E0,2.2E2,2.755E3,1.504E3,2.76E2,1.13E3,5.9E1,3.34E2,6.3E1,6.4E1,3.49E2,4.234E3,1.007E3,6.53E2,3.011E3,1.382E3,1.303E3,2.444E3,1.5E1,4.22E2,5.7E2,1.5E1,8.3E2,6.89E2,1.39E2,1.234E3,6.3E2,1.42E2,7.74E2,6.14E2,3E0,1E0,1.73E2,4.7E1,2.214E3,5.41E2,1.021E3,4.83E2,7.7E1,1.99E2,4.57E2,6.73E2,2.97E2,3.7E1,5.1E1,1.2E1,6.1E1,3E0,3.9E1,3.1E2,3.175E3,1.059E3,8.2E2,1.87E2,4.31E2,2.22E2,2.143E3,8.68E2,2.9E1,1.353E3,8.19E2,4.84E2,2.288E3,1.56E2],"tree_param":{"num_deleted":"0","num_feature":"7","num_nodes":"101","size_leaf_vector":"1"}},{"base_weights":[2.0424479E-4,7.752105E-2,-8.96093E-2,1.0247515E-1,2.2033531E-2,-1.8733725E-1,-6.2129885E-2,-9.638124E-2,1.07310355E-1,-2.0469196E-1,2.864838E-2,-2.619097E-1,-1.5906385E-1,-4.1015495E-2,-8.403461E-2,-2.0128687E-1,-2.5556654E-2,1.2010745E-1,8.185852E-2,-1.4160003E-2,-1.7673738E-1,4.7375247E-2,6.0121925E-3,-2.830822E-1,-2.2415926E-1,-3.1388167E-2,-1.7623906E-1,-4.3358058E-2,3.6019552E-2,-1.2680706E-1,-7.38689E-2,-1.4011174E-2,-1.629054E-1,2.25815E-2,-1.3985096E-1,1.4138696E-1,1.0756792E-1,6.9496535E-2,1.2019688E-1,-1.1178887E-1,-2.237724E-1,-1.2703364E-2,5.4557804E-2,8.8854365E-2,-8.179134E-4,-2.9204753E-1,-2.4989633E-1,1.34011805E-2,-2.3574603E-1,-2.1827638E-1,-7.2401958E-3,-1.9318677E-1,-1.6139413E-1,3.2930575E-2,-4.536086E-2,-2.0965496E-2,6.763341E-2,-2.1879846E-1,-1.0033418E-1,-6.3165136E-2,-9.506937E-2,-6.428644E-3,-1.3896546E-2,1.7678319E-3,-6.058684E-4,-9.563949E-3,2.7066108E-3,7.879873E-3,4.390812E-3,4.591325E-3,6.9953166E-3,4.6905032E-3,2.5994922E-3,6.7210007E-3,3.6694412E-3,-1.0219526E-2,-3.7364003E-3,-3.1925607E-4,-1.2703947E-2,9.404311E-4,-6.401222E-3,4.4578197E-3,1.8698536E-3,-1.46380095E-2,5.7105045E-3,-5.259355E-4,2.0474717E-3,-1.5211505E-2,-1.3705398E-2,-1.4031929E-2,-1.0979659E-2,-1.0582092E-2,-1.3198755E-2,-1.4909948E-2,9.402494E-4,-1.7317893E-3,5.419252E-3,-8.424415E-3,-1.0452263E-2,-1.0379628E-2,-7.850902E-3,1.2027009E-2,-2.7062714E-3,-4.7166105E-3,-2.0118644E-3,2.7715059E-3,-6.9039236E-3,8.31126E-3,-1.6134347E-4,-1.2982303E-2,-8.909602E-3,-6.162995E-3,-4.1720555E-3,-4.0809205E-3,-2.6268119E-3,-5.082874E-3,-9.896931E-4],"categories":[],"categories_nodes":[],"categories_segments":[],"categories_sizes":[],"default_left":[0,0,0,0,0,0,0,0,0,0,0,0,0,0,0,0,0,0,0,0,0,0,0,0,0,0,0,0,0,0,0,0,0,0,0,0,0,0,0,0,0,0,0,0,0,0,0,0,0,0,0,0,0,0,0,0,0,0,0,0,0,0,0,0,0,0,0,0,0,0,0,0,0,0,0,0,0,0,0,0,0,0,0,0,0,0,0,0,0,0,0,0,0,0,0,0,0,0,0,0,0,0,0,0,0,0,0,0,0,0,0,0,0,0,0,0,0],"id":1,"left_children":[1,3,5,7,9,11,13,15,17,19,21,23,25,27,29,31,33,35,37,-1,39,41,43,45,47,49,51,53,55,57,59,-1,61,63,65,67,69,71,73,75,77,79,81,83,85,87,89,-1,91,93,95,97,99,101,103,105,107,109,111,113,115,-1,-1,-1,-1,-1,-1,-1,-1,-1,-1,-1,-1,-1,-1,-1,-1,-1,-1,-1,-1,-1,-1,-1,-1,-1,-1,-1,-1,-1,-1,-1,-1,-1,-1,-1,-1,-1,-1,-1,-1,-1,-1,-1,-1,-1,-1,-1,-1,-1,-1,-1,-1,-1,-1,-1,-1],"loss_changes":[1.9372641E2,2.0756287E1,3.4647522E1,9.953331E0,6.982724E0,5.9293747E0,4.656288E0,1.8226104E0,3.2785263E0,2.396431E-1,1.9161892E0,5.575752E-1,4.5029793E0,9.2768E-1,2.1403427E0,2.5429058E-1,8.174417E-1,1.7768555E0,1.5940323E0,0E0,2.8047037E-1,1.0682693E0,1.1588737E0,7.39975E-2,1.6827812E0,1.1040977E0,4.247017E-1,7.625456E-1,2.7524862E-1,2.2866907E0,9.010143E-1,0E0,2.3675478E-1,4.6973128E-2,4.4930595E-1,2.1458893E0,2.140442E0,1.0843601E0,5.3805256E-1,1.3572973E-1,3.7390804E-1,9.6541697E-1,1.3088255E0,1.54291E0,7.6742995E-1,3.1280518E-4,4.2711258E-2,0E0,1.3329601E-1,5.361562E-1,6.942955E-1,2.9417992E-1,1.6391182E-1,2.3264482E0,1.2141123E0,4.9973407E-1,6.8518806E-1,3.0371284E-1,2.755313E-1,5.1724243E-1,6.6202927E-1,0E0,0E0,0E0,0E0,0E0,0E0,0E0,0E0,0E0,0E0,0E0,0E0,0E0,0E0,0E0,0E0,0E0,0E0,0E0,0E0,0E0,0E0,0E0,0E0,0E0,0E0,0E0,0E0,0E0,0E0,0E0,0E0,0E0,0E0,0E0,0E0,0E0,0E0,0E0,0E0,0E0,0E0,0E0,0E0,0E0,0E0,0E0,0E0,0E0,0E0,0E0,0E0,0E0,0E0,0E0,0E0],"parents":[2147483647,0,0,1,1,2,2,3,3,4,4,5,5,6,6,7,7,8,8,9,9,10,10,11,11,12,12,13,13,14,14,15,15,16,16,17,17,18,18,20,20,21,21,22,22,23,23,24,24,25,25,26,26,27,27,28,28,29,29,30,30,32,32,33,33,34,34,35,35,36,36,37,37,38,38,39,39,40,40,41,41,42,42,43,43,44,44,45,45,46,46,48,48,49,49,50,50,51,51,52,52,53,53,54,54,55,55,56,56,57,57,58,58,59,59,60,60],"right_children":[2,4,6,8,10,12,14,16,18,20,22,24,26,28,30,32,34,36,38,-1,40,42,44,46,48,50,52,54,56,58,60,-1,62,64,66,68,70,72,74,76,78,80,82,84,86,88,90,-1,92,94,96,98,100,102,104,106,108,110,112,114,116,-1,-1,-1,-1,-1,-1,-1,-1,-1,-1,-1,-1,-1,-1,-1,-1,-1,-1,-1,-1,-1,-1,-1,-1,-1,-1,-1,-1,-1,-1,-1,-1,-1,-1,-1,-1,-1,-1,-1,-1,-1,-1,-1,-1,-1,-1,-1,-1,-1,-1,-1,-1,-1,-1,-1,-1],"split_conditions":[2.7625E1,5E0,2.7697565E2,2.7064554E2,2.6954358E2,2.6993857E2,8.8E1,2.6829858E2,1E0,2.6579935E2,2.9549033E2,2.6829858E2,4.7375E1,3.0706226E2,2.8123785E2,2.6579935E2,5E-1,2.8746558E2,2.998716E2,-1.4160003E-2,2.6781195E2,2.7525156E2,6E0,1E0,3.2375E1,3.0125E1,1E2,2.7776605E2,4.0375E1,9.8E1,1E0,-1.4011174E-2,6.25E-1,1E0,3E0,5E-1,2.995624E2,2.8746558E2,1E0,9.125E0,8E0,2.7448383E2,2.8257938E2,2.964339E2,3.0649286E2,2.6579935E2,9.1875E1,1.34011805E-2,1E2,2.7525156E2,2.7579526E2,2.7324515E2,2.7096112E2,3.925E1,2.8123785E2,3.375E1,5.3E1,2.7890863E2,2.7860028E2,2.875874E2,3.04822E2,-6.428644E-3,-1.3896546E-2,1.7678319E-3,-6.058684E-4,-9.563949E-3,2.7066108E-3,7.879873E-3,4.390812E-3,4.591325E-3,6.9953166E-3,4.6905032E-3,2.5994922E-3,6.7210007E-3,3.6694412E-3,-1.0219526E-2,-3.7364003E-3,-3.1925607E-4,-1.2703947E-2,9.404311E-4,-6.401222E-3,4.4578197E-3,1.8698536E-3,-1.46380095E-2,5.7105045E-3,-5.259355E-4,2.0474717E-3,-1.5211505E-2,-1.3705398E-2,-1.4031929E-2,-1.0979659E-2,-1.0582092E-2,-1.3198755E-2,-1.4909948E-2,9.402494E-4,-1.7317893E-3,5.419252E-3,-8.424415E-3,-1.0452263E-2,-1.0379628E-2,-7.850902E-3,1.2027009E-2,-2.7062714E-3,-4.7166105E-3,-2.0118644E-3,2.7715059E-3,-6.9039236E-3,8.31126E-3,-1.6134347E-4,-1.2982303E-2,-8.909602E-3,-6.162995E-3,-4.1720555E-3,-4.0809205E-3,-2.6268119E-3,-5.082874E-3,-9.896931E-4],"split_indices":[2,2,1,1,1,1,2,1,3,1,1,1,2,1,1,1,2,1,1,0,1,1,2,5,2,2,2,1,2,2,3,0,2,3,2,2,1,1,2,2,2,1,1,1,1,1,2,0,2,1,1,1,1,2,1,2,2,1,1,1,1,0,0,0,0,0,0,0,0,0,0,0,0,0,0,0,0,0,0,0,0,0,0,0,0,0,0,0,0,0,0,0,0,0,0,0,0,0,0,0,0,0,0,0,0,0,0,0,0,0,0,0,0,0,0,0,0],"split_type":[0,0,0,0,0,0,0,0,0,0,0,0,0,0,0,0,0,0,0,0,0,0,0,0,0,0,0,0,0,0,0,0,0,0,0,0,0,0,0,0,0,0,0,0,0,0,0,0,0,0,0,0,0,0,0,0,0,0,0,0,0,0,0,0,0,0,0,0,0,0,0,0,0,0,0,0,0,0,0,0,0,0,0,0,0,0,0,0,0,0,0,0,0,0,0,0,0,0,0,0,0,0,0,0,0,0,0,0,0,0,0,0,0,0,0,0,0],"sum_hessian":[2.7896E4,1.4991E4,1.2905E4,1.034E4,4.651E3,2.831E3,1.0074E4,2.45E2,1.0095E4,1.31E2,4.52E3,7.76E2,2.055E3,5.131E3,4.943E3,9.8E1,1.47E2,6.715E3,3.38E3,3.2E1,9.9E1,2.473E3,2.047E3,4.93E2,2.83E2,2.44E2,1.811E3,4.98E3,1.51E2,9.47E2,3.996E3,3E1,6.8E1,1.04E2,4.3E1,2.486E3,4.229E3,2.558E3,8.22E2,4.3E1,5.6E1,2.64E2,2.209E3,1.55E2,1.892E3,3.82E2,1.11E2,6E0,2.77E2,2.7E1,2.17E2,8.4E2,9.71E2,1.27E2,4.853E3,5.4E1,9.7E1,2.1E2,7.37E2,2.658E3,1.338E3,5.4E1,1.4E1,7.6E1,2.8E1,3.4E1,9E0,1.907E3,5.79E2,2.847E3,1.382E3,1.069E3,1.489E3,6.29E2,1.93E2,1.1E1,3.2E1,7E0,4.9E1,2.08E2,5.6E1,7.31E2,1.478E3,9E0,1.46E2,1.536E3,3.56E2,2.18E2,1.64E2,5.1E1,6E1,1.54E2,1.23E2,2E1,7E0,1.76E2,4.1E1,3.33E2,5.07E2,8E1,8.91E2,3.7E1,9E1,4.58E2,4.395E3,3.3E1,2.1E1,4E1,5.7E1,1.02E2,1.08E2,3.1E2,4.27E2,9.69E2,1.689E3,1.23E3,1.08E2],"tree_param":{"num_deleted":"0","num_feature":"7","num_nodes":"117","size_leaf_vector":"1"}},{"base_weights":[-2.4182317E-4,-1.6334958E-1,1.4571135E-1,-2.4769591E-1,-7.1559414E-2,8.857591E-2,1.8947218E-1,-2.938881E-1,-2.3196667E-1,-3.314381E-2,-1.6469292E-1,1.2499454E-1,-1.8437492E-2,-2.0784813E-1,1.9185491E-1,-1.5284382E-2,-2.739352E-1,-2.1264856E-1,-2.5756842E-1,-6.823001E-2,2.8734686E-2,-1.5023595E-1,-2.1090896E-1,-2.1862637E-1,1.4030795E-1,6.1773513E-3,-6.269527E-2,-1.2812458E-1,-1.3058044E-2,2.2628683E-1,1.5940903E-1,-2.651968E-1,-1.4973588E-2,-2.3289144E-1,-1.8946186E-1,-2.6119515E-1,-2.0169494E-1,-1.6649657E-1,-5.7254955E-2,-1.8113147E-1,3.7669677E-2,-2.2096959E-1,-1.438038E-1,-2.3068228E-1,-1.796298E-1,-2.4219412E-1,-1.3719299E-2,1.552024E-1,8.7186046E-2,-2.6115684E-2,5.9845626E-2,-1.3675666E-1,-5.2054025E-2,-1.6095856E-1,6.6738403E-3,2.1291474E-1,2.7580267E-1,9.848866E-2,1.9257641E-1,-1.3402166E-2,-5.0026537E-3,-1.0808318E-2,-1.262481E-2,-1.4665713E-2,-9.077522E-3,-1.30828945E-2,-2.9780657E-3,-9.08529E-3,-1.4941643E-2,-4.733602E-3,-1.1181488E-2,-1.9376172E-3,-5.2820956E-3,-1.7295029E-3,-1.0652783E-2,3.531313E-3,-1.2851454E-3,-8.05744E-3,-1.2309493E-2,-7.951117E-3,-6.323398E-3,-1.3678587E-2,-1.0887887E-2,-5.26113E-3,-1.086079E-2,-1.289773E-2,-8.555559E-3,-1.3140649E-2,2.8117788E-3,2.5694775E-3,8.319857E-3,2.3129059E-3,6.6905688E-3,4.8211336E-5,-2.3434877E-3,2.0895076E-3,4.874388E-3,-8.395124E-3,-1.6995635E-3,5.1256986E-3,-2.7211502E-3,-1.249372E-2,-3.2746687E-3,1.1157906E-2,8.8085905E-3,-1.1330779E-4,1.424751E-2,6.401062E-3,2.6752693E-3,9.324713E-3,1.4003749E-2],"categories":[],"categories_nodes":[],"categories_segments":[],"categories_sizes":[],"default_left":[0,0,0,0,0,0,0,0,0,0,0,0,0,0,0,0,0,0,0,0,0,0,0,0,0,0,0,0,0,0,0,0,0,0,0,0,0,0,0,0,0,0,0,0,0,0,0,0,0,0,0,0,0,0,0,0,0,0,0,0,0,0,0,0,0,0,0,0,0,0,0,0,0,0,0,0,0,0,0,0,0,0,0,0,0,0,0,0,0,0,0,0,0,0,0,0,0,0,0,0,0,0,0,0,0,0,0,0,0,0,0],"id":2,"left_children":[1,3,5,7,9,11,13,15,17,19,21,23,25,27,29,-1,31,33,35,37,39,41,43,45,47,49,51,53,-1,55,57,59,-1,61,63,65,67,69,71,73,75,77,79,81,83,85,87,89,91,93,95,97,99,101,-1,103,105,107,109,-1,-1,-1,-1,-1,-1,-1,-1,-1,-1,-1,-1,-1,-1,-1,-1,-1,-1,-1,-1,-1,-1,-1,-1,-1,-1,-1,-1,-1,-1,-1,-1,-1,-1,-1,-1,-1,-1,-1,-1,-1,-1,-1,-1,-1,-1,-1,-1,-1,-1,-1,-1],"loss_changes":[6.617856E2,1.016214E2,3.666501E1,4.902313E0,2.2491623E1,2.4808506E1,7.904175E0,3.2450867E-1,2.471527E0,9.669785E0,1.1950226E0,2.5019936E1,1.7619445E0,1.7905307E-1,9.189545E0,0E0,6.6516876E-2,1.3250122E0,3.9151E-1,3.0555124E0,3.0295684E0,6.0609055E-1,2.2760773E-1,9.77005E-1,3.5841522E0,1.8039987E0,4.4840646E-1,2.104514E-1,0E0,2.592453E0,8.578552E0,2.063446E-1,0E0,4.5463562E-1,1.068264E0,1.7614746E-1,2.1365595E-1,1.148345E0,2.286045E0,3.013928E-1,3.2327924E0,1.3382721E-1,3.1969452E-1,8.621502E-2,4.6096754E-1,1.5975666E-1,3.981364E-1,4.117111E0,1.8982711E0,3.6535713E-1,2.6166773E-1,2.247442E-1,1.9122648E-1,1.5340221E-1,0E0,1.14888E0,2.1576538E0,1.9885168E0,1.4133911E0,0E0,0E0,0E0,0E0,0E0,0E0,0E0,0E0,0E0,0E0,0E0,0E0,0E0,0E0,0E0,0E0,0E0,0E0,0E0,0E0,0E0,0E0,0E0,0E0,0E0,0E0,0E0,0E0,0E0,0E0,0E0,0E0,0E0,0E0,0E0,0E0,0E0,0E0,0E0,0E0,0E0,0E0,0E0,0E0,0E0,0E0,0E0,0E0,0E0,0E0,0E0,0E0],"parents":[2147483647,0,0,1,1,2,2,3,3,4,4,5,5,6,6,7,7,8,8,9,9,10,10,11,11,12,12,13,13,14,14,16,16,17,17,18,18,19,19,20,20,21,21,22,22,23,23,24,24,25,25,26,26,27,27,29,29,30,30,31,31,33,33,34,34,35,35,36,36,37,37,38,38,39,39,40,40,41,41,42,42,43,43,44,44,45,45,46,46,47,47,48,48,49,49,50,50,51,51,52,52,53,53,55,55,56,56,57,57,58,58],"right_children":[2,4,6,8,10,12,14,16,18,20,22,24,26,28,30,-1,32,34,36,38,40,42,44,46,48,50,52,54,-1,56,58,60,-1,62,64,66,68,70,72,74,76,78,80,82,84,86,88,90,92,94,96,98,100,102,-1,104,106,108,110,-1,-1,-1,-1,-1,-1,-1,-1,-1,-1,-1,-1,-1,-1,-1,-1,-1,-1,-1,-1,-1,-1,-1,-1,-1,-1,-1,-1,-1,-1,-1,-1,-1,-1,-1,-1,-1,-1,-1,-1,-1,-1,-1,-1,-1,-1,-1,-1,-1,-1,-1,-1],"split_conditions":[4.422E2,2.316E2,6.764E2,7.78E1,2.928653E2,2.9601758E2,2.6922858E2,6.03E1,2.877039E2,3.764E2,3.030656E2,2.6993857E2,3.030656E2,7.54E2,2.9684647E2,-1.5284382E-2,2.9047406E2,1.475E2,2.221E2,2.711855E2,2.6871692E2,2.521E2,3.728E2,6.342E2,2.9105847E2,5.98E2,4.794E2,7.502E2,-1.3058044E-2,9.27E2,8.27E2,2.9032748E2,-1.4973588E-2,2.779201E2,2.6871692E2,3.08077E2,3.0319196E2,2.773E2,2.8664764E2,3.848E2,2.8637677E2,2.9579105E2,3.645E2,2.634E2,4.003E2,2.6922858E2,2.6409427E2,2.7399365E2,5.743E2,2.986958E2,6.431E2,3.0649286E2,4.825E2,2.6829858E2,6.6738403E-3,2.9347906E2,2.750515E2,3.0291666E2,1.032E3,-1.3402166E-2,-5.0026537E-3,-1.0808318E-2,-1.262481E-2,-1.4665713E-2,-9.077522E-3,-1.30828945E-2,-2.9780657E-3,-9.08529E-3,-1.4941643E-2,-4.733602E-3,-1.1181488E-2,-1.9376172E-3,-5.2820956E-3,-1.7295029E-3,-1.0652783E-2,3.531313E-3,-1.2851454E-3,-8.05744E-3,-1.2309493E-2,-7.951117E-3,-6.323398E-3,-1.3678587E-2,-1.0887887E-2,-5.26113E-3,-1.086079E-2,-1.289773E-2,-8.555559E-3,-1.3140649E-2,2.8117788E-3,2.5694775E-3,8.319857E-3,2.3129059E-3,6.6905688E-3,4.8211336E-5,-2.3434877E-3,2.0895076E-3,4.874388E-3,-8.395124E-3,-1.6995635E-3,5.1256986E-3,-2.7211502E-3,-1.249372E-2,-3.2746687E-3,1.1157906E-2,8.8085905E-3,-1.1330779E-4,1.424751E-2,6.401062E-3,2.6752693E-3,9.324713E-3,1.4003749E-2],"split_indices":[0,0,0,0,1,1,1,0,1,0,1,1,1,0,1,0,1,0,0,1,1,0,0,0,1,0,0,0,0,0,0,1,0,1,1,1,1,0,1,0,1,1,0,0,0,1,1,1,0,1,0,1,0,1,0,1,1,1,0,0,0,0,0,0,0,0,0,0,0,0,0,0,0,0,0,0,0,0,0,0,0,0,0,0,0,0,0,0,0,0,0,0,0,0,0,0,0,0,0,0,0,0,0,0,0,0,0,0,0,0,0],"split_type":[0,0,0,0,0,0,0,0,0,0,0,0,0,0,0,0,0,0,0,0,0,0,0,0,0,0,0,0,0,0,0,0,0,0,0,0,0,0,0,0,0,0,0,0,0,0,0,0,0,0,0,0,0,0,0,0,0,0,0,0,0,0,0,0,0,0,0,0,0,0,0,0,0,0,0,0,0,0,0,0,0,0,0,0,0,0,0,0,0,0,0,0,0,0,0,0,0,0,0,0,0,0,0,0,0,0,0,0,0,0,0],"sum_hessian":[2.7797E4,1.3127E4,1.467E4,6.84E3,6.287E3,6.364E3,8.306E3,1.733E3,5.107E3,4.452E3,1.835E3,4.748E3,1.616E3,4.9E1,8.257E3,1.08E3,6.53E2,2.916E3,2.191E3,2.841E3,1.611E3,1.401E3,4.34E2,2.02E2,4.546E3,1.039E3,5.77E2,2.1E1,2.8E1,4.003E3,4.254E3,4.95E2,1.58E2,1.552E3,1.364E3,2.054E3,1.37E2,2.84E2,2.557E3,6.5E1,1.546E3,1.14E2,1.287E3,2.62E2,1.72E2,1.81E2,2.1E1,3.549E3,9.97E2,6.49E2,3.9E2,7.1E1,5.06E2,1.9E1,2E0,3.156E3,8.47E2,1.501E3,2.753E3,4.86E2,9E0,8.44E2,7.08E2,9.4E1,1.27E3,2.049E3,5E0,1.16E2,2.1E1,1.27E2,1.57E2,1.851E3,7.06E2,1.2E1,5.3E1,1.017E3,5.29E2,3.6E1,7.8E1,6.81E2,6.06E2,5.6E1,2.06E2,5.9E1,1.13E2,1.46E2,3.5E1,4E0,1.7E1,3.46E2,3.203E3,5.32E2,4.65E2,2.82E2,3.67E2,2.65E2,1.25E2,5.4E1,1.7E1,7E0,4.99E2,9E0,1E1,2.464E3,6.92E2,2.7E1,8.2E2,9.05E2,5.96E2,2.577E3,1.76E2],"tree_param":{"num_deleted":"0","num_feature":"7","num_nodes":"111","size_leaf_vector":"1"}},{"base_weights":[-1.3110908E-3,-1.5608796E-1,1.4019135E-1,-2.3646192E-1,-6.955634E-2,8.73453E-2,1.8035117E-1,-2.744335E-1,-2.1884456E-1,-9.315742E-2,-2.8694099E-2,4.299062E-2,9.3229E-2,1.6204898E-1,2.0925444E-1,-1.4497167E-2,-2.584393E-1,-2.3298235E-1,-2.0733255E-1,-1.0260023E-1,-5.785865E-2,-1.1896211E-2,-4.869243E-2,1.7954009E-2,5.4721925E-2,8.671044E-2,1.17137946E-1,1.513961E-1,1.7386174E-1,1.9807068E-1,2.5108558E-1,-2.5031838E-1,-1.4025169E-2,-2.3855264E-1,-1.0516739E-2,-2.1220398E-1,-1.8721728E-1,-1.1428753E-1,-7.390224E-2,-1.0096659E-1,-5.37107E-2,-2.4702454E-2,3.505668E-2,-6.5580696E-2,-2.210627E-2,5.7265095E-2,-2.6831133E-2,4.9614277E-2,6.917841E-2,1.0813405E-1,7.395174E-2,1.2048392E-1,8.537977E-2,1.8387565E-1,1.4837895E-1,1.88225E-1,1.6096316E-1,1.8823665E-1,2.2452478E-1,2.3746246E-1,1.4311698E-2,-1.2094723E-2,-1.3017856E-2,-1.2358685E-2,-1.0773201E-2,-1.0956024E-2,-9.635348E-3,-9.100928E-3,-1.05517E-2,-6.4899824E-3,-4.6021487E-3,-4.0522306E-3,-2.8817968E-3,-6.4118863E-3,-4.460703E-3,-2.0815106E-3,-2.9518795E-3,-2.0092637E-3,5.865565E-4,8.1214047E-4,2.2187184E-3,-3.7969127E-3,-1.5651925E-3,-1.5441001E-3,4.3524732E-4,4.011115E-3,6.3289836E-4,-2.0639345E-3,1.2259805E-3,2.2390431E-3,3.1093813E-3,2.4093643E-3,4.684085E-3,4.2286883E-3,5.826134E-3,2.9266933E-3,4.674654E-3,5.7598352E-3,8.43992E-3,4.5409543E-3,3.0372473E-3,9.575562E-3,7.4316855E-3,6.3276337E-3,7.647951E-3,9.096837E-3,1.0704266E-2,7.639341E-3,9.061422E-3,9.622919E-3,7.1454863E-3,1.1798038E-2,1.0267472E-2,1.23359375E-2,1.0758523E-2],"categories":[],"categories_nodes":[],"categories_segments":[],"categories_sizes":[],"default_left":[0,0,0,0,0,0,0,0,0,0,0,0,0,0,0,0,0,0,0,0,0,0,0,0,0,0,0,0,0,0,0,0,0,0,0,0,0,0,0,0,0,0,0,0,0,0,0,0,0,0,0,0,0,0,0,0,0,0,0,0,0,0,0,0,0,0,0,0,0,0,0,0,0,0,0,0,0,0,0,0,0,0,0,0,0,0,0,0,0,0,0,0,0,0,0,0,0,0,0,0,0,0,0,0,0,0,0,0,0,0,0,0,0,0,0],"id":3,"left_children":[1,3,5,7,9,11,13,15,17,19,21,23,25,27,29,-1,31,33,35,37,39,41,43,45,47,49,51,53,55,57,59,61,-1,63,-1,65,67,69,71,73,75,77,79,81,83,85,87,89,91,93,95,97,99,101,103,105,107,109,111,113,-1,-1,-1,-1,-1,-1,-1,-1,-1,-1,-1,-1,-1,-1,-1,-1,-1,-1,-1,-1,-1,-1,-1,-1,-1,-1,-1,-1,-1,-1,-1,-1,-1,-1,-1,-1,-1,-1,-1,-1,-1,-1,-1,-1,-1,-1,-1,-1,-1,-1,-1,-1,-1,-1,-1],"loss_changes":[6.0760785E2,9.21358E1,3.0742584E1,4.535034E0,6.1520844E0,1.6296616E0,4.3218384E0,4.6411133E-1,7.16156E-1,1.3423424E0,7.848244E-1,2.1489584E-1,8.5108185E-1,6.0865784E-1,1.4421692E0,0E0,1.2312317E-1,2.1474457E-1,2.1485138E-1,1.0614853E0,1.4763808E-1,7.6570696E-1,4.7762704E-1,4.1702688E-1,3.3486962E-2,1.1799278E0,1.1520767E-1,2.3348236E-1,4.117508E-1,6.1357117E-1,2.5236893E-1,4.5051575E-3,0E0,2.8074646E-1,0E0,2.3880768E-1,2.5352478E-2,7.696152E-1,1.0291147E-1,1.2276769E-2,4.7929287E-2,5.6456596E-1,4.7136605E-2,2.2909904E-1,1.12751484E-1,1.2801552E-1,8.336223E-2,1.9883215E-2,6.132281E-2,3.103199E-1,8.1613445E-1,2.5286388E-1,1.0026813E-2,3.1273365E-2,2.2455978E-1,1.4366913E-1,1.8175125E-1,3.2536316E-1,1.0022354E-1,4.7607422E-2,0E0,0E0,0E0,0E0,0E0,0E0,0E0,0E0,0E0,0E0,0E0,0E0,0E0,0E0,0E0,0E0,0E0,0E0,0E0,0E0,0E0,0E0,0E0,0E0,0E0,0E0,0E0,0E0,0E0,0E0,0E0,0E0,0E0,0E0,0E0,0E0,0E0,0E0,0E0,0E0,0E0,0E0,0E0,0E0,0E0,0E0,0E0,0E0,0E0,0E0,0E0,0E0,0E0,0E0,0E0],"parents":[2147483647,0,0,1,1,2,2,3,3,4,4,5,5,6,6,7,7,8,8,9,9,10,10,11,11,12,12,13,13,14,14,16,16,17,17,18,18,19,19,20,20,21,21,22,22,23,23,24,24,25,25,26,26,27,27,28,28,29,29,30,30,31,31,33,33,35,35,36,36,37,37,38,38,39,39,40,40,41,41,42,42,43,43,44,44,45,45,46,46,47,47,48,48,49,49,50,50,51,51,52,52,53,53,54,54,55,55,56,56,57,57,58,58,59,59],"right_children":[2,4,6,8,10,12,14,16,18,20,22,24,26,28,30,-1,32,34,36,38,40,42,44,46,48,50,52,54,56,58,60,62,-1,64,-1,66,68,70,72,74,76,78,80,82,84,86,88,90,92,94,96,98,100,102,104,106,108,110,112,114,-1,-1,-1,-1,-1,-1,-1,-1,-1,-1,-1,-1,-1,-1,-1,-1,-1,-1,-1,-1,-1,-1,-1,-1,-1,-1,-1,-1,-1,-1,-1,-1,-1,-1,-1,-1,-1,-1,-1,-1,-1,-1,-1,-1,-1,-1,-1,-1,-1,-1,-1,-1,-1,-1,-1],"split_conditions":[4.461E2,2.316E2,6.764E2,8.97E1,3.764E2,4.73E2,9.01E2,6.03E1,1.475E2,1E0,4.116E2,4.552E2,6.214E2,7.91E2,1.01E3,-1.4497167E-2,1E0,1E0,1E0,1E0,2.426E2,1E0,4.311E2,4.509E2,1E0,5.3E2,6.703E2,6.885E2,8.41E2,1E0,1E0,1E0,-1.4025169E-2,1E0,-1.0516739E-2,1E0,2.186E2,3.158E2,3.27E2,2.356E2,2.773E2,1E0,3.88E2,1E0,1E0,1E0,1E0,1E0,4.662E2,4.868E2,5.846E2,6.65E2,1E0,1E0,7.109E2,8.27E2,1E0,1.002E3,9.66E2,1E0,1.4311698E-2,-1.2094723E-2,-1.3017856E-2,-1.2358685E-2,-1.0773201E-2,-1.0956024E-2,-9.635348E-3,-9.100928E-3,-1.05517E-2,-6.4899824E-3,-4.6021487E-3,-4.0522306E-3,-2.8817968E-3,-6.4118863E-3,-4.460703E-3,-2.0815106E-3,-2.9518795E-3,-2.0092637E-3,5.865565E-4,8.1214047E-4,2.2187184E-3,-3.7969127E-3,-1.5651925E-3,-1.5441001E-3,4.3524732E-4,4.011115E-3,6.3289836E-4,-2.0639345E-3,1.2259805E-3,2.2390431E-3,3.1093813E-3,2.4093643E-3,4.684085E-3,4.2286883E-3,5.826134E-3,2.9266933E-3,4.674654E-3,5.7598352E-3,8.43992E-3,4.5409543E-3,3.0372473E-3,9.575562E-3,7.4316855E-3,6.3276337E-3,7.647951E-3,9.096837E-3,1.0704266E-2,7.639341E-3,9.061422E-3,9.622919E-3,7.1454863E-3,1.1798038E-2,1.0267472E-2,1.23359375E-2,1.0758523E-2],"split_indices":[0,0,0,0,0,0,0,0,0,5,0,0,0,0,0,0,4,5,5,6,0,5,0,0,4,0,0,0,0,4,4,3,0,6,0,6,0,0,0,0,0,6,0,6,6,3,4,5,0,0,0,0,5,5,0,0,4,0,0,5,0,0,0,0,0,0,0,0,0,0,0,0,0,0,0,0,0,0,0,0,0,0,0,0,0,0,0,0,0,0,0,0,0,0,0,0,0,0,0,0,0,0,0,0,0,0,0,0,0,0,0,0,0,0,0],"split_type":[0,0,0,0,0,0,0,0,0,0,0,0,0,0,0,0,0,0,0,0,0,0,0,0,0,0,0,0,0,0,0,0,0,0,0,0,0,0,0,0,0,0,0,0,0,0,0,0,0,0,0,0,0,0,0,0,0,0,0,0,0,0,0,0,0,0,0,0,0,0,0,0,0,0,0,0,0,0,0,0,0,0,0,0,0,0,0,0,0,0,0,0,0,0,0,0,0,0,0,0,0,0,0,0,0,0,0,0,0,0,0,0,0,0,0],"sum_hessian":[2.7741E4,1.3249E4,1.4492E4,6.868E3,6.381E3,6.259E3,8.233E3,2.172E3,4.696E3,4.044E3,2.337E3,7.34E2,5.525E3,5.045E3,3.188E3,1.094E3,1.078E3,2.099E3,2.597E3,3.189E3,8.55E2,1.271E3,1.066E3,2.35E2,4.99E2,4.345E3,1.18E3,2.66E3,2.385E3,2.52E3,6.68E2,7.97E2,2.81E2,1.677E3,4.22E2,2.083E3,5.14E2,2.264E3,9.25E2,7.3E1,7.82E2,9.99E2,2.72E2,6.51E2,4.15E2,1.25E2,1.1E2,3.72E2,1.27E2,1.619E3,2.726E3,1.065E3,1.15E2,2.21E2,2.439E3,1.122E3,1.263E3,1.843E3,6.77E2,4.87E2,1.81E2,4.47E2,3.5E2,1.214E3,4.63E2,1.53E3,5.53E2,4.29E2,8.5E1,1.331E3,9.33E2,6.4E2,2.85E2,1.9E1,5.4E1,2.42E2,5.4E2,7.01E2,2.98E2,9.1E1,1.81E2,4.99E2,1.52E2,3.23E2,9.2E1,8.2E1,4.3E1,8.6E1,2.4E1,2.72E2,1E2,7E1,5.7E1,4.28E2,1.191E3,1.526E3,1.2E3,9.63E2,1.02E2,9.2E1,2.3E1,1.78E2,4.3E1,4.28E2,2.011E3,9.09E2,2.13E2,9.06E2,3.57E2,1.683E3,1.6E2,4.17E2,2.6E2,3.37E2,1.5E2],"tree_param":{"num_deleted":"0","num_feature":"7","num_nodes":"115","size_leaf_vector":"1"}},{"base_weights":[-9.74718E-4,-1.4857809E-1,1.320931E-1,-2.2445777E-1,-6.668757E-2,2.0958968E-1,6.872917E-2,-2.6849964E-1,-2.108153E-1,9.400152E-3,-9.890238E-2,1.670239E-1,2.414496E-1,1.3229368E-2,1.1296445E-1,-1.4151751E-2,-2.5836313E-1,-2.2315606E-1,-1.9825521E-1,3.2628465E-2,-4.0651795E-2,-1.2516074E-1,-7.4003905E-2,1.9077563E-1,1.0114122E-1,2.566599E-1,2.0947699E-1,-1.9721873E-3,4.0111415E-2,9.228283E-2,1.4198712E-1,-1.2570265E-2,-1.3887502E-2,-1.9651555E-1,-2.3125616E-1,-1.902024E-1,-2.1513098E-1,6.9143206E-2,-2.9861217E-2,-6.454454E-2,-1.373421E-2,-1.3501072E-1,-1.06563434E-1,-8.630988E-2,-4.0337842E-2,1.243245E-1,1.9803269E-1,1.2839136E-1,7.476769E-2,2.3104237E-1,2.7913672E-1,2.0006841E-1,2.8508317E-1,4.117043E-2,-1.2136098E-2,8.6958334E-2,3.1095281E-2,7.411663E-2,1.02947116E-1,1.9763556E-1,1.3117369E-1,-8.875972E-3,-1.2444516E-2,-1.2693298E-2,-1.1189785E-2,-8.978148E-3,-1.0361214E-2,-1.2160348E-2,-1.0031391E-2,1.9644848E-3,5.226178E-3,-3.1405003E-3,3.0543937E-4,-3.4474928E-3,3.193549E-3,1.1505575E-3,-1.2872836E-3,-4.7795284E-3,-7.1289944E-3,-6.237542E-3,-1.7795208E-3,-2.5088675E-3,-5.721183E-3,-3.0033633E-3,-8.5597736E-4,8.320321E-3,5.273672E-3,1.057703E-2,8.510455E-3,9.199753E-3,4.9744546E-3,2.7748721E-3,6.0074986E-3,1.2095555E-2,1.0640083E-2,1.3316805E-2,1.5486027E-2,9.697762E-3,1.6683208E-2,1.4831811E-2,4.711592E-3,1.1348926E-3,9.639574E-3,-2.5485298E-3,-3.3367472E-4,2.9230178E-3,1.3352697E-2,-6.301157E-3,1.6340729E-3,3.1185206E-3,6.2628873E-3,9.405E-3,4.8355116E-3,7.5523317E-4,1.0393291E-2,5.9812064E-3,7.7324845E-3],"categories":[],"categories_nodes":[],"categories_segments":[],"categories_sizes":[],"default_left":[0,0,0,0,0,0,0,0,0,0,0,0,0,0,0,0,0,0,0,0,0,0,0,0,0,0,0,0,0,0,0,0,0,0,0,0,0,0,0,0,0,0,0,0,0,0,0,0,0,0,0,0,0,0,0,0,0,0,0,0,0,0,0,0,0,0,0,0,0,0,0,0,0,0,0,0,0,0,0,0,0,0,0,0,0,0,0,0,0,0,0,0,0,0,0,0,0,0,0,0,0,0,0,0,0,0,0,0,0,0,0,0,0,0,0,0,0],"id":4,"left_children":[1,3,5,7,9,11,13,15,17,19,21,23,25,27,29,-1,31,33,35,37,39,41,43,45,47,49,51,53,55,57,59,-1,-1,61,63,65,67,69,71,73,75,77,79,81,83,85,87,89,91,93,95,97,99,101,103,105,107,109,111,113,115,-1,-1,-1,-1,-1,-1,-1,-1,-1,-1,-1,-1,-1,-1,-1,-1,-1,-1,-1,-1,-1,-1,-1,-1,-1,-1,-1,-1,-1,-1,-1,-1,-1,-1,-1,-1,-1,-1,-1,-1,-1,-1,-1,-1,-1,-1,-1,-1,-1,-1,-1,-1,-1,-1,-1,-1],"loss_changes":[5.446128E2,8.167197E1,7.159033E1,4.042938E0,1.5502008E1,8.854645E0,1.9697823E1,1.6408539E-1,7.639313E-1,2.1893818E0,2.8955421E0,4.3794403E0,1.7694092E0,1.4548693E0,2.6669502E0,0E0,5.9669495E-2,5.203552E-1,3.1147003E-1,2.9364529E0,3.8306516E-1,3.8146973E-1,9.4235134E-1,9.7119904E-1,5.272565E-1,1.3957367E0,8.065376E-1,9.980819E-1,5.404742E-1,4.980049E-1,1.0909233E0,0E0,0E0,5.706749E-1,2.8138733E-1,2.8225708E-1,2.891693E-1,8.5354996E-1,5.633385E-1,1.8316841E-1,1.2505749E-1,4.0678596E-1,9.6754265E-1,1.6916971E0,2.7977693E-1,1.4586616E-1,6.6306305E-1,5.6988335E-1,3.2740164E-1,1.8463898E-1,4.44458E-1,8.197632E-1,2.630968E-1,1.211185E0,3.90417E-1,1.0467865E0,2.7327335E-1,5.7428026E-1,8.5385704E-1,5.5706215E-1,4.0366173E-1,0E0,0E0,0E0,0E0,0E0,0E0,0E0,0E0,0E0,0E0,0E0,0E0,0E0,0E0,0E0,0E0,0E0,0E0,0E0,0E0,0E0,0E0,0E0,0E0,0E0,0E0,0E0,0E0,0E0,0E0,0E0,0E0,0E0,0E0,0E0,0E0,0E0,0E0,0E0,0E0,0E0,0E0,0E0,0E0,0E0,0E0,0E0,0E0,0E0,0E0,0E0,0E0,0E0,0E0,0E0,0E0],"parents":[2147483647,0,0,1,1,2,2,3,3,4,4,5,5,6,6,7,7,8,8,9,9,10,10,11,11,12,12,13,13,14,14,16,16,17,17,18,18,19,19,20,20,21,21,22,22,23,23,24,24,25,25,26,26,27,27,28,28,29,29,30,30,33,33,34,34,35,35,36,36,37,37,38,38,39,39,40,40,41,41,42,42,43,43,44,44,45,45,46,46,47,47,48,48,49,49,50,50,51,51,52,52,53,53,54,54,55,55,56,56,57,57,58,58,59,59,60,60],"right_children":[2,4,6,8,10,12,14,16,18,20,22,24,26,28,30,-1,32,34,36,38,40,42,44,46,48,50,52,54,56,58,60,-1,-1,62,64,66,68,70,72,74,76,78,80,82,84,86,88,90,92,94,96,98,100,102,104,106,108,110,112,114,116,-1,-1,-1,-1,-1,-1,-1,-1,-1,-1,-1,-1,-1,-1,-1,-1,-1,-1,-1,-1,-1,-1,-1,-1,-1,-1,-1,-1,-1,-1,-1,-1,-1,-1,-1,-1,-1,-1,-1,-1,-1,-1,-1,-1,-1,-1,-1,-1,-1,-1,-1,-1,-1,-1,-1,-1],"split_conditions":[4.422E2,2.316E2,6.375E0,7.5E1,1.125E0,6.764E2,6.764E2,4.5E1,1.475E2,1E0,3.365E2,2.5E-1,5E-1,5.801E2,8.87E2,-1.4151751E-2,1E0,1.375E0,1E0,1E0,3.645E2,9.75E1,1E2,4.695E2,5.58E2,8.21E2,1.01E3,2.0125E1,1.5375E1,7.59E2,1.1375E1,-1.2570265E-2,-1.3887502E-2,1E0,9.3E1,1E0,6.375E0,3.7E2,3.645E2,1E0,3.88E2,8.875E0,3.158E2,3.15E1,3.88E2,4.509E2,1E0,1.375E0,6.3E2,7.77E2,1E0,5.875E0,5.625E0,1.8375E1,4.594E2,1.4E1,1.6125E1,9.9375E1,7.653E2,8.97E2,9.88E2,-8.875972E-3,-1.2444516E-2,-1.2693298E-2,-1.1189785E-2,-8.978148E-3,-1.0361214E-2,-1.2160348E-2,-1.0031391E-2,1.9644848E-3,5.226178E-3,-3.1405003E-3,3.0543937E-4,-3.4474928E-3,3.193549E-3,1.1505575E-3,-1.2872836E-3,-4.7795284E-3,-7.1289944E-3,-6.237542E-3,-1.7795208E-3,-2.5088675E-3,-5.721183E-3,-3.0033633E-3,-8.5597736E-4,8.320321E-3,5.273672E-3,1.057703E-2,8.510455E-3,9.199753E-3,4.9744546E-3,2.7748721E-3,6.0074986E-3,1.2095555E-2,1.0640083E-2,1.3316805E-2,1.5486027E-2,9.697762E-3,1.6683208E-2,1.4831811E-2,4.711592E-3,1.1348926E-3,9.639574E-3,-2.5485298E-3,-3.3367472E-4,2.9230178E-3,1.3352697E-2,-6.301157E-3,1.6340729E-3,3.1185206E-3,6.2628873E-3,9.405E-3,4.8355116E-3,7.5523317E-4,1.0393291E-2,5.9812064E-3,7.7324845E-3],"split_indices":[0,0,2,0,2,0,0,0,0,3,0,2,2,0,0,0,4,2,3,4,0,2,2,0,0,0,0,2,2,0,2,0,0,4,0,4,2,0,0,2,0,2,0,2,0,0,3,2,0,0,4,2,2,2,0,2,2,2,0,0,0,0,0,0,0,0,0,0,0,0,0,0,0,0,0,0,0,0,0,0,0,0,0,0,0,0,0,0,0,0,0,0,0,0,0,0,0,0,0,0,0,0,0,0,0,0,0,0,0,0,0,0,0,0,0,0,0],"split_type":[0,0,0,0,0,0,0,0,0,0,0,0,0,0,0,0,0,0,0,0,0,0,0,0,0,0,0,0,0,0,0,0,0,0,0,0,0,0,0,0,0,0,0,0,0,0,0,0,0,0,0,0,0,0,0,0,0,0,0,0,0,0,0,0,0,0,0,0,0,0,0,0,0,0,0,0,0,0,0,0,0,0,0,0,0,0,0,0,0,0,0,0,0,0,0,0,0,0,0,0,0,0,0,0,0,0,0,0,0,0,0,0,0,0,0,0,0],"sum_hessian":[2.7726E4,1.3145E4,1.4581E4,6.822E3,6.323E3,6.558E3,8.023E3,1.609E3,5.213E3,1.881E3,4.442E3,2.81E3,3.748E3,3.559E3,4.464E3,6.5E2,9.59E2,2.621E3,2.592E3,1.285E3,5.96E2,2.16E3,2.282E3,2.064E3,7.46E2,2.535E3,1.213E3,2.274E3,1.285E3,2.609E3,1.855E3,7.16E2,2.43E2,6.17E2,2.004E3,1.763E3,8.29E2,8.11E2,4.74E2,3.15E2,2.81E2,1.408E3,7.52E2,1.67E3,6.12E2,2.05E2,1.859E3,3.65E2,3.81E2,1.19E3,1.345E3,1.082E3,1.31E2,4.33E2,1.841E3,2.06E2,1.079E3,9.68E2,1.641E3,2.99E2,1.556E3,4.56E2,1.61E2,4.89E2,1.515E3,1.092E3,6.71E2,2.77E2,5.52E2,4.41E2,3.7E2,2.47E2,2.27E2,3.05E2,1E1,6.9E1,2.12E2,2.29E2,1.179E3,5.98E2,1.54E2,7.32E2,9.38E2,3.3E2,2.82E2,6.1E1,1.44E2,1.247E3,6.12E2,1.23E2,2.42E2,2.69E2,1.12E2,7.38E2,4.52E2,9.55E2,3.9E2,1.037E3,4.5E1,1.23E2,8E0,3.87E2,4.6E1,2.26E2,1.615E3,1.79E2,2.7E1,1E1,1.069E3,7.89E2,1.79E2,1.1E2,1.531E3,1.6E1,2.83E2,1.047E3,5.09E2],"tree_param":{"num_deleted":"0","num_feature":"7","num_nodes":"117","size_leaf_vector":"1"}},{"base_weights":[4.320687E-5,6.674969E-2,-7.6869935E-2,8.8952385E-2,1.6660465E-2,-3.4930065E-2,-8.635653E-2,1.0027029E-1,6.588187E-2,4.372576E-2,8.965074E-3,-6.775377E-2,-2.8865008E-2,-7.2490245E-2,-9.5012605E-2,1.10761896E-1,6.793521E-2,6.928988E-2,5.0924532E-2,3.391042E-2,6.791267E-2,4.278339E-3,7.176519E-2,-4.018867E-2,-1.1529182E-1,-1.9458028E-2,-4.1092277E-2,-7.566234E-2,-4.5238152E-2,-9.878544E-2,-8.0768675E-2,1.1870721E-1,4.9527804E-3,5.718989E-2,1.07692234E-1,3.3668708E-3,8.970091E-2,8.158067E-3,7.2137624E-2,4.228308E-2,-1.875781E-2,7.9508275E-2,4.0128447E-2,-7.732361E-2,6.442996E-3,1.8540946E-1,5.031809E-2,-6.450486E-2,-1.4697661E-2,-8.554751E-3,-5.697251E-2,-2.422254E-2,1.12528995E-1,-1.11988895E-1,-2.7011644E-2,-1.0250514E-1,-7.277293E-2,6.1761208E-2,-6.328945E-2,-1.1725824E-1,-9.7148135E-2,-9.7572364E-2,-7.4288115E-2,6.0658073E-3,5.7942155E-3,3.3840318E-3,1.2726499E-3,4.674047E-3,7.6721394E-3,4.219075E-3,5.5992575E-3,9.54583E-4,-3.9141956E-3,2.830416E-3,4.4263545E-3,4.586611E-4,2.5312554E-3,-1.6061377E-3,2.955919E-3,5.04991E-3,2.5182066E-3,6.705031E-4,2.250103E-3,-2.04049E-3,-5.7302252E-3,1.0333399E-3,-3.1873584E-4,1.0202007E-2,5.9718415E-3,1.1047111E-4,3.6176275E-3,-3.2623002E-4,-6.1671357E-3,2.6677747E-3,-2.8985965E-3,-3.7476637E-3,6.893943E-5,-1.4187503E-3,2.896556E-4,4.5879898E-3,9.866621E-3,-5.9535704E-3,-4.105125E-3,-9.971082E-4,-2.341376E-3,-3.983704E-3,-6.7971894E-3,-1.5484784E-3,-3.8903921E-3,2.0548168E-3,5.49961E-3,-6.8893577E-3,-2.6848267E-3,-5.2706706E-3,-6.6784658E-3,-2.451172E-3,-4.9010054E-3,-4.7206054E-3,-8.6384695E-3,-1.4688525E-3,-3.8706132E-3],"categories":[],"categories_nodes":[],"categories_segments":[],"categories_sizes":[],"default_left":[0,0,0,0,0,0,0,0,0,0,0,0,0,0,0,0,0,0,0,0,0,0,0,0,0,0,0,0,0,0,0,0,0,0,0,0,0,0,0,0,0,0,0,0,0,0,0,0,0,0,0,0,0,0,0,0,0,0,0,0,0,0,0,0,0,0,0,0,0,0,0,0,0,0,0,0,0,0,0,0,0,0,0,0,0,0,0,0,0,0,0,0,0,0,0,0,0,0,0,0,0,0,0,0,0,0,0,0,0,0,0,0,0,0,0,0,0,0,0,0,0],"id":5,"left_children":[1,3,5,7,9,11,13,15,17,19,21,23,25,27,29,31,33,35,37,39,41,43,45,47,49,51,53,55,57,59,61,63,-1,65,67,-1,69,71,73,75,77,79,81,83,85,87,89,91,93,-1,95,97,99,101,103,105,107,109,111,113,115,117,119,-1,-1,-1,-1,-1,-1,-1,-1,-1,-1,-1,-1,-1,-1,-1,-1,-1,-1,-1,-1,-1,-1,-1,-1,-1,-1,-1,-1,-1,-1,-1,-1,-1,-1,-1,-1,-1,-1,-1,-1,-1,-1,-1,-1,-1,-1,-1,-1,-1,-1,-1,-1,-1,-1,-1,-1,-1,-1],"loss_changes":[1.4301564E2,1.6600182E1,5.148155E0,2.694046E0,9.547708E-1,4.7383952E-1,1.2603683E0,2.3458328E0,1.7014122E-1,2.386607E-1,1.0510309E0,4.828322E-1,2.3142934E-1,3.47723E-1,3.4117126E-1,4.7525024E-1,7.209387E-1,1.044302E-1,5.7639635E-1,3.2005787E-1,9.0884686E-2,5.878269E-1,5.951309E-1,1.45955E-1,4.3285096E-1,7.215058E-1,8.724569E-1,2.7462387E-1,8.267179E-1,1.4382935E-1,1.415062E-1,8.872986E-3,0E0,4.4508743E-1,2.2036886E-1,0E0,1.8881321E-2,2.0186031E-1,1.03158474E-1,1.7216253E-1,1.0598013E-1,1.2330592E-1,1.0855436E-2,1.1239207E-1,5.908375E-1,2.356565E-2,2.2245032E-1,4.1197878E-1,3.4765232E-1,0E0,7.144898E-2,1.3776577E-1,5.234474E-2,2.0916104E-2,1.0175067E-1,2.571361E-1,6.894264E-1,5.7274356E-2,2.5344872E-1,6.571245E-2,1.932602E-1,7.327914E-2,1.3663197E-1,0E0,0E0,0E0,0E0,0E0,0E0,0E0,0E0,0E0,0E0,0E0,0E0,0E0,0E0,0E0,0E0,0E0,0E0,0E0,0E0,0E0,0E0,0E0,0E0,0E0,0E0,0E0,0E0,0E0,0E0,0E0,0E0,0E0,0E0,0E0,0E0,0E0,0E0,0E0,0E0,0E0,0E0,0E0,0E0,0E0,0E0,0E0,0E0,0E0,0E0,0E0,0E0,0E0,0E0,0E0,0E0,0E0,0E0],"parents":[2147483647,0,0,1,1,2,2,3,3,4,4,5,5,6,6,7,7,8,8,9,9,10,10,11,11,12,12,13,13,14,14,15,15,16,16,17,17,18,18,19,19,20,20,21,21,22,22,23,23,24,24,25,25,26,26,27,27,28,28,29,29,30,30,31,31,33,33,34,34,36,36,37,37,38,38,39,39,40,40,41,41,42,42,43,43,44,44,45,45,46,46,47,47,48,48,50,50,51,51,52,52,53,53,54,54,55,55,56,56,57,57,58,58,59,59,60,60,61,61,62,62],"right_children":[2,4,6,8,10,12,14,16,18,20,22,24,26,28,30,32,34,36,38,40,42,44,46,48,50,52,54,56,58,60,62,64,-1,66,68,-1,70,72,74,76,78,80,82,84,86,88,90,92,94,-1,96,98,100,102,104,106,108,110,112,114,116,118,120,-1,-1,-1,-1,-1,-1,-1,-1,-1,-1,-1,-1,-1,-1,-1,-1,-1,-1,-1,-1,-1,-1,-1,-1,-1,-1,-1,-1,-1,-1,-1,-1,-1,-1,-1,-1,-1,-1,-1,-1,-1,-1,-1,-1,-1,-1,-1,-1,-1,-1,-1,-1,-1,-1,-1,-1,-1,-1],"split_conditions":[2.725E1,5E0,4.7E1,1E0,8.125E0,2.9875E1,8.8625E1,5E-1,1E0,7.25E0,2.5125E1,2.9E1,3.925E1,8.5E1,1E0,1E0,3.625E0,2.5E-1,2E0,7E0,1E0,8.625E0,2.5875E1,2.8E1,2.95E1,3.9E1,4.0375E1,4.9875E1,8.55E1,9.3E1,9.9375E1,1E0,4.9527804E-3,2.25E0,4.5E0,3.3668708E-3,8.75E-1,1.875E0,3.125E0,5.25E0,1E0,1E0,7.5E0,8.375E0,1.5375E1,1E0,2.625E1,2.7625E1,2.8375E1,-8.554751E-3,1E0,3.7625E1,1E0,1E0,1E0,4.85E1,5.4E1,1E0,8.6E1,9.1125E1,9.3625E1,9.9125E1,1E2,6.0658073E-3,5.7942155E-3,3.3840318E-3,1.2726499E-3,4.674047E-3,7.6721394E-3,4.219075E-3,5.5992575E-3,9.54583E-4,-3.9141956E-3,2.830416E-3,4.4263545E-3,4.586611E-4,2.5312554E-3,-1.6061377E-3,2.955919E-3,5.04991E-3,2.5182066E-3,6.705031E-4,2.250103E-3,-2.04049E-3,-5.7302252E-3,1.0333399E-3,-3.1873584E-4,1.0202007E-2,5.9718415E-3,1.1047111E-4,3.6176275E-3,-3.2623002E-4,-6.1671357E-3,2.6677747E-3,-2.8985965E-3,-3.7476637E-3,6.893943E-5,-1.4187503E-3,2.896556E-4,4.5879898E-3,9.866621E-3,-5.9535704E-3,-4.105125E-3,-9.971082E-4,-2.341376E-3,-3.983704E-3,-6.7971894E-3,-1.5484784E-3,-3.8903921E-3,2.0548168E-3,5.49961E-3,-6.8893577E-3,-2.6848267E-3,-5.2706706E-3,-6.6784658E-3,-2.451172E-3,-4.9010054E-3,-4.7206054E-3,-8.6384695E-3,-1.4688525E-3,-3.8706132E-3],"split_indices":[2,2,2,3,2,2,2,2,2,2,2,2,2,2,5,4,2,2,2,2,4,2,2,2,2,2,2,2,2,2,2,5,0,2,2,0,2,2,2,2,5,3,2,2,2,3,2,2,2,0,6,2,5,5,4,2,2,4,2,2,2,2,2,0,0,0,0,0,0,0,0,0,0,0,0,0,0,0,0,0,0,0,0,0,0,0,0,0,0,0,0,0,0,0,0,0,0,0,0,0,0,0,0,0,0,0,0,0,0,0,0,0,0,0,0,0,0,0,0,0,0],"split_type":[0,0,0,0,0,0,0,0,0,0,0,0,0,0,0,0,0,0,0,0,0,0,0,0,0,0,0,0,0,0,0,0,0,0,0,0,0,0,0,0,0,0,0,0,0,0,0,0,0,0,0,0,0,0,0,0,0,0,0,0,0,0,0,0,0,0,0,0,0,0,0,0,0,0,0,0,0,0,0,0,0,0,0,0,0,0,0,0,0,0,0,0,0,0,0,0,0,0,0,0,0,0,0,0,0,0,0,0,0,0,0,0,0,0,0,0,0,0,0,0,0],"sum_hessian":[2.7873E4,1.4927E4,1.2946E4,1.0342E4,4.585E3,2.389E3,1.0557E4,6.936E3,3.406E3,1.014E3,3.571E3,3.71E2,2.018E3,4.061E3,6.496E3,5.235E3,1.701E3,2.771E3,6.35E2,7.23E2,2.91E2,3.324E3,2.47E2,2.36E2,1.35E2,1.142E3,8.76E2,3.636E3,4.25E2,5.131E3,1.365E3,3.113E3,2.122E3,1.341E3,3.6E2,2.533E3,2.38E2,2.11E2,4.24E2,6.24E2,9.9E1,2.04E2,8.7E1,8.5E1,3.239E3,3.8E1,2.09E2,1.2E2,1.16E2,6.8E1,6.7E1,1.103E3,3.9E1,1.44E2,7.32E2,3.5E2,3.286E3,6.1E1,3.64E2,4.12E2,4.719E3,3.76E2,9.89E2,1.596E3,1.517E3,1.007E3,3.34E2,2.77E2,8.3E1,1.96E2,4.2E1,1.88E2,2.3E1,2.2E2,2.04E2,1.26E2,4.98E2,8.5E1,1.4E1,1.16E2,8.8E1,1.4E1,7.3E1,4.4E1,4.1E1,1.535E3,1.704E3,2.8E1,1E1,6.6E1,1.43E2,6.1E1,5.9E1,4.5E1,7.1E1,5.1E1,1.6E1,9.69E2,1.34E2,3.3E1,6E0,1.14E2,3E1,5.41E2,1.91E2,2.1E2,1.4E2,3.54E2,2.932E3,4.4E1,1.7E1,4E1,3.24E2,2.43E2,1.69E2,8.5E1,4.634E3,3.63E2,1.3E1,6.5E1,9.24E2],"tree_param":{"num_deleted":"0","num_feature":"7","num_nodes":"121","size_leaf_vector":"1"}},{"base_weights":[5.2325835E-4,-1.4475879E-1,1.2221287E-2,-2.2179201E-1,-9.985946E-2,-3.444485E-2,1.8951794E-2,-2.5470337E-1,-1.9576052E-1,-1.2894438E-1,-8.516845E-2,-4.25391E-2,-7.6163537E-3,2.4873305E-2,6.483039E-3,-1.3087071E-2,-1.0997294E-2,-1.7711592E-1,-1.0657677E-2,-1.3505179E-1,-1.01415984E-1,-7.0788816E-2,-1.09093554E-1,-5.425101E-2,-2.0482136E-2,-1.6631449E-2,1.7168166E-2,3.543003E-2,1.6845832E-2,2.4992945E-3,2.2276077E-2,-1.603554E-1,-2.1507917E-1,-1.4417365E-1,-5.8736866E-3,-3.9266287E-3,-1.229421E-1,-9.5109425E-2,-5.377864E-2,-1.3605016E-1,-9.5174626E-2,-1.7140087E-2,-5.848775E-2,-3.7532054E-2,5.7045966E-3,2.9661662E-3,-2.0827336E-2,3.345603E-2,3.2631014E-3,3.0267863E-2,6.10484E-2,-6.623452E-2,1.7574254E-2,-6.138945E-2,3.18426E-3,2.4709994E-2,-4.8854756E-3,-7.4710064E-3,-9.035387E-3,-9.0229E-3,-1.2193957E-2,-7.689729E-3,-6.70344E-3,-7.814517E-3,-4.005596E-3,-3.5237197E-3,-5.8413004E-3,-1.2153046E-3,-3.4760968E-3,-5.7240957E-3,-9.54287E-3,-3.1166675E-3,-6.3571366E-3,-2.1063203E-3,1.796311E-3,-5.8865137E-3,-2.5420587E-3,2.4597705E-4,-2.3026634E-3,-5.096252E-4,6.624974E-4,-1.5786724E-3,-3.2190958E-4,1.3828399E-3,1.8512405E-3,4.2402657E-4,-6.4482604E-4,1.2165079E-3,2.1569158E-3,5.544353E-3,2.3768728E-3,-3.8413901E-3,-2.0987422E-3,1.2423483E-3,7.016832E-4,-4.871998E-4,-5.721581E-3,5.124067E-4,-8.0501144E-5,9.38568E-4,1.9018458E-3,-8.308003E-4,7.8769925E-4],"categories":[],"categories_nodes":[],"categories_segments":[],"categories_sizes":[],"default_left":[0,0,0,0,0,0,0,0,0,0,0,0,0,0,0,0,0,0,0,0,0,0,0,0,0,0,0,0,0,0,0,0,0,0,0,0,0,0,0,0,0,0,0,0,0,0,0,0,0,0,0,0,0,0,0,0,0,0,0,0,0,0,0,0,0,0,0,0,0,0,0,0,0,0,0,0,0,0,0,0,0,0,0,0,0,0,0,0,0,0,0,0,0,0,0,0,0,0,0,0,0,0,0],"id":6,"left_children":[1,3,5,7,9,11,13,15,17,19,21,23,25,27,29,-1,-1,31,-1,33,35,37,39,41,43,45,47,49,51,53,55,57,59,61,-1,-1,63,65,67,69,71,73,75,77,79,-1,81,83,85,87,89,91,93,95,97,99,101,-1,-1,-1,-1,-1,-1,-1,-1,-1,-1,-1,-1,-1,-1,-1,-1,-1,-1,-1,-1,-1,-1,-1,-1,-1,-1,-1,-1,-1,-1,-1,-1,-1,-1,-1,-1,-1,-1,-1,-1,-1,-1,-1,-1,-1,-1],"loss_changes":[4.6935535E1,7.0959396E0,8.028396E0,5.986862E-1,5.4534626E-1,6.993549E-1,1.6491404E0,2.3399353E-2,1.0071564E-1,5.943823E-2,2.908988E-1,6.382537E-1,1.6741477E-1,1.2828484E0,4.5255792E-1,0E0,0E0,1.00403786E-1,0E0,3.9665222E-2,3.1230032E-2,2.203505E-1,1.086185E-1,2.5308037E-1,3.8418823E-1,1.7620055E-1,4.5187593E-2,8.631754E-1,5.2191854E-1,2.5164956E-1,9.5912635E-2,6.6046715E-3,1.7809391E-2,1.5463829E-3,0E0,0E0,4.6040058E-2,1.1106944E-1,1.4818066E-1,1.0581672E-1,2.1989751E-1,2.2294402E-1,6.5086794E-1,1.8869281E-1,4.0917784E-2,0E0,8.03576E-2,8.800626E-4,9.299344E-3,4.1513872E-1,7.32739E-1,1.6049385E-2,2.1932197E-1,1.6598757E-1,1.9257979E-1,1.0454708E-1,2.9315185E-2,0E0,0E0,0E0,0E0,0E0,0E0,0E0,0E0,0E0,0E0,0E0,0E0,0E0,0E0,0E0,0E0,0E0,0E0,0E0,0E0,0E0,0E0,0E0,0E0,0E0,0E0,0E0,0E0,0E0,0E0,0E0,0E0,0E0,0E0,0E0,0E0,0E0,0E0,0E0,0E0,0E0,0E0,0E0,0E0,0E0,0E0],"parents":[2147483647,0,0,1,1,2,2,3,3,4,4,5,5,6,6,7,7,8,8,9,9,10,10,11,11,12,12,13,13,14,14,17,17,19,19,20,20,21,21,22,22,23,23,24,24,25,25,26,26,27,27,28,28,29,29,30,30,31,31,32,32,33,33,36,36,37,37,38,38,39,39,40,40,41,41,42,42,43,43,44,44,46,46,47,47,48,48,49,49,50,50,51,51,52,52,53,53,54,54,55,55,56,56],"right_children":[2,4,6,8,10,12,14,16,18,20,22,24,26,28,30,-1,-1,32,-1,34,36,38,40,42,44,46,48,50,52,54,56,58,60,62,-1,-1,64,66,68,70,72,74,76,78,80,-1,82,84,86,88,90,92,94,96,98,100,102,-1,-1,-1,-1,-1,-1,-1,-1,-1,-1,-1,-1,-1,-1,-1,-1,-1,-1,-1,-1,-1,-1,-1,-1,-1,-1,-1,-1,-1,-1,-1,-1,-1,-1,-1,-1,-1,-1,-1,-1,-1,-1,-1,-1,-1,-1],"split_conditions":[2.7256537E2,2.6871692E2,2.7823682E2,2.6579935E2,2.7029922E2,1E0,1E0,1E0,2.6781195E2,1E0,2.7176697E2,1E0,2.7697565E2,2.9060495E2,3.0233966E2,-1.3087071E-2,-1.0997294E-2,1E0,-1.0657677E-2,1E0,2.6954358E2,2.7096112E2,2.720584E2,2.7324515E2,2.7633798E2,2.7276328E2,2.7757874E2,2.885429E2,2.9070602E2,2.7860028E2,3.08077E2,1E0,2.6690228E2,2.6954358E2,-5.8736866E-3,-3.9266287E-3,2.6993857E2,2.7064554E2,2.711855E2,1E0,2.7232248E2,2.7297946E2,2.7399365E2,2.7324515E2,2.7697565E2,2.9661662E-3,2.754151E2,2.7724915E2,2.780907E2,1E0,2.8894324E2,1E0,2.9549033E2,2.784434E2,2.8925674E2,3.059698E2,3.0902563E2,-7.4710064E-3,-9.035387E-3,-9.0229E-3,-1.2193957E-2,-7.689729E-3,-6.70344E-3,-7.814517E-3,-4.005596E-3,-3.5237197E-3,-5.8413004E-3,-1.2153046E-3,-3.4760968E-3,-5.7240957E-3,-9.54287E-3,-3.1166675E-3,-6.3571366E-3,-2.1063203E-3,1.796311E-3,-5.8865137E-3,-2.5420587E-3,2.4597705E-4,-2.3026634E-3,-5.096252E-4,6.624974E-4,-1.5786724E-3,-3.2190958E-4,1.3828399E-3,1.8512405E-3,4.2402657E-4,-6.4482604E-4,1.2165079E-3,2.1569158E-3,5.544353E-3,2.3768728E-3,-3.8413901E-3,-2.0987422E-3,1.2423483E-3,7.016832E-4,-4.871998E-4,-5.721581E-3,5.124067E-4,-8.0501144E-5,9.38568E-4,1.9018458E-3,-8.308003E-4,7.8769925E-4],"split_indices":[1,1,1,1,1,5,3,5,1,5,1,6,1,1,1,0,0,3,0,6,1,1,1,1,1,1,1,1,1,1,1,6,1,1,0,0,1,1,1,4,1,1,1,1,1,0,1,1,1,5,1,6,1,1,1,1,1,0,0,0,0,0,0,0,0,0,0,0,0,0,0,0,0,0,0,0,0,0,0,0,0,0,0,0,0,0,0,0,0,0,0,0,0,0,0,0,0,0,0,0,0,0,0],"split_type":[0,0,0,0,0,0,0,0,0,0,0,0,0,0,0,0,0,0,0,0,0,0,0,0,0,0,0,0,0,0,0,0,0,0,0,0,0,0,0,0,0,0,0,0,0,0,0,0,0,0,0,0,0,0,0,0,0,0,0,0,0,0,0,0,0,0,0,0,0,0,0,0,0,0,0,0,0,0,0,0,0,0,0,0,0,0,0,0,0,0,0,0,0,0,0,0,0,0,0,0,0,0,0],"sum_hessian":[2.7615E4,2.057E3,2.5558E4,7.56E2,1.301E3,3.221E3,2.2337E4,3.3E2,4.26E2,4.34E2,8.67E2,2.474E3,7.47E2,1.5144E4,7.193E3,2.69E2,6.1E1,2.11E2,2.15E2,3.52E2,8.2E1,5.44E2,3.23E2,1.615E3,8.59E2,5.48E2,1.99E2,6.54E3,8.604E3,5.745E3,1.448E3,1.5E2,6.1E1,2.27E2,1.25E2,4.2E1,4E1,2.22E2,3.22E2,1.07E2,2.16E2,1.66E2,1.449E3,5.2E2,3.39E2,2.8E1,5.2E2,9.1E1,1.08E2,5.445E3,1.095E3,7.4E1,8.53E3,6E1,5.685E3,1.329E3,1.19E2,1.03E2,4.7E1,3.1E1,3E1,1.09E2,1.18E2,2.1E1,1.9E1,1.06E2,1.16E2,1.13E2,2.09E2,7.9E1,2.8E1,1.08E2,1.08E2,1.13E2,5.3E1,1.64E2,1.285E3,8.7E1,4.33E2,1.09E2,2.3E2,2.97E2,2.23E2,3.8E1,5.3E1,8.2E1,2.6E1,3.728E3,1.717E3,2.32E2,8.63E2,5E1,2.4E1,2.791E3,5.739E3,3.1E1,2.9E1,2.298E3,3.387E3,9.21E2,4.08E2,7.6E1,4.3E1],"tree_param":{"num_deleted":"0","num_feature":"7","num_nodes":"103","size_leaf_vector":"1"}},{"base_weights":[2.0669891E-4,-1.3983919E-1,1.2510835E-1,-2.1158974E-1,-6.449607E-2,1.9324747E-1,6.918447E-2,-2.5124168E-1,-2.0014063E-1,1.276389E-4,-9.101022E-2,1.496827E-1,2.2294289E-1,1.6819598E-2,1.102526E-1,-2.6294288E-1,-2.4202275E-1,-2.0564085E-1,-1.7854051E-1,-1.472257E-2,5.7434376E-2,-1.17356226E-1,-6.5085396E-2,1.6680035E-1,1.0097324E-1,2.4017559E-1,1.9130085E-1,3.296293E-3,4.4116605E-2,9.255466E-2,1.392368E-1,-2.1993884E-1,-1.3259172E-2,-1.2936167E-2,-2.3696256E-1,-2.1246737E-1,-1.8796976E-1,-1.3991597E-1,-1.8877797E-1,-4.0556256E-2,5.3357113E-2,-1.1109708E-1,6.4605765E-2,-1.2780787E-1,-9.785583E-2,-7.697959E-2,-3.349138E-2,1.0637106E-1,1.7377195E-1,1.5692946E-1,8.1628814E-2,2.1531554E-1,2.6348358E-1,1.6019459E-1,2.2575647E-1,-5.6359466E-2,9.174766E-3,1.3409337E-1,4.0165428E-2,9.402229E-2,4.439803E-2,1.966324E-1,1.280684E-1,1.0803038E-2,-1.3879381E-2,2.9932463E-3,-1.1897413E-2,-1.0975341E-2,-9.754504E-3,-7.856185E-3,-9.8225055E-3,-3.2554325E-3,-7.7306055E-3,-1.115464E-2,-8.895042E-3,-3.2884998E-3,-6.005137E-4,-5.8040284E-3,3.0747913E-3,-6.453659E-3,3.9636083E-3,2.128382E-3,4.501165E-3,-5.5435435E-3,-7.168393E-3,-5.7746484E-3,-1.1343957E-3,-2.319013E-3,-5.032837E-3,-2.2432718E-3,-4.843509E-4,6.295739E-3,3.344325E-3,1.0422286E-2,7.930617E-3,8.953769E-3,3.7747764E-3,3.393655E-3,7.7926465E-3,1.134979E-2,9.435455E-3,1.2521914E-2,1.4699742E-2,1.3162548E-4,8.196075E-3,1.0799016E-2,1.3433225E-2,-6.0361763E-3,-7.9743814E-4,1.8461216E-3,-5.160686E-4,3.7238363E-3,1.7957533E-2,1.4836158E-3,3.4110774E-3,4.154049E-3,5.14416E-3,9.669056E-5,7.034238E-3,7.3185796E-3,1.0552353E-2,6.0268026E-3,8.917592E-3],"categories":[],"categories_nodes":[],"categories_segments":[],"categories_sizes":[],"default_left":[0,0,0,0,0,0,0,0,0,0,0,0,0,0,0,0,0,0,0,0,0,0,0,0,0,0,0,0,0,0,0,0,0,0,0,0,0,0,0,0,0,0,0,0,0,0,0,0,0,0,0,0,0,0,0,0,0,0,0,0,0,0,0,0,0,0,0,0,0,0,0,0,0,0,0,0,0,0,0,0,0,0,0,0,0,0,0,0,0,0,0,0,0,0,0,0,0,0,0,0,0,0,0,0,0,0,0,0,0,0,0,0,0,0,0,0,0,0,0,0,0,0,0],"id":7,"left_children":[1,3,5,7,9,11,13,15,17,19,21,23,25,27,29,31,33,35,37,39,41,43,45,47,49,51,53,55,57,59,61,63,-1,-1,65,67,69,71,73,75,77,79,81,83,85,87,89,91,93,95,97,99,101,103,105,107,109,111,113,115,117,119,121,-1,-1,-1,-1,-1,-1,-1,-1,-1,-1,-1,-1,-1,-1,-1,-1,-1,-1,-1,-1,-1,-1,-1,-1,-1,-1,-1,-1,-1,-1,-1,-1,-1,-1,-1,-1,-1,-1,-1,-1,-1,-1,-1,-1,-1,-1,-1,-1,-1,-1,-1,-1,-1,-1,-1,-1,-1,-1,-1,-1],"loss_changes":[4.8596167E2,7.078757E1,5.5945343E1,2.9950256E0,1.0948912E1,8.529449E0,1.7346447E1,9.805298E-2,5.8226013E-1,1.5837374E0,3.0871048E0,2.222721E0,2.0991821E0,1.3092146E0,2.3062096E0,4.207611E-3,1.0604858E-2,4.6020508E-1,3.9471054E-1,2.601595E0,4.7007275E-1,4.4525337E-1,8.5646725E-1,8.1819534E-1,7.459812E-1,1.4167938E0,1.455761E0,8.3269197E-1,4.123435E-1,1.9442368E-1,1.0722427E0,1.0151004E0,0E0,0E0,2.0881271E-1,3.2206726E-1,2.736206E-1,2.3949242E-1,2.734661E-1,7.7078295E-1,5.6839323E-1,6.498544E-2,2.0230496E-1,3.6861038E-1,1.042069E0,1.1980095E0,1.693269E-1,1.520865E-1,9.0205383E-1,3.092947E-1,5.234082E-1,3.4127426E-1,4.4699097E-1,4.3117523E-1,2.1798706E-1,5.5208695E-1,1.1694223E0,6.3069254E-1,3.2975984E-1,2.557373E-1,3.4727085E-1,1.6979313E-1,5.223923E-1,0E0,0E0,0E0,0E0,0E0,0E0,0E0,0E0,0E0,0E0,0E0,0E0,0E0,0E0,0E0,0E0,0E0,0E0,0E0,0E0,0E0,0E0,0E0,0E0,0E0,0E0,0E0,0E0,0E0,0E0,0E0,0E0,0E0,0E0,0E0,0E0,0E0,0E0,0E0,0E0,0E0,0E0,0E0,0E0,0E0,0E0,0E0,0E0,0E0,0E0,0E0,0E0,0E0,0E0,0E0,0E0,0E0,0E0,0E0,0E0],"parents":[2147483647,0,0,1,1,2,2,3,3,4,4,5,5,6,6,7,7,8,8,9,9,10,10,11,11,12,12,13,13,14,14,15,15,16,16,17,17,18,18,19,19,20,20,21,21,22,22,23,23,24,24,25,25,26,26,27,27,28,28,29,29,30,30,31,31,34,34,35,35,36,36,37,37,38,38,39,39,40,40,41,41,42,42,43,43,44,44,45,45,46,46,47,47,48,48,49,49,50,50,51,51,52,52,53,53,54,54,55,55,56,56,57,57,58,58,59,59,60,60,61,61,62,62],"right_children":[2,4,6,8,10,12,14,16,18,20,22,24,26,28,30,32,34,36,38,40,42,44,46,48,50,52,54,56,58,60,62,64,-1,-1,66,68,70,72,74,76,78,80,82,84,86,88,90,92,94,96,98,100,102,104,106,108,110,112,114,116,118,120,122,-1,-1,-1,-1,-1,-1,-1,-1,-1,-1,-1,-1,-1,-1,-1,-1,-1,-1,-1,-1,-1,-1,-1,-1,-1,-1,-1,-1,-1,-1,-1,-1,-1,-1,-1,-1,-1,-1,-1,-1,-1,-1,-1,-1,-1,-1,-1,-1,-1,-1,-1,-1,-1,-1,-1,-1,-1,-1,-1,-1],"split_conditions":[4.422E2,2.283E2,6.375E0,7.17E1,1.125E0,6.59E2,6.764E2,4.5E1,1E0,1E0,3.365E2,5E-1,2.5E-1,5.875E2,9.01E2,2.2625E1,4.5E0,1E0,2.5E-1,1E0,2.394E2,9.75E1,1E2,4.695E2,5.02E2,8.16E2,9.01E2,4.552E2,8.375E0,8.92E2,1.1375E1,1.71E1,-1.3259172E-2,-1.2936167E-2,4.75E0,9.3625E1,2.5E-1,9.6E1,1.048E2,3.645E2,2.394E2,8.75E-1,3.7E2,3.9E1,3.158E2,3.15E1,4.028E2,4.628E2,5.25E2,5E0,6.3E2,7.77E2,1E0,6.703E2,1.016E3,4.8125E1,4.8125E1,8.125E0,1E0,7.73E2,6.9875E1,7.5E0,1.022E3,1.0803038E-2,-1.3879381E-2,2.9932463E-3,-1.1897413E-2,-1.0975341E-2,-9.754504E-3,-7.856185E-3,-9.8225055E-3,-3.2554325E-3,-7.7306055E-3,-1.115464E-2,-8.895042E-3,-3.2884998E-3,-6.005137E-4,-5.8040284E-3,3.0747913E-3,-6.453659E-3,3.9636083E-3,2.128382E-3,4.501165E-3,-5.5435435E-3,-7.168393E-3,-5.7746484E-3,-1.1343957E-3,-2.319013E-3,-5.032837E-3,-2.2432718E-3,-4.843509E-4,6.295739E-3,3.344325E-3,1.0422286E-2,7.930617E-3,8.953769E-3,3.7747764E-3,3.393655E-3,7.7926465E-3,1.134979E-2,9.435455E-3,1.2521914E-2,1.4699742E-2,1.3162548E-4,8.196075E-3,1.0799016E-2,1.3433225E-2,-6.0361763E-3,-7.9743814E-4,1.8461216E-3,-5.160686E-4,3.7238363E-3,1.7957533E-2,1.4836158E-3,3.4110774E-3,4.154049E-3,5.14416E-3,9.669056E-5,7.034238E-3,7.3185796E-3,1.0552353E-2,6.0268026E-3,8.917592E-3],"split_indices":[0,0,2,0,2,0,0,0,5,5,0,2,2,0,0,2,2,6,2,6,0,2,2,0,0,0,0,0,2,0,2,0,0,0,2,2,2,0,0,0,0,2,0,2,0,2,0,0,0,2,0,0,4,0,0,2,2,2,4,0,2,2,0,0,0,0,0,0,0,0,0,0,0,0,0,0,0,0,0,0,0,0,0,0,0,0,0,0,0,0,0,0,0,0,0,0,0,0,0,0,0,0,0,0,0,0,0,0,0,0,0,0,0,0,0,0,0,0,0,0,0,0,0],"split_type":[0,0,0,0,0,0,0,0,0,0,0,0,0,0,0,0,0,0,0,0,0,0,0,0,0,0,0,0,0,0,0,0,0,0,0,0,0,0,0,0,0,0,0,0,0,0,0,0,0,0,0,0,0,0,0,0,0,0,0,0,0,0,0,0,0,0,0,0,0,0,0,0,0,0,0,0,0,0,0,0,0,0,0,0,0,0,0,0,0,0,0,0,0,0,0,0,0,0,0,0,0,0,0,0,0,0,0,0,0,0,0,0,0,0,0,0,0,0,0,0,0,0,0],"sum_hessian":[2.778E4,1.3096E4,1.4684E4,6.707E3,6.389E3,6.618E3,8.066E3,1.498E3,5.209E3,1.859E3,4.53E3,2.685E3,3.933E3,3.546E3,4.52E3,6.48E2,8.5E2,4.145E3,1.064E3,1.477E3,3.82E2,2.245E3,2.285E3,1.985E3,7E2,2.542E3,1.391E3,2.372E3,1.174E3,2.809E3,1.711E3,3.7E1,6.11E2,1.86E2,6.64E2,2.982E3,1.163E3,2.26E2,8.38E2,1.071E3,4.06E2,1.5E1,3.67E2,1.458E3,7.87E2,1.659E3,6.26E2,2.07E2,1.778E3,1.78E2,5.22E2,1.235E3,1.307E3,7.34E2,6.57E2,2.12E2,2.16E3,4.8E1,1.126E3,2.725E3,8.4E1,2.76E2,1.435E3,4E0,3.3E1,2E0,6.62E2,2.114E3,8.68E2,2.55E2,9.08E2,3.8E1,1.88E2,1.97E2,6.41E2,5.68E2,5.03E2,1.8E1,3.88E2,1.4E1,1E0,1.98E2,1.69E2,7.02E2,7.56E2,6.37E2,1.5E2,7.25E2,9.34E2,4.23E2,2.03E2,1.37E2,7E1,5.37E2,1.241E3,1.39E2,3.9E1,4.42E2,8E1,8.53E2,3.82E2,9.22E2,3.85E2,1.7E1,7.17E2,5.4E2,1.17E2,8.1E1,1.31E2,8.91E2,1.269E3,3.9E1,9E0,8.21E2,3.05E2,1.224E3,1.501E3,5.9E1,2.5E1,6.4E1,2.12E2,1.251E3,1.84E2],"tree_param":{"num_deleted":"0","num_feature":"7","num_nodes":"123","size_leaf_vector":"1"}},{"base_weights":[2.8898634E-4,-1.3154241E-1,1.2038003E-1,-2.0047292E-1,-5.7500925E-2,1.8541557E-1,6.705031E-2,-2.3665614E-1,-1.8800828E-1,4.1870507E-3,-8.408984E-2,1.461574E-1,2.1327077E-1,1.0551828E-2,1.061191E-1,-1.231082E-2,-2.200435E-1,-1.9907863E-1,-1.7723256E-1,-2.100287E-2,3.2636147E-2,-1.0689256E-1,-5.697174E-2,1.641214E-1,9.836262E-2,2.2973457E-1,1.834435E-1,3.2912977E-2,-2.8000092E-3,8.81645E-2,1.3772729E-1,-2.1451588E-1,-2.3533629E-1,-1.787797E-1,-2.0544145E-1,-1.9209892E-1,-1.6892874E-1,-4.808388E-3,-5.4398667E-2,5.1884577E-2,-8.023386E-3,-1.1894176E-1,-8.626543E-2,-6.7409016E-2,-2.7298901E-2,1.7699882E-1,1.376793E-1,1.3941492E-1,7.4184805E-2,2.0957655E-1,2.4815401E-1,1.6482487E-1,2.2611034E-1,-9.997461E-2,3.8322777E-2,-1.2140028E-1,1.7791785E-3,7.300807E-2,9.8236755E-2,1.9082816E-1,1.2712969E-1,-9.999951E-3,-1.1062332E-2,-1.3743174E-2,-1.08892135E-2,-6.7038103E-3,-9.653072E-3,-1.1537003E-2,-9.939226E-3,-6.420893E-3,-9.734553E-3,-8.583444E-3,-5.4969494E-3,8.8447327E-4,-2.1186688E-3,-6.373856E-3,-2.4409618E-3,4.2148945E-3,-1.6090814E-4,2.8473907E-3,-8.420193E-4,-6.3456083E-3,-4.601038E-3,-5.4204734E-3,-1.8324396E-3,-1.6873721E-3,-4.76348E-3,-2.0010062E-3,1.5081227E-3,5.6672296E-3,9.156652E-3,6.573833E-3,9.046261E-3,9.878989E-3,5.278729E-3,3.0312275E-3,6.2589087E-3,1.1066997E-2,9.398687E-3,1.1872566E-2,1.3731958E-2,8.089982E-3,1.5259117E-2,1.0487711E-2,1.3208114E-2,-2.7169425E-3,-6.672827E-3,1.454397E-3,7.325796E-3,-4.0510264E-3,-1.0546332E-2,3.9414973E-3,-1.632023E-4,4.073315E-3,1.436882E-3,8.679174E-3,4.6433397E-3,4.264479E-3,9.92795E-3,5.9461873E-3,8.578632E-3],"categories":[],"categories_nodes":[],"categories_segments":[],"categories_sizes":[],"default_left":[0,0,0,0,0,0,0,0,0,0,0,0,0,0,0,0,0,0,0,0,0,0,0,0,0,0,0,0,0,0,0,0,0,0,0,0,0,0,0,0,0,0,0,0,0,0,0,0,0,0,0,0,0,0,0,0,0,0,0,0,0,0,0,0,0,0,0,0,0,0,0,0,0,0,0,0,0,0,0,0,0,0,0,0,0,0,0,0,0,0,0,0,0,0,0,0,0,0,0,0,0,0,0,0,0,0,0,0,0,0,0,0,0,0,0,0,0,0,0,0,0],"id":8,"left_children":[1,3,5,7,9,11,13,15,17,19,21,23,25,27,29,-1,31,33,35,37,39,41,43,45,47,49,51,53,55,57,59,61,63,65,67,69,71,73,75,77,79,81,83,85,87,89,91,93,95,97,99,101,103,105,107,109,111,113,115,117,119,-1,-1,-1,-1,-1,-1,-1,-1,-1,-1,-1,-1,-1,-1,-1,-1,-1,-1,-1,-1,-1,-1,-1,-1,-1,-1,-1,-1,-1,-1,-1,-1,-1,-1,-1,-1,-1,-1,-1,-1,-1,-1,-1,-1,-1,-1,-1,-1,-1,-1,-1,-1,-1,-1,-1,-1,-1,-1,-1,-1],"loss_changes":[4.3925247E2,6.749025E1,5.0344223E1,3.044464E0,1.0461651E1,7.121704E0,1.7611145E1,2.2392273E-1,5.729828E-1,1.3780491E0,2.7499676E0,2.3174934E0,1.8357239E0,9.7430134E-1,2.6648102E0,0E0,4.38118E-3,2.8707123E-1,2.8764343E-1,5.5138266E-1,7.071332E-1,5.912075E-1,6.293359E-1,6.47789E-1,7.291112E-1,8.613739E-1,1.0470848E0,8.808831E-1,1.1102979E0,4.5248604E-1,9.3634033E-1,3.4313202E-3,5.2532196E-2,3.610115E-1,2.744522E-1,1.2719345E-1,2.5139236E-1,5.822E-1,1.295529E-1,1.0951277E0,1.6765866E-1,3.1554413E-1,9.804735E-1,1.4100962E0,3.900877E-1,4.9622726E-1,1.5083504E-1,5.204282E-1,3.180995E-1,2.585144E-1,2.9762268E-1,3.5570335E-1,2.0101357E-1,6.609085E-2,1.1677363E0,2.5765467E-1,7.6537985E-1,4.492445E-1,7.146034E-1,2.1315002E-1,4.9965477E-1,0E0,0E0,0E0,0E0,0E0,0E0,0E0,0E0,0E0,0E0,0E0,0E0,0E0,0E0,0E0,0E0,0E0,0E0,0E0,0E0,0E0,0E0,0E0,0E0,0E0,0E0,0E0,0E0,0E0,0E0,0E0,0E0,0E0,0E0,0E0,0E0,0E0,0E0,0E0,0E0,0E0,0E0,0E0,0E0,0E0,0E0,0E0,0E0,0E0,0E0,0E0,0E0,0E0,0E0,0E0,0E0,0E0,0E0,0E0,0E0],"parents":[2147483647,0,0,1,1,2,2,3,3,4,4,5,5,6,6,7,7,8,8,9,9,10,10,11,11,12,12,13,13,14,14,16,16,17,17,18,18,19,19,20,20,21,21,22,22,23,23,24,24,25,25,26,26,27,27,28,28,29,29,30,30,31,31,32,32,33,33,34,34,35,35,36,36,37,37,38,38,39,39,40,40,41,41,42,42,43,43,44,44,45,45,46,46,47,47,48,48,49,49,50,50,51,51,52,52,53,53,54,54,55,55,56,56,57,57,58,58,59,59,60,60],"right_children":[2,4,6,8,10,12,14,16,18,20,22,24,26,28,30,-1,32,34,36,38,40,42,44,46,48,50,52,54,56,58,60,62,64,66,68,70,72,74,76,78,80,82,84,86,88,90,92,94,96,98,100,102,104,106,108,110,112,114,116,118,120,-1,-1,-1,-1,-1,-1,-1,-1,-1,-1,-1,-1,-1,-1,-1,-1,-1,-1,-1,-1,-1,-1,-1,-1,-1,-1,-1,-1,-1,-1,-1,-1,-1,-1,-1,-1,-1,-1,-1,-1,-1,-1,-1,-1,-1,-1,-1,-1,-1,-1,-1,-1,-1,-1,-1,-1,-1,-1,-1,-1],"split_conditions":[4.461E2,2.316E2,6.375E0,7.78E1,1.125E0,6.703E2,6.53E2,6.03E1,1.475E2,3.7E2,3.526E2,2.5E-1,2.5E-1,3.925E1,9.01E2,-1.231082E-2,1E0,1.625E0,9.5E0,1E0,1E0,9.5E1,1E2,1E0,5.3E2,8.21E2,9.51E2,4.552E2,4.4E1,7.59E2,1.1375E1,2.3375E1,9.125E0,9.3E1,9.3E1,1.505E2,2.283E2,1E0,2.394E2,1E0,3.82E2,1E0,3.158E2,3.15E1,4.273E2,4.695E2,6.342E2,1.375E0,6.3E2,7.77E2,1E0,6E0,1.016E3,1.3375E1,3.5375E1,4.2875E1,4.85E1,7.46E2,7.653E2,6.75E0,1.016E3,-9.999951E-3,-1.1062332E-2,-1.3743174E-2,-1.08892135E-2,-6.7038103E-3,-9.653072E-3,-1.1537003E-2,-9.939226E-3,-6.420893E-3,-9.734553E-3,-8.583444E-3,-5.4969494E-3,8.8447327E-4,-2.1186688E-3,-6.373856E-3,-2.4409618E-3,4.2148945E-3,-1.6090814E-4,2.8473907E-3,-8.420193E-4,-6.3456083E-3,-4.601038E-3,-5.4204734E-3,-1.8324396E-3,-1.6873721E-3,-4.76348E-3,-2.0010062E-3,1.5081227E-3,5.6672296E-3,9.156652E-3,6.573833E-3,9.046261E-3,9.878989E-3,5.278729E-3,3.0312275E-3,6.2589087E-3,1.1066997E-2,9.398687E-3,1.1872566E-2,1.3731958E-2,8.089982E-3,1.5259117E-2,1.0487711E-2,1.3208114E-2,-2.7169425E-3,-6.672827E-3,1.454397E-3,7.325796E-3,-4.0510264E-3,-1.0546332E-2,3.9414973E-3,-1.632023E-4,4.073315E-3,1.436882E-3,8.679174E-3,4.6433397E-3,4.264479E-3,9.92795E-3,5.9461873E-3,8.578632E-3],"split_indices":[0,0,2,0,2,0,0,0,0,0,0,2,2,2,0,0,4,2,2,3,3,2,2,3,0,0,0,0,2,0,2,2,2,0,0,0,0,4,0,4,0,6,0,2,0,0,0,2,0,0,4,2,0,2,2,2,2,0,0,2,0,0,0,0,0,0,0,0,0,0,0,0,0,0,0,0,0,0,0,0,0,0,0,0,0,0,0,0,0,0,0,0,0,0,0,0,0,0,0,0,0,0,0,0,0,0,0,0,0,0,0,0,0,0,0,0,0,0,0,0,0],"split_type":[0,0,0,0,0,0,0,0,0,0,0,0,0,0,0,0,0,0,0,0,0,0,0,0,0,0,0,0,0,0,0,0,0,0,0,0,0,0,0,0,0,0,0,0,0,0,0,0,0,0,0,0,0,0,0,0,0,0,0,0,0,0,0,0,0,0,0,0,0,0,0,0,0,0,0,0,0,0,0,0,0,0,0,0,0,0,0,0,0,0,0,0,0,0,0,0,0,0,0,0,0,0,0,0,0,0,0,0,0,0,0,0,0,0,0,0,0,0,0,0,0],"sum_hessian":[2.7743E4,1.3225E4,1.4518E4,6.848E3,6.377E3,6.54E3,7.978E3,1.75E3,5.098E3,1.921E3,4.456E3,2.717E3,3.823E3,3.262E3,4.716E3,1.102E3,6.48E2,2.506E3,2.592E3,1.019E3,9.02E2,2.419E3,2.037E3,1.973E3,7.44E2,2.459E3,1.364E3,1.219E3,2.043E3,3.01E3,1.706E3,4.87E2,1.61E2,6.05E2,1.901E3,9.21E2,1.671E3,6.87E2,3.32E2,6.12E2,2.9E2,1.524E3,8.95E2,1.506E3,5.31E2,1.323E3,6.5E2,2.74E2,4.7E2,1.18E3,1.279E3,9.53E2,4.11E2,4.7E1,1.172E3,7.5E1,1.968E3,1.205E3,1.805E3,2.81E2,1.425E3,1.64E2,3.23E2,4.5E1,1.16E2,1.49E2,4.56E2,3.89E2,1.512E3,3.8E1,8.83E2,1.595E3,7.6E1,4.3E2,2.57E2,2.2E1,3.1E2,3.85E2,2.27E2,3.4E1,2.56E2,1.173E3,3.51E2,6.18E2,2.77E2,6.83E2,8.23E2,4.35E2,9.6E1,1.18E2,1.205E3,5.72E2,7.8E1,9.9E1,1.75E2,3.73E2,9.7E1,7.58E2,4.22E2,9.18E2,3.61E2,9.35E2,1.8E1,2.92E2,1.19E2,2.1E1,2.6E1,1.081E3,9.1E1,5.3E1,2.2E1,1.2E2,1.848E3,1.011E3,1.94E2,1.18E2,1.687E3,2E1,2.61E2,1.206E3,2.19E2],"tree_param":{"num_deleted":"0","num_feature":"7","num_nodes":"121","size_leaf_vector":"1"}},{"base_weights":[2.2749299E-4,-1.2628454E-1,1.1331241E-1,-1.907836E-1,-5.605335E-2,1.7595263E-1,6.1782863E-2,-2.2688513E-1,-1.796788E-1,6.120815E-3,-8.227565E-2,1.413016E-1,2.019356E-1,1.3425876E-2,1.0017179E-1,-1.1754095E-2,-2.1446753E-1,-1.9152203E-1,-1.6790694E-1,2.7855536E-2,-3.8790986E-2,-1.05348945E-1,-6.0928166E-2,1.5693828E-1,8.340616E-2,2.160317E-1,1.7285085E-1,5.807674E-4,3.865533E-2,9.1918E-2,1.512055E-1,-1.0453121E-2,-2.283224E-1,-1.8568993E-1,-2.0821168E-1,-1.8380229E-1,-1.5901452E-1,5.0831035E-2,-1.4173709E-2,-6.0433306E-2,-1.1734697E-2,-1.15739994E-1,-8.498395E-2,-7.338953E-2,-2.7352815E-2,1.6885321E-1,1.3235793E-1,9.294142E-2,-5.736057E-2,1.9643824E-1,2.3329224E-1,1.4679426E-1,1.9939296E-1,-5.0449938E-2,5.908139E-3,1.06788546E-1,3.3628E-2,7.3880374E-2,9.986739E-2,1.613717E-1,1.0641626E-1,-1.3226478E-2,-1.0558728E-2,-8.64265E-3,-1.010242E-2,-1.1068319E-2,-9.451697E-3,-7.453757E-3,-9.5225265E-3,-8.758399E-3,-7.566596E-3,9.3557587E-4,4.3516154E-3,-2.0510217E-3,6.428894E-4,-3.1918027E-3,1.4642054E-3,1.9358766E-3,-1.3760248E-3,-4.95887E-3,-6.511488E-3,-5.244206E-3,-6.2462117E-4,-2.3652418E-3,-4.5121955E-3,-1.6657899E-3,1.6169206E-3,5.847892E-3,8.726847E-3,6.227622E-3,1.0741228E-2,-2.9779838E-3,4.8313737E-3,-7.086109E-3,3.6383432E-3,9.416896E-3,1.0881639E-2,1.1068326E-2,1.3187199E-2,7.0405602E-3,1.6081912E-2,9.328752E-3,1.2287033E-2,-5.8970526E-3,-5.181662E-4,1.5067237E-3,-5.3016003E-4,2.4138081E-3,1.0895486E-2,3.031162E-3,1.0159625E-3,3.1464284E-3,5.8687944E-3,7.4275457E-3,4.8386464E-3,7.6496922E-3,1.6514508E-2,1.0636761E-2,1.89815E-3],"categories":[],"categories_nodes":[],"categories_segments":[],"categories_sizes":[],"default_left":[0,0,0,0,0,0,0,0,0,0,0,0,0,0,0,0,0,0,0,0,0,0,0,0,0,0,0,0,0,0,0,0,0,0,0,0,0,0,0,0,0,0,0,0,0,0,0,0,0,0,0,0,0,0,0,0,0,0,0,0,0,0,0,0,0,0,0,0,0,0,0,0,0,0,0,0,0,0,0,0,0,0,0,0,0,0,0,0,0,0,0,0,0,0,0,0,0,0,0,0,0,0,0,0,0,0,0,0,0,0,0,0,0,0,0,0,0,0,0],"id":9,"left_children":[1,3,5,7,9,11,13,15,17,19,21,23,25,27,29,-1,31,33,35,37,39,41,43,45,47,49,51,53,55,57,59,-1,61,63,65,67,69,71,73,75,77,79,81,83,85,87,89,91,93,95,97,99,101,103,105,107,109,111,113,115,117,-1,-1,-1,-1,-1,-1,-1,-1,-1,-1,-1,-1,-1,-1,-1,-1,-1,-1,-1,-1,-1,-1,-1,-1,-1,-1,-1,-1,-1,-1,-1,-1,-1,-1,-1,-1,-1,-1,-1,-1,-1,-1,-1,-1,-1,-1,-1,-1,-1,-1,-1,-1,-1,-1,-1,-1,-1,-1],"loss_changes":[3.9672214E2,5.927591E1,4.7250885E1,2.6941833E0,1.0217903E1,5.9208984E0,1.491461E1,1.1253357E-1,6.9589233E-1,1.8167112E0,2.164772E0,2.5534172E0,1.5099335E0,1.1527126E0,1.872757E0,0E0,7.953644E-4,2.1401978E-1,3.4209442E-1,1.2116365E0,3.5472625E-1,4.381485E-1,9.5695305E-1,6.310463E-1,8.173914E-1,8.125076E-1,8.262367E-1,6.413429E-1,4.0744257E-1,5.458107E-1,2.6604557E-1,0E0,5.0308228E-2,3.7098694E-1,1.2566566E-1,1.87706E-1,1.8346786E-1,9.413755E-1,3.227414E-1,1.0475063E-1,2.168977E-1,3.228283E-1,1.0359144E0,7.303715E-1,2.2247055E-1,4.2173004E-1,4.450693E-1,3.244815E-1,4.384453E-1,1.6417313E-1,4.2970276E-1,6.1166E-1,3.1654167E-1,6.02102E-1,8.5473925E-1,5.226412E-1,4.0079463E-1,5.5661726E-1,3.8861275E-1,6.6412926E-1,8.507136E-1,0E0,0E0,0E0,0E0,0E0,0E0,0E0,0E0,0E0,0E0,0E0,0E0,0E0,0E0,0E0,0E0,0E0,0E0,0E0,0E0,0E0,0E0,0E0,0E0,0E0,0E0,0E0,0E0,0E0,0E0,0E0,0E0,0E0,0E0,0E0,0E0,0E0,0E0,0E0,0E0,0E0,0E0,0E0,0E0,0E0,0E0,0E0,0E0,0E0,0E0,0E0,0E0,0E0,0E0,0E0,0E0,0E0,0E0],"parents":[2147483647,0,0,1,1,2,2,3,3,4,4,5,5,6,6,7,7,8,8,9,9,10,10,11,11,12,12,13,13,14,14,16,16,17,17,18,18,19,19,20,20,21,21,22,22,23,23,24,24,25,25,26,26,27,27,28,28,29,29,30,30,32,32,33,33,34,34,35,35,36,36,37,37,38,38,39,39,40,40,41,41,42,42,43,43,44,44,45,45,46,46,47,47,48,48,49,49,50,50,51,51,52,52,53,53,54,54,55,55,56,56,57,57,58,58,59,59,60,60],"right_children":[2,4,6,8,10,12,14,16,18,20,22,24,26,28,30,-1,32,34,36,38,40,42,44,46,48,50,52,54,56,58,60,-1,62,64,66,68,70,72,74,76,78,80,82,84,86,88,90,92,94,96,98,100,102,104,106,108,110,112,114,116,118,-1,-1,-1,-1,-1,-1,-1,-1,-1,-1,-1,-1,-1,-1,-1,-1,-1,-1,-1,-1,-1,-1,-1,-1,-1,-1,-1,-1,-1,-1,-1,-1,-1,-1,-1,-1,-1,-1,-1,-1,-1,-1,-1,-1,-1,-1,-1,-1,-1,-1,-1,-1,-1,-1,-1,-1,-1,-1],"split_conditions":[4.422E2,2.316E2,6.375E0,7.5E1,1.125E0,6.764E2,6.764E2,5.71E1,1.475E2,1E0,3.365E2,8.75E-1,5E-1,5.875E2,9.88E2,-1.1754095E-2,1E0,1E0,9.5E0,1E0,3.7E2,9.8125E1,1E2,1E0,6.53E2,8.21E2,9.01E2,4.552E2,1.0625E1,7.73E2,6.7375E1,-1.0453121E-2,9.125E0,1E0,6.6E1,1.674E2,1.756E2,3.7E2,3.645E2,1E0,3.88E2,3.9E1,3.158E2,2.725E1,4.311E2,4.695E2,6.53E2,4.461E2,4E0,1E0,1E0,5.875E0,1.01E3,4.8125E1,4.8125E1,6.342E2,6.113E2,9.9375E1,8.375E0,6.4125E1,1.002E3,-1.3226478E-2,-1.0558728E-2,-8.64265E-3,-1.010242E-2,-1.1068319E-2,-9.451697E-3,-7.453757E-3,-9.5225265E-3,-8.758399E-3,-7.566596E-3,9.3557587E-4,4.3516154E-3,-2.0510217E-3,6.428894E-4,-3.1918027E-3,1.4642054E-3,1.9358766E-3,-1.3760248E-3,-4.95887E-3,-6.511488E-3,-5.244206E-3,-6.2462117E-4,-2.3652418E-3,-4.5121955E-3,-1.6657899E-3,1.6169206E-3,5.847892E-3,8.726847E-3,6.227622E-3,1.0741228E-2,-2.9779838E-3,4.8313737E-3,-7.086109E-3,3.6383432E-3,9.416896E-3,1.0881639E-2,1.1068326E-2,1.3187199E-2,7.0405602E-3,1.6081912E-2,9.328752E-3,1.2287033E-2,-5.8970526E-3,-5.181662E-4,1.5067237E-3,-5.3016003E-4,2.4138081E-3,1.0895486E-2,3.031162E-3,1.0159625E-3,3.1464284E-3,5.8687944E-3,7.4275457E-3,4.8386464E-3,7.6496922E-3,1.6514508E-2,1.0636761E-2,1.89815E-3],"split_indices":[0,0,2,0,2,0,0,0,0,3,0,2,2,0,0,0,4,4,2,4,0,2,2,3,0,0,0,0,2,0,2,0,2,3,2,0,0,0,0,2,0,2,0,2,0,0,0,0,2,4,4,2,0,2,2,0,0,2,2,2,0,0,0,0,0,0,0,0,0,0,0,0,0,0,0,0,0,0,0,0,0,0,0,0,0,0,0,0,0,0,0,0,0,0,0,0,0,0,0,0,0,0,0,0,0,0,0,0,0,0,0,0,0,0,0,0,0,0,0],"split_type":[0,0,0,0,0,0,0,0,0,0,0,0,0,0,0,0,0,0,0,0,0,0,0,0,0,0,0,0,0,0,0,0,0,0,0,0,0,0,0,0,0,0,0,0,0,0,0,0,0,0,0,0,0,0,0,0,0,0,0,0,0,0,0,0,0,0,0,0,0,0,0,0,0,0,0,0,0,0,0,0,0,0,0,0,0,0,0,0,0,0,0,0,0,0,0,0,0,0,0,0,0,0,0,0,0,0,0,0,0,0,0,0,0,0,0,0,0,0,0],"sum_hessian":[2.7728E4,1.3087E4,1.4641E4,6.821E3,6.266E3,6.607E3,8.034E3,1.6E3,5.221E3,1.859E3,4.407E3,2.834E3,3.773E3,3.556E3,4.478E3,9.53E2,6.47E2,2.595E3,2.626E3,1.253E3,6.06E2,2.116E3,2.291E3,2.23E3,6.04E2,2.537E3,1.236E3,2.357E3,1.199E3,3.857E3,6.21E2,4.77E2,1.7E2,1.932E3,6.63E2,9.35E2,1.691E3,8.1E2,4.43E2,3.36E2,2.7E2,1.398E3,7.18E2,1.67E3,6.21E2,1.498E3,7.32E2,5.66E2,3.8E1,1.194E3,1.343E3,6.27E2,6.09E2,2.22E2,2.135E3,8.1E1,1.118E3,1.183E3,2.674E3,5.04E2,1.17E2,5E1,1.2E2,1.089E3,8.43E2,3.87E2,2.76E2,1.54E2,7.81E2,5.38E2,1.153E3,4.3E2,3.8E2,2.22E2,2.21E2,3.24E2,1.2E1,6.4E1,2.06E2,6.56E2,7.42E2,5.63E2,1.55E2,6.57E2,1.013E3,5.65E2,5.6E1,1.5E2,1.348E3,6.71E2,6.1E1,1.3E1,5.53E2,2.3E1,1.5E1,8.71E2,3.23E2,9.71E2,3.72E2,6.08E2,1.9E1,4.81E2,1.28E2,8.2E1,1.4E2,8.65E2,1.27E3,5.4E1,2.7E1,3.68E2,7.5E2,9.47E2,2.36E2,1.57E2,2.517E3,4.82E2,2.2E1,4.5E1,7.2E1],"tree_param":{"num_deleted":"0","num_feature":"7","num_nodes":"119","size_leaf_vector":"1"}},{"base_weights":[5.529071E-4,-1.1882259E-1,1.0756535E-1,-1.7923164E-1,-5.1314972E-2,1.6821405E-1,5.8761574E-2,-2.0816828E-1,-1.6630712E-1,5.1986263E-3,-7.539837E-2,1.295872E-1,1.945311E-1,1.4053937E-2,9.424291E-2,-1.1068619E-2,-1.9466816E-1,-1.7825735E-1,-1.5704486E-1,-1.7165637E-2,3.116648E-2,-9.9813074E-2,-5.382511E-2,1.4426157E-1,8.5367754E-2,2.0795444E-1,1.698301E-1,1.4397756E-3,3.97304E-2,8.5529186E-2,1.4989035E-1,-1.662066E-1,-1.0128697E-2,-1.7206085E-1,-1.9576283E-1,-1.5983549E-1,-1.2355358E-1,-1.9159246E-3,-4.9982745E-2,1.5544419E-2,8.925336E-2,-1.09829664E-1,-8.065203E-2,-6.581864E-2,-3.1652074E-2,1.5539306E-1,1.2160957E-1,1.1329044E-1,5.189222E-2,1.9123432E-1,2.2411406E-1,1.14945985E-1,1.8476112E-1,2.0141376E-2,-1.1561294E-2,6.81664E-2,2.1572486E-2,6.2966615E-2,9.56669E-2,4.8229557E-2,1.5343907E-1,-7.276095E-3,-1.1358912E-2,-8.184982E-3,-9.181667E-3,-1.0474202E-2,-8.851014E-3,-8.583645E-3,-7.6659517E-3,-7.3479265E-3,-3.22792E-3,1.0178827E-3,-1.8832892E-3,-2.7268054E-3,4.7174203E-3,3.4131636E-3,1.11131585E-5,5.605458E-3,2.7727853E-3,-4.451118E-3,-5.9009865E-3,-5.0071487E-3,-1.9480773E-4,-1.8592715E-3,-4.416888E-3,1.292323E-2,-1.7434141E-3,9.002029E-3,7.05811E-3,4.6782247E-3,6.3915006E-3,8.603188E-3,4.2796745E-3,-1.3648717E-3,3.686304E-3,1.0093856E-2,8.626123E-3,1.0680708E-2,1.2472387E-2,6.8565817E-3,-7.3648465E-4,8.859667E-3,1.20625105E-2,-4.9259365E-3,1.5728815E-3,-2.075257E-3,2.2549788E-4,2.1566804E-3,6.6991076E-3,1.2885527E-4,3.7513662E-3,2.4573521E-3,5.837953E-3,6.086175E-3,4.332354E-3,3.524998E-4,9.3415035E-3,8.89912E-3,6.511954E-3],"categories":[],"categories_nodes":[],"categories_segments":[],"categories_sizes":[],"default_left":[0,0,0,0,0,0,0,0,0,0,0,0,0,0,0,0,0,0,0,0,0,0,0,0,0,0,0,0,0,0,0,0,0,0,0,0,0,0,0,0,0,0,0,0,0,0,0,0,0,0,0,0,0,0,0,0,0,0,0,0,0,0,0,0,0,0,0,0,0,0,0,0,0,0,0,0,0,0,0,0,0,0,0,0,0,0,0,0,0,0,0,0,0,0,0,0,0,0,0,0,0,0,0,0,0,0,0,0,0,0,0,0,0,0,0,0,0,0,0],"id":10,"left_children":[1,3,5,7,9,11,13,15,17,19,21,23,25,27,29,-1,31,33,35,37,39,41,43,45,47,49,51,53,55,57,59,61,-1,63,65,67,69,71,73,75,77,79,81,83,85,87,89,91,93,95,97,99,101,103,105,107,109,111,113,115,117,-1,-1,-1,-1,-1,-1,-1,-1,-1,-1,-1,-1,-1,-1,-1,-1,-1,-1,-1,-1,-1,-1,-1,-1,-1,-1,-1,-1,-1,-1,-1,-1,-1,-1,-1,-1,-1,-1,-1,-1,-1,-1,-1,-1,-1,-1,-1,-1,-1,-1,-1,-1,-1,-1,-1,-1,-1,-1],"loss_changes":[3.534622E2,5.332788E1,4.3174866E1,2.5466766E0,8.4088955E0,6.5874023E0,1.2825388E1,3.3605957E-1,5.006561E-1,1.0731838E0,2.2763119E0,1.7001114E0,1.246872E0,1.1591344E0,2.173092E0,0E0,2.0484543E-1,1.9171906E-1,2.3249817E-1,4.9685255E-1,7.7447104E-1,3.8094902E-1,6.1009455E-1,4.8036194E-1,6.110406E-1,6.3288116E-1,1.0989838E0,5.8401394E-1,6.0729265E-1,8.86034E-1,2.1230602E-1,2.6457882E-1,0E0,1.1923981E-1,1.0076141E-1,1.6559982E-1,2.832377E-1,5.4143906E-1,2.1216077E-1,5.4522717E-1,1.3360035E-1,2.1631432E-1,1.048337E0,9.59393E-1,7.6480323E-1,4.3898773E-1,1.0265446E-1,5.6966734E-1,5.241754E-1,2.1131897E-1,2.8347015E-1,8.5071707E-1,4.159546E-1,1.325745E0,6.820974E-1,7.5044703E-1,7.3190653E-1,8.952484E-1,6.214371E-1,1.2424804E-1,3.116293E-1,0E0,0E0,0E0,0E0,0E0,0E0,0E0,0E0,0E0,0E0,0E0,0E0,0E0,0E0,0E0,0E0,0E0,0E0,0E0,0E0,0E0,0E0,0E0,0E0,0E0,0E0,0E0,0E0,0E0,0E0,0E0,0E0,0E0,0E0,0E0,0E0,0E0,0E0,0E0,0E0,0E0,0E0,0E0,0E0,0E0,0E0,0E0,0E0,0E0,0E0,0E0,0E0,0E0,0E0,0E0,0E0,0E0,0E0],"parents":[2147483647,0,0,1,1,2,2,3,3,4,4,5,5,6,6,7,7,8,8,9,9,10,10,11,11,12,12,13,13,14,14,16,16,17,17,18,18,19,19,20,20,21,21,22,22,23,23,24,24,25,25,26,26,27,27,28,28,29,29,30,30,31,31,33,33,34,34,35,35,36,36,37,37,38,38,39,39,40,40,41,41,42,42,43,43,44,44,45,45,46,46,47,47,48,48,49,49,50,50,51,51,52,52,53,53,54,54,55,55,56,56,57,57,58,58,59,59,60,60],"right_children":[2,4,6,8,10,12,14,16,18,20,22,24,26,28,30,-1,32,34,36,38,40,42,44,46,48,50,52,54,56,58,60,62,-1,64,66,68,70,72,74,76,78,80,82,84,86,88,90,92,94,96,98,100,102,104,106,108,110,112,114,116,118,-1,-1,-1,-1,-1,-1,-1,-1,-1,-1,-1,-1,-1,-1,-1,-1,-1,-1,-1,-1,-1,-1,-1,-1,-1,-1,-1,-1,-1,-1,-1,-1,-1,-1,-1,-1,-1,-1,-1,-1,-1,-1,-1,-1,-1,-1,-1,-1,-1,-1,-1,-1,-1,-1,-1,-1,-1,-1],"split_conditions":[4.422E2,2.356E2,6.375E0,8.97E1,1.125E0,6.59E2,6.764E2,6.03E1,1.475E2,3.7E2,3.365E2,5E-1,2.5E-1,5.875E2,9.88E2,-1.1068619E-2,2.5E-1,1E0,2.283E2,1E0,1E0,9.8125E1,9.4E1,1E0,5.58E2,8.21E2,7.73E2,4.8125E1,3.8375E1,7.73E2,6.75E0,1E0,-1.0128697E-2,1E0,6.6E1,9.5E0,9.7E1,1E0,1E0,3.88E2,4.088E2,2.634E2,3.158E2,2.7625E1,9.4375E1,5.25E2,4.868E2,1.375E0,1E0,7.73E2,1E0,7.59E2,1.016E3,4.552E2,8.275E1,2.625E1,1E2,9.9375E1,1.8125E1,1E0,2.725E1,-7.276095E-3,-1.1358912E-2,-8.184982E-3,-9.181667E-3,-1.0474202E-2,-8.851014E-3,-8.583645E-3,-7.6659517E-3,-7.3479265E-3,-3.22792E-3,1.0178827E-3,-1.8832892E-3,-2.7268054E-3,4.7174203E-3,3.4131636E-3,1.11131585E-5,5.605458E-3,2.7727853E-3,-4.451118E-3,-5.9009865E-3,-5.0071487E-3,-1.9480773E-4,-1.8592715E-3,-4.416888E-3,1.292323E-2,-1.7434141E-3,9.002029E-3,7.05811E-3,4.6782247E-3,6.3915006E-3,8.603188E-3,4.2796745E-3,-1.3648717E-3,3.686304E-3,1.0093856E-2,8.626123E-3,1.0680708E-2,1.2472387E-2,6.8565817E-3,-7.3648465E-4,8.859667E-3,1.20625105E-2,-4.9259365E-3,1.5728815E-3,-2.075257E-3,2.2549788E-4,2.1566804E-3,6.6991076E-3,1.2885527E-4,3.7513662E-3,2.4573521E-3,5.837953E-3,6.086175E-3,4.332354E-3,3.524998E-4,9.3415035E-3,8.89912E-3,6.511954E-3],"split_indices":[0,0,2,0,2,0,0,0,0,0,0,2,2,0,0,0,2,4,0,3,6,2,2,3,0,0,0,2,2,0,2,4,0,3,2,2,2,4,2,0,0,0,0,2,2,0,0,2,2,0,4,0,0,0,2,2,2,2,2,3,2,0,0,0,0,0,0,0,0,0,0,0,0,0,0,0,0,0,0,0,0,0,0,0,0,0,0,0,0,0,0,0,0,0,0,0,0,0,0,0,0,0,0,0,0,0,0,0,0,0,0,0,0,0,0,0,0,0,0],"split_type":[0,0,0,0,0,0,0,0,0,0,0,0,0,0,0,0,0,0,0,0,0,0,0,0,0,0,0,0,0,0,0,0,0,0,0,0,0,0,0,0,0,0,0,0,0,0,0,0,0,0,0,0,0,0,0,0,0,0,0,0,0,0,0,0,0,0,0,0,0,0,0,0,0,0,0,0,0,0,0,0,0,0,0,0,0,0,0,0,0,0,0,0,0,0,0,0,0,0,0,0,0,0,0,0,0,0,0,0,0,0,0,0,0,0,0,0,0,0,0],"sum_hessian":[2.7667E4,1.3078E4,1.4589E4,6.901E3,6.177E3,6.504E3,8.085E3,2.126E3,4.775E3,1.846E3,4.331E3,2.638E3,3.866E3,3.578E3,4.507E3,1.067E3,1.059E3,2.077E3,2.698E3,9.92E2,8.54E2,2.03E3,2.301E3,1.979E3,6.59E2,2.5E3,1.366E3,2.4E3,1.178E3,3.899E3,6.08E2,2.35E2,8.24E2,1.542E3,5.35E2,2.487E3,2.11E2,6.78E2,3.14E2,6.74E2,1.8E2,1.33E3,7E2,1.492E3,8.09E2,1.323E3,6.56E2,3.58E2,3.01E2,1.235E3,1.265E3,2.94E2,1.072E3,9.84E2,1.416E3,4.58E2,7.2E2,1.211E3,2.688E3,2.1E1,5.87E2,1.78E2,5.7E1,9.04E2,6.38E2,3.03E2,2.32E2,8.74E2,1.613E3,1.5E2,6.1E1,4.18E2,2.6E2,3.05E2,9E0,1.51E2,5.23E2,1.06E2,7.4E1,3.79E2,9.51E2,5.58E2,1.42E2,6.58E2,8.34E2,8E0,8.01E2,4.8E2,8.43E2,1.22E2,5.34E2,1.13E2,2.45E2,6.5E1,2.36E2,7.81E2,4.54E2,9.01E2,3.64E2,2.51E2,4.3E1,9.49E2,1.23E2,8.5E1,8.99E2,4.94E2,9.22E2,3.33E2,1.25E2,5.32E2,1.88E2,9.65E2,2.46E2,6.88E2,2E3,1.7E1,4E0,2.82E2,3.05E2],"tree_param":{"num_deleted":"0","num_feature":"7","num_nodes":"119","size_leaf_vector":"1"}},{"base_weights":[1.150801E-4,5.1156458E-2,-5.9062064E-2,-1.5269835E-1,5.486882E-2,-1.3041954E-1,-4.0588986E-2,-1.14866225E-2,-1.2951998E-1,6.921679E-2,9.411713E-3,-1.908434E-1,-1.05327256E-1,-6.482459E-2,-3.5722144E-2,-8.3633244E-2,-1.5918997E-1,1.02547534E-1,5.4200117E-2,6.7912E-2,-6.3606123E-3,-2.0471632E-1,-1.5437838E-1,-8.38771E-3,-1.1808201E-1,4.603236E-2,-7.47572E-2,-2.7729355E-2,-5.541735E-2,-9.7339675E-2,1.0570181E-2,-2.272447E-1,-1.3505287E-1,1.19283E-1,6.30929E-2,4.837643E-2,7.1892664E-2,7.007739E-2,-1.0451374E-2,6.772914E-3,-4.4015884E-2,-2.3749769E-1,-1.9056307E-1,1.2519714E-2,-1.6515686E-1,-1.9469589E-1,1.6885208E-2,-1.4018974E-1,-9.8376915E-2,1.843148E-1,-3.2839153E-2,-3.8159903E-2,-8.499714E-2,8.126202E-2,-2.919431E-2,-1.3822657E-1,-5.0541196E-2,-5.819745E-3,-1.5018175E-3,-1.245585E-2,-6.661111E-3,-4.9423976E-3,-1.02721E-2,6.56924E-3,4.5420583E-3,8.2940434E-4,4.2740027E-3,2.8106782E-3,1.6286925E-3,4.4015497E-3,1.9840559E-3,-1.566514E-3,3.8052395E-3,-2.7269798E-5,4.0723397E-3,-1.0651507E-2,-1.9155008E-3,-1.2788449E-2,-1.0632456E-2,4.417293E-3,-9.867387E-3,-1.0517328E-2,-7.247069E-3,-1.2166098E-2,2.9098983E-3,3.9203763E-3,-7.6099864E-4,-6.290031E-3,-9.303274E-3,-5.478021E-3,-3.985537E-3,2.564793E-3,1.7201032E-2,6.0708117E-4,-7.85211E-3,-1.2105095E-2,-1.3373619E-3,-5.978373E-3,-3.1475597E-3,2.5898905E-3,6.706567E-3,-2.7423443E-3,-1.1868522E-3,-7.721105E-3,6.9090216E-3,-2.9726846E-3,-1.2791118E-3],"categories":[],"categories_nodes":[],"categories_segments":[],"categories_sizes":[],"default_left":[0,0,0,0,0,0,0,0,0,0,0,0,0,0,0,0,0,0,0,0,0,0,0,0,0,0,0,0,0,0,0,0,0,0,0,0,0,0,0,0,0,0,0,0,0,0,0,0,0,0,0,0,0,0,0,0,0,0,0,0,0,0,0,0,0,0,0,0,0,0,0,0,0,0,0,0,0,0,0,0,0,0,0,0,0,0,0,0,0,0,0,0,0,0,0,0,0,0,0,0,0,0,0,0,0,0,0],"id":11,"left_children":[1,3,5,7,9,11,13,-1,15,17,19,21,23,25,27,29,31,33,35,37,39,41,43,45,47,49,51,53,55,57,-1,59,61,63,65,67,69,71,-1,73,75,77,79,-1,81,83,85,87,89,91,93,95,97,99,101,103,105,-1,-1,-1,-1,-1,-1,-1,-1,-1,-1,-1,-1,-1,-1,-1,-1,-1,-1,-1,-1,-1,-1,-1,-1,-1,-1,-1,-1,-1,-1,-1,-1,-1,-1,-1,-1,-1,-1,-1,-1,-1,-1,-1,-1,-1,-1,-1,-1,-1,-1],"loss_changes":[8.327169E1,1.1210285E1,1.6824066E1,4.4340897E-1,9.481281E0,3.9598503E0,1.1940613E0,0E0,2.671473E-1,5.525154E0,3.2196817E0,3.5741234E-1,2.2950802E0,1.8698039E0,1.3285007E0,3.5622174E-1,1.7299771E-1,2.2579346E0,7.8165627E-1,4.590118E-1,1.3598065E0,2.1177864E-1,9.83726E-1,1.0250431E0,7.0108604E-1,1.5329691E0,5.7987404E-1,9.622936E-1,9.7745514E-1,9.910232E-2,0E0,3.0563235E-2,2.192452E-1,8.168907E-1,1.0646787E0,7.085552E-1,9.764061E-1,4.5224643E-1,0E0,1.1143306E0,6.7750823E-1,1.9615173E-2,7.592182E-1,0E0,1.6226721E-1,3.3388883E-1,3.8042888E-1,4.8553848E-1,1.7308998E-1,1.0657921E0,5.047142E-1,7.8953683E-1,9.184675E-1,1.176725E-1,8.2927656E-1,6.25674E-1,5.1099634E-1,0E0,0E0,0E0,0E0,0E0,0E0,0E0,0E0,0E0,0E0,0E0,0E0,0E0,0E0,0E0,0E0,0E0,0E0,0E0,0E0,0E0,0E0,0E0,0E0,0E0,0E0,0E0,0E0,0E0,0E0,0E0,0E0,0E0,0E0,0E0,0E0,0E0,0E0,0E0,0E0,0E0,0E0,0E0,0E0,0E0,0E0,0E0,0E0,0E0,0E0],"parents":[2147483647,0,0,1,1,2,2,3,3,4,4,5,5,6,6,8,8,9,9,10,10,11,11,12,12,13,13,14,14,15,15,16,16,17,17,18,18,19,19,20,20,21,21,22,22,23,23,24,24,25,25,26,26,27,27,28,28,29,29,31,31,32,32,33,33,34,34,35,35,36,36,37,37,39,39,40,40,41,41,42,42,44,44,45,45,46,46,47,47,48,48,49,49,50,50,51,51,52,52,53,53,54,54,55,55,56,56],"right_children":[2,4,6,8,10,12,14,-1,16,18,20,22,24,26,28,30,32,34,36,38,40,42,44,46,48,50,52,54,56,58,-1,60,62,64,66,68,70,72,-1,74,76,78,80,-1,82,84,86,88,90,92,94,96,98,100,102,104,106,-1,-1,-1,-1,-1,-1,-1,-1,-1,-1,-1,-1,-1,-1,-1,-1,-1,-1,-1,-1,-1,-1,-1,-1,-1,-1,-1,-1,-1,-1,-1,-1,-1,-1,-1,-1,-1,-1,-1,-1,-1,-1,-1,-1,-1,-1,-1,-1,-1,-1],"split_conditions":[2.7625E1,2.6922858E2,2.7648114E2,2.6579935E2,8.125E0,2.6993857E2,2.8123785E2,-1.14866225E-2,6.25E-1,2.8595392E2,2.8257938E2,2.6871692E2,4.7375E1,3.925E1,2.9836472E2,5E-1,5.625E0,5E-1,3.016476E2,2.725E1,3.0379785E2,6.525E1,3.2375E1,2.95E1,1E2,2.779201E2,7.625E1,2.8141455E2,3.0625E1,2.6871692E2,1.0570181E-2,1E0,2E1,1E0,2.7680353E2,1E0,1.125E0,2.7096112E2,-1.0451374E-2,2.5125E1,8.625E0,2.6579935E2,6.8E1,1.2519714E-2,8.275E1,2.7324515E2,3.625E1,1E0,2.7399365E2,3.5375E1,2.7986603E2,4.0375E1,9.9375E1,9.9125E1,2.8417487E2,3.074971E2,3.0497882E2,-5.819745E-3,-1.5018175E-3,-1.245585E-2,-6.661111E-3,-4.9423976E-3,-1.02721E-2,6.56924E-3,4.5420583E-3,8.2940434E-4,4.2740027E-3,2.8106782E-3,1.6286925E-3,4.4015497E-3,1.9840559E-3,-1.566514E-3,3.8052395E-3,-2.7269798E-5,4.0723397E-3,-1.0651507E-2,-1.9155008E-3,-1.2788449E-2,-1.0632456E-2,4.417293E-3,-9.867387E-3,-1.0517328E-2,-7.247069E-3,-1.2166098E-2,2.9098983E-3,3.9203763E-3,-7.6099864E-4,-6.290031E-3,-9.303274E-3,-5.478021E-3,-3.985537E-3,2.564793E-3,1.7201032E-2,6.0708117E-4,-7.85211E-3,-1.2105095E-2,-1.3373619E-3,-5.978373E-3,-3.1475597E-3,2.5898905E-3,6.706567E-3,-2.7423443E-3,-1.1868522E-3,-7.721105E-3,6.9090216E-3,-2.9726846E-3,-1.2791118E-3],"split_indices":[2,1,1,1,2,1,1,0,2,1,1,1,2,2,1,2,2,2,1,2,1,2,2,2,2,1,2,1,2,1,0,3,2,3,1,3,2,1,0,2,2,1,2,0,2,1,2,4,1,2,1,2,2,2,1,1,1,0,0,0,0,0,0,0,0,0,0,0,0,0,0,0,0,0,0,0,0,0,0,0,0,0,0,0,0,0,0,0,0,0,0,0,0,0,0,0,0,0,0,0,0,0,0,0,0,0,0],"split_type":[0,0,0,0,0,0,0,0,0,0,0,0,0,0,0,0,0,0,0,0,0,0,0,0,0,0,0,0,0,0,0,0,0,0,0,0,0,0,0,0,0,0,0,0,0,0,0,0,0,0,0,0,0,0,0,0,0,0,0,0,0,0,0,0,0,0,0,0,0,0,0,0,0,0,0,0,0,0,0,0,0,0,0,0,0,0,0,0,0,0,0,0,0,0,0,0,0,0,0,0,0,0,0,0,0,0,0],"sum_hessian":[2.7567E4,1.4801E4,1.2766E4,2.64E2,1.4537E4,2.624E3,1.0142E4,5.9E1,2.05E2,1.1049E4,3.488E3,7.68E2,1.856E3,1.694E3,8.448E3,8.2E1,1.23E2,3.43E3,7.619E3,7.4E2,2.748E3,5.53E2,2.15E2,2.16E2,1.64E3,1.39E2,1.555E3,6.011E3,2.437E3,7.9E1,3E0,3E1,9.3E1,2.407E3,1.023E3,5.735E3,1.884E3,7.35E2,5E0,2.038E3,7.1E2,1.62E2,3.91E2,5E0,2.1E2,2.5E1,1.91E2,7.7E2,8.7E2,5E1,8.9E1,3.41E2,1.214E3,7.9E1,5.932E3,1.34E2,2.303E3,6.1E1,1.8E1,2.3E1,7E0,6.3E1,3E1,1.686E3,7.21E2,3.33E2,6.9E2,3.832E3,1.903E3,1.254E3,6.3E2,4.1E1,6.94E2,1.857E3,1.81E2,2.2E1,6.88E2,8.8E1,7.4E1,9E0,3.82E2,6.2E1,1.48E2,2.1E1,4E0,6.5E1,1.26E2,5.89E2,1.81E2,5.41E2,3.29E2,2.8E1,2.2E1,6.6E1,2.3E1,1.7E1,3.24E2,4.71E2,7.43E2,5.2E1,2.7E1,1.039E3,4.893E3,1.27E2,7E0,1.696E3,6.07E2],"tree_param":{"num_deleted":"0","num_feature":"7","num_nodes":"107","size_leaf_vector":"1"}},{"base_weights":[-3.346296E-4,-1.12501495E-1,1.0109181E-1,-1.6920938E-1,-4.9339354E-2,-2.0387849E-1,1.0638359E-1,-2.013734E-1,-1.5938829E-1,-9.690522E-3,-1.3310355E-1,-1.3116081E-2,-1.746609E-1,1.3960035E-1,6.7844935E-2,-2.1108949E-1,-1.9466883E-1,-1.3879466E-1,-1.8787299E-1,-1.5725654E-1,-2.0294867E-3,-9.7146474E-2,-1.5485364E-1,-1.4820766E-1,-2.5903818E-1,1.14253625E-1,1.780684E-1,-2.841109E-2,1.0592821E-1,-1.0783593E-2,-1.6727462E-1,-1.8871777E-1,-2.1155742E-1,-1.5147205E-1,-1.05404235E-1,-1.9068009E-1,-1.5757172E-1,-9.697398E-2,-1.672104E-1,-2.563511E-2,4.007704E-2,-1.2374713E-1,-6.4428285E-2,-1.1018724E-2,-1.4825752E-1,-1.9712122E-1,9.278696E-3,-1.01709984E-1,-1.3959161E-2,1.2548742E-1,6.854544E-2,1.301979E-1,1.8838754E-1,-7.299615E-3,-8.627476E-2,5.9281237E-2,1.328048E-1,4.307635E-3,-9.940125E-3,-9.226089E-3,-1.1139531E-2,-1.0596533E-2,-3.012115E-3,-6.72977E-3,-8.608433E-3,-9.308261E-3,-4.806518E-3,-1.0364215E-2,-9.4231805E-3,-6.8473774E-3,-1.1958913E-2,1.3226504E-4,-9.837929E-3,-1.0037183E-2,-6.491399E-3,-6.701902E-4,-3.6527608E-3,3.307869E-3,-1.1085334E-3,-7.3639266E-3,-5.0037676E-3,2.1526308E-3,-4.042912E-3,-7.306959E-3,-1.1653705E-2,-1.2446708E-2,-8.727374E-3,-2.5703341E-3,1.4040822E-2,6.124747E-3,-1.2221809E-2,2.7295514E-3,6.6821626E-3,6.0449785E-4,4.124474E-3,1.0557707E-2,3.587218E-3,8.343446E-3,9.923105E-3,-2.0039617E-3,1.334973E-3,-5.512115E-3,-3.216659E-3,4.1359444E-3,-1.8374111E-4,5.864709E-3,8.302678E-3],"categories":[],"categories_nodes":[],"categories_segments":[],"categories_sizes":[],"default_left":[0,0,0,0,0,0,0,0,0,0,0,0,0,0,0,0,0,0,0,0,0,0,0,0,0,0,0,0,0,0,0,0,0,0,0,0,0,0,0,0,0,0,0,0,0,0,0,0,0,0,0,0,0,0,0,0,0,0,0,0,0,0,0,0,0,0,0,0,0,0,0,0,0,0,0,0,0,0,0,0,0,0,0,0,0,0,0,0,0,0,0,0,0,0,0,0,0,0,0,0,0,0,0,0,0,0,0],"id":12,"left_children":[1,3,5,7,9,11,13,15,17,19,21,-1,23,25,27,29,31,33,35,37,39,41,43,45,47,49,51,53,55,-1,57,59,61,63,65,67,69,71,73,75,77,79,81,-1,83,85,87,89,-1,91,93,95,97,99,101,103,105,-1,-1,-1,-1,-1,-1,-1,-1,-1,-1,-1,-1,-1,-1,-1,-1,-1,-1,-1,-1,-1,-1,-1,-1,-1,-1,-1,-1,-1,-1,-1,-1,-1,-1,-1,-1,-1,-1,-1,-1,-1,-1,-1,-1,-1,-1,-1,-1,-1,-1],"loss_changes":[3.1583954E2,4.721042E1,2.3549805E1,2.162033E0,2.0716057E1,3.7936783E-1,1.833606E1,6.44989E-2,3.0981598E0,4.7873845E0,1.5522308E0,0E0,3.388257E-1,7.483551E0,2.432889E1,9.4429016E-2,5.7762146E-2,1.2941589E0,1.598053E-1,1.0919428E-1,4.003668E0,6.517334E-1,5.06258E-1,1.0109503E0,9.5210075E-2,2.374958E0,1.4845886E0,2.2983975E0,5.9535294E0,0E0,5.444691E-1,6.297302E-2,1.0700226E-3,7.5958633E-1,6.2247086E-1,3.5942078E-2,2.9544353E-1,3.1861553E-1,1.970706E-1,1.496026E0,2.3505864E0,2.1754265E-1,6.0742056E-1,0E0,1.7004585E-1,7.351065E-2,5.4174376E-1,2.219417E-1,0E0,2.1465683E0,7.2166824E-1,2.5638885E0,5.112457E-1,1.5390478E0,2.574284E-1,2.567747E0,1.5358963E0,0E0,0E0,0E0,0E0,0E0,0E0,0E0,0E0,0E0,0E0,0E0,0E0,0E0,0E0,0E0,0E0,0E0,0E0,0E0,0E0,0E0,0E0,0E0,0E0,0E0,0E0,0E0,0E0,0E0,0E0,0E0,0E0,0E0,0E0,0E0,0E0,0E0,0E0,0E0,0E0,0E0,0E0,0E0,0E0,0E0,0E0,0E0,0E0,0E0,0E0],"parents":[2147483647,0,0,1,1,2,2,3,3,4,4,5,5,6,6,7,7,8,8,9,9,10,10,12,12,13,13,14,14,15,15,16,16,17,17,18,18,19,19,20,20,21,21,22,22,23,23,24,24,25,25,26,26,27,27,28,28,30,30,31,31,32,32,33,33,34,34,35,35,36,36,37,37,38,38,39,39,40,40,41,41,42,42,44,44,45,45,46,46,47,47,49,49,50,50,51,51,52,52,53,53,54,54,55,55,56,56],"right_children":[2,4,6,8,10,12,14,16,18,20,22,-1,24,26,28,30,32,34,36,38,40,42,44,46,48,50,52,54,56,-1,58,60,62,64,66,68,70,72,74,76,78,80,82,-1,84,86,88,90,-1,92,94,96,98,100,102,104,106,-1,-1,-1,-1,-1,-1,-1,-1,-1,-1,-1,-1,-1,-1,-1,-1,-1,-1,-1,-1,-1,-1,-1,-1,-1,-1,-1,-1,-1,-1,-1,-1,-1,-1,-1,-1,-1,-1,-1,-1,-1,-1,-1,-1,-1,-1,-1,-1,-1,-1],"split_conditions":[4.422E2,2.356E2,2.6954358E2,7.5E1,2.918357E2,2.6579935E2,2.9483203E2,4.5E1,2.877039E2,2.6871692E2,2.9601758E2,-1.3116081E-2,7.26E2,7.052E2,6.764E2,2.9561697E2,1E0,1.827E2,2.221E2,2.483E2,3.764E2,3.645E2,2.593E2,6.342E2,2.6690228E2,2.9070602E2,2.816121E2,3.0354968E2,8.27E2,-1.0783593E-2,2.9616556E2,2.9616556E2,3.063179E2,2.784434E2,2.6993857E2,9.6E1,3.0319196E2,2.6690228E2,2.6579935E2,2.8717944E2,2.8637677E2,2.940908E2,3.793E2,-1.1018724E-2,4.389E2,4.794E2,2.6871692E2,7.54E2,-1.3959161E-2,2.7399365E2,4.947E2,7.81E2,7.88E2,5.801E2,5.743E2,3.0379785E2,9.83E2,4.307635E-3,-9.940125E-3,-9.226089E-3,-1.1139531E-2,-1.0596533E-2,-3.012115E-3,-6.72977E-3,-8.608433E-3,-9.308261E-3,-4.806518E-3,-1.0364215E-2,-9.4231805E-3,-6.8473774E-3,-1.1958913E-2,1.3226504E-4,-9.837929E-3,-1.0037183E-2,-6.491399E-3,-6.701902E-4,-3.6527608E-3,3.307869E-3,-1.1085334E-3,-7.3639266E-3,-5.0037676E-3,2.1526308E-3,-4.042912E-3,-7.306959E-3,-1.1653705E-2,-1.2446708E-2,-8.727374E-3,-2.5703341E-3,1.4040822E-2,6.124747E-3,-1.2221809E-2,2.7295514E-3,6.6821626E-3,6.0449785E-4,4.124474E-3,1.0557707E-2,3.587218E-3,8.343446E-3,9.923105E-3,-2.0039617E-3,1.334973E-3,-5.512115E-3,-3.216659E-3,4.1359444E-3,-1.8374111E-4,5.864709E-3,8.302678E-3],"split_indices":[0,0,1,0,1,1,1,0,1,1,1,0,0,0,0,1,4,0,0,0,0,0,0,0,1,1,1,1,0,0,1,1,1,1,1,0,1,1,1,1,1,1,0,0,0,0,1,0,0,1,0,0,0,0,0,1,0,0,0,0,0,0,0,0,0,0,0,0,0,0,0,0,0,0,0,0,0,0,0,0,0,0,0,0,0,0,0,0,0,0,0,0,0,0,0,0,0,0,0,0,0,0,0,0,0,0,0],"split_type":[0,0,0,0,0,0,0,0,0,0,0,0,0,0,0,0,0,0,0,0,0,0,0,0,0,0,0,0,0,0,0,0,0,0,0,0,0,0,0,0,0,0,0,0,0,0,0,0,0,0,0,0,0,0,0,0,0,0,0,0,0,0,0,0,0,0,0,0,0,0,0,0,0,0,0,0,0,0,0,0,0,0,0,0,0,0,0,0,0,0,0,0,0,0,0,0,0,0,0,0,0,0,0,0,0,0,0],"sum_hessian":[2.776E4,1.3182E4,1.4578E4,6.945E3,6.237E3,2.48E2,1.433E4,1.62E3,5.325E3,4.234E3,2.003E3,8E1,1.68E2,7.695E3,6.635E3,6.49E2,9.71E2,3.094E3,2.231E3,2.08E2,4.026E3,7.57E2,1.246E3,1.3E2,3.8E1,4.641E3,3.054E3,1.881E3,4.754E3,5.84E2,6.5E1,7.27E2,2.44E2,2.24E3,8.54E2,2.037E3,1.94E2,3.1E1,1.77E2,2.58E3,1.446E3,4.16E2,3.41E2,1.11E2,1.135E3,9.9E1,3.1E1,5E0,3.3E1,3.724E3,9.17E2,5.44E2,2.51E3,1.379E3,5.02E2,1.739E3,3.015E3,7E0,5.8E1,6.53E2,7.4E1,2.43E2,1E0,1.238E3,1.002E3,8.6E1,7.68E2,2.29E2,1.808E3,1.57E2,3.7E1,1.6E1,1.5E1,9.1E1,8.6E1,2.052E3,5.28E2,1.019E3,4.27E2,2.06E2,2.1E2,4.5E1,2.96E2,1.11E3,2.5E1,2.7E1,7.2E1,2.6E1,5E0,2E0,3E0,3.85E2,3.339E3,1.82E2,7.35E2,2.27E2,3.17E2,8.06E2,1.704E3,7.02E2,6.77E2,2.38E2,2.64E2,1.267E3,4.72E2,2.059E3,9.56E2],"tree_param":{"num_deleted":"0","num_feature":"7","num_nodes":"107","size_leaf_vector":"1"}},{"base_weights":[1.7324956E-4,-1.0670959E-1,9.733009E-2,-1.6284938E-1,-4.6382453E-2,1.5125471E-1,5.33087E-2,-1.4227244E-1,-1.7611216E-1,-4.312074E-3,-1.1550252E-1,1.9001609E-1,1.10046715E-1,-2.0740765E-1,5.9746318E-2,-8.0113605E-2,-1.6448091E-1,-1.989431E-1,-1.6097924E-1,8.2138054E-2,-3.9951175E-2,-8.425287E-2,-1.4062181E-1,-1.3409816E-1,1.9564483E-1,3.1804885E-3,1.4443348E-1,-9.30237E-2,-2.1447717E-1,6.8342825E-3,8.1258774E-2,-9.636715E-2,-3.455793E-2,-1.8712088E-1,-1.2902142E-1,-1.7200351E-1,-2.1941762E-1,-1.8115716E-1,-1.4596865E-1,1.2707888E-1,2.496384E-2,-1.4347665E-1,-3.194481E-2,-1.0792774E-1,-6.304688E-2,-2.046588E-1,-1.3251895E-1,-2.2509664E-1,-4.1663013E-2,2.254734E-1,1.7059347E-1,6.3107096E-2,-2.0817628E-2,1.0762641E-1,1.6654421E-1,-1.696428E-1,1.0946047E-2,-2.5399733E-1,-1.8208331E-1,4.3433722E-2,-5.889916E-2,1.1480355E-1,3.2651056E-2,-3.9837183E-3,-8.576251E-3,-8.776131E-3,-9.2998875E-4,-1.0123294E-2,-8.649069E-3,-7.4659847E-3,-4.6031345E-3,-9.2428075E-3,-5.7304753E-3,-1.1195785E-2,-8.590125E-3,-2.7219732E-3,-9.201454E-3,-7.333938E-3,7.290487E-3,-1.041496E-2,6.8229698E-3,-1.8952936E-3,2.895969E-3,-3.4872096E-3,-8.755239E-3,-3.098772E-3,-3.1761592E-4,-6.0456907E-3,-2.0066232E-3,-7.9858815E-3,-2.9437242E-3,-1.1582056E-2,-6.8875863E-3,-7.630698E-3,-5.831193E-3,-1.1664137E-2,1.02855265E-4,3.8815208E-3,-7.5448337E-3,1.2155369E-2,9.002444E-3,6.535334E-3,1.0541222E-2,-6.56792E-5,4.3288525E-3,-3.9723289E-4,-5.9424946E-3,6.3371407E-3,1.9508429E-3,8.570189E-3,4.1437293E-3,-1.1696861E-3,-9.096417E-3,-6.8054437E-3,-1.3091114E-2,-7.867239E-3,-1.2648684E-2,-8.353703E-4,2.98941E-3,-2.2825026E-3,-6.201484E-3,5.4473393E-3,1.0533686E-2,-4.413425E-4,4.510274E-3],"categories":[],"categories_nodes":[],"categories_segments":[],"categories_sizes":[],"default_left":[0,0,0,0,0,0,0,0,0,0,0,0,0,0,0,0,0,0,0,0,0,0,0,0,0,0,0,0,0,0,0,0,0,0,0,0,0,0,0,0,0,0,0,0,0,0,0,0,0,0,0,0,0,0,0,0,0,0,0,0,0,0,0,0,0,0,0,0,0,0,0,0,0,0,0,0,0,0,0,0,0,0,0,0,0,0,0,0,0,0,0,0,0,0,0,0,0,0,0,0,0,0,0,0,0,0,0,0,0,0,0,0,0,0,0,0,0,0,0,0,0,0,0,0,0],"id":13,"left_children":[1,3,5,7,9,11,13,15,17,19,21,23,25,27,29,31,33,35,37,39,41,43,45,47,49,51,53,55,57,59,61,63,65,67,69,71,73,75,77,79,81,83,85,87,89,91,93,95,97,99,101,103,105,107,109,111,-1,113,115,117,119,121,123,-1,-1,-1,-1,-1,-1,-1,-1,-1,-1,-1,-1,-1,-1,-1,-1,-1,-1,-1,-1,-1,-1,-1,-1,-1,-1,-1,-1,-1,-1,-1,-1,-1,-1,-1,-1,-1,-1,-1,-1,-1,-1,-1,-1,-1,-1,-1,-1,-1,-1,-1,-1,-1,-1,-1,-1,-1,-1,-1,-1,-1,-1],"loss_changes":[2.8800095E2,4.4717896E1,3.447905E1,1.841629E0,1.8514147E1,1.0407715E1,1.3439537E1,3.6947174E0,1.4035187E0,1.220098E1,1.8791428E0,6.161545E0,1.1637577E1,1.3611698E-1,8.887037E0,5.216427E-1,1.5638008E0,8.7345886E-1,7.3197937E-1,2.9671183E0,2.3195477E0,5.3340054E-1,6.650696E-1,4.784863E-1,2.4319382E0,1.1115468E0,1.9320145E0,3.478503E-1,1.8546963E-1,5.4348707E0,9.047352E0,6.412325E-1,4.1964817E-1,2.2642899E-1,5.669069E-1,5.084572E-1,1.6179276E-1,3.7719345E-1,3.1995773E-1,2.0639E0,1.0588672E0,4.5652342E-1,2.0009327E0,4.4150686E-1,2.2050548E-1,2.352767E-1,3.6134338E-1,5.440557E-2,4.0263993E-1,1.1625595E0,2.8624802E0,3.3425486E-1,6.956612E-1,1.1780891E0,5.9365845E-1,1.55082345E-2,0E0,3.7238598E-2,1.4082932E-1,1.4281685E0,6.915784E-1,1.8209763E0,5.41505E0,0E0,0E0,0E0,0E0,0E0,0E0,0E0,0E0,0E0,0E0,0E0,0E0,0E0,0E0,0E0,0E0,0E0,0E0,0E0,0E0,0E0,0E0,0E0,0E0,0E0,0E0,0E0,0E0,0E0,0E0,0E0,0E0,0E0,0E0,0E0,0E0,0E0,0E0,0E0,0E0,0E0,0E0,0E0,0E0,0E0,0E0,0E0,0E0,0E0,0E0,0E0,0E0,0E0,0E0,0E0,0E0,0E0,0E0,0E0,0E0,0E0,0E0],"parents":[2147483647,0,0,1,1,2,2,3,3,4,4,5,5,6,6,7,7,8,8,9,9,10,10,11,11,12,12,13,13,14,14,15,15,16,16,17,17,18,18,19,19,20,20,21,21,22,22,23,23,24,24,25,25,26,26,27,27,28,28,29,29,30,30,31,31,32,32,33,33,34,34,35,35,36,36,37,37,38,38,39,39,40,40,41,41,42,42,43,43,44,44,45,45,46,46,47,47,48,48,49,49,50,50,51,51,52,52,53,53,54,54,55,55,57,57,58,58,59,59,60,60,61,61,62,62],"right_children":[2,4,6,8,10,12,14,16,18,20,22,24,26,28,30,32,34,36,38,40,42,44,46,48,50,52,54,56,58,60,62,64,66,68,70,72,74,76,78,80,82,84,86,88,90,92,94,96,98,100,102,104,106,108,110,112,-1,114,116,118,120,122,124,-1,-1,-1,-1,-1,-1,-1,-1,-1,-1,-1,-1,-1,-1,-1,-1,-1,-1,-1,-1,-1,-1,-1,-1,-1,-1,-1,-1,-1,-1,-1,-1,-1,-1,-1,-1,-1,-1,-1,-1,-1,-1,-1,-1,-1,-1,-1,-1,-1,-1,-1,-1,-1,-1,-1,-1,-1,-1,-1,-1,-1,-1],"split_conditions":[4.461E2,2.316E2,6.375E0,2.803792E2,2.9009192E2,2.9443283E2,2.6993857E2,2E1,2.1375E1,1.375E0,2.9579105E2,2.6954358E2,6.59E2,1.5875E1,5.908E2,1.55E2,1.203E2,2.8954187E2,1.137E2,2.8270102E2,2.6871692E2,3.526E2,2.593E2,5.544E2,2.8623975E2,2.96583E2,8.21E2,6.59E2,2.6781195E2,2.9216226E2,2.9853592E2,2.779201E2,2.6871692E2,6.35E1,2.7601764E2,2.06E2,2.186E2,2.3375E1,3.08077E2,2.6781195E2,3.158E2,2.701E2,3.27E2,2.9499393E2,2.9022296E2,4.0375E1,1.4E1,5.875E0,2.5E-1,5E-1,7.01E2,5.333E2,3.0616418E2,3.039471E2,3.077269E2,4.552E2,1.0946047E-2,2.7625E1,7.26E2,2.7633798E2,3.0531436E2,9.98E2,8.97E2,-3.9837183E-3,-8.576251E-3,-8.776131E-3,-9.2998875E-4,-1.0123294E-2,-8.649069E-3,-7.4659847E-3,-4.6031345E-3,-9.2428075E-3,-5.7304753E-3,-1.1195785E-2,-8.590125E-3,-2.7219732E-3,-9.201454E-3,-7.333938E-3,7.290487E-3,-1.041496E-2,6.8229698E-3,-1.8952936E-3,2.895969E-3,-3.4872096E-3,-8.755239E-3,-3.098772E-3,-3.1761592E-4,-6.0456907E-3,-2.0066232E-3,-7.9858815E-3,-2.9437242E-3,-1.1582056E-2,-6.8875863E-3,-7.630698E-3,-5.831193E-3,-1.1664137E-2,1.02855265E-4,3.8815208E-3,-7.5448337E-3,1.2155369E-2,9.002444E-3,6.535334E-3,1.0541222E-2,-6.56792E-5,4.3288525E-3,-3.9723289E-4,-5.9424946E-3,6.3371407E-3,1.9508429E-3,8.570189E-3,4.1437293E-3,-1.1696861E-3,-9.096417E-3,-6.8054437E-3,-1.3091114E-2,-7.867239E-3,-1.2648684E-2,-8.353703E-4,2.98941E-3,-2.2825026E-3,-6.201484E-3,5.4473393E-3,1.0533686E-2,-4.413425E-4,4.510274E-3],"split_indices":[0,0,2,1,1,1,1,2,2,2,1,1,0,2,0,0,0,1,0,1,1,0,0,0,1,1,0,0,1,1,1,1,1,0,1,0,0,2,1,1,0,0,0,1,1,2,2,2,2,2,0,0,1,1,1,0,0,2,0,1,1,0,0,0,0,0,0,0,0,0,0,0,0,0,0,0,0,0,0,0,0,0,0,0,0,0,0,0,0,0,0,0,0,0,0,0,0,0,0,0,0,0,0,0,0,0,0,0,0,0,0,0,0,0,0,0,0,0,0,0,0,0,0,0,0],"split_type":[0,0,0,0,0,0,0,0,0,0,0,0,0,0,0,0,0,0,0,0,0,0,0,0,0,0,0,0,0,0,0,0,0,0,0,0,0,0,0,0,0,0,0,0,0,0,0,0,0,0,0,0,0,0,0,0,0,0,0,0,0,0,0,0,0,0,0,0,0,0,0,0,0,0,0,0,0,0,0,0,0,0,0,0,0,0,0,0,0,0,0,0,0,0,0,0,0,0,0,0,0,0,0,0,0,0,0,0,0,0,0,0,0,0,0,0,0,0,0,0,0,0,0,0,0],"sum_hessian":[2.7732E4,1.3205E4,1.4527E4,6.839E3,6.366E3,6.528E3,7.999E3,2.685E3,4.154E3,3.958E3,2.408E3,3.362E3,3.166E3,1.92E2,7.807E3,7.08E2,1.977E3,1.651E3,2.503E3,1.155E3,2.803E3,1.075E3,1.333E3,5.7E1,3.305E3,7.71E2,2.395E3,1.2E1,1.8E2,2.257E3,5.55E3,5.21E2,1.87E2,1.204E3,7.73E2,7.17E2,9.34E2,1.063E3,1.44E3,6.46E2,5.09E2,2E2,2.603E3,5.06E2,5.69E2,1.47E2,1.186E3,2.8E1,2.9E1,1.505E3,1.8E3,2.2E2,5.51E2,9.01E2,1.494E3,1E1,2E0,7.8E1,1.02E2,1.45E3,8.07E2,3.283E3,2.267E3,4.28E2,9.3E1,1.8E1,1.69E2,5.71E2,6.33E2,4.97E2,2.76E2,5.84E2,1.33E2,8.5E2,8.4E1,2.4E1,1.039E3,1.437E3,3E0,1.7E1,6.29E2,1.75E2,3.34E2,6.1E1,1.39E2,1.197E3,1.406E3,4.24E2,8.2E1,2.2E1,5.47E2,1.03E2,4.4E1,5.2E2,6.66E2,2.7E1,1E0,1.4E1,1.5E1,1.081E3,4.24E2,9.06E2,8.94E2,5.9E1,1.61E2,4.88E2,6.3E1,7.04E2,1.97E2,1.411E3,8.3E1,1E0,9E0,6E0,7.2E1,7.8E1,2.4E1,3.1E2,1.14E3,6.72E2,1.35E2,3.096E3,1.87E2,1.318E3,9.49E2],"tree_param":{"num_deleted":"0","num_feature":"7","num_nodes":"125","size_leaf_vector":"1"}},{"base_weights":[-2.072749E-5,-1.0201254E-1,9.137146E-2,-1.5433659E-1,-4.554476E-2,1.4186591E-1,4.973424E-2,-1.770874E-1,-1.4377564E-1,4.9176055E-4,-6.5083385E-2,1.1138423E-1,1.6458115E-1,1.1827791E-2,7.975215E-2,-9.60625E-3,-1.7040735E-1,-1.4912122E-1,-1.3036205E-1,1.571292E-2,-3.1273857E-2,-8.567277E-2,-4.5717455E-2,1.3042031E-1,5.815323E-2,1.779435E-1,1.4027022E-1,4.653252E-4,3.801181E-2,6.340768E-2,1.0672314E-1,-1.6446422E-1,-1.8762875E-1,-1.5257575E-1,-1.2793182E-1,-1.4465745E-1,-1.0816977E-1,4.128939E-2,-2.6769347E-2,-4.4331495E-2,-1.6617E-2,-7.773596E-2,-1.0297794E-1,-5.755314E-2,-2.0308731E-2,1.409792E-1,1.0894573E-1,6.5046355E-2,-4.830602E-2,1.6256538E-1,1.9200698E-1,1.2027141E-1,1.610273E-1,9.333406E-3,-2.191368E-2,6.2313642E-2,2.1688672E-2,8.1070445E-2,5.8106467E-2,1.5834126E-1,9.6833274E-2,-7.108765E-3,-8.522532E-3,-1.0411545E-2,-8.8679455E-3,-7.349004E-3,-8.357413E-3,-7.532974E-3,-5.725979E-3,-3.5603417E-3,-7.374631E-3,-4.018991E-3,-6.008735E-3,8.5447275E-4,3.4520214E-3,-2.1175554E-3,-4.786879E-4,-1.7002603E-3,-4.085086E-3,1.318283E-3,-1.6176496E-3,-3.2612048E-3,-5.017148E-3,-5.5353534E-3,-3.4468963E-3,-2.7246713E-3,-8.207934E-3,7.0350305E-3,-1.2178177E-3,4.865933E-3,7.2622164E-3,3.6063232E-3,5.9043295E-3,2.8473816E-3,7.617177E-3,7.5789513E-3,-5.051172E-3,7.7484283E-3,9.087281E-3,9.110815E-3,1.0876223E-2,5.758933E-3,1.3863494E-2,7.5732954E-3,1.0052928E-2,-1.7400545E-3,7.721134E-4,-5.869987E-3,-1.6165929E-4,2.0378195E-3,6.130926E-3,-2.9683493E-3,1.5917913E-3,3.484501E-3,9.138054E-3,-1.5774431E-3,3.1523302E-3,2.4103925E-3,8.324299E-3,5.1692505E-3,2.769543E-3],"categories":[],"categories_nodes":[],"categories_segments":[],"categories_sizes":[],"default_left":[0,0,0,0,0,0,0,0,0,0,0,0,0,0,0,0,0,0,0,0,0,0,0,0,0,0,0,0,0,0,0,0,0,0,0,0,0,0,0,0,0,0,0,0,0,0,0,0,0,0,0,0,0,0,0,0,0,0,0,0,0,0,0,0,0,0,0,0,0,0,0,0,0,0,0,0,0,0,0,0,0,0,0,0,0,0,0,0,0,0,0,0,0,0,0,0,0,0,0,0,0,0,0,0,0,0,0,0,0,0,0,0,0,0,0,0,0,0,0,0,0],"id":14,"left_children":[1,3,5,7,9,11,13,15,17,19,21,23,25,27,29,-1,31,33,35,37,39,41,43,45,47,49,51,53,55,57,59,61,63,65,67,69,71,73,75,77,79,81,83,85,87,89,91,93,95,97,99,101,103,105,107,109,111,113,115,117,119,-1,-1,-1,-1,-1,-1,-1,-1,-1,-1,-1,-1,-1,-1,-1,-1,-1,-1,-1,-1,-1,-1,-1,-1,-1,-1,-1,-1,-1,-1,-1,-1,-1,-1,-1,-1,-1,-1,-1,-1,-1,-1,-1,-1,-1,-1,-1,-1,-1,-1,-1,-1,-1,-1,-1,-1,-1,-1,-1,-1],"loss_changes":[2.588326E2,3.876648E1,3.0783295E1,1.6110382E0,5.6785145E0,4.563965E0,9.133896E0,1.8373108E-1,3.1448364E-1,9.104563E-1,1.7632656E0,2.8590698E0,1.2062302E0,1.0558631E0,1.9681358E0,0E0,1.227684E-1,2.2372437E-1,4.0787506E-1,1.384279E0,1.1600751E-1,2.868824E-1,6.8629885E-1,4.5695877E-1,5.5131793E-1,4.969101E-1,5.406246E-1,4.915885E-1,4.2468536E-1,2.5671577E-1,8.468952E-1,1.2574005E-1,4.3045998E-2,2.0800018E-1,1.2662601E-1,1.5796852E-1,1.6615677E-1,5.327209E-1,1.279366E-1,1.2148011E-1,1.9632535E-1,4.109497E-1,1.6917038E-1,4.9957323E-1,4.7786817E-1,2.4526596E-1,2.2404575E-1,4.8763585E-1,5.000345E-1,1.4275551E-1,2.7765274E-1,5.205574E-1,2.2178268E-1,4.788283E-1,1.2535803E0,5.553056E-1,5.315698E-1,7.302394E-1,9.5468855E-1,2.3416567E-1,3.798313E-1,0E0,0E0,0E0,0E0,0E0,0E0,0E0,0E0,0E0,0E0,0E0,0E0,0E0,0E0,0E0,0E0,0E0,0E0,0E0,0E0,0E0,0E0,0E0,0E0,0E0,0E0,0E0,0E0,0E0,0E0,0E0,0E0,0E0,0E0,0E0,0E0,0E0,0E0,0E0,0E0,0E0,0E0,0E0,0E0,0E0,0E0,0E0,0E0,0E0,0E0,0E0,0E0,0E0,0E0,0E0,0E0,0E0,0E0,0E0,0E0],"parents":[2147483647,0,0,1,1,2,2,3,3,4,4,5,5,6,6,7,7,8,8,9,9,10,10,11,11,12,12,13,13,14,14,16,16,17,17,18,18,19,19,20,20,21,21,22,22,23,23,24,24,25,25,26,26,27,27,28,28,29,29,30,30,31,31,32,32,33,33,34,34,35,35,36,36,37,37,38,38,39,39,40,40,41,41,42,42,43,43,44,44,45,45,46,46,47,47,48,48,49,49,50,50,51,51,52,52,53,53,54,54,55,55,56,56,57,57,58,58,59,59,60,60],"right_children":[2,4,6,8,10,12,14,16,18,20,22,24,26,28,30,-1,32,34,36,38,40,42,44,46,48,50,52,54,56,58,60,62,64,66,68,70,72,74,76,78,80,82,84,86,88,90,92,94,96,98,100,102,104,106,108,110,112,114,116,118,120,-1,-1,-1,-1,-1,-1,-1,-1,-1,-1,-1,-1,-1,-1,-1,-1,-1,-1,-1,-1,-1,-1,-1,-1,-1,-1,-1,-1,-1,-1,-1,-1,-1,-1,-1,-1,-1,-1,-1,-1,-1,-1,-1,-1,-1,-1,-1,-1,-1,-1,-1,-1,-1,-1,-1,-1,-1,-1,-1,-1],"split_conditions":[4.422E2,2.316E2,6.375E0,8.97E1,1.125E0,6.764E2,6.764E2,4.5E1,9.5875E1,1E0,3.365E2,2.5E-1,2.5E-1,5.939E2,9.01E2,-9.60625E-3,1E0,2.132E2,1.756E2,1E0,3.645E2,1E0,9.8E1,1E0,6.53E2,8.21E2,9.01E2,5.515E2,3.8375E1,1.8E1,1.1375E1,1.125E0,1.2875E1,1E0,1E0,9.7E1,1.93E2,3.7E2,3.7E2,3.365E2,3.88E2,1E0,3.158E2,4.389E2,9.8875E1,4.695E2,4.947E2,6.3E2,8.75E-1,1E0,1E0,5.875E0,1.016E3,4.552E2,5.58E2,2.625E1,4.8125E1,1.7E1,2.1E1,6.75E0,9.6125E1,-7.108765E-3,-8.522532E-3,-1.0411545E-2,-8.8679455E-3,-7.349004E-3,-8.357413E-3,-7.532974E-3,-5.725979E-3,-3.5603417E-3,-7.374631E-3,-4.018991E-3,-6.008735E-3,8.5447275E-4,3.4520214E-3,-2.1175554E-3,-4.786879E-4,-1.7002603E-3,-4.085086E-3,1.318283E-3,-1.6176496E-3,-3.2612048E-3,-5.017148E-3,-5.5353534E-3,-3.4468963E-3,-2.7246713E-3,-8.207934E-3,7.0350305E-3,-1.2178177E-3,4.865933E-3,7.2622164E-3,3.6063232E-3,5.9043295E-3,2.8473816E-3,7.617177E-3,7.5789513E-3,-5.051172E-3,7.7484283E-3,9.087281E-3,9.110815E-3,1.0876223E-2,5.758933E-3,1.3863494E-2,7.5732954E-3,1.0052928E-2,-1.7400545E-3,7.721134E-4,-5.869987E-3,-1.6165929E-4,2.0378195E-3,6.130926E-3,-2.9683493E-3,1.5917913E-3,3.484501E-3,9.138054E-3,-1.5774431E-3,3.1523302E-3,2.4103925E-3,8.324299E-3,5.1692505E-3,2.769543E-3],"split_indices":[0,0,2,0,2,0,0,0,2,3,0,2,2,0,0,0,4,0,0,4,0,3,2,3,0,0,0,0,2,2,2,2,2,4,2,2,0,0,0,0,0,4,0,0,2,0,0,0,2,4,4,2,0,0,0,2,2,2,2,2,2,0,0,0,0,0,0,0,0,0,0,0,0,0,0,0,0,0,0,0,0,0,0,0,0,0,0,0,0,0,0,0,0,0,0,0,0,0,0,0,0,0,0,0,0,0,0,0,0,0,0,0,0,0,0,0,0,0,0,0,0],"split_type":[0,0,0,0,0,0,0,0,0,0,0,0,0,0,0,0,0,0,0,0,0,0,0,0,0,0,0,0,0,0,0,0,0,0,0,0,0,0,0,0,0,0,0,0,0,0,0,0,0,0,0,0,0,0,0,0,0,0,0,0,0,0,0,0,0,0,0,0,0,0,0,0,0,0,0,0,0,0,0,0,0,0,0,0,0,0,0,0,0,0,0,0,0,0,0,0,0,0,0,0,0,0,0,0,0,0,0,0,0,0,0,0,0,0,0,0,0,0,0,0,0],"sum_hessian":[2.7766E4,1.3122E4,1.4644E4,6.81E3,6.312E3,6.617E3,8.027E3,2.154E3,4.656E3,1.881E3,4.431E3,2.828E3,3.789E3,3.548E3,4.479E3,6.54E2,1.5E3,3.322E3,1.334E3,1.272E3,6.09E2,2.146E3,2.285E3,2.082E3,7.46E2,2.441E3,1.348E3,2.475E3,1.073E3,2.791E3,1.688E3,1.123E3,3.77E2,2.851E3,4.71E2,8.08E2,5.26E2,7.94E2,4.78E2,3.21E2,2.88E2,1.475E3,6.71E2,1.558E3,7.27E2,1.392E3,6.9E2,7.01E2,4.5E1,1.172E3,1.269E3,6.9E2,6.58E2,1.773E3,7.02E2,4.3E2,6.43E2,6.41E2,2.15E3,2.69E2,1.419E3,2.43E2,8.8E2,1.19E2,2.58E2,2.068E3,7.83E2,1.71E2,3E2,3.1E1,7.77E2,1.61E2,3.65E2,4.25E2,3.69E2,2.5E2,2.28E2,2.53E2,6.8E1,7.7E1,2.11E2,9.52E2,5.23E2,5.45E2,1.26E2,1.516E3,4.2E1,1.7E1,7.1E2,1.26E2,1.266E3,1.39E2,5.51E2,6.43E2,5.8E1,9E0,3.6E1,8.46E2,3.26E2,9.23E2,3.46E2,6.7E2,2E1,5.35E2,1.23E2,2.15E2,1.558E3,1.14E2,5.88E2,3.18E2,1.12E2,7.1E1,5.72E2,5.78E2,6.3E1,1.12E2,2.038E3,1.9E1,2.5E2,1.224E3,1.95E2],"tree_param":{"num_deleted":"0","num_feature":"7","num_nodes":"121","size_leaf_vector":"1"}},{"base_weights":[5.882991E-4,-9.5940135E-2,8.728087E-2,-1.4565782E-1,-4.2047635E-2,1.34463E-1,4.8175845E-2,-1.7133293E-1,-1.369417E-1,1.3365056E-3,-6.0379397E-2,1.02267094E-1,1.5846409E-1,3.2307392E-3,7.597235E-2,-1.7688903E-1,-1.6186328E-1,-1.4172466E-1,-1.1826425E-1,-2.0388724E-2,2.6381413E-2,-7.384182E-2,-3.4078036E-2,